-2
-112
127
-127
-10
-127
32
-24
-15
-81
-41
-21
9
47
-38
0
2
-10
-8
1
-2
-11
1
17
0
0
0
0
0
0
0
0
-4
-35
-2
10
1
-3
0
-10
21
30
-4
-20
-7
32
-37
-59
-3
-36
-27
-6
19
7
12
6
0
0
0
0
0
0
0
0
-52
0
-33
1
-3
18
95
-20
23
10
-33
43
-5
61
-6
5
0
-68
12
-3
13
-4
15
16
0
0
0
0
0
0
0
0
0
0
0
0
0
0
0
0
0
0
0
0
0
0
0
0
-8
40
-25
39
-127
-13
-7
5
2
86
-45
-78
-2
52
8
36
0
0
0
0
0
0
0
0
31
25
80
-45
2
83
-19
23
1
6
-17
-5
1
-17
8
5
0
0
0
0
0
0
0
0
-4
-13
1
2
-3
-1
1
-14
9
-34
-3
0
6
9
-12
-127
127
9
-16
6
4
4
127
-6
-3
-27
-7
1
-6
5
11
3
-3
-19
-2
-6
2
18
13
59
-1
30
23
10
0
-77
-35
2
0
0
0
0
0
0
0
0
40
-23
-97
-43
-2
-34
-44
-1
0
0
0
0
0
0
0
0
12
43
-62
-7
1
-92
23
29
24
-90
-9
1
-11
-1
-19
6
12
-127
10
18
-3
117
-24
-27
-21
-39
14
23
-45
-9
0
13
10
-30
-41
2
-18
110
-127
1
-20
4
15
-6
-1
19
4
10
0
0
0
0
0
0
0
0
1
2
-5
-127
2
-3
-8
127
-51
6
37
-64
-11
32
-2
-51
-1
20
18
3
8
-9
-5
3
0
0
0
0
0
0
0
0
-16
-13
6
-9
37
-5
-7
-5
2
-127
127
10
41
2
63
14
2
7
40
9
23
-11
12
7
0
0
0
0
0
0
0
0
0
0
0
0
0
0
0
0
0
0
0
0
0
0
0
0
19
27
-87
4
-19
13
-14
-2
27
32
121
30
-3
-73
-30
31
0
0
0
0
0
0
0
0
13
12
-90
13
127
92
52
17
-3
5
9
34
6
25
11
-46
0
0
0
0
0
0
0
0
14
-2
5
-2
2
1
3
3
127
22
33
10
11
-4
32
5
3
-4
-38
-4
-17
-5
-60
-2
-4
6
9
-38
3
-5
10
26
54
1
-1
-100
-10
-4
18
-64
8
-9
26
-17
89
-36
-88
-16
0
0
0
0
0
0
0
0
-3
-23
-112
-3
51
-62
44
0
0
0
0
0
0
0
0
0
-12
22
62
-13
12
127
47
19
-10
30
62
3
28
5
7
1
20
8
1
22
33
-106
-30
-38
21
47
-88
-38
-64
-11
7
-2
18
-65
-77
49
-2
-114
-14
-38
26
7
-54
33
-65
97
-3
-8
-10
4
48
51
9
-18
0
-27
-112
127
37
-58
22
86
45
120
22
12
-53
-17
-55
16
7
-3
-23
-8
52
44
-5
26
-6
34
-125
19
123
-8
-23
-47
-127
30
-126
-28
127
-18
-1
-38
120
-13
26
30
-15
55
3
-113
7
2
1
42
7
127
25
71
13
35
-127
3
124
-20
-25
127
31
127
13
36
-72
-92
67
29
3
8
61
-21
-84
-78
-30
94
-2
-28
5
29
-68
12
-127
-63
15
-20
-80
-3
85
-13
-44
71
-20
105
9
127
9
-31
4
2
3
16
-46
3
19
-20
2
35
80
48
-127
-21
-9
76
17
-8
-52
-64
-90
-6
-5
9
6
31
-16
-10
9
1
19
2
11
-104
20
24
-3
25
-21
103
16
-6
-97
-102
-85
98
18
-25
-8
-25
17
18
-4
-7
-88
-48
-16
-25
92
-36
11
2
127
21
-1
48
-76
77
-68
-12
-2
-46
-13
-8
0
18
-87
-30
11
-63
-16
-40
22
45
9
6
-5
22
-110
-127
-48
-17
30
-34
4
-28
-6
-19
-15
7
14
3
19
-127
-28
31
127
127
-29
-12
25
-60
-11
26
29
54
-6
9
-2
-26
127
-115
43
28
-14
-39
2
-127
-55
1
35
-3
-43
32
-84
-47
85
65
25
-1
127
-127
56
35
107
-74
45
28
-38
-27
24
-86
95
-127
-7
1
6
117
-37
12
-1
15
-7
6
-10
72
110
22
-38
58
38
27
63
58
-27
73
83
-59
-56
-9
-15
9
-1
-39
-5
-3
-127
-29
9
5
-38
-19
-3
-16
-120
-2
-102
69
5
-73
70
38
1
-11
48
-20
-21
46
127
116
-7
-22
62
24
118
42
-7
-27
-111
-127
78
-80
11
-55
-85
-34
3
-11
96
-76
-121
71
-55
-58
77
-31
-116
80
-39
-30
48
-50
16
-22
37
24
-127
31
-10
10
-90
103
-10
13
-8
-25
-49
0
-12
-7
-35
27
8
-30
73
-8
5
-42
-18
36
-19
1
-114
6
2
15
-10
-8
-76
-24
127
-5
-20
-18
69
-20
-34
127
12
8
48
21
16
-15
61
-7
99
11
10
6
20
-3
-18
43
43
-2
51
12
127
-106
69
-9
-18
94
91
-19
100
-127
-127
-30
-16
102
127
0
19
-21
27
2
-24
-27
28
6
4
2
79
12
20
7
19
28
-28
27
-78
23
4
-127
32
127
17
0
-3
11
89
-17
13
20
-39
13
-30
-19
0
-1
-34
-71
-43
46
-54
14
-4
26
-1
-22
2
5
48
20
-4
-92
64
110
-76
54
8
0
-16
-4
14
-127
-103
-78
-7
11
24
-18
2
54
-78
-11
-3
23
-21
10
120
-107
125
-93
3
1
-30
-16
9
117
20
11
-127
0
-54
-15
-26
5
-127
86
-15
22
-16
-19
46
86
-27
-47
-20
-3
60
-18
29
29
-25
15
-4
91
127
-71
30
-18
-20
24
-4
-127
108
-102
10
-24
-42
2
-21
-19
19
20
29
68
-3
-66
17
-21
8
26
-62
-17
1
53
34
-7
118
127
16
0
-125
127
-27
-7
32
22
127
89
-52
46
-1
-25
-82
-12
65
2
-9
-13
-13
-28
7
-28
83
-9
-36
14
26
-4
113
99
21
-18
3
3
1
-90
41
-79
17
-41
38
21
0
19
45
-25
-26
19
-26
-22
4
-100
57
-127
111
-6
-127
-6
4
127
47
-15
-127
-36
-5
10
-6
-9
-127
3
2
7
85
-20
3
124
-67
72
-89
23
-64
6
14
25
-77
40
-46
50
14
21
102
-3
43
-28
19
127
15
12
-127
-33
27
-31
32
119
0
-1
-7
-104
35
43
-63
11
0
11
-4
95
-53
-31
26
26
6
127
-17
2
-84
8
-9
111
71
2
1
109
38
-84
-83
8
36
31
-6
0
-19
-11
4
-48
-22
18
-16
57
11
49
34
-41
19
-116
2
7
-75
-2
7
92
23
8
-33
-31
-23
14
48
-3
3
14
-34
-19
-89
39
75
-79
35
-6
10
-42
-70
56
43
72
-18
-4
-23
21
65
7
-116
-117
-26
20
127
5
69
-127
-28
94
-54
-3
-13
30
46
52
112
-15
64
3
42
27
70
-24
12
77
-100
3
7
80
93
28
27
25
-85
10
-28
69
42
-4
32
4
-57
-6
16
67
127
6
62
-127
-11
1
5
-25
6
-34
26
91
33
115
1
-127
-71
32
12
-57
7
0
4
12
77
-50
127
24
-48
11
-5
-21
-22
39
45
-13
127
6
5
17
-5
36
6
69
11
-127
1
-91
-66
30
27
-37
2
-4
-2
8
-8
-72
-1
5
56
-19
0
8
28
66
23
-56
2
-3
4
-32
25
-16
31
105
2
0
2
55
-6
66
-7
-125
-26
-6
2
14
-7
31
-127
-11
-39
-15
-1
24
20
105
4
-115
-29
3
-3
-43
7
-124
21
-30
-127
-5
-10
-8
127
108
-3
-1
-58
-9
2
-2
-72
127
-7
2
-28
12
-4
-14
-41
77
34
127
-3
11
0
-11
-40
-17
8
-62
15
-127
-125
-127
-16
-36
5
-1
-32
2
-1
-46
-8
-56
35
-90
63
6
-3
45
-57
98
26
-6
23
2
-2
31
-15
-113
10
-43
17
125
127
-127
-4
-2
-22
-6
-12
101
36
-1
-12
3
21
35
-17
72
-31
24
-22
-14
99
-17
-20
47
22
-4
12
50
127
7
-3
94
36
0
-20
39
63
20
38
-24
-7
0
127
12
-1
-41
-13
-106
16
-16
6
109
2
-10
44
-127
-52
3
34
-82
96
-34
127
9
-118
117
-7
43
-5
-127
94
-3
-127
-127
-24
39
10
-102
12
85
4
-12
-1
82
49
-19
18
-35
-9
-3
12
-36
65
21
12
-18
-125
-19
-6
48
-7
39
-2
81
-24
-7
27
-54
-21
-22
-28
-101
21
24
-5
127
-23
36
2
24
2
-10
19
0
32
-10
66
-24
-115
9
-5
27
4
45
10
-12
45
-2
-33
-53
-32
4
61
-16
125
-67
-72
18
-51
22
-15
20
-64
58
84
62
119
-8
25
6
87
13
50
92
-127
28
-127
-47
-5
-32
1
-127
10
-4
-24
97
-15
110
1
-85
-109
0
-30
-70
-127
-23
-3
70
-51
-39
12
127
44
-97
27
-4
1
-87
28
113
52
83
24
-33
26
-92
0
111
89
1
-22
33
68
32
-38
-9
-104
-23
-127
64
-38
0
-99
12
-64
-22
28
-40
-14
127
-2
-34
34
8
99
-79
-102
15
29
107
-78
-127
107
-56
0
10
27
-74
77
-28
67
29
-18
-29
-89
15
-53
4
11
-25
-20
88
-5
-11
-47
78
4
9
-47
-20
-73
-82
27
-28
-11
-1
7
10
66
32
-9
39
-6
11
22
14
22
-76
-42
-23
4
8
-106
-12
40
35
7
-10
-127
13
-31
-4
107
-60
25
-6
1
-23
-121
-24
-24
127
45
-52
2
-21
84
-13
-97
-73
127
13
8
-83
-97
-90
58
-96
115
1
6
-101
-84
-87
-5
-67
13
-127
5
22
-100
-3
-40
53
27
87
2
8
-3
0
14
43
106
19
2
127
4
127
-5
55
9
-20
2
22
56
8
-127
-30
-30
-2
2
2
-103
5
-27
-22
-45
44
-6
-37
127
-24
-29
37
101
28
0
88
0
88
-9
-50
-15
4
-28
2
127
16
91
-49
-83
-33
-23
-10
-16
91
-57
121
84
-4
39
8
-22
34
-25
-127
-83
4
-46
-7
-9
-16
61
14
48
-1
-8
43
4
-118
-114
-124
-65
6
-53
16
-3
-31
37
-78
-73
-6
-9
17
71
28
127
15
21
-116
-4
47
-10
-127
-102
21
50
127
-6
54
8
-93
-10
87
94
23
127
3
-26
-84
18
-38
4
18
-62
-17
-29
-13
24
-29
-127
6
-2
-127
-1
66
-10
-94
-33
14
-37
-2
-3
-23
124
18
-9
-3
-4
9
7
-10
24
-9
0
20
-38
29
-61
97
1
-19
36
-1
-7
-87
-5
65
39
59
6
0
-20
65
13
5
-5
-16
53
-72
-19
29
13
48
-45
27
21
-23
-82
-73
13
11
-20
23
-17
-26
24
9
4
-13
42
-40
-14
-20
1
-19
10
84
-10
19
70
120
-9
34
0
-56
80
-40
34
-10
73
-16
-86
48
-20
53
-53
15
3
-22
13
41
-3
5
-3
-30
-16
11
2
-10
-8
7
11
127
-24
8
-10
21
51
27
9
0
23
-35
-47
-2
118
-30
0
-8
86
-22
127
-5
127
-28
-11
-23
-92
123
-27
-9
-11
45
-66
21
14
2
16
49
-11
-30
-111
49
-50
10
-33
66
-93
46
-37
-7
-59
-23
55
127
31
33
37
9
-8
-32
-2
70
-13
20
67
124
-10
30
1
-54
72
15
-37
7
-2
20
76
-47
-41
-25
-37
-16
16
38
23
-12
6
16
-6
40
-42
26
1
-10
-39
41
-19
-53
-16
-11
37
-21
-24
-31
7
1
-101
-127
-20
-34
58
9
-58
-2
-4
-1
12
-20
-38
3
27
61
-2
-3
2
-13
-11
-3
-28
97
-13
5
-6
-19
-5
-32
27
-9
-41
-78
-23
16
-8
-10
17
92
-19
24
-10
-40
5
20
-24
-54
-2
8
1
-27
-24
17
-13
-40
50
25
-104
-7
12
50
34
-8
-19
-8
15
-45
-41
21
-127
33
-35
-5
26
-6
-31
-39
-20
-24
-16
-4
3
-31
-27
22
-19
-39
26
-8
10
-23
-22
9
0
-24
-11
28
-15
-36
-40
-85
71
8
-44
-1
-52
4
-83
32
-16
-21
5
-111
43
-41
-11
34
-19
57
18
88
-24
17
11
-47
8
-9
-13
20
-34
1
-15
-5
7
10
-26
-9
12
4
29
-17
12
-33
10
6
-19
24
3
44
-24
-2
-127
75
8
10
-43
-107
13
14
-9
45
76
13
-12
-7
5
-55
-1
-21
14
-12
-12
20
57
122
-10
37
0
-56
-42
-26
-63
3
1
10
-18
-38
12
2
-27
-77
-12
-14
14
-10
-14
18
-3
-11
61
112
21
-13
-22
35
-74
110
-57
7
11
-57
27
-54
-27
6
112
-100
-33
-1
4
-17
-5
17
-35
-23
-6
-49
35
-44
32
47
-22
-34
81
-2
55
18
3
-4
-43
-30
-40
-82
-2
1
-62
116
-11
12
-1
16
-48
64
11
-15
-18
-4
39
-31
-32
7
-30
-9
-9
28
0
-34
-45
16
84
35
23
31
0
-21
-74
38
-24
10
-12
-68
24
43
-14
48
-7
-21
29
29
-10
-47
-50
14
-22
-13
-40
-35
-32
-80
11
78
-38
2
75
-12
-19
-29
2
29
-6
8
22
33
-32
-62
-19
46
-8
-14
28
-10
20
-4
0
19
-16
-31
7
20
2
-4
-18
44
55
-30
-4
-33
13
-33
36
28
57
11
11
-7
28
78
-26
44
-35
5
41
114
27
-46
31
127
-7
-25
6
-5
6
-18
-36
-6
-17
-8
-17
44
-8
-37
23
-47
4
-29
0
12
11
73
16
3
1
-28
12
2
1
11
-65
-7
86
-3
24
46
26
-9
-10
34
19
109
-19
23
4
-27
11
3
-91
107
-19
9
3
20
19
8
-6
-22
-6
-15
-40
-18
-17
-6
-56
51
-8
9
-27
14
-16
51
-17
-47
-16
22
17
-51
-9
25
-16
-32
11
0
12
-19
-19
7
-5
19
8
4
-7
1
7
-37
-21
-2
-17
-27
40
-58
-36
12
10
-9
-7
10
-12
-12
-27
-8
-5
32
37
33
13
56
18
-51
-37
-5
45
72
-14
-64
40
2
1
-5
13
-7
8
38
-126
36
-45
31
34
10
-99
-59
64
5
6
27
22
-32
-13
37
-39
0
15
9
-7
6
11
1
3
-17
-26
-7
3
20
79
-55
-17
-12
-34
22
-1
28
4
24
-12
5
8
44
5
-2
-8
11
7
2
3
-6
1
-23
24
85
-42
16
-11
-2
-46
37
97
-2
-25
-21
19
59
-14
19
5
26
-46
15
-35
-4
-27
-2
-40
-43
44
-2
-25
-70
-25
-22
23
20
0
-2
-81
93
-11
5
3
31
7
-10
7
-18
-12
68
-6
-49
13
-54
-21
21
-4
45
-43
13
-6
32
26
-50
-127
7
-1
16
-8
26
-2
0
-24
-5
-3
49
17
-7
3
-67
21
15
0
2
-4
28
-16
24
-27
0
2
-3
-25
48
-19
-21
17
-31
-4
-24
-3
-25
16
-2
43
-19
1
0
-3
-38
16
26
-42
-30
-3
7
-6
-98
-33
83
35
61
-1
-17
-4
-6
-5
-20
-69
20
-3
18
-67
-1
-21
-25
-46
-19
-6
4
43
18
-10
8
-4
25
2
66
4
-28
16
0
55
-16
-1
8
-11
-26
5
24
4
-50
-3
-17
38
79
-30
15
79
-55
9
30
-2
5
-1
79
-18
-127
0
-15
-6
20
-19
25
-21
4
2
-2
-84
-27
-1
-13
-49
-16
-9
-1
12
-24
17
-12
-3
33
-3
17
-12
-64
27
78
-28
-15
-3
-24
-9
-5
16
15
-62
-8
-10
35
-9
86
-20
19
-114
12
1
-42
65
-5
2
0
-68
16
2
-21
14
-21
9
-52
9
19
-2
28
16
-5
-4
-32
8
3
2
28
-6
-7
-13
17
-88
-16
-17
-13
20
-11
-12
-22
-28
-18
2
30
-7
10
-55
11
9
30
-3
-36
-78
10
-25
52
-31
27
17
73
-10
-1
2
-28
27
71
-1
-50
-9
-29
-4
-17
33
0
1
-21
12
-26
-16
-6
-48
4
2
55
-5
31
2
-8
-37
-15
-1
67
23
-43
-25
-79
-14
-35
4
-16
-40
-31
-2
-67
6
7
-4
-16
-18
-20
-8
-15
43
43
3
85
-14
73
12
-81
-32
24
10
-5
18
-51
-16
-14
-10
14
7
-5
4
-50
51
-13
1
-10
-4
-20
18
12
-12
-22
-23
7
4
-4
-21
9
0
-6
-25
3
-4
29
-13
-10
-8
-21
47
25
1
8
10
-6
-98
12
-3
-5
-1
2
-1
27
-16
24
-27
3
1
-8
-2
-40
0
-63
19
119
0
9
10
-5
-127
6
1
27
-6
-27
17
10
26
-25
-21
-45
5
29
-6
10
-15
127
-64
17
-5
-23
127
20
-6
6
-2
33
6
-29
29
-13
-10
-55
-8
-46
-2
40
75
53
27
-89
44
-93
-9
-49
-19
12
-1
-29
32
12
7
14
2
17
-16
4
2
12
1
4
-20
-47
27
-3
53
71
-6
-30
27
-23
-26
-61
-21
-18
2
-7
10
-45
9
-74
10
19
4
17
-22
-17
1
-5
-38
4
0
-29
124
-10
2
26
9
2
5
13
-48
54
-10
-16
-36
-5
12
-26
-19
-37
10
17
29
-31
2
16
-29
3
8
31
37
-7
10
14
-9
10
8
-18
20
12
-3
24
2
13
-42
-5
2
17
-1
-38
-7
-19
6
-40
39
59
-4
-25
4
5
1
78
9
-106
-3
-23
2
-2
10
-24
-47
66
6
49
46
11
-1
11
-40
23
1
6
43
-35
-33
-94
-38
-53
3
-21
26
-5
1
-92
-16
20
-1
-5
-5
52
-6
-10
-11
-3
-1
-3
5
-32
1
-46
-64
35
2
11
-1
-10
3
-7
14
-8
0
-24
8
22
-16
-3
4
11
0
3
-18
4
14
-18
-5
46
7
8
7
-17
-2
24
25
-42
2
-5
-17
-12
14
33
-56
-3
-1
48
-4
22
5
-5
-37
-5
-2
36
-8
-16
-32
32
2
44
0
13
27
12
-8
91
-36
34
-14
68
-9
2
16
-11
17
21
-3
-10
14
-3
3
10
-57
47
-5
51
-14
30
-39
44
52
30
0
-3
-26
46
56
62
13
53
-1
8
-10
-3
6
-33
-3
-22
-127
24
27
35
7
-22
-17
5
-10
127
9
-6
11
40
-57
-7
-3
4
32
127
-4
32
-73
15
-12
18
-29
9
15
32
7
11
-4
-20
-7
-21
-17
34
1
39
0
26
-29
22
51
3
4
33
-5
-69
21
13
-1
-11
-20
17
0
1
6
-42
97
-5
-13
-9
-2
15
-3
-75
-8
-70
21
-42
9
-9
20
37
13
-59
-30
-12
-1
4
4
19
-14
-3
3
9
0
5
-53
-10
3
26
-25
-9
-5
-23
23
-127
65
4
49
42
127
27
70
-5
34
68
-127
46
64
-22
-38
-3
10
16
2
-49
3
-6
127
-15
-72
-14
9
-69
48
14
36
8
9
-50
1
1
-35
0
-4
8
38
22
27
4
55
88
-50
-6
62
-35
-21
6
77
-9
-23
-15
8
63
59
-65
-18
-9
44
-10
-57
124
6
17
57
-20
-30
22
-37
-9
32
3
-6
125
3
45
-9
8
43
44
16
-85
23
94
84
17
4
-8
58
36
-49
-16
59
-21
-22
15
68
-5
-35
-44
82
4
-21
19
14
16
-56
-17
-60
-4
96
59
-54
-55
0
-6
127
-22
-6
51
-31
-14
36
8
4
-51
3
-1
-31
1
-1
5
-13
-5
11
23
13
-14
-4
-6
-36
21
9
-8
20
23
23
-22
-4
117
91
-85
-4
-17
-23
-10
63
-27
35
-126
4
18
-31
42
-5
-12
41
-18
96
-16
14
-4
46
16
-6
7
-34
-17
11
1
-15
-65
2
-23
52
2
44
-13
-14
-74
11
-11
48
1
64
-42
-64
24
34
94
17
-12
10
-13
-9
-62
15
5
16
-3
-50
16
-10
17
-29
-11
-10
2
-11
-13
24
-73
-30
-38
26
-79
-53
7
22
-27
-12
-27
13
-2
-59
4
45
12
29
26
53
12
10
-12
-6
14
22
57
-42
19
-54
3
21
-9
2
-71
3
2
-74
8
-16
-35
14
-29
26
-10
-13
-46
-22
8
17
-34
-74
30
-15
35
41
18
-21
21
-30
44
-17
6
42
85
83
49
42
-30
-26
-18
-26
-1
11
78
16
-8
0
4
11
-15
45
0
-14
10
-21
-28
-15
-33
-28
43
18
-8
-6
-3
-17
6
-1
15
-33
15
1
15
40
-5
-9
-33
-10
-127
-17
-9
-21
9
-54
12
-7
17
37
6
7
-55
6
-7
-19
-2
-15
3
-110
35
3
-20
49
3
-42
-4
-31
-10
-55
-2
-7
10
78
-31
4
58
-76
15
-79
5
-111
4
76
1
22
62
2
-3
10
7
94
0
7
-5
-41
-33
-40
-33
6
-13
30
20
34
0
17
-21
-25
106
36
36
0
54
-15
-50
27
-3
28
2
-6
-41
71
-7
-27
-46
5
-22
47
0
-7
-20
75
-25
-64
-6
38
29
-92
7
-12
-32
11
-20
36
0
-10
12
-24
-34
7
-9
19
-4
-10
-72
-41
-5
6
14
-121
-6
18
58
-1
-4
3
2
40
-39
40
20
21
24
6
-2
-2
-14
5
16
-38
-8
-3
22
81
24
-18
-19
34
27
-2
17
-17
-29
-55
11
29
-28
-16
-53
6
5
-47
25
-5
-7
-13
-16
-3
1
-57
16
13
-1
-18
-33
26
-1
12
2
102
-22
-21
40
-61
8
18
-42
70
33
-87
45
-51
18
17
11
-33
-23
20
27
9
20
-94
13
-23
-46
18
-25
22
0
103
-3
-83
-25
18
-67
37
14
0
-16
7
-32
-9
4
5
1
-54
31
-16
1
35
7
-8
22
16
0
33
-72
11
0
16
-1
72
-11
-24
-49
7
-27
56
-1
-2
-5
-21
26
16
-13
44
-39
-21
-5
59
-12
-1
29
46
12
-59
-43
36
24
50
-127
16
-10
-45
4
21
-20
-3
-66
-10
2
-5
7
-23
36
-45
24
9
-4
-53
-34
-34
-77
-41
-41
37
36
-32
-2
37
10
-25
-57
12
10
-64
7
-24
-7
12
6
34
10
-63
-17
-18
-49
102
-20
7
22
9
-12
29
26
8
-11
-4
2
15
97
-19
-12
-14
8
-107
-80
-55
-44
-23
20
2
1
34
-51
-42
16
15
30
4
21
18
5
-22
-20
-20
1
-29
-28
-12
58
-33
-26
90
5
-40
-34
24
4
19
-2
-21
35
-39
31
10
-8
43
-19
14
-24
19
21
-72
-10
-3
-5
0
-4
18
12
-27
-84
38
-11
19
-27
63
11
5
13
-45
0
21
-6
37
12
47
-28
-1
-2
38
-127
15
13
-55
20
70
-8
-25
-53
5
-25
59
2
-91
86
-51
9
-11
-61
1
27
56
-31
76
-71
-41
0
6
-43
-7
14
-5
25
27
58
-5
-20
-25
12
-27
-74
4
6
18
-127
-30
10
-25
14
-76
-127
-14
2
-52
-5
27
-12
-93
-89
-8
33
92
-28
21
-12
25
-63
-5
-31
-34
13
-10
-18
-36
63
-14
-27
-27
23
-11
-9
18
25
-15
-37
-127
127
-93
24
-20
78
23
56
10
91
121
51
-1
-2
29
17
-46
43
110
-57
38
29
127
76
13
0
-71
0
3
-63
8
-53
0
31
37
127
6
2
-55
71
75
-60
-36
2
97
-28
0
12
-39
124
30
6
-38
-47
-12
-21
26
-42
2
77
-28
-40
-61
-37
17
-82
-34
5
-27
47
-11
-4
14
-38
71
-121
0
-11
58
-16
-89
34
-8
1
-43
2
-3
1
36
26
-127
20
5
-1
4
36
38
0
-104
-35
-20
9
108
41
-21
45
11
-5
127
77
-24
-70
96
-42
-18
7
43
-51
-11
-16
15
22
30
23
-5
-43
8
49
-10
38
-29
-18
8
54
45
-43
127
5
40
-1
-14
17
-126
-32
36
20
-12
-127
10
-20
93
-2
29
84
-108
14
4
-76
0
77
-1
127
-127
-20
5
12
12
104
-12
-70
56
-8
4
-127
6
127
-81
71
-24
57
-48
41
0
-95
8
-16
33
-40
-21
79
-5
46
12
-56
64
36
-20
23
12
-21
28
-27
30
97
127
0
6
14
-75
-25
91
88
-1
40
99
16
3
5
-20
-15
-19
33
18
55
40
33
-23
40
39
-3
-103
-32
0
-77
-44
-14
-9
2
29
-43
8
37
-28
33
1
28
-4
-32
7
-15
3
7
33
11
-77
2
32
-44
19
-9
3
-26
-3
-88
-22
12
-54
-3
-1
-33
100
-24
-15
-37
7
6
-1
-16
-19
-5
-22
29
-10
-18
-42
2
3
-27
-9
-5
32
12
-35
-16
127
-13
-29
3
46
-34
-9
-25
-11
-87
-11
-67
0
-10
-5
101
-24
86
14
89
-24
21
-19
-20
3
62
-127
-48
49
-73
127
-50
84
68
-13
5
-17
26
50
24
30
2
-1
-3
-50
10
-37
-17
18
-40
33
-37
-17
23
9
-7
-3
89
-11
58
10
-6
40
3
23
71
-52
43
11
-111
88
-18
36
-67
-31
-28
-36
-35
53
-11
63
-32
17
-127
-13
47
13
0
-15
-106
35
-40
-75
46
14
-80
-3
-28
-12
-5
126
30
-110
-80
127
5
-20
-24
51
68
-68
127
22
61
20
-14
-20
48
-21
16
-11
127
31
-13
46
1
-28
24
41
-19
10
-49
-39
-127
20
5
-16
41
3
34
24
10
-5
32
13
57
-15
0
39
-19
100
4
88
26
38
47
-20
22
-112
-42
-10
-11
90
13
49
-11
109
3
84
-22
-11
-1
10
-54
46
31
26
-18
-11
0
-89
-2
-32
49
-54
37
-2
16
-127
-22
-41
-34
-121
33
14
44
2
61
113
99
23
-108
39
33
10
-65
14
16
15
-58
36
-38
1
72
-25
18
-59
39
-31
-65
18
-127
47
2
38
-25
-3
-27
-2
-12
40
-12
-29
-14
3
65
-26
44
-33
41
-64
33
-127
-11
-28
-10
94
98
-6
62
84
72
-70
-30
113
-127
56
127
7
127
38
-95
-62
23
33
105
10
6
-36
26
27
12
-7
8
-72
80
67
-5
-48
18
-29
68
-27
-25
9
-27
-51
-97
-38
14
-24
4
12
-24
21
6
93
13
14
48
36
5
39
-28
127
28
19
-56
14
18
58
-12
-54
59
-19
34
-5
15
-17
-10
90
1
-10
-48
-31
9
90
-14
73
17
69
-87
-4
4
-4
-42
-24
20
-11
-122
8
-23
32
-15
-47
-57
60
48
24
50
13
-25
3
-44
11
-82
-24
96
-6
-23
-64
-53
-1
-57
4
14
-7
-13
-56
5
3
-7
2
-15
12
-17
-38
-25
-13
-18
14
-86
1
-26
-17
-26
24
25
39
-46
-127
-81
49
-59
30
84
127
62
-40
-37
-21
101
70
15
124
-78
54
21
44
-60
-36
3
35
-38
-55
-85
49
58
27
-10
-17
37
-17
44
10
28
-112
38
7
-22
-1
-57
-3
-10
6
-12
127
-10
-13
22
-127
24
14
-15
-90
-22
97
-5
42
-34
-20
1
10
33
-82
-8
8
39
62
28
-61
62
5
18
21
-24
24
-26
-75
3
43
6
-14
-31
64
17
-55
-27
22
-13
-62
-60
127
23
6
33
27
41
11
127
-48
127
-24
116
37
-42
-4
73
-17
5
-87
-127
-35
23
46
13
-46
-49
-14
26
-47
126
-33
-23
-10
-16
-30
-26
-14
-9
4
12
-8
-21
-57
38
-127
20
91
-12
-37
-27
15
-49
-14
115
-10
-15
-28
-2
9
51
-37
25
93
-39
-17
67
-6
11
-107
-127
-49
68
-80
-13
5
-41
15
-18
-8
32
-33
-12
3
17
-6
12
-26
4
45
123
21
111
46
-8
-10
-100
1
-36
52
-11
24
6
6
20
-39
-14
75
15
-62
-10
5
-10
65
-14
6
-1
-51
75
-19
31
0
-21
-46
-71
19
15
-64
65
-1
-104
-5
-48
-29
30
10
18
43
-4
-2
-32
-68
72
-64
-41
27
3
-15
2
-28
11
-50
-46
48
-1
28
-17
47
1
-100
-109
127
-8
-31
-64
-31
-3
14
-127
58
25
2
-69
-127
56
67
15
-29
-3
24
-16
-35
27
8
-123
10
-6
-4
26
18
-28
48
-68
-98
-32
15
127
79
-111
-127
23
24
-90
-19
37
27
-63
-19
37
-65
5
-15
19
-79
-40
-36
55
-21
100
-2
8
64
-13
-18
52
-70
-2
-8
59
5
-19
-29
13
15
27
-49
7
-14
-3
-67
80
-15
61
27
-63
-4
62
-21
64
16
-19
-22
76
-75
14
115
-50
36
-109
-31
-114
44
127
38
42
18
14
5
-33
-58
82
-11
-30
-6
26
-45
-22
-112
-26
82
40
-121
-127
127
79
-48
-97
50
-6
74
52
14
-26
16
-69
10
-27
71
16
-13
-26
15
47
9
-89
68
13
19
-42
10
-63
1
56
-3
126
-68
-57
-39
0
-22
-27
53
-16
29
21
-32
-6
-31
-11
-52
18
-7
-67
-87
-58
-48
-28
46
127
55
55
-39
6
11
-25
50
-97
79
-12
-8
58
28
-14
-63
-104
83
7
-10
14
127
-90
-37
-11
-31
-13
2
-11
-21
51
-87
6
69
-12
-15
-31
45
-42
-45
9
-104
-9
-5
-19
-24
-4
26
40
2
0
43
60
45
7
67
4
54
-126
127
53
60
57
127
-44
39
27
-8
-17
125
45
71
-26
2
89
0
25
4
10
47
-28
127
18
17
19
-22
-63
-17
-73
26
55
11
-127
3
39
38
-7
-32
69
21
39
20
16
2
-41
-97
15
-23
48
-42
8
66
-72
6
-127
-91
13
-95
8
-12
12
-60
13
-98
-6
4
-6
60
4
-3
-9
20
15
-1
-22
105
25
-26
-98
66
-3
0
-12
-121
-28
48
12
-5
2
-79
-47
-60
110
110
31
-36
33
89
-127
-66
14
43
-1
9
43
-36
3
-78
-90
-15
38
13
30
-62
-16
-25
-24
-6
-33
-3
29
-24
0
-33
41
-28
-91
24
44
-115
-29
1
-7
41
-100
-8
5
-15
1
-51
-46
65
-127
-6
-43
-30
-2
21
-2
102
-89
-3
92
-21
-10
-48
2
-17
30
-4
47
-64
-12
-13
-9
36
-91
-32
43
-15
3
47
-71
-1
-57
41
77
-2
-4
-91
-13
44
23
41
14
109
-127
-4
-6
75
-15
127
61
90
-45
-26
-19
88
9
-3
7
44
7
3
15
-19
32
-47
32
-24
-4
53
-13
-37
93
-1
-127
55
1
127
-6
46
-80
-21
118
13
-23
65
-3
17
90
-67
-48
-45
-18
31
0
-96
108
-12
-79
20
-3
6
41
-127
-17
89
-39
-127
-45
19
-11
5
15
-1
1
-121
-10
79
-57
-16
43
-2
7
8
-9
104
-56
8
10
116
-25
52
7
-57
-127
-25
21
-41
29
39
-4
58
-65
76
-72
-6
19
-56
0
15
-9
57
0
19
-3
-57
-47
-71
72
31
-90
14
-32
-1
77
43
12
45
-24
23
7
-26
14
-65
7
-73
-55
15
28
-19
-23
8
-8
-32
-38
12
15
37
-94
2
43
-89
-127
-38
-31
-34
1
-17
29
-17
-26
18
-8
-23
-127
-28
59
-105
23
26
-6
-82
50
-9
29
-48
-27
-7
-17
-54
114
4
-1
94
27
27
18
21
23
25
45
110
5
-127
-29
113
2
-45
-127
92
85
-8
-2
99
23
-16
8
41
-59
30
49
52
5
127
-28
69
-16
-29
73
25
22
1
-7
-37
-33
11
0
38
17
15
19
126
-39
22
-6
-21
26
60
-2
71
45
-1
-9
-83
14
10
-63
-127
90
-4
19
25
-52
-126
109
15
-70
-37
-18
-127
-14
-1
6
1
-4
4
7
-86
-5
24
-46
7
64
-38
-49
-9
7
-35
47
13
50
20
127
48
-14
-13
70
9
52
8
19
43
-43
-4
45
-56
-28
-16
11
-37
81
30
-24
-127
51
48
0
56
-3
55
83
53
-55
-16
-56
-9
-74
0
17
20
69
8
88
35
13
-1
-2
17
-51
21
-83
106
-78
19
-36
-116
-19
37
6
34
120
-41
-33
-2
-43
-44
-19
-18
74
-127
63
-24
-53
-105
11
-1
50
-22
23
107
8
10
13
82
-3
-27
-11
92
19
-45
23
73
12
5
-46
81
-22
-11
-13
72
-57
-73
-27
-25
10
5
-15
-127
-83
-33
64
6
-44
-15
-96
-121
39
11
10
118
-37
-8
17
-37
127
15
-27
1
90
-8
111
-58
-34
-27
5
1
-74
-9
-7
-81
24
60
26
29
-103
-13
-5
82
110
50
28
-34
55
-9
109
-1
16
-27
0
-8
5
-32
9
15
-37
47
-127
-35
-106
12
-127
45
-20
17
-9
-4
-30
4
29
84
-32
44
25
28
23
-14
47
-35
91
-8
10
-17
-74
-22
-106
-32
25
-5
-46
-102
127
-7
27
-21
-72
-66
-45
-30
-46
127
0
6
84
25
-29
21
35
6
14
-55
60
-29
45
59
-40
-31
-98
21
-17
15
6
-7
60
1
-6
9
38
127
41
12
4
-127
-127
-87
-46
-3
-49
-8
-50
7
-16
-43
-127
-5
-23
-3
-32
-12
-8
-96
116
-5
-121
-101
-12
-19
-31
-108
32
22
51
6
39
-9
7
36
-3
-17
-43
2
36
0
16
-81
-74
58
-9
37
-6
7
18
45
-2
-18
-21
-5
17
77
-40
19
-19
28
-41
-11
32
-21
-38
35
36
10
-62
-18
-43
-6
-27
-41
57
19
31
-10
1
2
-62
0
-24
-5
-127
4
-127
7
27
32
-36
9
-23
-2
-24
10
32
-54
97
106
-14
2
-33
-59
-30
41
19
9
32
-41
-54
2
9
41
111
4
62
-26
-36
-9
-48
-72
0
-46
-38
17
-36
14
6
7
-2
12
33
7
-13
-9
88
24
-5
37
20
10
-14
67
122
33
-13
-23
67
-4
82
-10
-50
86
88
12
-104
127
-23
-9
7
-127
17
34
-29
-72
-69
-19
31
38
-86
-43
25
-39
79
13
-67
-52
43
36
0
-1
43
-10
4
55
34
40
25
-127
21
-10
4
-14
83
21
0
29
-43
47
9
-118
64
-34
13
2
-4
127
-31
-91
71
18
36
-24
-111
12
-40
-41
-99
50
2
-39
74
-12
-30
26
127
15
-13
8
87
21
30
13
-43
9
-90
9
127
5
50
25
-30
-127
-77
113
-53
23
31
-52
-68
-77
127
94
39
-17
101
63
-58
23
-22
42
85
73
57
-51
-74
-69
14
-31
-3
-8
13
19
43
11
-14
48
-32
5
-127
-2
84
-21
27
2
0
47
-12
-99
85
14
58
-32
0
8
-6
-48
-57
4
-9
-9
-1
-50
-13
40
6
-8
-64
-101
-56
13
-24
-57
68
21
7
-39
2
32
-30
-34
-60
19
52
6
57
-39
-17
55
42
93
-109
80
-15
11
-13
54
4
-14
31
96
8
-50
42
127
123
13
-44
-27
94
35
-24
-75
-53
-57
-1
31
-20
-34
14
43
26
-122
31
47
-2
41
60
-40
-50
2
-37
42
6
21
10
-4
41
14
33
-22
21
-10
-14
10
-37
-127
99
-54
15
19
-15
2
31
70
117
-62
2
12
-10
-10
15
64
18
-58
-11
10
35
-127
34
13
-32
13
-12
8
34
3
35
1
-40
-47
-33
20
-16
-9
-9
43
-45
-66
-20
-28
-40
-106
59
11
-56
-90
-80
-35
127
5
-107
-30
-24
-25
127
-18
35
25
-40
45
72
-71
-2
-15
-17
-39
46
19
58
-46
-8
18
18
6
-25
32
1
52
-30
-127
-21
11
0
17
54
-10
-2
10
23
21
-36
-1
-13
15
-2
36
81
-14
-42
7
-127
0
4
-50
-1
9
8
60
84
127
-44
12
44
-16
-61
14
-10
28
-2
-19
7
-19
25
-19
62
-22
38
25
-52
3
127
-14
-33
-55
-75
7
-96
-21
65
-43
9
37
17
31
-26
1
30
-113
34
-58
-10
-28
-1
116
-5
27
98
-10
17
-96
-45
-33
5
-74
-51
-43
76
-66
-23
42
6
20
-11
-39
25
-7
0
-10
11
-100
-32
-30
35
22
8
-3
1
4
54
37
54
27
-36
127
-12
-7
127
-38
45
95
-93
120
6
-10
23
15
1
127
-3
-93
101
-17
19
3
25
101
-41
43
-10
7
30
14
36
46
-11
-94
-127
59
-26
8
11
29
5
12
-12
-21
-84
1
32
84
-8
-12
-5
-8
34
-82
33
78
12
-50
-4
7
80
25
-80
-78
27
37
-29
-7
-6
18
-124
36
-2
5
-30
11
0
13
-24
-6
-127
39
-17
-28
-5
44
4
-84
14
57
-15
4
-6
94
-25
-8
5
29
9
-31
-63
77
-55
62
27
64
-55
-36
-43
-111
124
-13
18
46
-77
32
-26
-18
82
-1
-13
-8
-11
64
37
-35
-84
37
1
56
10
127
50
-127
-17
13
8
15
14
-9
-54
12
-127
31
66
-56
-13
5
26
-12
72
125
4
-64
-60
-112
56
6
50
-11
5
72
-2
-127
-6
90
35
-30
60
-44
52
13
-21
17
5
57
-16
20
-75
14
41
79
-22
15
-27
60
67
-117
8
-31
44
-72
71
-63
-39
26
35
-38
127
-127
127
-68
-3
52
11
73
-12
84
-74
54
-3
65
-38
17
30
9
-50
-127
30
7
61
-45
17
22
-65
79
2
17
-39
-28
-68
9
-47
24
14
-18
4
38
-3
56
-16
14
-5
8
8
127
46
78
-31
-29
124
79
45
33
22
-55
55
48
-1
13
7
50
12
-37
14
-3
-118
29
-127
24
-67
-25
74
-49
1
20
11
28
-100
-45
6
16
-10
-30
-22
108
-32
-34
34
-45
-92
-58
-79
-20
-83
56
-66
-119
-13
30
-9
59
-18
-88
53
15
127
-12
-29
-23
-38
-3
-8
-5
-1
-24
-18
-104
-14
-26
33
-24
-33
-38
-6
-56
-24
9
24
-28
110
-74
-41
25
37
50
-62
35
-3
-126
25
-2
-28
37
-40
62
-18
-43
5
-23
-37
-35
-28
-1
20
69
40
-21
1
28
-11
67
16
-23
-8
-10
22
-9
-19
4
17
-35
53
-10
-6
24
18
26
33
-28
-17
44
-104
4
105
-1
-2
-44
-4
3
-127
10
-79
60
-76
-61
2
5
-21
-11
-54
53
13
-127
-38
-13
17
-35
-7
-5
55
-90
-5
-35
-17
-27
127
49
-8
-42
-53
-25
61
9
-36
0
-37
49
-127
-27
33
127
2
-88
15
19
60
26
-20
47
11
-109
127
66
-24
27
-83
-35
-19
-76
15
20
12
3
-5
8
23
-25
-91
73
-6
127
4
6
0
-11
-8
-69
15
64
-27
-1
-48
-40
9
53
-1
8
12
-21
10
63
116
14
-25
30
63
6
-24
-70
85
15
-12
25
9
21
40
127
-92
-12
8
-34
42
-27
0
72
75
53
27
37
-40
-69
-3
-7
-1
30
-100
-6
16
24
-25
-97
-85
-7
-19
44
95
-40
-32
20
-105
-83
-17
14
-41
-24
-13
30
-27
14
-40
0
-3
0
91
12
-7
-40
6
0
-127
61
49
12
80
-50
18
0
13
-29
50
31
115
-85
16
0
-22
35
16
12
92
-4
-72
0
25
100
3
-7
29
-34
-127
0
33
127
-21
19
16
-31
-65
0
22
-17
-3
53
22
-38
21
0
2
-19
43
16
-81
-44
-1
0
-20
1
28
28
-27
2
-5
0
0
-107
28
12
33
77
-4
0
-17
-12
20
29
-76
65
-25
0
43
-74
28
-127
125
26
-96
0
13
78
40
-9
-45
6
-26
0
21
14
24
10
-59
48
-38
0
31
-120
-112
34
3
3
3
0
10
-32
52
6
6
-123
-11
0
1
18
-61
7
-127
52
94
0
3
-15
-36
-41
30
-127
19
0
63
81
-38
105
120
-64
-1
0
-21
-61
-24
18
6
17
-7
0
3
9
-7
-19
24
36
-10
0
-12
2
-35
39
14
-38
19
0
64
-102
36
54
-93
-59
-42
0
-55
56
-127
28
-6
-49
60
31
-16
62
22
-10
81
-44
127
4
50
108
21
31
-26
11
1
-6
49
5
-9
-53
-7
3
-3
79
38
31
6
52
30
-127
55
-15
-8
103
-17
9
-72
-51
-55
-11
34
43
-36
-23
-91
16
20
15
46
-127
-127
18
-14
-10
-22
50
-9
34
7
24
-127
46
-41
-7
-1
-54
58
-5
30
83
-71
14
-59
18
-3
48
59
11
2
-87
-127
-24
1
7
21
15
-4
-47
25
-26
16
62
-8
13
-24
46
-23
-14
6
31
89
-3
-24
-127
-12
21
-2
-127
-15
-16
-24
-9
-126
19
-19
7
-44
-26
10
-32
12
10
6
26
19
-12
-8
-42
74
-19
10
-23
-3
-11
10
-14
-99
27
15
40
-80
-11
-72
22
93
-14
19
64
-18
14
-19
17
41
-6
4
-11
29
-20
15
65
31
29
-29
-41
1
-17
28
104
-35
6
-30
19
13
20
26
-10
62
19
-48
-9
-30
0
50
30
0
-1
102
-19
-21
-75
-50
-4
-32
38
-28
25
1
10
-22
-1
25
14
-17
-1
5
22
12
28
26
19
0
-9
-1
-20
-60
-9
63
-121
-17
-16
33
-37
6
33
-15
-3
-70
5
29
5
61
-3
53
12
13
22
77
7
15
10
1
48
0
-1
-30
-1
-34
13
44
27
49
1
-24
2
17
-25
-20
7
-19
20
48
15
-28
40
23
-4
-75
5
-47
-19
-20
57
25
50
0
25
33
-21
29
5
25
-18
34
6
21
-10
29
35
24
-15
18
4
42
64
11
-86
75
1
-4
-14
9
-19
-2
13
104
25
4
-15
-12
20
-13
-99
-62
-10
52
52
-50
-5
127
-1
-28
-14
-62
41
-9
74
11
7
-2
-34
28
-12
-22
41
32
-63
48
6
3
-9
43
56
74
16
-10
9
-12
2
7
6
-21
35
10
-12
-31
25
-6
-28
-32
-7
-28
-24
39
-1
-49
-77
-7
4
58
5
19
8
-98
-45
-6
43
4
43
-10
21
40
6
-9
56
25
38
-17
17
-44
-41
62
-14
-15
-11
11
-25
-6
-50
-27
-22
12
5
-29
25
-14
27
-88
27
-7
1
36
-20
-45
-12
30
60
-12
7
-7
-22
-69
-75
73
-14
-17
-2
12
-59
6
11
16
-5
-10
9
-7
-31
-31
3
2
-11
-16
-1
12
12
-107
43
39
16
-1
-16
0
5
0
97
6
31
45
-62
-17
1
127
46
2
-6
24
-22
-27
-9
-107
-17
-12
19
101
-23
7
8
-13
-60
67
6
-18
13
0
32
-5
-79
-3
11
-5
48
19
-7
-126
-25
40
-23
-15
8
2
-39
-6
-76
-19
8
58
36
5
5
-107
-39
33
50
-58
-52
33
-1
30
-54
40
50
17
5
-12
16
-33
23
-28
-10
69
-2
-9
-3
12
-50
-49
-32
-82
8
127
6
93
39
8
-16
50
12
8
-16
4
32
8
-127
56
6
-9
-2
34
62
56
-17
-40
20
-8
-1
-13
-29
2
-5
32
53
7
-16
-23
32
14
14
51
2
6
-12
0
-31
52
-71
50
10
-19
-3
34
-5
2
-5
-16
-4
-63
11
-19
-14
46
-4
105
-2
24
1
-19
-6
2
-10
-82
-10
-38
-2
10
18
10
13
26
-18
23
-18
1
3
22
-61
41
21
-3
4
77
-33
64
-8
-32
-3
-23
-46
-3
36
65
5
1
-2
14
2
1
0
-98
-9
28
9
16
-16
-20
8
-11
-83
27
7
5
32
4
20
51
-55
39
28
3
-34
41
-26
-26
49
92
-118
-28
-6
51
17
19
0
-12
18
13
-22
-19
-47
-2
-13
-41
-1
-8
-7
22
42
22
-28
-5
11
13
-4
16
4
63
-23
64
36
3
9
-7
24
15
41
-31
22
7
5
-53
-18
8
-15
-26
23
-9
-11
-41
-36
59
-3
-29
11
-21
-1
7
54
-21
0
-71
52
34
13
3
7
-19
-4
-2
35
14
-13
-11
-3
52
5
12
-5
-19
7
-61
-97
83
-36
55
-39
-36
-127
104
4
-17
3
69
-5
19
12
-34
-83
102
-10
-23
22
-20
16
-2
-106
40
6
20
-31
-7
-107
47
-2
53
-5
61
-12
16
-10
-7
-30
-105
21
47
7
6
-41
-9
105
-12
-19
66
37
-5
-14
74
-12
2
8
78
-20
15
-11
-48
21
88
-12
-12
5
-13
-5
3
-23
40
-1
-35
-12
0
-11
0
27
-32
8
5
-1
-76
2
31
-127
-41
4
50
-29
-12
-35
52
24
17
29
1
-9
-84
-28
-36
13
-29
4
-4
-11
-25
-3
9
39
34
-29
-59
-19
-35
-2
19
26
11
-71
14
10
10
32
-37
32
-11
-10
38
33
12
-25
-23
-96
0
1
37
-7
14
-10
-111
46
-16
-90
-19
-14
1
-13
1
-43
7
-6
-64
3
-31
-7
42
36
52
-2
-28
27
6
-1
-11
-41
30
-9
-32
-99
15
14
-63
-25
-19
-10
15
8
0
46
-17
-7
21
-14
32
29
-31
16
-46
-13
-30
24
25
-4
-31
47
-7
19
16
36
80
-12
11
-16
-61
-22
17
13
-25
-15
-25
4
6
-12
6
15
108
-12
4
17
21
19
11
47
-19
11
2
-4
-64
21
27
-53
-23
-4
23
24
63
-57
30
-12
-40
2
23
4
-86
37
127
15
-54
8
4
-14
-31
-9
37
-18
-26
25
5
2
-6
23
-69
-10
-25
17
-28
4
13
8
23
-14
9
28
-20
14
-49
3
36
17
12
46
-3
-13
-96
8
22
2
127
-3
10
-26
28
-17
-3
1
15
37
-5
-19
-12
0
-23
-18
15
3
36
15
-47
-8
35
-32
75
3
8
0
-1
-46
2
6
2
-18
14
-55
32
-73
-73
39
12
29
-21
38
-36
-9
38
-8
-4
17
-81
-48
61
54
8
-7
-36
18
-4
-24
-7
4
43
3
53
-18
34
12
48
20
41
66
34
30
25
2
-66
67
8
2
8
-20
-1
-5
-80
-19
10
-10
28
31
-47
-8
-24
-56
-26
1
94
40
16
-5
-71
-15
-18
-5
-5
10
12
-8
18
19
17
25
-44
43
5
14
18
35
29
18
9
34
-80
25
-29
-66
6
-24
-25
-127
-46
1
-60
11
60
-61
24
-5
16
24
41
-32
40
42
-1
5
13
-23
-45
124
-83
-68
-16
-44
-21
-15
-92
2
-20
-5
-36
0
-114
-21
-41
-23
26
16
74
-17
-30
-1
-20
3
70
-6
-47
16
15
8
-4
0
0
0
0
0
0
0
0
-20
3
-11
-8
-2
-5
51
-8
-50
-19
1
34
24
-9
24
-3
36
35
32
96
-21
6
-21
51
37
-19
-105
-24
-2
-20
2
-2
-38
-42
-43
-31
-1
-12
7
-2
-16
0
23
-29
-74
25
37
-73
-64
46
4
5
-25
-11
-79
60
62
30
2
-49
23
1
-4
-30
34
-2
40
-16
3
-1
-4
-85
-18
-55
-12
38
-6
-8
52
-25
0
-58
10
8
-7
23
-45
-19
29
-47
-62
-91
56
-12
-11
-51
-32
68
-13
-5
-7
21
-52
-17
0
-17
-46
26
14
1
19
23
12
18
35
-46
3
-43
-1
-4
-7
-4
-38
-65
-24
65
3
17
6
-14
14
-48
89
81
12
-12
-4
-21
-43
1
-6
30
64
-3
-11
1
38
-14
19
63
-12
-67
-2
-30
-12
-63
-22
59
1
13
6
-57
29
-42
-14
50
-31
-19
-1
36
-12
82
1
-64
-10
-19
23
-5
0
31
36
26
-109
-2
-1
8
9
-37
-49
38
84
-28
5
-67
-77
-44
3
-38
22
-45
-4
-8
25
-16
0
106
-2
-10
6
-9
21
-6
-46
-37
-14
-7
-1
-15
-21
-19
-37
-6
30
73
-5
-6
-1
-10
-8
15
1
17
-27
6
6
36
-23
-40
54
-30
-88
-9
-5
-14
6
-48
-49
37
-7
-18
-34
-10
1
14
-2
27
-21
-24
-22
-18
-12
-22
-91
-1
28
-40
49
-84
-22
-14
-31
52
-18
41
97
-23
8
-1
58
12
0
29
6
13
12
-3
4
-65
-6
15
-5
-17
-50
33
123
-29
-66
5
16
-39
10
40
-29
-9
-29
9
-19
0
-1
56
53
20
-6
6
-9
1
1
-11
-14
-3
-4
-15
-4
-2
-32
55
-10
-19
-9
12
9
-45
-11
46
-93
-12
124
6
3
36
8
47
62
3
-5
-16
-16
-68
-28
-21
0
23
-1
-5
-13
-7
44
-14
2
15
9
17
2
15
-2
-41
-21
-8
3
-32
19
2
14
-11
-4
54
11
9
47
-24
-127
21
-20
-51
14
-4
9
-43
16
15
-29
19
-3
-27
33
1
7
21
-3
25
-5
29
-16
44
-12
-10
-1
-43
127
-2
13
39
-2
39
78
-9
7
14
-9
21
-13
-37
19
9
0
-36
-2
9
15
10
-26
52
1
35
-5
68
-9
-127
13
-9
5
49
-42
-42
30
0
28
-15
7
127
-18
52
7
85
-48
15
4
14
-126
-14
4
-17
36
-9
0
-32
30
15
3
1
-7
-1
-7
-13
43
-6
-14
43
-16
-54
-3
8
37
-60
13
-37
36
7
0
5
8
-63
22
-27
2
-9
-6
-5
24
44
12
-18
7
-14
-3
-21
-35
-19
34
2
32
11
-4
-7
37
13
30
64
-5
-50
-6
46
-11
86
23
14
6
56
13
-14
-29
-47
3
-47
10
4
16
-3
34
-9
-14
-16
-117
0
-15
6
2
-10
-13
-34
35
3
-2
-1
54
-16
20
46
-10
1
17
-10
-39
-70
-21
-51
9
3
4
-3
23
-10
23
-18
83
3
-9
6
44
-29
-6
-18
-45
-7
5
0
17
26
57
19
6
-29
10
-17
3
-60
5
-19
-5
-17
-13
46
81
10
43
51
4
59
-9
-26
88
24
-18
29
-4
-51
-3
-27
-17
49
-20
-49
-7
26
8
8
20
0
-31
25
-8
7
-3
-29
-72
-83
-10
-42
37
-1
-10
-9
20
-38
8
28
-43
-24
16
-38
-127
-27
7
-75
27
-127
1
-5
-64
2
22
58
14
-12
-12
-30
6
-35
-2
91
-12
-53
46
22
37
17
-18
-13
14
-20
9
-14
12
-11
-16
6
-1
64
-1
44
13
14
24
-32
-1
-16
27
23
20
5
6
12
35
-38
-11
-11
19
-19
49
58
10
-52
-27
0
9
-38
9
23
-20
-13
-13
-2
29
4
-19
13
1
15
0
-10
-6
-7
-17
29
13
59
-8
2
36
-22
1
43
-33
-32
-1
-16
-26
-56
27
-16
-5
4
24
-8
8
15
18
17
-127
-3
-43
13
7
-25
30
-1
-7
-51
-1
3
-13
-8
35
16
-25
1
11
9
-17
-53
1
19
-28
-8
-17
21
54
66
9
70
8
4
-3
5
-8
-15
41
-10
95
7
17
-11
-33
-52
-16
-56
23
14
15
22
-7
4
12
-10
12
-57
-3
1
10
-15
-18
10
-20
-27
-4
41
57
-15
37
-18
-2
26
-2
-4
33
2
3
36
-12
-8
14
19
14
-8
-51
-14
12
8
10
12
22
25
5
-20
15
-4
-2
-4
15
-26
13
9
2
-21
16
-23
7
21
18
40
40
33
17
7
14
-59
-19
43
9
12
2
-1
-20
-6
8
33
-15
2
13
0
4
-15
20
22
-25
11
1
5
45
-29
-50
43
-4
-36
5
-15
-17
-17
-26
31
-40
-1
-3
13
17
10
12
21
1
-100
1
-7
9
15
4
5
-5
18
-12
-19
20
-51
2
71
-6
-11
12
76
-36
-23
-3
-39
-10
12
-4
-9
25
-23
-3
38
14
-43
-12
16
0
60
-40
-92
11
-17
-6
-11
4
-18
-16
44
9
37
7
-8
-24
-88
13
-51
10
5
-12
12
7
19
-23
13
104
-2
-8
8
5
15
-28
12
18
23
15
2
30
-14
-4
-14
22
-5
-12
6
-13
-19
41
42
11
-25
-5
-7
2
-16
8
21
-79
-8
-2
13
-2
-19
-23
3
0
-14
-4
-6
38
-3
40
37
-3
-58
14
6
37
-47
6
50
-96
-3
6
8
18
0
42
-7
-18
0
-24
0
-26
-41
-12
53
115
46
-2
26
7
18
9
43
-2
-21
13
-20
-23
-70
-5
-62
-2
7
4
-33
44
0
14
-45
-18
-33
4
-22
-17
-32
-20
9
9
-10
0
26
1
-18
-93
-23
6
-10
-2
-6
26
58
44
45
-24
9
61
1
8
-11
10
78
18
6
-42
33
30
20
-47
41
19
-40
13
22
-7
-105
14
64
52
-26
5
-38
9
-3
14
33
42
-9
2
-13
16
-21
37
58
-17
2
0
0
0
0
0
0
0
0
3
-5
26
14
6
-1
-2
-6
-7
3
-17
-4
7
18
112
-7
10
15
28
11
0
16
-1
32
11
-3
20
-28
-34
37
-6
-20
8
19
-8
-127
23
-24
27
25
-4
26
-19
3
-88
46
1
-1
8
15
18
20
15
-21
13
-4
-8
-3
45
-2
-25
78
0
-34
-9
-20
-11
-7
-84
48
-32
-78
0
-14
7
0
2
-9
24
-14
3
-15
-46
-62
0
-52
8
20
-8
35
13
-93
-19
37
5
-25
-36
6
-18
0
-13
51
60
32
43
8
68
23
-3
4
-25
64
-29
-9
-22
46
8
-1
-7
-7
-27
11
-32
-7
29
35
-63
-5
46
108
-30
0
16
29
43
-7
17
-2
50
-2
9
17
23
14
5
23
5
11
-2
46
-4
12
15
-44
-58
-23
7
-43
-13
6
-3
-45
53
25
-11
81
29
26
-16
-5
9
45
-6
32
-4
-9
-40
-18
0
-23
0
17
6
1
-14
8
-6
23
11
16
-32
38
7
-5
-45
56
37
49
22
-4
-10
21
-45
-45
16
-2
-42
1
9
9
16
10
4
41
15
9
-17
-15
-44
-24
-16
34
35
-17
8
-33
-10
25
5
16
-1
39
23
-35
-127
-12
45
-24
-24
-5
-22
19
-47
17
-5
17
56
127
-37
-1
13
-20
24
74
-51
-2
11
-21
-17
2
5
11
33
15
-60
-5
-10
26
79
12
-32
26
-74
33
-122
31
-20
127
42
-49
19
-17
13
-5
-1
1
102
11
13
18
16
29
2
5
-18
17
3
-5
-57
-2
2
4
21
30
13
14
51
-26
30
3
-13
-15
11
-10
15
-10
-21
-20
-7
-106
1
6
44
-12
14
-4
-10
0
19
-11
1
37
17
47
-22
-30
7
-17
29
-3
5
-10
-61
-20
-96
-1
-35
-9
6
-25
-1
-23
37
-12
34
0
7
12
-43
32
25
-1
7
-86
10
-11
15
-17
53
64
32
-6
-10
62
-105
10
22
-21
12
5
-4
35
-53
9
1
-2
-49
-27
-15
-10
18
8
5
10
63
-43
-17
-47
1
27
-58
-50
16
-5
18
-5
71
-6
9
-1
40
-2
11
-25
-47
-55
-16
-45
4
26
-35
-19
127
-3
59
-20
15
-17
10
50
104
-33
-55
6
96
-41
-25
12
24
12
11
26
-64
34
-68
84
1
-14
-11
3
30
-29
46
65
-48
-7
-48
28
-110
-16
91
64
-44
-2
-21
-21
57
-22
1
55
18
9
6
-5
-3
17
-27
27
-35
0
0
-14
3
42
25
24
-12
-4
57
-1
-23
5
-25
-22
7
-17
-24
-20
26
-7
-5
44
7
9
41
-24
62
-6
9
6
7
43
-8
13
10
-33
18
32
20
11
-66
34
-93
-69
19
6
-22
-30
-65
-4
-43
5
-5
-19
28
-23
-13
-21
-18
25
-4
54
22
-28
40
2
-1
24
5
10
-2
7
-91
-19
25
7
-32
-67
16
-16
-31
-7
18
33
22
0
-19
-39
-6
-21
14
25
2
19
-9
52
18
-29
4
41
-10
60
19
-50
-13
127
47
-5
24
86
26
-19
-68
-18
-25
52
41
21
7
-27
-80
39
-77
-6
-9
83
-41
-23
5
0
8
-9
3
46
-41
4
-56
-43
54
-23
-3
41
-7
0
20
-28
18
7
30
64
-45
19
-24
1
11
-15
19
15
-13
6
-31
9
34
-12
-51
2
11
-6
46
-14
-64
-36
-11
107
-8
6
8
11
-17
-12
-127
97
-8
15
-45
21
18
-25
-22
23
3
9
-16
-63
-79
3
-13
6
-58
111
2
-34
-28
-3
-2
58
-7
0
4
-7
-98
-28
4
12
-15
-22
-9
-48
-29
-11
-2
1
-59
100
22
21
15
-10
21
17
-5
-6
-30
-3
61
4
-15
-12
20
42
63
-1
-5
2
3
50
-110
-4
-10
-9
-26
-30
-1
32
0
-10
-23
14
-4
20
-50
21
-3
-17
-92
32
16
70
-13
-54
7
-7
-12
-21
-39
-12
3
-16
30
-7
-40
-61
-53
-21
-23
-12
-63
45
14
-22
34
-30
18
16
25
-24
11
2
84
-63
22
15
-9
14
1
60
-13
-16
-35
5
-71
-11
35
-35
48
22
-1
36
-23
44
-39
6
-15
26
43
14
21
-5
-6
-20
-17
22
14
-16
107
-1
-3
-22
3
-9
6
58
-7
4
-48
22
-54
24
-14
53
-28
-15
-11
7
11
-22
-20
-19
-12
15
18
16
14
40
-23
6
28
5
3
30
-25
11
-1
-8
-6
9
6
14
10
33
-43
15
-11
16
-58
-2
-21
-27
7
-13
-18
50
36
-4
-53
4
1
5
-17
-4
-26
0
3
11
-2
20
27
-7
-3
-12
-9
-11
-13
46
21
10
8
-7
-2
-18
7
62
-22
12
-10
-17
15
4
19
42
36
4
-61
6
21
2
-7
-76
49
8
3
18
-72
-13
20
19
38
57
-78
-2
25
-13
0
-21
-32
9
8
-4
-6
-13
71
52
-18
17
7
-1
14
25
-41
35
-30
20
-127
-12
73
-2
4
26
-29
-12
21
6
-37
-34
7
36
-14
-14
-68
1
-11
41
34
13
1
-7
-13
33
-33
-21
13
-12
-20
5
-7
-12
16
3
5
78
0
-22
-3
-24
-15
-9
-9
-4
-37
31
-12
-1
14
-23
4
-20
-15
-71
10
-11
19
-29
19
15
42
-46
-40
3
-50
-1
45
31
-47
-14
4
18
-3
5
1
29
-17
-1
2
-20
-50
30
14
54
-44
-14
-12
-29
-14
10
-3
-9
-13
-11
-8
-10
71
30
59
21
20
11
3
-34
-17
-42
11
50
58
1
-86
8
-36
15
21
-10
-1
-3
40
-41
10
-24
-19
5
4
11
22
-14
16
4
21
23
24
24
16
54
3
54
-8
-13
97
-16
-42
-9
39
-49
-7
26
-24
12
-6
17
-11
4
15
-13
-8
-24
-2
75
-96
-127
26
85
-69
12
-64
-25
55
2
-1
91
46
39
19
10
-5
-1
1
50
52
0
-79
-4
41
9
-56
-15
2
20
0
0
0
0
0
0
0
0
-6
-6
-34
-18
0
5
-12
-88
-4
23
26
-17
12
29
-2
27
-7
-4
-59
-20
-20
8
54
-56
34
-44
36
-3
35
74
15
6
72
-6
-53
-39
-19
-120
61
25
-15
17
54
42
4
46
-3
2
-5
-18
-42
-7
-17
-9
-16
101
11
-2
-6
-16
4
11
-59
19
21
-5
16
-23
12
49
-34
5
-17
2
4
-19
-23
-14
-16
-92
-64
1
-15
40
20
-15
10
15
-4
-22
-127
29
8
-96
-16
-9
-7
15
30
-21
16
23
-8
-48
