-12
-41
5
-24
8
117
127
13
-4
-16
6
8
0
0
-6
43
-18
-127
8
7
-14
-57
18
24
0
0
0
0
0
0
0
0
-10
9
55
56
-127
9
14
-14
0
0
0
0
0
0
0
0
-127
19
22
-53
1
-4
-6
-9
0
0
0
0
0
0
0
0
18
-5
-6
-19
3
-31
36
-127
34
-10
-18
35
-15
7
18
3
22
-1
127
-96
-1
-4
-1
7
0
0
0
0
0
0
0
0
1
-26
4
2
5
127
-115
-25
0
0
0
0
0
0
0
0
-25
6
116
127
51
1
4
-8
10
1
-2
-9
6
-7
8
-65
31
-16
-127
3
46
17
10
-127
-8
-51
25
-35
6
127
-11
15
-113
3
75
-48
127
-5
-8
-3
-127
9
-109
-70
-114
-5
-18
-30
0
-31
0
6
2
8
10
2
-15
-127
-6
127
-3
22
1
0
-25
65
-10
125
-5
13
6
-3
26
8
-16
31
22
-20
-127
-19
-11
-26
13
28
127
10
-33
-39
-60
-103
-7
7
-5
37
-43
-7
-27
-8
-72
-114
-22
15
95
-10
-43
14
-127
-127
65
27
105
-29
58
7
6
-52
2
-127
66
0
92
-127
-6
-27
7
-55
55
-2
127
108
0
-39
7
-64
127
5
13
21
24
30
40
-22
-4
-127
34
21
-71
70
9
14
-116
-13
5
-103
8
4
17
9
22
-55
-118
13
-127
-49
-14
-19
119
-31
-127
0
95
-42
-8
-16
-127
-55
-51
-23
-1
-31
127
127
0
77
-25
102
7
-120
-58
-58
-13
104
-36
-127
5
-127
-60
-70
-6
127
17
-12
-15
-73
7
7
-3
31
-12
-13
23
127
-12
60
127
-2
-4
19
35
-16
1
-37
-28
54
16
9
-10
4
33
-106
98
-12
13
8
-24
24
59
-127
-88
1
-127
1
5
3
-98
-30
0
2
49
-1
-18
3
-127
-41
-6
-120
52
-3
29
7
-110
-30
3
127
-8
127
-127
14
-20
-125
-95
17
6
-12
11
17
0
16
-26
-1
33
-127
47
127
41
33
-23
-31
-1
5
-4
-12
21
3
6
10
19
0
-2
2
29
-5
18
3
127
-20
1
8
-127
17
-6
5
-107
69
127
46
-40
127
12
0
-117
-105
-113
-1
-28
-88
-19
-2
-5
-6
-15
-27
-10
-9
127
-127
-16
11
21
-28
10
-28
8
38
-127
7
7
-68
-81
7
6
-16
3
35
-45
51
17
112
-9
-22
6
54
-66
75
18
127
-5
7
-7
-98
16
9
-32
13
127
6
-29
-127
-7
3
-19
21
-35
-1
-6
-120
31
-22
-29
28
-39
11
22
-15
-127
127
127
-28
9
-127
-13
25
14
16
18
-19
-102
-40
1
21
78
53
0
-29
-5
0
41
2
28
-33
6
33
-4
8
-5
-127
111
27
10
9
0
-52
13
27
73
-114
14
55
-3
22
-7
-9
0
-9
32
-27
-8
-48
-6
26
4
14
9
-29
53
82
127
-2
-12
7
28
-7
-11
12
2
54
53
34
1
-35
-21
-20
-2
6
-58
31
1
127
4
-4
38
17
-16
1
-58
-3
126
-18
-5
-19
13
13
24
20
-34
-48
-8
-28
40
4
2
-6
-5
-4
-6
36
-12
14
11
5
-8
-51
0
9
-41
-19
-14
-28
14
127
110
-3
5
0
-24
-8
-7
9
-2
31
-47
-28
-10
-27
72
80
-3
34
78
61
0
-39
19
42
15
-31
-70
127
-9
-52
5
-10
-3
-27
55
17
1
-35
-17
19
2
19
110
56
4
-65
-9
-1
-3
-119
-42
-41
2
74
-6
-13
-70
-10
-17
29
-6
-15
2
-11
3
37
1
-5
-6
-30
-12
2
0
22
127
65
-1
-75
12
-2
11
-11
12
25
-22
56
-42
-48
1
-23
-62
-38
-6
26
18
39
-113
-3
-18
10
-26
-1
13
-10
3
11
78
38
3
-41
-7
-18
-4
-36
75
26
2
-34
9
17
-41
21
63
-99
0
46
7
5
0
7
-22
52
0
123
-23
-55
-3
-30
58
27
9
-1
-20
-57
-4
44
32
119
0
118
11
29
-1
13
-2
53
3
93
-6
-29
-1
38
0
57
-18
63
11
51
-1
-70
11
-19
-8
-15
1
78
1
41
122
75
-5
-76
9
37
1
-22
-60
-41
-6
20
10
41
-49
-9
-15
47
127
13
63
11
6
-1
10
-30
-18
-32
-24
-42
1
9
78
39
4
-38
1
-17
-5
14
-20
-10
-24
22
127
-75
-1
2
50
35
15
-2
-40
-84
-1
27
68
54
3
-25
9
20
2
7
44
22
1
12
42
-124
2
66
-40
-12
-12
-19
2
34
37
5
20
-22
65
36
21
27
-7
16
9
5
-12
-3
-127
8
103
76
12
26
19
74
0
-51
-18
32
-4
4
-15
57
-4
52
96
-17
6
-6
1
127
9
18
-21
-57
-68
-51
11
-19
53
-18
127
-127
-4
-46
-13
112
-16
66
-10
59
36
77
-127
-3
-2
1
29
27
127
127
71
51
-5
-127
-6
2
0
-1
8
16
24
29
127
-49
-62
78
-75
20
85
-61
3
-44
-127
113
-14
-4
-28
78
99
-119
-78
34
-53
-11
-3
32
-12
17
5
8
-47
-16
-24
-127
99
-127
78
-127
-4
5
4
13
13
4
-5
-9
-63
127
127
37
58
-41
12
-28
-127
-114
-87
-59
77
15
14
-9
-19
17
2
4
33
-127
-24
87
63
-13
24
127
-51
73
21
41
14
21
-60
-106
-14
20
7
127
-4
2
-52
-18
127
-9
-88
-29
96
-31
44
-3
-18
7
-16
108
-67
22
-25
34
-53
7
127
1
-127
127
127
-4
34
34
34
55
-49
-47
-43
-16
127
0
23
-3
-9
23
-127
34
-31
-127
-12
-14
-21
8
10
-67
5
-15
5
6
14
26
-34
-40
-8
-66
-20
2
11
-1
11
-127
30
13
-127
-39
127
-127
21
-91
5
-30
16
16
2
-6
-13
-47
-15
13
50
-127
-126
-49
-18
-83
26
1
-43
30
76
7
7
-79
23
-5
-53
0
0
27
-127
-18
-6
-127
32
-60
127
-31
1
50
-7
77
80
41
-45
39
3
-25
-21
11
-85
70
16
-33
-4
17
0
-4
127
-28
3
-127
-27
-36
20
-12
80
127
28
-73
-8
43
127
5
9
29
-20
-1
-17
-127
-87
39
66
64
-51
96
-2
8
16
-6
-38
-101
35
31
-7
-21
71
-13
-42
-4
-7
26
38
-5
-21
-24
13
9
4
-22
-45
-24
-18
-23
47
-25
-16
-40
-11
-51
-21
127
127
-127
-127
-37
14
127
-5
-11
62
16
2
-29
10
-123
100
-3
39
6
-39
113
-127
42
-127
13
-11
-1
-12
-127
11
17
5
-62
13
-29
8
-17
-1
-7
-3
-12
-6
10
1
11
-40
-16
7
-16
-37
-15
23
15
73
-20
-3
5
-17
-2
-42
-10
-67
33
-4
95
1
9
31
-8
-13
-125
4
-113
-55
-77
-11
-30
2
22
-4
43
45
33
2
2
-6
8
-1
-2
54
18
21
6
-13
-78
1
-117
-38
-46
-14
-16
2
11
9
-45
-9
-55
7
-46
4
-45
-3
11
127
43
8
-17
-3
2
-3
-43
-90
-19
-9
47
10
19
-3
29
49
18
-18
-18
-7
11
11
-54
-23
-6
6
21
-5
-101
-14
31
11
3
84
12
3
-28
-14
-15
7
-1
45
12
4
-8
-9
-19
-63
-22
-25
7
10
32
-1
123
-71
-1
4
3
-4
-4
26
-17
33
13
-62
-11
-7
-127
-3
30
99
45
-23
-8
3
76
-4
66
-109
-51
60
-22
-16
92
10
9
51
0
-53
-9
127
5
-9
-8
-35
-4
22
1
-29
59
-2
-106
72
-7
29
-26
4
-22
2
-13
71
6
-6
-17
1
10
5
83
-104
2
-11
33
5
-8
8
-24
47
18
-56
12
-18
1
-21
6
5
7
33
-4
-77
75
-3
16
10
-15
-114
-4
-49
-67
18
-35
-23
-18
-58
3
7
-85
12
-16
-61
-31
-7
19
11
28
-12
-41
-10
-3
82
12
-1
5
1
-2
-44
-21
-17
-6
27
61
0
-35
115
29
-24
-9
8
56
18
-22
-111
127
20
-33
10
6
11
127
-16
-63
3
-127
10
-75
1
-119
-9
-11
-28
23
4
49
-11
20
49
1
7
-28
-2
108
-127
-2
-4
-13
-34
2
17
2
18
10
5
5
-94
-12
-3
14
1
-17
-51
-19
-19
9
13
52
-1
43
-25
2
-33
-12
4
52
-1
-12
-68
-19
-19
3
0
94
-6
50
61
37
-7
0
-8
11
37
-27
11
19
-127
19
6
27
3
-32
66
9
4
-15
0
-11
17
-3
-44
0
-23
12
13
-78
-17
-1
27
8
87
12
3
13
