1
25
-16
-6
-35
-4
8
-1
0
0
0
0
0
0
0
0
-1
0
0
0
0
1
0
0
0
0
0
0
0
0
0
0
127
-26
1
127
-3
-1
-1
2
8
34
5
17
0
-51
11
5
-10
5
60
12
127
-5
-2
1
0
0
0
0
0
0
0
0
-11
-4
1
-12
-54
-18
-1
-58
2
-1
7
-4
22
-28
-127
1
0
0
0
0
0
0
0
0
-3
-7
1
1
52
2
7
2
0
0
0
0
0
0
0
0
0
1
0
0
0
1
0
0
0
0
0
0
0
0
0
0
4
-10
127
-8
-56
8
-6
1
48
-127
72
-47
19
-33
2
2
0
0
-12
-5
16
-6
15
1
0
0
0
0
0
0
0
0
0
0
0
0
0
0
0
0
-38
85
66
34
-8
20
-8
0
-5
-13
3
5
-28
1
4
127
0
-9
-6
4
-5
-127
-9
0
-3
-71
-9
39
90
1
0
26
-127
-4
-24
15
-18
0
127
-11
0
0
0
0
0
0
0
0
0
0
1
-1
1
0
0
0
0
0
0
0
0
0
0
0
4
1
0
127
-4
2
-4
1
-1
-1
8
12
8
4
0
-51
-26
-23
-127
11
16
-68
-13
-9
0
0
0
0
0
0
0
0
11
-5
-35
-21
28
6
-9
-39
22
-8
10
-4
-31
-12
-33
-34
0
0
0
0
0
0
0
0
-1
-10
-32
6
-3
127
1
3
0
0
0
0
0
0
0
0
0
1
0
0
0
-1
0
-1
0
0
0
0
0
0
0
0
-58
-27
49
-2
-10
1
-38
15
80
4
-8
-73
-127
-5
116
-48
16
-127
1
2
5
-28
9
-3
0
0
0
0
0
0
0
0
0
0
0
0
0
0
0
0
114
4
10
57
92
3
95
36
5
0
-19
-10
32
2
-3
-31
-5
1
-7
1
2
1
4
127
-93
-1
73
-17
96
-26
78
9
-70
58
-13
27
-20
-34
54
32
113
-62
14
-53
4
68
-110
-80
-10
-4
5
11
-5
3
-6
14
46
-41
12
-18
7
29
78
-14
-10
16
127
12
-38
-4
97
99
31
-57
-16
-3
-127
39
-9
-27
64
-85
14
127
-17
127
-13
2
-1
-8
-4
-3
85
2
-23
-2
2
-54
13
29
-1
80
-24
-9
5
-22
-35
10
-4
51
0
15
10
-14
-122
11
-36
2
96
-127
72
-48
14
-34
-7
44
10
-42
127
-127
8
-46
21
71
127
-51
7
-16
-5
-9
1
0
-8
14
-14
31
10
9
4
-68
20
-3
43
-72
-12
10
78
72
0
-25
-13
2
4
70
127
-33
-1
4
58
5
8
-127
-38
-68
57
3
3
-82
-16
-1
-6
-22
66
18
-47
-3
-3
-42
78
27
6
-5
-127
-8
19
40
8
127
-111
-11
-26
3
-15
-47
38
-4
9
-5
-5
13
-127
-38
-9
-27
76
5
-56
3
9
57
-20
6
-73
-2
27
-127
12
26
0
-12
20
78
-26
-35
-31
-1
-1
-9
-82
-127
-50
-1
-3
10
1
93
127
20
-5
-1
2
-87
85
-42
36
0
-63
-5
-22
-123
-5
71
24
-5
-32
20
2
2
-4
-8
110
-127
-9
-123
-1
-34
3
24
-11
75
-26
3
-23
-41
35
2
31
0
-10
-8
15
-4
2
-127
16
11
41
11
-10
-31
-32
10
-9
-4
-50
87
-96
11
-9
-2
-2
-19
3
2
-11
10
10
-98
-17
-9
-57
-14
-6
55
127
-7
-49
-111
-7
18
-3
-3
32
28
17
0
-87
67
23
-36
-13
-9
123
-2
-6
0
6
12
77
-36
-13
14
-123
-10
-127
126
4
1
-106
3
-34
-127
-8
5
90
-3
8
15
-33
37
1
34
-68
-16
-41
127
19
10
-17
-14
-2
-94
-4
-12
14
28
-23
21
-5
-15
-8
-17
2
-6
-11
-1
0
0
5
14
127
-64
-127
-127
25
1
127
0
-33
32
-10
15
-4
26
12
4
66
-79
-5
0
125
-7
3
15
-111
106
-24
-31
80
26
-4
11
-3
6
-24
10
1
-98
31
-7
-36
-100
4
10
20
10
-1
-15
14
-126
48
49
-127
8
-51
-46
-33
-13
4
-5
28
-14
-3
-12
-17
14
-56
-2
10
-61
10
77
5
-72
36
5
18
7
-12
-30
-7
28
127
126
33
17
-13
-116
0
-1
10
11
0
106
11
-14
-9
-127
32
33
-127
-10
41
-43
-78
-40
-12
-16
112
4
-9
4
-127
-85
12
17
-120
13
4
-35
-8
7
-10
-5
7
-127
-127
13
15
-23
-105
-127
-25
-3
-10
127
-55
-15
17
12
11
-18
-1
-22
-18
-24
1
3
54
-64
-92
61
81
85
-13
-7
-127
114
-85
-104
-42
49
-56
-3
50
-127
2
105
18
16
2
-2
-21
36
14
-46
69
-99
-53
6
35
112
80
-115
52
11
-2
-127
-37
34
-9
-67
2
78
-4
-3
125
35
-1
-17
62
-40
-15
18
-29
29
-9
-33
22
26
18
1
65
12
-26
-8
-46
-61
-75
-8
58
-53
9
39
-127
127
54
-5
23
-81
85
127
70
47
-5
-6
-75
75
-87
-85
14
47
21
-18
-71
77
127
-95
65
59
127
-3
9
46
-10
-52
-49
-32
-15
0
-69
29
13
-22
41
29
8
108
-15
56
-14
-61
29
-14
-3
-24
77
127
127
-4
78
11
17
39
109
-5
6
-15
10
-10
-2
34
-3
3
1
3
-44
12
-14
3
16
87
73
8
-127
123
0
31
-112
-10
-32
43
18
-5
127
8
-127
-14
-2
-2
12
2
-1
18
2
7
4
-48
23
16
-81
54
15
6
1
9
2
2
6
-71
41
3
7
122
-7
-12
3
75
-28
1
0
5
-91
-127
3
-56
-118
-4
-29
27
38
13
16
15
82
96
97
-4
-112
8
-12
5
-87
-1
-15
13
14
28
-2
-127
27
1
1
-6
-27
7
1
-50
-23
-4
-6
-127
5
-9
-46
16
-29
-18
-10
12
3
-9
-17
47
-42
62
-1
-1
16
17
37
-99
-94
-122
-12
32
2
-5
5
-5
-1
-15
5
-5
-2
3
22
80
21
-35
0
-13
-7
103
-85
122
127
127
73
-42
88
-4
31
9
4
-52
31
12
10
-23
-36
-17
-17
-44
-19
57
-3
-8
67
61
35
-17
33
-31
4
2
-52
-26
-29
16
-9
-123
-4
-99
127
2
-7
-17
68
-8
2
-71
16
127
127
-126
-100
-24
7
19
24
13
-61
-71
12
14
17
-4
53
99
93
-107
-9
-20
2
127
-127
-7
-10
66
127
2
-3
7
-37
22
21
32
4
127
-127
-19
19
7
5
-89
33
-4
-51
-6
14
3
3
-68
-2
11
39
11
8
-7
-5
127
-40
-8
-6
127
-76
14
-4
4
19
4
8
1
1
-4
-5
44
14
-9
75
-2
-67
15
20
-11
45
-123
31
-1
-24
1
-87
15
-5
-5
-108
-90
-1
1
-7
-22
30
-1
127
4
-42
-1
-86
10
-1
-5
-86
-63
50
36
-4
-16
124
-6
109
22
-127
35
0
9
19
25
-85
-2
102
5
0
22
29
127
18
11
4
-1
-4
71
-22
-12
41
0
3
-13
-42
100
25
-12
58
27
114
127
-4
-6
-2
7
-20
-44
19
47
3
-4
-127
-3
22
-2
-16
2
127
13
18
7
-30
-37
-1
-30
-4
5
2
14
49
-13
-8
54
32
39
8
60
-81
10
92
101
7
-12
20
5
15
23
2
18
-7
-13
-4
-59
67
127
6
-74
26
-48
-22
-122
13
17
-1
8
127
7
1
24
127
-4
-21
105
1
-54
127
-1
-6
7
0
-38
45
8
-30
-52
41
-32
127
0
-2
-127
-76
32
24
-10
26
-72
-1
-22
18
-16
-38
117
-1
127
31
-27
-7
-127
26
-5
0
32
12
19
3
25
50
38
-2
60
-18
-27
-11
-91
30
-12
7
72
0
9
15
15
16
18
126
-48
2
120
72
-20
45
17
1
56
-105
-22
-7
-4
-7
14
-8
-5
-127
-5
53
-4
13
-8
103
14
19
13
-127
18
-46
3
2
-11
-1
-3
8
109
0
-9
-66
5
-79
9
-21
0
77
-35
-127
25
-4
41
25
32
1
-22
-69
6
-10
-24
-35
0
-12
127
46
1
2
-127
49
6
-12
-55
36
35
1
52
-52
16
18
-55
19
-127
1
70
30
-17
-27
22
-5
52
-2
-9
23
127
-42
-19
-122
-16
-1
31
-4
-17
13
-12
33
6
-92
0
-72
10
-9
-23
-116
-8
7
2
-59
-16
127
11
9
80
2
2
1
-107
14
67
-13
-119
-1
-79
-28
15
11
-21
80
-8
-14
-24
-16
3
13
70
-9
-11
4
-51
127
68
-11
-127
45
14
7
79
-32
-90
43
43
-18
-127
-4
-74
0
104
28
-37
-8
10
-9
33
93
-44
74
-99
-34
33
-38
43
-6
-73
69
-39
-1
5
1
54
2
-67
2
-28
-104
46
5
127
-1
-30
120
-26
6
0
6
17
6
5
-26
1
-127
54
-5
46
0
-18
127
-28
-31
1
-127
79
-2
22
-14
120
-12
-3
43
-35
-2
127
35
-81
19
10
0
55
89
-73
12
-78
-17
26
-6
76
17
-117
29
-35
7
80
-98
-1
-1
-51
-1
3
112
-18
-12
17
1
-16
72
-31
-29
7
4
87
-1
-49
5
67
-21
-72
9
127
5
-8
12
-115
-27
127
-19
-9
-8
-61
-56
8
-4
-10
-20
6
-3
-39
1
-39
34
49
4
98
-8
-84
-80
13
66
-9
100
17
13
22
-17
-27
-1
35
-16
-30
-90
-53
0
11
17
-93
-51
6
-6
-110
-16
6
127
-1
57
38
-126
-17
52
9
-25
-4
-21
-3
-3
49
13
-3
21
0
113
-1
4
38
81
0
65
6
-78
22
7
-22
-3
-77
-11
83
-11
93
-2
-93
2
-127
57
115
-29
16
-17
-127
127
-1
-14
7
-127
1
-2
111
25
5
2
6
3
0
1
69
-36
-34
5
20
-31
-27
127
-78
-48
36
120
43
-12
7
-14
38
10
11
-70
21
-54
-41
-25
-20
-45
0
-8
-25
-22
20
-43
-91
-14
10
-43
-17
78
24
-16
-24
-45
55
-7
-10
-13
22
-2
-9
0
-9
-48
26
-50
-48
-40
30
95
-20
-64
7
-29
2
12
2
0
-37
-42
-12
41
24
-16
59
-27
4
-23
0
-43
44
-35
67
-5
-3
-26
-31
-66
9
-10
-19
-6
17
31
-29
30
81
-50
-27
11
-34
26
4
-31
-14
11
105
-23
-13
23
26
18
-37
-15
-7
-34
43
-5
-8
-4
9
8
-31
-5
-2
-18
6
-8
-27
43
34
-18
-28
57
12
7
96
14
-14
-13
22
-72
18
-38
-36
-9
-42
33
-5
-90
13
61
-82
61
28
-9
-2
-31
-25
-127
-19
-6
26
35
-2
0
8
29
-43
-127
-44
-37
18
-31
-4
-16
16
12
10
-44
23
32
46
51
-59
-39
-2
-54
31
-55
40
0
-78
108
-34
-50
34
-16
4
10
-70
31
1
65
23
66
11
-110
-28
60
-108
2
-29
-109
28
9
64
8
-50
27
0
1
13
27
-50
-96
-21
15
0
-12
6
13
-28
-79
-30
-127
-31
-31
-28
-9
-36
26
-34
1
18
55
-18
-61
96
-60
9
-6
-7
7
6
-18
11
7
29
-4
-6
-49
24
-45
-43
-42
-8
-7
0
-7
20
-10
-53
5
28
-8
11
-20
8
-6
-28
48
45
-13
20
-26
-1
-19
46
-36
99
54
39
3
4
-2
-13
39
-57
-6
13
-88
12
-59
-31
-43
29
-13
2
-1
6
-41
-7
40
15
112
-19
-22
16
-6
12
2
8
-12
0
-1
1
-42
-5
39
13
25
-20
53
35
31
-7
-21
0
10
53
-11
-53
-45
46
-23
-66
39
-65
-4
6
-6
-25
13
-5
-30
7
-15
-6
-26
37
-23
46
-80
-5
-18
-12
-11
-10
2
32
-1
10
-47
109
-40
78
7
31
23
-11
4
-127
8
-127
15
-9
31
-1
0
9
30
-39
-108
-34
-17
-121
-14
20
13
16
0
-72
34
8
-5
-7
-2
26
15
52
2
5
-20
20
23
-63
4
34
13
22
127
-20
-55
-60
11
65
16
-49
13
-12
-3
52
1
-76
-7
27
-57
7
4
-14
33
31
-6
-2
10
4
17
-14
18
32
-7
2
-24
13
-27
-23
-24
-24
-5
-3
5
21
9
-62
-6
26
34
27
-69
2
94
-57
-57
38
-21
-12
8
6
-27
37
24
16
-28
15
42
-29
-116
45
-43
-24
-40
-127
-10
15
-34
9
2
25
-2
64
-20
13
15
-7
-36
-42
-60
37
-77
49
-8
-95
71
-21
32
50
-30
-20
-21
-6
0
30
-5
-4
-9
12
-60
-8
-8
-28
-2
-30
40
33
27
1
-32
43
-4
-14
-22
-25
-86
13
16
-17
-1
16
-35
10
-11
-34
41
44
58
-50
11
9
-6
-13
21
-55
-8
-17
-39
38
-66
-87
-11
64
1
-5
-70
22
-56
-50
-53
-3
56
-48
-27
4
-7
12
-10
16
-11
9
2
0
-14
15
-10
30
13
-11
-30
16
-21
-57
-67
-4
16
47
-22
6
-5
10
1
2
16
-15
-10
1
-18
-7
44
-38
11
-25
-37
115
-4
122
-7
11
-1
26
-42
9
-6
-11
22
-83
3
20
-53
29
-95
-38
-24
3
-9
-19
31
-8
-9
41
17
-54
3
-12
16
8
-11
7
31
58
5
11
-2
-8
-57
38
11
-23
13
-10
-32
18
-22
-57
-68
-15
24
24
-45
8
101
-70
-13
9
-1
22
-26
-4
-19
24
-54
127
-8
1
-50
15
-64
-24
-44
11
106
-25
19
18
20
-51
10
-22
-11
1
-4
-5
-52
20
50
4
19
15
-20
-13
-8
21
-18
47
-57
-47
-99
-47
88
31
-31
68
-94
-10
-45
-28
-31
-9
32
-29
38
-57
-116
-27
-28
10
54
-22
0
38
-57
2
9
-3
32
33
55
2
-59
-72
-46
94
34
-5
-6
-88
27
-1
20
-3
-15
-27
-1
14
-38
24
28
-82
12
25
-40
59
-50
-5
117
-23
-46
-11
-6
-19
-2
-19
57
16
-37
-46
-16
-12
-2
15
8
21
65
19
-27
20
-8
-7
89
6
-4
-46
-15
11
90
19
27
-4
7
-53
-21
-15
14
-13
-23
3
-52
19
-31
39
68
5
-12
-28
118
-62
28
18
63
-20
-6
-20
0
39
-21
28
-5
-43
-29
52
20
32
5
51
-1
50
4
17
12
36
67
51
-15
-5
2
31
-14
-20
-11
-62
37
0
-4
0
25
-71
-15
18
-4
-7
-9
24
45
-4
-18
-10
-39
4
47
-12
57
-83
40
10
1
42
0
34
4
26
-12
8
44
-127
8
-10
-17
-16
-25
48
-13
-31
95
-9
-34
-52
-74
-32
-12
101
69
40
-18
79
18
127
6
57
17
13
-15
97
57
-26
14
4
6
-44
26
-73
-41
10
-24
-22
-37
67
1
-39
-39
77
5
-21
17
59
127
8
-5
85
-44
-54
45
-110
36
57
-59
17
-50
18
-25
-23
-28
-51
-7
-60
-4
35
-13
8
20
28
-9
-30
59
20
-48
-13
28
36
70
-12
16
12
9
-34
12
-69
18
-13
6
-7
-8
-35
9
-21
-7
-40
61
12
-2
-10
-58
-49
48
23
-16
-107
-60
-22
-6
-86
9
39
15
-32
-64
49
-28
-75
-25
17
15
-18
16
-2
-49
40
127
40
17
27
18
1
6
-13
36
3
-19
44
5
26
5
58
-34
11
-22
-47
-3
48
7
38
-14
30
72
-2
11
13
-113
-44
-5
-5
-4
-32
40
21
-49
-72
59
34
-1
13
1
29
-7
20
-19
55
-24
-2
-17
-14
107
-33
58
29
1
15
-11
26
0
24
25
19
11
-13
-13
26
-97
95
-15
29
-52
54
52
30
81
29
-13
18
-74
-3
-2
-10
-34
11
-34
16
-4
-38
1
32
5
60
2
-24
-57
4
-2
-8
-40
-44
-5
-20
2
43
-56
-17
-2
-2
-13
19
5
-41
-28
3
40
54
55
-21
12
7
8
-36
20
-66
17
7
-80
0
30
30
-113
-82
3
14
-22
-24
-21
22
4
-60
92
18
5
42
13
6
-5
-25
-3
-15
-43
3
-3
0
-10
-20
1
4
54
-8
36
-8
19
4
10
-18
-36
9
27
26
-16
-37
50
26
10
12
-41
21
-8
-23
-24
40
4
-17
23
-9
-33
23
125
41
25
33
-3
-3
-6
-15
-94
-62
-38
44
-29
22
-60
-119
-14
33
21
-52
-58
61
-22
-80
110
64
-9
-22
-37
-26
51
-14
-18
-7
-108
26
-20
-21
17
-12
14
-13
-85
-12
-107
-2
-29
80
-10
84
-38
-83
-11
-127
23
20
-39
-3
-60
12
4
9
-8
34
8
-12
11
-25
54
13
-13
-31
38
8
2
-12
61
32
-108
81
-23
82
7
34
5
22
-17
23
35
-6
-25
44
14
43
-7
3
-10
18
-23
-5
10
22
-100
-44
-17
0
28
-27
-109
-50
0
96
-22
23
15
-22
-7
4
-60
35
-11
26
-74
-1
-21
-16
85
4
-4
24
-3
-28
-44
38
-15
-40
33
10
28
14
8
-12
-27
-8
-13
3
83
7
5
0
44
-31
0
38
18
4
-43
13
-35
-66
-24
48
-19
40
38
-30
20
-34
-4
36
-17
-26
127
-11
-4
-93
-19
-27
-18
-29
46
22
-45
-47
-8
13
18
-21
-41
30
12
-28
-8
56
20
-38
-56
33
-53
-24
35
5
-18
-24
18
14
35
26
43
7
28
10
23
-18
-16
-21
-34
-72
-33
76
-17
9
-12
-76
-13
20
-27
-27
33
19
13
127
-4
-10
0
-28
-7
13
-33
-7
-11
57
14
-5
-48
15
45
-44
44
25
-7
-8
-3
28
10
27
-53
-14
-29
-15
49
-8
29
48
-33
67
54
-18
26
6
-3
7
-26
-29
-10
13
-39
-22
-1
-124
44
-110
57
-22
-34
39
86
-93
-5
-4
-52
-2
4
44
-12
-73
7
6
-24
23
24
-56
-104
6
22
-7
-127
-18
46
7
83
57
99
21
-5
60
27
9
-13
-19
-10
-11
57
-4
-51
10
-83
29
26
-43
-5
-15
-16
-14
-10
-31
-22
71
-30
26
-75
-3
26
1
13
7
8
19
-12
3
24
15
1
-16
25
-16
16
-25
26
16
-6
-29
-2
4
-19
-17
-55
-16
-2
57
127
-30
-127
126
-1
-20
-8
-3
49
-47
24
-39
22
-11
46
35
56
58
-33
-15
-28
18
-4
-17
15
19
11
-19
-85
-84
-31
2
-21
-74
10
20
16
36
-32
34
-19
10
0
-10
5
-16
-4
5
-5
-13
44
1
-3
-20
37
13
2
-23
-12
-39
-30
31
11
-13
16
-3
-21
-4
-38
9
2
-18
-24
-107
32
41
-31
127
7
-28
6
29
-10
-18
14
-16
-10
-23
95
78
-2
-45
-40
19
6
-14
9
66
0
-27
1
-123
-30
28
-28
55
38
6
8
20
50
2
-22
57
-59
7
-28
58
-62
-9
30
-31
122
-12
61
-21
-13
61
-1
101
-11
-25
-5
-50
35
-37
-127
-53
-80
51
-62
9
45
-22
44
-10
49
7
127
-19
26
-20
-32
-14
39
8
47
-3
-20
8
-28
25
24
7
15
26
-33
20
-10
40
22
-3
-8
2
-5
18
116
7
94
127
-9
-15
2
-5
-61
-43
45
26
42
-41
25
-30
14
77
-21
7
27
37
-6
-26
10
15
-19
-8
-41
-6
8
0
-26
-54
-18
15
-32
46
-6
10
15
-26
-20
-6
-49
1
62
31
44
49
-19
-3
0
63
-12
118
-29
-6
2
0
-1
5
-17
-27
-8
-28
-27
-16
-11
-22
-4
-6
-8
-41
-17
1
-46
2
-10
9
-1
-21
-121
-14
-2
12
-13
-6
-13
-37
-11
5
-53
1
-18
-19
-42
16
-85
-1
61
-42
-127
56
-78
46
37
43
24
63
8
35
0
-11
-32
30
18
-3
55
37
16
8
-47
0
36
35
-6
27
12
-6
91
0
-4
8
-11
-17
-20
-22
4
-9
79
-9
18
-7
25
-43
-15
-12
44
6
-24
23
-22
42
26
4
15
19
9
127
-5
-2
51
-3
-40
-8
-21
-12
19
73
67
-3
-18
7
2
-2
-4
-14
-19
4
-12
47
-28
8
18
-12
-3
-29
36
17
-66
32
100
-1
42
-61
34
7
-24
17
29
-25
-32
-21
-5
-23
26
-10
-7
8
-18
11
5
47
5
-18
6
21
-12
-8
-20
-3
7
-9
-28
-41
-20
17
-11
58
12
-14
59
104
-25
-35
70
-14
19
-33
31
72
-31
7
0
62
-16
45
-60
-25
12
11
27
-118
14
-30
17
-26
6
12
23
20
-28
5
35
-34
1
4
-51
23
-41
77
-12
127
-29
-26
7
-57
-8
-26
-123
20
46
55
67
21
18
-15
-13
-22
-21
-3
12
-24
-6
-12
10
24
-39
61
67
-65
-19
-47
13
35
25
-19
-77
-76
-12
8
15
-5
-35
-11
-26
-3
-3
117
-36
-3
37
-6
-4
4
-57
30
10
64
-23
-9
-83
-23
-10
-37
0
14
-26
-16
-25
-12
-13
-23
30
-16
-60
10
15
10
35
1
3
52
-28
9
43
38
0
-22
-15
6
-2
-1
-25
9
-3
16
13
-3
-25
12
-9
-1
-41
-72
4
41
34
-9
-38
-35
4
27
-6
24
-32
-1
-34
13
48
-20
-14
32
7
-9
64
-25
8
-27
20
-23
-26
-17
-65
-31
-39
-29
-22
49
8
19
-41
52
43
-63
-9
45
1
10
-2
55
4
12
-20
-20
23
16
-48
-18
1
-21
-19
5
5
-2
-22
8
-8
28
66
80
-29
-20
50
-9
85
43
20
19
-8
6
10
30
-7
-23
-8
-23
-24
-7
-29
-19
-16
40
-6
-23
-45
6
2
-23
-9
6
-26
-26
-3
14
-52
-12
8
13
-21
-3
45
29
-46
2
-50
-6
-59
-9
-48
4
-49
13
8
50
-13
-19
115
-52
-53
57
35
-14
-85
-4
27
-7
113
-75
-6
11
40
34
-19
-20
22
-6
-62
-31
7
18
-81
9
53
79
-24
-118
14
28
-38
-9
50
-20
-8
1
3
-21
-28
-6
-23
36
-96
35
7
-24
98
20
-34
-41
-44
-4
61
-65
2
-36
-8
-127
54
9
8
-127
-37
29
-49
-25
-8
-31
-48
-58
12
9
-48
-22
-3
-29
104
30
10
30
30
101
-18
-51
72
21
24
-12
1
29
-16
-100
-47
8
-7
103
-19
-13
-127
4
-127
35
118
-65
-5
-1
2
127
-8
-4
10
-4
-11
32
-15
46
65
-24
5
19
8
26
56
-2
-66
61
-23
24
13
127
47
119
20
-5
-61
-3
13
-13
-75
2
-33
-49
42
-17
25
49
-61
-87
-9
19
-21
-11
16
9
24
39
-17
40
-18
-32
28
12
-49
15
49
-4
30
-127
-25
-97
16
-18
60
-19
15
-72
31
43
30
20
-11
15
-18
-125
-4
-32
19
-41
58
-59
42
-7
-127
7
-26
62
-6
-7
-16
15
21
29
-120
46
37
10
127
24
-21
-20
-98
-1
34
6
9
22
49
-103
58
-18
22
-11
-10
-27
-14
-49
-124
-98
38
-24
4
-38
-6
-52
28
-63
-53
-25
-13
-5
-10
0
18
26
97
-11
14
-6
68
8
-24
-127
1
13
89
108
108
65
-16
-60
-85
-3
-51
-58
35
-33
-49
81
112
28
89
69
-41
52
-12
47
9
2
103
127
-21
-127
-66
-67
-33
49
111
-40
-4
-11
-46
-30
29
15
-21
-31
-127
-5
23
12
47
21
-96
-118
-49
-16
91
51
-8
23
-33
81
-11
22
0
7
127
22
-39
10
-73
5
64
-10
-56
-3
-23
38
51
-55
6
-1
37
127
-32
16
-38
-11
127
26
20
-22
-50
-4
-19
54
-109
22
-6
15
28
-28
4
32
63
-7
-4
-66
48
-5
-42
-15
94
-16
8
60
-19
17
14
11
-75
-17
-26
-14
43
-16
-25
16
30
77
-51
-77
-7
11
-44
10
-43
-22
15
36
-6
35
13
-25
-25
-18
-85
-5
-2
30
-24
8
18
74
-116
-59
4
8
88
-9
25
-79
-63
30
17
-59
-40
-49
-67
29
-55
-42
-127
10
49
-26
56
-15
-1
10
-8
-33
-8
-9
113
14
44
-21
-26
-72
14
-94
22
-61
46
-36
-32
6
72
-127
-43
-4
-36
12
28
-50
27
-70
8
7
94
-57
-29
92
123
9
-5
14
127
-65
-42
41
27
25
8
-9
-115
-7
34
-6
-3
21
9
56
-31
62
-26
127
-28
61
20
41
-58
-8
3
-34
-10
15
-32
32
28
-47
-14
18
4
-36
127
-24
-44
15
23
76
3
113
-41
-47
-8
7
-27
11
-29
-1
5
-22
-7
-127
25
41
14
-43
9
-50
82
-43
-27
-5
-5
5
27
-3
-41
24
55
25
-108
92
71
-30
18
41
23
-60
-33
6
-19
46
-82
-24
-9
-20
50
45
-35
5
17
28
-1
32
57
-49
11
127
31
-6
5
-88
-44
-21
24
-30
-17
-2
6
16
-5
13
-69
23
-25
-9
26
-24
-39
30
9
-36
9
-27
3
-15
18
4
-3
-22
-114
-32
-11
-28
-127
-73
-24
-39
74
-6
127
17
-122
-3
-11
6
-4
38
-9
-104
18
34
10
-18
32
-8
-1
-96
1
-12
26
68
53
50
-88
-14
30
-73
-11
4
0
7
85
52
38
49
39
22
53
127
-26
-13
127
-92
83
34
3
60
-127
-14
16
-64
-31
68
27
21
-54
-60
37
127
-19
-121
25
-30
-31
-85
5
2
-33
29
-16
-20
48
11
19
-13
17
50
33
-72
51
-2
-67
5
-20
32
-41
-13
34
85
-14
-7
-58
-45
75
-43
-68
-71
-37
-40
46
47
-49
-6
55
-32
74
-37
81
-16
-96
38
-69
18
-51
-58
-17
-12
8
9
-48
-13
39
68
5
-127
-78
-19
62
-37
-6
46
-20
-33
64
13
-53
31
-29
49
10
-116
-8
-43
-24
110
84
-19
17
-18
127
-44
-12
127
-45
-33
-7
-9
-32
-32
83
-58
7
28
11
20
27
40
-40
-55
-46
60
0
39
-56
38
10
-90
21
-67
-35
-45
-87
-34
-42
66
12
47
127
-28
-25
73
-26
29
-2
12
-2
-15
-35
-127
-12
-9
7
-23
-23
-52
9
92
-14
-26
-12
-2
-17
24
65
-23
103
-49
-83
10
17
-12
-10
17
-58
-40
47
2
-12
-21
84
-23
-66
54
-31
-46
-83
-7
16
-2
96
-38
-127
42
22
-20
-29
-6
-45
27
15
23
-27
127
18
19
-23
-24
39
-37
39
-30
-13
3
127
-62
-8
66
107
-18
2
-53
82
14
-64
56
22
31
-7
114
28
11
16
11
21
-4
11
33
-42
35
15
-84
-23
-61
-15
-6
-29
-49
-80
41
-127
-11
-4
16
-77
2
-67
-12
13
37
-109
-41
60
10
10
26
6
2
20
-16
-21
-52
13
-32
11
-75
35
-2
40
-62
84
-36
-3
21
-25
29
-3
-54
73
14
-13
-62
-32
10
-101
-127
4
-18
113
9
-36
-1
-107
1
-6
-6
37
-24
-31
120
34
1
-36
44
-11
-70
-4
-9
38
38
-19
63
-12
-75
-2
21
-12
-25
4
-30
-4
48
-127
1
-39
24
-45
127
45
69
19
31
3
-22
15
29
101
-17
-7
11
-87
-5
-127
-5
-25
2
-72
-18
7
58
-4
-54
-53
-10
38
-12
-71
52
24
127
-3
36
-56
8
-21
-12
4
13
-9
-14
-75
24
40
34
-8
103
3
11
-127
-58
-71
-3
6
1
12
34
-50
127
127
28
-10
3
-9
-72
12
20
-57
127
36
9
10
-23
4
-10
-62
56
-34
1
127
1
26
-4
95
26
-106
-8
-4
-9
-3
-16
49
-105
-32
36
-16
-11
39
39
-29
14
4
-22
-16
-110
2
-33
46
-11
37
0
28
-40
-45
1
12
-9
-37
-12
-23
-28
11
82
-60
48
-2
39
1
-10
-25
67
-76
15
-11
-30
13
-60
-44
72
6
-6
49
19
30
1
3
51
-58
-42
-18
-28
-20
-53
-20
-31
-61
-32
25
-5
-62
85
-2
34
-2
-27
-16
-11
-15
-22
-7
-62
-29
103
27
33
-9
0
-41
12
-14
35
-44
22
12
-127
35
-46
-29
42
-26
-2
-77
17
-14
-101
-21
3
-38
0
-29
-17
16
-63
97
-127
-6
57
22
-12
43
107
42
-80
-20
127
10
17
-9
-46
-12
57
-2
-82
50
-11
33
42
37
29
-16
-36
17
29
39
41
-12
38
-43
-94
-69
14
-3
-54
-33
-10
49
-15
-27
17
22
-70
-19
-57
45
26
33
-30
22
-63
-65
-21
-14
5
-11
1
18
-15
14
14
19
-2
54
3
-8
76
-127
51
-21
-66
-13
-37
1
84
15
-3
11
-27
19
26
-2
-39
76
-20
-64
36
-80
72
18
-47
-115
17
20
-1
12
1
-40
-2
27
56
34
-19
25
38
-12
-53
13
7
-127
-18
26
-7
21
-36
-96
34
10
-36
63
17
-2
39
-10
46
-21
4
121
12
-25
-10
-123
20
-67
58
-56
-9
-26
-62
-72
-13
10
-8
-95
5
-25
-127
1
43
-34
-40
-127
18
22
-92
107
-46
93
1
-22
7
14
40
-31
-64
-8
-7
-106
127
-127
-93
-54
7
10
21
27
-24
13
4
-24
-30
-3
-6
9
9
27
17
-4
51
-27
5
68
6
-53
-45
72
-12
127
15
39
-7
70
22
-29
-38
-57
-28
5
-31
127
56
-99
24
-41
48
-1
-27
-96
-25
109
18
113
-41
17
8
31
27
-72
-49
-65
31
2
-72
96
-29
-12
11
-60
-104
-3
-62
-6
-32
94
20
20
-127
-3
18
-50
6
59
-36
25
-39
-9
-20
-12
3
13
-38
40
-24
1
11
83
40
-127
12
-63
75
-39
-28
5
81
-55
-40
-27
31
-34
24
72
63
-22
-25
-75
-93
-16
14
-61
8
-2
121
21
14
-52
-27
86
-23
-62
-127
-33
-18
3
-48
35
-28
0
70
13
-35
-23
-43
14
22
-24
-63
-6
-62
127
-127
61
71
-63
47
-77
-119
-15
22
89
42
-112
-14
-68
-61
31
6
-73
12
22
-19
33
-11
-47
80
8
9
53
1
36
67
-48
-1
51
-6
-5
-125
-3
-61
-4
79
27
127
-15
-19
-77
-86
3
-12
-5
-19
37
18
12
-6
70
117
86
22
-17
3
-31
50
-21
123
116
1
-30
-5
-64
127
-39
61
35
-47
-7
-13
-127
9
25
-127
-43
-35
-68
80
47
21
-16
29
-34
74
-87
-38
-47
23
-12
-36
24
60
38
0
3
-61
47
54
-94
3
-28
9
-12
-7
-84
-20
-41
-68
-11
-34
8
-17
-19
-24
13
9
-58
-17
5
13
-103
-123
-101
-38
16
-19
52
-56
51
36
49
5
19
127
-43
12
37
-118
48
-17
-86
-12
-16
30
-61
23
6
40
-104
4
20
-2
13
-7
-32
1
36
-12
20
-26
15
48
-97
22
-1
-15
21
-50
25
-98
-21
-19
67
1
17
1
20
40
-54
4
-10
-11
-4
-18
-127
69
-23
20
-30
24
-25
53
-48
2
34
-10
-10
37
0
-3
15
-22
1
-8
25
2
-8
-13
102
-26
127
-31
-46
-35
-9
23
-43
-66
6
-26
50
10
-10
-48
-106
62
46
-127
-127
-3
-17
47
-17
9
23
-28
-38
5
18
-19
8
1
-18
57
127
12
-30
-55
124
77
29
-9
-56
-44
59
-24
31
48
-15
-36
-14
60
-28
-38
44
-23
-19
-29
-118
32
28
127
-127
13
72
-3
-43
127
38
52
-37
45
13
-74
-20
35
48
2
-12
-54
16
33
-45
9
-9
29
-6
-6
75
-59
-49
46
-127
26
62
-58
-40
-40
7
-45
12
67
34
37
65
-66
-120
30
33
44
-49
5
-19
33
49
44
20
-49
-22
-78
-3
100
-13
-2
64
1
103
-9
-39
13
-2
-108
-68
-93
81
-42
-33
64
88
-106
5
5
-18
-35
58
86
2
-38
-4
-49
18
-35
52
83
-13
61
-5
-29
56
-95
27
90
89
8
-2
-36
63
127
127
-127
-9
-12
3
3
-32
12
3
-19
-31
47
9
-69
13
60
-15
-72
-50
-111
37
29
-53
-90
-88
68
68
4
-10
-35
-34
-74
-9
41
-61
-98
-13
-20
-78
29
-1
-30
114
19
-53
-22
-22
16
-3
-42
-29
76
-75
10
93
-21
-40
-98
0
-24
-31
-1
33
79
-58
15
49
-9
33
10
8
-53
66
24
-53
-73
11
-19
-54
82
-120
10
44
-9
-19
-1
-19
89
-109
5
111
56
-7
33
5
17
53
-25
-30
65
-25
5
-47
-40
6
14
-4
-9
-127
24
-32
-23
36
24
-33
54
46
36
-14
-48
-80
-16
68
-55
-20
43
-101
27
46
-127
6
7
58
3
35
72
-107
-4
21
-3
34
29
10
21
-127
10
32
0
-18
29
-1
90
-126
8
66
-76
-1
65
23
-45
40
36
22
-93
36
14
-58
-54
-6
43
-8
-6
-16
40
24
28
108
-6
-21
55
22
-26
11
6
77
-67
-17
-17
52
27
-103
32
-61
15
27
-17
37
6
-20
-73
-35
15
46
38
2
21
-32
-7
0
-19
28
-127
-101
37
-127
127
-15
27
4
12
-83
34
-46
-14
-9
21
-11
-39
21
-1
101
-92
-40
-25
127
-9
37
127
-63
32
-31
63
16
-45
-14
-26
24
2
-12
-7
-28
6
-36
-77
4
11
-67
37
-62
-7
-64
36
-23
57
-55
-67
-15
-127
-36
-81
-3
-49
127
-90
-96
-45
9
-27
-82
127
-12
71
-23
33
-35
-34
40
8
-20
-14
19
4
53
32
-44
10
22
-17
-26
5
-16
-15
-45
56
-61
-30
-25
53
-46
42
34
-25
9
-64
-24
-51
-9
-68
-43
-10
-1
4
13
1
33
-78
69
44
54
60
10
16
15
-41
-61
5
7
3
-19
12
-127
41
-74
-62
-38
127
-31
-49
19
45
-22
-57
4
0
99
-91
5
-127
-90
-47
-27
24
-55
27
-34
16
-23
-36
-27
-7
-19
-10
-119
-34
-49
-5
-2
-22
26
-13
-58
54
-127
48
-42
-10
38
22
-82
-12
-5
35
-19
-10
1
57
-3
27
-66
-30
-25
58
72
-14
6
28
63
-29
11
-6
-34
-15
26
17
-22
-28
19
66
-37
16
-27
-5
-58
2
-9
-106
127
49
35
-8
-26
-11
-66
4
-6
-12
-35
-7
-2
-30
127
55
95
-8
7
-4
30
-81
13
127
-71
-127
5
54
47
-44
32
33
-34
-47
127
7
44
59
17
19
-4
-35
46
73
-18
21
16
32
-54
-4
1
18
44
-2
-8
49
-53
45
-26
-6
48
46
32
-109
127
21
-17
7
48
2
-5
24
-38
-14
-31
14
15
-25
-10
18
34
12
27
-3
11
40
91
-74
-111
-14
31
-1
-61
-19
16
13
55
10
3
-8
-47
-127
-3
59
-1
-23
-6
-46
20
19
-1
-31
-58
-7
23
-10
12
-1
19
20
7
72
26
-88
-5
69
35
-35
23
-97
-21
-38
75
-56
-7
96
114
29
15
33
37
26
-39
-19
25
9
18
-17
-2
-34
-9
57
-114
4
-23
-23
69
-17
5
50
-15
10
-17
-6
-41
-8
13
23
29
38
24
-34
28
-17
-14
26
127
92
15
-7
81
5
24
8
-30
-41
-51
-18
127
-7
-12
22
-87
43
-34
-127
-20
127
2
110
1
-4
-1
97
-22
-23
-50
-4
-1
32
-57
2
35
-15
-127
103
48
60
127
87
127
51
-44
58
-26
19
-37
-127
59
-10
48
-8
42
8
32
55
-85
14
-5
-43
62
6
78
-98
-10
5
20
24
-60
-3
-7
24
-29
-5
-2
-23
32
-30
105
-63
-53
-12
5
39
-41
5
-68
16
38
34
16
36
-30
5
-8
22
45
22
53
-5
2
-24
49
56
-19
-15
-12
-52
18
22
37
-88
-24
-6
-49
3
-127
127
54
92
57
4
8
13
45
18
0
82
60
21
2
49
-41
-9
11
-96
-26
18
39
-41
90
-53
-82
50
45
-14
23
-25
-67
63
-41
-15
47
24
-6
-15
19
10
37
78
-36
-5
-43
127
-1
41
-44
-36
-50
-5
-20
-20
-39
32
-21
43
70
-85
14
-31
-7
-14
5
-13
8
49
-4
-80
10
44
-3
31
-28
19
30
-27
-82
30
7
-17
-45
-10
-14
-21
-4
-35
23
-25
36
9
-1
-29
18
37
-7
49
-44
-18
-11
-11
-13
3
-4
-26
43
22
0
51
-27
-15
4
-33
127
-127
25
-3
0
-31
-127
29
48
-4
10
-80
-52
101
-22
-48
-76
-32
2
68
-31
-43
-22
-111
-17
10
-17
-6
33
-26
21
127
-45
-14
-44
1
-25
-28
16
-53
-46
29
12
91
-26
-107
20
78
36
-33
-31
40
11
-40
-17
-92
44
-13
30
15
-1
-14
-34
19
-35
-32
-20
-127
38
127
-16
31
-4
15
33
-6
-58
13
1
-21
98
-36
43
-31
8
-11
-52
-52
-10
-69
5
22
13
-26
-44
33
57
-3
21
7
-21
-43
-2
20
63
24
-22
2
-83
0
2
8
113
8
-19
10
-53
-25
-27
21
-76
-4
3
-62
37
35
16
-42
-19
16
-1
-68
-4
58
8
-85
33
-51
-8
15
61
0
-36
11
14
5
2
46
-25
-51
-9
-5
8
-64
15
-1
44
18
1
53
-109
17
127
-19
127
-90
38
-92
1
18
3
-24
-46
-13
43
10
-21
19
37
-27
21
-20
127
8
-4
6
4
84
-27
-107
35
-35
17
-21
-127
16
87
-23
44
1
-25
109
42
56
-37
-16
45
-36
18
-23
-104
35
85
-49
18
-18
127
2
1
12
57
-41
18
-2
73
32
24
4
80
-66
6
-8
-2
-43
-8
-30
0
9
40
7
105
-30
47
-11
13
-2
-40
-2
19
-25
-69
33
-2
-10
103
-16
-18
127
-81
0
100
8
-50
-4
-16
10
-19
1
-127
-118
24
-11
93
46
-26
17
-83
-19
55
12
-45
-21
6
-80
-2
-25
-3
55
-7
-11
-43
-6
-81
82
32
-13
72
29
43
7
-20
9
-27
34
-68
7
-6
3
-20
1
5
-15
19
40
51
-25
58
96
-45
-30
26
14
-54
6
-59
-17
46
-2
6
-15
6
-47
22
26
-51
14
16
-18
-9
17
-2
127
25
-90
-22
14
40
-43
45
-12
-58
8
73
29
-18
-127
-4
-23
-74
127
-26
-18
-127
-50
-7
-19
15
44
-56
7
9
-60
15
-45
50
7
-37
-28
24
-87
35
100
-16
-26
-22
5
-46
-58
26
-43
37
-44
19
2
5
-31
-6
96
8
13
24
-24
-73
-18
20
50
-53
82
6
79
-19
-7
9
-27
25
-8
3
5
21
-2
-23
-25
-53
60
15
118
17
-58
10
-106
54
86
0
73
-28
37
3
50
51
19
26
8
14
28
-13
43
-46
-11
3
127
-12
50
-12
54
4
-77
-17
51
13
-51
-9
76
102
-16
-7
55
30
-31
1
-127
-71
-53
26
-32
-24
45
13
7
-19
-5
-35
87
12
-40
-51
31
-91
-127
40
0
5
-5
19
28
127
-32
3
-33
-1
45
-15
13
-40
-35
2
3
10
-127
4
-16
2
93
-1
-104
8
-48
-18
-7
4
-32
24
-12
86
-12
-16
13
17
100
-127
8
-2
-127
-127
1
11
-64
-54
-41
27
-47
-47
-16
55
-19
15
35
-4
100
31
-31
-80
-107
-9
-17
-49
47
-53
31
-9
-20
-11
27
127
127
10
-34
-4
15
49
32
-20
7
-49
-4
-120
-10
13
-127
15
-15
91
98
-32
-22
-81
16
-8
-74
78
5
94
8
-37
-82
3
-26
-103
60
30
17
-37
1
1
-11
11
20
6
-26
126
-19
12
-2
30
-39
-21
18
-86
11
-28
-44
50
7
65
-13
-51
-13
1
26
34
10
37
5
-7
-7
88
58
5
28
6
-43
10
-46
22
38
-75
11
-51
7
-127
16
-17
-34
2
69
101
-9
-17
14
-7
-16
-83
47
41
-55
-40
-31
14
-39
-44
-127
2
127
9
41
-40
-37
-29
-14
-127
-39
-74
-12
-11
9
5
-9
55
2
4
2
1
73
24
109
-45
-84
9
17
15
39
-5
-53
-40
43
-52
-3
-13
-35
-22
35
19
-23
-26
7
50
52
-57
17
3
-53
-40
-4
-29
76
5
29
-45
-24
-29
-18
-32
-13
-42
-6
62
-49
-11
5
15
50
127
-6
-38
31
7
27
-6
-2
-7
39
3
32
43
6
-37
24
-24
-17
2
-82
-7
-1
-17
10
-56
-52
-15
24
20
7
-26
-4
30
12
37
-38
-1
22
20
-4
26
-2
9
-7
-49
12
-41
-41
-18
43
-87
13
40
-9
47
17
-25
10
-35
-39
13
39
31
2
-38
-50
13
4
42
-41
95
-27
17
41
58
-47
7
32
-12
13
-6
8
59
-6
-40
-53
-10
33
12
-2
-3
-7
24
8
76
8
-65
-31
-50
32
-33
-19
-32
-36
-69
2
7
-14
-20
27
-53
1
13
-7
-25
17
2
11
-26
7
-3
-23
37
1
37
21
20
4
-16
-20
-7
-42
-17
-57
-20
-19
12
-26
33
-1
38
23
-23
-11
-5
-30
30
66
-12
2
-64
12
-81
-38
-32
25
-2
8
-63
-11
-58
-17
-115
57
-3
12
8
33
-37
25
55
75
27
-8
-37
21
-17
-1
-16
-36
18
10
-43
1
38
-28
28
-33
6
24
-61
27
-6
1
10
-61
-11
4
-23
-15
9
-16
-25
42
-40
16
5
-11
-1
36
26
59
25
5
-12
0
-11
-18
5
-44
7
-10
-10
4
4
4
54
67
37
-2
75
-38
43
100
-56
2
-5
31
-1
-16
30
22
22
-21
-11
17
44
-42
19
47
-20
-17
-22
-2
53
-33
11
26
-73
80
4
0
-39
41
-39
-72
46
-71
-29
-28
-108
-33
23
17
-22
20
18
-8
-27
8
-63
-60
-51
51
-79
39
0
-104
-7
-45
19
-6
-9
36
-7
14
19
-2
-53
-113
-25
20
8
-14
-22
48
-71
-65
-8
4
55
-37
-14
79
-65
-21
20
-15
-1
-27
6
-31
-30
25
43
67
-22
15
0
22
7
-5
-33
22
-9
-5
-2
38
0
14
46
0
47
8
20
71
-15
25
-50
47
-45
-44
-16
54
-56
-29
15
-10
-35
4
2
-43
-11
17
26
-8
-53
-13
5
-77
-59
3
-10
-127
-20
8
-2
-10
-37
-12
-12
5
-54
48
-61
7
-73
15
46
-10
6
-7
-8
44
-14
24
-46
-7
22
-7
-9
-6
46
44
22
-35
15
-25
19
-8
-127
-50
11
4
8
3
6
-8
24
10
19
2
17
-3
-13
-19
0
4
33
30
-52
5
-12
29
75
51
-9
13
15
-2
7
7
13
-18
-24
2
-20
120
11
110
-21
-4
9
-10
61
0
-60
53
-21
-40
17
26
36
3
-6
-28
8
-40
-7
-12
50
-15
-127
71
-55
-46
8
-11
38
-37
-36
15
-90
-27
7
-3
-15
17
22
-9
7
-127
57
-5
-29
13
-17
3
28
-20
10
9
-72
38
90
-127
50
-7
-2
9
7
-11
2
44
2
20
2
-2
12
11
5
-48
14
3
29
-22
66
-2
28
24
-49
44
17
19
-29
0
-2
12
33
42
-38
-2
-9
-37
-75
4
53
19
-23
-3
-22
-16
-26
20
-45
-33
3
31
-12
25
8
-14
-60
-81
3
2
11
127
-34
90
-47
10
33
13
-34
22
6
19
23
-25
26
-9
-54
7
-19
46
30
31
-22
-28
49
9
24
-28
34
32
2
11
35
1
11
-27
6
-13
4
-27
77
-27
-26
44
39
48
17
-13
-68
-16
13
38
34
71
2
0
-9
-5
-47
90
-21
-34
-10
3
38
10
27
-5
84
-7
11
-11
-62
-16
50
17
29
17
-24
-19
-14
-9
8
31
55
10
-22
15
-24
-25
-36
5
-26
-42
6
4
-25
-12
28
-13
-3
47
-36
-47
-18
-7
-13
7
-23
-4
-23
3
-5
-17
-17
42
-56
-42
-39
8
-19
-68
-38
83
-14
16
54
30
-35
-12
18
35
-36
43
-18
-8
-10
6
-15
16
38
61
57
13
-22
-24
-1
5
-7
48
20
-10
-8
-6
10
-28
21
11
-6
-12
-58
-34
25
1
23
-13
26
-16
24
-24
-4
-1
-20
-52
-24
-3
9
-49
28
50
34
27
-61
11
12
85
23
-38
-18
9
19
23
-29
-4
40
-4
-47
-50
-47
32
-4
24
8
-11
12
-27
-10
11
3
-10
-32
-33
6
-7
23
29
-66
4
-62
-44
-90
-6
-41
22
15
-13
-24
-23
-1
27
28
18
-56
16
-51
-33
-64
14
-13
-3
47
-18
-19
-30
-5
-47
-2
8
16
3
-34
30
24
-47
-12
13
-39
73
56
-54
42
48
16
-21
39
-6
28
-30
-13
-11
-53
18
34
33
10
5
-59
19
9
14
53
1
35
-21
-13
29
46
19
-5
-24
33
5
-8
-115
71
-3
-61
-15
9
30
-71
-26
-15
2
-3
-22
-17
14
-58
25
-8
29
-10
3
-11
-19
-8
-16
21
5
-41
21
-50
-36
-10
32
-66
2
8
-69
-6
-87
-10
3
87
3
-3
5
11
-14
0
11
29
15
-57
-44
24
-35
78
49
-35
18
5
-17
-19
54
-33
67
4
-11
13
7
-10
-21
14
108
-10
14
-27
-22
13
13
-21
-11
-21
4
16
21
-30
48
39
-3
-20
21
-10
-7
19
-18
4
21
-20
-2
8
-25
-18
65
-25
54
14
16
38
13
52
-26
20
-26
41
-8
9
-28
51
-66
-125
22
-3
-4
-19
67
-3
105
-20
-20
44
-8
27
-8
26
-9
1
2
-14
-7
53
-87
12
-122
-26
-40
3
-25
95
0
-64
-16
-54
8
12
-105
-26
-9
14
0
-16
4
-13
5
-44
6
-21
26
16
-43
2
-7
60
8
-21
-13
56
-12
20
25
-13
6
20
50
-71
29
-127
4
-22
-12
-26
70
4
1
21
5
37
7
-38
-8
18
-4
-25
-6
-20
-20
-16
16
23
6
19
18
-14
-20
-8
63
12
-16
-5
-15
-108
-61
46
23
-121
0
12
-15
8
-6
17
-12
0
-9
-4
-15
-127
-43
42
61
-44
-33
31
10
3
-85
-26
-101
-20
12
2
-47
-11
39
14
25
-11
-26
21
14
-22
16
4
-11
17
-4
-5
4
34
19
-15
7
78
42
59
4
-11
7
-4
6
13
5
21
-52
-45
9
7
2
46
33
23
16
12
2
8
-12
1
-36
39
2
-16
-39
-21
45
17
4
-75
-33
-2
-71
27
26
-50
3
14
-15
10
4
57
5
9
-26
68
2
-9
18
100
2
5
23
124
9
-17
63
24
26
8
3
-58
16
-18
23
-53
-11
1
32
23
3
-1
-8
17
-37
-59
15
-101
18
-28
21
-49
-21
-20
3
-67
4
-31
17
-51
-33
20
-127
-8
1
-25
-9
-69
1
15
21
11
-13
-39
-7
-4
21
-15
23
-91
-40
-8
7
-78
-24
-8
13
-63
26
-6
57
31
6
54
11
50
-78
-27
-52
-8
-28
36
-27
-66
-27
-21
12
-15
41
-12
-36
96
2
-2
-64
61
10
31
43
-10
10
-65
15
-40
20
-21
-37
-29
3
-21
11
61
-12
22
1
-26
-28
1
-32
2
16
-9
1
-49
-50
-4
3
-89
-22
-2
1
9
-127
-11
-53
21
36
78
37
-17
-42
12
-33
-87
4
-5
26
-20
1
-18
37
1
1
-15
12
-38
-9
-17
9
-90
-7
-6
-14
-54
15
-13
54
-26
-12
-15
0
42
15
-21
18
-27
-13
8
11
92
-3
0
16
39
24
-18
12
-35
-16
1
24
65
-6
-6
55
38
-38
-5
72
-29
99
-16
-8
104
16
-14
36
19
27
17
-16
-9
-47
3
30
37
-41
54
22
-122
91
11
-1
40
-20
-65
-1
12
10
11
-20
59
36
-30
-15
-31
-26
19
5
88
16
14
-18
-40
-55
11
-22
-17
17
-36
18
34
-21
19
-8
-9
3
-84
9
18
-31
-14
-59
36
-3
4
-61
80
-5
-15
-48
78
12
26
-9
10
25
0
-31
27
17
16
13
-103
-6
6
31
-20
-16
-25
-29
-43
25
57
26
-15
-11
38
-10
12
-16
-18
-31
43
34
20
-25
13
-45
5
4
29
127
-32
15
-11
35
-49
7
-4
57
-2
-35
79
-16
15
47
9
13
3
9
-52
-5
8
107
-74
31
-29
-20
42
14
-127
-6
19
-2
-8
7
-48
-28
12
-9
-52
-10
-5
-9
49
13
11
-32
19
7
-1
-26
-70
74
5
29
-44
-13
-25
47
-2
51
35
43
26
-42
-51
0
81
-5
4
25
3
25
25
2
-32
-1
-3
23
2
8
-1
-25
-57
19
-5
18
-52
-7
8
-49
-10
42
6
10
-112
20
-2
21
11
16
16
29
-3
18
-10
8
43
-35
15
-64
-4
-8
36
39
101
-8
-30
54
42
18
19
16
86
54
19
-100
-48
-34
-16
-4
-6
2
11
-18
-6
-36
-10
-1
-117
17
6
-18
71
3
-32
41
12
-1
-1
-9
37
7
22
-37
-60
-41
-11
66
79
14
-5
-9
22
-5
-7
-31
-7
43
15
7
99
-17
5
14
3
34
5
-15
-28
-2
12
-12
102
11
-24
-8
9
19
-20
-12
-44
2
-12
-22
-26
67
7
76
12
65
-29
48
-80
3
3
-22
-18
0
-4
-21
-22
-24
-11
-46
14
0
-21
-61
-12
19
3
64
-4
-14
-42
8
-1
-25
0
-9
-72
-4
-4
-6
-13
-21
-10
24
1
-41
-84
-6
-45
-23
10
45
-14
2
1
-3
-38
3
-17
-8
43
16
46
36
-29
-21
19
-7
-127
-4
47
40
-33
35
7
16
-26
-11
-3
-28
111
-28
-7
-7
84
-44
-15
42
-7
3
3
2
56
16
-41
28
31
3
19
-15
-13
5
3
-10
-8
1
-3
20
15
-2
36
-6
85
2
-4
23
17
-24
32
-9
-73
18
-6
48
6
18
-19
-16
-1
5
-46
22
-1
-10
15
4
-73
12
2
-26
6
10
-4
-21
1
-16
-7
23
-26
-27
-49
-7
59
25
-19
11
43
-23
-14
5
-86
10
-3
-47
18
-14
-13
26
32
12
-12
19
33
-9
14
2
-11
13
2
4
4
-5
-17
15
-2
6
14
-5
-7
16
15
4
-7
26
22
28
-32
12
-17
-41
-41
-13
-11
73
-21
-48
57
-14
-32
-17
5
6
5
36
39
-4
10
-10
-17
22
60
-3
-6
39
-7
2
13
16
2
29
-46
-9
118
45
-11
61
-8
-15
4
-5
-25
-23
-29
3
69
10
-37
-41
-13
-20
33
19
17
-13
47
-7
-4
-26
-17
-20
50
6
-25
-17
-37
2
-8
30
-20
11
13
-2
16
21
-5
4
13
-27
21
32
-51
0
-18
60
9
38
14
2
-1
47
11
14
-14
-3
-89
7
-23
6
-2
-52
-13
66
45
-10
-13
26
4
-27
8
19
127
14
-43
-9
-20
-43
-89
-15
-8
36
12
12
2
30
107
-23
1
40
-24
-32
-8
9
-5
-35
23
13
61
11
-29
48
-7
-8
-5
-3
7
-41
-2
-39
-17
8
2
-5
35
-36
-17
-41
2
11
-56
7
-15
22
8
-24
-6
3
56
-1
-26
-6
-14
7
-6
18
-45
-5
32
9
-14
-5
9
58
16
7
20
7
1
13
-13
-2
7
47
32
-4
-11
26
4
-20
29
35
79
5
0
-97
25
-10
13
-12
57
-22
0
48
0
-9
37
-4
-127
29
-4
-45
-15
-1
-11
28
49
-43
-5
-23
-13
-40
-8
0
-54
-24
14
127
-45
26
-10
14
-7
-1
15
30
-6
-23
9
-20
1
32
2
15
-59
19
-74
9
9
8
-9
-33
-9
28
-25
3
-99
-26
19
22
44
-25
3
-18
39
8
-114
-15
7
5
3
12
-19
-53
-8
28
-50
-9
68
-12
-46
-10
-37
20
14
-11
-4
1
-40
-60
-16
-105
-47
-5
-7
-16
62
-39
5
60
11
-49
-18
-1
-24
9
-2
-1
26
-10
14
1
-37
2
-12
34
31
-3
49
11
42
-81
-21
-18
0
-3
90
-45
-20
12
14
32
-69
13
-29
10
74
-2
19
24
21
25
17
-10
-41
19
12
-2
-11
4
-5
5
-24
-14
12
-30
-25
-21
29
-9
-4
17
-41
5
-18
20
1
-22
15
2
5
-5
-28
21
-54
4
22
-22
10
-24
34
19
46
-16
-17
10
6
-16
2
-16
73
-4
-6
-85
38
-8
-111
7
30
47
-17
-2
27
1
11
11
-58
-13
13
13
16
99
2
29
-17
12
-42
-53
-16
-20
2
-19
9
-63
3
-12
-9
7
-15
6
-17
-20
4
7
-19
-31
36
13
72
1
0
33
24
15
-33
11
34
26
-31
72
36
-6
-31
-40
-75
-5
-40
-19
127
-26
15
-49
17
11
-100
9
1
-47
-1
109
67
27
127
-33
-38
49
127
2
34
28
61
3
38
-18
21
47
-22
-20
-7
13
-8
11
66
4
20
-8
11
13
28
-48
-14
-28
-70
-3
11
-24
24
-64
19
-53
5
41
7
41
25
30
-57
14
21
-27
-53
-10
31
47
-1
-34
54
-1
3
38
-14
-57
-42
0
67
-11
-36
6
24
-18
48
-6
-25
0
0
-8
-33
-1
90
104
-63
-11
38
27
0
-12
-39
-20
27
-44
35
32
-8
-70
-15
-42
-57
-33
26
127
54
86
-16
-2
-51
28
-16
-18
2
-26
11
6
9
-30
-63
14
20
-38
8
-29
59
8
23
23
56
-82
-4
94
-20
-8
16
26
16
-37
-5
-22
45
-8
6
49
-5
-96
-9
2
30
-9
24
-6
-8
9
6
18
2
5
59
25
-22
-82
10
-45
64
31
24
-24
2
-107
29
48
49
51
11
30
21
11
-19
-2
28
13
-85
77
21
-18
15
-26
43
-43
68
2
21
-60
55
57
82
8
-18
-62
-11
-43
-24
1
-73
12
-5
14
-27
-70
-22
-22
-1
-23
-21
8
-25
-90
-48
-20
-47
-23
-10
-15
21
18
82
-6
1
17
-122
-76
8
-20
-42
6
-127
-20
26
43
-8
14
-51
0
53
-1
23
32
-1
6
14
23
30
17
26
13
5
14
21
-40
77
2
-22
-9
-4
-33
-31
-13
-42
5
-23
12
19
28
-62
-10
-16
10
-13
-32
-11
-95
-3
39
15
44
-39
50
25
56
-78
-12
35
25
43
4
-25
-14
8
-14
5
0
-42
-32
43
127
4
-40
12
-36
3
-28
25
-14
-10
60
-14
-12
12
-32
-9
-13
5
-13
-33
-40
-9
-13
77
59
72
-40
35
-2
99
35
26
-33
-23
-14
75
-14
67
-56
-24
14
22
3
1
2
2
5
-10
5
-2
-5
-11
20
5
-40
-54
50
33
31
31
22
-31
-5
52
-35
-15
37
-48
-1
43
-22
-55
-5
-75
-127
-66
33
-20
46
-14
33
-33
7
3
-10
-10
12
-19
38
19
4
-4
-4
5
32
4
-53
-14
28
41
13
-37
-42
-62
-13
41
65
-6
-41
63
32
-32
-15
23
-7
72
-12
-7
-46
30
23
-7
-24
-90
-20
64
86
-30
22
-15
-25
-21
37
39
-6
52
72
-36
-16
-27
71
4
13
24
69
-12
-6
-22
18
23
-3
-21
18
-35
5
19
12
-49
-5
-46
-20
-23
-70
-7
36
-15
-17
4
-29
46
-6
4
-6
-6
-1
19
-60
-33
-40
-58
-44
-34
-16
9
-35
-22
-28
-48
-21
-119
-93
14
6
-42
-1
-109
-16
-17
15
-24
16
28
24
-14
31
45
-16
16
-18
27
69
-4
-26
-52
19
-12
-20
-46
-2
53
25
-21
24
-2
13
-59
-29
29
-10
-44
29
-32
-6
70
69
78
-9
-110
45
-28
125
16
29
-82
0
-46
23
54
-42
72
10
-6
-2
11
21
-21
-19
-19
2
7
21
-13
-16
-1
-51
1
24
-19
-39
3
-25
9
13
14
-36
0
-10
2
53
-11
-33
-31
-117
-22
8
-53
26
-8
57
-14
-12
7
10
-49
22
18
11
19
-18
50
23
-15
-54
22
-23
-1
17
-39
3
-49
-27
18
-9
-13
-19
-56
16
0
-16
22
65
12
-3
-48
51
-17
-30
8
17
123
-25
-20
-8
70
36
15
13
-3
0
98
-36
-16
-11
-18
45
86
84
-18
-18
-6
39
3
-35
9
8
95
20
-6
-7
-75
22
-1
21
-3
6
21
-52
-17
14
45
7
-7
-3
35
67
2
-74
48
-22
-29
2
-10
13
-12
-25
77
-5
-12
-45
52
9
20
28
13
-1
-9
-5
2
4
-16
-10
119
-1
-11
-10
43
26
-1
67
-24
-35
29
-114
7
4
-3
-78
-3
-50
25
-26
-14
-65
0
-30
-39
-25
-12
-3
7
-2
-16
-61
8
-47
19
-31
-34
37
-77
38
-49
41
44
-5
33
37
90
-47
8
-10
-76
-6
-38
31
5
-41
21
-49
80
-15
41
7
-32
-32
5
-14
27
-40
-2
13
11
63
-13
6
-41
2
-5
-1
35
-28
-45
-6
-14
-20
-48
3
32
-30
30
7
108
-10
-1
12
2
5
1
70
-30
21
-9
32
-2
-87
-9
-14
-24
-7
-24
18
27
-100
-17
-9
5
5
17
-17
-10
-5
1
-15
-28
-27
15
1
6
-4
48
-19
-8
-11
-24
-1
0
-18
-78
9
-27
-11
-38
-6
38
24
-67
-37
72
13
-1
60
14
84
-43
-1
-25
42
111
70
15
41
9
19
101
44
-92
63
38
-47
-8
-17
6
-5
-6
-5
-24
-58
-7
40
-16
34
-4
-47
15
30
-38
-7
-15
22
39
44
29
50
-14
4
81
21
-63
21
-22
32
-20
-6
11
-127
-3
5
36
22
13
-27
-13
41
-19
-26
-18
21
-28
3
-27
3
43
-4
-34
32
30
8
27
-47
4
-8
21
-5
45
24
-25
0
-55
25
34
-32
-20
30
1
22
-4
-4
35
-10
-51
40
3
-6
65
18
0
-104
3
-34
37
42
-11
47
-52
-25
-40
-78
1
12
-27
8
7
74
-20
-9
41
-31
14
-68
0
13
32
13
-22
21
3
30
10
-38
5
-87
-67
9
5
69
-76
-16
-29
-39
-37
14
-7
15
-3
93
27
-25
55
-32
-37
17
-16
-47
4
-9
-38
18
1
13
20
54
4
-40
27
-1
-5
11
-23
-49
29
15
3
-12
32
-26
11
-44
-54
-19
-43
-20
-21
14
-14
-13
14
-20
-54
-6
11
39
-12
0
73
17
-55
-2
89
-10
-10
79
-12
4
-38
-11
-20
-37
14
8
-71
33
-21
3
-57
28
-44
-10
24
-23
-61
-20
-10
73
-30
-13
35
-13
-13
-11
-22
-54
-18
-9
-4
17
29
49
5
-92
-18
45
13
-36
3
26
-6
85
-78
-25
-77
-2
43
31
-8
-45
-9
56
-41
45
-127
17
7
-73
-87
3
-127
-7
1
10
56
-31
-52
-9
-2
-64
-99
33
30
-29
-8
22
-1
20
20
90
-3
-121
-32
-16
9
-3
2
29
-127
-59
3
75
-5
-7
1
23
-8
-63
-26
-127
-19
-12
0
-70
-10
82
27
-29
-8
27
-14
-14
-100
-6
20
-74
7
-14
-51
-27
28
-41
-24
19
8
8
3
-39
-24
26
0
9
8
-59
11
-11
-11
25
49
55
116
-42
12
51
4
-90
-18
-59
51
-19
-1
40
40
-127
25
-73
2
33
9
18
-14
35
5
-22
26
-47
1
-24
-3
-37
104
-4
57
-16
18
-18
14
61
-33
88
-25
-5
-7
64
-1
-70
-13
-25
10
2
-7
29
-18
-62
127
10
-28
30
-11
-27
11
-33
45
-61
109
1
-4
-127
-61
2
7
-2
78
-127
9
-67
44
-118
118
74
92
-14
-46
17
-90
13
-105
-31
-66
-2
17
-93
-46
17
45
16
56
-7
-90
-19
28
-8
38
-45
55
17
55
65
4
-32
-2
-21
-34
-22
-71
21
10
51
-3
32
18
-70
-114
-35
-12
-1
-48
-73
-3
2
39
-1
-9
-68
-1
-88
-8
-15
-10
-12
33
22
9
-11
-35
-35
42
53
22
9
51
0
32
18
83
23
-92
1
6
27
31
-4
-14
97
-30
16
-18
48
10
22
-31
-62
-36
-74
-19
-75
15
2
18
7
12
112
15
22
3
-10
-127
-45
-33
24
82
-40
31
-36
23
-77
36
-33
0
-64
-24
-47
3
-96
-10
-9
-54
-43
-45
65
-18
127
-34
32
-127
-8
26
-47
19
-86
45
17
-8
-25
-53
-127
-2
116
3
69
32
-22
-9
-9
110
-56
57
-127
-114
65
-127
-10
-5
50
127
-47
28
13
-75
73
-49
-124
3
79
77
-127
41
-36
-26
-71
-50
48
-4
-52
10
-13
-16
-70
26
11
-5
-56
-22
0
5
-7
3
-3
-58
-59
8
-33
10
-3
-54
-127
-83
127
36
37
3
-32
-7
11
-75
21
-29
26
41
-2
24
-93
86
90
127
-98
127
-40
-35
-35
127
61
15
-91
-9
46
9
-45
-33
-61
-53
-29
-15
6
-19
10
-41
-7
-2
102
-37
1
-83
-58
98
121
-37
-11
-31
-127
22
-89
34
-28
3
-36
-75
13
-20
42
77
-7
-14
9
-1
-4
45
71
-41
-37
-7
30
-108
-109
-1
-15
-11
17
-13
127
9
13
101
-33
35
21
-122
-74
-104
-10
-17
51
14
-118
6
14
7
-26
-13
-4
-70
30
-33
-56
-64
2
-54
36
21
-39
19
14
-21
27
-17
5
5
-59
9
41
12
1
73
27
9
-11
-8
-36
-15
10
58
-87
-53
25
-25
-31
-13
45
15
-8
46
53
5
-12
14
3
-23
-29
-56
102
5
-75
20
-14
-33
57
20
57
6
56
31
15
127
-17
-60
-105
2
-35
88
-55
-27
89
48
39
3
-65
-70
-18
13
65
-22
9
12
58
-127
10
86
9
15
-86
-50
-2
-27
-81
-42
31
18
10
-17
27
7
47
0
127
29
47
-88
26
-2
-120
127
12
-6
-84
-13
5
-16
-101
1
85
10
7
-10
29
-36
28
20
-31
-6
36
24
79
-12
10
65
70
-20
-62
-16
4
59
42
9
69
-113
-44
4
-64
-51
111
-9
-58
17
-25
-31
-75
-114
2
-101
-63
3
127
13
-9
-25
-32
-10
-17
9
-38
0
38
5
-4
-38
-1
16
53
0
18
10
-6
31
-58
-14
1
21
19
11
-27
-53
14
-15
-30
11
49
10
12
33
84
31
-44
22
-6
-2
8
29
-102
-42
2
11
127
-88
-3
-69
-68
-20
69
-34
52
29
-17
-64
43
-127
84
-14
-68
36
127
14
88
12
12
14
-113
61
-18
51
15
13
-72
-127
-3
25
-34
13
-37
19
53
-2
-42
15
-27
-10
-27
-8
9
-20
7
38
-30
-16
28
-3
-10
42
7
-31
19
0
21
-1
2
7
-16
0
-16
83
91
29
-4
-84
-41
-18
-30
-65
3
6
20
53
-55
-13
71
99
67
65
34
77
-80
-19
91
127
-4
32
29
-102
42
-53
-65
5
-26
33
-14
38
23
-14
-25
-35
-30
-55
22
21
1
-5
-27
-87
-18
14
-13
-91
-29
22
4
41
-15
-43
-15
-35
-33
28
-31
-4
-27
-3
-1
-15
-13
-3
22
-33
63
7
-50
127
15
54
-111
-10
1
21
-5
-16
-21
-17
-3
-9
-33
-10
68
49
-21
-127
-106
17
-15
8
-14
-43
91
31
-13
-11
-49
-68
3
-20
-21
-12
-47
-13
15
-31
17
-21
34
9
-30
-4
-1
-16
-9
-22
0
39
-5
13
127
-33
14
47
127
-9
-21
82
-6
-13
-9
35
44
45
16
27
18
-14
-26
-23
94
9
13
15
-82
-6
34
-39
102
-58
33
2
10
-127
-24
4
-40
17
39
5
-3
-54
127
12
-59
-118
127
60
-11
28
31
11
-17
-47
127
36
-33
1
7
20
-86
35
92
-47
39
-127
-48
-51
125
-36
-58
-17
-20
33
7
-11
-33
8
-10
-26
-127
-48
94
-59
4
-14
-8
45
-60
-104
-71
46
-15
31
8
-60
-66
54
0
44
-120
-9
3
-35
110
15
7
-15
-7
8
4
33
-33
-82
-85
3
-83
-12
-13
-41
-89
-103
-62
-127
67
11
22
-40
29
-11
-13
-47
127
-41
66
-58
36
92
127
-13
37
-68
-23
-50
103
14
4
21
-77
24
-37
35
16
57
48
17
-46
38
-36
52
9
13
3
84
-64
29
15
-23
-72
0
-5
28
41
-4
-2
-41
-46
18
7
-89
-72
-18
14
-56
-4
-9
11
81
-60
-6
10
-1
0
48
69
38
-93
17
57
127
-64
-28
79
16
-44
13
-10
57
-12
-21
-11
33
-73
-27
20
-21
-38
-83
-49
-39
-107
5
119
21
30
7
14
86
64
-45
-1
-48
-48
-47
12
-8
23
127
-20
-92
-10
-42
-40
127
-39
-1
39
16
-2
37
-38
14
16
-10
-107
-20
87
-17
-31
-114
-8
-89
50
-59
-26
53
127
71
13
-59
19
-17
105
26
110
-23
83
99
40
-43
74
-9
35
74
-37
-1
0
-15
127
46
-39
10
-21
-8
-38
-21
-80
-30
1
-31
16
-26
2
45
14
35
45
10
-24
-45
10
-43
112
-82
26
25
-7
-7
34
2
-9
-10
68
14
-7
8
-63
-14
4
-42
-43
13
-46
51
-18
-19
61
20
-12
-23
-13
-4
14
41
56
-6
62
-12
-127
29
35
-36
-6
33
61
75
32
11
-11
3
15
-62
-15
-5
3
-32
-2
3
-56
-24
10
10
-4
16
-17
-34
10
-61
31
7
-7
-13
35
3
22
24
73
-16
-1
-127
-99
20
31
17
-36
14
-16
26
0
127
29
-37
52
-13
0
2
-88
-19
28
58
-80
21
-6
71
-127
24
39
-127
-7
9
0
-3
37
27
116
-28
-75
29
90
-12
4
21
-35
39
-3
-3
-56
-8
-63
-5
56
-23
103
-13
-13
5
-32
21
-93
122
-11
-20
-61
31
14
-2
-47
-67
-20
24
-25
127
17
2
-31
104
-30
-8
-127
-39
16
-17
17
127
-15
1
11
61
-5
12
35
-20
4
51
17
-1
-11
-24
-38
15
-12
125
-14
-2
0
15
-13
-23
-11
-7
-56
-5
42
-8
-43
-13
7
-93
42
4
-44
9
23
24
127
-8
-37
-1
-88
35
28
66
8
0
44
52
-21
4
8
-15
-4
-59
32
11
-14
-54
-34
108
7
-36
33
-16
65
-9
53
-26
4
104
122
-27
-75
-13
-43
32
6
127
-12
-21
39
-10
36
2
-4
75
56
8
5
-34
7
9
-21
21
-101
2
-52
-24
110
13
-31
57
46
3
-39
-6
-12
-79
9
69
-42
13
46
11
127
34
21
68
-5
7
127
-16
124
52
-33
40
-64
10
-8
9
-29
57
31
42
-13
0
10
-127
31
42
22
28
99
8
-47
-5
65
127
14
-25
-21
53
-47
-2
-11
29
9
31
4
-32
-3
-35
102
-7
8
67
-32
19
57
67
43
7
-6
127
86
-83
-100
57
41
-2
127
-4
91
-72
122
-85
5
29
-4
-9
-117
74
-15
-28
-13
25
1
-23
11
-7
-63
6
-16
8
15
-1
-4
10
-20
12
10
3
-76
-45
27
-8
-77
4
-17
19
-44
9
-38
-64
127
13
14
-26
-15
-43
0
24
36
-98
3
-19
69
33
-67
89
50
-40
-19
-19
9
-10
6
-17
-40
-108
-31
-1
13
30
-127
127
-109
-11
-47
25
-9
53
-4
39
-84
-15
-3
20
-29
4
-29
32
-52
-7
13
2
34
-1
15
24
28
-8
-29
-5
5
29
-23
14
48
-25
127
-3
34
-90
-28
-5
7
50
22
19
53
-18
-21
-91
-117
22
44
-2
-13
31
-13
36
17
13
-35
33
-14
96
-4
-24
36
-4
-10
-27
-5
-18
16
56
-124
127
-29
-16
1
-16
118
-25
15
13
63
-33
-91
35
15
40
1
-54
-19
-4
53
-47
-44
21
-43
-66
-100
49
-86
47
-41
-21
59
-31
19
-13
76
-44
-127
-11
12
127
-123
-92
-47
16
78
-15
-81
39
-77
73
-67
-11
48
14
41
-18
-127
7
127
14
16
85
-24
-9
36
4
28
-25
10
29
-50
41
25
127
-36
-23
100
24
127
-4
-110
37
-111
21
-27
-77
37
81
23
15
-48
22
60
-59
49
-78
46
-95
-106
69
-71
-35
-108
20
-81
-17
117
-17
-3
-62
-5
30
25
-19
-54
-114
-55
-28
-11
-43
-13
24
44
10
-44
64
-16
-28
-27
-21
-47
10
-7
41
-26
-23
32
-19
84
54
13
27
25
-22
0
1
14
-2
5
29
-26
-20
-35
-73
21
-28
121
28
-36
-25
-86
-98
33
-34
-27
80
-25
41
2
13
-68
50
-58
96
25
-15
-22
56
-30
-40
-92
24
86
-6
11
16
-51
101
-12
-127
-69
-23
-70
12
-105
-127
0
-35
15
22
31
28
-12
50
45
16
-32
-127
87
-6
13
16
29
-19
-60
-32
-113
-56
-82
27
-88
95
25
-3
-38
34
-64
-64
25
-18
-29
7
108
12
-32
124
122
107
42
20
14
-66
92
74
-108
-10
10
-24
-70
86
35
-69
79
81
-29
-42
-74
-112
-1
-1
117
-24
-11
24
-61
14
-4
-16
-85
109
-127
26
82
-71
-36
29
39
-27
75
-46
-96
1
-26
-13
-67
16
50
16
-43
-17
70
41
115
127
59
-21
-4
-127
5
-42
-127
23
-47
-1
-99
-8
-66
-34
52
-34
-118
59
-64
-20
-61
-55
-66
31
-47
-19
-42
19
-10
36
-125
0
35
14
-2
118
1
12
26
-26
-37
-61
-2
-23
-16
-41
5
12
89
5
76
-10
-127
7
32
-15
5
18
-127
-54
52
-49
40
-56
-117
45
58
-18
-44
66
31
39
-10
26
64
12
88
70
-39
22
-3
53
-6
81
-6
21
62
-5
-122
30
-43
-77
55
-127
-7
2
10
6
-127
6
14
-12
2
-26
-81
3
37
2
-27
-1
40
32
47
112
0
13
-21
-127
4
33
73
-55
-37
-35
-74
-13
-51
-83
-12
127
-3
61
-65
-117
-12
39
26
121
-12
-127
71
-50
94
127
72
-49
1
-9
40
-9
-71
-68
-3
6
-4
-6
9
5
30
9
-71
35
36
-34
55
-60
22
-76
11
-35
-57
37
-44
-4
7
18
48
9
-8
3
8
1
-28
-17
-44
66
10
-54
40
8
2
-39
30
-10
-2
-3
12
-15
-13
-46
-110
100
-8
89
-76
15
127
15
65
16
38
79
-127
75
26
21
6
-21
2
0
-15
-7
-35
0
-18
-20
3
15
20
15
-28
-38
97
-49
-86
26
-2
-13
13
66
101
-1
12
-67
30
40
15
19
3
-78
46
-16
40
-11
80
114
71
10
92
24
-26
21
5
5
-127
45
-43
35
-19
-48
15
15
-53
-18
23
-8
-12
38
-8
7
93
87
25
-36
61
117
70
17
89
-60
127
13
108
-127
-90
-35
25
-64
45
-9
-32
39
111
6
-5
-94
-29
-64
45
-22
-23
54
-46
-45
69
2
44
-44
-33
-7
-14
127
23
65
-39
-17
-42
-53
-64
65
-41
-88
28
-66
-23
56
21
-9
-43
10
12
4
-7
-6
21
-2
8
-6
1
1
-1
28
-47
2
-47
-127
-28
5
22
108
-14
95
97
-58
33
-38
-71
-43
-92
67
106
-2
70
24
124
-1
-22
-18
-72
90
31
-11
7
-37
-13
19
-54
88
12
5
16
0
17
56
25
16
-16
-19
-16
-127
-2
-16
12
55
89
50
18
71
83
-23
-21
22
-43
-15
10
2
20
6
41
93
-5
-2
11
87
-85
-65
-31
48
-9
-94
-127
38
35
-62
-52
44
-93
16
13
-66
44
1
-61
117
19
-13
18
-68
-2
10
-80
-30
-99
80
58
-8
45
-1
11
-97
-127
-25
-40
-13
-38
-85
-63
77
27
22
26
75
127
45
32
18
50
89
67
-95
41
-83
-30
-37
-2
-10
-14
-32
109
-51
-12
-34
-4
28
14
-61
48
48
23
82
94
127
-60
54
1
25
14
-10
35
19
-34
-5
-19
72
29
-28
127
-36
-15
46
13
-17
11
-27
-7
-16
61
20
1
-62
-32
17
37
-10
23
0
-23
17
38
5
-21
-10
2
-20
37
68
15
3
49
-42
-7
-11
16
-42
-15
-22
57
54
-46
-22
22
-29
-32
12
18
-20
-20
-16
17
-38
-14
11
-63
9
68
-28
-40
11
-6
4
5
-12
-1
5
-2
50
-18
19
21
-27
-61
-24
-28
-127
37
1
-76
-37
-62
-127
32
5
40
-6
-29
-23
11
-29
-13
-39
-14
9
-37
34
-2
26
10
-59
-127
-16
-22
-44
-16
-45
-45
8
11
-74
-28
37
-127
-49
12
51
23
32
54
-1
29
-10
25
49
-37
32
-6
2
-50
32
-127
84
22
-127
74
26
84
-3
40
73
8
17
-14
-75
2
-31
-3
-72
-24
33
-2
55
39
-61
-22
-27
19
17
-39
10
-63
-28
0
-28
116
43
14
-5
127
9
8
76
-99
127
65
34
-33
95
0
-46
10
-21
-44
-23
-45
-64
4
-118
54
-46
-95
18
-26
15
41
123
24
5
122
98
11
127
24
-27
65
-21
-2
6
0
20
5
-24
59
-35
12
-12
3
13
6
116
16
5
127
-49
-8
64
-3
42
61
8
15
-38
36
23
-15
11
-127
-57
4
4
127
15
-13
-127
-34
25
-122
-4
-4
-69
-9
24
-122
-23
-1
8
-10
30
6
-80
25
-32
-44
127
-18
-23
28
66
-47
4
61
-23
36
63
6
9
-116
-44
-16
10
-8
37
3
23
-72
12
-7
-2
-11
38
16
27
-43
-21
45
-33
-27
22
-3
-37
9
-88
-79
18
26
-39
4
-55
-90
-19
-84
-63
59
-34
-48
42
45
15
16
1
36
2
-2
39
-12
87
47
36
11
52
0
6
47
29
60
-21
14
65
8
24
-39
14
-20
36
87
43
127
-37
-127
51
-14
-12
-51
15
-31
-46
-7
-35
40
-2
26
27
14
-7
31
-41
-55
-22
-45
8
9
-10
-21
24
-52
5
-26
-2
-5
-61
-2
-81
-35
-127
-39
14
-57
-46
-29
-75
34
0
72
8
-7
-58
-19
25
28
-6
-6
4
29
-64
13
-5
2
5
23
-5
-38
-77
28
18
32
38
-17
1
10
-80
-49
36
15
-40
1
1
-59
58
2
46
-20
4
-52
-31
-7
123
1
-30
32
-59
-37
-5
17
127
8
-7
8
7
30
-7
56
109
34
71
30
-24
127
-4
40
36
-68
-61
127
22
51
-5
66
58
4
-33
17
15
8
7
-127
51
-3
80
-38
35
5
13
20
39
-53
77
60
2
-4
-3
3
67
9
-9
56
-29
47
-64
-24
95
22
-3
31
-92
44
-8
38
-94
44
43
-1
-7
-12
24
-51
-53
15
39
-71
-4
-29
-127
-66
25
21
-36
50
-3
-18
-17
-79
-12
-24
127
93
-57
94
35
-20
32
-1
-127
75
-99
-14
-41
25
-7
27
-41
-14
121
6
25
-30
-46
-9
37
97
50
-82
68
105
23
9
31
-71
-40
-74
-34
-79
77
-18
41
34
56
-78
-47
119
-94
-2
4
78
48
-13
103
127
-5
21
-20
-44
-30
7
-16
5
-17
-42
8
115
37
-7
18
-7
-38
25
61
18
5
-30
127
-45
-49
-14
-62
69
-32
21
-41
8
7
-2
-91
-1
120
20
-4
11
127
13
-17
11
31
28
-34
49
22
6
-21
107
-2
29
7
16
46
15
24
34
-64
-33
-60
30
-4
45
-89
7
38
127
115
21
20
-63
39
-35
15
12
39
-17
1
-11
7
-50
44
-55
24
43
-17
9
-75
51
-127
83
20
-7
57
-67
4
25
-4
126
-28
-4
58
25
58
108
9
16
-64
-44
-16
-50
120
127
29
40
6
53
-36
-127
48
55
-11
75
10
19
-9
-65
8
-10
23
59
84
71
38
-8
-74
88
1
92
2
43
-3
-25
-119
15
30
49
-127
104
-3
-11
105
-16
-30
71
-121
29
-55
-76
36
42
127
-56
106
-35
-51
127
-31
-30
-103
-26
-18
-12
-114
25
2
-26
104
59
38
63
-13
127
-7
89
126
66
-12
16
41
-11
16
-64
-19
-107
-75
-79
14
-2
-11
-82
-4
-127
-2
63
49
6
42
94
25
41
40
5
-89
-3
-68
18
-29
-26
-29
48
-48
24
127
24
20
-47
-119
-34
92
53
-4
-79
89
-15
17
-37
29
2
2
25
-26
55
26
96
50
-13
34
-70
97
-13
64
-72
127
-20
-124
31
19
20
-74
-34
31
-5
1
77
6
111
-4
-17
-18
1
-15
127
-8
85
4
-62
33
25
-12
16
25
-33
-80
-25
27
-48
-37
-51
12
10
-96
36
-66
20
53
-9
-48
2
7
-23
31
3
106
27
49
25
-13
127
-68
7
-4
47
63
-2
-119
40
54
-7
12
13
63
-18
27
15
24
-9
-39
-3
69
-22
-30
-23
-63
53
-19
-57
14
-22
-92
-25
16
-68
-50
-1
41
10
20
-19
4
9
-4
2
26
2
13
7
14
-5
26
-16
2
-9
100
8
-4
-12
-2
-20
6
-3
-40
-16
3
-4
-9
8
-3
-14
12
-18
-59
-46
101
-1
19
120
38
-43
1
-56
41
-8
-19
-4
-25
37
16
28
37
12
53
-42
31
-59
-6
35
3
-10
-11
-12
50
42
-1
-18
-110
-18
-43
1
-26
22
-40
1
-17
23
-4
-27
15
-5
-24
26
43
21
11
-3
25
6
8
-28
7
-23
-20
1
21
-17
21
19
-73
111
-127
-50
56
65
-38
13
13
24
49
13
-25
-31
-15
-15
-1
6
10
3
0
21
10
-5
27
3
-11
4
5
4
-17
-16
12
8
-17
1
-7
-27
-22
-27
10
-5
8
6
-32
-4
-2
23
9
-24
-10
-17
42
14
-3
-41
-71
-7
73
-34
34
-22
1
-35
-10
22
-88
13
-54
-47
88
-49
36
127
33
10
2
23
-48
-30
-79
-51
-27
-23
97
-9
-19
41
-31
19
2
-26
38
-15
50
28
21
16
-28
35
99
3
17
6
7
32
30
-13
-5
27
6
0
30
27
-32
17
25
5
34
24
-31
-7
-31
55
32
-12
10
-13
-12
-2
-4
5
-6
-4
3
13
47
-61
-2
31
-53
-23
20
-44
40
12
-28
15
20
4
18
-16
3
-7
-47
33
5
-43
-4
-17
-8
-3
16
20
-90
0
21
26
-16
-86
-39
15
-34
27
-15
-9
9
-17
-1
-2
-62
4
12
54
-12
-5
18
-18
4
-32
-24
-61
-28
-3
12
5
63
30
-8
28
-21
-41
114
2
75
41
-35
-73
-14
19
57
-23
-56
12
11
20
-30
-12
7
-14
55
-7
10
-38
-30
12
24
-5
-17
-7
42
-6
-13
66
45
4
-72
14
12
70
75
-31
14
-14
-70
-1
-14
8
40
25
-27
-2
9
31
-7
-18
16
3
-6
17
-39
16
-27
-50
99
4
7
-25
11
4
-15
-49
119
32
28
-127
27
4
-14
-58
8
85
-1
8
55
98
-32
-13
-28
-8
9
-10
-95
14
-34
-22
8
17
18
-14
-39
11
40
86
41
-1
40
93
39
18
-47
9
-24
71
-119
-24
19
-1
3
-37
10
-29
-62
22
42
-43
11
22
112
20
59
10
43
-22
-14
-12
-35
-36
-9
-25
41
9
-1
70
-29
25
-7
-80
-60
-20
6
-47
-55
12
1
-4
-29
-16
46
54
-114
31
49
-74
-15
-127
-23
-49
-100
-12
15
-22
82
-19
-60
13
-26
90
-9
15
81
16
55
31
54
-23
-10
-84
-42
38
5
35
-56
8
4
50
-13
-28
-12
3
-18
-39
78
6
35
28
-29
9
10
-1
15
-15
23
30
1
-43
-4
-18
-22
-62
-16
7
-46
-31
-59
-65
-38
-15
114
-12
-40
26
-21
24
25
71
-8
8
-15
-5
15
3
1
10
-9
10
9
-43
-37
4
4
-8
-19
-15
-5
29
-55
49
-52
8
-1
-18
11
11
11
0
-9
7
-7
19
5
4
-7
-46
6
0
28
-49
30
-10
6
1
-41
27
127
-22
37
1
13
10
-8
8
52
-17
-30
22
-7
-10
-2
16
-56
56
-14
29
-63
-1
-9
18
32
19
4
-42
19
3
-14
24
9
39
-4
13
14
-19
-11
-4
12
-4
35
10
5
16
33
-42
-4
-52
14
-36
-127
30
67
16
29
-27
-19
67
-34
-26
-23
-39
35
-22
32
7
-19
-17
24
27
21
-26
-23
10
56
-20
-16
-5
-13
30
5
-62
21
-46
-8
34
13
2
-47
29
-16
-84
-27
-13
51
-8
-7
50
-3
-20
4
-20
10
-7
-58
-39
-22
-19
-5
5
83
14
-1
-13
19
16
7
-22
-21
8
21
-89
16
-32
6
-80
21
-7
21
32
36
38
68
59
-10
-30
0
-11
-6
-9
23
-6
-41
3
4
51
20
-32
-35
12
28
27
-61
50
-4
-18
1
-6
-61
30
37
20
5
30
-64
7
5
-33
9
46
-6
-32
24
-15
8
47
22
-10
-3
11
10
-10
0
-26
15
-48
-60
28
88
-12
-49
26
57
-5
88
-26
21
-55
-19
-18
6
-15
-36
19
16
-21
-20
-13
11
2
-57
11
-2
-9
-25
-29
-23
3
8
-16
5
-6
9
20
-10
-48
-55
29
-2
13
78
23
-24
-24
19
0
4
4
-18
1
12
22
76
9
37
-27
12
-43
-30
84
-9
15
13
25
51
-46
1
-9
25
11
-12
10
5
7
24
-29
0
6
-49
55
-11
-55
-25
-40
20
-39
-55
-80
4
18
15
-19
-6
10
9
-6
-17
-34
-23
19
-45
1
-18
-7
-1
8
-15
-9
9
-11
3
1
-64
2
1
15
-28
0
26
-5
71
12
0
-22
-18
-8
13
-54
33
59
43
11
47
23
-21
25
-30
-14
-15
-8
2
18
-6
7
47
10
0
20
-11
4
-9
11
-20
5
-5
-16
-43
-12
8
-7
25
-17
-7
-27
-37
24
-3
-17
53
-16
14
9
-43
4
18
-8
24
6
-2
8
-26
-26
-24
18
-12
22
-127
83
69
85
7
-65
86
-59
12
-2
-2
-2
8
-10
-11
-14
12
-24
-10
-6
-7
6
1
-26
-13
-2
24
9
3
10
-46
16
1
4
64
-17
-46
15
-82
-106
25
68
-49
-47
-8
-23
41
-9
14
-30
-27
13
7
16
113
-4
2
-28
32
9
8
14
-44
-11
-18
-15
-103
16
-33
6
-49
1
-66
127
80
-39
-33
-22
-21
28
35
30
-63
4
10
11
6
-32
21
-12
-24
-8
6
-4
-8
-20
-21
2
-12
-30
7
-16
2
-3
-33
-29
-25
-12
58
-4
-22
-38
25
-24
-19
13
3
-4
4
-18
-36
-51
-32
3
-9
12
4
-37
-17
2
71
-19
-1
41
17
24
-6
-88
-51
-17
65
-3
-16
30
3
-46
-30
13
18
-10
-35
-11
11
33
3
-11
-8
12
98
-6
23
13
-46
-1
-15
-40
-28
-24
-23
20
-11
6
12
2
32
16
23
36
14
-9
-29
29
-1
6
-3
-46
13
-13
40
76
-67
-30
-35
-54
-15
-4
10
2
-15
-18
-107
-30
5
-11
-12
13
4
15
-24
14
2
2
13
24
-4
-2
-35
26
-5
9
12
14
-9
2
42
-38
6
-4
50
-25
73
14
14
-50
4
14
32
67
-7
17
63
17
3
-5
36
8
-30
-7
-26
-22
6
0
-27
-18
3
10
-12
-89
-2
1
-28
-5
16
13
-12
59
-13
3
9
-55
-35
-2
16
51
8
23
24
3
28
20
50
46
-16
13
-14
-11
-25
-71
55
81
11
-44
20
127
-39
-18
35
20
16
-5
21
1
-11
66
-8
-16
11
-9
-30
-15
-22
-12
-62
-50
7
-4
18
-11
-11
-6
-5
-10
56
-12
-45
62
37
36
-9
38
0
1
3
2
-9
-7
-9
-23
-4
1
-37
61
45
18
61
26
10
4
-26
90
9
-3
-14
4
-34
45
-37
-32
-16
5
-5
14
-7
-10
41
-37
44
-23
35
50
-2
9
-47
4
-98
-1
9
0
1
10
-9
-12
-11
-29
8
-89
-4
0
-41
2
20
-9
-33
45
0
-2
-55
-4
55
-16
-69
-20
-5
-9
4
-29
-7
-5
79
-79
14
-16
-81
-4
6
4
-4
14
-5
5
-21
22
13
2
-5
-36
-11
22
-11
-28
7
5
3
21
-14
28
33
-9
18
4
1
27
32
-7
-42
-35
-20
-37
127
43
-9
-1
5
-7
-40
3
-33
36
35
-58
30
21
-84
25
24
2
3
1
19
14
-6
-9
22
-9
6
0
-38
-43
2
-30
16
8
6
-13
28
-36
-90
20
4
-45
29
-41
18
1
36
5
-49
14
8
-1
32
30
-34
-2
5
8
-7
24
-43
1
8
5
-10
20
0
2
-14
15
-12
-10
-7
0
3
-8
-35
22
104
-33
-25
-44
8
-4
18
82
64
-59
21
-30
13
7
-1
12
14
-7
15
-30
9
-6
3
-27
-10
6
0
40
-8
-11
-48
-4
5
-16
6
28
5
8
-9
-22
-10
70
37
-29
0
-31
66
-52
-54
-5
85
32
7
22
-15
-25
20
15
-3
-106
-1
-5
-68
5
-28
0
46
106
-12
12
70
15
-1
-19
29
17
-26
33
-31
72
-7
31
13
10
42
-10
-47
55
7
-14
64
54
18
17
22
23
-22
-12
15
82
-3
2
43
20
-47
12
55
-127
35
45
-7
-17
9
-21
35
42
1
7
13
2
-30
8
37
-65
13
-14
127
-28
-23
49
-57
-32
-8
-2
-51
-23
-73
21
69
-51
7
-25
-57
79
98
21
19
-29
15
-9
-94
-32
-74
12
13
6
-5
-3
64
2
3
11
16
-16
23
-20
12
-31
-2
7
16
-58
-25
4
57
36
4
45
8
-73
-7
-5
-33
7
-1
9
28
45
0
14
16
13
-127
34
-27
-14
-14
-2
-26
7
-14
-6
-16
-34
6
-8
9
-18
-11
-1
-5
31
-3
10
12
16
-13
4
66
-53
0
-19
-38
-9
-4
-10
-35
-23
-9
12
19
-22
-16
-3
8
7
-9
31
-44
5
9
13
85
-7
-7
6
9
-9
-66
19
-34
-41
1
-7
-8
9
-15
-13
79
28
19
-19
10
-26
12
9
-6
74
9
-16
31
-5
39
-27
12
-16
3
0
33
50
1
20
-51
-26
6
-3
15
15
-4
6
30
6
10
-7
34
9
-14
16
68
16
-8
-23
-44
-63
-31
7
43
88
-5
22
-45
-4
53
24
2
82
9
-4
26
28
50
-18
80
-20
6
8
16
46
11
14
3
-62
8
-2
87
70
-49
20
1
7
-2
13
-42
-3
-46
37
15
-59
-6
0
20
82
26
-30
7
3
-7
8
-2
-37
-65
18
10
-5
5
-3
-13
-11
3
30
32
8
12
-13
-9
-12
68
-53
-3
-20
-9
20
-86
47
-85
45
-36
12
-1
-4
-14
9
8
-13
-19
-18
12
-13
-10
-5
-2
20
21
-14
21
-16
-35
-24
-13
8
-41
30
-3
15
-3
-30
13
4
14
-76
-82
21
29
16
33
-4
-4
25
-4
9
3
12
1
-5
-9
35
8
-18
-79
21
11
-55
78
-102
-6
-27
-74
1
-29
-30
-5
21
0
-2
0
16
18
21
3
-8
1
3
16
10
4
27
-49
-16
6
-12
-12
-6
-17
-16
31
63
-12
13
-25
-53
-24
44
-4
38
1
3
6
-1
-10
-1
8
26
18
1
44
7
-32
-29
-19
94
-31
-37
-1
14
86
22
-44
-19
0
-1
18
-18
-14
-1
-17
-3
69
-7
-53
6
12
7
11
-62
1
-12
28
-34
15
-18
-22
35
-2
6
22
28
8
-12
-21
-48
-8
0
10
13
18
-15
21
6
2
2
16
12
-2
-7
13
-5
-4
-6
-66
27
28
-4
13
-42
-58
16
3
44
20
-32
-28
-31
4
11
60
3
43
27
-1
-7
-7
-4
-2
-49
-38
0
-22
-46
3
-6
14
-22
9
-1
-43
5
0
5
-19
19
-24
-4
-19
28
-4
8
-1
-21
-37
10
-5
7
-4
-1
-50
-6
27
-13
18
-71
-3
-2
-7
18
-2
-54
13
7
22
11
-20
-30
-58
-127
-63
12
-6
3
7
40
19
-5
-2
5
1
11
19
7
-16
14
30
-4
1
-2
8
-22
-2
-5
-7
7
-127
-127
-12
24
-11
25
-60
-61
-4
28
-48
-19
37
-1
83
6
-6
-4
-44
-4
-70
-16
12
3
3
-7
23
-9
-24
-9
-33
-44
3
0
47
-13
18
17
-3
20
-5
9
-40
-90
66
24
0
-35
6
-4
22
8
15
47
-47
-8
-7
1
3
40
15
-11
-59
4
-1
-4
-13
13
-9
-5
79
30
-15
39
-8
-8
25
5
-14
28
-1
6
14
15
-3
2
2
-70
-2
0
37
19
36
-3
29
59
-9
8
-26
-12
-10
-68
-9
-31
6
-15
-37
77
-56
-40
9
44
-4
8
13
12
-5
4
13
-28
-5
2
4
20
15
31
33
-86
2
4
42
4
-2
10
37
-16
-4
-13
-31
-13
8
14
-49
-44
3
5
14
95
9
60
19
-74
55
2
-54
38
60
-106
37
-20
56
-13
-9
-8
56
-19
-14
21
-5
28
-20
1
-7
38
-8
1
-24
-7
-19
8
7
-4
-16
11
-51
-19
-2
-32
-14
16
16
74
-2
-23
26
36
127
45
-41
26
70
19
6
-11
-50
-14
28
26
24
46
-22
4
20
33
51
1
-9
26
30
-16
24
41
15
4
-19
-26
-44
-22
-26
23
-1
29
-44
-40
-105
-38
-11
33
-10
27
21
7
24
24
-3
-68
13
97
27
-60
-1
75
-76
-9
34
28
-126
28
50
26
109
21
-46
-78
-47
7
-28
-127
24
-3
-2
34
64
2
3
-33
14
-4
33
-3
46
-17
-17
-22
28
-11
33
-25
11
31
-37
-76
-12
9
-11
-6
-10
-3
-15
16
4
1
45
5
21
43
1
5
16
26
113
-86
-37
13
-30
20
20
23
3
-31
76
47
12
-25
46
-2
45
2
-61
-22
40
-38
-21
-43
-56
115
-32
-6
-75
-75
6
-17
52
4
-25
-57
61
-42
29
27
-21
-13
58
53
47
-3
35
-29
-14
50
-3
23
10
-28
7
26
-16
36
18
-5
-5
-27
5
13
-43
-56
35
-1
127
25
29
-51
-13
-14
-46
-30
15
-2
6
-9
10
4
59
-6
30
-28
18
-33
33
46
-16
-16
5
-91
-34
-26
12
31
32
-19
16
40
-22
-31
4
-39
30
-31
50
1
11
-39
-44
44
-77
1
89
63
102
-29
6
-1
19
-9
-59
5
1
-40
44
-23
-64
-31
35
-15
73
-14
36
38
19
-20
44
-60
-19
14
16
9
-63
-30
19
13
-88
18
81
-41
69
-12
51
-20
-16
70
19
-9
-54
8
14
-13
11
20
-17
21
-12
-1
78
-24
-1
13
15
13
5
21
76
0
10
12
30
-5
41
-39
-92
-12
44
-86
-80
3
-4
1
3
14
-47
-6
31
-1
53
-14
97
-19
-5
6
14
-48
-41
13
32
15
16
-33
-32
41
22
-14
0
51
12
-93
54
44
32
-29
-49
-71
-45
-49
52
13
-7
-3
99
-14
-20
16
18
57
-48
42
-26
-3
1
-14
-20
-5
94
-23
-51
-26
28
78
-6
24
89
-45
-23
-18
72
66
93
28
34
-8
-29
52
-80
13
12
16
51
20
-13
10
36
27
20
60
-113
-61
-58
-53
-2
-24
-6
44
-44
-27
39
10
37
-127
-1
-5
-59
-23
98
-11
-20
30
27
127
81
46
-2
23
-13
98
52
-58
39
-16
-42
20
43
37
-79
-50
64
-127
-54
19
-111
81
17
-41
50
-14
-15
-30
-21
3
10
39
31
35
16
-14
-23
-2
3
2
-41
-12
34
0
-78
-10
14
-49
-10
18
-33
-36
1
0
9
1
-17
12
3
-7
-11
-27
-27
37
-56
-19
-46
-51
-17
11
4
76
4
37
-37
7
4
-30
24
0
44
-16
73
-18
-6
23
-1
7
-50
-9
70
-5
-7
18
-42
-42
39
-20
2
-1
-7
-6
-2
-20
20
-6
32
18
15
1
-24
-5
-5
24
9
0
-12
11
-18
-46
-11
11
-12
9
9
-47
-35
-12
21
16
38
12
38
-23
65
20
14
-2
125
-15
5
3
-10
-14
100
20
4
-19
-18
-31
-39
30
58
37
5
-5
-71
25
-6
0
3
-13
77
-6
-9
48
28
46
23
52
-18
3
-12
69
18
-89
6
28
52
57
56
-32
-16
55
-127
3
-29
-6
-36
68
-17
3
40
-22
40
-22
53
42
-16
44
20
-13
60
-59
-67
12
16
-103
80
14
38
39
-14
-16
-10
25
37
24
42
-18
21
41
75
3
28
-53
32
-80
-2
-43
55
8
59
-20
-25
-71
-32
8
2
5
27
-38
29
12
3
-22
-56
13
6
-18
22
-19
69
60
8
29
-79
-14
38
37
-5
25
-10
22
15
0
9
-11
18
5
-17
16
27
33
34
24
49
11
14
-33
84
21
11
74
16
51
-127
64
-86
-12
64
-13
-39
9
-20
0
34
19
27
23
29
-12
-12
-4
-50
-22
-12
-5
2
-3
-6
43
58
14
13
-11
29
-17
0
-8
-39
19
-32
-14
33
120
-9
13
5
-26
29
3
-2
-28
-3
6
-14
-26
9
12
-15
1
-6
41
47
-3
-16
-30
8
22
-19
-6
-31
50
6
34
-34
42
-8
-7
-2
4
-24
18
-3
-9
7
14
5
49
3
14
4
0
0
0
46
2
68
4
-6
-118
15
0
31
-11
-23
-8
23
-1
41
5
38
13
-25
-42
-20
-45
16
-24
-1
24
-17
6
-17
-7
-12
-6
-55
-16
-41
-3
6
-14
6
14
-19
22
20
-11
-42
-68
6
0
16
-7
-57
6
3
-33
19
25
25
27
29
-19
16
1
33
58
22
-5
-4
67
-31
19
56
-80
-35
-8
69
57
-20
19
14
0
24
-17
37
-29
5
18
14
14
44
-7
9
-10
8
-1
-17
20
-5
-3
55
-19
-5
37
-5
5
-29
-13
36
-22
-26
50
12
16
0
19
28
-22
29
7
3
-24
-43
19
19
-36
-28
51
-27
-71
-36
35
13
10
-63
65
-2
5
-34
-7
-32
-15
12
0
-3
-17
-30
-7
89
2
-12
12
16
1
35
-13
-3
-10
0
-15
15
16
30
-20
10
-68
-79
-13
37
22
-6
8
15
-16
74
-14
-54
22
25
21
-19
-36
30
-67
-15
-2
24
-13
29
1
7
10
-20
21
2
17
-14
14
-40
-49
19
61
-25
0
-94
-2
5
64
-1
50
57
-16
-22
8
-1
89
25
-10
-23
-20
16
16
19
7
-10
24
11
2
-22
-5
0
29
7
-15
-19
-25
79
-30
-63
10
-7
-3
-61
-10
7
1
11
-1
2
39
-75
28
3
16
14
-19
-1
-64
-51
10
15
-24
22
8
-33
11
121
42
12
-11
21
-37
10
-3
-52
-14
27
0
-20
9
43
-39
-2
20
45
11
-1
22
-2
62
6
34
-30
-15
-24
2
34
-17
38
8
-6
3
1
18
1
-77
10
18
28
24
3
12
8
-4
21
-65
-12
-44
-51
22
71
8
49
1
32
-22
-127
-14
-111
127
-36
-57
53
-9
-24
-6
-102
-29
-16
64
-43
127
-61
-35
34
-41
8
33
10
3
59
29
94
33
-11
-10
118
3
-53
-16
-38
-105
-36
-81
95
-16
77
-26
-60
54
3
-1
-43
0
-81
38
-32
5
0
-4
-29
28
-67
-26
-13
-50
-126
-10
16
-41
-1
-16
45
30
-127
127
-74
19
-8
-127
126
-47
-2
-22
41
-58
-57
-60
-13
33
-19
-73
-30
3
-15
15
-79
33
-19
29
-63
61
35
-51
127
-42
-21
0
-14
-38
9
-61
90
-28
3
-12
37
-69
-24
39
-111
-67
7
-13
50
40
-46
-52
-37
-1
-21
18
13
-6
-23
2
-48
-15
-24
63
15
-45
-74
-36
-110
-9
39
-52
-127
-84
-47
50
62
17
-45
-30
-32
-40
1
-61
-5
-92
35
-82
40
-67
-31
19
60
24
-31
-35
-28
-5
49
58
-13
-101
-76
14
-91
-11
61
8
69
-46
-20
43
-99
-18
-7
-113
-41
-2
-2
-86
-112
77
21
-120
46
-58
40
-29
26
45
7
-1
41
-66
75
-10
-65
98
72
90
97
52
6
-12
22
-127
106
-29
55
-31
-27
61
-88
12
-3
-20
-67
127
127
25
20
12
7
96
-48
-75
-12
-36
-127
-60
-5
-25
127
33
2
16
-116
11
55
32
-40
-51
50
69
-65
65
11
12
-42
0
-88
127
-85
-3
12
65
61
-126
-4
-55
-98
-22
6
-68
12
25
-79
-72
-26
14
-19
14
28
31
-9
21
67
-43
-4
20
44
-104
-64
10
-46
68
36
-43
5
-54
15
54
-5
-49
-27
-39
-6
-96
47
-24
-106
-38
4
52
93
-46
37
-42
-70
76
24
97
-36
9
-69
72
-45
-124
-78
127
3
43
-52
8
-72
74
-71
3
16
-11
-13
49
56
85
38
-24
26
-14
-40
88
18
9
56
19
-33
-119
-5
-17
-49
-117
127
-66
49
-95
26
1
-60
-5
60
-21
23
-16
-46
-42
4
-23
-118
38
19
44
29
57
-26
-27
49
6
21
22
15
5
127
17
-47
5
42
4
26
-58
-30
23
-17
-127
-12
-28
-39
6
-45
11
-87
-35
16
-2
16
-26
7
-10
-11
57
-46
-48
41
57
11
41
39
-56
-100
-3
2
36
47
11
0
-91
-42
30
9
-4
-6
45
-78
-42
58
18
3
-11
8
18
-34
-55
6
16
11
-44
8
-10
-33
64
1
47
-66
37
-33
-8
-75
-39
-25
1
3
43
9
-53
-2
69
-66
11
39
14
3
42
-12
-73
-70
-16
124
45
-48
44
127
39
-76
10
-14
-102
-57
-14
-31
-24
-44
26
7
54
-56
-44
32
68
26
3
33
3
8
-8
0
106
-127
23
-127
69
84
127
22
10
65
80
-29
-36
-17
-57
2
40
28
15
44
2
24
91
30
-79
75
20
34
-127
-3
-64
-17
54
-36
-127
28
21
5
30
60
43
-52
25
-32
107
105
-82
43
-7
74
2
-11
-111
-31
-3
-20
-12
55
39
6
127
-4
19
-44
-27
33
-32
21
-24
127
-67
17
12
-3
-3
-32
13
-18
76
-127
70
-34
1
11
-122
26
-37
-3
-23
-31
-76
3
-56
56
-16
25
-22
-87
7
-106
20
41
6
120
-4
53
-84
-1
78
30
-48
39
-70
41
1
-30
-107
-20
36
80
-4
-88
28
-78
32
-26
45
34
18
-127
43
127
-34
15
-1
-95
-57
-82
57
-68
-126
11
63
58
-63
-14
-60
-43
-24
-4
84
36
23
40
-20
29
-51
68
-21
-92
-27
-26
24
-13
63
-10
-25
79
-92
-66
-127
-21
-39
37
91
29
-112
34
57
-45
3
3
47
61
127
-31
-3
84
-49
-37
-11
-86
40
-59
-40
45
-109
4
-127
-9
-118
14
46
-41
-56
21
27
26
24
-62
17
-30
24
-51
-67
28
-89
-34
-35
-35
36
-29
-36
96
43
-3
-70
-12
127
-22
66
-16
36
-16
31
-68
6
-3
-1
32
-26
62
-45
-62
-46
8
26
-20
47
43
-1
23
-14
-96
-103
6
49
-91
-8
-47
3
29
-24
-105
9
-127
19
-111
38
17
-20
127
-26
7
36
50
-24
-14
127
11
-5
55
0
1
-42
8
0
46
-17
-47
73
28
-127
5
-25
76
-5
35
54
-4
-48
-16
-4
-31
14
-21
-33
-31
39
-21
46
-17
-27
-16
33
-68
-49
29
-86
63
-13
89
28
16
77
-11
-81
-52
-127
74
-13
-22
-10
12
31
48
13
9
-7
-13
52
-1
2
-68
-19
-59
-104
-9
6
61
23
21
14
112
-25
103
-33
127
-8
29
-24
87
92
-8
-58
-23
35
51
-15
-109
-40
-127
6
42
-10
39
41
-47
122
74
-43
58
15
-53
-32
6
45
-111
-4
-88
40
-20
-52
74
-9
78
-6
-34
-43
-47
-2
45
58
-2
-43
52
-43
-7
-13
-44
127
11
-8
-41
-37
-85
-28
41
-19
-53
-3
-28
85
-37
-19
-98
-21
-44
10
-57
31
-20
44
29
-12
127
65
-2
-39
24
-2
90
5
58
29
-60
-42
-63
-41
37
-32
6
-31
-10
1
-5
10
-19
-49
-45
-44
46
28
-3
-41
-28
-66
-16
8
-35
4
127
-18
-2
-12
-2
-83
13
6
-5
-8
127
111
92
127
41
0
-25
120
70
-86
7
29
10
-33
-5
23
-11
7
-16
9
46
11
118
65
55
26
24
72
3
127
-58
40
51
19
118
-84
-3
103
-54
-127
-20
31
70
7
-127
-24
43
22
-50
20
-116
78
21
-32
3
52
29
50
-33
57
-14
7
39
-30
98
10
-37
17
-49
15
5
-1
-55
106
-88
92
-54
30
46
21
20
55
106
13
96
-17
-6
99
-54
-53
-68
24
47
-15
22
-72
104
127
-88
77
71
31
47
43
-21
-95
-41
53
19
-32
-17
-7
-110
0
-86
76
-89
15
-8
18
-102
-34
22
102
35
16
-15
93
98
-44
-43
13
4
-16
3
-39
5
18
36
-9
-62
41
127
-45
-14
23
-22
-14
33
-54
20
6
-90
78
-26
-4
49
-69
12
46
14
-20
-11
43
-4
8
7
35
-41
-47
-84
-127
-19
-17
106
-69
32
41
78
-19
-9
-14
9
14
-2
-39
-9
-25
14
5
-23
-3
50
50
127
-14
102
102
-75
-46
-2
53
51
9
4
-31
-51
-16
-30
-19
-54
47
-24
6
-59
-34
10
52
61
-58
18
48
41
-61
7
80
122
31
1
127
-3
70
-53
60
-35
-10
-89
-8
34
-50
25
50
16
80
39
-43
-57
-8
62
31
-23
-14
63
-12
31
1
107
-6
-40
18
-6
-29
-39
-17
-13
-127
-4
7
-51
90
-113
25
5
83
12
29
-56
41
-38
-20
40
3
-1
8
-22
29
-43
127
-127
-28
-77
33
-127
80
-80
34
-54
32
20
-12
16
3
51
-27
23
-40
-74
-10
20
25
43
-41
-9
-30
57
62
22
106
20
35
69
-34
105
14
-81
-3
-101
-2
11
-44
86
29
-55
-1
0
-10
9
42
-13
44
-39
14
-56
127
30
-13
-82
36
-21
35
21
-37
-47
-127
33
-29
19
-29
-25
8
-31
-12
-21
94
-37
2
4
34
56
-4
23
-24
38
-4
29
-7
-27
-1
17
-45
-19
18
11
20
-52
-11
-97
8
90
-98
102
-61
-44
32
16
-28
-95
3
3
46
-28
10
-36
-10
51
18
-35
-14
-96
24
-84
-127
-39
-97
13
96
-124
-6
-127
3
23
-127
35
54
48
-39
-60
100
-105
-46
-101
10
74
15
-23
-30
-16
33
65
-43
2
-1
15
-53
14
18
30
-7
-71
38
34
-32
13
-5
30
-116
28
-27
-28
-80
-43
27
-30
50
50
18
-61
1
-84
-22
-50
-8
21
-10
8
15
-12
-32
-22
-63
-41
64
-34
-57
-127
-66
-127
-93
23
-23
-10
31
17
25
24
29
-127
29
29
29
40
-76
15
-1
-77
18
47
24
-4
28
9
94
-91
-11
-59
-14
-58
-20
-7
-54
-15
-15
-87
-94
41
16
31
95
-3
15
56
14
-45
-12
6
32
22
-26
-28
-31
2
23
-48
-34
-19
31
-127
19
29
5
14
21
-37
-104
42
-118
5
-4
69
-2
-4
-39
-34
0
-10
-25
-70
29
50
13
-45
-30
97
-23
-11
19
44
0
-58
26
-40
-47
-106
-127
31
-18
-45
-41
-3
-35
28
-23
5
17
30
-11
24
11
3
3
-51
-127
23
-29
-25
32
-85
-60
21
18
-24
-25
58
63
-102
-103
-35
-37
-60
11
-2
54
-23
-54
-18
20
8
-4
22
127
8
29
23
2
-68
-22
1
-11
-50
14
-59
-9
0
-102
-10
-62
9
-54
127
50
-80
20
-16
-73
49
-56
96
13
15
-73
-5
19
-53
20
48
13
37
-3
-41
-41
-12
-58
-7
100
-16
127
11
-85
127
-74
-31
-20
35
-76
-127
-16
-17
32
93
-19
25
-17
-33
-17
84
17
-91
36
51
-43
-33
42
53
-2
22
30
33
-76
-22
8
-5
-53
-56
-84
-15
37
25
45
52
127
-15
7
-9
-5
3
-13
94
48
-59
78
-30
-23
-1
-5
-5
-13
51
35
55
-29
-127
127
48
-21
40
55
-78
3
30
-17
24
-14
-35
-26
-50
19
19
19
0
-47
-44
-118
-71
25
-33
3
-30
-25
-2
0
-10
36
108
87
58
11
33
60
-79
19
-57
-12
-15
-3
88
-21
-9
5
8
-14
57
84
-1
25
-29
0
70
18
-30
6
-2
-58
44
43
-50
-49
42
-68
-110
77
-19
-45
56
-2
-46
41
-35
109
-1
26
3
-28
21
-26
-22
-5
8
66
-35
62
-127
-55
-51
-127
6
117
20
-39
31
-100
-53
-23
65
43
42
35
13
-69
63
-58
-93
47
49
-5
-55
-121
53
38
-6
44
-32
-15
5
92
80
19
127
-127
26
78
30
-42
-127
-39
-9
-43
0
-1
-6
-14
9
51
89
-7
8
11
-2
-70
53
-89
39
43
22
0
-98
-12
-31
-7
30
65
-6
-54
-11
61
-68
37
43
-112
6
-34
35
3
85
33
57
-23
33
69
-9
10
-40
3
35
-61
-47
18
-3
-32
4
-19
34
127
26
-6
-127
1
12
124
32
-87
76
-41
36
44
-127
31
123
-69
-31
4
-1
-31
-11
64
-24
88
-56
24
5
53
-60
29
-13
14
34
77
40
52
25
-43
-32
-32
5
1
-111
55
-73
-31
27
66
35
-23
-11
11
59
81
-40
-35
-3
72
5
-127
68
-107
-9
50
-25
-127
24
48
-61
-21
-49
-16
-114
15
19
28
-46
-2
16
-17
3
17
-7
54
13
64
-127
-51
127
-35
34
50
-94
1
-46
27
-42
10
23
14
104
-84
25
76
-18
-28
-13
0
-31
-66
-1
39
64
28
33
5
-99
-23
-25
-34
8
2
-41
-65
-115
13
-21
-31
66
-1
44
56
28
-27
-23
47
18
62
-12
0
-3
127
15
-67
-28
55
-4
32
110
-59
-42
-15
2
73
-28
9
-42
42
52
105
0
24
-14
16
111
-9
-45
26
-51
-9
-56
-45
39
-76
-17
0
-15
34
-4
-24
-26
2
-14
10
2
51
3
-55
-73
11
-43
-19
3
51
116
85
-39
56
-33
7
-127
-14
-48
-122
1
-3
-72
-123
-2
-18
-34
52
-48
75
9
-33
-29
18
-23
-29
33
-127
106
-4
-15
-98
-1
110
1
-40
91
-9
-4
20
77
-54
57
10
-32
-15
4
-29
-5
-10
35
-30
11
-127
-106
-45
-22
20
-66
79
127
-53
116
-52
-127
-8
23
-20
29
-37
-49
-52
12
-1
127
-14
15
-32
19
50
38
-5
12
-73
19
-6
-6
-2
-32
57
36
-18
3
12
5
-72
0
-62
-51
-112
31
2
70
-31
22
30
46
-41
80
-28
25
-20
-11
-113
-97
-9
-91
-26
94
24
25
-127
20
-79
10
10
44
-127
-55
45
51
-76
-2
11
0
70
40
-64
46
-5
-37
26
-62
3
4
31
73
-65
-29
-18
77
-28
15
-92
-56
30
42
-24
53
-12
23
-34
1
-61
107
27
-56
-72
-38
89
-14
32
-27
-29
21
-15
88
4
-12
-47
35
72
16
-77
-63
-12
-46
58
-96
5
33
-64
42
-127
127
-8
54
3
40
-24
25
69
-15
-34
33
-127
-7
-23
127
0
60
-22
-127
51
4
-75
22
38
-7
-127
-56
-28
34
-16
15
26
0
-94
-112
-11
21
19
-33
-52
31
-33
-37
72
-18
59
122
4
67
-5
2
43
14
-2
11
19
-47
5
-7
-2
-22
33
49
-39
37
-89
20
4
-5
-127
84
18
30
-11
-115
3
-5
39
13
38
-15
-56
25
14
56
-19
41
-4
15
-43
-69
25
95
14
-8
22
-18
-85
-29
-75
32
-78
-4
22
12
-105
-39
-53
-54
60
-18
42
-81
74
-11
53
-4
47
82
-70
-89
-46
89
-97
74
10
22
1
-8
-73
26
76
-52
53
14
-17
19
116
39
22
-127
2
17
-4
-64
56
36
33
29
26
-7
3
33
53
-82
-82
16
79
-36
-40
-82
-127
-38
-39
-127
2
32
-80
-12
-83
-47
39
63
-43
-84
41
62
19
-25
-3
-2
22
34
34
127
49
-26
120
-125
-10
-39
40
57
16
-86
-49
-85
-48
2
-127
-40
-13
96
-43
-51
19
-127
8
-69
54
-19
16
-27
14
-45
13
-42
-119
124
-76
-88
-79
-45
105
-27
21
-30
32
-23
29
-4
-15
-109
58
-8
-72
-28
65
-73
16
-55
40
-6
-21
-9
127
-9
-5
-37
-62
5
-36
-6
-26
-74
-114
-45
24
-116
-16
-8
-95
-90
21
7
-43
23
84
86
71
-39
42
-109
119
50
17
-109
74
-14
-54
110
116
-51
-10
-46
46
48
47
-4
13
-48
-117
-89
91
72
-32
-10
86
-103
-7
31
13
3
65
-102
-16
-73
49
22
-51
-49
44
73
-24
-127
-127
-36
52
21
-41
15
13
-21
-15
-67
-36
-8
91
-43
83
-9
37
-12
-34
17
-4
68
39
9
41
45
-74
-12
56
-77
-100
-7
-32
-29
42
24
43
-80
-17
23
19
127
-62
3
-85
75
24
37
8
-15
44
37
-96
28
-26
44
-5
33
30
-35
117
-110
-127
-119
50
-39
-127
8
56
-59
16
-102
-97
-23
-6
-10
41
-21
-10
49
-32
26
-1
127
-25
8
-36
61
-39
41
-13
17
-7
43
-84
-3
-44
30
-41
57
-127
121
14
1
-21
-18
11
-26
-49
-54
1
-59
31
-9
-10
63
83
20
13
-22
-62
-7
43
48
57
13
20
92
48
23
-1
38
-42
-71
-27
35
-21
-37
36
30
-30
56
76
-40
-5
-27
-18
31
-37
88
-13
7
-40
32
-32
27
14
9
1
127
-52
36
64
-13
-21
74
-82
70
18
12
-30
-9
6
51
-21
-96
-40
35
-66
2
-20
-41
-14
-18
-13
-19
-16
48
-50
106
-18
82
127
109
17
2
-19
127
-24
-10
10
116
-53
-22
-13
-66
60
42
13
-48
102
-2
98
-116
13
-28
94
6
-19
-39
88
-20
-6
-4
-2
-65
7
30
2
29
15
83
15
-11
15
-90
4
65
-16
-6
-17
60
37
7
-45
-34
0
47
-53
-22
54
-25
14
54
-63
11
-69
57
69
-115
-4
-65
127
-84
58
-127
-42
101
-62
43
15
10
6
-19
35
-23
9
-46
39
24
-58
-42
32
-38
-39
-6
57
92
-103
-26
127
28
18
51
-19
29
32
-106
29
-19
-59
-23
-36
-22
49
-51
-68
35
69
106
68
34
-17
-16
4
49
-39
5
-42
-42
127
8
-44
-53
-27
48
34
127
-79
-59
-28
-127
8
-15
-100
-51
33
52
-122
0
-9
-52
-1
-23
120
59
31
-19
2
-40
19
85
30
-24
1
-24
60
-127
-15
101
14
-50
68
-123
49
13
23
-40
-62
-40
9
92
3
35
-25
-72
-53
14
61
51
-20
-54
-36
-15
67
35
102
46
127
37
-42
-13
15
91
30
-87
-37
79
-6
57
52
51
-14
23
-63
106
-69
18
-46
12
12
39
-4
60
-26
-17
43
57
11
-15
50
51
-39
-15
70
14
-25
-22
70
-39
26
46
-28
51
56
-33
9
1
10
-87
-62
-62
22
-50
-43
-53
20
32
-8
-44
-43
-1
-49
-8
23
15
12
102
-100
86
-71
14
30
-45
-20
111
41
-20
-127
-4
-17
0
74
-7
15
26
25
44
-15
-75
-45
-7
-55
52
46
3
127
-6
7
-28
24
-76
22
42
-5
9
39
-57
-10
39
110
-34
28
-1
-16
66
24
-2
18
11
-39
-4
57
-64
47
-41
-14
12
26
76
-33
70
32
-111
54
-45
-42
-1
98
-90
-72
-3
-44
22
-6
17
23
-18
-45
-18
35
26
-37
104
25
-76
127
-74
-58
70
-53
24
-62
-127
-1
-57
-45
26
-2
89
-6
-42
-110
127
-110
-44
-16
74
-127
0
-57
58
87
127
-1
86
13
-37
-17
13
27
30
-18
19
-1
-47
116
-56
3
-35
17
8
19
61
83
-68
-45
-33
-33
-48
-35
-27
-40
57
-34
-11
-68
-127
50
28
99
45
4
64
-8
-31
-57
-17
43
21
-24
89
47
51
-33
-96
-44
37
62
21
-77
7
-8
36
40
-127
18
-19
-3
86
-13
-73
-54
48
-56
-24
0
-127
-44
26
63
27
8
-9
127
-44
-5
-123
50
-46
4
-44
10
22
22
-21
48
-66
-1
-70
-10
-53
-108
51
-61
-99
25
87
-29
44
-68
39
-26
20
-41
-49
56
-9
-18
-127
-39
-72
-83
-31
-46
-107
-33
-42
-10
32
100
17
-31
41
127
-64
99
-8
127
39
57
-54
-13
-8
78
84
70
52
18
80
30
-1
-63
-28
36
16
29
6
-24
92
32
-5
16
93
-12
22
3
21
103
5
-84
6
21
9
-8
-47
11
-20
16
117
-1
-20
-27
-65
-127
60
67
100
38
38
27
-106
-60
42
-23
-127
37
116
-18
59
-48
52
-27
52
-24
17
45
-11
-91
-32
79
-62
-22
-11
-53
-117
2
18
-115
87
-21
67
-67
98
-126
-7
-2
109
40
21
78
114
0
33
-72
67
-20
-11
119
22
6
-34
7
20
-43
35
-41
28
6
-47
48
6
-6
7
-12
10
25
-38
6
-3
43
37
43
-7
3
38
44
-4
1
-39
-111
19
10
-26
-111
-4
8
20
-10
-16
12
-4
8
28
63
-81
-2
17
-55
-8
-69
29
32
-3
-18
-13
-2
-26
1
24
61
-105
-37
-32
74
-8
41
-41
-8
-14
-23
-9
38
-1
54
34
17
9
5
-3
0
14
-35
-3
-9
81
17
4
11
-21
6
-29
36
-21
2
-24
-6
4
-10
3
-68
107
2
34
-44
11
8
32
56
-8
5
16
67
-12
-3
-15
49
12
-3
-33
12
23
-27
-36
-38
1
47
2
13
-31
3
-43
-68
-29
-23
-17
77
-4
-30
-2
-59
43
21
7
-43
-6
9
-16
16
-22
-22
2
-7
43
31
38
-14
17
-46
7
7
-12
11
38
26
2
-22
-2
5
-5
37
-29
59
-15
24
22
39
18
-68
-56
21
-3
42
-6
-24
13
23
-20
80
14
0
-11
-24
-8
-14
-7
-18
6
-35
-19
-20
-35
24
15
-54
-23
8
9
7
53
8
54
-62
87
-23
7
-73
-32
14
40
-35
21
64
-21
1
127
-29
49
30
7
-18
8
21
125
56
-6
-44
-12
5
11
4
59
-28
-21
-18
-17
6
23
-30
-50
10
-36
39
7
-99
-13
-12
20
-15
9
9
12
36
-21
-3
-3
-8
-13
-15
18
-26
-10
9
-4
-6
-3
14
-5
-1
13
-2
14
12
-6
-3
-32
42
13
-7
-3
-45
3
-46
37
16
15
-60
-10
-28
-18
9
-41
45
1
-23
-7
-40
-10
52
62
27
-34
-5
-9
6
-4
26
37
11
7
7
12
14
17
-9
-7
-26
7
-7
-9
-33
21
50
11
4
-17
-5
-26
-25
-7
-65
-13
19
7
13
18
-26
-41
18
-28
-78
8
-30
22
3
-21
90
76
9
-21
-27
-14
-16
-40
-34
5
-14
-5
68
27
-35
-9
-59
-17
1
12
17
23
-38
0
-28
-72
1
-27
23
-25
36
19
57
-4
42
5
-8
27
-16
-22
9
49
-4
21
80
-1
36
-36
79
-19
127
-127
-48
-34
11
-26
-15
47
-9
-17
38
-19
62
5
57
63
2
-25
-17
-3
-42
10
-1
29
-17
16
-6
-21
-24
-40
-17
1
30
-20
-3
-14
-127
6
-8
39
-25
13
5
8
-39
8
-48
26
74
-4
5
-17
9
-19
-35
-9
35
33
-32
3
-7
24
24
-9
-21
21
-20
-35
15
12
-41
-12
-5
-11
6
-1
25
33
-27
-77
-11
4
2
-42
-61
-37
-30
18
-19
-5
40
-6
87
-2
30
-33
7
16
2
-1
-36
-41
8
-24
30
25
1
-43
-1
4
31
50
-24
10
16
-6
-16
16
-23
12
11
-13
8
1
14
31
-5
14
17
23
-31
11
-46
-36
112
-15
-96
-25
5
-29
58
13
11
21
-10
-2
8
5
10
4
33
24
-6
-10
32
-29
20
31
2
-15
-3
0
17
14
-15
-16
25
-5
-10
-1
-25
-101
-6
-29
-1
119
34
28
-8
-51
1
-1
16
22
-24
14
3
20
6
43
13
15
-15
37
24
32
61
-19
3
32
2
-11
22
-55
35
-26
-2
-4
-30
12
-6
-28
-36
11
56
11
39
28
17
-16
22
13
-6
-15
0
-6
127
-9
38
-25
9
-21
18
11
-44
-27
-26
-18
77
-9
-21
96
19
18
0
18
-17
-46
-60
-25
-9
5
10
46
11
16
-19
5
28
-13
-10
-5
34
-38
-5
1
-12
72
7
-25
-3
-44
15
-33
-10
44
-15
-12
0
15
-48
20
-17
-72
-16
12
-6
-9
-2
13
-22
50
45
49
38
-43
-5
-6
-1
67
9
-8
71
-3
-1
-46
3
-1
95
19
23
4
3
-6
54
4
-49
-73
-70
6
7
-7
1
21
28
31
-13
-17
-5
38
-5
4
6
-25
116
46
56
-25
-54
45
-70
30
-87
-40
-20
14
9
-39
11
3
-19
-18
-3
31
-31
-1
-11
-4
16
23
15
-20
14
-48
29
28
-58
68
17
-4
-8
-62
1
32
18
14
-62
15
6
38
-19
51
-22
7
-36
-24
-82
27
-15
-19
20
27
25
22
-6
-3
-15
-23
-18
-61
-22
14
-16
67
-18
54
-12
67
20
30
57
-18
11
-26
-15
28
55
-5
14
-18
-30
29
59
-36
-1
13
61
-25
3
14
7
4
7
-3
-25
-5
14
6
-37
2
-12
-20
56
-36
20
34
16
-11
9
13
22
16
13
-51
17
15
-42
2
-24
-51
-10
-11
24
-20
-8
28
-13
-7
90
-72
-15
38
21
-21
-28
44
-28
-22
-39
-11
12
-25
33
23
50
62
16
-10
-37
10
36
16
4
6
13
5
40
-18
-11
61
26
-25
4
-16
5
8
-8
-23
13
32
21
11
-13
-32
15
47
2
-53
15
-19
54
8
-13
-2
-14
23
-21
-13
54
21
-8
33
22
29
-33
-4
-19
6
-49
-29
2
-4
7
35
5
13
63
36
-58
-7
19
0
11
6
21
-8
31
-2
2
-9
15
-14
0
-41
-36
-8
-38
-39
-4
27
0
7
-37
-3
-21
4
47
-1
18
26
39
-54
13
45
100
-2
-35
-72
-19
19
-70
38
-44
10
25
-35
10
25
9
24
21
-9
-5
36
-2
29
-2
10
2
30
-1
2
11
127
-127
-21
-43
46
48
-27
-9
-31
9
-37
10
-19
-34
50
-1
-9
25
-127
-2
-19
56
2
-2
31
-25
-8
-43
-9
17
-54
19
13
27
-31
-37
14
38
-18
-12
4
-32
22
-8
-10
16
-55
8
73
6
56
70
-35
21
23
-33
31
-12
32
-16
-11
-22
4
-28
21
72
19
-7
9
-8
-28
-55
25
3
-25
-25
-39
0
-38
23
11
-5
-19
-26
44
-1
10
17
10
-98
-59
-3
-2
10
5
-41
2
72
-12
25
10
20
-37
29
-20
6
-39
17
10
0
7
13
16
33
14
12
21
-18
-8
-74
29
25
81
-10
38
-11
6
19
-4
7
-20
10
-68
-98
116
-57
-66
-18
24
-9
17
-20
9
-7
-72
-39
-86
-45
38
-89
43
34
-50
40
21
-46
25
-33
-62
0
-83
-6
-29
110
-125
112
67
20
-40
-61
-5
-1
64
-26
-72
41
14
-95
29
11
39
6
25
83
-3
-52
-4
-90
-41
-71
-48
-17
96
-71
0
18
41
13
27
-67
-16
21
-18
1
-80
-1
35
-86
-60
6
-5
18
50
61
9
27
36
5
-14
-46
14
65
-1
4
-63
-52
11
-22
34
44
53
-12
-39
-42
1
-7
-37
6
-49
30
30
51
4
8
42
-12
-6
-11
-58
-29
-6
2
23
-32
-9
17
-76
107
-13
-42
48
-33
-34
46
44
-61
-5
-3
28
-26
101
-10
-26
25
12
3
-68
-20
20
67
85
9
6
11
-43
52
43
53
-34
-34
13
-19
25
30
26
61
7
17
-13
-2
0
49
56
1
-13
88
11
-8
86
3
28
-26
25
-5
20
-33
-33
114
70
-2
-6
16
-33
-20
-31
5
87
2
-1
-26
-27
13
23
-52
9
17
-62
45
15
-12
44
-82
-127
7
42
-88
7
-9
-69
0
-47
24
78
10
-49
33
-6
-70
-38
-9
95
-57
31
-33
-24
-14
48
41
-31
40
-17
30
4
-74
-77
7
59
20
22
-22
-56
5
11
-60
48
3
3
23
-1
9
-106
41
3
0
-2
33
-17
10
65
12
-25
-45
-11
2
43
-7
-24
31
-66
9
-1
-13
-42
25
15
-21
-11
20
4
-14
54
-13
18
66
-10
-34
15
12
20
-26
-5
41
-14
71
-36
24
-14
61
-15
-18
-33
-81
18
-34
-15
-75
40
-22
23
5
31
9
22
24
20
69
-56
21
-26
7
11
95
0
-28
26
31
-4
30
-11
-42
39
-8
-55
2
-34
52
26
-48
-47
-16
40
30
8
0
-39
21
-77
0
-6
1
-94
-91
-23
-20
30
9
30
-63
-18
-28
58
-11
87
-37
-35
9
-25
61
-6
-57
-86
11
-19
-35
0
9
-25
-8
33
58
37
3
-16
17
-37
-61
-27
-11
-62
-4
52
6
25
-24
41
-61
-1
87
-60
-82
-16
121
-18
34
-42
-12
-16
-8
-87
-32
59
-23
-42
1
-18
-24
20
29
19
54
-75
-42
2
-13
-25
-49
-11
-22
10
-12
-69
118
-88
29
100
-7
-24
6
-49
-86
13
23
-14
-12
-28
39
-12
15
44
-19
10
-17
-66
77
-14
-5
-16
-33
-55
12
-79
23
-55
29
81
18
-48
1
-32
37
-10
-2
-31
56
43
-44
-76
32
-32
-57
23
70
33
38
-64
34
-2
48
-99
65
9
-19
-37
15
9
-4
3
-30
-12
-32
-52
-25
52
-33
14
-10
11
72
7
-50
60
55
49
36
-4
-9
-1
-31
16
-11
12
35
60
-4
-12
17
-11
33
1
25
-14
-2
-21
-58
55
-127
-28
-7
-61
45
-68
-1
5
6
41
127
49
-35
-50
-23
24
32
17
-25
31
-31
-59
10
19
-14
-27
94
32
-36
-6
-1
1
5
-35
26
69
-35
32
73
-8
-10
58
9
-31
-75
15
2
14
-7
3
2
14
-24
-24
44
21
54
-127
50
108
94
42
-77
12
-32
10
-55
-11
-16
5
25
-4
35
12
-11
-33
11
-93
7
3
3
-50
25
-19
-38
59
-124
-23
4
-33
41
-45
-76
-27
-29
30
40
-30
-65
-32
-47
32
-11
79
-102
44
-86
47
-34
84
-66
23
-48
85
-11
70
-70
54
-43
22
-24
-22
21
46
-4
-15
28
15
26
-112
-23
27
-5
93
15
-13
-17
13
23
-90
22
-6
41
-1
26
50
-85
11
-5
30
-44
-127
48
46
30
15
7
48
11
13
-44
-29
125
31
24
7
5
35
-88
-14
-52
-32
24
38
50
83
-23
-59
6
69
5
-39
-49
13
27
-9
41
66
15
-42
25
32
-51
19
63
26
-12
-13
-57
-19
-39
6
60
49
16
-28
9
14
2
41
69
-52
-7
-41
-15
10
-22
-11
20
-10
-14
-21
-29
-28
19
-2
-35
-11
-2
-16
73
14
34
21
-39
-52
-20
7
-80
20
24
-20
-21
2
-38
14
59
19
-19
25
-3
57
-41
32
-16
11
1
2
14
6
94
-14
57
-18
9
-68
-18
-75
28
-5
26
-18
-6
-21
3
-92
-13
32
-18
-11
11
0
-73
-27
-17
19
-8
-16
-20
-23
-3
-42
-25
-3
0
-15
-13
-6
-17
-33
8
-47
-1
3
12
-14
55
15
25
-1
-20
-10
3
-18
-15
-5
10
-64
-27
10
15
10
17
-28
-12
2
-31
-103
29
80
-50
-7
-32
-69
46
-20
-25
-39
-6
103
-6
-33
-18
17
-19
47
-31
-51
13
-41
-8
22
-21
5
-35
1
-18
-19
-34
-15
-19
1
-66
-30
10
-10
36
4
0
-33
-20
-24
-43
37
-46
-23
12
-27
119
49
-2
-26
117
-8
10
36
-8
-99
-15
-82
20
-11
0
-39
-21
11
-15
-4
-127
37
29
-62
-8
-15
-26
-15
-2
6
-9
44
-19
3
-72
3
-62
-15
-5
33
-45
-55
-40
-4
33
-32
53
-1
49
2
14
-71
21
-4
12
-71
2
-30
-36
-15
29
6
-52
58
-21
-62
-16
127
106
-9
37
42
-7
-56
-13
27
-4
-2
3
47
45
4
-43
-78
2
-17
37
57
-34
-10
20
-26
25
17
34
37
74
-49
-56
-79
50
-34
-9
125
-43
-11
-23
48
-28
-4
19
-64
39
30
52
3
-52
14
7
32
0
65
33
55
52
7
8
28
30
-51
8
-71
-67
-20
-20
63
-22
28
-17
30
-54
6
0
39
103
40
-15
30
-32
-31
50
100
-113
63
14
-52
1
16
-4
99
27
35
-16
11
-39
-18
-10
71
-27
-3
25
61
-108
-11
-27
-33
-19
-47
-127
-66
3
19
22
-66
86
44
-56
6
40
-13
51
18
18
-59
42
-19
-21
-27
21
-46
29
-88
34
-69
-30
7
-34
-39
-20
-24
-29
26
29
14
-15
60
-8
-18
-10
-10
-8
103
78
94
49
-5
-41
-46
67
-39
24
1
-70
-1
-34
90
30
17
24
38
-4
54
25
-8
29
70
30
10
6
45
-7
31
16
-4
-42
45
-4
58
47
-112
-66
47
28
7
65
-18
27
58
-70
70
-4
39
29
30
24
54
113
62
0
14
-12
19
3
58
-51
87
-1
9
-62
-13
29
-33
12
-46
25
-14
-84
-35
45
-25
-42
-10
-3
9
-47
22
-34
-30
-16
-45
17
52
19
-9
41
-74
10
57
-7
16
9
-44
27
13
41
-31
6
4
-18
-21
-26
-7
6
51
-7
14
47
51
-43
-2
26
-3
-35
-26
-16
14
59
-26
-5
-53
-34
-6
-18
-11
17
-46
-33
20
-3
3
48
-91
61
11
80
-43
-11
14
-19
43
41
-12
-16
10
-70
1
59
44
-16
61
7
28
35
8
10
-35
-15
7
4
-84
7
37
-2
-34
0
30
-30
-8
44
-34
28
36
-24
77
43
21
12
3
-5
30
-10
19
-83
28
24
-14
77
-32
39
-81
92
-60
-7
-19
-68
-14
-6
-61
71
-56
-1
17
-35
-33
-25
16
20
-36
-26
38
-41
24
29
5
25
-46
-38
-27
-20
20
65
-4
21
-54
3
-14
-101
-21
-40
-65
39
-61
36
6
6
-43
-47
-46
27
-9
-24
46
-67
-17
37
-13
77
36
-7
-11
-32
15
-21
-40
-16
25
20
-17
35
17
-1
-46
27
-64
-19
38
-45
-24
3
20
-100
19
-16
21
18
-16
-2
-59
63
26
5
1
-26
21
13
2
63
60
-15
9
26
-7
-5
3
58
-11
14
3
49
22
-17
-15
23
6
-21
57
-26
10
70
-45
82
-24
-13
19
-62
-59
-20
-63
-10
-19
17
-15
-73
15
7
24
1
-56
-43
-16
-50
20
13
-38
49
-101
-28
30
-41
25
-16
-68
-25
17
0
-10
-12
-57
11
-62
37
53
24
-29
-9
32
-9
18
35
-6
-31
4
-11
-15
13
-22
67
-42
9
-14
13
53
35
-13
-38
-10
-28
57
-36
-35
32
-9
15
11
-50
-22
-23
-29
31
-107
-61
-10
-3
23
86
40
-19
43
-43
82
-27
-7
-3
43
5
28
56
59
26
-4
67
122
78
8
-76
-21
-40
6
-6
20
-24
-83
10
-59
-36
21
-32
-49
32
80
-10
30
-1
30
-15
76
22
32
-66
110
15
-7
-42
-46
35
55
48
-1
-32
-7
-79
-44
3
34
16
-23
-28
0
-36
-28
21
85
-53
48
-11
-14
49
21
40
-82
24
-30
-14
17
1
33
20
-28
-53
-79
-40
11
-13
1
-1
3
11
-52
12
21
-22
20
10
-11
-127
-81
-31
2
-4
-24
-32
74
-17
-46
-21
12
-3
76
-1
-63
-101
-47
15
7
-124
30
18
55
-67
20
-27
11
3
32
-25
30
15
-10
3
-16
-5
-26
-12
-6
17
-51
-19
14
-25
-18
7
-35
4
33
37
-7
127
127
10
-19
42
-19
-3
1
-22
20
-4
37
16
31
-33
-1
-55
2
-2
-6
40
-39
-2
41
10
-33
9
12
50
24
16
6
30
-11
6
53
-7
18
-17
-19
-45
-26
15
-32
73
-23
-37
13
-68
2
4
35
-69
50
-127
-65
54
84
28
65
21
120
-20
11
-55
9
-28
3
-16
22
-27
24
-13
0
34
5
43
100
-10
26
-40
-29
-24
1
34
-63
5
-38
-34
12
110
64
-28
-48
-50
2
-15
56
9
-15
-35
-76
-35
26
35
-121
-2
-26
-32
-3
-2
-20
-85
13
84
-36
-16
24
28
14
16
5
-32
-84
79
21
24
0
-41
24
-4
-81
15
-8
-12
-13
-25
-15
-16
29
60
-87
9
-8
4
8
-22
14
-5
2
11
-12
0
52
-11
-74
-11
-64
42
27
63
23
-14
-12
41
-11
33
35
56
90
-1
57
-23
28
2
7
9
1
9
24
51
-50
-7
18
35
13
-51
-14
-21
-95
-5
26
14
-36
32
-8
62
-26
-30
11
-73
-79
32
3
-26
-15
-4
89
14
-25
36
-25
66
26
-12
15
-29
8
21
11
-17
127
18
30
-14
18
18
-57
21
-41
-7
21
11
52
24
30
-5
4
38
-5
-62
-17
-62
-58
-94
22
-40
21
-9
21
-3
-29
-76
-29
45
-30
-121
103
-12
-58
25
16
25
0
-25
35
33
-12
-5
23
-55
-36
-12
24
127
-10
-39
93
16
18
17
-9
35
22
10
-47
-1
-7
-39
2
63
-9
-25
75
-12
-4
-20
-43
-60
-5
-82
-67
-50
17
12
20
18
-43
-64
-11
41
-19
52
2
-18
0
18
20
-31
4
-16
-2
12
-127
28
-60
-12
21
60
-16
21
7
-14
-44
14
36
45
12
-119
1
51
46
-19
0
-62
-6
-6
-47
-30
-36
18
-53
45
12
-45
16
15
18
9
-12
-27
18
-18
-11
69
32
-20
16
-56
15
1
2
-17
17
81
20
-14
35
-51
15
-44
11
-26
-7
39
38
58
7
30
6
-5
22
-51
25
31
54
-20
-71
-14
-6
-17
42
40
5
26
12
14
6
-5
65
33
45
-20
105
-35
2
-15
73
0
59
-40
-21
-28
46
-11
28
41
-71
50
38
0
45
-8
3
41
32
12
18
-13
-2
-29
4
-4
-38
-54
94
-19
-59
90
46
-24
34
-29
16
-7
-108
24
40
-67
53
-57
-12
-22
37
12
-14
33
-13
-27
-38
-36
31
79
44
0
67
-15
-41
113
-127
73
21
-84
36
13
-6
14
-9
6
-12
13
-13
51
9
-10
3
-17
-13
-18
4
-23
-10
0
-83
37
55
-52
20
19
83
-22
-11
-13
28
27
70
7
15
-18
-71
-2
8
-63
37
-75
-82
-5
12
25
-51
-21
14
-94
-10
-32
34
0
2
4
37
61
98
12
26
-22
9
30
-34
-76
-85
26
-12
-75
-31
69
4
99
25
7
10
-42
36
-1
26
13
-48
-13
24
-11
-58
18
61
-28
-36
14
-2
21
-63
-22
-39
59
101
0
28
-30
56
30
-14
80
35
32
-6
8
24
24
20
41
11
-24
-16
-47
10
23
-44
1
-58
-32
-61
-19
-74
105
42
-13
78
72
-17
5
-74
-22
-5
-60
24
28
32
8
-16
41
41
127
-127
127
127
-15
37
121
37
-70
-5
-46
75
30
-27
47
-18
-39
0
-33
-49
-28
-26
15
-30
0
-16
39
-66
13
-72
-92
91
21
23
23
-2
11
34
30
7
67
-20
8
90
-12
127
12
25
39
-40
-43
13
-26
54
-5
-3
9
36
-19
26
-127
5
-8
-84
-28
-68
-57
-19
-23
23
-3
-96
24
-3
-14
22
35
35
23
-56
12
13
-96
72
-26
28
-24
44
-40
-35
5
3
13
-36
127
-33
-2
-1
-29
-16
-11
38
-33
8
12
-31
25
-14
-59
70
73
60
-14
28
-9
-75
-13
23
-8
127
-65
39
69
93
-10
26
-35
76
2
7
50
-45
-16
-22
-10
-6
3
-3
-111
-30
18
38
50
11
26
34
27
65
38
-45
-9
71
29
65
-1
-13
16
-54
-20
53
-18
-19
49
2
-41
1
-18
50
32
-57
35
38
44
69
-111
34
-62
73
-12
24
-127
42
11
2
105
26
-57
44
75
9
4
-70
-3
-107
-90
-10
-48
-127
0
33
51
-69
37
-108
-50
8
26
-2
-46
12
-21
38
19
26
-26
-42
-5
35
-33
6
-37
9
63
-127
-76
88
-118
34
-61
8
15
86
-33
-31
64
-63
1
0
127
75
127
-28
72
-42
-67
-85
27
-111
-43
53
-72
23
-12
29
36
63
-40
-127
127
23
-126
-5
-40
-8
-4
-28
-49
127
-21
14
1
-64
-49
-30
58
-64
-39
81
59
-76
-25
-126
67
-28
-38
50
-1
-9
70
9
14
94
-54
34
27
-30
-94
-39
-15
68
-16
-1
60
-7
-40
35
-48
-117
21
62
26
6
69
100
-100
-80
-66
47
-12
-25
-125
19
109
-39
46
-36
-53
-9
12
15
-47
49
-56
80
-6
-29
69
42
15
47
-51
-69
-67
7
66
116
-58
6
-52
10
-102
-2
-124
-4
-42
38
47
-53
33
-19
-91
-45
47
12
-37
32
24
0
18
-15
-43
-15
-34
20
-45
66
8
-94
-17
-12
10
29
2
55
-4
127
-45
14
65
-5
-1
9
-106
-91
-6
-26
0
-24
28
61
-17
-20
12
-10
-27
7
53
-5
-106
-33
-40
-11
-127
52
-30
54
-38
1
72
7
-45
-81
-4
-54
91
56
-33
-17
-118
-24
-74
-80
75
37
24
14
50
5
4
25
-87
54
-35
-8
-14
-26
-23
-15
18
21
8
-21
-40
124
-6
32
101
2
-56
-2
33
30
16
12
-49
59
32
-43
-48
38
-23
-18
-58
9
119
8
-54
55
-77
-34
127
-31
127
-19
-36
82
-1
4
76
-20
85
20
17
22
-31
25
-108
-11
-4
-46
-23
-115
20
127
-48
-71
27
-31
-24
-127
30
-116
-61
10
18
127
-97
-13
-127
13
-122
-36
-109
-92
-2
110
97
-41
35
1
30
55
25
50
-52
42
18
-51
-20
-48
27
-105
37
-17
21
53
74
-11
92
78
26
-32
-51
-3
-1
79
-61
80
-53
0
-21
-54
-24
21
10
-48
-6
-12
-91
-51
-14
-54
-4
-12
60
34
51
55
-52
71
-110
-38
-53
56
13
63
4
51
-70
-49
-39
-54
-63
-14
-36
-77
1
18
-15
41
-88
-69
10
-35
-78
-35
3
14
34
-127
-38
-97
-68
-71
19
26
21
-38
14
-4
-4
-41
-127
39
89
-3
17
-34
47
29
25
-127
-57
-49
-125
44
-13
-45
3
88
-107
105
-82
-1
72
102
30
38
-73
9
-9
68
-7
50
83
-2
-39
-24
-9
-20
10
21
77
23
-48
64
-18
-19
-46
-12
-3
-6
-55
-18
-46
127
101
93
-9
-25
-4
-76
127
-26
0
31
29
-15
67
-44
29
90
-75
-93
97
-53
32
-44
-1
111
-4
-127
2
27
-24
-95
-29
-57
8
-67
-51
-27
-127
-17
-3
-55
58
89
-112
25
14
10
8
57
107
52
-100
-4
28
-99
22
-1
-1
-26
-33
20
21
18
-16
4
127
30
26
-11
74
-84
82
16
15
14
-65
-75
-1
-62
-5
-34
42
22
33
-31
-66
4
25
-75
104
52
97
17
-42
47
-7
-69
83
28
-29
70
56
-75
-77
53
60
-102
66
-24
-16
-27
66
-7
-15
49
-4
42
-7
84
14
-64
-2
28
70
-94
-52
-127
-127
-61
0
40
1
-93
23
-25
-45
24
-35
6
46
19
-55
32
39
11
76
-70
7
-42
17
81
126
-86
3
8
24
126
-33
-11
-66
-127
26
-14
6
-60
4
-27
-109
-32
-111
127
30
5
-25
77
-4
-48
27
-52
-127
60
-16
-10
-17
0
-127
-50
-72
13
30
-12
-100
9
97
44
4
-63
78
73
6
122
23
84
47
-41
47
14
17
-43
-3
-66
67
-71
-12
6
40
-41
13
-11
35
0
45
-10
-56
4
-61
-17
-97
123
-59
-62
11
-69
14
-19
23
8
-16
-69
104
3
72
35
-123
-101
-10
-75
-53
22
-72
-3
-27
127
127
36
-63
8
-98
-42
-15
-69
36
-39
22
-7
-72
-39
7
85
22
92
73
17
-72
-38
16
-4
36
68
0
-93
-34
-49
-127
104
11
-19
11
107
105
43
64
-63
-7
-75
98
18
-18
-58
10
-9
83
33
31
-81
-27
-36
-79
-35
-72
-35
-7
-59
110
-81
-74
1
-111
34
78
-81
37
-17
-75
16
-60
-17
59
37
-49
127
-11
-81
27
-63
-36
-25
44
101
-70
12
113
15
58
-13
22
-86
13
-38
-7
-31
110
-41
-53
127
-7
46
16
31
75
57
37
-80
101
64
-41
-66
-3
1
-54
-18
-30
-8
25
16
-63
-5
-127
21
-44
-127
83
84
-104
127
-14
-60
86
-59
-75
115
-8
2
0
-11
-40
-38
-70
-115
-55
51
-14
56
71
-65
-57
54
106
65
-55
86
33
25
41
44
-120
-64
-26
63
-59
59
-16
38
18
5
41
44
-40
-10
-127
127
6
62
-3
-15
54
-23
61
-18
127
-15
-20
27
-27
23
-38
72
-19
-49
45
6
-73
-44
-71
32
78
84
-8
14
-9
8
-23
-27
30
-55
-12
20
-1
80
80
25
6
-8
-45
37
40
66
11
-47
-58
100
-17
89
68
-29
31
2
-60
3
57
-38
81
-51
8
30
-2
-9
7
41
-28
-42
58
-16
-1
29
-51
44
-2
-97
42
18
-88
-104
19
127
-85
27
34
-46
84
-35
56
10
-11
-9
-16
8
34
23
-6
-63
63
-19
-74
-9
-5
-53
61
9
-25
5
127
54
55
110
29
-55
-62
42
109
62
49
23
8
29
51
-5
8
-17
115
56
127
-124
-6
-122
65
-95
26
59
38
-5
13
-127
18
59
35
-19
-50
-4
120
-23
-18
96
17
-19
76
106
-58
-34
126
-4
-33
-45
-49
2
5
11
-65
69
-127
-127
10
83
127
61
31
-127
-66
-56
36
25
-107
43
9
67
-21
62
-24
9
-2
-19
23
-43
36
-25
40
-40
122
38
59
74
-32
-74
22
37
56
-83
-27
59
-34
31
-55
-10
-90
-33
-48
-57
-31
-64
51
-8
-38
17
45
-28
44
-127
-38
-5
-24
-98
1
-10
35
69
28
49
-89
47
28
-10
-1
48
-69
35
3
22
-45
-44
-54
4
-29
14
124
-14
17
-36
22
-55
38
20
-51
97
46
-21
11
78
-80
-56
-93
2
126
-44
127
-67
-31
-17
33
17
-127
39
57
7
34
107
-125
-45
-29
-12
-63
53
22
6
72
-2
85
12
8
-12
-36
-80
7
-18
-122
29
-73
-36
50
-127
-70
54
21
13
2
44
59
46
-127
-12
-94
42
-63
-68
-33
45
-20
-127
-59
7
-7
65
-41
-41
64
-66
18
-68
7
74
64
-30
-107
21
39
-15
103
-32
65
-14
-76
-57
31
-89
0
-15
-127
-13
114
24
48
-127
82
50
-39
5
61
-6
16
115
127
-67
71
-114
36
-20
108
-25
-56
46
-13
-121
65
-17
27
80
16
58
57
-63
13
82
15
-86
51
126
21
-37
42
-10
102
-117
-42
-6
-22
27
122
52
79
31
13
-21
69
-6
1
-69
11
-81
-17
53
-39
41
-3
-24
85
-35
-36
-30
84
37
-29
-21
127
85
-55
77
70
-37
91
87
-45
53
-8
-12
-20
-50
40
3
44
-9
76
-60
42
27
-6
-117
85
42
-57
97
13
-51
2
-1
119
-110
-13
-127
6
-48
119
21
-17
-13
-70
0
35
-98
-5
96
-68
2
-33
31
-11
-18
-8
-10
-3
-59
-95
-57
-36
0
26
-3
-57
98
-127
0
-100
32
-98
-79
29
-3
-7
-51
54
89
-54
-44
-112
12
-10
86
-55
-17
-50
5
8
42
6
56
-38
-14
4
-73
-14
-39
-25
-2
-42
98
-73
-8
92
-38
-94
-76
24
62
-9
56
37
-36
-53
-39
10
-127
127
49
73
-36
-4
-87
51
-59
72
127
19
-57
-23
-22
-18
-43
54
-51
33
-58
-45
-63
-71
81
-31
37
-58
-40
14
23
-69
98
-78
51
56
-127
-19
-68
26
-24
67
-13
-26
5
-8
54
-127
95
-42
43
104
-33
-55
0
75
23
-42
-6
42
127
46
-15
47
12
17
-14
-56
-38
0
-10
-37
-6
0
-51
25
56
58
-92
20
127
0
69
48
35
-3
-7
11
-48
28
15
37
27
-23
-1
47
-14
-23
41
-13
10
-20
-60
-10
39
22
-27
-51
-48
92
39
-35
115
11
-6
42
20
-8
121
29
-11
31
50
-13
13
-14
49
4
-18
9
37
56
65
77
-27
-46
35
-127
-38
45
35
15
29
-8
-121
-45
57
93
14
43
-11
50
70
72
-26
2
-39
4
-20
-8
2
32
-65
-15
-21
26
37
-1
-28
-6
16
44
-106
88
22
-29
-30
39
-24
8
16
-11
85
-35
22
22
87
87
-26
-33
12
-3
31
-40
-95
90
-36
-19
-26
13
-30
-18
-127
44
-72
52
127
23
3
41
70
-46
-8
-50
-75
-52
-50
-28
-82
13
-18
-127
-10
-7
32
-82
-34
4
85
45
-9
-26
50
10
-5
127
-25
37
-61
127
-25
6
28
-68
89
-57
7
63
-38
120
-74
1
1
-78
-94
-67
-75
-11
-93
-26
11
52
106
-82
-42
-46
26
127
-42
40
-6
120
49
3
93
-101
64
21
-30
93
48
16
-30
-35
12
49
24
-34
-14
64
-54
3
-98
-112
-16
39
37
-24
15
-11
-84
-63
59
-54
50
-36
-62
36
-15
55
-91
-37
-13
44
87
-1
6
112
67
54
20
10
11
5
-30
101
17
-33
11
-1
21
-13
104
-49
19
67
-48
-20
-127
42
-44
-101
51
-115
-61
31
28
-9
77
-54
44
61
-6
-56
17
-67
127
5
-28
99
-91
-29
-58
-16
10
94
21
-77
-98
12
-59
8
6
-5
-80
-89
-127
-58
116
-22
-25
28
14
39
120
10
1
-25
9
-47
33
-82
62
44
23
9
1
127
127
5
-22
-26
44
-52
40
-33
-7
127
-16
-58
-72
75
4
-12
20
-73
-112
2
45
-1
-20
8
-67
-53
67
49
37
19
16
-12
0
57
-35
127
34
-8
39
23
-86
34
71
19
-5
5
-3
-25
-4
-113
18
5
43
45
-42
2
-37
90
-19
-36
11
62
-9
18
35
-83
-37
-23
-79
-39
41
-5
44
0
15
-3
45
-7
-3
-17
-59
-28
102
-12
4
-127
32
-5
16
-39
-48
-13
-54
38
11
-127
57
-43
36
-71
-67
-93
24
62
34
-77
92
-19
-62
-42
-36
45
-38
8
11
-17
-19
17
45
-69
66
-15
-4
12
20
-85
8
98
-14
-127
-6
14
127
12
-31
-40
21
-100
-30
-12
30
-50
-22
17
1
-26
-61
127
-58
-11
32
47
-11
-10
3
8
26
-22
-4
16
-18
80
-21
-45
13
4
27
-87
3
-6
-51
-82
-64
-19
-50
-46
-24
-21
-14
5
-38
79
-26
-32
-35
4
-16
-19
-118
-28
127
8
48
35
-127
10
24
-61
-15
-122
-111
32
-75
100
-7
84
65
8
52
31
-18
-23
-24
105
-3
-54
-127
9
-14
40
-19
-31
-36
-68
7
-53
95
-10
-80
127
-5
50
-70
-51
-84
0
127
-53
-54
40
-60
54
9
-33
57
-30
-3
5
11
-4
99
-31
-50
126
6
-59
11
-127
67
37
10
15
-46
-39
-102
19
67
11
34
34
72
33
4
-6
-86
-12
3
18
-27
127
76
-93
41
-1
77
-96
95
98
-32
-17
-1
17
-1
-39
-49
-19
42
13
-36
5
-117
14
25
-58
72
22
52
20
49
-62
-20
18
113
10
14
13
-34
107
-2
-19
-49
-3
11
-30
46
3
-90
-43
-108
-43
47
-47
-90
51
9
-24
27
12
8
-16
44
126
25
-34
52
10
-5
34
28
-26
-12
34
-67
26
127
-9
37
-18
-89
69
127
-27
38
-1
-20
-46
-98
41
39
-15
51
-56
110
-92
-13
38
6
26
100
-23
-77
-2
-127
53
29
25
22
127
31
27
-31
5
-25
-9
49
-108
-3
-32
21
-41
102
73
75
46
-59
-75
28
74
-118
25
32
-39
46
11
-14
7
59
27
-125
-46
30
-32
-50
-24
41
26
101
79
-83
-71
-40
6
15
48
92
-123
23
-24
-14
-17
-5
19
-100
30
31
74
-29
40
-127
-75
47
-7
3
9
-77
114
-40
-123
69
63
31
8
-8
-34
27
-11
127
26
-90
-54
20
-16
45
12
-52
-8
-38
-126
57
127
-7
67
-57
-30
127
127
54
-28
-46
-28
34
-36
38
28
27
11
16
8
-42
58
-68
-100
11
48
-4
-65
-1
-75
-118
20
16
-103
12
-115
-1
53
63
-25
-55
-123
1
-24
68
112
-1
-30
-56
-6
-36
-54
25
-15
-94
3
40
96
-2
32
-60
-37
21
4
76
-96
18
-15
-33
-23
2
13
-8
-47
13
104
-67
43
-15
-53
18
126
72
127
-11
34
28
-13
-34
84
-61
6
-1
-38
-117
-79
101
57
57
53
4
-80
-93
26
-84
37
12
13
-65
-60
-23
-66
35
-52
-59
69
-27
-127
7
-86
-44
51
29
-106
22
-31
37
-9
-127
38
-19
65
112
-65
-52
-73
10
-121
-1
47
30
14
-36
38
28
73
16
14
-1
-82
-35
-22
14
-33
32
8
-6
43
-13
0
-4
112
42
22
-34
-60
-57
23
-21
50
-34
21
-5
33
-9
-101
-19
-45
25
87
-4
-21
127
98
-3
124
-27
-19
17
-71
0
-127
-59
-50
61
-32
47
-54
78
-4
6
95
-45
68
9
-117
45
64
15
-17
-73
-32
0
78
-24
-28
6
52
67
-59
-80
-100
34
44
127
22
-127
-35
45
-47
-15
-12
24
-11
38
4
2
107
-47
117
-11
31
-53
-6
-16
42
-121
-32
18
-114
-30
-38
-17
-86
33
33
-23
6
-29
-17
-71
-8
-20
-109
-69
35
-35
3
19
127
13
7
52
-84
11
50
77
50
-1
-61
-52
4
58
-13
25
14
31
-12
-97
-42
-8
10
-32
-53
-42
-11
-25
-40
-26
-54
6
-79
-46
39
-71
-127
68
8
127
-91
-18
-38
-36
80
50
-8
-15
68
-19
13
-57
13
-21
127
10
-6
92
50
6
-21
35
16
-118
31
83
-1
33
33
33
51
111
-20
38
-1
26
-11
-4
2
86
-9
-88
-46
56
-15
106
31
-127
111
22
-22
34
-108
8
101
-19
21
111
28
-44
-37
-3
20
10
-13
-118
2
-34
60
-18
-36
-74
42
78
4
-15
26
93
40
118
-2
39
7
-47
20
-25
11
-38
4
-88
13
26
-5
-26
-23
-77
-15
29
-38
-15
1
-14
-20
75
6
-99
24
21
-1
125
33
-119
49
44
11
-69
16
-37
39
-7
-35
-60
-5
11
4
-127
-24
-15
13
54
-20
-89
7
120
-19
-27
127
-23
-71
58
-74
2
63
-4
-22
-12
0
21
127
100
-127
-6
51
14
40
15
116
-34
-42
27
-30
38
17
3
87
31
-35
127
-55
6
-41
-26
-49
86
50
2
40
3
27
-13
6
12
7
24
20
44
127
59
70
-29
-72
67
-7
99
-11
-33
-71
-94
120
74
-95
-127
-20
-127
58
44
-32
24
48
-11
63
-70
35
21
6
-105
-26
29
-71
61
38
83
-34
17
-13
28
-25
-24
37
123
-11
-20
6
9
41
-89
108
-30
-53
78
29
-19
47
2
-45
-65
-11
110
5
-23
25
-10
16
69
30
26
-10
-39
-20
-11
41
-26
-78
-35
11
-40
-61
29
127
6
22
37
-53
27
26
-26
-41
-38
72
-33
-6
13
23
-5
-45
-94
-24
1
-31
-8
71
53
25
14
15
13
-90
-36
127
-30
-79
9
127
-9
-127
-38
78
-127
35
106
76
-45
54
-127
57
-17
-63
-14
72
39
34
19
-72
5
35
25
-23
-60
-24
-4
-103
-5
-12
96
18
116
-48
-45
-40
-62
69
116
121
-52
46
-8
-63
65
50
-127
-98
-127
-3
-11
16
85
31
-46
42
-18
-12
91
12
45
17
-28
13
82
-64
-59
-17
15
12
59
-41
0
-21
68
89
36
-25
95
71
-78
-75
5
29
21
40
-49
50
97
-38
-23
-13
53
6
50
-60
-7
-47
23
-4
61
-18
0
-45
24
-37
30
0
-7
-89
0
67
-16
-17
47
4
57
15
0
122
46
-33
107
-5
48
29
0
-66
-19
-41
-9
-27
-31
-127
0
-32
-28
-33
18
-3
1
-15
0
44
32
-23
2
23
-50
-21
0
-2
-24
81
127
-16
-50
36
0
-91
-112
-127
-27
-99
-44
117
0
-72
-42
9
-35
-27
-6
91
0
6
37
-15
14
-7
-45
-83
0
-119
127
-29
-76
21
5
106
0
-127
-42
77
18
-10
13
9
0
-52
-30
-26
-77
45
11
-20
0
-43
-32
44
1
-18
-50
-92
0
28
-27
-27
-21
13
-60
45
0
17
-24
-5
44
-26
-64
52
0
-77
-13
-114
25
16
-43
68
0
7
-3
-16
47
29
36
30
0
48
12
-19
17
-4
8
33
0
-45
-7
7
38
127
-44
6
0
58
-11
-36
-32
-29
36
-115
0
-48
-19
-8
62
-1
127
34
0
-35
-35
-37
26
80
-46
5
0
83
-38
-18
