6
48
3
-4
-1
-10
3
0
0
0
0
0
0
0
0
0
43
-56
-18
-4
2
35
-1
5
0
0
0
0
0
0
0
0
-2
-27
-3
-17
7
-12
127
4
0
0
0
0
0
0
0
0
-74
60
0
-7
-58
-12
-32
-36
31
-37
47
-1
-127
-51
5
13
12
-16
2
103
-3
5
8
-62
0
0
0
0
0
0
0
0
127
127
2
2
4
19
24
11
-55
51
-84
0
-76
78
-10
-7
33
-34
-17
-4
-2
21
-30
9
-20
14
-9
127
13
-4
8
127
-48
-21
127
-1
-1
127
10
7
40
-6
-15
3
-5
4
4
1
-31
8
-70
4
-11
-36
100
53
-10
-44
75
9
13
67
-97
-67
127
-39
-125
9
-25
2
91
127
-1
77
-14
-127
-3
1
3
-5
-4
7
127
-5
-127
-5
54
-57
123
25
122
0
21
-11
-37
-122
14
127
-29
-4
4
-127
-127
56
5
-5
-32
-84
2
38
22
22
-53
-58
73
-127
0
88
-26
36
10
51
-81
91
49
-98
-17
-26
127
25
86
-113
28
127
-6
68
0
-71
6
9
7
2
127
-45
-2
0
52
117
-4
108
10
33
97
-56
-30
54
-13
-109
-13
-61
20
-127
-127
6
-127
9
0
35
1
73
20
-57
-3
-1
70
127
6
-4
-50
-19
-63
48
-2
-30
15
-3
-24
-23
70
-45
12
13
21
-17
2
117
-127
58
4
-59
2
0
-55
0
5
-1
127
34
-7
127
7
-5
-3
-127
3
-16
-8
17
-33
127
124
-54
-2
64
-127
-7
4
-5
-48
4
8
-54
-20
-8
127
8
-20
25
65
-127
61
0
-13
-127
-36
-127
-82
37
-127
7
-33
-64
-6
-96
113
-13
34
9
-12
8
-32
10
-123
44
-7
3
127
-2
120
-1
9
9
63
-127
0
4
14
3
-127
-127
-29
-9
-9
-43
-9
-29
111
-33
93
11
-10
-5
66
-10
-48
-71
15
10
16
-13
127
-8
-29
24
-5
55
22
11
65
-15
-28
-21
4
127
-11
-24
-119
3
21
7
16
38
13
-2
127
-15
-11
-17
23
-1
72
-127
-42
-2
42
-127
-8
-3
-7
-10
86
127
8
12
-15
22
6
6
-124
12
-7
1
-15
40
0
-9
14
4
17
-11
-127
0
-127
-102
58
-11
127
126
65
-25
36
-3
43
-78
1
78
-53
68
-64
-15
-76
33
2
-127
-5
2
43
7
-47
-127
-17
-64
6
0
24
-127
66
-51
-5
-7
0
-4
3
-9
-1
-13
127
-2
41
-23
-42
-11
57
81
22
92
-127
-127
7
-52
90
-78
-12
57
18
28
-127
-70
-127
104
-12
27
16
95
58
-44
77
0
13
43
-6
-51
-52
1
28
0
11
55
-8
-91
44
5
72
-46
9
8
14
-42
-13
2
48
-3
-64
-7
5
55
-85
8
-46
-7
-10
-31
2
37
-106
3
59
3
-27
-26
1
-41
52
-7
16
14
-17
-19
17
-104
25
-9
-16
24
2
28
24
-5
14
127
22
-1
0
27
-4
-83
-73
-5
57
-1
20
-42
-1
-35
53
0
33
-4
-15
-21
-22
-57
4
-27
-28
3
-14
-4
-10
-27
4
-12
-1
-127
1
-16
28
-127
41
-1
6
34
-5
-9
-1
-74
-31
-7
5
-2
10
-23
-16
39
8
-7
-38
25
16
29
-6
-38
-72
-5
70
-3
-19
-55
-1
-42
97
-7
82
6
4
22
-37
14
19
-17
-110
19
-30
48
5
9
-14
102
-26
3
2
-17
-6
-95
30
-8
-19
-28
2
36
2
-18
64
1
1
-35
-7
41
15
-69
-58
5
75
-1
-79
-8
-31
16
2
-21
7
27
-36
21
38
-3
38
28
-11
8
-1
-4
4
-91
57
-3
30
3
2
14
-27
52
-20
-3
-25
1
104
2
-117
35
16
17
58
3
-1
39
3
-62
-65
4
42
-1
14
8
29
82
24
-33
67
-4
-3
71
-20
-89
23
-15
-22
-46
-3
10
7
-47
21
4
16
5
-14
-21
41
-42
0
27
10
-1
-7
127
-127
39
12
43
24
14
1
-19
41
-98
63
4
-13
-4
-3
-50
-8
-8
-23
-2
-10
1
127
-12
1
-95
8
-2
99
45
13
21
-3
-23
-17
-3
9
-1
-30
-30
-33
-53
77
-21
-27
1
-6
42
-27
-74
49
-15
12
-4
-23
85
34
-39
-35
15
-10
-17
-4
32
0
28
-89
4
59
3
-25
-20
-57
-3
-127
-7
52
-7
-31
77
5
-53
-60
2
55
-1
-43
-7
8
-96
-41
3
42
-2
34
-4
45
51
-88
1
-127
22
-14
-20
3
1
-26
4
0
1
-20
-22
30
-46
-37
-7
-22
24
1
-19
20
14
-18
0
-4
10
-87
-39
0
71
-14
-15
-1
18
15
-36
0
36
14
18
29
8
36
47
-1
-20
-2
0
1
-7
-12
-19
-7
-13
-4
4
1
98
-8
-45
-3
-24
3
17
2
-8
-6
-32
8
127
20
-16
-1
-37
36
52
9
-18
-6
5
-22
3
-48
-30
127
2
32
6
-4
8
-39
-12
7
88
-17
-2
-1
28
2
-40
2
125
12
-12
4
-39
39
31
31
51
11
-14
9
-14
-14
68
15
-12
9
0
-127
2
34
7
2
21
1
-6
-27
29
-24
-3
8
112
-24
-13
-3
17
-4
-44
8
19
25
38
-16
-9
39
-17
4
-2
-16
-25
3
16
10
-45
5
6
19
1
2
-127
19
56
21
106
2
36
1
-20
30
-89
61
-12
-36
1
1
-6
59
31
9
-5
-27
9
16
6
-34
-26
-3
-1
-6
-6
23
-76
-20
-24
-3
-2
-23
-6
1
0
-22
-36
14
-95
3
-127
-1
28
68
-127
-29
91
6
-3
-3
4
18
-81
3
50
1
-3
0
-35
6
15
3
24
18
-1
1
14
41
-8
-3
13
49
-10
0
9
-109
-61
-1
87
-29
-22
-2
24
2
-27
34
18
68
-10
-1
11
-94
-91
15
60
-14
9
29
26
-9
22
-1
121
-2
-17
0
-19
19
-10
-24
39
-18
-11
-8
8
-45
88
-14
29
19
-3
-1
6
-92
-19
-4
50
-29
5
-7
6
-85
67
2
91
13
-6
-1
39
10
25
5
34
31
46
-25
7
63
93
6
116
-11
-22
3
-3
11
0
18
48
0
-4
3
-3
66
-47
15
44
-11
-4
7
5
59
-50
-5
-27
123
-2
-1
3
-17
-57
-3
-15
8
18
2
-8
5
-27
17
40
6
73
16
-38
54
-104
0
32
-20
-10
0
6
-6
-40
-1
96
-25
-20
-3
36
-5
-6
-1
126
-11
62
-24
-43
-127
-15
-2
71
-3
-13
-1
16
14
-6
1
-54
127
0
23
1
-31
-47
-46
-63
-79
48
-7
-2
-14
-23
-12
-64
13
23
-11
11
-3
-31
-62
-35
127
-12
44
-36
76
43
-77
-124
-38
48
2
0
-30
-1
-30
-49
-32
5
-58
-87
-39
51
54
28
3
-23
-32
-5
5
21
-20
-72
-76
-12
-1
3
-23
6
16
-42
38
66
-2
24
-127
-3
80
127
50
-62
3
1
34
-6
-8
-26
-67
-8
-72
-62
-19
0
10
31
26
4
-37
-34
5
-54
-26
-9
68
-16
-127
33
31
68
-33
2
9
-16
17
3
16
-32
-4
72
12
10
-124
127
5
127
-25
-61
116
-65
-32
-51
3
47
127
87
-94
127
-66
-76
-69
37
9
-12
-79
40
3
-24
-49
0
7
-61
1
-3
2
7
-1
22
63
-36
8
6
-27
-3
10
-119
47
-14
-27
-4
-127
10
-99
-8
17
29
-14
27
-6
-24
0
-33
105
16
72
35
9
-20
38
-18
2
67
-4
1
17
-16
1
66
-93
-29
-2
-21
-12
127
-9
24
-42
22
-127
-44
-125
-10
-127
24
5
25
17
-1
-5
12
5
-45
-27
-28
-11
42
17
-22
-15
35
37
-127
-6
9
-25
-4
-22
-61
127
-13
43
127
9
-4
27
12
29
32
8
7
-21
6
4
-127
-8
19
-43
6
6
59
-31
-85
62
-69
8
10
20
-2
-18
-84
-67
-6
-84
17
26
66
-9
-127
32
-37
32
-76
-33
37
54
2
29
-68
81
127
116
16
25
5
-12
-2
-54
-24
127
58
109
61
22
75
-36
-60
37
26
31
10
5
-13
28
13
21
-10
5
2
-12
127
-2
-86
8
17
6
-1
59
-1
5
11
-16
14
4
-18
17
-9
58
22
116
127
127
-38
48
-66
-33
109
25
-3
12
9
29
25
10
-12
-3
-40
-34
-10
22
-110
49
-4
107
3
11
-4
3
0
40
9
-13
17
-5
-16
31
-6
-8
2
46
7
3
-9
127
9
127
-36
81
34
-27
-19
-118
13
-102
-31
115
-8
-12
14
6
84
-51
18
127
-16
27
4
-12
15
-3
10
24
-9
44
-19
63
-9
-50
40
-29
-10
24
72
-17
90
-35
35
-62
-36
73
8
9
-7
-17
25
-13
-14
31
-65
25
-2
-116
-110
7
52
-8
-30
-57
-8
-30
23
14
-9
0
127
-9
-15
27
-4
-4
-8
5
74
-29
127
125
-24
5
35
127
4
-2
-10
-1
31
-9
-3
4
-34
43
-28
16
60
-90
-24
-6
84
41
3
-41
72
4
-1
-14
51
-1
14
102
127
20
127
21
8
127
8
-5
122
-27
1
22
-18
36
58
-30
25
97
-35
-6
-60
47
12
127
77
25
50
-15
-28
-101
-91
-39
114
-92
46
-9
-5
-6
-12
-16
31
-15
3
-11
3
22
13
-103
-42
-5
112
64
1
28
127
-24
9
-44
18
-20
-11
29
14
43
11
-10
6
32
-3
-37
52
-15
115
7
9
28
5
-24
1
127
44
5
34
-14
127
40
1
43
-62
-15
-94
-127
6
94
36
1
-87
-127
-37
-8
-23
-1
10
-23
20
4
-18
-52
-26
71
36
34
116
-18
85
21
25
46
-8
37
-63
-6
75
65
-96
104
19
4
90
-13
25
16
20
5
10
87
-24
-8
-1
7
-29
1
-82
14
-127
1
-23
10
-10
-127
-18
41
123
23
127
-49
0
28
26
33
35
-40
-30
-13
49
44
56
16
-25
-29
-2
-68
33
127
-127
54
29
-37
55
-109
52
23
-13
11
4
-87
-48
-36
58
-29
-19
-39
-4
-14
14
-117
6
-5
12
-10
3
86
34
-2
120
-77
48
-33
7
-16
5
46
22
-41
15
-11
-127
10
-127
74
-23
-40
21
-42
0
95
40
42
-71
-76
55
7
-18
-23
-30
-71
29
40
46
7
25
16
8
15
35
-82
-5
127
1
-37
54
7
43
6
15
67
22
-63
27
5
-127
31
-105
-31
-14
19
-7
67
70
-9
-64
-19
-61
-19
59
-127
46
47
-38
-52
-11
127
-121
-88
-66
68
56
19
27
-31
-50
2
29
11
7
16
38
46
33
110
-9
-10
-35
-113
53
113
-71
54
10
-127
-6
-11
55
15
-39
34
-15
10
-14
-26
2
-35
-10
122
6
-42
76
-10
-87
66
-38
6
14
12
12
113
0
-108
11
-13
18
8
-127
27
-23
127
33
-39
-127
-17
54
6
-86
-8
5
-44
3
3
-6
-27
8
-49
38
68
-24
-26
2
70
7
-15
20
14
15
20
-8
-70
2
-17
127
-5
45
6
-104
39
-127
32
23
-5
34
-8
-46
-127
-2
12
-46
-100
1
68
-124
-95
42
56
18
121
-32
20
81
-66
-106
32
-24
127
-34
-127
-10
-3
-10
60
-71
-38
-10
34
8
33
-26
-6
25
-9
-42
2
-108
-23
-98
82
-44
-8
42
-17
-2
-7
-5
8
-65
-39
9
17
-113
-11
40
-95
-50
-20
5
30
-44
4
-14
-69
-76
-127
-1
13
49
-3
127
-46
-19
-22
33
-12
33
12
-9
-124
28
-32
9
-88
24
3
7
-5
22
19
-2
0
-14
13
-1
12
2
8
-60
-94
-6
3
49
61
-8
44
-19
-3
-127
127
31
39
-12
-11
-127
-28
36
-7
-15
-24
127
-112
11
-16
-88
-26
-25
-49
7
1
57
-14
-98
-4
-34
-127
-12
1
13
20
-35
23
14
30
67
-1
-22
127
-2
92
112
14
-55
25
55
13
45
-42
38
-44
-19
15
-99
-4
2
-62
26
-31
-51
30
-125
-10
55
31
38
127
-84
17
-20
2
16
60
2
-39
-34
-2
-95
-7
20
-96
127
14
15
-74
4
12
20
31
13
30
-35
-8
-14
5
1
-77
-75
-32
15
-62
-24
87
61
-70
-7
90
87
-40
-57
-4
-2
-36
-15
-26
-15
-37
0
-8
-127
22
-31
-56
17
3
53
7
2
-43
-11
20
-4
-127
-42
15
-10
-6
-113
-3
-13
45
-127
2
-15
-16
4
-45
98
21
-64
37
36
-127
-66
55
-18
-27
-115
2
19
68
39
28
127
-20
71
17
-26
-31
-14
-27
68
55
-10
78
-127
-48
-3
-8
9
-2
27
-2
-76
108
-8
-21
38
72
1
27
49
120
-8
-30
41
33
8
-16
-110
-20
-14
-14
17
-54
-4
4
3
127
9
-65
-39
-89
71
127
14
40
-19
-15
32
-13
1
-65
-27
-40
11
6
-127
-37
112
-8
-120
10
4
25
-39
-56
-22
4
-40
14
17
-6
45
-11
17
-28
45
12
-20
44
-9
49
-26
-28
-6
-16
127
-16
13
127
-9
-2
35
42
-18
-127
7
60
127
-34
-61
30
-7
-16
5
20
0
28
110
-79
-9
40
-88
-96
66
27
65
41
11
2
48
33
-29
-58
88
2
72
-60
14
-25
38
-8
11
1
9
-10
-31
18
-55
23
38
81
-21
5
127
-36
31
-75
79
2
20
-27
14
-39
56
8
26
15
-44
-8
-89
9
90
32
-113
-3
-17
127
9
98
20
-11
11
0
-2
-2
-95
-3
50
-76
-110
-15
-40
51
96
51
-5
16
-81
-20
-24
10
-17
31
-78
9
18
-74
1
5
52
-57
-29
49
-6
12
-29
20
-5
11
26
-26
10
-127
-15
-26
25
-127
77
14
127
13
-5
-116
-8
-70
6
-12
19
60
-12
7
74
20
127
54
-81
28
-127
83
-10
55
38
-127
40
18
69
-44
5
53
-29
-44
84
65
-11
-6
19
1
-2
30
-1
10
85
88
4
19
9
48
6
72
7
-18
101
-58
-20
31
41
89
-29
10
8
-4
-2
15
-19
27
-67
-4
-127
-25
-60
-111
-15
-124
47
-12
-7
-26
-12
14
9
19
-127
42
-75
36
-5
93
-87
-14
-2
19
37
6
19
-23
-17
-84
19
-12
-17
13
11
17
-14
24
48
-127
47
-2
8
-34
-32
4
50
29
14
15
-29
-18
4
49
29
3
1
-56
49
127
2
127
-31
14
-1
9
-4
28
-1
22
11
-39
-16
-127
-127
126
-127
22
46
-4
-37
-54
-48
-96
86
-117
-70
5
1
-53
-45
-9
65
-29
-5
-55
-8
-37
13
0
53
-17
-3
-18
-11
-7
-8
5
42
-35
13
-4
-15
-6
2
-8
-80
-123
-7
70
-7
-17
63
-8
-10
-56
-1
11
4
15
11
7
-76
60
-1
13
-16
29
56
25
4
-31
35
42
-1
1
-1
-9
-27
31
-19
-3
4
-13
-46
-16
-45
30
-13
-12
-45
-2
52
-14
35
-8
-2
-6
15
-53
86
-50
-80
-35
-21
-10
23
6
-31
13
-72
-12
-13
-59
65
7
23
5
-6
-7
-31
16
-7
-16
-42
11
-66
-54
9
56
26
-8
-2
0
24
51
-14
-40
1
-23
-12
6
19
7
7
-34
0
-16
-25
-5
13
122
-16
8
4
0
-73
9
-32
30
-6
-9
2
-25
-38
28
-35
-20
12
-30
-10
-8
50
-20
-10
-40
9
106
9
36
-50
-2
-20
-1
-39
-2
1
-3
-4
28
64
-39
11
58
16
3
13
2
-27
-30
11
-35
-2
-6
-31
127
3
-38
-127
-19
-11
1
21
5
-26
61
-4
-20
-20
34
-16
14
-8
5
14
18
9
4
52
5
79
-17
3
-28
1
-25
-29
16
31
34
20
-51
-73
-7
10
106
-11
-33
-30
-15
-6
3
3
15
19
26
28
7
-40
-6
-1
18
-63
31
90
-8
16
5
1
-7
42
-99
11
50
-11
-68
-33
34
-34
-12
4
35
-5
-7
-12
-43
75
29
21
50
20
-3
13
4
20
-127
-10
25
20
15
-41
-5
-55
-25
-18
-1
6
6
0
26
28
-39
-4
8
-4
5
20
9
-3
0
-10
-36
-20
22
29
10
-7
-98
34
127
55
10
4
20
-32
-118
19
-31
-24
9
-36
-7
18
60
-10
7
-4
-64
-14
-2
-1
-12
3
-4
-4
6
19
-2
5
-12
-24
19
6
-5
-80
13
61
117
13
-77
-4
17
-57
-19
-6
-39
-38
-65
-17
-22
-3
-17
-57
-85
-26
48
14
-14
25
5
-19
59
3
-23
0
-15
-21
-3
18
3
-8
-49
71
-18
6
34
-15
-19
-62
-39
-1
-7
-7
25
19
36
19
28
-7
-2
-84
-7
16
16
11
-66
0
-17
-92
-13
21
-47
-22
-105
19
-46
7
-2
-8
-87
16
58
-8
17
10
2
31
-49
14
7
13
-22
-5
-1
28
-105
7
-55
-4
-7
-19
-4
-13
-77
4
9
-6
-33
75
-70
-3
-5
-26
-26
-12
-18
-27
-16
-24
-23
8
48
11
4
41
-13
127
20
-5
17
-14
-6
43
1
-18
71
-1
-22
7
-16
40
18
-62
-41
19
20
-15
-4
51
7
43
-26
0
-94
-4
-40
-19
22
-95
56
29
-1
-9
18
41
3
56
-10
2
-39
-8
-14
11
29
33
-15
-36
50
6
-33
26
-1
-50
-41
1
-48
3
-13
-73
7
-28
-26
19
36
12
3
29
-5
-27
-55
8
-78
29
3
78
12
-12
-29
100
-22
22
-3
-59
4
19
-3
5
-6
6
-31
-17
1
29
-1
9
9
14
-31
-4
17
-10
24
20
24
-50
3
-102
18
-25
-9
25
-7
-11
-127
13
8
61
61
-32
66
6
7
45
34
12
-16
-43
17
-12
-9
1
7
1
49
4
18
3
4
-1
3
37
-47
3
-25
-127
-9
7
20
-3
-69
14
-5
24
-10
89
-1
30
-29
-2
-10
16
-8
-2
-15
-29
4
-5
-52
-20
-8
101
1
20
-27
10
8
-8
-16
6
6
37
16
40
-27
2
2
127
-7
89
37
5
1
-10
5
60
16
-12
2
16
-38
-34
-6
15
0
-40
39
10
-5
26
5
60
3
20
-27
1
6
-5
16
22
9
16
-6
15
8
-15
-25
-7
-6
-11
4
-8
6
10
-31
3
4
30
-61
12
31
-2
-8
3
-24
-39
-10
-40
-16
23
1
-12
-11
23
13
-16
-101
30
-60
-37
2
-5
3
-1
-13
0
-44
-17
-2
80
-6
10
28
-13
-13
0
-9
-47
-44
-8
41
15
-3
24
8
-37
-36
12
71
4
-20
8
-6
-24
34
0
26
-3
21
-2
3
-32
23
13
2
1
26
-4
-6
-62
-6
-5
5
-11
-11
-13
-20
-80
3
-9
17
-7
-6
2
12
6
-9
-29
-2
16
12
15
14
23
-1
127
-3
19
16
8
-3
-36
-23
-22
10
-127
-38
-10
-55
49
12
-25
-20
8
-4
-3
1
7
-48
11
-21
24
-39
-40
20
-30
-1
-10
-40
14
-6
57
0
-13
-26
98
4
-34
35
44
-56
-63
37
37
46
3
-54
-29
12
-20
41
11
48
-3
12
-37
-106
7
5
24
-21
3
-7
1
-20
23
-3
7
28
11
-19
63
25
77
24
-40
6
-5
16
13
-11
93
29
-46
1
17
36
14
13
38
-26
-9
-22
-15
60
-81
14
43
1
75
2
-7
-10
12
-26
-56
-43
-22
-27
2
-127
68
-15
-91
-21
102
-19
104
115
-54
-39
-6
21
7
19
-2
-12
-18
84
75
-9
64
19
-9
-51
-11
-40
-24
9
19
0
-8
15
2
59
-50
12
33
35
2
28
15
13
-100
-45
32
-17
92
-45
-37
-20
-45
-1
-88
3
15
17
-4
-13
-67
23
-4
-4
0
6
11
-18
29
9
4
22
15
-36
-8
66
-25
-36
-5
8
-7
89
-8
-43
29
13
6
15
2
13
-12
80
-55
-36
-44
39
5
16
-4
-4
12
14
-50
-7
4
34
-64
-49
46
-6
29
-37
-8
15
13
54
8
24
28
28
10
-118
-14
-32
62
-55
-70
12
-24
-61
-47
33
-30
47
4
40
4
-20
-9
86
37
10
82
7
-4
-15
63
11
-33
-23
-6
24
-1
-91
26
-46
40
-5
-9
31
25
30
3
-36
-75
67
19
5
-14
-42
-77
11
-106
-18
-81
-8
4
7
35
-7
14
8
49
3
-9
8
15
28
18
-2
26
15
-10
-19
-12
-29
-8
7
15
10
-15
-7
-24
58
38
-4
-23
62
12
-14
25
38
6
-12
-13
18
10
-9
35
-13
-70
-17
37
-8
27
-28
-52
15
29
6
-36
-29
2
-16
16
-66
-20
21
16
14
-6
-21
-42
-24
-9
21
2
8
6
-24
15
23
-55
-127
39
12
-29
-127
-127
41
73
39
-31
-20
31
4
41
-21
61
3
-4
-31
15
29
-4
-15
-52
28
36
-17
-7
28
-13
-7
11
-16
-8
-10
93
-5
-21
-15
-101
8
66
5
12
-5
15
-127
16
6
24
-20
2
-62
7
30
62
37
30
-39
-59
43
15
8
-86
27
87
-22
25
115
94
-4
-38
2
-59
-2
15
31
10
-23
-18
19
-3
-25
4
-49
26
0
103
22
-35
10
15
-13
29
-42
-5
39
8
-17
19
17
-35
-4
11
18
61
12
-13
15
62
78
22
3
-27
8
10
16
-79
-98
-34
-10
16
4
-16
23
17
-33
32
11
-5
-35
-3
3
7
-22
-1
-11
66
6
-15
-20
25
50
-42
-28
-43
21
-11
56
1
-12
92
13
-45
-4
-15
-2
-11
-20
-72
16
-62
-6
6
24
-2
-32
30
43
24
6
-2
8
15
14
-107
54
18
3
-7
-36
8
54
46
14
7
0
17
-45
7
1
22
-8
3
10
-2
35
-2
-13
-69
43
-87
-2
3
19
28
8
83
3
-2
-127
-42
3
-36
-27
-51
15
-44
40
25
-32
38
1
-80
6
-44
-2
-3
8
3
5
-46
-12
-29
18
10
23
-12
-25
-86
14
18
11
9
-16
28
-69
38
-13
-10
-15
0
34
-54
-3
-67
44
64
-20
15
93
88
-34
-13
-36
-8
-28
2
-55
21
-13
-30
5
-101
9
24
3
14
-3
-18
24
-18
15
-6
-22
7
-33
-61
22
-69
11
12
10
-1
18
86
20
-22
-4
5
31
-4
-9
87
7
71
7
-15
5
0
57
-55
-4
-8
84
-5
12
2
38
127
57
-60
-14
26
16
60
1
33
-36
22
-2
-15
-50
39
-18
-111
19
14
5
-11
40
10
22
46
10
-19
7
14
12
38
-23
23
7
-27
-5
-20
13
8
4
-81
3
-59
-2
51
25
1
