0
0
0
0
0
0
0
0
-2
-71
42
66
-4
73
-3
-78
-1
0
4
0
-2
26
32
-6
0
0
0
0
0
0
0
0
0
0
0
0
0
0
0
0
3
-26
97
47
2
-75
22
62
-26
-4
-4
22
0
127
36
-127
15
34
28
7
127
67
-82
-31
0
0
0
0
0
0
0
0
1
-2
52
-77
1
-91
-12
88
-17
2
3
-4
9
-15
-47
7
0
0
0
0
0
0
0
0
-14
3
2
-2
4
-6
127
-13
-127
0
2
-2
0
-4
-10
9
25
2
1
1
1
-9
-21
4
0
0
0
0
0
0
0
0
0
0
0
0
0
0
0
0
-1
3
127
37
-29
25
-20
-13
5
-1
-3
-2
-1
1
22
-15
121
1
2
0
0
10
-12
-21
0
0
0
0
0
0
0
0
0
0
0
0
0
0
0
0
-1
-74
-7
98
-3
-53
-11
49
61
-1
-2
0
0
5
6
4
0
-4
0
0
0
0
-1
-1
-14
2
5
0
3
-10
90
-19
-2
65
120
8
-1
61
25
-59
19
1
-1
3
1
13
13
2
35
0
-7
0
3
-7
82
-9
-1
127
-33
-127
-1
52
19
-82
-19
-6
5
-2
-2
-18
49
7
-1
-2
-2
0
0
-1
-1
0
0
0
0
0
0
0
0
0
127
2
25
-1
5
-4
35
-6
-1
27
-1
4
31
-4
1
-12
0
0
0
0
0
0
0
0
0
0
0
0
0
0
0
0
-6
8
-30
1
4
-18
81
21
-3
20
38
-3
39
127
-36
43
-35
-27
24
4
-17
23
39
-39
0
0
0
0
0
0
0
0
-82
1
-22
-1
0
-9
-75
-4
0
17
-49
-1
52
-9
1
110
0
0
0
0
0
0
0
0
1
-36
-5
8
3
-2
4
7
0
1
64
0
26
-1
1
112
0
24
-21
6
-127
1
2
45
0
0
0
0
0
0
0
0
0
0
0
0
0
0
0
0
-122
0
-9
-1
1
15
127
-4
3
14
-2
127
-10
-1
-1
0
2
-20
-30
4
0
1
1
53
0
0
0
0
0
0
0
0
0
0
0
0
0
0
0
0
53
-2
-13
-2
-5
-14
119
-9
1
27
-31
0
1
-1
-1
-127
1
0
2
1
-1
-1
0
0
-2
-32
1
15
16
-3
1
9
-95
2
33
1
4
19
53
3
-3
-57
-127
-2
-22
2
-1
16
-2
127
-10
6
-39
-3
1
-24
-124
0
11
-2
0
-3
-14
3
2
5
-126
-17
29
1
3
-29
1
0
0
2
0
-2
0
0
0
0
0
0
0
0
0
0
-19
-4
-20
18
-1
42
97
-67
0
-54
7
-6
-127
-4
-1
0
0
0
0
0
0
0
0
0
0
0
0
0
0
0
0
0
42
17
10
-12
2
-59
-63
-12
0
44
50
127
1
127
17
89
29
-35
-39
-10
-7
14
-41
90
0
0
0
0
0
0
0
0
2
-4
-7
4
0
-23
15
7
3
7
127
-3
-1
-4
-1
-3
0
0
0
0
0
0
0
0
1
-4
31
-3
-1
0
-2
7
0
-16
60
-4
-1
-2
0
-1
0
5
11
7
5
2
3
-6
0
0
0
0
0
0
0
0
0
0
0
0
0
0
0
0
127
-9
-9
-20
1
1
-127
62
1
-1
-3
7
9
-1
-2
-3
0
-4
124
3
1
0
3
-3
0
0
0
0
0
0
0
0
0
0
0
0
0
0
0
0
36
-7
2
10
0
4
24
-1
0
-14
-94
1
1
0
-1
3
0
1
1
-3
1
0
1
-2
0
127
34
-4
3
-2
-1
2
46
5
-10
7
-1
22
-66
4
-1
-2
19
5
-2
1
2
-4
-1
51
20
-6
21
-4
1
-4
-45
10
15
25
0
43
74
-127
1
31
-11
13
32
-6
0
21
0
0
0
-1
1
-1
1
-3
0
0
0
0
0
0
0
0
0
2
89
-127
5
-2
24
3
0
-1
-1
18
-3
-31
4
-17
0
0
0
0
0
0
0
0
0
0
0
0
0
0
0
0
0
0
22
89
-3
-29
-9
-5
0
-49
27
-15
7
8
-127
-69
0
-6
35
-102
7
-9
-36
23
0
0
0
0
0
0
0
0
0
1
-127
66
1
-8
10
2
0
-127
0
32
1
-127
9
-127
0
0
0
0
0
0
0
0
0
4
0
30
68
61
1
9
0
-14
0
-21
7
8
-1
-12
0
94
0
25
21
40
-3
-75
0
0
0
0
0
0
0
0
0
0
0
0
0
0
0
0
0
3
16
-53
0
-3
-2
2
0
-6
0
32
127
-32
-2
2
0
-6
0
90
-6
22
-5
8
0
0
0
0
0
0
0
0
0
0
0
0
0
0
0
0
0
-1
93
67
0
4
25
-1
0
32
0
-15
4
-19
3
7
0
0
2
0
-1
-2
2
0
0
17
0
8
-2
25
4
-5
0
-1
-7
-121
-2
7
-12
-2
0
-23
2
61
-2
-101
1
9
0
-69
0
29
10
-9
2
4
0
-3
-124
-45
0
10
23
-4
0
-19
1
3
-3
9
16
-38
0
0
1
0
0
-25
6
1
0
0
0
0
0
0
0
0
-73
-33
39
-66
-21
-94
-39
-8
0
-4
71
8
2
20
3
-5
0
0
0
0
0
0
0
0
0
0
0
0
0
0
0
0
-127
-127
-65
85
8
68
41
4
-16
-21
-5
-127
-78
-127
-127
42
-11
-15
127
-78
-2
-38
-30
-12
0
0
0
0
0
0
0
0
-35
74
-19
56
15
103
57
0
4
9
-7
10
-63
1
9
127
0
0
0
0
0
0
0
0
0
-1
108
9
-101
9
4
2
1
3
7
-9
44
-75
0
1
2
2
-32
8
48
-20
-2
13
0
0
0
0
0
0
0
0
0
0
0
0
0
0
0
0
74
1
0
-45
10
-16
-21
3
-1
1
7
-4
-57
-6
-1
2
-1
0
-13
12
-116
37
11
-4
0
0
0
0
0
0
0
0
0
0
0
0
0
0
0
0
-62
-126
-23
29
9
62
27
2
0
0
19
4
38
55
-1
-9
1
1
1
0
0
-1
0
0
2
1
45
0
-127
-1
2
-4
18
-21
72
-51
-32
-73
-38
-5
-1
1
8
18
43
25
-3
52
0
7
49
6
-74
-2
-3
17
-46
46
-28
-30
-43
-70
-33
-1
4
11
54
4
2
32
3
1
0
2
1
0
-1
1
0
1
0
0
0
0
0
0
0
0
5
-9
14
37
-66
-11
-20
127
63
-62
1
-1
-8
-64
-7
-2
0
0
0
0
0
0
0
0
0
0
0
0
0
0
0
0
-12
12
63
-57
60
18
7
-12
-5
7
-3
-67
-127
-16
-127
0
34
-32
26
81
-44
-60
12
-19
0
0
0
0
0
0
0
0
0
0
-127
33
61
-2
24
-44
45
7
2
-127
5
-12
-125
0
0
0
0
0
0
0
0
0
19
-127
3
20
-4
-50
11
-4
-77
9
-2
-32
0
-87
-93
2
50
-30
0
-4
-1
29
-19
6
0
0
0
0
0
0
0
0
0
0
0
0
0
0
0
0
2
1
48
16
-9
6
9
28
12
20
-2
23
-7
19
2
2
-2
4
1
-46
-5
-17
-64
2
0
0
0
0
0
0
0
0
0
0
0
0
0
0
0
0
-4
0
29
-4
37
-3
11
-13
-94
8
-2
50
-2
-93
108
-2
0
0
0
-1
0
-1
1
-2
-65
76
2
4
10
-2
-13
0
0
-3
111
13
-49
-4
-19
-72
-2
8
-1
-34
-5
7
16
-1
-127
-38
-3
-3
4
127
0
2
-4
0
-4
-27
-49
-1
-34
-73
78
-13
2
6
27
74
34
2
1
0
1
1
0
0
4
-1
0
0
0
0
0
0
0
0
-56
-2
6
0
-29
0
-4
-3
0
-5
6
-2
-113
-3
17
2
0
0
0
0
0
0
0
0
0
0
0
0
0
0
0
0
-15
-3
5
10
71
3
22
35
12
-2
6
-37
62
7
22
-127
24
14
12
2
-115
-13
-60
-20
0
0
0
0
0
0
0
0
55
0
5
1
9
1
0
11
-1
-26
64
-32
18
10
-26
4
0
0
0
0
0
0
0
0
-1
39
-82
-96
-10
2
127
5
0
20
-15
18
-7
62
8
-11
2
6
-22
39
40
28
-6
-8
0
0
0
0
0
0
0
0
0
0
0
0
0
0
0
0
75
3
2
-1
-43
2
0
32
0
36
-77
-48
6
5
-28
-10
0
-127
127
-127
-16
13
-5
-13
0
0
0
0
0
0
0
0
0
0
0
0
0
0
0
0
-14
0
-2
-2
28
0
-4
31
-1
11
-13
17
-25
64
14
4
0
0
1
1
1
-1
-1
0
1
20
-47
-45
127
-21
40
2
59
-2
-3
-2
-6
0
0
67
1
10
-21
15
-31
4
6
8
1
19
-48
-24
68
11
39
15
127
-4
-2
1
22
0
4
-48
2
-3
-32
-24
65
127
8
0
0
0
1
1
1
0
0
2
0
0
0
0
0
0
0
0
-15
0
0
-53
94
41
1
100
1
0
3
7
1
14
2
1
0
0
0
0
0
0
0
0
0
0
0
0
0
0
0
0
-125
0
-1
35
-70
-38
0
-86
0
0
12
-127
127
127
12
-4
-35
0
-7
-13
8
25
17
-68
0
0
0
0
0
0
0
0
37
0
0
46
-87
-60
0
-17
1
0
-1
-3
-27
13
18
-4
0
0
0
0
0
0
0
0
-1
0
-5
3
24
47
45
-3
-2
0
67
-11
8
-19
-30
-1
4
0
-10
-1
13
-39
-19
1
0
0
0
0
0
0
0
0
0
0
0
0
0
0
0
0
-127
0
2
-16
47
-26
-2
-127
-2
0
2
1
32
36
22
3
-3
0
-127
9
-27
87
127
1
0
0
0
0
0
0
0
0
0
0
0
0
0
0
0
0
-50
0
-1
29
-60
-38
-3
-38
2
0
-23
8
-6
-12
-5
0
-1
0
0
0
0
0
0
0
3
0
3
0
3
51
26
1
-115
0
0
-32
70
63
0
-50
2
0
-6
6
-3
-21
-5
-1
3
0
-9
5
16
17
25
1
-21
0
0
-55
104
63
-2
74
-3
0
-16
4
-14
-14
-22
-2
1
0
0
1
0
-1
0
0
-54
-14
17
-4
-26
13
78
0
3
35
-18
2
-11
11
-58
4
0
71
-9
-2
-5
-7
-92
2
-7
36
-10
1
-11
-1
27
-7
64
-72
-17
-4
43
-3
3
-19
-12
-6
-15
13
-15
-46
-32
13
-8
2
-6
2
0
-5
-6
8
-24
3
27
6
-35
-21
13
0
-11
49
1
-2
-12
-1
19
-7
-83
-11
-13
-12
-88
-41
-20
14
14
3
37
13
-1
-25
60
67
4
9
-49
-1
-20
-11
34
-8
11
9
-8
-23
-88
-127
7
-28
-7
63
-46
4
-3
-33
-42
-33
18
53
-1
-4
18
7
16
7
119
6
-11
3
53
3
20
5
-1
14
15
-3
-10
-4
7
-3
-14
-3
-4
1
-18
2
0
-6
-2
-1
-4
-61
1
37
-13
34
-21
1
21
1
-1
9
43
-5
-2
-19
3
-4
7
-42
85
-3
6
-29
56
-2
2
-17
-90
12
17
87
46
-1
4
-5
-35
0
-21
59
-5
-7
-15
26
29
15
0
0
0
0
0
0
0
0
-113
-10
27
26
33
63
-9
40
18
44
-11
-6
19
7
11
6
4
5
-13
31
-1
13
-14
29
3
-10
-38
-2
-5
-31
-106
10
0
0
0
0
0
0
0
0
-10
16
13
-3
8
63
-12
-2
53
3
26
17
89
53
-22
-81
-16
70
5
-2
-7
21
48
-6
-4
46
2
-4
-1
-4
127
3
13
0
22
-7
-10
-9
8
-27
32
-1
-9
41
19
-73
33
-73
-28
-1
-2
7
-37
25
25
-15
6
0
-20
-84
4
-14
-14
21
-29
-14
-127
-7
15
-40
28
12
-127
5
22
20
-44
-14
39
-90
45
-8
-17
29
-30
-55
-19
-13
7
5
-1
22
-23
-3
24
2
10
38
-21
3
-8
-5
20
-3
10
4
-13
-127
9
-24
-13
127
-23
-10
-73
10
-2
-22
23
5
-55
5
-39
12
-74
-61
-16
-18
-5
5
-47
65
0
10
-21
117
4
-127
3
1
5
-5
-82
2
21
48
3
0
20
21
6
3
4
16
-6
2
-127
-23
-12
32
-13
1
37
10
-83
3
-7
-6
-9
-22
30
-2
-82
113
-14
-9
-9
-6
4
5
-17
-37
-12
8
-116
11
-1
1
-13
31
1
11
13
3
21
-1
7
30
31
-8
-8
-43
8
-3
-12
32
-11
-4
19
-39
-17
1
11
-14
-63
-3
0
0
0
0
0
0
0
0
-24
-22
-51
-3
-18
-50
-46
6
25
0
43
20
12
-16
7
63
11
-4
-3
15
7
-5
-5
-17
-35
-4
15
20
-51
33
24
-5
-8
-19
-58
-6
-39
-16
-34
-28
8
45
-24
-3
9
-16
3
-1
0
-30
-8
0
7
22
-9
-22
-3
-43
-28
92
9
-16
-60
-15
1
-6
3
127
31
-6
-10
9
-127
47
22
-7
-16
-1
14
9
-9
5
-66
-18
-22
-26
-44
-10
-4
40
4
0
-1
11
0
4
-2
-6
13
1
0
2
5
0
0
47
15
2
-1
-6
-18
27
59
67
24
-2
19
-1
-28
16
0
-20
-89
-1
-3
52
-25
10
0
7
10
3
6
-80
-5
-6
-7
71
17
7
5
-1
1
-79
6
66
95
4
3
-66
82
-15
12
-66
-15
-3
-12
18
-79
25
-37
7
26
-4
-33
3
20
0
-6
39
57
1
3
21
63
-15
25
38
13
-1
3
-2
-23
14
2
13
-2
0
2
1
27
-7
-2
-8
-6
1
0
-127
-14
5
-22
69
113
0
-14
4
124
-6
1
-35
-27
-2
3
0
-37
-33
-2
-15
-7
-7
17
-22
13
15
6
12
11
24
-14
-2
-45
-21
-11
-6
-20
26
9
10
-21
31
0
0
0
0
0
0
0
0
-1
-62
-76
-1
-1
53
-65
-4
61
13
20
-7
61
5
51
3
-1
7
16
0
-3
41
-5
-10
-3
-4
4
1
-3
-1
-34
-17
0
0
0
0
0
0
0
0
-19
61
103
9
-11
-2
114
7
-1
31
89
1
0
-12
65
7
2
9
-18
32
13
15
-24
25
15
52
45
-43
-32
14
83
17
6
15
-12
0
8
-12
-35
39
-3
24
18
0
-1
1
16
9
3
25
18
1
2
11
21
-10
1
18
-1
-3
-2
-42
17
-6
-17
28
9
-3
-36
-4
59
25
0
-55
-65
1
1
-100
-78
-14
-3
-35
-127
-5
-2
-3
-65
4
-1
-46
-89
1
-1
6
-4
-23
-9
-22
37
4
127
-1
-51
-24
-1
-1
-8
-2
3
-24
15
27
-4
24
-10
0
-1
-4
57
-72
2
57
80
0
0
-16
55
-7
-4
2
-7
-1
1
-80
4
13
15
-21
-31
37
1
-3
-26
-1
-61
24
31
-8
-86
3
31
-10
10
-2
12
0
8
12
-71
69
21
-69
-45
-5
10
-23
-1
-127
-5
54
50
1
-1
-9
112
45
-2
24
11
0
-3
0
-21
17
4
45
114
0
-3
21
84
8
6
-127
-91
1
-3
2
39
-11
-8
65
93
-18
-17
-4
102
16
-29
-56
-44
-124
-25
-7
-75
-3
0
0
0
0
0
0
0
0
1
-20
-2
2
5
0
-25
29
0
8
17
1
3
21
22
-6
6
-8
-18
-5
6
18
-18
-54
2
38
17
0
5
20
40
-5
-4
12
44
1
-3
3
127
-7
21
-4
6
13
-90
0
14
8
18
-3
-14
29
8
-103
0
3
-3
-84
0
-9
81
-4
0
-6
-5
-15
1
-5
58
14
0
-5
-9
3
1
-14
3
11
0
-15
-4
0
5
-50
25
44
0
0
-52
8
-15
-47
-4
4
0
103
-20
6
7
0
-1
5
0
-94
-21
-9
-24
-32
-18
-30
0
-24
-10
14
-1
-16
15
10
0
-19
-6
-12
14
-63
1
8
0
-6
-2
2
15
5
-21
-73
0
5
19
-18
-20
-41
-20
4
0
-14
20
4
-28
33
-9
-13
0
-20
0
127
10
4
-55
117
0
8
3
-13
0
-11
-11
-46
0
1
-14
14
-1
13
-4
-41
0
2
-8
-2
-3
-22
-32
6
0
-12
4
6
-5
-35
2
3
0
-4
2
-9
-127
-1
23
2
0
0
-6
-47
1
27
9
20
0
4
82
22
-5
-7
-1
9
0
-23
-8
103
-11
-5
24
-86
0
-6
-9
45
-4
-10
-76
-46
0
0
-5
62
-8
-6
127
-23
0
-4
0
0
0
0
0
0
0
0
-7
-18
-3
-63
-1
12
0
19
-1
-9
-5
-7
-17
-60
0
11
2
13
-70
2
5
-14
0
0
1
32
5
24
-18
0
0
16
0
0
-1
0
0
0
0
0
-10
113
7
16
66
-19
0
11
-3
5
-43
110
-6
11
0
-16
15
44
4
5
104
13
0
-4
11
56
-2
8
-16
8
0
2
127
3
-21
3
-3
-12
0
42
5
12
87
13
-3
97
0
-11
5
16
2
-35
3
-20
0
15
1
10
68
-11
-12
8
0
2
-1
-1
-37
-2
-39
-11
0
-17
6
9
52
-127
-4
-40
0
21
-66
-6
-18
2
2
-7
0
8
101
-9
-28
57
2
-28
0
21
3
-56
0
-3
-64
-18
0
0
-2
17
-70
-12
-2
78
0
1
39
0
-23
-10
0
1
0
-31
-50
-3
-27
-20
1
-1
0
-2
-5
-4
44
5
3
90
0
4
1
-42
-1
-7
-24
-1
0
-4
-2
-7
-5
-3
-25
-60
0
15
23
14
-7
58
5
127
0
5
-3
16
3
52
-16
-85
0
-15
4
7
8
-40
42
-61
0
1
68
3
4
-49
0
3
0
127
8
4
-4
-6
-2
-9
0
-29
19
19
-9
75
-10
-44
0
0
-3
42
-5
1
-14
0
0
-3
-19
-48
1
-18
-28
-16
0
-4
0
0
0
0
0
0
0
0
2
-1
-16
16
-10
79
0
-3
1
-29
96
22
-10
-119
0
-3
2
-6
-2
-4
1
6
0
15
9
28
-22
-44
-1
-1
0
25
-17
-18
11
-36
-14
62
0
4
3
13
-3
-2
40
-11
0
-5
-1
-56
93
-31
16
0
-6
-1
-13
-10
30
-9
-6
-17
-1
-20
-1
7
-35
7
3
24
1
-1
-13
4
19
4
1
-17
-6
8
-16
36
-3
-18
-17
-30
-13
-25
13
-22
1
1
47
25
14
19
5
-7
-8
1
-6
0
1
-1
18
-7
1
3
-90
21
5
-4
-32
9
12
12
3
-4
-4
4
-2
-84
-4
-7
-14
3
-10
2
4
1
62
0
1
-5
21
-13
-127
-12
-5
6
-13
-27
-1
-7
0
45
11
14
-27
14
-40
19
-48
2
-127
112
-4
122
21
-16
5
10
-83
-1
-1
-2
0
2
-3
88
14
5
5
12
-24
44
-25
2
1
3
-1
-6
-6
10
-25
-21
-14
7
-26
0
-1
12
-3
-5
-24
-4
-1
-4
28
-7
-8
8
-27
18
6
47
-9
51
13
-24
0
3
-5
55
-3
-61
71
1
-80
127
21
86
2
1
0
1
35
-15
13
-12
3
30
43
-4
-20
84
-4
64
-17
3
0
0
0
0
0
0
0
0
-8
-84
-7
-11
39
-10
-78
-33
2
21
-62
-3
-1
7
2
1
0
7
-15
-4
9
0
-5
5
-24
-8
34
0
14
47
4
-24
0
0
0
0
1
0
0
0
41
0
0
93
3
127
-4
55
9
95
-39
10
0
4
57
-8
1
-1
-70
32
9
48
2
18
20
5
-59
15
10
37
1
31
-1
21
-8
-8
12
-7
-10
-11
8
35
-33
0
11
24
34
12
-3
0
-18
6
75
11
-10
-2
-13
10
-14
7
13
-4
4
9
8
24
0
7
-18
23
27
11
-18
-127
48
-2
19
-19
127
-6
25
21
-10
-5
38
3
10
-25
20
65
-5
-9
54
-6
13
-33
-14
-7
89
-25
-8
-56
-1
-15
4
6
-32
2
9
1
-4
7
-62
3
-15
16
-102
15
-3
18
1
-18
12
8
2
4
-2
32
4
-1
-45
-3
2
29
-20
17
-7
5
67
1
7
-10
7
-6
-10
25
-32
0
-2
-3
2
1
24
-37
11
16
13
-28
3
-101
-65
29
26
-12
28
8
13
-74
1
10
8
-11
-22
-10
15
96
15
-31
1
0
44
14
7
12
-5
-29
16
5
14
-10
-4
24
2
84
-7
-4
29
-8
-5
-55
39
-2
-49
21
-1
74
-1
37
-32
-1
72
-10
-2
-26
-3
-16
0
0
0
0
0
0
0
0
3
-32
-45
10
7
-18
9
-38
3
19
67
5
5
9
-36
5
-6
-11
-8
1
-1
-4
-4
-6
12
-12
-6
4
127
15
-4
1
-44
49
-104
6
15
21
-15
127
6
-5
-25
-3
0
13
2
-2
6
-58
7
35
-5
-37
53
-1
-9
-5
2
2
0
-22
-1
58
22
12
-9
2
-2
11
11
46
-4
14
-3
-4
6
-5
0
-1
-15
50
5
-19
-15
-6
-51
-3
-7
50
-2
14
-115
-3
2
0
1
24
-20
-9
42
3
-3
0
-3
29
6
6
16
14
-18
-2
-59
14
-1
-1
-7
4
-13
7
-1
-38
0
84
53
7
19
0
3
13
58
8
7
-20
6
0
0
17
13
12
5
-10
38
1
-2
71
30
-31
-6
-9
35
2
-19
10
-7
1
2
127
-6
40
33
12
3
3
-5
-6
-10
7
5
56
-28
-127
-40
-17
-12
0
127
36
1
-4
0
-2
-15
1
0
18
1
7
-127
5
23
1
1
-4
-127
9
-10
2
-6
-1
-2
33
1
-6
1
-30
-13
5
-3
-58
3
12
5
27
-14
-5
21
-1
1
13
8
-8
0
-32
25
-34
3
2
-4
-63
-11
127
2
13
-6
-10
4
-5
-2
29
0
0
0
0
0
0
0
0
-3
-44
-15
65
-31
6
14
-1
-9
13
0
-5
-1
-17
-26
0
1
6
-110
-10
-19
2
12
1
-1
10
5
9
-12
52
70
0
0
0
0
0
0
0
0
0
0
19
3
-1
4
-37
7
29
-4
53
-14
-35
-50
12
-8
1
74
4
-26
1
-12
2
-6
37
-27
23
-5
-4
-5
19
-10
-33
-4
-10
1
1
-100
3
7
0
3
25
-14
-17
31
-2
-32
0
3
35
3
-7
40
4
18
2
1
6
76
-23
11
-5
10
-2
-1
2
24
-49
-14
23
-123
-4
3
-7
5
55
-10
-9
25
1
1
-127
-9
7
-33
4
-22
-1
-2
-104
-1
-12
-15
-9
-8
0
14
-22
22
-3
-3
13
-14
-15
-4
7
-12
-20
15
1
-6
0
7
4
3
2
43
7
3
-1
1
92
-3
10
-22
1
20
1
-1
4
53
-6
-12
3
-30
0
10
-17
-2
5
-4
-35
-7
24
-47
19
-10
-12
5
-16
-19
4
8
3
4
41
3
15
-54
-2
-4
-62
-3
-20
-22
-2
127
-1
4
22
9
4
-7
-40
53
3
-6
54
0
12
33
-3
9
0
-2
125
-15
-3
-10
1
9
0
1
-110
4
-29
19
0
-11
-2
3
-21
3
-11
-10
32
11
-38
25
-31
7
-4
-2
-8
-13
-123
0
0
0
0
0
0
0
0
-2
-48
18
18
8
12
-72
1
1
13
9
-31
-2
13
14
0
-3
-3
3
14
111
-13
7
1
0
57
-25
-2
-50
16
20
0
-1
13
-18
-13
-37
13
-47
0
5
-14
-2
5
-3
-4
0
4
10
-6
-40
-3
20
0
6
32
-11
3
-19
-16
55
0
45
-24
12
-1
-18
-6
62
0
39
-4
1
0
39
41
-47
0
2
29
-11
6
-62
-19
76
0
17
25
4
28
38
-1
-58
0
-6
50
0
-10
-2
1
16
0
4
-5
11
-25
13
-5
-84
0
4
36
4
-2
51
-127
-61
0
6
45
-2
3
-23
-2
31
0
2
15
-5
-2
-4
2
8
0
-2
-5
5
-3
70
-1
-98
0
2
51
8
14
53
-3
-88
0
-7
-52
126
1
-127
-1
86
0
127
12
-6
1
43
-26
-6
0
0
-28
6
-3
39
0
-11
0
-2
-79
-1
0
28
67
-45
0
0
31
1
0
21
1
-22
0
-6
16
5
-4
0
-3
8
0
-5
-4
12
1
58
-7
-71
0
4
13
5
-5
-118
-3
127
0
0
-34
127
-4
-69
-20
-6
0
106
3
-22
-7
-3
63
31
0
88
5
40
6
12
6
40
0
89
8
0
0
0
0
0
0
0
0
0
37
-42
2
40
0
6
86
0
-3
49
-66
-53
0
-5
-37
2
13
-2
-1
-16
0
3
-7
-10
0
-28
-6
21
0
-18
9
0
0
0
0
1
0
0
1
46
2
62
13
-56
0
47
-9
0
-3
46
3
-34
0
-5
-30
22
6
9
-16
-18
0
57
-12
18
-1
30
-25
-27
0
-34
15
4
-26
-14
2
12
0
-1
-8
-1
-2
23
-2
-30
0
-4
-55
7
127
16
-2
-34
0
-8
8
1
13
4
-6
2
0
7
-10
13
1
40
-10
5
0
0
-20
-7
33
-30
-2
23
0
6
88
-5
17
-45
-2
76
0
2
-78
-1
9
-47
2
60
0
5
-94
-25
0
0
10
42
0
-12
-13
-7
6
11
3
-16
0
5
-5
8
-20
36
4
-52
0
-14
26
2
1
56
-6
-76
0
-2
11
1
5
17
3
0
0
-4
-14
-4
-1
-29
-4
-33
0
12
-18
1
-4
42
101
-42
0
7
-25
-18
-11
-37
2
-49
0
4
21
-6
-1
-52
20
61
0
10
-92
8
-14
26
-3
-38
0
1
-33
2
-46
23
-3
-43
0
0
40
7
-29
56
2
-57
0
-3
51
-9
3
-80
7
123
0
9
-127
21
-1
68
-18
-55
0
-33
-1
-12
-2
-47
-13
-9
0
-49
-6
0
0
0
0
0
0
0
0
-15
-9
-13
-2
5
0
1
24
5
-11
2
-3
-20
0
-1
-34
-4
-3
-7
-2
21
0
10
4
11
-10
20
0
-50
0
-2
17
-25
9
23
-3
7
0
0
-113
-3
1
-5
64
8
0
5
0
3
-27
-5
-12
-7
-2
-4
-10
1
-2
11
-125
37
6
52
-48
1
-10
18
127
7
-1
-10
-3
4
-58
7
9
-7
-6
-21
20
-36
22
26
30
-31
-1
-9
-41
82
-40
-11
1
14
-16
-2
11
-127
-6
20
3
1
3
37
3
-28
-32
-60
-6
-20
-16
-84
12
-8
-58
-8
12
-15
-3
-31
23
29
17
40
-3
30
7
-14
-18
3
-1
-5
3
4
-86
-19
-1
-14
-32
127
-8
80
17
5
18
-10
-13
22
11
16
37
-28
17
-40
3
0
32
-16
1
31
62
0
127
-23
3
-79
10
7
12
-16
1
3
-7
-53
-13
-11
3
-3
-41
12
-15
-13
-2
10
3
60
-15
-13
6
30
2
17
-6
-3
2
10
2
-22
60
-10
5
5
-6
-17
5
10
1
12
8
-12
5
-13
4
-31
2
-9
9
55
3
35
-39
-18
-13
-82
127
21
8
32
126
-17
-4
-63
-53
1
-11
-42
28
30
3
49
36
0
0
0
0
0
0
0
0
-31
26
-42
6
8
-21
20
-6
-1
127
-3
-5
-62
3
16
2
11
4
-11
-1
-5
95
-6
-1
33
17
85
9
-32
-6
61
17
0
0
0
0
0
0
0
0
-6
-8
-10
-24
-1
0
50
32
-30
-23
-25
3
-64
-29
13
14
7
-4
-31
35
-3
23
18
6
8
6
-11
33
-45
3
-55
21
-69
-5
21
-11
-34
5
12
6
11
19
-26
-4
-6
90
12
6
-31
-11
-3
-1
10
43
8
12
-11
8
-1
-4
6
49
-25
4
28
62
-40
-3
78
-28
-80
-3
-1
46
-34
-12
57
33
-4
-20
-5
-20
21
2
-44
-1
0
-15
-30
5
44
-2
-38
-19
-24
-2
-9
5
-1
102
-1
-3
-47
9
1
16
-9
-2
12
-125
45
1
-91
-13
9
0
66
5
43
22
-24
2
26
6
29
-27
-41
5
6
27
-15
-3
-3
23
1
-3
15
6
31
-103
7
3
17
23
-11
112
-7
17
-79
-13
24
-3
14
-50
-91
6
127
0
-75
0
-2
2
115
4
-60
3
1
3
-6
-10
-63
-6
-60
3
-29
-3
73
-27
-42
-1
10
-7
-35
-2
-22
37
27
4
44
-44
-31
15
-59
44
6
-1
-71
5
-7
-16
0
-1
-18
51
-33
-5
9
24
-11
-7
31
-64
24
4
-21
-3
0
0
0
0
0
0
0
0
14
-18
-42
-14
20
5
-12
-3
4
-11
19
-5
-67
-127
4
19
-58
-1
-13
-3
3
-13
-127
2
-24
-22
-39
1
1
2
8
9
-45
42
-25
-12
-39
-13
-22
11
10
3
9
12
0
5
-6
-6
6
-1
1
10
13
5
-3
8
5
15
22
87
7
7
-127
10
0
16
-12
14
-6
-13
-62
-18
6
-106
15
24
-5
7
37
2
-7
-15
-47
-85
-19
-30
23
22
-4
-7
19
-1
49
12
-4
-58
-5
-6
8
0
-65
0
-3
-29
32
7
4
-7
-6
3
3
0
14
-127
11
32
-2
6
1
-6
7
-11
-6
-5
27
-6
5
-6
-6
2
-5
2
-1
1
-3
1
-2
-33
33
-3
16
-3
13
28
13
7
11
-3
-23
10
-1
-2
3
36
-127
50
2
-44
9
-30
6
-60
13
11
5
3
18
-7
-5
-6
10
-5
3
6
0
-1
11
-83
0
19
-5
1
-6
4
-26
-6
-4
0
-127
2
-3
4
5
3
0
2
2
2
2
6
5
-34
46
19
3
38
8
-1
-6
20
-10
3
-10
-3
7
11
0
-8
-103
-61
-1
-127
-7
26
-6
21
79
95
-2
24
-44
20
1
-22
-13
43
-5
-47
-7
-15
0
0
0
0
0
0
0
0
-7
-9
-9
0
-2
0
0
9
4
-91
11
10
1
-5
26
-7
-5
-9
2
-1
-1
2
-4
-3
16
1
-10
6
-3
-11
-2
-11
0
0
0
0
0
0
0
0
1
-69
54
31
4
16
16
6
-30
20
17
0
-16
7
-2
-27
12
-33
4
66
5
-8
6
4
-2
-17
6
-84
4
-12
2
-1
-22
0
7
-4
35
5
15
-33
1
-5
22
-4
4
6
-4
-5
4
-5
2
-3
-21
3
-2
7
-3
1
6
-3
-2
2
0
-40
-16
-35
14
-12
1
-1
1
12
18
-10
-11
5
6
-3
-3
32
24
-22
-7
-2
26
-4
-2
8
26
-15
-5
3
-60
-4
2
8
0
20
5
-13
11
18
29
17
-5
-2
9
-4
1
-1
-4
-58
-56
-38
8
-6
31
5
-13
22
0
16
14
0
40
2
2
2
-1
0
5
-3
1
1
-2
24
-1
16
-12
38
-3
-3
14
4
6
-98
4
26
5
-4
0
6
28
4
-16
23
11
-17
-2
-35
3
13
4
1
-8
1
0
-12
20
-43
-14
-1
9
2
4
-15
16
5
9
-2
-13
5
1
14
-6
38
14
0
-4
5
1
-17
7
40
-25
1
67
-16
-1
35
9
-20
34
16
1
16
-5
1
-3
35
-15
127
7
-5
-26
13
0
0
0
0
0
0
0
0
-6
-2
5
8
10
-19
6
-14
20
-2
14
-1
4
-2
1
-6
-18
21
5
0
13
0
5
127
127
0
12
-10
-5
3
1
-32
19
-23
14
-17
-15
-3
5
-4
-3
20
11
-3
-1
2
0
2
-4
-1
-1
4
-2
5
11
7
-88
127
21
-125
44
-41
-2
-8
20
73
-6
-57
43
15
-1
-5
-9
-4
-1
-6
4
0
-11
31
-19
26
60
-6
-11
-22
-9
19
2
-5
-11
4
0
-6
16
-4
0
-2
9
0
-1
6
127
0
-2
-1
-24
2
-1
-95
64
1
5
4
-19
-20
8
2
-11
46
-1
3
12
-1
-1
5
10
-1
1
-1
33
2
2
6
6
-4
4
-3
-3
0
-2
-13
-15
-4
-2
-1
-15
3
3
7
-18
7
-1
36
6
-62
16
29
7
7
7
4
-17
-29
8
-10
3
28
4
-4
8
-2
-1
1
6
3
0
-9
1
-20
0
-26
-5
-127
-2
1
3
-3
2
35
81
-5
2
0
-25
0
2
-3
8
-1
4
21
23
-33
3
-34
3
-8
-2
-9
-9
0
-2
-9
-19
-1
-24
6
3
84
-37
49
-9
-8
2
40
-20
-127
127
-14
-6
-5
20
76
22
-61
26
-7
3
0
0
0
0
0
0
0
0
0
-1
1
-10
-1
-1
-3
0
-3
10
3
14
-19
-1
-4
8
2
1
-1
-8
-2
-1
1
-3
-2
-1
4
12
-1
3
127
5
4
0
0
0
0
0
0
0
0
17
51
-32
-64
30
-46
0
-17
-5
-5
-18
5
0
1
-10
-3
30
88
-3
-84
32
2
-6
-8
-100
-78
-14
48
-35
33
-2
-2
3
4
14
2
1
13
-10
3
4
-6
14
-2
-2
-8
-1
-2
-1
0
-6
0
3
17
-2
-4
-1
-1
18
-1
-2
2
-6
1
3
-5
127
2
-3
5
-5
1
7
1
27
-2
2
7
9
3
1
-1
6
0
-2
-1
22
-1
3
-2
0
-1
2
-26
-12
4
110
0
7
0
2
-52
0
5
-1
-1
-24
-2
-2
1
-4
1
1
-7
-14
10
4
29
24
-11
1
-1
11
1
0
11
9
9
3
1
49
4
1
-4
14
1
127
-5
29
28
14
-43
-5
-8
-5
9
11
-25
3
-5
12
-3
-3
7
15
2
-1
-6
6
6
-3
4
-18
-6
0
25
10
7
-1
6
-13
4
-2
5
-14
1
-2
-2
2
-2
-1
-10
87
-5
-1
-2
17
0
0
0
-15
11
-6
-7
9
-6
-3
-11
-11
10
14
-17
20
26
-39
-21
0
9
58
-40
-15
63
-101
-15
-7
12
0
0
0
0
0
0
0
0
-2
-3
39
-1
-1
3
8
-2
-1
-4
16
1
-1
-2
-2
0
0
4
12
-5
-3
-15
4
2
-1
-3
-7
3
1
4
-30
-4
1
-4
26
-1
1
25
-1
2
-5
5
73
-6
1
0
-7
-68
20
0
3
4
11
-12
8
65
-16
-5
-14
6
5
18
-7
2
-5
28
-127
-20
-3
-12
9
1
21
24
-11
-9
-11
10
-4
6
-12
27
-108
-1
-34
-1
10
-40
24
41
0
-54
-2
-7
6
-7
5
0
-3
-27
0
3
2
9
-40
-9
-8
26
5
-6
-17
-15
11
36
-43
-16
6
1
-11
7
11
3
-1
-11
64
2
15
24
-8
6
1
56
-8
-1
-8
13
102
-89
1
-22
-13
2
21
-8
-5
-17
-17
-15
127
-4
-18
-1
65
-12
15
-53
0
-78
-30
-6
-21
6
66
3
-8
24
3
-14
-10
-10
-1
12
-29
9
-28
20
20
26
75
20
-7
-13
-2
1
0
27
0
-2
10
0
6
-12
-1
0
9
61
-3
-1
-5
5
44
-3
-38
4
2
-57
-3
-1
18
-24
1
-18
13
-19
-11
18
-26
37
15
60
2
11
24
11
23
-13
43
36
-5
-70
10
-9
-62
22
-40
19
0
-85
30
9
0
0
0
0
0
0
0
0
11
12
14
4
-65
-2
5
11
-12
-5
-35
-2
-10
50
-4
-21
5
6
-5
19
7
1
-2
12
127
34
0
-47
1
-4
12
33
0
0
0
0
0
-1
0
0
19
-28
-36
43
12
-84
-4
3
-6
0
-2
-17
-42
5
-14
-29
-9
37
4
24
1
-72
-2
6
-1
24
-20
29
-7
127
0
0
29
127
5
32
-4
0
-16
-7
-17
9
-4
-87
6
11
-5
-26
-6
18
-3
0
14
-1
-3
-9
22
-3
1
64
1
7
13
-3
-10
8
-1
123
-10
-2
-127
-122
3
31
11
40
-9
5
6
12
14
13
3
3
45
0
-1
-5
28
-19
9
3
41
0
0
13
-9
-47
-99
-9
-4
-63
-16
5
-2
3
-2
-85
4
10
14
-15
60
-111
-11
-104
-10
-4
31
-14
7
13
5
-13
85
4
12
6
-11
-6
6
111
0
1
-7
-26
11
-3
-4
27
2
-99
-10
-8
-11
-9
11
-17
-12
22
-3
-12
-81
57
4
-62
68
10
-28
-127
81
-104
1
-52
99
-14
9
123
-80
66
10
-109
36
8
10
123
-57
-7
-3
-3
5
-3
2
1
19
16
0
-9
38
9
8
28
-6
32
7
38
38
13
-22
14
1
-27
8
-15
3
-60
-1
-5
-10
-35
-104
-19
-9
-43
15
2
0
0
0
0
0
0
0
0
20
3
-3
15
6
-7
-19
-106
-1
7
-4
-40
0
-3
-21
14
25
-20
5
127
3
-1
7
3
-43
8
-11
26
14
-1
-13
-12
46
-39
5
-12
51
-1
-16
-112
3
4
-124
40
-4
7
7
1
15
9
0
0
-1
-3
-2
-3
3
0
0
-20
-88
-12
4
9
1
3
0
19
43
24
9
-11
1
-12
0
-5
1
2
-127
1
-64
11
0
-10
-6
31
83
18
54
-17
0
-5
2
19
1
1
-1
2
0
-8
0
78
3
0
50
-10
0
17
0
-51
-7
-6
13
-10
0
3
-1
-46
53
3
89
-14
0
-6
-1
-7
4
-4
13
-6
0
-6
-1
10
-5
96
53
-24
0
-6
-4
-9
-1
4
10
9
0
19
0
18
3
-2
-24
-9
0
127
-3
24
1
6
-1
1
0
4
5
13
27
-9
-127
-6
0
5
0
11
1
-35
2
-8
0
4
3
-28
51
1
20
-8
0
7
-1
-17
-1
5
3
0
0
-1
1
-25
2
56
-26
-2
0
27
3
-5
24
-1
-42
-47
0
-6
-2
-7
0
2
24
13
0
108
1
-32
5
-3
12
9
0
-49
29
-8
5
-1
-3
-7
0
53
16
25
-7
7
0
0
0
0
0
0
0
0
42
22
0
-10
1
36
-6
9
-9
3
0
14
3
-6
-44
-1
-2
-4
0
-2
2
36
0
67
-2
7
0
-12
1
36
2
3
1
0
0
0
0
0
0
0
6
-3
0
63
14
-16
-5
1
-108
-2
0
18
-2
-9
-5
13
16
-4
0
32
32
0
0
-16
14
-2
0
22
-127
-11
9
-6
-12
-13
0
-7
1
34
-5
18
-18
-11
0
8
-2
-19
0
-127
17
-8
0
8
0
-2
-7
-20
-2
0
0
1
1
116
0
80
-3
-3
0
17
3
-127
7
17
70
47
0
-14
4
33
0
-17
20
-95
0
-15
-3
18
0
4
-10
-40
0
-12
1
22
-7
-10
1
-3
0
-41
125
-38
-23
7
-23
1
0
3
0
51
0
-66
45
-13
0
-4
7
59
2
-9
27
64
0
11
-1
-24
-1
-7
-35
0
0
2
3
-100
3
-21
10
5
0
-8
117
13
8
0
-17
-4
0
14
-10
26
74
13
85
32
0
-2
-5
-42
-1
6
-27
40
0
-18
-3
-45
-11
11
77
-9
0
19
-1
-17
5
-1
23
-19
0
7
-3
-57
3
8
-8
127
0
17
-3
-19
-2
1
-93
-9
0
8
0
-11
-5
-5
14
-6
0
17
-31
-2
10
0
-8
3
0
-15
-15
-24
-7
15
0
0
0
0
0
0
0
0
24
11
0
9
-1
-16
-5
-8
-35
-9
0
15
0
52
-2
60
-28
-3
0
0
-4
51
3
63
23
-6
0
11
-1
49
-5
29
-23
-13
0
-6
1
-22
6
-20
11
1
0
-8
12
-16
-25
-7
-15
-29
6
0
-18
5
7
-1
-1
-2
-43
0
-1
14
-8
6
13
-15
-31
0
5
-16
-8
26
1
10
18
0
9
-2
-38
-31
9
-68
45
0
39
-88
118
-5
-3
30
-45
0
17
-17
-53
-4
8
2
-80
0
-13
20
4
-1
9
7
-7
0
47
-25
-9
-1
-2
12
100
0
10
-13
-31
85
-9
17
11
0
-5
108
75
-5
-45
-2
0
0
-6
87
-1
2
7
80
0
0
-115
5
5
-16
-22
21
-25
0
-20
119
-62
-6
-20
127
-127
0
-13
52
-3
-1
-15
12
20
0
-21
62
-18
-29
28
-8
-22
0
-33
2
-9
4
-1
-1
-121
0
25
-21
-24
-127
-11
5
70
0
21
-8
4
0
28
-24
7
0
7
-49
0
0
5
9
-20
0
3
-13
-32
-8
2
-5
33
0
-17
-2
-31
-4
15
-109
1
0
8
16
15
-9
0
-37
-33
0
22
-6
-10
-8
11
-74
71
0
-4
-69
28
4
0
0
0
0
0
0
0
0
9
4
10
0
17
-112
59
10
-3
3
-1
0
-10
42
-3
-65
-43
-3
-2
0
-2
-5
4
-1
-6
63
-33
0
-127
0
3
5
0
0
0
0
0
0
0
0
12
44
-21
0
1
-30
-45
-13
22
-8
-1
0
12
-81
-120
6
-5
24
-26
0
-7
-40
-32
-4
-18
6
-7
0
-5
2
2
23
2
22
-104
0
27
-3
0
5
6
-2
-14
0
-4
-88
-12
-1
4
3
25
0
24
-32
-13
1
77
22
5
0
-1
-87
-6
2
-102
33
8
0
13
127
19
-1
-20
8
8
0
-13
23
92
5
2
-7
-13
0
1
88
127
-5
0
-12
-7
0
-3
37
110
1
-26
36
19
0
-4
40
4
-7
127
13
-10
0
-7
98
8
2
-5
-18
22
0
4
1
-16
3
-12
24
-5
0
-12
5
-64
1
-102
19
8
0
-7
-89
0
3
-6
-27
-51
0
2
9
-19
11
2
-1
-14
0
-11
13
-4
39
1
56
101
0
40
49
34
1
-10
16
-85
0
-111
62
80
16
-3
-75
105
0
106
31
18
-13
13
21
61
0
-6
-28
-26
-5
-4
16
-10
0
10
-67
-103
11
-4
-43
41
0
40
71
111
1
10
6
-48
0
0
-3
25
7
-10
-11
39
0
7
-19
16
-4
0
0
0
0
0
0
0
0
-12
17
-16
0
14
8
19
-4
-53
-5
-15
0
-9
82
-16
1
-68
0
10
0
-15
27
-15
-2
-16
21
65
0
33
-6
-11
1
10
113
-38
0
-14
9
39
-2
13
7
2
0
-9
42
-19
46
-23
-15
6
-17
-81
-3
24
-34
5
16
-3
1
-16
1
-89
-10
-15
-40
5
-7
5
-2
5
-1
18
13
4
13
-6
-3
13
-10
6
-4
9
-32
87
-15
-17
-16
5
7
0
-57
-41
2
-12
12
5
-13
0
3
-50
-7
6
-9
-10
101
-25
-60
-32
9
-82
11
23
19
2
2
-10
-5
-8
-1
0
-9
-63
8
19
-7
-17
-73
-3
2
-1
-2
-28
57
-30
-3
-9
0
1
-7
-19
10
-29
3
3
16
-127
-51
-35
-31
-56
91
-127
-48
2
8
-43
-21
-46
23
0
9
5
-4
-37
-2
-25
-30
-4
4
10
-53
-63
18
-13
51
17
4
-1
5
-7
1
24
-9
4
-21
-13
-47
17
12
-21
0
-3
0
5
4
1
65
36
13
-20
29
-5
6
50
-1
-12
-1
-11
5
1
-30
-8
-6
-7
-19
-120
-121
4
-11
32
19
108
19
39
8
2
-17
-3
6
127
-13
-38
-54
0
0
-4
9
-55
-27
0
0
0
0
0
0
0
0
-4
-3
117
23
19
40
34
-89
4
2
3
-26
-63
1
0
-23
0
-2
-5
-7
-7
39
13
4
24
-127
-4
-3
-84
2
-21
-3
0
0
0
0
0
0
-1
0
-16
6
3
24
11
1
-63
7
-2
7
74
-7
10
18
25
109
-7
-29
2
6
-26
-2
-70
-20
-11
-17
1
9
19
4
66
19
17
16
0
3
-52
0
10
-19
3
6
-26
-42
43
-81
5
33
7
-9
-18
-52
3
4
7
12
2
-4
-6
-2
-15
127
-7
-7
-2
-14
1
-15
68
5
-40
-4
-7
2
27
36
-27
-14
-23
-127
8
-7
-40
-115
-1
35
-4
-52
-1
-2
-29
-63
16
34
-4
-38
14
79
-6
2
6
0
-63
-2
2
2
-8
-17
-25
24
-13
-6
4
-76
2
-14
-7
-3
-77
5
-5
7
-104
-43
-6
29
-32
48
6
-5
3
-3
43
-30
1
-5
-5
-7
4
-12
5
-1
-20
-4
10
1
5
-11
-30
1
12
-15
28
5
-33
-93
77
22
-1
-7
8
-21
-37
-92
-127
7
-50
-21
-5
6
-4
-111
-51
5
23
13
3
32
-4
-66
-7
17
5
10
-11
23
-28
84
-7
-5
0
45
-14
21
-17
1
59
9
9
-42
27
18
-3
16
11
-3
-11
0
18
16
-5
-14
-5
2
8
-18
0
0
0
0
0
0
0
0
28
3
1
-13
55
-4
-18
6
-11
-9
-14
-44
-32
37
-28
26
-3
18
-2
3
31
-3
26
-7
-4
12
-45
-79
-4
6
-5
11
6
-13
-19
-127
36
8
-63
23
-7
-9
3
13
7
3
-26
-12
-17
-7
12
-8
-127
-11
0
-51
6
-3
7
-8
2
-41
1
-9
4
0
-1
7
-3
33
5
-24
10
0
-5
7
1
-49
2
2
-37
-21
-13
-4
-22
-61
-13
28
-100
-5
-43
-9
-19
-127
12
8
20
0
2
-4
-1
-39
-3
-4
-127
20
-6
-9
-1
-119
23
-67
5
2
1
-1
-3
-63
-5
-6
18
83
-9
1
30
-15
-29
-9
2
0
6
1
-2
11
-62
-17
-12
12
-104
-11
-49
-42
-11
68
11
127
-6
2
2
44
-21
-26
-20
2
-13
24
55
-85
-5
80
-1
1
-2
3
-5
14
-9
-2
15
-36
1
-6
-52
32
34
9
-2
-2
-10
1
-10
73
-1
-7
-39
1
-4
-1
-4
14
-3
6
1
0
1
-2
11
-10
3
5
-7
0
-4
12
15
-17
0
-5
-2
-42
-3
-3
26
-1
-5
10
22
3
12
-5
-42
105
8
-73
-3
0
4
-5
-10
38
1
-31
15
-6
-3
-6
-26
17
0
-37
0
0
0
0
0
0
0
0
-5
-71
-2
15
-29
-32
45
-5
-2
5
-1
-14
-11
12
-7
1
-7
0
-7
-2
-10
7
-127
1
2
-3
-127
-4
-65
-2
3
127
0
0
0
0
0
0
0
0
2
6
3
-4
21
-5
0
10
11
-102
12
-5
-28
26
27
6
18
-3
-3
5
0
-10
1
-34
0
2
-3
6
-2
-5
3
-28
-13
8
-11
15
-6
-68
-9
-13
6
-7
-4
16
10
25
54
18
-41
16
4
-6
3
14
4
-17
-10
-2
-17
-45
-8
1
-42
1
2
1
-13
15
39
21
-14
45
-22
28
-3
11
4
-10
31
-15
125
80
4
11
14
-33
27
10
72
93
6
6
12
9
36
4
-5
-1
6
-1
-1
-41
-4
30
3
-2
-5
14
8
4
127
15
-6
8
-65
-24
-52
-116
6
93
-36
114
4
-4
33
15
10
-10
0
-8
6
11
21
9
-20
14
1
1
5
0
-1
-4
1
13
-4
2
-6
-12
-30
8
-4
-17
4
9
54
-8
75
112
3
-11
11
22
-54
-14
-117
-79
3
25
2
24
52
-16
-123
120
-7
-85
-69
-11
-7
-22
12
-64
12
-16
-95
29
4
-12
33
-16
-2
-3
124
75
51
14
57
53
5
-19
1
1
2
-7
-1
-6
0
-5
-8
-5
-2
-2
-6
8
-3
7
0
0
0
0
0
0
0
0
-11
-3
-11
2
65
0
-8
43
4
-3
-5
-23
-41
16
-80
-9
10
-4
-7
-127
-14
-29
-33
7
-71
24
3
-7
-17
26
1
-48
13
31
-48
-4
116
-31
14
103
-1
-1
3
13
7
6
4
7
10
-15
62
-1
-25
-48
-2
-67
35
7
-4
-75
-47
-4
40
6
-19
20
32
-57
38
2
127
-5
-17
8
-40
0
14
-8
-10
14
-33
2
79
46
-10
0
12
-9
14
114
-38
-15
24
-11
-2
-37
2
-76
-5
16
2
-6
0
-4
-1
-15
-25
-25
-20
-9
0
-38
-26
-4
-55
18
29
-10
-14
9
17
28
46
4
14
40
2
-101
-7
-13
1
-15
-9
8
1
-2
-1
-80
-47
17
-8
-14
3
56
2
23
-96
-13
93
-37
5
-109
-127
13
58
55
-72
-11
9
31
-4
31
-66
20
10
-4
-6
-3
-9
-25
-90
-13
21
33
-4
5
-10
-5
-36
17
10
-11
-13
5
10
125
-7
-22
15
6
0
-38
4
9
4
3
6
105
-6
-6
37
6
-121
-28
24
6
16
-2
11
-59
124
-37
-11
1
3
-26
-103
15
88
39
127
19
4
-28
5
16
-52
53
42
0
86
-13
-34
-4
-27
1
62
11
6
-12
0
0
0
0
0
0
0
0
5
-20
91
6
-70
20
-9
74
-16
8
-89
-10
18
0
-9
4
1
-6
-16
-9
11
115
1
-7
-28
94
40
12
-1
-2
-5
31
0
0
0
0
0
0
0
0
65
26
-127
107
16
4
15
-1
7
5
-86
-1
-11
-38
5
67
3
36
-48
62
33
-1
19
1
-13
10
-24
-32
38
1
-19
-10
11
127
-17
54
15
6
4
-7
5
21
-77
-5
37
112
0
-4
4
-13
-17
21
4
-3
0
-58
12
-30
-16
-3
-3
-36
-1
2
-2
11
-57
-3
-25
-24
-1
38
-1
-13
77
-5
-36
42
-10
5
19
-18
79
14
6
-14
1
-74
-1
-65
47
0
18
-33
0
-20
15
-23
19
127
-60
-3
6
10
3
-12
-27
4
7
127
1
-8
7
-86
17
-35
5
-16
6
42
-5
38
-71
13
80
-28
0
-83
3
38
-4
23
33
-80
-1
16
3
5
13
-61
-14
-3
67
-1
-14
10
-89
3
11
-1
-8
-16
-49
10
77
-30
23
-12
-6
39
-16
-47
58
-17
22
0
-8
31
-2
53
-50
15
86
0
0
-47
-2
-48
-1
-13
8
2
0
-70
-7
20
-112
-4
32
4
-7
17
-5
-52
71
-15
-18
-5
-1
-5
43
6
-90
-51
18
4
-31
1
-9
-7
57
-114
-18
-1
-13
5
0
0
0
0
0
0
0
0
-24
-16
60
11
-25
-23
-8
48
-4
-3
-45
-15
-19
110
-1
-49
3
3
1
-6
21
4
3
-2
8
-40
-26
-9
4
-18
4
-87
8
-31
-52
17
47
22
2
127
6
20
2
5
8
-5
13
6
-10
1
-51
0
10
-16
42
22
0
-92
-14
-3
-2
10
3
77
2
-63
14
5
-4
1
12
-33
-12
0
-16
0
-12
-10
-11
2
16
0
42
3
-8
23
17
6
53
1
-21
1
4
-111
-18
-7
14
-1
1
-1
-4
-17
38
5
44
-1
-39
4
3
-47
14
-29
-4
-5
-18
0
-9
-11
2
3
-37
0
-1
14
72
5
13
-6
0
0
11
-18
-127
0
41
90
6
0
-9
-1
0
67
-28
-7
-62
-1
-21
-15
-6
-16
45
-18
2
-8
-2
-14
0
40
35
-117
5
6
35
5
23
6
19
7
11
-1
91
38
87
10
13
-12
-4
-1
-18
1
-8
7
5
4
-20
1
-14
-5
7
32
-9
8
6
-1
-2
23
-8
-2
54
-16
5
1
-4
-5
-1
-7
-13
-18
-35
-1
-10
0
-6
-5
-11
-16
2
4
0
10
6
-54
-25
-80
-3
-29
18
4
-2
-19
-9
72
-8
-3
-13
11
10
-11
57
-127
0
0
0
0
0
0
0
0
80
0
-41
35
64
13
-29
15
5
1
42
2
9
7
21
2
-2
1
15
-56
-44
-2
-42
-4
-23
-1
-5
-2
1
8
-50
3
0
0
0
0
-1
0
0
0
3
6
-9
7
0
-2
-15
-53
17
0
25
-28
-54
-13
-41
-9
-5
6
-12
3
-7
11
-13
-33
0
-93
4
0
-4
-3
0
-58
27
0
3
3
-16
-83
12
35
1
2
67
-2
35
-15
-125
-113
0
0
-24
-6
-9
5
36
1
6
0
12
38
3
-3
-127
10
-8
0
27
-30
-52
-3
-35
100
44
1
-75
-97
-98
11
-29
48
-65
0
82
3
10
1
1
2
-127
-1
85
2
-19
-26
-10
6
2
124
-11
-11
4
5
3
119
-6
1
19
-127
-106
-4
9
-22
12
3
-35
-4
-6
127
-1
-14
-125
0
-61
1
-4
2
-5
-6
-3
1
-5
-21
-106
-4
-70
-37
1
127
12
-1
-4
7
23
-11
1
-11
37
-4
1
1
20
0
8
-1
-115
7
24
21
6
2
25
-1
-20
-4
-20
17
-16
14
22
1
53
-11
-24
-2
-8
-33
8
0
-26
7
6
-21
-4
-8
-61
-1
-74
-3
24
4
-17
5
-24
0
121
0
-11
27
20
7
-1
-6
40
-4
-7
17
39
-26
-1
45
-15
7
7
-9
-5
25
0
0
0
0
0
0
0
0
6
0
-23
-5
6
0
-38
19
-3
0
50
6
-31
-8
70
34
15
-2
-16
-20
-9
1
-6
40
32
-1
-30
-12
-17
19
110
-2
13
2
127
26
-2
-5
-1
26
0
-2
-6
2
7
-8
-13
-10
-5
3
34
103
-76
11
-55
-87
21
-2
-10
16
-9
65
-27
-10
83
-2
-21
-5
6
-11
8
-1
-17
0
28
75
-16
1
-17
-39
-17
-1
-69
-80
-5
4
4
-31
-3
-1
0
19
8
-3
14
-17
13
-9
-17
-25
26
-3
21
9
51
2
-19
-65
-8
3
4
58
-45
12
-15
-48
-50
-54
-87
10
32
-1
26
-38
78
-7
55
29
10
3
-78
10
-41
25
36
24
2
6
2
-8
4
16
9
-10
-6
-4
13
-29
-4
-4
30
24
-15
-1
-3
8
5
4
1
25
60
1
27
40
9
9
7
-31
1
0
-2
-2
0
-11
-2
4
-11
2
-2
-14
-27
14
-26
-3
10
0
-36
9
-3
-11
-17
35
114
1
-4
-106
-8
14
11
36
-39
-2
-20
-2
63
6
117
115
127
1
-16
15
29
2
47
29
57
0
-19
-82
-4
1
15
82
0
0
0
0
0
0
0
0
46
3
-9
-32
40
4
76
29
4
-4
-22
-15
-13
-14
-18
-14
-19
-4
18
-9
-28
-11
-93
-47
-1
1
-14
-6
2
7
11
48
16
-3
13
-16
65
-7
34
28
-30
-1
1
41
7
-9
14
-21
-26
-5
15
-15
-2
20
3
-19
44
2
-20
-32
-7
7
10
89
-57
-2
-2
86
-15
-30
57
27
15
0
4
-4
9
-29
4
-10
-14
0
36
44
45
-7
83
43
-5
-1
-21
-26
10
-13
12
16
1
-5
-33
-50
32
-17
-14
61
59
0
0
14
-23
6
-31
-7
20
4
-18
6
14
4
-1
8
11
-2
-1
-5
-13
1
-30
7
5
1
2
-1
14
90
14
-1
16
-1
5
-22
19
19
12
-7
-2
1
1
-40
-10
1
-7
0
-10
1
26
-10
7
6
42
-29
-41
12
-10
-49
21
82
-27
15
-9
2
21
-8
-13
42
32
14
0
0
0
0
0
0
0
0
6
1
1
-3
5
-47
22
-4
-45
5
73
41
67
-10
97
51
0
0
-25
-24
-71
8
-96
-37
-45
-4
2
98
-127
58
-94
-70
-4
-1
2
-17
-17
-20
-23
-40
-7
7
24
-15
-11
3
43
-12
-10
0
-1
-29
9
-4
73
-7
41
-2
-14
-17
12
-12
16
7
16
3
-8
-31
12
-11
10
-6
-19
5
12
6
0
50
7
11
40
0
6
25
18
-7
25
2
9
1
-41
14
-1
3
-40
31
-18
1
23
38
-4
-19
8
-17
2
127
-14
3
1
40
-21
11
-40
2
-11
-9
-36
9
-27
-6
-8
-2
12
-10
31
-14
26
-2
0
8
6
4
-12
-12
8
-15
-46
-2
-1
-75
26
5
-49
4
-17
-1
0
-10
-7
-45
-31
15
-9
7
-14
36
-51
-16
-77
-45
34
0
-19
-113
-6
42
-5
49
45
11
-5
-26
61
-127
17
23
-5
-1
-3
13
-11
-47
21
-9
-24
3
-11
1
-42
3
-68
-18
-56
-1
-20
-10
-58
-2
-68
-26
-57
3
-5
-53
-11
-53
-44
15
-24
-4
12
7
-21
-3
3
-11
-32
-2
-12
-4
-50
-14
-91
-39
-8
7
-12
17
14
93
23
22
-19
0
-10
-35
18
13
-3
-23
17
1
2
59
-7
-1
2
5
6
-8
4
6
79
-9
26
21
-10
-3
-5
-26
2
-9
-22
-9
-3
1
7
-18
43
14
23
7
-30
-1
-31
41
-23
-15
-75
50
-22
5
-23
94
12
5
-3
16
0
0
0
0
0
0
0
0
-23
0
26
40
-26
10
-30
-28
11
-6
1
32
-17
6
26
-8
-50
-1
-10
-82
34
4
-56
-14
75
12
-12
41
-13
45
36
6
-35
-1
-10
-8
14
-5
7
14
-53
-2
-5
-15
17
0
3
8
42
0
-15
11
8
2
30
-12
-21
-2
-6
13
-23
-4
-65
-36
0
0
0
0
0
0
0
0
-9
2
21
17
-47
13
-11
-46
9
-1
7
-14
2
-4
2
16
24
11
127
81
-20
39
41
-16
54
8
-7
47
-4
16
36
7
16
3
-3
18
37
27
12
22
-17
-6
-6
3
-57
-18
-85
-39
15
-3
-51
33
-50
-24
39
41
-26
0
26
-54
-28
16
-127
-78
28
5
1
17
-2
-1
3
9
12
0
8
70
-30
-6
-21
-40
69
-2
-19
20
27
-3
26
7
-44
-4
28
81
-17
-26
49
31
4
-1
-42
12
-33
6
-98
-5
90
-2
29
127
34
1
112
-15
-12
-4
18
22
14
-3
16
-34
-63
0
-10
-65
22
8
-43
-2
-8
-1
-1
-18
49
26
13
40
-13
-1
-13
-2
-37
9
-69
-14
-28
0
22
77
-16
-6
-9
-24
-3
-2
4
17
2
0
-1
-2
43
-6
-16
16
15
76
26
34
10
1
1
15
4
2
11
11
7
2
37
6
-13
21
23
-4
11
7
15
-3
-4
-1
16
-23
69
-4
-5
17
13
-6
1
-7
107
0
-16
-121
-4
14
23
36
30
-37
-19
-20
-6
60
-12
27
-11
2
8
29
20
-6
24
-10
-18
2
-8
-15
40
21
101
9
8
-4
0
12
2
9
10
-11
2
-1
-34
-11
25
3
0
0
-18
0
1
-32
2
5
3
23
-28
-3
13
61
5
-5
-19
-127
-8
-2
-3
-14
-17
6
-44
-12
91
-3
-23
3
31
-5
41
20
99
0
-24
-86
8
12
19
38
-30
11
39
28
-38
1
10
4
127
11
-51
-11
-4
-3
-2
-19
16
17
-19
70
22
-7
101
9
5
-4
13
-4
7
48
108
14
-6
7
23
-126
120
50
-39
-122
-15
4
9
-8
0
-34
-18
60
-48
-6
-9
11
1
-39
-8
21
-7
-13
-5
15
-53
-90
-17
7
-14
-9
27
-37
-14
14
-44
-48
-17
24
-53
-47
-16
12
6
-26
-2
6
-1
18
-71
-30
16
39
-38
-7
3
1
3
24
5
8
-17
-16
16
-27
4
16
-3
-7
-1
3
4
15
-12
-21
-20
12
0
12
40
24
-35
25
-58
29
1
9
-17
-47
-46
-64
-2
42
-2
-10
-16
3
6
-60
10
13
9
7
-23
-6
-29
3
-6
-17
-18
22
-16
-22
-36
-36
101
-15
-21
38
-44
-32
-77
13
56
-42
-4
-6
-16
-32
-8
-12
12
24
2
119
-21
-31
-21
-99
-11
-29
0
0
0
0
0
0
0
0
-7
-2
-6
20
3
8
-28
-1
6
-10
-3
49
-41
-27
-44
-54
-4
32
-3
23
-10
-16
-48
3
9
52
-2
-10
-53
-4
59
-12
-26
-53
-46
-5
27
30
-20
0
2
-8
10
67
20
44
-50
48
-3
-13
8
-19
35
-4
25
11
-1
4
-10
14
-35
-65
-25
10
30
26
26
34
-33
93
22
45
-7
-1
10
-2
5
1
-4
10
-5
12
-13
-15
-9
-16
58
3
2
7
1
-23
-38
109
66
-11
-8
0
-34
-3
-8
51
2
-4
3
-38
9
-17
-28
64
33
-27
-6
1
-12
5
-3
12
25
-38
-5
-23
9
70
4
21
13
-92
94
-3
-2
0
1
9
-3
1
-37
-12
-16
2
34
-15
-58
3
-7
15
-6
-43
-2
-71
26
-41
6
-18
15
-11
28
9
20
-9
-33
-9
5
-19
3
10
-16
-11
22
-15
26
-19
-6
-1
-1
-2
0
0
0
0
0
0
0
0
-12
-4
-5
-7
2
-1
21
10
30
-37
18
78
-11
-47
81
82
-4
-10
13
-31
-14
-75
-14
-55
-76
16
127
16
9
-18
-34
12
21
8
8
-36
3
-33
42
0
-12
3
-5
-15
-9
7
-4
-19
25
-21
-5
32
45
-34
-69
-14
4
-9
13
-1
-42
127
65
-17
-20
-25
-1
-35
17
90
-10
-3
-9
-11
-8
-7
12
-27
7
-16
0
-7
16
22
-28
64
-3
-23
4
3
8
22
-11
4
-9
10
-27
-13
51
35
-8
7
-8
-12
-4
-14
15
-11
-4
-32
-14
-7
4
-2
-11
10
9
-37
13
10
-58
6
-34
16
-12
21
48
-24
-4
-5
25
-10
10
-2
-6
1
1
20
10
-36
-18
121
-48
-67
55
-9
-13
11
-15
2
20
4
-9
1
51
0
-2
-15
-43
5
-40
92
-35
-26
-33
-57
17
-32
26
24
-86
-25
7
-16
10
-21
-15
4
5
9
2
9
-1
6
4
0
14
-67
3
-77
-23
38
8
-9
-5
-32
-10
-25
-6
-24
-25
-8
4
-42
-28
19
-53
-65
-1
-4
2
8
-6
31
29
11
1
-1
13
33
-3
-88
-37
-53
-70
-7
14
25
-2
-9
18
35
-4
-9
13
-23
103
-27
8
-10
5
-8
11
-69
-48
-62
-80
-127
91
-2
-74
-11
9
22
18
6
6
-54
-10
36
7
-77
-69
-54
-38
1
-20
-22
-33
-39
-13
-61
5
24
-13
-24
-127
28
64
-35
15
-46
44
30
21
35
0
3
0
0
0
0
0
0
0
0
6
1
36
4
-13
24
35
27
16
4
7
-8
11
-1
-1
22
5
48
11
-42
-27
81
-71
-47
-41
-12
22
52
12
4
42
58
6
7
-1
11
-39
109
-34
-8
11
22
0
2
-40
104
15
1
11
-32
1
18
28
-22
121
57
4
6
19
11
-19
-49
-34
29
0
0
0
0
0
0
0
0
5
-11
26
2
26
7
-36
-7
-1
33
-7
7
-17
31
8
18
-11
26
38
101
64
-51
127
98
-20
-5
9
37
16
19
40
48
-44
4
-4
-2
4
14
33
-2
3
-29
27
86
-31
-37
-57
-105
4
2
-20
58
35
6
51
70
-19
5
25
-59
-24
8
-23
-27
-11
-24
-20
-3
13
-27
108
-40
12
-16
5
-32
21
-4
88
-12
8
-1
2
5
-14
54
3
53
5
-85
40
0
8
13
-26
6
1
11
51
16
8
44
-52
33
-2
10
33
-21
30
-12
-49
-25
22
-8
27
9
16
-30
-10
3
1
15
11
-44
-38
93
-52
-42
-38
-3
-10
-59
-38
-73
14
-58
-7
-10
11
-36
-28
-73
-22
17
9
-29
11
6
32
60
84
-10
5
-26
11
-127
-1
-4
-36
121
-75
-32
-14
-39
65
48
7
-23
11
-1
10
2
-14
-27
7
3
-1
0
23
35
-7
7
-6
34
-3
0
10
-4
14
-7
5
-3
-3
-26
12
57
38
-10
57
-22
-24
20
-21
-24
-49
-38
81
-46
-13
1
-12
11
-4
-2
15
-15
-25
2
6
36
15
-2
24
58
-13
13
-35
-3
13
-43
-32
-1
-9
4
19
-3
3
9
-6
10
-3
28
18
116
-47
8
-75
68
-4
1
-1
-12
-33
14
31
-2
3
24
30
-17
36
80
45
14
1
-4
21
18
-1
-55
-19
7
15
-2
8
14
-49
81
73
14
-20
127
-62
-38
-81
-83
38
-45
14
-38
4
35
79
15
13
-26
-7
2
-30
14
14
-19
0
19
20
-60
-44
-34
33
79
-5
-15
-55
-54
-25
-66
6
-3
-15
9
12
-28
38
-84
-127
127
0
32
-20
-11
23
-23
3
-12
4
12
-17
21
-8
-5
21
-29
13
11
107
29
13
-7
-10
42
11
9
7
101
0
22
-18
3
8
-8
-23
7
-2
24
-11
-112
-4
-38
-3
8
60
25
24
96
-45
17
2
10
-5
-2
20
-9
4
8
-1
13
-2
7
-9
3
-11
1
6
-13
0
-3
-3
0
-7
-8
-8
-39
2
-23
12
-21
6
-21
2
-3
-19
-39
-20
95
-3
-3
11
-1
9
6
29
22
-4
-10
-13
1
13
-21
32
31
23
28
99
51
4
-40
0
35
8
7
33
-70
-4
73
-31
-22
28
-127
-5
-59
18
5
26
-36
22
5
18
28
17
56
2
-76
14
17
0
0
0
0
0
0
0
0
-3
-46
22
-18
-35
49
16
29
-21
7
1
-14
12
-12
2
-4
14
41
17
-20
70
-33
-17
-41
13
-4
-4
-35
13
39
6
1
-9
-7
-36
33
-64
-47
-7
-7
-6
8
7
-16
26
41
0
-16
-2
11
-5
33
6
-1
-12
-3
124
29
15
-4
-8
58
14
18
-28
11
8
42
70
6
79
-20
-5
3
-9
-5
-3
-15
6
23
-11
-44
-19
50
-28
17
4
-101
-9
-57
-1
-16
-10
13
-6
-16
48
-1
14
42
34
22
-7
44
-7
3
-5
9
-7
4
8
-36
-6
12
28
-17
0
-5
6
-8
-8
2
-2
78
10
4
0
3
1
-2
0
4
2
-2
-1
6
9
17
-15
38
-23
-24
6
26
-6
0
-2
-13
-43
14
1
9
-15
4
-25
-8
54
-40
21
-48
-6
58
9
7
-7
32
18
-11
-20
17
-9
10
98
-41
13
-31
0
0
0
0
0
0
0
0
2
-16
15
-4
-13
15
3
-6
39
-42
-44
76
40
-113
20
-10
-20
45
8
-20
34
60
1
3
21
21
-11
-65
48
20
21
13
9
16
18
4
11
-8
-5
33
13
-21
-12
-22
-57
13
-26
2
-9
-1
23
2
-47
-29
-11
-9
-25
-67
1
-36
6
-1
-10
-27
-3
25
1
-31
-32
48
0
0
37
-25
13
44
19
4
-11
-5
-12
-49
3
22
21
29
0
2
1
-19
-5
-17
81
7
6
53
-9
6
-44
0
-43
-10
-18
-35
-11
4
-11
-13
34
-25
-17
-28
7
6
10
8
46
36
-7
-7
-13
-7
-60
-19
-13
-32
-8
-27
-3
7
-2
-1
8
-8
10
-3
-16
63
-3
2
-22
60
6
17
-8
51
-35
44
-14
-46
6
16
-6
26
15
-40
42
-19
9
16
23
41
-13
18
-8
-3
19
4
-8
1
-33
47
-17
-39
9
16
4
-1
-11
-11
28
-4
4
12
-19
32
20
-77
54
-30
21
28
-11
58
-6
-19
67
37
-7
0
6
97
2
26
-27
-24
6
11
1
-9
-26
26
3
-21
-3
-16
-16
41
-44
-13
47
14
22
25
-2
-33
4
-5
6
12
8
-5
-1
21
11
-21
-4
16
-2
-2
28
40
-9
100
26
9
-13
-2
-14
-5
-18
55
20
-12
2
26
-8
15
21
35
16
-69
1
7
13
9
-12
0
-40
37
17
69
63
-26
-9
127
83
-50
-8
-17
-74
-18
-11
11
10
50
127
-36
0
0
0
0
0
0
0
0
-12
37
-44
-40
-10
-28
-5
0
-1
-6
-22
-24
68
-25
8
29
-16
67
10
-4
-18
87
10
-16
5
-65
20
-51
10
18
17
-15
-6
-4
-5
19
-1
-10
-7
-15
-16
-12
-9
-9
0
12
-7
-10
-24
-22
13
58
24
33
8
15
8
28
36
12
65
-45
10
-5
0
0
0
0
0
0
0
0
6
22
-46
-1
17
-12
16
84
-14
11
-14
8
1
-19
-10
-24
90
-43
-16
44
-46
-10
-122
-62
1
-46
-3
-28
26
8
6
10
9
-16
36
24
-5
-25
23
-21
-10
15
-70
41
86
38
15
15
5
-10
15
-53
64
6
41
6
-6
5
9
0
-82
-24
-23
-35
5
-32
3
91
-24
-21
-22
-26
-31
-26
1
-82
-14
3
3
-2
-12
-98
-1
-51
32
33
23
19
-43
2
-58
-30
23
-68
12
-58
-20
-10
27
-1
103
56
21
96
4
13
13
3
75
-9
-8
-25
-11
13
-38
-26
16
33
0
85
-21
53
31
-2
-2
21
9
-5
13
28
3
72
-55
27
18
55
-27
32
31
-15
41
-14
20
23
-40
-49
-15
-61
-2
1
-3
20
-10
-8
20
-29
22
-67
-3
-10
24
19
127
67
-13
-97
14
-5
-9
-20
-18
-14
9
29
-3
-12
10
-2
-36
8
-36
-38
36
-26
12
1
2
-6
-40
-2
-9
16
-13
-66
-16
-20
22
60
14
11
93
48
21
-24
-6
22
22
2
-4
0
-2
-9
35
32
-7
11
2
-34
23
-46
19
24
-10
53
-32
-13
12
20
-4
1
9
52
2
-3
-4
-14
13
-7
-1
16
-70
-63
-3
-75
44
-14
7
-51
-15
2
1
-6
0
1
-14
-19
-127
-26
-7
-9
12
-47
-8
-8
16
40
-41
-37
31
-12
1
36
-29
-127
6
-57
25
21
21
1
29
19
-67
-65
-41
12
25
15
-6
6
0
24
3
41
-1
-45
-12
-9
0
-19
2
15
-59
1
13
1
0
13
-30
-20
-11
-14
62
127
0
-4
-18
17
-3
-9
-34
-56
0
0
31
-21
116
54
-6
23
0
8
-10
-37
11
3
2
-25
0
-3
1
-12
2
-13
2
-36
0
-4
-2
-24
-18
14
-45
-56
0
-5
7
18
81
7
8
11
0
3
-7
-27
-75
-20
12
6
0
12
20
127
-68
-38
-4
-12
0
-24
-10
0
-25
-4
-4
7
0
10
-1
-9
50
-2
8
-11
0
-3
6
11
10
9
-9
-6
0
6
-7
22
-22
16
0
9
0
8
-21
-27
1
-10
-10
15
0
-3
-3
9
60
-27
20
-32
0
16
6
31
-5
-17
22
83
0
1
-20
-9
-41
6
29
60
0
18
3
2
-55
26
9
54
0
-10
5
-19
-29
-2
12
40
0
-5
8
10
12
6
0
0
0
0
0
0
0
0
11
-20
0
5
-16
-8
-37
28
-8
-8
0
19
-14
-30
16
-27
-13
-36
0
1
-37
-20
102
0
13
-23
0
-10
-15
-2
10
3
-3
46
0
12
-11
-11
-48
8
-25
-40
0
-11
0
-23
41
-23
-9
-56
0
-11
9
-73
-10
11
4
-21
0
4
11
15
-29
12
9
51
0
-30
5
23
-31
13
-11
-9
0
5
6
-1
-32
4
15
51
0
-1
6
35
-107
81
28
34
0
5
-6
-17
7
11
45
36
0
6
4
25
-25
11
-1
16
0
-5
-11
0
11
-17
-8
-10
0
-16
14
15
14
-26
7
3
0
-10
26
-27
43
3
2
3
0
1
-3
11
1
-3
-3
75
0
1
-8
44
-48
4
23
33
0
-5
-30
18
-18
20
-27
15
0
-6
12
-72
-32
9
-6
-13
0
-13
-1
25
37
-1
2
19
0
-11
-20
-49
-49
8
0
0
0
0
0
0
0
0
8
5
0
-68
3
-22
-58
6
127
80
0
9
24
45
-25
-48
0
-7
0
-25
-86
-12
73
-24
-20
-72
0
4
-9
-13
98
0
-26
-77
0
43
-20
-5
19
-11
-13
-4
0
-6
0
-10
18
3
-23
71
0
2
-12
-11
-33
-12
21
53
0
3
-14
-40
-5
13
2
-2
0
18
25
-88
7
3
7
36
0
-75
19
-50
-7
15
-6
-39
0
0
57
-1
-3
-3
40
-8
0
13
1
21
55
-20
1
-5
0
127
-15
-13
20
6
14
-6
0
4
-3
31
-8
-13
-19
1
0
0
-7
4
55
-30
-13
-44
0
-25
23
41
-4
-1
-16
-9
0
-5
5
-9
-14
5
-18
-66
0
-7
11
44
15
-29
-19
4
0
23
13
10
46
-1
-24
-42
0
-25
13
-10
108
-13
-3
31
0
6
-17
6
26
8
36
18
0
-5
-9
9
-85
5
6
-4
0
70
-8
3
26
-5
-3
-60
0
17
-25
12
74
-57
-24
-12
0
-11
37
-19
69
-54
-41
-55
0
17
1
48
56
-4
-4
7
0
17
-38
-33
21
22
-8
-27
0
-13
-32
23
74
-53
12
17
0
-13
13
-12
33
3
-4
-15
0
-2
15
-39
26
11
4
-84
0
-7
4
85
43
13
23
28
0
-2
6
6
-64
5
4
77
0
10
-21
-51
-32
1
7
34
0
-18
-16
11
-61
24
59
80
0
5
-40
81
-1
-20
-45
24
0
19
3
14
81
-127
0
0
0
0
0
0
0
0
-10
-45
0
-121
-4
-24
79
6
33
2
0
20
-8
-20
5
-3
-37
-71
0
-6
12
25
34
-22
15
42
0
-5
-13
-41
20
13
1
-19
0
5
-5
4
29
7
5
4
0
-2
-20
49
22
-1
4
-86
0
7
-4
31
12
-7
-5
-33
0
-10
-52
23
61
-41
0
0
0
0
0
0
0
0
7
18
0
42
-5
14
-10
-2
23
24
0
3
-12
6
-12
-20
12
119
0
31
31
36
-127
113
17
46
0
1
-9
-56
8
4
14
0
0
12
31
-23
-3
-2
-5
20
0
-26
30
-28
85
-34
71
82
0
-7
-8
-38
2
-41
-34
-66
0
-7
8
-8
69
-34
2
-79
0
12
-33
-13
-32
-4
66
99
0
-3
-1
-29
-11
0
11
27
0
4
21
-4
6
-6
-28
-11
0
3
-4
0
21
-28
-38
-20
0
3
2
25
116
-53
30
-26
0
-6
-7
0
-5
12
-8
-25
0
-81
-23
-49
9
9
-17
-32
0
-3
-8
27
38
-11
-4
-52
0
-11
5
-67
-46
1
-6
-10
0
-10
20
-14
82
-36
56
75
0
-5
-10
8
-2
-1
7
54
0
-2
15
4
9
2
-8
15
0
10
18
55
0
5
-6
6
0
3
127
-29
8
-18
-4
-2
0
-32
2
-3
23
24
-18
3
0
-8
-4
-1
17
1
18
-11
0
-8
-1
-10
-18
-1
13
85
0
6
-20
-65
-27
10
44
-9
0
-1
-19
33
9
-19
2
45
0
3
2
-21
-22
16
-6
-52
0
4
-8
32
-6
19
5
8
0
17
-8
-2
-6
-1
48
-100
0
-10
9
-10
66
-74
16
2
0
0
-1
14
14
6
-28
33
0
6
-2
-14
30
-15
-19
-51
0
7
-13
-17
26
2
22
69
0
5
-36
-23
-24
-7
6
-61
0
10
-11
1
-53
-2
15
32
14
-8
-23
21
18
-20
-12
9
-13
2
5
4
9
-9
-21
-1
1
5
-44
-5
-21
-11
34
4
5
9
31
-18
-9
-13
25
26
5
75
60
-3
-25
13
31
20
-7
25
-18
-1
-27
6
5
-1
23
-25
-9
5
-20
-1
29
-2
-3
7
-8
26
-6
5
3
-1
2
2
-24
9
17
5
-57
-2
-1
-17
-10
-5
-30
-22
-40
-4
14
-37
-52
17
127
-7
-7
-7
-1
-6
-7
-6
-5
2
7
-14
-19
15
2
-14
13
0
6
-1
1
5
5
13
-17
-9
-38
-1
-23
18
-1
-17
27
12
-60
23
1
38
3
5
12
1
4
-18
-8
-32
-11
10
-6
-42
-16
4
-23
-24
-17
16
51
3
-1
-2
4
-24
3
-9
-42
23
6
22
4
-7
-28
39
27
49
9
-17
5
22
-10
33
-11
7
13
9
0
11
-2
-40
25
4
0
0
0
0
0
0
0
0
31
15
15
-47
19
1
13
33
-22
16
15
-24
12
2
41
-8
-41
-18
-4
-38
-55
-22
-24
-6
-19
-21
-7
-4
2
29
2
-1
-28
5
-13
18
18
-27
46
4
-23
11
4
-26
-22
8
-14
6
60
-7
-7
7
15
-19
21
10
30
-17
-5
15
6
2
7
15
18
-1
-4
-10
-2
-16
42
34
-3
4
-15
-7
3
3
-16
-1
42
7
-21
34
65
13
-6
-26
32
16
2
-30
-7
13
7
5
-26
-3
2
-1
-15
40
28
6
-5
-41
5
-11
-6
10
-13
6
-52
-1
13
-47
-16
49
13
-5
44
-38
10
-47
-19
17
30
-9
1
1
-4
3
-2
0
7
0
-5
21
12
12
3
-66
-23
0
7
13
0
26
12
-2
-12
-1
41
7
-3
-36
4
-16
-42
10
43
15
11
-18
0
4
27
3
-1
-38
1
17
8
-7
-22
10
0
0
0
0
0
0
0
0
8
5
59
5
-10
-6
-7
-3
-69
-7
-4
-31
-36
21
12
-16
-19
66
13
-35
-40
18
3
-19
16
-25
-6
-10
1
19
-17
3
49
-12
-22
10
53
11
-16
13
-24
13
-16
7
7
-21
-11
-3
-51
-18
-6
14
0
-20
-35
8
20
16
2
-30
-11
4
-15
5
49
-127
0
13
-8
6
20
0
16
40
48
0
-15
-12
34
-5
-40
4
4
0
-3
6
7
12
-17
-2
-5
-16
-34
-7
16
4
-43
10
-127
-55
37
-25
-49
7
-5
16
15
-31
-13
-10
-6
3
-2
-17
-3
-22
-6
9
2
-49
2
14
39
-16
8
-88
0
3
-6
2
-2
1
-2
4
-8
0
15
48
-1
-2
-7
6
28
14
-10
-7
-10
14
-6
-5
5
0
0
-3
9
32
-11
-4
3
9
-19
-9
5
36
2
31
23
7
-1
7
0
-25
9
18
-4
-5
2
-7
-11
0
-10
0
9
2
-9
25
-19
12
63
12
2
24
-34
-47
-4
-39
-28
10
17
-48
-1
13
-1
1
-4
2
33
3
51
29
29
63
-86
-16
28
-1
18
-26
-13
3
-81
15
6
25
6
-10
6
-34
2
3
-9
3
12
35
8
-12
14
0
-48
3
-15
16
-5
41
11
-14
97
14
0
-1
2
-13
0
-3
-18
0
40
59
-6
7
-7
55
7
-6
-42
-10
-4
15
31
-48
-62
-9
-8
-12
-4
-30
1
40
50
0
16
-8
-10
42
10
19
4
-127
0
0
0
0
0
0
0
0
32
-18
31
15
12
2
12
13
0
8
-21
-11
-1
10
-3
2
-23
-82
7
5
7
27
-17
14
-10
-12
-16
-9
-7
8
-24
4
-38
10
7
6
-1
19
9
-1
-35
-27
4
18
2
14
8
1
45
-31
-7
-127
-4
32
22
6
43
-2
-10
51
-44
16
-6
12
0
0
0
0
0
0
0
0
39
9
-35
3
90
10
9
18
-13
-4
8
-29
-17
19
13
6
127
51
24
21
89
64
41
36
-17
-11
-9
-18
-9
2
-30
-1
37
-10
-11
18
-14
6
16
15
-112
-58
44
-59
21
-3
-5
21
32
2
-4
-63
10
14
-22
-10
-1
7
4
17
-7
-13
16
-19
-15
75
-15
19
14
-4
74
-6
37
15
-3
-17
3
5
-27
-15
-20
-6
-6
-4
7
16
-20
10
-21
-19
2
-8
16
-127
-6
17
-28
18
-7
-6
-39
5
21
-45
13
-7
-4
-86
-9
-23
-5
10
57
19
46
82
-127
-23
22
16
-7
45
4
9
-27
7
16
7
93
4
-14
-52
-86
15
10
-7
-95
-15
-14
-50
-17
-4
-18
19
69
-14
-3
22
26
2
7
-15
-8
-18
1
27
20
7
8
-1
9
-38
5
39
-22
3
17
7
90
117
6
-39
-7
3
8
13
9
-4
65
24
12
3
-21
10
-8
10
-7
-5
3
-5
-20
6
-7
-20
0
-35
4
0
-15
4
-11
6
5
-38
-9
27
-11
29
-19
-4
-14
-16
-18
-1
29
-4
-25
16
-18
-8
53
-35
-23
-4
85
1
12
41
41
-17
26
15
-4
-4
-16
-13
5
6
-8
-1
-10
20
4
-35
6
-9
8
-19
20
-4
-1
-7
1
19
5
-5
-14
5
2
-15
-1
7
-40
-18
5
17
3
78
-15
0
-41
4
10
-2
-7
0
-6
-6
-10
13
-16
-16
8
-8
-19
47
-16
5
16
-23
4
-11
4
-13
-124
0
4
-7
-11
42
35
-3
-26
-8
3
17
-13
20
16
5
-44
-3
-8
17
28
18
-3
47
-22
8
127
-13
34
-13
34
25
71
2
-10
6
-2
-6
-24
-33
1
-4
3
-1
-9
-17
-1
7
-22
-15
11
-11
-8
-3
16
-18
20
-7
-1
3
0
3
8
-32
-13
30
-14
39
5
-16
20
-3
-37
6
24
33
-33
0
-3
11
-53
3
-6
-5
6
-12
14
-3
19
-2
-9
-19
-7
-19
-36
-9
6
8
-2
-10
8
3
0
-15
-6
0
-18
-36
28
-7
-17
6
-37
-6
5
-1
10
-16
-9
0
17
-10
0
-28
11
-4
5
-2
-23
-9
16
-31
-14
0
37
-1
-22
-5
9
1
-23
2
8
3
35
0
7
-4
29
17
6
-6
32
13
0
-2
-32
-63
-25
19
-34
47
0
3
-37
-6
6
-11
20
8
0
0
0
0
0
0
0
0
12
12
1
-4
-1
-7
27
-6
7
-1
1
-11
44
4
-9
-10
-42
38
-12
-5
24
-26
-78
-6
-2
13
-6
-6
-3
-1
-14
-8
-13
-45
-1
-26
-7
-5
28
-12
3
6
10
1
7
87
-27
0
-17
34
-4
-1
41
0
-2
5
13
-20
3
-1
5
-35
25
-2
13
22
13
-7
26
-25
-18
-5
-4
-7
5
9
23
-7
-27
1
-28
1
1
-5
-34
-3
46
-1
3
-2
8
-5
11
85
-10
2
24
0
-20
-7
13
6
-12
6
1
6
26
14
-8
0
-19
7
3
-12
3
-5
36
-2
1
-1
5
13
23
-5
-55
-2
-15
-15
0
0
1
-87
4
4
6
57
-4
38
23
42
51
4
16
19
2
-4
1
9
-3
-80
29
-3
-26
112
-5
-10
-3
-7
-31
-35
5
-10
9
-33
6
-10
-9
26
-15
-127
-2
8
-38
-23
-84
-14
0
0
0
0
0
0
0
0
6
14
10
8
-56
-2
24
-20
-120
-24
-35
-4
-11
-22
-72
-4
8
-14
27
7
-16
-35
-58
-13
-6
2
36
-15
-7
8
-62
-3
-4
28
6
1
1
12
-9
15
-16
-31
4
-12
-8
-6
94
5
7
31
15
18
-6
-11
29
17
0
-1
-2
6
11
91
-18
-1
12
4
13
-5
-34
3
28
-8
2
-33
19
-34
-61
5
5
16
-2
6
2
4
7
93
-44
0
4
-11
-27
-7
14
7
-76
1
-32
-38
0
9
13
-10
79
9
5
-18
6
-8
88
-17
-35
10
10
-28
5
-8
4
-5
-41
-8
-14
-36
45
10
18
1
36
6
-2
-5
5
2
-12
-5
-7
0
9
7
1
-1
21
-21
26
-6
-8
39
-20
13
-15
-10
12
49
8
-4
0
-59
-4
7
-19
17
-3
-3
-52
73
0
-19
29
8
3
7
-16
54
-31
-4
7
-87
-3
-3
1
15
7
3
-40
-45
-5
-10
-8
16
-28
-5
-57
7
10
-26
21
-3
-17
16
-62
-5
-4
19
5
82
-25
-18
35
-127
7
17
27
-12
5
-20
-5
-31
-4
-12
3
-24
-14
-8
-57
-3
2
-10
-2
13
2
22
-33
-16
9
20
24
16
3
1
0
2
-13
5
1
11
4
-49
-21
7
0
17
-2
-13
-13
-2
10
24
-1
16
19
28
16
-10
-20
14
-7
-10
107
31
1
-14
25
48
-8
18
-10
7
40
-27
-73
2
-6
-5
31
15
-35
-9
9
3
0
0
0
0
0
0
0
0
-15
-63
3
-27
-122
-7
0
-9
-7
-22
-3
-12
13
-5
-102
7
11
-4
7
1
11
-40
14
-5
6
-38
3
-19
20
36
-33
1
-4
-3
3
-9
6
-9
-4
-8
-2
-6
18
-4
6
-9
-9
-2
8
-11
-8
5
16
8
-43
-2
3
-5
3
-17
-32
1
-67
6
0
0
0
0
0
0
0
0
2
-12
-22
6
40
-1
-46
10
-19
15
-4
-1
-7
28
-18
-4
15
45
51
27
8
50
33
1
1
-7
-4
-12
0
23
-20
-9
16
-3
19
4
127
7
-15
-6
-3
34
-7
-8
-3
-3
-116
-7
13
6
-18
2
26
63
-69
9
-15
-15
10
4
5
-35
89
8
3
-11
40
8
-23
6
37
29
-4
16
2
3
-4
37
-28
-2
4
-6
-19
55
14
99
-37
-16
-49
-13
-2
-16
18
-26
-50
8
27
-11
-10
8
20
3
-103
9
-46
-9
-14
-5
6
47
-127
8
-16
-19
19
-12
-14
-14
-29
-45
9
-8
3
-16
4
-14
1
-10
-8
-36
-127
-127
10
21
58
-98
3
17
6
33
15
-10
-31
-15
-6
-1
30
1
-8
34
-25
0
-3
12
-3
6
1
-6
-27
0
16
-18
42
18
-18
4
2
21
-1
-5
7
-8
12
29
-25
-5
-20
119
3
-21
8
-4
22
-3
-8
-20
7
-30
51
-1
61
18
5
6
-12
-4
44
69
-58
-1
11
5
-29
1
6
8
34
-3
20
1
-3
-32
-50
0
-61
6
-16
4
-77
-27
-2
-49
-32
-9
19
-12
-8
-10
-22
23
75
-8
-2
-12
1
-7
25
-5
-35
0
20
-22
15
5
31
-15
-45
1
-5
-9
8
2
2
26
-15
-1
-15
24
2
-6
-3
22
-24
10
-4
30
-6
8
30
-6
-73
5
3
3
-21
17
8
127
-41
5
-7
-12
-51
-38
15
-23
36
4
25
25
51
-20
-19
-77
23
-43
91
2
12
15
2
5
-11
-4
39
5
0
-9
6
-24
-26
-6
-34
-8
13
-5
0
-40
-2
17
-21
30
-45
-11
15
-38
22
-61
32
-27
-4
14
-3
11
-14
-1
9
-14
72
4
2
4
-3
-4
4
7
-23
4
1
15
-4
-22
-16
-15
-14
16
-3
4
-5
-14
7
7
10
62
5
42
0
31
58
-12
-47
39
-17
-15
3
8
43
-5
8
8
1
1
-1
-1
13
-6
-18
35
-2
11
5
1
-2
2
9
8
0
12
2
9
101
3
14
15
2
-30
5
-15
-1
5
-12
-30
-1
-4
-8
-1
11
20
26
-16
7
40
3
-35
53
-1
101
-18
4
-24
3
-2
12
2
-10
-14
9
24
-8
-10
1
-127
102
61
2
-112
12
105
21
-8
-12
9
-7
2
-18
9
22
-14
-9
115
0
-14
-12
8
0
0
0
0
0
0
0
0
-8
-48
-9
16
-4
-98
-3
64
33
2
42
13
-9
-9
-1
8
5
-3
51
52
-19
-38
-2
-28
-2
-4
-17
-26
1
-13
-13
4
-67
-3
-7
71
15
34
49
30
23
58
27
-9
-8
10
8
-43
-6
-2
-7
-10
-15
11
-16
-6
-1
-3
-27
-24
1
2
6
-5
38
-6
-26
-14
19
49
7
45
21
-5
-23
-9
3
-11
4
1
9
-95
17
13
31
22
9
34
12
-16
13
-14
-7
34
3
5
-24
8
-22
25
0
-32
-12
-14
-19
47
16
-21
-8
7
15
-21
51
1
34
-13
-2
-25
9
-3
-31
-13
25
79
-8
5
-1
-7
-5
1
2
10
1
1
0
2
92
4
-20
90
11
5
-127
14
-17
-6
-1
25
9
-35
-2
14
117
-22
30
-44
2
16
24
2
-13
-4
7
0
-6
-2
7
-1
-75
-14
27
-30
-1
40
5
-5
0
0
0
0
0
0
0
0
-28
-2
-7
-5
-8
9
-2
9
-24
-38
43
-40
-15
12
1
95
-7
96
-24
-15
-23
52
12
-73
4
20
15
14
-8
-5
13
-55
-4
-18
-63
-21
-34
-23
-14
-9
33
-1
-48
-12
9
17
5
1
57
5
-2
74
11
3
-14
-1
-3
-13
5
-8
-2
34
2
4
1
6
2
33
-5
11
5
-4
31
-10
-15
17
25
20
1
32
3
3
6
-35
1
4
1
-10
40
23
-47
10
-14
-31
-10
-16
41
-19
-31
16
12
23
-11
6
78
-19
-39
-17
-8
-5
7
10
20
27
8
5
-6
41
3
-18
-48
-17
-9
-80
5
12
-116
24
-1
-2
-11
7
0
-17
1
-10
-5
-2
0
13
-14
-29
-5
-12
24
-3
-17
6
0
15
-8
13
18
36
-2
-12
-21
12
0
-54
13
-13
-33
98
7
-4
-7
14
62
-5
15
70
10
17
-25
20
4
-2
12
10
-1
4
0
-5
28
61
-24
-34
-43
-43
-6
-52
26
92
8
-17
-25
127
13
-72
-24
-7
7
18
1
6
-5
4
7
-24
-38
14
29
16
13
-3
19
67
-3
-12
-3
-12
-6
-51
20
4
1
-15
2
14
2
7
13
-4
-4
16
1
-21
2
-7
1
-22
-44
25
6
18
1
6
113
-5
-7
-17
11
26
-7
26
16
-8
11
127
-13
-34
-25
0
-4
-28
-36
19
-27
9
-58
21
21
-46
-47
17
-13
22
-5
0
-21
5
-25
-48
13
-115
5
-45
0
0
0
0
0
0
0
0
121
-8
-15
-1
16
23
6
-1
48
0
-4
-4
-2
4
-4
4
11
-11
-35
24
-24
-41
-6
-11
45
15
10
-21
-2
13
-1
-9
-6
-6
8
12
6
43
9
15
-10
-10
-14
-6
-2
41
1
14
28
-8
-18
9
13
-17
8
5
2
52
-14
-19
-31
19
1
-48
0
0
0
0
0
0
0
0
-4
15
-111
-8
-17
-25
-12
-6
5
10
-2
26
-1
24
-2
7
37
5
55
0
51
-45
25
127
17
-2
-17
-19
-3
14
-6
-5
1
-14
22
-53
-8
9
-48
35
5
35
-69
14
-1
-19
-5
-66
30
6
-30
-6
-2
-65
-7
-16
-40
-12
25
4
8
-36
2
-13
-12
14
2
-30
-9
25
-5
-1
6
-9
6
-14
1
-45
2
5
25
6
-50
9
-1
-39
-3
-8
-12
-27
4
-84
-8
6
-13
26
13
70
-35
13
-15
-31
-9
-30
15
-20
-27
37
-2
-3
-1
-21
18
-15
-108
-12
127
-22
-26
-8
5
-11
7
25
-8
-9
0
-16
-11
-16
-14
27
13
-24
55
16
27
60
-6
-16
-16
-32
-5
-49
-28
-8
9
-3
-4
-32
5
9
22
-19
17
34
-4
-18
13
5
2
9
72
39
-17
-26
-17
14
2
-2
-17
-4
-7
-34
-1
3
-127
-18
15
24
11
13
6
10
8
-2
-18
-13
6
7
2
-5
46
4
-94
-7
-11
-48
-3
-13
35
-1
-27
-10
9
31
-17
-9
15
2
127
16
0
3
-8
-15
-36
-38
-101
26
-60
3
23
4
14
-25
72
-5
9
-50
0
66
0
-7
-1
-4
-2
-3
3
-1
9
51
-49
61
1
45
-7
33
-6
-13
17
4
0
14
8
19
-6
-11
25
0
-6
-24
0
3
10
25
-12
17
-25
-12
-3
-46
19
-2
-22
22
-12
-13
-1
-11
40
0
-43
52
-7
-27
0
7
85
81
14
3
-4
8
35
2
1
-5
-24
-7
5
-3
21
-43
37
-6
2
81
-4
-1
-7
-20
26
50
-19
-6
-2
9
-26
3
-53
53
31
55
-5
17
-60
-20
-8
8
-5
1
-3
18
-26
-7
-19
3
-28
9
-7
-12
-12
-36
-30
-65
42
1
2
2
-24
-21
-37
-19
-58
0
4
-7
53
-15
-30
-41
-4
3
-2
10
16
-41
25
-24
-23
13
2
-16
6
11
1
39
-4
-10
-3
3
-9
-1
-4
-15
4
-10
6
1
12
18
-4
-11
-17
-2
-3
7
1
-6
21
19
-32
-12
-3
-11
-60
-23
11
-10
1
23
9
-13
-7
8
-4
6
18
5
-5
53
-39
-5
4
-32
-7
42
-3
-6
-11
4
-43
-55
75
21
-2
1
-42
3
30
-91
12
3
9
13
39
-11
8
-51
0
-4
2
2
-38
-1
-39
-112
17
-1
3
-2
-14
-14
0
0
0
0
0
0
0
0
2
-36
-5
10
-4
-5
41
2
-17
-6
-19
48
-3
3
-9
-21
3
46
-23
5
0
-9
-17
12
-6
-57
3
4
-3
3
-7
4
23
-25
17
-56
-85
-1
8
42
31
23
23
10
6
-9
-12
-17
-14
24
7
-127
-3
8
18
54
-2
-84
24
10
-5
10
-22
-21
86
46
86
74
0
15
25
0
-6
47
2
3
-6
-4
-4
13
-1
-61
21
-40
-7
18
-34
-18
-16
-21
-37
10
-5
-22
-11
-7
-12
-82
-23
7
0
12
14
-2
-16
13
15
-8
-6
4
19
0
-13
-30
-6
69
-1
-14
-15
-23
-14
-33
-9
-2
-11
-5
-9
-25
-1
-1
3
2
-1
0
3
-3
12
-6
4
-32
127
1
7
-88
-45
-6
-17
4
-4
-1
24
-5
-4
49
0
-41
-12
-4
0
-59
-28
-12
-17
10
-11
-8
20
2
15
-6
-1
-33
25
-1
-18
53
0
0
0
0
0
0
0
0
-6
10
3
7
-10
-1
4
0
5
-20
-1
-58
5
-6
64
-1
-50
64
-22
30
-6
-23
-10
-17
3
127
-46
-7
-17
-5
-22
-21
-14
5
-10
-4
11
1
29
32
-5
-4
10
-8
1
3
-48
-5
1
12
2
-4
-1
-2
16
-21
-14
-22
-25
-2
-9
-13
-27
0
-6
8
6
16
6
4
-24
6
-18
-43
18
-1
-32
-2
2
-105
20
-5
11
-10
-1
10
-17
3
18
-63
-19
17
2
4
14
-4
-6
36
11
-29
7
-2
27
-45
4
22
-9
6
-6
2
3
-16
-6
6
29
2
-1
38
-19
-1
2
-29
6
-3
95
1
-11
-1
-1
30
3
7
4
-3
9
7
-60
-11
-7
14
-7
2
49
-7
16
-68
9
-14
-3
-3
35
-24
6
57
-50
-4
5
-6
-5
-3
-30
-70
29
4
-10
-5
-4
7
6
-55
14
-16
15
-9
23
-21
1
21
-11
-6
-2
2
9
-4
0
18
-20
-39
-2
-2
-9
14
-22
28
14
5
-4
7
-42
-7
-40
-31
-33
-4
-1
6
54
-19
19
-5
19
-14
5
-12
-3
15
-7
50
-32
19
-1
-7
-11
-17
4
-6
-25
-2
-11
-3
-13
-1
-23
24
-8
-16
9
3
-5
4
15
6
26
-1
-3
30
28
-14
1
-32
31
-8
2
-4
46
-28
-32
2
-8
-14
13
4
28
-7
-17
-24
3
-17
-15
14
-4
-5
5
-55
-9
-35
-16
-17
-3
-5
40
13
127
-15
-3
127
-11
-25
0
0
0
0
0
0
0
0
7
72
21
-96
-8
7
31
-127
-1
11
4
-6
-13
-2
30
-1
-56
4
-2
45
3
-3
55
-9
23
11
-54
4
1
-2
-60
-9
-3
-14
-30
-3
-3
-2
20
3
-7
-21
-39
-4
-7
-14
20
8
0
-4
-26
16
11
1
6
5
11
39
-21
14
2
-6
1
-5
0
0
0
0
0
0
0
0
38
65
5
-38
-10
-18
9
12
4
-15
-7
-26
-4
1
-1
11
127
75
76
37
10
-49
112
17
26
-7
-30
12
-1
3
-51
-8
1
-33
13
49
25
-4
16
-14
-3
67
-25
25
0
-13
20
-7
80
-44
13
-13
3
31
-28
11
-84
94
-2
12
7
34
64
-9
27
5
12
5
-6
2
-41
3
23
64
-12
7
3
-2
-34
0
27
-22
-10
30
-4
5
-25
-7
9
-15
11
-50
-1
17
-39
-16
-8
13
25
3
9
24
-7
8
81
55
20
16
-1
-29
-127
-8
23
21
-35
-54
6
5
5
-58
-71
-8
-4
6
-7
-5
45
10
-44
-42
-15
2
-20
1
42
1
-8
33
-17
14
-5
-16
-11
6
23
39
-23
9
-2
6
-24
7
-2
10
-4
-7
-6
-2
2
19
-14
-15
4
-3
12
-7
41
8
16
-9
4
-7
-5
-14
16
5
21
-9
5
-14
-6
2
27
124
-11
34
-14
-4
5
-6
-16
-10
8
4
-27
9
10
-6
9
-25
-51
-49
65
7
2
-5
-39
1
-6
-44
-37
33
3
-2
10
-16
32
8
-3
14
-10
26
-14
27
13
23
-14
23
-4
39
-71
6
-3
25
0
7
-2
-2
7
16
34
22
-22
-30
10
-28
23
26
-15
-22
-35
5
-2
10
-4
5
24
113
-37
-2
5
-2
32
11
-7
10
-20
65
3
-4
1
14
-4
-39
-39
28
2
-17
-42
-4
-32
-80
29
30
-6
6
6
-12
2
-127
-19
6
31
-14
1
27
-6
4
-3
-11
34
-3
-3
27
-1
38
26
-22
-116
5
0
26
8
-22
16
-11
43
-4
-19
-40
9
8
90
9
120
3
15
-33
1
-7
14
-16
-13
-1
16
9
-4
5
-29
-6
18
1
1
17
-5
65
-3
-45
-31
7
-32
65
1
-13
-9
0
-2
-4
14
13
68
31
-17
0
13
9
10
-46
3
16
-127
-5
-45
-1
29
65
-3
-1
11
-2
14
2
3
20
5
8
10
0
18
5
-3
11
-2
2
-5
-27
-8
-1
1
-3
-33
21
19
-5
104
5
2
-24
1
0
53
17
-5
2
2
-10
-6
-8
-7
-21
-3
0
-35
67
-8
31
-53
-7
-77
3
7
4
-14
113
-21
-13
-53
2
-30
81
4
68
-42
-24
-63
-5
65
-122
4
69
-24
-10
31
7
-7
10
7
69
-29
-6
-58
2
0
50
0
0
0
0
0
0
0
0
8
27
46
-1
23
1
-6
-96
-8
-25
2
6
-24
9
-1
19
11
5
-16
-15
-18
3
6
127
0
15
10
-4
-84
3
2
15
50
14
-1
-3
21
-13
-5
-2
3
-15
-2
27
-13
-4
-6
11
-7
22
4
5
26
13
1
17
-10
65
-12
-73
-17
4
-54
59
-24
-15
-20
-14
-34
-13
26
15
-7
-2
10
-4
8
2
-1
4
-1
-20
25
-7
-35
-4
-10
-47
-5
11
-15
31
-21
1
-26
-56
-13
42
-30
5
-18
1
13
-17
11
7
-9
-7
23
-1
2
11
-22
15
-9
-1
-42
-3
5
1
14
-27
9
-5
10
3
-1
14
0
5
3
-2
3
0
1
5
-73
23
-2
-1
127
-15
-3
7
-6
0
-5
-24
9
-3
21
-7
-127
3
9
-1
0
2
-12
7
0
-16
-1
-5
-9
-7
17
-33
75
24
-3
11
-2
-5
-6
7
0
0
0
0
0
0
0
0
-1
6
2
5
9
-6
1
1
0
-6
-62
27
-112
-2
-25
-40
6
1
-21
-15
62
-9
-10
98
-9
-56
13
-7
-48
-3
-6
70
-2
8
-14
12
-13
2
0
-7
-4
16
27
-2
16
7
-1
19
-21
26
-29
8
97
-13
2
-5
1
19
3
23
7
4
-36
-52
-1
-1
47
-9
17
0
-1
-7
18
24
11
-2
63
11
2
2
8
9
19
3
-11
2
-1
-29
12
-6
-15
-12
-28
-2
-3
29
8
-14
34
-7
-62
-3
-2
45
-6
-8
-19
14
-38
-7
-3
-13
-2
0
-13
-19
9
-2
-53
85
83
32
23
-8
-74
7
-3
6
-10
6
-4
-1
5
-3
0
-8
-8
-23
-16
9
3
0
15
-58
-2
-6
7
-3
-5
-4
1
20
-13
-13
-22
4
6
-1
-2
61
1
68
-22
-2
-85
-2
-1
49
-8
56
-31
-9
36
-10
9
10
1
-9
-1
-2
4
0
3
3
3
-3
-77
0
5
-7
2
32
-2
-10
-31
3
46
-5
-25
125
-6
-8
-12
-2
2
6
13
8
-3
5
-45
8
-16
1
3
19
-4
-5
9
0
5
3
1
49
-4
-2
-3
22
-41
-5
-3
-27
-1
-14
12
1
18
3
-10
-24
-3
-12
-1
-13
36
7
127
23
-31
31
10
-5
81
-5
5
5
-5
-4
-55
4
-1
-2
2
-21
-31
-3
20
14
-45
6
12
-21
16
-4
-45
1
-44
6
18
12
-14
-92
7
41
74
4
39
-89
0
0
0
0
0
0
0
0
-15
-17
-22
-9
-45
-20
6
24
0
-10
7
-2
6
-1
-3
18
-4
-28
7
18
-2
-1
19
-43
0
19
-2
4
-9
-6
-24
-13
-3
-11
-20
20
-21
1
18
-31
3
-22
-5
26
-3
1
9
-55
6
6
30
-13
-43
-4
-3
-46
-7
-12
-18
4
-17
6
-4
63
0
0
0
0
0
0
0
0
5
-13
12
-1
51
15
-2
-5
-4
21
-43
13
7
-5
5
22
-2
-29
97
-13
89
-15
-16
42
-5
21
1
4
18
-5
-14
-9
2
-29
13
-20
-42
-127
3
-55
-10
1
19
-19
16
4
4
53
2
36
-21
49
-70
-8
-93
11
-1
-79
0
-35
33
4
26
-23
-8
-5
-34
3
0
4
3
21
5
-14
31
0
61
-6
-26
-3
0
9
-27
-22
-65
-5
-23
-50
30
-15
46
-18
-1
2
-24
1
-15
-22
-33
-1
13
1
1
8
-7
25
-34
127
-96
-5
-102
-31
4
20
13
-8
-18
2
13
-33
7
-25
-2
13
9
-4
17
-45
-16
-15
41
9
78
-12
-7
-30
1
5
0
-8
12
-4
-4
71
11
-42
2
-4
-12
-4
-35
-33
6
-5
-70
-9
33
8
2
-17
-28
34
-67
2
45
67
1
-4
1
-1
12
2
-10
-1
-3
-29
4
-5
21
-3
-27
-3
0
20
0
6
27
-3
4
-1
-8
-1
-3
-6
-8
-14
-40
-2
-2
-58
-8
110
-7
0
-59
2
-26
78
3
11
15
1
-38
-2
6
-6
-15
9
5
-40
-6
-4
49
0
-8
35
31
33
8
1
-48
-63
1
-2
0
-4
10
0
-1
8
11
-45
-25
-19
28
-5
21
4
-2
10
-7
-8
8
-1
-10
-25
4
-83
13
57
16
-4
41
-84
-3
13
-62
-4
24
-5
8
35
-8
30
-29
12
-50
-2
-46
-71
-7
98
-11
2
-77
6
-3
41
-26
-64
-19
-3
31
-25
-1
49
5
71
49
3
35
82
-16
-10
-26
-6
-5
8
16
56
-8
27
35
-107
11
0
-8
-4
23
21
-28
-70
-2
4
5
-8
-28
-1
-7
-23
0
-6
-9
-12
-31
-17
3
-18
-37
3
-12
15
5
0
-16
23
-11
-2
-8
12
11
-2
52
43
-57
-7
-39
-42
37
20
-24
78
-13
-13
39
47
-4
10
34
38
-23
-3
33
-17
60
7
-3
-19
-88
19
-9
17
3
-4
11
21
-37
-3
-17
-39
-1
2
10
11
1
-1
-17
13
-13
2
-3
-59
16
10
32
20
-3
3
-55
-2
3
-1
-16
-4
48
18
-12
-15
-9
-3
-7
-3
-22
-42
-15
15
13
-6
-9
18
1
-2
-1
10
10
-2
-15
32
18
14
-32
124
9
6
10
16
-27
31
-52
-8
55
-5
-12
63
-12
92
-36
52
-4
-5
-16
39
5
34
0
0
0
0
0
0
0
0
-4
15
-2
6
0
4
33
-20
-51
8
5
-7
-25
13
42
-16
12
-12
0
2
-59
66
31
38
-4
16
-4
-1
2
19
-20
-23
-13
52
-19
-5
-30
-13
8
-16
-48
1
1
-2
5
10
-27
47
33
-2
-22
-6
7
18
-25
-9
-4
35
-7
-1
-10
12
-5
-2
64
112
28
17
6
-26
25
-6
1
8
3
4
4
-6
-3
-9
5
2
31
3
5
0
-23
-15
-29
-33
3
2
-13
11
1
20
4
46
-11
0
-15
30
3
28
36
-16
19
-1
7
-8
87
-5
-10
16
-44
-3
37
42
8
19
-12
-11
-11
0
-29
-20
3
-59
0
2
70
9
-1
3
1
-2
-34
38
-1
7
-7
3
9
11
-1
-3
0
4
11
-43
35
10
8
-12
-15
0
127
-19
-26
1
10
20
-46
0
-17
-2
21
-33
6
-17
-5
13
-97
-10
-13
22
0
0
0
0
0
0
0
0
-3
-10
108
-57
-12
-3
-3
-5
104
88
7
0
15
54
90
2
22
-60
-24
-6
7
-18
48
5
-2
-108
13
16
10
-127
-15
4
41
-16
11
-1
10
-16
-23
-26
-19
-27
-23
-51
5
0
-16
-20
9
-35
12
-3
33
35
17
29
-6
-42
10
2
-7
14
-1
-21
-24
-2
8
-12
1
-3
26
3
-21
-4
-55
33
-4
-6
-4
27
9
-10
-3
5
-26
18
2
-5
4
12
-6
8
-1
31
21
-1
1
11
1
-77
57
-8
12
-24
-10
-3
-103
11
1
6
-5
-3
-21
-12
-16
0
-5
-2
-29
7
14
22
23
-1
-60
-29
-23
-30
14
-29
1
-19
4
1
-9
2
16
34
14
2
4
-5
6
-45
21
60
-14
41
-1
-31
5
-1
25
-34
51
1
-17
-5
7
41
-28
62
-18
6
-14
-3
-22
7
-25
73
-57
-15
18
94
-33
-8
7
-3
89
-127
4
10
6
0
35
-34
-28
-6
12
6
-13
47
-15
-41
-8
-9
-11
-13
0
25
52
47
31
-21
-30
-14
34
-2
-9
-9
58
26
-32
-4
1
15
-27
-18
-18
4
4
-6
45
1
-17
-22
-127
-10
5
5
-7
6
-7
18
0
0
7
0
-36
-11
127
35
17
-3
11
28
127
29
13
65
116
12
46
108
-9
-5
25
31
12
3
8
28
-46
47
-14
30
41
12
-24
36
-22
-10
-13
38
-15
-8
-26
60
4
-21
-7
-51
11
3
21
-41
-10
-43
0
0
0
0
0
0
0
0
45
33
-67
6
27
4
-1
-26
13
-20
111
28
10
33
0
-9
22
40
21
-4
6
-5
22
-29
-47
-58
45
-31
-7
46
-39
12
1
42
8
2
-7
7
-16
7
-8
27
17
6
-11
1
7
5
-1
-23
-28
2
44
56
39
-45
29
-21
25
3
1
1
10
29
0
0
0
0
0
0
0
0
-10
-27
-112
-46
2
-57
1
-17
29
-34
4
4
5
49
35
-3
10
33
13
10
51
-39
-11
2
-47
-54
90
-34
-3
60
-24
32
22
41
-18
-30
-34
-19
-8
5
-69
-54
19
7
-17
-18
81
-70
-45
-59
-10
2
7
49
-35
9
69
5
11
5
19
-66
73
4
43
-27
8
-6
-14
-7
4
-31
15
-127
3
-6
14
11
22
-3
-39
-38
-32
2
14
61
-10
107
-6
-23
2
-2
-10
0
7
-53
52
-13
-14
0
-4
-12
45
17
12
-118
-8
-2
-32
58
15
-2
-9
-20
14
-7
-6
-16
-1
-18
24
29
1
2
1
-7
20
-20
24
68
4
-1
7
5
-1
2
40
-27
21
2
16
-11
13
27
32
-101
11
-5
15
7
22
-6
-70
-5
-14
0
-15
17
49
127
29
43
-50
-51
-53
-14
-36
19
1
-5
7
-2
-9
14
18
-33
6
30
-54
-6
-92
4
5
1
-28
-20
-27
-1
2
-34
2
-27
-14
-43
-1
4
3
54
-21
-62
-20
15
-5
-2
2
38
-10
18
-14
55
-23
3
-11
32
-6
-13
-39
-21
-55
-5
-46
25
-47
25
35
-37
9
5
-8
-9
9
-3
0
-10
36
21
4
17
4
-2
95
27
16
3
-17
48
84
-23
4
-17
-6
-2
-8
-5
16
-14
22
-34
8
0
9
4
3
-34
11
-36
-7
-11
-21
2
2
41
-24
-76
11
4
-12
58
-6
97
-25
74
-13
4
10
93
-16
-19
-30
-16
1
40
0
17
58
21
-5
-29
18
-21
13
-16
-9
-6
2
-53
9
32
8
-3
13
30
4
19
2
-6
7
-4
13
17
14
14
3
-99
0
10
35
-6
-4
21
-3
-52
14
4
11
15
8
-9
1
33
11
-16
-18
4
23
-19
-6
4
-13
2
-1
-15
3
-23
-15
14
51
13
2
-13
9
7
-2
15
-1
-15
8
12
18
-84
-4
127
2
-14
15
-13
4
36
-127
-8
9
4
7
34
1
10
-26
-8
26
3
4
-3
-95
-2
0
10
-3
-5
6
9
-5
7
5
-48
-1
1
-12
33
2
-14
-3
-2
1
-5
4
-17
13
-30
1
29
-10
4
44
-17
3
-100
-3
54
16
-12
2
35
31
-21
-4
-12
-2
8
16
-5
25
-31
9
104
7
20
-23
18
5
-8
4
-3
-38
2
1
6
0
1
2
-14
-5
6
13
9
0
0
0
0
0
0
0
0
-14
-32
-4
14
12
11
-3
8
-1
-127
-2
15
-15
-22
-5
-34
-19
-41
3
43
-1
5
21
20
3
-38
0
-1
1
-1
-4
-3
12
79
-3
-41
-2
15
-14
-122
9
-24
0
14
9
1
-30
-5
0
45
-7
-15
-5
-15
-1
-29
31
-23
-6
25
-13
-3
-11
-16
12
-58
-3
28
-5
-11
13
-28
-2
6
3
-6
14
-7
3
13
-2
17
5
-98
-4
13
-9
10
-84
-16
3
7
0
5
-14
-1
-3
-40
3
54
3
-26
15
-6
7
-8
5
17
2
-6
-16
-4
11
-106
11
48
-6
-10
-1
4
1
97
0
10
10
-1
-4
7
1
-3
21
9
39
-3
4
2
2
49
5
-24
-31
-3
1
127
-13
-17
6
12
11
6
15
22
6
57
-2
-20
-2
-45
-27
20
-9
-19
-29
2
-1
-3
-2
-10
9
46
8
-33
4
43
-25
-44
0
0
0
0
0
0
0
0
0
13
24
14
-9
-13
9
39
1
-22
2
79
1
-17
-37
-20
19
-57
-1
-18
7
-7
-25
6
-4
4
-5
-12
1
-7
-25
-2
-7
37
-3
-50
-32
-8
18
-45
1
8
4
-32
7
27
-5
32
0
23
3
-10
-6
-2
12
24
-75
-12
3
-8
6
11
-13
-11
-2
7
-15
-17
11
6
5
-15
-13
-21
-12
-7
23
43
9
102
-5
7
4
21
0
2
1
-6
-4
-44
-4
12
5
-14
-1
20
-1
9
-2
-17
-22
106
-14
-36
10
2
9
10
10
-14
-3
26
15
-14
-3
41
-6
-2
42
-13
4
12
-4
-37
-31
3
-5
26
-1
6
2
-4
-6
-2
-6
0
-28
-29
6
21
-10
-8
-20
11
5
25
8
-10
56
8
6
-19
9
0
0
21
3
-4
-10
-12
3
1
-1
0
35
10
-3
-19
2
-43
-32
7
-44
-8
-8
-3
-1
7
59
-11
-42
-1
3
3
4
1
2
-51
2
11
-43
16
24
-27
3
-14
-11
-17
-7
-28
8
12
17
-4
-127
-14
0
-16
0
22
1
-53
29
-7
23
50
-1
-17
6
-24
-3
0
-35
13
-4
-6
-24
8
12
-6
-2
-13
-12
20
-5
-21
-11
-1
8
-5
13
-9
8
15
3
-3
-18
48
4
7
5
-9
23
-3
1
6
-3
30
6
-17
-7
-15
-1
-20
24
40
-5
-15
-71
10
18
42
43
6
-7
55
-3
21
24
17
-41
28
6
88
-7
-12
127
3
0
0
0
0
0
0
0
0
2
69
-16
-85
15
91
3
123
-1
3
77
-9
-8
-13
-2
47
-7
-48
6
21
-7
-9
-35
7
5
-11
-4
19
-18
-4
-5
-3
-91
-6
3
-1
-1
-3
4
-9
-88
-1
6
11
-8
-5
-5
-3
-17
-26
-2
15
-3
5
4
-12
4
-8
-3
12
-30
-2
-26
-7
0
0
0
0
0
0
0
0
4
67
3
-64
-43
-19
26
-67
-28
-16
2
19
2
4
3
-6
28
82
1
30
-10
12
-41
-15
5
4
-6
10
-12
-4
0
-7
7
-44
-13
16
-23
19
0
-13
0
-65
-1
-7
-1
-11
-15
35
6
5
6
24
15
-1
39
13
-24
-5
-2
-17
8
-20
9
-1
2
4
-6
1
-23
-1
-7
2
7
8
0
4
1
-2
4
12
-3
-33
-2
42
18
2
-11
-6
13
19
-10
-122
8
11
-40
-20
-13
-30
-6
55
6
-27
50
15
-19
-31
-3
-37
4
-1
-17
42
-2
31
2
-114
48
-7
20
73
-23
-23
2
30
-9
1
-24
0
20
9
-4
13
27
-4
27
-40
3
-11
-1
18
-9
25
-44
26
6
21
4
-6
1
-6
0
11
-5
45
1
-9
0
-4
-5
-3
12
13
-7
39
-39
5
-9
-2
-2
-2
4
14
7
9
-11
13
0
26
-10
-69
8
-127
-4
-46
0
-1
11
-14
-7
8
-1
13
0
-26
-5
45
-7
1
-12
5
13
-21
2
-12
7
7
17
-1
-6
-41
10
53
13
-18
11
6
-1
14
-2
-104
14
-5
19
-40
-17
-2
4
10
3
-7
-3
27
0
-5
-25
0
-8
-4
4
22
-21
44
-2
53
2
19
60
-1
-127
-7
-1
9
-2
-2
3
2
-34
14
2
-13
3
-3
1
26
5
-5
-9
104
-7
-25
-4
-1
-38
-25
-5
0
-5
5
-31
-43
4
-36
4
-11
17
-2
13
19
7
-1
3
-86
-18
0
83
-4
12
-4
-7
45
12
30
2
5
12
7
-1
24
-36
5
7
4
49
0
0
11
0
-2
-1
27
13
-4
2
-40
13
8
-47
-10
-7
-8
-4
-25
-76
-5
-13
4
8
1
3
22
-28
3
2
-26
62
-1
0
22
-9
-3
-18
-10
-28
12
30
-32
-38
-44
13
0
22
-5
-9
15
0
-9
-33
1
5
-3
16
14
-6
-20
-18
40
6
-78
-38
5
-53
-80
-2
0
2
10
-25
-25
10
-14
-7
-4
20
1
2
15
4
-3
-11
-12
5
-3
6
6
13
5
10
-17
-6
2
2
-4
-9
0
0
18
66
-2
0
-13
0
-1
57
-21
5
8
2
27
4
2
-5
6
38
-1
-1
24
-1
4
0
-10
0
1
5
37
5
9
-50
7
4
1
2
31
-56
1
-23
-21
8
0
-2
23
-2
-3
-15
1
0
0
0
0
0
0
0
0
-27
3
-3
11
5
8
48
-4
0
18
3
-5
9
15
24
27
43
1
-5
-17
4
8
86
-4
6
0
-3
25
3
2
-6
-9
8
-1
-5
-30
4
11
0
23
-2
0
-4
-16
-10
6
41
23
7
-8
-14
7
-4
3
-1
-40
82
-1
3
35
-6
-6
-32
-7
15
5
17
65
-28
21
23
-21
10
-127
-49
2
2
58
3
0
16
3
2
26
-9
5
-99
-87
-11
0
1
26
1
1
-25
-16
-13
-3
2
50
-1
-2
-1
5
-52
-2
-2
-9
-11
6
3
11
-2
-8
-19
14
-3
18
-11
10
-3
-1
8
11
13
0
-12
7
2
-5
-9
2
68
3
0
1
-3
-1
10
3
-53
-5
2
28
13
1
-2
-9
-8
-2
-7
4
-1
-2
16
-8
-12
-6
-1
0
-34
-4
-40
-7
-13
-7
2
-15
-14
-3
29
26
-2
-14
3
6
0
0
0
0
0
0
0
0
-7
-1
-3
2
25
8
4
-9
-40
4
4
127
-2
0
24
-17
29
-4
-1
-9
-5
3
31
4
16
-9
-16
-41
-15
5
1
-3
10
9
3
-37
13
5
-13
-27
20
-7
-28
-27
19
22
-12
-4
7
1
-8
19
-30
5
4
23
1
2
3
13
0
4
-17
-24
11
2
9
-3
-12
-29
8
5
9
-16
-16
-8
-42
5
5
29
-14
0
3
-1
5
5
11
8
2
-9
-7
56
-9
0
21
10
6
3
-3
10
24
-20
-33
21
-2
5
-14
61
-34
1
-8
4
80
-2
-2
-15
-4
-3
55
-19
12
-1
-11
-23
-20
16
11
-19
0
27
11
7
-20
-127
-1
-8
-47
1
6
-16
9
2
0
20
1
-44
35
-38
-24
24
5
-1
-11
11
-6
-16
-66
21
21
65
14
-3
-9
-2
21
-5
-15
-1
1
-4
-22
41
-84
-1
-6
4
2
-11
-38
19
45
17
2
7
11
-3
0
-12
25
-4
1
-51
56
-2
5
-21
0
-1
31
-8
-23
-4
-10
-24
35
42
9
4
6
3
-2
-2
-29
21
-21
-33
9
-4
0
-6
-9
0
-4
68
-6
-9
-15
17
-127
4
9
-22
0
1
6
-1
-6
-9
6
-8
-59
2
1
23
17
-1
24
-9
3
-9
9
48
50
13
9
1
1
0
-1
-5
-7
10
-9
9
14
0
8
14
-63
3
-1
-4
-2
-2
-11
37
-3
4
-107
35
-65
4
8
-20
12
13
49
17
0
0
0
0
0
0
0
0
2
-13
-8
2
-38
-10
-14
-54
0
62
56
60
43
-7
8
11
-33
1
5
-39
2
-1
13
19
9
-23
34
31
72
19
15
-4
-48
2
6
9
5
2
-7
-34
-51
4
6
7
7
2
-12
-27
-33
10
9
22
32
-4
3
16
3
7
6
-4
-17
5
17
66
0
0
0
0
0
0
0
0
5
-14
-2
-20
28
-3
-36
-35
-2
-2
-3
45
-15
1
20
-7
26
5
-1
-18
6
23
35
-4
2
5
-127
32
98
-13
12
-5
-2
-6
-17
-11
-10
-5
-4
17
7
4
3
-10
-19
7
-30
127
99
0
-1
63
9
3
15
1
-62
-2
-2
-77
-18
4
12
4
-7
1
3
-3
-16
-6
4
-21
59
2
0
40
-8
-7
-6
22
-15
1
-5
32
13
6
15
2
30
2
-14
2
-12
-2
35
10
2
0
2
-21
8
-12
79
-24
127
-2
-3
63
8
-4
3
8
11
-18
-4
4
-90
-7
-36
-25
-32
0
1
-18
8
0
-5
16
9
2
2
-8
50
2
-16
-17
11
8
1
0
35
10
3
80
46
1
3
25
1
-4
-8
23
-5
2
-8
14
11
5
-11
-14
-1
-16
-14
17
-53
-10
-12
10
-30
0
-1
1
10
2
7
-13
6
-4
-5
10
-8
-6
-10
-13
-2
12
27
-17
-11
3
-9
-5
-30
-3
-1
25
-14
-5
-5
4
24
0
-1
26
1
5
-2
-14
-13
-23
10
27
-34
-32
10
25
-19
-3
3
0
30
-6
-1
8
54
3
5
52
2
1
15
2
3
-100
-17
24
26
78
0
5
20
0
-2
41
-3
6
127
-14
31
0
-1
11
5
-1
-2
-5
-69
1
0
-40
0
3
29
3
21
-2
1
-1
11
-7
-11
54
-23
0
4
42
-33
-3
-18
-13
1
0
-2
33
14
-2
7
1
17
30
10
-44
-8
-73
16
-5
-15
3
22
31
-2
5
4
-2
1
38
13
4
-10
-11
6
19
-2
-8
-7
-17
-1
-5
14
68
-3
14
6
-123
-1
-22
-3
-23
14
-53
-3
1
9
-6
13
-31
39
19
-17
-31
-20
-9
-39
-3
-8
3
4
29
-2
20
-16
-45
9
10
3
-48
16
5
2
-44
-9
-6
-3
44
-11
-17
-1
2
17
20
5
23
9
-2
26
78
-4
4
-6
15
-19
-1
3
7
0
-1
-8
-23
11
-1
-11
-3
8
14
-4
3
1
21
11
-8
-14
-40
-6
-19
6
-3
-21
-31
-2
-4
4
-5
4
-2
6
-11
3
17
12
-47
1
2
1
-3
15
33
51
-20
6
-1
8
9
-11
28
7
46
3
-10
-29
-21
17
42
2
34
8
127
15
53
-5
7
-2
23
91
-17
-36
16
9
29
13
-4
-18
-24
-10
-6
0
0
0
0
0
0
0
0
-4
7
16
45
-8
-9
-4
-2
7
21
69
-30
0
3
-30
0
4
-8
3
-64
1
-34
-18
-1
0
3
9
-12
8
-3
36
10
14
-65
0
31
25
-14
-41
-22
6
2
2
-36
4
5
-5
5
0
17
-11
6
6
-8
12
8
0
23
2
32
-4
48
8
-49
69
-18
43
32
5
-39
21
-7
-5
0
-7
23
7
-1
6
-7
-5
9
-7
87
-10
-24
-10
-6
-1
32
8
-21
-3
17
3
49
16
45
10
-5
0
8
-25
22
-8
1
-2
-11
4
-1
6
-18
26
4
84
-20
-6
12
13
2
23
-5
-23
-43
2
1
-127
2
1
4
1
2
-88
-2
-4
1
32
17
-27
32
-78
-3
-47
-12
9
-10
-10
3
-4
3
-2
4
-5
-64
-1
38
19
-2
21
-17
7
-3
-6
-22
-13
-2
-13
-17
-5
-21
-5
71
-24
1
33
-22
0
0
0
0
0
0
0
0
-2
2
1
33
4
0
8
6
-19
26
-9
47
10
29
3
-9
8
22
6
-45
-7
5
-5
-14
-17
-22
3
-68
-32
25
-23
-14
-1
-6
-18
-4
-8
2
55
17
-35
-38
-33
-2
-6
-6
2
-13
22
-35
-5
51
-2
-4
-87
-3
-4
13
12
-10
-1
4
-5
42
-2
0
6
-10
11
2
-24
-8
-21
5
-6
18
17
-9
-13
3
0
9
6
-6
2
-2
-1
2
14
4
16
-73
5
8
-11
9
1
-18
-16
-25
-17
-2
-20
-5
17
-9
3
-7
-6
8
-20
4
0
10
5
-34
2
-6
6
-3
-12
-23
-7
-2
-23
-15
72
-21
-4
7
-32
21
-4
0
2
-11
2
20
4
-13
-10
-12
-24
-46
4
-10
6
-25
0
2
9
-10
-4
-2
11
-99
-1
5
22
1
12
-29
7
-17
-65
-14
-5
-1
14
-14
7
55
62
-2
-10
6
7
8
6
-18
-3
-1
-10
6
24
-9
-5
-67
-14
2
34
-3
3
27
-2
-47
8
14
0
-15
0
-7
7
-31
42
-1
2
-26
0
22
5
0
5
-7
49
-22
2
-1
3
-55
0
-5
-13
2
1
1
-2
-26
0
5
-8
19
0
23
1
-15
6
-3
0
7
8
-1
1
-17
5
-10
6
-104
3
-8
7
44
-13
-7
14
-7
7
-1
2
20
8
-11
-76
2
-11
11
-5
39
-127
-6
24
9
-7
63
-11
-25
7
9
-13
-2
-36
6
-23
-54
1
38
13
-21
0
0
0
0
0
0
0
0
7
2
-12
-50
-2
-3
19
4
-3
-3
-5
3
3
2
3
-1
11
26
13
-19
4
-10
-18
-52
13
28
-4
-11
9
2
-5
33
-2
6
4
-16
-3
10
2
-28
-4
8
10
-17
-1
10
-7
-16
-8
-28
24
-9
1
-15
-4
-8
2
8
10
-37
24
4
8
-9
0
0
0
0
0
0
0
0
-15
-3
-12
30
-14
-2
-2
-2
2
-25
-3
9
-5
4
-10
8
-3
3
-9
127
24
-52
36
127
-3
15
-2
-7
-22
1
-1
28
-90
64
120
39
17
0
-1
9
-4
24
16
-31
-1
-1
-50
6
5
21
-8
-19
15
16
0
119
10
2
6
-50
2
-5
-12
-75
10
-7
-14
17
-19
13
-6
-26
7
-1
-2
-10
9
-10
-1
35
5
-24
10
-17
-41
-14
-9
23
1
-127
-6
-11
0
18
0
-24
15
15
6
-88
1
3
14
-12
11
-26
1
-1
7
9
-6
92
-17
19
-35
2
-12
3
-9
6
6
20
12
-26
-10
-5
-25
-50
3
-60
-14
46
11
0
31
15
18
11
3
-55
-13
-3
9
-14
1
-6
0
-19
8
-11
-2
38
15
-2
-7
-14
0
0
-8
2
127
108
-64
8
-22
0
-52
-13
-2
2
-5
-14
13
-4
1
-3
-7
1
-14
-23
-1
1
1
-1
-34
-26
-36
-2
23
-6
6
0
3
52
10
-12
4
-4
-24
47
1
-21
3
38
9
-15
-27
-26
-40
9
127
-26
-28
7
-15
9
12
-37
-16
19
6
-6
24
-26
9
-8
2
7
-3
10
3
-8
-5
0
-4
10
3
2
1
-1
0
9
-2
-28
0
-8
-23
22
8
-7
-1
-11
-4
24
8
8
13
6
-2
-34
5
-30
-2
55
15
-8
8
-32
4
11
-6
10
3
43
11
-1
-8
-11
-23
69
4
41
15
40
3
-30
-6
-14
3
-20
3
28
21
35
-14
-74
28
8
-7
8
-10
-10
24
5
50
-6
-3
17
-48
-34
22
-3
-4
12
4
36
-66
33
18
23
5
25
-11
-25
30
-16
-14
14
-46
-42
-7
11
2
-14
16
-5
10
-31
4
36
6
-35
35
-24
6
-8
-2
-23
-9
-8
3
5
-9
-11
56
29
12
12
-15
1
21
41
-4
32
27
-45
30
-24
70
-93
4
48
6
7
-20
6
19
3
-3
-4
4
7
-6
-1
8
-7
6
7
10
3
-15
-3
9
3
6
-6
11
4
11
14
-25
33
-14
17
-13
42
-1
1
-1
0
5
-19
34
-8
4
0
4
8
-1
-27
38
15
-6
3
51
-13
2
-10
-12
-36
-53
0
0
-16
7
13
-32
-46
-17
-30
15
101
-9
19
25
27
3
127
31
-12
5
1
10
-52
-4
-22
-5
-20
0
-42
-47
-75
-4
-36
0
0
0
0
0
0
0
0
24
-22
-3
10
-22
-9
12
-17
16
-22
-4
-24
10
13
-11
-4
32
-15
-15
39
33
82
9
-35
12
-16
-1
20
48
-13
4
-5
116
25
-3
-25
-9
-9
0
-2
19
-6
-4
6
-5
-17
2
4
49
16
-4
47
8
26
110
-3
13
-5
2
-34
-34
-4
10
26
74
-28
-17
-55
-17
69
16
16
-26
-4
-6
-4
-5
7
5
5
-63
13
-3
-111
20
8
-5
-29
-18
0
-10
-25
-5
-2
-20
7
21
4
-1
15
-13
-19
13
23
-8
5
-4
-24
-20
1
-3
9
18
-34
-2
-8
3
-43
-15
-4
16
-28
-2
-10
20
-15
13
-8
-9
-3
5
-5
4
-11
13
-1
-57
8
-2
-53
-17
-3
35
-7
-18
-3
5
9
13
26
16
4
-103
13
-1
-5
-8
15
-21
-3
4
-3
119
-1
16
-10
29
-2
125
19
-6
17
-12
26
1
-6
0
0
0
0
0
0
0
0
-14
-1
1
-6
5
-6
-106
-1
-39
-43
-6
-4
14
33
-36
-6
-17
0
-1
-14
-3
32
23
18
-44
43
-16
-33
-59
79
-14
25
-11
3
-8
127
-8
14
-20
13
-5
17
-1
-5
-14
-5
49
-6
-6
-13
3
-6
60
-20
17
-5
-16
6
-13
-8
9
0
-12
-12
-23
10
3
14
92
0
-3
5
-105
-10
2
-89
27
5
-1
0
46
13
-5
1
-4
-22
-11
2
85
-48
14
22
19
8
-58
1
-46
-8
0
-76
1
23
95
-12
70
-30
10
-19
0
1
-25
-6
8
15
0
-21
36
22
-2
3
68
27
-5
10
-38
-23
36
-6
-8
3
1
-1
-5
-4
5
-2
-1
-35
-6
12
-10
-47
6
-12
34
-14
-11
13
-5
16
-113
3
30
23
20
96
-7
5
-18
6
12
4
-1
-23
31
-54
10
-20
19
-19
-10
1
-5
-72
-13
-7
22
-1
-6
4
-6
9
-69
0
13
-39
3
106
-16
28
35
5
-20
19
1
2
18
28
12
24
-21
-21
13
-6
45
-2
-60
1
-13
61
6
23
35
-4
-20
-4
-7
-53
-3
109
-17
53
46
2
16
3
127
-29
5
16
9
6
3
15
1
-14
-65
14
8
2
10
-17
5
12
9
12
-5
-6
44
-17
-3
10
-6
-14
8
2
-3
-10
-3
2
127
-16
5
-3
-8
-70
-12
-10
-33
-59
6
0
-25
21
-1
8
-8
-53
21
20
-34
89
-15
1
8
-27
-23
-19
0
0
0
0
0
0
0
0
-49
13
-4
86
24
40
-127
-7
80
-7
0
-8
1
15
-37
4
-11
-30
0
15
-66
-40
14
-20
33
4
76
-14
-22
-6
16
3
10
11
-9
-19
-29
3
-7
4
17
3
-8
-18
98
4
-7
10
16
-14
-2
-22
-27
10
-44
-11
15
-22
-1
66
-18
26
-12
5
0
0
0
0
0
0
0
0
-13
11
-9
-17
-1
65
66
5
14
6
1
-5
-52
10
-6
7
-34
127
-1
12
49
127
-37
-44
38
-15
22
4
-24
-6
-6
0
-28
3
7
-7
22
-9
65
7
49
-12
-6
-110
30
34
10
0
38
35
-3
14
6
-22
20
25
-70
23
2
27
-5
3
4
-24
-14
8
5
36
53
-12
-21
12
-6
-5
3
31
19
19
-12
1
21
-22
-13
-14
-23
-54
-15
-16
3
42
-9
9
8
-5
2
-31
47
9
2
1
-3
15
-3
8
41
-51
8
22
53
-29
37
4
19
-17
-8
36
48
45
-111
16
10
-22
-7
9
24
-40
11
-7
-3
-39
-9
1
50
-69
-66
-4
24
-22
-2
126
35
33
37
2
12
9
6
17
-66
22
4
15
2
6
-5
40
-24
2
15
-1
-42
-8
14
52
14
-20
56
-8
13
-4
-1
0
9
-11
-6
-3
127
8
-2
-19
-20
34
-24
2
-20
14
-2
-2
0
-1
6
-10
8
-14
-3
0
-2
-27
-25
-2
-11
-17
4
-5
-49
-63
-23
-41
11
-34
12
-27
-2
-19
-5
-5
12
-61
-4
33
-2
-22
55
-1
34
15
-2
-2
20
-10
12
-12
25
0
2
0
0
4
-18
2
79
58
-1
-17
5
53
21
-6
-5
-4
9
-14
9
10
6
15
-7
-8
-3
30
34
24
3
-18
39
45
2
66
6
14
-1
4
10
-22
-12
-32
12
-45
-37
-25
17
-14
-1
-16
78
-99
12
-37
3
-5
-26
33
-6
21
13
83
14
-9
-95
2
8
-31
4
-7
-15
-34
28
-9
-4
-6
26
34
-66
41
7
22
61
-4
24
16
-21
-26
5
-8
-3
4
42
63
11
0
-54
-5
19
-17
-21
18
-9
-19
-58
-3
-8
1
-22
1
-19
-3
-8
-12
-31
-13
-15
-14
9
20
-51
-2
-2
54
-4
-67
6
-6
16
-3
-20
34
-2
2
37
-3
-34
10
-18
54
3
4
-8
1
-18
-9
16
0
-13
5
-6
-1
51
-3
-18
27
0
-5
12
-7
2
4
8
3
13
-4
1
-30
20
43
-10
39
-28
83
121
80
5
0
2
7
-7
3
-24
-3
-9
9
-5
-8
-14
27
19
-6
19
44
-2
24
24
4
-70
-5
-25
5
-63
-21
-7
8
-13
-1
5
47
-53
6
31
-31
0
-16
19
16
-24
9
-27
24
-19
-42
13
15
-14
23
-5
-1
0
0
0
0
0
0
0
0
24
-4
-16
17
-3
-12
14
-27
-11
24
6
26
-22
3
4
-2
-23
-14
1
8
-37
19
16
-16
7
3
10
13
-13
8
11
2
-10
0
-9
46
29
60
-19
33
5
-14
7
12
-2
-4
56
35
-35
-6
-5
-127
13
-31
26
-28
-27
18
-13
0
-15
-19
-20
-13
-6
-7
-29
32
29
30
-41
-3
-11
2
-67
-21
5
-4
3
26
-6
20
8
-43
-30
16
7
10
-13
-10
9
9
-20
-1
14
16
-12
-14
-6
8
8
13
-5
-7
118
-12
-1
-4
-5
26
-11
-26
3
-3
-21
-1
-39
-21
9
4
52
-63
18
14
7
19
60
-9
1
5
-127
-5
1
10
-1
-4
-2
22
-74
-72
20
-65
-28
-15
14
-7
0
13
19
23
-2
-45
-26
18
-11
-68
23
-102
3
-22
20
8
-35
-5
0
10
9
-38
-17
7
-77
20
7
66
-15
-9
0
0
0
0
0
0
0
0
0
12
-30
18
2
-21
1
11
-4
42
25
5
-5
21
-17
2
22
-42
-9
21
-33
-3
12
-7
6
20
-79
-10
3
-71
6
20
3
-44
22
-48
-8
15
-1
-13
2
-4
-15
-14
0
13
-3
13
8
-17
15
-22
0
-14
-24
-1
-12
-25
6
2
-25
1
22
17
30
-25
-15
3
2
-5
-2
1
0
-3
28
71
17
23
10
-1
16
-3
-4
4
-13
3
43
16
3
0
21
-4
-13
47
6
-3
-8
17
5
-51
15
30
-11
-8
-14
9
-2
-8
-10
-38
-25
-47
-32
17
-5
-4
3
-16
3
21
-1
-24
27
-15
24
36
-4
16
-7
5
-41
-3
5
-26
-7
-18
107
21
6
-12
-48
29
19
-37
-5
-1
-35
-14
14
113
7
-16
11
-30
16
-8
-10
-11
-12
9
-23
-20
-4
26
5
11
3
-15
5
-13
87
30
-6
48
14
-2
1
-2
-127
15
13
3
-7
4
-42
-73
9
18
6
28
-28
9
-8
-18
10
2
-23
-11
16
23
6
12
-14
49
4
30
-6
-60
-31
-15
17
29
-33
-34
-20
-1
10
3
8
25
27
23
7
-2
7
-8
-10
-2
14
1
12
26
-37
-2
-14
-5
-2
-23
24
-4
-15
15
-4
-18
37
68
62
-23
5
16
58
-43
7
28
20
18
-59
-33
8
-25
-23
5
-7
-11
-3
19
-36
-66
122
34
9
-7
16
3
34
-22
-39
52
17
-17
18
4
7
-23
-21
-12
-6
51
0
0
0
0
0
0
0
0
-14
13
-26
48
27
127
-11
24
-2
8
110
-17
7
-9
-2
13
121
43
8
-1
-40
43
6
-44
-12
-26
23
4
-7
-23
10
61
82
-3
15
5
-18
13
-7
-6
93
9
16
3
-8
29
13
-7
-17
12
-6
5
-11
51
80
27
-12
-23
-21
-6
11
-5
-3
1
0
0
0
0
0
0
0
0
-29
6
-8
-120
3
-30
-7
0
12
13
2
-13
4
20
16
4
5
2
-52
3
100
-19
3
46
5
-23
-99
5
2
-26
-2
50
11
-12
-6
11
23
-43
23
34
10
-10
5
48
2
-7
20
8
-7
14
0
15
-1
-56
-10
85
-36
11
-12
11
-28
35
3
-74
-102
-127
15
4
-2
-20
1
19
-53
24
10
2
36
-2
9
30
33
-7
-21
-2
-13
20
5
39
-27
-7
20
-12
52
-14
-40
-16
0
-6
-14
32
-8
40
-5
18
-45
-5
-20
1
-12
5
30
127
-11
-20
-5
50
0
4
-17
0
127
30
9
-20
-24
29
1
-37
-23
-28
-18
37
127
22
17
-27
-16
-22
13
-17
-7
-17
-12
-9
-20
31
11
14
61
-11
8
3
-5
52
-6
-19
-5
-8
-127
17
-3
-13
-59
-11
35
3
2
6
13
24
-6
-18
-1
38
33
8
-2
4
6
-84
21
-105
-19
-9
1
1
9
29
10
-4
4
3
3
2
1
2
-13
12
111
49
-59
-6
-27
1
-76
-38
-2
6
3
-9
2
13
-15
9
-6
-12
-1
-22
-61
16
53
-22
-24
39
-50
8
-21
-13
35
-2
30
8
1
7
106
-9
3
-22
-8
7
-18
38
6
10
-10
78
0
-4
-14
1
1
5
5
6
11
-6
23
-7
6
-19
25
21
10
23
-35
-36
12
-57
-1
7
-4
0
3
-24
-4
2
-29
17
14
45
-6
-28
-20
13
-24
-1
5
-6
64
-12
-41
35
16
10
0
8
112
-13
2
10
1
5
-5
16
-11
4
-5
34
-14
16
2
-27
15
0
-21
-127
-9
6
-2
8
47
7
38
-48
-17
-29
8
-97
-8
9
2
-39
30
6
3
4
15
-27
-19
0
127
-45
-12
-5
20
-6
64
-34
-13
7
0
-15
95
16
-13
38
-3
-14
-14
-4
-10
12
-25
25
-10
-45
0
-3
-11
8
3
11
34
31
-3
-4
-8
10
-1
-12
12
1
-14
-7
-6
15
-1
3
-49
-6
36
-6
-6
0
116
22
-8
-15
-1
-8
2
-6
-14
5
28
8
-5
-19
6
-13
3
23
1
22
5
11
18
-3
8
16
-7
-3
-1
23
-14
-16
6
-11
-14
14
-10
-1
27
12
46
-41
16
4
-3
-32
-1
0
22
96
-7
-34
11
-8
9
5
-5
-1
87
22
-1
-25
0
10
10
-1
-16
3
-1
-92
0
0
0
0
0
0
0
0
24
0
8
-7
21
31
-2
33
8
-16
-8
25
-44
25
-13
6
4
-2
-43
-64
-10
-12
-2
10
2
-4
-7
47
26
-12
-2
-30
-2
127
-13
-21
13
-39
-4
31
-3
-5
-20
-23
-24
15
4
-29
-13
-17
9
-46
2
-62
3
-14
17
6
45
-29
-3
4
2
-11
-3
-5
15
42
57
44
18
2
-24
1
-3
-7
-1
0
1
4
17
-8
-18
36
-25
-18
-2
28
-47
-8
22
-68
-5
-8
0
-12
-9
-9
5
23
13
-1
7
-68
-9
0
-5
-20
-1
0
5
0
11
-21
-16
26
33
-42
-19
15
7
8
-3
-97
-12
-40
-1
8
10
-2
1
3
-45
-3
-2
-8
-1
-98
-13
0
-9
127
-1
-2
5
5
14
5
13
-2
-1
12
22
-23
-12
17
38
83
6
41
103
-1
4
18
-21
-3
-14
17
12
31
-16
16
21
-99
6
24
0
0
0
0
0
0
0
0
10
6
-1
5
-72
7
5
-16
-49
-2
-22
51
-15
47
-1
127
-27
-3
-2
-51
-13
-28
2
-35
-85
11
34
-37
16
32
-10
34
-40
10
-4
22
53
-19
4
-27
-69
1
3
10
5
2
65
-10
-12
-12
2
-55
20
27
3
-9
-40
-2
37
-70
-16
-25
-3
-34
33
-13
-2
-41
-13
5
-3
12
-38
24
15
-48
5
79
-10
-31
-3
-1
-23
-1
4
-17
3
-8
17
-19
-16
-15
-19
-35
-2
-116
17
14
-7
-31
26
-32
0
17
-92
-20
-10
8
2
-23
127
-15
25
-5
4
17
1
-4
0
-17
-11
-16
-16
13
-36
-41
0
6
-47
12
3
-8
-14
0
-2
7
2
2
-23
-8
2
7
3
-31
69
-45
-5
7
-9
-12
-2
-14
61
14
1
-33
92
-7
-16
10
-2
14
0
37
-29
4
-7
-40
83
13
-4
47
74
13
-10
-59
13
1
2
-2
-37
-15
-3
7
-5
-6
4
-1
13
36
-3
-26
-26
-5
-4
-12
-15
-22
4
-65
35
1
-2
27
-50
4
19
-39
8
16
6
12
-77
26
2
-39
-25
-2
12
-48
-34
32
3
-31
93
-9
8
-16
36
9
-10
26
18
13
-6
-68
-15
-9
-7
-32
-12
4
27
73
-27
-33
-3
-10
66
-36
-6
24
-31
26
8
4
-18
5
-5
-13
8
15
8
-8
16
-33
-30
17
-49
12
1
-3
5
7
-3
72
-45
16
1
42
-25
1
-7
-19
1
-25
4
-31
0
0
0
0
0
0
0
0
14
12
-5
35
3
91
-2
-11
29
-7
3
-4
-42
-11
11
10
7
7
-38
47
9
16
-2
-27
121
27
-18
-42
-59
25
-5
14
-45
-8
30
57
-8
2
0
-20
-43
-5
5
33
-3
-5
-1
-27
-51
6
-6
-69
31
-49
0
-39
-14
2
3
-50
50
-11
4
-7
0
0
0
0
0
0
0
0
0
-28
14
-28
44
27
4
-23
-19
-5
8
6
-3
-1
4
17
25
-11
4
105
12
37
-2
-24
66
11
-9
-33
-39
8
-6
-5
-54
7
-6
-15
-33
43
5
16
-19
15
7
-89
-58
-55
6
-36
3
6
44
-61
33
33
8
-11
39
5
-22
35
-7
9
0
-24
46
-26
6
-26
-33
-26
-5
20
2
4
-27
-124
2
-16
2
12
-13
-9
-22
-50
-46
-9
3
-49
8
25
-18
-34
-1
-6
-3
-28
30
1
11
-33
21
11
5
-33
21
12
-50
-35
-11
-13
-4
-21
21
-10
3
-12
-125
27
3
-29
7
1
-31
1
15
-12
-2
-46
-5
0
-37
58
58
-21
8
5
-10
6
10
-25
-6
-21
2
-34
-3
-2
-59
-92
-3
-27
1
21
7
-7
-6
58
24
51
-5
-9
-34
26
-17
-23
20
29
10
51
16
-3
-9
7
17
9
3
8
14
4
-7
7
-5
-118
2
19
-10
17
-10
-11
9
-12
2
18
-6
15
-9
-5
-32
-18
5
-28
-3
13
40
-27
7
-21
0
-32
127
-6
-10
4
-6
4
91
13
-10
-4
-34
-82
79
2
4
-84
36
5
10
33
0
-19
-6
37
3
1
-2
3
-35
-8
6
8
9
-3
0
-65
-23
10
-2
-28
-21
-10
127
-19
6
-18
1
-6
-10
-2
-23
20
8
-7
-2
5
-17
4
2
9
-10
-118
3
-49
-44
-3
-9
-74
-17
-1
5
-60
-11
14
-16
60
7
-19
5
-32
11
-9
18
-11
90
-24
3
-5
12
109
-21
-36
29
-7
23
-33
6
-14
-32
-19
51
2
-8
-23
-60
10
39
-2
11
7
12
2
36
14
29
12
110
2
0
-12
16
29
-5
-3
10
-2
14
4
9
-15
2
-8
4
22
1
-14
25
-10
-10
-12
-70
0
0
-16
2
24
32
-3
-13
5
13
32
3
-2
-9
-8
23
9
-6
48
-40
-23
-7
12
-127
13
1
-1
-13
-36
11
-13
-3
-16
0
-33
1
19
-43
6
28
4
1
56
11
17
-31
-11
62
0
-3
-17
-11
-4
-8
1
-104
16
0
5
-3
31
31
2
13
-8
2
-36
-10
20
7
-13
50
9
-5
4
-23
5
3
-11
-50
-3
-1
-2
-1
14
-51
5
-11
-3
0
57
-8
28
-4
1
-27
-3
-2
-30
-13
3
4
-3
57
-3
1
-6
7
-25
33
-21
34
5
2
26
-10
-51
-27
28
-43
15
15
-13
11
-53
19
-20
45
-2
-4
50
-21
-10
-16
6
-56
-1
4
-14
11
-38
-6
-11
60
5
-2
31
0
0
0
0
0
0
0
0
-7
37
57
-6
-35
29
-1
-9
-5
17
55
4
5
-7
-4
16
-23
-31
-24
6
-5
-17
5
-12
31
9
-2
-1
-91
-1
-2
-12
-4
14
-3
3
88
2
0
20
-7
-41
-56
13
-15
5
-4
-14
-19
50
-10
-8
-21
6
-4
22
-4
-10
-73
-6
31
15
-18
-12
7
34
82
-7
36
62
2
-10
5
-23
8
8
40
-29
3
-70
-12
0
-5
5
-34
30
-3
14
-13
-2
21
17
-17
13
5
15
-22
15
56
3
-79
1
2
11
6
17
44
34
-73
-8
4
34
-3
13
10
-4
18
4
3
1
-3
15
-16
-2
3
-127
-5
-1
-12
110
-56
3
12
-9
-9
70
-7
34
17
-2
-6
6
-13
18
-1
-8
-34
-9
50
1
-5
-26
-6
1
12
-2
48
2
0
11
-17
-64
-31
5
-14
-10
9
127
-25
6
23
-5
9
0
-5
20
-35
18
-43
-20
-72
-4
-11
-46
-7
10
12
30
-32
14
4
16
4
-3
-1
6
25
-17
0
38
-8
-57
-45
-19
71
47
6
-115
12
-36
-11
-7
49
0
-3
19
-6
-16
62
4
38
-69
3
2
19
-9
-30
6
-78
8
2
59
33
6
-20
12
2
-6
2
10
-23
1
2
-7
-51
-10
-1
-12
-4
-31
31
3
14
-3
-2
-6
-2
55
13
12
-38
-2
4
2
21
10
-11
-14
-13
7
1
-16
-18
-3
31
-2
-9
-5
-4
31
32
23
31
1
-36
-5
7
31
1
17
-89
-9
-30
13
-5
31
2
-21
-12
10
-54
15
0
15
-1
-13
22
1
-51
3
5
-7
5
51
34
-8
28
8
5
-4
26
-9
-21
4
-24
-5
-2
-54
16
42
19
-11
2
-43
1
-8
31
-48
-48
63
40
-3
11
11
24
-13
17
14
-24
-1
1
17
-44
3
-32
5
5
-6
-1
18
-17
-20
-17
-7
-66
1
-3
26
-61
13
-8
3
-23
1
3
-5
-10
54
-18
-4
12
-4
-5
-28
7
-26
-127
18
21
-4
8
-18
0
4
-21
-11
14
24
-5
15
15
-7
5
7
-4
2
-4
56
15
-20
45
-13
41
-4
-3
8
-5
12
-58
5
-6
1
4
-15
-3
-26
47
3
18
7
-1
108
10
-93
-83
23
10
3
3
-21
6
6
-114
3
24
0
24
-22
-11
43
-16
-13
-20
9
-1
10
15
-112
28
2
38
5
-5
-47
20
-4
-23
-15
-27
6
-11
-17
-1
24
-51
7
-26
5
0
7
-6
3
30
1
-29
-26
-5
-37
20
31
4
7
28
3
6
47
-5
14
-5
-23
-2
-1
100
-49
3
-7
-20
24
8
-13
-109
38
-15
-10
-7
2
-59
6
1
-18
27
127
-12
-3
6
12
1
85
7
-12
-85
3
-12
10
-127
4
18
-15
22
-5
96
-6
-2
11
-28
30
38
2
-73
-8
-4
12
2
91
-20
-2
13
-9
13
19
2
-7
-20
2
25
34
1
-16
11
-48
-25
127
21
14
-2
23
-65
-6
2
-9
-92
-6
0
32
1
-47
-36
-1
14
15
-6
98
0
-6
-10
-15
31
11
4
21
2
46
-33
3
-47
52
2
42
-23
-13
45
12
-107
-1
4
56
19
21
22
-6
-44
-2
3
16
-2
-2
-7
-13
-8
2
0
-4
4
15
-18
6
-7
-1
1
41
-14
-26
-36
15
-52
15
2
31
3
0
-25
-6
-20
-2
-4
-46
-1
18
5
25
67
2
-2
6
-13
81
-38
13
21
7
-6
1
-7
13
32
3
34
-10
1
-10
-17
0
-15
-3
7
2
-3
28
11
17
-40
-1
23
17
2
69
-19
12
-71
-7
1
12
3
-3
0
-29
-10
8
0
-14
-8
-19
5
4
11
4
18
-11
5
14
8
-14
-22
17
-60
-2
-5
-53
-4
-6
16
3
16
11
-4
79
-127
9
10
-4
9
-7
2
24
-2
-19
-47
-2
-26
-7
8
19
12
7
-3
1
15
6
-2
-61
6
1
-7
2
61
-5
-9
-8
-18
-20
1
-13
-41
19
-4
-16
0
-7
-12
5
10
-30
-2
-25
-15
-4
10
8
-10
-36
-2
-6
-12
-89
40
-6
2
10
-22
-10
2
28
7
30
-44
11
-3
14
-8
-70
10
-10
10
11
-7
-67
-5
-2
3
-10
23
1
127
18
0
-14
15
12
-9
0
3
-20
15
4
33
4
1
-1
5
127
7
-5
8
24
-4
12
-6
-39
-16
-14
0
-75
-2
19
27
-24
-13
20
-18
5
11
-127
6
-30
10
1
-20
7
1
4
5
-27
-6
-7
-4
116
11
-19
12
-7
-29
1
-28
-26
-4
3
-2
7
16
54
23
-27
-1
-54
7
85
-5
-22
-23
-12
2
-43
-2
51
20
-46
49
-10
2
-23
-1
-18
-17
0
18
-6
-6
-17
7
37
22
71
-18
-4
0
18
-5
45
-10
-28
-79
-8
-4
-51
-6
36
-20
9
2
-14
-4
-25
5
32
-8
27
-16
7
-1
-63
-11
88
-1
9
-19
4
3
-2
-10
6
3
-33
28
29
-4
-29
-2
-27
1
-15
-12
17
4
-13
2
8
22
-10
21
21
5
-21
-4
17
-5
-6
-10
18
-6
14
39
8
-7
-23
7
20
-5
-44
-6
-12
-10
7
-43
-7
2
8
2
2
1
-83
32
-15
3
-8
5
-52
0
0
0
0
0
0
0
0
-6
-4
8
-52
2
-30
-15
-8
6
-24
-48
-5
-4
-8
-4
-3
61
-28
16
-26
5
-2
-9
-13
1
33
-29
1
2
11
1
31
-12
10
25
23
-4
14
-7
-25
-18
-28
-51
16
-2
-26
11
16
-13
4
-8
12
-6
-19
-7
4
-12
18
25
-32
-13
12
5
26
-23
-22
-103
6
4
0
-7
6
-24
-6
-36
7
-1
-2
4
15
-127
9
-47
53
-10
2
-2
-4
-74
-9
29
31
5
-8
-5
-5
-26
39
3
-38
2
-42
10
15
-17
-5
50
-15
-4
12
8
21
-24
18
27
11
3
19
12
-32
75
-1
-127
-4
-2
6
8
-51
8
-4
5
64
-2
-13
-10
32
-10
23
-50
9
-4
-2
21
-12
-9
-27
28
-9
-5
22
-1
-60
6
-26
-8
1
6
11
1
44
12
-9
-4
-40
2
-33
-10
42
0
11
-73
5
0
-6
-12
21
-2
26
-30
13
-1
-107
1
20
1
-2
1
2
-2
22
5
13
30
1
31
11
0
12
-13
-23
16
-4
1
10
6
6
-3
-8
15
30
-54
3
5
-57
-39
12
22
17
-85
119
-7
14
5
10
1
-66
-21
-19
1
-67
2
20
4
1
0
-24
-1
10
-1
-47
21
43
-5
7
0
8
6
-8
2
38
-12
20
3
35
25
40
23
-13
-23
-13
4
5
-1
-11
-52
-2
-80
30
0
-5
4
3
19
-3
0
-12
-3
1
-13
16
-3
0
28
-6
1
-24
-3
43
-7
-22
-26
6
-5
20
16
33
-11
-6
15
53
-1
1
-19
-40
-1
-127
17
10
8
21
0
61
-9
-1
-58
-10
2
5
7
-24
-1
0
27
-20
3
62
2
-28
18
14
-117
-26
-4
-3
-6
0
30
-15
-15
21
9
-5
22
15
8
-33
-13
14
0
-39
7
-3
5
-84
-11
7
-2
-78
-1
48
9
-23
-43
-13
6
-61
-1
32
2
-80
8
-12
0
46
-1
15
4
3
-19
47
1
20
16
7
3
-8
-9
3
-16
26
34
-4
-29
28
-26
44
-8
-12
6
38
16
28
18
-6
1
18
15
38
14
27
16
7
-2
56
-2
-37
7
-20
91
-16
0
23
-10
-36
-12
-11
-2
-17
0
28
-19
-17
-25
-13
79
-5
4
2
4
-14
3
6
-32
75
-95
10
16
16
2
-3
45
-2
7
-3
1
2
-17
-8
-1
76
-2
24
21
-37
0
-25
-28
11
-6
31
8
-23
-14
15
-7
1
3
15
0
-1
9
-11
-30
15
-9
-11
-14
0
6
-46
27
-9
1
-30
-1
-12
-7
-3
-23
-4
-127
5
26
17
-1
-6
3
-71
15
5
-11
-9
8
19
-11
-1
5
23
2
27
-5
-19
36
-90
-19
14
-7
-45
5
-15
-20
21
86
7
17
-2
-5
-28
-37
-8
-4
54
14
-49
-6
15
-8
-8
-1
-49
-6
5
2
7
-23
-3
5
13
48
15
-108
-19
-11
64
-1
-6
6
12
-25
-7
-14
7
-17
15
6
-1
-3
32
-36
8
6
-5
2
9
16
2
26
80
1
-1
-8
-11
-11
-16
-20
-12
4
35
1
4
-3
10
-80
-45
-1
-2
0
18
1
32
-47
8
5
-9
9
63
-6
11
35
28
-5
26
12
-5
25
-3
8
1
1
-10
0
-23
4
-1
-5
-4
-6
-15
-24
-32
2
-1
17
1
4
-59
-4
-8
-11
-45
22
-7
-2
-11
-2
-13
24
-25
17
-23
-3
52
-9
-42
-3
6
14
33
-1
13
4
14
-11
0
14
-6
-4
-12
-6
21
-28
-2
3
4
-4
-14
-3
-13
-9
2
-16
-5
3
-1
-8
-9
6
1
-12
-127
21
-18
28
73
3
0
8
-28
-2
-28
7
53
22
-19
-11
-13
5
-19
8
3
-23
32
-2
-2
0
-20
-4
66
-4
-1
-90
1
-2
13
0
-22
20
127
20
2
3
57
2
-93
-4
-2
-13
-18
21
0
-72
10
-5
-4
6
-20
-8
-1
15
-2
-14
10
-2
-21
-5
-4
-18
-28
17
-38
-42
-2
-5
-21
-4
-84
15
15
-54
30
3
26
-2
21
6
18
9
-21
7
-12
9
67
5
11
19
-7
-17
7
73
0
-7
1
6
-12
0
28
36
16
-9
-32
5
-9
-20
1
5
58
-17
-21
30
-27
-29
-3
0
12
-11
111
9
-55
-7
-88
-29
48
3
20
18
7
-6
17
-34
-21
-3
18
3
25
33
-4
-92
56
20
37
12
8
-7
5
81
-18
-13
-19
-10
-16
12
13
53
-3
-1
47
-16
14
0
-30
0
19
11
29
7
-16
-4
-17
87
-29
-5
53
41
9
-37
-51
-14
-13
-4
-34
16
6
7
-25
58
5
0
-68
-1
27
-38
-109
3
-32
-25
16
17
10
-11
-38
76
6
-6
44
-2
17
-19
-15
-19
6
10
-14
-31
7
20
-80
-8
29
7
-40
16
-26
-28
110
3
-12
-9
57
-9
-3
2
21
22
-50
-4
7
11
-16
-22
-1
10
-109
5
-3
19
-24
-14
-41
-49
15
11
23
28
-1
-16
62
13
19
-1
-38
9
-1
8
-15
8
0
19
27
-31
-4
-48
127
-21
12
-16
11
-82
127
11
-19
127
-83
13
-12
-14
1
-31
-22
-64
95
3
4
-20
2
-7
-12
13
-29
-4
4
-38
-1
-4
-68
0
-13
0
0
0
0
0
0
0
0
2
27
-18
-72
0
-17
-34
-3
6
3
8
2
-31
7
-8
33
27
-17
2
-2
-19
-1
44
-19
-10
34
-7
-1
-15
34
21
25
-33
-20
-12
32
-9
-18
-37
-4
-90
35
3
-16
23
-21
2
4
10
31
-3
-11
13
10
-12
6
18
-90
26
7
8
29
13
21
3
-38
-22
13
-22
-32
-32
12
-43
-66
29
0
-12
12
-14
-24
-17
29
-37
20
8
17
-22
33
-58
-14
-20
19
-10
-9
40
-49
18
23
-22
42
75
21
35
46
0
-13
11
-25
28
51
-21
1
-29
-32
10
23
10
-19
37
7
60
0
44
-23
41
19
-66
13
6
-3
0
2
5
13
-29
4
-9
15
-49
104
19
23
81
-8
1
47
-7
-10
-26
28
-23
79
5
-2
-9
7
16
-14
-2
7
-10
4
-12
-5
-6
4
-52
-17
3
13
23
25
-20
-11
-18
20
-8
56
-10
-1
16
14
2
-55
-10
-28
-21
36
-5
-29
17
-12
15
64
-69
-17
-5
37
2
-2
127
-38
-50
29
-9
-13
0
18
-2
44
21
-33
-41
25
-52
-68
67
26
68
71
-31
-58
87
-13
-18
92
-15
-1
50
33
19
11
-1
-15
12
19
23
21
-41
-76
3
5
-8
0
13
-29
28
45
8
-69
1
11
14
-18
3
-71
2
13
7
44
-6
103
-7
-2
3
-16
62
-29
5
0
-26
27
-13
54
1
-47
34
5
-41
12
13
12
19
-14
11
11
32
7
13
-58
-36
87
6
-5
53
-14
-1
8
-52
-29
22
49
-67
-3
-13
4
-14
13
2
26
41
-24
9
21
17
31
26
79
6
21
-23
-18
-28
25
-33
8
49
108
30
11
38
6
-18
-16
20
21
-13
-8
-50
84
-6
-68
65
-35
-2
-20
-7
17
127
1
7
8
-15
15
4
12
-12
-6
29
-56
-9
87
23
19
13
-106
28
27
4
-1
-5
-2
5
3
-3
19
9
-19
-8
15
7
7
29
-6
48
-20
-13
50
-8
20
41
-39
10
-55
-37
13
-6
-26
48
1
0
45
13
9
5
-29
20
11
-3
-68
11
55
-1
-68
27
-42
26
50
-25
-1
-5
9
8
14
0
-2
7
-14
-82
-8
-65
69
7
21
-70
-6
9
-24
-5
-26
-2
-21
20
36
-3
25
12
-2
2
-29
10
-14
-16
-11
-11
-93
16
-30
3
10
1
-10
19
1
44
-56
-38
58
15
-49
79
-15
16
6
5
-12
-28
-13
-3
24
-19
4
45
-42
-5
-17
-6
12
25
15
11
-20
7
6
-41
-51
32
-3
2
7
-2
6
17
-3
-40
1
-11
21
0
10
-22
18
0
54
-40
5
1
-10
27
-33
12
-2
19
-16
2
-11
-1
4
6
-7
11
8
0
11
-9
4
-7
-5
7
-8
46
-17
28
127
6
120
-19
-10
-1
-30
0
-25
22
-1
33
10
7
-30
79
-12
6
-24
-4
-20
1
-28
20
-29
25
-38
-127
112
-9
10
44
35
-16
-3
3
-5
-19
31
-10
-13
-36
13
4
10
6
8
-11
20
0
81
-78
17
3
15
14
49
-11
-21
37
-16
27
48
-29
-22
0
-45
-11
22
52
-19
53
-73
-15
15
44
-55
-29
-17
-7
9
-35
36
-6
9
-8
41
38
-6
-2
11
1
-7
-5
-13
-17
4
1
127
20
-13
-4
18
-16
-16
-8
-21
-11
14
45
24
-1
-10
-4
-54
-12
-16
11
-10
-10
112
33
7
-56
24
-5
-11
43
-23
13
-19
60
1
51
-26
-38
17
5
66
1
-26
8
-18
-29
21
-17
13
-3
-3
-38
-52
6
-21
-4
-15
-16
11
2
17
44
18
-35
33
21
-40
-2
-9
-74
-34
56
45
40
-18
-11
58
-24
1
-45
-4
-36
20
38
25
41
17
-12
60
42
-18
8
-56
-14
41
5
22
-2
4
30
9
-3
-7
24
13
16
0
33
9
-58
10
0
-3
-47
71
-7
-54
97
-18
-4
-36
0
-19
-28
8
-24
17
4
0
-30
11
7
-55
41
13
-24
-32
10
38
-5
-11
16
-15
-33
-22
-7
59
-12
-12
6
-13
3
35
-8
24
2
-13
85
22
-3
-23
-41
48
-9
-7
44
-35
-97
18
16
5
-26
-1
-6
-64
4
23
15
-33
0
27
-11
-8
-34
-18
33
40
39
-127
3
16
-3
58
32
32
-14
-12
96
-74
-47
44
-14
-14
-35
-41
63
-63
-10
-35
-15
111
21
25
5
52
-14
-17
123
-27
10
1
-31
47
73
-48
21
25
-21
23
40
21
6
-35
6
103
8
9
-2
86
-89
58
-8
-21
-94
55
-22
-59
-2
-29
70
25
53
7
127
1
-21
-3
17
41
-11
60
-21
2
5
-8
10
-33
16
32
26
-4
-43
-20
1
-3
-31
-5
19
-11
127
-13
-19
-6
-35
30
15
0
-12
-12
1
-8
-27
-17
-7
26
-49
9
35
-2
-127
2
-40
-3
31
11
27
-4
-53
-20
-20
-9
3
15
1
-6
12
44
0
-22
7
-44
58
49
36
-33
7
58
-41
-1
43
11
21
-6
-15
6
1
-1
13
-52
-34
-77
-18
9
17
-127
23
-26
-23
-34
38
127
-15
8
46
24
-22
-18
1
22
42
-43
39
20
6
2
-25
61
-85
12
6
-5
-1
48
-9
-40
0
0
0
0
0
0
0
0
-6
46
37
-41
-6
-57
-9
-24
-37
-1
12
-13
-9
10
18
2
1
-24
-5
43
-21
2
2
10
28
-34
28
14
49
-19
78
22
-22
18
-48
-55
45
28
-29
-13
27
-12
-1
39
6
-50
3
3
61
8
22
-21
11
19
-13
-14
-12
-27
40
54
-6
8
31
7
10
3
33
4
-16
28
-3
32
-27
-29
55
49
-31
16
23
17
85
-22
17
-18
-4
13
-2
14
-7
-24
-25
7
-28
-36
11
0
11
-38
37
15
99
-15
-32
31
-7
-25
18
121
8
-21
-44
-1
12
-34
-40
42
36
34
-58
-7
53
25
-5
-28
-4
-25
-1
-59
-6
27
27
-59
-16
34
0
-59
-27
-37
13
9
27
27
6
44
24
-1
16
-45
32
12
-26
-27
-42
3
24
15
30
-26
-13
2
7
37
24
-64
-34
-15
13
-55
7
-5
24
-3
-12
36
-49
7
-40
7
12
10
-27
8
-37
-10
-1
-33
20
-12
3
-33
-36
47
-59
40
-6
-6
-69
14
-12
-54
-13
-25
25
24
-24
69
32
4
0
40
-91
32
-32
-62
23
-73
-52
-31
-10
-1
7
-2
-3
75
9
-50
-51
14
51
-19
2
-1
-34
26
-42
27
-69
-30
-42
-3
95
-25
10
13
97
2
105
49
-11
-14
-26
-4
-52
2
1
11
-11
-18
-8
48
9
21
-9
11
5
26
9
-2
5
14
5
-38
14
-4
22
-76
9
10
6
-54
-20
-10
22
17
-6
-7
5
-29
8
-26
-27
6
-16
26
-25
20
35
38
-9
7
-16
-41
-49
-61
44
-25
-127
-7
-108
19
-52
49
-2
-12
9
-13
7
115
-18
-17
7
-34
-25
-23
63
-31
28
14
14
-3
23
-20
8
24
-17
36
-41
-4
-28
-9
-33
-52
-11
16
-8
7
-6
8
-43
0
8
11
-17
7
-19
15
-112
-9
-25
20
6
8
73
-27
55
31
-1
-30
-5
-1
-19
-5
68
-4
37
-61
-25
-15
-6
78
-13
-2
6
7
-17
-40
-54
94
-13
-1
20
13
-2
-55
45
29
24
2
-18
66
51
-12
-20
-26
31
4
103
-49
-22
20
-109
35
-18
30
-13
-3
-48
12
-31
-39
8
11
-15
-1
15
51
-9
-40
15
-31
-19
-31
8
19
1
-32
5
-102
-12
12
3
-6
-17
-23
4
-19
-2
50
-17
37
-47
-63
-6
28
-7
-17
-9
-37
-30
59
34
13
-2
38
5
-41
-71
-20
-28
-16
10
-3
-22
1
11
-16
-26
-24
2
12
19
30
24
-40
-29
-24
15
-53
54
14
-39
19
-17
15
-4
10
-2
-20
-24
-127
-8
-27
22
32
-1
3
19
119
-8
52
-15
-7
88
-37
12
4
-25
-12
13
25
14
37
-38
-99
-16
-38
-5
-60
4
9
-6
67
-3
21
-8
-3
12
-7
16
27
55
-19
-24
-10
19
10
11
-43
-10
39
-4
-25
-34
7
19
-38
-8
-71
-17
26
-74
11
2
9
7
-31
-10
-11
10
27
42
-20
16
-115
-32
3
23
-17
44
23
26
34
-71
31
-11
17
19
-52
-8
-18
-6
-31
-24
-15
-17
-21
-8
-21
21
11
6
12
-34
-36
-43
5
41
-46
72
2
-12
24
-13
0
5
16
-10
-15
8
40
16
12
69
-16
-3
-20
-13
21
-25
-50
35
-36
-10
-14
3
51
-8
0
4
-39
38
9
34
-34
-13
-23
-13
-6
56
-21
49
-22
49
-63
-18
38
0
13
5
9
-58
29
85
-104
-20
-7
-68
57
-14
29
17
-1
-2
-8
40
23
10
13
-29
-33
46
25
18
-30
16
48
2
-34
-40
-4
-24
-12
-21
7
0
-3
-3
-40
45
45
14
-11
-6
110
1
24
11
-35
-27
-17
-18
-12
0
-18
34
14
-5
94
-45
6
5
-20
51
-32
-8
-34
-52
30
-18
15
3
-29
8
65
-2
-36
37
12
-66
-30
1
10
56
-9
16
39
4
44
-7
28
-7
-59
-16
-24
1
-2
5
17
19
58
-26
38
1
-22
-30
6
-60
-37
34
-22
74
5
29
37
19
1
-13
-24
-22
77
-3
23
-4
36
-8
-15
-9
-26
-1
13
-6
37
-12
-53
-16
-5
-8
-26
-5
31
-5
-35
-19
-11
6
19
0
70
10
23
-25
48
-10
25
-9
-7
18
25
-17
-13
82
-13
0
2
45
1
4
-3
-1
7
-25
24
11
63
52
127
-2
18
-20
26
-27
37
-31
5
-4
-13
-9
-99
10
9
3
10
34
-7
-7
3
55
28
-69
-33
4
-56
0
-106
-9
-89
-74
34
-4
9
-9
-8
35
-25
-6
-17
20
3
-5
12
28
14
-6
-20
7
-3
7
8
55
-10
127
-62
-5
38
-10
32
-26
20
-3
83
-4
-45
-18
-22
-8
-33
-5
10
2
22
-10
16
-3
13
-6
-67
2
-27
2
41
-10
56
18
-33
-4
46
-2
12
-27
1
-10
102
0
-40
0
11
-33
-4
-13
-39
-7
18
-5
33
-5
23
13
7
-4
-14
-2
23
17
32
-4
-1
-4
-4
3
15
12
7
13
-10
-11
-38
-5
8
18
-6
8
42
0
0
1
62
-26
16
-4
-20
2
-12
2
20
-127
-32
48
31
16
14
4
-42
-24
33
-16
-67
21
1
-13
-31
-5
-36
-1
6
-2
10
-12
3
16
-2
-6
18
6
-41
5
17
0
0
0
0
0
0
0
0
-1
-12
-26
-36
37
28
10
-9
-9
5
-2
45
-3
-30
7
-19
-1
9
9
-16
1
13
-33
19
-11
-2
72
0
1
33
-16
-3
37
42
0
-22
12
-3
5
-24
5
10
10
14
0
-32
23
0
0
8
-8
36
7
-24
-6
-2
17
26
34
60
-21
-13
17
-17
-2
11
-9
-3
1
5
16
3
-3
7
5
33
0
1
0
-4
-39
-37
-15
5
-1
-16
38
5
-34
-10
-3
-30
3
12
44
32
-2
-62
35
-10
3
1
-3
38
-21
-6
-11
40
-5
-11
8
-17
-13
-59
-18
17
0
-15
-10
10
-32
-19
19
-11
-6
8
-113
-9
-4
17
14
56
-22
10
-11
0
8
13
5
56
20
-29
6
-21
10
29
-24
-27
-6
40
-10
4
26
7
7
64
-4
-2
10
2
-8
-2
-11
15
0
17
-12
-10
1
30
-83
78
-5
15
22
-22
33
-9
11
-119
-2
-53
-10
58
-19
-28
8
20
4
11
-1
-15
15
-5
-51
6
1
6
27
-20
-5
7
10
2
-5
-24
-16
48
11
14
-23
-52
-7
-8
-1
6
41
16
34
4
-13
-30
-127
26
17
6
23
-116
-6
35
-9
127
20
6
-42
-33
5
3
-11
-1
6
-44
4
20
-8
-1
-18
-19
-57
8
-12
73
9
16
-2
18
9
3
2
7
4
4
-15
2
-8
-11
0
3
12
7
-64
-25
-5
77
-3
-4
2
-13
5
-11
12
18
-19
20
4
29
11
25
-5
33
26
45
-9
5
-7
-1
-9
63
-50
-8
5
10
18
-2
-52
13
-64
-22
2
16
20
92
-2
-38
0
28
0
-13
8
4
33
13
11
-8
4
1
-3
-34
11
-8
4
-58
10
6
-64
-11
-9
-18
-1
38
-3
7
0
-15
10
-45
0
-29
-3
127
11
42
-5
22
18
-106
4
-7
5
-73
2
-50
11
55
9
-58
8
-22
-37
-16
17
102
6
3
-6
28
-5
25
21
53
20
3
6
9
-14
35
11
52
36
-3
-2
-59
-5
-94
-1
11
-12
3
15
15
17
13
93
12
-6
20
-11
1
-8
18
-2
-31
-5
98
24
-18
20
-3
-16
-69
7
-6
19
18
42
127
-9
22
-3
15
-22
-35
-23
-48
-11
-2
-13
22
2
-10
-6
-20
11
24
19
-2
2
-30
2
-3
1
16
1
17
3
-16
0
-23
13
-21
15
-12
-8
2
-32
63
15
8
-14
0
-11
14
-7
-10
-10
4
-10
-28
-6
18
0
52
15
-59
15
0
-40
-9
-42
-4
-14
-61
8
-25
-7
15
-20
-15
1
17
21
-12
-3
-5
-3
19
4
5
-12
5
1
7
-4
27
56
4
-5
17
-5
2
12
11
-13
-39
-15
9
17
-10
-8
13
-1
17
2
7
5
-24
41
37
24
21
-4
96
20
-32
7
21
-2
-38
9
-82
1
7
-7
-45
48
23
3
-4
10
-1
36
27
-16
10
-5
7
39
-9
24
-19
5
15
-49
-30
6
-36
15
-14
-37
-16
-4
-6
-16
1
-23
-6
-6
20
5
2
10
-14
-26
19
-18
70
1
-18
17
-47
14
8
-9
-5
0
19
3
25
8
-25
5
-17
-2
18
15
41
18
-7
79
-68
-9
-33
-22
4
52
30
-18
-11
0
-25
-13
5
-17
12
1
-25
-7
-17
-10
-13
4
20
15
-48
0
-68
15
-2
-19
7
1
-17
-13
-25
0
1
-23
36
-3
46
7
23
10
-1
28
21
24
35
-8
-28
-10
-17
6
-29
24
-15
2
-27
7
16
34
62
-14
14
-2
-21
0
-13
-26
28
5
-37
-1
5
4
11
19
-39
45
20
13
0
7
-4
5
28
-18
0
12
7
3
10
28
23
16
-24
-4
9
59
8
-24
5
-46
52
11
20
17
1
14
20
-8
-7
11
19
9
9
11
11
15
-116
5
13
16
-15
-36
-20
15
1
-18
28
-3
-28
25
-61
8
13
-23
-27
31
18
-10
74
-28
-22
11
21
-9
2
19
12
-3
18
1
-11
6
6
-4
-10
11
49
-5
-7
-31
27
-19
-8
30
12
1
-5
-21
-10
-8
-43
23
26
-127
-5
-14
16
9
-36
11
47
-10
-20
-9
-9
5
-6
-12
-44
2
14
-6
-2
84
-1
-75
0
-16
0
5
-9
8
-51
-13
-16
27
23
28
-48
-25
-4
21
53
-8
29
15
-46
14
10
-6
-42
13
-2
13
20
62
-12
23
-31
3
-7
49
22
-5
-4
16
16
-8
-16
10
31
-1
-14
11
21
-1
-12
-11
-7
38
-1
12
10
25
-6
-9
5
4
13
-2
2
0
30
2
10
5
1
-10
25
20
-52
-15
7
12
2
-15
68
-14
108
15
24
20
-19
-2
17
-2
56
-19
20
-22
-15
-13
2
18
-32
7
1
-8
-16
-15
61
1
-47
-11
1
22
-10
-2
89
-14
127
20
-4
13
-10
12
-6
8
40
-20
21
-8
14
-31
127
2
16
-11
-14
-23
127
-4
-31
-7
-3
4
-23
12
-2
41
-37
8
88
1
-2
24
-4
-4
45
-2
88
-2
40
-40
-63
-54
9
12
7
3
16
50
13
-35
-31
127
13
15
-11
101
22
72
-3
-18
-18
8
44
15
-4
3
47
-4
-24
3
-14
9
3
-11
-67
-5
74
-3
-13
0
0
0
0
0
0
0
0
-13
3
-120
-61
18
14
37
36
5
-10
-42
27
0
100
18
-11
11
22
20
11
-3
3
-1
-91
7
13
-18
2
-9
-29
-13
-12
22
-22
-19
-45
-14
-24
-22
35
-15
3
33
29
5
38
-3
91
8
-3
7
-7
-3
67
-6
13
17
-4
127
88
-42
-36
36
40
-1
-5
-6
34
-13
53
5
-81
16
-9
1
-2
-4
22
14
77
13
15
13
-14
-10
-3
-17
28
22
23
-5
24
-12
-30
-13
127
38
-19
-41
-11
-64
13
24
-4
16
46
-23
-27
20
-23
-18
-9
115
2
-54
-52
-14
0
-90
-20
-13
6
-29
-40
-1
0
-8
7
-23
-5
-4
25
0
11
-12
44
63
-27
51
-15
-10
-17
8
5
-5
-14
-4
-66
-4
-19
-10
-19
25
-14
7
27
-1
60
-11
15
-33
2
-3
34
10
18
-4
23
-30
-8
-15
-43
7
-17
-5
-32
9
3
42
27
-10
-62
-3
-30
33
-21
17
3
27
-1
8
9
7
-12
7
-3
-7
28
-4
19
6
0
30
10
-15
-7
-5
-100
-126
16
-3
9
-24
-29
-13
71
78
-28
30
36
2
16
-48
-37
-3
18
39
5
-22
-2
-16
54
1
10
20
98
-4
21
-19
8
-1
-12
4
-10
-2
-9
-7
6
17
-1
-11
8
-38
57
13
-26
44
13
-26
-26
-8
-11
11
-56
-21
-4
7
-24
-1
3
-30
-9
-29
-7
3
-26
-65
9
17
-20
14
18
-19
-11
8
17
-1
20
4
1
30
97
-20
-17
75
-29
-62
2
40
-42
-13
-7
-116
78
2
20
-23
46
16
-21
24
-1
-8
-65
-8
-31
11
-2
-6
-52
7
2
3
-7
-1
-37
-20
8
16
-10
-7
10
-2
-11
7
2
-40
8
-14
51
23
10
16
-13
-2
3
-26
51
-13
18
11
-2
-12
4
-5
43
11
-16
-8
17
-45
8
-35
23
8
62
-15
17
-13
1
-12
4
9
26
-1
-26
-14
9
52
42
-7
27
-4
29
14
-2
119
25
-5
-9
14
20
10
27
24
76
15
20
-127
-86
18
-10
19
27
8
-16
-24
-6
42
-22
5
-19
-11
-69
13
48
4
-29
-1
-69
-19
-40
-8
10
7
4
-30
-81
-3
36
-11
-16
36
21
26
-1
-2
12
-11
-15
-42
1
74
51
-1
-20
-20
-1
6
14
-38
-9
-31
19
-9
-72
20
-2
18
-25
2
-14
-9
25
109
-2
-15
-12
-5
-5
-29
-25
-9
4
23
14
59
-17
-10
-67
-40
2
-27
-51
5
23
21
-15
-25
13
1
-22
-2
-21
17
5
12
-6
54
40
4
7
2
22
-12
5
7
-16
4
-4
-5
-8
37
-6
4
61
-6
-31
-8
-4
25
-4
-47
-82
6
8
-10
31
-13
-4
29
19
-10
6
18
10
-10
-2
-16
21
18
37
-7
15
15
10
-19
-19
4
-38
-2
-36
85
8
7
8
7
0
-8
12
-5
-33
-4
-26
6
0
5
-51
127
1
15
2
9
-7
-18
24
-7
5
-2
2
-9
-30
-2
-19
-35
-13
5
-1
-6
20
10
-22
20
-5
-36
-25
-24
-23
17
-38
-1
-9
-32
15
-13
-9
-6
-7
16
1
-29
-1
-2
127
-9
21
-41
-20
4
11
19
-9
5
-13
13
-11
-22
-33
8
6
-12
33
-26
-19
-7
-26
-11
-12
17
-1
15
-27
-9
17
3
-33
-12
-14
18
-3
0
-18
6
44
-3
-2
-8
25
-8
-94
-26
1
-18
-26
4
9
50
-1
1
0
-7
28
-18
-1
4
-7
29
-11
6
12
13
-6
-3
7
-11
33
-1
-14
-18
14
29
-27
-7
-46
-8
-27
-46
3
80
109
9
-1
21
-11
-29
5
41
40
16
5
-9
-42
2
-3
-18
-5
2
11
20
-12
-41
18
7
15
-13
-7
10
65
-4
1
6
-67
-6
-47
6
5
-7
10
-14
-38
3
11
14
23
-81
19
-14
-2
8
8
15
16
31
-22
-17
38
20
4
-30
-55
-11
-11
7
21
-9
43
-21
5
12
-21
-12
-41
-4
80
-15
22
1
-3
37
78
-8
-38
-36
-31
5
-18
0
93
-4
2
-60
59
44
-4
20
-19
5
7
9
1
31
-8
8
34
20
-18
-10
-2
-23
41
-6
6
13
-10
42
-20
-30
13
-6
-7
-40
13
0
2
10
42
-7
14
-9
2
-1
0
-45
-41
5
50
13
-42
23
28
-41
3
16
8
-8
54
16
27
0
-8
-3
16
11
0
-17
-3
33
48
6
-71
16
127
-9
-16
31
48
16
-39
-6
12
7
-13
18
-7
5
-27
-8
14
-5
1
-44
17
-30
2
8
7
-15
-1
30
-127
16
24
28
-48
13
4
-15
-30
22
-25
-4
4
-15
33
-2
24
50
12
12
20
35
38
-10
1
-19
18
-24
2
51
-25
-8
20
55
-24
0
-7
-49
-44
-34
-6
-21
-31
0
34
-24
45
-38
-22
-33
-28
12
8
-16
-13
10
-15
32
-1
0
-6
6
19
2
4
-46
-3
14
-8
2
-1
33
26
-30
1
-3
16
47
24
-6
-10
31
-17
-13
-9
-1
30
-8
-19
24
-15
14
24
20
-6
4
2
-4
11
-1
85
-17
17
-43
-13
18
-27
-43
-12
-39
18
-9
5
28
-57
12
7
7
-1
8
10
22
1
-6
3
47
47
0
0
0
0
0
0
0
0
53
1
-28
-3
-80
1
9
-23
-19
2
11
0
-3
33
-23
30
-34
9
96
13
1
5
58
2
15
15
-15
2
20
48
-19
0
21
-31
35
11
-23
10
19
7
34
3
-46
-19
10
19
-1
25
4
-1
19
-29
1
10
-33
25
-48
5
6
27
14
-4
3
16
-32
11
73
-24
2
11
17
19
-40
17
-48
-8
14
-1
1
-1
19
31
49
7
3
-9
-2
-1
-19
21
-11
25
21
-10
35
-1
52
-22
-41
9
10
-17
21
-19
20
-51
-22
-18
-2
67
2
0
-24
-25
-22
-9
-1
-35
12
-11
-6
-1
-10
-21
4
6
5
-4
-8
21
-17
-1
-49
-5
2
15
-46
-10
14
36
-53
-8
-15
13
7
-16
-16
-5
-8
-19
39
-19
-17
-3
21
-25
-4
18
11
39
-1
14
6
-19
33
-20
0
5
31
90
-13
-16
5
15
-4
-16
15
-43
-34
56
0
-117
28
-38
-9
-14
-44
-15
-10
14
-2
2
-41
28
40
-4
4
15
-20
-6
-29
36
1
-6
-23
-6
-7
-12
3
-3
5
13
-4
-60
16
-19
16
-10
-26
14
3
-19
-8
13
127
-47
22
-3
11
-30
26
-13
-47
74
16
-25
12
-40
14
12
34
-81
12
17
-3
1
1
-20
-70
-18
-4
-8
-10
29
33
16
-1
-6
-18
0
22
18
-6
3
1
4
1
-1
-12
3
7
-10
26
17
33
-8
5
-32
-16
-6
-3
7
15
61
27
24
35
17
