-2
-112
127
-127
-10
-127
32
-24
-15
-81
-41
-21
9
47
-38
0
2
-10
-8
1
-2
-11
1
17
0
0
0
0
0
0
0
0
-4
-35
-2
10
1
-3
0
-10
21
30
-4
-20
-7
32
-37
-59
-3
-36
-27
-6
19
7
12
6
0
0
0
0
0
0
0
0
-52
0
-33
1
-3
18
95
-20
23
10
-33
43
-5
61
-6
5
0
-68
12
-3
13
-4
15
16
0
0
0
0
0
0
0
0
0
0
0
0
0
0
0
0
0
0
0
0
0
0
0
0
-8
40
-25
39
-127
-13
-7
5
2
86
-45
-78
-2
52
8
36
0
0
0
0
0
0
0
0
31
25
80
-45
2
83
-19
23
1
6
-17
-5
1
-17
8
5
0
0
0
0
0
0
0
0
-4
-13
1
2
-3
-1
1
-14
9
-34
-3
0
6
9
-12
-127
127
9
-16
6
4
4
127
-6
-3
-27
-7
1
-6
5
11
3
-3
-19
-2
-6
2
18
13
59
-1
30
23
10
0
-77
-35
2
0
0
0
0
0
0
0
0
40
-23
-97
-43
-2
-34
-44
-1
0
0
0
0
0
0
0
0
12
43
-62
-7
1
-92
23
29
24
-90
-9
1
-11
-1
-19
6
12
-127
10
18
-3
117
-24
-27
-21
-39
14
23
-45
-9
0
13
10
-30
-41
2
-18
110
-127
1
-20
4
15
-6
-1
19
4
10
0
0
0
0
0
0
0
0
1
2
-5
-127
2
-3
-8
127
-51
6
37
-64
-11
32
-2
-51
-1
20
18
3
8
-9
-5
3
0
0
0
0
0
0
0
0
-16
-13
6
-9
37
-5
-7
-5
2
-127
127
10
41
2
63
14
2
7
40
9
23
-11
12
7
0
0
0
0
0
0
0
0
0
0
0
0
0
0
0
0
0
0
0
0
0
0
0
0
19
27
-87
4
-19
13
-14
-2
27
32
121
30
-3
-73
-30
31
0
0
0
0
0
0
0
0
13
12
-90
13
127
92
52
17
-3
5
9
34
6
25
11
-46
0
0
0
0
0
0
0
0
14
-2
5
-2
2
1
3
3
127
22
33
10
11
-4
32
5
3
-4
-38
-4
-17
-5
-60
-2
-4
6
9
-38
3
-5
10
26
54
1
-1
-100
-10
-4
18
-64
8
-9
26
-17
89
-36
-88
-16
0
0
0
0
0
0
0
0
-3
-23
-112
-3
51
-62
44
0
0
0
0
0
0
0
0
0
-12
22
62
-13
12
127
47
19
-10
30
62
3
28
5
7
1
20
8
1
22
33
-106
-30
-38
21
47
-88
-38
-64
-11
7
-2
18
-65
-77
49
-2
-114
-14
-38
26
7
-54
33
-65
97
-3
-8
-10
4
48
51
9
-18
0
-27
-112
127
37
-58
22
86
45
120
22
12
-53
-17
-55
16
7
-3
-23
-8
52
44
-5
26
-6
34
-125
19
123
-8
-23
-47
-127
30
-126
-28
127
-18
-1
-38
120
-13
26
30
-15
55
3
-113
7
2
1
42
7
127
25
71
13
35
-127
3
124
-20
-25
127
31
127
13
36
-72
-92
67
29
3
8
61
-21
-84
-78
-30
94
-2
-28
5
29
-68
12
-127
-63
15
-20
-80
-3
85
-13
-44
71
-20
105
9
127
9
-31
4
2
3
16
-46
3
19
-20
2
35
80
48
-127
-21
-9
76
17
-8
-52
-64
-90
-6
-5
9
6
31
-16
-10
9
1
19
2
11
-104
20
24
-3
25
-21
103
16
-6
-97
-102
-85
98
18
-25
-8
-25
17
18
-4
-7
-88
-48
-16
-25
92
-36
11
2
127
21
-1
48
-76
77
-68
-12
-2
-46
-13
-8
0
18
-87
-30
11
-63
-16
-40
22
45
9
6
-5
22
-110
-127
-48
-17
30
-34
4
-28
-6
-19
-15
7
14
3
19
-127
-28
31
127
127
-29
-12
25
-60
-11
26
29
54
-6
9
-2
-26
127
-115
43
28
-14
-39
2
-127
-55
1
35
-3
-43
32
-84
-47
85
65
25
-1
127
-127
56
35
107
-74
45
28
-38
-27
24
-86
95
-127
-7
1
6
117
-37
12
-1
15
-7
6
-10
72
110
22
-38
58
38
27
63
58
-27
73
83
-59
-56
-9
-15
9
-1
-39
-5
-3
-127
-29
9
5
-38
-19
-3
-16
-120
-2
-102
69
5
-73
70
38
1
-11
48
-20
-21
46
127
116
-7
-22
62
24
118
42
-7
-27
-111
-127
78
-80
11
-55
-85
-34
3
-11
96
-76
-121
71
-55
-58
77
-31
-116
80
-39
-30
48
-50
16
-22
37
24
-127
31
-10
10
-90
103
-10
13
-8
-25
-49
0
-12
-7
-35
27
8
-30
73
-8
5
-42
-18
36
-19
1
-114
6
2
15
-10
-8
-76
-24
127
-5
-20
-18
69
-20
-34
127
12
8
48
21
16
-15
61
-7
99
11
10
6
20
-3
-18
43
43
-2
51
12
127
-106
69
-9
-18
94
91
-19
100
-127
-127
-30
-16
102
127
0
19
-21
27
2
-24
-27
28
6
4
2
79
12
20
7
19
28
-28
27
-78
23
4
-127
32
127
17
0
-3
11
89
-17
13
20
-39
13
-30
-19
0
-1
-34
-71
-43
46
-54
14
-4
26
-1
-22
2
5
48
20
-4
-92
64
110
-76
54
8
0
-16
-4
14
-127
-103
-78
-7
11
24
-18
2
54
-78
-11
-3
23
-21
10
120
-107
125
-93
3
1
-30
-16
9
117
20
11
-127
0
-54
-15
-26
5
-127
86
-15
22
-16
-19
46
86
-27
-47
-20
-3
60
-18
29
29
-25
15
-4
91
127
-71
30
-18
-20
24
-4
-127
108
-102
10
-24
-42
2
-21
-19
19
20
29
68
-3
-66
17
-21
8
26
-62
-17
1
53
34
-7
118
127
16
0
-125
127
-27
-7
32
22
127
89
-52
46
-1
-25
-82
-12
65
2
-9
-13
-13
-28
7
-28
83
-9
-36
14
26
-4
113
99
21
-18
3
3
1
-90
41
-79
17
-41
38
21
0
19
45
-25
-26
19
-26
-22
4
-100
57
-127
111
-6
-127
-6
4
127
47
-15
-127
-36
-5
10
-6
-9
-127
3
2
7
85
-20
3
124
-67
72
-89
23
-64
6
14
25
-77
40
-46
50
14
21
102
-3
43
-28
19
127
15
12
-127
-33
27
-31
32
119
0
-1
-7
-104
35
43
-63
11
0
11
-4
95
-53
-31
26
26
6
127
-17
2
-84
8
-9
111
71
2
1
109
38
-84
-83
8
36
31
-6
0
-19
-11
4
-48
-22
18
-16
57
11
49
34
-41
19
-116
2
7
-75
-2
7
92
23
8
-33
-31
-23
14
48
-3
3
14
-34
-19
-89
39
75
-79
35
-6
10
-42
-70
56
43
72
-18
-4
-23
21
65
7
-116
-117
-26
20
127
5
69
-127
-28
94
-54
-3
-13
30
46
52
112
-15
64
3
42
27
70
-24
12
77
-100
3
7
80
93
28
27
25
-85
10
-28
69
42
-4
32
4
-57
-6
16
67
127
6
62
-127
-11
1
5
-25
6
-34
26
91
33
115
1
-127
-71
32
12
-57
7
0
4
12
77
-50
127
24
-48
11
-5
-21
-22
39
45
-13
127
6
5
17
-5
36
6
69
11
-127
1
-91
-66
30
27
-37
2
-4
-2
8
-8
-72
-1
5
56
-19
0
8
28
66
23
-56
2
-3
4
-32
25
-16
31
105
2
0
2
55
-6
66
-7
-125
-26
-6
2
14
-7
31
-127
-11
-39
-15
-1
24
20
105
4
-115
-29
3
-3
-43
7
-124
21
-30
-127
-5
-10
-8
127
108
-3
-1
-58
-9
2
-2
-72
127
-7
2
-28
12
-4
-14
-41
77
34
127
-3
11
0
-11
-40
-17
8
-62
15
-127
-125
-127
-16
-36
5
-1
-32
2
-1
-46
-8
-56
35
-90
63
6
-3
45
-57
98
26
-6
23
2
-2
31
-15
-113
10
-43
17
125
127
-127
-4
-2
-22
-6
-12
101
36
-1
-12
3
21
35
-17
72
-31
24
-22
-14
99
-17
-20
47
22
-4
12
50
127
7
-3
94
36
0
-20
39
63
20
38
-24
-7
0
127
12
-1
-41
-13
-106
16
-16
6
109
2
-10
44
-127
-52
3
34
-82
96
-34
127
9
-118
117
-7
43
-5
-127
94
-3
-127
-127
-24
39
10
-102
12
85
4
-12
-1
82
49
-19
18
-35
-9
-3
12
-36
65
21
12
-18
-125
-19
-6
48
-7
39
-2
81
-24
-7
27
-54
-21
-22
-28
-101
21
24
-5
127
-23
36
2
24
2
-10
19
0
32
-10
66
-24
-115
9
-5
27
4
45
10
-12
45
-2
-33
-53
-32
4
61
-16
125
-67
-72
18
-51
22
-15
20
-64
58
84
62
119
-8
25
6
87
13
50
92
-127
28
-127
-47
-5
-32
1
-127
10
-4
-24
97
-15
110
1
-85
-109
0
-30
-70
-127
-23
-3
70
-51
-39
12
127
44
-97
27
-4
1
-87
28
113
52
83
24
-33
26
-92
0
111
89
1
-22
33
68
32
-38
-9
-104
-23
-127
64
-38
0
-99
12
-64
-22
28
-40
-14
127
-2
-34
34
8
99
-79
-102
15
29
107
-78
-127
107
-56
0
10
27
-74
77
-28
67
29
-18
-29
-89
15
-53
4
11
-25
-20
88
-5
-11
-47
78
4
9
-47
-20
-73
-82
27
-28
-11
-1
7
10
66
32
-9
39
-6
11
22
14
22
-76
-42
-23
4
8
-106
-12
40
35
7
-10
-127
13
-31
-4
107
-60
25
-6
1
-23
-121
-24
-24
127
45
-52
2
-21
84
-13
-97
-73
127
13
8
-83
-97
-90
58
-96
115
1
6
-101
-84
-87
-5
-67
13
-127
5
22
-100
-3
-40
53
27
87
2
8
-3
0
14
43
106
19
2
127
4
127
-5
55
9
-20
2
22
56
8
-127
-30
-30
-2
2
2
-103
5
-27
-22
-45
44
-6
-37
127
-24
-29
37
101
28
0
88
0
88
-9
-50
-15
4
-28
2
127
16
91
-49
-83
-33
-23
-10
-16
91
-57
121
84
-4
39
8
-22
34
-25
-127
-83
4
-46
-7
-9
-16
61
14
48
-1
-8
43
4
-118
-114
-124
-65
6
-53
16
-3
-31
37
-78
-73
-6
-9
17
71
28
127
15
21
-116
-4
47
-10
-127
-102
21
50
127
-6
54
8
-93
-10
87
94
23
127
3
-26
-84
18
-38
4
18
-62
-17
-29
-13
24
-29
-127
6
-2
-127
-1
66
-10
-94
-33
14
-37
-2
-3
-23
124
18
-9
-3
-4
9
7
-10
24
-9
0
20
-38
29
-61
97
1
-19
36
-1
-7
-87
-5
65
