-2
-112
127
-127
-10
-127
32
-24
-15
-81
-41
-21
9
47
-38
0
2
-10
-8
1
-2
-11
1
17
0
0
0
0
0
0
0
0
-4
-35
-2
10
1
-3
0
-10
21
30
-4
-20
-7
32
-37
-59
-3
-36
-27
-6
19
7
12
6
0
0
0
0
0
0
0
0
-52
0
-33
1
-3
18
95
-20
23
10
-33
43
-5
61
-6
5
0
-68
12
-3
13
-4
15
16
0
0
0
0
0
0
0
0
0
0
0
0
0
0
0
0
0
0
0
0
0
0
0
0
-8
40
-25
39
-127
-13
-7
5
2
86
-45
-78
-2
52
8
36
0
0
0
0
0
0
0
0
31
25
80
-45
2
83
-19
23
1
6
-17
-5
1
-17
8
5
0
0
0
0
0
0
0
0
-4
-13
1
2
-3
-1
1
-14
9
-34
-3
0
6
9
-12
-127
127
9
-16
6
4
4
127
-6
-3
-27
-7
1
-6
5
11
3
-3
-19
-2
-6
2
18
13
59
-1
30
23
10
0
-77
-35
2
0
0
0
0
0
0
0
0
40
-23
-97
-43
-2
-34
-44
-1
0
0
0
0
0
0
0
0
12
43
-62
-7
1
-92
23
29
24
-90
-9
1
-11
-1
-19
6
12
-127
10
18
-3
117
-24
-27
-21
-39
14
23
-45
-9
0
13
10
-30
-41
2
-18
110
-127
1
-20
4
15
-6
-1
19
4
10
0
0
0
0
0
0
0
0
1
2
-5
-127
2
-3
-8
127
-51
6
37
-64
-11
32
-2
-51
-1
20
18
3
8
-9
-5
3
0
0
0
0
0
0
0
0
-16
-13
6
-9
37
-5
-7
-5
2
-127
127
10
41
2
63
14
2
7
40
9
23
-11
12
7
0
0
0
0
0
0
0
0
0
0
0
0
0
0
0
0
0
0
0
0
0
0
0
0
19
27
-87
4
-19
13
-14
-2
27
32
121
30
-3
-73
-30
31
0
0
0
0
0
0
0
0
13
12
-90
13
127
92
52
17
-3
5
9
34
6
25
11
-46
0
0
0
0
0
0
0
0
14
-2
5
-2
2
1
3
3
127
22
33
10
11
-4
32
5
3
-4
-38
-4
-17
-5
-60
-2
-4
6
9
-38
3
-5
10
26
54
1
-1
-100
-10
-4
18
-64
8
-9
26
-17
89
-36
-88
-16
0
0
0
0
0
0
0
0
-3
-23
-112
-3
51
-62
44
0
0
0
0
0
0
0
0
0
-12
22
62
-13
12
127
47
19
-10
30
62
3
28
5
7
1
20
8
1
22
33
-106
-30
-38
21
47
-88
-38
-64
-11
7
-2
18
-65
-77
49
-2
-114
-14
-38
26
7
-54
33
-65
97
-3
-8
-10
4
48
51
9
-18
0
-27
-112
127
37
-58
22
86
45
120
22
12
-53
-17
-55
16
7
-3
-23
-8
52
44
-5
26
-6
34
-125
19
123
-8
-23
-47
-127
30
-126
-28
127
-18
-1
-38
120
-13
26
30
-15
55
3
-113
7
2
1
42
7
127
25
71
13
35
-127
3
124
-20
-25
127
31
127
13
36
-72
-92
67
29
3
8
61
-21
-84
-78
-30
94
-2
-28
5
29
-68
12
-127
-63
15
-20
-80
-3
85
-13
-44
71
-20
105
9
127
9
-31
4
2
3
16
-46
3
19
-20
2
35
80
48
-127
-21
-9
76
17
-8
-52
-64
-90
-6
-5
9
6
31
-16
-10
9
1
19
2
11
-104
20
24
-3
25
-21
103
16
-6
-97
-102
-85
98
18
-25
-8
-25
17
18
-4
-7
-88
-48
-16
-25
92
-36
11
2
127
21
-1
48
-76
77
-68
-12
-2
-46
-13
-8
0
18
-87
-30
11
-63
-16
-40
22
45
9
6
-5
22
-110
-127
-48
-17
30
-34
4
-28
-6
-19
-15
7
14
3
19
-127
-28
31
127
127
-29
-12
25
-60
-11
26
29
54
-6
9
-2
-26
127
-115
43
28
-14
-39
2
-127
-55
1
35
-3
-43
32
-84
-47
85
65
25
-1
127
-127
56
35
107
-74
45
28
-38
-27
24
-86
95
-127
-7
1
6
117
-37
12
-1
15
-7
6
-10
72
110
22
-38
58
38
27
63
58
-27
73
83
-59
-56
-9
-15
9
-1
-39
-5
-3
-127
-29
9
5
-38
-19
-3
-16
-120
-2
-102
69
5
-73
70
38
1
-11
48
-20
-21
46
127
116
-7
-22
62
24
118
42
-7
-27
-111
-127
78
-80
11
-55
-85
-34
3
-11
96
-76
-121
71
-55
-58
77
-31
-116
80
-39
-30
48
-50
16
-22
37
24
-127
31
-10
10
-90
103
-10
13
-8
-25
-49
0
-12
-7
-35
27
8
-30
73
-8
5
-42
-18
36
-19
1
-114
6
2
15
-10
-8
-76
-24
127
-5
-20
-18
69
-20
-34
127
12
8
48
21
16
-15
61
-7
99
11
10
6
20
-3
-18
43
43
-2
51
12
127
-106
69
-9
-18
94
91
-19
100
-127
-127
-30
-16
102
127
0
19
-21
27
2
-24
-27
28
6
4
2
79
12
20
7
19
28
-28
27
-78
23
4
-127
32
127
17
0
-3
11
89
-17
13
20
-39
13
-30
-19
0
-1
-34
-71
-43
46
-54
14
-4
26
-1
-22
2
5
48
20
-4
-92
64
110
-76
54
8
0
-16
-4
14
-127
-103
-78
-7
11
24
-18
2
54
-78
-11
-3
23
-21
10
120
-107
125
-93
3
1
-30
-16
9
117
20
11
-127
0
-54
-15
-26
5
-127
86
-15
22
-16
-19
46
86
-27
-47
-20
-3
60
-18
29
29
-25
15
-4
91
127
-71
30
-18
-20
24
-4
-127
108
-102
10
-24
-42
2
-21
-19
19
20
29
68
-3
-66
17
-21
8
26
-62
-17
1
53
34
-7
118
127
16
0
-125
127
-27
-7
32
22
127
89
-52
46
-1
-25
-82
-12
65
2
-9
-13
-13
-28
7
-28
83
-9
-36
14
26
-4
113
99
21
-18
3
3
1
-90
41
-79
17
-41
38
21
0
19
45
-25
-26
19
-26
-22
4
-100
57
-127
111
-6
-127
-6
4
127
47
-15
-127
-36
-5
10
-6
-9
-127
3
2
7
85
-20
3
124
-67
72
-89
23
-64
6
14
25
-77
40
-46
50
14
21
102
-3
43
-28
19
127
15
12
-127
-33
27
-31
32
119
0
-1
-7
-104
35
43
-63
11
0
11
-4
95
-53
-31
26
26
6
127
-17
2
-84
8
-9
111
71
2
1
109
38
-84
-83
8
36
31
-6
0
-19
-11
4
-48
-22
18
-16
57
11
49
34
-41
19
-116
2
7
-75
-2
7
92
23
8
-33
-31
-23
14
48
-3
3
14
-34
-19
-89
39
75
-79
35
-6
10
-42
-70
56
43
72
-18
-4
-23
21
65
7
-116
-117
-26
20
127
5
69
-127
-28
94
-54
-3
-13
30
46
52
112
-15
64
3
42
27
70
-24
12
77
-100
3
7
80
93
28
27
25
-85
10
-28
69
42
-4
32
4
-57
-6
16
67
127
6
62
-127
-11
1
5
-25
6
-34
26
91
33
115
1
-127
-71
32
12
-57
7
0
4
12
77
-50
127
24
-48
11
-5
-21
-22
39
45
-13
127
6
5
17
-5
36
6
69
11
-127
1
-91
-66
30
27
-37
2
-4
-2
8
-8
-72
-1
5
56
-19
0
8
28
66
23
-56
2
-3
4
-32
25
-16
31
105
2
0
2
55
-6
66
-7
-125
-26
-6
2
14
-7
31
-127
-11
-39
-15
-1
24
20
105
4
-115
-29
3
-3
-43
7
-124
21
-30
-127
-5
-10
-8
127
108
-3
-1
-58
-9
2
-2
-72
127
-7
2
-28
12
-4
-14
-41
77
34
127
-3
11
0
-11
-40
-17
8
-62
15
-127
-125
-127
-16
-36
5
-1
-32
2
-1
-46
-8
-56
35
-90
63
6
-3
45
-57
98
26
-6
23
2
-2
31
-15
-113
10
-43
17
125
127
-127
-4
-2
-22
-6
-12
101
36
-1
-12
3
21
35
-17
72
-31
24
-22
-14
99
-17
-20
47
22
-4
12
50
127
7
-3
94
36
0
-20
39
63
20
38
-24
-7
0
127
12
-1
-41
-13
-106
16
-16
6
109
2
-10
44
-127
-52
3
34
-82
96
-34
127
9
-118
117
-7
43
-5
-127
94
-3
-127
-127
-24
39
10
-102
12
85
4
-12
-1
82
49
-19
18
-35
-9
-3
12
-36
65
21
12
-18
-125
-19
-6
48
-7
39
-2
81
-24
-7
27
-54
-21
-22
-28
-101
21
24
-5
127
-23
36
2
24
2
-10
19
0
32
-10
66
-24
-115
9
-5
27
4
45
10
-12
45
-2
-33
-53
-32
4
61
-16
125
-67
-72
18
-51
22
-15
20
-64
58
84
62
119
-8
25
6
87
13
50
92
-127
28
-127
-47
-5
-32
1
-127
10
-4
-24
97
-15
110
1
-85
-109
0
-30
-70
-127
-23
-3
70
-51
-39
12
127
44
-97
27
-4
1
-87
28
113
52
83
24
-33
26
-92
0
111
89
1
-22
33
68
32
-38
-9
-104
-23
-127
64
-38
0
-99
12
-64
-22
28
-40
-14
127
-2
-34
34
8
99
-79
-102
15
29
107
-78
-127
107
-56
0
10
27
-74
77
-28
67
29
-18
-29
-89
15
-53
4
11
-25
-20
88
-5
-11
-47
78
4
9
-47
-20
-73
-82
27
-28
-11
-1
7
10
66
32
-9
39
-6
11
22
14
22
-76
-42
-23
4
8
-106
-12
40
35
7
-10
-127
13
-31
-4
107
-60
25
-6
1
-23
-121
-24
-24
127
45
-52
2
-21
84
-13
-97
-73
127
13
8
-83
-97
-90
58
-96
115
1
6
-101
-84
-87
-5
-67
13
-127
5
22
-100
-3
-40
53
27
87
2
8
-3
0
14
43
106
19
2
127
4
127
-5
55
9
-20
2
22
56
8
-127
-30
-30
-2
2
2
-103
5
-27
-22
-45
44
-6
-37
127
-24
-29
37
101
28
0
88
0
88
-9
-50
-15
4
-28
2
127
16
91
-49
-83
-33
-23
-10
-16
91
-57
121
84
-4
39
8
-22
34
-25
-127
-83
4
-46
-7
-9
-16
61
14
48
-1
-8
43
4
-118
-114
-124
-65
6
-53
16
-3
-31
37
-78
-73
-6
-9
17
71
28
127
15
21
-116
-4
47
-10
-127
-102
21
50
127
-6
54
8
-93
-10
87
94
23
127
3
-26
-84
18
-38
4
18
-62
-17
-29
-13
24
-29
-127
6
-2
-127
-1
66
-10
-94
-33
14
-37
-2
-3
-23
124
18
-9
-3
-4
9
7
-10
24
-9
0
20
-38
29
-61
97
1
-19
36
-1
-7
-87
-5
65
39
59
6
0
-20
65
13
5
-5
-16
53
-72
-19
29
13
48
-45
27
21
-23
-82
-73
13
11
-20
23
-17
-26
24
9
4
-13
42
-40
-14
-20
1
-19
10
84
-10
19
70
120
-9
34
0
-56
80
-40
34
-10
73
-16
-86
48
-20
53
-53
15
3
-22
13
41
-3
5
-3
-30
-16
11
2
-10
-8
7
11
127
-24
8
-10
21
51
27
9
0
23
-35
-47
-2
118
-30
0
-8
86
-22
127
-5
127
-28
-11
-23
-92
123
-27
-9
-11
45
-66
21
14
2
16
49
-11
-30
-111
49
-50
10
-33
66
-93
46
-37
-7
-59
-23
55
127
31
33
37
9
-8
-32
-2
70
-13
20
67
124
-10
30
1
-54
72
15
-37
7
-2
20
76
-47
-41
-25
-37
-16
16
38
23
-12
6
16
-6
40
-42
26
1
-10
-39
41
-19
-53
-16
-11
37
-21
-24
-31
7
1
-101
-127
-20
-34
58
9
-58
-2
-4
-1
12
-20
-38
3
27
61
-2
-3
2
-13
-11
-3
-28
97
-13
5
-6
-19
-5
-32
27
-9
-41
-78
-23
16
-8
-10
17
92
-19
24
-10
-40
5
20
-24
-54
-2
8
1
-27
-24
17
-13
-40
50
25
-104
-7
12
50
34
-8
-19
-8
15
-45
-41
21
-127
33
-35
-5
26
-6
-31
-39
-20
-24
-16
-4
3
-31
-27
22
-19
-39
26
-8
10
-23
-22
9
0
-24
-11
28
-15
-36
-40
-85
71
8
-44
-1
-52
4
-83
32
-16
-21
5
-111
43
-41
-11
34
-19
57
18
88
-24
17
11
-47
8
-9
-13
20
-34
1
-15
-5
7
10
-26
-9
12
4
29
-17
12
-33
10
6
-19
24
3
44
-24
-2
-127
75
8
10
-43
-107
13
14
-9
45
76
13
-12
-7
5
-55
-1
-21
14
-12
-12
20
57
122
-10
37
0
-56
-42
-26
-63
3
1
10
-18
-38
12
2
-27
-77
-12
-14
14
-10
-14
18
-3
-11
61
112
21
-13
-22
35
-74
110
-57
7
11
-57
27
-54
-27
6
112
-100
-33
-1
4
-17
-5
17
-35
-23
-6
-49
35
-44
32
47
-22
-34
81
-2
55
18
3
-4
-43
-30
-40
-82
-2
1
-62
116
-11
12
-1
16
-48
64
11
-15
-18
-4
39
-31
-32
7
-30
-9
-9
28
0
-34
-45
16
84
35
23
31
0
-21
-74
38
-24
10
-12
-68
24
43
-14
48
-7
-21
29
29
-10
-47
-50
14
-22
-13
-40
-35
-32
-80
11
78
-38
2
75
-12
-19
-29
2
29
-6
8
22
33
-32
-62
-19
46
-8
-14
28
-10
20
-4
0
19
-16
-31
7
20
2
-4
-18
44
55
-30
-4
-33
13
-33
36
28
57
11
11
-7
28
78
-26
44
-35
5
41
114
27
-46
31
127
-7
-25
6
-5
6
-18
-36
-6
-17
-8
-17
44
-8
-37
23
-47
4
-29
0
12
11
73
16
3
1
-28
12
2
1
11
-65
-7
86
-3
24
46
26
-9
-10
34
19
109
-19
23
4
-27
11
3
-91
107
-19
9
3
20
19
8
-6
-22
-6
-15
-40
-18
-17
-6
-56
51
-8
9
-27
14
-16
51
-17
-47
-16
22
17
-51
-9
25
-16
-32
11
0
12
-19
-19
7
-5
19
8
4
-7
1
7
-37
-21
-2
-17
-27
40
-58
-36
12
10
-9
-7
10
-12
-12
-27
-8
-5
32
37
33
13
56
18
-51
-37
-5
45
72
-14
-64
40
2
1
-5
13
-7
8
38
-126
36
-45
31
34
10
-99
-59
64
5
6
27
22
-32
-13
37
-39
0
15
9
-7
6
11
1
3
-17
-26
-7
3
20
79
-55
-17
-12
-34
22
-1
28
4
24
-12
5
8
44
5
-2
-8
11
7
2
3
-6
1
-23
24
85
-42
16
-11
-2
-46
37
97
-2
-25
-21
19
59
-14
19
5
26
-46
15
-35
-4
-27
-2
-40
-43
44
-2
-25
-70
-25
-22
23
20
0
-2
-81
93
-11
5
3
31
7
-10
7
-18
-12
68
-6
-49
13
-54
-21
21
-4
45
-43
13
-6
32
26
-50
-127
7
-1
16
-8
26
-2
0
-24
-5
-3
49
17
-7
3
-67
21
15
0
2
-4
28
-16
24
-27
0
2
-3
-25
48
-19
-21
17
-31
-4
-24
-3
-25
16
-2
43
-19
1
0
-3
-38
16
26
-42
-30
-3
7
-6
-98
-33
83
35
61
-1
-17
-4
-6
-5
-20
-69
20
-3
18
-67
-1
-21
-25
-46
-19
-6
4
43
18
-10
8
-4
25
2
66
4
-28
16
0
55
-16
-1
8
-11
-26
5
24
4
-50
-3
-17
38
79
-30
15
79
-55
9
30
-2
5
-1
79
-18
-127
0
-15
-6
20
-19
25
-21
4
2
-2
-84
-27
-1
-13
-49
-16
-9
-1
12
-24
17
-12
-3
33
-3
17
-12
-64
27
78
-28
-15
-3
-24
-9
-5
16
15
-62
-8
-10
35
-9
86
-20
19
-114
12
1
-42
65
-5
2
0
-68
16
2
-21
14
-21
9
-52
9
19
-2
28
16
-5
-4
-32
8
3
2
28
-6
-7
-13
17
-88
-16
-17
-13
20
-11
-12
-22
-28
-18
2
30
-7
10
-55
11
9
30
-3
-36
-78
10
-25
52
-31
27
17
73
-10
-1
2
-28
27
71
-1
-50
-9
-29
-4
-17
33
0
1
-21
12
-26
-16
-6
-48
4
2
55
-5
31
2
-8
-37
-15
-1
67
23
-43
-25
-79
-14
-35
4
-16
-40
-31
-2
-67
6
7
-4
-16
-18
-20
-8
-15
43
43
3
85
-14
73
12
-81
-32
24
10
-5
18
-51
-16
-14
-10
14
7
-5
4
-50
51
-13
1
-10
-4
-20
18
12
-12
-22
-23
7
4
-4
-21
9
0
-6
-25
3
-4
29
-13
-10
-8
-21
47
25
1
8
10
-6
-98
12
-3
-5
-1
2
-1
27
-16
24
-27
3
1
-8
-2
-40
0
-63
19
119
0
9
10
-5
-127
6
1
27
-6
-27
17
10
26
-25
-21
-45
5
29
-6
10
-15
127
-64
17
-5
-23
127
20
-6
6
-2
33
6
-29
29
-13
-10
-55
-8
-46
-2
40
75
53
27
-89
44
-93
-9
-49
-19
12
-1
-29
32
12
7
14
2
17
-16
4
2
12
1
4
-20
-47
27
-3
53
71
-6
-30
27
-23
-26
-61
-21
-18
2
-7
10
-45
9
-74
10
19
4
17
-22
-17
1
-5
-38
4
0
-29
124
-10
2
26
9
2
5
13
-48
54
-10
-16
-36
-5
12
-26
-19
-37
10
17
29
-31
2
16
-29
3
8
31
37
-7
10
14
-9
10
8
-18
20
12
-3
24
2
13
-42
-5
2
17
-1
-38
-7
-19
6
-40
39
59
-4
-25
4
5
1
78
9
-106
-3
-23
2
-2
10
-24
-47
66
6
49
46
11
-1
11
-40
23
1
6
43
-35
-33
-94
-38
-53
3
-21
26
-5
1
-92
-16
20
-1
-5
-5
52
-6
-10
-11
-3
-1
-3
5
-32
1
-46
-64
35
2
11
-1
-10
3
-7
14
-8
0
-24
8
22
-16
-3
4
11
0
3
-18
4
14
-18
-5
46
7
8
7
-17
-2
24
25
-42
2
-5
-17
-12
14
33
-56
-3
-1
48
-4
22
5
-5
-37
-5
-2
36
-8
-16
-32
32
2
44
0
13
27
12
-8
91
-36
34
-14
68
-9
2
16
-11
17
21
-3
-10
14
-3
3
10
-57
47
-5
51
-14
30
-39
44
52
30
0
-3
-26
46
56
62
13
53
-1
8
-10
-3
6
-33
-3
-22
-127
24
27
35
7
-22
-17
5
-10
127
9
-6
11
40
-57
-7
-3
4
32
127
-4
32
-73
15
-12
18
-29
9
15
32
7
11
-4
-20
-7
-21
-17
34
1
39
0
26
-29
22
51
3
4
33
-5
-69
21
13
-1
-11
-20
17
0
1
6
-42
97
-5
-13
-9
-2
15
-3
-75
-8
-70
21
-42
9
-9
20
37
13
-59
-30
-12
-1
4
4
19
-14
-3
3
9
0
5
-53
-10
3
26
-25
-9
-5
-23
23
-127
65
4
49
42
127
27
70
-5
34
68
-127
46
64
-22
-38
-3
10
16
2
-49
3
-6
127
-15
-72
-14
9
-69
48
14
36
8
9
-50
1
1
-35
0
-4
8
38
22
27
4
55
88
-50
-6
62
-35
-21
6
77
-9
-23
-15
8
63
59
-65
-18
-9
44
-10
-57
124
6
17
57
-20
-30
22
-37
-9
32
3
-6
125
3
45
-9
8
43
44
16
-85
23
94
84
17
4
-8
58
36
-49
-16
59
-21
-22
15
68
-5
-35
-44
82
4
-21
19
14
16
-56
-17
-60
-4
96
59
-54
-55
0
-6
127
-22
-6
51
-31
-14
36
8
4
-51
3
-1
-31
1
-1
5
-13
-5
11
23
13
-14
-4
-6
-36
21
9
-8
20
23
23
-22
-4
117
91
-85
-4
-17
-23
-10
63
-27
35
-126
4
18
-31
42
-5
-12
41
-18
96
-16
14
-4
46
16
-6
7
-34
-17
11
1
-15
-65
2
-23
52
2
44
-13
-14
-74
11
-11
48
1
64
-42
-64
24
34
94
17
-12
10
-13
-9
-62
15
5
16
-3
-50
16
-10
17
-29
-11
-10
2
-11
-13
24
-73
-30
-38
26
-79
-53
7
22
-27
-12
-27
13
-2
-59
4
45
12
29
26
53
12
10
-12
-6
14
22
57
-42
19
-54
3
21
-9
2
-71
3
2
-74
8
-16
-35
14
-29
26
-10
-13
-46
-22
8
17
-34
-74
30
-15
35
41
18
-21
21
-30
44
-17
6
42
85
83
49
42
-30
-26
-18
-26
-1
11
78
16
-8
0
4
11
-15
45
0
-14
10
-21
-28
-15
-33
-28
43
18
-8
-6
-3
-17
6
-1
15
-33
15
1
15
40
-5
-9
-33
-10
-127
-17
-9
-21
9
-54
12
-7
17
37
6
7
-55
6
-7
-19
-2
-15
3
-110
35
3
-20
49
3
-42
-4
-31
-10
-55
-2
-7
10
78
-31
4
58
-76
15
-79
5
-111
4
76
1
22
62
2
-3
10
7
94
0
7
-5
-41
-33
-40
-33
6
-13
30
20
34
0
17
-21
-25
106
36
36
0
54
-15
-50
27
-3
28
2
-6
-41
71
-7
-27
-46
5
-22
47
0
-7
-20
75
-25
-64
-6
38
29
-92
7
-12
-32
11
-20
36
0
-10
12
-24
-34
7
-9
19
-4
-10
-72
-41
-5
6
14
-121
-6
18
58
-1
-4
3
2
40
-39
40
20
21
24
6
-2
-2
-14
5
16
-38
-8
-3
22
81
24
-18
-19
34
27
-2
17
-17
-29
-55
11
29
-28
-16
-53
6
5
-47
25
-5
-7
-13
-16
-3
1
-57
16
13
-1
-18
-33
26
-1
12
2
102
-22
-21
40
-61
8
18
-42
70
33
-87
45
-51
18
17
11
-33
-23
20
27
9
20
-94
13
-23
-46
18
-25
22
0
103
-3
-83
-25
18
-67
37
14
0
-16
7
-32
-9
4
5
1
-54
31
-16
1
35
7
-8
22
16
0
33
-72
11
0
16
-1
72
-11
-24
-49
7
-27
56
-1
-2
-5
-21
26
16
-13
44
-39
-21
-5
59
-12
-1
29
46
12
-59
-43
36
24
50
-127
16
-10
-45
4
21
-20
-3
-66
-10
2
-5
7
-23
36
-45
24
9
-4
-53
-34
-34
-77
-41
-41
37
36
-32
-2
37
10
-25
-57
12
10
-64
7
-24
-7
12
6
34
10
-63
-17
-18
-49
102
-20
7
22
9
-12
29
26
8
-11
-4
2
15
97
-19
-12
-14
8
-107
-80
-55
-44
-23
20
2
1
34
-51
-42
16
15
30
4
21
18
5
-22
-20
-20
1
-29
-28
-12
58
-33
-26
90
5
-40
-34
24
4
19
-2
-21
35
-39
31
10
-8
43
-19
14
-24
19
21
-72
-10
-3
-5
0
-4
18
12
-27
-84
38
-11
19
-27
63
11
5
13
-45
0
21
-6
37
12
47
-28
-1
-2
38
-127
15
13
-55
20
70
-8
-25
-53
5
-25
59
2
-91
86
-51
9
-11
-61
1
27
56
-31
76
-71
-41
0
6
-43
-7
14
-5
25
27
58
-5
-20
-25
12
-27
-74
4
6
18
-127
-30
10
-25
14
-76
-127
-14
2
-52
-5
27
-12
-93
-89
-8
33
92
-28
21
-12
25
-63
-5
-31
-34
13
-10
-18
-36
63
-14
-27
-27
23
-11
-9
18
25
-15
-37
-127
127
-93
24
-20
78
23
56
10
91
121
51
-1
-2
29
17
-46
43
110
-57
38
29
127
76
13
0
-71
0
3
-63
8
-53
0
31
37
127
6
2
-55
71
75
-60
-36
2
97
-28
0
12
-39
124
30
6
-38
-47
-12
-21
26
-42
2
77
-28
-40
-61
-37
17
-82
-34
5
-27
47
-11
-4
14
-38
71
-121
0
-11
58
-16
-89
34
-8
1
-43
2
-3
1
36
26
-127
20
5
-1
4
36
38
0
-104
-35
-20
9
108
41
-21
45
11
-5
127
77
-24
-70
96
-42
-18
7
43
-51
-11
-16
15
22
30
23
-5
-43
8
49
-10
38
-29
-18
8
54
45
-43
127
5
40
-1
-14
17
-126
-32
36
20
-12
-127
10
-20
93
-2
29
84
-108
14
4
-76
0
77
-1
127
-127
-20
5
12
12
104
-12
-70
56
-8
4
-127
6
127
-81
71
-24
57
-48
41
0
-95
8
-16
33
-40
-21
79
-5
46
12
-56
64
36
-20
23
12
-21
28
-27
30
97
127
0
6
14
-75
-25
91
88
-1
40
99
16
3
5
-20
-15
-19
33
18
55
40
33
-23
40
39
-3
-103
-32
0
-77
-44
-14
-9
2
29
-43
8
37
-28
33
1
28
-4
-32
7
-15
3
7
33
11
-77
2
32
-44
19
-9
3
-26
-3
-88
-22
12
-54
-3
-1
-33
100
-24
-15
-37
7
6
-1
-16
-19
-5
-22
29
-10
-18
-42
2
3
-27
-9
-5
32
12
-35
-16
127
-13
-29
3
46
-34
-9
-25
-11
-87
-11
-67
0
-10
-5
101
-24
86
14
89
-24
21
-19
-20
3
62
-127
-48
49
-73
127
-50
84
68
-13
5
-17
26
50
24
30
2
-1
-3
-50
10
-37
-17
18
-40
33
-37
-17
23
9
-7
-3
89
-11
58
10
-6
40
3
23
71
-52
43
11
-111
88
-18
36
-67
-31
-28
-36
-35
53
-11
63
-32
17
-127
-13
47
13
0
-15
-106
35
-40
-75
46
14
-80
-3
-28
-12
-5
126
30
-110
-80
127
5
-20
-24
51
68
-68
127
22
61
20
-14
-20
48
-21
16
-11
127
31
-13
46
1
-28
24
41
-19
10
-49
-39
-127
20
5
-16
41
3
34
24
10
-5
32
13
57
-15
0
39
-19
100
4
88
26
38
47
-20
22
-112
-42
-10
-11
90
13
49
-11
109
3
84
-22
-11
-1
10
-54
46
31
26
-18
-11
0
-89
-2
-32
49
-54
37
-2
16
-127
-22
-41
-34
-121
33
14
44
2
61
113
99
23
-108
39
33
10
-65
14
16
15
-58
36
-38
1
72
-25
18
-59
39
-31
-65
18
-127
47
2
38
-25
-3
-27
-2
-12
40
-12
-29
-14
3
65
-26
44
-33
41
-64
33
-127
-11
-28
-10
94
98
-6
62
84
72
-70
-30
113
-127
56
127
7
127
38
-95
-62
23
33
105
10
6
-36
26
27
12
-7
8
-72
80
67
-5
-48
18
-29
68
-27
-25
9
-27
-51
-97
-38
14
-24
4
12
-24
21
6
93
13
14
48
36
5
39
-28
127
28
19
-56
14
18
58
-12
-54
59
-19
34
-5
15
-17
-10
90
1
-10
-48
-31
9
90
-14
73
17
69
-87
-4
4
-4
-42
-24
20
-11
-122
8
-23
32
-15
-47
-57
60
48
24
50
13
-25
3
-44
11
-82
-24
96
-6
-23
-64
-53
-1
-57
4
14
-7
-13
-56
5
3
-7
2
-15
12
-17
-38
-25
-13
-18
14
-86
1
-26
-17
-26
24
25
39
-46
-127
-81
49
-59
30
84
127
62
-40
-37
-21
101
70
15
124
-78
54
21
44
-60
-36
3
35
-38
-55
-85
49
58
27
-10
-17
37
-17
44
10
28
-112
38
7
-22
-1
-57
-3
-10
6
-12
127
-10
-13
22
-127
24
14
-15
-90
-22
97
-5
42
-34
-20
1
10
33
-82
-8
8
39
62
28
-61
62
5
18
21
-24
24
-26
-75
3
43
6
-14
-31
64
17
-55
-27
22
-13
-62
-60
127
23
6
33
27
41
11
127
-48
127
-24
116
37
-42
-4
73
-17
5
-87
-127
-35
23
46
13
-46
-49
-14
26
-47
126
-33
-23
-10
-16
-30
-26
-14
-9
4
12
-8
-21
-57
38
-127
20
91
-12
-37
-27
15
-49
-14
115
-10
-15
-28
-2
9
51
-37
25
93
-39
-17
67
-6
11
-107
-127
-49
68
-80
-13
5
-41
15
-18
-8
32
-33
-12
3
17
-6
12
-26
4
45
123
21
111
46
-8
-10
-100
1
-36
52
-11
24
6
6
20
-39
-14
75
15
-62
-10
5
-10
65
-14
6
-1
-51
75
-19
31
0
-21
-46
-71
19
15
-64
65
-1
-104
-5
-48
-29
30
10
18
43
-4
-2
-32
-68
72
-64
-41
27
3
-15
2
-28
11
-50
-46
48
-1
28
-17
47
1
-100
-109
127
-8
-31
-64
-31
-3
14
-127
58
25
2
-69
-127
56
67
15
-29
-3
24
-16
-35
27
8
-123
10
-6
-4
26
18
-28
48
-68
-98
-32
15
127
79
-111
-127
23
24
-90
-19
37
27
-63
-19
37
-65
5
-15
19
-79
-40
-36
55
-21
100
-2
8
64
-13
-18
52
-70
-2
-8
59
5
-19
-29
13
15
27
-49
7
-14
-3
-67
80
-15
61
27
-63
-4
62
-21
64
16
-19
-22
76
-75
14
115
-50
36
-109
-31
-114
44
127
38
42
18
14
5
-33
-58
82
-11
-30
-6
26
-45
-22
-112
-26
82
40
-121
-127
127
79
-48
-97
50
-6
74
52
14
-26
16
-69
10
-27
71
16
-13
-26
15
47
9
-89
68
13
19
-42
10
-63
1
56
-3
126
-68
-57
-39
0
-22
-27
53
-16
29
21
-32
-6
-31
-11
-52
18
-7
-67
-87
-58
-48
-28
46
127
55
55
-39
6
11
-25
50
-97
79
-12
-8
58
28
-14
-63
-104
83
7
-10
14
127
-90
-37
-11
-31
-13
2
-11
-21
51
-87
6
69
-12
-15
-31
45
-42
-45
9
-104
-9
-5
-19
-24
-4
26
40
2
0
43
60
45
7
67
4
54
-126
127
53
60
57
127
-44
39
27
-8
-17
125
45
71
-26
2
89
0
25
4
10
47
-28
127
18
17
19
-22
-63
-17
-73
26
55
11
-127
3
39
38
-7
-32
69
21
39
20
16
2
-41
-97
15
-23
48
-42
8
66
-72
6
-127
-91
13
-95
8
-12
12
-60
13
-98
-6
4
-6
60
4
-3
-9
20
15
-1
-22
105
25
-26
-98
66
-3
0
-12
-121
-28
48
12
-5
2
-79
-47
-60
110
110
31
-36
33
89
-127
-66
14
43
-1
9
43
-36
3
-78
-90
-15
38
13
30
-62
-16
-25
-24
-6
-33
-3
29
-24
0
-33
41
-28
-91
24
44
-115
-29
1
-7
41
-100
-8
5
-15
1
-51
-46
65
-127
-6
-43
-30
-2
21
-2
102
-89
-3
92
-21
-10
-48
2
-17
30
-4
47
-64
-12
-13
-9
36
-91
-32
43
-15
3
47
-71
-1
-57
41
77
-2
-4
-91
-13
44
23
41
14
109
-127
-4
-6
75
-15
127
61
90
-45
-26
-19
88
9
-3
7
44
7
3
15
-19
32
-47
32
-24
-4
53
-13
-37
93
-1
-127
55
1
127
-6
46
-80
-21
118
13
-23
65
-3
17
90
-67
-48
-45
-18
31
0
-96
108
-12
-79
20
-3
6
41
-127
-17
89
-39
-127
-45
19
-11
5
15
-1
1
-121
-10
79
-57
-16
43
-2
7
8
-9
104
-56
8
10
116
-25
52
7
-57
-127
-25
21
-41
29
39
-4
58
-65
76
-72
-6
19
-56
0
15
-9
57
0
19
-3
-57
-47
-71
72
31
-90
14
-32
-1
77
43
12
45
-24
23
7
-26
14
-65
7
-73
-55
15
28
-19
-23
8
-8
-32
-38
12
15
37
-94
2
43
-89
-127
-38
-31
-34
1
-17
29
-17
-26
18
-8
-23
-127
-28
59
-105
23
26
-6
-82
50
-9
29
-48
-27
-7
-17
-54
114
4
-1
94
27
27
18
21
23
25
45
110
5
-127
-29
113
2
-45
-127
92
85
-8
-2
99
23
-16
8
41
-59
30
49
52
5
127
-28
69
-16
-29
73
25
22
1
-7
-37
-33
11
0
38
17
15
19
126
-39
22
-6
-21
26
60
-2
71
45
-1
-9
-83
14
10
-63
-127
90
-4
19
25
-52
-126
109
15
-70
-37
-18
-127
-14
-1
6
1
-4
4
7
-86
-5
24
-46
7
64
-38
-49
-9
7
-35
47
13
50
20
127
48
-14
-13
70
9
52
8
19
43
-43
-4
45
-56
-28
-16
11
-37
81
30
-24
-127
51
48
0
56
-3
55
83
53
-55
-16
-56
-9
-74
0
17
20
69
8
88
35
13
-1
-2
17
-51
21
-83
106
-78
19
-36
-116
-19
37
6
34
120
-41
-33
-2
-43
-44
-19
-18
74
-127
63
-24
-53
-105
11
-1
50
-22
23
107
8
10
13
82
-3
-27
-11
92
19
-45
23
73
12
5
-46
81
-22
-11
-13
72
-57
-73
-27
-25
10
5
-15
-127
-83
-33
64
6
-44
-15
-96
-121
39
11
10
118
-37
-8
17
-37
127
15
-27
1
90
-8
111
-58
-34
-27
5
1
-74
-9
-7
-81
24
60
26
29
-103
-13
-5
82
110
50
28
-34
55
-9
109
-1
16
-27
0
-8
5
-32
9
15
-37
47
-127
-35
-106
12
-127
45
-20
17
-9
-4
-30
4
29
84
-32
44
25
28
23
-14
47
-35
91
-8
10
-17
-74
-22
-106
-32
25
-5
-46
-102
127
-7
27
-21
-72
-66
-45
-30
-46
127
0
6
84
25
-29
21
35
6
14
-55
60
-29
45
59
-40
-31
-98
21
-17
15
6
-7
60
1
-6
9
38
127
41
12
4
-127
-127
-87
-46
-3
-49
-8
-50
7
-16
-43
-127
-5
-23
-3
-32
-12
-8
-96
116
-5
-121
-101
-12
-19
-31
-108
32
22
51
6
39
-9
7
36
-3
-17
-43
2
36
0
16
-81
-74
58
-9
37
-6
7
18
45
-2
-18
-21
-5
17
77
-40
19
-19
28
-41
-11
32
-21
-38
35
36
10
-62
-18
-43
-6
-27
-41
57
19
31
-10
1
2
-62
0
-24
-5
-127
4
-127
7
27
32
-36
9
-23
-2
-24
10
32
-54
97
106
-14
2
-33
-59
-30
41
19
9
32
-41
-54
2
9
41
111
4
62
-26
-36
-9
-48
-72
0
-46
-38
17
-36
14
6
7
-2
12
33
7
-13
-9
88
24
-5
37
20
10
-14
67
122
33
-13
-23
67
-4
82
-10
-50
86
88
12
-104
127
-23
-9
7
-127
17
34
-29
-72
-69
-19
31
38
-86
-43
25
-39
79
13
-67
-52
43
36
0
-1
43
-10
4
55
34
40
25
-127
21
-10
4
-14
83
21
0
29
-43
47
9
-118
64
-34
13
2
-4
127
-31
-91
71
18
36
-24
-111
12
-40
-41
-99
50
2
-39
74
-12
-30
26
127
15
-13
8
87
21
30
13
-43
9
-90
9
127
5
50
25
-30
-127
-77
113
-53
23
31
-52
-68
-77
127
94
39
-17
101
63
-58
23
-22
42
85
73
57
-51
-74
-69
14
-31
-3
-8
13
19
43
11
-14
48
-32
5
-127
-2
84
-21
27
2
0
47
-12
-99
85
14
58
-32
0
8
-6
-48
-57
4
-9
-9
-1
-50
-13
40
6
-8
-64
-101
-56
13
-24
-57
68
21
7
-39
2
32
-30
-34
-60
19
52
6
57
-39
-17
55
42
93
-109
80
-15
11
-13
54
4
-14
31
96
8
-50
42
127
123
13
-44
-27
94
35
-24
-75
-53
-57
-1
31
-20
-34
14
43
26
-122
31
47
-2
41
60
-40
-50
2
-37
42
6
21
10
-4
41
14
33
-22
21
-10
-14
10
-37
-127
99
-54
15
19
-15
2
31
70
117
-62
2
12
-10
-10
15
64
18
-58
-11
10
35
-127
34
13
-32
13
-12
8
34
3
35
1
-40
-47
-33
20
-16
-9
-9
43
-45
-66
-20
-28
-40
-106
59
11
-56
-90
-80
-35
127
5
-107
-30
-24
-25
127
-18
35
25
-40
45
72
-71
-2
-15
-17
-39
46
19
58
-46
-8
18
18
6
-25
32
1
52
-30
-127
-21
11
0
17
54
-10
-2
10
23
21
-36
-1
-13
15
-2
36
81
-14
-42
7
-127
0
4
-50
-1
9
8
60
84
127
-44
12
44
-16
-61
14
-10
28
-2
-19
7
-19
25
-19
62
-22
38
25
-52
3
127
-14
-33
-55
-75
7
-96
-21
65
-43
9
37
17
31
-26
1
30
-113
34
-58
-10
-28
-1
116
-5
27
98
-10
17
-96
-45
-33
5
-74
-51
-43
76
-66
-23
42
6
20
-11
-39
25
-7
0
-10
11
-100
-32
-30
35
22
8
-3
1
4
54
37
54
27
-36
127
-12
-7
127
-38
45
95
-93
120
6
-10
23
15
1
127
-3
-93
101
-17
19
3
25
101
-41
43
-10
7
30
14
36
46
-11
-94
-127
59
-26
8
11
29
5
12
-12
-21
-84
1
32
84
-8
-12
-5
-8
34
-82
33
78
12
-50
-4
7
80
25
-80
-78
27
37
-29
-7
-6
18
-124
36
-2
5
-30
11
0
13
-24
-6
-127
39
-17
-28
-5
44
4
-84
14
57
-15
4
-6
94
-25
-8
5
29
9
-31
-63
77
-55
62
27
64
-55
-36
-43
-111
124
-13
18
46
-77
32
-26
-18
82
-1
-13
-8
-11
64
37
-35
-84
37
1
56
10
127
50
-127
-17
13
8
15
14
-9
-54
12
-127
31
66
-56
-13
5
26
-12
72
125
4
-64
-60
-112
56
6
50
-11
5
72
-2
-127
-6
90
35
-30
60
-44
52
13
-21
17
5
57
-16
20
-75
14
41
79
-22
15
-27
60
67
-117
8
-31
44
-72
71
-63
-39
26
35
-38
127
-127
127
-68
-3
52
11
73
-12
84
-74
54
-3
65
-38
17
30
9
-50
-127
30
7
61
-45
17
22
-65
79
2
17
-39
-28
-68
9
-47
24
14
-18
4
38
-3
56
-16
14
-5
8
8
127
46
78
-31
-29
124
79
45
33
22
-55
55
48
-1
13
7
50
12
-37
14
-3
-118
29
-127
24
-67
-25
74
-49
1
20
11
28
-100
-45
6
16
-10
-30
-22
108
-32
-34
34
-45
-92
-58
-79
-20
-83
56
-66
-119
-13
30
-9
59
-18
-88
53
15
127
-12
-29
-23
-38
-3
-8
-5
-1
-24
-18
-104
-14
-26
33
-24
-33
-38
-6
-56
-24
9
24
-28
110
-74
-41
25
37
50
-62
35
-3
-126
25
-2
-28
37
-40
62
-18
-43
5
-23
-37
-35
-28
-1
20
69
40
-21
1
28
-11
67
16
-23
-8
-10
22
-9
-19
4
17
-35
53
-10
-6
24
18
26
33
-28
-17
44
-104
4
105
-1
-2
-44
-4
3
-127
10
-79
60
-76
-61
2
5
-21
-11
-54
53
13
-127
-38
-13
17
-35
-7
-5
55
-90
-5
-35
-17
-27
127
49
-8
-42
-53
-25
61
9
-36
0
-37
49
-127
-27
33
127
2
-88
15
19
60
26
-20
47
11
-109
127
66
-24
27
-83
-35
-19
-76
15
20
12
3
-5
8
23
-25
-91
73
-6
127
4
6
0
-11
-8
-69
15
64
-27
-1
-48
-40
9
53
-1
8
12
-21
10
63
116
14
-25
30
63
6
-24
-70
85
15
-12
25
9
21
40
127
-92
-12
8
-34
42
-27
0
72
75
53
27
37
-40
-69
-3
-7
-1
30
-100
-6
16
24
-25
-97
-85
-7
-19
44
95
-40
-32
20
-105
-83
-17
14
-41
-24
-13
30
-27
14
-40
0
-3
0
91
12
-7
-40
6
0
-127
61
49
12
80
-50
18
0
13
-29
50
31
115
-85
16
0
-22
35
16
12
92
-4
-72
0
25
100
3
-7
29
-34
-127
0
33
127
-21
19
16
-31
-65
0
22
-17
-3
53
22
-38
21
0
2
-19
43
16
-81
-44
-1
0
-20
1
28
28
-27
2
-5
0
0
-107
28
12
33
77
-4
0
-17
-12
20
29
-76
65
-25
0
43
-74
28
-127
125
26
-96
0
13
78
40
-9
-45
6
-26
0
21
14
24
10
-59
48
-38
0
31
-120
-112
34
3
3
3
0
10
-32
52
6
6
-123
-11
0
1
18
-61
7
-127
52
94
0
3
-15
-36
-41
30
-127
19
0
63
81
-38
105
120
-64
-1
0
-21
-61
-24
18
6
17
-7
0
3
9
-7
-19
24
36
-10
0
-12
2
-35
39
14
-38
19
0
64
-102
36
54
-93
-59
-42
0
-55
56
-127
28
-6
-49
60
31
-16
62
22
-10
81
-44
127
4
50
108
21
31
-26
11
1
-6
49
5
-9
-53
-7
3
-3
79
38
31
6
52
30
-127
55
-15
-8
103
-17
9
-72
-51
-55
-11
34
43
-36
-23
-91
16
20
15
46
-127
-127
18
-14
-10
-22
50
-9
34
7
24
-127
46
-41
-7
-1
-54
58
-5
30
83
-71
14
-59
18
-3
48
59
11
2
-87
-127
-24
1
7
21
15
-4
-47
25
-26
16
62
-8
13
-24
46
-23
-14
6
31
89
-3
-24
-127
-12
21
-2
-127
-15
-16
-24
-9
-126
19
-19
7
-44
-26
10
-32
12
10
6
26
19
-12
-8
-42
74
-19
10
-23
-3
-11
10
-14
-99
27
15
40
-80
-11
-72
22
93
-14
19
64
-18
14
-19
17
41
-6
4
-11
29
-20
15
65
31
29
-29
-41
1
-17
28
104
-35
6
-30
19
13
20
26
-10
62
19
-48
-9
-30
0
50
30
0
-1
102
-19
-21
-75
-50
-4
-32
38
-28
25
1
10
-22
-1
25
14
-17
-1
5
22
12
28
26
19
0
-9
-1
-20
-60
-9
63
-121
-17
-16
33
-37
6
33
-15
-3
-70
5
29
5
61
-3
53
12
13
22
77
7
15
10
1
48
0
-1
-30
-1
-34
13
44
27
49
1
-24
2
17
-25
-20
7
-19
20
48
15
-28
40
23
-4
-75
5
-47
-19
-20
57
25
50
0
25
33
-21
29
5
25
-18
34
6
21
-10
29
35
24
-15
18
4
42
64
11
-86
75
1
-4
-14
9
-19
-2
13
104
25
4
-15
-12
20
-13
-99
-62
-10
52
52
-50
-5
127
-1
-28
-14
-62
41
-9
74
11
7
-2
-34
28
-12
-22
41
32
-63
48
6
3
-9
43
56
74
16
-10
9
-12
2
7
6
-21
35
10
-12
-31
25
-6
-28
-32
-7
-28
-24
39
-1
-49
-77
-7
4
58
5
19
8
-98
-45
-6
43
4
43
-10
21
40
6
-9
56
25
38
-17
17
-44
-41
62
-14
-15
-11
11
-25
-6
-50
-27
-22
12
5
-29
25
-14
27
-88
27
-7
1
36
-20
-45
-12
30
60
-12
7
-7
-22
-69
-75
73
-14
-17
-2
12
-59
6
11
16
-5
-10
9
-7
-31
-31
3
2
-11
-16
-1
12
12
-107
43
39
16
-1
-16
0
5
0
97
6
31
45
-62
-17
1
127
46
2
-6
24
-22
-27
-9
-107
-17
-12
19
101
-23
7
8
-13
-60
67
6
-18
13
0
32
-5
-79
-3
11
-5
48
19
-7
-126
-25
40
-23
-15
8
2
-39
-6
-76
-19
8
58
36
5
5
-107
-39
33
50
-58
-52
33
-1
30
-54
40
50
17
5
-12
16
-33
23
-28
-10
69
-2
-9
-3
12
-50
-49
-32
-82
8
127
6
93
39
8
-16
50
12
8
-16
4
32
8
-127
56
6
-9
-2
34
62
56
-17
-40
20
-8
-1
-13
-29
2
-5
32
53
7
-16
-23
32
14
14
51
2
6
-12
0
-31
52
-71
50
10
-19
-3
34
-5
2
-5
-16
-4
-63
11
-19
-14
46
-4
105
-2
24
1
-19
-6
2
-10
-82
-10
-38
-2
10
18
10
13
26
-18
23
-18
1
3
22
-61
41
21
-3
4
77
-33
64
-8
-32
-3
-23
-46
-3
36
65
5
1
-2
14
2
1
0
-98
-9
28
9
16
-16
-20
8
-11
-83
27
7
5
32
4
20
51
-55
39
28
3
-34
41
-26
-26
49
92
-118
-28
-6
51
17
19
0
-12
18
13
-22
-19
-47
-2
-13
-41
-1
-8
-7
22
42
22
-28
-5
11
13
-4
16
4
63
-23
64
36
3
9
-7
24
15
41
-31
22
7
5
-53
-18
8
-15
-26
23
-9
-11
-41
-36
59
-3
-29
11
-21
-1
7
54
-21
0
-71
52
34
13
3
7
-19
-4
-2
35
14
-13
-11
-3
52
5
12
-5
-19
7
-61
-97
83
-36
55
-39
-36
-127
104
4
-17
3
69
-5
19
12
-34
-83
102
-10
-23
22
-20
16
-2
-106
40
6
20
-31
-7
-107
47
-2
53
-5
61
-12
16
-10
-7
-30
-105
21
47
7
6
-41
-9
105
-12
-19
66
37
-5
-14
74
-12
2
8
78
-20
15
-11
-48
21
88
-12
-12
5
-13
-5
3
-23
40
-1
-35
-12
0
-11
0
27
-32
8
5
-1
-76
2
31
-127
-41
4
50
-29
-12
-35
52
24
17
29
1
-9
-84
-28
-36
13
-29
4
-4
-11
-25
-3
9
39
34
-29
-59
-19
-35
-2
19
26
11
-71
14
10
10
32
-37
32
-11
-10
38
33
12
-25
-23
-96
0
1
37
-7
14
-10
-111
46
-16
-90
-19
-14
1
-13
1
-43
7
-6
-64
3
-31
-7
42
36
52
-2
-28
27
6
-1
-11
-41
30
-9
-32
-99
15
14
-63
-25
-19
-10
15
8
0
46
-17
-7
21
-14
32
29
-31
16
-46
-13
-30
24
25
-4
-31
47
-7
19
16
36
80
-12
11
-16
-61
-22
17
13
-25
-15
-25
4
6
-12
6
15
108
-12
4
17
21
19
11
47
-19
11
2
-4
-64
21
27
-53
-23
-4
23
24
63
-57
30
-12
-40
2
23
4
-86
37
127
15
-54
8
4
-14
-31
-9
37
-18
-26
25
5
2
-6
23
-69
-10
-25
17
-28
4
13
8
23
-14
9
28
-20
14
-49
3
36
17
12
46
-3
-13
-96
8
22
2
127
-3
10
-26
28
-17
-3
1
15
37
-5
-19
-12
0
-23
-18
15
3
36
15
-47
-8
35
-32
75
3
8
0
-1
-46
2
6
2
-18
14
-55
32
-73
-73
39
12
29
-21
38
-36
-9
38
-8
-4
17
-81
-48
61
54
8
-7
-36
18
-4
-24
-7
4
43
3
53
-18
34
12
48
20
41
66
34
30
25
2
-66
67
8
2
8
-20
-1
-5
-80
-19
10
-10
28
31
-47
-8
-24
-56
-26
1
94
40
16
-5
-71
-15
-18
-5
-5
10
12
-8
18
19
17
25
-44
43
5
14
18
35
29
18
9
34
-80
25
-29
-66
6
-24
-25
-127
-46
1
-60
11
60
-61
24
-5
16
24
41
-32
40
42
-1
5
13
-23
-45
124
-83
-68
-16
-44
-21
-15
-92
2
-20
-5
-36
0
-114
-21
-41
-23
26
16
74
-17
-30
-1
-20
3
70
-6
-47
16
15
8
-4
0
0
0
0
0
0
0
0
-20
3
-11
-8
-2
-5
51
-8
-50
-19
1
34
24
-9
24
-3
36
35
32
96
-21
6
-21
51
37
-19
-105
-24
-2
-20
2
-2
-38
-42
-43
-31
-1
-12
7
-2
-16
0
23
-29
-74
25
37
-73
-64
46
4
5
-25
-11
-79
60
62
30
2
-49
23
1
-4
-30
34
-2
40
-16
3
-1
-4
-85
-18
-55
-12
38
-6
-8
52
-25
0
-58
10
8
-7
23
-45
-19
29
-47
-62
-91
56
-12
-11
-51
-32
68
-13
-5
-7
21
-52
-17
0
-17
-46
26
14
1
19
23
12
18
35
-46
3
-43
-1
-4
-7
-4
-38
-65
-24
65
3
17
6
-14
14
-48
89
81
12
-12
-4
-21
-43
1
-6
30
64
-3
-11
1
38
-14
19
63
-12
-67
-2
-30
-12
-63
-22
59
1
13
6
-57
29
-42
-14
50
-31
-19
-1
36
-12
82
1
-64
-10
-19
23
-5
0
31
36
26
-109
-2
-1
8
9
-37
-49
38
84
-28
5
-67
-77
-44
3
-38
22
-45
-4
-8
25
-16
0
106
-2
-10
6
-9
21
-6
-46
-37
-14
-7
-1
-15
-21
-19
-37
-6
30
73
-5
-6
-1
-10
-8
15
1
17
-27
6
6
36
-23
-40
54
-30
-88
-9
-5
-14
6
-48
-49
37
-7
-18
-34
-10
1
14
-2
27
-21
-24
-22
-18
-12
-22
-91
-1
28
-40
49
-84
-22
-14
-31
52
-18
41
97
-23
8
-1
58
12
0
29
6
13
12
-3
4
-65
-6
15
-5
-17
-50
33
123
-29
-66
5
16
-39
10
40
-29
-9
-29
9
-19
0
-1
56
53
20
-6
6
-9
1
1
-11
-14
-3
-4
-15
-4
-2
-32
55
-10
-19
-9
12
9
-45
-11
46
-93
-12
124
6
3
36
8
47
62
3
-5
-16
-16
-68
-28
-21
0
23
-1
-5
-13
-7
44
-14
2
15
9
17
2
15
-2
-41
-21
-8
3
-32
19
2
14
-11
-4
54
11
9
47
-24
-127
21
-20
-51
14
-4
9
-43
16
15
-29
19
-3
-27
33
1
7
21
-3
25
-5
29
-16
44
-12
-10
-1
-43
127
-2
13
39
-2
39
78
-9
7
14
-9
21
-13
-37
19
9
0
-36
-2
9
15
10
-26
52
1
35
-5
68
-9
-127
13
-9
5
49
-42
-42
30
0
28
-15
7
127
-18
52
7
85
-48
15
4
14
-126
-14
4
-17
36
-9
0
-32
30
15
3
1
-7
-1
-7
-13
43
-6
-14
43
-16
-54
-3
8
37
-60
13
-37
36
7
0
5
8
-63
22
-27
2
-9
-6
-5
24
44
12
-18
7
-14
-3
-21
-35
-19
34
2
32
11
-4
-7
37
13
30
64
-5
-50
-6
46
-11
86
23
14
6
56
13
-14
-29
-47
3
-47
10
4
16
-3
34
-9
-14
-16
-117
0
-15
6
2
-10
-13
-34
35
3
-2
-1
54
-16
20
46
-10
1
17
-10
-39
-70
-21
-51
9
3
4
-3
23
-10
23
-18
83
3
-9
6
44
-29
-6
-18
-45
-7
5
0
17
26
57
19
6
-29
10
-17
3
-60
5
-19
-5
-17
-13
46
81
10
43
51
4
59
-9
-26
88
24
-18
29
-4
-51
-3
-27
-17
49
-20
-49
-7
26
8
8
20
0
-31
25
-8
7
-3
-29
-72
-83
-10
-42
37
-1
-10
-9
20
-38
8
28
-43
-24
16
-38
-127
-27
7
-75
27
-127
1
-5
-64
2
22
58
14
-12
-12
-30
6
-35
-2
91
-12
-53
46
22
37
17
-18
-13
14
-20
9
-14
12
-11
-16
6
-1
64
-1
44
13
14
24
-32
-1
-16
27
23
20
5
6
12
35
-38
-11
-11
19
-19
49
58
10
-52
-27
0
9
-38
9
23
-20
-13
-13
-2
29
4
-19
13
1
15
0
-10
-6
-7
-17
29
13
59
-8
2
36
-22
1
43
-33
-32
-1
-16
-26
-56
27
-16
-5
4
24
-8
8
15
18
17
-127
-3
-43
13
7
-25
30
-1
-7
-51
-1
3
-13
-8
35
16
-25
1
11
9
-17
-53
1
19
-28
-8
-17
21
54
66
9
70
8
4
-3
5
-8
-15
41
-10
95
7
17
-11
-33
-52
-16
-56
23
14
15
22
-7
4
12
-10
12
-57
-3
1
10
-15
-18
10
-20
-27
-4
41
57
-15
37
-18
-2
26
-2
-4
33
2
3
36
-12
-8
14
19
14
-8
-51
-14
12
8
10
12
22
25
5
-20
15
-4
-2
-4
15
-26
13
9
2
-21
16
-23
7
21
18
40
40
33
17
7
14
-59
-19
43
9
12
2
-1
-20
-6
8
33
-15
2
13
0
4
-15
20
22
-25
11
1
5
45
-29
-50
43
-4
-36
5
-15
-17
-17
-26
31
-40
-1
-3
13
17
10
12
21
1
-100
1
-7
9
15
4
5
-5
18
-12
-19
20
-51
2
71
-6
-11
12
76
-36
-23
-3
-39
-10
12
-4
-9
25
-23
-3
38
14
-43
-12
16
0
60
-40
-92
11
-17
-6
-11
4
-18
-16
44
9
37
7
-8
-24
-88
13
-51
10
5
-12
12
7
19
-23
13
104
-2
-8
8
5
15
-28
12
18
23
15
2
30
-14
-4
-14
22
-5
-12
6
-13
-19
41
42
11
-25
-5
-7
2
-16
8
21
-79
-8
-2
13
-2
-19
-23
3
0
-14
-4
-6
38
-3
40
37
-3
-58
14
6
37
-47
6
50
-96
-3
6
8
18
0
42
-7
-18
0
-24
0
-26
-41
-12
53
115
46
-2
26
7
18
9
43
-2
-21
13
-20
-23
-70
-5
-62
-2
7
4
-33
44
0
14
-45
-18
-33
4
-22
-17
-32
-20
9
9
-10
0
26
1
-18
-93
-23
6
-10
-2
-6
26
58
44
45
-24
9
61
1
8
-11
10
78
18
6
-42
33
30
20
-47
41
19
-40
13
22
-7
-105
14
64
52
-26
5
-38
9
-3
14
33
42
-9
2
-13
16
-21
37
58
-17
2
0
0
0
0
0
0
0
0
3
-5
26
14
6
-1
-2
-6
-7
3
-17
-4
7
18
112
-7
10
15
28
11
0
16
-1
32
11
-3
20
-28
-34
37
-6
-20
8
19
-8
-127
23
-24
27
25
-4
26
-19
3
-88
46
1
-1
8
15
18
20
15
-21
13
-4
-8
-3
45
-2
-25
78
0
-34
-9
-20
-11
-7
-84
48
-32
-78
0
-14
7
0
2
-9
24
-14
3
-15
-46
-62
0
-52
8
20
-8
35
13
-93
-19
37
5
-25
-36
6
-18
0
-13
51
60
32
43
8
68
23
-3
4
-25
64
-29
-9
-22
46
8
-1
-7
-7
-27
11
-32
-7
29
35
-63
-5
46
108
-30
0
16
29
43
-7
17
-2
50
-2
9
17
23
14
5
23
5
11
-2
46
-4
12
15
-44
-58
-23
7
-43
-13
6
-3
-45
53
25
-11
81
29
26
-16
-5
9
45
-6
32
-4
-9
-40
-18
0
-23
0
17
6
1
-14
8
-6
23
11
16
-32
38
7
-5
-45
56
37
49
22
-4
-10
21
-45
-45
16
-2
-42
1
9
9
16
10
4
41
15
9
-17
-15
-44
-24
-16
34
35
-17
8
-33
-10
25
5
16
-1
39
23
-35
-127
-12
45
-24
-24
-5
-22
19
-47
17
-5
17
56
127
-37
-1
13
-20
24
74
-51
-2
11
-21
-17
2
5
11
33
15
-60
-5
-10
26
79
12
-32
26
-74
33
-122
31
-20
127
42
-49
19
-17
13
-5
-1
1
102
11
13
18
16
29
2
5
-18
17
3
-5
-57
-2
2
4
21
30
13
14
51
-26
30
3
-13
-15
11
-10
15
-10
-21
-20
-7
-106
1
6
44
-12
14
-4
-10
0
19
-11
1
37
17
47
-22
-30
7
-17
29
-3
5
-10
-61
-20
-96
-1
-35
-9
6
-25
-1
-23
37
-12
34
0
7
12
-43
32
25
-1
7
-86
10
-11
15
-17
53
64
32
-6
-10
62
-105
10
22
-21
12
5
-4
35
-53
9
1
-2
-49
-27
-15
-10
18
8
5
10
63
-43
-17
-47
1
27
-58
-50
16
-5
18
-5
71
-6
9
-1
40
-2
11
-25
-47
-55
-16
-45
4
26
-35
-19
127
-3
59
-20
15
-17
10
50
104
-33
-55
6
96
-41
-25
12
24
12
11
26
-64
34
-68
84
1
-14
-11
3
30
-29
46
65
-48
-7
-48
28
-110
-16
91
64
-44
-2
-21
-21
57
-22
1
55
18
9
6
-5
-3
17
-27
27
-35
0
0
-14
3
42
25
24
-12
-4
57
-1
-23
5
-25
-22
7
-17
-24
-20
26
-7
-5
44
7
9
41
-24
62
-6
9
6
7
43
-8
13
10
-33
18
32
20
11
-66
34
-93
-69
19
6
-22
-30
-65
-4
-43
5
-5
-19
28
-23
-13
-21
-18
25
-4
54
22
-28
40
2
-1
24
5
10
-2
7
-91
-19
25
7
-32
-67
16
-16
-31
-7
18
33
22
0
-19
-39
-6
-21
14
25
2
19
-9
52
18
-29
4
41
-10
60
19
-50
-13
127
47
-5
24
86
26
-19
-68
-18
-25
52
41
21
7
-27
-80
39
-77
-6
-9
83
-41
-23
5
0
8
-9
3
46
-41
4
-56
-43
54
-23
-3
41
-7
0
20
-28
18
7
30
64
-45
19
-24
1
11
-15
19
15
-13
6
-31
9
34
-12
-51
2
11
-6
46
-14
-64
-36
-11
107
-8
6
8
11
-17
-12
-127
97
-8
15
-45
21
18
-25
-22
23
3
9
-16
-63
-79
3
-13
6
-58
111
2
-34
-28
-3
-2
58
-7
0
4
-7
-98
-28
4
12
-15
-22
-9
-48
-29
-11
-2
1
-59
100
22
21
15
-10
21
17
-5
-6
-30
-3
61
4
-15
-12
20
42
63
-1
-5
2
3
50
-110
-4
-10
-9
-26
-30
-1
32
0
-10
-23
14
-4
20
-50
21
-3
-17
-92
32
16
70
-13
-54
7
-7
-12
-21
-39
-12
3
-16
30
-7
-40
-61
-53
-21
-23
-12
-63
45
14
-22
34
-30
18
16
25
-24
11
2
84
-63
22
15
-9
14
1
60
-13
-16
-35
5
-71
-11
35
-35
48
22
-1
36
-23
44
-39
6
-15
26
43
14
21
-5
-6
-20
-17
22
14
-16
107
-1
-3
-22
3
-9
6
58
-7
4
-48
22
-54
24
-14
53
-28
-15
-11
7
11
-22
-20
-19
-12
15
18
16
14
40
-23
6
28
5
3
30
-25
11
-1
-8
-6
9
6
14
10
33
-43
15
-11
16
-58
-2
-21
-27
7
-13
-18
50
36
-4
-53
4
1
5
-17
-4
-26
0
3
11
-2
20
27
-7
-3
-12
-9
-11
-13
46
21
10
8
-7
-2
-18
7
62
-22
12
-10
-17
15
4
19
42
36
4
-61
6
21
2
-7
-76
49
8
3
18
-72
-13
20
19
38
57
-78
-2
25
-13
0
-21
-32
9
8
-4
-6
-13
71
52
-18
17
7
-1
14
25
-41
35
-30
20
-127
-12
73
-2
4
26
-29
-12
21
6
-37
-34
7
36
-14
-14
-68
1
-11
41
34
13
1
-7
-13
33
-33
-21
13
-12
-20
5
-7
-12
16
3
5
78
0
-22
-3
-24
-15
-9
-9
-4
-37
31
-12
-1
14
-23
4
-20
-15
-71
10
-11
19
-29
19
15
42
-46
-40
3
-50
-1
45
31
-47
-14
4
18
-3
5
1
29
-17
-1
2
-20
-50
30
14
54
-44
-14
-12
-29
-14
10
-3
-9
-13
-11
-8
-10
71
30
59
21
20
11
3
-34
-17
-42
11
50
58
1
-86
8
-36
15
21
-10
-1
-3
40
-41
10
-24
-19
5
4
11
22
-14
16
4
21
23
24
24
16
54
3
54
-8
-13
97
-16
-42
-9
39
-49
-7
26
-24
12
-6
17
-11
4
15
-13
-8
-24
-2
75
-96
-127
26
85
-69
12
-64
-25
55
2
-1
91
46
39
19
10
-5
-1
1
50
52
0
-79
-4
41
9
-56
-15
2
20
0
0
0
0
0
0
0
0
-6
-6
-34
-18
0
5
-12
-88
-4
23
26
-17
12
29
-2
27
-7
-4
-59
-20
-20
8
54
-56
34
-44
36
-3
35
74
15
6
72
-6
-53
-39
-19
-120
61
25
-15
17
54
42
4
46
-3
2
-5
-18
-42
-7
-17
-9
-16
101
11
-2
-6
-16
4
11
-59
19
21
-5
16
-23
12
49
-34
5
-17
2
4
-19
-23
-14
-16
-92
-64
1
-15
40
20
-15
10
15
-4
-22
-127
29
8
-96
-16
-9
-7
15
30
-21
16
23
-8
-48
60
21
0
28
109
-30
9
26
0
19
-31
9
8
-33
10
-3
25
3
2
6
66
-11
10
9
-30
94
-7
32
56
65
-3
-50
6
1
59
-62
-80
27
-15
-38
-5
-9
43
11
28
33
5
10
-85
-33
-22
-127
-38
127
0
14
56
127
30
45
-127
6
-4
48
-16
7
-14
-37
25
60
3
-29
-4
0
29
33
-3
100
-7
-21
21
31
-71
31
36
36
-21
127
10
15
28
5
-125
93
-1
62
26
-67
53
-3
100
33
-3
-5
-17
-36
-32
-21
66
45
-38
80
-127
7
19
-29
-7
-89
5
-20
36
-25
-19
-44
23
-4
-19
35
15
-114
-21
-49
-11
-81
30
9
11
-21
-19
-74
-100
-8
0
-16
-26
18
-40
-75
-78
-72
9
49
-38
-16
-63
-9
9
-84
-127
26
-25
-33
127
-34
-13
-2
-7
39
1
19
-19
-25
-72
-67
-33
-8
-36
85
-7
-23
2
7
6
-38
-67
-42
-14
8
-37
103
2
0
-28
-4
2
-127
-5
-9
-25
36
46
25
-34
-10
-43
0
-127
-34
-9
6
-8
41
-25
25
36
1
-13
127
-127
50
19
-9
38
16
-58
-17
7
82
-14
-11
-69
9
-9
18
16
4
-1
-14
44
5
15
1
-9
2
-33
-34
-64
127
-35
16
-2
69
-24
8
59
-14
-4
-8
13
-19
-37
2
-120
-12
-4
-13
-17
-20
9
-40
43
-1
34
39
-113
16
-53
6
10
-43
-5
1
-29
-67
127
-18
-8
-4
-58
25
2
-120
-13
28
22
-15
43
38
-30
69
127
23
-8
17
-6
5
12
16
3
-127
-67
103
45
-18
-10
9
-6
9
-25
1
20
48
-88
26
-38
-20
-43
-5
5
11
-2
98
-4
-15
-75
20
15
-2
-34
-21
-30
10
-8
15
48
-17
-2
-4
-66
-28
-3
14
-127
12
-10
17
104
25
-44
25
51
25
25
23
17
26
-36
-35
20
5
-11
9
-15
35
-14
15
-10
-11
0
39
0
-34
54
-44
-35
-45
21
-69
-54
-91
50
-94
-78
-47
47
-48
-88
-23
-82
-32
-1
124
-15
25
19
49
-28
-9
25
-52
-16
1
-52
49
-101
-3
-7
54
13
5
16
0
-41
-37
-3
43
127
-25
21
93
8
60
127
-11
30
-4
-48
-5
20
-92
16
117
23
-3
-44
-11
84
36
-11
-26
-19
20
15
37
0
127
-12
-30
53
61
0
-31
55
40
-15
10
58
-60
0
-18
40
4
-27
-61
-49
39
104
-124
41
24
12
-114
-53
59
42
13
2
8
8
127
-37
-127
-12
-1
19
3
7
26
34
-4
-1
-46
1
40
-17
-7
-15
81
-49
28
49
-12
-11
59
41
6
35
-45
39
-4
-38
74
-26
52
-42
-16
68
-25
33
-105
-5
-118
3
127
-41
16
0
-26
91
53
-17
69
-4
-15
0
29
-72
0
15
-64
28
-29
-10
-39
7
11
-4
-23
89
-38
-38
-32
-34
38
127
84
-127
-75
-102
-5
-13
-57
3
-21
17
26
-17
-18
3
-29
9
33
-12
23
-12
-67
-63
-43
-37
-100
6
-8
-7
49
57
-16
-10
36
1
-62
-61
127
9
3
-36
40
-19
1
25
27
20
10
12
55
3
3
0
48
4
18
7
27
9
-7
-17
-83
-22
100
-9
-117
10
4
-38
-16
-9
-19
-10
-14
-2
18
18
0
28
-127
12
-6
-10
11
-22
-73
-21
-17
27
-127
29
3
-127
-110
-70
-11
-34
-25
127
-11
-87
-74
-127
-23
-62
-53
-10
55
-8
-7
-6
5
4
-2
7
7
-77
1
-29
-12
18
119
-16
-127
5
-39
15
94
0
-65
18
3
-15
-11
6
17
-41
-30
-13
-22
-83
-54
0
-4
-7
-100
3
-27
-12
-91
-5
28
-3
-31
-1
-6
-51
110
-62
-4
-11
102
19
60
-23
-21
15
0
-30
-17
-7
-3
-17
-9
48
8
-46
56
18
19
17
-93
-27
8
127
-31
-18
76
14
101
-12
-11
15
10
2
-5
-5
83
-13
44
22
55
0
4
-3
23
-7
-50
58
-8
24
-53
69
-22
-6
-39
26
-7
6
8
-19
127
-8
13
-127
13
-3
52
-79
14
-127
-59
-30
127
-44
-49
27
-16
21
71
-37
-10
-8
-17
1
36
8
-8
51
9
5
-17
19
-19
-4
51
24
-9
20
75
-14
-33
-8
59
-30
12
16
33
-48
-5
-14
-27
-15
9
-12
18
9
-43
7
-90
-49
-1
5
-127
127
2
16
-10
1
-11
127
-97
27
-99
11
-19
126
-7
-20
-10
-61
-72
-16
53
69
9
-33
33
82
127
21
-85
-90
-7
49
-3
-43
-40
-6
40
-14
16
-17
125
23
-35
10
62
25
4
3
20
-8
31
-62
83
-27
76
30
52
-34
-10
-35
78
-31
4
-8
-30
69
47
13
45
91
-32
22
108
-30
9
-5
-47
-16
-16
-32
0
-98
6
12
-39
10
6
-20
22
-70
-5
-7
-27
93
71
4
-14
-38
-22
0
-127
-75
15
-46
48
18
35
8
55
23
-17
11
83
14
47
-16
21
6
-21
22
41
-8
-19
-96
-66
51
32
33
24
6
10
-121
-16
0
11
-17
-28
9
47
-72
-127
-88
38
-8
-13
54
2
31
2
-1
-9
21
4
16
6
22
3
-4
18
53
20
18
16
-25
-3
47
19
-10
0
-12
29
16
11
28
0
-4
127
5
17
4
3
-26
-4
100
-7
-12
13
-37
-15
57
-33
8
-37
-39
-17
68
-1
11
27
19
0
-3
-22
-66
-84
98
30
12
107
17
-15
30
-3
4
-35
-20
-45
-20
-10
110
115
55
-76
-1
-63
-127
127
13
-10
-23
-18
-78
-29
24
12
-14
1
-27
26
1
-12
-2
-13
107
49
109
9
17
-79
39
-27
-39
7
-11
-38
22
-2
26
1
-127
-109
23
-15
-20
61
12
30
15
1
-35
13
10
-22
6
21
-12
26
-127
127
-20
5
-18
1
0
-79
-25
-110
2
72
35
-1
73
-20
-10
-1
-14
-5
-97
18
2
17
21
-12
-127
-30
-5
28
-6
1
2
-1
-108
56
-3
7
31
45
16
-4
60
44
13
13
-3
-16
-11
21
17
-14
48
7
51
45
-2
20
0
6
-17
-1
-9
0
-5
-12
-5
-27
8
5
13
-6
27
7
-22
22
10
-71
2
7
3
29
45
24
22
11
-5
6
0
30
-2
-9
-14
36
0
-7
-12
21
-35
-26
1
0
-2
-6
-33
2
92
-48
127
19
-127
26
-127
-12
-7
28
55
33
23
127
81
-20
116
-29
14
16
-4
-7
-6
8
127
-68
38
12
12
-110
51
20
-28
127
-5
127
-5
-5
-21
127
37
-74
-16
-30
-9
3
-31
-2
-23
-16
74
-16
-3
-89
21
-10
38
-31
-4
-13
6
-11
-13
-35
72
-27
23
-3
-8
102
-30
34
-80
106
21
-23
8
2
55
5
12
-54
24
-24
-35
-11
-26
0
-114
-14
1
-37
-43
124
0
-2
-79
-54
13
3
4
-5
-3
16
40
-54
5
81
-4
-8
-4
60
-26
32
39
31
-102
18
-107
-20
-6
19
-38
-54
40
-29
5
19
21
42
12
1
-37
-27
60
22
-16
-22
14
-32
1
-31
-76
28
68
46
14
-17
-30
36
56
-6
17
1
15
8
74
38
-25
48
57
19
127
-19
-89
-28
90
14
18
0
-9
34
7
14
-15
-11
-15
-10
-19
14
127
-40
41
5
-4
-34
-16
-33
20
91
7
-127
31
-51
0
-77
27
15
93
-20
-36
29
-18
-22
5
127
-43
16
66
-41
-10
10
-26
20
88
-31
-45
-41
-11
6
-28
34
-50
0
-95
111
59
-2
41
75
-66
9
-14
-112
-7
-3
-15
-9
-33
-25
-10
-58
4
1
4
46
0
17
52
-21
0
15
-6
-4
-58
-68
-29
-32
31
-43
-25
-72
-23
-6
-33
127
-11
-5
-5
-82
34
-10
114
-32
-32
11
-34
56
7
6
97
-3
-31
127
-41
55
115
8
-127
-11
27
-28
-99
-25
127
32
-7
-14
-29
-7
41
-11
-2
8
-4
27
57
-71
-31
-10
23
3
-11
-63
11
-13
33
-58
5
-77
1
-59
-58
-17
-1
20
-127
2
74
-19
33
26
-5
-58
39
-42
7
-11
-21
-3
54
17
1
-48
17
19
-32
23
19
8
-14
-6
13
18
-11
-30
8
-8
-9
-3
-12
9
29
-5
-23
-17
10
2
-27
-58
24
-3
-39
11
-11
30
-12
1
-82
2
30
-10
-24
43
-3
127
-5
5
-3
32
18
-47
38
47
-58
0
121
-127
-12
9
114
58
-7
5
-63
-8
-7
-50
-19
-25
1
-11
93
121
18
-111
-48
-31
-49
37
7
3
-6
19
1
8
-9
-11
127
20
2
39
-27
-23
-46
-8
-35
87
-28
52
-43
68
-20
13
-92
-13
-3
-28
-13
-31
127
-14
-25
-124
18
-45
42
-21
21
0
-104
-2
-2
67
18
57
27
-3
-85
17
3
127
-8
-35
28
-6
-57
-67
31
39
127
27
13
-51
10
15
7
26
-20
65
35
127
-17
6
4
-7
-8
22
15
26
-6
7
-13
16
33
-51
127
-5
-74
64
-3
-107
101
-18
39
-36
-85
15
8
-13
22
51
22
42
81
94
1
9
-21
-21
2
-60
21
-93
-36
18
3
28
-10
45
51
10
3
127
44
28
15
-13
-35
10
-38
53
-117
-42
77
-61
35
58
22
-14
24
-26
30
37
14
-24
-127
-73
13
-3
46
-127
-53
-76
-8
50
34
-122
-29
23
8
127
10
-55
0
17
-124
-45
-27
38
-14
62
10
71
-9
-121
79
98
-6
14
11
55
-54
59
22
83
-46
-6
12
-17
-84
4
50
-3
-30
-25
-24
32
4
-18
87
-68
-13
28
31
-34
63
-49
79
70
-17
1
22
-21
-90
-24
21
99
-45
96
22
-63
51
49
-127
35
-54
-10
-2
-27
69
40
-30
35
4
16
4
-21
-26
12
-117
0
-23
-19
9
17
-20
47
-73
-50
3
-40
28
-17
-31
-4
57
-15
-8
34
45
127
38
9
-52
-14
90
-69
127
-24
-18
99
-11
-27
1
-18
29
-21
-10
-32
6
20
-97
-1
-70
-9
-8
96
53
15
-3
127
-17
-10
-8
-82
11
80
32
83
10
-14
26
-52
57
26
4
4
8
47
0
54
8
25
27
2
57
21
-15
-3
-6
-29
85
-16
60
127
-10
-66
87
-30
28
-7
-24
-30
-11
12
-6
2
59
-6
49
2
-21
-67
6
-49
33
-21
41
-31
42
3
2
-22
127
-18
-7
2
35
-103
1
-39
16
103
40
-1
5
69
127
27
11
19
-20
-2
37
127
-25
35
72
-79
56
-4
8
-45
13
-106
-36
23
127
31
-8
42
36
-84
-11
34
23
21
-12
92
-25
-32
-70
-55
-25
42
-17
-56
4
-43
-20
74
53
61
-27
-98
-17
89
-21
2
41
29
127
-48
-11
-63
79
0
-25
10
7
51
-19
-13
83
-80
19
11
49
-47
-35
-127
48
54
-24
25
2
-98
-4
47
0
-41
13
16
-2
-21
-22
45
72
-39
-9
-16
-4
-59
39
-30
15
-38
-33
59
-4
20
-4
-65
-47
-14
13
51
91
1
25
-52
-1
64
-92
14
-27
4
127
-29
-19
-29
51
-23
34
-16
-109
-45
-46
-36
-22
3
-127
-10
-14
66
6
37
23
6
-11
-127
-16
-14
-35
-45
43
39
45
19
46
-29
5
-21
-127
-6
17
-10
25
-24
41
3
-8
10
-113
12
-116
127
-49
5
-33
3
-12
32
46
47
-127
11
5
17
-41
-35
-29
-6
-78
16
-8
-12
86
3
-23
-28
4
39
78
12
-1
-6
23
78
-61
-73
-34
2
1
-126
-8
44
-2
-22
-7
-55
22
7
75
25
3
-69
47
4
45
14
84
-41
-42
-14
36
-16
-43
-27
27
54
41
-64
-20
9
80
-17
2
27
-47
-28
75
-24
5
-19
105
41
8
36
7
8
2
-22
-42
-1
67
-50
8
-5
48
28
119
65
89
-42
59
19
65
-50
7
-10
-6
127
-56
46
18
51
-21
1
-14
-52
64
-127
-14
-18
-106
62
-44
-61
-127
-41
127
-82
-57
-127
-12
93
-14
85
-16
-3
-100
6
-11
-7
-5
3
-22
-63
-22
9
-10
-34
-64
16
-24
9
-12
24
17
32
-46
-41
6
20
104
-3
10
36
-22
-24
26
-27
72
-71
-20
-118
-5
33
-2
-8
-87
-10
-9
-11
4
-7
-30
15
-35
-4
-8
-127
38
-18
-15
15
127
6
1
84
-95
39
64
-24
-4
-19
-8
-37
-16
127
-17
-2
25
35
0
35
45
33
58
9
-122
-9
-1
48
8
88
88
-39
-8
22
-6
51
6
25
-21
24
123
2
-127
70
39
44
-71
-9
13
-2
11
13
-3
-90
-75
6
64
17
30
32
23
102
60
12
61
17
17
-3
-8
70
53
-60
4
98
13
48
17
25
20
0
66
4
-6
-53
12
3
-70
9
-4
-10
11
36
21
-126
-110
127
42
-50
18
-22
17
-67
-9
15
-64
17
-16
23
-22
56
-1
-8
88
40
0
-98
79
-6
-5
22
-127
7
28
10
51
29
-21
17
-37
96
-8
-33
16
6
12
56
-61
-9
-36
11
22
127
-19
-29
-80
73
-3
-7
10
31
8
-47
-25
-15
-64
-8
-4
13
0
-14
18
-9
50
-15
38
-10
-7
-53
83
11
-64
127
111
-18
0
31
-60
-8
-20
-10
22
-77
5
8
-22
-9
-20
-23
-127
-23
3
-84
13
-42
127
-13
14
-11
127
-14
-69
127
-1
-32
-33
22
-48
-26
93
-84
69
0
-70
-61
0
37
-37
72
-14
10
-8
-89
-30
13
88
53
69
0
-7
97
9
-127
39
-16
-126
123
1
-8
16
-16
11
-115
1
7
17
-48
-10
-22
37
-10
-60
-15
11
-22
-8
-55
67
74
20
6
5
22
16
27
19
59
-71
8
22
-9
-33
-44
-48
2
-37
33
24
2
27
31
100
-67
17
4
11
41
25
18
76
-18
11
-20
18
41
8
72
-20
-16
14
19
34
-95
2
-50
92
14
-89
-22
41
15
2
-9
-29
26
63
-78
93
-127
-127
-58
10
-25
23
-60
-96
-46
78
24
-27
108
-43
9
-41
43
-16
42
-32
-2
43
16
45
-65
-46
-19
-29
-18
-19
-37
37
73
34
3
18
17
-5
47
19
-6
4
-18
43
-18
40
-35
-62
12
9
24
20
-38
-31
32
6
-35
7
17
14
9
-20
-85
25
-21
31
-14
112
-59
-31
-11
-41
-42
-60
-20
37
-2
39
4
-49
17
-112
39
127
-89
-65
-5
-96
1
-33
22
-1
-71
-76
4
-84
81
114
-14
22
127
127
-29
51
-97
-5
25
90
-18
58
16
-49
34
46
21
27
-14
-59
-1
20
-26
66
91
47
9
-27
-17
-39
50
12
6
15
-15
-9
-29
-62
-5
-123
-56
-48
17
73
-16
86
32
-33
0
-36
13
-21
-16
24
26
116
-16
5
26
-42
-29
127
-36
91
127
-34
26
16
-17
96
-21
-20
22
13
-22
-26
-43
-42
73
4
-11
36
16
35
127
16
51
-10
21
-4
34
28
50
127
-67
-5
40
7
35
26
-71
-46
-56
-2
5
-2
-127
-13
-25
11
-2
52
-13
-15
33
127
-127
4
14
-11
14
9
-3
-55
56
2
-5
11
85
31
1
-7
19
24
-11
-27
15
-127
0
2
-36
0
-21
-19
13
4
41
-20
-1
4
27
31
127
115
-16
8
18
-96
-59
-23
35
13
-57
-22
-24
14
-2
-62
-9
28
8
-30
-126
33
-16
-127
36
45
85
-106
-102
26
-27
-1
6
1
-7
-73
-39
-9
8
-77
5
1
-14
90
-115
-26
7
12
5
-57
-14
-54
-2
-91
33
11
21
-11
19
-20
7
-18
-9
-80
16
8
-89
-33
-120
-33
0
24
36
10
-41
-24
-34
0
-45
-47
1
-12
89
85
-46
-76
38
22
13
-30
-32
25
66
17
1
59
-8
-9
21
31
111
-12
-18
53
-20
-18
88
50
56
-10
-12
-3
29
-12
0
-3
-71
59
-46
-19
-73
-34
-10
29
4
-76
-127
-48
17
-14
-61
-12
-21
-25
-31
-4
-29
70
-48
63
45
17
63
93
32
20
8
-12
4
-19
1
-98
-20
-57
53
47
-127
-26
-77
-12
-26
47
-14
42
33
21
-45
47
-35
9
6
-63
24
50
17
52
48
17
5
-27
17
41
13
5
30
4
4
-78
0
-31
-17
-14
11
-12
10
-23
-36
127
-36
127
37
-20
76
-87
9
-23
-45
-27
-3
97
-111
88
115
2
127
26
-36
-11
-43
-39
48
23
55
8
41
-11
59
6
-18
-2
7
1
55
0
-63
51
59
4
74
48
127
-24
50
-27
-26
100
-9
9
20
46
2
-72
68
12
5
106
-30
-56
4
-63
-94
34
-79
-19
-17
-63
21
17
-53
56
31
-112
40
53
-85
48
43
26
47
-27
-37
-4
16
-42
18
2
20
13
12
-52
44
-127
-10
11
-31
-36
31
-127
127
-110
-94
-1
-121
16
17
10
58
14
-5
-17
-7
-13
36
2
-39
3
-2
-29
-13
-28
25
40
-13
73
-1
-6
19
-7
-42
-8
-24
20
28
-13
11
0
8
50
-6
26
42
3
-1
-26
-55
-22
-54
-18
-25
-4
-3
-9
-53
-2
-12
1
31
36
19
8
20
29
-10
11
-9
4
26
3
-27
6
-1
117
-1
19
30
-1
-5
94
-9
22
-19
-16
12
-18
1
-9
6
-27
-6
-6
127
16
73
-127
-4
10
6
-7
40
127
33
-28
32
-20
24
-20
-18
66
127
47
-14
-45
-71
-26
-6
11
22
18
-3
0
4
5
12
37
69
-49
75
6
53
-14
42
2
-72
-28
12
-104
0
-127
17
13
-18
39
12
-11
-23
20
4
20
-37
47
-6
30
44
9
15
15
-22
-46
0
-27
7
28
13
6
-69
-17
3
26
-21
4
67
16
16
-13
-3
14
19
6
8
-17
34
-44
-106
-1
-56
26
21
0
41
-31
127
31
-127
14
0
8
62
-41
17
53
2
16
8
-3
-75
-21
3
-127
12
-97
-60
-64
16
-2
-53
-5
41
0
-10
20
16
-5
-7
-1
-9
7
11
51
-15
113
-31
-37
62
-2
31
100
25
15
-1
-12
-34
-35
-17
21
-16
-10
-9
3
-9
-22
-9
-2
31
-2
-22
18
-11
11
127
33
19
-33
-14
-85
127
-57
25
8
-2
-127
-6
6
21
6
-9
20
-12
-8
21
88
20
-19
-12
-11
-3
60
32
-13
21
27
15
9
-7
-13
7
-1
-45
-29
-8
7
-23
-10
16
-5
17
-26
-16
-4
-12
-34
60
-47
-42
-39
24
37
24
-52
-48
34
5
19
-27
-122
-20
-24
31
11
48
9
30
-30
0
-38
38
13
4
17
25
-117
5
-50
36
-5
9
-88
16
-15
27
-40
19
21
-35
-1
21
-16
-8
53
58
0
-1
-7
-36
6
3
-7
30
-11
-3
9
4
9
2
-83
-21
-51
7
17
-2
-74
-7
119
0
24
-39
13
56
-18
-17
-39
48
34
-18
-4
-14
-23
-22
36
26
-1
-15
35
-5
18
-10
27
-3
13
-27
-16
-5
12
-6
-42
-23
10
8
2
13
-8
-3
-72
-56
-3
5
-9
-10
-57
-1
2
-45
-11
-1
7
-2
-18
9
-18
-5
4
98
12
17
11
-9
-1
-25
2
-8
-1
-9
21
-1
29
15
-7
21
7
-13
2
-3
107
47
1
9
1
20
10
6
-30
-75
0
0
10
-10
-11
9
18
21
-16
-20
8
2
-11
7
92
82
26
43
9
9
-6
2
14
-8
10
-46
-19
16
-1
-18
-17
13
10
-31
-38
-11
-25
0
-18
3
34
-27
29
-2
-6
4
-79
5
-30
16
6
6
-1
5
-43
8
-56
43
4
-6
8
-1
-30
22
3
2
15
17
-1
-6
4
8
-3
-41
9
-16
-13
4
38
-29
-16
40
1
3
21
-43
-17
36
-35
-11
-28
-19
-8
14
-54
-35
20
-16
-37
47
3
8
13
-30
-64
-34
-38
-33
-30
-17
72
-73
-1
-25
-22
11
-26
-19
15
46
40
53
-18
-28
-17
-16
-62
31
-10
13
-52
-64
23
-7
-11
20
0
-13
29
7
11
8
2
-19
9
5
35
-66
21
26
-90
11
51
-15
33
29
-13
-9
-87
14
-58
-17
-72
80
-1
-24
33
-46
-46
-89
21
6
-5
2
15
-13
25
-3
20
-7
-3
10
1
5
-35
-12
18
-3
-9
-4
-12
33
8
-17
20
2
16
-5
-2
-92
-11
23
22
-30
-21
32
-26
-16
-1
0
-38
-21
-41
5
-35
86
-64
9
6
21
27
2
-42
17
-5
-12
-6
7
-21
0
-22
-48
4
23
0
6
17
-1
57
13
52
68
21
6
28
8
-4
-2
-19
6
12
-1
16
10
-22
-41
15
-1
4
7
-77
15
8
-29
-11
8
-47
5
7
11
37
-48
-27
0
-8
-3
22
-21
-51
16
53
-11
0
0
-16
11
19
62
24
9
-19
33
3
27
-17
39
86
64
28
4
-19
-30
7
-26
-9
33
-18
-12
77
-5
10
-17
-21
28
10
-8
-71
14
-12
37
7
-23
47
31
16
-4
-32
-16
46
36
1
9
-4
-15
-120
41
-13
-57
30
-32
5
-4
106
32
-6
19
3
14
-6
23
76
-38
-2
-42
-30
-8
-59
18
-37
-8
-4
-22
17
-1
4
-60
65
4
-14
15
127
7
0
-15
-40
-7
-9
0
-5
8
-20
-29
-87
-23
57
-107
19
25
22
-24
-7
-62
-39
-28
-27
-7
19
7
-13
0
-109
-40
26
-2
14
0
-34
-19
3
-4
10
-4
5
-37
-17
-19
27
-7
12
-66
15
23
-67
59
-32
-37
50
4
-58
-12
19
-69
-12
-4
7
27
72
13
8
-31
-11
-13
21
-15
-30
-13
-36
43
-127
11
10
12
-21
2
-41
32
-21
4
17
22
27
-5
-56
-9
72
20
2
11
28
-4
1
34
-40
27
5
-9
9
-17
-86
72
47
-7
-37
26
21
2
-70
15
-68
8
-3
6
10
10
-31
23
0
11
1
13
-82
-22
-5
-28
-26
15
1
10
24
-19
-9
26
-13
2
-25
-1
-17
3
-8
121
-20
17
14
-16
-6
-2
9
41
5
-43
-5
14
78
-127
1
-89
-36
31
-11
122
3
66
-8
-17
-43
17
23
10
-21
65
12
55
8
-25
7
115
-60
10
-27
-3
6
50
-2
-5
2
3
-8
-18
35
2
9
-4
21
13
24
-21
26
43
67
-104
-63
-27
90
50
-59
3
-25
9
27
-35
34
-1
40
-22
-8
26
16
-7
22
48
3
25
-33
22
17
-5
-68
4
13
46
2
24
-35
1
-25
41
10
8
20
26
44
0
52
-6
-30
-4
-40
4
-9
-29
65
36
22
23
-55
-12
-2
13
-32
-16
10
9
6
-1
-17
-6
51
127
-25
61
-56
-16
-1
3
-4
8
23
-5
12
9
-16
11
31
6
-14
-31
10
6
9
0
-15
-4
-59
-23
6
-1
119
-26
-30
67
27
45
25
26
-3
4
18
-14
13
12
9
-13
-25
-8
-19
15
2
27
-14
-3
14
-14
-79
-10
30
9
-32
0
6
3
-37
48
14
5
0
-18
5
12
13
-36
-14
1
-25
1
-15
-7
68
11
16
-10
-6
-17
18
2
16
-46
26
-18
15
-9
-4
1
-57
-66
-13
-10
4
-11
-76
4
-13
-33
18
23
11
-22
74
-10
-26
20
1
-15
12
24
10
13
-6
-42
26
-7
8
5
-11
-12
44
13
12
-59
-3
7
0
-9
-72
-97
43
-12
-11
8
13
8
-15
55
-8
20
7
4
9
-11
16
-11
24
-19
10
-9
7
-21
-107
-32
14
-26
-21
15
-13
8
78
-71
11
-10
-21
9
4
-28
-30
64
7
-10
-38
34
-12
-3
55
60
-22
13
15
-37
-23
-11
69
9
-6
-99
-16
-14
61
-2
63
54
3
49
9
-6
-1
-8
11
-33
23
7
29
24
127
37
12
64
-31
-56
-58
18
-1
-7
-8
-29
10
9
-11
-12
25
3
-59
32
-27
-4
13
7
15
2
-47
-2
-26
-22
-14
-13
-73
-8
-14
-16
74
-7
23
35
-5
9
-9
-1
-11
-24
11
27
-13
3
-16
77
-32
83
23
-34
-8
27
-24
6
-30
-15
-2
-48
-16
-3
0
-14
4
-36
5
28
51
-111
7
-21
26
-37
2
-21
26
10
17
24
-16
11
24
23
-7
62
12
-116
3
26
-8
46
14
50
-5
-83
19
-12
-21
8
-7
-14
-14
-11
-19
-62
-21
9
37
-32
-11
63
36
116
80
38
-12
-26
-19
4
13
-38
8
11
1
-27
-11
48
4
-46
23
18
7
-8
-25
0
-6
14
-56
-46
34
-15
17
36
96
16
-29
19
-18
-30
24
-29
-5
18
16
31
17
-10
110
41
-7
40
-54
19
78
-27
12
-32
-74
29
-11
-7
12
-73
-18
19
11
-73
-57
-8
-12
0
-13
-106
-1
-2
8
14
5
-15
-7
36
4
11
-2
56
-15
-56
22
26
34
55
-17
-91
37
-30
-14
91
-32
-13
-24
15
-24
0
127
-32
-85
11
25
95
14
37
-27
-13
10
44
46
50
2
-48
-19
-30
-1
16
-27
2
-3
-55
-12
-15
-4
3
-1
38
-21
-6
58
33
-64
-18
17
-18
-13
19
-17
-26
-92
3
-104
-12
1
-6
-20
-4
5
11
-21
4
7
19
9
22
23
12
-34
-12
3
-11
-39
-14
6
10
-4
29
4
-43
-6
52
-6
-6
-12
87
-3
19
22
-40
0
16
-15
-20
6
76
-14
-7
-24
-32
-24
-31
61
-24
-31
-23
-90
25
16
7
67
-39
-55
0
-55
-1
-5
6
-10
-45
38
-23
23
-30
13
-69
1
-28
-11
-64
-14
8
11
52
5
2
-9
6
8
-28
33
-52
-15
-34
18
-29
2
14
19
10
33
103
-12
37
-40
-4
-13
7
16
12
-44
10
-1
48
-29
-10
-3
58
28
9
-5
8
40
-15
-68
10
-27
24
-50
39
127
19
20
-37
17
27
115
-2
66
-25
23
31
74
-18
18
-14
2
49
-83
-14
-20
18
85
5
-18
36
54
17
50
1
56
86
-48
-36
6
72
33
41
20
-22
-12
22
59
-2
32
-20
26
2
14
-13
3
-7
-7
53
-8
-40
64
33
-70
55
-39
29
8
-13
-52
26
-39
69
-12
36
5
22
9
21
-15
57
9
69
8
-29
-22
-31
-11
-8
-13
-71
1
4
0
16
7
64
16
25
28
-20
-1
47
19
-47
10
77
20
-20
-54
70
15
11
-85
18
42
-25
-9
-48
-3
-95
-29
28
16
43
-13
5
30
-9
19
40
-12
15
-9
49
-1
80
1
-20
-25
6
33
11
7
7
4
59
-71
-10
-34
12
-28
-13
-15
-127
9
7
-12
14
0
10
20
-21
-9
9
0
14
22
23
-33
-45
-10
1
-9
-10
8
-12
-39
64
-35
7
-3
127
-10
-22
-4
15
5
-45
57
36
4
5
42
-41
-24
-7
47
-30
-1
95
19
14
-39
127
-28
-29
2
36
42
-60
-11
45
-30
-15
-42
-54
26
18
39
35
3
31
-28
-12
-61
33
-1
82
-19
3
-8
-42
-6
-8
5
10
33
6
1
16
46
-39
28
-10
0
17
8
33
-42
43
-25
-18
28
79
-6
35
69
-30
-40
2
1
40
-25
28
-26
9
-25
-1
24
-32
9
45
-26
7
46
-18
44
49
21
-18
6
37
15
-3
-16
2
-17
-46
-29
1
24
-3
3
6
65
16
-55
26
-52
-37
17
-37
-6
36
9
4
-10
25
-30
25
22
58
-7
83
23
-5
-21
37
-30
-57
-15
-28
-4
24
-10
1
27
14
-53
65
27
8
30
20
-1
14
41
9
21
-4
24
38
-24
-2
-29
15
-16
-37
22
-41
7
32
2
47
12
-32
57
-44
-12
-15
6
-54
-7
16
15
39
10
13
0
0
-5
-41
53
2
14
-93
26
64
29
-18
-6
-15
-25
103
8
-34
-13
52
54
-15
57
18
-25
20
-42
0
30
-26
-1
-2
2
0
-1
-30
11
5
0
2
11
12
16
-12
28
5
7
-1
-6
4
3
1
-19
17
-8
7
9
-61
-5
-30
-84
-41
37
-35
-19
38
-42
1
-14
15
73
76
-35
-44
12
31
-55
-28
-3
74
-14
-20
46
-18
-91
4
36
68
-4
27
29
-33
1
17
14
-22
-2
32
23
-6
17
-10
-12
-19
14
83
6
-26
-9
-5
127
-27
50
-66
21
24
77
-13
-5
40
15
-10
5
-19
57
15
35
-10
-18
5
-59
39
5
22
-1
8
-6
-36
-17
-59
-42
16
-23
-21
-12
25
37
26
23
-18
-17
-36
24
-20
-3
10
13
40
40
31
-116
-45
127
31
-13
20
-7
-21
-44
40
5
-26
36
-26
13
46
-6
18
-14
-10
-8
49
4
73
-28
-60
-17
30
-91
30
-16
-40
6
-60
-13
8
13
-16
6
8
33
-39
-2
18
-34
-19
1
-19
-12
-89
-28
-10
20
14
-10
-37
-2
72
69
-1
15
-40
-24
100
1
66
9
-19
-13
-29
-35
20
2
-14
13
17
24
48
-15
46
5
-13
-9
50
36
-4
-2
-39
-65
11
-38
-2
-3
-61
0
25
-10
29
66
-11
-1
-43
-9
-72
-31
12
18
5
-39
16
-3
127
2
33
11
-12
-13
16
5
-77
9
-5
0
-3
-7
27
-6
-4
-33
-10
-28
-21
10
-42
-13
42
109
91
0
-13
-29
-31
-2
13
15
-28
-9
-7
9
2
-7
14
-13
6
7
38
-22
5
-15
-33
24
25
-16
-4
-16
-10
-11
7
-14
-115
6
17
-13
24
27
-8
4
86
6
-41
3
8
-4
-42
34
36
1
-37
-9
-11
23
27
52
-38
59
-4
-22
32
0
-24
-31
16
-8
39
-13
46
27
-29
12
112
20
-12
-51
-30
29
4
-18
-9
-62
4
-25
4
-13
-23
32
-29
43
16
-37
-49
-26
18
-19
74
-59
25
37
-9
18
12
58
53
18
18
-35
5
3
23
-31
39
-2
-14
-11
52
-11
-53
12
-44
-14
8
8
11
-18
-41
-41
20
-127
0
5
-53
56
58
-13
27
-20
11
3
-12
53
-15
19
24
-23
-13
-34
-20
51
-69
31
12
32
11
-8
-40
-28
48
7
-8
-13
-6
14
-17
4
-17
43
33
-18
17
-41
-23
24
-45
46
55
-22
13
18
67
-55
-14
-57
4
-5
9
38
25
-50
-18
81
-34
-12
-15
65
-18
-57
54
-17
13
-1
-5
-19
24
-45
-77
24
-28
63
-1
-22
-67
92
18
18
-14
12
16
-35
49
11
-21
42
31
14
13
-28
-14
35
50
55
-3
12
-2
-25
8
-6
-28
25
-31
124
-2
-28
21
19
-15
19
9
-24
4
-31
-44
-14
15
25
-8
-5
-2
9
-29
-36
-12
-10
-3
0
-20
-85
-93
-3
-55
-2
-8
54
-17
-22
22
-28
-34
105
-8
-38
-25
4
88
-30
-6
15
-11
1
-3
-6
-6
-11
56
-2
-23
-20
-1
30
10
-68
14
-35
-127
35
17
26
-27
-22
-57
-2
95
-5
2
127
-17
-6
-1
-3
12
73
4
4
77
43
33
27
-19
50
7
-42
4
-27
-41
7
-16
-15
0
44
0
-6
-4
25
30
-5
3
11
-6
-15
76
15
2
36
10
10
68
69
77
-22
-24
-2
1
63
-47
-15
-21
9
-37
-12
2
16
11
-24
13
1
54
-9
0
-16
17
-16
-41
-13
0
70
-2
-23
-5
-6
47
11
25
-15
-4
-40
-10
35
9
8
12
-11
-7
-21
13
-50
60
86
-55
40
-12
-35
-24
-31
20
-30
11
32
15
-42
-8
-68
-61
25
-11
93
20
-12
25
-89
-86
36
-3
15
2
13
-50
-26
24
15
-4
12
-4
18
-20
7
31
16
40
72
-6
15
8
-19
15
17
-3
25
-2
15
-23
-28
-6
-26
19
17
3
-40
-17
15
3
-9
21
51
-13
22
10
-31
-2
-45
-30
-24
46
26
1
34
-44
110
46
16
5
-32
-65
-118
19
-8
32
26
-2
-39
72
-15
26
19
-13
72
-14
52
4
9
-57
37
-42
20
15
-5
11
87
-9
61
-25
-29
-11
26
127
12
24
-19
23
15
8
-35
-7
13
6
-7
15
-8
-2
-13
1
43
23
-25
1
-28
-10
22
-39
-90
70
-28
38
28
-11
36
52
-64
-40
-65
-21
41
-26
38
48
-15
-19
-20
19
-20
-2
-12
-9
-33
-7
16
4
13
-2
-3
-20
5
13
-19
20
5
5
-29
-11
-30
-63
9
-63
0
-14
-26
15
29
10
23
-3
-57
2
6
-61
-80
88
-28
-29
49
8
53
-29
-24
-13
-19
-35
-19
3
38
3
40
-9
-14
-46
67
11
-62
-25
39
15
32
-20
-13
-1
16
-45
-18
27
39
-11
-7
-5
-31
-12
27
-20
-2
-9
-14
-9
-12
0
-2
49
5
-7
-49
5
-32
-49
-50
36
50
-27
42
-11
-17
4
-43
10
-4
-21
7
31
11
-48
57
-77
-25
-51
6
-15
-4
10
-120
56
63
29
-104
-10
100
16
-50
10
8
10
35
20
-2
-7
43
15
-9
-50
-64
-5
-81
12
-47
42
-88
34
60
28
-22
108
-3
18
-36
30
-7
9
26
-15
-33
54
7
-24
-25
28
-12
-10
5
14
-3
-13
62
10
-32
-42
-13
35
-7
-8
68
-3
49
12
-4
62
-22
11
42
10
14
27
55
-11
1
35
48
19
68
78
-21
-21
8
17
0
-6
83
11
74
30
47
-4
60
-2
17
-41
-77
70
-16
33
22
19
14
-19
38
-127
32
21
-50
3
8
-10
-16
6
-5
13
-15
3
8
14
13
23
-43
9
8
-7
7
-47
28
45
-18
-38
1
-9
26
20
26
24
-11
7
31
23
27
5
11
20
16
-7
-1
6
18
38
26
79
-28
54
63
3
2
-20
-6
20
25
-5
-5
2
2
-32
-33
-49
-6
6
14
2
8
-34
32
13
40
36
-29
-12
24
25
59
-12
17
50
-30
7
68
12
-22
-2
-20
-40
68
-1
23
8
58
-23
29
29
5
-15
-33
-15
10
57
-1
-7
12
-11
3
2
101
-12
-39
21
11
7
-18
33
-16
31
52
0
-17
-14
81
-12
-18
52
-1
33
-31
26
21
0
-67
57
36
-7
4
-5
-36
-25
38
-30
33
-10
-23
127
0
-17
13
19
62
-54
-19
10
-16
63
2
-8
5
31
73
-12
-23
-2
1
-9
-4
-16
-21
-3
-33
-10
64
52
-38
-18
14
25
-10
-41
9
50
-16
32
-102
-7
34
-19
-61
14
-46
9
-95
14
25
-40
72
16
-47
-19
33
2
-31
9
-8
12
-47
31
127
-5
-3
-8
-9
12
21
0
-10
0
4
-23
34
21
-35
9
-76
-4
13
-115
-9
-90
5
-64
53
24
19
22
21
19
-2
30
2
-12
-17
2
81
18
54
3
46
-16
15
63
-35
2
15
-8
-1
-7
22
-15
29
-5
10
20
-11
-9
-22
16
-15
-5
2
-12
-5
5
-24
-13
-13
-3
6
-33
-16
-18
-3
-23
-3
-25
-5
-21
-27
-1
-21
0
25
14
-34
-46
-117
8
49
0
68
3
40
22
-19
1
15
17
-21
6
12
-6
-49
-4
-41
12
14
65
0
-23
15
-4
30
-46
-27
-41
56
86
19
14
-44
20
-7
-19
-6
-6
-13
-1
-53
4
1
7
10
28
-34
2
2
2
-5
60
19
-10
-1
-8
-15
39
9
-6
-9
40
33
1
-1
-7
18
-20
2
-30
-6
-11
-7
-3
18
35
-15
-1
-2
-6
28
-24
112
17
-8
-38
-18
4
1
-13
-34
34
20
28
19
-4
-9
-10
9
33
-21
3
-24
0
13
4
118
-52
-47
-27
-34
13
53
-1
-11
67
7
-4
48
-1
75
-32
127
37
-127
-1
24
14
4
44
-54
-55
66
-9
-18
-13
41
15
29
36
22
1
-104
13
2
9
-2
48
26
5
-24
-13
-19
22
94
9
-12
-5
44
20
-5
-86
4
29
-15
50
42
18
27
-82
-2
24
12
37
19
6
-11
8
-5
16
21
11
22
0
-6
-23
-21
100
7
25
-58
12
-66
51
-74
-12
-76
-48
47
42
-8
-12
42
2
-10
0
43
64
-20
20
-24
51
9
90
89
122
0
-32
-49
-8
-17
-31
19
8
6
0
24
-14
-10
13
49
49
25
16
-13
35
-2
-10
36
55
77
-11
59
-30
-77
38
7
100
4
9
-15
61
28
-31
39
28
-8
14
16
8
8
-4
-4
22
-27
8
-14
0
26
-14
-28
105
0
18
-61
31
-9
36
20
-32
-8
-11
44
4
-17
6
50
28
15
-6
46
-88
-91
3
-15
-38
-17
20
4
-14
-10
39
-41
-54
9
-32
38
7
11
58
40
-74
-13
4
37
3
-1
-6
4
-16
10
-8
34
123
-24
-7
-27
-29
1
-9
-34
-96
39
52
10
-58
-14
10
-28
-109
-59
-35
14
-127
-26
-6
-1
39
-11
2
76
-32
-3
13
-40
-17
2
-33
94
-11
-4
-12
-56
-32
-75
-41
65
-44
-24
-38
-63
20
-22
38
-92
28
-3
-17
64
20
8
-57
-22
-21
-15
-55
-80
76
-13
36
42
1
-12
9
-1
42
-13
24
-11
0
4
-4
6
7
-1
-42
-39
-9
12
18
-6
58
-19
21
32
27
-21
29
49
-24
-2
4
56
21
40
28
-4
53
4
-5
-43
-24
6
-10
8
12
30
10
-5
85
2
-4
-79
70
-8
38
38
42
-14
-1
-18
-4
11
-6
85
14
3
6
-22
-45
-16
26
-43
-23
-3
4
1
-24
21
-10
-80
61
-3
7
70
-15
67
16
56
42
-11
29
48
16
50
-21
9
-79
28
28
107
-46
-5
-55
-12
100
-13
15
-46
-4
8
-42
4
20
-3
13
-55
-52
22
-68
14
-63
-3
-8
27
2
-3
2
31
-29
0
8
31
6
22
21
0
-16
-12
14
29
81
33
-72
82
67
-26
31
-44
19
5
87
-24
-51
62
-35
73
-103
-3
-27
-22
-35
-4
22
-49
28
25
22
1
100
-53
-5
59
0
-3
17
77
-30
-9
-5
-16
53
-16
-127
-22
20
37
5
43
-50
52
-91
-84
99
3
18
-6
22
-4
-14
11
12
6
-12
-19
63
-25
-4
-24
1
19
8
32
30
-49
15
-118
-4
-29
-16
16
4
52
54
-51
74
-40
-3
22
-57
-127
4
68
14
34
46
21
-44
6
-22
-8
8
2
-10
-35
37
-11
6
-10
-7
-3
10
2
11
1
-7
19
19
4
-8
-60
2
62
-36
-39
91
1
-8
-43
-21
-5
26
-2
3
5
24
-30
-83
4
-57
-12
114
-34
11
31
37
-5
62
15
9
1
-31
-3
-37
16
-82
-73
-12
1
40
0
-42
-37
-12
-3
-41
28
-4
42
69
-25
13
19
-26
7
10
-24
-20
4
43
1
17
-10
2
7
21
-10
9
2
6
0
-57
-126
21
-1
41
-3
-81
-3
11
-15
34
-35
40
-94
13
26
-15
-51
-101
-11
38
-1
61
-50
2
29
-26
1
1
30
-94
12
-13
-96
-81
50
29
82
91
34
27
93
12
37
25
127
47
3
-29
64
-44
-58
83
-51
18
5
29
-25
30
52
13
77
106
-10
-20
-14
-112
-29
72
22
89
30
4
-105
82
-21
63
-20
24
0
-2
15
6
2
-47
-27
25
6
-41
0
25
19
38
-11
39
5
22
61
-80
31
24
17
-10
-6
-27
-53
54
-9
38
-7
30
-2
-28
-72
38
72
-36
9
41
-7
-13
127
88
24
27
11
-57
12
-2
8
45
17
33
-73
5
20
-6
-43
18
10
3
29
23
4
-12
5
8
1
12
51
12
-44
4
119
127
-58
-54
6
27
-28
-2
43
14
11
22
39
3
-21
32
-28
-11
3
22
13
2
2
51
-50
-64
-34
-63
20
-54
-2
9
42
14
-5
-8
-19
-30
7
4
24
38
-5
36
6
92
-10
-11
6
22
-9
60
41
41
22
-38
37
20
-24
14
-16
-33
-5
-8
2
-47
39
6
34
-49
-3
-3
26
-37
-15
22
59
38
-22
-4
21
24
-11
40
-7
12
-1
-2
-6
-5
5
10
66
-14
6
2
39
-10
-14
3
-19
16
14
-7
24
-43
-31
-2
-7
4
-30
20
-44
-13
-74
-55
-60
65
-57
-29
4
-5
-24
5
-3
-23
-127
-35
-19
-1
22
-45
21
42
103
-4
24
-5
16
36
19
-35
13
-56
49
-79
14
-37
6
21
5
-8
-47
77
-74
-32
15
60
38
20
-29
-28
7
-93
2
22
-4
47
10
27
27
18
-9
101
-25
41
-11
38
21
28
-22
20
9
-6
-20
-33
-49
-36
-14
35
12
-22
38
2
11
-6
-6
-16
10
-11
22
-110
8
-16
-4
-36
18
-51
61
74
-7
-50
-8
7
7
5
-62
-39
13
-11
-2
19
-4
12
-43
23
22
-4
-66
23
7
24
29
10
-11
21
19
-44
3
-1
-30
-61
-19
38
-40
-34
-6
5
16
9
-6
5
-19
-38
4
23
-28
-17
33
21
-85
-76
6
127
20
-34
9
-32
-42
0
5
-11
-55
42
4
-36
-21
74
-13
18
50
-21
10
-7
-65
-7
-7
2
-48
-14
3
-17
-29
5
3
5
-25
-25
-9
20
51
-27
-6
54
20
-16
-38
-24
-23
-49
30
17
-4
22
-5
16
-17
-14
8
1
16
-28
4
-18
-5
0
2
11
14
27
-4
87
12
16
5
-21
-40
73
-4
2
0
-27
-4
58
-47
-13
-7
44
-1
-19
-11
-11
5
-11
-49
-15
14
46
25
23
62
-41
12
-23
-43
-5
13
6
-1
44
3
3
47
26
-1
17
-27
18
5
25
-5
0
3
-19
59
-9
-25
-4
-50
16
10
-11
44
-9
11
33
-32
-31
-18
15
-48
4
29
2
-16
-8
6
-8
-26
-14
8
11
-71
70
-4
-31
24
-15
22
25
37
3
-15
45
74
53
14
52
24
67
12
-25
6
0
1
27
28
40
20
1
-6
-46
-14
-84
37
-10
-8
13
-29
20
13
-38
-9
3
18
13
50
23
-9
19
3
-34
4
13
-63
22
-55
-59
91
52
6
-16
40
6
82
-2
-44
-13
-10
10
-84
51
16
46
3
106
-30
-39
6
10
-30
21
49
22
-29
17
24
-118
28
1
35
-35
7
15
-8
111
6
-21
-70
89
4
60
-31
20
1
-28
-126
43
-65
39
96
-121
-30
-2
63
47
-101
46
19
31
-53
2
-27
71
98
-51
-29
-38
-45
36
-12
26
-127
-39
23
-27
40
-8
-1
-44
6
9
56
-46
33
-1
-20
45
-56
65
-20
-62
-48
-7
105
-38
34
-55
-127
-32
8
-28
47
-49
3
19
34
-107
-27
-4
6
127
-41
-115
27
91
-30
-26
-127
40
-22
68
23
-34
-1
19
26
-68
17
-57
-48
127
10
11
-14
79
-8
115
-8
-104
-120
2
-75
20
-56
7
-29
-2
17
34
-112
-43
94
104
12
-11
-117
-22
-34
-13
7
27
21
80
77
-62
13
-32
7
13
-19
-31
-127
127
0
-82
-44
6
-25
-18
-57
15
-85
-10
-16
-127
107
41
56
7
23
42
31
-105
-3
-6
78
43
-13
-51
1
80
20
73
-10
6
-59
-82
-30
-24
-23
52
-3
62
14
2
23
-44
-91
54
15
27
-27
41
34
-75
5
-94
25
23
23
30
2
-70
54
23
-74
8
-13
-8
-11
91
10
-79
59
-64
35
-53
-64
-6
-82
-22
-41
19
-6
23
-1
38
-20
-1
-1
-38
-69
-10
-6
8
-45
-29
-46
-71
-51
35
21
-33
111
-21
-55
70
3
35
-34
38
-49
8
50
19
22
7
-68
-35
-64
22
12
-25
-20
72
-26
64
-67
-68
117
-95
56
19
-73
-122
-34
-127
94
6
-32
20
44
23
77
101
17
8
43
45
70
25
87
-15
33
-20
64
-37
-6
-56
44
5
-25
-37
25
-24
68
76
10
-22
-76
-13
-9
-9
-33
-22
-75
7
35
25
-5
-27
-11
-18
-84
55
66
27
127
-13
0
-6
36
-14
19
68
37
6
51
127
4
6
-2
-48
-2
48
-48
-32
22
19
-102
39
39
-22
-23
68
-37
-89
-8
-56
12
-127
85
-10
23
16
-29
-31
43
4
-7
20
-31
-52
-16
-47
-18
115
-1
-100
-7
5
-21
-37
4
-22
127
-96
-127
-16
-73
-127
-21
11
5
-33
60
11
1
-8
-84
-16
-112
-82
-17
-24
-69
117
-45
-21
3
4
-15
119
-20
-5
-110
-43
20
9
68
-2
-32
-34
56
26
-42
47
43
-30
16
35
-14
-13
64
10
84
-25
-11
-83
34
8
22
-112
3
17
65
1
19
-23
14
30
-16
20
-20
36
-92
45
-92
-23
84
-46
-31
96
-20
13
-32
126
-39
-104
2
-13
51
-24
-104
122
94
0
127
26
-43
9
-20
104
8
66
-12
-1
-127
26
2
35
-25
19
25
20
20
127
50
100
4
-15
-18
7
-33
5
8
-9
-25
-74
-19
-6
-45
-12
-127
11
18
73
-16
-49
-1
-6
-23
-26
-45
8
-19
25
39
-6
16
-39
8
12
37
-33
-25
-97
110
27
-64
5
9
-19
-4
-11
-48
-36
18
-26
-6
-2
37
-47
37
-20
19
36
50
-5
23
-71
12
36
34
-7
-8
1
-36
32
-9
1
13
-38
-10
28
-20
21
-19
-8
19
26
22
-5
3
-35
-16
-5
36
66
127
127
-12
61
99
2
60
-97
-116
31
-38
-15
-37
-58
21
25
3
6
-14
-76
9
-7
46
-62
-34
12
18
-46
78
25
21
-127
-71
-58
-10
22
-13
-55
127
-34
-23
92
36
-60
-37
33
-34
-54
-3
-11
-5
-42
-17
7
-12
-20
24
-32
-37
-8
-44
8
-15
-20
33
-34
43
-19
-41
127
-39
13
-24
-71
-49
-30
7
-6
-11
41
26
66
-27
-49
31
-20
-27
18
11
8
18
-43
15
3
9
55
4
-96
28
35
23
-1
30
-22
-30
121
-2
44
1
12
-12
52
1
-96
40
-25
-10
1
-54
-3
-39
15
36
-58
57
-12
-20
19
-21
7
3
34
2
4
0
16
33
9
-40
14
-55
-45
-18
-26
-2
23
-66
-19
-20
13
13
13
-36
22
-32
-16
17
-17
-4
-110
77
-126
40
-55
-27
-41
9
5
-11
-26
-18
-44
49
25
-29
11
30
83
34
20
6
-17
44
1
-19
45
15
14
79
33
38
95
-38
32
9
-114
45
-101
-62
127
41
-125
-16
-57
36
2
4
80
53
-30
11
-23
-57
3
-3
5
-43
-26
-17
20
49
-28
15
-33
-15
27
-67
-54
-17
47
-5
40
-31
-57
-16
-2
27
-41
31
34
23
19
-42
-65
-57
10
-21
81
19
29
-23
127
-84
-13
-127
43
-18
57
9
-39
-61
89
43
32
-50
-30
30
10
-62
-10
16
-16
-40
10
6
-15
-12
51
25
8
-127
37
-30
-1
127
-19
28
8
-1
-19
-42
-46
-29
8
-25
-44
-18
-13
127
91
92
-94
-41
2
-42
71
27
15
-32
-56
-21
15
42
35
-17
19
-13
-74
-20
2
23
127
-24
-34
-12
-65
-6
32
16
1
19
-85
22
44
26
-22
-21
42
-31
98
-50
11
-55
0
51
56
7
-25
2
32
16
11
-46
55
-28
12
14
12
61
36
-34
8
-10
22
-22
-118
21
53
9
-24
-14
-36
-13
15
-49
15
-24
-34
-6
-2
-21
-13
0
-71
21
69
-35
52
-18
123
-11
-6
-41
99
-1
-95
69
127
-18
127
-2
6
14
70
14
79
24
16
-27
-30
-27
57
-70
-44
76
-8
-74
-116
17
127
-46
8
1
-36
35
-67
5
-6
21
-6
13
60
37
35
33
4
-37
-2
-15
1
-40
-23
-43
27
-25
-43
85
7
-105
93
30
102
28
-6
57
34
-127
32
15
-51
127
-66
-49
-16
47
78
-10
-70
34
-1
77
-42
-72
47
30
-9
49
26
46
-53
-12
-22
6
-65
33
4
54
-33
-45
-5
31
18
-22
-49
12
8
10
27
28
52
-20
-4
-19
-127
102
-33
-11
-16
64
43
10
21
-20
22
-57
10
-1
99
89
46
102
-17
-39
100
56
15
37
-33
-27
-83
5
-28
6
-12
-10
-22
66
-39
26
1
8
5
-103
-5
9
22
87
14
34
-12
-127
-38
-9
-3
31
-89
-60
-76
-53
3
-40
19
67
-22
12
-5
-34
-71
60
-88
-105
13
-44
-19
40
-2
9
-37
127
15
97
-100
8
-76
-74
-127
83
63
11
-58
-5
79
49
3
11
12
45
-127
14
-52
-53
-40
-70
11
18
7
-4
22
2
48
29
-42
-15
-25
-82
-2
84
-47
37
-24
48
-11
8
-58
-11
-14
-32
30
48
-14
53
1
30
-16
44
109
26
5
-71
18
64
-29
-31
-8
-17
1
21
1
-127
-7
-86
73
-57
103
-9
-82
-19
-20
-8
83
-17
-46
24
-2
30
11
19
-1
-24
0
-39
67
-71
-38
60
-32
-46
-25
-23
21
4
-3
52
-4
14
-32
-35
6
1
-34
24
-3
-54
17
-22
60
58
5
36
36
-20
-32
-26
-11
11
42
60
18
-14
15
-14
32
-42
-28
-127
-34
20
4
24
38
127
3
1
-86
-39
54
-20
49
-10
25
56
14
-52
-72
-69
4
41
83
-49
15
-94
-30
-2
73
16
14
-27
42
-58
1
22
-80
-3
-2
-3
-1
47
-29
-2
-19
-7
-24
8
30
49
-54
-60
-9
3
-127
-60
110
35
-127
-127
-9
5
26
-85
28
-83
-125
56
-20
9
-28
2
-12
21
8
77
43
-40
37
-92
-92
-68
30
-22
1
31
-35
-24
10
28
-52
-92
-40
-103
1
71
96
55
-24
26
-43
38
8
-53
-7
36
-44
-31
-19
-41
4
0
4
27
39
21
-91
39
9
-38
127
30
-16
-13
-15
12
24
41
-40
-22
31
31
18
75
-1
96
24
12
-49
14
-78
16
-31
56
-4
70
22
-47
-127
9
48
18
-60
81
-38
9
-16
-70
-38
-29
19
46
43
-12
77
0
18
-5
-4
-127
-14
42
45
60
65
-61
13
-24
-17
-8
14
-88
15
80
38
-34
16
-1
-81
-41
-27
-108
107
89
7
-10
-2
-48
13
27
1
27
-8
36
37
-8
-8
-15
14
-10
4
-59
-86
72
-103
-19
32
5
110
12
-2
12
15
46
-32
28
30
57
-2
-51
30
-58
-43
-16
6
19
-17
-15
68
71
104
-34
8
30
-46
-14
34
20
-20
26
-12
-98
79
19
-77
-70
-80
2
-38
-44
-8
29
-126
14
-20
40
20
15
-49
45
-2
28
20
-47
-53
42
10
-4
-8
-89
53
-127
-29
-80
25
-58
10
4
-6
-33
31
47
-10
17
-55
-7
11
-12
-27
1
-127
26
-30
-32
-33
-5
-29
-68
30
36
-39
-127
-121
-85
-35
90
43
35
106
70
8
-105
110
-16
20
-74
-35
-11
13
52
2
-17
-36
7
-38
15
38
-30
81
-35
-10
-3
-38
2
64
-51
-127
-15
-37
15
22
69
72
-40
-8
-47
0
45
-122
-15
41
12
-96
10
32
14
-20
-52
61
31
6
113
-39
-104
87
-34
15
-26
-39
53
-11
10
18
119
2
-59
-20
7
110
61
10
28
9
-5
3
89
-2
70
-33
-65
-5
-13
-15
127
10
97
-8
48
6
-40
-27
-47
-52
26
46
-24
-127
24
116
-19
-64
-76
-18
81
55
-5
9
9
27
3
49
21
-33
-22
-2
-44
46
-15
-40
-90
26
0
-11
27
28
-127
127
-30
3
-8
-80
-29
-56
22
-1
-55
47
10
1
-5
18
66
-36
3
74
41
-14
-16
-127
-48
0
0
74
1
51
-3
-21
-3
127
3
35
22
10
-15
-38
106
1
-2
-40
21
29
-127
12
20
-38
-36
-41
-17
-24
-19
18
60
77
-33
-23
26
17
5
-3
-127
-77
33
76
-44
35
1
75
15
40
-79
-32
3
-52
-41
15
-17
-22
-27
-30
42
-31
-15
52
45
-9
67
51
15
71
6
-21
-10
-17
-13
-127
-7
8
33
6
-27
-38
10
-86
-17
19
10
-12
-14
-41
-8
6
127
61
42
-28
17
6
13
9
7
-2
13
-27
120
-85
-51
25
-28
-127
-4
-43
-4
-21
20
30
2
-10
50
2
126
11
10
-38
10
-2
-54
77
-86
-81
-10
-76
-45
-28
25
55
108
70
-27
-49
-40
-73
14
17
-69
-6
14
33
-21
57
17
-56
0
92
6
-35
-8
18
-1
-4
-1
-35
111
42
-23
84
-16
-79
-18
-45
5
36
-8
1
-15
28
-30
46
-35
63
-44
18
-16
-17
59
-14
6
9
-5
-10
15
-1
13
-40
-2
-90
-11
-21
10
-41
-45
63
17
40
35
-39
26
-8
42
4
19
-35
0
-20
42
29
-26
81
0
23
7
14
37
-24
59
48
-10
55
-9
11
4
-63
-34
-11
-127
46
-12
-51
5
-10
17
60
0
-64
2
-28
114
-16
36
15
-22
-14
-6
19
-33
6
28
8
-11
-14
30
18
16
16
6
-22
-31
-17
-4
6
-13
-8
37
-17
-32
-42
32
0
0
-127
-18
-56
30
40
127
-9
-37
-42
-69
29
-1
100
26
-27
-34
44
-112
-18
46
121
1
-44
4
24
-68
5
-11
-39
-55
11
-21
-46
-1
117
-40
73
36
48
7
-51
-4
29
-19
97
4
62
-11
-89
11
-20
-6
53
7
-69
24
60
50
31
12
-31
32
-47
-5
-18
-25
-93
-122
-111
11
127
0
110
-127
55
25
-30
-67
40
23
6
41
-48
44
-74
25
-35
-53
-19
-104
-100
-25
-84
18
27
-27
50
-27
-12
-16
67
-6
54
24
-69
61
84
-3
-44
27
4
-12
8
-61
-44
-54
25
-24
-66
27
35
-113
69
49
-28
-7
-30
21
15
38
39
29
-21
-8
-71
-127
37
8
81
-61
7
-5
-19
26
55
-91
-33
-29
127
9
-13
-15
-49
120
0
127
-119
12
-111
-49
124
27
91
-16
4
-25
23
-24
73
48
-22
74
54
-3
-62
-51
-38
-61
127
3
-30
58
-6
-31
-85
42
66
-22
-16
-11
-34
13
51
116
-29
53
-76
-6
-20
-3
-76
57
39
16
-17
-15
-23
73
60
-55
-57
12
92
-6
32
63
8
8
8
24
32
-50
-75
-7
-33
14
0
-10
-20
83
11
27
127
127
17
11
-39
114
127
62
-28
14
-42
33
-21
59
9
-37
16
35
26
-12
49
-37
30
-26
-30
-48
76
0
-60
12
-27
5
-59
-46
-87
-29
-46
-19
-84
14
-82
-44
-81
73
-43
-26
-36
27
-65
-75
83
-52
-10
-54
-76
-12
-42
-37
-45
38
40
-43
1
-24
7
-3
40
-23
-58
-56
5
-18
-96
30
-50
18
47
-104
-18
18
20
-5
-1
-10
127
-84
23
9
-12
50
-15
9
72
38
-22
55
6
22
-63
32
90
8
25
-36
-2
33
127
-127
120
62
6
-46
7
45
33
10
-100
39
54
23
-1
-14
-38
3
-34
10
-32
-58
-14
-3
34
-49
-79
-47
-2
-13
-24
-42
-104
65
103
-42
-41
-21
11
18
11
10
-39
-19
23
-27
-8
52
0
-29
-6
-20
21
-75
-11
-17
30
-24
-13
127
2
41
37
78
-2
19
-14
68
60
55
16
25
29
7
49
-28
-15
-14
18
40
-27
-27
2
27
33
83
-19
-1
-3
24
-62
-107
-42
30
-68
50
20
-19
88
106
-16
-27
68
33
15
5
-59
-46
8
127
32
-3
-18
36
-21
13
37
-74
65
16
-40
-5
38
-9
18
-75
64
46
-52
59
-62
-82
53
-12
11
-40
-27
-2
-37
-64
13
-3
39
-35
-18
31
-20
41
9
-27
-14
-3
-19
18
35
123
57
47
21
-48
-17
29
15
-66
61
7
-53
9
-6
59
19
-36
67
90
-3
-43
-84
33
-105
77
66
61
9
-106
-54
66
127
-8
-6
65
-22
70
3
20
26
20
33
-115
-9
-68
-24
-28
57
-54
44
122
4
16
44
-20
-30
5
44
-16
44
-31
-18
-32
-71
-2
-2
33
30
3
6
-12
-8
-5
-34
23
-35
-10
-64
-2
-89
26
45
6
51
127
75
-13
-59
11
-41
-44
-46
-91
-127
-38
-83
42
-88
-46
-75
2
12
127
-94
-127
46
7
-69
-10
9
-7
12
-20
3
61
-51
-38
-83
44
-76
-17
58
-23
127
24
-68
-57
-2
6
38
87
40
-52
13
-62
-122
20
-54
-33
28
-30
25
35
15
-60
-101
-26
-2
30
-22
-30
38
117
-18
-110
-54
21
-25
33
-22
71
-114
47
-14
-27
11
-6
-7
-24
-7
-35
60
-19
30
-8
-28
44
-16
16
39
-33
-62
-21
11
23
-31
9
47
40
62
1
-2
-15
74
-19
51
-9
-8
-10
84
-52
-10
20
38
-24
-2
14
-50
72
-7
-13
13
-51
-12
9
70
53
9
44
39
56
21
-70
20
-72
-6
127
-28
-30
-63
3
32
-14
-127
14
-21
3
-1
-14
48
-50
12
-23
-8
-14
16
-127
28
109
-8
3
126
-46
0
69
45
33
121
5
34
-32
27
-44
16
-11
37
-2
51
-74
34
-43
117
76
18
44
88
-39
66
-1
-22
29
28
23
74
19
21
50
127
2
30
27
45
38
-40
-37
62
33
68
-49
33
-9
-99
-29
-55
-24
-31
35
6
-37
-40
36
42
-35
79
8
-46
-24
7
-8
-31
-59
18
19
24
59
-3
-61
40
-70
-18
-18
-21
25
-17
-23
-4
18
43
-36
-63
-107
5
-8
-4
24
11
-17
-108
-49
-92
-15
-33
55
127
58
127
29
54
-42
26
28
55
-15
-44
-28
-12
-27
-10
-43
-7
67
-83
-7
81
14
61
-10
10
-23
114
9
-4
-40
50
-28
13
-15
-80
56
-46
40
31
-56
81
-23
-28
-63
38
-2
61
-50
3
-13
44
97
0
-55
-43
-82
8
-127
-17
-54
-127
77
57
-21
-92
23
-6
-30
26
-58
55
6
-12
-32
-63
127
5
-34
-42
1
25
-18
-41
9
-28
8
-23
-50
63
3
-72
59
48
25
29
8
46
25
-51
-94
47
13
22
55
-9
1
80
36
46
51
-23
30
-78
24
-33
-35
9
30
-44
-101
10
18
63
35
13
4
-42
-21
60
7
-33
27
101
-57
-5
59
-109
28
-3
6
-16
-62
-42
127
12
8
24
48
40
-5
9
-11
-127
16
-37
-46
11
-88
-41
-62
-22
-7
27
-54
-119
6
1
35
1
-19
14
37
20
-86
-3
12
-24
43
12
-39
38
-42
21
23
-21
-20
-18
-5
47
27
-23
16
25
27
-22
-45
-67
17
-104
-105
-5
37
29
53
54
-127
14
16
5
-8
-49
5
-41
3
-22
12
35
-23
23
22
127
17
3
-7
-1
-3
-15
-20
-9
51
-17
4
-1
-14
25
53
-36
1
-2
1
-17
27
-4
46
-89
24
35
-7
10
104
-127
-42
57
125
-127
-70
20
67
49
-106
80
-88
-53
-88
22
-1
-4
-7
-53
40
-8
22
9
-43
-103
-127
-13
-24
-61
127
-3
-113
30
-109
-46
-30
11
24
44
70
-8
24
103
-4
124
-101
-3
127
-29
-58
3
-40
-43
-3
-17
5
14
-27
-34
-30
-33
22
4
40
64
-20
-4
101
-66
0
-32
-8
-7
99
56
-5
1
13
1
-41
-67
71
-23
29
78
104
-6
35
1
27
114
-11
-8
-68
30
-2
13
10
-11
23
0
27
35
-72
-11
-72
17
38
-4
-20
23
-1
46
68
25
9
44
30
46
-5
-32
73
-70
126
-50
-4
-12
49
12
33
-13
-28
3
-48
-6
-32
37
-102
-18
100
-92
-16
15
19
-29
-98
-29
-23
-17
-7
-51
-2
-11
38
14
-2
17
22
2
-97
-3
-45
34
-54
52
-96
60
33
62
69
44
-21
-29
71
-16
15
13
-83
15
-35
33
-96
104
-18
22
45
16
1
68
-29
74
9
-13
18
-5
-19
44
65
31
-55
23
93
53
5
92
62
-68
-64
15
9
-57
-5
-21
109
21
-11
31
-2
63
50
1
22
-32
-3
-100
27
14
-9
-11
27
-34
-66
25
-127
13
-3
-7
45
57
20
-57
-56
11
19
-42
43
20
18
17
88
43
0
-12
127
-127
38
-127
-45
30
10
-121
17
7
-88
-88
43
92
-68
51
30
-43
23
-44
37
15
16
-10
31
-83
-83
-81
36
-127
20
-127
45
-53
-37
-57
-26
2
-6
49
12
69
54
-64
30
46
68
-2
-2
-41
59
-35
-1
7
-1
-57
19
10
8
45
4
5
21
-24
-8
-48
118
-31
9
14
-21
0
8
2
-6
-53
92
-30
0
-6
71
-71
67
-20
95
-17
-16
-96
-18
-11
30
-1
24
-18
-1
28
48
-101
71
-1
-89
13
-16
18
18
101
30
21
22
-33
-127
-39
97
-6
-68
-41
32
13
19
-36
35
-63
34
-41
64
-5
0
-37
18
-4
-108
47
14
26
9
22
-30
-30
127
-31
-8
-28
9
28
0
23
5
12
-32
-13
31
-9
14
-44
127
3
-21
-14
21
19
60
-65
50
-40
-8
-8
-117
26
20
10
37
87
16
-18
-11
-15
2
87
-22
111
-8
47
2
88
100
63
-32
-46
-22
-19
-7
77
6
-69
-17
85
-21
2
12
27
-27
-73
-14
70
-51
29
105
-35
-89
42
-13
-20
2
-41
-31
66
-6
-46
-12
99
-4
-12
-43
33
23
-34
-5
-90
-9
-42
-15
12
18
-8
11
64
-16
8
29
1
23
-6
-8
12
16
-10
-39
4
48
21
-41
-44
7
85
-19
-8
-2
-24
-12
-23
127
-60
52
62
-4
-9
-21
110
-80
-15
86
15
-127
-12
-45
-127
9
-5
33
11
-18
52
-8
45
63
95
-23
127
-24
31
24
-47
-72
59
-37
-8
89
-31
27
-47
-4
127
-23
-50
12
45
36
-60
35
-67
0
62
45
6
-75
-34
3
87
22
2
-43
-127
57
1
-2
-105
-127
-65
50
23
16
75
-14
-9
8
2
-39
53
-32
-60
88
-22
97
21
-111
-6
-40
7
-18
-33
32
-27
-70
-42
5
-11
-42
-60
2
-40
4
-3
7
-17
18
-112
14
-15
-36
-15
-41
-23
-32
-60
-4
31
-80
-12
-58
63
44
32
-4
28
-3
7
0
-54
-40
-69
6
89
-11
-56
-37
40
16
81
70
-93
-65
-11
48
-33
1
-1
24
-8
-41
-16
13
2
-16
-4
-34
-20
0
-1
27
-22
-4
53
-14
11
46
-29
69
40
-35
3
121
-26
26
-5
-23
51
12
-17
-75
-1
-7
-18
25
56
-15
-40
9
-86
14
-61
70
45
-93
-7
-8
-73
92
-70
-23
-127
-127
31
-43
51
57
3
6
-12
93
40
-31
-24
-108
16
-23
28
-106
18
50
-34
107
12
48
-15
-3
-3
-48
-21
-14
-11
-6
-5
-41
12
-20
-14
36
-12
-12
-13
8
-12
82
18
-8
15
-19
-15
47
-14
14
-4
-67
12
121
62
-80
-4
-83
94
55
127
-31
-26
-23
-56
-103
30
127
-22
-11
7
24
3
23
-53
6
-13
-57
104
-46
90
83
127
112
-53
-71
21
-20
-30
-49
-14
-20
-4
110
23
73
-16
-127
-18
-119
7
78
-39
18
15
49
61
-32
36
-30
3
47
-4
30
32
8
-5
-23
-6
-9
-127
12
42
83
-57
-4
-10
1
-2
-40
0
41
-17
47
89
49
9
48
-51
-88
4
2
-19
2
-16
-68
-41
-12
39
-13
-29
-28
-2
-37
62
12
-27
24
9
9
12
42
15
-88
-31
8
2
42
4
2
42
-17
9
127
-36
-15
38
-90
82
17
-47
-31
-24
-8
9
22
46
-19
4
-8
-2
-112
-82
29
58
84
45
2
20
-18
15
10
48
9
8
-5
-32
-17
19
46
-7
-127
-5
98
-26
24
-61
-102
-121
61
-33
-6
-34
2
-21
127
-19
-13
-42
1
26
-26
-15
20
-32
16
-33
-39
-5
-83
-84
19
-62
34
-15
9
-6
-24
-98
-16
6
-47
9
39
45
46
17
38
-78
-10
76
-9
-12
-72
81
29
-38
-24
66
-23
-32
-64
-24
32
-43
7
96
-4
-7
31
9
9
-13
17
7
-15
31
2
-14
-113
0
-59
18
31
26
17
-2
-42
-10
-39
20
6
-127
50
49
8
7
-28
-6
68
-17
35
127
-60
-40
19
86
-64
43
-46
-43
51
-71
0
-101
1
-12
-48
7
-85
23
47
-24
-7
-10
54
-108
81
-44
0
-9
3
35
22
26
47
-5
-30
96
32
-7
32
3
51
3
-22
-34
17
39
-27
9
-18
-12
19
96
7
-17
57
-45
54
2
8
-21
127
-26
-110
-66
41
121
13
-107
6
-52
-2
-11
119
-15
-25
29
-13
77
-7
41
18
10
8
-22
34
-13
-11
19
1
-47
24
-38
-41
39
3
7
-122
-28
-12
19
-54
-11
-2
-51
-55
39
-24
-127
1
-24
-1
42
3
43
6
15
-10
3
10
17
-48
51
19
-17
-8
12
21
-55
-3
-18
27
40
-53
15
127
-18
-70
127
43
-27
-24
-14
-44
0
-25
-3
-57
22
-9
-3
-6
13
7
-3
-114
10
-37
100
26
-97
-48
23
-17
-51
82
-4
-19
42
-49
37
-1
37
8
2
12
-21
-124
-26
-63
3
64
-27
-77
4
-64
-127
-19
24
-10
-31
-9
31
-12
-36
41
9
-84
69
37
-67
-72
82
-40
127
18
53
39
-90
77
25
12
-14
-68
42
-18
-8
-122
-8
47
-33
14
57
-6
-56
1
-60
23
22
-10
62
3
-42
4
2
-19
-81
-27
-52
11
26
29
-57
-46
-45
-28
-37
8
28
92
-23
8
38
-63
43
127
-30
-48
122
20
-32
127
-55
-47
-48
-46
3
11
47
20
28
-25
-32
127
-6
-10
42
87
57
-68
-81
-65
-100
-1
22
35
-30
-3
-54
5
-18
52
-28
3
1
31
30
84
121
11
3
10
52
67
21
25
-21
-3
1
-21
-42
-13
28
-4
-51
-7
5
-41
-127
67
124
-79
-5
-108
38
-36
-38
-17
-8
-127
23
-55
82
-31
27
53
14
93
-60
-41
103
-13
-98
-16
86
-33
8
28
23
-44
-95
-17
60
-59
0
6
-63
36
-8
-37
29
96
-40
1
6
-63
59
-34
-79
-55
-3
4
37
-13
0
-34
-18
111
-85
-37
-6
63
13
-8
-32
-44
-64
-21
12
33
-71
-25
127
-82
19
79
-5
54
-10
-6
13
-10
-32
-127
30
-8
19
1
17
15
4
-23
27
-54
-58
-8
40
-80
-76
44
13
5
-13
49
27
-13
-31
-31
-31
15
2
-26
0
8
12
13
-21
-1
-40
-18
-6
23
15
-14
-28
-10
-63
-42
-50
-30
-39
9
-15
91
-2
35
-5
1
44
48
53
3
35
-5
4
6
5
-68
56
-55
24
-18
39
51
-32
78
-23
27
-28
-7
-8
-34
13
26
56
37
-8
25
14
-4
25
34
-20
22
47
14
-7
9
12
8
-1
-59
-63
42
-54
-34
-127
43
-23
32
127
-3
-36
-14
3
101
-70
45
2
-127
-53
-16
-4
42
127
13
-44
10
29
28
8
-47
-2
-28
-30
8
17
-23
-35
-66
-64
-22
-15
-11
6
-5
36
-55
-38
-56
-8
-75
54
-127
-32
127
72
31
10
-11
-24
26
-16
-66
-60
46
22
33
-86
4
-17
11
-1
-41
-89
-33
127
-85
-13
2
20
-10
-3
-98
0
-27
-70
-25
11
127
-29
27
2
9
92
1
-105
-10
28
22
19
1
-19
39
21
19
-72
-39
5
-3
15
-32
38
-7
-57
43
53
-8
-67
-21
-66
-11
34
-25
-1
13
-62
-65
31
26
21
-7
24
60
22
-15
-80
14
-38
9
-13
-35
12
71
57
47
46
48
-84
58
-3
5
0
18
32
1
26
34
-60
11
-16
-4
58
24
-4
7
-9
-7
1
-10
-50
-16
-38
103
28
47
-40
28
45
25
-127
-28
-20
-70
-18
59
3
-8
-30
-10
-4
-23
-35
24
3
74
-105
38
-43
7
-4
-13
-87
5
-73
17
-17
-23
-31
-19
27
-4
7
13
55
24
13
-35
21
-85
-20
113
16
23
20
-9
-45
62
35
70
-16
12
46
10
14
31
20
-5
-6
58
2
13
31
47
-14
1
3
69
-4
-10
43
-41
-46
-45
25
-62
33
13
1
5
64
5
35
3
-5
-8
45
7
-83
-109
33
-11
11
42
-13
80
75
36
-127
22
-102
-18
15
-27
36
-30
-33
-127
2
50
-11
91
90
14
-19
4
26
-17
-8
13
40
-25
-35
-30
24
5
-45
127
-85
127
-5
27
50
12
-15
22
-77
-13
-15
48
4
21
-33
4
37
-18
10
-96
36
-127
-26
-40
37
95
81
-85
31
-25
36
-12
-69
64
-8
74
-9
-39
28
21
-15
77
27
34
-2
26
-13
-43
-36
-44
20
53
9
-8
-8
46
28
31
-37
-46
-32
-11
-62
20
4
33
-77
-4
-127
-3
-23
-14
-40
-18
7
-8
15
-36
28
-31
1
49
41
0
-9
-14
32
-16
24
-32
-37
19
21
118
39
19
-27
28
-35
-89
-6
-10
127
-5
11
-24
-14
-19
8
-5
-20
-3
-8
-5
106
-122
-31
-41
-18
-28
12
-53
-63
-6
-77
19
-14
35
25
3
80
22
15
-7
-5
11
9
2
-7
14
-20
-32
2
57
-15
-18
-28
22
-27
-84
-23
6
-19
-77
-4
-65
10
3
-23
-42
-54
22
35
-28
127
68
-21
22
-3
42
44
10
23
-9
-9
4
13
2
47
21
14
57
-26
-98
-7
39
8
-3
-3
-12
24
-2
-60
-18
127
-43
-27
34
8
31
-16
17
-21
-19
9
39
4
16
64
18
-26
8
23
59
15
-127
45
28
27
127
15
-127
-62
-34
-26
-24
-6
-20
13
-37
-33
11
3
22
76
85
41
-120
127
16
13
-48
-34
-41
20
0
-29
-7
-31
51
37
-16
6
-89
-66
-71
-98
-28
-28
-100
-27
28
46
-62
22
6
59
-54
18
-39
-10
38
0
5
31
-114
6
-32
0
5
-127
-127
25
-72
40
-28
4
-32
-5
-12
41
-49
10
62
34
2
-67
26
-10
-50
46
33
33
-16
-42
15
24
75
28
1
-28
-31
-3
-22
-22
-3
-36
-34
17
-2
-17
-29
-14
-26
5
53
-18
-9
-38
-9
-105
18
14
-18
28
-5
13
-14
-35
-20
-21
-29
-20
44
31
22
-25
74
-15
-12
19
-35
110
108
-24
108
-7
2
2
-2
-41
14
-57
-90
-24
-15
22
71
-11
23
-7
-19
-32
-19
50
-13
-91
46
-19
26
60
23
-48
40
27
-71
-22
-24
56
1
48
50
-3
-55
-22
-34
19
-9
34
18
8
-109
-37
4
-33
10
34
22
17
-25
-50
42
30
31
14
-30
-95
-73
-91
-67
100
14
3
-84
-39
95
111
4
-76
-13
4
127
-42
-67
-127
-31
-12
48
-74
45
-26
14
4
-104
-58
-14
13
-6
-43
44
-38
24
27
0
33
78
43
-127
24
1
-1
-46
42
32
12
-48
-5
-26
29
-19
3
-97
-66
-85
-22
84
28
-127
-38
-19
55
87
-70
126
-60
-3
-34
60
-4
6
38
-10
22
10
12
30
-44
-64
-29
22
96
-14
-1
-11
71
-25
-11
-60
-22
-64
7
-82
1
-105
31
127
-46
104
36
4
11
48
-18
-54
82
10
127
15
42
-68
3
12
-6
-15
63
0
127
-32
-28
-33
127
-5
20
-85
39
20
15
38
-6
-11
-11
90
-18
14
42
-20
-3
-6
29
-51
38
-57
5
46
-55
-2
-10
41
68
99
-33
-46
52
15
2
12
-11
13
38
14
46
7
54
76
-32
-45
24
-32
4
-43
9
-31
31
34
-39
-45
70
-27
-29
58
-38
-94
-24
14
-30
36
-33
-23
79
19
-54
-14
24
13
-112
-56
-8
-33
-8
35
-40
-11
-68
-8
-12
9
127
-75
-19
32
54
104
-127
35
22
-90
11
45
-11
27
-32
77
14
70
50
30
-6
-17
-70
-43
-88
-23
-11
-48
-24
-21
-44
24
13
68
45
50
-127
48
-78
32
-4
91
-46
29
92
78
-44
43
12
-127
94
11
-50
79
17
-96
5
69
-11
-7
14
-6
-48
93
-5
12
83
0
20
-10
91
-32
33
-81
-51
-19
-7
-68
-13
48
24
-18
28
12
39
21
-6
6
20
-95
-36
-30
5
-62
16
-8
33
-64
-12
-80
86
-69
18
5
-38
-44
55
-127
88
-85
-51
-127
-20
105
95
25
-65
9
-43
-24
-29
-17
-23
-8
102
69
-48
-69
4
-58
102
10
-28
-14
27
-21
72
-52
68
-55
-125
-79
51
21
20
-4
-53
-74
64
-1
77
-47
50
-71
8
52
70
5
21
-51
-25
-49
8
-20
85
-127
79
-56
101
-58
33
-25
-16
37
8
39
27
31
9
-19
-74
-29
4
49
18
-8
-25
-10
-23
77
-60
2
-12
-9
2
-15
10
78
33
-27
15
44
54
17
-16
-5
62
-23
-1
77
8
-17
-35
-37
32
-29
19
-16
-1
33
59
15
-78
-1
59
-70
34
26
-31
4
-47
5
-5
102
7
25
71
-124
83
47
-71
-37
127
17
2
7
-25
-1
109
71
-2
-1
-20
-22
56
-14
4
3
-9
-23
-9
-35
64
-2
-69
-43
40
-31
-19
-45
-34
-9
63
5
21
28
-30
0
-58
-35
-5
32
-115
127
-19
-10
26
2
42
2
59
-11
48
-30
14
32
13
66
-1
-102
-73
70
-19
-16
-29
-4
41
65
-33
45
-22
-47
-42
-5
34
-3
23
-109
-18
9
37
-28
-40
-23
33
2
-3
43
-35
-20
26
-15
59
6
-127
16
-65
19
-13
-8
7
14
-5
-10
58
-15
118
-8
33
-38
1
-22
31
-90
-23
-34
-74
84
-23
-110
-21
-127
16
78
6
-17
-3
79
-29
-71
127
18
2
5
-102
19
-12
-6
-11
-13
69
54
9
87
-1
-38
-71
47
25
36
82
-22
33
16
5
-37
38
98
16
26
-56
-56
44
7
33
-2
-21
127
-10
-77
84
20
31
41
-49
8
27
1
-30
30
0
-20
21
10
42
81
48
9
112
33
-14
9
8
15
76
50
43
-127
8
-60
28
-54
-67
8
29
57
-66
7
36
-11
1
-25
-23
-4
-6
27
127
-50
5
10
-127
31
-32
32
-4
37
-58
15
-6
4
27
0
-66
18
71
69
-106
-4
-3
-20
29
4
29
-47
9
28
14
27
-64
11
-24
-84
-16
52
4
19
41
91
-11
-22
-29
8
42
27
0
15
-42
