1
25
-16
-6
-35
-4
8
-1
0
0
0
0
0
0
0
0
-1
0
0
0
0
1
0
0
0
0
0
0
0
0
0
0
127
-26
1
127
-3
-1
-1
2
8
34
5
17
0
-51
11
5
-10
5
60
12
127
-5
-2
1
0
0
0
0
0
0
0
0
-11
-4
1
-12
-54
-18
-1
-58
2
-1
7
-4
22
-28
-127
1
0
0
0
0
0
0
0
0
-3
-7
1
1
52
2
7
2
0
0
0
0
0
0
0
0
0
1
0
0
0
1
0
0
0
0
0
0
0
0
0
0
4
-10
127
-8
-56
8
-6
1
48
-127
72
-47
19
-33
2
2
0
0
-12
-5
16
-6
15
1
0
0
0
0
0
0
0
0
0
0
0
0
0
0
0
0
-38
85
66
34
-8
20
-8
0
-5
-13
3
5
-28
1
4
127
0
-9
-6
4
-5
-127
-9
0
-3
-71
-9
39
90
1
0
26
-127
-4
-24
15
-18
0
127
-11
0
0
0
0
0
0
0
0
0
0
1
-1
1
0
0
0
0
0
0
0
0
0
0
0
4
1
0
127
-4
2
-4
1
-1
-1
8
12
8
4
0
-51
-26
-23
-127
11
16
-68
-13
-9
0
0
0
0
0
0
0
0
11
-5
-35
-21
28
6
-9
-39
22
-8
10
-4
-31
-12
-33
-34
0
0
0
0
0
0
0
0
-1
-10
-32
6
-3
127
1
3
0
0
0
0
0
0
0
0
0
1
0
0
0
-1
0
-1
0
0
0
0
0
0
0
0
-58
-27
49
-2
-10
1
-38
15
80
4
-8
-73
-127
-5
116
-48
16
-127
1
2
5
-28
9
-3
0
0
0
0
0
0
0
0
0
0
0
0
0
0
0
0
114
4
10
57
92
3
95
36
5
0
-19
-10
32
2
-3
-31
-5
1
-7
1
2
1
4
127
-93
-1
73
-17
96
-26
78
9
-70
58
-13
27
-20
-34
54
32
113
-62
14
-53
4
68
-110
-80
-10
-4
5
11
-5
3
-6
14
46
-41
12
-18
7
29
78
-14
-10
16
127
12
-38
-4
97
99
31
-57
-16
-3
-127
39
-9
-27
64
-85
14
127
-17
127
-13
2
-1
-8
-4
-3
85
2
-23
-2
2
-54
13
29
-1
80
-24
-9
5
-22
-35
10
-4
51
0
15
10
-14
-122
11
-36
2
96
-127
72
-48
14
-34
-7
44
10
-42
127
-127
8
-46
21
71
127
-51
7
-16
-5
-9
1
0
-8
14
-14
31
10
9
4
-68
20
-3
43
-72
-12
10
78
72
0
-25
-13
2
4
70
127
-33
-1
4
58
5
8
-127
-38
-68
57
3
3
-82
-16
-1
-6
-22
66
18
-47
-3
-3
-42
78
27
6
-5
-127
-8
19
40
8
127
-111
-11
-26
3
-15
-47
38
-4
9
-5
-5
13
-127
-38
-9
-27
76
5
-56
3
9
57
-20
6
-73
-2
27
-127
12
26
0
-12
20
78
-26
-35
-31
-1
-1
-9
-82
-127
-50
-1
-3
10
1
93
127
20
-5
-1
2
-87
85
-42
36
0
-63
-5
-22
-123
-5
71
24
-5
-32
20
2
2
-4
-8
110
-127
-9
-123
-1
-34
3
24
-11
75
-26
3
-23
-41
35
2
31
0
-10
-8
15
-4
2
-127
16
11
41
11
-10
-31
-32
10
-9
-4
-50
87
-96
11
-9
-2
-2
-19
3
2
-11
10
10
-98
-17
-9
-57
-14
-6
55
127
-7
-49
-111
-7
18
-3
-3
32
28
17
0
-87
67
23
-36
-13
-9
123
-2
-6
0
6
12
77
-36
-13
14
-123
-10
-127
126
4
1
-106
3
-34
-127
-8
5
90
-3
8
15
-33
37
1
34
-68
-16
-41
127
19
10
-17
-14
-2
-94
-4
-12
14
28
-23
21
-5
-15
-8
-17
2
-6
-11
-1
0
0
5
14
127
-64
-127
-127
25
1
127
0
-33
32
-10
15
-4
26
12
4
66
-79
-5
0
125
-7
3
15
-111
106
-24
-31
80
26
-4
11
-3
6
-24
10
1
-98
31
-7
-36
-100
4
10
20
10
-1
-15
14
-126
48
49
-127
8
-51
-46
-33
-13
4
-5
28
-14
-3
-12
-17
14
-56
-2
10
-61
10
77
5
-72
36
5
18
7
-12
-30
-7
28
127
126
33
17
-13
-116
0
-1
10
11
0
106
11
-14
-9
-127
32
33
-127
-10
41
-43
-78
-40
-12
-16
112
4
-9
4
-127
-85
12
17
-120
13
4
-35
-8
7
-10
-5
7
-127
-127
13
15
-23
-105
-127
-25
-3
-10
127
-55
-15
17
12
11
-18
-1
-22
-18
-24
1
3
54
-64
-92
61
81
85
-13
-7
-127
114
-85
-104
-42
49
-56
-3
50
-127
2
105
18
16
2
-2
-21
36
14
-46
69
-99
-53
6
35
112
80
-115
52
11
-2
-127
-37
34
-9
-67
2
78
-4
-3
125
35
-1
-17
62
-40
-15
18
-29
29
-9
-33
22
26
18
1
65
12
-26
-8
-46
-61
-75
-8
58
-53
9
39
-127
127
54
-5
23
-81
85
127
70
47
-5
-6
-75
75
-87
-85
14
47
21
-18
-71
77
127
-95
65
59
127
-3
9
46
-10
-52
-49
-32
-15
0
-69
29
13
-22
41
29
8
108
-15
56
-14
-61
29
-14
-3
-24
77
127
127
-4
78
11
17
39
109
-5
6
-15
10
-10
-2
34
-3
3
1
3
-44
12
-14
3
16
87
73
8
-127
123
0
31
-112
-10
-32
43
18
-5
127
8
-127
-14
-2
-2
12
2
-1
18
2
7
4
-48
23
16
-81
54
15
6
1
9
2
2
6
-71
41
3
7
122
-7
-12
3
75
-28
1
0
5
-91
-127
3
-56
-118
-4
-29
27
38
13
16
15
82
96
97
-4
-112
8
-12
5
-87
-1
-15
13
14
28
-2
-127
27
1
1
-6
-27
7
1
-50
-23
-4
-6
-127
5
-9
-46
16
-29
-18
-10
12
3
-9
-17
47
-42
62
-1
-1
16
17
37
-99
-94
-122
-12
32
2
-5
5
-5
-1
-15
5
-5
-2
3
22
80
21
-35
0
-13
-7
103
-85
122
127
127
73
-42
88
-4
31
9
4
-52
31
12
10
-23
-36
-17
-17
-44
-19
57
-3
-8
67
61
35
-17
33
-31
4
2
-52
-26
-29
16
-9
-123
-4
-99
127
2
-7
-17
68
-8
2
-71
16
127
127
-126
-100
-24
7
19
24
13
-61
-71
12
14
17
-4
53
99
93
-107
-9
-20
2
127
-127
-7
-10
66
127
2
-3
7
-37
22
21
32
4
127
-127
-19
19
7
5
-89
33
-4
-51
-6
14
3
3
-68
-2
11
39
11
8
-7
-5
127
-40
-8
-6
127
-76
14
-4
4
19
4
8
1
1
-4
-5
44
14
-9
75
-2
-67
15
20
-11
45
-123
31
-1
-24
1
-87
15
-5
-5
-108
-90
-1
1
-7
-22
30
-1
127
4
-42
-1
-86
10
-1
-5
-86
-63
50
36
-4
-16
124
-6
109
22
-127
35
0
9
19
25
-85
-2
102
5
0
22
29
127
18
11
4
-1
-4
71
-22
-12
41
0
3
-13
-42
100
25
-12
58
27
114
127
-4
-6
-2
7
-20
-44
19
47
3
-4
-127
-3
22
-2
-16
2
127
13
18
7
-30
-37
-1
-30
-4
5
2
14
49
-13
-8
54
32
39
8
60
-81
10
92
101
7
-12
20
5
15
23
2
18
-7
-13
-4
-59
67
127
6
-74
26
-48
-22
-122
13
17
-1
8
127
7
1
24
127
-4
-21
105
1
-54
127
-1
-6
7
0
-38
45
8
-30
-52
41
-32
127
0
-2
-127
-76
32
24
-10
26
-72
-1
-22
18
-16
-38
117
-1
127
31
-27
-7
-127
26
-5
0
32
12
19
3
25
50
38
-2
60
-18
-27
-11
-91
30
-12
7
72
0
9
15
15
16
18
126
-48
2
120
72
-20
45
17
1
56
-105
-22
-7
-4
-7
14
-8
-5
-127
-5
53
-4
13
-8
103
14
19
13
-127
18
-46
3
2
-11
-1
-3
8
109
0
-9
-66
5
-79
9
-21
0
77
-35
-127
25
-4
41
25
32
1
-22
-69
6
-10
-24
-35
0
-12
127
46
1
2
-127
49
6
-12
-55
36
35
1
52
-52
16
18
-55
19
-127
1
70
30
-17
-27
22
-5
52
-2
-9
23
127
-42
-19
-122
-16
-1
31
-4
-17
13
-12
33
6
-92
0
-72
10
-9
-23
-116
-8
7
2
-59
-16
127
11
9
80
2
2
1
-107
14
67
-13
-119
-1
-79
-28
15
11
-21
80
-8
-14
-24
-16
3
13
70
-9
-11
4
-51
127
68
-11
-127
45
14
7
79
-32
-90
43
43
-18
-127
-4
-74
0
104
28
-37
-8
10
-9
33
93
-44
74
-99
-34
33
-38
43
-6
-73
69
-39
-1
5
1
54
2
-67
2
-28
-104
46
5
127
-1
-30
120
-26
6
0
6
17
6
5
-26
1
-127
54
-5
46
0
-18
127
-28
-31
1
-127
79
-2
22
-14
120
-12
-3
43
-35
-2
127
35
-81
19
10
0
55
89
-73
12
-78
-17
26
-6
76
17
-117
29
-35
7
80
-98
-1
-1
-51
-1
3
112
-18
-12
17
1
-16
72
-31
-29
7
4
87
-1
-49
5
67
-21
-72
9
127
5
-8
12
-115
-27
127
-19
-9
-8
-61
-56
8
-4
-10
-20
6
-3
-39
1
-39
34
49
4
98
-8
-84
-80
13
66
-9
100
17
13
22
-17
-27
-1
35
-16
-30
-90
-53
0
11
17
-93
-51
6
-6
-110
-16
6
127
-1
57
38
-126
-17
52
9
-25
-4
-21
-3
-3
49
13
-3
21
0
113
-1
4
38
81
0
65
6
-78
22
7
-22
-3
-77
-11
83
-11
93
-2
-93
2
-127
57
115
-29
16
-17
-127
127
-1
-14
7
-127
1
-2
111
25
5
2
6
3
0
1
69
-36
-34
5
20
-31
-27
127
-78
-48
36
120
43
-12
7
-14
38
10
11
-70
21
-54
-41
-25
-20
-45
0
-8
-25
-22
20
-43
-91
-14
10
-43
-17
78
24
-16
-24
-45
55
-7
-10
-13
22
-2
-9
0
-9
-48
26
-50
-48
-40
30
95
-20
-64
7
-29
2
12
2
0
-37
-42
-12
41
24
-16
59
-27
4
-23
0
-43
44
-35
67
-5
-3
-26
-31
-66
9
-10
-19
-6
17
31
-29
30
81
-50
-27
11
-34
26
4
-31
-14
11
105
-23
-13
23
26
18
-37
-15
-7
-34
43
-5
-8
-4
9
8
-31
-5
-2
-18
6
-8
-27
43
34
-18
-28
57
12
7
96
14
-14
-13
22
-72
18
-38
-36
-9
-42
33
-5
-90
13
61
-82
61
28
-9
-2
-31
-25
-127
-19
-6
26
35
-2
0
8
29
-43
-127
-44
-37
18
-31
-4
-16
16
12
10
-44
23
32
46
51
-59
-39
-2
-54
31
-55
40
0
-78
108
-34
-50
34
-16
4
10
-70
31
1
65
23
66
11
-110
-28
60
-108
2
-29
-109
28
9
64
8
-50
27
0
1
13
27
-50
-96
-21
15
0
-12
6
13
-28
-79
-30
-127
-31
-31
-28
-9
-36
26
-34
1
18
55
-18
-61
96
-60
9
-6
-7
7
6
-18
11
7
29
-4
-6
-49
24
-45
-43
-42
-8
-7
0
-7
20
-10
-53
5
28
-8
11
-20
8
-6
-28
48
45
-13
20
-26
-1
-19
46
-36
99
54
39
3
4
-2
-13
39
-57
-6
13
-88
12
-59
-31
-43
29
-13
2
-1
6
-41
-7
40
15
112
-19
-22
16
-6
12
2
8
-12
0
-1
1
-42
-5
39
13
25
-20
53
35
31
-7
-21
0
10
53
-11
-53
-45
46
-23
-66
39
-65
-4
6
-6
-25
13
-5
-30
7
-15
-6
-26
37
-23
46
-80
-5
-18
-12
-11
-10
2
32
-1
10
-47
109
-40
78
7
31
23
-11
4
-127
8
-127
15
-9
31
-1
0
9
30
-39
-108
-34
-17
-121
-14
20
13
16
0
-72
34
8
-5
-7
-2
26
15
52
2
5
-20
20
23
-63
4
34
13
22
127
-20
-55
-60
11
65
16
-49
13
-12
-3
52
1
-76
-7
27
-57
7
4
-14
33
31
-6
-2
10
4
17
-14
18
32
-7
2
-24
13
-27
-23
-24
-24
-5
-3
5
21
9
-62
-6
26
34
27
-69
2
94
-57
-57
38
-21
-12
8
6
-27
37
24
16
-28
15
42
-29
-116
45
-43
-24
-40
-127
-10
15
-34
9
2
25
-2
64
-20
13
15
-7
-36
-42
-60
37
-77
49
-8
-95
71
-21
32
50
-30
-20
-21
-6
0
30
-5
-4
-9
12
-60
-8
-8
-28
-2
-30
40
33
27
1
-32
43
-4
-14
-22
-25
-86
13
16
-17
-1
16
-35
10
-11
-34
41
44
58
-50
11
9
-6
-13
21
-55
-8
-17
-39
38
-66
-87
-11
64
1
-5
-70
22
-56
-50
-53
-3
56
-48
-27
4
-7
12
-10
16
-11
9
2
0
-14
15
-10
30
13
-11
-30
16
-21
-57
-67
-4
16
47
-22
6
-5
10
1
2
16
-15
-10
1
-18
-7
44
-38
11
-25
-37
115
-4
122
-7
11
-1
26
-42
9
-6
-11
22
-83
3
20
-53
29
-95
-38
-24
3
-9
-19
31
-8
-9
41
17
-54
3
-12
16
8
-11
7
31
58
5
11
-2
-8
-57
38
11
-23
13
-10
-32
18
-22
-57
-68
-15
24
24
-45
8
101
-70
-13
9
-1
22
-26
-4
-19
24
-54
127
-8
1
-50
15
-64
-24
-44
11
106
-25
19
18
20
-51
10
-22
-11
1
-4
-5
-52
20
50
4
19
15
-20
-13
-8
21
-18
47
-57
-47
-99
-47
88
31
-31
68
-94
-10
-45
-28
-31
-9
32
-29
38
-57
-116
-27
-28
10
54
-22
0
38
-57
2
9
-3
32
33
55
2
-59
-72
-46
94
34
-5
-6
-88
27
-1
20
-3
-15
-27
-1
14
-38
24
28
-82
12
25
-40
59
-50
-5
117
-23
-46
-11
-6
-19
-2
-19
57
16
-37
-46
-16
-12
-2
15
8
21
65
19
-27
20
-8
-7
89
6
-4
-46
-15
11
90
19
27
-4
7
-53
-21
-15
14
-13
-23
3
-52
19
-31
39
68
5
-12
-28
118
-62
28
18
63
-20
-6
-20
0
39
-21
28
-5
-43
-29
52
20
32
5
51
-1
50
4
17
12
36
67
51
-15
-5
2
31
-14
-20
-11
-62
37
0
-4
0
25
-71
-15
18
-4
-7
-9
24
45
-4
-18
-10
-39
4
47
-12
57
-83
40
10
1
42
0
34
4
26
-12
8
44
-127
8
-10
-17
-16
-25
48
-13
-31
95
-9
-34
-52
-74
-32
-12
101
69
40
-18
79
18
127
6
57
17
13
-15
97
57
-26
14
4
6
-44
26
-73
-41
10
-24
-22
-37
67
1
-39
-39
77
5
-21
17
59
127
8
-5
85
-44
-54
45
-110
36
57
-59
17
-50
18
-25
-23
-28
-51
-7
-60
-4
35
-13
8
20
28
-9
-30
59
20
-48
-13
28
36
70
-12
16
12
9
-34
12
-69
18
-13
6
-7
-8
-35
9
-21
-7
-40
61
12
-2
-10
-58
-49
48
23
-16
-107
-60
-22
-6
-86
9
39
15
-32
-64
49
-28
-75
-25
17
15
-18
16
-2
-49
40
127
40
17
27
18
1
6
-13
36
3
-19
44
5
26
5
58
-34
11
-22
-47
-3
48
7
38
-14
30
72
-2
11
13
-113
-44
-5
-5
-4
-32
40
21
-49
-72
59
34
-1
13
1
29
-7
20
-19
55
-24
-2
-17
-14
107
-33
58
29
1
15
-11
26
0
24
25
19
11
-13
-13
26
-97
95
-15
29
-52
54
52
30
81
29
-13
18
-74
-3
-2
-10
-34
11
-34
16
-4
-38
1
32
5
60
2
-24
-57
4
-2
-8
-40
-44
-5
-20
2
43
-56
-17
-2
-2
-13
19
5
-41
-28
3
40
54
55
-21
12
7
8
-36
20
-66
17
7
-80
0
30
30
-113
-82
3
14
-22
-24
-21
22
4
-60
92
18
5
42
13
6
-5
-25
-3
-15
-43
3
-3
0
-10
-20
1
4
54
-8
36
-8
19
4
10
-18
-36
9
27
26
-16
-37
50
26
10
12
-41
21
-8
-23
-24
40
4
-17
23
-9
-33
23
125
41
25
33
-3
-3
-6
-15
-94
-62
-38
44
-29
22
-60
-119
-14
33
21
-52
-58
61
-22
-80
110
64
-9
-22
-37
-26
51
-14
-18
-7
-108
26
-20
-21
17
-12
14
-13
-85
-12
-107
-2
-29
80
-10
84
-38
-83
-11
-127
23
20
-39
-3
-60
12
4
9
-8
34
8
-12
11
-25
54
13
-13
-31
38
8
2
-12
61
32
-108
81
-23
82
7
34
5
22
-17
23
35
-6
-25
44
14
43
-7
3
-10
18
-23
-5
10
22
-100
-44
-17
0
28
-27
-109
-50
0
96
-22
23
15
-22
-7
4
-60
35
-11
26
-74
-1
-21
-16
85
4
-4
24
-3
-28
-44
38
-15
-40
33
10
28
14
8
-12
-27
-8
-13
3
83
7
5
0
44
-31
0
38
18
4
-43
13
-35
-66
-24
48
-19
40
38
-30
20
-34
-4
36
-17
-26
127
-11
-4
-93
-19
-27
-18
-29
46
22
-45
-47
-8
13
18
-21
-41
30
12
-28
-8
56
20
-38
-56
33
-53
-24
35
5
-18
-24
18
14
35
26
43
7
28
10
23
-18
-16
-21
-34
-72
-33
76
-17
9
-12
-76
-13
20
-27
-27
33
19
13
127
-4
-10
0
-28
-7
13
-33
-7
-11
57
14
-5
-48
15
45
-44
44
25
-7
-8
-3
28
10
27
-53
-14
-29
-15
49
-8
29
48
-33
67
54
-18
26
6
-3
7
-26
-29
-10
13
-39
-22
-1
-124
44
-110
57
-22
-34
39
86
-93
-5
-4
-52
-2
4
44
-12
-73
7
6
-24
23
24
-56
-104
6
22
-7
-127
-18
46
7
83
57
99
21
-5
60
27
9
-13
-19
-10
-11
57
-4
-51
10
-83
29
26
-43
-5
-15
-16
-14
-10
-31
-22
71
-30
26
-75
-3
26
1
13
7
8
19
-12
3
24
15
1
-16
25
-16
16
-25
26
16
-6
-29
-2
4
-19
-17
-55
-16
-2
57
127
-30
-127
126
-1
-20
-8
-3
49
-47
24
-39
22
-11
46
35
56
58
-33
-15
-28
18
-4
-17
15
19
11
-19
-85
-84
-31
2
-21
-74
10
20
16
36
-32
34
-19
10
0
-10
5
-16
-4
5
-5
-13
44
1
-3
-20
37
13
2
-23
-12
-39
-30
31
11
-13
16
-3
-21
-4
-38
9
2
-18
-24
-107
32
41
-31
127
7
-28
6
29
-10
-18
14
-16
-10
-23
95
78
-2
-45
-40
19
6
-14
9
66
0
-27
1
-123
-30
28
-28
55
38
6
8
20
50
2
-22
57
-59
7
-28
58
-62
-9
30
-31
122
-12
61
-21
-13
61
-1
101
-11
-25
-5
-50
35
-37
-127
-53
-80
51
-62
9
45
-22
44
-10
49
7
127
-19
26
-20
-32
-14
39
8
47
-3
-20
8
-28
25
24
7
15
26
-33
20
-10
40
22
-3
-8
2
-5
18
116
7
94
127
-9
-15
2
-5
-61
-43
45
26
42
-41
25
-30
14
77
-21
7
27
37
-6
-26
10
15
-19
-8
-41
-6
8
0
-26
-54
-18
15
-32
46
-6
10
15
-26
-20
-6
-49
1
62
31
44
49
-19
-3
0
63
-12
118
-29
-6
2
0
-1
5
-17
-27
-8
-28
-27
-16
-11
-22
-4
-6
-8
-41
-17
1
-46
2
-10
9
-1
-21
-121
-14
-2
12
-13
-6
-13
-37
-11
5
-53
1
-18
-19
-42
16
-85
-1
61
-42
-127
56
-78
46
37
43
24
63
8
35
0
-11
-32
30
18
-3
55
37
16
8
-47
0
36
35
-6
27
12
-6
91
0
-4
8
-11
-17
-20
-22
4
-9
79
-9
18
-7
25
-43
-15
-12
44
6
-24
23
-22
42
26
4
15
19
9
127
-5
-2
51
-3
-40
-8
-21
-12
19
73
67
-3
-18
7
2
-2
-4
-14
-19
4
-12
47
-28
8
18
-12
-3
-29
36
17
-66
32
100
-1
42
-61
34
7
-24
17
29
-25
-32
-21
-5
-23
26
-10
-7
8
-18
11
5
47
5
-18
6
21
-12
-8
-20
-3
7
-9
-28
-41
-20
17
-11
58
12
-14
59
104
-25
-35
70
-14
19
-33
31
72
-31
7
0
62
-16
45
-60
-25
12
11
27
-118
14
-30
17
-26
6
12
23
20
-28
5
35
-34
1
4
-51
23
-41
77
-12
127
-29
-26
7
-57
-8
-26
-123
20
46
55
67
21
18
-15
-13
-22
-21
-3
12
-24
-6
-12
10
24
-39
61
67
-65
-19
-47
13
35
25
-19
-77
-76
-12
8
15
-5
-35
-11
-26
-3
-3
117
-36
-3
37
-6
-4
4
-57
30
10
64
-23
-9
-83
-23
-10
-37
0
14
-26
-16
-25
-12
-13
-23
30
-16
-60
10
15
10
35
1
3
52
-28
9
43
38
0
-22
-15
6
-2
-1
-25
9
-3
16
13
-3
-25
12
-9
-1
-41
-72
4
41
34
-9
-38
-35
4
27
-6
24
-32
-1
-34
13
48
-20
-14
32
7
-9
64
-25
8
-27
20
-23
-26
-17
-65
-31
-39
-29
-22
49
8
19
-41
52
43
-63
-9
45
1
10
-2
55
4
12
-20
-20
23
16
-48
-18
1
-21
-19
5
5
-2
-22
8
-8
28
66
80
-29
-20
50
-9
85
43
20
19
-8
6
10
30
-7
-23
-8
-23
-24
-7
-29
-19
-16
40
-6
-23
-45
6
2
-23
-9
6
-26
-26
-3
14
-52
-12
8
13
-21
-3
45
29
-46
2
-50
-6
-59
-9
-48
4
-49
13
8
50
-13
-19
115
-52
-53
57
35
-14
-85
-4
27
-7
113
-75
-6
11
40
34
-19
-20
22
-6
-62
-31
7
18
-81
9
53
79
-24
-118
14
28
-38
-9
50
-20
-8
1
3
-21
-28
-6
-23
36
-96
35
7
-24
98
20
-34
-41
-44
-4
61
-65
2
-36
-8
-127
54
9
8
-127
-37
29
-49
-25
-8
-31
-48
-58
12
9
-48
-22
-3
-29
104
30
10
30
30
101
-18
-51
72
21
24
-12
1
29
-16
-100
-47
8
-7
103
-19
-13
-127
4
-127
35
118
-65
-5
-1
2
127
-8
-4
10
-4
-11
32
-15
46
65
-24
5
19
8
26
56
-2
-66
61
-23
24
13
127
47
119
20
-5
-61
-3
13
-13
-75
2
-33
-49
42
-17
25
49
-61
-87
-9
19
-21
-11
16
9
24
39
-17
40
-18
-32
28
12
-49
15
49
-4
30
-127
-25
-97
16
-18
60
-19
15
-72
31
43
30
20
-11
15
-18
-125
-4
-32
19
-41
58
-59
42
-7
-127
7
-26
62
-6
-7
-16
15
21
29
-120
46
37
10
127
24
-21
-20
-98
-1
34
6
9
22
49
-103
58
-18
22
-11
-10
-27
-14
-49
-124
-98
38
-24
4
-38
-6
-52
28
-63
-53
-25
-13
-5
-10
0
18
26
97
-11
14
-6
68
8
-24
-127
1
13
89
108
108
65
-16
-60
-85
-3
-51
-58
35
-33
-49
81
112
28
89
69
-41
52
-12
47
9
2
103
127
-21
-127
-66
-67
-33
49
111
-40
-4
-11
-46
-30
29
15
-21
-31
-127
-5
23
12
47
21
-96
-118
-49
-16
91
51
-8
23
-33
81
-11
22
0
7
127
22
-39
10
-73
5
64
-10
-56
-3
-23
38
51
-55
6
-1
37
127
-32
16
-38
-11
127
26
20
-22
-50
-4
-19
54
-109
22
-6
15
28
-28
4
32
63
-7
-4
-66
48
-5
-42
-15
94
-16
8
60
-19
17
14
11
-75
-17
-26
-14
43
-16
-25
16
30
77
-51
-77
-7
11
-44
10
-43
-22
15
36
-6
35
13
-25
-25
-18
-85
-5
-2
30
-24
8
18
74
-116
-59
4
8
88
-9
25
-79
-63
30
17
-59
-40
-49
-67
29
-55
-42
-127
10
49
-26
56
-15
-1
10
-8
-33
-8
-9
113
14
44
-21
-26
-72
14
-94
22
-61
46
-36
-32
6
72
-127
-43
-4
-36
12
28
-50
27
-70
8
7
94
-57
-29
92
123
9
-5
14
127
-65
-42
41
27
25
8
-9
-115
-7
34
-6
-3
21
9
56
-31
62
-26
127
-28
61
20
41
-58
-8
3
-34
-10
15
-32
32
28
-47
-14
18
4
-36
127
-24
-44
15
23
76
3
113
-41
-47
-8
7
-27
11
-29
-1
5
-22
-7
-127
25
41
14
-43
9
-50
82
-43
-27
-5
-5
5
27
-3
-41
24
55
25
-108
92
71
-30
18
41
23
-60
-33
6
-19
46
-82
-24
-9
-20
50
45
-35
5
17
28
-1
32
57
-49
11
127
31
-6
5
-88
-44
-21
24
-30
-17
-2
6
16
-5
13
-69
23
-25
-9
26
-24
-39
30
9
-36
9
-27
3
-15
18
4
-3
-22
-114
-32
-11
-28
-127
-73
-24
-39
74
-6
127
17
-122
-3
-11
6
-4
38
-9
-104
18
34
10
-18
32
-8
-1
-96
1
-12
26
68
53
50
-88
-14
30
-73
-11
4
0
7
85
52
38
49
39
22
53
127
-26
-13
127
-92
83
34
3
60
-127
-14
16
-64
-31
68
27
21
-54
-60
37
127
-19
-121
25
-30
-31
-85
5
2
-33
29
-16
-20
48
11
19
-13
17
50
33
-72
51
-2
-67
5
-20
32
-41
-13
34
85
-14
-7
-58
-45
75
-43
-68
-71
-37
-40
46
47
-49
-6
55
-32
74
-37
81
-16
-96
38
-69
18
-51
-58
-17
-12
8
9
-48
-13
39
68
5
-127
-78
-19
62
-37
-6
46
-20
-33
64
13
-53
31
-29
49
10
-116
-8
-43
-24
110
84
-19
17
-18
127
-44
-12
127
-45
-33
-7
-9
-32
-32
83
-58
7
28
11
20
27
40
-40
-55
-46
60
0
39
-56
38
10
-90
21
-67
-35
-45
-87
-34
-42
66
12
47
127
-28
-25
73
-26
29
-2
12
-2
-15
-35
-127
-12
-9
7
-23
-23
-52
9
92
-14
-26
-12
-2
-17
24
65
-23
103
-49
-83
10
17
-12
-10
17
-58
-40
47
2
-12
-21
84
-23
-66
54
-31
-46
-83
-7
16
-2
96
-38
-127
42
22
-20
-29
-6
-45
27
15
23
-27
127
18
19
-23
-24
39
-37
39
-30
-13
3
127
-62
-8
66
107
-18
2
-53
82
14
-64
56
22
31
-7
114
28
11
16
11
21
-4
11
33
-42
35
15
-84
-23
-61
-15
-6
-29
-49
-80
41
-127
-11
-4
16
-77
2
-67
-12
13
37
-109
-41
60
10
10
26
6
2
20
-16
-21
-52
13
-32
11
-75
35
-2
40
-62
84
-36
-3
21
-25
29
-3
-54
73
14
-13
-62
-32
10
-101
-127
4
-18
113
9
-36
-1
-107
1
-6
-6
37
-24
-31
120
34
1
-36
44
-11
-70
-4
-9
38
38
-19
63
-12
-75
-2
21
-12
-25
4
-30
-4
48
-127
1
-39
24
-45
127
45
69
19
31
3
-22
15
29
101
-17
-7
11
-87
-5
-127
-5
-25
2
-72
-18
7
58
-4
-54
-53
-10
38
-12
-71
52
24
127
-3
36
-56
8
-21
-12
4
13
-9
-14
-75
24
40
34
-8
103
3
11
-127
-58
-71
-3
6
1
12
34
-50
127
127
28
-10
3
-9
-72
12
20
-57
127
36
9
10
-23
4
-10
-62
56
-34
1
127
1
26
-4
95
26
-106
-8
-4
-9
-3
-16
49
-105
-32
36
-16
-11
39
39
-29
14
4
-22
-16
-110
2
-33
46
-11
37
0
28
-40
-45
1
12
-9
-37
-12
-23
-28
11
82
-60
48
-2
39
1
-10
-25
67
-76
15
-11
-30
13
-60
-44
72
6
-6
49
19
30
1
3
51
-58
-42
-18
-28
-20
-53
-20
-31
-61
-32
25
-5
-62
85
-2
34
-2
-27
-16
-11
-15
-22
-7
-62
-29
103
27
33
-9
0
-41
12
-14
35
-44
22
12
-127
35
-46
-29
42
-26
-2
-77
17
-14
-101
-21
3
-38
0
-29
-17
16
-63
97
-127
-6
57
22
-12
43
107
42
-80
-20
127
10
17
-9
-46
-12
57
-2
-82
50
-11
33
42
37
29
-16
-36
17
29
39
41
-12
38
-43
-94
-69
14
-3
-54
-33
-10
49
-15
-27
17
22
-70
-19
-57
45
26
33
-30
22
-63
-65
-21
-14
5
-11
1
18
-15
14
14
19
-2
54
3
-8
76
-127
51
-21
-66
-13
-37
1
84
15
-3
11
-27
19
26
-2
-39
76
-20
-64
36
-80
72
18
-47
-115
17
20
-1
12
1
-40
-2
27
56
34
-19
25
38
-12
-53
13
7
-127
-18
26
-7
21
-36
-96
34
10
-36
63
17
-2
39
-10
46
-21
4
121
12
-25
-10
-123
20
-67
58
-56
-9
-26
-62
-72
-13
10
-8
-95
5
-25
-127
1
43
-34
-40
-127
18
22
-92
107
-46
93
1
-22
7
14
40
-31
-64
-8
-7
-106
127
-127
-93
-54
7
10
21
27
-24
13
4
-24
-30
-3
-6
9
9
27
17
-4
51
-27
5
68
6
-53
-45
72
-12
127
15
39
-7
70
22
-29
-38
-57
-28
5
-31
127
56
-99
24
-41
48
-1
-27
-96
-25
109
18
113
-41
17
8
31
27
-72
-49
-65
31
2
-72
96
-29
-12
11
-60
-104
-3
-62
-6
-32
94
20
20
-127
-3
18
-50
6
59
-36
25
-39
-9
-20
-12
3
13
-38
40
-24
1
11
83
40
-127
12
-63
75
-39
-28
5
81
-55
-40
-27
31
-34
24
72
63
-22
-25
-75
-93
-16
14
-61
8
-2
121
21
14
-52
-27
86
-23
-62
-127
-33
-18
3
-48
35
-28
0
70
13
-35
-23
-43
14
22
-24
-63
-6
-62
127
-127
61
71
-63
47
-77
-119
-15
22
89
42
-112
-14
-68
-61
31
6
-73
12
22
-19
33
-11
-47
80
8
9
53
1
36
67
-48
-1
51
-6
-5
-125
-3
-61
-4
79
27
127
-15
-19
-77
-86
3
-12
-5
-19
37
18
12
-6
70
117
86
22
-17
3
-31
50
-21
123
116
1
-30
-5
-64
127
-39
61
35
-47
-7
-13
-127
9
25
-127
-43
-35
-68
80
47
21
-16
29
-34
74
-87
-38
-47
23
-12
-36
24
60
38
0
3
-61
47
54
-94
3
-28
9
-12
-7
-84
-20
-41
-68
-11
-34
8
-17
-19
-24
13
9
-58
-17
5
13
-103
-123
-101
-38
16
-19
52
-56
51
36
49
5
19
127
-43
12
37
-118
48
-17
-86
-12
-16
30
-61
23
6
40
-104
4
20
-2
13
-7
-32
1
36
-12
20
-26
15
48
-97
22
-1
-15
21
-50
25
-98
-21
-19
67
1
17
1
20
40
-54
4
-10
-11
-4
-18
-127
69
-23
20
-30
24
-25
53
-48
2
34
-10
-10
37
0
-3
15
-22
1
-8
25
2
-8
-13
102
-26
127
-31
-46
-35
-9
23
-43
-66
6
-26
50
10
-10
-48
-106
62
46
-127
-127
-3
-17
47
-17
9
23
-28
-38
5
18
-19
8
1
-18
57
127
12
-30
-55
124
77
29
-9
-56
-44
59
-24
31
48
-15
-36
-14
60
-28
-38
44
-23
-19
-29
-118
32
28
127
-127
13
72
-3
-43
127
38
52
-37
45
13
-74
-20
35
48
2
-12
-54
16
33
-45
9
-9
29
-6
-6
75
-59
-49
46
-127
26
62
-58
-40
-40
7
-45
12
67
34
37
65
-66
-120
30
33
44
-49
5
-19
33
49
44
20
-49
-22
-78
-3
100
-13
-2
64
1
103
-9
-39
13
-2
-108
-68
-93
81
-42
-33
64
88
-106
5
5
-18
-35
58
86
2
-38
-4
-49
18
-35
52
83
-13
61
-5
-29
56
-95
27
90
89
8
-2
-36
63
127
127
-127
-9
-12
3
3
-32
12
3
-19
-31
47
9
-69
13
60
-15
-72
-50
-111
37
29
-53
-90
-88
68
68
4
-10
-35
-34
-74
-9
41
-61
-98
-13
-20
-78
29
-1
-30
114
19
-53
-22
-22
16
-3
-42
-29
76
-75
10
93
-21
-40
-98
0
-24
-31
-1
33
79
-58
15
49
-9
33
10
8
-53
66
24
-53
-73
11
-19
-54
82
-120
10
44
-9
-19
-1
-19
89
-109
5
111
56
-7
33
5
17
53
-25
-30
65
-25
5
-47
-40
6
14
-4
-9
-127
24
-32
-23
36
24
-33
54
46
36
-14
-48
-80
-16
68
-55
-20
43
-101
27
46
-127
6
7
58
3
35
72
-107
-4
21
-3
34
29
10
21
-127
10
32
0
-18
29
-1
90
-126
8
66
-76
-1
65
23
-45
40
36
22
-93
36
14
-58
-54
-6
43
-8
-6
-16
40
24
28
108
-6
-21
55
22
-26
11
6
77
-67
-17
-17
52
27
-103
32
-61
15
27
-17
37
6
-20
-73
-35
15
46
38
2
21
-32
-7
0
-19
28
-127
-101
37
-127
127
-15
27
4
12
-83
34
-46
-14
-9
21
-11
-39
21
-1
101
-92
-40
-25
127
-9
37
127
-63
32
-31
63
16
-45
-14
-26
24
2
-12
-7
-28
6
-36
-77
4
11
-67
37
-62
-7
-64
36
-23
57
-55
-67
-15
-127
-36
-81
-3
-49
127
-90
-96
-45
9
-27
-82
127
-12
71
-23
33
-35
-34
40
8
-20
-14
19
4
53
32
-44
10
22
-17
-26
5
-16
-15
-45
56
-61
-30
-25
53
-46
42
34
-25
9
-64
-24
-51
-9
-68
-43
-10
-1
4
13
1
33
-78
69
44
54
60
10
16
15
-41
-61
5
7
3
-19
12
-127
41
-74
-62
-38
127
-31
-49
19
45
-22
-57
4
0
99
-91
5
-127
-90
-47
-27
24
-55
27
-34
16
-23
-36
-27
-7
-19
-10
-119
-34
-49
-5
-2
-22
26
-13
-58
54
-127
48
-42
-10
38
22
-82
-12
-5
35
-19
-10
1
57
-3
27
-66
-30
-25
58
72
-14
6
28
63
-29
11
-6
-34
-15
26
17
-22
-28
19
66
-37
16
-27
-5
-58
2
-9
-106
127
49
35
-8
-26
-11
-66
4
-6
-12
-35
-7
-2
-30
127
55
95
-8
7
-4
30
-81
13
127
-71
-127
5
54
47
-44
32
33
-34
-47
127
7
44
59
17
19
-4
-35
46
73
-18
21
16
32
-54
-4
1
18
44
-2
-8
49
-53
45
-26
-6
48
46
32
-109
127
21
-17
7
48
2
-5
24
-38
-14
-31
14
15
-25
-10
18
34
12
27
-3
11
40
91
-74
-111
-14
31
-1
-61
-19
16
13
55
10
3
-8
-47
-127
-3
59
-1
-23
-6
-46
20
19
-1
-31
-58
-7
23
-10
12
-1
19
20
7
72
26
-88
-5
69
35
-35
23
-97
-21
-38
75
-56
-7
96
114
29
15
33
37
26
-39
-19
25
9
18
-17
-2
-34
-9
57
-114
4
-23
-23
69
-17
5
50
-15
10
-17
-6
-41
-8
13
23
29
38
24
-34
28
-17
-14
26
127
92
15
-7
81
5
24
8
-30
-41
-51
-18
127
-7
-12
22
-87
43
-34
-127
-20
127
2
110
1
-4
-1
97
-22
-23
-50
-4
-1
32
-57
2
35
-15
-127
103
48
60
127
87
127
51
-44
58
-26
19
-37
-127
59
-10
48
-8
42
8
32
55
-85
14
-5
-43
62
6
78
-98
-10
5
20
24
-60
-3
-7
24
-29
-5
-2
-23
32
-30
105
-63
-53
-12
5
39
-41
5
-68
16
38
34
16
36
-30
5
-8
22
45
22
53
-5
2
-24
49
56
-19
-15
-12
-52
18
22
37
-88
-24
-6
-49
3
-127
127
54
92
57
4
8
13
45
18
0
82
60
21
2
49
-41
-9
11
-96
-26
18
39
-41
90
-53
-82
50
45
-14
23
-25
-67
63
-41
-15
47
24
-6
-15
19
10
37
78
-36
-5
-43
127
-1
41
-44
-36
-50
-5
-20
-20
-39
32
-21
43
70
-85
14
-31
-7
-14
5
-13
8
49
-4
-80
10
44
-3
31
-28
19
30
-27
-82
30
7
-17
-45
-10
-14
-21
-4
-35
23
-25
36
9
-1
-29
18
37
-7
49
-44
-18
-11
-11
-13
3
-4
-26
43
22
0
51
-27
-15
4
-33
127
-127
25
-3
0
-31
-127
29
48
-4
10
-80
-52
101
-22
-48
-76
-32
2
68
-31
-43
-22
-111
-17
10
-17
-6
33
-26
21
127
-45
-14
-44
1
-25
-28
16
-53
-46
29
12
91
-26
-107
20
78
36
-33
-31
40
11
-40
-17
-92
44
-13
30
15
-1
-14
-34
19
-35
-32
-20
-127
38
127
-16
31
-4
15
33
-6
-58
13
1
-21
98
-36
43
-31
8
-11
-52
-52
-10
-69
5
22
13
-26
-44
33
57
-3
21
7
-21
-43
-2
20
63
24
-22
2
-83
0
2
8
113
8
-19
10
-53
-25
-27
21
-76
-4
3
-62
37
35
16
-42
-19
16
-1
-68
-4
58
8
-85
33
-51
-8
15
61
0
-36
11
14
5
2
46
-25
-51
-9
-5
8
-64
15
-1
44
18
1
53
-109
17
127
-19
127
-90
38
-92
1
18
3
-24
-46
-13
43
10
-21
19
37
-27
21
-20
127
8
-4
6
4
84
-27
-107
35
-35
17
-21
-127
16
87
-23
44
1
-25
109
42
56
-37
-16
45
-36
18
-23
-104
35
85
-49
18
-18
127
2
1
12
57
-41
18
-2
73
32
24
4
80
-66
6
-8
-2
-43
-8
-30
0
9
40
7
105
-30
47
-11
13
-2
-40
-2
19
-25
-69
33
-2
-10
103
-16
-18
127
-81
0
100
8
-50
-4
-16
10
-19
1
-127
-118
24
-11
93
46
-26
17
-83
-19
55
12
-45
-21
6
-80
-2
-25
-3
55
-7
-11
-43
-6
-81
82
32
-13
72
29
43
7
-20
9
-27
34
-68
7
-6
3
-20
1
5
-15
19
40
51
-25
58
96
-45
-30
26
14
-54
6
-59
-17
46
-2
6
-15
6
-47
22
26
-51
14
16
-18
-9
17
-2
127
25
-90
-22
14
40
-43
45
-12
-58
8
73
29
-18
-127
-4
-23
-74
127
-26
-18
-127
-50
-7
-19
15
44
-56
7
9
-60
15
-45
50
7
-37
-28
24
-87
35
100
-16
-26
-22
5
-46
-58
26
-43
37
-44
19
2
5
-31
-6
96
8
13
24
-24
-73
-18
20
50
-53
82
6
79
-19
-7
9
-27
25
-8
3
5
21
-2
-23
-25
-53
60
15
118
17
-58
10
-106
54
86
0
73
-28
37
3
50
51
19
26
8
14
28
-13
43
-46
-11
3
127
-12
50
-12
54
4
-77
-17
51
13
-51
-9
76
102
-16
-7
55
30
-31
1
-127
-71
-53
26
-32
-24
45
13
7
-19
-5
-35
87
12
-40
-51
31
-91
-127
40
0
5
-5
19
28
127
-32
3
-33
-1
45
-15
13
-40
-35
2
3
10
-127
4
-16
2
93
-1
-104
8
-48
-18
-7
4
-32
24
-12
86
-12
-16
13
17
100
-127
8
-2
-127
-127
1
11
-64
-54
-41
27
-47
-47
-16
55
-19
15
35
-4
100
31
-31
-80
-107
-9
-17
-49
47
-53
31
-9
-20
-11
27
127
127
10
-34
-4
15
49
32
-20
7
-49
-4
-120
-10
13
-127
15
-15
91
98
-32
-22
-81
16
-8
-74
78
5
94
8
-37
-82
3
-26
-103
60
30
17
-37
1
1
-11
11
20
6
-26
126
-19
12
-2
30
-39
-21
18
-86
11
-28
-44
50
7
65
-13
-51
-13
1
26
34
10
37
5
-7
-7
88
58
5
28
6
-43
10
-46
22
38
-75
11
-51
7
-127
16
-17
-34
2
69
101
-9
-17
14
-7
-16
-83
47
41
-55
-40
-31
14
-39
-44
-127
2
127
9
41
-40
-37
-29
-14
-127
-39
-74
-12
-11
9
5
-9
55
2
4
2
1
73
24
109
-45
-84
9
17
15
39
-5
-53
-40
43
-52
-3
-13
-35
-22
35
19
-23
-26
7
50
52
-57
17
3
-53
-40
-4
-29
76
5
29
-45
-24
-29
-18
-32
-13
-42
-6
62
-49
-11
5
15
50
127
-6
-38
31
7
27
-6
-2
-7
39
3
32
43
6
-37
24
-24
-17
2
-82
-7
-1
-17
10
-56
-52
-15
24
20
7
-26
-4
30
12
37
-38
-1
22
20
-4
26
-2
9
-7
-49
12
-41
-41
-18
43
-87
13
40
-9
47
17
-25
10
-35
-39
13
39
31
2
-38
-50
13
4
42
-41
95
-27
17
41
58
-47
7
32
-12
13
-6
8
59
-6
-40
-53
-10
33
12
-2
-3
-7
24
8
76
8
-65
-31
-50
32
-33
-19
-32
-36
-69
2
7
-14
-20
27
-53
1
13
-7
-25
17
2
11
-26
7
-3
-23
37
1
37
21
20
4
-16
-20
-7
-42
-17
-57
-20
-19
12
-26
33
-1
38
23
-23
-11
-5
-30
30
66
-12
2
-64
12
-81
-38
-32
25
-2
8
-63
-11
-58
-17
-115
57
-3
12
8
33
-37
25
55
75
27
-8
-37
21
-17
-1
-16
-36
18
10
-43
1
38
-28
28
-33
6
24
-61
27
-6
1
10
-61
-11
4
-23
-15
9
-16
-25
42
-40
16
5
-11
-1
36
26
59
25
5
-12
0
-11
-18
5
-44
7
-10
-10
4
4
4
54
67
37
-2
75
-38
43
100
-56
2
-5
31
-1
-16
30
22
22
-21
-11
17
44
-42
19
47
-20
-17
-22
-2
53
-33
11
26
-73
80
4
0
-39
41
-39
-72
46
-71
-29
-28
-108
-33
23
17
-22
20
18
-8
-27
8
-63
-60
-51
51
-79
39
0
-104
-7
-45
19
-6
-9
36
-7
14
19
-2
-53
-113
-25
20
8
-14
-22
48
-71
-65
-8
4
55
-37
-14
79
-65
-21
20
-15
-1
-27
6
-31
-30
25
43
67
-22
15
0
22
7
-5
-33
22
-9
-5
-2
38
0
14
46
0
47
8
20
71
-15
25
-50
47
-45
-44
-16
54
-56
-29
15
-10
-35
4
2
-43
-11
17
26
-8
-53
-13
5
-77
-59
3
-10
-127
-20
8
-2
-10
-37
-12
-12
5
-54
48
-61
7
-73
15
46
-10
6
-7
-8
44
-14
24
-46
-7
22
-7
-9
-6
46
44
22
-35
15
-25
19
-8
-127
-50
11
4
8
3
6
-8
24
10
19
2
17
-3
-13
-19
0
4
33
30
-52
5
-12
29
75
51
-9
13
15
-2
7
7
13
-18
-24
2
-20
120
11
110
-21
-4
9
-10
61
0
-60
53
-21
-40
17
26
36
3
-6
-28
8
-40
-7
-12
50
-15
-127
71
-55
-46
8
-11
38
-37
-36
15
-90
-27
7
-3
-15
17
22
-9
7
-127
57
-5
-29
13
-17
3
28
-20
10
9
-72
38
90
-127
50
-7
-2
9
7
-11
2
44
2
20
2
-2
12
11
5
-48
14
3
29
-22
66
-2
28
24
-49
44
17
19
-29
0
-2
12
33
42
-38
-2
-9
-37
-75
4
53
19
-23
-3
-22
-16
-26
20
-45
-33
3
31
-12
25
8
-14
-60
-81
3
2
11
127
-34
90
-47
10
33
13
-34
22
6
19
23
-25
26
-9
-54
7
-19
46
30
31
-22
-28
49
9
24
-28
34
32
2
11
35
1
11
-27
6
-13
4
-27
77
-27
-26
44
39
48
17
-13
-68
-16
13
38
34
71
2
0
-9
-5
-47
90
-21
-34
-10
3
38
10
27
-5
84
-7
11
-11
-62
-16
50
17
29
17
-24
-19
-14
-9
8
31
55
10
-22
15
-24
-25
-36
5
-26
-42
6
4
-25
-12
28
-13
-3
47
-36
-47
-18
-7
-13
7
-23
-4
-23
3
-5
-17
-17
42
-56
-42
-39
8
-19
-68
-38
83
-14
16
54
30
-35
-12
18
35
-36
43
-18
-8
-10
6
-15
16
38
61
57
13
-22
-24
-1
5
-7
48
20
-10
-8
-6
10
-28
21
11
-6
-12
-58
-34
25
1
23
-13
26
-16
24
-24
-4
-1
-20
-52
-24
-3
9
-49
28
50
34
27
-61
11
12
85
23
-38
-18
9
19
23
-29
-4
40
-4
-47
-50
-47
32
-4
24
8
-11
12
-27
-10
11
3
-10
-32
-33
6
-7
23
29
-66
4
-62
-44
-90
-6
-41
22
15
-13
-24
-23
-1
27
28
18
-56
16
-51
-33
-64
14
-13
-3
47
-18
-19
-30
-5
-47
-2
8
16
3
-34
30
24
-47
-12
13
-39
73
56
-54
42
48
16
-21
39
-6
28
-30
-13
-11
-53
18
34
33
10
5
-59
19
9
14
53
1
35
-21
-13
29
46
19
-5
-24
33
5
-8
-115
71
-3
-61
-15
9
30
-71
-26
-15
2
-3
-22
-17
14
-58
25
-8
29
-10
3
-11
-19
-8
-16
21
5
-41
21
-50
-36
-10
32
-66
2
8
-69
-6
-87
-10
3
87
3
-3
5
11
-14
0
11
29
15
-57
-44
24
-35
78
49
-35
18
5
-17
-19
54
-33
67
4
-11
13
7
-10
-21
14
108
-10
14
-27
-22
13
13
-21
-11
-21
4
16
21
-30
48
39
-3
-20
21
-10
-7
19
-18
4
21
-20
-2
8
-25
-18
65
-25
54
14
16
38
13
52
-26
20
-26
41
-8
9
-28
51
-66
-125
22
-3
-4
-19
67
-3
105
-20
-20
44
-8
27
-8
26
-9
1
2
-14
-7
53
-87
12
-122
-26
-40
3
-25
95
0
-64
-16
-54
8
12
-105
-26
-9
14
0
-16
4
-13
5
-44
6
-21
26
16
-43
2
-7
60
8
-21
-13
56
-12
20
25
-13
6
20
50
-71
29
-127
4
-22
-12
-26
70
4
1
21
5
37
7
-38
-8
18
-4
-25
-6
-20
-20
-16
16
23
6
19
18
-14
-20
-8
63
12
-16
-5
-15
-108
-61
46
23
-121
0
12
-15
8
-6
17
-12
0
-9
-4
-15
-127
-43
42
61
-44
-33
31
10
3
-85
-26
-101
-20
12
2
-47
-11
39
14
25
-11
-26
21
14
-22
16
4
-11
17
-4
-5
4
34
19
-15
7
78
42
59
4
-11
7
-4
6
13
5
21
-52
-45
9
7
2
46
33
23
16
12
2
8
-12
1
-36
39
2
-16
-39
-21
45
17
4
-75
-33
-2
-71
27
26
-50
3
14
-15
10
4
57
5
9
-26
68
2
-9
18
100
2
5
23
124
9
-17
63
24
26
8
3
-58
16
-18
23
-53
-11
1
32
23
3
-1
-8
17
-37
-59
15
-101
18
-28
21
-49
-21
-20
3
-67
4
-31
17
-51
-33
20
-127
-8
1
-25
-9
-69
1
15
21
11
-13
-39
-7
-4
21
-15
23
-91
-40
-8
7
-78
-24
-8
13
-63
26
-6
57
31
6
54
11
50
-78
-27
-52
-8
-28
36
-27
-66
-27
-21
12
-15
41
-12
-36
96
2
-2
-64
61
10
31
43
-10
10
-65
15
-40
20
-21
-37
-29
3
-21
11
61
-12
22
1
-26
-28
1
-32
2
16
-9
1
-49
-50
-4
3
-89
-22
-2
1
9
-127
-11
-53
21
36
78
37
-17
-42
12
-33
-87
4
-5
26
-20
1
-18
37
1
1
-15
12
-38
-9
-17
9
-90
-7
-6
-14
-54
15
-13
54
-26
-12
-15
0
42
15
-21
18
-27
-13
8
11
92
-3
0
16
39
24
-18
12
-35
-16
1
24
65
-6
-6
55
38
-38
-5
72
-29
99
-16
-8
104
16
-14
36
19
27
17
-16
-9
-47
3
30
37
-41
54
22
-122
91
11
-1
40
-20
-65
-1
12
10
11
-20
59
36
-30
-15
-31
-26
19
5
88
16
14
-18
-40
-55
11
-22
-17
17
-36
18
34
-21
19
-8
-9
3
-84
9
18
-31
-14
-59
36
-3
4
-61
80
-5
-15
-48
78
12
26
-9
10
25
0
-31
27
17
16
13
-103
-6
6
31
-20
-16
-25
-29
-43
25
57
26
-15
-11
38
-10
12
-16
-18
-31
43
34
20
-25
13
-45
5
4
29
127
-32
15
-11
35
-49
7
-4
57
-2
-35
79
-16
15
47
9
13
3
9
-52
-5
8
107
-74
31
-29
-20
42
14
-127
-6
19
-2
-8
7
-48
-28
12
-9
-52
-10
-5
-9
49
13
11
-32
19
7
-1
-26
-70
74
5
29
-44
-13
-25
47
-2
51
35
43
26
-42
-51
0
81
-5
4
25
3
25
25
2
-32
-1
-3
23
2
8
-1
-25
-57
19
-5
18
-52
-7
8
-49
-10
42
6
10
-112
20
-2
21
11
16
16
29
-3
18
-10
8
43
-35
15
-64
-4
-8
36
39
101
-8
-30
54
42
18
19
16
86
54
19
-100
-48
-34
-16
-4
-6
2
11
-18
-6
-36
-10
-1
-117
17
6
-18
71
3
-32
41
12
-1
-1
-9
37
7
22
-37
-60
-41
-11
66
79
14
-5
-9
22
-5
-7
-31
-7
43
15
7
99
-17
5
14
3
34
5
-15
-28
-2
12
-12
102
11
-24
-8
9
19
-20
-12
-44
2
-12
-22
-26
67
7
76
12
65
-29
48
-80
3
3
-22
-18
0
-4
-21
-22
-24
-11
-46
14
0
-21
-61
-12
19
3
64
-4
-14
-42
8
-1
-25
0
-9
-72
-4
-4
-6
-13
-21
-10
24
1
-41
-84
-6
-45
-23
10
45
-14
2
1
-3
-38
3
-17
-8
43
16
46
36
-29
-21
19
-7
-127
-4
47
40
-33
35
7
16
-26
-11
-3
-28
111
-28
-7
-7
84
-44
-15
42
-7
3
3
2
56
16
-41
28
31
3
19
-15
-13
5
3
-10
-8
1
-3
20
15
-2
36
-6
85
2
-4
23
17
-24
32
-9
-73
18
-6
48
6
18
-19
-16
-1
5
-46
22
-1
-10
15
4
-73
12
2
-26
6
10
-4
-21
1
-16
-7
23
-26
-27
-49
-7
59
25
-19
11
43
-23
-14
5
-86
10
-3
-47
18
-14
-13
26
32
12
-12
19
33
-9
14
2
-11
13
2
4
4
-5
-17
15
-2
6
14
-5
-7
16
15
4
-7
26
22
28
-32
12
-17
-41
-41
-13
-11
73
-21
-48
57
-14
-32
-17
5
6
5
36
39
-4
10
-10
-17
22
60
-3
-6
39
-7
2
13
16
2
29
-46
-9
118
45
-11
61
-8
-15
4
-5
-25
-23
-29
3
69
10
-37
-41
-13
-20
33
19
17
-13
47
-7
-4
-26
-17
-20
50
6
-25
-17
-37
2
-8
30
-20
11
13
-2
16
21
-5
4
13
-27
21
32
-51
0
-18
60
9
38
14
2
-1
47
11
14
-14
-3
-89
7
-23
6
-2
-52
-13
66
45
-10
-13
26
4
-27
8
19
127
14
-43
-9
-20
-43
-89
-15
-8
36
12
12
2
30
107
-23
1
40
-24
-32
-8
9
-5
-35
23
13
61
11
-29
48
-7
-8
-5
-3
7
-41
-2
-39
-17
8
2
-5
35
-36
-17
-41
2
11
-56
7
-15
22
8
-24
-6
3
56
-1
-26
-6
-14
7
-6
18
-45
-5
32
9
-14
-5
9
58
16
7
20
7
1
13
-13
-2
7
47
32
-4
-11
26
4
-20
29
35
79
5
0
-97
25
-10
13
-12
57
-22
0
48
0
-9
37
-4
-127
29
-4
-45
-15
-1
-11
28
49
-43
-5
-23
-13
-40
-8
0
-54
-24
14
127
-45
26
-10
14
-7
-1
15
30
-6
-23
9
-20
1
32
2
15
-59
19
-74
9
9
8
-9
-33
-9
28
-25
3
-99
-26
19
22
44
-25
3
-18
39
8
-114
-15
7
5
3
12
-19
-53
-8
28
-50
-9
68
-12
-46
-10
-37
20
14
-11
-4
1
-40
-60
-16
-105
-47
-5
-7
-16
62
-39
5
60
11
-49
-18
-1
-24
9
-2
-1
26
-10
14
1
-37
2
-12
34
31
-3
49
11
42
-81
-21
-18
0
-3
90
-45
-20
12
14
32
-69
13
-29
10
74
-2
19
24
21
25
17
-10
-41
19
12
-2
-11
4
-5
5
-24
-14
12
-30
-25
-21
29
-9
-4
17
-41
5
-18
20
1
-22
15
2
5
-5
-28
21
-54
4
22
-22
10
-24
34
19
46
-16
-17
10
6
-16
2
-16
73
-4
-6
-85
38
-8
-111
7
30
47
-17
-2
27
1
11
11
-58
-13
13
13
16
99
2
29
-17
12
-42
-53
-16
-20
2
-19
9
-63
3
-12
-9
7
-15
6
-17
-20
4
7
-19
-31
36
13
72
1
0
33
24
15
-33
11
34
26
-31
72
36
-6
-31
-40
-75
-5
-40
-19
127
-26
15
-49
17
11
-100
9
1
-47
-1
109
67
27
127
-33
-38
49
127
2
34
28
61
3
38
-18
21
47
-22
-20
-7
13
-8
11
66
4
20
-8
11
13
28
-48
-14
-28
-70
-3
11
-24
24
-64
19
-53
5
41
7
41
25
30
-57
14
21
-27
-53
-10
31
47
-1
-34
54
-1
3
38
-14
-57
-42
0
67
-11
-36
6
24
-18
48
-6
-25
0
0
-8
-33
-1
90
104
-63
-11
38
27
0
-12
-39
-20
27
-44
35
32
-8
-70
-15
-42
-57
-33
26
127
54
86
-16
-2
-51
28
-16
-18
2
-26
11
6
9
-30
-63
14
20
-38
8
-29
59
8
23
23
56
-82
-4
94
-20
-8
16
26
16
-37
-5
-22
45
-8
6
49
-5
-96
-9
2
30
-9
24
-6
-8
9
6
18
2
5
59
25
-22
-82
10
-45
64
31
24
-24
2
-107
29
48
49
51
11
30
21
11
-19
-2
28
13
-85
77
21
-18
15
-26
43
-43
68
2
21
-60
55
57
82
8
-18
-62
-11
-43
-24
1
-73
12
-5
14
-27
-70
-22
-22
-1
-23
-21
8
-25
-90
-48
-20
-47
-23
-10
-15
21
18
82
-6
1
17
-122
-76
8
-20
-42
6
-127
-20
26
43
-8
14
-51
0
53
-1
23
32
-1
6
14
23
30
17
26
13
5
14
21
-40
77
2
-22
-9
-4
-33
-31
-13
-42
5
-23
12
19
28
-62
-10
-16
10
-13
-32
-11
-95
-3
39
15
44
-39
50
25
56
-78
-12
35
25
43
4
-25
-14
8
-14
5
0
-42
-32
43
127
4
-40
12
-36
3
-28
25
-14
-10
60
-14
-12
12
-32
-9
-13
5
-13
-33
-40
-9
-13
77
59
72
-40
35
-2
99
35
26
-33
-23
-14
75
-14
67
-56
-24
14
22
3
1
2
2
5
-10
5
-2
-5
-11
20
5
-40
-54
50
33
31
31
22
-31
-5
52
-35
-15
37
-48
-1
43
-22
-55
-5
-75
-127
-66
33
-20
46
-14
33
-33
7
3
-10
-10
12
-19
38
19
4
-4
-4
5
32
4
-53
-14
28
41
13
-37
-42
-62
-13
41
65
-6
-41
63
32
-32
-15
23
-7
72
-12
-7
-46
30
23
-7
-24
-90
-20
64
86
-30
22
-15
-25
-21
37
39
-6
52
72
-36
-16
-27
71
4
13
24
69
-12
-6
-22
18
23
-3
-21
18
-35
5
19
12
-49
-5
-46
-20
-23
-70
-7
36
-15
-17
4
-29
46
-6
4
-6
-6
-1
19
-60
-33
-40
-58
-44
-34
-16
9
-35
-22
-28
-48
-21
-119
-93
14
6
-42
-1
-109
-16
-17
15
-24
16
28
24
-14
31
45
-16
16
-18
27
69
-4
-26
-52
19
-12
-20
-46
-2
53
25
-21
24
-2
13
-59
-29
29
-10
-44
29
-32
-6
70
69
78
-9
-110
45
-28
125
16
29
-82
0
-46
23
54
-42
72
10
-6
-2
11
21
-21
-19
-19
2
7
21
-13
-16
-1
-51
1
24
-19
-39
3
-25
9
13
14
-36
0
-10
2
53
-11
-33
-31
-117
-22
8
-53
26
-8
57
-14
-12
7
10
-49
22
18
11
19
-18
50
23
-15
-54
22
-23
-1
17
-39
3
-49
-27
18
-9
-13
-19
-56
16
0
-16
22
65
12
-3
-48
51
-17
-30
8
17
123
-25
-20
-8
70
36
15
13
-3
0
98
-36
-16
-11
-18
45
86
84
-18
-18
-6
39
3
-35
9
8
95
20
-6
-7
-75
22
-1
21
-3
6
21
-52
-17
14
45
7
-7
-3
35
67
2
-74
48
-22
-29
2
-10
13
-12
-25
77
-5
-12
-45
52
9
20
28
13
-1
-9
-5
2
4
-16
-10
119
-1
-11
-10
43
26
-1
67
-24
-35
29
-114
7
4
-3
-78
-3
-50
25
-26
-14
-65
0
-30
-39
-25
-12
-3
7
-2
-16
-61
8
-47
19
-31
-34
37
-77
38
-49
41
44
-5
33
37
90
-47
8
-10
-76
-6
-38
31
5
-41
21
-49
80
-15
41
7
-32
-32
5
-14
27
-40
-2
13
11
63
-13
6
-41
2
-5
-1
35
-28
-45
-6
-14
-20
-48
3
32
-30
30
7
108
-10
-1
12
2
5
1
70
-30
21
-9
32
-2
-87
-9
-14
-24
-7
-24
18
27
-100
-17
-9
5
5
17
-17
-10
-5
1
-15
-28
-27
15
1
6
-4
48
-19
-8
-11
-24
-1
0
-18
-78
9
-27
-11
-38
-6
38
24
-67
-37
72
13
-1
60
14
84
-43
-1
-25
42
111
70
15
41
9
19
101
44
-92
63
38
-47
-8
-17
6
-5
-6
-5
-24
-58
-7
40
-16
34
-4
-47
15
30
-38
-7
-15
22
39
44
29
50
-14
4
81
21
-63
21
-22
32
-20
-6
11
-127
-3
5
36
22
13
-27
-13
41
-19
-26
-18
21
-28
3
-27
3
43
-4
-34
32
30
8
27
-47
4
-8
21
-5
45
24
-25
0
-55
25
34
-32
-20
30
1
22
-4
-4
35
-10
-51
40
3
-6
65
18
0
-104
3
-34
37
42
-11
47
-52
-25
-40
-78
1
12
-27
8
7
74
-20
-9
41
-31
14
-68
0
13
32
13
-22
21
3
30
10
-38
5
-87
-67
9
5
69
-76
-16
-29
-39
-37
14
-7
15
-3
93
27
-25
55
-32
-37
17
-16
-47
4
-9
-38
18
1
13
20
54
4
-40
27
-1
-5
11
-23
-49
29
15
3
-12
32
-26
11
-44
-54
-19
-43
-20
-21
14
-14
-13
14
-20
-54
-6
11
39
-12
0
73
17
-55
-2
89
-10
-10
79
-12
4
-38
-11
-20
-37
14
8
-71
33
-21
3
-57
28
-44
-10
24
-23
-61
-20
-10
73
-30
-13
35
-13
-13
-11
