6
48
3
-4
-1
-10
3
0
0
0
0
0
0
0
0
0
43
-56
-18
-4
2
35
-1
5
0
0
0
0
0
0
0
0
-2
-27
-3
-17
7
-12
127
4
0
0
0
0
0
0
0
0
-74
60
0
-7
-58
-12
-32
-36
31
-37
47
-1
-127
-51
5
13
12
-16
2
103
-3
5
8
-62
0
0
0
0
0
0
0
0
127
127
2
2
4
19
24
11
-55
51
-84
0
-76
78
-10
-7
33
-34
-17
-4
-2
21
-30
9
-20
14
-9
127
13
-4
8
127
-48
-21
127
-1
-1
127
10
7
40
-6
-15
3
-5
4
4
1
-31
8
-70
4
-11
-36
100
53
-10
-44
75
9
13
67
-97
-67
127
-39
-125
9
-25
2
91
127
-1
77
-14
-127
-3
1
3
-5
-4
7
127
-5
-127
-5
54
-57
123
25
122
0
21
-11
-37
-122
14
127
-29
-4
4
-127
-127
56
5
-5
-32
-84
2
38
22
22
-53
-58
73
-127
0
88
-26
36
10
51
-81
91
49
-98
-17
-26
127
25
86
-113
28
127
-6
68
0
-71
6
9
7
2
127
-45
-2
0
52
117
-4
108
10
33
97
-56
-30
54
-13
-109
-13
-61
20
-127
-127
6
-127
9
0
35
1
73
20
-57
-3
-1
70
127
6
-4
-50
-19
-63
48
-2
-30
15
-3
-24
-23
70
-45
12
13
21
-17
2
117
-127
58
4
-59
2
0
-55
0
5
-1
127
34
-7
127
7
-5
-3
-127
3
-16
-8
17
-33
127
124
-54
-2
64
-127
-7
4
-5
-48
4
8
-54
-20
-8
127
8
-20
25
65
-127
61
0
-13
-127
-36
-127
-82
37
-127
7
-33
-64
-6
-96
113
-13
34
9
-12
8
-32
10
-123
44
-7
3
127
-2
120
-1
9
9
63
-127
0
4
14
3
-127
-127
-29
-9
-9
-43
-9
-29
111
-33
93
11
-10
-5
66
-10
-48
-71
15
10
16
-13
127
-8
-29
24
-5
55
22
11
65
-15
-28
-21
4
127
-11
-24
-119
3
21
7
16
38
13
-2
127
-15
-11
-17
23
-1
72
-127
-42
-2
42
-127
-8
-3
-7
-10
86
127
8
12
-15
22
6
6
-124
12
-7
1
-15
40
0
-9
14
4
17
-11
-127
0
-127
-102
58
-11
127
126
65
-25
36
-3
43
-78
1
78
-53
68
-64
-15
-76
33
2
-127
-5
2
43
7
-47
-127
-17
-64
6
0
24
-127
66
-51
-5
-7
0
-4
3
-9
-1
-13
127
-2
41
-23
-42
-11
57
81
22
92
-127
-127
7
-52
90
-78
-12
57
18
28
-127
-70
-127
104
-12
27
16
95
58
-44
77
0
13
43
-6
-51
-52
1
28
0
11
55
-8
-91
44
5
72
-46
9
8
14
-42
-13
2
48
-3
-64
-7
5
55
-85
8
-46
-7
-10
-31
2
37
-106
3
59
3
-27
-26
1
-41
52
-7
16
14
-17
-19
17
-104
25
-9
-16
24
2
28
24
-5
14
127
22
-1
0
27
-4
-83
-73
-5
57
-1
20
-42
-1
-35
53
0
33
-4
-15
-21
-22
-57
4
-27
-28
3
-14
-4
-10
-27
4
-12
-1
-127
1
-16
28
-127
41
-1
6
34
-5
-9
-1
-74
-31
-7
5
-2
10
-23
-16
39
8
-7
-38
25
16
29
-6
-38
-72
-5
70
-3
-19
-55
-1
-42
97
-7
82
6
4
22
-37
14
19
-17
-110
19
-30
48
5
9
-14
102
-26
3
2
-17
-6
-95
30
-8
-19
-28
2
36
2
-18
64
1
1
-35
-7
41
15
-69
-58
5
75
-1
-79
-8
-31
16
2
-21
7
27
-36
21
38
-3
38
28
-11
8
-1
-4
4
-91
57
-3
30
3
2
14
-27
52
-20
-3
-25
1
104
2
-117
35
16
17
58
3
-1
39
3
-62
-65
4
42
-1
14
8
29
82
24
-33
67
-4
-3
71
-20
-89
23
-15
-22
-46
-3
10
7
-47
21
4
16
5
-14
-21
41
-42
0
27
10
-1
-7
127
-127
39
12
43
24
14
1
-19
41
-98
63
4
-13
-4
-3
-50
-8
-8
-23
-2
-10
1
127
-12
1
-95
8
-2
99
45
13
21
-3
-23
-17
-3
9
-1
-30
-30
-33
-53
77
-21
-27
1
-6
42
-27
-74
49
-15
12
-4
-23
85
34
-39
-35
15
-10
-17
-4
32
0
28
-89
4
59
3
-25
-20
-57
-3
-127
-7
52
-7
-31
77
5
-53
-60
2
55
-1
-43
-7
8
-96
-41
3
42
-2
34
-4
45
51
-88
1
-127
22
-14
-20
3
1
-26
4
0
1
-20
-22
30
-46
-37
-7
-22
24
1
-19
20
14
-18
0
-4
10
-87
-39
0
71
-14
-15
-1
18
15
-36
0
36
14
18
29
8
36
47
-1
-20
-2
0
1
-7
-12
-19
-7
-13
-4
4
1
98
-8
-45
-3
-24
3
17
2
-8
-6
-32
8
127
20
-16
-1
-37
36
52
9
-18
-6
5
-22
3
-48
-30
127
2
32
6
-4
8
-39
-12
7
88
-17
-2
-1
28
2
-40
2
125
12
-12
4
-39
39
31
31
51
11
-14
9
-14
-14
68
15
-12
9
0
-127
2
34
7
2
21
1
-6
-27
29
-24
-3
8
112
-24
-13
-3
17
-4
-44
8
19
25
38
-16
-9
39
-17
4
-2
-16
-25
3
16
10
-45
5
6
19
1
2
-127
19
56
21
106
2
36
1
-20
30
-89
61
-12
-36
1
1
-6
59
31
9
-5
-27
9
16
6
-34
-26
-3
-1
-6
-6
23
-76
-20
-24
-3
-2
-23
-6
1
0
-22
-36
14
-95
3
-127
-1
28
68
-127
-29
91
6
-3
-3
4
18
-81
3
50
1
-3
0
-35
6
15
3
24
18
-1
1
14
41
-8
-3
13
49
-10
0
9
-109
-61
-1
87
-29
-22
-2
24
2
-27
34
18
68
-10
-1
11
-94
-91
15
60
-14
9
29
26
-9
22
-1
121
-2
-17
0
-19
19
-10
-24
39
-18
-11
-8
8
-45
88
-14
29
19
-3
-1
6
-92
-19
-4
50
-29
5
-7
6
-85
67
2
91
13
-6
-1
39
10
25
5
34
31
46
-25
7
63
93
6
116
-11
-22
3
-3
11
0
18
48
0
-4
3
-3
66
-47
15
44
-11
-4
7
5
59
-50
-5
-27
123
-2
-1
3
-17
-57
-3
-15
8
18
2
-8
5
-27
17
40
6
73
16
-38
54
-104
0
32
-20
-10
0
6
-6
-40
-1
96
-25
-20
-3
36
-5
-6
-1
126
-11
62
-24
-43
-127
-15
-2
71
-3
-13
-1
16
14
-6
1
-54
127
0
23
1
-31
-47
-46
-63
-79
48
-7
-2
-14
-23
-12
-64
13
23
-11
11
-3
-31
-62
-35
127
-12
44
-36
76
43
-77
-124
-38
48
2
0
-30
-1
-30
-49
-32
5
-58
-87
-39
51
54
28
3
-23
-32
-5
5
21
-20
-72
-76
-12
-1
3
-23
6
16
-42
38
66
-2
24
-127
-3
80
127
50
-62
3
1
34
-6
-8
-26
-67
-8
-72
-62
-19
0
10
31
26
4
-37
-34
5
-54
-26
-9
68
-16
-127
33
31
68
-33
2
9
-16
17
3
16
-32
-4
72
12
10
-124
127
5
127
-25
-61
116
-65
-32
-51
3
47
127
87
-94
127
-66
-76
-69
37
9
-12
-79
40
3
-24
-49
0
7
-61
1
-3
2
7
-1
22
63
-36
8
6
-27
-3
10
-119
47
-14
-27
-4
-127
10
-99
-8
17
29
-14
27
-6
-24
0
-33
105
16
72
35
9
-20
38
-18
2
67
-4
1
17
-16
1
66
-93
-29
-2
-21
-12
127
-9
24
-42
22
-127
-44
-125
-10
-127
24
5
25
17
-1
-5
12
5
-45
-27
-28
-11
42
17
-22
-15
35
37
-127
-6
9
-25
-4
-22
-61
127
-13
43
127
9
-4
27
12
29
32
8
7
-21
6
4
-127
-8
19
-43
6
6
59
-31
-85
62
-69
8
10
20
-2
-18
-84
-67
-6
-84
17
26
66
-9
-127
32
-37
32
-76
-33
37
54
2
29
-68
81
127
116
16
25
5
-12
-2
-54
-24
127
58
109
61
22
75
-36
-60
37
26
31
10
5
-13
28
13
21
-10
5
2
-12
127
-2
-86
8
17
6
-1
59
-1
5
11
-16
14
4
-18
17
-9
58
22
116
127
127
-38
48
-66
-33
109
25
-3
12
9
29
25
10
-12
-3
-40
-34
-10
22
-110
49
-4
107
3
11
-4
3
0
40
9
-13
17
-5
-16
31
-6
-8
2
46
7
3
-9
127
9
127
-36
81
34
-27
-19
-118
13
-102
-31
115
-8
-12
14
6
84
-51
18
127
-16
27
4
-12
15
-3
10
24
-9
44
-19
63
-9
-50
40
-29
-10
24
72
-17
90
-35
35
-62
-36
73
8
9
-7
-17
25
-13
-14
31
-65
25
-2
-116
-110
7
52
-8
-30
-57
-8
-30
23
14
-9
0
127
-9
-15
27
-4
-4
-8
5
74
-29
127
125
-24
5
35
127
4
-2
-10
-1
31
-9
-3
4
-34
43
-28
16
60
-90
-24
-6
84
41
3
-41
72
4
-1
-14
51
-1
14
102
127
20
127
21
8
127
8
-5
122
-27
1
22
-18
36
58
-30
25
97
-35
-6
-60
47
12
127
77
25
50
-15
-28
-101
-91
-39
114
-92
46
-9
-5
-6
-12
-16
31
-15
3
-11
3
22
13
-103
-42
-5
112
64
1
28
127
-24
9
-44
18
-20
-11
29
14
43
11
-10
6
32
-3
-37
52
-15
115
7
9
28
5
-24
1
127
44
5
34
-14
127
40
1
43
-62
-15
-94
-127
6
94
36
1
-87
-127
-37
-8
-23
-1
10
-23
20
4
-18
-52
-26
71
36
34
116
-18
85
21
25
46
-8
37
-63
-6
75
65
-96
104
19
4
90
-13
25
16
20
5
10
87
-24
-8
-1
7
-29
1
-82
14
-127
1
-23
10
-10
-127
-18
41
123
23
127
-49
0
28
26
33
35
-40
-30
-13
49
44
56
16
-25
-29
-2
-68
33
127
-127
54
29
-37
55
-109
52
23
-13
11
4
-87
-48
-36
58
-29
-19
-39
-4
-14
14
-117
6
-5
12
-10
3
86
34
-2
120
-77
48
-33
7
-16
5
46
22
-41
15
-11
-127
10
-127
74
-23
-40
21
-42
0
95
40
42
-71
-76
55
7
-18
-23
-30
-71
29
40
46
7
25
16
8
15
35
-82
-5
127
1
-37
54
7
43
6
15
67
22
-63
27
5
-127
31
-105
-31
-14
19
-7
67
70
-9
-64
-19
-61
-19
59
-127
46
47
-38
-52
-11
127
-121
-88
-66
68
56
19
27
-31
-50
2
29
11
7
16
38
46
33
110
-9
-10
-35
-113
53
113
-71
54
10
-127
-6
-11
55
15
-39
34
-15
10
-14
-26
2
-35
-10
122
6
-42
76
-10
-87
66
-38
6
14
12
12
113
0
-108
11
-13
18
8
-127
27
-23
127
33
-39
-127
-17
54
6
-86
-8
5
-44
3
3
-6
-27
8
-49
38
68
-24
-26
2
70
7
-15
20
14
15
20
-8
-70
2
-17
127
-5
45
6
-104
39
-127
32
23
-5
34
-8
-46
-127
-2
12
-46
-100
1
68
-124
-95
42
56
18
121
-32
20
81
-66
-106
32
-24
127
-34
-127
-10
-3
-10
60
-71
-38
-10
34
8
33
-26
-6
25
-9
-42
2
-108
-23
-98
82
-44
-8
42
-17
-2
-7
-5
8
-65
-39
9
17
-113
-11
40
-95
-50
-20
5
30
-44
4
-14
-69
-76
-127
-1
13
49
-3
127
-46
-19
-22
33
-12
33
12
-9
-124
28
-32
9
-88
24
3
7
-5
22
19
-2
0
-14
13
-1
12
2
8
-60
-94
-6
3
49
61
-8
44
-19
-3
-127
127
31
39
-12
-11
-127
-28
36
-7
-15
-24
127
-112
11
-16
-88
-26
-25
-49
7
1
57
-14
-98
-4
-34
-127
-12
1
13
20
-35
23
14
30
67
-1
-22
127
-2
92
112
14
-55
25
55
13
45
-42
38
-44
-19
15
-99
-4
2
-62
26
-31
-51
30
-125
-10
55
31
38
127
-84
17
-20
2
16
60
2
-39
-34
-2
-95
-7
20
-96
127
14
15
-74
4
12
20
31
13
30
-35
-8
-14
5
1
-77
-75
-32
15
-62
-24
87
61
-70
-7
90
87
-40
-57
-4
-2
-36
-15
-26
-15
-37
0
-8
-127
22
-31
-56
17
3
53
7
2
-43
-11
20
-4
-127
-42
15
-10
-6
-113
-3
-13
45
-127
2
-15
-16
4
-45
98
21
-64
37
36
-127
-66
55
-18
-27
-115
2
19
68
39
28
127
-20
71
17
-26
-31
-14
-27
68
55
-10
78
-127
-48
-3
-8
9
-2
27
-2
-76
108
-8
-21
38
72
1
27
49
120
-8
-30
41
33
8
-16
-110
-20
-14
-14
17
-54
-4
4
3
127
9
-65
-39
-89
71
127
14
40
-19
-15
32
-13
1
-65
-27
-40
11
6
-127
-37
112
-8
-120
10
4
25
-39
-56
-22
4
-40
14
17
-6
45
-11
17
-28
45
12
-20
44
-9
49
-26
-28
-6
-16
127
-16
13
127
-9
-2
35
42
-18
-127
7
60
127
-34
-61
30
-7
-16
5
20
0
28
110
-79
-9
40
-88
-96
66
27
65
41
11
2
48
33
-29
-58
88
2
72
-60
14
-25
38
-8
11
1
9
-10
-31
18
-55
23
38
81
-21
5
127
-36
31
-75
79
2
20
-27
14
-39
56
8
26
15
-44
-8
-89
9
90
32
-113
-3
-17
127
9
98
20
-11
11
0
-2
-2
-95
-3
50
-76
-110
-15
-40
51
96
51
-5
16
-81
-20
-24
10
-17
31
-78
9
18
-74
1
5
52
-57
-29
49
-6
12
-29
20
-5
11
26
-26
10
-127
-15
-26
25
-127
77
14
127
13
-5
-116
-8
-70
6
-12
19
60
-12
7
74
20
127
54
-81
28
-127
83
-10
55
38
-127
40
18
69
-44
5
53
-29
-44
84
65
-11
-6
19
1
-2
30
-1
10
85
88
4
19
9
48
6
72
7
-18
101
-58
-20
31
41
89
-29
10
8
-4
-2
15
-19
27
-67
-4
-127
-25
-60
-111
-15
-124
47
-12
-7
-26
-12
14
9
19
-127
42
-75
36
-5
93
-87
-14
-2
19
37
6
19
-23
-17
-84
19
-12
-17
13
11
17
-14
24
48
-127
47
-2
8
-34
-32
4
50
29
14
15
-29
-18
4
49
29
3
1
-56
49
127
2
127
-31
14
-1
9
-4
28
-1
22
11
-39
-16
-127
-127
126
-127
22
46
-4
-37
-54
-48
-96
86
-117
-70
5
1
-53
-45
-9
65
-29
-5
-55
-8
-37
13
0
53
-17
-3
-18
-11
-7
-8
5
42
-35
13
-4
-15
-6
2
-8
-80
-123
-7
70
-7
-17
63
-8
-10
-56
-1
11
4
15
11
7
-76
60
-1
13
-16
29
56
25
4
-31
35
42
-1
1
-1
-9
-27
31
-19
-3
4
-13
-46
-16
-45
30
-13
-12
-45
-2
52
-14
35
-8
-2
-6
15
-53
86
-50
-80
-35
-21
-10
23
6
-31
13
-72
-12
-13
-59
65
7
23
5
-6
-7
-31
16
-7
-16
-42
11
-66
-54
9
56
26
-8
-2
0
24
51
-14
-40
1
-23
-12
6
19
7
7
-34
0
-16
-25
-5
13
122
-16
8
4
0
-73
9
-32
30
-6
-9
2
-25
-38
28
-35
-20
12
-30
-10
-8
50
-20
-10
-40
9
106
9
36
-50
-2
-20
-1
-39
-2
1
-3
-4
28
64
-39
11
58
16
3
13
2
-27
-30
11
-35
-2
-6
-31
127
3
-38
-127
-19
-11
1
21
5
-26
61
-4
-20
-20
34
-16
14
-8
5
14
18
9
4
52
5
79
-17
3
-28
1
-25
-29
16
31
34
20
-51
-73
-7
10
106
-11
-33
-30
-15
-6
3
3
15
19
26
28
7
-40
-6
-1
18
-63
31
90
-8
16
5
1
-7
42
-99
11
50
-11
-68
-33
34
-34
-12
4
35
-5
-7
-12
-43
75
29
21
50
20
-3
13
4
20
-127
-10
25
20
15
-41
-5
-55
-25
-18
-1
6
6
0
26
28
-39
-4
8
-4
5
20
9
-3
0
-10
-36
-20
22
29
10
-7
-98
34
127
55
10
4
20
-32
-118
19
-31
-24
9
-36
-7
18
60
-10
7
-4
-64
-14
-2
-1
-12
3
-4
-4
6
19
-2
5
-12
-24
19
6
-5
-80
13
61
117
13
-77
-4
17
-57
-19
-6
-39
-38
-65
-17
-22
-3
-17
-57
-85
-26
48
14
-14
25
5
-19
59
3
-23
0
-15
-21
-3
18
3
-8
-49
71
-18
6
34
-15
-19
-62
-39
-1
-7
-7
25
19
36
19
28
-7
-2
-84
-7
16
16
11
-66
0
-17
-92
-13
21
-47
-22
-105
19
-46
7
-2
-8
-87
16
58
-8
17
10
2
31
-49
14
7
13
-22
-5
-1
28
-105
7
-55
-4
-7
-19
-4
-13
-77
4
9
-6
-33
75
-70
-3
-5
-26
-26
-12
-18
-27
-16
-24
-23
8
48
11
4
41
-13
127
20
-5
17
-14
-6
43
1
-18
71
-1
-22
7
-16
40
18
-62
-41
19
20
-15
-4
51
7
43
-26
0
-94
-4
-40
-19
22
-95
56
29
-1
-9
18
41
3
56
-10
2
-39
-8
-14
11
29
33
-15
-36
50
6
-33
26
-1
-50
-41
1
-48
3
-13
-73
7
-28
-26
19
36
12
3
29
-5
-27
-55
8
-78
29
3
78
12
-12
-29
100
-22
22
-3
-59
4
19
-3
5
-6
6
-31
-17
1
29
-1
9
9
14
-31
-4
17
-10
24
20
24
-50
3
-102
18
-25
-9
25
-7
-11
-127
13
8
61
61
-32
66
6
7
45
34
12
-16
-43
17
-12
-9
1
7
1
49
4
18
3
4
-1
3
37
-47
3
-25
-127
-9
7
20
-3
-69
14
-5
24
-10
89
-1
30
-29
-2
-10
16
-8
-2
-15
-29
4
-5
-52
-20
-8
101
1
20
-27
10
8
-8
-16
6
6
37
16
40
-27
2
2
127
-7
89
37
5
1
-10
5
60
16
-12
2
16
-38
-34
-6
15
0
-40
39
10
-5
26
5
60
3
20
-27
1
6
-5
16
22
9
16
-6
15
8
-15
-25
-7
-6
-11
4
-8
6
10
-31
3
4
30
-61
12
31
-2
-8
3
-24
-39
-10
-40
-16
23
1
-12
-11
23
13
-16
-101
30
-60
-37
2
-5
3
-1
-13
0
-44
-17
-2
80
-6
10
28
-13
-13
0
-9
-47
-44
-8
41
15
-3
24
8
-37
-36
12
71
4
-20
8
-6
-24
34
0
26
-3
21
-2
3
-32
23
13
2
1
26
-4
-6
-62
-6
-5
5
-11
-11
-13
-20
-80
3
-9
17
-7
-6
2
12
6
-9
-29
-2
16
12
15
14
23
-1
127
-3
19
16
8
-3
-36
-23
-22
10
-127
-38
-10
-55
49
12
-25
-20
8
-4
-3
1
7
-48
11
-21
24
-39
-40
20
-30
-1
-10
-40
14
-6
57
0
-13
-26
98
4
-34
35
44
-56
-63
37
37
46
3
-54
-29
12
-20
41
11
48
-3
12
-37
-106
7
5
24
-21
3
-7
1
-20
23
-3
7
28
11
-19
63
25
77
24
-40
6
-5
16
13
-11
93
29
-46
1
17
36
14
13
38
-26
-9
-22
-15
60
-81
14
43
1
75
2
-7
-10
12
-26
-56
-43
-22
-27
2
-127
68
-15
-91
-21
102
-19
104
115
-54
-39
-6
21
7
19
-2
-12
-18
84
75
-9
64
19
-9
-51
-11
-40
-24
9
19
0
-8
15
2
59
-50
12
33
35
2
28
15
13
-100
-45
32
-17
92
-45
-37
-20
-45
-1
-88
3
15
17
-4
-13
-67
23
-4
-4
0
6
11
-18
29
9
4
22
15
-36
-8
66
-25
-36
-5
8
-7
89
-8
-43
29
13
6
15
2
13
-12
80
-55
-36
-44
39
5
16
-4
-4
12
14
-50
-7
4
34
-64
-49
46
-6
29
-37
-8
15
13
54
8
24
28
28
10
-118
-14
-32
62
-55
-70
12
-24
-61
-47
33
-30
47
4
40
4
-20
-9
86
37
10
82
7
-4
-15
63
11
-33
-23
-6
24
-1
-91
26
-46
40
-5
-9
31
25
30
3
-36
-75
67
19
5
-14
-42
-77
11
-106
-18
-81
-8
4
7
35
-7
14
8
49
3
-9
8
15
28
18
-2
26
15
-10
-19
-12
-29
-8
7
15
10
-15
-7
-24
58
38
-4
-23
62
12
-14
25
38
6
-12
-13
18
10
-9
35
-13
-70
-17
37
-8
27
-28
-52
15
29
6
-36
-29
2
-16
16
-66
-20
21
16
14
-6
-21
-42
-24
-9
21
2
8
6
-24
15
23
-55
-127
39
12
-29
-127
-127
41
73
39
-31
-20
31
4
41
-21
61
3
-4
-31
15
29
-4
-15
-52
28
36
-17
-7
28
-13
-7
11
-16
-8
-10
93
-5
-21
-15
-101
8
66
5
12
-5
15
-127
16
6
24
-20
2
-62
7
30
62
37
30
-39
-59
43
15
8
-86
27
87
-22
25
115
94
-4
-38
2
-59
-2
15
31
10
-23
-18
19
-3
-25
4
-49
26
0
103
22
-35
10
15
-13
29
-42
-5
39
8
-17
19
17
-35
-4
11
18
61
12
-13
15
62
78
22
3
-27
8
10
16
-79
-98
-34
-10
16
4
-16
23
17
-33
32
11
-5
-35
-3
3
7
-22
-1
-11
66
6
-15
-20
25
50
-42
-28
-43
21
-11
56
1
-12
92
13
-45
-4
-15
-2
-11
-20
-72
16
-62
-6
6
24
-2
-32
30
43
24
6
-2
8
15
14
-107
54
18
3
-7
-36
8
54
46
14
7
0
17
-45
7
1
22
-8
3
10
-2
35
-2
-13
-69
43
-87
-2
3
19
28
8
83
3
-2
-127
-42
3
-36
-27
-51
15
-44
40
25
-32
38
1
-80
6
-44
-2
-3
8
3
5
-46
-12
-29
18
10
23
-12
-25
-86
14
18
11
9
-16
28
-69
38
-13
-10
-15
0
34
-54
-3
-67
44
64
-20
15
93
88
-34
-13
-36
-8
-28
2
-55
21
-13
-30
5
-101
9
24
3
14
-3
-18
24
-18
15
-6
-22
7
-33
-61
22
-69
11
12
10
-1
18
86
20
-22
-4
5
31
-4
-9
87
7
71
7
-15
5
0
57
-55
-4
-8
84
-5
12
2
38
127
57
-60
-14
26
16
60
1
33
-36
22
-2
-15
-50
39
-18
-111
19
14
5
-11
40
10
22
46
10
-19
7
14
12
38
-23
23
7
-27
-5
-20
13
8
4
-81
3
-59
-2
51
25
1
15
-4
20
-6
28
-19
-1
17
17
51
-6
52
-4
40
3
-8
-13
-8
-78
1
127
3
-87
111
12
-17
-21
-20
55
51
-6
59
-6
-79
-30
-127
-6
13
-9
-49
-127
11
-127
8
20
-9
-127
13
13
-127
-50
72
17
26
-14
34
14
-21
24
-20
-21
0
14
127
-13
17
23
31
-51
127
44
-82
-8
77
-5
121
-47
-2
-19
8
-17
22
98
54
-70
-79
64
-62
11
-48
-18
-44
108
-6
-19
34
104
-8
-122
-2
-45
30
-111
-60
14
-26
-6
81
54
1
-19
23
-23
5
-39
3
-22
27
-34
32
33
18
3
57
-97
36
8
-46
11
21
-30
-39
30
41
59
-120
-25
2
-35
64
-89
-42
16
-11
-127
-25
30
-127
-70
-22
19
-51
-1
11
11
-2
16
-127
72
-71
33
-2
42
-25
127
12
19
-61
21
120
-3
-16
34
-35
125
-5
68
-6
29
30
-4
69
13
16
1
13
21
-31
65
-5
30
-21
-20
-20
16
-9
-12
-100
107
86
40
-1
-59
9
99
-74
-1
-61
8
47
68
16
83
-49
20
-127
-69
-6
-127
-61
-47
24
8
4
56
127
21
8
14
-7
127
109
-36
-10
-4
-25
94
-98
12
31
-43
-19
37
-7
65
18
-19
-47
-45
-24
3
-49
50
-14
-18
42
-74
-9
84
5
-8
65
53
26
-79
-36
-7
74
7
-98
-8
54
-16
4
-60
28
26
66
78
68
-109
-86
82
-2
-9
38
29
-40
-33
-9
-19
-127
-16
3
2
23
15
-96
-5
16
127
1
21
60
13
31
21
62
80
-50
10
-2
4
-4
76
-35
-28
59
-127
127
-21
-75
-74
0
9
-40
-43
-124
-29
-3
-45
32
-69
-74
-33
69
8
5
-47
13
-64
-59
-21
14
4
10
-20
4
15
22
89
4
127
-127
-25
-21
-107
1
-36
-49
-2
-21
6
107
-5
-47
4
43
10
17
-127
5
-23
-127
-43
2
27
7
126
26
-54
77
64
-70
4
6
9
-13
12
-29
3
-94
19
-37
-99
81
48
-83
-21
39
71
17
10
54
-41
-83
1
6
4
6
4
3
11
-10
-127
93
-19
50
20
90
-10
127
9
20
7
-16
-2
5
0
-10
0
-79
-127
57
92
1
74
54
-9
-5
14
20
5
62
5
43
-32
-15
8
-16
-2
127
-12
23
-7
-60
-73
6
73
42
-105
-64
-16
7
-5
-60
-7
21
-10
23
26
20
25
-26
1
-10
56
41
-6
-17
13
9
-13
-3
-5
62
55
-127
-122
-127
127
32
127
38
13
-2
-27
-8
0
-64
-14
62
-50
-74
11
33
-1
-25
5
29
18
-13
38
-6
64
-98
11
-11
-1
9
-58
72
54
91
-39
45
0
-9
-53
-56
99
26
127
-94
-68
-46
37
-11
20
127
-8
4
18
-6
16
-94
127
60
-14
7
1
-20
19
11
25
12
-7
9
-46
22
-103
-127
12
5
22
4
4
-23
40
-24
-56
-6
-13
11
-14
-8
-10
21
39
38
3
8
-6
11
51
94
26
38
-88
58
-2
65
59
28
30
-78
17
24
-30
52
-78
-76
32
-19
-59
127
8
-38
13
-10
-42
-25
3
-2
-14
41
-127
-15
49
18
74
-70
127
-127
-63
9
-109
-16
19
3
-19
-41
17
27
29
38
17
20
-27
-43
1
8
-10
57
-12
4
-3
56
-123
-18
127
48
-10
1
17
61
-85
-127
-67
-87
39
127
15
-17
-55
17
9
-46
-38
-7
2
127
-127
66
-17
-49
-20
-41
0
10
27
-7
-11
-4
-8
7
5
-30
-13
-2
6
-58
-127
-81
127
-16
25
19
7
-1
-29
-6
-2
18
-93
-14
-15
127
-21
15
-2
67
-59
-5
-113
-63
48
-7
6
-10
-4
-12
26
-36
-63
-23
3
13
25
-31
31
5
-53
30
-13
1
105
0
9
119
-6
-3
11
-90
-32
49
-37
19
-72
-23
-79
-8
56
4
23
-26
-31
-6
14
-30
-11
19
49
-26
-39
8
11
-39
58
35
127
-2
-10
-19
-12
-22
2
21
26
34
89
-48
3
-44
-23
-25
-1
-96
-25
-36
106
1
-41
79
-37
13
13
-26
4
-13
8
4
19
40
-17
-6
4
-9
88
-54
-59
-7
3
127
-27
-110
-4
-37
0
82
41
-32
-54
-14
18
19
4
0
25
29
4
5
43
127
42
-21
-1
47
3
45
-34
-9
4
-24
-127
1
-36
-14
60
32
-38
-28
85
113
-32
43
20
-10
-19
-2
89
-10
87
7
127
-48
-64
-12
14
116
-66
-127
-3
9
-7
127
-32
-25
127
-29
-8
-27
70
18
59
42
57
-17
-44
-11
-7
6
66
17
52
6
27
-72
27
0
67
89
-59
-1
-56
-16
-74
-1
41
-5
4
-25
-36
-23
46
99
-9
-21
-2
-10
127
-42
22
-23
64
-39
36
6
-44
2
73
-127
10
-29
7
-23
8
65
-6
8
50
-86
73
11
-4
-11
63
-1
-17
-19
-21
3
-22
-4
18
-22
27
5
17
21
90
-34
-33
28
127
-66
73
11
-38
-31
-102
121
11
-26
-30
58
30
71
-126
13
35
70
34
7
-5
18
78
-38
-1
12
18
127
25
127
-6
10
49
-127
127
-11
-27
-14
127
6
23
-18
10
-20
14
-29
-28
13
-19
-27
-50
-3
-9
-30
-1
29
-26
-40
-20
-3
-2
-11
-3
-16
-11
9
39
43
-19
14
22
-84
-12
7
-59
115
-6
46
50
-4
-67
-63
-11
32
-5
-5
14
-44
27
17
39
89
-9
-7
-5
38
5
14
-12
90
31
-5
-127
-20
-41
21
36
-1
-24
6
62
-12
-22
127
1
17
-3
8
-33
-93
-16
32
-115
6
6
19
-20
80
-8
-2
-127
127
46
-11
-40
-14
10
-38
-20
72
39
30
-77
15
-30
56
18
-108
-97
7
42
-78
-13
32
19
-38
37
22
122
26
-32
25
-34
-42
-127
-127
15
25
127
44
-26
34
-19
14
-25
19
-47
24
6
8
-47
17
-55
127
-52
39
48
53
-127
-6
8
-1
7
-2
50
-34
-12
-16
-25
33
-12
-2
-19
-73
-3
122
-38
40
35
54
-17
-43
36
-20
18
-14
-6
-4
76
-32
-18
-24
31
-23
-13
16
48
-10
-65
8
10
-6
0
-6
14
98
12
-116
103
-127
127
9
-21
13
-4
3
20
-14
5
5
23
54
-46
29
2
-3
4
-4
-40
78
-16
87
-68
13
-11
-65
50
-13
7
5
82
-22
10
11
127
95
-5
-29
-15
-55
0
-127
-11
-14
-55
-13
15
-5
18
11
-15
127
-17
-127
127
-65
-82
33
-23
-42
-64
24
22
-13
-18
19
20
34
12
36
-4
-14
13
12
-31
81
-2
5
1
39
70
17
-58
-1
-16
54
61
-8
64
-28
-10
28
13
59
37
2
-87
-127
-103
104
127
-127
107
95
53
8
-51
-11
-39
53
3
72
65
21
-23
-25
51
22
-13
16
68
25
-31
-28
-1
25
37
11
6
57
-45
-127
46
50
13
34
-127
-2
127
-3
-27
-65
127
-40
-49
-4
74
2
6
42
29
47
98
10
84
-35
-28
-3
-9
127
60
37
-34
-36
-17
13
-32
-7
96
-39
55
59
-1
1
-27
-22
-80
61
47
-49
2
20
-13
-47
-58
-47
-20
16
62
-43
-1
36
-75
-61
51
36
-10
-27
9
-11
31
-58
32
54
2
-20
120
-113
-16
-15
20
-64
-13
42
-2
23
34
72
11
-7
-29
22
-17
68
26
24
-49
116
-15
-127
-127
125
15
105
-2
-71
-13
70
-32
69
-17
-13
-35
-47
37
-30
-72
-83
-41
7
127
4
0
-19
73
68
30
42
22
12
-8
19
-1
-14
-49
3
20
-48
-2
-33
-29
59
-5
127
3
57
77
16
-15
33
-38
13
-51
-81
24
57
-40
-60
-127
-11
-17
-127
-82
-8
-16
-26
28
-24
-13
89
37
-14
-16
-127
-2
2
-123
18
-127
19
-34
-33
29
-42
11
45
-23
-69
22
8
-18
-8
-38
11
-43
-21
12
-18
-49
12
37
-57
-16
-20
31
103
-88
91
-19
-58
-19
-27
-9
-59
17
-40
-18
26
-24
19
-1
27
71
-5
35
21
-2
-33
-4
-49
-71
5
-2
11
-10
-5
18
76
-3
24
-90
-32
-32
-23
-1
30
11
6
-57
-10
5
24
5
48
22
-33
1
21
34
-36
0
15
39
-31
-52
-21
-10
-21
-1
8
15
9
28
0
44
18
3
20
8
-65
-78
-16
-4
39
24
82
-54
-41
76
-49
34
-30
-35
-127
4
-72
123
-121
14
11
-14
-60
16
49
-43
39
2
31
8
10
6
14
28
-2
4
29
7
10
35
15
27
12
62
17
22
1
-41
7
-50
-26
20
-18
-4
-26
-9
18
87
-9
-3
33
8
7
16
20
37
-4
-30
-29
-12
4
-18
64
51
-20
-12
-19
-6
-87
27
9
28
27
-51
-58
24
56
-11
10
-71
38
25
-1
-6
-88
-2
-30
-23
63
-5
20
-27
-7
39
-9
-60
-10
-37
-9
0
20
2
29
-99
15
-20
56
-25
69
-118
71
58
-16
62
-55
-43
12
-11
94
-9
4
-8
-27
54
37
18
-116
8
-22
-14
98
29
-64
-11
41
39
27
-45
-12
-3
65
-109
-32
73
-29
72
30
10
-2
-13
-63
-103
-21
-1
23
16
13
2
-30
13
58
86
-20
-23
93
20
-6
19
112
83
67
11
-48
-19
-21
-78
-62
-22
-39
2
-24
3
-39
-21
16
-33
37
12
21
1
2
-104
41
82
-22
-28
79
-14
11
17
82
18
-38
24
101
-30
-40
83
-8
54
-78
27
-74
3
2
61
21
-8
37
2
47
-20
6
65
-20
11
-25
6
14
-23
-30
14
-1
-19
81
-3
10
19
-7
-58
42
-10
5
-15
3
3
73
4
17
33
-10
29
-26
-7
1
25
-7
70
-6
-42
-17
-41
5
87
127
9
28
8
43
-49
-33
29
-25
0
24
32
103
-79
61
27
-39
-22
-3
5
-9
-76
-20
17
19
-54
26
-43
-26
13
-1
99
-47
72
44
-18
38
-35
36
36
71
1
22
9
3
44
12
0
14
83
6
1
39
-17
26
66
82
4
-11
-19
-79
80
49
-51
49
-52
80
-13
118
-27
-9
1
-26
65
1
-8
97
37
-34
-107
-68
-3
-21
-3
26
6
-6
8
0
8
37
127
-6
63
28
122
3
-1
-95
-26
44
15
-77
-14
-21
-68
45
9
3
-12
8
-96
-27
28
-16
-31
-124
1
28
-44
50
32
36
17
9
102
16
-12
10
20
34
16
-11
-9
-36
-18
18
58
65
-26
30
-8
-7
104
0
-127
-22
-28
-99
1
-33
0
-123
-47
127
-26
23
-50
16
-67
-23
-11
1
-2
15
-25
-9
-14
-3
-9
46
-4
41
-16
7
58
-12
17
40
-10
-37
59
15
46
-26
-40
9
-10
-30
-16
53
-6
16
3
38
-2
47
-24
6
59
-20
9
29
8
42
-45
-26
22
-20
-9
-70
23
30
-12
17
-28
15
-41
-22
-24
-14
19
-9
45
-75
-95
15
42
-74
14
-5
-39
-93
-29
-46
-26
-96
60
-44
-9
29
12
31
9
34
-31
-45
15
-9
10
39
2
28
-53
-29
20
-14
45
-25
6
25
127
127
-10
-83
-5
13
-8
-86
8
48
-44
16
-64
24
-21
77
28
-8
101
43
-67
-16
-1
-68
-32
32
127
53
-17
-17
33
27
-3
-25
-36
5
-11
31
42
-25
-6
-2
65
12
15
14
17
-11
-19
-48
-21
2
42
-11
13
-87
-56
1
-79
-27
18
-39
18
16
-21
7
46
11
-11
-18
-3
21
8
3
24
-7
-15
-46
18
2
-21
25
83
8
-13
-9
-9
26
25
11
34
8
0
-19
3
13
-25
-8
14
-2
3
-32
-38
-8
-5
5
14
-28
10
27
11
2
-7
-33
-8
19
-3
29
5
2
53
5
1
4
8
-8
-11
-63
-54
16
33
4
12
18
17
-10
-22
-44
-3
-6
8
-12
25
82
-70
91
-19
-80
68
-2
24
-104
-42
-13
-78
-38
2
29
-13
18
23
-3
7
12
-4
11
-35
-16
-28
-8
18
51
5
3
15
13
9
8
-20
-25
-3
-18
-33
-6
-20
-7
35
31
-22
55
21
-17
50
-10
-18
50
1
-97
7
4
2
-16
-5
-10
10
-26
-13
16
4
6
60
-2
-2
11
35
-36
9
1
-5
31
-4
6
13
11
89
-1
-26
-37
6
9
-3
-6
12
-5
47
2
15
-18
-5
-8
-79
4
-15
37
-28
-127
-36
84
14
-21
-127
66
-3
-4
11
-21
-59
8
12
29
7
-1
12
14
5
9
-24
-28
12
40
23
10
8
10
-29
-18
-14
45
-3
-9
28
-9
-32
11
-26
48
-6
0
8
7
26
-5
9
13
15
10
6
8
-24
-27
6
25
-7
2
19
0
-56
-32
7
-3
6
12
-38
2
-37
-22
7
72
36
103
7
-11
2
68
15
-24
12
10
-37
5
63
3
-43
54
21
-4
13
-8
0
29
-23
-56
-19
-1
-18
2
-13
-8
-15
-37
10
-14
-24
15
-23
64
6
-82
7
21
-26
5
82
-5
10
29
-41
13
17
-18
-5
-116
9
108
-37
-1
31
18
-1
-4
-23
3
-44
-3
-1
-10
-26
-3
-2
15
5
-17
-85
-1
50
38
58
-70
5
5
48
-21
-9
3
-21
-19
-27
13
25
0
-27
-16
35
-27
6
30
127
8
25
15
-5
5
-35
-12
-48
-10
20
15
-8
-76
-16
-3
14
0
-30
-5
-19
18
-24
-2
9
-11
-15
-19
46
1
20
-45
-40
12
-13
58
55
-19
22
7
-24
15
8
-36
2
-10
4
4
-20
9
-44
-32
11
-14
-6
1
69
-2
33
7
0
-60
-22
13
79
-21
-1
0
-2
3
18
-16
-25
10
-6
35
24
-12
2
48
-46
0
13
-127
-29
27
-25
-5
-25
6
-4
0
4
-22
-20
18
-8
1
24
-33
3
7
1
0
68
-2
20
-56
-17
-18
32
-10
15
-3
-9
-27
66
52
27
8
45
-43
56
-39
53
51
-66
20
37
-14
-42
8
1
22
21
2
10
17
-30
-16
-18
43
-31
-5
-1
-8
-24
-1
10
2
25
-6
57
9
25
64
-22
1
-22
-39
-56
2
-19
115
-30
94
40
-37
-4
-6
-7
7
-3
7
7
-4
79
-1
3
3
-127
-75
4
15
50
7
36
25
-47
36
-20
14
36
127
14
-34
65
-68
14
-19
-11
-43
-16
-12
2
-33
10
2
-27
12
16
77
21
6
54
14
-112
14
-18
-73
5
17
-22
-2
-3
7
34
3
-10
77
8
-6
-5
-61
-5
38
36
8
25
21
26
52
59
-22
-56
11
-27
25
-103
-7
-14
-31
-17
-4
-18
5
64
-7
23
-7
2
-10
6
18
-23
7
-53
-31
-6
-42
-24
-127
20
5
4
-55
-15
-11
-18
12
-21
-4
-6
-20
-1
-12
8
18
-10
7
-42
-37
6
-20
-22
14
-20
0
30
-30
20
-63
-6
-5
-25
11
-19
2
13
-11
40
9
0
-27
24
-5
22
-25
33
-9
-5
1
22
5
-9
16
-26
-8
27
-5
-5
81
11
-19
-19
5
-37
3
33
6
3
-24
-27
11
-39
0
29
-20
56
43
-127
38
-10
-2
-2
49
-15
1
-13
39
-5
-3
7
-77
22
-49
-18
32
-16
9
30
-17
10
-68
-30
30
-9
4
15
-11
18
-61
2
0
15
22
-23
18
35
52
-12
-16
45
24
-3
39
6
-6
-23
4
-13
8
37
-7
-5
31
9
-14
-13
-8
-35
10
24
16
20
-18
-19
3
7
7
-5
6
13
10
106
-2
-33
-21
34
-29
-4
-1
-24
6
-11
-7
-9
11
21
11
85
-2
-42
-31
-5
-7
-9
12
84
-4
24
-21
-34
4
12
1
-20
0
11
-19
14
-1
-21
-1
-10
2
35
5
11
8
26
4
4
4
-32
-22
6
-10
-4
10
-10
-2
-33
0
11
-4
-21
8
-7
4
33
-18
10
7
-38
-36
32
1
12
-21
3
9
17
3
-44
-3
-31
-13
46
38
-2
49
72
-52
11
37
127
0
-5
127
-44
-123
52
-64
49
-16
57
115
34
17
-83
-10
24
8
-82
-2
30
29
53
-102
-12
26
6
12
32
-127
-6
-13
-28
127
31
-58
63
115
-17
20
42
-16
81
10
77
-15
-27
-22
-68
-33
-55
-10
-26
-22
37
14
-20
46
-56
-30
127
-13
127
0
-51
3
127
-8
-27
47
-15
-48
13
-42
32
-67
123
-18
20
-54
38
0
-17
9
-14
-72
20
28
25
2
24
31
-24
0
2
127
79
22
-6
-8
82
-58
-81
-5
-69
42
61
8
-39
-27
-6
93
67
66
14
126
105
-69
-20
44
108
-87
-70
26
-1
107
13
29
-28
37
-16
50
6
-8
-63
37
-127
-7
0
-65
55
99
4
95
-26
54
15
13
-6
-67
-12
-4
44
16
-20
-58
29
-36
-69
44
94
0
-25
127
-4
-48
54
29
93
-48
-70
-3
-80
-98
-39
66
92
58
11
23
62
-9
-6
-10
-73
127
58
-9
35
-127
23
-127
80
-95
-12
-43
-127
48
-2
-45
-18
-28
-36
122
-45
89
-97
40
0
-19
-7
-36
3
-98
10
4
45
2
0
-9
24
3
3
-16
70
-24
127
43
15
-72
-23
23
-100
-7
-19
12
-52
-63
127
-4
-6
-33
-28
76
24
33
32
7
-18
21
-38
75
-19
-20
-4
56
-22
82
7
85
-29
-51
-68
-45
52
-119
-25
-3
51
52
0
-15
-36
28
20
17
22
39
79
-38
22
5
61
-63
-24
7
-16
127
-19
-49
127
111
5
-34
32
79
-29
-22
1
21
-54
69
-57
4
-35
-5
30
-38
26
39
53
-81
-53
127
1
-2
4
76
48
38
-10
-5
15
-50
52
-1
16
-9
1
58
107
96
54
77
-53
-125
19
18
-46
64
127
-102
15
68
10
14
9
4
12
-28
0
-12
127
-11
54
39
-23
48
127
6
20
-13
-30
35
17
-8
-5
-4
27
-31
5
-127
67
127
-11
56
-127
-60
-106
-23
-49
42
-64
13
47
-127
12
-127
127
-47
-127
32
101
37
20
-32
-58
30
4
-49
-116
-63
20
-42
11
-122
25
-19
-1
18
-83
1
11
26
35
61
-39
19
-79
63
-7
-36
-67
-31
-28
-6
1
-29
-41
-44
-34
127
-117
102
105
76
4
52
41
-17
48
-74
-24
-57
-73
17
-59
-44
-45
27
51
28
9
-2
17
-29
11
77
127
125
-24
37
-61
2
9
-82
-99
-88
2
49
-51
50
11
-100
-57
-34
-40
127
-41
22
85
-39
-15
12
-5
-30
-84
-1
15
31
-61
62
-12
21
74
49
39
-51
-78
26
16
-108
13
14
-2
-14
5
101
25
30
-26
35
21
-42
38
77
19
-2
-127
-120
86
7
2
7
118
-119
43
7
10
-31
-17
4
-2
13
69
-107
20
-89
13
-26
5
35
34
-64
-40
-72
-127
-10
-3
26
26
68
60
10
33
27
51
-93
-3
63
35
-34
-6
-69
-28
-44
81
-115
-127
4
-25
48
-127
127
-110
-127
-11
-11
5
-65
24
110
26
74
72
-127
-39
-6
36
39
-20
-20
-1
-3
16
127
-19
-75
-48
-31
-22
-109
20
-122
-32
-79
-10
-38
-53
-63
8
22
-30
15
62
52
40
42
-45
28
60
35
56
8
26
-21
46
-73
9
-58
-26
-19
-5
27
31
-50
52
4
-11
47
-123
-78
-19
59
-39
-13
-61
-107
60
38
-29
-93
-127
113
34
92
11
-37
30
-63
66
15
-29
51
2
5
8
22
37
8
18
33
-27
35
39
68
-82
24
69
-123
-3
42
31
-59
-88
-89
77
94
-112
-69
8
31
48
47
0
30
25
-127
40
-127
-5
-27
52
127
28
44
4
-2
-121
-127
5
-13
-127
3
13
-51
59
-35
-1
25
73
-21
-1
85
-15
-18
40
-59
6
4
-25
-4
-7
-2
-57
-32
-64
90
-127
-32
18
-5
5
52
19
33
6
42
-18
-57
-90
16
-102
-8
-10
-47
-31
13
-127
112
6
23
-2
-36
88
60
-77
-58
-79
-127
-127
22
-47
-28
59
-23
-48
40
15
87
-12
-14
-49
37
-7
7
13
-23
2
10
19
40
127
-12
6
-6
74
43
61
-22
30
-51
57
-6
127
127
-42
12
-15
31
-70
-18
18
-35
127
-120
4
-16
26
29
-104
-90
100
115
9
65
-12
-3
108
50
27
88
-2
-16
16
2
-32
-5
-74
-127
-24
-21
-9
-34
-108
-86
-4
-63
13
-35
-55
-17
54
47
77
-11
-84
33
-14
1
8
-13
-7
7
-26
-13
-49
127
-6
-5
51
35
-36
46
-17
-3
-54
3
91
-63
40
35
-42
-9
26
24
-18
-19
-61
-22
-32
-49
-8
39
59
50
-107
-58
109
127
-27
-50
-71
-52
31
16
127
-59
-61
127
-127
-69
42
-17
-40
7
60
-13
2
-12
21
92
-21
-1
-17
-1
33
127
44
28
42
20
-127
25
-82
81
41
29
-14
-47
-51
-43
-2
3
60
-61
46
2
-20
-53
-30
-65
-127
9
107
-78
-1
-106
-74
20
29
64
74
9
30
38
-83
-13
113
-127
-105
-32
35
8
50
-27
-102
25
-16
18
-40
-47
36
49
-113
-5
40
-98
-36
51
3
-11
-60
-11
32
-9
-26
-65
-4
16
85
-81
-26
-1
-22
6
14
-51
-36
27
19
16
-52
2
16
46
8
14
56
30
-99
-16
33
12
-11
-74
33
18
-61
-39
-25
24
-99
-40
-22
-17
3
-9
127
-28
-30
-127
20
20
-35
55
37
-71
-19
6
-31
-6
16
-85
7
-5
9
-120
-9
127
127
31
42
-127
77
33
14
-13
54
-32
-55
-14
-29
12
127
-1
54
-5
52
52
42
-11
35
-10
19
46
-78
-40
127
-76
118
-40
46
64
-114
17
23
-103
-50
75
-28
-8
-9
59
3
64
-27
1
-27
127
-15
-5
5
46
1
-40
-90
15
18
10
-36
-41
72
33
14
-23
-67
6
54
-77
-2
52
-66
-7
-50
-7
-16
34
-18
-5
4
40
14
-20
-17
-40
15
-33
78
60
-19
16
127
17
-127
70
-61
-92
-75
80
-79
-6
64
127
39
-25
88
42
-9
-26
3
-47
50
-127
-73
7
35
-13
24
-14
3
100
-41
-32
76
-22
-89
4
62
68
5
-53
-30
-79
42
-48
68
-43
-17
66
11
-36
-23
44
-13
-1
91
55
-67
-76
55
33
123
25
32
25
4
11
3
-6
-44
-23
36
-14
46
-127
-70
-69
127
-39
14
127
0
30
-20
-8
-22
37
-9
-8
-7
-6
-1
32
10
-103
-82
37
23
-78
-32
110
59
-20
-33
50
-28
46
15
-37
-27
33
103
-96
-28
-91
29
20
-22
44
-127
-64
70
62
27
1
-127
-33
-1
-65
-69
-93
67
-45
14
-44
9
-62
-98
-127
-76
-127
62
52
30
14
38
-69
32
23
-84
63
59
-13
53
-47
-8
-70
0
-74
-16
16
-57
-40
-45
12
-16
31
-72
-127
-30
-32
-47
-96
5
-21
64
16
-7
-20
-28
-46
-90
8
8
29
-85
46
127
118
63
3
60
-40
-127
-21
11
86
-11
58
-31
26
39
-88
-41
26
12
20
55
-64
40
34
31
-49
-17
127
-58
-65
-14
117
4
-70
44
-20
-26
-74
23
28
-12
-9
91
-25
52
-49
-28
-72
-19
-53
7
18
-29
-28
7
46
23
-97
39
40
127
78
-55
44
109
25
-26
91
58
-97
58
-3
-70
127
74
67
80
13
16
83
-83
65
-12
9
25
-56
127
1
-122
-57
-97
13
-64
-48
68
-16
41
23
-124
-84
7
81
-55
47
-42
22
-47
55
-16
92
13
69
85
109
-18
36
101
-41
27
-49
28
-5
-42
-17
1
-33
-19
-127
127
30
52
8
-8
-127
42
-22
-79
102
50
-61
25
29
54
7
-75
19
-48
119
50
-100
-38
29
55
-38
-14
29
35
51
64
-21
53
5
127
127
21
17
4
-45
33
-113
59
66
-127
-107
-12
-46
-59
48
-60
93
13
25
-46
12
105
7
68
-60
41
-22
-16
31
19
43
82
-7
20
-10
121
60
-26
-33
-77
127
35
-60
54
-38
24
-3
2
-4
-23
8
20
22
17
53
11
-8
6
-4
-17
46
-15
-30
10
-16
-34
35
-34
-46
-14
70
42
24
-68
95
21
28
28
34
74
1
-32
4
-34
22
-2
20
25
-24
23
-16
-15
14
17
6
-36
-9
-5
-32
-47
-33
-22
24
13
-6
-30
-23
-5
-9
-53
2
86
1
24
56
-14
34
25
41
-57
-5
62
-36
17
6
58
39
15
2
-127
88
30
28
-9
52
9
-61
-34
-43
1
-35
3
-17
-25
21
24
-18
-51
-40
33
-22
87
16
-2
46
-27
-40
18
7
32
-29
-39
-1
9
-12
-2
16
48
4
-79
-13
-4
-20
-8
-27
4
40
-9
35
36
47
1
41
-62
-27
-6
-42
34
0
12
-10
-2
14
-9
-30
14
39
-9
-25
-7
3
-28
-17
-66
25
-21
20
50
1
10
38
24
-39
-8
-46
62
44
-4
-95
-57
41
33
-47
0
-19
-32
-70
103
58
-22
45
31
7
-74
-19
53
9
-30
9
-4
16
-5
-14
16
29
10
17
101
-32
-17
-9
-40
31
-20
1
16
1
-35
11
16
-35
20
-36
-67
9
14
-22
38
-17
21
20
-17
-29
-58
-2
-63
31
-38
35
22
-16
125
37
31
62
100
10
-14
-19
85
-11
-22
-25
30
-6
33
2
-16
-27
42
18
10
35
19
-32
-2
-41
-114
3
-46
-7
24
26
35
21
34
6
36
-20
33
-12
-51
20
-26
-66
-127
-25
-72
-13
-50
-26
-13
-51
15
17
-1
12
8
55
49
-24
36
-28
8
6
16
-7
8
45
-18
24
22
-6
34
21
-25
18
-20
-19
28
-5
-107
14
-39
43
-5
0
22
-17
-68
23
-45
12
-11
30
6
-14
6
-9
-9
6
-10
31
13
-16
-54
-1
-33
-29
32
24
-11
21
11
76
-26
-21
2
19
-59
35
12
-27
3
47
-36
-27
10
-3
-12
6
1
95
-3
100
-56
-31
28
-41
25
-25
27
-14
-57
-17
35
3
117
-3
-3
-81
31
-36
-54
-12
-24
-39
-6
17
-8
-3
-19
-53
-47
19
-7
14
17
-4
-59
68
-26
-25
23
43
-5
-29
19
72
83
-35
1
-89
-66
19
-10
-56
25
91
39
-6
11
15
31
127
39
34
-2
69
93
-16
-47
-16
-49
-29
-21
-71
77
-45
22
-8
3
55
37
56
-22
16
8
36
124
-87
55
-18
-4
-14
67
-6
11
31
3
46
-69
-28
12
-61
34
21
8
-52
47
-4
3
13
35
-39
-60
56
-7
-22
5
-52
8
-9
-27
1
96
23
13
-15
-13
-17
-11
14
7
-2
-55
-29
48
40
-19
-10
28
0
-63
15
127
-24
-42
46
-11
-3
-17
90
-24
19
-6
39
-12
-74
23
-10
-54
-7
19
83
-15
37
17
9
-56
5
-16
13
56
-4
19
93
11
13
-26
-29
22
2
72
-67
-21
-3
-7
-2
71
-28
-1
48
55
-29
15
5
17
-27
7
29
43
8
-7
26
27
-14
33
30
31
74
-29
10
8
28
-39
20
-57
46
50
-1
10
-20
-22
38
58
-35
27
28
5
-29
34
-22
-75
2
7
-14
-127
-29
11
48
-12
17
-3
38
13
-6
4
-26
-11
0
-19
18
20
5
-51
23
30
-38
-30
46
-10
-17
-47
-19
39
18
-19
23
18
-24
-14
-78
56
32
15
53
12
-45
-81
-26
-31
-13
42
3
78
12
60
107
-73
-1
34
-18
15
-13
24
-75
-2
-22
1
23
-27
1
-61
14
-20
-15
6
49
1
-15
20
4
34
67
10
46
-86
13
25
-57
40
-31
19
-84
36
5
-34
29
-17
-31
-42
-14
23
-8
-67
46
57
-12
43
-118
-1
-22
37
55
57
29
8
22
3
24
19
71
-5
127
-64
127
18
-61
28
-11
59
62
14
55
-15
28
30
-27
-21
19
4
18
71
-5
79
54
75
-11
20
38
-7
-25
26
-4
-1
-10
15
9
-26
18
-56
-65
66
-39
-10
65
-29
54
51
112
-64
-22
-15
11
-25
66
-25
9
9
-19
-3
28
-45
8
92
5
-27
2
-25
7
-90
-14
29
-9
28
32
32
-103
8
-16
91
-31
14
0
55
11
-14
-6
-75
-12
-6
45
5
-10
-62
-13
-72
-24
9
-12
-13
-5
-37
-15
79
-6
9
-77
22
49
-21
-15
3
-4
10
51
20
9
-5
-45
13
-5
9
0
-20
32
-88
0
-39
-51
3
-104
-23
-1
-10
-6
-66
10
-27
59
54
-32
-3
-17
13
18
-4
1
-37
28
-16
-6
7
-1
-55
-4
27
-11
3
-2
15
27
33
-51
22
0
-9
4
69
48
36
44
42
-16
-27
-2
-71
-20
-7
9
46
1
89
17
-17
-36
-5
-39
-10
37
-44
0
78
-41
-8
-25
-27
-120
35
0
-10
-26
-26
2
-15
56
-22
-15
21
-57
-17
5
-3
-13
-17
-18
99
-9
4
14
-36
37
32
-7
-22
38
32
-26
-7
8
-16
17
83
13
21
-52
8
33
0
14
63
31
4
-25
-24
36
34
-1
66
48
10
13
-3
48
-18
-7
-59
-9
-36
3
-16
-7
60
-8
-2
21
-2
-7
-10
43
-6
-7
-12
-127
-12
3
-10
-4
75
-20
124
-11
3
-35
-16
24
28
12
48
-28
-127
1
36
12
14
-64
16
17
2
35
18
-29
113
-4
-32
-65
2
-15
-28
31
16
6
53
-13
-6
23
-35
-40
-33
0
-61
80
12
-2
12
-12
-30
2
127
35
101
49
-11
33
19
-2
-52
-67
11
17
-9
-57
-1
4
2
55
-62
17
-14
20
-15
56
-13
-2
-8
-7
25
-34
-26
13
-64
-2
-8
-9
5
-17
-13
-33
11
12
-48
-17
-30
-3
-24
54
55
-4
0
26
-3
2
-40
-3
-23
70
6
-68
18
-14
6
-9
-19
-15
15
-96
-1
8
6
-85
-20
-6
-10
5
-24
-5
-16
-7
-5
45
-11
7
-2
59
-88
-2
21
-50
-18
26
4
-7
49
11
51
31
27
-25
-25
2
-40
-1
36
15
-11
-42
6
20
-38
19
-18
37
-50
-21
-12
9
-20
70
1
-32
-52
-7
-11
-38
-26
-7
78
-12
22
9
15
-47
-38
4
17
26
-34
28
8
-35
7
-18
-55
19
56
-3
-17
-7
15
-98
-18
18
14
33
-2
-38
15
-6
-61
2
22
127
-127
29
-36
-30
-49
42
28
44
-34
-12
27
-15
-12
-22
92
-9
34
24
4
14
16
-53
11
33
-7
-26
-35
-9
-36
-18
-13
-52
-26
-47
13
-5
20
-23
-27
-46
31
-2
-38
-31
51
12
20
27
29
15
-7
5
-55
2
32
-103
21
19
-7
-78
-20
15
0
8
5
-10
-11
3
32
79
-45
39
-21
17
8
41
-20
-13
3
32
-38
-14
-62
-21
-14
7
10
21
7
10
74
-18
17
-74
25
-35
5
12
5
13
-6
-41
-3
-3
28
8
2
-69
36
14
-1
24
28
-1
-52
-2
-36
-15
39
-1
18
-27
-82
7
48
18
29
1
52
-5
-61
30
-32
50
-20
-4
37
12
-53
15
2
-5
8
-35
-20
32
31
70
-1
23
48
-9
29
-42
-34
12
-36
36
-19
6
71
-75
-39
-3
-8
-63
1
9
4
-19
64
0
-31
16
-8
-7
-20
-23
-27
-9
107
5
-31
-70
19
22
-35
-30
-10
11
-3
6
7
18
19
4
4
-25
19
-23
2
-27
-17
-18
71
-16
-49
-30
-17
6
42
-1
57
41
50
5
25
-29
3
18
26
30
-3
54
33
127
-5
-20
-26
58
17
-6
4
-45
58
9
1
68
0
-10
15
19
-127
20
-22
-39
1
11
9
-23
-66
-2
29
-26
45
29
13
-32
8
4
84
5
43
-24
-17
22
11
41
-15
60
22
-45
4
-6
24
-127
-18
7
45
41
31
17
-5
32
25
32
27
-9
22
2
-35
33
42
-31
33
29
28
25
-7
3
-6
-32
49
-7
31
-18
-57
17
-2
31
-45
-14
43
-58
84
66
-127
82
8
-22
-12
68
101
-35
-60
-22
33
-17
-21
-55
-21
68
-88
62
-19
59
0
42
16
1
75
79
-64
58
32
90
127
-88
-23
48
127
49
-17
93
-35
-127
47
-127
38
63
5
16
20
53
36
41
30
14
2
36
-46
-32
69
34
8
59
-37
-20
51
99
105
122
26
-11
12
14
-37
-16
-40
8
58
52
74
104
2
-15
-45
100
-27
-57
7
-64
65
-10
19
-41
-100
-12
127
12
27
-12
95
-63
-4
48
28
57
30
-12
23
46
-48
-66
-35
-114
-36
62
8
22
-36
127
-8
127
69
50
-74
81
-69
-56
-82
48
-11
6
-27
75
28
111
40
87
66
91
31
67
14
-42
-81
12
-2
-123
-37
-62
-72
-14
18
-30
42
65
-9
-8
-98
15
19
22
3
-2
-38
-127
20
9
13
0
-24
6
-108
107
-55
-60
-49
61
6
-59
-34
30
19
31
26
78
-9
12
8
-38
-82
-91
-71
44
20
127
-45
-18
2
30
11
11
9
46
-36
-98
46
-54
-92
-24
32
27
-106
74
-13
9
-51
22
-3
-49
-14
51
5
-127
-40
24
-127
-54
-29
68
22
-27
-34
-127
5
43
-54
59
3
42
24
17
-52
-17
85
10
-127
-101
127
42
-45
44
127
42
96
-62
93
27
-6
21
-17
-34
127
-38
-79
-4
-66
89
-63
-41
26
55
-127
-2
-16
17
-16
-23
22
48
-78
-76
43
-30
-127
29
88
54
-21
22
-38
-22
-59
-35
-70
21
-50
-127
11
7
23
-19
-3
-89
-118
-12
-25
45
1
-9
-29
111
-41
84
-6
77
47
40
15
4
61
-45
13
90
-43
31
-22
77
10
-32
55
12
-4
18
-13
127
63
48
28
-18
-3
29
70
-98
-5
-6
127
-20
-11
127
-36
-31
4
54
17
31
34
1
48
-8
11
43
-29
-127
19
6
2
125
-24
8
-20
-14
53
-1
6
-53
-16
-5
36
20
25
31
-96
-127
91
0
59
3
-80
-60
23
-82
-15
-6
-64
5
87
6
22
48
-5
21
60
-13
-99
-48
63
-46
-80
38
25
-127
-41
-64
8
-121
127
-15
-9
-78
-6
-36
24
-71
-3
127
-78
-53
92
8
-122
-34
-32
9
102
25
-44
-98
107
90
-2
-44
-46
72
8
0
127
-21
73
41
118
3
-127
-97
-97
45
15
-9
-23
-23
4
1
-98
-71
-47
-32
24
40
-56
-127
-13
-103
73
-10
-29
10
22
49
40
-85
-25
-84
-67
-29
58
22
35
-86
46
11
54
6
-30
-91
-67
71
19
63
-25
-23
-18
97
25
30
-34
16
127
11
-3
-55
6
-32
86
-6
-51
25
105
61
25
54
26
-1
63
-11
22
66
91
-67
22
13
-2
-62
-5
-71
-32
11
-36
-10
28
34
-2
-58
13
35
40
4
-127
-27
-32
63
-83
16
-99
-13
4
39
-26
-54
111
11
-127
-26
74
-26
-3
10
90
9
-13
0
-49
-43
113
-26
-80
-19
35
-22
-8
61
-23
52
-64
-6
36
6
-17
2
90
-49
17
17
-25
-13
-82
-73
-68
-82
127
-28
-20
4
3
-127
0
75
45
-11
119
8
-98
20
26
-127
5
9
2
127
13
-1
127
21
57
-41
-21
-10
-57
3
-21
-49
51
127
62
-19
35
-76
1
94
-51
-119
-34
-5
13
32
31
-4
-103
65
121
-11
0
41
-77
-25
9
-118
-99
49
23
-127
57
69
-121
115
9
-3
-15
30
44
-87
-7
8
52
-29
-40
-1
61
52
-40
-114
25
-125
-127
-80
-96
72
-61
-49
-62
19
-34
-113
68
-76
-41
-23
-6
-44
-15
-41
24
95
7
127
-100
-18
-12
93
127
114
-50
107
-6
12
2
53
10
127
-72
77
-127
-37
-91
26
11
-13
-14
-24
62
46
-18
1
-67
-44
112
-42
-48
9
-64
-6
-66
-48
-49
40
31
-20
-37
52
27
3
120
35
3
-3
81
-6
55
62
127
-110
72
-127
49
-23
103
-10
-56
22
-38
83
127
54
9
28
-15
8
-127
-4
15
6
13
-127
-64
16
-92
-21
-6
39
21
-26
51
17
16
-13
20
-46
-1
-34
-22
-1
-68
-72
-21
-42
8
-103
43
-28
41
0
-5
-87
-20
50
-5
-17
-46
24
-1
-11
-16
-8
-46
23
-16
62
112
-14
22
-80
59
-20
24
-41
-18
36
-13
-52
-45
18
27
24
68
-10
10
-69
-41
-52
-3
-127
-85
-95
-29
-107
41
2
73
3
5
48
12
34
17
11
60
19
30
-127
22
100
127
127
-7
126
66
-32
127
-49
-71
-9
-36
-47
-27
76
-16
28
-28
12
-6
-22
-12
-40
14
-11
-29
-28
-66
51
37
32
-56
-50
-75
-43
-47
27
-15
85
-5
-39
-17
22
-110
-7
52
-29
-33
-30
-20
-3
-1
-48
127
3
31
-127
127
48
-127
-47
82
-22
35
-125
-107
60
-126
-17
96
95
-84
1
-60
18
-23
43
-68
43
1
58
48
-39
-39
-78
-64
-41
17
62
11
32
32
-31
13
35
-50
-58
12
51
-66
-53
70
-27
6
0
-64
-85
-112
-107
-73
57
-48
72
-25
1
53
-127
-38
67
-60
-30
-16
-127
-34
19
5
-63
-24
41
-28
-25
30
-60
-24
50
-34
5
8
-33
57
13
30
-127
30
-29
68
-35
45
-17
15
-35
127
14
4
65
-122
50
81
-22
-4
48
54
3
-40
-25
-73
127
-1
-127
0
-18
-127
31
-13
-60
32
74
-25
24
71
-19
1
6
127
-15
-6
22
-72
66
-95
74
30
-13
30
-27
-80
3
-20
-6
92
3
45
-38
-70
67
21
-88
-13
63
7
-62
-16
47
81
54
-91
3
60
5
86
-127
-56
-84
39
101
-14
6
11
-110
33
18
18
-12
12
-9
-2
-16
-127
-2
-104
42
-6
8
78
53
-16
-6
-18
4
15
127
23
-37
18
-44
16
28
-127
-19
122
8
8
-21
-21
41
-28
-24
30
3
36
50
7
15
26
10
-65
23
54
-24
-19
-8
-60
28
53
-12
-67
20
-46
4
58
52
74
-14
11
12
38
35
20
-34
-9
22
-127
25
-63
4
8
-5
18
20
23
10
22
-5
-58
4
73
-41
67
-11
60
34
-14
62
95
-5
-57
86
46
63
14
24
14
5
114
5
9
-28
78
-79
-11
-33
86
2
5
-14
-79
23
64
-22
48
21
-27
-28
30
-49
-1
-10
-119
1
-26
5
127
-127
121
-9
-17
47
82
41
-51
-121
79
20
71
59
-43
59
8
63
-39
127
96
21
0
12
2
-3
78
14
86
24
33
7
-38
-39
-77
-36
46
-14
-89
-29
-32
-53
-127
-20
-84
-127
127
-127
68
31
4
-31
-6
34
21
-89
-54
38
4
-42
-47
13
98
99
-50
-26
-21
33
8
26
33
-100
-127
-24
-15
-45
43
49
71
29
-115
-12
39
-13
-16
76
-68
72
-101
99
12
51
-32
10
-74
127
45
33
15
83
62
74
-33
-10
-42
26
15
19
1
21
-3
32
-60
-8
-8
-127
76
80
6
-78
-62
-37
-46
3
-6
-14
-31
8
-86
127
-33
19
4
127
-37
30
55
16
-127
12
-29
-25
-8
11
33
6
2
-38
-31
-25
-117
-37
-30
37
4
9
17
60
-12
11
-87
-29
16
19
-33
-75
127
-49
21
-29
-69
-1
127
39
8
38
-31
55
-127
-127
-52
36
91
-88
-42
-79
66
40
-104
1
59
127
-17
39
91
103
-25
-35
73
-120
-40
-39
-99
-69
-26
-39
45
9
-127
-7
25
14
-35
13
23
-5
16
-94
-22
21
127
-6
-25
50
46
-33
-32
6
27
18
-112
-33
-40
-20
-97
-69
6
-19
-127
-8
-32
35
65
22
-38
-7
-43
-109
-41
0
-9
-1
-3
-30
50
-5
-59
-110
37
52
70
-24
30
-88
5
17
32
-14
-12
-127
-55
9
79
-18
31
-5
77
9
-29
-41
3
-45
56
38
17
18
-27
-21
-95
127
17
40
-71
8
-32
-23
33
-21
41
7
-34
-39
70
30
