-12
-41
5
-24
8
117
127
13
-4
-16
6
8
0
0
-6
43
-18
-127
8
7
-14
-57
18
24
0
0
0
0
0
0
0
0
-10
9
55
56
-127
9
14
-14
0
0
0
0
0
0
0
0
-127
19
22
-53
1
-4
-6
-9
0
0
0
0
0
0
0
0
18
-5
-6
-19
3
-31
36
-127
34
-10
-18
35
-15
7
18
3
22
-1
127
-96
-1
-4
-1
7
0
0
0
0
0
0
0
0
1
-26
4
2
5
127
-115
-25
0
0
0
0
0
0
0
0
-25
6
116
127
51
1
4
-8
10
1
-2
-9
6
-7
8
-65
31
-16
-127
3
46
17
10
-127
-8
-51
25
-35
6
127
-11
15
-113
3
75
-48
127
-5
-8
-3
-127
9
-109
-70
-114
-5
-18
-30
0
-31
0
6
2
8
10
2
-15
-127
-6
127
-3
22
1
0
-25
65
-10
125
-5
13
6
-3
26
8
-16
31
22
-20
-127
-19
-11
-26
13
28
127
10
-33
-39
-60
-103
-7
7
-5
37
-43
-7
-27
-8
-72
-114
-22
15
95
-10
-43
14
-127
-127
65
27
105
-29
58
7
6
-52
2
-127
66
0
92
-127
-6
-27
7
-55
55
-2
127
108
0
-39
7
-64
127
5
13
21
24
30
40
-22
-4
-127
34
21
-71
70
9
14
-116
-13
5
-103
8
4
17
9
22
-55
-118
13
-127
-49
-14
-19
119
-31
-127
0
95
-42
-8
-16
-127
-55
-51
-23
-1
-31
127
127
0
77
-25
102
7
-120
-58
-58
-13
104
-36
-127
5
-127
-60
-70
-6
127
17
-12
-15
-73
7
7
-3
31
-12
-13
23
127
-12
60
127
-2
-4
19
35
-16
1
-37
-28
54
16
9
-10
4
33
-106
98
-12
13
8
-24
24
59
-127
-88
1
-127
1
5
3
-98
-30
0
2
49
-1
-18
3
-127
-41
-6
-120
52
-3
29
7
-110
-30
3
127
-8
127
-127
14
-20
-125
-95
17
6
-12
11
17
0
16
-26
-1
33
-127
47
127
41
33
-23
-31
-1
5
-4
-12
21
3
6
10
19
0
-2
2
29
-5
18
3
127
-20
1
8
-127
17
-6
5
-107
69
127
46
-40
127
12
0
-117
-105
-113
-1
-28
-88
-19
-2
-5
-6
-15
-27
-10
-9
127
-127
-16
11
21
-28
10
-28
8
38
-127
7
7
-68
-81
7
6
-16
3
35
-45
51
17
112
-9
-22
6
54
-66
75
18
127
-5
7
-7
-98
16
9
-32
13
127
6
-29
-127
-7
3
-19
21
-35
-1
-6
-120
31
-22
-29
28
-39
11
22
-15
-127
127
127
-28
9
-127
-13
25
14
16
18
-19
-102
-40
1
21
78
53
0
-29
-5
0
41
2
28
-33
6
33
-4
8
-5
-127
111
27
10
9
0
-52
13
27
73
-114
14
55
-3
22
-7
-9
0
-9
32
-27
-8
-48
-6
26
4
14
9
-29
53
82
127
-2
-12
7
28
-7
-11
12
2
54
53
34
1
-35
-21
-20
-2
6
-58
31
1
127
4
-4
38
17
-16
1
-58
-3
126
-18
-5
-19
13
13
24
20
-34
-48
-8
-28
40
4
2
-6
-5
-4
-6
36
-12
14
11
5
-8
-51
0
9
-41
-19
-14
-28
14
127
110
-3
5
0
-24
-8
-7
9
-2
31
-47
-28
-10
-27
72
80
-3
34
78
61
0
-39
19
42
15
-31
-70
127
-9
-52
5
-10
-3
-27
55
17
1
-35
-17
19
2
19
110
56
4
-65
-9
-1
-3
-119
-42
-41
2
74
-6
-13
-70
-10
-17
29
-6
-15
2
-11
3
37
1
-5
-6
-30
-12
2
0
22
127
65
-1
-75
12
-2
11
-11
12
25
-22
56
-42
-48
1
-23
-62
-38
-6
26
18
39
-113
-3
-18
10
-26
-1
13
-10
3
11
78
38
3
-41
-7
-18
-4
-36
75
26
2
-34
9
17
-41
21
63
-99
0
46
7
5
0
7
-22
52
0
123
-23
-55
-3
-30
58
27
9
-1
-20
-57
-4
44
32
119
0
118
11
29
-1
13
-2
53
3
93
-6
-29
-1
38
0
57
-18
63
11
51
-1
-70
11
-19
-8
-15
1
78
1
41
122
75
-5
-76
9
37
1
-22
-60
-41
-6
20
10
41
-49
-9
-15
47
127
13
63
11
6
-1
10
-30
-18
-32
-24
-42
1
9
78
39
4
-38
1
-17
-5
14
-20
-10
-24
22
127
-75
-1
2
50
35
15
-2
-40
-84
-1
27
68
54
3
-25
9
20
2
7
44
22
1
12
42
-124
2
66
-40
-12
-12
-19
2
34
37
5
20
-22
65
36
21
27
-7
16
9
5
-12
-3
-127
8
103
76
12
26
19
74
0
-51
-18
32
-4
4
-15
57
-4
52
96
-17
6
-6
1
127
9
18
-21
-57
-68
-51
11
-19
53
-18
127
-127
-4
-46
-13
112
-16
66
-10
59
36
77
-127
-3
-2
1
29
27
127
127
71
51
-5
-127
-6
2
0
-1
8
16
24
29
127
-49
-62
78
-75
20
85
-61
3
-44
-127
113
-14
-4
-28
78
99
-119
-78
34
-53
-11
-3
32
-12
17
5
8
-47
-16
-24
-127
99
-127
78
-127
-4
5
4
13
13
4
-5
-9
-63
127
127
37
58
-41
12
-28
-127
-114
-87
-59
77
15
14
-9
-19
17
2
4
33
-127
-24
87
63
-13
24
127
-51
73
21
41
14
21
-60
-106
-14
20
7
127
-4
2
-52
-18
127
-9
-88
-29
96
-31
44
-3
-18
7
-16
108
-67
22
-25
34
-53
7
127
1
-127
127
127
-4
34
34
34
55
-49
-47
-43
-16
127
0
23
-3
-9
23
-127
34
-31
-127
-12
-14
-21
8
10
-67
5
-15
5
6
14
26
-34
-40
-8
-66
-20
2
11
-1
11
-127
30
13
-127
-39
127
-127
21
-91
5
-30
16
16
2
-6
-13
-47
-15
13
50
-127
-126
-49
-18
-83
26
1
-43
30
76
7
7
-79
23
-5
-53
0
0
27
-127
-18
-6
-127
32
-60
127
-31
1
50
-7
77
80
41
-45
39
3
-25
-21
11
-85
70
16
-33
-4
17
0
-4
127
-28
3
-127
-27
-36
20
-12
80
127
28
-73
-8
43
127
5
9
29
-20
-1
-17
-127
-87
39
66
64
-51
96
-2
8
16
-6
-38
-101
35
31
-7
-21
71
-13
-42
-4
-7
26
38
-5
-21
-24
13
9
4
-22
-45
-24
-18
-23
47
-25
-16
-40
-11
-51
-21
127
127
-127
-127
-37
14
127
-5
-11
62
16
2
-29
10
-123
100
-3
39
6
-39
113
-127
42
-127
13
-11
-1
-12
-127
11
17
5
-62
13
-29
8
-17
-1
-7
-3
-12
-6
10
1
11
-40
-16
7
-16
-37
-15
23
15
73
-20
-3
5
-17
-2
-42
-10
-67
33
-4
95
1
9
31
-8
-13
-125
4
-113
-55
-77
-11
-30
2
22
-4
43
45
33
2
2
-6
8
-1
-2
54
18
21
6
-13
-78
1
-117
-38
-46
-14
-16
2
11
9
-45
-9
-55
7
-46
4
-45
-3
11
127
43
8
-17
-3
2
-3
-43
-90
-19
-9
47
10
19
-3
29
49
18
-18
-18
-7
11
11
-54
-23
-6
6
21
-5
-101
-14
31
11
3
84
12
3
-28
-14
-15
7
-1
45
12
4
-8
-9
-19
-63
-22
-25
7
10
32
-1
123
-71
-1
4
3
-4
-4
26
-17
33
13
-62
-11
-7
-127
-3
30
99
45
-23
-8
3
76
-4
66
-109
-51
60
-22
-16
92
10
9
51
0
-53
-9
127
5
-9
-8
-35
-4
22
1
-29
59
-2
-106
72
-7
29
-26
4
-22
2
-13
71
6
-6
-17
1
10
5
83
-104
2
-11
33
5
-8
8
-24
47
18
-56
12
-18
1
-21
6
5
7
33
-4
-77
75
-3
16
10
-15
-114
-4
-49
-67
18
-35
-23
-18
-58
3
7
-85
12
-16
-61
-31
-7
19
11
28
-12
-41
-10
-3
82
12
-1
5
1
-2
-44
-21
-17
-6
27
61
0
-35
115
29
-24
-9
8
56
18
-22
-111
127
20
-33
10
6
11
127
-16
-63
3
-127
10
-75
1
-119
-9
-11
-28
23
4
49
-11
20
49
1
7
-28
-2
108
-127
-2
-4
-13
-34
2
17
2
18
10
5
5
-94
-12
-3
14
1
-17
-51
-19
-19
9
13
52
-1
43
-25
2
-33
-12
4
52
-1
-12
-68
-19
-19
3
0
94
-6
50
61
37
-7
0
-8
11
37
-27
11
19
-127
19
6
27
3
-32
66
9
4
-15
0
-11
17
-3
-44
0
-23
12
13
-78
-17
-1
27
8
87
12
3
13
3
-2
-127
-3
127
-30
12
-27
-33
127
15
13
11
13
-14
8
-72
-69
32
-21
-16
-35
-46
-49
127
-49
-49
-31
12
1
-21
-7
13
21
111
-25
-56
95
-84
92
-52
-47
14
-51
-23
-39
22
-18
6
-1
-6
16
0
-127
-127
-127
1
-41
13
127
-9
95
-99
82
31
18
-89
127
-80
-10
-10
35
-2
-25
7
-11
2
-127
127
-3
-18
10
10
-15
-6
25
-76
37
-21
18
-17
19
-3
-45
-2
24
-71
-105
-127
53
-127
-31
12
-85
40
32
9
6
-15
-23
28
56
127
-127
12
-6
13
-1
-1
127
-117
-123
-6
29
-32
19
-7
-125
2
25
-24
6
25
68
7
7
-56
3
17
124
-54
8
-127
61
127
-8
-38
14
0
-4
20
24
51
16
-16
117
16
0
-50
-22
4
127
127
-40
-127
127
12
25
-77
8
-15
127
92
-2
-60
-127
-1
-11
104
12
10
-9
-3
-8
-21
0
43
75
69
33
-11
-70
9
-38
-127
-50
-42
-37
-54
127
5
-20
-24
-69
-78
127
-13
36
-11
-26
5
35
29
44
-6
44
-9
-23
10
53
68
115
23
-86
-1
127
17
127
127
-50
127
12
22
-30
15
97
105
74
28
19
127
-4
6
-6
-11
7
0
-12
23
1
13
33
48
16
-1
-3
-127
13
-7
-48
-14
6
-17
14
3
-26
-70
-2
89
32
127
-62
18
31
-21
-29
94
68
-38
127
-35
22
17
4
127
-127
37
73
50
-118
-25
127
-8
-13
11
-21
12
34
127
16
61
55
0
41
2
-127
7
-3
3
-7
2
-2
11
-113
63
10
18
4
-16
4
-4
127
45
36
9
-22
-34
-4
-11
8
9
5
-111
21
7
127
-3
8
19
28
78
-17
-75
-26
19
-12
7
6
57
7
-35
50
27
16
-127
-127
-3
127
102
-17
59
5
24
15
127
-36
-17
70
-15
-8
7
5
2
115
-127
5
-127
24
-10
9
88
72
59
29
8
13
-18
-21
15
-2
3
-6
18
-5
9
127
57
-58
58
-51
10
7
56
12
-4
-3
17
65
-37
-35
30
38
-93
7
127
-83
-2
15
33
-39
15
-21
23
53
12
7
14
12
5
-4
-33
-23
-20
1
101
8
-1
3
-93
-86
15
2
44
-18
-1
-3
-61
-69
-14
0
-97
1
3
16
60
113
1
-4
-54
0
-28
-10
79
36
-8
18
62
12
23
13
8
21
16
127
12
14
-30
1
-5
12
14
79
64
38
5
12
19
106
39
-11
-47
74
24
16
-27
-15
13
4
57
23
-7
29
63
-21
1
1
58
8
-27
-15
-34
-72
33
-16
-30
79
24
12
17
-37
-19
-1
-42
63
37
-3
-71
34
-41
4
127
-11
8
2
-110
-34
14
5
38
42
3
38
36
-22
44
-16
-23
-87
111
58
-54
54
-22
-45
34
-26
44
-22
26
66
127
-21
33
23
28
14
97
-72
-18
12
7
-63
-15
51
-25
15
-22
5
-12
-3
12
-8
-47
35
2
1
37
-20
26
15
33
-6
-4
15
50
23
7
16
20
-6
-16
18
26
58
-127
-3
-54
45
19
-28
-28
-84
109
10
76
-49
18
-7
-16
68
-13
17
15
-11
-20
-15
-64
93
11
3
-39
-10
4
-107
20
11
-8
0
-35
33
-2
9
-77
-37
-18
-8
-35
-71
6
4
-33
14
-5
-6
13
21
124
-12
3
-15
-65
-20
-45
21
-19
-15
-56
80
7
3
-26
-13
81
11
27
10
2
0
-38
31
-10
106
-36
-6
-4
-5
47
-92
21
-15
-42
39
7
18
-17
-12
47
-20
31
-79
-38
2
21
30
4
19
-50
41
63
-2
-103
42
1
6
-38
57
12
2
-47
-3
-5
4
54
12
49
13
41
-18
-10
10
65
19
53
14
33
-8
15
-5
-51
43
-2
14
-67
13
26
8
-65
10
-14
5
49
38
-30
2
-76
-19
-14
12
69
127
-19
-23
-26
64
-3
127
85
-70
10
-127
-10
10
-23
-90
4
15
-12
6
-36
18
-5
0
19
8
19
-20
31
-3
-53
8
24
-11
-86
-23
127
-6
-1
4
-12
32
85
-23
49
16
127
-8
-118
13
11
-1
1
-7
-4
-2
7
-10
-25
-11
34
-8
5
6
-5
11
22
8
39
-11
4
-9
25
-16
-45
1
-42
1
7
7
-14
22
33
-1
-29
-9
-10
-12
-17
-7
-13
15
-98
7
3
4
-3
9
17
12
32
-2
-108
16
-27
8
-27
-19
65
-28
111
2
106
-23
-10
-17
45
1
5
5
-22
-18
10
14
-52
4
1
-9
-8
-8
38
-16
12
-8
-6
-6
-14
-9
58
4
6
-41
-3
-12
-18
10
-18
7
41
14
8
7
12
-2
-46
16
55
11
15
5
-30
27
20
-11
-77
4
2
1
-11
-6
-44
13
56
12
16
18
-47
35
66
20
60
17
-85
19
-127
8
-44
-32
-31
-23
4
0
-104
-46
-47
-23
-3
-10
2
4
-54
-82
-6
1
-21
18
3
2
2
-39
-5
0
-63
4
0
3
-14
11
-10
9
-101
2
0
-3
-5
6
14
-21
-82
-15
3
10
2
-36
4
21
107
7
6
-13
-17
28
-5
29
65
-5
1
-18
-14
-13
-40
-14
84
11
5
10
-7
7
1
-43
-44
-10
-20
63
24
-2
3
-66
-57
29
99
-16
-85
29
29
-1
-27
-5
-4
-1
-12
-6
105
-6
3
5
24
10
57
127
-35
-15
81
7
4
10
-8
8
-31
11
-67
-74
11
3
-63
-2
-2
9
30
-15
-5
127
5
-18
-10
-13
60
7
2
5
-14
-17
0
5
51
127
0
11
45
-21
13
2
-20
12
-1
6
0
-26
-21
11
59
5
-13
4
-9
-3
-7
7
-104
14
0
5
-19
13
-10
8
-113
16
4
6
-16
11
-9
-26
41
10
5
18
-6
-6
24
2
-33
-15
-4
-7
30
-14
-56
13
-33
14
9
15
-18
27
127
-31
59
-15
-6
-18
-3
-13
35
63
-78
127
14
33
127
-7
0
1
32
-36
28
16
16
7
109
13
63
-2
-40
-120
31
-14
-7
47
-79
8
20
-18
-15
-8
19
-25
-14
9
-4
-53
11
-4
12
-1
32
-4
-7
62
-75
-1
-123
4
-55
-41
-31
-62
-12
4
-127
6
-68
93
-18
-127
18
-22
55
-127
127
35
-26
-59
-67
17
-27
11
7
78
-10
-17
-27
19
66
23
0
83
15
-93
-31
-7
-46
25
-109
-47
127
71
-107
-12
-2
40
-7
-13
-24
-25
15
25
-6
43
-10
46
19
-116
13
127
-14
83
83
85
35
-69
-75
2
-9
37
107
-72
34
84
78
-6
127
15
49
-3
-127
-18
-38
-121
-28
12
-44
1
-41
-43
-35
-5
14
-94
-67
-27
-4
9
-10
11
-21
8
87
-10
-23
26
-28
2
-35
-13
4
1
3
-5
41
-1
-6
36
-94
5
-32
23
-12
97
-10
-39
-38
-5
-45
0
4
8
-14
-127
17
-35
16
40
-9
19
67
-75
-22
-14
-38
25
26
99
41
25
-57
13
57
13
-36
32
7
-102
93
-22
-51
-18
-41
-1
45
5
69
0
-109
-87
77
-34
-9
-61
14
127
-22
-22
-37
3
-25
-37
18
-23
10
-25
25
-12
26
91
11
18
-124
78
-127
45
33
22
-127
-7
-88
-127
71
127
-46
81
77
-51
3
105
113
7
8
4
-40
24
-20
-23
9
10
14
-13
-43
-19
6
-18
-32
-112
-2
16
47
30
2
44
-58
-20
1
127
13
67
-13
-25
4
-34
127
68
-71
7
5
-69
7
-21
29
-17
-37
-23
-5
-4
-62
127
-33
-17
8
0
2
16
13
119
3
-8
-127
21
15
-127
23
-8
13
40
31
-32
89
36
-19
9
14
-39
77
-24
-6
85
9
-49
12
98
25
46
-14
-57
111
-41
-16
1
-4
-17
-127
-3
7
4
-36
0
-15
-2
79
-39
48
6
-23
-11
-90
-127
-4
-83
38
14
-34
98
-68
18
-28
44
127
61
24
15
-7
-127
6
-18
127
-14
-72
49
13
24
-1
7
20
-12
-61
27
-39
13
12
124
31
98
-10
29
-127
42
12
-127
24
49
-26
-31
-5
25
-35
13
43
2
30
64
-4
-6
29
-6
-54
-15
-38
-5
105
7
1
-20
30
-127
-74
42
33
-2
5
-87
-5
-60
-79
-55
68
-78
-11
87
-90
-53
41
2
11
-5
127
6
-40
-13
-68
2
-117
-1
15
-72
-53
66
-40
-9
-11
-15
13
1
17
2
95
22
-12
6
7
-4
-12
25
-51
-13
-6
3
-64
-13
1
17
127
127
53
-37
-14
48
-62
-47
-4
28
-13
-19
-2
-22
-94
16
-101
50
9
-37
67
76
105
0
-3
73
127
-45
24
-16
-12
35
28
57
-30
-19
6
5
-22
44
12
63
-28
11
36
17
79
-12
9
-21
6
15
-19
-20
5
69
76
30
0
-12
-75
-25
-53
-41
-70
3
15
12
-20
-16
26
-13
-42
7
-42
36
31
14
13
20
127
-15
-4
-32
-84
33
-122
24
38
-43
-15
2
21
-42
-67
7
57
44
23
-5
25
23
123
-127
12
-50
24
-24
-127
127
127
5
0
32
-28
127
16
-27
8
-7
-15
25
-46
-112
3
-19
20
11
68
127
-14
14
-50
-1
-67
11
30
-60
6
23
101
96
-122
6
-35
-20
0
3
-16
10
-8
9
-127
37
-13
-51
28
23
-41
127
-12
45
-8
32
-12
20
-105
-44
-8
41
-17
30
-51
-7
-41
-29
-6
15
8
-7
5
5
-54
6
-2
-28
-6
6
-23
-5
7
2
-44
38
-12
-1
-55
-2
-51
8
25
35
8
43
18
40
-127
-38
-39
50
-13
-29
26
-4
-36
1
23
-22
-62
0
24
-84
79
-5
-49
26
11
11
-23
39
-76
21
0
-51
8
22
-127
-6
62
19
80
127
45
-30
-5
-127
-35
-17
-74
120
-127
-127
-12
-87
-47
-34
15
31
-2
9
11
-17
-56
-23
-11
-27
13
24
90
5
35
5
-6
-31
-2
-8
11
51
23
-1
10
0
-78
-10
34
58
13
19
-19
-41
24
-9
-41
82
12
26
-15
-42
24
-64
-1
32
-85
127
-6
104
-12
18
-27
-67
-59
-96
2
-65
2
-9
36
127
4
-13
8
30
-3
9
-20
53
38
-47
-36
-32
26
-2
-45
48
-4
29
17
41
-15
27
-29
-53
-22
43
39
72
2
-21
127
-29
-20
-42
-11
6
-12
13
-7
10
50
-72
-15
-127
8
62
26
96
-76
58
14
-8
-127
-12
1
-6
-2
21
127
-70
71
-15
-67
3
-2
27
-5
55
13
-127
-31
-35
127
-36
-1
-101
22
39
4
92
-40
1
5
-110
47
9
-42
-12
0
48
15
-92
-9
127
12
-20
-7
42
1
-38
33
-28
-26
34
-8
41
12
-82
-61
-5
127
-98
35
29
7
30
-22
11
23
3
-38
1
-37
-36
-120
7
53
-23
70
-70
36
-127
19
29
-125
29
20
8
20
34
28
-35
77
-44
-6
58
3
-10
-101
16
-103
101
44
-29
-66
13
47
7
-74
-41
127
-75
1
-64
-44
25
-1
-76
44
2
17
-124
87
3
-6
104
61
127
127
-4
6
26
23
8
7
-22
-97
-25
-9
19
52
-11
-66
76
40
-81
-22
-23
-23
60
41
39
10
-71
-127
4
26
-127
2
114
-14
0
16
-24
18
-4
95
-127
-43
-59
-28
7
1
-6
14
14
-12
-110
-86
127
-10
-1
12
20
1
21
-71
38
-17
1
-34
49
-17
-17
-29
33
6
-1
-51
47
0
-127
18
22
-13
-8
32
27
23
-36
-3
-88
-14
15
-13
18
-27
-90
-124
-59
-10
-8
-2
2
-5
41
-71
-26
18
19
-7
-94
35
30
11
-2
-32
2
-47
-7
6
5
-51
44
-11
2
-17
-20
-2
-8
-43
-22
-7
-14
127
-70
64
-35
46
12
127
-26
-3
1
127
-87
-20
-4
-51
127
19
0
11
-6
127
-32
24
7
62
-53
-3
-105
-13
94
-10
-6
97
-28
51
21
13
-37
-7
-82
15
-81
3
33
-49
43
-127
1
90
5
25
3
-51
-20
30
-9
47
-98
-33
-14
-123
-17
48
-27
62
5
9
35
-19
-2
-23
46
9
-21
21
33
-60
-27
17
-37
82
95
-26
-8
-40
21
-5
-11
45
50
40
1
-46
-16
30
0
111
65
15
-27
127
5
-29
-17
-127
127
29
-13
14
34
67
20
-25
58
25
-10
-57
25
-3
-7
42
-17
-34
-64
-114
-127
30
122
-20
17
-127
16
-5
-17
34
-3
96
7
-20
16
-20
-17
-25
-2
57
-10
47
127
-64
89
7
31
122
57
-38
-40
-42
-87
20
-127
-54
32
127
-12
-77
-13
-47
30
-37
-8
-20
50
4
-2
-16
-12
-28
4
14
20
-37
127
-127
-127
-5
-8
-42
29
35
-28
81
-40
45
7
-10
-3
3
4
15
-26
-10
-5
21
65
93
-47
-65
-66
-105
5
38
-7
-32
-85
-114
63
34
12
-24
15
-11
-95
20
51
-48
-1
53
-107
116
24
43
-17
4
-20
0
-10
18
-14
-13
10
2
5
7
20
16
60
114
30
-31
5
21
-52
-96
-27
-30
11
0
13
7
-13
9
5
-14
-7
-19
127
-1
3
-5
2
6
-25
49
-32
13
127
43
14
54
12
127
0
29
-39
127
42
-9
-72
8
1
6
-7
6
-16
-20
5
17
-25
49
13
-60
55
-1
-27
-21
-50
-18
-28
-109
15
-5
7
7
96
-1
-4
-32
12
0
15
10
10
-23
-9
-36
37
10
-1
34
35
31
3
17
27
-21
-3
-19
-75
2
3
-55
-13
-22
-23
15
46
-21
-39
-127
3
3
25
31
124
-8
4
-62
-69
14
-15
1
104
102
73
61
-30
31
-20
9
-34
23
-9
-97
-24
-17
-5
-10
77
21
-7
18
-94
45
4
-39
-20
-127
127
15
-1
-22
10
-14
127
47
65
-40
-10
-27
-127
9
10
-11
5
32
127
-127
10
127
-60
9
-19
27
-43
24
11
-27
-28
-51
-13
-50
-57
-36
-42
47
64
101
-11
-34
16
21
45
-24
29
-10
11
56
-16
29
48
-34
-49
-73
30
10
-10
-42
6
-12
-34
-20
-20
-76
-55
106
-71
-77
-27
-2
-60
24
-26
29
-14
-20
47
37
-10
-11
115
16
20
-23
-15
-61
-15
-5
12
26
-44
-82
-14
-4
-2
-82
28
30
-16
22
75
6
-31
-20
-92
100
-23
8
8
43
-4
9
-65
18
20
48
-33
-30
-105
-18
-34
38
15
19
-72
25
22
-85
34
4
19
40
110
-109
-42
-5
-127
28
-127
-70
-48
-50
-11
-21
-39
-19
-10
4
-26
46
-13
22
-3
14
48
-6
-26
-5
-10
27
16
32
117
3
-47
-76
-9
-37
18
-81
-102
41
-109
-10
-4
0
27
18
-26
-3
-22
-122
-4
-55
60
57
-44
-44
-12
-57
-49
38
28
37
-23
-51
28
18
11
-17
41
19
-27
6
34
-19
-18
93
77
-68
43
58
61
-23
12
79
90
118
-44
-48
-122
-12
-12
-6
16
-74
-3
-22
5
0
9
0
7
84
87
21
-13
26
10
-27
22
33
20
53
31
-5
-7
12
56
21
-24
-62
-37
6
-4
3
24
-13
-16
-3
22
11
3
80
8
40
25
-10
-72
36
15
33
59
15
53
20
-25
3
24
-21
14
21
1
27
61
64
2
-62
62
13
-10
32
41
16
-14
69
-1
8
31
-44
-68
15
37
-46
-15
10
19
32
43
-14
-14
-66
-30
7
14
40
85
26
-4
25
20
44
67
39
-32
54
-14
-68
33
-58
17
-64
1
14
5
21
-27
12
91
22
11
-99
11
40
-19
76
-25
24
9
28
79
47
-8
10
31
-21
-47
-2
16
-51
-17
-10
33
-1
-92
-13
-46
12
13
-10
-44
13
4
-14
57
-84
-2
-82
24
-22
-107
45
1
-14
44
33
30
-25
-19
5
2
20
-10
-3
22
35
67
1
-61
-13
-47
8
7
-25
9
20
69
35
-2
22
12
-18
-27
-13
20
46
-21
14
62
35
-30
10
39
17
27
-72
-37
-20
29
57
-23
-12
14
-12
48
-39
4
33
100
82
23
-62
-19
38
100
-7
-127
-1
-28
37
8
9
3
-62
35
99
96
18
1
62
80
-15
44
42
39
-64
12
20
47
54
-6
-12
-37
127
7
32
-12
-3
-9
27
26
16
-11
-70
-76
17
33
46
38
6
0
-83
9
3
0
20
59
30
54
1
-31
11
40
-53
-2
4
31
22
26
-71
-38
58
36
-30
-83
109
-26
-10
7
-22
56
30
-10
-22
15
8
-13
-32
30
-4
-2
-16
1
-37
14
-11
-15
34
-22
-6
-19
13
29
-49
7
-58
10
-20
-69
-17
5
38
7
33
45
20
43
7
-29
50
21
-7
-2
31
51
-2
9
44
-22
16
32
-39
-2
-11
-1
-99
28
-12
9
30
85
-13
-10
11
-16
43
37
-56
-14
107
23
45
-57
-7
101
-16
-16
-127
-39
-17
-22
22
-18
127
-127
-27
-5
-101
23
-13
-12
14
72
-124
-24
-97
45
52
-24
-55
-29
-112
-23
-13
19
17
-59
25
-23
14
-34
-37
-15
45
40
15
-45
6
-94
67
22
-11
37
-6
12
91
-22
-5
46
25
59
66
-76
16
1
-73
4
50
24
46
82
47
-4
45
56
39
-13
-50
-53
-17
7
46
71
52
-22
-10
-3
-119
-24
-71
36
56
-5
-63
-55
77
-13
-19
91
33
33
37
-52
-39
2
-127
63
72
-42
89
71
-54
-28
-46
27
40
-94
-10
-8
32
9
-66
38
15
-49
27
38
18
6
-70
-33
-16
18
3
43
35
-40
-28
-7
13
36
-19
-10
-4
51
41
1
8
50
28
3
-52
-7
77
30
45
-21
-74
49
-8
55
53
29
14
-1
5
72
-66
24
46
-10
27
-7
-3
7
-103
14
45
-8
97
-37
5
-21
28
2
-99
33
-12
-28
-26
4
-59
-22
40
-9
23
-45
-52
-19
45
30
-38
-19
29
12
-15
-19
-9
5
-43
46
-7
43
29
-61
-71
-3
47
11
-1
-11
46
-33
86
0
-13
-24
-2
-46
27
44
-19
-9
-74
-8
12
-9
-19
-30
65
-7
-57
-24
-5
5
13
54
-6
-26
-21
21
-41
-11
12
18
0
2
-3
-50
0
18
-48
21
-20
28
-4
-17
18
78
-18
-25
0
11
-72
13
-1
12
29
-9
111
-13
25
-21
34
9
-9
-24
4
15
7
24
-5
61
-9
43
30
27
0
-14
-2
22
-13
-40
-18
5
15
50
7
28
27
3
46
-28
-19
63
-29
-53
-28
-93
24
-13
-84
-1
-10
-1
-107
18
19
1
-51
11
-8
99
-8
-38
61
-8
-46
1
3
2
-13
-49
74
-16
-24
-44
-11
-2
42
-8
-47
6
-12
-16
0
38
-21
20
-45
-9
-13
34
-1
11
-40
-18
-24
-44
-44
12
41
-10
37
-8
-26
-4
36
-13
6
-85
-39
-1
-74
8
35
-12
7
23
11
30
49
-8
18
-17
5
-127
-20
-72
21
11
-39
-9
83
1
5
-19
-52
-1
-38
6
6
-4
107
-14
93
3
-68
-11
0
-6
20
-6
6
3
-6
1
0
13
20
3
8
-2
35
-7
-1
67
-8
-40
123
1
-43
0
1
5
37
-3
25
-1
-96
-14
2
-13
-47
9
-17
0
-91
1
3
-27
12
38
-54
-5
-60
-17
2
-9
-36
5
-42
3
37
-31
5
2
60
-39
7
-14
-11
-3
9
1
5
-22
-11
-9
-52
-24
9
21
11
18
14
-8
-19
60
0
-46
-12
-38
-11
-4
38
61
3
1
-35
-2
-25
-9
-5
95
-2
-21
-23
-79
77
10
-89
-8
3
-6
72
-55
3
4
34
-10
8
11
-2
3
-30
21
-8
45
66
6
-25
16
11
-22
2
-19
-37
50
-23
-20
-34
127
-27
-11
0
-27
10
-32
-8
-2
-14
-127
6
-9
-45
80
-8
-35
-37
-9
-31
13
-6
27
9
4
-15
16
-66
-13
-1
13
39
-17
51
-8
14
-3
-17
-2
8
23
-107
23
-2
15
-3
14
16
-2
-25
49
3
3
16
23
-39
60
-11
39
-127
-16
-45
18
40
37
127
107
0
6
-46
33
-12
-11
2
5
21
-8
31
6
-127
-18
122
-20
-1
32
-88
-5
-41
-4
19
6
2
-9
127
-3
1
11
71
-18
1
-9
-10
46
-52
13
33
13
-16
8
4
-16
-4
5
81
40
8
21
18
16
14
5
-60
-28
-2
2
6
71
24
11
-21
-14
18
5
-10
-2
112
4
-13
-48
-2
24
21
63
-34
0
-3
-45
1
14
-8
40
8
5
37
-30
-2
64
-7
-34
7
-4
-22
6
6
-26
-8
37
-22
100
-28
1
9
-31
-28
-20
-64
2
2
39
-1
7
17
31
2
13
32
15
38
0
38
2
-49
4
8
-27
3
33
-27
76
-36
5
-53
2
-19
3
-17
-15
-50
25
-67
48
3
-86
32
50
-49
-9
-91
74
11
-10
24
59
-101
-7
82
-87
-7
1
-48
-9
-4
-1
-45
11
12
8
-14
-37
-75
-1
-43
-8
4
15
-1
-21
-42
2
-23
48
-1
10
-15
-38
-67
19
9
27
5
-5
45
-46
-14
13
7
-8
12
-2
-2
-8
87
-12
7
6
2
-29
-53
-127
-70
6
-9
-6
3
4
86
-26
-66
-3
0
-8
2
-18
-27
10
7
11
-106
11
0
13
5
30
-104
-6
6
-24
2
3
70
-33
-15
-15
4
-5
-1
-21
-40
-15
6
-1
-65
-2
5
-83
-6
-77
9
2
7
17
-1
7
40
-40
51
-1
-25
-52
2
-28
-3
14
-6
-11
5
13
-2
-3
-52
11
-42
18
-21
36
-108
-5
-35
35
-41
18
-73
18
-14
-5
-14
25
-22
-23
-20
29
-24
-11
19
-8
27
1
5
9
-13
-9
-1
-13
-68
5
-120
-37
8
-6
24
4
-89
2
-101
-10
0
5
-9
-2
-71
23
60
19
-6
-11
6
-26
34
1
-3
41
-3
3
-86
14
11
3
-7
40
-81
9
10
58
-12
127
55
17
-75
86
81
-5
-11
-15
-2
25
65
12
-17
50
22
-80
20
-114
44
-11
26
41
-17
72
17
18
49
46
23
-38
34
26
-11
-22
47
4
-17
10
74
-123
-127
1
68
20
-38
50
50
-48
-114
127
-4
25
83
18
-41
44
-43
122
10
-12
-48
59
127
-101
-51
-4
112
28
-127
-127
-13
-13
-19
18
-17
-8
-12
51
-42
114
64
-38
-127
-23
7
61
-24
-110
-64
-28
52
-85
16
71
10
2
8
-6
14
8
2
30
-14
-66
-13
-10
-62
4
17
67
-12
-33
1
2
57
-30
-57
70
-7
-18
17
11
-77
127
-26
24
77
-80
-31
107
5
-28
20
-8
20
22
71
-23
-56
-48
127
-48
-96
18
-83
16
-39
-32
-24
22
-13
52
-36
-22
-95
-27
10
-55
-13
-127
-8
24
74
7
7
-4
-127
-32
0
-59
34
26
-1
-72
-1
-35
-26
10
18
63
28
-22
90
-26
-61
9
-27
17
-54
-59
-41
18
-36
127
27
-11
-1
102
-1
-21
-77
33
6
-3
4
2
3
-58
-40
0
52
-27
12
-20
-72
53
31
-5
-27
127
3
-127
-4
-5
127
27
0
-1
-40
-15
-12
13
-6
-28
21
2
12
15
2
-98
-42
13
-127
1
8
-11
10
-15
1
0
-1
-97
-9
-22
37
30
51
-122
-23
-2
-5
-39
23
-14
-23
-19
87
111
-13
11
-127
0
5
39
-17
-43
33
52
50
30
29
-7
102
-20
10
32
-52
-31
2
-16
5
-25
31
-127
-40
-27
-16
127
94
-26
-1
51
46
11
-10
54
-37
-13
6
17
80
20
23
-18
29
-34
23
33
-73
46
-58
66
-127
-18
13
46
-19
10
23
-6
-46
127
-19
-20
51
55
64
-35
-5
-11
10
-33
-30
13
-42
69
70
119
-14
48
4
6
5
-6
18
-1
-127
10
13
-9
5
-64
29
3
-10
-8
-59
-127
127
-6
-38
-20
-1
-76
-1
1
-27
-26
-17
55
1
53
73
35
-15
92
65
-82
48
-73
12
29
38
-29
9
3
-2
-11
-13
-127
-54
-62
-31
-51
-6
55
2
43
26
68
-26
17
103
2
25
-32
-4
-3
-5
48
19
-32
53
4
85
-79
54
55
31
95
2
75
127
-47
-71
-64
18
108
-28
116
112
-5
20
19
-26
-41
-68
18
42
-90
-49
84
28
102
94
12
0
-33
-7
-5
-36
8
-6
-64
-109
83
-29
-9
-20
9
-33
-82
-22
6
-56
-127
-65
127
-100
-6
9
9
30
-6
10
-12
-4
1
-91
15
3
25
-127
-124
127
10
2
-55
127
-40
-31
110
-20
49
-14
-127
-9
34
97
34
41
-58
-86
-50
-59
19
82
81
46
29
60
-12
4
13
15
18
59
59
27
29
1
37
-22
-21
2
-32
66
74
6
43
91
89
125
6
-127
33
26
-29
27
19
30
110
5
127
-109
65
-127
-28
4
26
-1
68
10
-6
-49
19
127
-6
37
-39
43
38
4
-7
24
91
-15
34
31
-109
-90
-6
55
16
-42
5
31
-4
-37
-24
50
-127
-43
-56
3
52
63
79
27
71
71
30
-76
-91
47
93
70
-3
6
-14
4
-20
9
9
12
36
28
34
-26
-33
-105
-32
32
33
-92
-8
16
127
12
-18
-42
15
62
60
127
-49
-110
-127
-20
64
-3
16
127
49
44
21
-12
40
25
-125
34
127
-36
33
-23
-32
127
89
4
30
-21
53
7
-15
73
-30
31
-67
-15
34
31
-11
34
-39
18
-17
-16
5
-24
-54
3
-54
10
-64
-127
92
-28
-25
-106
-8
-92
41
-27
-25
-29
-29
-127
36
54
19
36
-30
-30
25
16
55
110
89
-26
-117
-57
22
-11
-100
19
37
6
-2
-42
-21
28
37
-48
120
76
46
31
127
-18
127
0
-41
-51
-47
-127
-22
2
92
16
-111
-30
23
-14
11
-12
14
16
16
-17
-23
-10
64
6
15
49
12
13
127
58
66
56
42
-46
-72
41
-2
-23
-24
55
54
-57
-21
90
25
-57
19
-34
-17
39
54
8
7
35
-33
20
-7
127
-19
-12
41
32
-22
11
-32
-7
-20
127
-1
-46
127
4
-31
-26
-14
13
58
-26
-12
87
-55
67
33
71
59
28
-2
43
-9
9
-25
-59
10
59
-12
21
-11
-7
-25
36
37
0
-30
-85
35
-9
-33
-21
-55
-27
22
-8
-3
3
0
15
-113
-7
11
38
-16
44
10
-70
2
127
-38
-32
127
23
12
82
-48
21
-6
-9
1
11
-127
27
-58
-26
2
-9
-11
-35
-11
-18
3
39
40
127
65
-11
-3
12
127
94
11
-28
55
40
31
79
-17
-10
-25
16
40
34
3
2
-39
75
33
39
-31
-117
-63
-48
-35
3
9
56
38
-46
52
26
48
78
-17
75
-22
-74
-101
-36
-14
-18
-127
-18
96
-5
5
-23
22
105
19
127
38
-93
-48
17
9
-68
-81
6
-11
127
89
71
-33
22
45
41
88
56
-8
-44
-67
-127
-29
5
-77
74
127
47
-8
-43
-20
39
-26
22
26
21
-3
24
-50
29
3
-10
0
-42
19
85
-43
-49
-48
-25
-26
2
127
25
1
21
-103
-6
4
127
2
28
-16
-21
3
13
-7
-12
1
-43
54
-76
127
-9
-4
22
12
-54
-62
-116
-44
-14
10
41
-81
38
21
14
-8
-15
82
-3
102
10
14
-72
16
17
-84
45
-120
-37
-38
-9
-13
20
-63
-73
-43
14
22
-35
-18
8
-7
-32
-86
48
-4
66
13
37
46
-18
2
-95
-78
-71
-34
-11
-46
27
-109
-18
-62
-49
-5
2
-31
-51
17
8
22
28
7
15
-35
-56
-39
-28
-45
6
-15
-7
-36
-51
31
6
8
42
-127
-44
-28
-11
8
56
33
-127
-9
7
6
-66
23
-82
-127
97
62
-7
-127
14
-127
2
7
-3
-117
-127
21
-127
4
-7
36
6
0
2
-6
-23
23
-41
-12
65
-18
-5
-98
-31
-50
-127
90
73
57
13
-68
-29
-44
8
-80
31
127
-98
84
-31
-33
50
26
36
18
15
57
-77
78
-102
-29
-28
1
24
13
36
127
0
66
-24
-6
-23
49
22
45
-21
7
24
-98
33
-6
45
8
-19
50
-17
-54
23
-127
119
54
-1
-54
-3
-40
26
-41
-39
-35
-124
47
-20
-34
2
53
79
-78
-50
18
34
-99
127
-99
-127
56
68
-4
-127
-46
20
7
49
-21
24
35
2
-95
-23
-5
1
-49
127
7
34
126
-60
-65
9
-47
-23
0
-69
22
-7
19
44
2
50
-70
2
-12
-27
-65
31
-64
10
127
-70
19
15
31
63
11
85
126
36
101
-39
78
-50
1
-42
-45
-4
-73
19
-68
-21
59
-72
28
-41
25
74
-6
6
0
63
46
-17
9
-16
-14
-84
6
-44
-38
-87
67
126
8
11
-31
73
1
19
-22
-6
45
30
-4
-127
15
-127
-127
-121
-15
127
-127
7
12
38
108
-76
-22
78
-6
-97
16
-14
-69
-44
15
29
-2
42
20
61
16
-50
16
42
-97
24
12
27
-26
-2
10
-10
0
62
-52
7
-18
127
-11
-115
-9
-18
7
-18
-18
-8
23
-82
-74
-6
-4
-6
-38
-13
11
-11
5
1
2
33
-4
27
-3
-42
13
-5
41
22
123
-18
-127
7
-59
-23
127
14
-13
68
-10
90
-9
-26
2
26
22
-63
65
-10
12
16
-33
-25
-44
-60
-68
19
15
-14
-67
-24
-116
28
117
118
-26
-38
3
-5
-49
-100
-26
45
-7
-2
31
-18
41
-11
-64
6
50
-7
-127
-78
66
-69
42
-15
-85
-22
-96
-8
20
44
67
-127
44
17
-38
-7
-125
4
64
-85
-58
-3
47
-47
-23
63
127
17
0
-127
-12
-8
-44
11
125
3
-127
-21
-8
61
-85
-42
14
42
4
-36
59
30
65
13
-105
-55
20
21
-10
-8
127
-25
-34
6
-10
-14
38
-10
8
-4
-47
1
17
-14
64
-4
-26
84
81
38
56
-18
0
-127
111
127
-18
56
85
