127
-127
-127
-24
-21
23
-9
13
-41
-21
47
0
10
2
110
1
-8
1
-11
17
-20
-6
19
10
0
0
0
0
0
0
0
0
-2
10
-3
-10
1
-127
-3
127
-4
-20
32
-59
-51
-64
32
-51
-27
-6
7
6
-1
3
-9
3
-33
1
18
-20
-16
-9
-5
-5
-33
43
61
5
2
10
2
14
12
-3
-4
16
2
9
-11
7
-25
39
-13
5
19
4
13
-2
-45
-78
52
36
27
30
-73
31
0
0
0
0
0
0
0
0
80
-45
83
23
13
13
92
17
-17
-5
-17
5
-3
34
25
-46
-3
0
9
-127
127
10
-4
5
-16
6
4
-6
3
-4
-5
-2
-7
1
5
3
-4
-38
-5
26
-2
-6
18
59
54
-100
-4
-64
23
10
-77
2
8
-17
-36
-16
-97
-43
-34
-1
-3
-3
-62
0
-62
-7
-92
29
-12
-13
127
19
-9
1
-1
6
-10
3
5
1
10
18
117
-27
20
22
-106
-38
-54
-127
97
-127
-8
-64
127
-127
48
18
-18
-90
31
-10
-38
-27
-53
-107
16
-3
-6
-102
-10
72
123
-46
-47
-4
-25
-36
-15
9
127
-1
-38
11
48
77
9
5
124
-49
127
9
-127
-17
62
24
-84
-59
94
14
31
127
96
-76
85
-85
71
-6
-115
28
37
24
52
127
45
36
-19
-114
6
15
-127
112
-7
-8
-76
127
-5
-18
32
-45
38
-15
61
99
11
6
-58
-6
-127
-106
69
-18
94
-19
-27
-3
-120
-127
-127
-16
102
0
62
-8
-111
27
-78
4
-127
127
104
-65
77
13
-30
0
-1
-71
46
-12
-90
5
48
-4
-92
110
-78
-15
-11
23
-21
10
127
-116
125
-127
10
1
-30
-16
10
127
-127
117
-55
22
-16
-19
48
94
-25
21
-14
91
127
-71
31
-20
-20
32
-15
-127
108
-102
11
-26
1
72
127
-7
118
127
17
0
-52
63
-4
-25
-82
-12
69
2
-36
19
99
-4
113
99
23
-19
-26
4
-127
111
-6
44
-42
2
-127
4
-15
-127
-36
-23
21
2
85
3
72
-89
23
-68
30
-39
14
102
-28
19
127
-127
80
-127
15
-127
-31
32
119
-107
69
-58
6
-17
8
-9
111
42
-127
15
36
-6
-11
4
-48
-61
-21
63
19
2
-2
7
92
14
-91
17
4
-32
-16
127
56
22
66
50
2
55
66
-29
112
36
-107
39
-1
24
105
15
-127
16
30
109
-10
-8
108
-12
10
-118
-37
43
2
-2
127
-29
-4
-127
-127
39
-125
-127
-36
22
-21
-125
-30
48
-3
45
98
107
-120
21
-25
127
127
-127
-2
-91
-29
-115
-28
27
127
-19
20
-94
100
-8
-9
127
63
32
6
127
60
28
-42
-74
2
-31
97
-22
1
0
25
-21
-5
15
127
64
32
-87
127
42
10
36
113
75
29
-92
115
2
-7
-127
12
-93
33
127
106
62
-23
38
107
-114
127
10
-30
-6
4
-114
15
-78
13
88
101
93
-88
11
23
14
94
8
-127
34
68
8
-112
-12
-111
-7
-50
-16
17
-23
-127
-24
-127
16
-18
-31
127
-83
-102
-90
-9
47
-56
-127
98
-101
-88
-87
-14
54
48
-93
36
127
5
127
-4
-127
-6
66
29
2
-108
5
-9
9
40
-10
-5
88
0
88
-17
-87
-29
65
-45
32
21
-23
-103
-73
16
11
42
-47
-14
-21
2
-19
13
84
-10
23
70
124
-11
34
0
-56
-3
6
-3
-31
-21
11
2
-10
-11
53
-66
21
17
2
20
49
-93
55
-37
-7
-74
-23
68
127
32
40
37
9
-10
-32
-3
70
-13
23
67
127
-12
30
1
-54
-41
-30
-37
-16
21
38
28
-12
6
19
-6
41
-53
26
2
-10
-24
-37
7
1
-127
-127
-25
-34
-11
-4
-28
99
-17
5
-7
-19
-5
-38
27
-10
-51
-78
-28
16
5
24
-24
-55
-3
8
2
-27
-24
20
-13
-41
62
25
-127
-7
-41
25
-127
34
-44
-5
32
-6
-31
-46
-20
-25
-20
-4
3
-31
-27
26
-19
-40
32
-8
13
-23
-22
10
0
-25
-14
28
-18
-36
-40
-101
71
9
-56
-1
-64
4
-84
38
-16
-22
6
-111
52
-41
-11
41
-19
58
23
88
-30
17
11
-55
8
-9
-17
20
-42
1
-16
-6
7
10
-33
-9
15
4
29
-20
12
-34
12
6
-24
24
-43
-127
13
15
-11
45
93
13
-43
-31
-63
3
2
10
-22
-38
12
3
-27
-79
-15
-14
17
-10
-14
22
-3
-11
77
112
26
-13
-22
41
-74
113
-72
7
14
-57
35
-52
32
49
-28
-34
99
-2
-46
19
84
36
30
31
0
-21
-14
57
-7
-22
36
29
-12
-47
-50
17
-22
-14
-51
-35
-39
-80
2
35
-6
8
28
33
-39
-62
-19
55
-8
-14
35
-10
25
-4
36
33
57
11
13
-7
35
78
-27
52
-35
5
52
114
33
-46
-37
-7
-17
-8
-22
44
-10
-37
23
-56
4
-30
0
12
13
73
16
3
1
-29
15
2
1
11
-10
40
19
112
-25
23
5
-27
11
3
-91
110
-24
9
4
20
19
9
-6
-22
-7
-15
-49
-18
-16
61
-17
-48
-20
22
21
-51
7
-44
-21
-3
-21
-27
49
-58
18
-61
-37
-5
57
72
-17
-64
40
2
1
-5
17
-7
10
38
-127
43
-45
31
43
10
-121
-59
64
6
6
28
28
-32
-16
37
-39
0
15
9
-9
6
13
1
3
-20
-26
-7
4
20
96
-55
-25
-24
19
60
-18
19
6
26
-47
18
-35
-5
-33
-2
-48
-43
44
-2
-25
-71
-32
-22
28
20
0
-3
-81
96
-14
5
4
31
-6
32
26
-50
-127
7
-1
16
17
-7
3
-67
21
15
0
2
-4
28
-16
24
-27
0
2
-3
-3
-38
16
26
-42
-30
-3
7
4
-28
16
0
55
-16
-1
8
39
79
-30
15
79
-55
9
30
-2
5
-1
79
-18
-127
0
-15
-6
20
-19
25
-21
4
2
-2
12
-24
17
-12
-3
33
-3
17
-12
-64
27
78
-28
-15
-3
-24
-9
86
-20
19
-114
12
1
-42
16
-5
-4
-32
8
3
2
28
-6
-7
-13
17
-88
-16
-17
-13
-7
10
-55
11
9
30
-3
-36
-79
10
-25
52
-31
27
17
73
-9
-29
-4
-17
33
0
1
-21
12
-26
-16
-6
-48
4
2
55
-5
31
2
-8
-37
-15
-1
67
23
-43
-25
-79
-14
-35
4
-16
-41
-31
-2
-67
6
7
-4
-16
-18
-20
-8
-15
43
43
3
85
-15
73
12
-81
-32
24
10
-5
19
-51
-16
-14
-10
14
7
-5
4
-50
51
-13
1
-10
-4
-20
18
12
-12
-22
-23
7
4
-4
-13
-10
-8
-21
47
25
1
8
-2
-40
0
-63
19
119
0
9
10
-5
-127
6
1
27
-6
-27
17
10
26
-25
-21
-45
5
29
-6
10
-15
127
-64
17
-5
-23
77
53
27
-89
44
-93
-9
-49
10
-45
9
-74
10
19
4
17
127
-10
2
26
9
2
5
13
-49
54
-10
-16
-36
-5
12
-26
-30
3
8
31
37
-7
10
14
-9
10
8
-18
20
12
-3
24
4
5
1
78
9
-106
-3
-23
2
-2
10
-24
-47
66
6
49
44
-35
-33
-94
-38
-53
3
-21
26
-5
1
-92
-16
20
-1
-5
-5
52
-6
-10
-11
-3
-1
-3
-1
-10
3
-7
14
-8
0
-24
8
22
-16
-3
4
11
0
3
-19
4
14
-18
-5
46
7
8
-18
-12
14
33
-56
-3
-1
48
27
12
-8
91
-36
34
-14
68
-14
30
-39
44
52
30
0
-3
-27
46
56
62
13
53
-1
8
-10
-3
6
-33
-3
-22
-127
24
28
35
7
-22
-17
5
-10
127
9
-6
11
40
-57
-7
-3
4
33
127
-4
32
-73
15
-12
18
6
-42
97
-5
-13
-9
-2
15
-3
-75
-8
-70
21
-42
9
-9
20
37
13
-59
-30
-12
-1
4
4
19
-14
-3
3
9
0
5
70
-6
34
68
-127
46
75
-22
127
-20
-72
-14
9
-69
57
14
36
10
9
-50
1
1
-42
0
-23
-19
8
63
59
-65
-21
-9
-49
-21
59
-21
-22
15
80
-5
-56
-22
-60
-4
96
59
-63
-55
0
-8
127
-22
-6
51
-37
-14
36
10
4
-51
3
-1
-37
1
-4
-8
-36
21
9
-8
24
23
23
-28
-4
117
91
-85
-4
-17
-31
55
-5
-12
41
-18
114
-16
44
-17
-14
-74
11
-11
56
1
64
-55
-64
24
34
94
21
-12
-50
22
-10
17
-29
-11
-12
2
-11
-17
24
-73
-30
-38
30
-79
-59
5
45
12
29
26
63
12
10
-15
-6
14
22
57
-49
19
-54
4
21
-9
2
-71
3
2
-74
10
-16
-35
14
-29
30
-10
-13
-61
-22
8
17
-34
-88
30
-15
46
41
18
-21
21
-36
44
-17
8
42
85
83
49
49
-30
-26
-24
-26
-1
11
78
19
-8
0
5
11
-15
45
0
-16
10
-21
-36
-15
-33
-28
43
21
-8
1
19
40
-5
-9
-33
-12
-127
-15
4
-110
35
3
-20
58
3
-42
-5
-31
-10
-55
-2
-8
10
78
-41
4
58
-76
15
-93
5
-111
5
76
1
22
62
3
-3
17
-28
-25
106
36
36
0
54
-10
16
-24
-34
7
-9
23
-4
18
77
-1
-4
3
2
47
-39
40
27
21
24
6
-2
-3
-14
-18
-25
34
27
-2
17
-20
-29
-55
14
29
-28
-16
-53
7
5
12
3
102
-22
-21
40
-72
8
18
-55
70
33
-87
45
-60
18
-94
17
-23
-46
18
-25
26
0
103
-4
-83
-25
18
-67
44
14
0
-21
7
-32
-9
4
6
1
16
1
33
-72
11
0
19
-1
72
-15
-24
-49
7
-27
66
-1
-2
-7
-21
26
16
-13
52
-39
-59
-56
36
24
50
-127
19
-10
-53
-44
-34
-77
-41
-41
43
36
-63
-23
-18
-49
102
-20
8
22
9
-16
29
26
8
-11
-4
2
15
127
-19
-12
-14
8
-127
-80
-55
-58
-23
20
2
1
40
-51
-42
21
15
30
4
21
22
5
-22
-27
-20
1
-29
-28
-15
58
38
-14
19
-27
63
11
6
13
-45
0
21
-6
37
12
56
-28
-1
-2
38
-127
15
13
-65
20
70
-11
-25
-53
5
-25
69
2
-61
1
27
23
-5
14
89
-24
0
6
-43
-18
8
-127
-48
49
58
-5
-20
-1
-14
-13
5
-17
6
18
-127
-127
10
-1
-3
-50
-127
-14
2
14
4
33
-37
-17
-89
-8
33
-20
5
-11
58
10
-63
-5
-31
-8
4
-52
43
11
63
-14
-27
57
-48
-31
-28
-36
25
-15
-37
-40
-21
17
-127
-13
78
23
56
36
-20
35
-40
-75
-2
29
17
97
127
-12
-5
126
29
127
76
88
-1
-20
-24
51
-63
8
-53
-15
-19
20
-14
-20
2
-55
71
40
39
31
-13
46
-28
0
12
-14
-9
10
-49
-39
-47
-12
-21
33
1
3
34
24
-40
-61
-37
7
33
-15
0
39
47
-11
-4
-9
3
38
47
-20
-11
58
-16
-3
-1
90
13
49
2
-3
1
6
-1
-11
-1
10
-1
4
36
-18
-42
-11
0
-89
9
108
41
12
-35
-2
16
-127
77
-24
-70
-34
-9
14
44
2
-51
-11
-16
-10
-5
39
33
10
-19
-20
3
36
72
18
-59
39
127
-50
84
-31
-127
2
38
-25
50
24
30
-3
-12
-12
-29
-14
-37
-17
18
3
44
41
-64
33
9
-7
-3
-127
-10
98
-6
62
40
3
23
84
-30
-127
56
127
88
-18
36
7
-95
23
33
105
53
-11
63
10
26
12
-7
8
13
0
-15
-72
-5
18
-29
68
14
-80
-3
-27
-27
-97
-38
14
-110
-80
127
-24
-24
6
93
13
-68
127
22
14
5
-28
127
28
-21
16
-11
19
18
-12
-54
59
-28
24
41
-19
15
-10
90
1
20
5
-16
-10
9
-14
73
17
-5
32
13
69
4
-42
-24
20
100
4
88
-11
-23
-15
-47
-57
-112
-42
-10
60
50
-25
3
-44
109
3
84
11
96
-23
-64
-53
46
31
26
-1
14
-13
-56
5
-32
49
-54
3
-15
-17
-38
-25
-41
-34
-121
-13
-86
-26
-17
-26
113
99
23
24
-46
-81
49
-59
14
16
15
30
62
-37
-21
101
70
15
124
-78
54
21
44
-60
-36
3
35
-38
-55
-85
49
58
27
-10
-17
37
-17
44
10
28
-112
38
7
-22
-1
-57
-3
-10
6
-12
127
-10
-13
22
-127
24
14
-15
-90
-22
97
-5
42
-34
-20
1
10
33
-82
-8
8
39
62
28
-61
62
5
18
21
-24
24
-26
-75
3
43
6
-14
-31
64
17
-55
-27
22
-13
-62
-60
127
23
6
33
27
41
11
127
-48
127
-24
116
37
-42
-4
73
-17
5
-87
-127
-35
23
46
13
-46
-49
-14
26
-47
126
-33
-23
-10
-16
-30
-26
-14
-9
4
12
-8
-21
-57
38
-127
20
91
-12
-37
-27
15
-49
-14
115
-10
-15
-28
-2
9
51
-37
25
93
-39
-17
67
-6
11
-107
-127
-49
68
-80
-13
5
-41
15
-18
-8
32
-33
-12
3
17
-6
12
-26
4
45
123
21
111
46
-8
-10
-100
1
-36
52
-11
24
6
6
20
-39
-14
75
15
-62
-10
5
-10
65
-1
75
68
13
-42
-63
-66
0
-71
15
-3
126
-57
0
-78
-1
-48
30
53
-16
21
-6
-25
43
-32
72
-52
18
-67
-58
-33
27
2
11
46
127
55
6
1
48
-17
1
50
-97
-12
58
-51
127
-64
-3
-63
-104
7
14
21
58
-69
56
-37
-11
-13
-11
-48
-29
-16
27
-87
6
-12
-31
-13
10
26
-28
-45
9
-9
-19
47
-98
127
-111
26
40
0
60
-91
24
37
-63
67
4
-126
53
-4
-65
19
-40
127
-44
27
-17
-26
-21
8
-13
71
-26
89
25
3
-70
59
-19
47
-28
18
19
53
15
7
-3
-17
-73
55
-127
127
-15
-63
62
38
-7
69
39
65
16
76
14
2
-41
15
48
31
36
-114
127
66
-72
-127
13
6
18
-33
82
-12
12
13
-6
19
-6
-22
-26
60
4
-9
15
79
-121
79
-97
105
25
-98
-3
104
74
-26
-69
-121
-28
12
2
-57
71
-26
47
-60
110
31
33
58
-36
15
57
0
19
-57
-47
-24
-62
-71
31
-90
14
-1
77
83
-24
43
45
-24
23
-26
14
17
-115
-65
-73
-55
15
-19
-23
-2
-15
8
-32
-38
12
37
-94
-36
-30
2
-89
-127
-38
-34
1
-33
-21
-17
-17
-26
18
-23
-127
63
-64
-28
-105
23
26
-82
50
23
-15
-9
-48
-27
-7
-54
114
-11
-2
4
94
27
27
21
23
-46
109
25
110
5
-127
113
2
-27
90
-45
92
85
-8
99
23
64
44
-16
41
-59
30
52
5
10
-24
127
69
-16
-29
25
22
-27
55
1
-37
-33
11
38
17
5
13
15
126
-39
22
-21
26
26
-45
60
71
45
-1
-83
14
28
20
10
-127
90
-4
25
-52
0
-127
-126
15
-70
-37
-127
-14
-127
-121
-1
1
-4
4
-86
-5
-9
8
24
7
64
-38
-9
7
25
52
-35
13
50
20
48
-14
10
39
-13
9
52
8
43
-43
-46
-56
-4
-56
-28
-16
-37
81
-45
-127
21
35
6
34
-72
31
14
53
59
-40
-31
-43
-39
47
60
20
-7
60
1
36
-1
42
10
17
12
4
-127
40
-127
-22
-14
-116
-8
-50
7
21
29
-54
-15
-2
-3
-32
-12
-34
2
-62
-10
-24
-101
-12
-19
18
-24
-58
35
107
6
39
-9
50
-39
13
34
92
2
36
0
15
8
-47
-16
81
37
-6
7
9
9
-66
-40
-25
-5
17
77
-127
113
-90
127
6
-11
32
-21
-77
94
-25
35
118
-18
-43
-6
23
42
-71
-17
1
-10
1
2
-69
-31
-46
18
1
4
-127
7
11
48
52
-21
29
-2
-24
10
-21
2
-10
23
-34
2
-33
-59
14
-32
15
81
-8
-41
-54
2
4
-9
0
-1
-35
-26
-36
-9
-8
-101
127
44
-4
17
-36
14
21
-39
28
7
28
7
-13
-9
19
6
-22
-52
-17
10
-14
67
93
80
-55
-96
-102
-4
82
-10
-14
96
37
-26
-30
127
-23
-9
13
-27
-58
-1
27
-45
5
-112
50
-11
5
-2
-74
-23
6
-127
35
-30
60
52
20
0
11
13
5
57
-16
-75
-100
8
1
14
-22
15
-27
67
4
-36
-12
-117
44
-72
71
-39
-7
-93
6
26
127
-127
127
-3
-10
-3
101
52
-12
84
-74
-3
-17
-41
-10
65
30
9
-50
30
7
-11
-127
7
17
22
-65
2
59
5
-12
17
-68
9
-47
14
-21
-8
-5
-18
-3
56
-16
-5
-8
12
-4
8
46
78
-31
124
7
27
-29
79
22
-55
55
-1
-7
-2
-30
13
12
-37
14
-118
11
-127
-17
29
-67
-25
74
1
-28
14
-15
20
-100
-45
6
-10
4
5
9
-30
-32
-34
34
-92
-31
27
-55
-58
-83
56
-66
-13
-36
18
-77
30
-18
-88
53
127
32
-13
-11
-12
-38
-3
-8
-1
64
1
10
-24
-14
-26
33
-33
127
8
14
-38
-24
9
24
110
-9
66
-13
-74
37
50
-62
-3
5
4
-60
-126
-28
37
-40
-18
-37
-35
-28
-1
20
14
60
-16
1
28
-11
67
16
-40
127
50
22
-9
-19
4
17
-50
1
49
-6
24
18
26
33
-85
-3
38
-104
4
105
-1
-2
-4
55
-8
-127
10
-79
60
-76
-34
-55
34
-21
-11
-54
53
13
-31
20
46
17
-35
-7
-5
55
-38
-22
-9
-17
-27
127
49
-8
-44
-41
-1
61
9
-36
0
-37
2
-71
-59
33
127
2
-88
15
77
2
-127
-20
47
11
-109
127
65
-4
25
-83
-35
-19
-76
15
26
-24
-23
-5
8
23
-25
-91
6
-24
-12
4
6
0
-11
-8
48
-24
-126
-27
-1
-48
-40
9
3
10
12
12
-21
10
63
116
-123
-8
74
63
6
-24
-70
85
52
10
-99
9
21
40
127
-92
-127
-72
93
42
-27
0
72
75
-64
-19
41
-40
-69
-3
-7
-1
17
15
31
16
24
-25
-97
-85
36
28
-35
95
-40
-32
20
-105
-38
26
62
-41
-24
-13
30
-27
-59
50
0
5
61
-3
63
12
13
22
77
7
15
10
2
48
0
-1
-30
-1
-34
13
52
27
49
1
-24
-21
29
5
30
-18
34
6
21
-10
29
35
29
-15
18
4
42
-5
127
-1
-33
-14
-62
41
-9
74
11
7
-2
-34
28
-12
-22
41
32
-63
56
6
3
-9
43
6
-21
35
12
-12
-31
25
-6
-28
-32
-7
-33
-24
39
-1
-49
-77
-7
4
68
5
19
8
-98
6
-9
56
29
38
-17
17
-44
27
-88
27
-9
1
36
-20
-45
-75
73
-14
-20
-2
12
-59
6
11
16
-5
-12
9
-7
-31
-31
3
2
-11
-19
-1
12
12
-107
43
39
16
-1
-16
0
5
0
97
6
31
53
-62
-17
1
127
46
2
-6
28
-22
-27
-9
-107
-17
-12
19
119
-23
7
8
-13
-60
67
6
-21
13
0
32
-5
-79
-3
11
-6
48
19
-7
-126
-25
40
-23
-18
8
2
-39
-6
-76
-19
8
68
36
5
5
-107
-39
33
50
-68
-52
33
-1
30
-50
-49
-32
-97
8
127
6
93
32
8
-127
66
6
-9
-2
34
32
14
14
60
2
6
-12
0
-31
52
-71
58
10
-19
-3
34
-14
46
-4
124
-2
24
1
-19
18
10
13
31
-18
23
-18
1
36
65
5
1
-2
14
2
1
-47
-2
-13
-49
-1
-8
-7
22
4
63
-23
75
36
3
9
-7
-18
8
-15
-31
23
-9
-11
-41
-36
59
-3
-34
11
-21
-1
7
54
-21
0
-84
52
34
13
3
-3
52
5
14
-5
-19
7
-61
-97
83
-36
65
-39
-36
-127
104
-83
102
-10
-27
22
-20
16
-2
-106
40
6
23
-31
-7
-107
47
-127
-41
4
59
-29
-12
-35
52
24
17
29
2
-9
-84
-28
-36
13
-29
4
-5
-11
-25
-3
9
-96
0
1
44
-7
14
-10
-111
-43
7
-6
-76
3
-31
-7
42
-12
6
15
127
-12
4
17
21
-57
30
-12
-48
2
23
4
-86
23
-69
-10
-30
17
-28
4
13
0
-23
-18
17
3
36
15
-47
-46
2
6
3
-18
14
-55
32
-73
-73
39
14
29
-21
38
-36
4
43
3
63
-18
34
12
48
20
41
66
40
30
25
2
-66
67
8
2
9
-20
-1
-5
-80
-56
-26
1
111
40
16
-5
-71
-66
6
-24
-29
-127
-46
1
-60
11
60
-61
28
-5
16
24
41
-32
40
42
-2
5
13
-23
-45
124
-83
-68
-18
-44
-21
-15
-92
2
-20
-5
-43
0
-114
-21
-41
-23
26
16
87
-17
-30
-1
-20
-64
46
4
6
-25
-11
-79
60
34
-2
40
-19
3
-1
-4
-85
-11
1
38
-17
19
76
-15
-67
-2
-30
-12
-75
-22
71
1
13
6
-57
29
-50
-14
60
-39
-19
5
-67
-77
-53
3
-46
27
-45
-4
-8
25
-19
0
127
-3
-10
-27
6
6
43
-23
-48
67
-30
-88
-9
-5
-17
6
-57
-60
37
-7
-18
-34
-12
1
17
-2
27
28
-40
49
-102
-22
-17
-38
52
-18
41
97
-28
8
-1
71
12
0
29
6
15
12
-3
5
-65
-66
5
16
-47
10
48
-35
-9
-4
-15
-4
-2
-32
66
-12
-19
124
6
3
44
8
56
75
3
-5
-16
-16
-82
-28
-25
0
23
-1
-5
-13
-8
44
-17
3
15
9
17
2
18
-2
-49
-26
-8
3
-32
19
3
14
-14
-5
54
11
9
47
-29
-127
25
-24
-51
14
-4
9
-52
16
18
-35
19
-3
-27
33
1
7
25
-3
25
-5
29
-16
53
-12
-12
-2
-43
127
-2
13
47
-2
47
96
-9
7
14
-9
26
-13
-45
23
9
0
-36
-2
11
15
12
-31
52
7
127
-18
63
7
102
-59
15
0
-32
30
18
3
2
-8
-1
0
5
8
-76
22
-32
3
-9
-6
-5
24
53
12
-22
8
-14
-4
-7
37
16
30
77
-6
-50
13
-14
-29
-57
3
-56
12
4
-2
-1
54
-19
20
55
-12
1
-13
46
81
12
43
61
5
59
-3
-27
-17
59
-20
-59
-8
26
-3
-29
-72
-100
-10
-51
45
-1
-10
-9
20
-46
8
34
-53
-24
16
-38
-127
-32
7
-91
33
-127
-12
-30
6
-42
-2
109
-15
-53
46
22
37
20
-18
-16
17
-20
-1
44
13
17
24
-39
-1
-16
27
23
20
6
6
14
43
-38
-43
13
7
-30
30
-1
-9
-51
-1
3
-13
-10
35
19
-30
1
11
9
-17
-64
1
23
-34
-8
15
22
-7
5
12
-12
14
-57
-4
41
57
-18
37
-21
-2
26
13
0
4
-18
20
27
-30
11
-3
13
17
12
12
26
1
-100
12
76
-36
-28
-3
-47
-12
12
-12
12
7
23
-23
16
127
-2
15
2
30
-17
-4
-16
27
-5
-12
6
-13
-23
41
51
13
-25
-4
-6
38
-4
40
44
-4
-58
14
6
37
-56
6
61
-117
-3
6
8
18
0
42
-8
-22
0
-2
26
7
21
9
52
-2
-21
0
26
1
-22
-93
-27
7
-10
-2
-6
26
70
44
54
-30
9
61
1
8
-13
10
94
22
6
-42
33
30
24
-47
49
23
-40
13
22
-7
-127
14
77
63
-26
5
-38
9
-3
14
39
51
-9
8
15
18
24
15
-25
15
-4
-9
-20
-11
-9
-84
58
-39
-78
7
39
5
11
-3
46
-4
12
20
-75
-59
-23
11
-43
-13
6
-4
-77
53
25
-18
81
29
26
9
-9
-45
56
59
49
22
-4
-13
35
-45
-45
25
-2
-42
1
30
-59
-127
-12
72
-24
-24
-5
-30
31
-48
17
-8
17
56
127
-49
-2
13
-20
38
74
-51
-2
-79
-8
-10
26
127
12
-32
26
-98
56
-123
31
-32
127
42
-49
25
-29
13
-5
-2
1
102
11
3
-9
-57
-2
3
4
21
30
2
10
44
-12
22
-4
-10
0
9
-29
30
-3
8
-10
-61
-20
-127
-2
-35
-9
9
-25
-1
-23
48
-20
35
0
11
12
-43
32
34
-2
7
-86
16
-11
15
-17
70
108
32
-6
-17
62
-105
10
29
-35
12
5
-7
35
-53
9
1
-4
-49
-27
-24
-10
18
8
7
17
63
-43
-28
-47
1
27
-76
-84
16
-5
29
-5
71
-6
12
-2
40
-2
18
-25
-47
-55
-21
-76
4
26
-57
-19
127
-3
77
-33
15
-17
17
50
104
-33
-14
5
31
-29
73
65
-48
-7
-28
-36
57
-22
1
55
18
9
74
-2
-23
5
-40
-22
7
-17
-32
-35
26
-7
-9
44
7
9
-11
23
10
-33
29
32
20
11
-85
-7
-43
5
-8
-19
28
-23
-121
-32
25
7
-51
-67
16
-16
-106
66
-78
-6
-14
83
-41
-23
-74
-72
54
-23
-5
41
-7
0
-31
2
11
-15
30
15
-13
6
-41
15
34
-12
-81
2
11
-6
61
-24
-64
-36
-17
107
-8
6
-60
35
18
-25
-35
23
3
9
-21
-107
-79
3
-21
6
-58
111
5
-11
-98
-28
6
12
-15
-22
-12
-81
-29
-11
-3
1
-59
100
-53
-103
-53
-21
-37
-12
-63
45
19
-38
34
-30
29
16
25
-24
14
3
84
-63
35
15
-9
14
-7
-34
-17
22
22
-16
107
-1
-63
37
-54
24
-23
53
-28
-15
-4
-20
-9
-11
-21
46
21
10
-80
10
21
2
-11
-76
49
8
10
-7
-7
-13
113
52
-18
17
-17
56
-33
-21
21
-12
-20
5
-4
-41
-15
-9
-15
-4
-37
31
-16
-2
14
-23
6
-20
-15
-71
5
30
-3
5
2
29
-17
-1
2
-33
-51
30
23
54
-44
-14
-16
-49
-14
10
-5
-9
-13
-11
3
-58
-17
-42
17
50
58
1
21
92
3
54
-13
-13
97
-16
-56
-16
39
-49
-12
26
-24
12
-8
29
-11
4
23
-13
-8
-24
-3
127
-96
-127
42
85
-69
12
-84
-42
55
2
-2
91
46
39
25
16
-5
-1
2
50
52
0
-7
-31
-42
-7
-27
-9
-16
101
28
-8
16
-23
19
49
-34
5
60
21
0
109
-30
9
26
-4
0
19
-31
8
-33
10
-3
25
25
3
2
66
-11
10
9
6
-30
94
-7
56
65
-3
-50
127
6
1
59
-80
27
-15
-38
-17
-5
-9
43
28
33
5
10
18
-85
-33
-22
-38
127
0
14
1
56
127
30
-127
6
-4
48
16
-16
7
-14
25
60
3
-29
-8
-4
0
29
-3
100
-7
-21
-13
21
31
-71
36
36
-21
127
39
10
15
28
-125
93
-1
62
1
26
-67
53
100
33
-3
-5
25
-17
-36
-32
66
45
-38
80
38
-127
7
19
-7
-89
5
-20
5
36
-25
-19
23
-4
-19
35
-18
15
-114
-21
-11
-81
30
9
48
11
-21
-19
-100
-8
0
-16
11
-26
18
-40
-78
-72
9
49
-2
-38
-16
-63
9
-84
-127
26
-17
-25
-33
127
-13
-2
-7
39
12
1
19
-19
-72
-67
-33
-8
25
-36
85
-7
2
7
6
-38
5
-67
-42
-14
-37
103
2
0
-11
2
-127
-5
-35
-45
21
-91
50
-34
-10
-43
-78
-47
47
-23
-82
-8
41
-25
-1
124
-15
49
-28
-127
50
19
25
-52
-16
49
-101
7
82
-14
-7
54
13
0
-41
16
4
-1
-3
43
127
93
8
-9
2
-33
127
-11
30
-5
20
-2
69
-24
16
117
23
-11
84
13
-19
-37
-11
-26
-19
37
0
-17
-20
9
-12
-30
53
-31
55
-113
16
-53
-15
10
58
-18
40
-29
-67
127
-27
-61
-49
-124
41
2
-120
-13
12
-114
-53
13
2
-30
69
127
8
127
-37
-1
19
12
16
3
7
26
34
-46
1
-10
9
-6
-17
-7
-15
28
49
-88
26
-38
-11
59
41
-45
39
-2
98
-4
-38
74
-26
-16
68
-34
-21
-30
33
-105
-5
127
-41
-2
-4
-66
0
-26
91
69
-4
-10
17
104
0
29
-72
-64
28
25
23
17
-10
-39
7
-23
89
-11
9
-15
-38
-32
-34
84
-127
0
39
0
-102
-5
-13
-21
17
-94
-17
9
23
-50
58
-8
-16
-32
-12
-37
-22
-39
26
-7
-96
-9
-7
-10
127
13
-127
13
-121
-3
-61
-36
14
-59
-30
127
-72
-37
25
12
-16
71
-37
-10
31
60
0
7
36
-8
51
9
22
-92
-17
-9
-19
51
24
-9
-25
36
-38
-10
-33
59
-30
12
16
127
18
12
-5
-27
-15
9
4
40
-22
27
-43
-90
-49
-1
-37
4
-127
-34
2
-10
1
-11
68
24
-87
-62
-99
-19
126
-7
-66
8
-8
4
-72
53
69
9
30
3
-77
18
127
-85
-90
-7
110
40
5
0
-40
40
-14
16
13
-12
-15
-41
-35
62
25
4
-14
-4
-83
-7
31
83
-27
76
107
-25
-12
-3
-10
78
-31
4
-39
16
-51
-11
47
45
91
-32
-127
-15
-23
-30
9
-47
-16
-16
15
-29
-17
-46
6
-39
10
6
-12
-38
17
127
-5
-27
93
71
0
-75
14
15
-22
-127
-75
15
73
26
-5
22
35
55
23
-17
2
21
6
-21
41
-5
-6
1
2
-66
51
32
24
-3
31
45
16
-16
0
11
-28
13
-3
-16
-11
-127
-88
38
-13
48
51
45
-2
2
-1
-9
4
-17
-9
0
-5
3
-4
18
20
8
13
-6
27
-3
47
19
0
10
2
7
3
11
28
0
127
22
-5
6
0
3
-26
-4
-7
-14
0
-7
-12
-15
57
-33
-37
1
-2
-6
-33
-1
11
27
0
127
-127
26
-127
-84
98
30
107
55
23
127
81
-3
4
-35
-45
14
-4
-7
-6
115
55
-76
-63
38
12
-110
51
-10
-23
-18
-29
-5
-5
-5
-21
1
-27
26
-12
-16
-9
3
-31
49
109
9
-79
74
-3
-89
21
7
-11
-38
-2
-4
6
-11
-13
-109
23
-15
61
23
-8
102
-30
1
-35
13
-22
21
8
2
55
26
-127
127
5
24
-35
-11
-26
-79
-25
-110
72
1
-43
124
0
-20
-10
-1
-5
13
4
-5
-3
17
21
-12
-30
5
-4
-8
-4
-1
31
18
19
-10
23
3
-11
-4
-54
-29
42
-58
5
-77
1
21
1
-27
-22
20
-127
2
74
20
-32
-31
46
-58
39
-42
7
-12
-17
36
1
17
1
-48
17
7
8
38
19
8
-14
-6
13
29
-19
-28
0
-8
-9
-3
-12
30
34
14
-10
-17
10
2
-27
21
14
-40
-34
11
-11
30
-12
2
-33
91
-51
-10
-24
43
-3
-12
-77
15
29
32
18
-47
38
-20
-22
127
-41
-127
-12
9
114
8
10
20
-41
-8
-7
-50
-19
20
6
34
111
121
18
-111
-48
127
-2
75
-112
3
-6
19
1
-2
-3
-9
-58
20
2
39
-27
-10
1
46
-21
87
-28
52
-43
-35
15
-4
-32
-13
-3
-28
-13
34
-43
-72
127
-124
18
-45
42
5
-5
-82
-32
-2
-2
67
18
0
11
56
-3
17
3
127
-8
-2
127
55
-11
-67
31
39
127
16
-28
-25
-14
15
7
26
-20
60
-7
-11
27
6
4
-7
-8
-63
15
-6
7
16
33
99
-11
-59
127
-74
64
-107
101
-32
6
-19
39
-85
15
-13
22
96
53
-11
22
81
94
9
-21
-82
11
19
2
21
-93
18
3
-52
57
18
-10
51
10
127
44
54
8
9
15
-35
10
53
-117
-3
-6
-58
77
35
58
-14
24
-66
87
1
30
14
-24
-73
13
12
-6
127
46
-53
-76
50
34
-67
6
47
-29
8
127
-55
0
3
2
58
-124
-27
38
62
10
-103
1
-25
-9
79
98
14
11
69
127
-31
-54
22
83
-6
12
127
-25
8
-84
50
-3
-25
-24
-45
13
-23
4
87
-68
28
31
42
36
68
63
79
70
1
22
92
-25
-31
-90
21
99
96
22
-56
4
-21
51
-127
35
-10
-2
-98
-17
57
69
-30
35
16
4
-48
-11
-35
-26
-117
0
-19
9
51
-19
27
-20
-73
-50
-40
28
-47
-35
65
-31
57
-15
34
45
-98
-4
22
38
-52
-14
-69
127
-21
-22
-18
-21
-4
15
-33
59
-14
-18
-1
-9
-4
-47
13
51
127
-82
127
-10
91
-1
-92
14
-16
-3
83
-14
-27
-19
51
-23
-22
-63
4
47
34
-46
-22
3
-24
9
2
21
-127
6
23
6
6
20
-16
127
-11
-35
43
39
26
-27
-7
-30
45
5
-127
-6
-2
-8
-6
2
17
41
-8
10
-30
15
-21
-31
-113
-49
-33
3
-15
15
-18
2
-12
-127
5
17
64
-24
103
-1
-41
-78
-8
-12
-17
-2
19
-2
86
4
78
12
58
9
-79
-4
-1
-61
-34
2
88
-39
23
31
1
-2
-7
-55
-21
24
34
21
22
3
47
4
-71
-9
-55
42
45
-42
36
-16
-75
6
74
61
-43
41
-20
9
60
12
2
29
80
-47
75
-24
53
-60
0
10
5
8
7
8
20
0
-80
11
2
67
8
-5
-70
9
54
25
48
89
59
19
-110
127
-41
16
65
-6
-56
46
-9
15
-39
-16
18
-14
64
-127
-1
-8
62
-44
-61
-5
22
-127
7
28
-127
-12
93
-21
17
-37
96
-8
6
-11
-7
12
56
-61
-9
-36
9
-10
-34
-19
-29
-80
73
-3
24
17
32
8
-47
-25
-15
-64
-3
10
36
0
-14
18
-9
50
-71
-20
-118
-7
-53
83
11
-64
-10
-9
-11
0
31
-60
-8
-20
-4
-8
-127
5
8
-22
-9
-20
6
1
84
3
-84
13
-42
127
-19
-8
-37
127
-14
-69
127
-1
35
0
35
-48
-26
93
-84
69
-9
-1
48
0
37
-37
72
-14
22
-6
51
-30
13
88
53
69
2
-127
70
9
-127
39
-16
-126
-2
11
13
16
-16
11
-115
1
17
30
32
-10
-22
37
-10
-60
17
17
-3
-8
-55
67
74
20
98
13
48
16
27
19
59
-71
4
-6
-53
-33
-44
-48
2
-37
-10
11
36
27
31
100
-67
17
-50
18
-22
25
18
76
-18
11
17
-16
23
8
72
-20
-16
14
40
0
-98
2
-50
92
14
-89
51
29
-9
-78
-127
-10
34
-67
16
6
-58
-60
-46
-5
35
-56
22
127
24
9
43
-2
-127
-2
10
31
42
16
-65
52
33
14
-4
13
-19
-37
73
-11
-3
-5
38
-10
3
47
-6
11
1
-11
111
-18
-18
-35
12
-27
0
-21
22
-77
24
32
-35
-19
41
27
-127
-23
17
-85
-21
31
-16
-59
14
-11
-14
-11
-42
-23
-57
-2
-33
22
-20
4
17
-62
8
-16
-70
-61
39
-5
1
-127
85
-27
-8
-89
22
4
81
-1
-7
8
-7
97
-14
-29
-97
-77
-14
7
1
-8
25
16
34
12
-14
33
17
-48
21
-1
-26
11
19
-9
11
-22
91
-17
50
-80
-89
0
5
22
6
-29
-5
24
-41
-45
22
-9
-56
-16
32
-47
89
38
24
2
0
-16
26
22
-32
1
11
41
-16
-29
-36
59
21
-18
18
41
127
-17
-21
53
88
-12
34
-95
22
-43
73
-3
0
-46
41
15
-11
127
51
-19
-10
-127
-14
-21
-25
-31
-28
25
73
19
70
45
17
63
-7
-42
20
11
20
4
-19
1
0
8
26
-1
-57
-127
-26
-77
-26
-55
-18
-3
47
33
21
-45
-9
-53
1
19
9
24
50
17
8
20
11
26
17
17
41
13
3
-27
117
30
4
0
-31
-17
-1
-5
22
12
-12
-36
127
-36
-18
1
-27
127
-20
9
-23
-45
16
73
10
40
97
115
2
127
127
33
-20
-18
-11
48
23
55
66
127
-45
-6
-11
-18
-2
7
11
22
0
12
0
59
4
74
37
69
6
42
-24
-26
100
-9
2
-72
-104
17
46
68
12
5
13
-18
-11
4
-56
-94
34
-79
20
-37
30
15
-63
-53
56
31
15
-22
-27
13
53
43
26
47
6
-69
26
67
-4
18
2
20
16
16
14
8
-52
-10
11
-31
-17
34
-1
21
-127
-94
-1
-121
0
41
31
0
10
-5
-17
-7
8
62
53
8
2
-2
-29
-13
-3
-75
-127
-60
-64
16
-2
-53
-5
41
0
-10
20
16
-5
-7
-1
-9
7
11
51
-15
113
-31
-37
62
-2
31
21
-16
-10
-9
3
-9
-22
-9
-2
31
-2
-22
18
-11
11
127
33
19
-33
-14
-85
127
-57
25
8
-2
-127
-6
6
21
6
-9
-11
-3
60
32
-13
21
27
15
9
-7
-13
7
-1
-45
-29
-8
7
-23
-10
16
-5
17
-26
-16
-4
-12
-34
60
-47
-42
-39
24
-117
5
-50
36
-5
9
-88
16
-15
27
-40
19
21
-35
-1
21
-16
-8
53
58
0
-1
-7
-36
-74
-7
119
0
24
-39
13
56
-18
-17
-39
48
34
-18
-4
-14
-23
-22
36
26
-1
-15
35
-5
18
-10
27
-3
13
-27
-16
-5
-18
9
-18
-5
4
98
12
17
-11
9
18
21
-16
-20
8
2
-6
2
14
-8
10
-46
-19
16
-1
-18
-17
13
10
-31
-38
-11
-25
0
-18
3
34
-27
29
-2
-13
4
38
-29
-16
40
1
3
21
-43
-17
36
-35
-11
-28
-19
-8
14
-54
-35
20
-16
-37
47
3
8
13
-30
-64
-34
-38
-33
-26
-19
15
46
40
53
-18
-28
-17
-16
-62
31
-10
13
-52
-64
11
8
2
-19
9
5
35
-66
21
26
-90
11
51
-15
33
29
-13
-9
-87
14
-58
-17
-72
80
-1
-24
33
-46
-46
-89
21
6
16
-5
-2
-92
-11
23
22
-30
-41
5
-35
86
-64
9
6
21
28
8
-4
-2
-19
6
12
-1
22
-21
-51
16
53
-11
0
0
-16
11
19
62
24
9
-19
33
3
27
-17
39
86
64
28
4
-19
-30
7
-26
-9
33
-18
-12
77
-5
10
-17
-21
28
10
-8
-71
14
-12
37
7
-23
47
31
-4
-15
-120
41
-13
-57
30
-32
5
-4
106
32
-6
19
3
14
-59
18
-37
-8
-4
-22
17
-1
4
-60
65
4
-14
15
127
7
22
-24
-7
-62
-39
-28
-27
-7
19
7
-13
0
-109
-40
26
-2
15
23
-67
59
-32
-37
50
4
72
13
8
-31
-11
-13
21
-15
-30
-13
-36
43
-127
11
10
12
9
-17
-86
72
47
-7
-37
26
10
10
-31
23
0
11
1
13
-82
-22
-5
-28
-26
15
1
10
24
-19
-9
26
-13
2
-25
-1
-17
3
-8
121
-20
17
14
-16
78
-127
1
-89
-36
31
-11
122
3
66
-8
-17
-43
17
23
10
-21
65
12
55
8
-25
7
115
21
13
24
-21
26
43
67
-104
-63
-27
90
50
-59
3
-25
9
27
-35
34
-1
40
-22
-8
26
16
-7
22
48
3
25
-33
22
17
-5
-68
4
13
46
2
24
44
0
52
-6
-30
-4
-40
4
-9
-29
65
36
22
23
-55
-12
-17
-6
51
127
-25
61
-56
-16
119
-26
-30
67
27
45
25
26
-25
-8
-19
15
2
27
-14
-3
14
-14
-79
-10
30
9
-32
0
-15
-7
68
11
16
-10
-6
-17
74
-10
-26
20
1
-15
12
24
0
-9
-72
-97
43
-12
-11
8
7
-21
-107
-32
14
-26
-21
15
-13
8
78
-71
11
-10
-21
9
4
-28
-30
64
7
-10
-38
34
-12
-3
55
60
-22
13
15
-37
-23
-11
69
9
-6
-99
-16
-14
127
37
12
64
-31
-56
-58
18
15
2
-47
-2
-26
-22
-14
-13
-73
-9
-14
-16
74
-7
23
46
-5
11
-9
-1
-11
-24
11
36
-13
3
-16
77
-32
83
23
-45
-16
-4
0
-14
4
-36
5
38
51
-127
7
-21
26
-37
2
-27
26
12
17
24
-16
11
24
31
-7
71
12
-116
3
26
-8
61
-7
-16
-14
-11
-19
-62
-21
13
37
-36
-11
63
36
116
80
51
-12
-30
-19
4
13
-38
8
15
1
-31
-11
48
4
-46
23
24
17
-11
110
41
-7
40
-54
25
78
-30
12
-32
-74
29
-11
-9
12
-83
-18
19
11
-73
-57
-10
-15
-64
22
26
34
55
-17
-121
37
-34
-14
91
-32
-13
-24
21
-24
0
127
-32
-85
11
25
127
14
42
-27
-13
10
44
46
66
-13
22
-17
-26
-92
3
-104
-16
-3
22
22
-40
0
16
-15
-27
61
-28
-31
-23
-90
25
16
9
67
-45
-55
0
-55
-1
-5
8
-10
-51
38
-23
23
-30
13
-92
16
14
-44
10
-1
48
-29
-13
-3
67
28
9
-5
8
40
-21
-68
11
-27
24
-50
39
127
26
20
-42
17
27
115
-2
66
-33
-83
-16
-20
18
85
5
-18
48
54
19
50
1
56
86
-48
-48
59
-2
32
-20
26
2
14
-17
3
-8
-7
53
-8
-40
64
44
-70
63
-39
29
8
-13
-52
34
-39
79
-12
36
5
22
9
28
19
-53
10
77
20
-20
-54
94
-3
-108
-29
28
16
43
-13
7
-28
-15
-15
-127
9
7
-12
19
-10
-25
-4
15
5
-45
57
47
4
6
42
-41
-24
-7
47
-40
-1
109
19
14
-39
127
-28
-39
2
41
42
-60
-11
45
-30
-20
-42
-61
26
18
39
35
3
41
-28
-13
-61
33
-1
82
-19
3
1
18
46
-39
28
-10
0
23
8
38
-42
43
-25
-18
28
105
-25
32
-26
9
-25
-1
24
-42
9
52
-26
7
46
-18
44
65
65
19
-55
26
-52
-37
17
-49
-6
41
9
4
-10
25
-30
33
27
16
-53
65
27
8
30
27
-24
-2
-29
15
-16
-37
22
-55
7
36
2
47
12
-32
57
-59
-25
118
8
-34
-13
52
54
-20
-1
-2
2
0
-1
-30
11
7
0
2
11
12
16
-12
28
6
7
-1
-6
4
3
1
-19
22
-8
8
9
-61
-5
-30
-84
-55
73
87
-35
-44
12
31
-55
-37
-3
84
-14
-20
46
-18
-91
5
36
78
-4
27
29
-33
1
23
127
-30
50
-66
21
24
77
-17
-5
46
15
-10
5
-19
57
20
35
-11
-18
5
-59
39
5
30
-1
9
-6
-36
-17
-59
-42
21
-23
-24
-12
25
37
26
23
-24
40
35
-116
-45
127
31
-13
27
-7
-24
-44
40
5
-26
36
-35
4
83
-28
-60
-17
30
-91
40
-10
-42
-2
72
69
-1
15
-53
-35
23
2
-14
13
17
24
63
-15
53
5
-13
-9
50
36
-5
-9
-82
-31
12
18
5
-39
21
-13
48
109
91
0
-13
-29
-42
-15
-38
24
25
-16
-4
-16
-14
-4
-48
34
36
1
-37
-9
-15
23
31
52
-38
59
-4
-22
42
0
-27
-31
16
-8
39
-13
61
27
-33
12
112
20
-12
-51
-39
29
4
-18
-9
-62
4
-25
5
18
14
58
53
18
18
-35
7
-18
-47
-41
20
-127
0
5
-71
56
58
-13
27
-20
11
3
-12
53
-15
19
24
-23
-13
-34
-20
51
-69
31
12
32
11
-8
-40
4
-17
43
33
-18
17
-41
-23
24
-45
46
55
-22
13
18
67
-55
-14
-57
4
-5
9
38
25
-50
-18
81
-34
-12
-15
65
-18
-45
-77
24
-28
63
-1
-22
-67
92
18
18
-14
12
16
-35
49
11
-21
42
31
14
13
-28
-14
35
50
55
-3
12
-2
-25
8
-36
-12
-10
-3
0
-20
-85
-93
-3
-55
-2
-8
54
-17
-22
22
-28
-34
105
-8
-38
-25
4
88
-68
14
-35
-127
35
17
26
-27
-22
-57
-2
95
-5
2
127
-17
-6
-1
-3
12
73
4
4
77
43
33
27
-19
50
7
-42
4
69
77
-22
-24
-2
1
63
-47
35
9
8
12
-11
-7
-21
13
-31
20
-30
11
32
15
-42
-8
-68
-61
25
-11
93
20
-12
25
-89
-86
36
-3
15
2
13
-50
15
3
-9
21
51
-13
22
10
-31
-2
-45
-30
-24
46
26
1
34
-44
110
46
16
5
-32
-65
-118
19
-8
32
26
-2
-39
72
9
-57
37
-42
20
15
-5
11
87
-9
61
-25
-29
-11
26
127
13
6
-7
15
-8
-2
-13
1
43
23
-25
1
-28
-10
22
-39
-90
70
-28
38
28
-11
36
52
-64
-40
-65
-21
41
-26
38
48
-30
-63
9
-63
0
-14
-26
15
-80
88
-28
-29
49
8
53
-29
-18
27
39
-11
-7
-5
-31
-12
-43
10
-4
-21
7
31
11
-48
57
-77
-25
-51
6
-15
-4
10
-120
56
63
29
-104
-10
100
16
-50
10
8
10
35
20
-2
-7
43
15
-9
-50
-64
-5
-81
12
-47
42
-88
34
60
28
-22
108
-33
54
7
-24
-25
28
-12
-10
5
14
-3
-13
62
10
-32
-42
-4
62
-22
11
42
10
14
27
55
-11
1
35
48
19
68
78
-77
70
-16
33
22
19
14
-19
38
-127
32
21
-50
3
8
-10
28
45
-18
-38
1
-9
26
20
11
20
16
-7
-1
6
18
38
26
79
-28
54
63
3
2
-20
59
-12
17
50
-30
7
68
12
58
-23
29
29
5
-15
-33
-15
10
57
-1
-7
12
-11
3
2
101
-12
-39
21
11
7
-18
33
-16
31
52
0
-17
-14
81
-12
-67
57
36
-7
4
-5
-36
-25
38
-30
33
-10
-23
127
0
-17
13
19
62
-54
-19
10
-16
63
64
52
-38
-18
14
25
-10
-41
9
50
-16
32
-102
-7
34
-19
-61
14
-46
9
-95
14
25
-40
72
16
-47
-19
33
2
-31
9
-8
12
-47
31
127
-5
-3
-8
34
21
-35
9
-76
-4
13
-115
-9
-90
5
-64
53
24
19
22
81
18
54
3
46
-16
15
63
-13
-3
6
-33
-16
-18
-3
-23
25
14
-34
-46
-117
8
49
0
68
3
40
22
-19
1
15
17
-27
-41
56
86
19
14
-44
20
9
-6
-9
40
33
1
-1
-7
112
17
-8
-38
-18
4
1
-13
118
-52
-47
-27
-34
13
53
-1
-11
67
7
-4
48
-1
75
-32
127
37
-127
-1
24
14
4
44
-54
-55
66
-9
-18
-13
41
15
29
36
22
1
-104
13
2
9
4
29
-15
50
42
18
27
-82
-21
100
7
25
-58
12
-66
51
-74
-12
-76
-48
47
42
-8
-12
42
2
-10
0
43
64
-20
20
-24
51
9
90
89
122
0
-32
24
-14
-10
13
49
49
25
16
-13
35
-2
-10
36
55
77
-11
59
-30
-77
38
7
100
4
9
-15
61
28
-31
39
28
-8
14
-14
0
26
-14
-28
105
0
18
-61
31
-9
36
20
-32
-8
-11
44
4
-17
6
50
28
15
-6
46
-88
-91
3
-15
-38
-17
20
34
123
-24
-7
-27
-29
1
-9
-34
-96
39
52
10
-58
-14
10
-28
-109
-59
-35
14
-127
-26
-6
-56
-32
-75
-41
65
-44
-24
-38
-63
20
-22
38
-92
28
-3
-17
64
20
8
-57
-22
-21
-15
-55
-80
76
-13
36
42
1
-12
9
49
-24
-2
4
56
21
40
28
-22
-45
-16
26
-43
-23
-3
4
70
-15
67
16
56
42
-11
29
48
16
50
-21
9
-79
28
28
107
-46
-5
-55
-12
100
-13
15
29
81
33
-72
82
67
-26
31
-44
19
5
87
-24
-51
62
-35
73
-103
-3
-27
-22
-35
-4
22
-49
28
25
22
1
100
-53
-5
-16
53
-16
-127
-22
20
37
5
43
-50
52
-91
-84
99
3
18
-19
63
-25
-4
-24
1
19
8
32
30
-49
15
-118
-4
-29
-16
16
4
52
54
-51
74
-40
-3
22
-57
-127
4
68
14
34
46
-60
2
62
-36
-39
91
1
-8
-30
-83
4
-57
-12
114
-34
11
42
69
-25
13
19
-26
7
10
-15
34
-35
40
-94
13
26
-15
-51
-101
-11
38
-1
61
-50
2
29
-26
1
1
30
-94
12
-13
-96
-81
50
29
82
91
34
27
93
12
37
25
127
47
3
-29
64
-44
-58
83
-51
18
5
29
-14
-112
-29
72
22
89
30
4
-105
82
-21
63
-20
24
0
-2
0
25
19
38
-11
39
5
22
61
-80
31
24
17
-10
-6
-27
127
88
24
27
11
-57
12
-2
8
45
17
33
-73
5
20
-6
119
127
-58
-54
6
27
-28
-2
-28
-11
3
22
13
2
2
51
-50
-64
-34
-63
20
-54
-2
9
37
20
-24
14
-16
-33
-5
-8
26
-37
-15
22
59
38
-22
-4
21
24
-11
40
-7
12
-1
-2
-6
-5
5
10
66
-14
6
2
39
-10
-14
3
-19
16
14
-7
-44
-13
-74
-55
-60
65
-57
-29
4
-5
-24
5
-3
-23
-127
-35
-19
-1
22
-45
21
42
103
-4
-47
77
-74
-32
15
60
38
20
-29
-28
7
-93
2
22
-4
47
10
27
27
18
-9
101
-25
41
-11
38
21
28
-22
20
9
-6
-20
-33
-49
-36
-14
35
12
-22
22
-110
8
-16
-4
-36
18
-51
61
74
-7
-50
-8
7
7
5
-43
23
22
-4
-66
23
7
24
-28
-17
33
21
-85
-76
6
127
-55
42
4
-36
-21
74
-13
18
50
-21
10
-7
-65
-7
-7
2
20
-16
-38
-24
-23
-49
30
17
-40
73
-4
2
0
-27
-4
58
62
-41
12
-23
-43
-5
13
6
59
-9
-25
-4
-50
16
10
-11
44
-9
11
33
-32
-31
-18
15
-48
4
29
2
-16
-8
6
-8
-26
-14
8
11
-71
70
-4
-31
24
-15
22
25
37
3
-15
45
-6
-46
-14
-84
37
-10
-8
13
-63
22
-55
-59
91
52
6
-16
-12
35
13
-32
-27
57
11
14
25
100
-4
40
-74
127
-38
32
-18
-9
9
-18
35
-6
-3
-32
-19
11
-29
34
37
4
-34
-43
-16
-26
44
15
-40
27
5
104
-19
-39
38
9
-105
102
42
-20
37
27
-62
-16
-127
-51
-28
-80
9
-36
4
11
47
-70
3
-20
-6
-20
-3
-17
-72
-9
25
20
50
36
15
-67
-12
-65
83
53
-8
1
-5
-16
-45
18
14
-6
-10
-8
31
-42
10
52
-2
11
22
-5
-21
-23
102
-16
-24
-33
127
2
-127
9
-20
10
-127
-121
-116
-58
43
30
102
100
26
8
3
-7
16
6
-27
-28
-28
13
-34
25
25
-30
66
1
37
38
-71
-55
28
-42
9
14
-35
64
-23
33
-25
127
-9
-89
1
72
-3
7
-41
27
-40
-22
8
41
24
8
-21
-17
60
13
4
61
33
127
-20
-24
9
15
9
15
-24
-6
-6
19
-74
63
24
2
26
-20
26
-31
49
12
-1
9
11
3
-55
7
-53
11
-31
-5
4
-1
16
-28
2
-42
48
6
-30
12
61
-10
84
-24
-38
-127
1
1
21
-14
-11
30
18
55
-39
-12
-49
-6
30
109
65
-33
-21
4
0
-35
64
-8
15
26
33
-45
-11
-1
-127
73
-27
3
-2
13
-18
14
-19
83
13
47
8
-11
127
0
-114
24
-7
-14
16
-3
50
46
-17
-16
-19
-2
-7
62
37
26
-1
25
-22
-9
-19
13
-22
-7
-63
-8
-22
-35
43
22
-32
14
-19
74
-37
2
-20
-13
-17
92
41
5
-50
32
27
23
-14
57
-40
-4
-91
-16
37
15
-13
-108
12
-85
111
-47
-8
31
-12
107
47
62
-127
9
-23
-100
-5
-14
23
31
4
43
-3
25
11
36
-19
47
-38
16
-14
-57
-8
-8
-46
-41
24
-10
27
17
-41
-67
8
5
-5
-22
104
-127
-12
55
20
7
-22
-110
67
-88
-21
127
11
80
-70
79
-1
-44
-45
6
-10
-27
38
19
-43
-81
-8
112
-1
91
-29
87
-113
-57
24
-20
52
13
-11
-22
70
-64
27
-119
11
127
31
26
127
-35
36
-32
-3
22
-18
127
5
45
-75
8
-7
4
3
8
40
-31
57
83
-108
-40
-28
10
-8
-53
16
41
-55
-12
15
9
-41
-20
-32
-88
-41
21
42
-60
35
-1
-40
-12
28
-43
5
7
-2
-1
5
12
6
46
-33
27
-72
21
7
-88
1
20
38
32
-1
-41
-41
-17
4
-14
24
0
-5
-41
-58
17
-37
-31
-39
-20
49
47
0
-19
-21
-16
-24
27
-32
-31
-37
84
79
19
-54
19
19
12
48
9
-127
-5
-8
27
-22
2
62
-81
28
21
-45
36
85
81
-27
83
16
-35
32
-10
32
16
-6
-39
41
-72
46
-77
-32
50
-82
-49
-127
64
-39
-10
-29
-91
-96
-25
-22
-127
-70
31
-25
105
51
-53
-27
83
9
-21
39
46
-4
-51
-44
-6
9
-25
-57
24
127
-59
-22
7
-28
-20
-52
10
-7
45
-36
4
8
-1
-41
2
34
82
-4
12
40
-1
-40
127
-61
41
-4
-38
-119
-28
-65
-2
51
-31
3
34
80
-57
-127
-37
77
-43
2
94
127
-27
-37
1
-27
-127
-96
-14
14
14
-24
-7
-37
94
-29
-36
-91
127
32
34
122
-101
100
-14
-4
33
-14
78
-32
-97
2
32
-64
-96
-21
-3
94
19
-45
-19
-54
0
39
63
-2
127
-18
-50
27
50
15
-127
-31
-116
-5
72
80
12
-20
14
-71
-33
63
-33
86
-8
-33
16
38
9
-20
-14
-45
-96
-3
-16
66
-96
9
-64
33
22
-23
28
-53
-81
-64
35
68
-127
27
41
-3
23
25
-19
-23
-10
-8
25
50
-23
34
-127
-89
-28
22
-20
68
11
-127
31
-127
-43
24
-4
31
-39
-58
76
-18
-91
-3
17
-127
-74
3
-26
104
67
12
-31
-19
0
-77
-20
-64
-9
-127
18
-122
37
-6
-105
-3
59
3
-96
-7
-77
-96
12
104
-104
-45
-127
4
-36
122
-21
-23
-24
30
-1
43
10
-59
127
-39
-36
-38
20
10
8
-58
-30
-48
24
-11
-25
127
-55
-60
-10
98
-35
74
-21
-30
5
59
23
-88
61
-22
25
-38
32
67
37
127
39
34
30
48
31
-126
-9
-37
-10
42
-36
-45
32
15
-19
-51
-54
-12
29
62
-76
15
14
17
18
-102
-1
-33
-52
-23
-32
14
-28
-36
7
38
25
-15
14
-84
-83
127
15
-71
42
42
35
81
-82
25
3
20
3
127
55
42
127
36
-32
-19
36
57
-11
47
-31
-4
-11
-34
11
65
21
-101
20
-116
-84
-84
-127
75
-2
80
3
5
64
-22
-3
-97
57
-25
92
-12
-10
42
-32
-40
-102
-82
16
-99
29
54
35
41
-71
1
-69
-64
30
43
-39
17
-78
-15
5
-15
12
16
-2
62
33
-107
0
-127
63
-31
-10
49
-104
40
89
70
76
11
75
-20
-67
9
16
-77
111
-34
-96
97
120
78
-19
-51
-54
45
-75
7
-32
-30
-4
15
-57
-28
-127
-12
46
-14
-16
-78
98
-61
-95
-2
34
-8
-127
-70
106
30
-26
82
35
127
26
114
-97
127
93
18
-64
-28
-97
-64
-56
9
48
-127
59
59
2
-21
-127
-70
8
36
-127
-91
-39
-123
48
-1
18
104
-54
-20
-35
6
10
-29
-8
-9
28
-38
3
-11
40
-3
30
-68
29
-32
-16
-8
-38
-57
-2
-3
6
25
9
-1
-14
-10
-35
-26
27
-52
22
9
-3
-44
1
7
44
-28
76
25
-10
-28
16
1
16
-6
-71
-65
44
-11
-83
-127
-34
-7
-12
7
-8
-28
52
-20
-3
-77
25
-1
16
-70
24
-12
-36
11
22
-32
-19
10
19
-3
-65
73
-39
-1
10
16
-17
-13
-3
-51
-12
-26
-6
-10
12
2
-100
72
22
-27
0
0
-15
3
5
34
45
-35
75
35
127
101
110
-127
127
127
109
-5
-35
-18
119
-56
89
-18
19
-73
-7
-14
-26
7
-27
35
-93
-28
124
23
-58
-75
-34
54
-14
-49
-63
-48
11
-43
-87
20
127
95
-87
-33
127
4
13
-30
-6
-68
57
47
90
-72
-49
-3
8
5
-35
-29
-18
57
35
-24
-13
45
-40
111
2
35
36
35
-7
40
61
56
38
-11
15
7
-49
1
113
85
-24
12
36
-5
8
127
-47
-25
-6
-3
7
8
10
18
-2
2
43
65
-11
49
2
-51
-22
7
-20
-27
-52
15
-5
-62
15
19
21
-64
5
-26
-12
21
-1
-24
-120
63
50
-24
41
-51
-68
-66
-8
-20
9
-10
-9
95
-95
40
-18
61
-29
6
11
20
-16
-23
30
19
-2
37
-56
32
2
-25
3
-8
-30
-67
-112
102
2
-28
-25
-7
-25
-2
-23
-19
5
-15
34
16
30
-32
42
-12
0
44
-22
-19
-44
19
-11
34
-26
-8
70
53
36
43
63
8
-5
50
16
0
17
-83
127
36
-44
-38
-10
0
-56
-71
64
37
3
-17
17
52
36
-30
2
14
3
17
-7
13
26
-31
3
-15
18
-21
12
-41
-46
-35
92
53
-15
-2
-4
-29
25
34
23
-27
-31
0
60
-13
34
42
18
-3
-26
-17
5
-16
-2
-37
43
-6
127
-56
-127
11
-37
3
-21
13
18
28
-58
-22
18
41
17
39
19
-7
-23
10
-12
-36
-39
97
88
127
29
-6
-14
66
-40
30
7
-18
15
-44
47
-8
-4
-65
44
93
-116
-127
57
101
5
120
-40
-68
66
-38
-127
-32
31
-75
26
103
-13
20
70
96
12
-127
20
0
4
42
-23
4
-27
-11
-12
-10
-28
-20
76
22
54
23
28
-36
-4
3
8
20
30
-85
-15
-4
-22
14
5
80
52
-59
26
-47
-6
-17
-20
40
6
13
-2
10
25
-27
7
-49
17
38
15
-76
5
-7
-13
-127
15
-92
-41
29
-56
29
80
-59
-30
-6
-42
96
5
-8
92
109
-21
-101
22
21
13
13
-29
13
44
-10
30
47
-19
-12
54
