-2
-112
127
-127
-10
-127
32
-24
-15
-81
-41
-21
9
47
-38
0
2
-10
-8
1
-2
-11
1
17
0
0
0
0
0
0
0
0
-4
-35
-2
10
1
-3
0
-10
21
30
-4
-20
-7
32
-37
-59
-3
-36
-27
-6
19
7
12
6
-52
0
-33
1
-3
18
95
-20
23
10
-33
43
-5
61
-6
5
0
-68
12
-3
13
-4
15
16
-8
40
-25
39
-127
-13
-7
5
2
86
-45
-78
-2
52
8
36
0
0
0
0
0
0
0
0
31
25
80
-45
2
83
-19
23
1
6
-17
-5
1
-17
8
5
9
-34
-3
0
6
9
-12
-127
127
9
-16
6
4
4
127
-6
-3
-27
-7
1
-6
5
11
3
-3
-19
-2
-6
2
18
13
59
-1
30
23
10
0
-77
-35
2
40
-23
-97
-43
-2
-34
-44
-1
12
43
-62
-7
1
-92
23
29
24
-90
-9
1
-11
-1
-19
6
12
-127
10
18
-3
117
-24
-27
-21
-39
14
23
-45
-9
0
13
10
-30
-41
2
-18
110
-127
1
-20
4
15
-6
-1
19
4
10
0
0
0
0
0
0
0
0
1
2
-5
-127
2
-3
-8
127
-51
6
37
-64
-11
32
-2
-51
-1
20
18
3
8
-9
-5
3
-16
-13
6
-9
37
-5
-7
-5
2
-127
127
10
41
2
63
14
2
7
40
9
23
-11
12
7
19
27
-87
4
-19
13
-14
-2
27
32
121
30
-3
-73
-30
31
0
0
0
0
0
0
0
0
13
12
-90
13
127
92
52
17
-3
5
9
34
6
25
11
-46
127
22
33
10
11
-4
32
5
3
-4
-38
-4
-17
-5
-60
-2
-4
6
9
-38
3
-5
10
26
54
1
-1
-100
-10
-4
18
-64
8
-9
26
-17
89
-36
-88
-16
-3
-23
-112
-3
51
-62
44
0
-12
22
62
-13
12
127
47
19
-10
30
62
3
28
5
7
1
20
8
1
22
33
-106
-30
-38
21
47
-88
-38
-64
-11
7
-2
18
-65
-77
49
-2
-114
-14
-38
26
7
-54
33
-65
97
-3
-8
-10
4
48
51
9
-18
0
-27
-112
127
37
-58
22
86
45
120
22
12
-53
-17
-55
16
7
-3
-23
-8
52
44
-5
26
-6
34
-125
19
123
-8
-23
-47
-127
30
-126
-28
127
-18
-1
-38
120
-13
26
30
-15
55
3
-113
7
2
1
42
7
127
25
71
13
35
-127
3
124
-20
-25
127
31
127
13
36
-72
-92
67
29
3
8
61
-21
-84
-78
-30
94
-2
-28
5
29
-68
12
-127
-63
15
-20
-80
-3
85
-13
-44
71
-20
105
9
127
9
-31
4
2
3
16
-46
3
19
-20
2
35
80
48
-127
-21
-9
76
17
-8
-52
-64
-90
-6
-5
9
6
31
-16
-10
9
1
19
2
11
-104
20
24
-3
25
-21
103
16
-6
-97
-102
-85
98
18
-25
-8
-25
17
18
-4
-7
-88
-48
-16
-25
92
-36
11
2
127
21
-1
48
-76
77
-68
-12
-2
-46
-13
-8
0
18
-87
-30
11
-63
-16
-40
22
45
9
6
-5
22
-110
-127
-48
-17
30
-34
4
-28
-6
-19
-15
7
14
3
19
-127
-28
31
127
127
-29
-12
25
-60
-11
26
29
54
-6
9
-2
-26
127
-115
43
28
-14
-39
-127
-55
1
35
-10
13
-43
32
-47
85
65
25
-35
27
127
-127
35
107
-74
45
-18
36
-38
-27
-86
95
-127
-7
-10
-8
6
117
12
-1
15
-7
69
-20
-10
72
22
-38
58
38
16
-15
63
58
73
83
-59
-56
20
-3
-15
9
-39
-5
-3
-127
127
-106
9
5
-19
-3
-16
-120
100
-127
-102
69
-73
70
38
1
19
-21
48
-20
46
127
116
-7
4
2
62
24
42
-7
-27
-111
-28
27
78
-80
-55
-85
-34
3
17
0
96
-76
71
-55
-58
77
-39
13
-116
80
-30
48
-50
16
-43
46
37
24
31
-10
10
-90
2
5
-8
-25
-49
0
-7
-76
54
8
8
-30
73
-8
-42
-103
-78
-7
-19
1
-114
6
15
-78
-11
-3
-76
-24
127
-5
-18
125
-93
3
-34
127
12
8
21
20
11
-127
61
-7
99
11
6
-127
86
-15
-18
43
43
-2
12
-27
-47
-20
69
-9
-18
94
-19
-25
15
-4
-127
-30
-16
102
0
-20
24
-4
27
2
-24
-27
6
-42
2
-21
79
12
20
7
28
-3
-66
17
-78
23
4
-127
127
1
53
34
-3
11
89
-17
20
-125
127
-27
-30
-19
0
-1
-71
-52
46
-1
-54
14
-4
26
-22
-9
-13
-13
48
20
-4
-92
110
-36
14
26
0
-16
-4
14
-127
3
1
-90
11
24
-18
2
54
38
0
19
23
-21
10
120
-107
-26
4
-100
1
-30
-16
9
117
-127
4
127
0
-54
-15
-26
5
-5
-6
-9
22
-16
-19
46
86
85
3
124
-3
60
-18
29
29
-64
14
25
91
127
-71
30
-18
14
102
-3
-127
108
-102
10
-24
15
-127
-33
-19
19
20
29
68
0
-7
-104
-21
8
26
-62
-17
0
-4
95
-7
118
127
16
0
6
-17
2
-7
32
22
127
89
71
1
109
-25
-82
-12
65
2
36
-6
0
-28
7
-28
83
-9
-22
-16
57
-4
113
99
21
-18
19
2
7
41
-79
17
-41
23
8
-33
-31
45
-25
-26
19
3
14
-34
-19
57
-127
111
-6
35
-6
10
-42
47
-15
-127
-36
-18
-4
-23
21
-127
3
2
7
-26
20
127
5
-67
72
-89
23
-54
-3
-13
30
-77
40
-46
50
64
3
42
27
43
-28
19
127
-100
3
7
80
27
-31
32
119
-85
10
-28
69
35
43
-63
11
-57
-6
16
67
-53
-31
26
26
-11
1
5
-25
-84
8
-9
111
33
115
1
-127
38
-84
-83
8
7
0
4
12
-19
-11
4
-48
-48
11
-5
-21
11
49
34
-41
127
6
5
17
-75
-2
7
92
11
-127
1
-91
-23
14
48
-3
2
-4
-2
8
-89
39
75
-79
56
-19
0
8
-70
56
43
72
2
-3
4
-32
65
7
-116
-117
2
0
2
55
69
-127
-28
94
-26
-6
2
14
46
52
112
-15
-39
-15
-1
24
70
-24
12
77
-29
3
-3
-43
93
28
27
25
-127
-5
-10
-8
42
-4
32
4
-58
-9
2
-2
127
6
62
-127
-28
12
-4
-14
6
-34
26
91
-3
11
0
-11
-71
32
12
-57
15
-127
-125
-127
77
-50
127
24
-32
2
-1
-46
-22
39
45
-13
63
6
-3
45
-5
36
6
69
23
2
-2
31
-66
30
27
-37
17
125
127
-127
-72
-1
5
-12
101
36
-1
-12
66
23
-56
-17
72
-31
24
-22
-16
31
105
-20
47
22
-4
12
66
-7
-125
-3
94
36
0
-20
31
-127
-11
38
-24
-7
0
127
105
4
-115
-13
-106
16
-16
6
-124
21
-30
44
-127
-52
3
34
108
-3
-1
127
9
-118
117
-7
127
-7
2
94
-3
-127
-127
-24
77
34
127
12
85
4
-12
-1
-17
8
-62
18
-35
-9
-3
12
-36
5
-1
12
-18
-125
-19
-6
-56
35
-90
-2
81
-24
-7
27
98
26
-6
-28
-101
21
24
-5
-113
10
-43
2
24
2
-10
19
-2
-22
-6
66
-24
-115
9
-5
3
21
35
10
-12
45
-2
-33
-14
99
-17
61
-16
125
-67
-72
50
127
7
-15
20
-64
58
84
39
63
20
25
6
87
13
50
12
-1
-41
-127
-47
-5
-32
1
109
2
-10
-24
97
-15
110
1
-82
96
-34
-30
-70
-127
-23
-3
43
-5
-127
12
127
44
-97
27
39
10
-102
28
113
52
83
24
82
49
-19
0
111
89
1
-22
-36
65
21
-38
-9
-104
-23
-127
48
-7
39
-99
12
-64
-22
28
-54
-21
-22
-2
-34
34
8
99
127
-23
36
29
107
-78
-127
107
0
32
-10
27
-74
77
-28
67
27
4
45
-89
15
-53
4
11
-53
-32
4
-5
-47
78
4
9
18
-51
22
-73
27
-28
-11
-1
62
119
-8
66
-9
39
-6
11
92
-127
28
22
-42
-23
4
8
-127
10
-4
40
7
-10
-127
13
-85
-109
0
107
25
-6
1
-23
70
-51
-39
-24
45
-52
2
-21
-4
1
-87
-97
127
13
8
-83
-33
26
-92
58
115
1
6
-101
33
68
32
-5
13
-127
5
22
64
-38
0
-40
27
87
2
8
-40
-14
127
14
106
19
2
127
-79
-102
15
-5
9
-20
2
22
-56
0
10
-127
-30
-2
2
2
29
-18
-29
-27
-45
44
-6
-37
-25
-20
88
-29
101
28
0
88
-47
-20
-9
-50
-28
2
127
16
7
10
91
-49
-23
-10
-16
91
22
14
-57
121
39
8
-22
34
-106
-12
-25
-127
-46
-7
-9
-16
-31
-4
61
14
-8
43
4
-118
-121
-24
-114
-124
-53
16
-3
-31
84
-13
37
-78
-9
17
71
28
-97
-90
127
15
-4
47
-10
-127
-84
-87
-102
21
-6
54
8
-93
-100
-3
-10
87
127
3
-26
-84
-3
0
18
-38
-62
-17
-29
-13
4
127
24
-29
-2
-127
-1
66
56
8
-10
-94
-37
-2
-3
-23
-103
5
124
18
-4
9
7
-10
127
-24
24
-9
-38
29
-61
97
0
88
1
-19
-7
-87
-5
65
39
59
6
0
-23
65
13
5
-5
-16
53
-72
-21
29
13
48
-45
27
21
-23
-93
-73
13
11
-20
23
-17
-26
27
9
4
-13
42
-40
-14
-20
2
-19
10
84
-10
19
70
120
-10
34
0
-56
80
-40
34
-10
83
-16
-86
48
-20
53
-53
15
4
-22
13
41
-3
5
-3
-30
-19
11
2
-10
-8
7
11
127
-27
8
-10
21
51
27
9
0
26
-35
-47
-2
118
-30
0
-8
97
-22
127
-5
127
-28
-11
-23
-104
123
-27
-9
-11
45
-66
21
16
2
16
49
-11
-30
-111
49
-57
10
-33
66
-93
46
-37
-7
-67
-23
55
127
31
33
37
9
-9
-32
-2
70
-13
20
67
124
-11
30
1
-54
-41
-25
-37
-16
18
38
23
-12
6
16
-6
40
-47
26
1
-10
-39
41
-19
-53
-19
-11
37
-21
-24
-31
7
1
-114
-127
-20
-34
-38
3
27
61
-2
-3
2
-13
-11
-3
-28
97
-15
5
-6
-19
-5
-32
27
-9
-46
-78
-23
16
-8
-10
17
92
-22
24
-10
-40
5
20
-24
-54
-3
8
1
-27
-24
17
-13
-40
56
25
-104
-7
-41
21
-127
33
-39
-5
26
-6
-31
-39
-20
-24
-18
-4
3
-31
-27
22
-19
-39
29
-8
10
-23
-22
9
0
-24
-12
28
-15
-36
-40
-85
71
8
-50
-1
-52
4
-83
32
-16
-21
5
-111
43
-41
-11
34
-19
57
20
88
-24
17
11
-47
8
-9
-15
20
-34
1
-15
-5
7
10
-30
-9
12
4
29
-17
12
-33
11
6
-19
24
-43
-107
13
14
-10
45
76
13
-12
-7
5
-55
-1
-21
14
-12
-12
20
57
122
-12
37
0
-56
-42
-26
-63
3
1
10
-18
-38
12
2
-27
-77
-13
-14
14
-10
-14
18
-3
-11
69
112
21
-13
-22
35
-74
110
-65
7
11
-57
27
-54
-27
6
127
-100
-33
-1
4
-17
-5
17
-40
-23
-6
-49
35
-44
32
47
-25
-34
81
-2
55
18
3
-4
-48
-30
-40
-82
-2
1
-62
116
-12
12
-1
16
-48
64
11
-15
-21
-4
39
-31
-32
7
-30
-9
-10
28
0
-34
-45
16
84
35
27
31
0
-21
-74
38
-24
10
-14
-68
24
43
-14
48
-7
-21
33
29
-10
-47
-50
14
-22
-13
-46
-35
-32
-80
2
29
-6
8
25
33
-32
-62
-19
46
-8
-14
32
-10
20
-4
0
19
-16
-31
8
20
2
-4
-18
44
55
-30
-5
-33
13
-33
36
28
57
11
12
-7
28
78
-26
44
-35
5
47
114
27
-46
31
127
-7
-25
7
-5
6
-18
-36
-6
-17
-8
-20
44
-8
-37
23
-47
4
-29
0
12
11
73
16
3
1
-28
13
2
1
11
-65
-7
86
-3
27
46
26
-9
-10
34
19
109
-22
23
4
-27
11
3
-91
107
-21
9
3
20
19
8
-6
-22
-7
-15
-40
-18
-17
-6
-56
51
-9
9
-27
14
-16
51
-17
-47
-18
22
17
-51
-9
25
-16
-32
12
0
12
-19
-19
7
-5
19
9
4
-7
1
7
-37
-21
-2
-19
-27
40
-58
-36
12
10
-9
-8
10
-12
-12
18
-51
-37
-5
51
72
-14
-64
40
2
1
-5
15
-7
8
38
-126
36
-45
31
39
10
-99
-59
64
5
6
27
25
-32
-13
37
-39
0
15
9
-8
6
11
1
3
-17
-26
-7
3
20
79
-55
-17
-12
-34
22
-2
28
4
24
-12
5
8
44
6
-2
-8
11
-25
-21
19
59
-16
19
5
26
-46
15
-35
-4
-30
-2
-40
-43
44
-2
-25
-70
-28
-22
23
20
0
-2
-81
93
-12
5
3
31
7
-10
7
-18
-12
68
-6
-49
13
-54
-21
21
-4
45
-43
13
-6
32
26
-50
-127
7
-1
16
-8
26
-2
0
-24
-5
-3
49
17
-7
3
-67
21
15
0
2
-4
28
-16
24
-27
0
2
-3
-25
48
-19
-21
17
-31
-4
-24
-3
-25
16
-2
43
-19
1
0
-3
-38
16
26
-42
-30
-3
7
-6
-98
-33
83
35
61
-1
-17
-4
-6
-5
-20
-69
20
-3
18
-67
-1
-21
-25
-46
-19
-6
4
43
18
-10
8
-4
25
2
66
4
-28
16
0
55
-16
-1
8
-11
-26
5
24
4
-50
-3
-17
38
79
-30
15
79
-55
9
30
-2
5
-1
79
-18
-127
0
-15
-6
20
-19
25
-21
4
2
-2
12
-24
17
-12
-3
33
-3
17
-12
-64
27
78
-28
-15
-3
-24
-9
-5
16
15
-62
-8
-10
35
-9
86
-20
19
-114
12
1
-42
14
-21
9
-52
9
19
-2
28
16
-5
-4
-32
8
3
2
28
-6
-7
-13
17
-88
-16
-17
-13
20
-11
-12
-22
-28
-18
2
30
-7
10
-55
11
9
30
-3
-36
-78
10
-25
52
-31
27
17
73
-9
-29
-4
-17
33
0
1
-21
12
-26
-16
-6
-48
4
2
55
-5
31
2
-8
-37
-15
-1
67
23
-43
-25
-79
-14
-35
4
-16
-40
-31
-2
-67
6
7
-4
-16
-18
-20
-8
-15
43
43
3
85
-14
73
12
-81
-32
24
10
-5
18
-51
-16
-14
-10
14
7
-5
4
-50
51
-13
1
-10
-4
-20
18
12
-12
-22
-23
7
4
-4
-13
-10
-8
-21
47
25
1
8
10
-6
-98
12
-3
-5
-1
2
-1
27
-16
24
-27
3
1
-8
-2
-40
0
-63
19
119
0
9
10
-5
-127
6
1
27
-6
-27
17
10
26
-25
-21
-45
5
29
-6
10
-15
127
-64
17
-5
-23
127
20
-6
6
-2
33
6
-29
29
-13
-10
-55
-8
-46
-2
40
75
53
27
-89
44
-93
-9
-49
-19
12
-1
-29
32
12
7
14
2
17
-16
4
2
12
1
4
-20
-47
27
-3
53
71
-6
-30
27
-23
-26
-61
-21
-18
2
-7
10
-45
9
-74
10
19
4
17
-22
-17
1
-5
-38
4
0
-29
124
-10
2
26
9
2
5
13
-48
54
-10
-16
-36
-5
12
-26
-29
3
8
31
37
-7
10
14
-9
10
8
-18
20
12
-3
24
2
13
-42
-5
2
17
-1
-38
-7
-19
6
-40
39
59
-4
-25
4
5
1
78
9
-106
-3
-23
2
-2
10
-24
-47
66
6
49
46
11
-1
11
-40
23
1
6
43
-35
-33
-94
-38
-53
3
-21
26
-5
1
-92
-16
20
-1
-5
-5
52
-6
-10
-11
-3
-1
-3
5
-32
1
-46
-64
35
2
11
-1
-10
3
-7
14
-8
0
-24
8
22
-16
-3
4
11
0
3
-18
4
14
-18
-5
46
7
8
7
-17
-2
24
25
-42
2
-5
-17
-12
14
33
-56
-3
-1
48
-4
22
5
-5
-37
-5
-2
36
-8
-16
-32
32
2
44
0
13
27
12
-8
91
-36
34
-14
68
-9
2
16
-11
17
21
-3
-10
-14
30
-39
44
52
30
0
-3
-26
46
56
62
13
53
-1
8
-10
-3
6
-33
-3
-22
-127
24
27
35
7
-22
-17
5
-10
127
9
-6
11
40
-57
-7
-3
4
32
127
-4
32
-73
15
-12
18
-29
9
15
32
7
11
-4
-20
-7
-21
-17
34
1
39
0
26
6
-42
97
-5
-13
-9
-2
15
-3
-75
-8
-70
21
-42
9
-9
20
37
13
-59
-30
-12
-1
4
4
19
-14
-3
3
9
0
5
-53
-10
3
26
-25
-9
-5
-23
23
-127
65
4
49
42
127
27
70
-5
34
68
-127
46
64
-22
-38
-3
10
16
2
-49
3
-6
127
-15
-72
-14
9
-69
48
14
36
8
9
-50
1
1
-35
0
-4
8
38
22
27
4
55
88
-50
-6
62
-35
-21
6
77
-9
-23
-15
8
63
59
-65
-18
-9
44
-10
-57
124
6
17
57
-20
-30
22
-37
-9
32
3
-6
125
3
45
-9
8
43
44
16
-85
23
94
84
17
4
-8
58
36
-49
-16
59
-21
-22
15
68
-5
-35
-44
82
4
-21
19
14
16
-56
-17
-60
-4
96
59
-54
-55
0
-6
127
-22
-6
51
-31
-14
36
8
4
-51
3
-1
-31
1
-4
-6
-36
21
9
-8
20
23
23
-22
-4
117
91
-85
-4
-17
-23
-10
63
-27
35
-126
4
18
-31
42
-5
-12
41
-18
96
-16
11
1
-15
-65
2
-23
52
2
44
-13
-14
-74
11
-11
48
1
64
-42
-64
24
34
94
17
-12
10
-13
-9
-62
15
5
16
-3
-50
16
-10
17
-29
-11
-10
2
-11
-13
24
-73
-30
-38
26
-79
-59
4
45
12
29
26
53
12
10
-12
-6
14
22
57
-42
19
-54
3
21
-9
2
-71
3
2
-74
8
-16
-35
14
-29
26
-10
-13
-46
-22
8
17
-34
-74
30
-15
35
41
18
-21
21
-30
44
-17
6
42
85
83
49
42
-30
-26
-18
-26
-1
11
78
16
-8
0
4
11
-15
45
0
-14
10
-21
-28
-15
-33
-28
43
18
-8
1
15
40
-5
-9
-33
-10
-127
-17
-9
-21
9
-54
12
-7
17
37
6
7
-55
6
-7
-19
-2
-15
3
-110
35
3
-20
49
3
-42
-4
-31
-10
-55
-2
-7
10
78
-31
4
58
-76
15
-79
5
-111
4
76
1
22
62
2
-3
10
7
94
0
7
-5
-41
-33
-40
-33
6
-13
30
20
34
0
17
-21
-25
106
36
36
0
54
-15
-50
27
-3
28
2
-6
-41
71
-7
-27
-46
5
-22
47
0
-7
-20
75
-25
-64
-6
38
29
-92
7
-12
-32
11
-20
36
0
-10
12
-24
-34
7
-9
19
-4
-10
-72
-41
-5
6
14
-121
-6
18
58
-1
-4
3
2
40
-39
40
20
21
24
6
-2
-2
-14
-18
-19
34
27
-2
17
-17
-29
-55
11
29
-28
-16
-53
6
5
-47
25
-5
-7
-13
-16
-3
1
-57
16
13
-1
-18
-33
26
-1
12
2
102
-22
-21
40
-61
8
18
-42
70
33
-87
45
-51
18
17
11
-33
-23
20
27
9
20
-94
13
-23
-46
18
-25
22
0
103
-3
-83
-25
18
-67
37
14
0
-16
7
-32
-9
4
5
1
-54
31
-16
1
35
7
-8
22
16
0
33
-72
11
0
16
-1
72
-11
-24
-49
7
-27
56
-1
-2
-5
-21
26
16
-13
44
-39
-21
-5
59
-12
-1
29
46
12
-59
-43
36
24
50
-127
16
-10
-45
4
21
-20
-3
-66
-10
2
-5
7
-23
36
-45
24
9
-4
-53
-34
-34
-77
-41
-41
37
36
-32
-2
37
10
-25
-57
12
10
-63
-17
-18
-49
102
-20
7
22
9
-12
29
26
8
-11
-4
2
15
97
-19
-12
-14
8
-107
-80
-55
-44
-23
20
2
1
34
-51
-42
16
15
30
4
21
18
5
-22
-20
-20
1
-29
-28
-12
58
-33
-26
90
5
-40
-34
24
4
19
-2
-21
35
-39
31
10
-8
38
-11
19
-27
63
11
5
13
-45
0
21
-6
37
12
47
-28
-1
-2
38
-127
15
13
-55
20
70
-8
-25
-53
5
-25
59
2
-51
9
-61
1
27
22
30
23
76
-71
0
6
-43
38
-29
-18
-5
25
58
-5
-20
5
40
-1
-27
-74
6
18
-127
20
-12
-127
-25
14
-127
-14
2
84
-108
14
27
-12
-89
-8
33
127
-127
-20
21
-12
-63
-5
-31
-70
56
-8
-10
-18
63
-14
-27
71
-24
57
-11
-9
25
-15
-37
-16
33
-40
-93
24
78
23
56
-56
64
36
121
51
-2
29
17
-27
30
97
110
-57
29
127
76
-25
91
88
-71
0
-63
8
-53
5
-20
-15
37
127
2
-55
71
33
-23
40
-36
2
-28
0
12
-77
-44
-14
30
6
-47
-12
-21
37
-28
33
2
77
-40
-61
-37
-15
3
7
-34
5
47
-11
-4
-44
19
-9
71
-121
-11
58
-16
12
-54
-3
-8
1
2
-3
1
-37
7
6
-127
20
-1
4
36
29
-10
-18
-104
-35
9
108
41
-5
32
12
11
-5
77
-24
-70
3
46
-34
-18
7
-51
-11
-16
-67
0
-10
-5
-43
8
14
89
-24
-19
-20
8
54
45
-127
-48
49
127
-50
-14
17
-126
-13
5
-17
50
24
10
-20
93
-1
-3
-50
-37
-17
4
-76
0
33
-37
-17
9
-7
5
12
12
-11
58
10
40
3
4
-127
6
-52
43
11
88
-18
-48
41
0
-31
-28
-36
53
-11
-21
79
-5
17
-127
-13
13
0
-20
23
12
35
-40
-75
14
-80
127
0
6
-12
-5
126
-110
-80
-1
40
99
-20
-24
51
-68
127
-19
33
18
20
-14
-20
-21
16
39
-3
-103
31
-13
46
-28
24
-9
2
29
10
-49
-39
20
5
1
28
-4
3
34
24
-5
32
33
11
-77
-15
0
39
100
4
3
-26
-3
38
47
-20
-112
-42
-1
-33
100
90
13
49
109
3
-1
-16
-19
-11
-1
10
46
31
-42
2
3
-11
0
-89
-32
49
-35
-16
127
-2
16
-127
-41
-34
-9
-25
-11
14
44
2
113
99
-5
101
-24
39
33
10
14
16
3
62
36
72
-25
18
-59
39
84
68
-31
-127
47
2
38
-25
30
2
-3
-12
40
-12
-29
-14
18
-40
3
44
-33
41
-64
33
-3
89
-127
-10
94
98
-6
62
23
71
84
-30
113
-127
56
127
36
-67
7
-95
-62
23
33
105
63
-32
10
26
27
12
-7
8
-15
-106
-72
-5
-48
18
-29
68
-3
-28
-27
-27
-51
-97
-38
14
127
5
-24
-24
21
6
93
13
22
61
14
5
39
-28
127
28
-11
127
19
18
58
-12
-54
59
41
-19
-19
15
-17
-10
90
1
-16
41
-10
9
90
-14
73
17
13
57
69
4
-4
-42
-24
20
88
26
-11
-23
32
-15
-47
-57
-10
-11
60
50
13
-25
3
-44
84
-22
11
96
-6
-23
-64
-53
26
-18
-1
14
-7
-13
-56
5
-54
37
3
-15
12
-17
-38
-25
-121
33
-13
-86
1
-26
-17
-26
23
-108
24
-46
-127
-81
49
-59
15
-58
30
62
-40
-37
-21
101
70
15
124
-78
54
21
44
-60
-36
3
35
-38
-55
-85
49
58
27
-10
-17
37
-17
44
10
28
-112
38
7
-22
-1
-57
-3
-10
6
-12
127
-10
-13
22
-127
24
14
-15
-90
-22
97
-5
42
-34
-20
1
10
33
-82
-8
8
39
62
28
-61
62
5
18
21
-24
24
-26
-75
3
43
6
-14
-31
64
17
-55
-27
22
-13
-62
-60
127
23
6
33
27
41
11
127
-48
127
-24
116
37
-42
-4
73
-17
5
-87
-127
-35
23
46
13
-46
-49
-14
26
-47
126
-33
-23
-10
-16
-30
-26
-14
-9
4
12
-8
-21
-57
38
-127
20
91
-12
-37
-27
15
-49
-14
115
-10
-15
-28
-2
9
51
-37
25
93
-39
-17
67
-6
11
-107
-127
-49
68
-80
-13
5
-41
15
-18
-8
32
-33
-12
3
17
-6
12
-26
4
45
123
21
111
46
-8
-10
-100
1
-36
52
-11
24
6
6
20
-39
-14
75
15
-62
-10
5
-10
65
-14
6
-1
75
68
13
19
0
-21
-46
-71
15
-3
126
-68
-1
-104
-5
-48
30
53
-16
29
43
-4
-2
-32
72
-52
18
-7
27
3
-15
2
11
46
127
55
48
-1
28
-17
1
50
-97
79
127
-8
-31
-64
-3
-63
-104
83
58
25
2
-69
56
-37
-11
-31
-29
-3
24
-16
27
-87
6
69
10
-6
-4
26
-28
-45
9
-104
-98
-32
15
127
-111
26
40
2
24
-90
-19
37
-63
67
4
54
-65
5
-15
19
-40
127
-44
39
-21
100
-2
8
-13
71
-26
2
-70
-2
-8
59
-19
47
-28
127
15
27
-49
7
-3
-17
-73
26
-15
61
27
-63
62
38
-7
-32
16
-19
-22
76
14
2
-41
-97
36
-109
-31
-114
127
66
-72
6
18
14
5
-33
82
-12
12
-60
-6
26
-45
-22
-26
60
4
-3
-121
-127
127
79
-97
105
25
-26
74
52
14
-26
-69
-121
-28
48
71
16
-13
-26
47
-60
110
110
-42
-63
1
-66
43
-1
9
43
-57
0
-22
-78
-15
38
13
30
21
-6
-31
-25
-6
-33
-3
29
-67
-58
-48
-33
-28
-91
24
44
55
6
11
1
41
-100
-8
5
-12
58
28
-51
65
-127
-6
-43
7
14
127
21
102
-89
-3
92
-13
-11
-21
-48
-17
30
-4
47
-12
-31
45
-13
36
-91
-32
43
-9
-19
-24
47
-1
-57
41
77
0
60
45
-91
44
23
41
14
-126
53
60
-4
75
-15
127
61
27
-17
125
-26
88
9
-3
7
89
25
4
3
-19
32
-47
32
18
19
-22
53
-37
93
-1
-127
55
-127
3
127
46
-80
-21
118
69
39
20
65
17
90
-67
-48
15
48
-42
31
-96
108
-12
-79
-127
13
-95
6
-127
-17
89
-39
13
-6
4
19
5
15
-1
1
-9
15
-1
79
-16
43
-2
7
-98
-3
0
104
8
10
116
-25
12
2
-79
-57
-25
21
-41
29
31
33
89
58
76
-72
-6
19
-36
3
15
57
0
19
-57
-47
-62
-16
-71
31
-90
14
-1
77
-24
0
43
45
-24
23
-26
14
-115
-29
-65
-73
-55
15
-19
-23
-15
1
8
-32
-38
12
37
-94
-30
-2
2
-89
-127
-38
-34
1
-21
-10
-17
-17
-26
18
-23
-127
-64
-12
-28
-105
23
26
-82
50
-15
3
-9
-48
-27
-7
-54
114
-2
-4
4
94
27
27
21
23
109
-127
25
110
5
-127
113
2
90
-45
-45
92
85
-8
99
23
44
7
-16
41
-59
30
52
5
-24
-4
127
69
-16
-29
25
22
55
1
1
-37
-33
11
38
17
13
-23
15
126
-39
22
-21
26
-45
-18
60
71
45
-1
-83
14
20
-3
10
-127
90
-4
25
-52
-127
-45
-126
15
-70
-37
-127
-14
-121
-10
-1
1
-4
4
-86
-5
8
-9
24
7
64
-38
-9
7
52
7
-35
13
50
20
48
-14
39
-4
-13
9
52
8
43
-43
-56
0
-4
-56
-28
-16
-37
81
30
-24
-127
51
48
0
56
-3
55
83
53
-55
-16
-56
-9
-74
0
17
20
69
8
88
35
13
-1
-2
17
-51
21
-83
106
-78
19
-36
-116
-19
37
6
34
120
-41
-33
-2
-43
-44
-19
-18
74
-127
63
-24
-53
-105
11
-1
50
-22
23
107
8
10
13
82
-3
-27
-11
92
19
-45
23
73
12
5
-46
81
-22
-11
-13
72
-57
-73
-27
-25
10
5
-15
-127
-83
-33
64
6
-44
-15
-96
-121
39
11
10
118
-37
-8
17
-37
127
15
-27
1
90
-8
111
-58
-34
-27
5
1
-74
-9
-7
-81
24
60
26
29
-103
-13
-5
82
110
50
28
-34
55
-9
109
-1
16
-27
0
-8
5
-32
9
15
-37
47
-127
-35
-106
12
-127
45
-20
17
-9
-4
-30
4
29
84
-32
44
25
28
23
-14
47
-35
91
-8
10
-17
-74
-22
-106
-32
25
-5
-46
-102
127
-7
27
-21
-72
-66
-45
-30
-46
127
0
6
84
-29
21
35
6
14
-55
60
34
45
59
-40
-31
-98
21
-17
-43
6
-7
60
1
-6
9
38
36
41
12
4
-127
-127
-87
-46
40
-49
-8
-50
7
-16
-43
-127
21
-23
-3
-32
-12
-8
-96
116
-34
-121
-101
-12
-19
-31
-108
32
18
51
6
39
-9
7
36
-3
50
-43
2
36
0
16
-81
-74
15
-9
37
-6
7
18
45
-2
9
-21
-5
17
77
-40
19
-19
-127
-41
-11
32
-21
-38
35
36
-77
-62
-18
-43
-6
-27
-41
57
23
31
-10
1
2
-62
0
-24
-69
-127
4
-127
7
27
32
-36
11
-23
-2
-24
10
32
-54
97
-21
-14
2
-33
-59
-30
41
19
14
32
-41
-54
2
9
41
111
4
62
-26
-36
-9
-48
-72
0
-8
-38
17
-36
14
6
7
-2
21
33
7
-13
-9
88
24
-5
19
20
10
-14
67
122
33
-13
93
67
-4
82
-10
-50
86
88
-14
-104
127
-23
-9
7
-127
17
13
-29
-72
-69
-19
-57
31
-20
-34
25
-39
79
13
-122
47
-2
41
0
-1
43
-10
2
42
6
21
25
-127
21
-10
14
-22
21
-10
0
29
-43
47
-127
-54
15
19
13
2
-4
127
70
-62
2
12
36
-24
-111
12
64
-58
-11
10
2
-39
74
-12
13
13
-12
8
-13
8
87
21
1
-47
-33
20
-90
9
127
5
43
-66
-20
-28
-77
113
-53
23
11
-90
-80
-35
127
94
39
-17
-30
-25
127
-18
-22
42
85
73
45
-71
-2
-15
14
-31
-3
-8
19
-46
-8
18
-14
48
-32
5
32
52
-30
-127
27
2
0
47
17
-10
-2
10
58
-32
0
8
-1
15
-2
36
-9
-9
-1
-50
7
0
4
-50
-64
-101
-56
13
60
127
-44
12
7
-39
2
32
14
28
-2
-19
52
6
57
-39
-19
-22
38
25
-109
80
-15
11
-14
-55
-75
7
31
96
8
-50
-43
37
17
31
-44
-27
94
35
-113
-58
-10
-28
14
26
27
17
-45
5
-112
56
60
-50
-74
76
-23
6
-127
-6
10
41
20
25
0
11
13
-21
-14
-37
-100
35
8
1
14
41
-15
31
4
54
-36
-12
-117
8
-10
15
-7
45
-93
6
26
35
35
34
-10
1
-3
101
52
11
34
35
-17
25
-41
-10
65
-38
-16
-9
7
36
-11
-127
7
61
-40
59
59
11
5
-12
17
-39
127
-107
-21
32
-8
-5
-18
4
35
-40
-8
33
12
-4
8
8
-17
46
7
-80
27
-29
79
45
18
-25
-7
-124
-2
-30
13
7
-21
0
11
-24
-127
-17
29
-127
23
-36
-28
4
14
-15
20
11
81
-42
4
-25
5
9
-30
-22
-1
8
-31
-55
27
-55
-58
-79
44
-61
-36
124
18
-77
30
-9
7
25
32
82
-13
-11
-12
-29
-52
127
64
-84
1
10
-24
-18
-96
65
127
-17
8
14
-38
-6
-26
30
-9
-127
66
-13
-74
-41
-1
-5
5
72
4
-60
-126
25
6
50
-11
5
-2
-43
5
-23
90
35
-30
60
52
69
40
-21
17
5
57
-16
-75
-23
-8
-10
79
-22
15
-27
67
-35
53
-10
-31
44
-72
71
-39
-28
-17
44
-38
127
-127
127
-3
-44
-4
3
73
-12
84
-74
-3
-61
2
5
17
30
9
-50
30
-127
-38
-13
-45
17
22
-65
2
-90
-5
-35
-28
-68
9
-47
14
-42
-53
-25
38
-3
56
-16
-5
49
-127
-27
127
46
78
-31
124
19
60
26
33
22
-55
55
-1
66
-24
27
50
12
-37
14
-118
20
12
3
24
-67
-25
74
1
73
-6
127
28
-100
-45
6
-10
-69
15
64
108
-32
-34
34
-92
53
-1
8
-20
-83
56
-66
-13
14
-25
30
59
-18
-88
53
127
15
-12
25
-23
-38
-3
-8
-1
-12
8
-34
-104
-14
-26
33
-33
53
27
37
-56
-24
9
24
110
30
-100
-6
25
37
50
-62
-3
-7
-19
44
-2
-28
37
-40
-18
-83
-17
14
-37
-35
-28
-1
20
14
-40
91
1
28
-11
67
16
-40
6
49
22
-9
-19
4
17
-50
18
50
-6
24
18
26
33
-85
16
16
-104
4
105
-1
-2
-4
-72
3
-127
10
-79
60
-76
-34
-127
-21
-21
-11
-54
53
13
-31
-65
-3
17
-35
-7
-5
55
-38
21
43
-17
-27
127
49
-8
-44
-1
28
61
9
-36
0
-37
2
-5
28
33
127
2
-88
15
77
-4
20
-20
47
11
-109
127
65
-25
28
-83
-35
-19
-76
15
26
-96
40
-5
8
23
-25
-91
6
-26
24
4
6
0
-11
-8
48
-38
-112
-27
-1
-48
-40
9
3
3
52
12
-21
10
63
116
-123
-11
-61
63
6
-24
-70
85
52
94
-36
9
21
40
127
-92
-127
19
-38
42
-27
0
72
75
-64
-1
-24
-40
-69
-3
-7
-1
17
-7
-7
16
24
-25
-97
-85
36
-10
-35
95
-40
-32
20
-105
-38
19
36
-41
-24
-13
30
-27
-59
-42
-127
12
-7
-49
60
31
-16
22
-10
12
80
-44
127
4
50
21
31
31
115
11
1
-6
49
-9
-53
12
92
3
-3
79
38
6
52
-7
29
-127
55
-15
-8
-17
9
19
16
-51
-55
-11
34
-36
-23
53
22
16
20
15
46
-127
18
16
-81
-10
-22
50
-9
7
24
28
-27
46
-41
-7
-1
58
-5
12
33
83
-71
14
-59
-3
48
29
-76
11
2
-87
-127
1
7
-127
125
15
-4
-47
25
16
62
-9
-45
13
-24
46
-23
6
31
10
-59
-3
-24
-127
-12
-2
-127
34
3
-16
-24
-9
-126
-19
7
6
6
-26
10
-32
12
6
26
7
-127
-12
-8
-42
74
10
-23
-41
30
-11
10
-14
-99
15
40
105
120
-11
-72
22
93
19
64
18
6
14
-19
17
41
4
-11
-19
24
-20
15
65
31
-29
-41
39
14
-17
28
104
-35
-30
19
54
-93
20
26
-10
62
-48
-9
28
-6
0
50
30
0
102
-19
22
12
28
26
19
0
-9
-1
-20
-60
-9
63
-121
-17
-16
33
5
61
-3
53
12
13
22
77
7
15
10
1
48
0
-1
-30
-1
-34
13
44
27
49
1
-24
15
-28
40
23
-4
-75
5
-47
-19
-20
57
25
50
0
25
33
-21
29
5
25
-18
34
6
21
-10
29
35
24
-15
18
4
42
64
11
-86
75
1
-4
-14
9
-19
-2
13
104
25
4
-15
-12
-5
127
-1
-28
-14
-62
41
-9
74
11
7
-2
-34
28
-12
-22
41
32
-63
48
6
3
-9
43
6
-21
35
10
-12
-31
25
-6
-28
-32
-7
-28
-24
39
-1
-49
-77
-7
4
58
5
19
8
-98
-45
-6
43
4
43
-10
21
40
6
-9
56
25
38
-17
17
-44
27
-88
27
-7
1
36
-20
-45
-12
30
60
-12
7
-7
-22
-69
-75
73
-14
-17
-2
12
-59
6
11
16
-5
-10
9
-7
-31
-31
3
2
-11
-16
-1
12
12
-107
43
39
16
-1
-16
0
5
0
97
6
31
45
-62
-17
1
127
46
2
-6
24
-22
-27
-9
-107
-17
-12
19
101
-23
7
8
-13
-60
67
6
-18
13
0
32
-5
-79
-3
11
-5
48
19
-7
-126
-25
40
-23
-15
8
2
-39
-6
-76
-19
8
58
36
5
5
-107
-39
33
50
-58
-52
33
-1
30
-54
40
50
17
5
-12
16
-33
23
-28
-10
69
-2
-9
-3
12
-50
-49
-32
-82
8
127
6
93
32
8
-127
56
6
-9
-2
34
32
14
14
51
2
6
-12
0
-31
52
-71
50
10
-19
-3
34
-5
2
-5
-16
-4
-63
11
-19
-14
46
-4
105
-2
24
1
-19
18
10
13
26
-18
23
-18
1
3
22
-61
41
21
-3
4
77
36
65
5
1
-2
14
2
1
8
-11
-83
27
7
5
32
4
20
51
-55
39
28
3
-34
41
-26
-26
49
92
-118
-28
-6
51
17
19
0
-12
18
13
-22
-19
-47
-2
-13
-41
-1
-8
-7
22
42
22
-28
-5
11
13
-4
16
4
63
-23
64
36
3
9
-7
-18
8
-15
-26
23
-9
-11
-41
-36
59
-3
-29
11
-21
-1
7
54
-21
0
-71
52
34
13
3
-3
52
5
12
-5
-19
7
-61
-97
83
-36
55
-39
-36
-127
104
4
-17
3
69
-5
19
12
-34
-83
102
-10
-23
22
-20
16
-2
-106
40
6
20
-31
-7
-107
47
-2
53
-5
61
-12
16
-10
-7
-30
-105
21
47
7
6
-41
-9
105
-12
-19
66
37
-5
-14
74
-12
2
8
78
-20
15
-11
-48
21
88
-12
-12
5
-13
-5
3
27
-32
8
5
-1
-76
2
31
-127
-41
4
50
-29
-12
-35
52
24
17
29
1
-9
-84
-28
-36
13
-29
4
-4
-11
-25
-3
9
39
34
-29
-59
-19
-35
-2
19
26
11
-71
14
10
10
32
-37
32
-11
-10
38
33
12
-25
-23
-96
0
1
37
-7
14
-10
-111
46
-16
-90
-19
-14
1
-13
1
-43
7
-6
-64
3
-31
-7
42
36
52
-2
-28
27
6
-1
-11
-41
30
-9
-32
-99
15
14
-63
19
16
36
80
-12
11
-16
-61
-12
6
15
108
-12
4
17
21
19
11
47
-19
11
2
-4
-64
21
27
-53
-23
-4
23
24
63
-57
30
-12
-40
2
23
4
-86
-9
37
-18
-26
25
5
2
-6
23
-69
-10
-25
17
-28
4
13
8
22
2
127
-3
10
-26
28
0
-23
-18
15
3
36
15
-47
-46
2
6
2
-18
14
-55
32
-73
-73
39
12
29
-21
38
-36
-9
38
-8
-4
17
-81
-48
61
54
8
-7
-36
18
-4
-24
-7
4
43
3
53
-18
34
12
48
20
41
66
34
30
25
2
-66
67
8
2
8
-20
-1
-5
-80
-56
-26
1
94
40
16
-5
-71
-15
-18
-5
-5
10
12
-8
18
19
17
25
-44
43
5
14
18
35
29
18
9
34
-80
25
-29
-66
6
-24
-25
-127
-46
1
-60
11
60
-61
24
-5
16
24
41
-32
40
42
-1
5
13
-23
-45
124
-83
-68
-16
-44
-21
-15
-92
2
-20
-5
-36
0
-114
-21
-41
-23
26
16
74
-17
-30
-1
-20
3
70
-6
-47
16
15
8
-4
36
35
32
96
-21
6
-21
51
37
-19
-105
-24
-2
-20
2
-2
-38
-42
-43
-31
-1
-12
7
-2
-16
0
23
-29
-74
25
37
-73
-64
46
4
5
-25
-11
-79
60
62
30
2
-49
23
1
-4
-30
34
-2
40
-16
3
-1
-4
-85
0
-58
10
8
-7
23
-45
-19
29
-47
-62
-91
56
-12
-11
-51
-7
-4
-38
-65
-24
65
3
17
6
-14
14
-48
89
81
12
-12
-11
1
38
-14
19
63
-12
-67
-2
-30
-12
-63
-22
59
1
13
6
-57
29
-42
-14
50
-31
-19
23
-5
0
31
36
26
-109
-2
-1
8
9
-37
-49
38
84
-28
5
-67
-77
-44
3
-38
22
-45
-4
-8
25
-16
0
106
-2
-10
6
-9
21
-6
-46
-37
-14
-7
-1
-15
-21
-19
-37
-6
30
73
-27
6
6
36
-23
-40
54
-30
-88
-9
-5
-14
6
-48
-49
37
-7
-18
-34
-10
1
14
-2
27
28
-40
49
-84
-22
-14
-31
52
-18
41
97
-23
8
-1
58
12
0
29
6
13
12
-3
4
-65
-6
15
-5
-17
-50
33
123
-29
-66
5
16
-39
10
40
-29
-9
-4
-15
-4
-2
-32
55
-10
-19
-9
12
9
-45
-11
46
-93
-12
124
6
3
36
8
47
62
3
-5
-16
-16
-68
-28
-21
0
23
-1
-5
-13
-7
44
-14
2
15
9
17
2
15
-2
-41
-21
-8
3
-32
19
2
14
-11
-4
54
11
9
47
-24
-127
21
-20
-51
14
-4
9
-43
16
15
-29
19
-3
-27
33
1
7
21
-3
25
-5
29
-16
44
-12
-10
-1
-43
127
-2
13
39
-2
39
78
-9
7
14
-9
21
-13
-37
19
9
0
-36
-2
9
15
10
-26
52
1
35
-5
68
-9
-127
13
-9
5
49
-42
-42
30
0
28
-15
7
127
-18
52
7
85
-48
15
0
-32
30
15
3
1
-7
-1
0
5
8
-63
22
-27
2
-9
-6
-5
24
44
12
-18
7
-14
-3
-21
-35
-19
34
2
32
11
-4
-7
37
13
30
64
-5
-50
13
-14
-29
-47
3
-47
10
4
16
-3
34
-9
-14
-16
-117
0
-2
-1
54
-16
20
46
-10
1
4
-3
23
-10
23
-18
83
3
-9
6
44
-29
-6
-18
-45
-7
5
0
17
26
57
19
6
-29
10
-17
3
-60
5
-19
-5
-17
-13
46
81
10
43
51
4
59
-9
-26
88
24
-18
29
-4
-51
-3
-27
-17
49
-20
-49
-7
26
-3
-29
-72
-83
-10
-42
37
-1
-10
-9
20
-38
8
28
-43
-24
16
-38
-127
-27
7
-75
27
-127
-12
-30
6
-35
-2
91
-12
-53
46
22
37
17
-18
-13
14
-20
9
-14
12
-11
-16
6
-1
64
-1
44
13
14
24
-32
-1
-16
27
23
20
5
6
12
35
-38
-11
-11
19
-19
49
58
10
-52
-27
0
9
-38
9
23
-20
-13
-13
-2
29
4
-19
13
1
15
0
-10
-6
-7
-17
29
13
59
-8
2
36
-22
1
43
-33
-32
24
-8
8
15
18
17
-127
-3
-43
13
7
-25
30
-1
-7
-51
-1
3
-13
-8
35
16
-25
1
11
9
-17
-53
1
19
-28
-8
-17
21
54
66
9
70
8
4
-3
5
-8
-15
41
-10
95
7
17
-11
-33
-52
-16
-56
23
14
15
22
-7
4
12
-10
12
-57
-3
1
10
-15
-18
10
-20
-27
-4
41
57
-15
37
-18
-2
26
-2
-4
33
2
3
36
-12
-8
14
19
14
-8
-51
-14
12
8
17
7
14
-59
-19
43
9
12
13
0
4
-15
20
22
-25
11
1
5
45
-29
-50
43
-4
-36
5
-15
-17
-17
-26
31
-40
-1
-3
13
17
10
12
21
1
-100
-12
-19
20
-51
2
71
-6
-11
12
76
-36
-23
-3
-39
-10
12
-6
-11
4
-18
-16
44
9
37
-12
12
7
19
-23
13
104
-2
15
2
30
-14
-4
-14
22
-5
-12
6
-13
-19
41
42
11
-25
-5
-7
2
-16
8
21
-79
-8
-2
13
-2
-19
-23
3
0
-14
-4
-6
38
-3
40
37
-3
-58
14
6
37
-47
6
50
-96
-3
6
8
18
0
42
-7
-18
0
-2
26
7
18
9
43
-2
-21
13
-20
-23
-70
-5
-62
-2
7
4
-33
44
0
14
-45
-18
-33
4
-22
-17
-32
-20
9
9
-10
0
26
1
-18
-93
-23
6
-10
-2
-6
26
58
44
45
-24
9
61
1
8
-11
10
78
18
6
-42
33
30
20
-47
41
19
-40
13
22
-7
-105
14
64
52
-26
5
-38
9
-3
14
33
42
-9
2
-13
16
-21
37
58
-17
2
10
15
28
11
0
16
-1
32
11
-3
20
-28
-34
37
-6
-20
8
19
-8
-127
23
-24
27
25
-4
26
-19
3
-88
46
1
-1
8
15
18
20
15
-21
13
-4
-8
-3
45
-2
-25
78
0
-34
-9
-20
-11
-7
-84
48
-32
-78
3
-15
-46
-62
0
-52
8
20
-8
35
13
-93
-19
37
5
-25
-36
11
-32
-7
46
35
-63
-5
61
108
-30
0
26
29
43
-7
7
23
5
11
-3
46
-4
12
20
-44
-58
-23
11
-43
-13
6
-4
-45
53
25
-18
81
29
26
-53
-18
0
-23
0
17
6
1
-18
8
-6
23
17
16
-32
38
9
-5
-45
56
59
49
22
-4
-13
21
-45
-45
25
-2
-42
1
12
9
16
10
6
41
15
9
-22
-15
-44
-24
-26
34
35
-17
30
-35
-127
-12
72
-24
-24
-5
-30
19
-47
17
-8
17
56
127
-49
-1
13
-20
38
74
-51
-2
-79
-5
-10
26
127
12
-32
26
-98
33
-122
31
-32
127
42
-49
25
-17
13
-5
-2
1
102
11
17
18
16
29
4
5
-18
17
3
-5
-57
-2
3
4
21
30
2
6
44
-12
22
-4
-10
0
25
-11
1
37
27
47
-22
-30
9
-17
29
-3
8
-10
-61
-20
-127
-1
-35
-9
9
-25
-1
-23
48
-12
34
0
11
12
-43
32
34
-1
7
-86
16
-11
15
-17
70
64
32
-6
-17
62
-105
10
29
-21
12
5
-7
35
-53
9
1
-2
-49
-27
-24
-10
18
8
7
10
63
-43
-28
-47
1
27
-76
-50
16
-5
29
-5
71
-6
12
-1
40
-2
18
-25
-47
-55
-21
-45
4
26
-57
-19
127
-3
77
-20
15
-17
17
50
104
-33
-73
6
96
-41
-40
12
24
12
15
26
-64
34
-109
84
1
-14
-14
3
30
-29
73
65
-48
-7
-28
-21
57
-22
1
55
18
9
74
-1
-23
5
-40
-22
7
-17
-32
-20
26
-7
-9
44
7
9
55
-24
62
-6
14
6
7
43
-11
13
10
-33
29
32
20
11
-85
-4
-43
5
-8
-19
28
-23
-18
-21
-18
25
-7
54
22
-28
-121
-19
25
7
-51
-67
16
-16
-9
-21
14
25
3
19
-9
52
24
-29
4
41
-17
60
19
-50
-17
127
47
-5
38
86
26
-19
-90
-18
-25
52
65
21
7
-27
-106
39
-77
-6
-14
83
-41
-23
7
0
8
-9
6
46
-41
4
-74
-43
54
-23
-5
41
-7
0
-31
1
11
-15
30
15
-13
6
-41
9
34
-12
-81
2
11
-6
61
-14
-64
-36
-17
107
-8
6
-60
21
18
-25
-35
23
3
9
-21
-63
-79
3
-21
6
-58
111
3
-34
-28
-3
-4
58
-7
0
5
-7
-98
-28
6
12
-15
-22
-12
-48
-29
-11
-3
1
-59
100
29
21
15
-10
33
17
-5
-6
-39
-3
61
4
-24
-12
20
42
83
-1
-5
2
5
50
-110
-4
-13
-9
-26
-30
-1
32
0
-10
-30
14
-4
20
-80
21
-3
-17
-16
-21
-39
-12
4
-16
30
-7
-53
-61
-53
-21
-37
-12
-63
45
19
-22
34
-30
29
16
25
-24
14
2
84
-63
35
15
-9
14
2
60
-13
-16
-56
5
-71
-11
46
-35
48
22
-1
36
-23
44
-52
6
-15
26
69
14
21
-5
-7
-20
-17
22
22
-16
107
-1
-5
-22
3
-9
10
58
-7
4
-63
22
-54
24
-23
53
-28
-15
-15
7
11
-22
-32
-19
-12
15
23
16
14
40
-37
6
28
5
47
-4
-53
4
2
5
-17
-4
-4
-12
-9
-11
-21
46
21
10
11
-7
-2
-18
11
62
-22
12
-14
-17
15
4
30
42
36
4
-80
6
21
2
-11
-76
49
8
-103
-2
25
-13
1
-21
-32
9
10
-4
-6
-13
113
52
-18
17
28
6
-37
-34
12
36
-14
-14
-17
33
-33
-21
21
-12
-20
5
-4
-24
-15
-9
-15
-4
-37
31
-16
-1
14
-23
6
-20
-15
-71
13
-11
19
-29
30
15
42
-46
-52
3
-50
-1
72
31
-47
-14
5
18
-3
5
2
29
-17
-1
2
-20
-50
30
23
54
-44
-14
-16
-29
-14
10
-5
-9
-13
-11
3
-34
-17
-42
17
50
58
1
-113
8
-36
15
33
-10
-1
-3
53
-41
10
-24
-30
5
4
11
29
-14
16
4
33
23
24
24
21
54
3
54
-13
-13
97
-16
-56
-9
39
-49
-12
26
-24
12
-8
17
-11
4
23
-13
-8
-24
-3
75
-96
-127
42
85
-69
12
-84
-25
55
2
-2
91
46
39
25
10
-5
-1
2
50
52
0
-104
-4
41
9
-89
-15
2
20
-9
-4
-59
-20
-32
8
54
-56
45
-44
36
-3
56
74
15
6
95
-6
-53
-39
-30
-120
61
25
-20
17
54
42
6
46
-3
2
-7
-18
-42
-7
-27
-9
-16
101
14
-2
-6
-16
6
11
-59
19
28
-5
16
-23
19
49
-34
5
-84
1
-15
40
33
-15
10
15
-6
-22
-127
29
13
-96
-16
-9
60
21
0
28
109
-30
9
26
0
19
-31
9
8
-33
10
-3
25
3
2
6
66
-11
10
9
-30
94
-7
32
56
65
-3
-50
6
1
59
-62
-80
27
-15
-38
-5
-9
43
11
28
33
5
10
-85
-33
-22
-127
-38
127
0
14
56
127
30
45
-127
6
-4
48
-16
7
-14
-37
25
60
3
-29
-4
0
29
33
-3
100
-7
-21
21
31
-71
31
36
36
-21
127
10
15
28
5
-125
93
-1
62
26
-67
53
-3
100
33
-3
-5
-17
-36
-32
-21
66
45
-38
80
-127
7
19
-29
-7
-89
5
-20
36
-25
-19
-44
23
-4
-19
35
15
-114
-21
-49
-11
-81
30
9
11
-21
-19
-74
-100
-8
0
-16
-26
18
-40
-75
-78
-72
9
49
-38
-16
-63
-9
9
-84
-127
26
-25
-33
127
-34
-13
-2
-7
39
1
19
-19
-25
-72
-67
-33
-8
-36
85
-7
-23
2
7
6
-38
-67
-42
-14
8
-37
103
2
0
-28
-4
2
-127
-5
-9
-25
-35
46
25
-34
-10
-43
0
-127
-78
-9
6
-8
41
-25
25
36
-1
-13
127
-127
50
19
-9
38
25
-58
-17
7
82
-14
-11
-69
-7
-9
18
16
4
-1
-14
44
-3
15
1
-9
2
-33
-34
-64
127
-35
16
-2
69
-24
8
59
16
-4
-8
13
-19
-37
2
-120
-11
-4
-13
-17
-20
9
-40
43
-12
34
39
-113
16
-53
6
10
-15
-5
1
-29
-67
127
-18
-8
-27
-58
25
2
-120
-13
28
22
12
43
38
-30
69
127
23
-8
8
-6
5
12
16
3
-127
-67
7
45
-18
-10
9
-6
9
-25
-17
20
48
-88
26
-38
-20
-43
-11
5
11
-2
98
-4
-15
-75
-38
15
-2
-34
-21
-30
10
-8
33
48
-17
-2
-4
-66
-28
-3
0
-127
12
-10
17
104
25
-44
0
51
25
25
23
17
26
-36
-10
20
5
-11
9
-15
35
-14
-38
-10
-11
0
39
0
-34
54
-102
-45
21
-69
-54
-91
50
-94
-17
-47
47
-48
-88
-23
-82
-32
-12
124
-15
25
19
49
-28
-9
-7
-52
-16
1
-52
49
-101
-3
-61
54
13
5
16
0
-41
-37
25
43
127
-25
21
93
8
60
0
-11
30
-4
-48
-5
20
-92
-17
117
23
-3
-44
-11
84
36
-38
-26
-19
20
15
37
0
127
18
-30
53
61
0
-31
55
40
-22
10
58
-60
0
-18
40
4
-127
-61
-49
39
104
-124
41
24
-87
-114
-53
59
42
13
2
8
-8
127
-37
-127
-12
-1
19
3
-77
26
34
-4
-1
-46
1
40
5
-7
-15
81
-49
28
49
-12
-15
59
41
6
35
-45
39
-4
-83
74
-26
52
-42
-16
68
-25
-12
-105
-5
-118
3
127
-41
16
-51
-26
91
53
-17
69
-4
-15
-23
29
-72
0
15
-64
28
-29
-17
-39
7
11
-4
-23
89
-38
17
-32
-34
38
127
84
-127
-75
14
-5
-13
-57
3
-21
17
26
-5
3
-29
9
-12
23
-3
23
-7
-63
-43
-37
6
-8
69
-22
-6
57
-16
-10
1
-62
-19
127
-8
9
3
-36
-19
1
-79
14
-127
20
10
12
3
3
27
-16
21
4
18
7
9
-7
1
36
8
-22
100
-9
10
4
19
-19
-4
-9
-19
-10
-2
18
-14
-33
-8
28
-127
12
-10
11
-48
-5
-14
-21
-17
27
29
3
9
-43
7
-70
-11
-34
127
-11
127
2
16
-127
-23
-62
-10
55
27
-99
11
-6
5
4
7
7
-61
-72
-16
-29
-12
18
-16
-127
82
127
21
15
94
0
18
3
-43
-40
-6
6
17
-41
-13
-22
23
-35
10
0
-4
-7
3
-27
-8
31
-62
-5
28
-3
-1
-6
-34
-10
-35
-62
-4
-11
19
60
69
47
13
15
0
-30
-7
-3
-30
9
-5
48
8
-46
18
19
-98
6
12
-27
8
127
-18
76
-70
-5
-7
-12
-11
15
2
-5
-38
-22
0
-13
44
22
0
4
18
35
8
-50
58
-8
24
-53
47
-16
21
-39
26
-7
6
8
-19
-96
-66
13
-127
13
-3
52
10
-121
-16
-59
-30
127
-44
-49
47
-72
-127
71
-37
-10
-8
-17
2
31
2
-8
51
9
5
-17
6
22
3
51
24
-9
20
75
16
-25
-3
59
-30
12
16
33
29
16
11
-27
-15
9
-12
18
17
4
3
-90
-49
-1
5
-127
13
-37
-15
-10
1
-11
127
-97
-17
68
-1
-19
126
-7
-20
-10
-22
-66
-84
53
69
9
-33
33
-15
30
-3
-85
-90
-7
49
-3
-10
110
115
40
-14
16
-17
125
127
13
-10
62
25
4
3
20
12
-14
1
83
-27
76
30
52
-13
107
49
78
-31
4
-8
-30
-27
-39
7
45
91
-32
22
108
1
-127
-109
-47
-16
-16
-32
0
30
15
1
-39
10
6
-20
22
21
-12
26
-27
93
71
4
-14
1
0
-79
-127
-75
15
-46
48
-1
73
-20
55
23
-17
11
83
18
2
17
6
-21
22
41
-5
-6
1
2
51
32
33
24
-3
31
45
16
0
11
-17
-28
13
-3
-16
-11
-88
38
-8
-13
48
51
45
-2
-1
-9
21
4
-17
-9
0
-5
-4
18
53
20
8
13
-6
27
47
19
-10
0
10
2
7
3
28
0
-4
127
22
-5
6
0
-26
-4
100
-7
-14
0
-7
-12
57
-33
8
-37
1
-2
-6
-33
11
27
19
0
127
-127
26
-127
98
30
12
107
55
23
127
81
4
-35
-20
-45
14
-4
-7
-6
55
-76
-1
-63
38
12
-110
51
-23
-18
-78
-29
-5
-5
-5
-21
-27
26
1
-12
-16
-9
3
-31
109
9
17
-79
74
-3
-89
21
-11
-38
22
-2
-4
6
-11
-13
23
-15
-20
61
23
-8
102
-30
-35
13
10
-22
21
8
2
55
-127
127
-20
5
24
-35
-11
-26
-25
-110
2
72
1
-43
124
0
-10
-1
-14
-5
13
4
-5
-3
21
-12
-127
-30
5
-4
-8
-4
-1
-108
56
31
-102
18
-107
-20
-4
60
44
-54
40
-29
5
19
21
17
-14
1
-37
-27
60
22
20
0
6
-32
1
-31
-76
28
-12
-5
-27
-17
-30
36
56
-6
7
-22
22
8
74
38
-25
48
29
45
24
-19
-89
-28
90
14
30
-2
-9
34
7
14
-15
-11
21
-35
-26
14
127
-40
41
5
2
92
-48
-33
20
91
7
-127
-12
-7
28
-77
27
15
93
-20
-20
116
-29
-22
5
127
-43
16
8
127
-68
10
-26
20
88
-31
20
-28
127
6
-28
34
-50
0
127
37
-74
-2
41
75
-66
9
-2
-23
-16
-3
-15
-9
-33
-25
-10
38
-31
1
4
46
0
17
-35
72
-27
15
-6
-4
-58
-68
34
-80
106
-43
-25
-72
-23
-6
5
12
-54
-5
-5
-82
34
-10
0
-114
-14
11
-34
56
7
6
-2
-79
-54
127
-41
55
115
8
16
40
-54
-28
-99
-25
127
32
60
-26
32
-7
41
-11
-2
8
-6
19
57
-71
-31
-10
23
3
21
42
11
-13
33
-58
5
-77
-16
-22
-58
-17
-1
20
-127
2
68
46
33
26
-5
-58
39
-42
17
1
-21
-3
54
17
1
-48
57
19
-32
23
19
8
-14
-6
18
0
-11
-30
8
-8
-9
-3
-15
-10
29
-5
-23
-17
10
2
-4
-34
24
-3
-39
11
-11
30
31
-51
-82
2
30
-10
-24
43
-36
29
-5
5
-3
32
18
-47
66
-41
-58
0
121
-127
-12
9
-45
-41
-7
5
-63
-8
-7
-50
-95
111
1
-11
93
121
18
-111
-14
-112
-49
37
7
3
-6
19
-10
-58
-9
-11
127
20
2
39
52
-21
-46
-8
-35
87
-28
52
-29
-32
-20
13
-92
-13
-3
-28
-33
127
127
-14
-25
-124
18
-45
114
-32
21
0
-104
-2
-2
67
97
-3
27
-3
-85
17
3
127
-127
-11
28
-6
-57
-67
31
39
-7
-14
13
-51
10
15
7
26
-4
27
35
127
-17
6
4
-7
-11
-63
15
26
-6
7
-13
16
1
-59
127
-5
-74
64
-3
-107
74
-19
39
-36
-85
15
8
-13
7
-11
22
42
81
94
1
9
17
19
2
-60
21
-93
-36
18
13
18
-10
45
51
10
3
127
-12
9
15
-13
-35
10
-38
53
-27
-58
77
-61
35
58
22
-14
-12
1
30
37
14
-24
-127
-73
-3
127
46
-127
-53
-76
-8
50
38
47
-29
23
8
127
10
-55
114
58
-124
-45
-27
38
-14
62
-19
-25
-9
-121
79
98
-6
14
-48
-31
-54
59
22
83
-46
-6
1
8
-84
4
50
-3
-30
-25
-27
-23
4
-18
87
-68
-13
28
-43
68
63
-49
79
70
-17
1
-13
-31
-90
-24
21
99
-45
96
42
-21
51
49
-127
35
-54
-10
18
57
69
40
-30
35
4
16
-8
-35
-26
12
-117
0
-23
-19
127
27
-20
47
-73
-50
3
-40
-20
65
-31
-4
57
-15
-8
34
-8
22
38
9
-52
-14
90
-69
33
-18
99
-11
1
-18
29
-21
101
-10
-32
6
-97
-1
-70
-9
22
-8
96
53
-3
127
-17
-10
-21
-8
-82
11
32
83
10
-14
3
26
-52
57
4
4
8
47
44
0
54
8
27
2
57
21
-117
-15
-3
-6
85
-16
60
127
24
-10
-66
87
28
-7
-24
-30
13
-11
12
-6
59
-6
49
2
34
-21
-67
6
33
-21
41
-31
0
42
3
2
127
-18
-7
2
10
35
-103
1
16
103
40
-1
11
5
69
127
11
19
-20
-2
12
37
127
-25
72
-79
56
-4
-24
8
-45
13
-36
23
127
31
31
-8
42
36
-11
34
23
21
22
-12
92
-25
-70
-55
-25
42
22
-17
-56
4
-20
74
53
61
-2
-27
-98
-17
-21
2
41
29
4
127
-48
-11
79
0
-25
10
9
7
51
-19
83
-80
19
11
28
49
-47
-35
48
54
-24
25
45
2
-98
-4
0
-41
13
16
127
-2
-21
-22
72
-39
-9
-16
-4
39
-30
15
-38
-33
59
-14
-4
-4
-65
-47
-14
13
51
127
91
25
-52
-1
64
-92
14
-16
-27
127
-29
-19
-29
51
-23
-22
34
-109
-45
-46
-36
-22
3
-24
-127
-14
66
6
37
23
6
6
-11
-16
-14
-35
-45
43
39
26
45
46
-29
5
-21
-127
-6
-2
17
25
-24
41
3
-8
10
-30
-113
-116
127
-49
5
-33
3
-15
-12
46
47
-127
11
5
17
64
-41
-29
-6
-78
16
-8
-12
-17
86
-23
-28
4
39
78
12
58
-1
23
78
-61
-73
-34
2
88
1
-8
44
-2
-22
-7
-55
-21
22
75
25
3
-69
47
4
-71
45
84
-41
-42
-14
36
-16
-75
-43
27
54
41
-64
-20
9
60
80
2
27
-47
-28
75
-24
53
5
105
41
8
36
7
8
20
2
-42
-1
67
-50
8
-5
-70
48
119
65
89
-42
59
19
-110
65
7
-10
-6
127
-56
46
-9
18
-21
1
-14
-52
64
-127
-1
-18
-106
62
-44
-61
-127
-41
-5
-82
-57
-127
-12
93
-14
85
-21
-3
-100
6
-11
-7
-5
3
12
-63
-22
9
-10
-34
-64
16
-19
9
-12
24
17
32
-46
-41
8
20
104
-3
10
36
-22
-24
0
-27
72
-71
-20
-118
-5
33
-7
-8
-87
-10
-9
-11
4
-7
0
15
-35
-4
-8
-127
38
-18
5
15
127
6
1
84
-95
39
3
-24
-4
-19
-8
-37
-16
127
127
-2
25
35
0
35
45
33
-48
9
-122
-9
-1
48
8
88
0
-39
-8
22
-6
51
6
25
-30
24
123
2
-127
70
39
44
9
-9
13
-2
11
13
-3
-90
16
6
64
17
30
32
23
102
-10
12
61
17
17
-3
-8
70
-8
-60
4
98
13
48
17
25
16
0
66
4
-6
-53
12
3
-33
9
-4
-10
11
36
21
-126
27
127
42
-50
18
-22
17
-67
25
15
-64
17
-16
23
-22
56
8
-8
88
40
0
-98
79
-6
2
22
-127
7
28
51
29
2
-9
17
-37
96
-8
16
6
-127
-58
56
-61
-9
-36
22
127
78
24
-29
-80
73
-3
10
31
-16
42
-47
-25
-15
-64
-4
13
-46
-19
-14
18
-9
50
38
-10
34
3
-53
83
11
-64
111
-18
4
-18
31
-60
-8
-20
22
-77
9
24
8
-22
-9
-20
-127
-23
7
17
-84
13
-42
127
14
-11
31
-14
-14
-69
127
-1
-33
22
-60
-20
-26
93
-84
69
-70
-61
-112
39
37
-37
72
-14
-8
-89
-33
22
13
88
53
69
-7
97
114
-14
-127
39
-16
-126
1
-8
-5
25
-16
11
-115
1
17
-48
46
21
-22
37
-10
-60
11
-22
66
91
-55
67
74
20
5
22
12
6
27
19
59
-71
22
-9
-123
-56
-44
-48
2
-37
24
2
-33
0
31
100
-67
17
11
41
116
-16
18
76
-18
11
18
41
91
127
72
-20
-16
14
34
-95
-20
22
-50
92
14
-89
41
15
4
-11
26
63
-78
93
-127
-10
21
-4
-25
23
-60
-96
-46
-5
40
7
108
-43
9
-41
43
-2
5
-2
-2
43
16
45
-65
52
-13
-15
-18
-19
-37
37
73
-11
14
9
17
-5
47
19
-6
11
85
31
-18
40
-35
-62
12
-27
15
-127
-38
-31
32
6
-35
-19
13
4
9
-20
-85
25
-21
31
127
115
-59
-31
-11
-41
-42
-23
35
13
-2
39
4
-49
17
-62
-9
28
-89
-65
-5
-96
1
-127
36
45
-71
-76
4
-84
81
-1
6
1
127
127
-29
51
-97
-77
5
1
-18
58
16
-49
34
12
5
-57
-14
-59
-1
20
-26
11
21
-11
9
-27
-17
-39
50
-80
16
8
-15
-9
-29
-62
-5
24
36
10
17
73
-16
86
32
-47
1
-12
13
-21
-16
24
26
22
13
-30
26
-42
-29
127
-36
59
-8
-9
26
16
-17
96
-21
53
-20
-18
-22
-26
-43
-42
73
-3
29
-12
16
35
127
16
51
-19
-73
-34
34
28
127
-67
17
-14
-61
-21
35
26
-46
-56
-29
70
-48
45
-127
-13
11
-2
32
20
8
4
33
127
4
14
-20
-57
53
-127
-3
-55
2
-5
-26
47
-14
33
1
-7
24
-11
-35
9
6
24
0
2
0
-21
48
17
5
17
41
-20
4
27
30
4
4
0
-16
8
-96
-59
11
-12
10
-36
-57
-22
14
-2
37
-20
76
9
8
-30
33
-16
-3
97
-111
115
85
-106
26
-27
-36
-11
-43
48
-7
-73
-9
8
41
-11
59
-18
-14
90
-26
7
55
0
-63
59
-14
-54
-91
33
127
-24
50
-26
19
-20
-18
-9
20
46
2
68
-89
-33
-33
0
-30
-56
4
-94
-41
-24
0
-45
-17
-63
21
-53
89
85
-76
38
40
53
-85
43
-32
25
17
1
-37
-4
16
18
21
31
-12
-18
12
-52
44
-10
88
50
-10
-12
31
-127
127
-94
0
-3
59
-46
17
10
58
-5
-10
29
-76
-127
36
2
-39
-2
-25
-31
-28
25
40
-13
73
19
17
63
-7
-42
-8
-24
20
11
-19
1
0
8
50
-6
26
-1
-26
-77
-26
-55
-22
-54
-18
-3
21
-45
-9
-53
-2
-12
1
19
50
17
8
20
29
-10
11
26
41
13
3
-27
6
-1
117
30
-31
-17
-1
-5
94
-9
22
12
127
-36
-18
1
-9
6
-27
127
-23
-45
16
73
-127
-4
10
40
2
127
127
33
-28
32
-20
-18
23
55
66
127
47
-14
-45
-6
-2
7
11
22
18
-3
0
12
4
74
37
69
-49
75
6
42
100
-9
2
-72
-28
12
-104
17
12
5
13
-18
39
12
-11
4
34
-79
20
-37
47
-6
30
15
56
31
15
-22
-46
0
-27
13
26
47
6
-69
-17
3
26
67
2
20
16
16
-13
-3
14
8
11
-31
-17
34
-44
-106
-1
21
-1
-121
0
41
-31
127
31
0
-17
-7
8
62
-41
17
53
8
-29
-13
-3
-75
-21
3
-127
-60
-64
16
-2
-53
-5
41
0
-10
20
16
-5
-7
-1
-9
7
11
51
-15
113
-31
-37
62
-2
31
100
25
15
-1
-12
-34
-35
-17
21
-16
-10
-9
3
-9
-22
-9
-2
31
-2
-22
18
-11
11
127
33
19
-33
-14
-85
127
-57
25
8
-2
-127
-6
6
21
6
-9
20
-12
-8
21
88
20
-19
-12
-11
-3
60
32
-13
21
27
15
9
-7
-13
7
-1
-45
-29
-8
7
-23
-10
16
-5
17
-26
-16
-4
-12
-34
60
-47
-42
-39
24
37
24
-52
-48
34
5
19
-27
-122
-20
-24
31
11
48
9
30
-117
5
-50
36
-5
9
-88
16
-15
27
-40
19
21
-35
-1
21
-16
-8
53
58
0
-1
-7
-36
6
3
-7
30
-11
-3
9
4
9
2
-83
-21
-51
7
17
-2
-74
-7
119
0
24
-39
13
56
-18
-17
-39
48
34
-18
-4
-14
-23
-22
36
26
-1
-15
35
-5
18
-10
27
-3
13
-27
-16
-5
-8
-3
-72
-56
-3
5
-9
-10
-57
-1
2
-45
-11
-1
7
-2
-18
9
-18
-5
4
98
12
17
21
-1
29
15
-7
21
7
-13
2
-3
107
47
1
9
1
20
10
6
-30
-75
0
0
10
-10
-11
9
18
21
-16
-20
8
2
-11
7
92
82
26
43
9
9
-6
2
14
-8
10
-46
-19
16
-1
-18
-17
13
10
-31
-38
-11
-25
0
-18
3
34
-27
29
-2
-6
4
-79
5
-30
16
6
6
-1
5
-43
8
-56
43
4
-6
-1
-6
4
8
-3
-41
9
-16
-13
4
38
-29
-16
40
1
3
21
-43
-17
36
-35
-11
-28
-19
-8
14
-54
-35
20
-16
-37
47
3
8
13
-30
-64
-34
-38
-33
-30
-17
72
-73
-1
-25
-22
11
-26
-19
15
46
40
53
-18
-28
-17
-16
-62
31
-10
13
-52
-64
11
8
2
-19
9
5
35
-66
21
26
-90
11
51
-15
33
29
-13
-9
-87
14
-58
-17
-72
80
-1
-24
33
-46
-46
-89
21
6
-5
2
15
-13
25
-3
20
-7
-3
10
1
5
-35
-12
18
-3
16
-5
-2
-92
-11
23
22
-30
-21
32
-26
-16
-1
0
-38
-21
-41
5
-35
86
-64
9
6
21
27
2
-42
17
-5
-12
-6
7
-21
0
-22
-48
4
23
0
6
17
-1
57
13
52
68
21
6
28
8
-4
-2
-19
6
12
-1
16
10
-22
-41
15
-1
4
7
-77
15
8
-29
-11
8
-47
5
7
11
37
-48
-27
0
-8
-3
22
-21
-51
16
53
-11
0
0
-16
11
19
62
24
9
-19
33
3
27
-17
39
86
64
28
4
-19
-30
7
-26
-9
33
-18
-12
77
-5
10
-17
-21
28
10
-8
-71
14
-12
37
7
-23
47
31
16
-4
-32
-16
46
36
1
9
-4
-15
-120
41
-13
-57
30
-32
5
-4
106
32
-6
19
3
14
-6
23
76
-38
-2
-42
-30
-8
-59
18
-37
-8
-4
-22
17
-1
4
-60
65
4
-14
15
127
7
-20
-29
-87
-23
57
-107
19
25
22
-24
-7
-62
-39
-28
-27
-7
19
7
-13
0
-109
-40
26
-2
5
-37
-17
-19
27
-7
12
-66
15
23
-67
59
-32
-37
50
4
-58
-12
19
-69
-12
-4
7
27
72
13
8
-31
-11
-13
21
-15
-30
-13
-36
43
-127
11
10
12
27
-5
-56
-9
72
20
2
11
28
-4
1
34
-40
27
5
-9
9
-17
-86
72
47
-7
-37
26
21
2
-70
15
-68
8
-3
6
10
10
-31
23
0
11
1
13
-82
-22
-5
-28
-26
15
1
10
24
-19
-9
26
-13
2
-25
-1
-17
3
-8
121
-20
17
14
-16
-6
-2
9
41
5
-43
-5
14
78
-127
1
-89
-36
31
-11
122
3
66
-8
-17
-43
17
23
10
-21
65
12
55
8
-25
7
115
-60
10
-27
-3
6
50
-2
-5
2
3
-8
-18
35
2
9
-4
21
13
24
-21
26
43
67
-104
-63
-27
90
50
-59
3
-25
9
27
-35
34
-1
40
-22
-8
26
16
-7
22
48
3
25
-33
22
17
-5
-68
4
13
46
2
24
44
0
52
-6
-30
-4
-40
4
-9
-29
65
36
22
23
-55
-12
-2
13
-32
-16
10
9
6
-1
-17
-6
51
127
-25
61
-56
-16
-16
11
31
6
-14
-31
10
6
9
0
-15
-4
-59
-23
6
-1
119
-26
-30
67
27
45
25
26
-3
4
18
-14
13
12
9
-13
-25
-8
-19
15
2
27
-14
-3
14
-14
-79
-10
30
9
-32
0
6
3
-37
48
14
5
0
-18
5
12
13
-36
-14
1
-25
1
-15
-7
68
11
16
-10
-6
-17
18
2
16
-46
26
-18
15
-9
-76
4
-13
-33
18
23
11
-22
74
-10
-26
20
1
-15
12
24
-11
-12
44
13
12
-59
-3
7
0
-9
-72
-97
43
-12
-11
8
13
8
-15
55
-8
20
7
4
7
-21
-107
-32
14
-26
-21
15
-13
8
78
-71
11
-10
-21
9
4
-28
-30
64
7
-10
-38
34
-12
-3
55
60
-22
13
15
-37
-23
-11
69
9
-6
-99
-16
-14
61
-2
63
54
3
49
9
-6
-1
-8
11
-33
23
7
29
24
127
37
12
64
-31
-56
-58
18
15
2
-47
-2
-26
-22
-14
-13
-73
-8
-14
-16
74
-7
23
35
-5
9
-9
-1
-11
-24
11
27
-13
3
-16
77
-32
83
23
-34
-8
27
-24
6
-30
-15
-2
-48
-16
-3
0
-14
4
-36
5
28
51
-111
7
-21
26
-37
2
-21
26
10
17
24
-16
11
24
23
-7
62
12
-116
3
26
-8
46
14
50
-5
-83
19
-12
-21
8
-7
-14
-14
-11
-19
-62
-21
9
37
-32
-11
63
36
116
80
38
-12
-26
-19
4
13
-38
8
11
1
-27
-11
48
4
-46
23
18
7
-8
-25
0
-6
14
-56
-46
34
-15
17
36
96
16
-29
19
17
-10
110
41
-7
40
-54
19
78
-27
12
-32
-74
29
-11
-7
12
-73
-18
19
11
-73
-57
-8
-12
0
-13
-106
-1
-2
8
14
5
-15
-7
36
4
11
-2
56
-15
-56
22
26
34
55
-17
-91
37
-30
-14
91
-32
-13
-24
15
-24
0
127
-32
-85
11
25
95
14
37
-27
-13
10
44
46
50
-3
-55
-12
-15
-4
3
-1
38
-21
-6
58
33
-64
-18
17
-18
-13
19
-17
-26
-92
3
-104
-12
7
19
9
22
23
12
-34
-12
3
-11
-39
-14
6
10
-4
29
4
-43
-6
52
-6
-6
-12
87
-3
19
22
-40
0
16
-15
-20
6
76
-14
-7
-24
-32
-24
-31
61
-24
-31
-23
-90
25
16
7
67
-39
-55
0
-55
-1
-5
6
-10
-45
38
-23
23
-30
13
-69
1
-28
-11
-64
-14
8
11
52
5
2
-9
6
8
-28
33
-52
33
103
-12
37
-40
-4
-13
7
16
12
-44
10
-1
48
-29
-10
-3
58
28
9
-5
8
40
-15
-68
10
-27
24
-50
39
127
19
20
-37
17
27
115
-2
66
-25
23
31
74
-18
18
-14
2
49
-83
-14
-20
18
85
5
-18
36
54
17
50
1
56
86
-48
-36
59
-2
32
-20
26
2
14
-13
3
-7
-7
53
-8
-40
64
33
-70
55
-39
29
8
-13
-52
26
-39
69
-12
36
5
22
9
21
-15
57
9
69
8
-29
-22
-31
-11
-8
-13
-71
1
4
0
16
19
-47
10
77
20
-20
-54
70
15
11
-85
18
42
-25
-9
-48
-3
-95
-29
28
16
43
-13
5
30
-9
19
40
-12
15
-9
49
-1
80
1
-20
-25
6
33
11
7
7
4
59
-71
-10
-34
12
-28
-13
-15
-127
9
7
-12
14
0
10
20
-21
-9
9
0
14
22
23
-33
-45
-10
1
-9
-10
8
-12
-39
64
-35
7
-3
127
-10
-22
-4
15
5
-45
57
36
4
5
42
-41
-24
-7
47
-30
-1
95
19
14
-39
127
-28
-29
2
36
42
-60
-11
45
-30
-15
-42
-54
26
18
39
35
3
31
-28
-12
-61
33
-1
82
-19
3
-8
-42
-6
-8
5
10
33
6
1
16
46
-39
28
-10
0
17
8
33
-42
43
-25
-18
28
79
-6
35
69
-30
-40
2
1
40
-25
28
-26
9
-25
-1
24
-32
9
45
-26
7
46
-18
44
49
-17
-46
-29
1
24
-3
3
6
65
16
-55
26
-52
-37
17
-37
-6
36
9
4
-10
25
-30
25
-30
-57
-15
-28
-4
24
-10
1
27
14
-53
65
27
8
30
20
-1
14
41
9
21
-4
24
38
-24
-2
-29
15
-16
-37
22
-41
7
32
2
47
12
-32
57
-44
10
13
0
0
-5
-41
53
2
14
-93
26
64
29
-18
-6
-15
-25
103
8
-34
-13
52
54
-15
57
18
-25
20
-42
0
30
-26
-1
-2
2
0
-1
-30
11
5
0
2
11
12
16
-12
28
5
7
-1
-6
4
3
1
-19
17
-8
7
9
-61
-5
-30
-84
-41
37
-35
-19
38
-42
1
-14
15
73
76
-35
-44
12
31
-55
-28
-3
74
-14
-20
46
-18
-91
4
36
68
-4
27
29
-33
1
17
14
-22
-2
32
23
-6
17
-10
-12
-19
14
83
6
-26
-9
-5
127
-27
50
-66
21
24
77
-13
-5
40
15
-10
5
-19
57
15
35
-10
-18
5
-59
39
5
22
-1
8
-6
-36
-17
-59
-42
16
-23
-21
-12
25
37
26
23
-18
40
31
-116
-45
127
31
-13
20
-7
-21
-44
40
5
-26
36
-26
13
46
-6
18
-14
-10
-8
49
4
73
-28
-60
-17
30
-91
30
6
8
33
-39
-2
18
-34
-19
1
-19
-12
-89
-28
-10
20
14
-10
-37
-2
72
69
-1
15
-40
-24
100
1
66
9
-19
-13
-29
-35
20
2
-14
13
17
24
48
-15
46
5
-13
-9
50
36
-4
-2
-39
-65
11
-38
-2
-3
-61
0
25
-10
29
66
-11
-1
-43
-9
-72
-31
12
18
5
-39
16
-3
127
2
33
11
-12
-13
16
-6
-4
-33
-10
-28
-21
10
-42
-13
42
109
91
0
-13
-29
-31
-7
14
-13
6
7
38
-22
5
-15
-33
24
25
-16
-4
-16
-10
-11
7
-14
-115
6
17
-13
24
-4
-42
34
36
1
-37
-9
-11
23
27
52
-38
59
-4
-22
32
0
-24
-31
16
-8
39
-13
46
27
-29
12
112
20
-12
-51
-30
29
4
-18
-9
-62
4
-25
4
-13
-23
32
-29
43
16
-37
-49
-26
18
-19
74
-59
25
37
-9
18
12
58
53
18
18
-35
5
-18
-41
-41
20
-127
0
5
-53
56
58
-13
27
-20
11
3
-12
53
-15
19
24
-23
-13
-34
-20
51
-69
31
12
32
11
-8
-40
-28
48
7
-8
-13
-6
14
-17
4
-17
43
33
-18
17
-41
-23
24
-45
46
55
-22
13
18
67
-55
-14
-57
4
-5
9
38
25
-50
-18
81
-34
-12
-15
65
-18
-57
54
-17
13
-1
-5
-19
24
-45
-77
24
-28
63
-1
-22
-67
92
18
18
-14
12
16
-35
49
11
-21
42
31
14
13
-28
-14
35
50
55
-3
12
-2
-25
8
-6
-28
25
-31
124
-2
-28
21
19
-15
19
9
-24
4
-31
-44
-36
-12
-10
-3
0
-20
-85
-93
-3
-55
-2
-8
54
-17
-22
22
-28
-34
105
-8
-38
-25
4
88
-30
-6
15
-11
1
-3
-6
-6
-11
56
-2
-23
-20
-1
30
10
-68
14
-35
-127
35
17
26
-27
-22
-57
-2
95
-5
2
127
-17
-6
-1
-3
12
73
4
4
77
43
33
27
-19
50
7
-42
4
-6
-4
25
30
-5
3
11
-6
-15
76
15
2
36
10
10
68
69
77
-22
-24
-2
1
63
-47
-24
13
1
54
-9
0
-16
17
-16
-41
-13
0
70
-2
-23
-5
-6
47
11
25
-15
-4
-40
-10
35
9
8
12
-11
-7
-21
13
-50
60
86
-55
40
-12
-35
-24
-31
20
-30
11
32
15
-42
-8
-68
-61
25
-11
93
20
-12
25
-89
-86
36
-3
15
2
13
-50
-26
24
15
-4
12
-4
18
-20
7
31
16
40
72
-6
15
8
-28
-6
-26
19
17
3
-40
-17
15
3
-9
21
51
-13
22
10
-31
-2
-45
-30
-24
46
26
1
34
-44
110
46
16
5
-32
-65
-118
19
-8
32
26
-2
-39
72
-15
26
19
-13
72
-14
52
4
9
-57
37
-42
20
15
-5
11
87
-9
61
-25
-29
-11
26
127
13
6
-7
15
-8
-2
-13
1
43
23
-25
1
-28
-10
22
-39
-90
70
-28
38
28
-11
36
52
-64
-40
-65
-21
41
-26
38
48
-15
-19
-20
19
-20
-2
-12
-9
-33
-7
16
4
13
-2
-3
-20
-30
-63
9
-63
0
-14
-26
15
29
10
23
-3
-57
2
6
-61
-80
88
-28
-29
49
8
53
-29
-24
-13
-19
-35
-19
3
38
3
40
-9
-14
-46
67
11
-62
-25
39
15
32
-20
-13
-1
16
-45
-18
27
39
-11
-7
-5
-31
-12
27
-20
-2
-9
-14
-9
-12
0
-2
49
5
-7
-49
5
-32
-49
-50
36
50
-27
42
-11
-17
4
-43
10
-4
-21
7
31
11
-48
57
-77
-25
-51
6
-15
-4
10
-120
56
63
29
-104
-10
100
16
-50
10
8
10
35
20
-2
-7
43
15
-9
-50
-64
-5
-81
12
-47
42
-88
34
60
28
-22
108
-3
18
-36
30
-7
9
26
-15
-33
54
7
-24
-25
28
-12
-10
5
14
-3
-13
62
10
-32
-42
-13
35
-7
-8
68
-3
49
12
-4
62
-22
11
42
10
14
27
55
-11
1
35
48
19
68
78
74
30
47
-4
60
-2
17
-41
-77
70
-16
33
22
19
14
-19
38
-127
32
21
-50
3
8
-10
13
23
-43
9
8
-7
7
-47
28
45
-18
-38
1
-9
26
20
26
24
-11
7
31
23
27
5
11
20
16
-7
-1
6
18
38
26
79
-28
54
63
3
2
-20
-33
-49
-6
6
14
2
8
-34
32
13
40
36
-29
-12
24
25
59
-12
17
50
-30
7
68
12
-22
-2
-20
-40
68
-1
23
8
58
-23
29
29
5
-15
-33
-15
10
57
-1
-7
12
-11
3
2
101
-12
-39
21
11
7
-18
33
-16
31
52
0
-17
-14
81
-12
-18
52
-1
33
-31
26
21
0
-67
57
36
-7
4
-5
-36
-25
38
-30
33
-10
-23
127
0
-17
13
19
62
-54
-19
10
-16
63
2
-8
5
31
73
-12
-23
-2
1
-9
-4
-16
-21
-3
-33
-10
64
52
-38
-18
14
25
-10
-41
9
50
-16
32
-102
-7
34
-19
-61
14
-46
9
-95
14
25
-40
72
16
-47
-19
33
2
-31
9
-8
12
-47
31
127
-5
-3
-8
34
21
-35
9
-76
-4
13
-115
-9
-90
5
-64
53
24
19
22
21
19
-2
30
2
-12
-17
2
81
18
54
3
46
-16
15
63
29
-5
10
20
-11
-9
-22
16
-15
-5
2
-12
-5
5
-24
-13
-13
-3
6
-33
-16
-18
-3
-23
-3
-25
-5
-21
-27
-1
-21
0
25
14
-34
-46
-117
8
49
0
68
3
40
22
-19
1
15
17
-21
6
12
-6
-49
-4
-41
12
14
65
0
-23
15
-4
30
-46
-27
-41
56
86
19
14
-44
20
-7
-19
-6
-6
-13
-1
-53
4
-5
60
19
-10
-1
-8
-15
39
9
-6
-9
40
33
1
-1
-7
18
35
-15
-1
-2
-6
28
-24
112
17
-8
-38
-18
4
1
-13
-34
34
20
28
19
-4
-9
-10
118
-52
-47
-27
-34
13
53
-1
-11
67
7
-4
48
-1
75
-32
127
37
-127
-1
24
14
4
44
-54
-55
66
-9
-18
-13
41
15
29
36
22
1
-104
13
2
9
-2
48
26
5
-24
-13
-19
22
94
9
-12
-5
44
20
-5
-86
4
29
-15
50
42
18
27
-82
-21
100
7
25
-58
12
-66
51
-74
-12
-76
-48
47
42
-8
-12
42
2
-10
0
43
64
-20
20
-24
51
9
90
89
122
0
-32
-49
-8
-17
-31
19
8
6
0
24
-14
-10
13
49
49
25
16
-13
35
-2
-10
36
55
77
-11
59
-30
-77
38
7
100
4
9
-15
61
28
-31
39
28
-8
14
16
8
8
-4
-4
22
-27
8
-14
0
26
-14
-28
105
0
18
-61
31
-9
36
20
-32
-8
-11
44
4
-17
6
50
28
15
-6
46
-88
-91
3
-15
-38
-17
20
4
-14
-10
39
-41
-54
9
-32
38
7
11
58
40
-74
-13
4
34
123
-24
-7
-27
-29
1
-9
-34
-96
39
52
10
-58
-14
10
-28
-109
-59
-35
14
-127
-26
-6
-1
39
-11
2
76
-32
-3
13
-40
-17
2
-33
94
-11
-4
-12
-56
-32
-75
-41
65
-44
-24
-38
-63
20
-22
38
-92
28
-3
-17
64
20
8
-57
-22
-21
-15
-55
-80
76
-13
36
42
1
-12
9
6
7
-1
-42
-39
-9
12
18
-6
58
-19
21
32
27
-21
29
49
-24
-2
4
56
21
40
28
8
12
30
10
-5
85
2
-4
-79
70
-8
38
38
42
-14
-1
-18
-4
11
-6
85
14
3
6
-22
-45
-16
26
-43
-23
-3
4
1
-24
21
-10
-80
61
-3
7
70
-15
67
16
56
42
-11
29
48
16
50
-21
9
-79
28
28
107
-46
-5
-55
-12
100
-13
15
-46
-4
8
-42
4
20
-3
13
-55
-52
22
-68
14
-63
-3
-8
31
6
22
21
0
-16
-12
14
29
81
33
-72
82
67
-26
31
-44
19
5
87
-24
-51
62
-35
73
-103
-3
-27
-22
-35
-4
22
-49
28
25
22
1
100
-53
-5
59
0
-3
17
77
-30
-9
-5
-16
53
-16
-127
-22
20
37
5
43
-50
52
-91
-84
99
3
18
-19
63
-25
-4
-24
1
19
8
32
30
-49
15
-118
-4
-29
-16
16
4
52
54
-51
74
-40
-3
22
-57
-127
4
68
14
34
46
21
-44
6
-22
-8
8
2
-10
-35
37
-11
6
-10
-7
-3
10
-60
2
62
-36
-39
91
1
-8
-43
-21
-5
26
-2
3
5
24
-30
-83
4
-57
-12
114
-34
11
31
37
-5
62
15
9
1
-31
-3
-37
16
-82
-73
-12
1
40
0
-42
-37
-12
-3
-41
28
-4
42
69
-25
13
19
-26
7
10
-24
-20
4
43
1
17
-10
2
7
21
-10
9
2
6
0
-57
-126
21
-1
41
-3
-81
-3
11
-15
34
-35
40
-94
13
26
-15
-51
-101
-11
38
-1
61
-50
2
29
-26
1
1
30
-94
12
-13
-96
-81
50
29
82
91
34
27
93
12
37
25
127
47
3
-29
64
-44
-58
83
-51
18
5
29
-25
30
52
13
77
106
-10
-20
-14
-112
-29
72
22
89
30
4
-105
82
-21
63
-20
24
0
-2
15
6
2
-47
-27
25
6
-41
0
25
19
38
-11
39
5
22
61
-80
31
24
17
-10
-6
-27
-72
38
72
-36
9
41
-7
-13
127
88
24
27
11
-57
12
-2
8
45
17
33
-73
5
20
-6
5
8
1
12
51
12
-44
4
119
127
-58
-54
6
27
-28
-2
43
14
11
22
39
3
-21
32
-28
-11
3
22
13
2
2
51
-50
-64
-34
-63
20
-54
-2
9
24
38
-5
36
6
92
-10
-11
6
22
-9
60
41
41
22
-38
37
20
-24
14
-16
-33
-5
-8
2
-47
39
6
34
-49
-3
-3
26
-37
-15
22
59
38
-22
-4
21
24
-11
40
-7
12
-1
-2
-6
-5
5
10
66
-14
6
2
39
-10
-14
3
-19
16
14
-7
24
-43
-31
-2
-7
4
-30
20
-44
-13
-74
-55
-60
65
-57
-29
4
-5
-24
5
-3
-23
-127
-35
-19
-1
22
-45
21
42
103
-4
24
-5
16
36
19
-35
13
-56
49
-79
14
-37
6
21
5
-8
-47
77
-74
-32
15
60
38
20
-29
-28
7
-93
2
22
-4
47
10
27
27
18
-9
101
-25
41
-11
38
21
28
-22
20
9
-6
-20
-33
-49
-36
-14
35
12
-22
22
-110
8
-16
-4
-36
18
-51
61
74
-7
-50
-8
7
7
5
-62
-39
13
-11
-2
19
-4
12
-43
23
22
-4
-66
23
7
24
-30
-61
-19
38
-40
-34
-6
5
16
9
-6
5
-19
-38
4
23
-28
-17
33
21
-85
-76
6
127
20
-34
9
-32
-42
0
5
-11
-55
42
4
-36
-21
74
-13
18
50
-21
10
-7
-65
-7
-7
2
-48
-14
3
-17
-29
5
3
5
-25
-25
-9
20
51
-27
-6
54
20
-16
-38
-24
-23
-49
30
17
-4
22
-5
16
-17
-14
8
1
14
27
-4
87
12
16
5
-21
-40
73
-4
2
0
-27
-4
58
5
-11
-49
-15
14
46
25
23
62
-41
12
-23
-43
-5
13
6
-1
44
3
3
47
26
-1
17
59
-9
-25
-4
-50
16
10
-11
44
-9
11
33
-32
-31
-18
15
-48
4
29
2
-16
-8
6
-8
-26
-14
8
11
-71
70
-4
-31
24
-15
22
25
37
3
-15
45
74
53
14
52
24
67
12
-25
6
0
1
27
28
40
20
1
-6
-46
-14
-84
37
-10
-8
13
-63
22
-55
-59
91
52
6
-16
-1
-1
-69
-10
-12
-1
-127
2
-29
-46
-51
35
25
20
20
50
-21
-55
3
35
-18
7
-33
8
8
50
22
7
-19
-6
-45
-127
22
12
-20
72
-16
-49
-1
-23
-68
117
56
19
-19
25
39
16
-127
94
-32
20
37
-33
-25
110
101
17
43
45
9
-19
-4
-48
-15
33
64
-37
-6
-2
37
37
5
-25
25
-24
50
-5
23
12
-22
-76
-9
-9
-8
1
-36
-9
7
35
-5
-27
-10
28
-20
-19
55
66
127
-13
22
-5
3
-16
-14
19
37
6
127
127
-12
99
6
-2
-2
48
-116
31
-38
-37
19
-102
39
-22
3
6
-14
9
-89
-8
12
-127
-34
12
18
78
16
-29
43
4
-71
-58
-10
-13
-52
-16
-18
115
-23
92
36
-37
5
-21
4
-22
-3
-11
-5
-17
-16
-73
-21
11
24
-32
-37
-44
11
1
-84
-16
33
-34
43
-41
-24
-69
-45
-21
-24
-71
-49
7
119
-20
-110
-43
26
66
-27
31
-2
-32
56
26
11
8
18
15
-30
16
-14
-13
4
-96
28
23
-25
-11
34
8
-30
121
-2
1
17
65
19
-23
1
-96
40
-10
20
-20
-92
45
-39
15
36
57
-46
-31
-20
13
-21
7
3
2
-104
2
51
-24
33
9
-40
-55
0
127
-43
9
-2
23
-66
-20
35
13
-36
22
-32
17
16
-27
100
-4
77
-126
40
-27
-8
-74
-9
9
-11
-26
-18
49
-36
35
11
-29
30
83
34
6
60
37
-26
44
-19
45
15
79
1
-40
-39
38
-38
32
9
45
7
-105
27
-62
41
-125
-16
36
34
-127
-36
4
53
-30
11
-57
-16
47
-20
-3
-43
-26
-17
49
-42
-72
36
15
-15
27
-67
-17
-53
-12
1
-5
-31
-57
-16
27
-33
-45
-8
31
23
19
-42
-57
8
10
-5
-21
19
29
-23
-84
-127
102
2
-127
-18
57
9
-61
21
-20
-58
43
-50
-30
30
-62
46
102
-7
16
-40
10
6
-12
-33
-27
25
25
-127
37
-30
127
-22
66
-55
28
-1
-19
-42
-29
-5
9
33
-25
-18
-13
127
92
-38
-9
7
-41
-42
71
27
-32
3
-40
8
-21
42
35
-17
-13
-71
60
127
-20
23
127
-24
-12
-2
9
-6
-6
16
1
19
22
-76
-74
-20
26
-21
42
-31
-50
79
49
3
-55
51
56
7
2
-52
-53
-1
16
-46
55
-28
14
22
2
12
61
-34
8
-10
-22
-2
84
1
21
9
-24
-14
-13
-58
-11
-12
-49
-24
-34
-6
-21
1
30
4
0
21
69
-35
-18
18
64
-45
-11
-41
99
-1
69
1
-127
13
-18
-2
6
14
14
-82
-19
-30
57
24
11
-1
-24
14
18
-116
127
-39
-38
-32
-46
32
-127
-67
-6
-23
-3
-4
14
-32
-21
35
4
-35
-34
-3
-54
-43
-38
-23
27
-22
5
36
-20
104
12
93
102
-26
42
18
-14
-20
18
32
-51
-14
-28
-34
20
-80
-3
78
-70
24
3
-86
-39
-20
75
47
-9
-20
25
14
-52
20
15
-22
-65
-69
83
15
-94
53
52
-5
18
-2
14
42
-58
-6
-21
27
52
22
-2
-1
47
11
6
-33
-16
-2
-24
30
49
-33
-12
22
10
-60
-127
110
35
-121
-28
-17
100
-127
26
28
-83
8
-27
-83
-28
56
-28
-12
21
13
-43
-39
1
77
37
-92
-68
38
2
22
14
-22
-35
10
28
64
77
-3
-89
-92
1
96
55
72
55
19
-22
26
8
-7
36
41
17
-88
13
-31
4
4
27
61
-56
-37
15
21
9
127
30
15
-4
-127
63
-13
24
-40
-22
2
-79
3
12
31
-1
24
12
9
28
-40
11
14
-31
-4
70
-5
-17
48
-42
-47
48
-60
81
6
-1
-47
-24
9
-38
19
46
-127
-41
-14
30
-12
18
-4
-127
55
-8
-16
109
42
65
13
-24
-33
29
-29
-8
-8
15
38
-34
26
-24
-7
73
-1
-27
107
89
3
-63
-20
83
-10
13
1
27
47
-10
66
-14
-6
-3
-18
41
9
-8
-48
51
30
-27
-19
123
57
126
-3
10
-4
47
-17
-66
61
34
106
29
32
7
-6
-36
67
51
20
-24
127
90
-84
77
66
88
60
17
26
61
-54
-8
-6
74
-127
35
1
65
3
20
33
45
15
-52
-55
-115
-24
-54
44
33
-17
-31
36
122
44
5
44
6
45
71
4
-16
-18
-2
-2
-46
-10
8
7
33
6
-5
-34
24
-27
19
32
23
-64
26
45
-21
-14
61
11
6
75
11
-41
-63
17
-2
-67
-44
-127
42
-88
-108
120
-127
25
-46
12
-127
46
127
-4
-10
18
7
9
-20
3
-44
126
-2
-6
61
-83
-17
58
-83
-86
-28
27
-23
-68
6
38
114
108
-73
-24
87
13
20
-54
-80
-69
57
-7
-33
25
-60
-101
-28
0
18
-8
-26
-22
117
-18
44
-1
84
-5
-110
-25
71
-114
-17
-18
1
9
47
11
-24
-7
-6
-30
18
12
-35
30
44
-16
-63
59
-10
-25
16
-62
23
-31
-41
13
-21
-3
9
62
-15
74
-72
-45
-39
58
-19
-8
-52
-10
-51
42
-20
-11
20
-2
72
-7
80
-26
14
-6
-13
-12
53
9
-33
59
11
-15
44
21
-72
-6
63
-34
-51
-6
127
-63
-14
-127
-33
17
-28
-50
14
-1
-50
12
-3
16
8
48
-5
-11
127
-21
19
0
16
-46
-88
-3
50
-8
26
27
-7
-54
6
62
37
16
-15
34
-19
37
-86
13
-22
-8
88
66
43
-39
-42
22
-32
-22
77
21
-20
-5
27
-13
-17
-21
27
-40
27
-45
17
23
-14
-51
-35
-99
37
53
-127
15
-13
2
66
-40
-8
5
3
31
-12
-4
33
7
-23
22
17
-100
-5
-9
12
-3
-3
-20
51
25
11
-16
1
-17
-14
53
1
-57
-8
16
4
5
27
46
24
17
-41
7
-8
-92
104
-42
125
-127
-12
127
62
54
67
-106
-88
-88
-21
-80
15
-12
-1
-7
40
-44
-45
9
11
81
-43
-127
-24
-81
-8
63
127
-4
-113
-109
-30
-57
24
-72
-8
-46
70
24
-4
-64
27
-4
-50
38
127
-58
-40
-35
36
35
62
0
5
-27
-30
45
-75
3
2
-127
40
-20
101
-31
57
-2
-65
26
-8
99
-5
-53
16
-14
2
5
-41
71
29
-20
-32
88
21
-28
35
27
-11
-1
-40
-18
-27
48
-2
10
23
-1
5
-42
-40
47
-72
-72
38
21
7
18
-15
46
-1
68
9
-41
-41
-32
31
9
-5
73
126
-41
-58
44
28
13
49
33
-28
47
0
-40
89
101
-32
-102
100
-31
-37
16
-93
-16
19
-98
-23
12
48
1
-8
2
-16
-34
0
-17
46
-6
13
-22
-4
-14
46
24
-102
26
-97
40
-35
121
26
2
127
-19
42
51
12
-75
-7
-26
20
12
-21
56
-15
9
14
-83
19
-77
4
45
-93
-8
92
-24
-16
-9
31
-127
-127
-43
57
46
38
37
-67
-12
93
-31
-108
-72
29
39
-90
28
-106
50
107
-64
32
-18
-8
-15
-3
-48
-14
31
9
-6
-56
-5
-41
-20
36
2
-113
3
-42
-13
8
82
-8
17
-42
11
26
-15
47
14
-67
50
8
8
28
62
-80
-83
55
35
-60
127
-30
-26
-23
-103
127
-46
51
-47
-48
7
24
23
6
-48
-85
-25
-32
104
-46
83
112
54
81
-68
-81
21
-20
-49
-20
22
47
-3
-54
23
73
-127
-119
32
51
31
30
-39
18
49
-32
-27
-18
67
21
3
47
30
8
57
54
-13
28
-6
-9
12
83
-110
41
67
124
-10
1
-40
41
-2
119
-17
-8
89
49
48
-88
-7
18
53
14
-19
2
-68
-12
-11
1
-16
86
-29
-28
-37
12
3
-122
-17
60
9
9
42
-88
-2
-55
-37
29
2
42
2
-17
-1
3
-34
-79
-36
-15
-90
17
10
-48
-34
-18
-24
-8
22
-19
21
-3
-8
-32
-2
-112
29
84
127
-70
-25
127
20
-18
10
9
-44
-25
-6
13
7
-114
58
24
-9
-7
-20
-3
-48
-17
-50
-16
28
47
-18
-28
-49
-1
45
25
-20
-70
-14
35
-124
-63
3
-8
-4
-23
-5
11
-64
-19
3
74
-43
7
2
57
-12
41
-87
5
-17
-23
-23
6
-72
-40
27
-4
55
24
-23
-42
77
12
21
-85
16
23
-21
22
-122
47
-45
62
-16
12
-9
4
1
23
14
31
-6
58
-26
-98
4
-19
31
47
3
69
24
-2
29
-46
43
-41
25
-62
8
31
92
8
1
5
35
3
4
16
-48
20
45
7
33
-11
15
-127
-46
11
-13
80
-127
22
-62
-34
127
-10
15
-27
-33
-127
-33
11
-65
-1
-11
91
-19
4
127
16
5
52
-8
13
-35
-30
-29
-7
84
11
-45
127
-5
27
-66
-71
25
-3
-15
22
-15
48
46
-62
-4
-7
-33
4
10
-96
-10
38
-79
-108
-26
-40
81
-85
0
5
-127
-55
36
-12
-8
74
4
-32
93
-41
28
21
27
34
34
2
-33
28
-13
-43
20
53
33
-16
-59
6
-8
46
-37
-46
-28
-31
96
1
-62
20
-77
-4
17
-2
-55
4
-23
-14
7
-8
-18
-9
111
-37
28
-31
41
0
28
-5
-44
-21
32
-16
-37
19
-20
44
-82
79
39
19
-35
-89
19
-35
-10
-127
127
-5
-14
-19
2
-2
106
-122
-15
-11
-7
-8
-14
3
-63
-6
-19
-91
-19
104
-2
-43
80
22
23
27
-22
27
-9
5
-7
14
1
-3
-22
-17
-35
32
-28
22
-9
8
-37
-21
2
2
-4
-65
10
17
-50
48
32
66
35
-28
31
-95
-91
78
-16
-4
44
10
14
-39
111
79
-47
-5
47
21
-13
-42
-127
-6
9
-28
8
-3
48
-26
4
-10
43
-20
127
-43
-14
-43
-38
-68
16
19
-21
-19
0
43
24
21
-10
-15
-26
8
-46
12
-5
-62
-22
-90
27
127
-19
-66
-22
-69
-110
-127
-6
-20
-127
55
-70
-85
79
-71
76
85
-3
-4
38
9
19
-6
-34
-41
10
-44
-29
69
87
-38
37
-16
-14
71
-11
-14
-22
16
-28
-100
-64
1
31
-79
26
-56
59
-54
104
11
-18
-1
127
-77
31
-114
10
42
3
5
8
1
25
-72
-15
127
-28
-127
10
81
41
-49
-5
39
15
37
9
15
-10
-50
-11
-18
42
-29
-60
-54
24
75
-6
38
5
77
7
-11
-22
-3
-2
68
-33
78
27
-50
-14
-26
15
-11
38
-5
32
37
-105
18
7
-32
24
-37
0
18
-35
-20
-43
31
-39
15
-20
4
-25
74
-27
-38
-24
4
27
11
-24
108
36
79
-54
-124
19
91
-57
-90
13
-8
-8
7
27
15
9
9
21
16
-69
32
17
-59
17
-21
-49
36
2
32
30
13
-90
34
-53
13
3
24
-26
-57
10
-33
-118
-106
31
-25
-41
11
-18
1
54
-81
28
15
-31
36
-5
-14
57
11
12
-11
22
15
127
127
64
-21
-14
-127
-127
-39
-14
23
20
-11
3
12
32
24
69
36
-24
83
16
-25
22
-10
26
7
-5
-39
41
-51
31
-77
-38
3
70
23
25
10
20
39
70
-1
-55
-53
26
21
-14
-9
-26
22
-72
-49
-127
46
-27
-10
-42
9
-32
-61
-32
-10
-2
10
8
-2
-46
65
-11
-13
21
0
-24
-40
-84
-25
-22
-90
-48
31
17
-19
-82
51
10
20
3
16
-20
47
44
-53
-27
59
6
-21
17
-5
-16
-6
1
25
4
-14
31
20
-4
-51
-44
-5
7
-25
-12
-5
-24
-70
19
15
-12
-31
-16
21
22
40
9
-2
-17
55
-46
10
111
-59
-22
5
-19
-20
26
-88
-60
41
-6
26
31
82
-27
12
17
-5
-15
-21
26
-23
20
26
26
-50
9
43
19
-53
-17
12
33
-93
-4
-16
10
-36
-5
6
14
-9
-85
-30
-11
48
-26
-4
-61
50
-24
6
-23
-24
76
32
-65
21
15
31
22
-30
-20
-24
-30
-32
-23
16
-14
-35
1
-18
-7
-17
-19
12
-32
-32
9
8
-75
24
-14
-50
11
-17
-42
4
-6
45
-36
3
5
-1
22
0
-114
4
1
-29
5
41
-21
-47
-7
-43
-2
19
-17
-71
-33
1
30
82
-4
9
27
-1
-33
56
-53
41
-4
-27
-82
-28
6
-5
30
-6
-18
-15
-22
18
66
-7
16
-80
36
34
-23
-20
2
-3
72
45
-15
48
-37
-48
-5
-8
40
28
-4
-13
6
-32
-15
-6
-66
-51
-22
4
-10
26
-53
-1
45
-31
3
24
55
-57
15
10
-30
75
3
-19
25
-20
-12
10
-39
-91
-3
13
33
-16
32
19
-31
15
-5
15
29
-6
-24
34
-127
-59
3
-12
59
37
22
-1
-82
74
-23
57
-24
16
-103
-16
67
-43
2
66
88
-27
84
-16
25
52
8
-55
15
-8
-30
0
-24
-127
-96
-10
10
14
44
18
-3
-33
9
23
25
-15
-12
20
26
107
23
16
-15
7
2
11
47
113
4
39
5
4
-25
10
95
71
-81
-19
32
-8
53
-19
6
52
-7
-13
15
22
-62
0
25
50
19
-9
-18
-14
-11
-6
2
-76
-1
44
10
-21
-8
1
-83
36
-45
13
1
-51
-20
-3
-32
94
-29
-26
-63
127
-24
-2
-55
-111
-28
27
-8
-22
26
15
107
-101
100
-10
-3
33
-1
10
-57
-69
-36
34
-3
-3
12
-21
20
-40
-51
-9
38
-9
4
1
-26
15
72
8
-10
-10
0
-6
-127
-6
64
-14
28
-30
-2
-15
13
8
54
34
-54
12
-14
78
-21
-97
2
32
-64
-96
-17
-17
-1
100
18
-50
-53
-23
-42
-4
18
-8
-125
13
-20
-74
14
-4
-6
3
-61
35
-65
14
-21
-3
61
19
-44
-19
-54
0
39
63
-2
127
-17
-50
27
50
-33
-4
-21
-25
-68
-25
71
-40
-13
-43
27
-9
32
12
-37
33
15
-127
-20
-116
-5
72
80
12
2
126
-2
79
15
21
66
-30
-9
3
-9
-12
-94
-1
-1
-40
-20
14
-46
-33
62
-33
86
-8
1
-8
-31
-24
-36
21
-38
-29
-33
16
24
9
-20
-14
-45
-96
8
24
-19
68
0
-59
-78
45
-3
-16
43
-96
9
-64
33
22
25
62
-24
10
-20
14
-68
9
3
-26
-14
36
27
-6
42
15
-23
28
-35
-81
-62
35
68
-127
37
-23
-47
7
32
2
-27
-6
11
-15
4
31
21
-36
-41
-3
-74
42
26
44
127
-24
-108
20
2
21
-1
-50
-2
-40
35
-27
-38
-1
-28
-18
24
25
46
-27
24
8
-21
47
39
-21
45
18
6
-8
21
-23
45
3
-79
9
-22
-16
8
-55
38
27
-31
-30
16
23
-17
-5
19
7
-22
10
54
120
-17
44
-65
-4
-16
-50
27
41
-2
23
24
-19
-23
-10
13
4
-19
37
58
19
-63
31
-16
-22
-28
1
-10
18
-40
21
-8
25
32
-23
33
-127
-89
-28
22
-20
44
11
-123
31
-127
-43
19
17
-10
-35
-13
64
-40
-12
-17
-51
5
15
44
18
-20
36
16
6
-5
-12
-31
52
-48
43
34
91
14
95
-27
-21
-28
3
19
24
-13
29
-46
-43
-76
-35
24
-4
20
-39
-57
76
-18
-91
-59
-1
5
10
112
2
-24
-1
-47
18
-12
-38
37
3
-9
51
-65
-2
7
-50
39
62
-24
7
-5
1
1
21
-43
-12
78
21
18
2
-8
-31
-15
-25
19
48
-3
17
-83
-74
3
-26
104
67
-29
9
17
7
-27
38
-34
39
12
-31
-12
0
-75
-20
-64
-9
-30
53
-23
-22
99
26
-123
-40
17
-6
35
-63
15
0
-14
-51
3
-6
-33
-35
-26
-21
21
12
21
43
-62
17
-16
-1
7
28
12
3
89
-24
-19
10
-38
35
7
8
13
-34
33
34
-55
72
27
28
7
82
-47
-18
-105
44
-3
27
-34
17
-17
-4
-58
6
-127
18
-79
37
-6
-105
-3
59
17
-19
-3
-63
-44
11
-69
-13
3
-96
-4
-77
-93
12
104
-104
13
-20
-9
-93
-28
26
-70
13
8
-10
41
26
-29
-27
89
-21
1
-11
-11
0
-45
22
-2
-3
29
5
-14
1
-107
12
-38
-28
127
12
-127
41
-13
16
35
61
-37
-127
3
-36
89
-21
-23
-24
-14
-8
-42
34
20
19
16
-29
-41
31
-52
-13
-3
9
10
-69
38
-41
-33
-8
-60
-59
13
30
24
-1
31
10
-43
127
-39
-36
-30
20
7
8
-43
-30
-48
24
-20
-9
3
-50
-13
13
-82
-27
35
-34
-19
79
-48
-14
-62
-14
-9
-25
90
-55
-44
-10
98
-35
-39
3
-45
109
54
-8
37
-15
-10
-9
-3
8
-70
-15
-68
20
59
-21
-21
5
44
23
-88
61
-18
-6
4
-15
-97
-9
-84
-11
-17
25
-27
32
49
37
127
39
-10
18
-49
20
-11
-20
-21
1
28
30
34
31
-92
-9
-37
-10
10
-27
37
110
12
-17
-46
9
109
-26
-2
19
57
-80
-28
4
34
-36
-32
32
11
-19
-51
-54
-27
5
35
13
-108
-43
-75
53
-17
1
-17
10
-17
-8
37
-31
24
0
-26
7
38
0
-110
40
37
-16
37
-64
30
8
-14
-2
-6
-2
-19
39
41
5
49
-34
-17
-16
2
15
10
-10
85
15
-1
6
8
-21
50
5
-46
32
-19
-10
25
60
1
73
-31
2
12
4
51
18
-14
4
7
18
-14
8
26
100
73
37
29
-23
-9
29
44
-76
11
14
17
18
-37
22
-1
-6
-14
24
63
9
-46
-34
-11
-14
-28
88
40
8
-82
-1
-24
-52
-16
-32
14
-28
-29
7
27
25
-11
14
-84
-83
62
34
-4
45
-25
2
-46
62
23
-14
-24
82
-47
15
-64
-6
112
3
27
-31
-25
-3
-77
114
35
-26
32
87
-39
-3
-24
-10
-2
-7
-90
-59
-45
-5
69
-32
103
15
-50
42
31
35
81
-82
48
-18
9
3
-17
-24
-1
9
31
-21
-8
-34
-25
17
3
11
-38
14
73
16
-44
-6
-9
16
-43
17
8
7
-16
-62
7
-67
-23
-26
-56
15
-27
-11
-106
75
20
3
14
3
93
55
42
127
-12
-8
-38
-6
-127
1
35
30
29
-32
-13
36
42
-11
47
-31
10
-3
-11
46
42
14
-83
16
10
-5
18
6
-2
-21
11
28
-42
0
39
16
71
-7
-35
-10
-38
-7
43
-96
85
-2
-65
7
-20
-19
-17
7
-10
-8
-22
-2
9
-1
-19
-4
-127
-1
4
-28
-30
8
21
15
-29
-30
-41
0
2
-31
11
-66
-42
6
32
22
-3
-11
-24
11
47
21
-101
20
15
-15
21
57
26
1
-33
-2
-94
-84
-59
-127
55
-2
80
3
31
-14
5
79
27
-39
-3
9
-4
105
-4
-5
-127
7
15
16
1
13
18
38
-7
9
-17
34
-18
-22
35
57
2
24
8
-18
-29
89
-18
45
9
-11
26
-45
4
64
-18
-3
-70
28
-25
92
-25
-29
-25
-4
7
63
14
-29
-127
17
-68
-127
3
45
42
-29
-52
-120
-23
0
58
33
-109
-9
-11
-10
36
-23
-29
-50
-82
16
-95
29
45
25
29
-35
1
-69
46
-63
-36
-50
16
0
-16
25
56
-7
-46
71
19
127
-19
-13
-61
30
37
-29
12
-38
-15
5
-35
41
23
5
1
27
-27
-36
-77
-15
-1
-19
-27
10
4
-21
-14
12
14
-1
45
16
-107
0
-70
45
-8
-39
-32
-17
-8
-28
-122
63
-26
-7
35
-51
40
89
-63
-41
18
-41
-13
38
8
38
68
76
9
55
-15
-33
9
16
31
-51
28
-13
-4
69
-9
41
47
-66
-79
-5
28
84
-123
36
-74
111
-29
-71
70
59
78
-19
-81
-81
-90
-75
-1
-48
-31
-40
15
26
-26
32
61
-18
12
-29
-83
1
-53
-30
-6
14
7
-16
6
43
-30
25
36
5
7
43
7
14
-47
5
-118
-4
-5
12
-35
-104
-58
-67
1
37
-44
28
25
68
2
86
-22
-27
37
-90
23
-86
41
-14
-10
51
67
45
5
50
55
-17
-53
-17
25
30
31
13
-30
52
12
-19
-21
-1
-49
-54
38
-55
5
-16
-30
-4
-25
45
-31
55
-18
66
-7
-68
-16
-28
13
-3
79
1
49
5
15
-57
-24
-93
-9
23
-14
-16
-75
98
-52
-69
-2
16
-8
-127
-37
11
55
-16
34
-63
26
19
100
87
-70
45
29
113
15
18
22
-116
-31
-20
83
-52
17
7
2
1
-4
15
-27
14
18
-22
14
50
33
11
125
-4
0
-43
-67
106
26
-19
60
17
127
26
-93
-1
-64
-57
-34
-13
89
-67
69
40
61
36
67
26
17
31
24
67
-37
-7
-27
13
1
25
35
-37
-35
-20
35
56
-110
-9
24
-99
-20
-63
-14
-50
-56
23
109
-97
107
68
13
-31
-28
-97
-19
54
-14
-6
-19
28
19
100
-61
-56
7
35
-92
29
59
2
0
62
-47
70
13
52
16
-43
85
-54
6
-5
-5
8
-16
22
9
27
12
18
26
37
-3
17
-102
-21
27
-5
32
-41
-11
-45
4
20
-4
-72
-7
-32
-12
-62
40
56
13
16
-17
15
6
-71
-22
-72
127
-66
-14
98
29
35
36
18
28
-33
43
-6
31
-36
-21
-127
-59
6
26
-62
-91
-39
86
-33
41
-33
-11
57
32
48
-118
48
-1
14
75
-26
-20
-35
36
-50
15
-20
-17
73
-28
47
20
6
10
-21
-29
17
-8
-8
70
-11
40
6
-3
-22
30
-4
-46
-8
-38
40
-57
6
-2
16
26
-1
-14
25
-10
46
-35
6
42
9
-3
-42
-44
36
1
-13
-10
25
-10
44
-28
27
16
21
54
-65
44
-14
-11
-35
-83
1
66
7
-8
35
-28
3
52
9
-1
-1
16
-47
-70
5
24
-16
-81
-32
-19
5
10
-107
19
-127
35
-1
10
-6
16
-11
-17
-14
-70
-26
-6
-15
-10
31
12
-32
-25
-27
0
-29
0
5
-15
16
92
-35
75
127
35
-94
127
23
127
127
109
-8
-5
127
-35
2
-10
-18
19
-12
-73
6
-7
22
16
35
-93
-6
-28
46
124
-35
31
54
-14
40
-49
118
-63
1
83
20
127
66
95
-5
-87
-1
107
-30
-6
-25
-68
-87
57
-79
-58
-3
8
-31
5
-2
-35
10
-107
-24
-13
9
45
-20
-40
-16
12
35
-7
13
40
55
61
6
-43
7
-49
-2
1
-7
113
21
6
-5
8
44
127
-41
-47
-22
-56
8
10
-35
18
-35
-2
-18
-12
49
2
-63
-51
-2
-22
12
54
15
-5
-3
-62
-16
15
-5
-46
-26
-12
-19
21
28
-1
-18
34
-24
41
-1
-51
-26
-68
-14
-101
-10
-9
26
95
-22
-95
-28
2
6
11
3
20
-50
-16
12
-9
13
-33
7
11
26
28
18
-68
-7
-6
-43
13
65
29
-3
-3
-45
79
71
93
-16
6
-17
-26
47
21
9
-68
-21
27
-35
7
127
-47
45
-17
-42
44
32
1
16
5
38
19
48
16
-7
-127
23
-30
-7
-49
28
-34
-12
-20
22
8
-17
-25
-127
-3
-45
-12
-18
-2
61
60
40
-36
-10
-3
45
-1
-52
-127
7
-65
-52
-13
20
20
-54
-13
57
-3
-12
2
41
-2
74
84
-33
-100
44
3
33
16
-29
49
81
5
27
101
-41
127
-127
-19
67
110
-85
-18
-21
-64
-89
84
77
119
127
-14
4
-60
37
-50
-37
-26
7
23
-83
93
77
-62
-87
-58
-48
-48
-3
-7
-74
5
29
11
66
-33
-41
-44
-21
-53
23
127
2
47
9
67
38
37
53
90
-44
-29
-34
-16
106
31
-78
-18
6
111
-14
16
0
39
-29
2
21
56
20
-19
-44
0
-36
38
25
85
25
68
-53
43
89
-24
-11
-25
8
11
0
-60
71
-6
32
2
-27
-22
-26
-18
-26
43
8
7
25
35
-43
27
13
-20
-10
19
-53
-14
34
2
-54
21
-27
-24
127
41
-12
27
91
-120
87
-66
-12
-33
125
73
34
-8
-30
40
-22
48
28
-68
-4
-18
50
-23
-31
13
49
-37
4
30
-14
-18
-38
-8
3
-51
-9
0
45
88
-32
-27
-16
-10
-64
-7
99
37
25
-26
9
21
-41
-14
-32
-15
-52
25
22
11
14
13
21
14
-28
-61
76
11
-16
-39
-8
-34
-6
-47
-71
-121
85
9
-2
78
-7
68
-12
-41
85
-53
59
78
-77
55
25
8
35
-7
-45
21
11
-11
22
28
39
13
-3
-10
73
-14
-39
22
6
-27
-8
35
-51
-24
-12
-60
-39
3
-7
6
72
12
22
-15
37
-30
10
3
34
0
45
-2
127
9
22
-26
-127
107
127
71
46
127
48
-127
-56
-38
89
-22
-16
39
-105
-27
7
-22
-27
91
-18
10
-18
81
-75
-127
-34
-19
-3
81
29
-28
-43
6
-87
26
-31
16
45
-111
4
-112
13
-96
-23
40
14
29
-72
43
-49
-26
-12
17
-47
-9
57
8
35
-93
-34
-2
72
-115
35
14
36
-110
-20
10
127
-45
-11
-2
15
9
-19
19
-43
8
12
-5
36
-67
-36
45
-25
-48
-3
11
7
32
9
-28
15
-54
65
-28
-11
-36
-7
17
-23
-19
-27
-67
-52
-68
27
-3
-19
21
-64
37
5
3
75
0
14
-55
63
30
50
21
3
24
-8
18
-20
-25
9
69
-55
-54
-18
-75
61
-7
-29
127
4
7
-31
3
19
-16
-2
4
103
3
-41
37
-22
10
4
-18
-56
32
8
-67
-56
-24
0
14
-112
102
24
-2
-29
6
-3
40
-23
-19
12
-32
46
5
-21
27
42
-12
-47
19
-8
-29
52
2
-11
34
52
43
54
-7
-4
1
63
8
43
-83
87
-1
18
-16
127
36
-68
-71
68
-19
2
18
64
37
45
-30
32
24
2
-14
2
14
-37
-31
-18
-19
1
14
3
-15
-97
-35
-60
-1
0
-14
92
53
-53
34
21
-26
30
-7
23
-27
-3
42
127
1
-1
6
18
-3
-4
-37
5
94
-127
127
43
-6
-53
3
-26
-101
-17
51
-21
13
127
41
-8
37
-5
-22
17
39
-35
-36
10
67
-22
-17
-39
97
-79
66
15
8
-1
-21
-40
30
-36
-8
-8
36
-77
63
-4
-65
-64
101
2
127
-4
-5
5
120
-92
-32
-26
-21
-17
34
31
-75
-13
96
20
1
0
24
12
-127
10
4
5
-16
5
-18
-27
-11
21
22
-9
-19
-28
11
54
23
38
20
4
-37
-6
0
30
-85
27
80
-30
33
0
-5
52
-59
52
40
37
47
2
-15
6
13
25
-49
79
-25
2
-2
17
38
-3
-127
1
-109
-9
-13
15
-92
112
-59
-42
-40
21
2
-30
-6
-49
109
-16
26
-2
3
-21
-101
-58
13
64
6
-20
19
44
-10
1
-6
2
-25
-9
16
-20
3
-1
6
2
-28
-87
28
-13
-25
52
2
5
-15
30
-35
-5
34
35
-12
0
44
-3
1
-13
-22
13
39
-26
-8
-5
-43
-10
70
-7
-13
-5
50
-12
9
34
16
23
44
-44
-38
-31
36
9
-10
94
6
3
-17
-40
18
-2
17
30
-20
3
17
-19
-34
-21
-7
-83
6
18
-21
-30
-60
49
12
-6
8
-15
-2
-21
14
-4
-4
-15
17
-31
0
41
-48
45
60
-14
10
-26
-17
35
-16
-20
5
-23
-127
127
-56
-49
34
-46
-127
60
-18
18
28
-127
89
-17
-58
89
-31
19
-7
-13
6
-23
-23
-16
-43
88
127
-53
-47
2
29
-116
11
7
-18
-33
13
-87
15
7
-65
44
93
-29
127
-49
-116
127
-7
-40
-68
21
-9
-80
66
-10
-11
26
103
24
-24
-7
-13
4
-17
20
0
109
-36
7
4
29
-8
-12
-10
-35
21
52
-28
5
-40
28
-36
9
-66
-29
-4
-105
24
-15
-4
27
11
-35
-22
-11
2
26
-47
38
-3
12
-6
43
15
-2
10
22
-35
10
25
-29
-9
15
-76
-45
10
10
5
19
-18
-41
29
-57
-2
127
-56
-49
25
-42
96
-35
6
43
5
7
-4
22
21
121
-13
-7
13
-1
-16
30
47
7
9
-11
-19
6
2
47
-35
-16
4
-8
-30
-34
1
-93
-110
16
-26
-7
-25
22
-25
-15
-52
63
36
16
30
52
-33
7
25
5
-50
-19
-44
-27
-42
46
-22
98
43
53
36
51
92
22
105
-8
7
0
17
-11
-73
-59
127
-56
-38
0
-56
-43
32
-16
71
19
-39
52
36
-9
-46
-25
56
-14
39
13
26
19
33
-105
7
-127
53
-41
-46
24
-1
-54
-12
-5
0
-29
25
-17
40
-30
49
12
78
-13
34
127
19
5
124
33
5
-16
-2
-10
67
97
42
-37
27
11
-37
15
16
111
-19
48
-90
-22
18
30
24
-11
-2
-46
49
10
-12
13
9
-120
-1
-57
127
-6
-14
101
-97
42
-38
67
73
-44
47
-102
-47
127
-14
-10
-118
-127
57
-91
-107
123
-2
-83
48
-38
-127
-12
-35
-17
-38
14
-11
20
70
21
21
93
30
-33
15
42
-23
26
-127
21
-28
52
-42
-20
76
14
27
-21
-22
22
96
3
8
24
2
74
26
-26
-64
14
5
-26
-6
28
1
-25
1
-17
-20
-37
-67
0
14
47
26
-27
7
41
-37
-47
92
2
0
-7
-13
26
34
-39
23
67
15
29
80
9
47
-1
-69
18
-58
-8
92
4
-46
66
-28
-34
31
13
-29
49
1
-10
112
-16
-29
-12
54
-20
