127
-127
-127
-24
-21
23
-9
13
-41
-21
47
0
10
2
110
1
-8
1
-11
17
-20
-6
19
10
0
0
0
0
0
0
0
0
-2
10
-3
-10
1
-127
-3
127
-4
-20
32
-59
-51
-64
32
-51
-27
-6
7
6
-1
3
-9
3
-33
1
18
-20
-16
-9
-5
-5
-33
43
61
5
2
10
2
14
12
-3
-4
16
2
9
-11
7
-25
39
-13
5
19
4
13
-2
-45
-78
52
36
27
30
-73
31
0
0
0
0
0
0
0
0
80
-45
83
23
13
13
92
17
-17
-5
-17
5
-3
34
25
-46
-3
0
9
-127
127
10
-4
5
-16
6
4
-6
3
-4
-5
-2
-7
1
5
3
-4
-38
-5
26
-2
-6
18
59
54
-100
-4
-64
23
10
-77
2
8
-17
-36
-16
-97
-43
-34
-1
-3
-3
-62
0
-62
-7
-92
29
-12
-13
127
19
-9
1
-1
6
-10
3
5
1
10
18
117
-27
20
22
-106
-38
45
6
-15
127
-127
-6
44
4
-7
-5
-127
10
-15
-36
-23
2
38
11
117
48
72
23
-68
-1
-127
94
21
31
-28
127
-127
-10
-120
102
32
11
-31
119
-107
2
-111
-127
72
17
8
111
42
-125
77
-1
63
69
-11
-48
-61
-3
-90
-92
19
23
-2
92
14
127
66
127
20
-8
-9
127
11
14
-107
63
6
28
-42
-74
8
-12
30
2
97
0
25
-21
-23
-24
-37
-5
127
-87
127
42
-83
-90
-127
10
113
-92
115
2
-101
-87
-30
-7
12
127
106
62
127
127
-25
-23
107
10
-30
-6
2
5
-28
4
15
88
101
93
88
88
86
-44
19
12
-36
-6
-30
127
10
-55
52
29
-12
28
-63
34
31
5
-8
-16
-61
24
-116
3
-51
-36
-14
15
-29
-30
127
21
-40
1
-63
127
-17
-127
-33
65
10
58
-25
-49
89
4
24
-104
10
-34
127
19
-127
88
102
3
-10
4
26
2
20
-1
3
52
-35
-75
-94
-56
-108
-26
-41
29
52
-14
-10
-3
0
8
7
7
22
-37
-3
12
82
-28
-44
74
12
-18
91
36
-60
-39
-67
48
30
-87
44
32
-72
-20
-32
9
46
127
62
56
11
33
-18
-5
35
16
-22
6
-62
-27
2
45
127
-9
32
16
-25
-24
-45
-16
47
50
-80
-3
30
17
-13
-127
127
-18
-80
127
28
23
41
23
115
-29
127
22
61
127
-42
-9
52
44
24
41
2
-49
126
-67
9
-21
4
88
-122
-27
115
-21
-5
127
3
84
-114
67
-127
-102
16
-3
-34
-121
-55
123
-8
-21
-45
20
99
23
-127
-36
6
13
26
21
9
59
-95
0
-37
2
127
113
-127
-21
-33
-88
15
77
37
99
-77
-8
-62
-109
127
65
8
25
-69
-7
28
-25
-91
6
-63
-83
14
4
69
63
116
-123
-114
-127
-8
-36
107
127
-92
-127
79
48
93
127
49
-97
-85
36
-26
43
-14
-9
-127
20
-105
-38
-67
-101
-53
-53
12
-45
49
26
6
8
43
-56
39
-127
-24
-29
41
127
-28
-1
-127
-123
127
49
29
7
15
-4
33
13
1
122
-5
-18
-8
-20
63
35
12
-51
-32
25
3
-16
90
32
62
-125
29
-21
53
-13
-99
16
-5
85
-2
17
47
55
15
40
-25
-55
127
-24
63
119
-18
31
65
-58
-30
7
-42
127
-77
18
23
3
22
-10
5
-14
-10
-17
-16
127
76
-47
-28
-55
13
-7
52
-22
8
24
0
-9
-20
-14
-9
-16
33
40
24
57
-4
-96
85
-82
22
-9
-127
89
-108
55
91
55
-38
12
-3
46
32
-5
50
62
52
127
-6
49
-67
9
7
-23
-127
45
26
-54
3
46
-25
-62
49
118
127
10
-103
-33
45
-127
-58
57
-110
-127
127
5
29
-77
-38
-103
-89
60
92
-43
22
-80
-71
-92
102
-52
-98
-66
127
-47
-34
-85
124
45
-47
52
-65
53
-12
9
-5
29
-98
127
22
-3
-6
83
46
54
-126
61
29
96
42
-37
4
25
-81
93
127
39
127
-40
127
45
41
-50
3
-127
109
127
-56
-127
103
127
68
32
-104
-37
34
-82
127
-32
76
12
3
-12
55
11
103
-3
-16
-7
-42
31
-109
-71
104
73
-15
-64
-126
50
72
72
5
81
50
-70
37
60
-62
-60
57
-98
-127
-16
127
4
-127
11
55
48
-31
-110
-116
-127
43
117
127
27
-97
79
-34
55
25
1
112
-2
-41
87
-71
-119
28
17
-20
127
-15
-22
-23
72
-25
-104
-119
27
43
26
-3
16
-41
-25
-32
-6
-24
127
-39
-26
-49
127
17
-91
-54
-20
-45
38
-78
-45
-127
6
-36
-119
32
-23
-66
30
-1
65
10
-49
46
-60
32
-38
20
15
8
50
9
-16
-55
-22
25
-58
32
59
80
92
-22
127
15
-107
42
101
127
-31
127
25
3
30
3
22
-91
-127
-4
-4
-11
-52
11
43
-4
14
127
-116
-84
-127
-127
127
-65
-127
-34
-12
38
-44
-10
0
-35
101
110
127
-7
127
-127
11
127
-18
119
89
14
18
-58
-22
35
23
-58
-34
102
88
29
-6
54
-48
11
-87
32
7
15
-44
20
-33
127
13
-69
44
-116
-127
-30
47
90
-49
127
-40
66
-38
-26
-24
-120
50
-97
-41
-56
29
