127
-127
-127
-24
-21
23
-45
0
-41
-21
47
0
10
2
-18
-127
-2
10
-3
-10
1
-127
2
-8
-4
-20
32
-59
-51
-64
-11
-2
-27
-6
7
6
-1
3
8
-5
-33
1
18
-20
-16
-9
37
-7
-33
43
61
5
2
10
41
63
-25
39
-13
5
19
4
-19
-14
-45
-78
52
36
27
30
-3
-30
80
-45
83
23
13
13
127
52
-3
0
9
-127
127
10
11
32
-16
6
4
-6
3
-4
-17
-60
-2
-6
18
59
54
-100
-10
18
23
10
-77
2
8
-17
89
-88
-97
-43
-34
-1
-3
-3
51
44
-62
-7
-92
29
-12
-13
12
47
-65
-127
127
52
127
45
36
-114
9
-90
-38
-127
112
-7
-8
127
-55
-3
-10
32
-45
38
-15
99
-23
-4
-15
-58
-6
-127
-106
-18
-1
11
9
-27
-3
-120
-127
-16
-25
9
62
62
-8
-111
27
4
67
30
78
-82
-101
3
0
89
-127
-29
-116
-44
57
16
46
-4
6
-78
-11
-21
10
120
-116
-26
-5
125
-93
-30
-16
9
127
-127
11
-127
86
-16
-19
46
94
85
94
-25
15
127
-71
30
-20
14
102
-20
24
108
-102
10
-26
15
-127
1
53
118
127
16
0
6
-17
-125
127
32
22
127
97
71
26
-9
-13
7
-28
83
-10
-22
4
-127
111
-6
35
-42
4
-16
4
-15
-127
-36
-18
21
2
66
3
72
-89
23
-54
30
-1
105
102
-28
19
127
-100
80
-10
108
-127
-31
32
119
-85
69
2
127
-17
8
-9
111
33
-127
-127
-36
1
-84
-83
8
7
12
-1
-56
-16
49
34
-41
127
17
-2
-113
111
56
58
58
127
20
-94
-8
-25
112
-94
46
63
6
127
28
13
-127
26
127
2
97
-22
0
-10
10
-33
50
-5
127
64
-87
-25
-4
-111
46
10
113
75
-92
19
-21
-26
56
-7
12
-93
127
127
96
127
-63
-21
-34
50
15
37
29
92
1
32
-74
111
-29
-9
113
-88
11
22
14
8
34
-42
-66
68
8
-106
-12
-7
-16
25
-19
17
-23
-121
-24
16
-31
127
37
127
-83
-97
-90
47
-127
115
2
98
-101
-84
-87
54
-93
106
55
36
127
4
127
-127
66
9
-60
35
22
56
8
-2
-23
-45
127
-95
-37
127
-24
29
97
42
-47
-23
-19
13
-7
3
-67
-3
6
-35
11
2
-38
16
26
32
40
10
-32
-3
5
-1
79
-41
-30
-18
38
28
-24
17
-12
6
19
46
26
2
-64
27
78
-24
-37
1
-127
-25
86
-20
19
-11
-4
111
5
-7
-5
-4
-32
5
24
-62
8
2
10
-55
11
-24
20
-46
25
-127
10
-25
52
-31
-46
-28
-4
3
-26
-16
-6
-27
26
-45
-8
13
31
2
-8
-84
38
-24
-111
52
-20
-8
-15
-11
41
65
88
-30
73
12
-81
11
-55
-10
20
-42
-51
-16
-14
-16
-6
11
-9
15
-50
51
-13
29
-20
-38
6
-24
12
-12
-22
-43
-127
17
45
93
-10
-8
-21
-43
-31
3
10
-22
-40
0
-63
12
3
-89
-14
17
-5
-127
6
-14
22
-13
112
26
10
26
-25
-22
41
127
7
14
10
-15
127
35
-52
54
-34
99
53
27
-89
-14
57
-25
29
-12
-10
2
26
2
35
9
33
-39
3
8
31
-19
55
-16
-10
25
10
8
-18
36
33
13
-7
35
5
1
78
-37
-7
-9
44
-10
-35
-33
-94
23
-56
-33
12
13
-5
1
-92
16
3
-33
2
1
52
-6
-10
11
3
123
9
4
22
-16
-3
19
9
-25
-15
-49
4
14
-18
7
-44
-3
-27
49
12
-8
91
18
-61
-5
72
-17
30
-39
44
40
2
-6
-7
10
46
56
62
-127
43
35
10
-121
-3
6
-33
64
6
31
-32
-16
35
7
-22
-39
0
10
6
13
-6
11
40
3
-20
-8
20
96
127
-4
32
-47
18
-5
-2
-48
-75
-8
-70
0
-3
108
5
4
19
-14
-3
24
15
127
-72
11
-103
57
14
-47
-30
-23
8
74
-98
-21
-9
-20
-127
0
127
-8
76
-37
-14
-3
33
-4
-36
11
-11
24
23
-32
-15
23
-4
114
-127
-4
-17
-127
12
-31
-5
51
-27
114
-16
8
3
44
-14
14
-17
56
1
10
30
-50
-10
-36
-16
-12
2
-35
27
-11
24
-38
-57
30
-79
-54
4
10
-6
27
85
-49
19
-41
-15
-54
21
3
-106
3
2
48
43
-15
41
-27
31
-36
44
-36
24
-17
42
103
74
49
-30
-12
14
-26
-26
14
116
19
-8
1
-10
0
11
56
0
-16
10
-26
7
-21
-15
-35
64
21
-8
52
25
1
40
-11
-49
-12
-127
22
119
-15
-110
4
-30
58
3
2
27
-42
-31
-68
-3
-8
10
-23
-45
78
4
-95
22
-93
5
-72
17
-111
76
28
93
3
-3
49
-93
17
-25
45
55
0
54
10
2
18
-1
4
3
47
-39
41
-7
-18
34
-2
26
-20
-29
23
12
-55
29
-20
-80
7
5
10
-106
12
102
-26
61
-72
8
-43
-53
-94
-23
23
-38
26
0
-18
20
103
-83
23
-101
44
14
-12
-3
0
7
-12
7
6
1
4
11
72
-24
9
-40
66
-1
-6
46
-2
-21
19
-19
52
-39
-40
34
-53
-34
-51
-61
43
36
59
30
-63
-18
127
-30
8
22
14
53
9
29
10
-16
-4
2
-3
-22
15
-19
-17
11
-127
-80
-19
5
-55
-23
2
2
40
-51
-63
-7
-42
15
5
32
22
5
-81
15
-22
-20
-36
-41
-15
58
24
-42
-45
21
46
18
56
-28
3
9
70
-25
6
-38
69
2
-87
1
27
23
-5
14
127
-24
1
6
-43
-18
8
-127
-68
49
9
18
-127
-127
10
-1
-4
-50
-127
-8
33
-20
5
-11
83
10
-89
-5
-31
-8
4
-52
61
11
110
23
56
36
-20
35
-57
-75
-3
29
17
97
127
-12
-6
126
42
127
76
88
-1
-20
-35
51
-90
8
-53
-15
-19
20
-21
-20
3
-55
71
40
39
31
-19
46
-57
-61
-37
7
33
-15
1
39
-16
58
-16
-3
-1
90
18
49
-1
4
36
-18
-42
-11
0
-89
13
108
41
12
-35
-2
22
-127
110
-24
-70
-34
-9
14
63
2
-73
-11
-16
-10
-5
39
46
10
-19
-20
3
72
18
-59
39
70
127
-50
84
-127
2
38
-25
-36
-37
-17
18
44
41
-64
33
-112
40
3
23
-30
-127
56
127
14
88
-18
36
-95
23
33
105
-20
14
-80
-3
-27
-97
-38
14
64
-110
-80
127
-24
6
93
13
127
-68
127
22
5
-28
127
28
-48
-21
16
-11
18
-12
-54
59
-17
-28
24
41
15
-10
90
1
-46
100
4
88
-23
-15
-47
-57
-37
109
3
84
96
-23
-64
-53
-17
-32
49
-54
-15
-17
-38
-25
-33
-41
-34
-121
-86
-26
-17
-26
45
113
99
23
-46
-81
49
-59
1
14
16
15
62
-37
-21
101
-39
15
-78
64
21
91
-60
65
-1
3
-38
-66
-85
100
58
0
-71
38
-22
-2
-57
-6
-10
43
-32
-15
-22
115
-5
86
-34
48
-17
1
33
-97
-8
17
39
127
-64
17
-27
26
-13
-127
-60
10
26
23
33
32
41
23
127
-98
127
127
116
44
-42
-9
73
24
37
5
-127
-41
23
94
13
-65
19
-49
26
-55
126
-67
-23
-21
8
-27
-49
-17
115
-21
-15
-15
-63
67
11
-127
-127
-102
68
36
-114
-12
17
-7
12
-53
4
-6
-22
123
111
55
-8
-21
-100
-121
79
-36
-11
28
6
13
20
74
-26
-14
15
-74
-10
11
-10
71
-26
75
68
13
-42
-127
-81
-36
15
15
-3
127
-57
0
-95
-62
-71
72
-52
18
-67
-117
-40
-115
-65
1
50
-99
-12
116
-62
-30
2
-3
-63
-106
7
27
25
-21
-17
-28
-45
9
-9
-39
57
-2
4
-111
26
40
0
120
-112
109
25
-63
67
4
-126
106
-5
90
-45
-40
127
-45
27
-35
-32
44
-16
-13
71
-26
89
49
4
-24
127
62
38
-7
69
79
80
-45
60
127
66
-72
-127
27
8
-127
-126
-26
60
4
-9
30
96
8
24
-97
105
25
-98
-6
127
52
-35
-69
-121
-28
12
4
-70
39
-13
47
-60
111
31
66
70
-56
-4
66
0
19
-57
-47
-24
-127
51
35
-90
14
-1
77
83
53
-55
-85
-55
15
-19
-23
-2
17
-51
-102
-127
-38
-34
1
-33
-2
-43
-19
-26
18
-23
-127
63
-24
-53
109
27
27
21
23
-46
81
-22
127
5
-127
113
2
-27
-25
10
106
85
-8
99
23
64
6
-44
48
-59
30
52
5
10
118
-37
80
-16
-29
25
22
-27
1
90
82
45
-1
-83
14
28
-34
55
17
-70
-37
-127
-14
-127
-35
-106
9
64
-38
-9
7
25
28
23
15
50
20
48
-14
10
-17
-74
10
52
8
43
-43
-46
-102
127
-65
-28
-16
-37
81
-45
-30
-46
21
54
6
34
-72
31
14
27
59
-61
-31
-43
-39
47
60
-74
12
6
-127
40
-127
-22
-14
-100
-3
-49
-12
-34
2
-62
-10
-7
-101
-19
-19
18
-24
-58
35
-10
37
-9
7
9
9
-66
-40
59
-5
26
77
-127
113
-90
127
-21
-11
49
-21
-77
94
-25
35
-8
-18
-67
-6
23
42
-71
-17
7
-10
1
2
-69
-31
-46
18
-7
2
-51
-59
14
-32
15
81
4
-26
-56
-9
-8
-101
127
44
-36
7
-20
-9
19
6
-22
-52
64
10
-21
67
93
80
-55
-96
127
-4
127
-10
-14
96
37
-26
-9
127
-36
-9
13
-27
-58
-1
5
-62
7
-112
6
50
-11
5
-2
-31
7
-127
90
35
-30
60
52
10
1
14
79
-22
15
-27
67
-127
8
26
-38
127
-127
127
-3
-4
127
52
73
-12
84
-74
-3
8
-16
17
-28
-68
9
-47
14
-11
-7
-18
38
-3
56
-16
-5
16
-5
8
127
46
78
-31
124
37
-36
79
33
22
-55
55
-1
-2
-38
13
50
12
-37
14
-118
7
12
-30
108
-32
-34
34
-92
24
-97
30
59
-18
-88
53
127
1
13
-24
-104
-14
-26
33
-33
11
18
-38
-56
-24
9
24
110
90
-16
-74
25
37
50
-62
-3
5
-75
-126
-2
-28
37
-40
-18
-65
-35
-45
-1
20
14
60
22
106
28
-17
67
16
-40
127
21
-54
24
28
26
33
-85
-3
6
-67
10
-127
60
-76
-34
-55
-36
-93
-11
-87
53
13
-31
20
-127
-64
9
-57
0
-37
2
-71
-3
75
127
4
-88
15
77
2
1
29
47
18
-109
127
65
-4
16
101
-35
-31
-76
15
26
-24
6
30
8
37
-25
-91
6
-24
-2
81
-21
16
63
116
-123
-8
10
23
21
65
127
-92
-127
-72
19
81
-69
-5
-7
-1
17
15
-29
46
24
-40
-97
-85
36
28
-30
-10
-40
-51
20
-105
-38
26
-48
-127
-24
-21
30
-27
-59
50
102
5
61
63
13
22
1
38
-17
7
15
2
0
-1
-30
-12
-75
-1
-34
52
49
1
-57
29
-50
-21
29
30
34
6
-67
-77
-53
-10
29
29
18
4
-8
25
-19
-5
127
-33
-62
41
6
6
43
74
11
-2
28
-12
-9
-5
-17
41
32
56
3
-9
-18
-34
-12
6
-21
12
-31
25
-40
49
-102
-28
-32
-33
39
-1
41
97
-28
-77
-7
68
19
8
29
6
15
27
-88
-9
36
-20
-15
-4
-2
-75
73
-20
12
-59
6
3
44
11
16
-12
-7
-31
-16
-16
-82
3
2
-19
12
12
-5
-13
-8
43
39
-1
0
5
17
2
18
97
6
53
-17
1
-32
19
3
-17
-12
119
7
8
-4
9
-52
-60
67
-21
0
32
-27
33
1
-79
-3
-6
19
-7
29
-16
53
-25
40
-18
2
-39
-2
13
47
-76
-19
68
5
5
14
-9
26
-39
33
-68
33
-1
-36
-2
11
-50
-49
-97
127
6
127
-18
63
32
8
66
-9
-2
-32
30
18
32
14
60
6
-12
5
8
-76
-31
52
58
-19
-3
-5
24
53
-14
46
124
24
1
-7
37
16
18
10
31
23
-18
-14
-29
-57
36
65
1
14
2
-1
54
-19
-47
-2
-49
-8
-7
46
81
12
4
63
75
3
9
-27
-17
59
-18
8
-31
-9
-11
-29
-72
-100
-36
59
-34
-21
-1
-9
20
-46
54
-21
-84
34
13
-38
-127
-32
-3
52
14
-19
7
-30
6
-42
-97
83
65
-36
-127
22
37
20
-83
102
-27
-20
16
44
13
17
-106
40
23
-7
-107
23
20
6
-2
53
72
16
-10
-11
19
-23
-127
-41
59
-12
-35
13
7
-30
24
17
2
-84
-28
3
-13
-10
13
-29
-5
-25
-3
9
-17
-64
-96
0
44
14
-10
22
-7
5
-43
7
-76
-31
-7
41
57
-18
-12
6
127
4
17
0
4
-18
-57
30
-48
23
4
13
17
12
23
-69
-30
-28
4
76
-36
-28
0
-23
17
36
15
12
7
23
-46
2
3
14
-55
2
30
-17
-73
-73
14
-21
38
6
-13
-23
54
8
-42
-4
-24
13
-2
-23
4
43
63
34
12
-6
38
-4
20
41
40
25
2
6
37
-56
67
8
9
-1
-5
8
18
0
-56
-26
111
16
-5
26
7
21
-15
-18
-6
12
-8
-20
-23
-84
11
60
28
16
24
-6
26
70
-32
40
-2
13
-23
1
8
-13
124
-83
-18
-21
-15
33
30
24
2
-20
-43
-114
-21
22
-7
-127
-23
26
87
-30
-1
-38
9
-3
-64
46
6
-11
-79
15
18
24
0
-58
9
23
-45
-15
-46
-75
50
76
7
5
-3
46
-4
12
-57
71
20
-59
11
-43
-13
6
-35
60
-4
53
-18
81
29
26
8
-46
9
-45
59
49
22
-4
1
127
-13
-45
25
-2
-42
1
-60
-48
30
-127
72
-24
-24
-5
15
-57
-30
-48
-8
17
56
127
2
17
-49
13
38
74
-51
-2
-56
-17
-79
-10
127
12
-32
26
21
-1
-98
-123
-32
127
42
-49
32
-3
25
13
-2
1
102
11
-83
66
2
44
22
-4
-10
0
21
56
9
30
8
-10
-61
-20
-71
-25
-127
-35
9
-25
-1
-23
113
-17
48
35
11
12
-43
32
-4
-49
34
7
16
-11
15
-17
35
-14
70
32
-17
62
-105
10
41
18
1
-49
-24
-10
18
8
17
25
7
63
-28
-47
1
27
-30
-12
-76
16
29
-5
71
-6
-4
47
12
40
18
-25
-47
-55
-33
-45
-21
4
-57
-19
127
-3
39
12
77
15
17
50
104
-33
17
102
-14
31
73
65
-48
-7
8
2
-28
57
1
55
18
9
56
-32
74
-23
-40
-22
7
-17
31
-22
-32
26
-9
44
7
9
76
77
-11
10
29
32
20
11
8
-56
-85
-43
-8
-19
28
-23
52
55
-121
25
-51
-67
16
-16
110
61
-106
-78
-14
83
-41
-23
-52
-59
-74
54
-5
41
-7
0
-25
-51
-31
11
30
15
-13
6
21
34
-41
34
-81
2
11
-6
17
-91
61
-64
-17
107
-8
6
-5
109
-60
18
-35
23
3
9
-47
-16
-21
-79
-21
6
-58
111
61
-39
5
-98
6
12
-15
-22
17
14
-12
-29
-3
1
-59
100
127
69
29
15
33
17
-5
-6
78
-1
-53
-53
-37
-12
-63
45
90
19
19
34
29
16
25
-24
2
23
14
84
35
15
-9
14
32
-12
-7
-17
22
-16
107
-1
96
-21
-63
-54
-23
53
-28
-15
50
27
-4
-9
-21
46
21
10
30
26
-80
21
-11
-76
49
8
-8
-47
10
-7
113
52
-18
17
-59
16
-17
-33
21
-12
-20
5
-10
-16
-4
-15
-15
-4
-37
31
105
51
-16
14
6
-20
-15
-71
-59
3
-52
-50
72
31
-47
-14
102
44
5
-3
2
29
-17
-1
17
61
2
-51
23
54
-44
-14
109
-8
-16
-14
-5
-9
-13
-11
24
52
3
-17
17
50
58
1
-13
-75
-113
-36
33
-10
-1
-3
112
54
-56
39
-12
26
-24
12
26
94
-8
-11
23
-13
-8
-24
-120
49
-3
-96
42
85
-69
12
37
77
-84
55
-2
91
46
39
37
39
25
-5
2
50
52
0
37
-25
-7
-42
-27
-9
-16
101
-1
-62
-84
-15
33
-15
10
15
23
0
111
-30
29
-4
2
-127
22
-31
8
-33
34
25
-34
-10
105
-7
57
65
-11
127
-127
50
-10
43
29
33
17
18
16
4
-37
-22
-39
127
1
1
-9
2
0
29
-3
100
-24
-13
-17
-20
35
-71
37
36
-71
39
-113
16
17
28
-127
93
-3
1
-29
-67
-74
53
102
33
-11
25
2
-120
-40
-32
67
45
-127
38
-30
69
-127
-21
-11
-81
100
48
-88
26
20
-40
-79
-72
31
-2
-34
-21
-37
127
-13
-2
-24
12
-10
17
21
-19
-73
-67
-109
25
25
23
95
-7
2
7
19
5
-11
9
-47
-14
-37
103
6
-11
0
39
-5
21
-91
50
-17
9
23
58
-43
47
-23
-82
-12
-37
-22
26
19
-16
49
-101
-61
-36
14
-31
-1
127
93
8
0
7
36
51
-33
30
-5
20
-17
-9
-19
24
9
53
-31
55
-22
27
-43
-50
-53
58
-18
40
-127
-34
2
1
127
-49
-124
41
-87
-62
-99
127
-13
-53
13
2
-8
4
-72
70
127
-37
-1
19
-77
18
127
-91
-38
41
-45
39
-83
-7
31
-27
-30
-5
127
-41
-51
-11
47
92
104
-72
-64
28
-17
-46
6
10
17
7
-23
89
17
127
-5
94
-15
-34
84
-127
14
15
-22
-76
0
-13
-21
17
-5
22
35
24
-8
-16
21
6
-21
48
-5
-6
-7
-96
-66
51
32
29
-3
31
127
-72
-127
-88
38
-15
48
51
9
22
3
-4
18
23
8
13
-9
-25
-3
47
19
0
10
2
-1
-37
-15
57
-33
-44
1
-2
-11
68
-1
11
27
0
127
-127
-7
-66
-84
98
30
127
55
23
9
30
-3
4
-35
-53
14
-4
-7
110
115
55
-76
-74
38
12
76
107
49
109
9
-94
74
-3
-32
-127
-109
23
-15
72
23
-8
6
-12
26
-127
127
6
24
-35
71
0
-79
-25
-110
85
1
-43
15
73
-20
-10
-1
-5
13
4
-17
2
17
21
-12
-35
5
-4
1
-3
31
18
19
-10
75
3
45
-9
-54
-29
42
-58
18
-77
45
41
-32
-31
46
-58
127
-42
-6
15
8
38
19
8
-46
-6
7
61
-19
-28
0
-8
-29
-3
-6
4
-33
91
-51
-10
-78
43
26
-26
-77
15
29
32
58
-47
127
-42
-22
127
-41
-127
-40
9
-7
17
10
20
-41
-8
-23
-50
-110
43
6
34
111
121
57
-111
-89
-22
1
46
-21
87
-91
52
102
72
-43
-72
127
-124
57
-45
-11
1
11
56
-3
17
9
127
124
-5
127
55
-11
-67
101
39
-5
34
-28
-25
-14
15
24
26
-8
127
-7
-11
27
6
13
-7
-63
15
-6
16
33
99
-11
-23
-59
127
-74
-107
101
-32
6
-1
-11
22
81
9
-21
-82
11
102
18
-10
51
127
44
54
8
2
9
15
-35
53
-117
-3
-6
-19
127
46
-53
50
34
-67
6
-26
47
-29
8
-55
0
3
2
-22
58
-124
-27
62
10
-103
1
127
-25
-9
79
14
11
69
127
23
-31
-54
22
-6
12
127
-25
-97
68
63
79
1
22
92
-25
-68
-21
51
-127
-10
-2
-98
-17
2
-35
-26
-117
-19
9
51
-19
-99
27
-20
-73
-40
28
-47
-35
67
65
-31
57
34
45
-98
-4
-50
22
38
-52
-69
127
-21
-22
-49
-21
-4
15
-54
59
-14
-18
62
-9
-4
-47
20
51
127
-82
-127
-14
-27
-19
83
-23
-22
-63
9
21
-127
6
37
6
6
20
-3
127
-11
-35
70
39
26
-27
-71
-31
-113
-49
-54
3
-15
15
6
2
-12
-127
7
17
64
-24
-19
-1
-41
-78
-14
-12
-17
-2
35
-2
86
4
127
12
58
9
-9
-4
-1
-61
-55
2
88
-39
22
42
45
-42
58
-16
-75
6
17
29
80
-47
122
-24
53
-60
98
11
2
67
13
-5
-70
9
-10
25
48
89
96
19
-110
127
-50
16
65
-6
-91
46
-9
15
17
-16
18
-14
104
-127
-1
-8
40
-127
-65
-5
-127
7
59
38
-9
-36
100
-21
-37
96
18
7
-58
-30
-36
-19
-80
73
11
41
42
28
39
0
18
-9
44
-13
3
-60
-127
-7
83
11
127
-23
-18
2
90
3
13
-42
16
-14
-14
-23
-40
127
-69
127
-38
28
-20
-1
38
-48
93
-84
-80
-80
39
-2
52
0
-37
72
-9
-116
22
-17
55
-30
88
53
-8
127
-14
87
34
-10
37
-10
12
-29
91
38
51
16
19
59
26
-11
-56
33
39
27
100
-67
13
54
-16
51
-23
25
76
-18
21
53
127
-47
25
8
-20
-16
38
-124
22
0
-105
2
92
14
47
19
-11
-10
49
-67
-14
-21
-31
-28
73
-5
50
-56
70
45
63
-7
20
52
48
14
-57
-127
-77
-26
-18
11
2
-11
9
24
17
8
11
-27
0
-21
17
17
13
3
117
-23
-82
-2
-20
9
-45
16
10
-62
11
-16
97
115
127
127
-20
-127
122
-27
-11
48
55
66
-45
-1
-10
8
-11
-18
7
11
0
-77
-20
7
0
59
74
37
6
-80
-127
0
-56
-94
-79
20
30
-47
127
38
53
43
47
6
26
59
30
-18
-52
-10
-31
-17
-1
53
127
-12
-127
-94
-121
0
31
-3
0
-46
10
-5
-7
8
53
-19
-14
-127
2
-2
-13
-3
-127
16
-1
7
11
11
-24
11
53
-15
-37
-2
31
3
83
23
51
-16
3
-22
-9
-4
-36
5
4
31
18
11
127
-127
-37
2
24
19
-85
-57
25
12
11
24
-55
-3
-13
27
15
-16
-62
-21
-45
-7
-1
-29
-8
-36
116
80
92
-23
-5
-26
-16
-30
-38
8
11
-12
-47
-39
24
-31
-46
23
35
-8
0
-7
-36
-83
-73
-57
-28
-7
24
13
56
-64
55
-17
-68
-17
34
-4
-14
-34
-13
-24
-22
-10
13
-16
-5
42
44
46
43
9
4
12
17
22
3
-104
69
9
-16
8
2
22
16
-15
35
-18
10
-38
-11
-45
-1
-5
-68
0
34
29
-2
-51
-30
13
-89
4
-16
1
3
14
48
-29
15
-43
-35
-28
-19
67
8
40
-31
14
20
-37
47
11
39
127
34
8
-64
-38
-33
-42
-2
66
-118
-19
40
-18
-28
-16
5
-18
9
-16
-10
-52
-64
19
86
-48
87
8
9
35
-66
-2
2
14
13
26
51
33
29
-8
-40
64
43
-24
-46
21
6
79
22
9
-64
-5
-11
22
-30
-53
-20
-54
-30
5
-64
6
21
-108
43
-13
-80
8
-19
12
-1
-15
7
-12
-18
-21
53
0
0
-25
-45
57
-43
11
24
-19
33
6
-7
47
57
27
86
28
4
109
127
-28
-120
-5
-21
10
-8
-61
35
3
43
14
7
47
31
-13
82
-19
-47
-15
-13
30
-32
18
-10
0
-33
18
-4
17
-1
32
-1
24
-4
-60
-14
127
7
52
-18
44
55
-24
-39
-27
-7
19
-37
17
-77
7
-109
26
-2
41
25
-30
38
23
-32
50
4
16
8
30
28
13
-11
21
-15
-2
-37
22
11
-13
-127
10
12
36
-32
57
26
-17
47
-37
26
118
52
54
59
10
0
1
13
-2
-30
11
58
-22
-26
1
10
2
-12
28
10
-19
-13
-25
-1
-1
1
-19
101
3
-20
14
-16
8
-30
-84
-16
-127
-36
-11
122
87
31
-55
-67
66
-43
23
10
84
-18
-91
38
65
8
7
115
78
-33
1
13
13
26
67
-104
-30
24
77
64
-35
40
-8
26
-11
39
5
-61
-7
3
-33
22
9
-59
-42
72
0
-30
-40
4
35
31
-13
34
-29
22
-55
-12
-24
-26
36
-9
-6
-25
-56
-16
83
30
-91
81
-14
30
-32
0
53
50
36
68
-7
16
-6
-17
-82
5
-39
-27
-10
1
12
24
48
-13
-29
9
-9
43
-11
8
-38
-4
-16
112
-21
14
-21
15
-48
-37
-9
118
-28
7
-38
34
-27
39
-13
127
-3
-22
15
-37
-33
-12
-51
-54
37
-31
-58
18
14
18
-35
4
-15
19
24
-13
-20
43
64
-20
-69
31
12
11
-40
89
122
0
-17
43
33
17
-23
49
49
25
-45
46
55
13
67
36
55
77
-14
-57
4
9
25
7
100
4
-77
24
-28
-1
-67
-28
105
0
18
18
-14
16
49
20
-32
-8
-21
42
31
13
-14
50
28
15
50
55
-3
-2
8
-15
-38
-17
-34
105
-8
-25
88
14
-127
-26
14
-35
-127
17
-27
65
-44
-24
-57
-2
95
2
-17
-92
28
-3
33
27
-19
7
4
42
1
-12
77
-22
-24
1
-47
56
21
40
9
8
12
-7
13
-43
-23
-3
-61
25
-11
20
25
9
-79
28
-86
36
-3
2
-50
-12
100
-13
3
-9
21
-13
10
82
67
-26
-2
-45
-30
46
1
-24
-51
62
-44
110
46
5
-65
-22
-35
-4
19
-8
32
-2
72
1
100
-53
-57
37
-42
15
11
-22
20
37
-9
61
-25
-11
127
-84
99
3
6
-7
15
-2
1
-24
1
19
23
-25
1
-10
-39
-118
-4
-29
-40
-65
-21
-26
48
68
14
34
-63
9
-63
-14
15
-39
91
1
88
-28
-29
8
-29
-12
114
-34
27
39
-11
-5
-12
19
-26
7
10
-4
-21
31
-48
-94
13
26
-77
-25
-51
-15
10
-1
61
-50
56
63
29
-10
16
30
-94
12
15
-9
-50
-5
12
127
47
3
42
-88
34
28
108
-51
18
5
54
7
-24
28
-10
22
89
30
62
-22
11
10
27
-11
39
5
-11
1
35
19
78
17
-10
-6
70
-16
33
19
-19
11
-57
12
-127
32
21
3
-10
-73
5
20
45
-18
-38
-9
20
6
27
-28
20
16
-7
6
38
13
2
2
79
-28
54
3
-20
20
-54
-2
-12
17
50
7
12
-16
-33
-5
-23
29
29
-15
-15
59
38
-22
57
-1
-7
-11
2
-7
12
-1
-12
-39
21
7
33
66
-14
6
31
52
0
-14
-12
-19
16
14
57
36
-7
-5
-25
-60
65
-57
-30
33
-10
127
-17
-3
-23
-127
19
62
-54
10
63
21
42
103
52
-38
-18
25
-41
15
60
38
14
-46
9
14
-40
-9
101
-25
16
-47
-19
2
9
-22
20
9
21
-35
9
-4
-115
-4
-36
18
-90
5
-64
24
22
-8
7
7
18
54
3
-16
63
-66
23
7
3
40
22
1
17
-65
-7
-7
-41
56
86
14
20
-23
-49
30
-6
-9
40
1
-7
0
-27
-4
17
-8
-38
4
-13
-43
-5
13
-52
-47
-27
13
-1
-50
16
10
37
-127
-1
14
44
-16
-8
6
-55
66
-9
-13
15
-71
70
-4
29
-15
50
18
-82
37
-10
-8
51
46
-38
-29
-62
-59
35
-33
111
-21
6
22
16
-23
72
64
-121
-2
-127
-127
127
-37
20
23
31
2
124
101
23
49
45
25
-27
-8
8
5
-34
29
-24
76
-107
-4
-51
-14
25
43
6
127
91
-26
-28
6
-3
-3
48
-32
127
11
-10
-89
-11
14
-127
-10
-104
2
-71
16
-40
49
4
20
-2
34
118
-52
-21
-21
115
-100
-11
-22
8
5
-29
5
-22
-96
-31
127
-55
11
2
-97
-16
-82
41
7
39
119
-27
-127
-43
9
-94
23
2
20
-27
-106
45
-23
23
8
-14
-46
-42
-23
13
126
-79
-64
-81
-104
2
59
-24
122
-25
25
20
60
58
100
-4
77
18
-16
-49
-4
-26
-26
44
-19
8
37
-33
-73
127
27
-62
41
-64
9
-19
-11
-55
-36
4
53
19
50
-5
68
14
36
15
-15
36
127
127
-34
115
2
-127
-18
60
-116
31
-110
-43
-58
43
-50
46
-34
12
52
90
25
25
-127
21
-71
-58
-30
-15
-55
28
-1
127
-23
92
105
-43
33
-25
-18
-34
-3
-11
-16
-19
7
-41
-42
-15
33
-34
127
-48
127
-20
23
-11
26
66
-80
36
-20
26
-21
-54
-39
15
105
66
-12
-49
-24
-20
-21
7
8
2
4
0
21
0
33
9
-119
-64
-45
-11
-41
-126
40
-27
76
-13
-74
-127
127
45
15
79
-15
2
-40
-25
27
-125
-16
36
57
55
-127
35
-51
-30
11
-57
-49
-26
47
86
-70
27
-67
-17
46
-86
-12
-25
-65
57
9
-61
10
33
-20
24
10
-30
30
-62
89
73
102
-19
100
37
-30
127
-10
-35
66
-43
1
-19
-42
-29
-103
-7
9
24
14
-13
127
92
-127
-61
-9
-3
-89
71
27
-32
-53
4
-40
20
-22
127
-24
-12
40
-3
9
-40
15
42
-31
-50
-5
127
49
3
12
-34
-6
-21
53
1
30
-18
109
69
-35
-18
-71
28
64
-32
-8
99
-1
69
21
1
-127
-7
73
8
-39
-38
-32
-63
33
110
-127
-43
-22
5
36
-28
109
8
12
-66
-14
-28
-34
27
-83
-38
-3
-1
24
3
-86
-53
-20
20
75
4
-69
83
15
-127
56
-29
52
99
-60
-127
110
47
-127
-35
-28
15
-127
26
28
-112
8
110
-27
5
77
37
-92
-93
39
81
2
-12
-22
-35
10
39
67
-127
77
-76
-92
1
96
75
76
-8
55
-5
26
8
-7
49
43
-96
17
-100
21
9
127
41
16
-39
-4
-127
31
-1
24
16
10
3
28
5
42
65
13
-32
-34
-2
29
1
-8
15
38
-47
27
-11
-24
103
-1
-27
107
120
3
-80
-63
-48
0
51
30
-27
-19
37
123
20
-36
-24
127
90
-84
-109
77
-127
33
35
1
65
3
27
20
15
-79
-52
-55
-115
-24
59
-54
45
67
71
4
-16
-18
-74
-2
17
13
-2
-67
-44
-127
-87
42
120
-51
-127
25
-46
12
-98
-127
126
10
-2
-6
61
-83
-78
-17
-86
-10
-28
27
-23
-68
-3
6
108
-27
-73
-24
87
13
-127
20
-69
14
57
-7
-33
25
15
-60
-1
111
84
-5
-110
-25
-23
71
-30
-35
18
12
-35
30
-29
44
-26
0
14
-6
-13
-12
72
53
59
-10
11
-15
44
21
20
-72
-34
-127
-51
-6
127
-63
33
-14
57
3
126
0
121
16
-37
-46
66
44
88
66
28
43
12
-39
33
27
45
-40
68
27
-22
-45
44
-49
33
-99
-31
37
29
53
-2
8
-46
7
18
-23
23
22
-88
-17
-108
-92
127
104
-127
-42
46
58
127
54
55
67
49
-106
58
67
-83
81
10
-43
-103
-127
38
-23
114
-4
13
-113
30
-109
-54
-15
-80
-46
81
70
-8
24
-101
-23
-28
38
3
127
-29
-58
-114
-127
-17
-127
-92
40
64
-20
-16
-32
-63
5
25
-41
-67
71
9
24
-33
9
10
-5
-32
73
-6
18
63
13
60
49
12
33
-127
7
-33
101
-109
-32
37
-102
-88
-41
-62
-3
34
109
-8
-117
-42
21
23
22
16
-70
-22
-7
17
-104
-105
23
53
-30
-51
105
-127
14
16
15
-57
-29
2
-31
17
3
-7
-100
14
-12
-9
-15
125
-127
-70
-127
30
-25
127
52
-88
-53
-88
-88
92
-47
-80
86
-24
-61
127
-81
-127
-17
63
-23
-30
11
24
-57
2
53
-72
-37
-4
124
-101
-64
46
59
-4
-23
-40
-43
-3
-35
7
80
35
0
101
-66
0
-31
14
124
-2
-127
29
78
104
-20
-17
-69
88
97
126
-50
-4
-41
-5
-127
44
-4
-28
3
-48
47
26
-1
-40
6
100
-92
-16
-31
-28
-80
16
70
26
-22
-4
-14
46
24
-127
-39
77
56
-15
9
14
-83
23
-18
-35
-127
-127
-43
57
46
48
90
66
-12
93
-31
-108
-72
36
79
12
-15
-3
-48
-14
31
11
8
62
62
-80
-83
55
35
-76
102
15
-26
-23
-103
127
-46
63
-120
127
104
-46
83
112
54
101
-10
-8
21
-20
-49
-20
22
58
114
-50
23
73
-127
-119
32
64
-40
62
-39
18
49
-32
-27
-22
114
-65
-6
-9
12
83
-110
52
-127
21
89
49
48
-88
-7
23
-26
28
-36
-15
-90
17
10
-60
-21
89
-24
-8
22
-19
21
-4
47
-93
-2
-112
29
84
127
-87
-32
26
-97
-55
23
-20
44
-127
-16
-77
4
-73
-127
-23
-14
8
74
37
-67
-83
82
-47
48
68
-4
39
-90
88
25
14
-68
52
-85
-6
-56
1
-60
27
26
35
31
127
-30
-54
122
23
101
112
7
-47
-48
-53
3
13
42
-32
80
-68
-81
-74
-100
-1
-66
-29
91
-3
-54
5
-18
61
-55
-20
13
31
30
96
121
13
127
-113
127
67
21
28
-21
-3
-66
-37
22
67
124
-90
-5
-127
2
-65
-40
53
14
106
-60
-48
1
71
21
-34
-18
127
-85
-44
-15
70
-31
-8
-32
-50
-64
-24
71
80
-16
-25
127
-94
19
92
5
98
19
28
67
-18
-28
-53
-127
-6
-19
-43
10
2
57
-18
-57
22
-9
55
34
-23
-42
22
70
-28
31
16
33
-21
22
42
88
10
14
-6
83
-26
-98
39
15
-3
48
33
-16
15
-127
28
55
127
-19
-127
32
-62
-34
-24
-12
-20
-127
-19
6
127
16
-48
-67
-41
10
-35
-43
-29
-7
51
73
-16
-14
-5
39
-66
-71
-28
-56
-100
-64
-15
69
46
-62
6
117
-54
104
81
-122
0
5
-127
50
-72
-15
27
48
34
2
26
-21
-50
-11
41
0
28
-5
-14
-70
-20
-43
-37
27
-20
44
22
-49
74
-27
-35
-127
19
-35
108
-48
108
36
-91
-22
26
104
-90
-2
-127
-43
8
-42
4
-21
68
2
77
2
-95
-104
-67
78
-127
-16
-54
-4
-39
127
4
79
69
-47
-76
-5
-26
5
-104
-10
-81
43
-64
-20
-66
-25
84
-69
-44
-110
-39
-127
55
-80
126
-85
105
79
-53
-71
-44
-33
22
69
-58
87
-1
-38
71
-13
-60
-14
-52
-22
61
16
1
35
127
-79
-4
26
-102
-56
11
-20
-54
-1
-71
127
-18
-77
127
-32
-33
-127
-58
10
76
81
-18
47
-20
-29
-8
-60
52
-54
31
-44
-45
15
-70
-20
54
4
-38
-27
14
4
102
27
-118
11
79
-62
-14
-124
-37
19
75
91
-8
-14
10
-32
-9
11
11
-64
7
-72
2
-2
-16
3
7
58
-11
-62
0
-27
-25
19
-36
14
9
-69
17
-59
-21
-9
38
8
-21
2
30
13
1
8
-10
1
34
3
-26
-57
-6
-14
28
29
-33
31
-41
11
-15
34
-54
127
-7
4
-5
11
14
19
-14
20
1
-46
3
-36
-7
-14
-38
-3
1
28
-31
36
78
32
-64
-37
-14
12
22
15
-17
-50
-53
-14
127
-14
-127
-39
-4
13
-20
-41
23
3
32
24
-4
35
-65
38
36
16
22
-10
-3
-19
-54
24
7
41
31
-77
63
-50
27
-30
3
25
20
39
-4
-25
71
-20
-1
26
-14
-9
-43
12
-37
35
22
-127
-27
-10
-127
72
80
-9
9
-32
-2
10
126
21
66
-39
14
-12
6
-27
18
-2
53
-15
-2
-11
21
0
3
-1
-1
-10
-40
-22
-48
31
14
-33
86
59
-19
10
3
16
-8
21
-38
-18
47
-27
6
-21
16
-14
-45
-17
16
-71
-12
38
-14
13
39
46
-5
1
4
-14
24
-59
-78
-10
20
-44
7
-25
-16
-64
33
28
-5
19
-12
-31
62
14
-68
10
21
9
-17
55
-26
-6
42
109
10
-22
-19
-20
28
35
68
34
24
6
-11
8
4
-31
70
20
-88
-6
31
82
-23
2
-27
-27
12
-15
26
-23
-15
-36
-41
-17
-25
3
21
-26
121
-2
40
33
26
9
19
-53
42
-24
-108
24
12
-4
10
-36
21
-40
35
37
6
-85
-11
48
-1
25
46
-6
-4
-24
-23
-24
8
-21
45
-17
-8
-4
-21
-52
-11
92
94
48
32
15
22
-30
-8
3
-79
-1
-24
-23
-14
-35
-16
27
-31
-19
-21
-30
-9
-11
6
26
-52
-3
-18
-19
-32
-32
23
7
-22
12
8
-14
11
-17
120
-4
-16
-14
-5
12
-15
-29
64
16
-70
-3
4
-36
5
-1
41
-19
-23
-9
20
-25
-1
-18
-4
42
-38
63
0
1
5
41
4
19
-63
-37
-47
-2
-17
-71
-22
18
-40
-46
-6
28
19
-24
-12
33
15
50
13
21
27
7
-2
-12
39
-55
1
-4
27
-1
25
-127
-89
-82
0
-4
-17
-15
55
21
-64
25
56
-4
-82
-28
-20
31
-127
-29
-5
-18
-22
18
17
64
-40
62
-7
-16
61
-12
-27
18
69
-19
-7
36
-23
-20
-51
18
-20
23
-3
-15
-37
-48
6
52
-48
112
-8
-4
6
-32
91
-21
-28
35
-6
-22
-10
26
24
-43
-76
-2
-1
3
55
-57
-4
76
-18
103
10
3
25
-20
-1
2
-24
48
10
-3
33
-16
18
3
-9
31
16
11
-17
-5
-2
-37
44
-2
19
-5
29
-6
-2
62
-24
-38
34
3
59
37
1
-12
78
-43
-1
-23
-24
16
2
-25
19
-23
18
-34
17
-12
0
0
-19
-37
-16
2
88
-27
17
-26
104
20
6
11
12
-28
12
12
14
-78
-16
8
15
-8
9
38
-34
-12
0
-96
10
14
-31
-20
-64
29
18
9
25
-15
53
26
-123
10
20
23
-15
7
-6
0
-14
10
11
4
5
4
-6
-21
21
-42
10
-81
32
-8
43
-1
7
-38
-8
9
-25
29
121
-4
72
-22
-19
-7
15
22
3
10
-38
-20
0
19
-18
-14
8
34
-55
9
-6
-1
10
-21
28
-18
-105
-30
1
-45
1
-51
27
-4
-58
2
-3
-29
-63
127
18
-105
-3
-3
11
-1
37
-1
5
-68
-16
-25
-2
-28
-8
-22
-19
11
-69
15
25
10
20
-26
-23
38
-37
12
15
100
-3
33
-96
12
104
-94
25
2
-4
15
-6
6
50
23
10
-36
-3
-3
-20
26
-70
31
12
25
33
27
-9
24
-25
81
-12
25
1
59
-34
-99
14
26
-20
24
51
-10
-6
-97
-7
7
-10
41
26
-27
-21
-127
7
15
-11
-11
0
22
-3
-7
9
-17
5
-14
1
12
-28
2
24
8
12
-127
41
16
61
9
-11
26
-19
-13
-14
11
2
-38
61
3
-16
18
25
-16
-8
-68
12
10
-127
3
-36
-21
-24
-70
28
-25
-8
-42
34
19
-29
7
63
14
31
-52
-13
9
-69
3
45
42
-41
-33
-8
-59
30
58
33
-109
-1
31
10
127
-36
-29
-50
-82
20
7
8
-30
24
29
-35
1
-9
3
-50
13
-27
16
0
-16
-34
-19
79
-14
-14
19
127
-19
-25
90
-55
-10
-35
12
-38
-15
3
-45
109
-8
-15
1
27
-27
-12
-41
4
17
3
-31
-1
10
-9
-3
8
-15
20
-27
10
4
-21
-21
5
23
61
45
16
-107
-6
4
-15
-9
-11
-32
-17
-8
25
-27
32
37
39
35
-51
40
-14
-6
5
19
-83
-90
-17
50
18
-49
20
-20
1
-13
38
8
30
34
31
-9
-10
-15
-33
9
-27
37
110
-17
9
-4
69
-9
-26
-2
19
-80
4
28
84
-123
-36
-32
32
-19
-54
70
59
78
-5
-1
-31
-5
-5
-7
2
-18
5
35
13
-43
53
-1
-48
-31
1
-17
10
-8
-31
61
-18
12
9
-13
21
55
-51
-27
37
-86
0
-26
7
0
40
-6
14
7
-16
37
-64
8
-2
36
5
7
-2
-19
39
5
-34
-118
-4
-5
-16
2
15
-10
15
1
37
-44
7
43
7
16
42
10
-10
4
6
8
-21
5
32
-22
-27
37
-10
25
60
73
2
-10
51
67
21
22
26
81
12
-10
7
58
4
51
18
4
18
-53
-17
25
8
26
100
37
-23
12
-19
-21
-21
44
104
-12
10
-4
56
7
29
44
-76
14
18
5
-16
-30
-6
-2
30
-39
23
-2
3
-29
22
-1
-6
24
9
-18
66
-7
-34
-11
-14
88
8
79
1
49
-4
-41
-16
29
-62
5
27
50
-1
29
32
7
-50
9
29
-13
-1
-24
-52
-32
-28
-9
23
-14
-32
29
98
-16
30
-4
39
32
7
27
25
14
-83
-2
16
-8
34
-4
45
2
62
34
-63
26
5
11
4
-37
21
-18
-20
31
-14
-24
82
15
-6
29
113
15
3
27
-31
-3
114
83
-52
17
-26
32
87
-3
-10
-27
14
18
-7
-90
-59
-5
-32
125
-4
0
15
-50
42
35
-82
60
17
127
-18
9
3
-24
9
-34
-13
89
-21
-8
-34
17
11
67
26
17
-2
13
-34
22
6
-20
-22
17
14
73
16
-6
16
-27
13
1
17
8
7
-62
-67
35
56
-110
-26
-56
15
-11
75
-14
-50
-56
11
49
5
-15
-21
-18
-61
38
3
14
3
55
127
13
-31
-28
-4
53
19
-16
-10
-2
87
-34
-8
-38
-6
1
30
-19
28
19
-32
-13
36
-11
-31
-92
29
59
-3
-11
46
14
16
13
52
16
-5
18
6
-21
28
-5
8
-16
0
39
16
-7
-10
26
37
-3
-7
43
-96
-2
7
32
-41
-11
7
-30
-1
-47
26
-6
39
97
-19
-17
7
-8
-2
-7
-32
-12
-1
-19
-4
-1
-28
-17
15
6
8
21
15
-30
0
-14
98
29
-31
11
-66
6
22
43
-6
31
-11
-24
11
21
20
26
-62
-91
2
-22
-34
-19
-33
5
-43
17
-15
21
57
1
-2
-11
57
32
18
-28
18
27
-20
-29
-44
18
-84
-59
-127
-2
3
75
-26
-20
-11
17
49
-32
-18
-21
36
-54
-14
5
79
-39
9
-17
73
-28
70
-11
40
-27
38
-42
-36
6
42
9
-3
8
55
31
-30
-42
54
-65
44
31
10
38
-25
-14
66
7
-8
-7
-8
-67
-49
35
-81
-32
-19
64
-21
15
5
5
92
-35
75
-65
-31
-61
38
127
127
127
109
-22
127
21
-19
-8
16
35
-93
-60
24
127
-37
-6
31
54
-14
-38
67
83
-26
40
83
20
127
0
0
63
-19
66
107
-30
-6
83
3
11
-30
-25
-107
-24
-13
-78
-46
16
-127
9
-43
7
-49
14
17
-34
-32
-2
-46
-26
-12
-127
22
-11
11
-19
34
-24
41
-94
-4
-5
-21
-1
-101
-10
-9
0
-65
14
52
26
-4
-22
30
68
-4
-68
-7
-6
-58
36
1
3
-13
7
127
-47
-14
-35
-83
36
1
-127
23
-30
-37
3
52
-15
9
-20
22
8
14
-107
19
-4
-127
-3
45
-1
47
-94
127
61
23
101
-41
127
-6
127
-35
-19
2
-18
-21
-64
-38
46
124
16
-35
23
-83
93
-66
118
-63
-67
1
-48
-3
-7
127
-5
-87
48
-1
-33
-41
-44
-90
-87
57
-3
-79
47
9
67
60
-20
-40
127
-16
111
-14
16
1
-7
113
8
21
85
25
68
28
28
-1
15
-18
-24
127
41
-68
-26
-68
6
-14
-66
-12
-33
127
-22
-95
-53
-28
40
-22
48
-43
-1
13
65
76
29
28
-67
45
70
-17
-42
-8
44
-16
-67
-7
-6
-49
28
45
-34
-27
-127
-17
0
-25
-127
-10
-3
76
108
-52
-24
-127
7
8
-65
-121
16
-127
4
-19
67
34
110
96
25
-89
-31
84
77
-74
119
127
9
77
-9
-62
-87
8
-58
-16
-96
-74
-36
5
29
25
11
-20
6
-21
11
-53
23
19
127
-39
-37
38
127
37
53
-36
90
-81
-12
0
-9
39
-29
127
2
87
-25
-53
14
43
89
-23
-24
16
39
-12
-65
27
91
4
-120
53
42
125
-13
73
34
-8
-8
-11
8
28
5
-68
-4
-16
-18
-49
36
-67
13
9
-3
88
-32
-74
26
16
-3
50
32
14
-28
-3
30
-16
14
-60
-12
78
-7
-35
25
-127
-30
-47
-45
78
-77
-63
-46
-12
8
21
-52
-10
73
6
-19
44
10
-66
-85
-26
-127
73
127
1
127
-18
127
-127
-56
-22
-67
1
-11
127
-48
81
-75
-87
40
25
0
-31
66
-28
-43
-13
-31
-10
30
127
2
-111
4
127
70
2
-44
-8
-44
29
-72
38
50
-27
-17
3
21
-115
35
125
96
-61
-46
2
-11
8
12
-4
60
-2
31
-13
87
-55
63
-27
-37
-34
30
61
-30
18
-20
-46
-76
-119
-1
3
50
-75
61
99
-67
-27
-59
1
-16
35
-10
13
-70
-61
-15
-127
76
-96
11
27
-14
68
127
-66
-12
-80
-41
-29
127
55
0
16
25
-11
8
22
11
-14
49
3
-39
99
22
-15
16
107
3
-43
127
-54
71
26
8
-38
-30
-10
89
127
-22
3
43
-127
15
-32
-34
24
-19
50
-7
6
33
-16
-87
21
26
6
-59
-112
16
-9
13
-93
-96
-94
17
43
-39
44
-49
33
-26
-10
-5
14
-16
-25
36
59
-110
127
12
-5
61
76
36
51
-67
5
100
30
5
112
50
43
21
20
11
-25
14
77
9
-18
69
87
-9
-7
10
-26
-29
-24
127
-61
7
-13
-96
16
-7
99
-67
-82
43
127
-24
-54
-39
-8
19
-11
34
-60
127
37
-53
59
-83
127
-96
-24
53
-28
-7
-45
-71
99
122
48
8
-19
-27
-8
-31
-26
-71
-97
68
-63
127
48
-37
7
89
9
-24
-127
39
-105
3
-38
13
-1
-4
-17
81
29
-36
14
-68
17
-46
66
16
45
66
22
-26
-84
-35
-114
40
14
-8
-12
-127
-28
-17
27
17
-47
101
3
-45
-5
-29
-7
10
127
96
29
70
39
-54
27
45
-25
22
-14
50
61
4
63
24
-8
-127
1
67
15
-82
83
-54
-18
-59
-62
-8
-37
7
-45
7
-31
109
-23
-96
95
-11
-24
53
0
14
12
-112
-33
66
-29
-35
52
2
-47
-11
67
-127
-1
61
18
-16
80
127
7
48
-19
-1
2
18
23
64
-5
-85
-19
-56
1
14
8
3
36
-89
94
127
-127
127
-69
43
-111
105
-101
29
-17
51
-127
-21
-7
43
67
-118
-22
-17
-58
-39
16
23
8
90
-1
-21
-67
-40
13
-89
36
69
-77
63
-88
-4
-55
-35
127
33
-4
-5
2
5
127
-2
1
55
0
24
16
12
-45
47
-19
4
-28
11
-46
54
30
43
-109
-16
-9
-13
32
15
-19
-31
-40
50
21
2
5
-30
-40
-40
26
-48
-2
3
9
-21
102
20
24
6
2
11
-127
-28
34
-37
52
39
-26
-46
1
-8
36
51
-68
44
-44
33
-5
-38
37
33
45
6
3
7
72
-17
-15
-87
-97
6
18
-58
-5
-21
-6
127
-53
-127
127
42
-18
-56
13
-64
127
-18
18
86
-6
28
97
21
-79
-43
88
-80
-14
127
30
30
-36
11
7
9
-13
-18
-65
98
-64
-65
44
127
39
93
120
125
-92
-7
-40
-17
27
-68
-127
-5
10
-17
20
-4
-22
0
23
-26
38
-40
28
-58
10
-36
-92
80
112
-18
-41
-8
-24
29
-6
-36
-49
25
-42
9
-13
96
-101
59
-58
-4
22
0
-45
21
-87
28
-13
-25
52
-46
1
60
-5
-43
-10
70
-7
33
-51
4
-31
36
9
-10
94
-19
-87
44
-40
18
-2
17
30
19
38
47
-30
-60
49
12
-6
-20
39
3
-49
34
-46
-127
60
63
80
-34
-127
89
-17
-58
89
32
20
-44
-53
-47
2
29
-116
-22
10
37
-33
13
-87
15
7
20
-115
-36
-29
127
-49
-116
127
-76
-56
11
21
-9
-80
66
-10
-17
-127
18
109
-36
7
4
29
-127
25
127
9
-66
-29
-4
-105
31
32
20
-57
-2
127
-56
-49
22
40
12
-35
6
43
5
7
24
56
27
121
-13
-7
13
-1
106
-54
3
-93
-110
16
13
-26
127
-12
27
46
-22
98
-10
43
-56
75
-37
-59
127
-56
38
-38
11
69
-42
-16
71
19
-17
-39
73
5
24
-105
7
-127
32
53
1
8
-18
97
42
-37
127
27
93
-127
127
111
-19
48
-20
-90
-77
15
56
-120
-1
-57
-96
127
-85
-1
-15
42
-38
67
-91
73
-20
3
-8
127
-14
-10
94
-118
-79
-89
113
123
-2
-83
18
48
47
40
-12
93
30
-33
-4
15
104
4
2
-21
-22
22
12
96
39
-30
14
-39
23
67
1
15
-7
-10
-31
-1
-69
18
12
-58
13
18
-36
66
-28
-34
-48
31
-108
6
-4
-7
-19
-9
-25
43
-27
27
92
53
14
62
36
9
-67
63
3
0
-23
-23
-56
17
-11
-54
114
52
-10
22
36
-6
76
-12
89
-41
-8
-105
-46
-49
-12
30
-1
11
91
-24
-37
124
127
19
107
-22
48
104
18
-49
-71
37
-25
-6
-37
-84
-14
-52
-127
126
29
-44
-20
1
47
-127
-44
-127
-25
-127
-46
-58
57
52
-65
-114
28
-38
-13
-127
-127
37
32
-15
30
42
-127
26
-23
-3
40
33
-127
3
-36
63
8
-5
30
30
-15
29
24
103
80
-32
16
11
-50
-8
8
-15
92
6
3
5
32
13
106
-55
-29
-17
-34
62
-119
