-2
-112
127
-127
-10
-127
32
-24
-15
-81
-41
-21
9
47
-38
0
2
-10
-8
1
-2
-11
1
17
0
0
0
0
0
0
0
0
-4
-35
-2
10
1
-3
0
-10
21
30
-4
-20
-7
32
-37
-59
-3
-36
-27
-6
19
7
12
6
0
0
0
0
0
0
0
0
-52
0
-33
1
-3
18
95
-20
23
10
-33
43
-5
61
-6
5
0
-68
12
-3
13
-4
15
16
0
0
0
0
0
0
0
0
0
0
0
0
0
0
0
0
0
0
0
0
0
0
0
0
-8
40
-25
39
-127
-13
-7
5
2
86
-45
-78
-2
52
8
36
0
0
0
0
0
0
0
0
31
25
80
-45
2
83
-19
23
1
6
-17
-5
1
-17
8
5
0
0
0
0
0
0
0
0
-4
-13
1
2
-3
-1
1
-14
9
-34
-3
0
6
9
-12
-127
127
9
-16
6
4
4
127
-6
-3
-27
-7
1
-6
5
11
3
-3
-19
-2
-6
2
18
13
59
-1
30
23
10
0
-77
-35
2
0
0
0
0
0
0
0
0
40
-23
-97
-43
-2
-34
-44
-1
0
0
0
0
0
0
0
0
12
43
-62
-7
1
-92
23
29
24
-90
-9
1
-11
-1
-19
6
12
-127
10
18
-3
117
-24
-27
-21
-39
14
23
-45
-9
0
13
10
-30
-41
2
-18
110
-127
1
-20
4
15
-6
-1
19
4
10
0
0
0
0
0
0
0
0
1
2
-5
-127
2
-3
-8
127
-51
6
37
-64
-11
32
-2
-51
-1
20
18
3
8
-9
-5
3
0
0
0
0
0
0
0
0
-16
-13
6
-9
37
-5
-7
-5
2
-127
127
10
41
2
63
14
2
7
40
9
23
-11
12
7
0
0
0
0
0
0
0
0
0
0
0
0
0
0
0
0
0
0
0
0
0
0
0
0
19
27
-87
4
-19
13
-14
-2
27
32
121
30
-3
-73
-30
31
0
0
0
0
0
0
0
0
13
12
-90
13
127
92
52
17
-3
5
9
34
6
25
11
-46
0
0
0
0
0
0
0
0
14
-2
5
-2
2
1
3
3
127
22
33
10
11
-4
32
5
3
-4
-38
-4
-17
-5
-60
-2
-4
6
9
-38
3
-5
10
26
54
1
-1
-100
-10
-4
18
-64
8
-9
26
-17
89
-36
-88
-16
0
0
0
0
0
0
0
0
-3
-23
-112
-3
51
-62
44
0
0
0
0
0
0
0
0
0
-12
22
62
-13
12
127
47
19
-10
30
62
3
28
5
7
1
20
8
1
22
33
-106
-30
-38
21
47
-88
-38
-64
-11
-2
9
18
-65
-77
49
-2
-114
-38
-46
26
7
-54
33
-65
97
-8
-127
-10
4
48
51
9
-18
-27
-90
-112
127
37
-58
22
86
120
9
22
12
-53
-17
-55
16
-3
-3
-23
-8
52
44
-5
26
34
-85
-125
19
123
-8
-23
-47
30
-4
-126
-28
127
-18
-1
-38
-13
11
26
30
-15
55
3
-113
2
-68
1
42
7
127
25
71
35
-87
-127
3
124
-20
-25
127
127
9
13
36
-72
-92
67
29
8
30
61
-21
-84
-78
-30
94
-28
14
5
29
-68
12
-127
-63
-20
-29
-80
-3
85
-13
-44
71
105
-6
127
9
-31
2
16
-14
-39
-127
3
19
-20
35
48
-43
32
-47
-21
-9
76
-8
-64
127
-127
35
-6
-5
9
31
-10
-38
-27
-86
1
19
2
-104
24
6
117
12
25
-21
103
-6
-102
-10
72
22
98
18
-25
-25
18
63
58
73
-7
-88
-48
-25
-36
-15
9
-39
2
127
21
48
77
9
5
-19
-12
-2
-46
-8
18
-102
69
-73
-30
11
-63
-40
45
48
-20
46
6
-5
22
-127
-17
62
24
42
-34
4
-28
-19
7
78
-80
-55
3
19
-127
31
127
96
-76
71
-12
25
-60
26
54
-116
80
-30
9
-2
-26
-115
28
37
24
31
-55
1
35
-10
13
-8
-49
0
85
65
25
-35
27
8
73
-8
107
-74
45
-18
36
-19
-114
6
95
-127
-7
-10
-8
-76
127
-5
-1
15
-7
69
-20
-34
12
8
-38
58
38
16
-15
61
99
11
83
-59
-56
20
-3
-18
43
-2
-5
-3
-127
127
-106
69
-18
94
-3
-16
-120
100
-127
-127
-16
102
70
38
1
19
-21
27
-24
-27
127
116
-7
4
2
79
20
7
-7
-27
-111
-28
27
-78
4
-127
-85
-34
3
17
0
-3
89
-17
-55
-58
77
-39
13
-30
0
-1
48
-50
16
-43
46
-54
-4
26
-10
10
-90
2
5
48
-4
-92
-7
-76
54
8
0
-16
-4
14
-42
-103
-78
-7
11
24
-18
2
15
-78
-11
-3
23
-21
10
120
-18
125
-93
3
1
-30
-16
9
21
20
11
-127
0
-54
-15
-26
6
-127
86
-15
22
-16
-19
46
12
-27
-47
-20
-3
60
-18
29
-19
-25
15
-4
91
127
-71
30
0
-20
24
-4
-127
108
-102
10
6
-42
2
-21
-19
19
20
29
28
-3
-66
17
-21
8
26
-62
127
1
53
34
-7
118
127
16
20
-125
127
-27
-7
32
22
127
-71
-52
46
-1
-25
-82
-12
65
-22
-9
-13
-13
-28
7
-28
83
110
-36
14
26
-4
113
99
21
-127
3
1
-90
41
-79
17
-41
54
38
0
19
45
-25
-26
19
-107
-26
4
-100
57
-127
111
-6
117
-127
4
127
47
-15
-127
-36
5
-5
-6
-9
-127
3
2
7
86
85
3
124
-67
72
-89
23
29
-64
14
25
-77
40
-46
50
-18
14
102
-3
43
-28
19
127
-24
15
-127
-33
27
-31
32
119
68
0
-7
-104
35
43
-63
11
-17
0
-4
95
-53
-31
26
26
0
6
-17
2
-84
8
-9
111
89
71
1
109
38
-84
-83
8
2
36
-6
0
-19
-11
4
-48
-9
-22
-16
57
11
49
34
-41
-18
19
2
7
-75
-2
7
92
23
8
-33
-31
-23
14
48
2
3
14
-34
-19
-89
39
75
56
35
-6
10
-42
-70
56
43
2
-18
-4
-23
21
65
7
-116
2
-26
20
127
5
69
-127
-28
-26
-54
-3
-13
30
46
52
112
-39
64
3
42
27
70
-24
12
-29
-100
3
7
80
93
28
27
-127
-85
10
-28
69
42
-4
32
-58
-57
-6
16
67
127
6
62
-28
-11
1
5
-25
6
-34
26
-3
33
115
1
-127
-71
32
12
15
7
0
4
12
77
-50
127
-32
-48
11
-5
-21
-22
39
45
63
127
6
5
17
-5
36
6
23
11
-127
1
-91
-66
30
27
17
-2
8
-72
-1
5
-12
101
36
0
8
66
23
-56
-17
72
-31
4
-32
-16
31
105
-20
47
22
2
55
66
-7
-125
-3
94
36
2
14
31
-127
-11
38
-24
-7
-1
24
105
4
-115
-13
-106
16
-3
-43
-124
21
-30
44
-127
-52
-10
-8
108
-3
-1
127
9
-118
2
-2
127
-7
2
94
-3
-127
-4
-14
77
34
127
12
85
4
0
-11
-17
8
-62
18
-35
-9
-125
-127
-36
5
-1
12
-18
-125
-1
-46
-56
35
-90
-2
81
-24
-3
45
98
26
-6
-28
-101
21
-2
31
-113
10
-43
2
24
2
127
-127
-2
-22
-6
66
-24
-115
-1
-12
3
21
35
10
-12
45
24
-22
-14
99
-17
61
-16
125
-4
12
50
127
7
-15
20
-64
0
-20
39
63
20
25
6
87
0
127
12
-1
-41
-127
-47
-5
-16
6
109
2
-10
-24
97
-15
3
34
-82
96
-34
-30
-70
-127
117
-7
43
-5
-127
12
127
44
-127
-24
39
10
-102
28
113
52
-12
-1
82
49
-19
0
111
89
-3
12
-36
65
21
-38
-9
-104
-19
-6
48
-7
39
-99
12
-64
-7
27
-54
-21
-22
-2
-34
34
24
-5
127
-23
36
29
107
-78
-10
19
0
32
-10
27
-74
77
9
-5
27
4
45
-89
15
-53
-33
-53
-32
4
-5
-47
78
4
-72
18
-51
22
-73
27
-28
-11
84
62
119
-8
66
-9
39
-6
50
92
-127
28
22
-42
-23
4
1
-127
10
-4
40
7
-10
-127
1
-85
-109
0
107
25
-6
1
-3
70
-51
-39
-24
45
-52
2
27
-4
1
-87
-97
127
13
8
24
-33
26
-92
58
115
1
6
-22
33
68
32
-5
13
-127
5
-127
64
-38
0
-40
27
87
2
28
-40
-14
127
14
106
19
2
99
-79
-102
15
-5
9
-20
2
107
-56
0
10
-127
-30
-2
2
67
29
-18
-29
-27
-45
44
-6
11
-25
-20
88
-29
101
28
0
9
-47
-20
-9
-28
2
127
16
-1
7
10
91
-23
-10
-16
91
11
22
14
-57
39
8
-22
34
8
-106
-12
-25
-46
-7
-9
-16
13
-31
-4
61
-8
43
4
-118
-23
-121
-24
-114
-53
16
-3
-31
-21
84
-13
37
-9
17
71
28
-83
-97
-90
127
-4
47
-10
-127
-101
-84
-87
-102
-6
54
8
-93
22
-100
-3
-10
127
3
-26
-84
8
-3
0
18
-62
-17
-29
-13
127
4
127
24
-2
-127
-1
66
22
56
8
-10
-37
-2
-3
-23
2
-103
5
124
-4
9
7
-10
-37
127
-24
24
-38
29
-61
97
88
0
88
1
-7
-87
-5
65
39
59
6
0
-23
65
13
5
-5
-16
53
-72
-21
29
13
48
-45
27
21
-23
-93
-73
13
11
-20
23
-17
-26
27
9
4
-13
42
-40
-14
-20
2
-19
10
84
-10
19
70
120
-10
34
0
-56
-20
53
-53
15
4
-22
13
41
-3
5
-3
-30
-19
11
2
-10
-8
7
11
127
-27
8
-10
21
51
27
9
0
26
-35
-47
-2
119
-30
0
-8
97
-22
127
-5
-11
45
-66
21
16
2
16
49
-93
46
-37
-7
-67
-23
55
127
32
33
37
9
-9
-32
-2
70
-13
20
67
124
-11
30
1
-54
-41
-25
-37
-16
18
38
23
-12
6
16
-6
40
-47
26
1
-10
-39
41
-19
-53
-19
-11
37
-21
-24
-31
7
1
-114
-127
-20
-34
-38
3
27
61
-2
-3
2
-13
-11
-3
-28
97
-15
5
-6
-19
-5
-32
27
-9
-46
-78
-23
16
5
20
-24
-54
-3
8
1
-27
-24
17
-13
-40
56
25
-104
-7
-41
21
-127
33
-39
-5
26
-6
-31
-39
-20
-24
-18
-4
3
-31
-27
22
-19
-39
29
-8
10
-23
-22
9
0
-24
-12
28
-15
-36
-40
-85
71
8
-50
-1
-52
4
-84
32
-16
-21
5
-111
43
-41
-11
34
-19
57
20
88
-24
17
11
-47
8
-9
-15
20
-34
1
-16
-5
7
10
-30
-9
12
4
29
-17
12
-33
11
6
-19
24
-43
-107
13
14
-10
45
76
13
-12
-7
5
-55
-1
-21
14
-12
-12
20
57
122
-12
37
0
-56
-43
-26
-63
3
1
10
-18
-38
12
2
-27
-77
-13
-14
14
-10
-14
18
-3
-11
69
112
21
-13
-22
35
-74
110
-65
7
11
-57
27
-54
-27
6
127
-100
-33
-1
4
-17
-5
17
-40
-23
-6
-49
35
-44
32
47
-25
-34
81
-2
55
18
3
-4
-48
-30
-40
-82
-2
1
-62
116
-12
12
-1
16
-48
64
11
-15
-21
-4
39
-31
-46
16
84
35
27
31
0
-21
-14
48
-7
-21
33
29
-10
-47
-50
14
-22
-13
-46
-35
-32
-80
2
29
-6
8
25
33
-32
-62
-19
46
-8
-14
32
-10
20
-4
0
19
-16
-31
8
20
2
-4
-18
44
55
-30
-5
-33
13
-33
36
28
57
11
12
-7
28
78
-27
44
-35
5
47
114
27
-46
31
127
-7
-25
7
-5
6
-18
-37
-6
-17
-8
-20
44
-8
-37
23
-47
4
-29
0
12
11
73
16
3
1
-28
13
2
1
11
-65
-7
86
-3
27
46
26
-9
-10
34
19
109
-22
23
4
-27
11
3
-91
107
-21
9
3
20
19
8
-6
-22
-7
-15
-40
-18
-16
51
-17
-47
-18
22
17
-51
-9
25
-16
-32
12
0
12
-19
-19
7
-5
19
9
4
-7
1
7
-37
-21
-2
-19
-27
40
-58
-37
12
10
-9
-8
10
-12
-12
18
-51
-37
-5
51
72
-14
-64
40
2
1
-5
15
-7
8
38
-127
36
-45
31
39
10
-99
-59
64
5
6
27
25
-32
-13
37
-39
0
15
9
-8
6
11
1
3
-17
-26
-7
3
20
79
-55
-17
-12
-34
22
-2
28
4
24
-25
-21
19
59
-16
19
5
26
-47
15
-35
-4
-30
-2
-40
-43
44
-2
-25
-70
-28
-22
23
20
0
-2
-81
93
-12
5
3
31
7
-10
7
-18
-12
68
-6
-49
13
-54
-21
21
-4
45
-43
13
-6
32
26
-50
-127
7
-1
16
-8
26
-2
0
-24
-5
-3
49
17
-7
3
-67
21
15
0
2
-4
28
-16
24
-27
0
2
-3
-3
-25
16
-2
43
-19
1
0
-3
-38
16
26
-42
-30
-3
7
-6
-98
-33
83
35
61
-1
-17
-4
-6
-5
-20
-69
20
-3
18
-67
-1
-21
-25
-46
-19
-6
4
4
-28
16
0
55
-16
-1
8
38
79
-30
15
79
-55
9
30
-2
5
-1
79
-18
-127
0
-15
-6
20
-19
25
-21
4
2
-2
12
-24
17
-12
-3
33
-3
17
-12
-64
27
78
-28
-15
-3
-24
-9
-5
16
15
-62
-8
-10
35
-9
86
-20
19
-114
12
1
-42
14
-21
9
-52
9
19
-2
28
16
-5
-4
-32
8
3
2
28
-6
-7
-13
17
-88
-16
-17
-13
-7
10
-55
11
9
30
-3
-36
-78
10
-25
52
-31
27
17
73
-9
-29
-4
-17
33
0
1
-21
12
-26
-16
-6
-48
4
2
55
-5
31
2
-8
-37
-15
-1
67
23
-43
-25
-79
-14
-35
4
-16
-40
-31
-2
-67
6
7
-4
-16
-18
-20
-8
-15
43
43
3
85
-14
73
12
-81
-32
24
10
-5
18
-51
-16
-14
-10
14
7
-5
4
-50
51
-13
1
-10
-4
-20
18
12
-12
-22
-23
7
4
-4
-13
-10
-8
-21
47
25
1
8
10
-6
-98
12
-3
-5
-1
2
-1
27
-16
24
-27
3
1
-8
-2
-40
0
-63
19
119
0
9
10
-5
-127
6
1
27
-6
-27
17
10
26
-25
-21
-45
5
29
-6
10
-15
127
-64
17
-5
-23
127
20
-6
6
-2
33
6
-29
29
-13
-10
-55
-8
-46
-2
40
75
53
27
-89
44
-93
-9
-49
-19
12
-1
-29
32
12
7
14
2
17
-16
4
2
12
1
4
-20
-47
27
-3
53
71
-6
-30
10
-45
9
-74
10
19
4
17
124
-10
2
26
9
2
5
13
-48
54
-10
-16
-36
-5
12
-26
-29
3
8
31
37
-7
10
14
-9
10
8
-18
20
12
-3
24
2
13
-42
-5
2
17
-1
-38
-7
-19
6
-40
39
59
-4
-25
4
5
1
78
9
-106
-3
-23
2
-2
10
-24
-47
66
6
49
46
11
-1
11
-40
23
1
6
43
-35
-33
-94
-38
-53
3
-21
26
-5
1
-92
-16
20
-1
-5
-5
52
-6
-10
-11
-3
-1
-3
5
-32
1
-46
-64
35
2
11
-1
-10
3
-7
14
-8
0
-24
8
22
-16
-3
4
11
0
3
-18
4
14
-18
-5
46
7
8
-17
-12
14
33
-56
-3
-1
48
-4
22
5
-5
-37
-5
-2
36
-8
-16
-32
32
2
44
0
13
27
12
-8
91
-36
34
-14
68
-9
2
16
-11
17
21
-3
-10
-14
30
-39
44
52
30
0
-3
-26
46
56
62
13
53
-1
8
-10
-3
6
-33
-3
-22
-127
24
27
35
7
-22
-17
5
-10
127
9
-6
11
40
-57
-7
-3
4
32
127
-4
32
-73
15
-12
18
-29
9
15
32
7
11
-4
-20
6
-42
97
-5
-13
-9
-2
15
-3
-75
-8
-70
21
-42
9
-9
20
37
13
-59
-30
-12
-1
4
4
19
-14
-3
3
9
0
5
-53
-10
3
26
-25
-9
-5
-23
23
-127
65
4
49
42
127
27
70
-5
34
68
-127
46
64
-22
-38
-3
10
16
2
-49
3
-6
127
-15
-72
-14
9
-69
48
14
36
8
9
-50
1
1
-35
0
-50
-6
62
-35
-21
6
77
-9
-23
-15
8
63
59
-65
-18
-9
44
-10
-57
124
6
17
57
-20
-30
22
-37
-9
32
3
-6
125
3
45
-9
8
43
44
16
-85
-49
-16
59
-21
-22
15
68
-5
-56
-17
-60
-4
96
59
-54
-55
0
-6
127
-22
-6
51
-31
-14
36
8
4
-51
3
-1
-31
1
-4
-6
-36
21
9
-8
20
23
23
-22
-4
117
91
-85
-4
-17
-23
-10
63
-27
35
-126
4
18
-31
42
-5
-12
41
-18
96
-16
11
1
-15
-65
2
-23
52
2
44
-13
-14
-74
11
-11
48
1
64
-42
-64
24
34
94
17
-12
-50
16
-10
17
-29
-11
-10
2
-11
-13
24
-73
-30
-38
26
-79
-59
4
45
12
29
26
53
12
10
-12
-6
14
22
57
-42
19
-54
3
21
-9
2
-71
3
2
-74
8
-16
-35
14
-29
26
-10
-13
-46
-22
8
17
-34
-74
30
-15
35
41
18
-21
21
-30
44
-17
6
42
85
83
49
42
-30
-26
-18
-26
-1
11
78
16
-8
0
4
11
-15
45
0
-14
10
-21
-28
-15
-33
-28
43
18
-8
1
15
40
-5
-9
-33
-10
-127
-17
-9
-21
9
-54
12
-7
17
37
6
7
-55
6
-7
-19
-2
-15
3
-110
35
3
-20
49
3
-42
-4
-31
-10
-55
-2
-7
10
78
-31
4
58
-76
15
-79
5
-111
4
76
1
22
62
2
-3
10
7
94
0
7
-5
-41
-33
-40
-33
6
-13
30
20
34
0
17
-21
-25
106
36
36
0
54
-15
-50
27
-3
28
2
-6
-41
71
-7
-27
-46
5
-22
47
0
-7
-20
75
-25
-64
-6
38
29
-10
12
-24
-34
7
-9
19
-4
18
58
-1
-4
3
2
40
-39
40
20
21
24
6
-2
-2
-14
-18
-19
34
27
-2
17
-17
-29
-55
11
29
-28
-16
-53
6
5
-47
25
-5
-7
-13
-16
-3
1
-57
16
13
-1
-18
-33
26
-1
12
2
102
-22
-21
40
-61
8
18
-42
70
33
-87
45
-51
18
17
11
-33
-23
20
27
9
20
-94
13
-23
-46
18
-25
22
0
103
-3
-83
-25
18
-67
37
14
0
-16
7
-32
-9
4
5
1
-54
31
-16
1
35
7
-8
22
16
0
33
-72
11
0
16
-1
72
-11
-24
-49
7
-27
56
-1
-2
-5
-21
26
16
-13
44
-39
-59
-43
36
24
50
-127
16
-10
-45
4
21
-20
-3
-66
-10
2
-5
7
-23
36
-45
24
9
-4
-53
-34
-34
-77
-41
-41
37
36
-32
-2
37
10
-25
-57
12
10
-63
-17
-18
-49
102
-20
7
22
9
-12
29
26
8
-11
-4
2
15
97
-19
-12
-14
8
-107
-80
-55
-44
-23
20
2
1
34
-51
-42
16
15
30
4
21
18
5
-22
-20
-20
1
-29
-28
-12
58
-33
-26
90
5
-40
-34
24
4
38
-11
19
-27
63
11
5
13
-45
0
21
-6
37
12
47
-28
-1
-2
38
-127
15
13
-55
20
70
-8
-25
-53
5
-25
59
2
86
-51
9
-11
-61
1
27
22
-31
76
-71
-41
0
6
-43
38
14
-5
25
27
58
-5
-20
5
12
-27
-74
4
6
18
-127
20
10
-25
14
-76
-127
-14
2
84
-5
27
-12
-93
-89
-8
33
127
-28
21
-12
25
-63
-5
-31
-70
13
-10
-18
-36
63
-14
-27
71
23
-11
-9
18
25
-15
-37
-16
127
-93
24
-20
78
23
56
-56
91
121
51
-1
-2
29
17
-27
43
110
-57
38
29
127
76
-25
0
-71
0
3
-63
8
-53
5
31
37
127
6
2
-55
71
33
-60
-36
2
97
-28
0
12
-77
124
30
6
-38
-47
-12
-21
37
-42
2
77
-28
-40
-61
-37
-15
-82
-34
5
-27
47
-11
-4
-44
-38
71
-121
0
-11
58
-16
12
34
-8
1
-43
2
-3
1
-37
26
-127
20
5
-1
4
36
29
0
-104
-35
-20
9
108
41
-5
45
11
-5
127
77
-24
-70
3
-42
-18
7
43
-51
-11
-16
-67
30
23
-5
-43
8
14
89
-24
-29
-18
8
54
45
-127
-48
49
40
-1
-14
17
-126
-13
5
-17
-12
-127
10
-20
93
-1
-3
-50
-108
14
4
-76
0
33
-37
-17
-127
-20
5
12
12
-11
58
10
56
-8
4
-127
6
-52
43
11
-24
57
-48
41
0
-31
-28
-36
33
-40
-21
79
-5
17
-127
-13
64
36
-20
23
12
35
-40
-75
30
97
127
0
6
-12
-5
126
91
88
-1
40
99
-20
-24
51
-20
-15
-19
33
18
20
-14
-20
-23
40
39
-3
-103
31
-13
46
-44
-14
-9
2
29
10
-49
-39
-28
33
1
28
-4
3
34
24
3
7
33
11
-77
-15
0
39
19
-9
3
-26
-3
38
47
-20
-54
-3
-1
-33
100
90
13
49
7
6
-1
-16
-19
-11
-1
10
-10
-18
-42
2
3
-11
0
-89
32
12
-35
-16
127
-2
16
-127
46
-34
-9
-25
-11
14
44
2
0
-10
-5
101
-24
39
33
10
21
-19
-20
3
62
36
-38
72
-73
127
-50
84
68
-31
-65
-127
26
50
24
30
2
-3
-27
-12
10
-37
-17
18
-40
3
65
44
23
9
-7
-3
89
-127
-11
-10
-6
40
3
23
71
84
72
-30
-111
88
-18
36
-67
7
127
-95
-35
53
-11
63
-32
10
6
26
47
13
0
-15
-106
-72
80
-5
46
14
-80
-3
-28
-27
-25
-27
30
-110
-80
127
5
-24
4
-24
68
-68
127
22
61
14
48
5
48
-21
16
-11
127
19
-56
18
1
-28
24
41
-19
-19
34
15
-127
20
5
-16
41
-10
-48
9
10
-5
32
13
57
69
-87
4
-19
100
4
88
26
-11
-122
-23
22
-112
-42
-10
-11
60
48
50
-11
109
3
84
-22
11
-82
96
-54
46
31
26
-18
-1
-57
14
-2
-32
49
-54
37
3
-7
-15
-22
-41
-34
-121
33
-13
-18
-86
61
113
99
23
-108
24
25
-46
-65
14
16
15
-58
30
84
62
-25
18
-59
39
70
15
124
-78
47
2
38
-25
-36
3
35
-38
40
-12
-29
-14
27
-10
-17
37
-33
41
-64
33
-112
38
7
-22
94
98
-6
62
6
-12
127
-10
113
-127
56
127
14
-15
-90
-22
-62
23
33
105
-20
1
10
33
27
12
-7
8
62
28
-61
62
-48
18
-29
68
24
-26
-75
3
-51
-97
-38
14
64
17
-55
-27
21
6
93
13
127
23
6
33
39
-28
127
28
-48
127
-24
116
58
-12
-54
59
-17
5
-87
-127
-17
-10
90
1
-46
-49
-14
26
90
-14
73
17
-10
-16
-30
-26
-4
-42
-24
20
-8
-21
-57
38
32
-15
-47
-57
-37
-27
15
-49
13
-25
3
-44
-28
-2
9
51
-6
-23
-64
-53
-17
67
-6
11
-7
-13
-56
5
-80
-13
5
-41
12
-17
-38
-25
-33
-12
3
17
1
-26
-17
-26
45
123
21
111
-127
-81
49
-59
1
-36
52
-11
-40
-37
-21
101
-39
-14
75
15
54
21
44
-60
65
-14
6
-1
-55
-85
49
58
0
-21
-46
-71
-17
44
10
28
-1
-104
-5
-48
-1
-57
-3
-10
43
-4
-2
-32
-13
22
-127
24
27
3
-15
2
97
-5
42
-34
48
-1
28
-17
-82
-8
8
39
127
-8
-31
-64
5
18
21
-24
58
25
2
-69
43
6
-14
-31
-29
-3
24
-16
22
-13
-62
-60
10
-6
-4
26
27
41
11
127
-98
-32
15
127
37
-42
-4
73
24
-90
-19
37
-35
23
46
13
-65
5
-15
19
-47
126
-33
-23
-21
100
-2
8
-14
-9
4
12
-70
-2
-8
59
-127
20
91
-12
15
27
-49
7
-14
115
-10
-15
-15
61
27
-63
-37
25
93
-39
16
-19
-22
76
-107
-127
-49
68
36
-109
-31
-114
15
-18
-8
32
18
14
5
-33
-6
12
-26
4
-6
26
-45
-22
46
-8
-10
-100
-121
-127
127
79
24
6
6
20
74
52
14
-26
-62
-10
5
-10
71
16
-13
-26
-51
75
-19
68
13
19
-42
-63
19
15
-64
-3
126
-68
-57
0
-29
30
10
53
-16
29
21
-6
-68
72
-64
-52
18
-7
-67
-58
-28
11
-50
46
127
55
55
6
47
1
-100
50
-97
79
-12
58
-31
-3
14
-63
-104
83
7
14
-127
56
67
-37
-11
-31
-13
-11
-35
27
8
-87
6
69
-12
-31
18
-28
48
-45
9
-104
-9
-19
79
-111
-127
26
40
2
0
60
27
-63
-19
67
4
54
-126
53
-79
-40
-36
127
-44
39
27
-17
64
-13
-18
71
-26
2
89
25
5
-19
-29
47
-28
127
18
19
-14
-3
-67
-17
-73
26
55
-127
-4
62
-21
38
-7
-32
69
39
-75
14
115
2
-41
-97
15
48
44
127
38
66
-72
6
-127
13
-58
82
-11
-12
12
-60
13
-6
-112
-26
82
60
4
-3
-9
15
-48
-97
50
105
25
-26
-98
-3
16
-69
10
-121
-28
48
12
2
15
47
9
-60
110
110
31
33
1
-66
14
43
-1
9
43
-36
-22
-78
-90
-15
38
13
30
-62
-31
-25
-24
-6
-33
-3
29
-24
-48
-33
41
-28
-91
24
44
-115
11
1
-7
41
-100
-8
5
-15
28
-51
-46
65
-127
-6
-43
-30
127
21
-2
102
-89
-3
92
-21
-21
-48
2
-17
30
-4
47
-64
45
-13
-9
36
-91
-32
43
-15
-24
47
-71
-1
-57
41
77
-2
45
-91
-13
44
23
41
14
109
60
-4
-6
75
-15
127
61
90
125
-26
-19
88
9
-3
7
44
4
3
15
-19
32
-47
32
-24
-22
53
-13
-37
93
-1
-127
55
3
127
-6
46
-80
-21
118
13
20
65
-3
17
90
-67
-48
-45
-42
31
0
-96
108
-12
-79
20
-95
6
41
-127
-17
89
-39
-127
4
19
-11
5
15
-1
1
-121
-1
79
-57
-16
43
-2
7
8
0
104
-56
8
10
116
-25
52
-79
-57
-127
-25
21
-41
29
39
89
58
-65
76
-72
-6
19
-56
3
15
57
0
19
-57
-47
30
-16
-71
31
-90
14
-1
77
55
0
43
45
-24
23
-26
14
0
-29
-65
-73
-55
15
-19
-23
-1
1
8
-32
-38
12
37
-94
19
-2
2
-89
-127
-38
-34
1
-41
-10
-17
-17
-26
18
-23
-127
-127
-12
-28
-105
23
26
-82
50
-22
3
-9
-48
-27
-7
-54
114
-27
-4
4
94
27
27
21
23
5
-127
25
110
5
-127
113
2
-73
-45
-45
92
85
-8
99
23
-33
7
-16
41
-59
30
52
5
11
-4
127
69
-16
-29
25
22
15
1
1
-37
-33
11
38
17
-27
-23
15
126
-39
22
-21
26
60
-18
60
71
45
-1
-83
14
50
-3
10
-127
90
-4
25
-52
-27
-45
-126
15
-70
-37
-127
-14
47
-10
-1
1
-4
4
-86
-5
17
-9
24
7
64
-38
-9
7
44
7
-35
13
50
20
48
-14
-8
-4
-13
9
52
8
43
-43
-5
0
-4
-56
-28
-16
-37
81
-66
-24
-127
51
48
0
56
-3
-29
83
53
-55
-16
-56
-9
-74
45
17
20
69
8
88
35
13
6
-2
17
-51
21
-83
106
-78
41
-36
-116
-19
37
6
34
120
-49
-33
-2
-43
-44
-19
-18
74
-23
63
-24
-53
-105
11
-1
50
-121
23
107
8
10
13
82
-3
51
-11
92
19
-45
23
73
12
-43
-46
81
-22
-11
-13
72
-57
-9
-27
-25
10
5
-15
-127
-83
-21
64
6
-44
-15
-96
-121
39
-41
10
118
-37
-8
17
-37
127
-62
-27
1
90
-8
111
-58
-34
31
5
1
-74
-9
-7
-81
24
-127
26
29
-103
-13
-5
82
110
-23
28
-34
55
-9
109
-1
16
-14
0
-8
5
-32
9
15
-37
32
-127
-35
-106
12
-127
45
-20
62
-9
-4
-30
4
29
84
-32
-38
25
28
23
-14
47
-35
91
33
10
-17
-74
-22
-106
-32
25
20
-46
-102
127
-7
27
-21
-72
67
-45
-30
-46
127
0
6
84
-104
21
35
6
14
-55
60
34
-29
59
-40
-31
-98
21
-17
-43
25
-7
60
1
-6
9
38
36
0
12
4
-127
-127
-87
-46
40
25
-8
-50
7
-16
-43
-127
21
0
-3
-32
-12
-8
-96
116
-34
13
-101
-12
-19
-31
-108
32
18
36
6
39
-9
7
36
-3
50
2
2
36
0
16
-81
-74
15
-13
37
-6
7
18
45
-2
9
-90
-5
17
77
-40
19
-19
-127
-77
-11
32
-21
-38
35
36
-77
127
-18
-43
-6
-27
-41
57
23
-22
-10
1
2
-62
0
-24
-69
14
4
-127
7
27
32
-36
11
-14
-2
-24
10
32
-54
97
-21
27
2
-33
-59
-30
41
19
14
58
-41
-54
2
9
41
111
4
-9
-26
-36
-9
-48
-72
0
-8
-64
17
-36
14
6
7
-2
21
7
7
-13
-9
88
24
-5
19
52
10
-14
67
122
33
-13
93
-109
-4
82
-10
-50
86
88
-14
31
127
-23
-9
7
-127
17
13
-44
-72
-69
-19
31
-57
31
-20
-34
-39
79
13
-67
-122
47
-2
41
-1
43
-10
4
2
42
6
21
-127
21
-10
4
14
-22
21
-10
29
-43
47
9
-127
-54
15
19
2
-4
127
-31
70
-62
2
12
-24
-111
12
-40
64
-58
-11
10
-39
74
-12
-30
13
13
-12
8
8
87
21
30
1
-47
-33
20
9
127
5
50
43
-66
-20
-28
113
-53
23
31
11
-90
-80
-35
94
39
-17
101
-30
-25
127
-18
42
85
73
57
45
-71
-2
-15
-31
-3
-8
13
19
-46
-8
18
48
-32
5
-127
32
52
-30
-127
2
0
47
-12
17
-10
-2
10
-32
0
8
-6
-1
15
-2
36
-9
-1
-50
-13
7
0
4
-50
-101
-56
13
-24
60
127
-44
12
-39
2
32
-30
14
28
-2
-19
6
57
-39
-17
-19
-22
38
25
80
-15
11
-13
-14
-55
-75
7
96
8
-50
42
-43
37
17
31
-27
94
35
-24
-113
-58
-10
-28
14
26
27
17
-45
5
-112
56
60
-50
-74
76
-23
6
-127
-6
10
41
20
25
0
11
13
-21
-14
-37
-100
35
8
1
14
41
-15
31
4
54
-36
-12
-117
8
-10
15
-7
45
-93
6
26
35
35
34
-10
1
-3
101
52
11
34
35
-17
25
-41
-10
65
-38
-16
-9
7
36
-11
-127
7
61
-40
59
59
11
5
-12
17
-39
127
-107
-21
32
-8
-5
-18
4
35
-40
-8
33
12
-4
8
8
-17
46
7
-80
27
-29
79
45
18
-25
-7
-124
-2
-30
13
7
-21
0
11
-24
-127
-17
29
-127
23
-36
-28
4
14
-15
20
11
81
-42
4
-25
5
9
-30
-22
-1
8
-31
-55
27
-55
-58
-79
44
-61
-36
124
18
-77
30
-9
7
25
32
82
-13
-11
-12
-29
-52
127
64
-84
1
10
-24
-18
-96
65
127
-17
8
14
-38
-6
-26
30
-9
-127
66
-13
-74
-41
-1
-5
5
72
4
-60
-126
25
6
50
-11
5
-2
-43
5
-23
90
35
-30
60
52
69
40
-21
17
5
57
-16
-75
-23
-8
-10
79
-22
15
-27
67
-35
53
-10
-31
44
-72
71
-39
-28
-17
44
-38
127
-127
127
-3
-44
-4
3
73
-12
84
-74
-3
-61
2
5
17
30
9
-50
30
-127
-38
-13
-45
17
22
-65
2
-90
-5
-35
-28
-68
9
-47
14
-42
-53
-25
38
-3
56
-16
-5
49
-127
-27
127
46
78
-31
124
19
60
26
33
22
-55
55
-1
66
-24
27
50
12
-37
14
-118
20
12
3
24
-67
-25
74
1
73
-6
127
28
-100
-45
6
-10
-69
15
64
108
-32
-34
34
-92
53
-1
8
-20
-83
56
-66
-13
14
-25
30
59
-18
-88
53
127
15
-12
25
-23
-38
-3
-8
-1
-12
8
-34
-104
-14
-26
33
-33
53
27
37
-56
-24
9
24
110
30
-100
-6
25
37
50
-62
-3
-7
-19
44
-2
-28
37
-40
-18
-83
-17
14
-37
-35
-28
-1
20
14
-40
91
1
28
-11
67
16
-40
6
49
22
-9
-19
4
17
-50
18
50
-6
24
18
26
33
-85
16
16
-104
4
105
-1
-2
-4
-72
3
-127
10
-79
60
-76
-34
-127
-21
-21
-11
-54
53
13
-31
-65
-3
17
-35
-7
-5
55
-38
21
43
-17
-27
127
49
-8
-44
-1
28
61
9
-36
0
-37
2
-5
28
33
127
2
-88
15
77
-4
20
-20
47
11
-109
127
65
-25
28
-83
-35
-19
-76
15
26
-96
40
-5
8
23
-25
-91
6
-26
24
4
6
0
-11
-8
48
-38
-112
-27
-1
-48
-40
9
3
3
52
12
-21
10
63
116
-123
-11
-61
63
6
-24
-70
85
52
94
-36
9
21
40
127
-92
-127
19
-38
42
-27
0
72
75
-64
-1
-24
-40
-69
-3
-7
-1
17
-7
-7
16
24
-25
-97
-85
36
-10
-35
95
-40
-32
20
-105
-38
19
36
-41
-24
-13
30
-27
-59
-42
-127
12
-7
-49
60
31
-16
22
-10
12
80
-44
127
4
50
21
31
31
115
11
1
-6
49
-9
-53
12
92
3
-3
79
38
6
52
-7
29
-127
55
-15
-8
-17
9
19
16
-51
-55
-11
34
-36
-23
53
22
16
20
15
46
-127
18
16
-81
-10
-22
50
-9
7
24
28
-27
46
-41
-7
-1
58
-5
12
33
83
-71
14
-59
-3
48
29
-76
11
2
-87
-127
1
7
-127
125
15
-4
-47
25
16
62
-9
-45
13
-24
46
-23
6
31
10
-59
-3
-24
-127
-12
-2
-127
34
3
-16
-24
-9
-126
-19
7
6
6
-26
10
-32
12
6
26
7
-127
-12
-8
-42
74
10
-23
-41
30
-11
10
-14
-99
15
40
105
120
-11
-72
22
93
19
64
18
6
14
-19
17
41
4
-11
-19
24
-20
15
65
31
-29
-41
39
14
-17
28
104
-35
-30
19
54
-93
20
26
-10
62
-48
-9
28
-6
0
50
30
0
102
-19
10
-22
-1
25
14
-17
-1
5
22
12
28
26
19
0
-9
-1
-20
-60
-9
63
-121
-17
-16
33
-37
6
33
-15
-3
-70
5
29
5
61
-3
53
12
13
22
77
7
15
10
1
48
0
-1
-30
-1
-34
13
44
27
49
1
-24
15
-28
40
23
-4
-75
5
-47
-19
-20
57
25
50
0
25
33
-21
29
5
25
-18
34
6
21
-10
29
35
24
-15
18
4
42
64
11
-86
75
1
-4
-14
9
-19
-2
13
104
25
4
-15
-12
-5
127
-1
-28
-14
-62
41
-9
74
11
7
-2
-34
28
-12
-22
41
32
-63
48
6
3
-9
43
56
74
16
-10
9
-12
2
7
6
-21
35
10
-12
-31
25
-6
-28
-32
-7
-28
-24
39
-1
-49
-77
-7
4
58
5
19
8
-98
-45
-6
43
4
43
-10
21
40
6
-9
56
25
38
-17
17
-44
-41
62
-14
-15
-11
11
-25
-6
27
-88
27
-7
1
36
-20
-45
-12
30
60
-12
7
-7
-22
-69
-75
73
-14
-17
-2
12
-59
6
11
16
-5
-10
9
-7
-31
-31
3
2
-11
-16
-1
12
12
-107
43
39
16
-1
-16
0
5
0
97
6
31
45
-62
-17
1
127
46
2
-6
24
-22
-27
-9
-107
-17
-12
19
101
-23
7
8
-13
-60
67
6
-18
13
0
32
-5
-79
-3
11
-5
48
19
-7
-126
-25
40
-23
-15
8
2
-39
-6
-76
-19
8
58
36
5
5
-107
-39
33
50
-58
-52
33
-1
30
-54
40
50
17
5
-12
16
-33
23
-28
-10
69
-2
-9
-3
12
-50
-49
-32
-82
8
127
6
93
39
8
-16
50
12
8
-16
4
32
8
-127
56
6
-9
-2
34
62
56
-17
-40
20
-8
-1
-13
32
14
14
51
2
6
-12
0
-31
52
-71
50
10
-19
-3
34
-5
2
-5
-16
-4
-63
11
-19
-14
46
-4
105
-2
24
1
-19
18
10
13
26
-18
23
-18
1
3
22
-61
41
21
-3
4
77
36
65
5
1
-2
14
2
1
0
-98
-9
28
9
16
-16
-20
8
-11
-83
27
7
5
32
4
20
51
-55
39
28
3
-34
41
-26
-26
49
92
-118
-28
-6
51
17
19
0
-12
18
13
-22
-19
-47
-2
-13
-41
-1
-8
-7
22
42
22
-28
-5
11
13
-4
16
4
63
-23
64
36
3
9
-7
-18
8
-15
-26
23
-9
-11
-41
-36
59
-3
-29
11
-21
-1
7
54
-21
0
-71
52
34
13
3
-3
52
5
12
-5
-19
7
-61
-97
83
-36
55
-39
-36
-127
104
4
-17
3
69
-5
19
12
-34
-83
102
-10
-23
22
-20
16
-2
-106
40
6
20
-31
-7
-107
47
-2
53
-5
61
-12
16
-10
-7
-30
-105
21
47
7
6
-41
-9
105
-12
-19
66
37
-5
-14
74
-12
2
8
78
-20
15
-11
-48
21
88
-12
-12
5
-13
-5
3
27
-32
8
5
-1
-76
2
31
-127
-41
4
50
-29
-12
-35
52
24
17
29
1
-9
-84
-28
-36
13
-29
4
-4
-11
-25
-3
9
39
34
-29
-59
-19
-35
-2
19
26
11
-71
14
10
10
32
-37
32
-11
-10
38
33
12
-25
-23
-96
0
1
37
-7
14
-10
-111
46
-16
-90
-19
-14
1
-13
1
-43
7
-6
-64
3
-31
-7
42
36
52
-2
-28
27
6
-1
-11
-41
30
-9
-32
-99
15
14
-63
-25
-19
-10
15
8
0
46
-17
19
16
36
80
-12
11
-16
-61
-12
6
15
108
-12
4
17
21
19
11
47
-19
11
2
-4
-64
21
27
-53
-23
-4
23
24
63
-57
30
-12
-40
2
23
4
-86
-9
37
-18
-26
25
5
2
-6
23
-69
-10
-25
17
-28
4
13
8
22
2
127
-3
10
-26
28
0
-23
-18
15
3
36
15
-47
-46
2
6
2
-18
14
-55
32
-73
-73
39
12
29
-21
38
-36
-9
38
-8
-4
17
-81
-48
61
54
8
-7
-36
18
-4
-24
-7
4
43
3
53
-18
34
12
48
20
41
66
34
30
25
2
-66
67
8
2
8
-20
-1
-5
-80
-56
-26
1
94
40
16
-5
-71
-15
-18
-5
-5
10
12
-8
18
19
17
25
-44
43
5
14
18
35
29
18
9
34
-80
25
-29
-66
6
-24
-25
-127
-46
1
-60
11
60
-61
24
-5
16
24
41
-32
40
42
-1
5
13
-23
-45
124
-83
-68
-16
-44
-21
-15
-92
2
-20
-5
-36
0
-114
-21
-41
-23
26
16
74
-17
-30
-1
-20
3
70
-6
-47
16
15
8
-4
36
35
32
96
-21
6
-21
51
37
-19
-105
-24
-2
-20
2
-2
-38
-42
-43
-31
-1
-12
7
-2
-16
0
23
-29
-74
25
37
-73
-64
46
4
5
-25
-11
-79
60
62
30
2
-49
23
1
-4
-30
34
-2
40
-16
3
-1
-4
-85
0
-58
10
8
-7
23
-45
-19
29
-47
-62
-91
56
-12
-11
-51
12
18
35
-46
3
-43
-1
-4
-7
-4
-38
-65
-24
65
3
17
6
-14
14
-48
89
81
12
-12
-4
-21
-43
1
-6
30
64
-3
-11
1
38
-14
19
63
-12
-67
-2
-30
-12
-63
-22
59
1
13
6
-57
29
-42
-14
50
-31
-19
23
-5
0
31
36
26
-109
-2
-1
8
9
-37
-49
38
84
-28
5
-67
-77
-44
3
-38
22
-45
-4
-8
25
-16
0
106
-2
-10
6
-9
21
-6
-46
-37
-14
-7
-1
-15
-21
-19
-37
-6
30
73
-27
6
6
36
-23
-40
54
-30
-88
-9
-5
-14
6
-48
-49
37
-7
-18
-34
-10
1
14
-2
27
-21
-24
-22
-18
-12
-22
-91
-1
28
-40
49
-84
-22
-14
-31
52
-18
41
97
-23
8
-1
58
12
0
29
6
13
12
-3
4
-65
-6
15
-5
-17
-50
33
123
-29
-66
5
16
-39
10
40
-29
-9
-29
9
-19
0
-1
56
53
20
-4
-15
-4
-2
-32
55
-10
-19
-9
12
9
-45
-11
46
-93
-12
124
6
3
36
8
47
62
3
-5
-16
-16
-68
-28
-21
0
23
-1
-5
-13
-7
44
-14
2
15
9
17
2
15
-2
-41
-21
-8
3
-32
19
2
14
-11
-4
54
11
9
47
-24
-127
21
-20
-51
14
-4
9
-43
16
15
-29
19
-3
-27
33
1
7
21
-3
25
-5
29
-16
44
-12
-10
-1
-43
127
-2
13
39
-2
39
78
-9
7
14
-9
21
-13
-37
19
9
0
-36
-2
9
15
10
-26
52
1
35
-5
68
-9
-127
13
-9
5
49
-42
-42
30
0
28
-15
7
127
-18
52
7
85
-48
15
4
14
-126
-14
4
-17
36
-9
0
-32
30
15
3
1
-7
-1
-7
-13
43
-6
-14
43
-16
-54
0
5
8
-63
22
-27
2
-9
-6
-5
24
44
12
-18
7
-14
-3
-21
-35
-19
34
2
32
11
-4
-7
37
13
30
64
-5
-50
13
-14
-29
-47
3
-47
10
4
16
-3
34
-9
-14
-16
-117
0
-2
-1
54
-16
20
46
-10
1
17
-10
-39
-70
-21
-51
9
3
4
-3
23
-10
23
-18
83
3
-9
6
44
-29
-6
-18
-45
-7
5
0
17
26
57
19
6
-29
10
-17
3
-60
5
-19
-5
-17
-13
46
81
10
43
51
4
59
-9
-26
88
24
-18
29
-4
-51
-3
-27
-17
49
-20
-49
-7
26
-3
-29
-72
-83
-10
-42
37
-1
-10
-9
20
-38
8
28
-43
-24
16
-38
-127
-27
7
-75
27
-127
-12
-30
6
-35
-2
91
-12
-53
46
22
37
17
-18
-13
14
-20
9
-14
12
-11
-16
6
-1
64
-1
44
13
14
24
-32
-1
-16
27
23
20
5
6
12
35
-38
-11
-11
19
-19
49
58
10
-52
-27
0
9
-38
9
23
-20
-13
-13
-2
29
4
-19
13
1
15
0
-10
-6
-7
-17
29
13
59
-8
2
36
-22
1
43
-33
-32
24
-8
8
15
18
17
-127
-3
-43
13
7
-25
30
-1
-7
-51
-1
3
-13
-8
35
16
-25
1
11
9
-17
-53
1
19
-28
-8
-17
21
54
66
9
70
8
4
-3
5
-8
-15
41
-10
95
7
17
-11
-33
-52
-16
-56
23
14
15
22
-7
4
12
-10
12
-57
-3
1
10
-15
-18
10
-20
-27
-4
41
57
-15
37
-18
-2
26
-2
-4
33
2
3
36
-12
-8
14
19
14
-8
-51
-14
12
8
10
12
22
25
5
-20
15
-4
17
7
14
-59
-19
43
9
12
13
0
4
-15
20
22
-25
11
1
5
45
-29
-50
43
-4
-36
5
-15
-17
-17
-26
31
-40
-1
-3
13
17
10
12
21
1
-100
-12
-19
20
-51
2
71
-6
-11
12
76
-36
-23
-3
-39
-10
12
-6
-11
4
-18
-16
44
9
37
-12
12
7
19
-23
13
104
-2
15
2
30
-14
-4
-14
22
-5
-12
6
-13
-19
41
42
11
-25
-5
-7
2
-16
8
21
-79
-8
-2
13
-2
-19
-23
3
0
-14
-4
-6
38
-3
40
37
-3
-58
14
6
37
-47
6
50
-96
-3
6
8
18
0
42
-7
-18
0
-2
26
7
18
9
43
-2
-21
13
-20
-23
-70
-5
-62
-2
7
4
-33
44
0
14
-45
-18
-33
4
-22
-17
-32
-20
9
9
-10
0
26
1
-18
-93
-23
6
-10
-2
-6
26
58
44
45
-24
9
61
1
8
-11
10
78
18
6
-42
33
30
20
-47
41
19
-40
13
22
-7
-105
14
64
52
-26
5
-38
9
-3
14
33
42
-9
2
-13
16
-21
37
58
-17
2
10
15
28
11
0
16
-1
32
11
-3
20
-28
-34
37
-6
-20
8
19
-8
-127
23
-24
27
25
-4
26
-19
3
-88
46
1
-1
8
15
18
20
15
-21
13
-4
-8
-3
45
-2
-25
78
0
-34
-9
-20
-11
-7
-84
48
-32
-78
3
-15
-46
-62
0
-52
8
20
-8
35
13
-93
-19
37
5
-25
-38
-9
-22
46
11
-1
-7
-7
-36
11
-32
-7
40
35
-63
-5
61
108
-30
0
23
29
43
-7
23
-2
50
-2
12
17
23
14
7
23
5
11
-2
46
-4
12
20
-44
-58
-23
9
-43
-13
6
-4
-45
53
25
-16
81
29
26
-53
-18
0
-23
0
17
6
1
-18
8
-6
23
15
16
-32
38
9
-5
-45
56
52
49
22
-4
-13
21
-45
-45
22
-2
-42
1
12
9
16
10
5
41
15
9
-22
-15
-44
-24
-22
34
35
-17
30
-35
-127
-12
62
-24
-24
-5
-30
19
-47
17
-7
17
56
127
-49
-1
13
-20
33
74
-51
-2
15
-21
-17
2
7
11
33
15
-79
-5
-10
26
111
12
-32
26
-98
33
-122
31
-28
127
42
-49
25
-17
13
-5
-2
1
102
11
17
18
16
29
3
5
-18
17
3
-5
-57
-2
3
4
21
30
17
14
51
-26
41
3
-13
-15
2
6
44
-12
19
-4
-10
0
25
-11
1
37
23
47
-22
-30
9
-17
29
-3
7
-10
-61
-20
-127
-1
-35
-9
8
-25
-1
-23
48
-12
34
0
10
12
-43
32
34
-1
7
-86
14
-11
15
-17
70
64
32
-6
-15
62
-105
10
29
-21
12
5
-6
35
-53
9
1
-2
-49
-27
-21
-10
18
8
7
10
63
-43
-24
-47
1
27
-76
-50
16
-5
25
-5
71
-6
12
-1
40
-2
15
-25
-47
-55
-21
-45
4
26
-49
-19
127
-3
77
-20
15
-17
14
50
104
-33
-73
6
96
-41
-34
12
24
12
15
26
-64
34
-95
84
1
-14
-14
3
30
-29
64
65
-48
-7
-63
28
-110
-16
127
64
-44
-2
-28
-21
57
-22
1
55
18
9
8
-5
-3
17
-37
27
-35
0
74
-1
-23
5
-35
-22
7
-17
-32
-20
26
-7
-7
44
7
9
55
-24
62
-6
13
6
7
43
-11
13
10
-33
25
32
20
11
-85
-4
-43
5
-7
-19
28
-23
-18
-21
-18
25
-6
54
22
-28
-121
-19
25
7
-44
-67
16
-16
-41
-7
18
33
30
0
-19
-39
-9
-21
14
25
3
19
-9
52
24
-29
4
41
-15
60
19
-50
-17
127
47
-5
33
86
26
-19
-90
-18
-25
52
57
21
7
-27
-106
39
-77
-6
-12
83
-41
-23
7
0
8
-9
5
46
-41
4
-74
-43
54
-23
-4
41
-7
0
-31
1
11
-15
26
15
-13
6
-41
9
34
-12
-71
2
11
-6
61
-14
-64
-36
-15
107
-8
6
-60
21
18
-25
-31
23
3
9
-21
-63
-79
3
-18
6
-58
111
3
-34
-28
-3
-3
58
-7
0
5
-7
-98
-28
5
12
-15
-22
-12
-48
-29
-11
-2
1
-59
100
29
21
15
-10
29
17
-5
-6
-39
-3
61
4
-21
-12
20
42
83
-1
-5
2
4
50
-110
-4
-13
-9
-26
-30
-1
32
0
-10
-30
14
-4
20
-69
21
-3
-17
-16
-21
-39
-12
3
-16
30
-7
-53
-61
-53
-21
-32
-12
-63
45
19
-22
34
-30
25
16
25
-24
14
2
84
-63
30
15
-9
14
2
60
-13
-16
-49
5
-71
-11
46
-35
48
22
-1
36
-23
44
-52
6
-15
26
60
14
21
-5
-7
-20
-17
22
19
-16
107
-1
-5
-22
3
-9
9
58
-7
4
-63
22
-54
24
-20
53
-28
-15
-15
7
11
-22
-27
-19
-12
15
23
16
14
40
-32
6
28
5
3
30
-25
11
-2
-8
-6
9
47
-4
-53
4
2
5
-17
-4
-4
-12
-9
-11
-18
46
21
10
11
-7
-2
-18
10
62
-22
12
-14
-17
15
4
26
42
36
4
-80
6
21
2
-10
-76
49
8
-103
-2
25
-13
1
-21
-32
9
10
-4
-6
-13
99
52
-18
17
28
6
-37
-34
10
36
-14
-14
-17
33
-33
-21
18
-12
-20
5
-4
-24
-15
-9
-13
-4
-37
31
-16
-1
14
-23
6
-20
-15
-71
13
-11
19
-29
26
15
42
-46
-52
3
-50
-1
62
31
-47
-14
5
18
-3
5
2
29
-17
-1
2
-20
-50
30
20
54
-44
-14
-16
-29
-14
10
-4
-9
-13
-11
3
-34
-17
-42
15
50
58
1
-113
8
-36
15
29
-10
-1
-3
53
-41
10
-24
-26
5
4
11
29
-14
16
4
29
23
24
24
21
54
3
54
-11
-13
97
-16
-56
-9
39
-49
-10
26
-24
12
-8
17
-11
4
20
-13
-8
-24
-3
75
-96
-127
36
85
-69
12
-84
-25
55
2
-2
91
46
39
25
10
-5
-1
2
50
52
0
-104
-4
41
9
-77
-15
2
20
-9
-4
-59
-20
-28
8
54
-56
45
-44
36
-3
49
74
15
6
95
-6
-53
-39
-26
-120
61
25
-20
17
54
42
5
46
-3
2
-7
-18
-42
-7
-24
-9
-16
101
14
-2
-6
-16
5
11
-59
19
28
-5
16
-23
16
49
-34
5
-84
1
-15
40
28
-15
10
15
-6
-22
-127
29
12
-96
-16
-9
60
21
0
28
109
-30
9
26
0
19
-31
9
8
-33
10
-3
25
3
2
6
66
-11
10
9
-30
94
-7
32
56
65
-3
-50
6
1
59
-62
-80
27
-15
-38
-5
-9
43
11
28
33
5
10
-85
-33
-22
-127
-38
127
0
14
56
127
30
45
-127
6
-4
48
-16
7
-14
-37
25
60
3
-29
-4
0
29
33
-3
100
-7
-21
21
31
-71
31
36
36
-21
127
10
15
28
5
-125
93
-1
62
26
-67
53
-3
100
33
-3
-5
-17
-36
-32
-21
66
45
-38
80
-127
7
19
-29
-7
-89
5
-20
36
-25
-19
-44
23
-4
-19
35
15
-114
-21
-49
-11
-81
30
9
11
-21
-19
-74
-100
-8
0
-16
-26
18
-40
-75
-78
-72
9
49
-38
-16
-63
-9
9
-84
-127
26
-25
-33
127
-34
-13
-2
-7
39
1
19
-19
-25
-72
-67
-33
-8
-36
85
-7
-23
2
7
6
-38
-67
-42
-14
8
-37
103
2
0
-4
2
-127
-5
-9
-25
-35
-45
25
-34
-10
-43
0
-127
-78
-47
6
-8
41
-25
25
36
-1
124
127
-127
50
19
-9
38
25
-52
-17
7
82
-14
-11
-69
-7
54
18
16
4
-1
-14
44
-3
43
1
-9
2
-33
-34
-64
127
-11
16
-2
69
-24
8
59
16
117
-8
13
-19
-37
2
-120
-11
-26
-13
-17
-20
9
-40
43
-12
-30
39
-113
16
-53
6
10
-15
10
1
-29
-67
127
-18
-8
-27
-61
25
2
-120
-13
28
22
12
-114
38
-30
69
127
23
-8
8
127
5
12
16
3
-127
-67
7
26
-18
-10
9
-6
9
-25
-17
-7
48
-88
26
-38
-20
-43
-11
59
11
-2
98
-4
-15
-75
-38
74
-2
-34
-21
-30
10
-8
33
-105
-17
-2
-4
-66
-28
-3
0
-26
12
-10
17
104
25
-44
0
29
25
25
23
17
26
-36
-10
-39
5
-11
9
-15
35
-14
-38
-32
-11
0
39
0
-34
54
-102
-5
21
-54
-91
50
-94
-17
-29
9
47
-88
-23
-82
-32
-12
-43
-37
-15
19
49
-28
-9
-7
-16
-10
-16
-52
49
-101
-3
-61
3
-36
13
16
0
-41
-37
25
10
12
127
21
93
8
60
0
18
7
30
-48
-5
20
-92
-17
100
-9
23
-44
-11
84
36
-38
-19
-10
-19
15
37
0
127
18
-127
12
53
0
-31
55
40
-22
-17
27
58
0
-18
40
4
-127
-11
-34
-49
104
-124
41
24
-87
-23
-62
-53
42
13
2
8
-8
5
4
-37
-12
-1
19
3
-77
-12
18
34
-1
-46
1
40
5
94
0
-15
-49
28
49
-12
-15
17
-41
41
35
-45
39
-4
-83
-4
-7
-26
-42
-16
68
-25
-12
28
-3
-5
3
127
-41
16
-51
-4
-11
91
-17
69
-4
-15
-23
0
-30
-72
15
-64
28
-29
-17
8
-46
7
-4
-23
89
-38
17
8
127
-34
127
84
-127
-75
14
-11
15
-13
3
-21
17
26
-5
44
22
23
-3
23
-7
-50
58
-8
24
-8
69
-22
-6
-39
26
-7
6
-62
-19
127
-8
13
-127
13
-3
1
-79
14
-127
-59
-30
127
-44
3
27
-16
21
71
-37
-10
-8
-7
1
36
8
-8
51
9
5
4
19
-19
-4
51
24
-9
20
18
-14
-33
-8
59
-30
12
16
11
-48
-5
-14
-27
-15
9
-12
3
9
-43
7
-90
-49
-1
5
-11
127
2
16
-10
1
-11
127
55
27
-99
11
-19
126
-7
-20
7
-61
-72
-16
53
69
9
-33
-127
82
127
21
-85
-90
-7
49
3
-43
-40
-6
40
-14
16
-17
-22
23
-35
10
62
25
4
3
-27
-8
31
-62
83
-27
76
30
-6
-34
-10
-35
78
-31
4
-8
60
69
47
13
45
91
-32
22
-3
-30
9
-5
-47
-16
-16
-32
19
-98
6
12
-39
10
6
-20
76
-70
-5
-7
-27
93
71
4
-5
-38
-22
0
-127
-75
15
-46
4
18
35
8
55
23
-17
11
-53
-16
21
6
-21
22
41
-5
8
-96
-66
51
32
33
24
-3
52
-121
-16
0
11
-17
-28
13
-49
-72
-127
-88
38
-8
-13
48
-17
31
2
-1
-9
21
4
-17
-17
22
3
-4
18
53
20
8
75
-25
-3
47
19
-10
0
10
33
16
11
28
0
-4
127
22
18
4
3
-26
-4
100
-7
-14
-127
-37
-15
57
-33
8
-37
1
-97
68
-1
11
27
19
0
127
-10
-66
-84
98
30
12
107
55
33
30
-3
4
-35
-20
-45
14
-3
110
115
55
-76
-1
-63
38
125
13
-10
-23
-18
-78
-29
-5
20
-14
1
-27
26
1
-12
-16
52
107
49
109
9
17
-79
74
-30
-39
7
-11
-38
22
-2
-4
108
-127
-109
23
-15
-20
61
23
0
15
1
-35
13
10
-22
21
22
-12
26
-127
127
-20
5
24
-14
0
-79
-25
-110
2
72
1
48
73
-20
-10
-1
-14
-5
13
83
2
17
21
-12
-127
-30
5
-6
1
2
-1
-108
31
-102
18
31
45
16
-4
60
-54
40
-29
-3
-16
-11
21
17
1
-37
-27
51
45
-2
20
0
-32
1
-31
-9
0
-5
-12
-5
-17
-30
36
13
-6
27
7
-22
8
74
38
2
7
3
29
45
-19
-89
-28
-5
6
0
30
-2
34
7
14
0
-7
-12
21
-35
14
127
-40
-2
-6
-33
2
92
-33
20
91
-127
26
-127
-12
-7
-77
27
15
23
127
81
-20
116
-22
5
127
-4
-7
-6
8
127
10
-26
20
12
-110
51
20
-28
6
-28
34
-5
-5
-21
127
37
-2
41
75
-9
3
-31
-2
-23
-3
-15
-9
-3
-89
21
-10
38
1
4
46
6
-11
-13
-35
72
15
-6
-4
-8
102
-30
34
-80
-43
-25
-72
8
2
55
5
12
-5
-5
-82
-35
-11
-26
0
-114
11
-34
56
-43
124
0
-2
-79
127
-41
55
4
-5
-3
16
40
-28
-99
-25
-4
-8
-4
60
-26
-7
41
-11
-107
-20
-6
19
-71
-31
-10
23
5
19
21
42
-13
33
-58
5
60
22
-16
-22
-17
-1
20
-127
-76
28
68
46
26
-5
-58
39
56
-6
17
1
-3
54
17
1
-25
48
57
19
23
19
8
-14
90
14
18
0
-30
8
-8
-9
-15
-11
-15
-10
-5
-23
-17
10
41
5
-4
-34
-3
-39
11
-11
7
-127
31
-51
2
30
-10
-24
93
-20
-36
29
5
-3
32
18
-43
16
66
-41
0
121
-127
-12
88
-31
-45
-41
5
-63
-8
-7
-50
0
-95
111
-11
93
121
18
-66
9
-14
-112
37
7
3
-6
-33
-25
-10
-58
-11
127
20
2
0
17
52
-21
-8
-35
87
-28
-58
-68
-29
-32
13
-92
-13
-3
-23
-6
-33
127
-14
-25
-124
18
34
-10
114
-32
0
-104
-2
-2
7
6
97
-3
-3
-85
17
3
115
8
-127
-11
-6
-57
-67
31
127
32
-7
-14
-51
10
15
7
-2
8
-4
27
127
-17
6
4
3
-11
-63
15
26
-6
7
-13
-77
1
-59
127
-5
-74
64
-3
2
74
-19
39
-36
-85
15
8
-42
7
-11
22
42
81
94
1
-48
17
19
2
-60
21
-93
-36
-6
13
18
-10
45
51
10
3
-3
-12
9
15
-13
-35
10
-38
2
-27
-58
77
-61
35
58
22
30
-12
1
30
37
14
-24
-127
43
-3
127
46
-127
-53
-76
-8
-47
38
47
-29
23
8
127
10
9
114
58
-124
-45
-27
38
-14
-50
-19
-25
-9
-121
79
98
-6
-111
-48
-31
-54
59
22
83
-46
19
1
8
-84
4
50
-3
-30
39
-27
-23
4
-18
87
-68
-13
52
-43
68
63
-49
79
70
-17
-28
-13
-31
-90
-24
21
99
-45
-45
42
-21
51
49
-127
35
-54
67
18
57
69
40
-30
35
4
127
-8
-35
-26
12
-117
0
-23
39
127
27
-20
47
-73
-50
3
26
-20
65
-31
-4
57
-15
-8
-7
-8
22
38
9
-52
-14
90
16
33
-18
99
-11
1
-18
29
-107
101
-10
-32
6
-97
-1
-70
-13
22
-8
96
53
-3
127
-17
9
-21
-8
-82
11
32
83
10
18
3
26
-52
57
4
4
8
127
44
0
54
8
27
2
57
53
-117
-15
-3
-6
85
-16
60
-14
24
-10
-66
87
28
-7
-24
-73
13
-11
12
-6
59
-6
49
50
34
-21
-67
6
33
-21
41
-55
0
42
3
2
127
-18
-7
62
10
35
-103
1
16
103
40
14
11
5
69
127
11
19
-20
-6
12
37
127
-25
72
-79
56
-25
-24
8
-45
13
-36
23
127
28
31
-8
42
36
-11
34
23
1
22
-12
92
-25
-70
-55
-25
96
22
-17
-56
4
-20
74
53
-10
-2
-27
-98
-17
-21
2
41
16
4
127
-48
-11
79
0
-25
-19
9
7
51
-19
83
-80
19
-40
28
49
-47
-35
48
54
-24
34
45
2
-98
-4
0
-41
13
-69
127
-2
-21
-22
72
-39
-9
-21
-4
39
-30
15
-38
-33
59
-9
-4
-4
-65
-47
-14
13
51
-10
91
25
-52
-1
64
-92
14
-14
-27
127
-29
-19
-29
51
-23
47
34
-109
-45
-46
-36
-22
3
21
-127
-14
66
6
37
23
6
127
-11
-16
-14
-35
-45
43
39
-30
45
46
-29
5
-21
-127
-6
2
17
25
-24
41
3
-8
10
-31
-113
-116
127
-49
5
-33
3
2
-12
46
47
-127
11
5
17
-1
-41
-29
-6
-78
16
-8
-12
-2
86
-23
-28
4
39
78
12
-4
-1
23
78
-61
-73
-34
2
31
1
-8
44
-2
-22
-7
-55
21
22
75
25
3
-69
47
4
42
45
84
-41
-42
-14
36
-16
61
-43
27
54
41
-64
-20
9
29
80
2
27
-47
-28
75
-24
10
5
105
41
8
36
7
8
11
2
-42
-1
67
-50
8
-5
25
48
119
65
89
-42
59
19
16
65
7
-10
-6
127
-56
46
-16
18
-21
1
-14
-52
64
-127
-14
-18
-106
62
-44
-61
-127
-41
127
-82
-57
-127
-12
93
-14
85
-16
-3
-100
6
-11
-7
-5
3
-22
-63
-22
9
-10
-34
-64
16
-24
9
-12
24
17
32
-46
-41
6
20
104
-3
10
36
-22
-24
26
-27
72
-71
-20
-118
-5
33
-2
-8
-87
-10
-9
-11
4
-7
-30
15
-35
-4
-8
-127
38
-18
-15
15
127
6
1
84
-95
39
64
-24
-4
-19
-8
-37
-16
127
-17
-2
25
35
0
35
45
33
58
9
-122
-9
-1
48
8
88
88
-39
-8
22
-6
51
6
25
-21
24
123
2
-127
70
39
44
-71
-9
13
-2
11
13
-3
-90
-75
6
64
17
30
32
23
102
60
12
61
17
17
-3
-8
70
53
-60
4
98
13
48
17
25
20
0
66
4
-6
-53
12
3
-70
9
-4
-10
11
36
21
-126
-110
127
42
-50
18
-22
17
-67
-9
15
-64
17
-16
23
-22
56
-1
-8
88
40
0
-98
79
-6
-5
22
-127
7
28
51
29
2
-21
17
-37
96
-8
16
6
-127
12
56
-61
-9
-36
22
127
78
-19
-29
-80
73
-3
10
31
-16
8
-47
-25
-15
-64
-4
13
-46
0
-14
18
-9
50
38
-10
34
-7
-53
83
11
-64
111
-18
4
0
31
-60
-8
-20
22
-77
9
5
8
-22
-9
-20
-127
-23
7
3
-84
13
-42
127
14
-11
31
127
-14
-69
127
-1
-33
22
-60
-48
-26
93
-84
69
-70
-61
-112
0
37
-37
72
-14
-8
-89
-33
-30
13
88
53
69
-7
97
114
9
-127
39
-16
-126
1
-8
-5
16
-16
11
-115
1
17
-48
46
-10
-22
37
-10
-60
11
-22
66
-8
-55
67
74
20
5
22
12
16
27
19
59
-71
22
-9
-123
-33
-44
-48
2
-37
24
2
-33
27
31
100
-67
17
11
41
116
25
18
76
-18
11
18
41
91
8
72
-20
-16
14
34
-95
-20
2
-50
92
14
-89
41
15
4
-9
26
-78
93
-127
-10
21
-4
-58
-25
-60
-96
-46
-5
40
7
24
108
9
-41
43
-2
5
-2
42
-2
16
45
-65
52
-13
-15
-19
-18
-37
37
73
-11
14
9
3
17
47
19
-6
11
85
31
-18
-18
-35
-62
12
-27
15
-127
24
-38
32
6
-35
-19
13
4
17
9
-85
25
-21
31
127
115
-14
-59
-11
-41
-42
-23
35
13
-20
-2
4
-49
17
-62
-9
28
39
-89
-5
-96
1
-127
36
45
22
-71
4
-84
81
-1
6
1
-14
127
-29
51
-97
-77
5
1
25
-18
16
-49
34
12
5
-57
21
-14
-1
20
-26
11
21
-11
91
9
-17
-39
50
-80
16
8
6
-15
-29
-62
-5
24
36
10
-56
17
-16
86
32
-47
1
-12
0
13
-16
24
26
22
13
-30
-16
26
-29
127
-36
59
-8
-9
127
26
-17
96
-21
53
-20
-18
22
-22
-43
-42
73
-3
29
-12
-11
16
127
16
51
-19
-73
-34
34
28
127
-67
17
-14
-61
-21
35
26
-46
-56
-29
70
-48
45
-127
-13
11
-2
32
20
8
4
33
127
4
14
-20
-57
53
-127
-3
-55
2
-5
-26
47
-14
33
1
-7
24
-11
-35
9
6
24
0
2
0
-21
48
17
5
17
41
-20
4
27
30
4
4
0
-16
8
-96
-59
11
-12
10
-36
-57
-22
14
-2
37
-20
76
9
8
-30
33
-16
-3
97
-111
115
85
-106
26
-27
-36
-11
-43
48
-7
-73
-9
8
41
-11
59
-18
-14
90
-26
7
55
0
-63
59
-14
-54
-91
33
127
-24
50
-26
19
-20
-18
-9
20
46
2
68
-89
-33
-33
0
-30
-56
4
-94
-41
-24
0
-45
-17
-63
21
-53
89
85
-76
38
40
53
-85
43
-32
25
17
1
-37
-4
16
18
21
31
-12
-18
12
-52
44
-10
88
50
-10
-12
31
-127
127
-94
0
-3
59
-46
17
10
58
-5
-10
29
-76
-127
36
2
-39
-2
-25
-31
-28
25
40
-13
73
19
17
63
-7
-42
-8
-24
20
11
-19
1
0
8
50
-6
26
-1
-26
-77
-26
-55
-22
-54
-18
-3
21
-45
-9
-53
-2
-12
1
19
50
17
8
20
29
-10
11
26
41
13
3
-27
6
-1
117
30
-31
-17
-1
-5
94
-9
22
12
127
-36
-18
1
-9
6
-27
127
-23
-45
16
73
-127
-4
10
40
2
127
127
33
-28
32
-20
-18
23
55
66
127
47
-14
-45
-6
-2
7
11
22
18
-3
0
12
4
74
37
69
-49
75
6
42
100
-9
2
-72
-28
12
-104
17
12
5
13
-18
39
12
-11
4
34
-79
20
-37
47
-6
30
15
56
31
15
-22
-46
0
-27
13
26
47
6
-69
-17
3
26
67
2
20
16
16
-13
-3
14
8
11
-31
-17
34
-44
-106
-1
21
-1
-121
0
41
-31
127
31
0
-17
-7
8
62
-41
17
53
8
-29
-13
-3
-75
-21
3
-127
-60
-64
16
-2
-53
-5
41
0
-10
20
16
-5
-7
-1
-9
7
11
51
-15
113
-31
-37
62
-2
31
100
25
15
-1
-12
-34
-35
-17
21
-16
-10
-9
3
-9
-22
-9
-2
31
-2
-22
18
-11
11
127
33
19
-33
-14
-85
127
-57
25
8
-2
-127
-6
6
21
6
-9
-11
-3
60
32
-13
21
27
15
9
-7
-13
7
-1
-45
-29
-8
7
-23
-10
16
-5
17
-26
-16
-4
-12
-34
60
-47
-42
-39
24
37
24
-52
-48
34
5
19
-27
-122
-20
-24
31
11
48
9
30
-117
5
-50
36
-5
9
-88
16
-15
27
-40
19
21
-35
-1
21
-16
-8
53
58
0
-1
-7
-36
9
2
-83
-21
-51
7
17
-2
-74
-7
119
0
24
-39
13
56
-18
-17
-39
48
34
-18
-4
-14
-23
-22
36
26
-1
-15
35
-5
18
-10
27
-3
13
-27
-16
-5
-57
-1
2
-45
-11
-1
7
-2
-18
9
-18
-5
4
98
12
17
2
-3
107
47
1
9
1
20
10
6
-30
-75
0
0
10
-10
-11
9
18
21
-16
-20
8
2
-11
7
92
82
26
43
9
9
-6
2
14
-8
10
-46
-19
16
-1
-18
-17
13
10
-31
-38
-11
-25
0
-18
3
34
-27
29
-2
-6
4
-79
5
-30
16
6
6
-1
5
-43
8
-56
43
4
-6
-13
4
38
-29
-16
40
1
3
21
-43
-17
36
-35
-11
-28
-19
-8
14
-54
-35
20
-16
-37
47
3
8
13
-30
-64
-34
-38
-33
-30
-17
72
-73
-1
-25
-22
11
-26
-19
15
46
40
53
-18
-28
-17
-16
-62
31
-10
13
-52
-64
11
8
2
-19
9
5
35
-66
21
26
-90
11
51
-15
33
29
-13
-9
-87
14
-58
-17
-72
80
-1
-24
33
-46
-46
-89
21
6
-5
2
15
-13
25
-3
20
-7
16
-5
-2
-92
-11
23
22
-30
-21
32
-26
-16
-1
0
-38
-21
-41
5
-35
86
-64
9
6
21
27
2
-42
17
-5
-12
-6
7
-21
0
-22
-48
4
23
0
6
17
-1
57
13
52
68
21
6
28
8
-4
-2
-19
6
12
-1
-77
15
8
-29
-11
8
-47
5
7
11
37
-48
-27
0
-8
-3
22
-21
-51
16
53
-11
0
0
-16
11
19
62
24
9
-19
33
3
27
-17
39
86
64
28
4
-19
-30
7
-26
-9
33
-18
-12
77
-5
10
-17
-21
28
10
-8
-71
14
-12
37
7
-23
47
31
16
-4
-32
-16
46
36
1
9
-4
-15
-120
41
-13
-57
30
-32
5
-4
106
32
-6
19
3
14
-6
23
76
-38
-2
-42
-30
-8
-59
18
-37
-8
-4
-22
17
-1
4
-60
65
4
-14
15
127
7
-20
-29
-87
-23
57
-107
19
25
22
-24
-7
-62
-39
-28
-27
-7
19
7
-13
0
-109
-40
26
-2
5
-37
-17
-19
27
-7
12
-66
15
23
-67
59
-32
-37
50
4
-58
-12
19
-69
-12
-4
7
27
72
13
8
-31
-11
-13
21
-15
-30
-13
-36
43
-127
11
10
12
27
-5
-56
-9
72
20
2
11
28
-4
1
34
-40
27
5
-9
9
-17
-86
72
47
-7
-37
26
21
2
-70
15
-68
8
-3
6
10
10
-31
23
0
11
1
13
-82
-22
-5
-28
-26
15
1
10
24
-19
-9
26
-13
2
-25
-1
-17
3
-8
121
-20
17
14
-16
-6
-2
9
41
5
-43
-5
14
78
-127
1
-89
-36
31
-11
122
3
66
-8
-17
-43
17
23
10
-21
65
12
55
8
-25
7
115
-60
10
-27
-3
6
50
-2
-5
2
3
-8
-18
35
2
9
-4
21
13
24
-21
26
43
67
-104
-63
-27
90
50
-59
3
-25
9
27
-35
34
-1
40
-22
-8
26
16
-7
22
48
3
25
-33
22
17
-5
-68
4
13
46
2
24
44
0
52
-6
-30
-4
-40
4
-9
-29
65
36
22
23
-55
-12
-2
13
-32
-16
10
9
6
-1
-17
-6
51
127
-25
61
-56
-16
-16
11
31
6
-14
-31
10
6
119
-26
-30
67
27
45
25
26
-3
4
18
-14
13
12
9
-13
-25
-8
-19
15
2
27
-14
-3
14
-14
-79
-10
30
9
-32
0
6
3
-37
48
14
5
0
-18
5
12
13
-36
-14
1
-25
1
-15
-7
68
11
16
-10
-6
-17
18
2
16
-46
26
-18
15
-9
-76
4
-13
-33
18
23
11
-22
74
-10
-26
20
1
-15
12
24
-11
-12
44
13
12
-59
-3
7
0
-9
-72
-97
43
-12
-11
8
13
8
-15
55
-8
20
7
4
7
-21
-107
-32
14
-26
-21
15
-13
8
78
-71
11
-10
-21
9
4
-28
-30
64
7
-10
-38
34
-12
-3
55
60
-22
13
15
-37
-23
-11
69
9
-6
-99
-16
-14
61
-2
63
54
3
49
9
-6
-1
-8
11
-33
23
7
29
24
127
37
12
64
-31
-56
-58
18
15
2
-47
-2
-26
-22
-14
-13
-73
-8
-14
-16
74
-7
23
35
-5
9
-9
-1
-11
-24
11
27
-13
3
-16
77
-32
83
23
-34
-8
27
-24
6
-30
-15
-2
-48
-16
-3
0
-14
4
-36
5
28
51
-111
7
-21
26
-37
2
-21
26
10
17
24
-16
11
24
23
-7
62
12
-116
3
26
-8
46
-7
-14
-14
-11
-19
-62
-21
9
37
-32
-11
63
36
116
80
38
-12
-26
-19
4
13
-38
8
11
1
-27
-11
48
4
-46
23
18
7
-8
-25
0
-6
14
-56
-46
34
-15
17
36
96
16
-29
19
17
-10
110
41
-7
40
-54
19
78
-27
12
-32
-74
29
-11
-7
12
-73
-18
19
11
-73
-57
-8
5
-15
-7
36
4
11
-2
56
-15
-56
22
26
34
55
-17
-91
37
-30
-14
91
-32
-13
-24
15
-24
0
127
-32
-85
11
25
95
14
37
-27
-13
10
44
46
50
-21
-6
58
33
-64
-18
17
-18
-13
19
-17
-26
-92
3
-104
-12
3
-11
-39
-14
6
10
-4
29
4
-43
-6
52
-6
-6
-12
87
-3
19
22
-40
0
16
-15
-20
6
76
-14
-7
-24
-32
-24
-31
61
-24
-31
-23
-90
25
16
7
67
-39
-55
0
-55
-1
-5
6
-10
-45
38
-23
23
-30
13
-69
1
-28
-11
-64
-14
8
11
52
5
2
-9
6
8
-28
33
-52
16
12
-44
10
-1
48
-29
-10
-3
58
28
9
-5
8
40
-15
-68
10
-27
24
-50
39
127
19
20
-37
17
27
115
-2
66
-25
23
31
74
-18
18
-14
2
49
-83
-14
-20
18
85
5
-18
36
54
17
50
1
56
86
-48
-36
59
-2
32
-20
26
2
14
-13
3
-7
-7
53
-8
-40
64
33
-70
55
-39
29
8
-13
-52
26
-39
69
-12
36
5
22
9
21
-15
57
9
69
8
-29
-22
-31
19
-47
10
77
20
-20
-54
70
15
11
-85
18
42
-25
-9
-48
-3
-95
-29
28
16
43
-13
5
30
-9
19
40
-12
15
-9
49
-1
80
1
-20
-25
6
33
11
7
7
4
59
-71
-10
-34
12
-28
-13
-15
-127
9
7
-12
14
22
23
-33
-45
-10
1
-9
-10
8
-12
-39
64
-35
7
-3
127
-10
-22
-4
15
5
-45
57
36
4
5
42
-41
-24
-7
47
-30
-1
95
19
14
-39
127
-28
-29
2
36
42
-60
-11
45
-30
-15
-42
-54
26
18
39
35
3
31
-28
-12
-61
33
-1
82
-19
3
-8
-42
-6
-8
5
10
33
6
1
16
46
-39
28
-10
0
17
8
33
-42
43
-25
-18
28
79
-6
35
69
-30
-40
2
1
40
-25
28
-26
9
-25
-1
24
-32
9
45
-26
7
46
-18
44
49
-17
-46
-29
1
24
-3
3
6
65
16
-55
26
-52
-37
17
-37
-6
36
9
4
-10
25
-30
25
-30
-57
-15
-28
-4
24
-10
1
27
14
-53
65
27
8
30
20
-1
14
41
9
21
-4
24
38
-24
-2
-29
15
-16
-37
22
-41
7
32
2
47
12
-32
57
-44
10
13
0
0
-5
-41
53
2
14
-93
26
64
29
-18
-6
-15
-25
103
8
-34
-13
52
54
-15
57
18
-25
20
-42
0
30
-26
-1
-2
2
0
-1
-30
11
5
0
2
11
12
16
-12
28
5
7
-1
-6
4
3
1
-19
17
-8
7
9
-61
-5
-30
-84
-41
37
-35
-19
38
-42
1
-14
15
73
76
-35
-44
12
31
-55
-28
-3
74
-14
-20
46
-18
-91
4
36
68
-4
27
29
-33
1
17
14
-22
-2
32
23
-6
17
-10
-12
-19
14
83
6
-26
-9
-5
127
-27
50
-66
21
24
77
-13
-5
40
15
-10
5
-19
57
15
35
-10
-18
5
-59
39
5
22
-1
8
-6
-36
-17
-59
-42
16
-23
-21
-12
25
37
26
23
-18
40
31
-116
-45
127
31
-13
20
-7
-21
-44
40
5
-26
36
-26
13
46
-6
18
-14
-10
-8
49
4
73
-28
-60
-17
30
-91
30
6
8
33
-39
-2
18
-34
-19
-10
-37
-2
72
69
-1
15
-40
-24
100
1
66
9
-19
-13
-29
-35
20
2
-14
13
17
24
48
-15
46
5
-13
-9
50
36
-4
-2
-39
-65
11
-38
-2
-3
-61
0
25
-10
29
66
-11
-1
-43
-9
-72
-31
12
18
5
-39
16
-3
127
2
33
11
-12
-13
16
-6
-4
-33
-10
-28
-21
10
-42
-13
42
109
91
0
-13
-29
-31
-7
14
-13
6
7
38
-22
5
-15
-33
24
25
-16
-4
-16
-10
-11
7
-14
-115
6
17
-13
24
-4
-42
34
36
1
-37
-9
-11
23
27
52
-38
59
-4
-22
32
0
-24
-31
16
-8
39
-13
46
27
-29
12
112
20
-12
-51
-30
29
4
-18
-9
-62
4
-25
4
-13
-23
32
-29
43
16
-37
-49
-26
18
-19
74
-59
25
37
-9
18
12
58
53
18
18
-35
5
-18
-41
-41
20
-127
0
5
-53
56
58
-13
27
-20
11
3
-12
53
-15
19
24
-23
-13
-34
-20
51
-69
31
12
32
11
-8
-40
-28
48
7
-8
-13
-6
14
-17
4
-17
43
33
-18
17
-41
-23
24
-45
46
55
-22
13
18
67
-55
-14
-57
4
-5
9
38
25
-50
-18
81
-34
-12
-15
65
-18
-45
-77
24
-28
63
-1
-22
-67
92
18
18
-14
12
16
-35
49
11
-21
42
31
14
13
-28
-14
35
50
55
-3
12
-2
-25
8
-6
-28
25
-31
124
-2
-28
21
19
-15
19
9
-24
4
-31
-44
-36
-12
-10
-3
0
-20
-85
-93
-3
-55
-2
-8
54
-17
-22
22
-28
-34
105
-8
-38
-25
4
88
-11
56
-2
-23
-20
-1
30
10
-68
14
-35
-127
35
17
26
-27
-22
-57
-2
95
-5
2
127
-17
-6
-1
-3
12
73
4
4
77
43
33
27
-19
50
7
-42
4
-15
76
15
2
36
10
10
68
69
77
-22
-24
-2
1
63
-47
-16
-41
-13
0
70
-2
-23
-5
-6
47
11
25
-15
-4
-40
-10
35
9
8
12
-11
-7
-21
13
-50
60
86
-55
40
-12
-35
-24
-31
20
-30
11
32
15
-42
-8
-68
-61
25
-11
93
20
-12
25
-89
-86
36
-3
15
2
13
-50
-26
24
15
-4
12
-4
18
-20
7
31
16
40
72
-6
15
8
15
3
-9
21
51
-13
22
10
-31
-2
-45
-30
-24
46
26
1
34
-44
110
46
16
5
-32
-65
-118
19
-8
32
26
-2
-39
72
-15
26
19
-13
72
-14
52
4
9
-57
37
-42
20
15
-5
11
87
-9
61
-25
-29
-11
26
127
13
6
-7
15
-8
-2
-13
1
43
23
-25
1
-28
-10
22
-39
-90
70
-28
38
28
-11
36
52
-64
-40
-65
-21
41
-26
38
48
-15
-19
-20
19
-20
-2
-12
-9
-30
-63
9
-63
0
-14
-26
15
29
10
23
-3
-57
2
6
-61
-80
88
-28
-29
49
8
53
-29
-24
-13
-19
-35
-19
3
38
3
40
-9
-14
-46
67
11
-62
-25
39
15
32
-20
-13
-1
16
-45
-18
27
39
-11
-7
-5
-31
-12
-2
49
5
-7
-49
5
-32
-49
-50
36
50
-27
42
-11
-17
4
-43
10
-4
-21
7
31
11
-48
57
-77
-25
-51
6
-15
-4
10
-120
56
63
29
-104
-10
100
16
-50
10
8
10
35
20
-2
-7
43
15
-9
-50
-64
-5
-81
12
-47
42
-88
34
60
28
-22
108
-3
18
-36
30
-7
9
26
-15
-33
54
7
-24
-25
28
-12
-10
5
14
-3
-13
62
10
-32
-42
-13
35
-7
-8
68
-3
49
12
-4
62
-22
11
42
10
14
27
55
-11
1
35
48
19
68
78
74
30
47
-4
60
-2
17
-41
-77
70
-16
33
22
19
14
-19
38
-127
32
21
-50
3
8
-10
13
23
-43
9
8
-7
7
-47
28
45
-18
-38
1
-9
26
20
26
24
-11
7
31
23
27
5
11
20
16
-7
-1
6
18
38
26
79
-28
54
63
3
2
-20
-33
-49
-6
6
14
2
8
-34
32
13
40
36
-29
-12
24
25
59
-12
17
50
-30
7
68
12
-22
-2
-20
-40
68
-1
23
8
58
-23
29
29
5
-15
-33
-15
10
57
-1
-7
12
-11
3
2
101
-12
-39
21
11
7
-18
33
-16
31
52
0
-17
-14
81
-12
-18
52
-1
33
-31
26
21
0
-67
57
36
-7
4
-5
-36
-25
38
-30
33
-10
-23
127
0
-17
13
19
62
-54
-19
10
-16
63
2
-8
5
31
73
-12
-23
-2
1
-9
-4
-16
-21
-3
-33
-10
64
52
-38
-18
14
25
-10
-41
9
50
-16
32
-102
-7
34
-19
-61
14
-46
9
-95
14
25
-40
72
16
-47
-19
33
2
-31
9
-8
12
-47
31
127
-5
-3
-8
34
21
-35
9
-76
-4
13
-115
-9
-90
5
-64
53
24
19
22
21
19
-2
30
2
-12
-17
2
81
18
54
3
46
-16
15
63
29
-5
10
20
-11
-9
-22
16
-13
-3
6
-33
-16
-18
-3
-23
-3
-25
-5
-21
-27
-1
-21
0
25
14
-34
-46
-117
8
49
0
68
3
40
22
-19
1
15
17
-21
6
12
-6
-49
-4
-41
12
14
65
0
-23
15
-4
30
-46
-27
-41
56
86
19
14
-44
20
-7
-19
-6
-6
-13
-1
-53
4
-5
60
19
-10
-1
-8
-15
39
9
-6
-9
40
33
1
-1
-7
18
35
-15
-1
-2
-6
28
-24
112
17
-8
-38
-18
4
1
-13
-34
34
20
28
19
-4
-9
-10
118
-52
-47
-27
-34
13
53
-1
-11
67
7
-4
48
-1
75
-32
127
37
-127
-1
24
14
4
44
-54
-55
66
-9
-18
-13
41
15
29
36
22
1
-104
13
2
9
-2
48
26
5
-24
-13
-19
22
94
9
-12
-5
44
20
-5
-86
4
29
-15
50
42
18
27
-82
-21
100
7
25
-58
12
-66
51
-74
-12
-76
-48
47
42
-8
-12
42
2
-10
0
43
64
-20
20
-24
51
9
90
89
122
0
-32
-49
-8
-17
-31
19
8
6
0
24
-14
-10
13
49
49
25
16
-13
35
-2
-10
36
55
77
-11
59
-30
-77
38
7
100
4
9
-15
61
28
-31
39
28
-8
14
-14
0
26
-14
-28
105
0
18
-61
31
-9
36
20
-32
-8
-11
44
4
-17
6
50
28
15
-6
46
-88
-91
3
-15
-38
-17
20
4
-14
-10
39
-41
-54
9
-32
38
7
11
58
40
-74
-13
4
34
123
-24
-7
-27
-29
1
-9
-34
-96
39
52
10
-58
-14
10
-28
-109
-59
-35
14
-127
-26
-6
-40
-17
2
-33
94
-11
-4
-12
-56
-32
-75
-41
65
-44
-24
-38
-63
20
-22
38
-92
28
-3
-17
64
20
8
-57
-22
-21
-15
-55
-80
76
-13
36
42
1
-12
9
-6
58
-19
21
32
27
-21
29
49
-24
-2
4
56
21
40
28
-79
70
-8
38
38
42
-14
-1
-18
-4
11
-6
85
14
3
6
-22
-45
-16
26
-43
-23
-3
4
1
-24
21
-10
-80
61
-3
7
70
-15
67
16
56
42
-11
29
48
16
50
-21
9
-79
28
28
107
-46
-5
-55
-12
100
-13
15
-46
-4
8
-42
4
20
-3
13
-55
-52
22
-68
14
-63
-3
-8
29
81
33
-72
82
67
-26
31
-44
19
5
87
-24
-51
62
-35
73
-103
-3
-27
-22
-35
-4
22
-49
28
25
22
1
100
-53
-5
59
0
-3
17
77
-30
-9
-5
-16
53
-16
-127
-22
20
37
5
43
-50
52
-91
-84
99
3
18
-19
63
-25
-4
-24
1
19
8
32
30
-49
15
-118
-4
-29
-16
16
4
52
54
-51
74
-40
-3
22
-57
-127
4
68
14
34
46
21
-44
6
-22
-8
8
2
-10
-60
2
62
-36
-39
91
1
-8
-43
-21
-5
26
-2
3
5
24
-30
-83
4
-57
-12
114
-34
11
31
37
-5
62
15
9
1
-31
-3
-37
16
-82
-73
-12
1
40
0
-42
-37
-12
-3
-41
28
-4
42
69
-25
13
19
-26
7
10
7
21
-10
9
2
6
0
-57
-126
21
-1
41
-3
-81
-3
11
-15
34
-35
40
-94
13
26
-15
-51
-101
-11
38
-1
61
-50
2
29
-26
1
1
30
-94
12
-13
-96
-81
50
29
82
91
34
27
93
12
37
25
127
47
3
-29
64
-44
-58
83
-51
18
5
29
-25
30
52
13
77
106
-10
-20
-14
-112
-29
72
22
89
30
4
-105
82
-21
63
-20
24
0
-2
15
6
2
-47
-27
25
6
-41
0
25
19
38
-11
39
5
22
61
-80
31
24
17
-10
-6
-27
-72
38
72
-36
9
41
-7
-13
127
88
24
27
11
-57
12
-2
8
45
17
33
-73
5
20
-6
5
8
1
12
51
12
-44
4
119
127
-58
-54
6
27
-28
-2
43
14
11
22
39
3
-21
32
-28
-11
3
22
13
2
2
51
-50
-64
-34
-63
20
-54
-2
9
24
38
-5
36
6
92
-10
-11
6
22
-9
60
41
41
22
-38
37
20
-24
14
-16
-33
-5
-8
2
-47
39
6
34
-49
-3
-3
26
-37
-15
22
59
38
-22
-4
21
24
-11
40
-7
12
-1
-2
-6
-5
5
10
66
-14
6
2
39
-10
-14
3
-19
16
14
-7
24
-43
-31
-2
-7
4
-30
20
-44
-13
-74
-55
-60
65
-57
-29
4
-5
-24
5
-3
-23
-127
-35
-19
-1
22
-45
21
42
103
-4
24
-5
16
36
19
-35
13
-56
49
-79
14
-37
6
21
5
-8
-47
77
-74
-32
15
60
38
20
-29
-28
7
-93
2
22
-4
47
10
27
27
18
-9
101
-25
41
-11
38
21
28
-22
20
9
-6
-20
-33
-49
-36
-14
35
12
-22
22
-110
8
-16
-4
-36
18
-51
61
74
-7
-50
-8
7
7
5
-62
-39
13
-11
-2
19
-4
12
-43
23
22
-4
-66
23
7
24
-30
-61
-19
38
-40
-34
-6
5
-28
-17
33
21
-85
-76
6
127
20
-34
9
-32
-42
0
5
-11
-55
42
4
-36
-21
74
-13
18
50
-21
10
-7
-65
-7
-7
2
-48
-14
3
-17
-29
5
3
5
-25
-25
-9
20
51
-27
-6
54
20
-16
-38
-24
-23
-49
30
17
-4
22
-5
16
-17
-14
8
1
14
27
-4
87
12
16
5
-21
-40
73
-4
2
0
-27
-4
58
5
-11
-49
-15
14
46
25
23
62
-41
12
-23
-43
-5
13
6
-1
44
3
3
47
26
-1
17
59
-9
-25
-4
-50
16
10
-11
44
-9
11
33
-32
-31
-18
15
-48
4
29
2
-16
-8
6
-8
-26
-14
8
11
-71
70
-4
-31
24
-15
22
25
37
3
-15
45
74
53
14
52
24
67
12
-25
6
0
1
27
28
40
20
1
-6
-46
-14
-84
37
-10
-8
13
-63
22
-55
-59
91
52
6
-16
40
6
-2
-44
-13
-10
-1
-1
-84
51
46
3
106
-30
-29
-46
6
10
21
49
22
-29
-21
-55
24
-118
1
35
-35
7
8
50
-8
111
-21
-70
89
4
22
12
-31
20
-28
-126
43
-65
-68
117
96
-121
-2
63
47
-101
-127
94
19
31
2
-27
71
98
101
17
-29
-38
36
-12
26
-127
-15
33
23
-27
-8
-1
-44
6
5
-25
56
-46
-1
-20
45
-56
-22
-76
-20
-62
-7
105
-38
34
7
35
-127
-32
-28
47
-49
3
55
66
34
-107
-4
6
127
-41
-14
19
27
91
-26
-127
40
-22
6
-2
23
-34
19
26
-68
17
19
-102
-48
127
11
-14
79
-8
-89
-8
-8
-104
2
-75
20
-56
16
-29
-29
-2
34
-112
-43
94
-52
-16
12
-11
-22
-34
-13
7
5
-21
21
80
-62
13
-32
7
-16
-73
-19
-31
127
0
-82
-44
11
1
-25
-18
15
-85
-10
-16
-24
-69
107
41
7
23
42
31
119
-20
-3
-6
43
-13
-51
1
-2
-32
20
73
6
-59
-82
-30
-30
16
-23
52
62
14
2
23
-25
-11
-91
54
27
-27
41
34
17
65
5
-94
23
23
30
2
20
-20
54
23
8
-13
-8
-11
-46
-31
10
-79
-64
35
-53
-64
-104
2
-82
-22
19
-6
23
-1
0
127
-38
-69
-10
-6
8
8
-12
-1
-71
-51
35
21
-33
-25
25
20
70
3
35
-34
38
4
-18
7
19
22
7
-68
-35
-25
-19
-6
-25
-20
72
-26
64
18
-16
-49
-95
56
19
-73
-122
-45
-19
25
6
-32
20
44
23
8
37
-33
8
43
45
70
25
-64
9
-19
-20
64
-37
-6
-56
18
-6
-2
-37
25
-24
68
76
19
50
-5
-13
-9
-9
-33
-22
34
-8
1
25
-5
-27
-11
-18
13
-10
28
27
127
-13
0
-6
19
22
-5
68
37
6
51
127
36
127
127
-48
-2
48
-48
-32
60
-116
31
39
39
-22
-23
68
21
3
6
-56
12
-127
85
-10
46
-34
12
-31
43
4
-7
20
21
-71
-58
-47
-18
115
-1
-100
127
-23
92
-37
4
-22
127
-96
-34
-3
-11
-127
-21
11
5
-33
-12
24
-32
-8
-84
-16
-112
-82
-15
33
-34
117
-45
-21
3
4
-39
-24
-71
-5
-110
-43
20
9
-11
26
66
-34
56
26
-42
47
-27
11
8
35
-14
-13
64
10
9
4
-96
-83
34
8
22
-112
30
-30
121
1
19
-23
14
30
-12
1
-96
36
-92
45
-92
-23
-54
-39
15
96
-20
13
-32
126
-20
-21
7
-13
51
-24
-104
122
0
33
9
26
-43
9
-20
104
-18
-2
23
-127
2
35
13
13
-36
22
-32
20
50
100
-4
-110
77
-126
40
-33
8
-9
9
5
-11
-26
-18
-45
-127
11
-29
11
30
83
34
-1
-23
-26
44
1
-19
45
15
39
16
-39
38
95
-38
32
9
-25
110
27
-62
127
41
-125
-16
-4
-48
-36
4
80
53
-30
11
37
37
-20
-3
5
-43
-26
-17
23
12
36
15
-33
-15
27
-67
-36
-9
1
-5
40
-31
-57
-16
-20
-19
-8
31
34
23
19
-42
3
-16
-5
-21
81
19
29
-23
-12
99
2
-127
43
-18
57
9
-38
-37
-58
43
32
-50
-30
30
-14
9
-7
16
-16
-40
10
6
18
78
25
25
8
-127
37
-30
-10
-13
-55
28
8
-1
-19
-42
36
-37
33
-25
-44
-18
-13
127
-5
-17
7
-41
2
-42
71
27
-37
-44
8
-21
15
42
35
-17
43
-41
127
-20
2
23
127
-24
-49
7
-6
-6
32
16
1
19
-27
31
-20
26
-22
-21
42
-31
18
15
3
-55
0
51
56
7
28
23
-1
16
11
-46
55
-28
-2
1
12
61
36
-34
8
-10
40
-10
1
21
53
9
-24
-14
36
57
-12
-49
15
-24
-34
-6
3
2
4
0
-71
21
69
-35
-40
-55
-45
-11
-6
-41
99
-1
-66
-20
13
-18
127
-2
6
14
-16
17
-17
24
16
-27
-30
57
-55
-27
-41
76
-8
-74
-116
127
-44
49
25
1
-36
35
-67
-6
20
6
-17
13
60
37
35
4
14
79
33
-15
1
-40
-23
27
-114
45
-101
85
7
-105
93
102
-57
36
2
57
34
-127
32
-51
-23
-57
3
-49
-16
47
78
-70
20
49
-28
77
-42
-72
47
-9
-54
-17
47
46
-53
-12
-22
-65
-2
27
-41
54
-33
-45
-5
18
-65
-57
10
12
8
10
27
52
127
-84
-13
-19
-127
102
-33
-16
-39
-61
89
10
21
-20
22
10
10
-62
-10
89
46
102
-17
100
-15
-12
51
37
-33
-27
-83
-28
-1
127
-19
-10
-22
66
-39
1
-46
-29
8
-103
-5
9
22
14
91
92
-94
-127
-38
-9
-3
-89
15
-32
-56
-53
3
-40
19
-22
19
-13
-74
-34
-71
60
-88
13
-34
-12
-65
40
-2
9
-37
15
-85
22
44
8
-76
-74
-127
63
98
-50
11
-5
79
49
3
12
-25
2
32
14
-52
-53
-40
11
12
14
12
-4
22
2
48
-42
22
-22
-118
-82
-2
84
-47
-24
-36
-13
15
8
-58
-11
-14
30
-2
-21
-13
53
1
30
-16
109
52
-18
123
-71
18
64
-29
-8
-95
69
127
21
1
-127
-7
73
70
14
79
-9
-82
-19
-20
83
-70
-44
24
-2
11
19
-1
-24
-46
8
-39
67
-38
60
-32
-46
21
-6
-23
21
-3
52
-4
14
-37
-2
-35
6
-34
24
-3
-54
-25
-43
-22
60
5
36
36
-20
28
-6
-26
-11
42
60
18
-14
127
-66
-14
32
-28
-127
-34
20
34
-1
24
38
3
1
-86
-39
49
26
-20
49
25
56
14
-52
33
4
-69
4
83
-49
15
-94
-22
-49
-2
73
14
-27
42
-58
-20
-4
22
-80
-2
-3
-1
47
64
43
-2
-19
-24
8
30
49
-1
99
-60
-9
-127
-60
110
35
56
15
-127
-9
26
-85
28
-83
6
-12
56
-20
-28
2
-12
21
8
5
77
43
37
-92
-92
-68
34
-12
-22
1
-35
-24
10
28
-60
-76
-92
-40
1
71
96
55
12
-5
26
-43
8
-53
-7
36
-44
-19
-31
-19
4
0
4
27
97
-100
21
-91
9
-38
127
30
11
-58
-13
-15
24
41
-40
-22
45
-127
31
18
-1
96
24
12
18
7
14
-78
-31
56
-4
70
-15
-25
-47
-127
48
18
-60
81
48
-11
9
-16
-38
-29
19
46
48
-14
-12
77
18
-5
-4
-127
26
5
42
45
65
-61
13
-24
-17
1
-8
14
15
80
38
-34
-57
103
-1
-81
-27
-108
107
89
-17
-46
-10
-2
13
27
1
27
0
36
37
-8
-8
14
-10
4
-25
-59
-86
72
-103
32
5
110
-32
12
-2
12
15
-32
28
30
17
57
-2
-51
30
-43
-16
6
-32
19
-17
-15
68
104
-34
8
15
30
-46
-14
34
-20
26
-12
4
-98
79
19
-77
-80
2
-38
54
-44
-8
29
-126
-20
40
20
-72
15
-49
45
-2
20
-47
-53
-30
42
10
-4
-8
53
-127
-29
1
-80
25
-58
10
-6
-33
31
-29
47
-10
17
-55
11
-12
-27
-54
1
-127
26
-30
-33
-5
-29
-127
-68
30
36
-39
-121
-85
-35
-125
90
43
35
106
8
-105
110
8
-16
20
-74
-35
13
52
2
30
-17
-36
7
-38
38
-30
81
-52
-35
-10
-3
-38
64
-51
-127
-24
-15
-37
15
22
72
-40
-8
-44
-47
0
45
-122
41
12
-96
39
10
32
14
-20
61
31
6
-16
113
-39
-104
87
15
-26
-39
31
53
-11
10
18
2
-59
-20
-49
7
110
61
10
9
-5
3
22
89
-2
70
-33
-5
-13
-15
-38
127
10
97
-8
6
-40
-27
43
-47
-52
26
46
-127
24
116
-14
-19
-64
-76
-18
55
-5
9
-17
9
27
3
49
-33
-22
-2
16
-44
46
-15
-40
26
0
-11
7
27
28
-127
127
3
-8
-80
-8
-29
-56
22
-1
47
10
1
-5
18
66
3
74
-14
114
-16
-16
-127
-48
0
74
51
-33
6
-3
-21
-3
3
35
10
16
16
-15
-38
106
-2
-40
29
-13
-8
-127
12
20
-36
-41
-24
0
-127
-19
18
60
-33
-23
17
-37
-42
5
-3
-127
33
76
35
-34
44
1
75
15
-79
-32
-52
4
24
-41
15
-17
-27
-30
-31
-21
-46
-15
52
45
67
51
71
7
-51
6
-21
-10
-13
-127
8
-11
-89
33
6
-27
10
-86
19
24
60
10
-12
-14
-8
6
61
-5
-18
42
-28
17
13
9
-2
0
110
13
-27
120
-51
25
-127
23
6
-4
-43
-4
20
30
-10
-53
-19
50
2
126
10
-38
-2
-27
50
-54
77
-86
-10
-76
-28
24
-69
25
55
108
-27
-49
-73
-12
8
14
17
-69
14
33
57
27
35
17
-56
0
6
-35
18
21
15
-1
-4
-1
111
42
84
-127
37
-16
-79
-18
5
36
1
26
55
-15
28
-30
-35
63
18
-15
-49
-16
-17
59
6
9
-10
-49
124
15
-1
13
-2
-90
-21
-24
73
10
-41
-45
17
40
-39
-51
-38
26
-8
42
19
-35
-20
-31
-85
42
29
-26
0
23
14
13
51
37
-24
59
-10
55
11
-3
-76
4
-63
-34
-127
46
-51
73
60
5
-10
17
0
-64
-28
63
8
36
-22
-6
19
-33
14
0
83
28
-11
30
18
127
127
17
114
6
-31
-4
6
-28
14
-42
59
37
-32
32
0
16
35
26
-37
-18
30
127
-9
-30
-48
76
12
-69
-1
26
-27
-59
-46
-87
-19
-112
46
1
-44
-82
-44
-81
-26
-68
-11
-55
11
-65
-75
83
-54
-1
-40
36
48
-42
-37
-45
-43
-4
-19
4
62
7
-3
40
-56
11
-6
7
-69
-96
30
-50
-104
50
12
32
-47
20
-5
-1
-84
-25
-122
11
127
-12
50
-15
38
-127
25
-67
40
6
22
-63
8
41
44
25
-35
-2
33
127
62
-104
-25
18
27
7
45
33
39
-27
-16
-6
54
-1
-14
-38
10
61
-3
27
4
-14
-3
34
-47
-61
-54
-24
-66
-24
-42
-104
-42
-113
49
-7
-30
11
18
11
-19
38
29
-8
-71
-8
52
0
-20
8
-61
-5
-19
-11
-17
30
127
-91
-29
9
-13
37
78
-2
68
120
127
12
-111
16
25
29
-28
27
-16
-25
23
18
40
-27
27
48
74
-3
-62
-19
-1
-3
-107
-61
3
58
-6
-68
50
20
106
42
-22
-11
-34
68
33
15
-46
116
53
-6
-20
32
-3
-18
13
57
16
-15
-23
65
16
-40
-9
-55
12
-6
32
64
46
-52
-82
8
24
-50
-75
11
-40
-27
-64
11
-3
-35
-18
-20
41
9
-23
127
-27
-3
-19
35
123
57
3
9
47
-48
-17
15
-66
61
5
30
7
9
-6
19
-36
67
-2
-27
90
-43
-84
-105
77
66
44
-84
61
-106
-54
127
-8
-6
23
-36
65
70
3
26
20
33
27
-76
-115
-68
-24
57
-54
44
-49
1
122
16
44
-30
5
44
35
5
-16
-31
-18
-71
-2
-2
8
-18
33
3
6
-8
-5
-34
19
23
23
-10
-64
-89
26
45
-18
-22
6
127
75
-59
11
-41
-36
25
-44
-91
-127
-83
42
-88
-17
6
-46
2
12
-94
-127
46
58
54
7
-10
9
12
-20
3
-15
-32
61
-38
-83
-76
-17
58
67
-2
-23
24
-68
-2
6
38
-23
-41
87
-52
13
-122
20
-54
-15
23
-33
-30
25
15
-60
-101
-23
21
-26
30
-22
38
117
-18
-13
2
-110
21
-25
-22
71
-114
-127
60
47
-27
11
-7
-24
-7
23
-15
-35
-19
30
-28
44
-16
-32
33
16
-33
-62
11
23
-31
-18
-42
9
40
62
-2
-15
74
3
-16
-19
-9
-8
84
-52
-10
25
8
20
-24
-2
-50
72
-7
1
37
-13
-51
-12
70
53
9
24
18
44
56
21
20
-72
-6
18
53
127
-30
-63
32
-14
-127
7
13
14
3
-1
48
-50
12
28
-8
16
-8
8
24
48
-5
9
126
0
121
16
-37
-46
-88
-41
34
27
37
-7
27
-54
6
1
51
34
18
-19
14
37
-86
-3
88
66
28
43
12
-39
-42
21
74
21
30
-20
-18
-5
27
-23
45
-40
68
27
-22
-45
17
-104
33
-99
-31
37
29
53
-127
14
6
-40
79
-8
-49
5
3
-22
-46
7
18
-23
23
22
17
3
24
-3
-18
-3
-15
-20
51
-17
-21
-17
43
-14
25
53
1
-2
-63
5
11
27
-4
46
24
35
-108
-92
127
104
-127
-42
125
-127
127
54
55
67
49
-106
-88
-53
-44
-12
-7
-1
-4
-7
40
-8
-83
81
10
-43
-103
-127
-24
-61
114
-4
13
-113
30
-109
-30
11
-80
-46
81
70
-8
24
-4
124
-28
38
3
127
-29
-58
-40
-43
44
0
8
5
14
-27
-30
-33
-17
-127
-92
40
64
-20
101
-66
-6
26
-12
-8
-7
99
-5
1
-63
5
25
-41
-67
71
29
78
-41
-28
63
35
1
27
-11
-8
-72
48
46
-2
13
10
23
0
-51
47
-9
-72
-11
-72
38
-4
80
46
-78
-1
46
68
9
44
-33
9
10
-5
-32
73
126
-50
63
13
60
49
12
33
-28
3
-33
101
-109
-32
37
-102
100
-92
-3
-16
12
19
-29
-98
-23
-17
-11
-2
-11
38
14
-2
2
127
-62
-97
-3
-45
34
-54
60
50
35
33
62
69
44
-21
-16
37
12
15
13
-83
15
-35
104
-22
23
-18
22
45
16
1
74
-32
16
9
-13
18
-5
-19
31
-17
-105
-55
23
93
53
5
-68
-14
16
-64
15
9
-57
-5
21
-13
12
-11
31
-2
63
50
-32
-12
-7
-3
-100
27
14
-9
-34
-5
4
-66
25
-127
13
-3
57
11
1
20
-57
-56
11
19
20
-8
-7
18
17
88
43
0
-127
-41
-70
38
-127
-45
30
10
7
-12
-88
-88
-88
43
92
-68
-43
-21
22
23
-44
37
15
16
-83
-45
127
-83
-81
36
-127
20
-53
-8
24
-37
-57
-26
2
-6
69
24
-101
54
-64
30
46
68
-41
27
-3
59
-35
-1
7
-1
10
36
22
8
45
4
5
21
-48
-75
0
118
-31
9
14
-21
2
57
13
-6
-53
92
-30
0
-71
16
104
67
-20
95
-17
-16
-11
-32
-68
30
-1
24
-18
-1
-101
-40
27
71
-1
-89
13
-16
101
5
-20
30
21
22
-33
-127
-6
7
30
-68
-41
32
13
19
-63
-41
-4
34
-41
64
-5
0
-4
-58
-48
-108
47
14
26
9
-30
0
-16
127
-31
-8
-28
9
23
-37
-7
5
12
-32
-13
31
-44
48
-21
21
19
60
2
-16
-4
-34
-8
-117
26
20
-22
-4
53
-14
16
-11
-15
2
40
-35
3
121
-8
2
88
100
51
12
-17
-75
-22
-7
77
6
56
-15
-40
9
-21
12
27
-27
45
-93
-7
-8
-51
105
-35
-89
-127
-127
31
-43
2
-31
66
-6
-12
93
40
-31
-4
-43
33
23
28
-106
18
50
-9
-15
12
18
-15
-3
-3
-48
-16
29
1
23
-5
-41
12
-20
16
-39
4
48
-13
8
-12
82
7
-19
-8
-2
-15
47
-14
14
127
52
62
-4
62
-80
-4
-83
-80
86
15
-127
-26
-23
-56
-103
9
33
11
-18
7
24
3
23
63
-23
127
-24
104
-46
90
83
-72
-37
-8
89
21
-20
-30
-49
-4
-23
-50
12
23
73
-16
-127
35
0
62
45
-39
18
15
49
3
22
2
-43
3
47
-4
30
-2
-127
-65
50
-6
-9
-127
12
-14
8
2
-39
-10
1
-2
-40
88
97
21
-111
89
49
9
48
-18
32
-27
-70
-19
2
-16
-68
-42
2
-40
4
-29
-28
-2
-37
18
14
-15
-36
9
9
12
42
-32
-4
31
-80
2
42
4
2
44
-4
28
-3
-36
-15
38
-90
-40
6
89
-11
-24
-8
9
22
16
70
-93
-65
-2
-112
-82
29
1
24
-8
-41
20
-18
15
10
-20
0
-1
-5
-32
-17
19
46
11
46
-29
98
-26
24
-61
-102
-26
26
-5
-6
-34
2
-21
127
-1
-7
-18
1
26
-26
-15
20
-86
14
-61
-39
-5
-83
-84
19
-73
92
-70
9
-6
-24
-98
-16
51
57
3
39
45
46
17
38
-24
-108
16
-9
-12
-72
81
29
-34
107
12
-23
-32
-64
-24
32
-21
-14
-11
-4
-7
31
9
9
-14
36
-12
-15
31
2
-14
-113
18
-8
15
31
26
17
-2
-42
-4
-67
12
6
-127
50
49
8
94
55
127
68
-17
35
127
-60
30
127
-22
-64
43
-46
-43
51
-53
6
-13
1
-12
-48
7
-85
127
112
-53
-7
-10
54
-108
81
-14
-20
-4
3
35
22
26
47
-18
-119
7
32
-7
32
3
51
61
-32
36
17
39
-27
9
-18
32
8
-5
7
-17
57
-45
54
42
83
-57
127
-26
-110
-66
41
0
41
-17
6
-52
-2
-11
119
-51
-88
4
-13
77
-7
41
18
-41
-12
39
34
-13
-11
19
1
62
12
-27
-41
39
3
7
-122
15
-88
-31
-54
-11
-2
-51
-55
42
-17
9
1
-24
-1
42
3
82
17
-47
-10
3
10
17
-48
46
-19
4
-8
12
21
-55
-3
58
84
45
-53
15
127
-18
-70
48
9
8
-24
-14
-44
0
-25
-7
-5
-9
-3
-6
13
7
-3
-121
-33
-37
100
26
-97
-48
23
-19
-42
82
-4
-19
42
-49
37
-32
-33
8
2
12
-21
-124
-26
-62
-15
64
-27
-77
4
-64
-127
6
9
-10
-31
-9
31
-12
-36
-78
76
-84
69
37
-67
-72
82
-38
66
18
53
39
-90
77
25
-43
96
-68
42
-18
-8
-122
-8
-13
7
14
57
-6
-56
1
-60
0
18
-10
62
3
-42
4
2
-10
20
-27
-52
11
26
29
-57
7
-6
-28
-37
8
28
92
-23
-40
86
-63
43
127
-30
-48
122
-71
-101
127
-55
-47
-48
-46
3
23
-24
20
28
-25
-32
127
-6
-44
-9
87
57
-68
-81
-65
-100
-5
96
35
-30
-3
-54
5
-18
3
-34
3
1
31
30
84
121
-12
96
10
52
67
21
25
-21
2
-21
-21
-42
-13
28
-4
-51
121
-107
-41
-127
67
124
-79
-5
-15
29
-36
-38
-17
-8
-127
23
10
-22
-31
27
53
14
93
-60
-47
-38
-13
-98
-16
86
-33
8
-28
19
-44
-95
-17
60
-59
0
39
-127
36
-8
-37
29
96
-40
43
15
-63
59
-34
-79
-55
-3
51
-17
-13
0
-34
-18
111
-85
-18
40
63
13
-8
-32
-44
-64
127
-27
33
-71
-25
127
-82
19
-3
22
54
-10
-6
13
-10
-32
-114
10
-8
19
17
15
4
-23
-17
-51
-54
-58
40
-80
-76
44
-1
37
5
-13
27
-13
-31
-31
-63
3
15
2
0
8
12
13
-19
24
-1
-40
-6
23
15
-14
41
9
-10
-63
-50
-30
-39
9
-40
127
91
-2
-5
1
44
48
12
-14
3
35
4
6
5
-68
47
-33
-55
24
39
51
-32
78
23
22
27
-28
-8
-34
13
26
-19
-81
37
-8
14
-4
25
34
-46
-45
22
47
-7
9
12
8
8
38
-59
-63
-54
-34
-127
43
20
-32
32
127
-36
-14
3
101
11
47
45
2
-53
-16
-4
42
-10
42
13
-44
29
28
8
-47
-1
22
-28
-30
17
-23
-35
-66
52
-28
-22
-15
6
-5
36
-55
11
3
-56
-8
54
-127
-32
127
-3
1
31
10
-24
26
-16
-66
-7
5
46
22
-86
4
-17
11
-108
38
-41
-89
127
-85
-13
2
-55
82
-10
-3
0
-27
-70
-25
-41
103
127
-29
2
9
92
1
28
23
-10
28
19
1
-19
39
6
-63
19
-72
5
-3
15
-32
1
6
-7
-57
53
-8
-67
-21
4
37
-11
34
-1
13
-62
-65
-37
-6
26
21
24
60
22
-15
-21
12
14
-38
-13
-35
12
71
79
-5
47
46
-84
58
-3
5
-127
30
18
32
26
34
-60
11
-4
58
24
7
-9
-7
1
-5
-10
-50
-16
103
28
47
-40
-41
28
45
25
-28
-20
-70
-18
19
59
3
-8
-10
-4
-23
-35
-7
24
3
74
38
-43
7
-4
-32
-13
-87
5
17
-17
-23
-31
-84
-19
27
-4
13
55
24
13
3
-35
21
-85
113
16
23
20
68
-9
-45
62
70
-16
12
46
-9
10
14
31
-5
-6
58
2
57
13
31
47
1
3
69
-4
-12
-10
43
-41
-45
25
-62
33
34
13
1
5
5
35
3
-5
39
-8
45
7
-109
33
-11
11
59
42
-13
80
36
-127
22
-102
-127
-18
15
-27
-30
-33
-127
2
-37
50
-11
91
14
-19
4
26
-120
-17
-8
13
-25
-35
-30
24
0
5
-45
127
127
-5
27
50
-89
12
-15
22
-13
-15
48
4
28
21
-33
4
-18
10
-96
36
-39
-127
-26
-40
95
81
-85
31
-32
-25
36
-12
64
-8
74
-9
-28
-39
28
21
77
27
34
-2
62
26
-13
-43
-44
20
53
9
33
-8
-8
46
31
-37
-46
-32
1
-11
-62
20
33
-77
-4
-127
-34
-3
-23
-14
-18
7
-8
15
53
-36
28
-31
49
41
0
-9
-18
-14
32
-16
-32
-37
19
21
-29
118
39
19
28
-35
-89
-6
-12
-10
127
-5
-24
-14
-19
8
2
-20
-3
-8
-5
106
-122
-31
-15
-18
-28
12
-53
-63
-6
-77
-19
-14
35
25
3
80
22
15
23
-5
11
9
2
-7
14
-20
1
2
57
-15
-18
-28
22
-27
-9
-23
6
-19
-77
-4
-65
10
10
-23
-42
-54
22
35
-28
127
31
-21
22
-3
42
44
10
23
14
-9
4
13
2
47
21
14
-13
-26
-98
-7
39
8
-3
-3
48
24
-2
-60
-18
127
-43
-27
-14
8
31
-16
17
-21
-19
9
0
4
16
64
18
-26
8
23
-46
15
-127
45
28
27
127
15
-19
-62
-34
-26
-24
-6
-20
13
-127
-33
11
3
22
76
85
41
-3
127
16
13
-48
-34
-41
20
10
-29
-7
-31
51
37
-16
6
-14
-66
-71
-98
-28
-28
-100
-27
-64
46
-62
22
6
59
-54
18
104
-10
38
0
5
31
-114
6
10
0
5
-127
-127
25
-72
40
-15
4
-32
-5
-12
41
-49
10
-5
34
2
-67
26
-10
-50
46
-11
33
-16
-42
15
24
75
28
-6
-28
-31
-3
-22
-22
-3
-36
-2
17
-2
-17
-29
-14
-26
5
15
-18
-9
-38
-9
-105
18
14
7
28
-5
13
-14
-35
-20
-21
-43
-20
44
31
22
-25
74
-15
-27
19
-35
110
108
-24
108
-7
36
2
-2
-41
14
-57
-90
-24
13
22
-11
-7
-19
-32
-11
-68
-8
50
-91
-19
26
60
32
54
104
-48
27
-22
-24
56
45
-11
27
48
-3
-22
-34
19
30
-6
-17
34
8
-37
4
-33
-48
-24
-21
34
17
-50
42
30
50
-127
48
14
-95
-91
-67
100
29
92
78
3
-39
111
4
-76
11
-50
79
4
-42
-127
-31
-12
-7
14
-6
-74
-26
4
-104
-58
0
20
-10
13
-43
-38
24
27
-19
-7
-68
33
43
24
1
-1
12
39
21
42
12
-5
-26
29
-30
5
-62
3
-66
-22
84
28
-80
86
-69
-38
55
-70
126
-60
-127
88
-85
-34
-4
38
-10
22
25
-65
9
12
-44
-29
22
96
-8
102
69
-1
71
-11
-60
-22
10
-28
-14
7
1
31
127
-46
-55
-125
-79
36
11
-18
-54
82
-74
64
-1
127
42
3
12
-6
52
70
5
63
127
-28
-33
127
-20
85
-127
20
39
15
38
-6
-25
-16
37
-11
-18
42
-20
-3
-19
-74
-29
29
38
5
46
-55
-10
-23
77
-10
68
-33
-46
52
-15
10
78
2
-11
38
14
46
17
-16
-5
54
-32
24
-32
4
-17
-35
-37
9
31
-39
-45
70
33
59
15
-29
-38
-24
14
-30
26
-31
4
-33
79
-54
-14
24
25
71
-124
-112
-8
-8
35
-40
17
2
7
9
-75
-19
-20
-14
4
3
-9
35
-90
11
-9
-2
-69
-43
40
77
70
50
-19
-9
63
5
21
-43
-23
-11
-30
-35
-5
32
-115
24
68
45
-19
2
42
2
59
32
91
-46
48
32
13
66
-1
43
-127
94
-73
-16
-29
-4
41
-96
69
-11
-33
-47
-42
-5
34
93
12
83
23
9
37
-28
-40
-32
-81
-51
33
43
-35
-20
26
48
-18
28
59
16
-65
19
-13
6
-95
-36
7
-10
58
-15
118
-8
-64
-12
33
-22
31
-90
-23
5
-44
55
-74
-110
-21
-127
16
-127
105
95
6
79
-29
-71
127
-24
-17
-23
2
19
-12
-6
-11
-69
-58
102
69
87
-1
-38
-71
-21
-52
68
25
-22
33
16
5
21
-4
-53
38
26
-56
-56
44
-47
-71
8
33
127
-10
-77
84
-51
-49
8
31
8
27
1
-30
-56
-58
33
0
10
42
81
48
39
31
9
112
9
8
15
76
49
-8
-25
43
-60
28
-54
-67
2
-9
2
29
7
36
-11
1
-27
44
54
-23
27
127
-50
5
-23
77
8
-127
32
-4
37
-58
-29
-16
-1
-6
0
-66
18
71
-1
-70
34
-106
-20
29
4
29
5
102
7
9
27
-64
11
-24
47
-37
127
-16
19
41
91
-11
-1
71
-2
-29
27
0
15
-42
17
-2
14
21
-26
-27
18
6
-31
-8
9
10
-14
-28
10
-32
-27
7
65
-8
-72
-44
2
-2
5
20
43
6
-7
-33
28
-30
0
-25
-2
-61
16
21
-27
-36
-4
-11
-84
-32
-62
5
0
-27
9
9
20
16
-69
32
17
-59
17
-21
-47
36
2
32
30
13
6
28
-127
40
-3
39
2
-21
-90
34
-50
13
3
24
-26
-57
10
-33
-112
-106
31
-25
-41
11
-3
21
-3
7
-13
34
1
25
18
-7
-2
3
4
-33
-5
11
-21
1
-51
-64
-46
51
3
-36
-18
1
51
-81
28
15
-31
36
-5
-14
54
11
12
-11
22
15
127
127
61
-21
-14
-127
-127
-39
-14
23
19
-11
3
12
32
24
69
36
-23
83
16
-25
22
-10
26
7
-5
-39
41
-51
31
-77
-26
-6
-1
-20
-56
4
15
-4
-38
3
67
23
25
10
20
39
70
-1
-52
-53
26
21
-14
-9
-26
22
-68
-49
-127
46
-27
-10
2
16
12
-22
-7
44
0
13
-42
9
-30
-61
-32
-10
-2
10
9
-6
0
8
-7
-48
-15
-3
18
14
-10
45
-12
44
6
-27
8
-2
-44
65
-11
-13
21
0
-24
-40
-80
-25
-22
-90
-48
31
17
-19
-78
51
10
20
3
16
-20
47
42
-53
-27
59
6
-21
-14
16
-29
16
-10
9
25
-12
-54
16
47
-39
-71
2
-12
38
17
-5
-15
-6
1
25
4
-14
-16
-48
24
-22
0
-8
-16
-32
31
20
-3
-51
-44
-5
7
-25
0
-13
-50
-24
-9
-43
5
29
-12
-5
-23
-70
19
15
-12
-31
-16
21
21
40
9
-2
-17
55
2
-1
-22
-44
-27
38
-4
-56
-19
-51
18
63
7
6
-58
-7
36
-15
48
3
-57
-15
31
-6
2
-16
-11
25
7
23
-11
26
-11
40
48
-2
-14
13
21
75
-46
10
105
-59
-22
5
-19
-20
1
7
19
-18
12
10
31
-7
-2
24
-27
-25
6
-2
-11
8
2
3
-6
-63
-29
-10
3
-4
26
-88
-57
41
-6
26
31
82
-27
12
17
-5
-15
-21
26
-23
23
-25
18
10
3
-15
21
-26
24
16
-30
-18
1
-8
-39
-12
20
26
25
-50
9
43
19
-53
-60
36
44
-53
-1
-54
-47
-28
-8
4
-15
-12
-20
-8
-1
12
8
4
-15
30
4
-13
22
13
31
-4
-18
-11
-14
21
-20
-7
-17
12
31
-93
-4
-16
10
-36
21
-5
9
23
-2
-19
5
-4
-26
8
1
32
2
-17
-4
-8
8
41
49
-40
-39
-20
-23
-44
10
20
-44
31
-30
-10
-5
4
18
17
-9
95
-8
-29
-6
6
0
57
8
76
-3
-51
-26
-54
-5
6
13
-9
-85
-30
-11
48
-12
-5
-53
-53
-44
-29
5
-37
-26
-4
-58
50
-24
6
-23
-24
-29
-8
14
-4
-4
-35
-21
-52
76
32
-62
21
15
31
22
-30
-20
-24
-28
-32
-23
16
-14
-35
32
-21
43
57
-30
-7
-9
-11
1
-18
-7
-17
-19
12
-32
-32
9
8
-71
24
-14
-50
11
-17
-4
-5
-13
-54
12
28
-15
-29
-42
4
-6
45
-36
3
5
-1
-12
20
-39
-29
-25
8
-1
-18
22
0
-108
4
1
-29
5
41
-21
-47
-7
-43
-2
19
-17
-71
23
-6
25
6
28
-4
19
-24
-16
13
67
47
21
8
27
7
2
6
-107
-62
-27
-9
4
50
-33
1
29
82
-4
9
27
-1
-22
8
-26
-10
-26
-3
4
31
8
0
-18
-48
-4
40
-17
-15
-4
11
-42
-67
2
-26
-8
-35
20
-11
1
-35
-36
3
15
8
-33
56
-51
41
-4
-27
-82
-28
6
-5
28
-6
-18
-15
-22
18
52
-7
-36
37
-16
-16
61
-12
66
-7
15
-80
36
34
-23
-20
10
13
-32
55
6
-19
-16
13
2
-3
69
45
-15
48
-37
-48
-5
-8
38
28
-4
-13
6
-32
-7
3
64
33
-10
24
-24
7
-15
-6
-62
-51
-22
4
-10
26
-15
2
-12
-62
-73
9
-2
0
-53
-1
42
-31
3
24
55
-57
-18
-3
-12
41
2
-23
-17
-23
25
29
-20
-19
-27
27
0
1
-23
1
-5
4
-2
-32
12
-40
15
10
-28
75
3
-19
25
-20
-7
-3
61
-46
-25
3
-13
22
-12
10
-37
-91
-3
13
33
-16
-4
-16
51
-19
1
56
-30
-22
-1
16
13
-25
11
3
-17
-5
14
10
-84
15
-5
2
21
6
2
-23
-73
-58
-25
-4
-5
4
32
19
-30
15
-5
15
29
-6
-24
34
-121
-59
3
-12
59
37
22
-1
-78
74
-23
57
-24
16
-5
18
43
-6
-34
-2
17
-12
-103
-16
64
-43
2
66
88
-27
-30
8
-27
41
-8
-20
3
-6
56
-18
25
53
5
-56
67
-18
12
-5
-38
-15
-3
-38
22
17
-10
3
13
43
-20
-55
11
-22
0
-19
11
-25
-2
-36
-2
-62
-1
-22
-42
11
1
-27
23
-30
-14
6
-6
32
11
24
12
-28
32
-11
-5
-4
8
-13
-17
-13
84
-16
24
52
8
-55
15
-8
-30
0
-22
-127
-96
-10
10
14
-10
-41
-48
48
19
-31
0
-22
44
18
-3
-33
9
23
25
-15
-12
20
25
107
23
16
-15
7
6
7
20
-111
-57
-34
-23
-13
13
-14
81
-57
15
-32
-17
21
2
11
45
113
4
39
5
4
-25
10
90
71
-81
-19
32
-8
-29
-10
-15
43
8
-23
12
-5
-16
-8
3
14
9
-21
-25
29
53
-19
6
52
-7
-13
15
22
-62
0
24
50
19
-9
-18
-14
-4
-21
36
-1
-8
-5
70
-2
-11
-6
1
-76
-1
44
10
-21
-93
-9
61
-7
-11
-31
-12
32
-8
1
-79
36
-45
13
1
-51
-20
-3
-30
94
-29
-26
-63
127
-41
11
-17
-37
-1
-31
37
-1
-27
5
26
-34
22
22
21
-49
-1
10
-3
13
-6
23
13
20
11
4
-43
39
4
-45
5
-8
-24
-2
-52
-111
-28
27
-8
-22
1
-6
-34
8
23
34
28
-110
16
25
-18
23
10
-27
20
-26
-15
5
-71
-27
11
-12
7
28
-19
-25
-50
1
12
-60
11
57
26
15
102
-101
100
-10
-3
33
-5
25
-34
-18
2
3
-4
15
-1
10
-54
-69
-36
34
-3
-3
-5
-11
-18
77
15
-8
2
15
-23
-1
58
-18
-41
21
24
7
12
-9
38
21
-12
11
11
23
26
-16
-7
7
-22
3
7
-26
-15
38
8
47
10
-65
12
-23
-9
-10
-32
25
4
-31
-4
13
29
-25
-12
-67
-10
19
-36
7
12
-21
20
-40
-24
-9
38
-9
4
1
-26
15
34
8
-10
-10
5
-2
14
12
-3
-25
96
-13
0
-6
-127
-6
30
-14
28
-30
-2
-15
13
8
26
34
-54
12
15
-3
-61
50
5
-6
31
20
-4
14
-16
-1
-7
19
-14
41
27
-7
-28
-46
-21
-14
-38
9
-14
78
-21
-97
1
32
-64
-96
-17
-17
-1
100
9
-50
-53
-23
-42
-4
18
-8
-59
13
-20
-74
14
-4
-6
3
-29
35
-65
14
-21
-3
61
19
-21
-19
-54
0
39
63
-2
127
-8
-50
27
50
-22
-19
32
0
-6
17
11
-1
-33
-4
-21
-25
-32
-25
71
-40
-13
-43
27
-9
15
12
-37
33
15
-127
-20
-116
-2
72
80
12
0
76
-14
75
-22
4
-44
5
2
126
-2
79
7
21
66
-30
12
9
36
-8
-10
25
-38
54
32
18
61
-8
-20
-2
53
4
-9
3
-9
-12
-45
-1
-1
-40
-20
14
-46
-33
29
-33
86
-8
1
-8
-31
-24
-17
21
-38
-29
-33
16
24
9
-9
-14
-45
-96
-15
-27
-18
-67
1
16
31
19
16
-14
-35
-33
8
13
39
-5
8
24
-19
68
0
-59
-78
45
-31
-1
10
-12
18
-51
64
-6
-3
-16
43
-96
4
-64
33
22
-30
17
44
-45
-16
4
41
-16
25
62
-24
10
-9
14
-68
9
3
-26
-14
36
13
-6
42
15
52
-8
-10
-100
8
34
-21
22
-28
-24
1
30
18
-21
45
16
-39
-9
-9
23
-52
15
37
-5
-26
3
-3
34
-50
-39
-3
36
3
3
-2
6
16
33
-50
-13
-23
28
-35
-81
-30
35
68
-127
-5
-11
39
22
27
-52
-29
-12
-24
4
23
0
2
-31
70
29
-25
-19
-8
14
8
32
23
5
37
-23
-47
7
15
2
-27
-6
11
-15
4
31
10
-36
-41
-3
-54
121
8
-8
21
-2
40
-2
17
-6
9
-17
-46
13
-67
-10
-74
42
26
44
60
-24
-108
20
-1
8
-85
-86
-38
32
23
7
-16
-11
-61
-9
-13
16
27
-18
-23
-16
-10
-27
-18
18
18
21
20
-2
-42
27
80
19
-16
19
2
21
-1
-50
-1
-40
35
-27
30
91
-42
-28
68
-22
-3
-1
36
101
55
33
-3
-18
-35
6
-14
-17
38
-32
5
7
-10
30
-26
-19
-14
9
15
-14
-26
11
8
11
77
47
-35
-22
-22
-22
-5
-3
36
20
10
0
-38
55
-38
-1
-28
-18
11
25
46
-27
27
-34
3
-47
14
-13
21
8
24
8
-21
47
18
-21
45
18
59
-11
5
4
24
92
94
0
6
-8
21
-23
21
3
-79
9
-22
-16
8
-55
18
27
-31
-30
-59
6
-22
16
50
26
-52
-40
16
23
-17
-5
9
7
-22
10
54
120
-17
44
-31
-4
-16
-50
26
64
-34
17
-17
16
-70
20
27
41
-2
23
12
-19
-23
-10
30
-4
-4
-35
-8
42
-38
-19
13
4
-19
37
27
19
-63
31
-16
-22
-28
1
-5
18
-40
21
24
-12
8
-4
-25
33
15
14
-5
-2
-38
-47
-9
-12
39
2
18
6
31
25
3
18
37
11
-8
25
32
-23
16
-127
-89
-28
-21
16
78
-30
-2
14
21
-1
17
55
13
28
-7
21
-64
28
17
124
-37
-2
-13
9
-26
-38
-1
-25
-16
-18
-7
36
39
-7
22
-20
44
11
-59
31
-127
-43
19
17
-10
-35
-6
64
-40
-12
-82
-27
71
-24
-23
18
69
25
-17
-51
5
15
21
18
-20
36
11
58
49
43
-1
21
-42
-25
16
6
-5
-12
-15
52
-48
43
34
91
14
95
-13
-21
-28
3
15
6
1
-24
-13
30
-52
13
19
24
-13
29
-22
-43
-76
-35
-2
-7
21
-60
-10
17
27
-1
24
-4
20
-39
-27
76
-18
-91
5
16
40
-65
-7
-5
-23
-70
-66
-7
-4
-74
37
23
-11
-23
-41
-9
31
16
-127
-16
39
-3
-59
-1
5
10
53
2
-24
-1
23
5
-20
-116
5
41
-64
-30
-47
18
-12
-38
17
3
-9
51
19
9
-30
-39
-10
30
-74
44
-24
-2
5
27
11
-37
44
23
19
-22
27
8
12
22
-95
-3
-3
-4
1
63
13
1
20
31
-65
-2
7
-50
19
62
-24
7
-5
1
1
21
-20
-12
78
21
18
2
-8
-31
-7
-25
19
48
-2
0
-22
-99
-3
0
-19
10
-3
17
-83
-74
1
-26
104
67
19
107
63
34
19
-37
-19
-8
-34
34
37
18
-22
-21
8
28
29
-30
-8
-80
-57
-10
-10
8
46
103
-8
15
-46
-14
0
-45
84
-9
-25
40
-65
-9
-24
-22
-3
70
30
13
-63
-11
-8
-34
15
12
2
38
13
12
14
-21
20
6
4
-21
-12
7
37
25
-29
9
17
7
-13
38
-34
39
12
-31
-12
0
-36
-20
-64
-9
-3
53
-19
-19
-10
16
13
2
-30
53
-23
-22
47
26
-123
-40
17
-6
35
-63
7
0
-14
-51
-1
-8
-25
-27
-4
-3
-32
-21
42
27
-19
10
-13
17
-106
-30
3
-6
-33
-35
-13
-21
21
12
21
43
-62
17
-8
-1
7
28
50
32
14
0
14
-25
-24
33
35
121
3
3
-20
-4
72
-58
12
3
89
-24
-9
10
-38
35
7
8
13
-34
16
34
-55
72
22
60
-32
-31
7
-41
50
18
27
28
7
82
-22
-18
-105
44
-14
-7
9
24
-9
-21
47
19
-3
27
-34
17
-8
-4
-58
6
-127
18
-79
37
-3
-105
-3
59
-45
5
19
-6
13
-68
-16
-53
-9
-2
25
11
37
16
-23
32
9
-30
5
-121
-4
-47
-91
5
16
79
-43
33
-10
8
56
-10
17
-19
-3
-63
-21
11
-69
-13
78
-6
36
4
-9
11
118
9
-5
-23
2
55
23
38
-37
15
40
11
4
-52
-9
10
15
22
-35
-14
-63
71
41
39
-74
5
3
-96
-4
-77
-44
12
104
-104
-7
-6
31
-41
-10
6
50
-5
13
-20
-9
-93
-13
26
-70
13
-27
-23
-14
-48
12
5
57
29
5
-14
-6
6
-13
-3
-7
5
-64
12
25
33
-42
27
43
-9
58
-12
25
1
-55
59
-17
-34
7
22
2
28
-7
0
-87
-11
-14
-15
10
30
18
54
-28
-17
14
-20
24
51
6
-10
65
-6
8
-10
41
26
-22
-27
89
-21
1
-11
-11
0
-34
22
-2
-3
46
5
20
10
127
-22
-22
-2
29
5
-14
1
-82
12
-38
-28
127
12
-127
41
-10
16
35
61
6
-4
-16
-20
31
-35
51
3
20
-19
-13
-14
-46
11
27
2
-3
-16
18
25
20
-16
95
-8
-37
-127
3
-36
69
-21
-23
-24
-14
-8
-42
34
16
19
16
-29
-41
31
-52
-13
-2
9
10
-69
38
-41
-33
-8
-46
-59
13
30
24
-1
31
10
-33
127
-39
-36
-30
20
7
8
-33
-30
-48
24
19
-12
7
5
12
24
22
-13
-20
-9
3
-50
-10
13
-82
-27
35
-34
-19
79
-37
-14
-62
-14
-9
-25
90
-55
-34
-10
98
-35
11
-26
-16
85
6
0
29
-32
-39
3
-45
109
41
-8
37
-15
13
-20
-29
-26
-75
18
48
4
-15
-12
-41
4
-35
17
-5
3
-10
-9
-3
8
-54
-15
-68
20
59
-21
-21
5
33
23
-88
61
-18
-6
4
-15
-74
-9
-84
-11
-17
25
-27
32
38
37
127
39
-20
11
20
27
-11
12
-56
-31
46
-14
-6
5
-21
19
-34
-83
-10
18
-49
20
-8
-20
-21
1
-40
4
33
38
90
87
-106
-42
28
30
34
31
-71
-9
-37
-10
44
8
-20
-6
-2
8
-74
-25
10
-27
37
110
9
-17
-46
9
109
-26
-2
19
44
-80
-28
4
-25
-8
10
72
23
-3
-2
25
32
-19
33
20
71
85
-49
-2
16
-18
-6
7
9
16
-7
37
-24
18
11
-30
15
75
52
-65
53
6
-2
42
-9
-74
-34
-6
34
-36
-32
32
8
-19
-51
-54
-22
2
12
10
-11
-7
-103
-12
20
-5
-1
-31
8
-5
-9
-5
15
-15
10
7
13
-17
-50
-16
-27
5
35
13
-83
-43
-75
53
-17
1
-17
10
-13
-8
37
-31
33
9
-13
21
-61
55
14
-51
-14
7
6
-32
-23
0
-90
-25
24
0
-26
7
29
0
-110
40
-7
18
-47
-10
-7
6
4
-14
23
2
2
36
28
11
14
-18
-26
-4
21
15
-9
-3
25
-34
14
-5
-5
-7
0
17
36
-52
37
-16
37
-64
23
8
-14
-2
38
1
-25
49
-30
25
43
-37
-1
-5
7
65
19
18
-7
-20
21
-12
12
-4
80
-22
77
11
-60
-24
-47
20
-49
18
75
32
-19
-13
-1
29
-6
-22
-47
13
-47
-8
-13
-7
48
-39
65
5
-6
-2
-19
39
32
5
49
-34
27
-26
-9
62
6
6
-28
-8
-17
-16
2
15
8
-10
85
15
48
7
43
7
39
16
-1
42
-1
6
8
-21
38
5
-46
32
-19
-10
25
60
1
73
-31
2
-3
21
22
26
5
81
-2
12
12
4
51
18
-11
4
7
18
-14
8
26
100
56
37
29
-23
-3
-21
44
104
13
-12
-38
10
-9
29
44
-76
8
14
17
18
63
-6
-2
30
7
-39
-20
23
-37
22
-1
-6
-11
24
63
9
-46
-34
-11
-14
-21
88
40
8
50
-4
-41
-16
19
29
27
-62
-55
-1
29
32
49
7
-74
-50
33
16
-38
-50
1
-10
40
-25
-82
-1
-24
-52
-13
-32
14
-28
9
-13
0
6
-6
-18
-45
-20
25
-32
29
98
12
-16
-1
30
6
12
11
55
27
10
8
-9
18
-6
20
14
-14
13
3
-19
-29
7
27
25
-8
14
-84
-83
62
34
-4
45
-19
2
-46
62
-19
5
11
4
39
-37
-41
21
23
-14
-24
82
-36
15
-64
-6
-18
4
-39
17
30
18
-66
-39
112
3
27
-31
-19
-3
-77
114
35
-26
32
87
-30
-3
-24
-10
53
5
16
17
23
-53
-78
41
-2
-7
-90
-59
-34
-5
69
-32
17
-15
-5
20
-10
12
23
-8
103
15
-50
42
24
35
81
-82
19
-5
-17
4
-23
-2
16
25
27
-1
26
-3
-8
5
-18
-13
-20
3
8
4
22
9
11
124
48
-18
9
3
-13
-24
-1
9
-47
3
1
-5
0
-20
-83
31
31
-21
-8
-34
-19
17
3
11
-2
7
22
24
57
4
-97
25
-2
-2
13
-34
26
22
3
6
-16
1
-32
0
7
-6
32
7
-26
21
-13
-59
2
28
80
-13
-38
14
73
16
-34
-6
-9
16
-43
17
8
7
-12
-62
7
-67
-23
-26
-56
15
-20
-11
-106
75
-37
11
49
5
-13
-15
-76
-21
20
3
14
3
71
55
42
127
10
-5
-15
76
17
-16
-18
-12
-10
6
-53
19
5
12
-91
57
-29
7
22
23
40
-18
-39
-25
31
13
23
60
-32
51
-11
-14
-41
3
-24
-6
38
-40
-108
-13
-20
8
-34
41
3
2
-84
47
-78
-4
53
19
17
-16
-18
-10
-4
-20
-15
26
34
-113
34
-38
-12
-8
-38
-6
-97
1
35
30
29
-32
-13
36
32
-11
47
-31
15
20
-84
16
54
-53
-45
-20
10
-3
-11
46
32
14
-83
16
10
-5
18
6
-2
-21
11
28
47
-12
27
-3
35
15
34
-22
-55
-1
-24
32
-41
-11
-77
48
-42
0
39
16
55
-7
-35
-10
-38
-7
43
-96
65
-2
-65
7
-26
6
-64
19
5
-12
-115
-44
-22
7
-30
-1
-32
-47
-22
26
-20
-19
-17
7
-8
-8
-22
-2
9
-1
-19
-4
-98
-1
4
-28
17
8
-57
40
14
35
-14
49
-30
8
21
15
-22
-30
-41
0
9
26
4
10
-54
25
13
-2
2
-31
11
-66
-32
6
32
22
-3
-11
-24
11
36
21
-101
20
-25
2
-22
-34
-17
-19
-29
-33
40
2
-27
25
21
18
-100
8
-83
1
0
13
30
-7
24
-14
24
2
-36
45
38
33
-66
-30
15
-15
21
57
20
1
-33
-2
52
10
37
-59
36
-1
-30
-53
12
18
-28
18
30
27
-38
-20
24
-6
-5
8
22
26
-7
-13
-9
27
-5
-21
-26
27
-24
-18
-94
-84
-59
-127
42
-2
80
3
23
-11
17
49
14
-32
-15
-18
31
-14
5
79
21
-39
-3
9
-47
0
57
34
33
-10
42
-39
-48
-74
-26
7
-40
10
-12
-29
-57
-103
-35
-10
24
-25
81
9
37
44
37
33
-99
14
26
29
45
-28
-22
3
-4
-14
26
-20
11
9
0
-5
-22
25
40
9
2
58
16
-11
-97
-7
7
33
-4
92
-4
-5
-127
7
15
11
1
11
16
38
-7
9
-17
24
-30
-12
103
-47
14
-27
38
5
-16
-19
31
57
2
24
8
-12
-27
77
-16
45
9
-11
26
-31
80
127
-20
-74
7
43
-93
3
30
56
-34
9
-38
61
3
24
-33
63
33
-19
-68
12
10
39
4
56
-16
-3
-70
28
-25
64
-23
-25
-22
-4
7
63
14
-20
-116
15
-60
-127
3
45
42
-20
-47
-105
-20
0
58
33
-109
-6
-10
-9
31
-23
-29
-50
-82
11
-86
26
40
25
29
-35
1
-48
38
107
-29
19
-103
-8
25
67
42
-55
-32
-50
16
0
-16
18
51
-6
-40
71
19
127
-19
-9
-56
26
32
-29
12
-38
-15
3
15
-2
28
6
-13
4
52
-24
-32
36
20
5
1
27
-27
-25
-15
-22
-44
62
-47
75
40
46
4
-43
-70
48
-31
-1
10
-16
-70
-13
-1
-19
-27
10
4
-14
-13
10
12
-1
45
16
-107
0
-64
39
-7
-39
-32
-17
-8
-19
-111
55
-23
-7
35
-51
40
62
98
4
-15
-20
-12
-46
43
-35
43
5
15
-1
-90
-17
50
-40
-57
-36
16
-41
-13
38
8
27
45
-26
-24
-16
-18
26
89
28
62
67
8
55
-15
-33
9
11
-48
-29
12
37
-8
-7
58
-8
28
-44
25
-13
-4
69
-9
28
42
-58
-70
-5
28
84
-123
25
8
50
-1
-4
-47
54
-24
41
27
-78
-52
16
41
76
80
33
21
94
-20
-32
-80
24
41
-29
-34
-29
-58
92
-21
-14
105
-1
22
-30
-36
17
7
60
-119
6
-67
97
-25
-71
70
59
78
-13
63
-18
58
-1
11
100
1
-6
-41
-34
10
8
-7
2
-18
25
-11
2
12
24
-12
26
8
-5
-74
-71
-80
-75
-1
-48
-31
-28
14
22
-23
32
61
-18
12
-20
11
74
-42
23
-27
37
-86
-10
6
60
-29
-37
51
26
29
-7
-75
1
-47
-30
-6
14
7
-11
25
-31
-5
-54
-3
74
22
-127
84
54
-15
-43
-8
-32
14
17
-4
-20
-8
-16
-2
-11
8
6
32
30
57
5
6
-74
34
35
6
38
-27
25
36
5
7
30
29
-42
-2
-18
11
-5
-13
-23
8
39
-16
-22
14
-11
-19
-30
33
15
13
22
-70
28
45
-7
-8
21
0
42
73
13
-35
-31
-69
56
-27
-44
-19
-12
46
16
27
-52
5
-15
4
-24
31
-7
6
12
-42
5
-118
-4
-5
8
-8
-3
-32
-25
-54
26
-6
25
-32
-91
-51
-67
1
37
-44
19
-80
31
-53
6
10
-10
4
-7
23
59
2
86
-22
-27
37
-63
21
-75
36
-14
-10
51
67
31
75
84
-51
-10
-10
7
58
-13
5
43
48
-17
-53
-17
25
21
28
11
-27
52
12
-19
-21
0
4
-26
47
2
-4
56
7
27
-45
-47
34
-55
5
-16
-30
-3
24
-16
32
-38
-2
3
-29
35
-22
39
-28
55
-18
66
-7
-48
-15
-24
11
-3
79
1
49
3
24
85
12
35
5
27
50
-6
22
-20
-11
-12
9
29
-13
23
5
-21
1
27
73
70
-23
7
13
-50
-21
-93
-9
23
-14
-11
-26
-39
16
59
-51
5
6
-6
-17
26
33
-13
-4
39
32
16
7
55
-49
24
18
24
27
-2
-5
13
23
15
-89
-28
38
4
-68
85
-45
-69
-2
16
-8
-89
-34
10
49
-16
34
-63
26
14
53
49
-17
14
-18
-20
31
64
91
76
-61
45
29
113
15
13
16
101
2
-64
23
-11
49
-15
20
-101
-27
-20
83
-52
17
5
2
1
-4
15
-27
14
18
-15
-54
-17
6
16
48
-6
-10
23
13
44
29
11
125
-4
0
-30
7
27
-30
3
-114
7
14
10
-61
92
23
-19
60
17
127
18
127
-5
5
-18
-28
-24
8
0
-4
51
-73
42
-74
44
-22
4
-39
86
-46
-19
-4
47
-4
-19
-85
-1
-57
-57
-34
-13
89
-47
54
60
-20
95
-33
21
-9
23
63
35
54
36
67
26
17
22
-34
4
61
-16
26
0
68
46
10
24
4
-26
-20
-22
17
36
-21
33
-7
100
-5
-26
12
-46
45
71
-3
-3
75
51
27
-7
22
59
-32
-7
-27
13
1
18
31
-32
-31
-20
35
56
-110
-7
22
-86
-18
-63
-14
-50
-56
16
-12
59
-48
15
-18
-61
38
18
100
-84
94
68
13
-31
-28
-68
11
100
-26
21
3
-4
-6
-17
13
-2
-3
-42
0
21
28
-11
63
-58
23
20
26
-80
-1
16
52
37
-18
61
27
-12
-35
5
50
-54
35
37
31
-61
-17
27
-33
111
-57
-35
-19
17
-19
-49
65
-54
37
-30
-2
87
-34
12
30
37
67
-9
47
-31
93
-29
-17
47
-13
-6
-19
28
19
70
-56
-49
6
35
-92
29
59
1
32
43
-30
40
13
28
24
5
0
54
-42
70
13
52
16
-30
78
-47
5
-5
-5
8
-16
16
11
55
-42
66
-83
26
19
8
103
30
-41
100
23
40
-2
7
9
24
11
18
26
37
-3
12
-93
-18
24
-5
32
-41
-11
-31
47
-3
60
-25
3
28
22
-26
41
78
-16
52
-6
39
97
20
4
18
-4
-72
-7
-32
-12
-43
37
49
12
16
-17
15
6
-49
45
-17
9
30
27
7
7
-43
-20
-63
112
-66
-14
98
29
24
-14
-21
44
-29
7
-2
-49
31
33
16
24
-33
43
-6
31
-26
-19
-111
-52
6
26
-62
-91
-27
41
-55
-7
-53
5
-43
17
-18
-84
111
2
1
-1
4
26
-8
5
32
1
11
-16
31
3
51
25
14
-11
13
-14
-5
6
-6
78
-29
36
-33
-11
57
32
33
41
-2
-127
-20
14
47
52
33
-30
-23
-40
-26
-29
-44
18
-9
-11
59
29
-19
31
33
63
4
4
-60
-109
20
-33
13
-40
3
-108
42
-1
14
75
-26
-20
-24
-29
-76
-53
43
-21
36
-54
20
33
-44
13
-20
-17
73
-28
33
10
-27
-76
-24
-4
54
-23
22
40
61
20
17
9
-11
6
-22
-9
43
70
88
-35
-25
-11
-59
70
9
-46
-29
-84
14
-8
-32
112
-9
26
66
22
6
-1
-28
26
-30
42
-4
127
-26
9
-28
-20
36
-10
-14
-103
-29
25
72
4
-24
54
-127
105
60
-65
84
12
59
66
-12
-72
-9
7
60
-6
57
-1
4
10
-19
-1
39
42
10
-81
-57
-12
-22
-32
10
-5
45
35
27
-12
6
-1
-27
3
-41
-70
35
-72
-13
-26
45
1
91
-25
-51
53
35
-27
127
-14
72
92
7
8
103
-35
-26
-17
-58
127
-35
-10
-61
127
29
-33
13
-10
-38
-18
35
-18
61
-44
11
16
-18
107
-42
35
36
-9
-127
31
2
-41
29
54
-16
-37
77
83
-6
-120
10
20
27
50
-12
107
11
-43
-30
-30
-5
-40
-52
-58
-74
101
53
-3
11
-29
96
-107
7
72
-31
-24
95
-57
-3
12
-57
-8
-26
35
31
1
-104
-43
-95
-94
8
7
-18
-18
17
6
-50
-21
29
-5
37
-5
14
-56
39
-1
-24
8
-54
75
43
-12
-2
-62
-127
49
42
-22
-20
54
-65
-90
29
15
64
-127
16
-46
28
-31
-37
-26
49
-85
-21
34
21
47
36
-24
-32
10
-85
-101
8
33
44
-10
-60
7
-42
2
-41
68
66
6
69
59
-48
-30
10
31
5
15
-33
65
-76
-31
40
-27
38
-42
-36
-27
-26
26
-38
111
-14
-1
-15
30
-51
4
-14
123
13
-36
-1
-41
-49
14
-3
8
55
31
-30
-59
-100
-17
-10
-27
-14
-63
-42
17
-24
-53
44
31
10
38
-25
11
-15
0
-8
-7
-8
-67
-49
-33
65
74
16
33
17
87
-15
37
-6
5
-19
64
-21
15
5
-83
-27
-56
10
-4
21
45
-37
-66
-66
-18
-6
61
40
-21
18
-112
-13
62
0
-34
14
0
1
-16
126
34
75
-65
-31
-61
38
70
-50
-34
109
-22
127
21
-19
-52
105
56
19
27
6
-13
19
-104
-21
-26
-93
-60
24
127
-37
17
44
22
-14
-38
67
83
-26
-112
-82
-33
127
0
0
63
-19
29
-51
-16
-6
83
3
11
-30
-127
-107
-60
8
-77
-21
-15
47
87
-48
-93
-13
-78
-46
16
-127
-51
-5
24
-7
-62
21
-21
9
81
-98
-127
-49
14
17
-34
-32
-65
63
13
8
-68
4
-54
18
21
35
-7
10
-29
-47
83
-13
96
-60
-55
2
63
19
-11
-60
-51
28
-45
-5
-8
19
-31
-2
-79
43
27
-12
-127
22
-11
11
-77
127
-9
41
-94
-4
-5
-21
-49
45
67
-9
0
-65
14
52
16
-40
-84
11
-47
5
14
25
-11
-21
-29
17
-8
-4
4
-8
-5
6
-3
-22
30
9
68
-4
-12
40
-57
6
-2
-48
1
16
-37
25
-10
46
-35
-1
0
6
14
-42
-44
36
1
-39
3
-13
-30
44
-28
27
16
-4
15
21
0
-14
-11
-35
-83
68
36
1
4
35
-28
3
52
-7
-15
9
2
-47
-70
5
24
34
-67
-16
127
5
10
-107
19
-16
-4
-127
8
-6
16
-11
-17
-25
4
-14
24
-15
-10
31
12
26
-15
-32
-3
-29
0
5
-15
10
11
16
-13
127
35
-94
127
-21
61
23
-30
-8
-5
127
-35
-127
-19
2
-3
-12
-73
6
-7
15
-4
22
8
-6
-28
46
124
-53
16
-35
-14
40
-49
118
-63
34
-67
1
6
66
95
-5
-87
-124
48
-1
98
-25
-68
-87
57
10
-3
-79
-3
-31
5
-2
-35
-11
-19
10
4
9
45
-20
-40
56
127
-16
-23
13
40
55
61
24
15
6
-24
-2
1
-7
113
3
8
21
12
44
127
-41
-47
1
0
-22
12
-35
18
-35
-2
-30
5
-18
-10
-63
-51
-2
-22
32
-52
12
1
-3
-62
-16
15
-20
-11
-5
-8
-19
21
28
-1
-8
15
-18
-4
-1
-51
-26
-68
22
6
-14
3
26
95
-22
-95
5
-53
-28
21
3
20
-50
-16
-2
-10
12
-9
64
13
-33
7
27
11
-58
-68
-11
-7
-6
-43
-1
13
18
-3
30
-45
79
71
17
93
70
-26
22
47
21
9
9
-68
67
7
-16
127
-47
45
70
-17
-92
1
8
16
5
38
18
19
79
-127
-64
23
-30
-7
-6
-49
69
-20
46
22
8
-17
0
-25
-93
-12
65
-18
-2
61
-22
60
127
-3
15
45
-1
-52
-24
-127
14
-13
41
20
20
-54
-1
-13
10
2
-17
41
-2
74
-20
84
4
3
52
33
16
-29
6
49
-14
101
66
-41
127
-127
4
-19
65
-18
-56
-21
-64
-89
-31
84
-124
-14
15
4
-60
37
15
-50
-84
23
-8
-83
93
77
-9
-62
-48
-48
-39
-3
-7
-74
-36
5
86
-33
-36
-41
-44
-21
11
-53
7
47
-1
9
67
38
127
37
50
-29
-11
-34
-16
106
-23
31
-41
111
-4
-14
16
0
-9
39
-9
56
2
20
-19
-44
-41
0
89
85
-127
25
68
-53
14
43
4
-25
-7
8
11
0
3
-60
-40
2
-2
-27
-22
-26
4
-18
-43
7
13
25
35
-43
16
27
-8
19
-70
-53
-14
34
6
2
-83
-24
-2
127
41
-12
-65
27
33
-66
-29
-12
-33
125
-13
73
-15
40
-21
-22
48
28
5
-68
29
-23
-60
-31
13
49
9
-37
15
26
-3
37
-65
13
28
-6
34
65
-5
76
4
-85
29
1
106
-16
-6
-34
127
22
6
4
5
-21
-46
-3
-38
-9
27
9
3
-42
1
-8
41
79
44
7
13
48
-46
-11
-11
-73
16
49
-10
28
35
45
38
-14
-34
-8
-127
-127
5
-10
9
52
-3
22
-1
40
27
22
-28
23
-36
38
31
7
91
8
19
6
-65
4
-20
57
20
-20
3
-58
-3
-11
11
-33
11
22
-91
84
-100
8
5
81
5
-7
-11
-1
5
127
-5
67
-20
34
-47
28
110
-1
-31
77
-127
-74
45
-127
119
13
-10
-37
-12
9
-114
86
-26
2
-11
-87
-34
8
-32
-62
-58
14
12
29
-48
25
-115
97
11
-12
40
23
21
19
21
-127
127
-8
32
53
-7
-36
-35
-44
90
-5
-13
-78
-13
55
53
0
-18
-20
-50
-29
-4
127
5
-62
2
-4
26
-36
-39
-12
-61
17
38
23
-10
89
0
-23
-51
37
-24
-71
-95
71
48
14
16
25
-6
13
-29
-26
10
-15
-19
-59
43
4
-1
13
-31
-16
45
-121
-20
58
-26
-54
-3
10
-77
28
21
60
-50
91
-71
4
-12
21
-120
-4
5
34
-10
-8
-12
97
-8
-37
-6
-4
19
-16
-4
93
-18
9
-36
4
16
-19
47
-4
30
55
-42
-1
-22
61
-47
-7
35
12
-16
28
-39
-68
-67
-67
16
13
111
35
-37
3
-59
-17
19
-21
-51
57
-63
-25
-13
-2
30
-15
85
-16
-39
-8
-67
16
95
-3
-15
45
58
-42
-24
20
-20
29
9
-27
-66
99
-127
-16
58
14
-75
76
0
45
108
-127
-48
-30
-8
-37
30
-44
-41
-53
27
28
-43
-121
38
39
16
-12
85
8
-37
-7
-46
75
49
-10
2
33
14
-41
36
29
-2
-27
14
16
9
-23
-8
15
36
-11
-4
-5
-127
96
3
59
25
44
-57
10
16
127
12
-31
9
1
-92
127
11
9
17
-16
-3
-9
29
0
-86
-16
-127
-60
-96
1
123
-11
-65
-20
-87
-60
6
25
90
0
-41
-39
23
-48
-37
-10
-108
30
-48
-81
-66
-15
-12
2
57
-44
49
8
21
75
20
30
27
-21
-79
87
68
-31
-25
-27
127
-17
21
39
84
1
0
21
-61
-5
-99
16
37
53
39
-61
5
-46
1
-9
30
8
-86
-15
15
5
-74
-22
53
19
-75
0
-4
1
93
70
-27
18
68
-29
-26
15
75
-5
12
-1
70
11
-9
-24
-66
53
52
22
42
-2
-45
31
-10
-11
-42
-27
8
-34
-14
30
41
-49
45
-13
36
-119
54
-1
16
26
-10
127
-18
7
-7
-8
-60
-58
-17
24
18
19
17
46
-18
-60
9
-80
-3
93
16
-81
88
-2
5
11
-17
21
-22
21
37
0
-4
-16
-35
-13
64
-20
-15
-29
50
-64
32
-74
-20
7
14
22
28
-94
-7
51
18
25
-34
127
-60
-33
-12
24
-7
127
78
36
-47
-127
-45
46
-2
-19
78
-13
-10
10
-10
16
-13
-22
21
1
21
-24
-52
-24
-17
28
-10
66
27
-21
-12
-47
2
-70
35
-18
-34
26
44
27
-12
-35
6
-13
-22
-77
27
-9
-127
14
3
52
-66
58
-85
25
49
3
-26
-21
-18
-45
127
-127
-4
74
-127
37
11
7
7
-17
-49
21
-27
-4
127
-24
-48
12
-60
23
81
-80
-31
26
66
-20
-35
-23
-28
24
127
-64
2
-107
-44
-14
-111
7
-8
-7
-44
-32
17
-18
29
17
-5
2
6
-41
-80
-9
-9
67
3
-65
21
-76
9
3
-115
-8
-30
24
25
24
-88
24
-45
67
2
-63
-11
53
1
83
8
38
-6
82
32
9
-55
40
-48
45
-1
-69
8
10
55
-66
-54
35
50
-8
-10
75
7
38
-19
16
0
48
-27
8
-84
14
21
2
-13
76
87
-3
3
-35
-55
-18
61
-46
-30
-11
13
-10
18
-59
3
-75
50
-43
17
13
-75
14
31
41
-14
-26
-75
10
3
-38
-12
-20
-8
-22
-87
-23
21
-32
-74
26
-27
41
-75
-59
3
25
14
6
-26
12
-26
-4
-17
-52
-14
18
25
33
-8
-7
-23
-28
-3
30
-61
-8
20
-15
16
-6
-28
-34
-47
11
48
-7
-6
-7
-35
25
68
48
-9
127
-14
-77
-63
-46
55
6
10
0
25
11
-39
-42
-11
-20
21
-18
30
73
6
-19
-14
-40
-12
49
-6
-51
-40
36
-24
-1
-17
-1
21
72
4
9
12
-27
1
4
-3
34
29
38
0
-8
-23
-4
-28
-127
73
127
107
-63
-10
3
46
-56
-22
-67
-38
-8
32
-30
-10
7
-1
-31
-22
9
-34
26
13
-75
-87
40
-127
-127
-17
15
127
-43
-13
-31
6
-36
0
33
17
4
127
70
-112
33
-9
16
-33
-72
38
50
43
57
-5
-39
33
57
13
-38
8
20
-24
20
-1
35
125
96
14
-25
-127
-16
-60
-11
1
12
-2
-26
-46
15
11
12
-4
60
-5
-61
14
61
39
-3
35
27
11
40
5
28
-32
65
46
-28
-28
-19
33
-49
-12
-27
32
-10
-67
41
-23
-30
-9
-64
-40
-19
37
-48
34
63
19
63
-27
-37
30
21
9
5
-22
-20
-46
-76
-25
87
-7
14
4
61
99
-67
-7
-13
59
10
-61
19
-4
-34
-16
26
-23
26
-1
64
3
28
42
-51
-13
47
-54
1
-16
-127
26
-10
13
11
-70
35
9
-30
-25
21
90
32
16
1
22
-29
-51
11
31
86
1
-118
76
13
-71
11
27
25
-14
63
-71
8
127
-121
1
76
19
-61
-12
-101
-59
-41
-29
69
127
14
25
-39
-8
8
22
-91
11
-56
22
-1
63
28
5
30
-17
3
-39
-27
74
22
-15
-25
16
20
-12
0
14
-60
-2
84
53
-20
22
24
-40
-15
51
-3
-24
39
45
6
-5
-2
-20
-49
-14
-40
127
31
-40
71
26
10
8
-9
89
-10
95
-22
3
-34
43
-39
-27
17
33
91
-19
-13
61
-29
-34
79
18
-19
50
12
-7
-15
-87
42
16
26
6
-110
-59
-9
13
5
-70
-96
-94
42
17
41
-49
38
24
-26
-10
-26
-5
-42
35
10
-38
-93
6
3
28
-23
36
100
44
-110
127
-40
12
-78
15
15
-87
9
6
25
17
71
36
35
38
-67
5
-48
100
127
7
22
72
32
-26
33
44
23
-11
21
1
-36
-23
29
12
-24
-52
11
-107
-68
67
127
36
118
5
-12
8
3
-19
-56
30
104
50
-20
32
21
20
26
11
72
9
-37
-14
69
87
79
-9
-24
-29
87
-18
127
-61
40
7
-24
-2
16
49
4
-12
-15
15
4
-5
-24
-9
-21
-24
0
-40
-69
-13
-33
-64
16
80
-7
-62
6
-65
49
-41
-29
8
-14
-15
5
-24
-21
14
35
-31
13
-72
-4
127
64
-16
-54
-71
-39
5
2
54
1
85
1
30
9
82
18
-60
65
85
37
121
-53
53
-127
-24
-127
35
-28
-61
-7
29
-24
26
21
39
44
16
13
62
9
48
16
6
-19
42
-27
29
-10
-9
88
-39
50
-16
3
-127
-22
-2
-81
37
32
49
-30
-32
-16
9
-64
127
27
-8
9
77
63
-97
-18
46
-63
-13
127
-29
-14
9
-48
-16
-127
-32
39
20
1
17
-30
-18
-4
33
10
2
18
-1
22
-3
-17
-127
81
48
-15
17
-11
-31
66
-77
16
-6
-39
-84
68
-23
-114
82
40
46
7
-28
18
-12
27
-18
17
-7
17
2
-31
-34
-22
-19
-2
-62
-7
-5
103
-20
-7
-24
10
20
10
23
-48
-19
-16
-42
19
-17
-51
39
-90
-36
27
-60
45
-24
8
-6
-71
9
-2
-22
-28
15
3
-12
-88
-7
-21
5
17
-55
17
-3
-23
27
-18
-13
-3
19
11
-32
122
75
-22
-14
0
54
-1
61
-41
3
63
11
24
5
-1
15
29
-55
83
43
-54
-21
-89
-37
114
4
-45
31
7
-33
-6
7
24
103
-49
22
3
-60
45
37
127
3
-22
-56
-28
-14
99
-67
-49
-10
-56
-66
39
88
-32
-2
104
10
-29
27
2
51
21
-32
102
-67
46
-16
-5
-28
-8
19
10
28
-8
41
31
29
-2
43
-17
25
54
-127
-127
127
59
-83
-59
127
87
-16
-88
59
-45
-71
26
-14
68
63
112
-23
-3
-30
48
0
32
-86
-108
-125
-8
-31
-7
-28
-18
-6
-65
-50
-7
-35
104
32
-60
-52
-45
37
10
34
-50
7
21
-42
4
-17
22
42
-15
-12
127
29
78
116
48
-37
-25
55
5
-36
81
37
-105
3
13
7
-26
-76
12
-69
-18
41
59
-51
-8
-61
-48
49
29
-36
-20
51
10
-5
-63
3
45
66
-77
39
15
-39
-24
12
14
-8
-14
-21
-8
120
-116
76
-47
101
40
51
2
7
-41
70
72
-32
-32
38
-26
44
45
1
127
96
-48
17
20
-41
64
-25
-43
4
12
51
5
27
-58
-37
-25
22
-38
-103
-9
-8
46
52
15
20
19
-53
4
-67
50
-111
-23
80
-9
48
-30
3
-36
22
-19
40
28
7
37
122
-11
-69
14
-49
-107
-32
79
-45
-13
-93
-8
-127
-66
23
1
23
61
48
-18
-59
-37
48
-42
-12
-8
42
-31
109
21
71
-16
-70
-88
51
-41
13
-60
-18
64
-17
4
1
50
40
10
40
4
-18
-6
-11
95
-11
-24
53
0
14
11
12
-62
-32
6
-54
-3
40
26
-5
14
-27
5
27
-21
27
-127
-30
-33
66
-29
-35
52
2
8
-47
-1
-16
-7
21
-4
1
-28
12
67
-127
-1
61
18
-16
22
80
7
48
-19
-1
2
18
17
23
55
-6
24
51
2
-14
17
-35
-5
-85
-19
-56
1
14
-12
8
14
-33
-1
-38
0
-14
16
-8
37
14
-26
-32
30
-7
-20
-15
-13
-40
1
21
-1
6
8
-12
36
-89
94
127
-127
127
54
-69
-111
105
-101
29
-17
51
-27
-127
18
-11
37
30
-5
-22
-14
-28
-7
43
67
-118
-22
-17
-17
-58
16
23
8
90
-1
-21
-49
-67
13
-89
36
69
-77
63
-40
-88
-55
-35
127
33
-4
-5
23
2
54
-3
-21
15
-17
34
-3
-6
127
-2
1
55
0
24
-5
16
9
-3
-16
49
5
-18
1
-11
-45
47
-19
4
-28
11
-23
-46
-10
-30
-37
-17
-6
0
1
40
-42
-42
33
7
0
-5
50
3
-10
101
47
-39
2
-15
3
-39
19
54
-25
18
2
-2
12
8
30
43
-109
-16
-9
-13
32
32
-19
-31
-40
50
21
2
-33
5
-40
-40
26
-48
-2
3
10
9
-42
-35
6
-30
-20
19
18
-19
-10
17
53
-56
32
-15
16
-18
40
11
2
-112
102
20
10
25
16
-22
43
-23
-19
9
-16
-61
-24
-2
-56
42
-12
21
-3
46
12
-37
18
-11
34
-37
-95
64
-68
-2
-17
63
8
-29
-9
33
92
14
-34
127
36
51
-13
-18
88
-9
-22
64
37
33
-8
-91
-118
3
17
2
14
-66
19
44
8
-64
-7
3
-15
-87
-32
-81
60
-19
-127
92
53
-9
7
18
24
-28
-51
23
-27
-62
-96
-63
4
13
-9
18
-3
-2
40
-26
68
127
-33
43
-6
127
48
40
-38
-6
6
-21
13
-64
42
84
-102
15
-78
17
39
53
6
71
-108
23
28
-39
97
21
-4
5
-110
44
46
-40
30
30
-53
-100
-69
36
54
-4
-65
98
49
127
-32
25
-2
5
120
125
22
-47
-60
-9
-28
31
-75
46
20
-31
15
29
3
12
-127
-5
6
-65
16
10
45
-27
-11
-9
-59
109
-69
-2
10
54
23
-26
2
90
127
23
-47
30
-85
40
57
30
-16
-5
-68
52
-59
-28
24
-14
47
-18
-32
6
13
-32
-57
22
-38
-3
-20
17
38
9
1
7
95
-8
-10
15
-92
80
-127
9
126
9
21
-30
-6
-36
66
2
40
19
-14
-21
-101
59
3
43
-9
1
-62
44
-10
48
25
41
8
-14
-7
-6
2
0
22
-44
24
71
-74
6
2
72
11
64
12
13
10
2
5
37
-18
-4
-47
21
0
-12
0
38
-11
30
52
10
-12
39
-26
13
-46
-20
43
-11
8
-13
-5
25
7
-27
-68
-14
-30
44
-44
63
33
33
45
12
-127
6
3
37
7
0
-37
18
-44
-20
3
46
-38
-75
-97
19
-5
6
18
-24
-58
18
-53
6
-7
8
-15
81
3
25
-3
-16
14
17
-31
-13
-36
-8
-4
3
-33
10
-26
-5
-1
-67
-53
127
14
-127
127
20
42
-37
127
19
-36
-18
18
-8
86
-38
-35
-16
0
-31
19
-39
17
-1
-79
55
-17
-43
88
92
-80
5
-36
-1
21
11
7
18
9
7
-64
67
-31
-65
44
-16
127
75
-92
2
-2
-7
-40
26
-17
-39
-13
-15
24
-11
26
-8
-13
-9
10
-65
-28
-17
20
-127
-4
127
21
14
7
-8
-12
-9
19
-18
38
42
-58
-40
28
-14
-58
124
27
1
18
24
-15
-13
42
-8
52
6
-38
2
26
-91
20
11
25
-16
-6
15
-2
16
-33
-100
-3
11
23
-9
15
23
-9
-32
112
-12
5
-18
-41
-34
-8
5
-49
-53
-29
25
-42
51
9
31
-58
-58
-127
-4
22
-100
0
-99
1
8
10
-16
30
-8
13
-17
33
-25
16
-12
-9
16
-20
3
-127
-28
33
-43
-87
28
-13
-25
18
-15
-104
17
30
-35
-5
34
16
44
-8
-11
-3
1
-13
-22
1
-8
-127
15
-5
-43
-10
70
37
50
4
-26
-12
9
34
16
-5
-38
53
42
-31
36
9
-10
72
-17
-44
96
-40
18
-2
17
19
17
26
10
-19
-34
-21
-7
-5
-21
32
-50
-30
-60
49
12
21
-2
12
-12
-21
14
-4
-4
-3
0
40
28
41
-48
45
60
14
-17
21
6
35
-16
-20
5
-18
-56
-31
76
-49
34
-46
-127
-6
28
-21
-39
-127
89
-17
-58
17
-7
73
8
-13
6
-23
-23
-14
127
-15
-50
-53
-47
2
29
-13
-18
69
87
-33
13
-87
15
39
93
-5
-42
-29
127
-49
-116
27
-68
-106
-53
21
-9
-80
66
-9
103
-52
-22
24
-24
-7
-13
-22
0
15
127
109
-36
7
4
13
-10
76
-6
-35
21
52
-28
10
-36
-27
-34
9
-66
-29
-4
-12
-4
-26
7
27
11
-35
-22
12
-47
-15
-47
38
-3
12
-6
13
10
-1
-38
22
-35
10
25
-22
-76
-51
-46
-45
10
10
5
-24
29
76
54
-57
-2
127
-56
-13
96
0
27
-35
6
43
5
-45
21
18
-104
121
-13
-7
13
-33
47
-40
55
7
9
-11
-19
-1
-1
2
-34
-24
14
2
1
-79
52
-48
-108
-46
-60
1
60
5
35
-33
35
12
1
-25
-4
-63
13
-40
-6
-3
-28
-33
-3
-43
-7
-40
-10
33
-36
-42
4
8
23
37
-26
-36
-74
92
3
106
94
2
-48
-19
20
-73
44
-127
30
-48
31
19
21
32
47
39
-83
-19
-23
-6
42
-46
-5
57
-6
-20
-3
-20
-3
33
3
54
-15
9
19
-15
-12
-1
19
93
-14
26
36
33
-21
40
4
2
-23
9
9
11
-61
19
23
108
60
126
3
63
127
67
-34
-5
89
-105
83
32
-14
16
-44
-47
-16
4
38
25
-2
24
3
5
-116
-127
19
-22
-61
9
37
-118
7
52
-82
20
-52
-97
-36
-91
127
-6
-76
-76
-21
-47
11
-29
-10
8
29
-17
16
-107
18
-62
4
-3
-16
5
34
-35
-19
-121
29
67
-127
-127
-84
21
127
-18
5
18
-29
12
-35
-127
-11
-39
-105
71
-19
31
-13
27
20
-53
-11
13
39
12
53
2
-29
62
43
-10
0
-17
5
-6
35
27
-29
15
-12
-66
-16
-67
-17
3
19
-27
2
18
25
-37
-12
113
-49
16
10
22
17
34
12
66
7
-18
34
24
-14
47
27
105
-1
122
89
106
60
-46
3
-44
6
-12
47
37
29
1
-13
27
71
58
47
-35
-16
2
21
10
79
-11
-93
-110
16
13
1
-124
-8
-1
-15
-52
63
-13
-36
-4
4
24
7
25
5
-15
103
21
-9
-19
46
-22
98
-10
45
-74
9
33
22
105
-8
-38
48
18
-112
-59
-59
127
-56
38
-46
6
-13
63
-16
71
19
-17
-117
84
1
72
-25
56
-14
24
97
-32
-16
1
-105
7
-127
32
-53
-29
-46
101
-54
-12
-5
18
21
60
8
-22
-30
49
12
-79
-5
-61
78
37
5
124
33
55
-4
8
-23
40
97
42
-37
127
-48
-18
-13
-62
111
-19
48
-20
-22
127
-29
12
-11
-2
-46
-35
52
9
17
-34
-120
-1
-57
-96
101
-28
69
-32
42
-38
67
-91
-49
17
41
-16
127
-14
-10
94
55
-13
-3
-1
123
-2
-83
18
127
28
-45
-26
-17
-38
14
27
41
12
94
12
93
30
-33
-4
6
-33
1
-16
21
-28
52
-20
18
-20
-127
-127
-21
-22
22
12
43
-4
-49
-8
74
26
-26
20
84
-26
-49
19
28
1
-25
48
-71
30
-13
17
0
14
47
-22
-75
6
-47
-80
-47
92
2
-9
-7
17
-18
14
-39
23
67
1
-80
-26
-8
-26
-1
-69
18
12
87
19
-42
-17
66
-28
-34
-48
45
30
-18
-66
-10
112
-16
12
52
20
-6
4
16
29
-8
-5
33
-6
24
-26
127
12
-12
27
-46
-11
-6
36
48
-22
-41
6
32
-27
8
-50
85
-42
-5
24
-43
36
-27
43
-56
51
75
-37
-26
7
