-2
-112
127
-127
-10
-127
32
-24
-15
-81
-41
-21
9
47
-38
0
2
-10
-8
1
-2
-11
1
17
0
0
0
0
0
0
0
0
-4
-35
-2
10
1
-3
0
-10
21
30
-4
-20
-7
32
-37
-59
-3
-36
-27
-6
19
7
12
6
-52
0
-33
1
-3
18
95
-20
23
10
-33
43
-5
61
-6
5
0
-68
12
-3
13
-4
15
16
-8
40
-25
39
-127
-13
-7
5
2
86
-45
-78
-2
52
8
36
0
0
0
0
0
0
0
0
31
25
80
-45
2
83
-19
23
1
6
-17
-5
1
-17
8
5
9
-34
-3
0
6
9
-12
-127
127
9
-16
6
4
4
127
-6
-3
-27
-7
1
-6
5
11
3
-3
-19
-2
-6
2
18
13
59
-1
30
23
10
0
-77
-35
2
40
-23
-97
-43
-2
-34
-44
-1
12
43
-62
-7
1
-92
23
29
24
-90
-9
1
-11
-1
-19
6
12
-127
10
18
-3
117
-24
-27
-21
-39
14
23
-45
-9
0
13
10
-30
-41
2
-18
110
-127
1
-20
4
15
-6
-1
19
4
10
0
0
0
0
0
0
0
0
1
2
-5
-127
2
-3
-8
127
-51
6
37
-64
-11
32
-2
-51
-1
20
18
3
8
-9
-5
3
-16
-13
6
-9
37
-5
-7
-5
2
-127
127
10
41
2
63
14
2
7
40
9
23
-11
12
7
19
27
-87
4
-19
13
-14
-2
27
32
121
30
-3
-73
-30
31
0
0
0
0
0
0
0
0
13
12
-90
13
127
92
52
17
-3
5
9
34
6
25
11
-46
127
22
33
10
11
-4
32
5
3
-4
-38
-4
-17
-5
-60
-2
-4
6
9
-38
3
-5
10
26
54
1
-1
-100
-10
-4
18
-64
8
-9
26
-17
89
-36
-88
-16
-3
-23
-112
-3
51
-62
44
0
-12
22
62
-13
12
127
47
19
-10
30
62
3
28
5
7
1
20
8
1
22
33
-106
-30
-38
47
-88
-38
-64
-11
-2
9
-31
-65
-77
49
-2
-114
-38
-46
-20
7
-54
33
-65
97
-8
-127
76
4
48
51
9
-18
-27
-90
9
127
37
-58
22
86
120
9
2
12
-53
-17
-55
16
-3
-3
103
-8
52
44
-5
26
34
-85
-25
19
123
-8
-23
-47
30
-4
-48
-28
127
-18
-1
-38
-13
11
21
30
-15
55
3
-113
2
-68
-46
42
7
127
25
71
35
-87
-63
3
124
-20
-25
127
127
9
22
36
-72
-92
67
29
8
30
-28
-21
-84
-78
-30
94
-28
14
-127
29
-68
12
-127
-63
-20
-29
-60
-3
85
-13
-44
71
105
-6
-26
2
16
-14
-39
-127
-55
1
35
35
48
-43
32
-47
85
65
25
-8
-64
127
-127
35
107
-74
45
31
-10
-38
-27
-86
95
-127
-7
-104
24
6
117
12
-1
15
-7
-6
-102
-10
72
22
-38
58
38
-25
18
63
58
73
83
-59
-56
-25
-36
-15
9
-39
-5
-3
-127
48
77
9
5
-19
-3
-16
-120
-8
18
-102
69
-73
70
38
1
-40
45
48
-20
46
127
116
-7
-127
-17
62
24
42
-7
-27
-111
-19
7
78
-80
-55
-85
-34
3
31
127
96
-76
71
-55
-58
77
26
54
-116
80
-30
48
-50
16
-115
28
37
24
31
-10
10
-90
13
-8
-49
0
-7
-76
54
8
27
8
73
-8
-42
-103
-78
-7
36
-19
-114
6
15
-78
-11
-3
-8
-76
127
-5
-18
125
-93
3
-20
-34
12
8
21
20
11
-127
-15
61
99
11
6
-127
86
-15
-3
-18
43
-2
12
-27
-47
-20
-106
69
-18
94
-19
-25
15
-4
-127
-127
-16
102
0
-20
24
-4
-21
27
-24
-27
6
-42
2
-21
2
79
20
7
28
-3
-66
17
27
-78
4
-127
127
1
53
34
0
-3
89
-17
20
-125
127
-27
13
-30
0
-1
-71
-52
46
-1
46
-54
-4
26
-22
-9
-13
-13
5
48
-4
-92
110
-36
14
26
0
-16
-4
14
-127
3
1
-79
11
24
-18
2
54
38
0
-25
23
-21
10
120
-107
-26
4
-127
1
-30
-16
9
117
-127
4
-15
0
-54
-15
-26
5
-5
-6
3
22
-16
-19
46
86
85
3
72
-3
60
-18
29
29
-64
14
40
91
127
-71
30
-18
14
102
-28
-127
108
-102
10
-24
15
-127
-31
-19
19
20
29
68
0
-7
43
-21
8
26
-62
-17
0
-4
-31
-7
118
127
16
0
6
-17
8
-7
32
22
127
89
71
1
-84
-25
-82
-12
65
2
36
-6
-11
-28
7
-28
83
-9
-22
-16
49
-4
113
99
21
-18
19
2
-2
17
-41
23
-33
-31
14
2
-2
-26
19
3
-34
-19
39
56
0
111
-6
35
10
-42
56
2
4
-127
-36
-18
-23
21
7
2
2
2
7
-26
127
5
-127
-26
2
-89
23
-54
-13
30
52
-39
-1
-46
50
64
42
27
-24
-29
-3
19
127
-100
7
80
28
-127
-10
32
119
-85
-28
69
-4
-58
2
-63
11
-57
16
67
6
-28
-4
26
26
-11
5
-25
-34
-3
0
-9
111
33
1
-127
32
15
-125
-83
8
7
4
12
-50
-32
-1
4
-48
-48
-5
-21
39
63
-3
34
-41
127
5
17
36
23
-2
7
92
11
1
-91
30
17
127
8
-72
-1
5
101
36
-12
3
8
66
23
-56
72
-31
-22
-14
-32
-16
31
105
47
22
12
50
55
66
-7
-125
94
36
-20
39
14
31
-127
-11
-24
-7
127
12
24
105
4
-115
-106
16
6
109
-43
-124
21
-30
-127
-52
34
-82
-8
108
-3
-1
9
-118
-7
43
-2
127
-7
2
-3
-127
-24
39
-14
77
34
127
85
4
-1
82
-11
-17
8
-62
-35
-9
12
-36
-127
-36
5
-1
-18
-125
-6
48
-46
-56
35
-90
81
-24
27
-54
45
98
26
-6
-101
21
-5
127
31
-113
10
-43
24
2
19
0
-127
-2
-22
-6
-24
-115
-5
27
21
10
-12
45
-33
4
-47
78
99
61
-16
125
-72
22
27
-28
127
-15
20
-64
84
-8
-9
39
63
25
6
87
50
28
-42
-23
-1
-127
-47
-5
1
-4
7
-10
2
-24
97
-15
1
0
25
-6
96
-30
-70
-127
-3
-39
45
-52
-5
12
127
44
27
-87
127
13
10
28
113
52
24
-92
115
1
49
0
111
89
-22
32
13
-127
65
-38
-9
-104
-127
0
27
87
-7
-99
12
-64
28
127
106
19
-21
-2
-34
34
99
15
9
-20
-23
29
107
-78
107
10
-30
-2
32
27
-74
77
67
-29
-45
44
4
-89
15
-53
11
88
101
28
4
9
-47
-20
-28
2
127
16
-11
-1
7
10
-23
-10
-16
91
-6
11
22
14
39
8
-22
34
4
8
-106
-12
-46
-7
-9
-16
-127
13
-31
-4
-8
43
4
-118
1
-23
-121
-24
-53
16
-3
-31
2
-21
84
-13
-9
17
71
28
8
-83
-97
-90
-4
47
-10
-127
6
-101
-84
-87
-6
54
8
-93
5
22
-100
-3
127
3
-26
-84
2
8
-3
0
-62
-17
-29
-13
2
127
4
127
-2
-127
-1
66
2
22
56
8
-37
-2
-3
-23
2
2
-103
5
-4
9
7
-10
-6
-37
127
-24
-38
29
-61
97
0
88
0
88
-7
-87
-5
65
-5
-19
-74
29
13
-54
-21
21
-45
32
-23
-73
13
32
26
-50
-20
28
-26
9
4
26
-2
0
42
-47
-21
-19
10
-7
3
-67
-10
23
124
34
0
28
-16
24
-20
62
15
-22
13
-25
16
-2
-3
6
-31
11
2
-38
16
26
119
-35
-8
-22
127
-1
-21
-25
-11
53
21
2
16
-28
16
0
-93
55
-7
-23
55
79
-30
15
32
40
9
-32
-2
5
-1
79
-13
23
127
30
1
20
-19
25
-41
-30
-16
38
23
-24
17
-12
6
19
41
26
1
-64
27
78
-39
49
-54
-11
37
-5
16
15
-24
-37
1
-127
-20
86
-20
19
-11
-4
99
5
-6
-5
-4
-32
-5
-38
-10
-78
-23
-7
-13
17
5
24
-55
8
1
10
-55
11
-24
20
-41
25
-104
10
-25
52
-41
25
34
-5
26
-29
-4
-17
-31
-46
-25
-4
3
-26
-16
-6
-27
26
-40
-8
10
31
2
-8
-22
10
-25
28
-15
-43
-25
-79
-40
-101
9
-1
-52
-31
-2
-67
-84
38
-22
-111
43
-20
-8
-15
-11
41
58
88
-24
73
12
-81
11
-55
-9
20
-34
-51
-16
-14
-16
-6
10
-9
12
-50
51
-13
29
-20
-34
6
-19
12
-12
-22
-43
-127
15
45
76
-10
-8
-21
-43
-31
3
10
-18
-40
0
-63
12
3
-79
-14
14
-5
-127
6
-14
22
-11
112
21
10
26
-25
-22
41
113
7
11
10
-15
127
4
-21
18
-23
-6
-13
-10
-55
35
-52
49
-34
81
53
27
-89
-2
2
119
12
-1
17
-16
4
-46
19
36
31
0
-45
9
-74
-14
57
-22
29
-10
-10
2
26
-50
17
-14
-35
-32
54
-10
-16
2
35
8
33
-32
3
8
31
-19
55
-14
-10
20
10
8
-18
0
23
-32
20
2
13
-42
-5
36
33
11
-7
28
5
1
78
-27
52
5
114
27
-2
10
-24
-37
-7
-8
44
-8
-35
-33
-94
23
-56
-30
12
11
-5
1
-92
16
3
-29
2
1
52
-6
-10
-10
40
112
23
4
-10
3
-7
11
3
110
9
3
22
-16
-3
19
9
-22
-15
-40
4
14
-18
-16
61
-48
22
17
-12
14
33
7
-44
-3
-27
40
12
-8
91
18
-61
-5
72
-14
30
-39
44
40
2
-5
-7
8
46
56
62
-127
43
31
10
-99
-3
6
-33
64
6
28
-32
-13
35
7
-22
-39
0
9
6
11
-6
11
40
3
-20
-7
20
79
127
-4
32
-25
-24
60
19
5
-42
97
-5
-47
18
-5
-2
-40
-75
-8
-70
44
-2
-71
-22
23
37
13
-59
0
-3
96
5
3
19
-14
-3
-4
45
23
65
49
42
127
27
-127
7
70
34
-127
46
64
-22
-24
-5
-38
10
2
-49
3
-6
21
15
127
-72
9
-69
48
14
-27
0
36
9
1
1
-35
0
43
-19
-50
62
-21
6
77
-9
-42
-30
-23
8
59
-65
-18
-9
-46
-19
3
-9
43
44
16
-85
55
-16
-49
59
-22
15
68
-5
79
-55
-56
-60
96
59
-54
-55
-18
-127
0
127
-6
51
-31
-14
-21
4
36
4
3
-1
-31
1
-3
33
-4
-36
9
-8
20
23
-28
-15
23
-4
91
-85
-4
-17
-62
-8
-23
63
35
-126
4
18
-114
12
-31
-5
41
-18
96
-16
8
3
44
-14
11
-11
48
1
-88
-16
64
-64
34
94
17
-12
9
30
-50
-10
-29
-11
-10
2
-31
27
-11
24
-30
-38
26
-79
33
0
-59
45
29
26
53
12
-48
4
10
-6
22
57
-42
19
-37
-15
-54
21
2
-71
3
2
-14
-35
-74
-16
14
-29
26
-10
6
7
-13
-22
17
-34
-74
30
43
43
-15
41
-21
21
-30
44
-32
24
-17
42
83
49
42
-30
-10
14
-26
-26
11
78
16
-8
1
-10
0
11
45
0
-14
10
-23
7
-21
-15
-28
43
18
-8
47
25
1
40
-9
-33
-10
-127
19
119
-15
-110
3
-20
49
3
1
27
-42
-31
-55
-2
-7
10
-21
-45
78
4
-76
15
-79
5
-64
17
-111
76
22
62
2
-3
-8
-46
-40
6
30
20
34
0
44
-93
17
-25
36
36
0
54
2
12
71
-27
5
-22
47
0
10
19
-10
-24
7
-9
19
-4
9
2
18
-1
3
2
40
-39
-36
-5
40
21
6
-2
-2
-14
37
-7
-18
34
-2
17
-17
-29
20
12
-55
29
-16
-53
6
5
2
17
-47
-5
-13
-16
-3
1
9
-106
12
102
-21
40
-61
8
-47
66
18
70
-87
45
-51
18
-38
-53
-94
-23
18
-25
22
0
-16
20
103
-83
18
-67
37
14
-11
-3
0
7
-9
4
5
1
14
-8
16
33
11
0
16
-1
4
11
72
-24
7
-27
56
-1
-5
46
-2
-21
16
-13
44
-39
-56
-3
-59
36
50
-127
16
-10
-36
34
-53
-34
-41
-41
37
36
52
30
-63
-18
102
-20
7
22
13
53
9
29
8
-11
-4
2
-3
-22
15
-19
-14
8
-107
-80
-17
5
-55
-23
2
1
34
-51
-57
-7
-42
15
4
21
18
5
-73
15
-22
-20
-29
-28
-12
58
-13
-9
38
19
63
11
5
13
21
-42
-45
21
37
12
47
-28
-30
-12
-1
38
15
13
-55
20
3
9
70
-25
5
-25
59
2
-51
9
-87
1
27
23
-5
-43
76
-71
1
6
-43
-18
8
54
-27
-74
9
18
-127
-127
10
-20
27
-12
-127
-8
33
-20
5
12
21
-12
-89
-5
-31
-8
4
-127
-93
24
110
23
56
36
-20
23
121
51
-3
29
17
97
127
0
110
-57
42
127
76
88
-1
40
-71
0
-90
8
-53
-15
-19
33
37
127
3
-55
71
40
39
-3
2
77
-57
-61
-37
7
33
11
71
-121
-16
58
-16
-3
-1
-33
-127
20
-1
4
36
-18
-42
2
-104
-35
13
108
41
12
-35
-16
11
-5
110
-24
-70
-34
-9
-25
-18
7
-73
-11
-16
-10
-5
101
14
127
-24
-19
-20
3
55
72
-127
-68
49
127
-50
84
-48
-127
-1
-4
-50
-37
-17
18
5
44
-11
83
10
40
3
23
127
-30
-52
61
11
88
-18
36
10
-95
35
-57
-75
14
-80
-3
-40
-27
-12
-6
126
-110
-80
127
-36
-24
-20
-35
51
-68
127
22
21
5
20
-21
-20
-21
16
-11
29
18
31
-19
46
-28
24
41
-29
15
-15
1
39
100
4
88
-16
-23
90
18
49
109
3
84
17
96
-11
0
-89
-32
49
-54
4
-15
-2
22
-127
-41
-34
-121
-19
-86
14
63
2
113
99
23
37
-46
39
46
10
14
16
15
45
62
18
-59
39
70
15
127
-78
64
2
38
-25
-36
3
36
-38
-66
41
-64
33
-112
38
7
-22
-2
-127
56
127
14
-15
-92
-22
115
23
33
105
-20
1
11
33
-97
-97
-38
14
64
17
-56
-27
26
6
93
13
127
23
6
33
32
-28
127
28
-48
127
-24
116
44
-12
-54
59
-17
5
-89
-127
-41
-10
90
1
-46
-49
-14
26
-55
-15
-47
-57
-37
-27
15
-49
-17
-23
-64
-53
-17
67
-7
11
-127
-17
-38
-25
-33
-12
4
17
-7
-26
-17
-26
45
123
21
111
55
-81
49
-59
1
-36
53
-11
28
-37
-21
101
-39
-14
76
15
-74
21
91
-60
65
-14
6
-1
75
-85
100
58
0
-21
-46
-71
15
-57
-6
-10
43
-4
-2
-32
72
-5
86
-34
48
-1
28
-17
1
-8
17
39
127
-8
-31
-64
-3
-13
-127
-60
10
-6
-4
26
-28
41
23
127
-98
-32
15
127
-111
-42
-9
73
24
-90
-19
37
-63
23
94
13
-65
5
-15
19
-40
126
-67
-23
-21
100
-2
8
-13
115
-21
-15
-15
61
27
-63
62
-127
-102
68
36
-109
-31
-114
127
12
-53
4
-6
26
-45
-22
-26
-8
-21
-100
-121
-127
127
79
-97
6
13
20
74
52
14
-26
-69
-10
11
-10
71
16
-13
-26
47
68
13
22
-42
-127
1
-81
-1
-3
127
-79
-57
0
-22
-95
38
-52
18
-9
-67
-117
-48
-40
-91
50
-99
91
-12
116
28
-62
-127
-63
-106
96
7
27
127
25
-89
-45
9
-120
-9
-39
-24
57
-57
26
40
3
0
120
45
-112
23
67
4
62
-126
106
60
-5
-15
127
-45
45
27
-35
125
-32
9
71
-26
2
89
49
4
4
32
38
-7
-37
69
79
20
80
90
66
-72
7
-127
27
-95
8
-17
60
4
-4
-9
30
-1
96
43
105
25
-30
-98
-6
0
127
10
-121
-28
55
12
4
-79
-70
21
-60
111
127
31
66
89
70
-72
9
59
-36
3
15
66
0
19
13
42
-62
-16
-71
35
-90
14
24
62
-115
-29
-65
-85
-55
15
-6
-60
-30
-2
2
-102
-127
-38
-3
127
-21
-10
-17
-19
-26
18
41
107
-2
-4
4
109
27
27
41
19
109
-127
25
127
5
-127
127
85
90
-45
-45
106
85
-8
-3
9
44
7
-16
48
-59
30
-47
45
-24
-4
127
80
-16
-29
-67
-67
-45
-18
60
82
45
-1
89
-54
-127
-45
-126
17
-70
-37
-2
10
8
-9
24
9
64
-38
116
-34
52
7
-35
15
50
20
-41
40
39
-4
-13
10
52
8
-6
26
-56
0
-4
-65
-28
-16
-57
-47
-24
-127
51
48
0
-3
-1
77
83
53
-55
-16
-56
-74
-19
-23
-2
17
-51
21
-83
-78
-34
1
-33
-2
-43
-44
-19
74
-23
-127
63
-24
-53
-105
11
50
21
23
-46
81
-22
-11
-13
-57
113
2
-27
-25
10
5
-15
-83
99
23
64
6
-44
-15
-96
39
52
5
10
118
-37
-8
17
127
25
22
-27
1
90
-8
111
-34
-83
14
28
-34
55
-9
109
16
-127
-14
-127
-35
-106
12
-127
-20
-9
7
25
28
23
-14
47
91
48
-14
10
-17
-74
-22
-106
25
43
-43
-46
-102
127
-7
27
-72
-37
81
-45
-30
-46
127
0
84
-30
21
54
6
-55
34
-72
-69
47
59
-61
-31
21
-43
-39
79
43
12
6
-127
-87
40
-127
21
-24
-3
-49
-12
-96
-34
2
-4
-127
-101
-19
-19
-108
18
-24
-111
-9
37
-9
7
45
9
9
127
-22
-5
26
77
19
-127
113
-53
-43
-11
49
-21
35
-77
94
39
-65
-18
-67
-6
-41
23
42
85
33
-10
1
2
0
-69
-31
-3
-15
2
-51
-59
41
14
-32
0
65
-26
-56
-9
-72
-8
-101
-56
34
7
-20
-9
24
19
6
57
21
10
-21
67
33
93
80
-15
70
-4
127
-10
86
-14
96
8
-109
127
-36
-9
-127
13
-27
94
31
-20
-107
14
26
27
17
-62
47
-2
127
60
-50
-74
76
-31
-22
21
-32
-14
-37
-100
35
10
-62
2
37
-10
15
-7
45
-127
-58
-11
32
35
34
-10
1
-4
-66
-20
-87
-40
59
59
11
8
-90
-80
-109
127
-107
-21
32
-11
-25
127
-56
35
-40
-8
33
16
-71
-2
-46
-17
46
7
-80
37
-46
-8
57
18
-25
-7
-124
-2
15
-2
113
81
-42
4
-25
7
127
-44
39
44
-61
-36
124
24
-22
38
79
-52
127
64
-84
1
-55
-75
21
-96
65
127
-17
11
37
17
96
-26
30
-9
-127
90
-58
-10
-88
-1
-5
5
72
5
7
-112
127
6
50
-11
5
-2
7
-127
-15
90
35
-30
60
52
1
14
93
79
-22
15
-27
67
8
26
78
-38
127
-127
127
-3
127
52
25
73
-12
84
-74
-3
-16
17
-89
-28
-68
9
-47
14
-7
-18
8
38
-3
56
-16
-5
-5
8
19
127
46
78
-31
124
-36
79
102
33
22
-55
55
-1
-38
13
15
50
12
-37
14
-118
12
-30
-50
108
-32
-34
34
-92
-97
30
-20
59
-18
-88
53
127
13
-24
-41
-104
-14
-26
33
-33
18
-38
-13
-56
-24
9
24
110
-16
-74
-92
25
37
50
-62
-3
-75
-126
57
-2
-28
37
-40
-18
-65
5
-37
-35
-45
-1
20
14
106
40
1
28
-17
67
16
-40
-54
53
-6
24
28
26
33
-85
-67
-4
-127
10
-127
60
-76
-34
-93
2
-21
-11
-87
53
13
-31
-64
-53
61
9
-57
0
-37
2
75
-127
33
127
4
-88
15
77
29
60
-20
47
18
-109
127
65
101
-24
-83
-35
-31
-76
15
26
30
12
-5
8
37
-25
-91
6
81
-1
12
-21
16
63
116
-123
23
-12
9
21
65
127
-92
-127
81
27
-40
-69
-5
-7
-1
17
46
-100
16
24
-40
-97
-85
36
-10
-19
95
-40
-51
20
-105
-38
-127
-17
-41
-24
-21
30
-27
-59
-40
91
12
60
31
-16
22
-10
6
49
12
127
4
50
21
31
16
16
12
-3
79
38
6
52
-127
-21
19
-55
-11
34
-36
-23
-65
-3
53
20
15
46
-127
18
-5
28
12
-71
14
-59
-3
48
-4
20
29
2
-87
-127
1
7
-25
28
-127
-4
-47
25
16
62
-96
40
-9
-24
46
-23
6
31
-26
24
10
-24
-127
-12
-2
-127
-11
-61
7
-8
-42
74
10
-23
19
-38
105
-72
22
93
19
64
-7
-7
-19
15
65
31
-29
-41
-10
-35
39
28
104
-35
-30
19
19
36
54
26
-10
62
-48
-9
-42
-127
28
50
30
0
102
-19
22
12
26
0
-9
-4
-38
-78
-20
-60
63
-17
-16
-14
14
-57
5
61
53
13
22
1
38
-17
7
15
1
0
-1
-30
-12
-75
-1
-34
44
49
1
-57
29
-50
-21
29
25
34
6
-67
-77
-53
-10
29
24
18
4
-8
25
-19
64
11
75
-4
-14
-9
21
-7
-5
127
-28
-62
41
6
6
43
74
11
-2
28
-12
-9
-5
-17
41
32
48
3
-9
-18
-34
-12
6
-21
10
-31
25
-40
49
-102
-28
-32
-28
39
-1
41
97
-28
-77
-7
58
19
8
29
6
15
6
-9
25
-17
17
5
16
-47
27
-88
-7
36
-20
-15
-4
-2
-75
73
-17
12
-59
6
3
44
11
16
-10
-7
-31
-16
-16
-82
3
2
-16
12
12
-5
-13
-8
43
39
-1
0
5
17
2
18
97
6
45
-17
1
-32
19
3
46
2
24
-27
-9
9
47
-29
-17
-12
101
7
8
-4
9
-52
-60
67
-18
0
32
-27
33
1
-79
-3
-5
19
-7
29
-16
53
-25
40
-15
2
-39
-2
13
47
-76
-19
58
5
5
14
-9
26
-39
33
-58
33
-1
-36
-2
11
-54
40
17
-12
16
35
-5
82
23
-28
69
-9
-3
49
-42
-51
-50
-49
-82
127
6
127
-18
63
32
8
56
-9
-2
-32
30
18
32
14
51
6
-12
5
8
-76
-31
52
50
-19
-3
-5
24
53
-5
2
-16
-63
11
-21
-35
-23
-14
46
105
24
1
-7
37
16
18
10
26
23
-18
-14
-29
-57
3
22
41
-3
4
-3
34
-11
36
65
1
14
2
-1
54
-19
20
51
39
3
-34
6
44
-36
-26
-26
92
-28
-6
0
17
31
17
19
-12
13
-22
-17
3
-72
-47
-2
-41
-8
-7
46
81
12
42
22
-5
13
-4
-26
88
29
4
63
64
3
9
-27
-17
59
-18
8
-26
-9
-11
-29
-72
-100
-36
59
-29
-21
-1
-9
20
-46
54
-21
-71
34
13
-38
-127
-32
-3
52
12
-19
7
-30
6
-42
-97
83
55
-36
-127
22
37
20
-83
102
-23
-20
16
44
13
17
-106
40
20
-7
-107
23
20
6
-2
53
61
16
-10
-11
19
-23
-30
-105
47
6
-41
0
9
-46
105
-12
66
-5
-14
-2
29
5
21
88
-12
-13
-5
2
36
-27
27
-32
5
-76
2
-8
8
18
-127
-41
50
-12
-35
13
7
-30
24
17
1
-84
-28
3
-13
-10
13
-29
-4
-25
-3
9
-17
-64
26
11
14
10
32
5
-8
-19
-96
0
37
14
-10
22
-7
5
-43
7
-64
-31
-7
41
57
-18
36
52
-28
6
-1
-4
33
2
-12
6
108
4
17
0
4
-18
19
11
-19
2
-4
5
45
-35
21
27
-23
23
24
-15
-17
-21
-57
30
-40
23
4
13
17
12
-9
37
-26
5
2
-19
20
-62
23
-69
-25
-28
4
76
-36
-28
8
22
127
10
-26
-11
4
-22
0
-23
15
36
15
12
7
23
-46
2
2
14
-55
2
30
-17
-73
-73
12
-21
38
6
-13
-23
-9
38
-4
-81
-48
-7
2
-19
54
8
-36
-4
-24
13
-2
-23
4
43
53
34
12
-6
38
-4
20
41
34
25
2
6
37
-56
67
8
8
-1
-5
8
18
0
-56
-26
94
16
-5
26
7
21
-15
-18
-5
12
-8
-20
-23
-84
19
17
-44
5
14
-33
44
0
-66
6
-25
-46
1
26
1
-22
11
60
24
16
24
-6
26
70
-32
40
-1
13
-23
1
8
-13
124
-83
-16
-21
-15
33
30
24
2
-20
-36
-114
-21
22
-7
-127
-23
26
74
-30
-1
-38
9
-3
3
70
-47
15
8
-13
16
-26
36
35
96
6
-21
15
28
14
37
-19
-24
-20
2
-3
20
-33
-64
46
5
-11
-79
15
18
24
62
30
-49
1
-4
-3
45
-2
34
-2
-16
-1
-4
-20
-11
-9
0
-58
8
23
-45
-15
-46
-75
29
-47
-91
-12
-11
35
13
-112
-24
65
-36
-32
46
35
-63
-5
89
81
61
-30
26
29
43
-7
19
63
7
5
-3
46
-4
12
-22
59
20
-58
11
-43
-13
6
-14
50
-4
53
-18
81
29
26
3
-38
9
-45
59
49
22
-4
0
106
-13
-45
25
-2
-42
1
-46
-37
12
16
6
41
15
9
-23
-40
30
-127
72
-24
-24
-5
6
-48
-30
-47
-8
17
56
127
1
14
-49
13
38
74
-51
-2
-22
-14
-79
-10
127
12
-32
26
8
-1
-98
-122
-32
127
42
-49
12
-3
25
13
-2
1
102
11
10
40
3
-57
3
4
21
30
-32
55
2
44
22
-4
-10
0
8
47
9
29
8
-10
-61
-20
-28
-21
-127
-35
9
-25
-1
-23
44
-14
48
34
11
12
-43
32
-2
-41
34
7
16
-11
15
-17
14
-11
70
32
-17
62
-105
10
-127
21
29
12
-7
35
-53
9
16
15
1
-49
-24
-10
18
8
7
21
7
63
-28
-47
1
27
-12
-10
-76
16
29
-5
71
-6
-2
39
12
40
18
-25
-47
-55
-13
-37
-21
4
-57
-19
127
-3
15
10
77
15
17
50
104
-33
-9
-127
-73
96
-40
12
24
12
30
0
15
-64
-109
84
1
-14
7
85
-14
30
73
65
-48
-7
3
1
-28
57
1
55
18
9
22
-27
74
-23
-40
-22
7
-17
12
-18
-32
26
-9
44
7
9
34
2
55
62
14
6
7
43
30
64
-11
10
29
32
20
11
3
-47
-85
-43
-8
-19
28
-23
-14
-16
-18
-18
-7
54
22
-28
20
46
-121
25
-51
-67
16
-16
-6
-18
24
4
-17
60
19
-50
57
19
-17
47
38
86
26
-19
5
-19
-90
-25
65
21
7
-27
43
51
-106
-77
-14
83
-41
-23
-18
29
7
8
6
46
-41
4
-20
-49
-74
54
-5
41
-7
0
-10
-42
-31
11
30
15
-13
6
8
28
-41
34
-81
2
11
-6
7
-75
61
-64
-17
107
-8
6
-2
91
-60
18
-35
23
3
9
-18
-13
-21
-79
-21
6
-58
111
24
-32
5
-98
6
12
-15
-22
6
12
-12
-29
-3
1
-59
100
49
58
29
15
33
17
-5
-6
9
23
-39
61
-24
-12
20
42
-19
13
83
-5
5
50
-110
-4
1
43
-30
-4
-80
21
-3
-17
18
17
-16
-39
4
-16
30
-7
30
-1
-53
-53
-37
-12
-63
45
35
16
19
34
29
16
25
-24
1
19
14
84
35
15
-9
14
41
-10
46
48
-1
36
-23
44
12
-10
-7
-17
22
-16
107
-1
37
-18
-63
-54
-23
53
-28
-15
3
36
-15
11
-32
-19
-12
15
20
22
-4
-9
-21
46
21
10
-50
43
11
-2
11
62
-22
12
-26
31
-14
15
30
42
36
4
12
21
-80
21
-11
-76
49
8
2
71
-103
25
1
-21
-32
9
-3
-39
10
-6
113
52
-18
17
-16
44
28
-37
12
36
-14
-14
-23
13
-17
-33
21
-12
-20
5
-4
-14
-4
-15
-15
-4
-37
31
41
42
-16
14
6
-20
-15
-71
8
21
13
19
30
15
42
-46
-23
3
-52
-50
72
31
-47
-14
40
37
5
-3
2
29
-17
-1
6
50
2
-50
23
54
-44
-14
42
-7
-16
-14
-5
-9
-13
-11
9
43
3
-17
17
50
58
1
-5
-62
-113
-36
33
-10
-1
-3
14
-45
53
10
-30
5
4
11
-93
-23
21
3
-13
-13
97
-16
44
45
-56
39
-12
26
-24
12
10
78
-8
-11
23
-13
-8
-24
-47
41
-3
-96
42
85
-69
12
14
64
-84
55
-2
91
46
39
14
33
25
-5
2
50
52
0
37
58
-104
41
-89
-15
2
20
0
16
-9
-59
-32
8
54
-56
-34
37
45
36
56
74
15
6
15
-21
-7
-42
-27
-9
-16
101
-25
78
14
-6
6
11
-59
19
-84
48
28
16
19
49
-34
5
0
-52
-84
-15
33
-15
10
15
-19
37
-6
-127
13
-96
-16
-9
90
23
0
111
-30
29
26
-4
0
22
-31
8
-33
34
-3
25
-44
105
-7
57
65
-11
-50
127
-7
-10
43
29
33
17
10
18
-127
-37
-22
-39
127
1
14
1
-6
0
29
-3
100
-24
-21
-13
32
35
-71
37
36
-71
127
39
15
17
28
-127
93
-3
62
1
39
-74
53
102
33
-11
-5
25
-25
-40
-32
67
45
-127
80
38
22
-127
-21
-11
-81
100
9
48
-38
20
-40
-79
-72
31
49
-2
-38
-37
127
-13
-2
-24
39
12
2
21
-19
-73
-67
-109
-8
25
-54
95
-7
2
7
19
-38
5
-100
-47
-14
-37
103
6
0
-11
2
-127
-5
-25
-35
-45
21
-54
-34
-10
-43
-127
-78
-47
47
-88
-127
50
19
38
25
-52
-16
-52
16
4
-1
44
-3
43
127
21
-9
2
-33
-64
127
-11
30
-48
-17
-20
9
43
-12
-30
53
0
-113
16
-53
10
-15
10
58
0
-29
-67
127
-8
-27
-61
-49
104
2
-120
-13
22
12
-114
-53
42
-30
69
127
-8
8
127
-37
-12
-88
26
-38
-43
-11
59
41
35
-34
-21
-30
-8
33
-105
-5
3
-10
17
104
-44
0
29
-72
15
25
23
17
-36
-10
-39
7
-4
-11
9
-15
-14
-38
-32
-34
127
0
39
0
54
-102
-5
-13
3
-91
50
-127
-17
-37
9
23
23
-23
-82
-44
-12
-55
-37
-8
-22
49
-101
-4
-61
4
-36
1
14
93
8
81
0
23
7
-7
36
-5
20
-124
-17
127
-9
4
-19
-31
55
54
-22
-21
27
3
-43
-18
40
5
-127
-14
-34
-11
2
-124
41
32
-87
-29
-62
55
-99
13
2
11
-8
6
4
7
-72
-1
19
3
-77
-15
18
-127
127
-45
39
-5
-83
-5
-7
-27
31
127
-41
22
-51
-5
-11
60
47
-64
28
-39
-17
10
-46
19
6
-23
89
-51
17
10
127
76
-5
84
-127
-101
14
-14
15
-5
-22
-21
17
35
-5
56
22
4
35
-7
-50
58
-8
-53
-16
21
6
-6
-39
26
-7
8
-96
-66
51
-127
-59
-31
127
-49
-72
-127
-88
8
-8
51
9
-17
22
3
-4
-4
51
24
-9
75
-25
-3
47
7
-90
-50
-1
-127
-37
-15
57
16
-10
1
-11
-97
68
-1
11
11
-19
127
-7
-10
-66
-84
98
-16
53
70
9
33
30
-3
4
21
-85
-91
-7
-3
110
115
55
-62
83
-27
76
52
107
49
109
13
45
92
-32
108
-127
-109
23
12
-39
10
6
22
-12
26
-127
-7
-27
94
71
-14
0
-79
-25
0
-127
-76
15
48
73
-20
-10
8
55
24
-17
83
2
17
21
-21
22
48
-5
-6
1
2
-3
32
33
29
-3
31
45
16
-9
38
-8
-15
48
51
45
-2
41
18
53
23
8
13
-6
27
15
19
-10
0
10
2
7
3
61
-33
8
-44
1
-2
-6
-33
4
27
19
0
127
-127
26
-127
-26
30
12
127
55
23
127
81
-42
-35
-20
-53
14
-4
-7
-6
17
-76
-1
-74
38
12
-110
51
43
9
17
-94
74
-3
-89
21
-22
-15
-20
72
23
-8
102
-30
72
127
-20
6
24
-35
-11
-26
1
-110
2
85
1
-43
124
0
-5
-1
-14
-5
13
4
-5
-3
34
-12
-127
-35
5
-4
-8
-4
127
-108
31
18
-20
-6
19
-10
75
60
-54
-29
19
21
42
-58
18
0
-32
-31
28
68
46
-58
127
-22
8
38
48
57
19
8
-46
45
-19
-28
14
18
0
-8
-29
92
-33
91
-127
31
-51
-10
-78
-7
-77
15
-20
-36
29
32
58
116
-22
127
16
66
-41
-127
-40
127
10
20
-31
-45
-41
-8
-23
-28
6
34
0
-95
111
121
57
38
1
46
17
52
-21
87
-91
-80
-43
-72
-6
-33
127
-124
57
-114
11
56
6
97
-3
17
9
-79
127
55
8
-127
-11
-67
101
40
-28
-25
32
-7
-14
15
24
-26
-7
-11
8
-4
27
6
13
3
-11
-63
15
-6
7
-18
16
-77
1
-59
127
-74
64
-4
-107
-42
7
-11
22
81
94
2
9
-6
13
18
-10
51
10
4
127
-3
-12
9
15
-35
10
-54
53
43
-3
127
46
-53
-76
-11
50
-47
38
47
-29
8
127
14
-55
9
114
58
-124
-27
38
-20
62
-50
-19
-25
-9
79
98
-9
14
-111
-48
-31
-54
22
83
-65
-6
52
-43
68
63
79
70
-24
1
-45
42
-21
51
-127
35
-75
-10
127
-8
-35
-26
-117
0
-32
-19
39
127
27
-20
-73
-50
4
-40
26
-20
65
-31
57
-15
-11
34
-7
-8
22
38
-52
-14
127
-69
33
-46
99
-11
1
-23
-21
-4
101
-26
-32
6
-97
-1
-9
-4
-21
-21
-82
11
32
102
-14
-27
44
0
54
8
27
2
21
-127
-117
-39
-3
-6
85
-19
127
-11
34
-53
-67
6
33
-26
-31
-113
0
108
3
2
127
-22
2
-12
10
89
-103
1
16
127
-1
-41
11
14
69
127
11
23
-2
86
12
95
127
-25
72
-97
-4
-1
22
-31
92
-25
-70
-68
42
45
-2
-68
-98
-17
-21
2
29
80
9
18
51
-19
83
-99
11
2
28
127
-47
-35
48
67
25
48
45
6
-98
-4
0
-50
16
65
127
-5
-21
-22
72
-49
-16
18
15
-38
-54
59
-14
-18
62
-127
-47
-14
20
51
127
-82
-127
-36
-19
-29
83
-23
-22
-63
9
-30
6
37
37
6
6
20
-3
28
-35
-45
70
39
26
-27
-71
-60
-49
5
-54
3
-15
15
6
2
-127
11
7
17
64
-24
-19
-23
-78
16
-14
-12
-17
-2
35
-1
4
39
127
12
58
9
-9
-2
-61
-73
-55
2
88
-39
22
-17
-42
-14
58
-16
-75
6
17
87
-47
-28
122
-24
53
-60
98
38
67
-50
13
-5
-70
9
-10
33
89
-42
96
19
-110
127
-50
51
-6
127
-91
46
-9
15
17
-47
-14
-52
104
-127
-1
-8
40
0
-65
-41
-5
33
-127
7
28
59
100
85
-21
26
-37
96
-8
18
-36
16
-19
-43
-80
73
-3
11
39
-24
0
-22
18
-9
50
44
-127
33
-7
-80
83
11
-64
127
90
39
3
-127
13
-42
127
16
-40
127
127
-22
-69
127
-1
-38
38
33
-48
-40
93
-84
69
-80
52
88
0
55
-37
72
-14
-9
55
25
-30
20
88
53
69
-8
34
102
-10
-33
37
-10
-60
12
51
25
16
41
19
59
-71
26
39
-126
27
47
100
-67
17
13
-23
-67
25
28
76
-18
11
21
25
56
8
108
-20
-16
14
38
-105
-6
2
-76
92
14
-89
47
38
-9
-78
-127
-10
49
-67
-14
7
-58
-60
-46
-5
50
-56
70
41
42
16
-65
52
48
14
-57
-13
3
47
-6
11
2
-11
9
-23
-18
-35
12
-27
0
-21
17
-14
-14
-11
-42
-23
-82
-2
-20
28
-20
4
17
-62
11
-16
97
-80
39
-5
1
-127
122
-27
-11
-116
22
4
81
-1
-10
8
-11
127
-14
-29
-97
-77
-20
7
0
-29
91
-17
50
-80
-127
0
-56
-11
-56
-16
32
-47
127
38
53
54
-16
-29
-36
59
30
-18
-52
53
127
-17
-21
53
127
-12
-127
-124
22
-43
73
-3
0
-46
10
19
-11
127
51
-19
-14
-127
2
-21
-62
-31
-28
25
40
73
35
45
42
63
-7
-42
-8
20
22
-127
-66
-77
-26
-55
-22
-18
-5
24
127
17
8
20
29
11
50
17
104
13
3
-27
6
117
57
9
-58
-45
16
73
-127
10
75
115
5
127
127
33
-28
-20
-34
48
58
55
66
127
47
-45
-12
-18
-4
7
11
22
18
0
23
59
11
74
37
69
-49
6
80
-94
86
-79
20
-37
47
30
29
43
67
47
6
-69
-17
26
127
-10
28
-31
-17
34
-44
-1
39
-94
-2
-121
0
41
-31
31
0
-5
-44
-7
8
62
-41
53
15
-2
-73
-13
-3
-75
-21
-127
-113
16
-2
-53
-5
41
0
-10
-73
16
-5
-7
-1
-9
7
11
-5
-15
113
-31
-37
62
-2
31
-13
-16
-10
-9
3
-9
-22
-9
-16
31
-2
-22
18
-11
11
127
51
19
-33
-14
-85
127
-57
25
26
-2
-127
-6
6
21
6
-9
-7
-3
60
32
-13
21
27
15
-7
-7
-13
7
-1
-45
-29
-8
37
-23
-10
16
-5
17
-26
-16
-12
-12
-34
60
-47
-42
-39
24
1
-20
-24
31
11
48
9
30
34
5
-50
36
-5
9
-88
16
17
27
-40
19
21
-35
-1
21
78
-8
53
58
0
-1
-7
-36
12
2
-83
-21
-51
7
17
-2
5
-7
119
0
24
-39
13
56
-15
-17
-39
48
34
-18
-4
-14
37
-22
36
26
-1
-15
35
-5
-24
-10
27
-3
13
-27
-16
-5
14
-1
2
-45
-11
-1
7
-2
-21
9
-18
-5
4
98
12
17
-13
-3
107
47
1
9
1
20
3
9
18
21
-16
-20
8
2
-3
7
92
82
26
43
9
9
6
2
14
-8
10
-46
-19
16
61
-18
-17
13
10
-31
-38
-11
67
0
-18
3
34
-27
29
-2
-10
5
-43
8
-56
43
4
-6
5
4
38
-29
-16
40
1
3
16
-43
-17
36
-35
-11
-28
-19
-3
14
-54
-35
20
-16
-37
47
-68
8
13
-30
-64
-34
-38
-33
20
-17
72
-73
-1
-25
-22
11
23
-19
15
46
40
53
-18
-28
-83
-16
-62
31
-10
13
-52
-64
54
8
2
-19
9
5
35
-66
59
26
-90
11
51
-15
33
29
3
-9
-87
14
-58
-17
-72
80
-70
-24
33
-46
-46
-89
21
6
-39
2
15
-13
25
-3
20
-7
-15
-5
-2
-92
-11
23
22
-30
19
5
-35
86
-64
9
6
21
-3
0
-22
-48
4
23
0
6
-1
-1
57
13
52
68
21
6
7
8
-4
-2
-19
6
12
-1
-28
-21
-51
16
53
-11
0
0
-10
11
19
62
24
9
-19
33
4
27
-17
39
86
64
28
4
-1
-30
7
-26
-9
33
-18
-12
2
-5
10
-17
-21
28
10
-8
-42
14
-12
37
7
-23
47
31
-28
-15
-120
41
-13
-57
30
-32
1
-4
106
32
-6
19
3
14
8
23
76
-38
-2
-42
-30
-8
-6
18
-37
-8
-4
-22
17
-1
-25
-60
65
4
-14
15
127
7
9
-29
-87
-23
57
-107
19
25
-17
-24
-7
-62
-39
-28
-27
-7
65
7
-13
0
-109
-40
26
-2
-6
-37
-17
-19
27
-7
12
-66
-30
23
-67
59
-32
-37
50
4
27
13
8
-31
-11
-13
21
-15
-24
-13
-36
43
-127
11
10
12
7
-17
-86
72
47
-7
-37
26
-25
2
-70
15
-68
8
-3
6
57
10
-31
23
0
11
1
13
-1
-22
-5
-28
-26
15
1
10
0
-19
-9
26
-13
2
-25
-1
7
3
-8
121
-20
17
14
-16
-8
-127
1
-89
-36
31
-11
122
73
66
-8
-17
-43
17
23
10
-3
65
12
55
8
-25
7
115
36
3
-8
-18
35
2
9
-4
-12
13
24
-21
26
43
67
-104
127
-27
90
50
-59
3
-25
9
-5
-35
34
-1
40
-22
-8
26
35
-7
22
48
3
25
-33
22
-1
-5
-68
4
13
46
2
24
-23
0
52
-6
-30
-4
-40
4
40
-29
65
36
22
23
-55
-12
-7
-6
51
127
-25
61
-56
-16
4
-26
-30
67
27
45
25
26
-10
-8
-19
15
2
27
-14
-3
-35
-14
-79
-10
30
9
-32
0
-15
-7
68
11
16
-10
-6
-17
-9
-10
-26
20
1
-15
12
24
-13
-9
-72
-97
43
-12
-11
8
-15
-21
-107
-32
14
-26
-21
15
-4
8
78
-71
11
-10
-21
9
23
-28
-30
64
7
-10
-38
34
0
-3
55
60
-22
13
15
-37
27
-11
69
9
-6
-99
-16
-14
29
-2
63
54
3
49
9
-6
-13
37
12
64
-31
-56
-58
18
18
2
-47
-2
-26
-22
-14
-13
-18
-9
-7
23
56
58
-13
27
11
11
-24
11
53
-15
19
24
-13
3
83
23
51
-69
31
12
11
-4
-36
5
4
-17
43
33
17
-127
-37
2
24
-45
46
55
13
12
11
24
-55
-14
-57
4
9
71
26
-8
-50
-18
81
-34
-15
-16
-62
-21
-45
-77
24
-28
-1
-36
116
80
92
18
18
-14
16
-30
-38
8
11
-21
42
31
13
-31
-46
23
35
50
55
-3
-2
-18
16
-29
19
-15
19
9
4
-11
40
-54
-36
-12
-10
-3
-20
-30
29
-11
-3
-55
-2
-8
-17
-83
-73
-57
-28
-34
105
-8
-25
-17
11
-2
-11
56
-2
-23
-1
-64
55
-17
-68
14
-35
-127
17
-34
-13
-24
-22
-57
-2
95
2
0
11
25
-6
-1
-3
12
4
42
44
46
43
33
27
-19
7
-7
-18
17
-15
76
15
2
10
22
3
-104
69
77
-22
-24
1
-13
10
-4
-16
-41
-13
0
-2
22
16
-15
35
9
8
12
-7
86
-32
-24
-50
60
86
-55
-12
-28
25
16
-31
20
-30
11
15
-45
-1
-5
-68
-61
25
-11
20
-51
-30
13
-89
-86
36
-3
2
2
-28
33
7
31
16
40
-6
14
48
-29
15
3
-9
21
-13
67
8
40
-31
-2
-45
-30
46
11
39
127
34
-44
110
46
5
-42
-2
66
-118
19
-8
32
-2
36
-14
2
-15
26
19
-13
-14
-16
5
-18
9
-57
37
-42
15
19
86
-48
87
-9
61
-25
-11
-2
2
14
13
6
-7
15
-2
-8
-40
64
43
23
-25
1
-10
63
-13
-52
-90
70
-28
38
-11
79
22
9
-64
-40
-65
-21
-26
65
-29
-22
-15
-19
-20
19
-2
-53
-20
-54
-30
-63
9
-63
-14
-108
43
-13
-80
88
-28
-29
8
91
6
33
40
-9
-14
-46
11
8
-10
-34
39
15
32
-20
-1
-15
7
-12
-18
27
39
-11
-5
-25
-45
57
-43
10
-4
-21
31
6
-7
47
57
-77
-25
-51
-15
109
127
-28
-120
56
63
29
-10
41
45
-30
-50
10
8
10
20
-61
35
3
43
15
-9
-50
-5
-13
82
-19
-47
42
-88
34
28
18
-10
0
-33
54
7
-24
28
38
-18
28
5
14
-3
-13
10
40
2
1
-13
35
-7
-8
-3
32
-1
24
-4
62
-22
11
10
52
-18
44
55
-11
1
35
19
-52
-3
3
74
30
47
-4
-2
19
-37
17
-77
70
-16
33
19
41
25
-30
38
-127
32
21
3
-65
24
-10
13
23
-43
9
-7
16
8
30
28
45
-18
-38
-9
-2
-37
22
11
20
16
-7
6
36
-32
57
26
79
-28
54
3
118
52
54
59
-12
17
50
7
20
0
30
-22
-2
-20
-40
-1
-2
-30
11
58
-23
29
29
-15
2
-12
28
10
57
-1
-7
-11
-1
1
-19
101
-12
-39
21
7
8
-30
-84
-16
31
52
0
-14
87
31
-55
-67
57
36
-7
-5
84
-18
-91
38
-30
33
-10
127
78
-33
1
13
19
62
-54
10
-21
-26
-9
1
-9
-4
-16
-3
-30
24
77
64
52
-38
-18
25
46
-19
57
9
50
-16
32
-7
-11
39
5
-61
14
-46
9
14
9
-59
-42
72
16
-47
-19
2
-24
26
23
-8
12
-47
31
-5
35
31
-13
34
21
-35
9
-4
-24
-26
36
-9
-90
5
-64
24
83
30
-91
81
18
54
3
-16
-42
-1
15
-13
-3
6
-33
-18
23
17
24
25
14
-34
-46
8
53
50
36
68
3
40
22
1
-82
5
-39
-27
-41
56
86
14
48
-13
-29
9
-6
-9
40
1
-38
-4
-16
112
17
-8
-38
4
-48
-37
-9
118
-52
-47
-27
13
31
-4
-22
-11
67
7
-4
-1
-27
39
-13
127
37
-127
-1
14
-33
-12
-51
-54
-55
66
-9
-13
4
4
-25
29
36
22
1
13
-27
16
-37
-2
48
26
5
-13
14
18
-35
4
29
-15
50
18
-47
0
5
-21
100
7
25
12
3
-12
-74
-12
-48
47
42
-8
-34
-20
42
2
0
43
64
-20
-8
-40
-24
51
90
89
122
0
-41
-23
24
-14
13
49
49
25
18
67
-13
35
-10
36
55
77
38
25
59
-30
38
7
100
4
65
-18
-15
61
-31
39
28
-8
-22
-67
-14
0
-14
-28
105
0
-35
49
-61
31
36
20
-32
-8
-28
-14
44
4
6
50
28
15
-25
8
46
-88
3
-15
-38
-17
-31
-44
38
7
58
40
-74
-13
-85
-93
34
123
-7
-27
-29
1
-22
22
-34
-96
52
10
-58
-14
4
88
-28
-109
-35
14
-127
-26
30
10
-40
-17
-33
94
-11
-4
26
-27
-56
-32
-41
65
-44
-24
127
-17
-63
20
38
-92
28
-3
4
77
64
20
-57
-22
-21
-15
-42
4
-80
76
36
42
1
-12
10
68
-6
58
21
32
27
-21
63
-47
49
-24
4
56
21
40
-23
-5
-79
70
38
38
42
-14
-21
13
-22
-45
26
-43
-23
-3
-35
-24
1
-24
-10
-80
61
-3
-42
-8
70
-15
16
56
42
-11
-12
25
48
16
-21
9
-79
28
13
-50
107
-46
-55
-12
100
-13
15
8
-55
-52
-68
14
-63
-3
22
10
29
81
-72
82
67
-26
26
1
-44
19
87
-24
-51
62
-32
-65
73
-103
-27
-22
-35
-4
-39
72
-49
28
22
1
100
-53
52
4
59
0
17
77
-30
-9
-5
11
-16
53
-127
-22
20
37
26
127
43
-50
-91
-84
99
3
-13
1
-19
63
-4
-24
1
19
22
-39
32
30
15
-118
-4
-29
36
52
16
4
54
-51
74
-40
38
48
22
-57
4
68
14
34
-12
-9
21
-44
-22
-8
8
2
-26
15
-60
2
-36
-39
91
1
53
-29
-30
-83
-57
-12
114
-34
-62
-25
-3
-37
-82
-73
-12
1
16
-45
0
-42
-12
-3
-41
28
-31
-12
42
69
13
19
-26
7
11
-48
-15
34
40
-94
13
26
-4
10
-51
-101
38
-1
61
-50
100
16
29
-26
1
30
-94
12
-2
-7
-96
-81
29
82
91
34
-81
12
93
12
25
127
47
3
-22
108
64
-44
83
-51
18
5
-12
-10
-14
-112
72
22
89
30
-32
-42
-105
82
63
-20
24
0
49
12
15
6
-47
-27
25
6
14
27
0
25
38
-11
39
5
68
78
61
-80
24
17
-10
-6
17
-41
-72
38
-36
9
41
-7
14
-19
127
88
27
11
-57
12
8
-10
8
45
33
-73
5
20
7
-47
5
8
12
51
12
-44
26
20
119
127
-54
6
27
-28
18
38
-28
-11
22
13
2
2
2
-20
-50
-64
-63
20
-54
-2
68
12
37
20
14
-16
-33
-5
23
8
2
-47
6
34
-49
-3
-33
-15
26
-37
22
59
38
-22
3
2
21
24
40
-7
12
-1
-18
33
-6
-5
10
66
-14
6
81
-12
39
-10
3
-19
16
14
-36
-25
-44
-13
-55
-60
65
-57
0
-17
4
-5
5
-3
-23
-127
-16
63
-19
-1
-45
21
42
103
-33
-10
49
-79
-37
6
21
5
-10
-41
-47
77
-32
15
60
38
34
-19
-29
-28
-93
2
22
-4
25
-40
10
27
18
-9
101
-25
-31
9
-11
38
28
-22
20
9
-3
-8
-20
-33
-36
-14
35
12
13
-115
22
-110
-16
-4
-36
18
19
22
61
74
-50
-8
7
7
15
63
-43
23
-4
-66
23
7
-3
-23
-28
-17
21
-85
-76
6
49
0
-55
42
-36
-21
74
-13
15
17
50
-21
-7
-65
-7
-7
-44
20
20
-16
-24
-23
-49
30
-1
-7
-40
73
2
0
-27
-4
1
-13
62
-41
-23
-43
-5
13
53
-1
59
-9
-4
-50
16
10
75
-32
44
-9
33
-32
-31
-18
4
44
-48
4
2
-16
-8
6
41
15
-26
-14
11
-71
70
-4
2
9
24
-15
25
37
3
-15
-19
22
74
53
52
24
67
12
27
-82
-6
-46
-84
37
-10
-8
-66
51
-63
22
-59
91
52
6
51
46
3
106
-30
-29
-50
-78
10
21
49
22
-29
-21
-59
76
-118
1
35
-35
7
8
55
21
111
-21
-70
89
4
22
13
-27
20
-28
-126
43
-65
-68
127
-104
-121
-2
63
47
-101
-127
102
6
31
2
-27
71
98
101
19
9
-38
36
-12
26
-127
-15
36
-22
-27
-8
-1
-44
6
5
-28
-40
-107
-4
6
127
-41
-14
20
74
91
-26
-127
40
-22
6
-2
-52
127
11
-14
79
-8
-89
-9
-61
-104
2
-75
20
-56
16
-32
-33
-2
34
-112
-43
94
-52
-17
-51
-11
-22
-34
-13
7
5
-23
-41
-31
127
0
-82
-44
11
1
-9
-18
15
-85
-10
-16
-24
-75
127
41
7
23
42
31
119
-22
-5
-6
43
-13
-51
1
-2
-35
-37
73
6
-59
-82
-30
-30
18
38
54
27
-27
41
34
17
70
1
-94
23
23
30
2
20
-21
39
23
8
-13
-8
-11
-46
-34
104
-79
-64
35
-53
-64
-104
2
-14
-59
35
-33
-25
25
20
53
50
4
35
38
4
-18
7
-86
8
25
7
-35
-25
-19
-6
-117
-127
-23
72
64
18
-16
-49
-3
-23
64
19
-122
-45
-19
25
100
16
-37
20
23
8
37
-33
-64
110
49
45
25
-64
9
-19
-10
-48
74
-37
-56
18
-6
-2
95
37
29
-24
76
19
50
-5
59
12
43
6
127
36
127
127
-30
99
-3
48
-32
60
-116
31
-97
-37
14
-127
-10
46
-34
12
45
78
49
4
20
21
-71
-58
-26
-13
-21
115
-100
127
-23
92
92
-37
5
-22
-96
-34
-3
-11
-14
-17
-97
-16
-82
-15
33
-34
111
-41
-52
-21
4
-39
-24
-71
-127
7
-127
-43
9
-11
26
66
-70
31
64
26
47
-27
11
8
47
15
-16
-13
10
9
4
-96
71
23
21
-23
30
-12
1
-96
102
-10
-106
45
-23
-54
-39
15
92
57
-23
13
126
-20
-21
7
7
2
59
-24
122
0
33
9
-104
-55
100
-4
77
-126
40
-61
-27
-41
-9
9
-11
-26
-18
-49
49
25
11
-29
30
83
34
23
6
-17
-26
44
-19
45
15
16
79
33
-39
38
-38
32
9
-127
45
-101
27
-62
41
-125
-16
-63
36
2
-36
4
53
-30
11
-26
-57
3
-20
-3
-43
-26
-17
23
49
-28
36
15
-15
27
-67
-60
-17
47
2
-127
-18
57
9
-44
-61
89
-58
43
-50
-30
30
12
-62
-10
25
25
-127
37
-30
-1
127
-19
-55
28
-1
-19
-42
-51
-29
8
33
-25
-18
-13
127
101
92
-94
7
-41
-42
71
27
17
-32
-56
127
-20
23
127
-24
-38
-12
-65
-6
-6
16
1
19
-94
22
44
-20
26
-21
42
-31
110
-50
11
3
-55
51
56
7
-28
2
32
-1
16
-46
55
-28
13
14
12
1
21
9
-24
-14
-41
-13
15
-12
-49
-24
-34
-6
-2
-21
-13
4
0
21
69
-35
59
-18
123
-45
-11
-41
99
-1
-106
69
127
76
-13
-74
-116
127
8
-39
-38
1
-57
35
-67
-6
-6
-23
-3
13
96
37
35
4
-2
-35
-34
-15
2
-40
-23
27
-43
-22
5
85
11
-105
93
102
-6
-26
42
57
55
-127
32
-51
-66
-14
-28
-49
-26
47
78
-70
-1
24
3
77
-68
-72
47
-9
26
-20
25
46
-86
-12
-22
-65
4
-69
83
10
33
-20
22
10
99
-60
-127
89
73
102
-17
100
15
-127
26
-10
-35
66
-39
1
5
77
37
-103
-7
9
22
14
-12
-22
-35
-127
-61
-9
-3
-89
-76
-92
1
-53
4
-40
19
-22
-5
26
8
40
-3
9
-37
15
-100
21
9
8
-122
-74
-127
63
-58
-13
24
-5
127
49
3
12
-127
31
-1
14
-84
-53
-40
11
7
14
-31
-4
35
2
48
-42
-25
-47
48
8
-94
-11
-14
30
-14
-12
18
53
1
30
-16
109
5
42
65
-71
28
64
-29
-8
1
-8
15
21
1
-127
-7
73
103
-1
-27
60
-32
-46
-25
-99
-103
33
5
52
-4
14
-32
-3
15
-33
28
24
-3
-54
17
-3
30
-45
-16
36
36
-20
-32
-20
68
109
-34
60
18
-14
15
-53
34
-21
26
-127
-34
20
4
91
-77
-83
2
1
-86
-39
54
-9
-126
-20
40
56
14
-52
-72
-56
-2
21
-47
-49
15
-94
-30
12
-8
56
-127
-60
110
35
-127
34
-39
-127
-85
-85
28
-83
-125
49
106
8
-105
-92
-92
-68
30
-42
-38
39
-30
-24
10
28
-52
-11
-38
67
-51
71
96
55
-24
-43
22
76
-40
-53
-7
36
-44
0
-122
43
12
-38
127
30
-16
-45
87
16
-26
41
-40
-22
31
-13
18
2
-59
96
24
12
-49
127
10
10
-5
56
-4
70
22
-2
-33
-5
-13
18
-60
81
-38
11
-8
6
-40
-5
-4
-127
-14
-73
-18
58
-5
-61
13
-24
-17
31
49
-34
-22
80
38
-34
16
53
-40
27
0
-108
107
89
7
33
127
3
-8
110
-16
-127
-48
0
105
51
6
30
-3
-21
-3
3
49
10
16
6
-15
-38
106
-2
-56
29
-8
8
-127
12
20
-36
-57
-24
-127
-12
-19
18
60
-33
-32
17
-42
-38
5
-3
-127
33
107
35
44
20
1
75
15
-79
-45
-52
24
-53
-41
15
-17
-27
-42
-31
-46
-29
-15
52
45
67
71
71
-51
-35
42
-28
17
13
13
-2
110
110
13
-27
120
-51
35
-127
6
81
50
2
126
10
-53
-2
50
-127
-54
77
-86
-10
-107
-28
-69
-8
25
55
108
-27
-69
-73
8
-96
14
17
-69
14
47
57
35
-39
-1
-4
-1
111
59
84
37
-20
-16
-79
-18
5
50
1
55
3
-15
28
-30
-35
89
18
-49
-15
-16
-17
59
6
13
-10
124
-27
15
-1
13
-2
-127
-21
73
9
26
-8
42
19
-50
-20
-85
-2
42
29
-26
0
32
14
51
-11
37
-24
59
-10
77
11
-76
-80
4
-63
-34
-127
65
-51
60
28
30
21
127
17
-27
-4
-19
6
-4
6
14
-42
47
-57
-17
37
32
0
35
26
7
11
-6
-18
127
-11
-48
76
90
-51
-84
-69
26
-31
-46
-87
61
-127
-54
-112
1
-50
-44
-81
65
84
3
-68
-55
12
-75
83
-115
-82
-24
-1
36
55
-37
-45
122
19
44
-4
4
70
-3
40
-16
-37
-18
-127
-67
45
22
-63
-44
-109
-127
41
25
-41
33
127
-46
2
12
-27
-6
61
-14
-38
61
-45
-83
61
27
4
-3
34
-23
29
-68
-61
-24
-76
-42
-104
87
-63
13
-113
-7
-34
18
11
-33
-35
25
8
-5
-22
-17
30
-110
25
-25
-91
9
-15
78
-2
47
-32
11
120
12
-127
25
29
-35
-22
30
27
-25
27
40
-27
16
-40
-62
48
-3
-70
-1
-3
9
48
62
42
-11
-39
33
15
20
-28
-2
116
-6
-23
-3
-18
-13
-61
-12
57
-15
-26
16
-40
44
67
21
-55
-6
36
46
-52
127
-35
-63
35
123
57
3
126
0
121
16
15
-66
61
5
34
27
37
-7
19
-36
67
-2
51
34
18
-19
-105
77
66
44
88
66
28
43
127
-8
-6
23
74
21
30
-20
26
20
33
27
45
-40
68
27
57
-54
44
-49
33
-99
-31
37
-30
5
44
35
6
-40
79
-8
-71
-2
-2
8
-46
7
18
-23
-83
42
-88
-17
-108
-92
127
104
-94
-127
46
58
127
54
55
67
-76
-17
58
67
-83
81
10
-43
-2
6
38
-23
114
-4
13
-113
-122
20
-54
-15
-80
-46
81
70
15
-60
-101
-23
-28
38
3
127
-22
71
-114
-127
-17
-127
-92
40
-7
-24
-7
23
-6
26
-12
-8
-28
44
-16
-32
-63
5
25
-41
11
23
-31
-18
-41
-28
63
35
-2
-15
74
3
-72
48
46
-2
-50
72
-7
1
80
46
-78
-1
70
53
9
24
-33
9
10
-5
20
-72
-6
18
63
13
60
49
32
-14
-127
7
-33
101
-109
-32
-37
-46
-88
-41
-62
-97
-3
34
27
-54
6
1
35
33
62
44
14
37
-86
-3
12
15
13
15
12
-39
-42
21
23
-18
22
16
-18
-5
27
-23
16
9
-13
-5
-22
-45
17
-104
-105
-55
23
53
29
53
-127
14
16
-64
15
-57
-49
5
3
-22
12
-11
31
63
23
22
17
3
-7
-3
-100
14
-127
-42
125
-127
-70
38
-127
30
49
-106
-88
-53
-88
-88
-88
92
-103
-127
-24
-61
127
-83
-81
-127
30
-109
-30
11
24
-37
-57
2
-8
24
-4
124
-101
54
-64
46
-29
-58
-40
-43
-3
59
-35
7
64
-20
101
-66
0
118
-31
14
-7
99
-5
1
13
-6
-53
-30
-67
71
29
78
104
67
-20
-17
1
27
-11
-8
-68
30
-1
-18
13
10
23
0
27
71
-1
13
46
68
9
44
30
-68
-41
13
-32
73
126
-50
-4
34
-41
-5
12
33
-28
3
-48
-108
47
26
37
-102
100
-92
-16
127
-31
-28
109
-8
-117
26
-22
-4
53
-14
80
16
-11
-15
40
-35
3
121
-47
-8
2
88
51
12
-17
-75
-70
-22
-7
77
56
-15
-40
9
-36
-21
12
27
45
-93
-7
-8
-30
-51
105
-35
-127
-127
31
-43
-29
2
-31
66
-12
93
40
-31
-27
-4
-43
33
28
-106
18
50
-12
-9
-15
12
-15
-3
-3
-48
-25
127
52
62
62
-80
-4
-83
-47
-80
86
15
-26
-23
-56
-103
-17
63
-23
127
104
-46
90
83
53
-72
-37
-8
21
-20
-30
-49
59
-4
-23
-50
23
73
-16
-127
80
35
0
62
-39
18
15
49
124
-2
-127
-65
-6
-9
-127
12
34
-14
8
2
-10
1
-2
-40
-69
88
97
21
89
49
9
48
-88
-18
32
-27
-19
2
-16
-68
10
-42
2
-40
-29
-28
-2
-37
-89
-32
-4
31
2
42
4
2
-127
44
-4
28
-36
-15
38
-90
-1
-40
6
89
-24
-8
9
22
-80
16
70
-93
-2
-112
-82
29
46
-29
98
-44
24
-61
-102
-121
26
-5
-6
-56
2
-21
127
-19
-7
-18
1
42
-26
-15
20
-32
14
-61
-39
-9
-83
-84
19
-62
92
-70
9
-9
-24
-98
-16
6
57
3
39
73
46
17
38
-78
-108
16
-9
-19
-72
81
29
-38
107
12
-23
-53
-64
-24
32
-43
-14
-11
-4
-12
31
9
9
-13
55
127
68
-28
35
127
-60
-40
127
-22
-64
71
-46
-43
51
-71
112
-53
-7
-16
54
-108
81
-44
-20
-4
3
57
22
26
47
-5
-119
7
32
-11
32
3
51
3
-32
36
17
65
-27
9
-18
-12
83
-57
127
-43
-110
-66
41
121
41
-17
6
-85
-2
-11
119
-15
-88
4
-13
127
-7
41
18
10
-12
39
34
-21
-11
19
1
-47
12
-27
-41
63
3
7
-122
-28
-17
9
1
-39
-1
42
3
43
17
-47
-10
5
10
17
-48
51
-19
4
-8
20
21
-55
-3
-18
84
45
-53
25
127
-18
-70
127
-39
-37
100
26
-97
-48
23
-20
-50
82
-4
-19
42
-49
37
-2
-40
8
2
12
-21
-124
-26
-74
-18
64
-27
-77
4
-64
-127
-23
11
-10
-31
-9
31
-12
-36
49
90
-84
69
37
-67
-72
82
-47
79
18
53
39
-90
77
25
14
114
-68
42
-18
-8
-122
-8
56
8
14
57
-6
-56
1
-60
27
102
-63
43
127
-30
-48
122
23
-120
127
-55
-47
-48
-46
3
13
-10
87
57
-68
-81
-65
-100
-1
114
35
-30
-3
-54
5
-18
61
-40
3
1
31
30
84
121
13
114
10
52
67
21
25
-21
-3
-127
-41
-127
67
124
-79
-5
-127
34
-36
-38
-17
-8
-127
23
-64
-26
-31
27
53
14
93
-60
-48
-45
-13
-98
-16
86
-33
8
32
23
-44
-95
-17
60
-59
0
6
18
-63
59
-34
-79
-55
-3
4
-21
-13
0
-34
-18
111
-85
-44
47
63
13
-8
-32
-44
-64
-24
-32
33
-71
-25
127
-82
19
92
-54
-58
40
-80
-105
44
-10
-74
5
-13
27
-13
-43
-31
28
65
15
2
0
8
17
13
59
4
-1
-40
-6
23
20
-14
24
4
-10
-63
-50
-30
-53
9
-13
-127
91
-2
-5
1
61
48
-19
40
3
35
4
6
7
-68
-35
30
-55
24
39
51
-45
78
-9
-66
27
-28
-8
-34
19
26
10
21
32
127
-36
-14
5
101
-8
65
45
2
-53
-16
-6
42
42
-19
-28
-30
17
-23
-49
-66
50
-17
-22
-15
6
-5
50
-55
-17
-11
-56
-8
54
-127
-44
127
5
-66
31
10
-24
26
-22
-66
12
-22
-41
-89
127
-85
-19
2
-127
-38
-10
-3
0
-27
-96
-25
-25
53
127
-29
2
9
127
1
-39
41
-10
28
19
1
-26
39
26
-19
19
-72
5
-3
21
-32
-8
-11
-11
34
-1
13
-86
-65
-3
-34
26
21
24
60
31
-15
-36
41
14
-38
-13
-35
16
71
-14
46
47
46
-84
58
-4
5
118
57
-16
103
28
67
-50
-41
-18
-28
25
-28
-20
-100
-22
19
-14
35
-8
-10
-4
-33
-44
-7
-5
11
74
38
-43
10
-5
-32
2
57
5
17
-17
-34
-38
-84
-23
6
-4
13
55
34
16
3
-23
-42
-85
113
16
33
25
68
-21
22
62
70
-16
16
57
-9
-9
4
31
-5
-6
83
3
57
-26
-98
7
-109
33
-16
13
59
15
-127
80
36
-127
32
-127
-127
-62
-34
91
14
-19
6
33
-120
127
16
13
-25
-35
-43
30
0
-29
-7
127
127
-5
39
62
-89
-66
-71
22
-13
-15
69
4
28
46
-62
-40
95
81
-122
39
-32
0
5
-12
64
-8
106
-12
-28
4
-32
21
77
27
48
-2
62
34
2
-43
-44
20
75
11
33
33
-16
46
31
-37
-66
-40
1
-28
-31
-14
-18
7
-12
19
53
-18
-9
-31
49
41
0
-11
-18
28
-5
-16
-32
-37
27
26
-29
-20
44
19
28
-35
-127
-8
-12
19
-35
12
-53
-77
-6
-77
-19
-91
-19
25
3
98
22
15
23
27
-22
9
2
-8
14
-20
1
-3
-22
-15
-18
-34
22
-27
-9
8
-37
-19
-77
-5
-65
10
10
17
-50
-54
22
42
-28
127
31
-95
-91
-3
42
53
10
23
14
-39
111
13
2
57
21
14
-13
-42
-127
-7
39
9
-3
-3
48
-26
4
45
28
33
127
15
-19
-66
-22
-26
-24
-7
-20
13
-127
55
-70
13
-48
-41
-41
20
10
-44
-29
-31
51
44
-16
6
-14
71
-11
-98
-28
-34
-100
-27
-64
1
31
22
6
71
-54
18
104
11
-18
-127
-127
30
-72
40
-15
127
-28
-5
-12
50
-49
10
-5
39
15
-67
26
-13
-50
46
-11
-18
42
-42
15
30
75
28
-6
38
5
-3
-22
-27
-3
-36
-2
68
-33
-38
-9
-127
18
14
7
-32
24
13
-14
-42
-20
-21
-43
31
-39
31
22
-30
74
-15
-27
-38
-24
110
108
-29
108
-7
36
79
-54
26
54
104
-90
-10
-2
-69
-43
-24
-11
27
70
-22
-9
63
5
-34
-6
-17
-23
-34
-35
-5
32
4
-24
-21
68
-21
2
42
2
42
-127
48
91
54
32
13
66
-67
92
78
-127
-83
-16
-29
-4
4
-50
79
69
-37
-47
-42
-5
-31
14
-6
12
26
9
37
-28
-104
20
-10
-81
38
43
-35
-20
84
86
-69
-44
-83
-110
-21
-127
126
88
-85
105
7
79
-29
-71
22
102
69
-58
78
87
-1
-38
-60
-28
-14
-52
28
-22
33
16
127
-125
-79
-4
44
26
-56
-56
-54
64
-1
-71
37
127
-10
-77
-33
85
-127
-58
-1
10
42
81
38
-16
37
31
127
9
8
15
-20
-74
-29
-8
49
-60
28
-54
46
-23
77
-9
33
7
36
-11
-46
10
78
44
-26
27
127
-50
-32
-35
-37
-16
-7
0
-66
18
-45
59
15
-70
-120
-20
29
4
14
-31
4
102
11
27
-64
11
-14
71
-124
-37
-19
19
41
91
-8
9
10
-14
-28
10
-32
12
7
65
-8
-72
-44
2
-2
26
20
43
6
-7
-33
28
-30
-15
-25
-2
-61
16
21
-27
-36
-9
-11
-84
-32
-62
5
0
-27
29
9
20
16
-69
32
17
-59
12
-21
-47
36
2
32
30
13
4
28
-127
40
-3
39
2
-21
5
34
-50
13
3
24
-26
-57
0
-33
-112
-106
31
-25
-41
11
-2
-7
-2
3
4
-33
-5
11
-4
1
-51
-64
-46
51
3
-36
27
1
51
-81
28
15
-31
36
-14
-14
54
11
12
-11
22
15
-17
127
61
-21
-14
-127
-127
-39
-42
23
19
-11
3
12
32
24
14
36
-23
83
16
-25
22
-10
-21
7
-5
-39
41
-51
31
-77
39
3
67
23
25
10
20
39
-33
-1
-52
-53
26
21
-14
-9
-13
22
-68
-49
-127
46
-27
-10
15
16
12
-22
-7
44
0
13
0
9
-30
-61
-32
-10
-2
10
2
-6
0
8
-7
-48
-15
-3
12
14
-10
45
-12
44
6
-27
32
-2
-44
65
-11
-13
21
0
-9
-40
-80
-25
-22
-90
-48
31
-20
-19
-78
51
10
20
3
16
1
47
42
-53
-27
59
6
-21
-33
16
47
-39
-71
2
-12
38
16
-5
-15
-6
1
25
4
-14
8
20
-3
-51
-44
-5
7
-25
-3
-13
-50
-24
-9
-43
5
29
-30
-5
-23
-70
19
15
-12
-31
25
21
21
40
9
-2
-17
55
3
-1
-22
-44
-27
38
-4
-56
52
-15
48
3
-57
-15
31
-6
-39
40
48
-2
-14
13
21
75
3
10
105
-59
-22
5
-19
-20
-23
7
19
-18
12
10
31
-7
-5
24
-27
-25
6
-2
-11
8
-24
3
-6
-63
-29
-10
3
-4
-25
-88
-57
41
-6
26
31
82
37
12
17
-5
-15
-21
26
-23
11
-25
18
10
3
-15
21
-26
-54
16
-30
-18
1
-8
-39
-12
17
26
25
-50
9
43
19
-53
-74
4
-15
-12
-20
-8
-1
12
-16
4
-15
30
4
-13
22
13
-23
12
31
-93
-4
-16
10
-36
2
-5
9
23
-2
-19
5
-4
30
41
49
-40
-39
-20
-23
-44
-14
20
-44
31
-30
-10
-5
4
-26
6
13
-9
-85
-30
-11
48
-38
-5
-53
-53
-44
-29
5
-37
27
-4
-58
50
-24
6
-23
-24
24
-8
14
-4
-4
-35
-21
-52
59
32
-62
21
15
31
22
-30
6
-24
-28
-32
-23
16
-14
-35
-22
-21
43
57
-30
-7
-9
-11
-59
-18
-7
-17
-19
12
-32
-32
16
8
-71
24
-14
-50
11
-17
54
-5
-13
-54
12
28
-15
-29
26
4
-6
45
-36
3
5
-1
27
20
-39
-29
-25
8
-1
-18
30
0
-108
4
1
-29
5
41
13
-47
-7
-43
-2
19
-17
-71
-16
-6
25
6
28
-4
19
-24
24
13
67
47
21
8
27
7
-5
6
-107
-62
-27
-9
4
50
18
1
29
82
-4
9
27
-1
-8
0
-18
-48
-4
40
-17
-15
17
56
-51
41
-4
-27
-82
-28
22
-5
28
-6
-18
-15
-22
18
19
-7
-36
37
-16
-16
61
-12
-82
-7
15
-80
36
34
-23
-20
-17
-3
69
45
-15
48
-37
-48
16
-8
38
28
-4
-13
6
-32
34
3
64
33
-10
24
-24
7
15
-6
-62
-51
-22
4
-10
26
19
-1
42
-31
3
24
55
-57
24
-3
-12
41
2
-23
-17
-23
5
29
-20
-19
-27
27
0
1
-66
1
-5
4
-2
-32
12
-40
-41
10
-28
75
3
-19
25
-20
-59
-3
61
-46
-25
3
-13
22
23
10
-37
-91
-3
13
33
-16
-47
-16
51
-19
1
56
-30
-22
19
16
13
-25
11
3
-17
-5
-24
10
-84
15
-5
2
21
6
19
-23
-73
-58
-25
-4
-5
4
-3
19
-30
15
-5
15
29
-6
-65
34
-121
-59
3
-12
59
37
-5
-1
-78
74
-23
57
-24
16
18
18
43
-6
-34
-2
17
-12
-2
-16
64
-43
2
66
88
-27
-3
-18
25
53
5
-56
67
-18
-34
-5
-38
-15
-3
-38
22
17
29
3
13
43
-20
-55
11
-22
46
-19
11
-25
-2
-36
-2
-62
84
-22
-42
11
1
-27
23
-30
-3
6
-6
32
11
24
12
-28
15
-11
-5
-4
8
-13
-17
-13
20
-16
24
52
8
-55
15
-8
-29
0
-22
-127
-96
-10
10
14
12
-41
-48
48
19
-31
0
-22
-3
18
-3
-33
9
23
25
-15
-30
20
25
107
23
16
-15
7
17
7
20
-111
-57
-34
-23
-13
-1
-14
81
-57
15
-32
-17
21
42
11
45
113
4
39
5
4
3
10
90
71
-81
-19
32
-8
21
-10
-15
43
8
-23
12
-5
50
-8
3
14
9
-21
-25
29
35
-19
6
52
-7
-13
15
22
12
0
24
50
19
-9
-18
-14
7
-21
36
-1
-8
-5
70
-2
22
-6
1
-76
-1
44
10
-21
27
1
-79
36
-45
13
1
-51
-3
-3
-30
94
-29
-26
-63
127
-127
11
-17
-37
-1
-31
37
-1
-45
4
-43
39
4
-45
5
-8
16
-2
-52
-111
-28
27
-8
-22
17
25
-18
23
10
-27
20
-26
-5
-25
-50
1
12
-60
11
57
-35
15
102
-101
100
-10
-3
33
3
25
-34
-18
2
3
-4
15
-7
10
-54
-69
-36
34
-3
-3
13
-9
11
11
-64
12
25
33
27
-16
3
7
58
-12
25
1
59
38
-65
12
7
22
2
28
0
-10
-31
-4
-14
-15
10
30
54
-25
19
-36
14
-20
24
51
-10
-21
-9
38
8
-10
41
26
-27
1
8
-10
1
-11
-11
0
22
-2
-25
96
46
5
20
10
-22
-6
-14
28
29
5
-14
1
12
-15
34
-54
127
12
-127
41
16
14
19
-14
20
-19
-13
-14
11
-7
-14
-38
-3
-16
18
25
-16
78
32
-64
-37
-127
3
-36
-21
-17
-50
-53
-14
-8
-42
34
19
-4
13
-20
-41
31
-52
-13
9
-4
35
-65
38
-41
-33
-8
-59
-3
-19
-54
24
-1
31
10
127
63
-50
27
-30
20
7
8
-30
-4
-25
71
-20
-9
3
-50
13
-43
12
-37
35
-34
-19
79
-14
-127
72
80
-9
-25
90
-55
-10
76
4
-44
11
-26
-16
85
0
126
21
66
-39
3
-45
109
-8
9
25
-38
13
-20
-29
-26
18
18
-2
53
-15
-12
-41
4
17
3
-1
-1
-10
-9
-3
8
-15
14
-33
86
59
-21
-21
5
23
-8
21
-38
-18
-6
4
-15
-9
16
-14
-45
-17
25
-27
32
37
-14
13
39
46
-14
-6
5
19
24
-59
-78
-10
18
-49
20
-20
-16
-64
33
28
30
34
31
-9
17
4
41
44
8
-20
-6
8
62
14
-68
10
-27
37
110
-17
-26
-6
42
109
-26
-2
19
-80
-8
34
-21
-25
-8
10
72
-3
-9
15
37
16
-18
-6
7
16
3
33
-50
53
6
-2
42
-74
28
35
68
34
-36
-32
32
-19
-11
-52
-29
-22
2
12
10
-7
4
-31
70
20
-5
-1
-31
-5
-19
32
23
15
-15
10
7
-17
-23
2
-27
-27
5
35
13
-43
-15
-36
-41
-17
1
-17
10
-8
121
-2
40
33
9
-13
21
55
-6
13
-67
-14
7
6
-32
0
42
-24
-108
24
0
-26
7
0
-11
16
27
23
2
2
36
11
-16
18
18
-26
-4
21
15
-3
21
-40
35
37
-16
37
-64
8
91
-22
-3
38
1
-25
49
25
-17
7
-10
21
-12
12
-4
-22
-19
-14
-26
-60
-24
-47
20
18
-1
25
46
-6
-2
-19
39
5
-34
-13
21
27
-26
-9
62
6
8
-21
45
-17
-16
2
15
-10
-11
92
94
48
7
43
7
16
-8
3
-79
-1
6
8
-21
5
-16
27
-31
-19
-10
25
60
73
6
26
-52
-3
21
22
26
81
23
7
-22
12
4
51
18
4
120
-4
-16
-14
8
26
100
37
64
16
-70
-3
-21
44
104
-12
41
-19
-23
-9
29
44
-76
14
-4
42
-38
63
-6
-2
30
-39
4
19
-63
-37
22
-1
-6
24
-22
18
-40
-46
-34
-11
-14
88
-12
33
15
50
-4
-41
-16
29
-2
-12
39
-55
-1
29
32
7
6
18
37
33
16
-38
-50
-10
25
-127
-89
-82
-1
-24
-52
-32
55
21
-64
25
-32
29
98
-16
-20
31
-127
-29
7
27
25
14
17
64
-40
62
34
-4
45
2
-27
18
69
-19
5
11
4
-37
-51
18
-20
23
-14
-24
82
15
6
52
-48
112
3
27
-31
-3
91
-21
-28
35
-26
32
87
-3
6
30
-52
53
5
16
17
-53
24
-43
-76
-2
-7
-90
-59
-5
-4
76
-18
103
15
-50
42
35
16
-5
-23
19
-5
-17
4
-2
-7
23
-11
27
-1
26
-3
5
-9
-16
39
-20
3
8
4
9
-1
2
-24
48
-18
9
3
-24
5
41
-64
-47
3
1
-5
-20
18
3
-9
31
-21
-8
-34
17
9
30
-74
-2
7
22
24
4
-2
-37
44
-2
-2
13
-34
22
-22
22
-95
-16
1
-32
0
-6
-4
1
20
-26
21
-13
-59
28
-2
62
-24
-38
14
73
16
-6
1
-12
78
-43
17
8
7
-62
2
-25
19
-23
-26
-56
15
-11
0
0
-19
-37
11
49
5
-15
17
-26
104
20
3
14
3
55
34
-21
8
-10
6
-53
19
12
-30
-10
-10
-29
7
22
23
-18
103
-14
0
31
13
23
60
51
-9
-9
-24
-41
3
-24
-6
-40
70
-11
-8
-20
8
-34
41
2
12
12
14
-78
-4
53
19
-16
6
7
37
-4
-20
-15
26
-113
9
38
-34
-12
-8
-38
-6
1
-31
-20
-64
29
-32
-13
36
-11
53
16
13
15
20
-84
16
-53
53
26
-123
10
-3
-11
46
14
-6
0
-14
10
-5
18
6
-21
-8
-3
-32
47
-12
27
-3
15
27
17
-106
-55
-1
-24
32
-11
-6
-21
21
-42
0
39
16
-7
43
-1
7
-38
-7
43
-96
-2
32
-25
-24
-26
6
-64
19
-12
121
-4
72
-22
7
-30
-1
-47
3
10
-38
-20
-19
-17
7
-8
8
34
-55
9
-1
-19
-4
-1
60
-41
50
17
8
-57
40
35
28
-18
-105
-30
8
21
15
-30
27
-4
-58
2
-31
11
-66
6
18
-105
-3
-3
-11
-24
11
21
5
-68
-16
-25
2
-22
-34
-19
79
8
56
24
2
-36
45
33
-19
11
-69
15
-15
21
57
1
-23
38
-37
12
18
-28
18
27
-14
39
-74
-9
27
-5
-21
27
-96
12
104
-94
-84
-59
-127
-2
-6
6
50
23
-11
17
49
-32
-20
26
-70
31
-14
5
79
-39
43
-9
-57
-118
-10
24
-25
81
-17
-34
37
51
33
-99
14
26
-87
-11
45
-32
3
-4
-14
26
-28
-17
11
10
-5
-22
25
40
65
-6
2
66
-11
-97
-7
7
89
-21
-4
105
-5
-127
7
15
-2
-3
1
13
38
-7
9
-17
-22
-2
-30
-14
-47
14
-27
38
-38
-28
-16
-22
57
2
24
8
35
61
-27
89
45
9
-11
26
27
2
30
65
9
-38
61
3
95
-8
-33
72
-19
-68
12
10
-23
-24
4
64
-3
-70
28
-25
16
-29
-23
-29
-4
7
63
14
10
-69
-116
17
-127
3
45
42
13
30
-47
-120
0
58
33
-109
-39
-36
-10
-10
-23
-29
-50
-82
-48
24
-86
29
25
29
-35
1
-82
-27
42
-63
-50
16
0
-16
-62
-14
51
-7
71
19
127
-19
98
-35
-56
30
-29
12
-38
-15
29
-32
15
-3
6
-13
4
52
37
-15
-32
41
5
1
27
-27
48
4
-15
-25
62
-47
75
40
-5
3
4
-50
48
-31
-1
10
-68
20
-70
-15
-19
-27
10
4
-88
61
-13
12
-1
45
16
-107
-84
-11
-64
45
-39
-32
-17
-8
127
39
-111
63
-7
35
-51
40
-34
-83
43
6
-1
-90
-17
50
-21
1
-57
-41
-41
-13
38
8
-37
-10
62
76
55
-15
-33
9
-74
-25
-48
-33
37
-8
-7
58
-46
9
28
-51
-13
-4
69
-9
-28
4
42
-66
-5
28
84
-123
-2
25
8
58
-4
-47
54
-24
-7
37
21
108
-32
-80
24
41
-34
-6
22
-34
17
7
60
-119
-51
-54
-67
111
-71
70
59
78
-103
-12
63
-21
-1
11
100
1
-9
-5
-41
-39
8
-7
2
-18
-50
-16
-11
2
24
-12
26
8
-75
53
-74
-81
-75
-1
-48
-31
37
-31
14
26
32
61
-18
12
14
-51
11
85
23
-27
37
-86
-90
-25
6
69
-37
51
26
29
-110
40
-75
1
-30
-6
14
7
14
-18
84
61
-43
-8
-32
14
25
-34
-4
-23
-16
-2
-11
8
-14
-2
6
43
25
36
5
7
43
-37
29
-48
-18
11
-5
-13
77
11
33
17
22
-70
28
45
75
32
-8
25
42
73
13
-35
49
-34
6
14
5
-118
-4
-5
-28
-8
-8
-3
-25
-54
26
-6
85
15
-32
-104
-67
1
37
-44
-1
42
-80
36
6
10
-10
4
-46
32
23
68
86
-22
-27
37
-31
2
21
-86
-14
-10
51
67
-2
12
75
97
-10
-10
7
58
7
18
5
50
-17
-53
-17
25
29
-23
28
13
52
12
-19
-21
-38
10
4
-29
2
-4
56
7
17
18
-45
-54
-55
5
-16
-30
-20
23
24
-18
-38
-2
3
-29
63
9
-22
45
55
-18
66
-7
40
8
-15
-28
-3
79
1
49
27
-62
24
98
35
5
27
50
-74
-50
22
-23
-12
9
29
-13
40
-25
5
-24
27
73
70
-23
14
-28
13
-57
-93
-9
23
-14
-1
30
-17
30
-13
-4
39
32
-84
-83
-68
98
-69
-2
16
-8
-46
62
-34
11
-16
34
-63
26
-41
21
53
56
14
-18
-20
31
-64
-6
91
87
45
29
113
15
-77
114
20
-116
-20
83
-52
17
-24
-10
2
1
15
-27
14
18
-78
41
-54
-20
16
48
-6
-10
69
-32
13
50
11
125
-4
0
81
-82
-61
106
-19
60
17
127
16
25
127
-6
-18
-28
-24
8
-18
-13
-4
59
42
-74
44
-22
11
124
-39
98
-19
-4
47
-4
-1
9
-85
-1
-57
-34
-13
89
-83
31
54
69
95
-33
21
-9
3
11
63
40
36
67
26
17
-97
25
-34
4
-16
26
0
68
3
6
10
28
-26
-20
-22
17
32
7
-21
38
100
-5
-26
12
80
-13
45
81
-3
75
51
27
-9
16
22
67
-7
-27
13
1
7
-67
31
-37
-20
35
56
-110
-106
75
22
-99
-63
-14
-50
-56
-76
-21
-12
68
15
-18
-61
38
42
127
100
-97
68
13
-31
-28
-91
57
13
-2
-42
0
21
28
-39
-25
63
-67
20
26
-80
-1
-11
-14
52
42
61
27
-12
-35
-108
-13
50
-61
37
31
-61
-17
-84
47
-33
127
-35
-19
17
-19
-18
-10
65
-62
-30
-2
87
-34
34
-38
30
42
-9
47
-31
93
35
30
-17
54
-6
-19
28
19
47
-31
-56
-56
35
-92
29
59
-45
-20
32
49
40
13
28
24
-83
16
0
62
70
13
52
16
11
28
78
-54
-5
-5
8
-16
34
-22
11
63
66
-83
26
19
-77
48
103
34
100
23
40
-2
-35
-10
9
27
18
26
37
-3
-65
7
-93
-21
-5
32
-41
-11
-115
-44
47
-3
-25
3
28
22
-22
26
41
90
52
-6
39
97
-22
-2
4
20
-72
-7
-32
-12
4
-28
37
56
16
-17
15
6
-14
49
45
-20
30
27
7
7
-41
0
-20
-72
-66
-14
98
29
32
22
33
18
-33
43
-6
31
-101
20
-19
-127
6
26
-62
-91
-29
-33
41
-63
-53
5
-43
17
-66
-30
25
16
13
-14
-5
6
-33
-2
78
-33
-33
-11
57
32
-38
-20
-30
-27
-26
-29
-44
18
-24
-18
4
-69
20
-33
13
-40
80
3
-108
48
14
75
-26
-20
-15
-18
-29
-87
43
-21
36
-54
-3
9
33
-50
-20
-17
73
-28
43
70
-35
-11
73
-76
-31
40
9
-46
-84
-8
-31
-26
26
-38
-9
26
22
-1
34
-51
4
-14
-30
42
127
9
-46
-49
14
-3
36
-10
-103
25
-67
-100
-17
-10
-24
54
105
-65
19
-24
-53
44
59
66
-72
7
12
-15
0
-8
57
-1
10
-1
-38
65
74
16
10
-81
-12
-32
42
-6
5
-19
72
92
8
-35
-18
126
34
75
-58
127
-10
127
80
-50
-34
109
11
16
107
35
-118
-21
-26
-93
-127
31
-41
54
19
44
22
-14
77
83
-120
20
-127
-82
-33
127
-12
107
-43
-30
33
-51
-16
-6
96
-107
72
-24
99
-48
-93
-13
-3
12
-8
35
-58
-5
24
-7
-104
-43
-94
7
92
-98
-127
-49
17
6
-21
-5
-74
63
13
8
14
-56
-1
8
23
35
-7
10
-20
54
-90
15
-58
28
-45
-5
16
-46
-31
-26
-89
43
27
-12
-21
34
47
-24
-87
127
-9
41
-85
-101
33
-10
-56
45
67
-9
-27
38
-42
-36
6
-3
-22
30
111
-14
-1
-15
40
-57
6
-2
123
13
-36
-1
25
-10
46
-35
8
55
31
-30
-42
-44
36
1
-27
-14
-63
-42
44
-28
27
16
31
10
38
-25
-14
-11
-35
-83
-7
-8
-67
-49
35
-28
3
52
33
17
87
-15
-47
-70
5
24
64
-21
15
5
5
10
-107
19
-65
-31
-61
38
127
35
-94
127
-22
127
21
-19
-8
-5
127
-35
-60
24
127
-37
-6
-28
46
124
-38
67
83
-26
40
-49
118
-63
0
0
63
-19
66
95
-5
-87
83
3
11
-30
-25
-68
-87
57
-78
-46
16
-127
9
45
-20
-40
-62
21
-21
9
13
40
55
61
14
17
-34
-32
-2
1
-7
113
-68
4
-54
18
44
127
-41
-47
-29
-47
83
-13
-35
18
-35
-2
-8
19
-31
-2
-3
-62
-16
15
-127
22
-11
11
-19
21
28
-1
-94
-4
-5
-21
-1
-51
-26
-68
0
-65
14
52
26
95
-22
-95
9
68
-4
-68
-11
-7
-6
-43
-48
1
16
-3
30
-45
79
71
-1
0
6
-26
22
47
21
9
-39
3
-13
7
-16
127
-47
45
-4
15
21
1
8
16
5
38
68
36
1
-127
-64
23
-30
-7
-7
-15
9
-20
46
22
8
-17
34
-67
-16
-12
65
-18
-2
61
-16
-4
-127
-3
15
45
-1
-52
-21
61
23
101
66
-41
127
-127
-127
-19
2
-18
-56
-21
-64
-89
-53
16
-35
23
-8
-83
93
77
34
-67
1
-48
-39
-3
-7
-74
-124
48
-1
-33
-36
-41
-44
-21
10
-3
-79
47
-1
9
67
38
56
127
-16
111
-4
-14
16
0
24
15
6
56
2
20
-19
-44
3
8
21
85
-127
25
68
-53
1
0
-22
-25
-7
8
11
0
-30
5
-18
2
-2
-27
-22
-26
-20
-11
-5
19
-70
-53
-14
34
-8
15
-18
-24
-2
127
41
-12
22
6
-14
-66
-29
-12
-33
125
5
-53
-28
40
-21
-22
48
28
-1
13
18
65
76
29
106
28
17
93
70
-16
-34
6
5
35
9
-68
67
-21
-3
27
3
57
70
-17
-92
-42
-8
44
13
-16
18
19
79
48
-11
16
-10
45
-6
-49
69
28
45
-34
-127
-27
0
-25
-93
-127
-10
-3
-1
76
-22
60
127
40
22
-36
31
-37
-24
-127
14
7
8
-65
-20
-121
4
-19
65
67
34
110
-31
96
-31
84
-124
77
-74
119
-10
127
-9
-62
-48
-87
8
-58
12
-16
-36
5
86
29
25
11
40
-20
11
-53
7
23
19
127
32
-39
127
37
50
53
-36
90
-13
-81
-9
39
-9
-29
127
2
26
87
-41
0
89
-36
-12
38
-10
39
14
43
4
89
-23
-24
-95
16
3
-60
-40
71
14
-6
-29
-9
4
-18
-43
-26
-15
43
-1
-22
6
2
-83
-54
10
21
-50
-5
-65
27
33
91
4
-120
5
53
-13
73
-15
34
-8
-8
-6
-11
5
-68
29
-4
-16
-18
-36
-49
-39
-67
-67
16
13
-60
9
-3
-37
-59
-17
19
-21
-2
5
-17
-63
-13
-2
30
-15
0
-4
-35
-39
-67
16
95
-3
-29
50
32
58
-24
20
-20
29
22
28
-7
-66
-127
-16
58
14
127
-60
-12
0
108
-127
-48
-30
36
-47
-45
30
-41
-53
27
28
-13
-10
-10
38
16
-12
85
8
1
21
-52
3
25
44
-57
10
52
-66
-85
12
9
1
-92
127
-21
-18
127
-127
-96
1
123
-11
-4
127
-48
-87
6
25
90
0
-80
-31
66
23
-37
-10
-108
30
24
127
2
-66
-12
2
57
-44
7
-8
-44
68
-25
-27
127
-17
67
3
21
84
0
21
-61
-5
-8
-30
25
37
39
-61
5
-46
67
2
-11
30
-86
-15
15
5
38
-6
32
53
-75
0
-4
1
45
-1
8
12
70
11
-9
-24
16
0
-27
52
42
-2
-45
31
2
-13
87
-42
8
-34
-14
30
-18
61
-30
45
36
-119
54
-1
-59
3
50
23
-81
88
-32
-74
26
-27
-75
-31
21
37
25
14
6
-26
-26
92
-20
-15
-52
-14
18
25
-8
-28
7
14
-28
-3
30
-61
20
26
25
-34
-6
-28
-34
-47
48
-10
127
78
-7
-35
25
68
-9
-3
-19
78
-77
-63
-46
55
10
-19
-22
21
11
-39
-42
-11
21
-24
28
-10
73
6
-19
-14
-12
71
3
-26
-127
73
127
107
-10
-5
74
-127
-56
-22
-67
-38
32
-86
23
81
-75
-87
40
-127
-17
-50
-23
-28
-43
-13
-31
6
0
-63
-14
-111
4
127
70
-112
-9
24
-18
29
-72
38
50
43
-5
13
3
-115
35
125
96
14
-127
-127
24
-45
-11
1
12
-2
-46
1
83
8
12
-4
60
-5
14
-79
40
-48
-3
35
27
11
5
78
-66
-54
65
46
-28
-28
33
-121
14
21
-64
-40
-19
37
34
5
-35
-55
63
-27
-37
30
9
18
-10
18
-20
-46
-76
-25
-7
24
13
-75
61
99
-67
-7
59
-59
3
1
-16
-127
26
-10
13
-4
-17
35
9
-30
-25
21
90
-7
-23
1
22
-29
-51
11
31
-15
16
-118
76
13
-71
11
27
-7
-6
63
-71
8
127
-121
1
127
-14
-61
-12
-101
-59
-41
-29
0
25
14
25
-39
-8
8
22
-18
30
-56
22
-1
63
28
5
49
-6
3
-39
-27
74
22
-15
3
46
-40
127
31
-40
71
26
-30
-10
-9
89
-10
95
-22
3
15
127
-29
-34
79
18
-19
50
33
17
-15
-87
42
16
26
6
16
-33
-9
13
5
-70
-96
-94
-39
33
41
-49
38
24
-26
-10
-16
-60
-23
36
100
44
-110
127
15
11
-78
15
15
-87
9
6
61
39
71
36
35
38
-67
5
28
-32
127
7
22
72
32
-26
-49
-12
23
-11
21
1
-36
-23
63
19
118
5
-12
8
3
-19
5
-22
104
50
-20
32
21
20
14
4
72
9
-37
-14
69
87
10
-61
-24
-29
87
-18
127
-61
-70
-69
-13
-33
-96
16
80
-7
16
6
-65
49
-61
-29
8
-14
1
5
-24
-21
21
35
-31
13
-14
-4
127
64
-24
-54
-71
-39
19
2
54
1
127
1
30
9
127
18
-60
65
127
37
121
-53
11
-127
-24
-127
53
-28
-61
-7
-17
-24
26
21
58
44
16
13
16
9
48
16
8
-19
42
-27
8
63
-97
-18
68
-63
-13
127
43
-14
9
-48
-24
-127
-32
39
-7
18
-1
22
-4
-17
-127
81
-59
-15
17
-11
-46
66
-77
16
17
-39
-84
68
-35
-114
82
40
-5
7
-28
18
-17
27
-18
17
12
-7
-5
103
-29
-7
-24
10
17
10
23
-48
-29
-16
-42
19
100
-51
39
-90
-54
27
-60
45
44
8
-6
-71
13
-2
-22
-28
12
3
-12
-88
-10
-21
5
17
30
11
-32
122
112
-22
-14
0
11
-1
61
-41
4
63
11
24
-9
-1
15
29
-82
83
43
-54
7
-89
-37
114
7
-45
31
7
99
-67
-10
-82
39
95
-11
-24
-32
-2
10
-43
2
-62
-32
6
21
-32
-67
68
-5
14
-27
5
-8
19
28
-11
31
-33
66
-29
-2
43
25
79
-127
-1
-16
-7
59
-83
127
127
-88
67
-127
-1
-45
-71
-14
99
112
7
48
-19
-3
-30
0
47
-108
55
-6
24
-8
-31
-28
-26
-65
-5
-85
-19
48
-37
55
7
81
36
-89
94
-105
3
7
-38
12
-111
105
-101
29
-36
51
14
-63
-7
43
67
45
66
39
22
-24
16
23
8
14
-8
-21
-12
-116
13
-89
36
-47
101
51
3
-41
-55
-35
127
127
96
17
29
64
127
-2
1
-43
4
51
7
-58
9
-3
-16
-25
22
-103
-14
46
-45
47
-19
15
20
-53
5
50
-10
-30
-37
-23
80
48
-44
-36
-42
-42
33
14
-49
-32
115
-13
19
54
-25
-8
-127
23
1
61
30
43
-109
-18
-59
48
-62
-8
-19
-31
-40
-31
109
71
-23
-88
-40
-40
26
53
0
14
12
40
11
-112
102
-54
-3
40
-5
16
-22
-23
-19
27
-21
27
-30
-24
-2
42
-12
-35
52
2
-47
12
-37
-11
34
21
-4
1
12
-68
-2
63
8
61
18
-16
80
92
14
127
36
-1
2
18
23
88
-9
64
37
51
2
-14
-35
-118
3
2
14
-56
1
14
8
8
-64
3
-15
127
-127
127
-69
68
127
43
-6
29
-17
51
-127
-38
-6
-21
13
-118
-22
-17
-58
-108
23
-39
97
90
-1
-21
-67
-110
44
-40
30
69
-77
63
-88
-69
36
-4
-65
33
-4
-5
2
-32
25
5
120
55
0
24
16
15
29
12
-127
49
5
-18
-11
16
10
-27
-11
4
-28
11
-46
-69
-2
54
23
-17
-6
0
40
127
23
30
-85
7
0
-5
3
-16
-5
52
-59
18
2
-2
8
-38
-3
17
38
-16
-9
-13
32
95
-8
15
-92
50
21
2
5
126
9
-30
-6
-48
-2
3
9
40
19
-21
-101
20
10
25
24
71
-74
6
2
9
-16
-61
12
13
10
2
5
21
-3
46
-47
21
0
-12
0
-37
-95
64
52
10
-12
39
-26
-29
-9
33
43
-11
8
-13
-5
51
-13
-18
-68
-14
-30
44
-44
33
-8
-91
45
12
-127
6
3
-66
19
44
-37
18
-44
-20
3
-87
-32
-81
-97
19
-5
6
18
127
48
40
-53
127
14
-127
127
-64
42
84
127
19
-36
-18
18
21
-4
5
-79
55
-17
-43
88
30
-53
-100
-36
-1
21
11
7
98
49
127
-64
67
-31
-65
44
125
22
-47
-92
2
-2
-7
-40
-5
6
-65
10
-65
-28
-17
20
-9
-59
109
21
14
7
-8
-12
-26
2
90
38
42
-58
-40
28
40
57
30
27
1
18
24
-15
-28
24
-14
52
6
-38
2
26
9
1
7
-3
11
23
-9
15
80
-127
9
112
-12
5
-18
-41
-36
66
2
-49
-53
-29
25
-42
59
3
43
-58
-58
-127
-4
22
11
-127
-28
33
-43
-87
28
-13
-18
18
-15
-104
17
30
-35
-5
-11
16
44
-8
-11
-3
1
-13
-46
1
-8
-127
15
-5
-43
-10
7
37
50
4
-26
-12
9
34
33
-5
-38
53
42
-31
36
9
7
72
-17
-44
96
-40
18
-2
-38
19
17
26
10
-19
-34
-21
-58
-5
-21
32
-50
-30
-60
49
42
-18
-56
-31
76
-49
34
-46
86
-6
28
-21
-39
-127
89
-17
-80
-14
127
-15
-50
-53
-47
2
9
-13
-18
69
87
-33
13
-87
127
39
93
-5
-42
-29
127
-49
-17
27
-68
-106
-53
21
-9
-80
-4
-22
0
15
127
109
-36
7
19
13
-10
76
-6
-35
21
52
-58
10
-36
-27
-34
9
-66
-29
42
-12
-4
-26
7
27
11
-35
20
12
-47
-15
-47
38
-3
12
-9
-22
-76
-51
-46
-45
10
10
-8
-24
29
76
54
-57
-2
127
9
-13
96
0
27
-35
6
43
0
-45
21
18
-104
121
-13
-7
-25
52
-48
-108
-46
-60
1
60
34
35
-33
35
12
1
-25
-4
-22
13
-40
-6
-3
-28
-33
-3
70
-7
-40
-10
33
-36
-42
4
16
23
37
-26
-36
-74
92
3
-10
94
2
-48
-19
20
-73
44
17
30
-48
31
19
21
32
47
-7
-83
-19
-23
-6
42
-46
-5
12
-6
-20
-3
-20
-3
33
3
-127
60
126
3
63
127
67
-34
-58
89
-105
83
32
-14
16
-44
29
-116
-127
19
-22
-61
9
37
15
7
52
-82
20
-52
-97
-36
-116
127
-6
-76
-76
-21
-47
11
66
-10
8
29
-17
16
-107
18
4
29
67
-127
-127
-84
21
127
-28
5
18
-29
12
-35
-127
-11
-4
-105
71
-19
31
-13
27
20
-22
-11
13
39
12
53
2
-29
-6
43
-10
0
-17
5
-6
35
5
19
-27
2
18
25
-37
-12
-56
-49
16
10
22
17
34
12
5
7
-18
34
24
-14
47
27
13
-1
122
89
106
60
-46
3
10
-11
-93
-110
16
13
-6
-26
-127
-1
-15
-52
63
-13
-11
36
-4
24
7
25
5
-15
-27
-50
22
-19
46
-22
98
-10
36
43
-76
33
22
105
-8
-38
7
7
18
-59
-59
127
-56
38
-20
-38
6
63
-16
71
19
-17
22
-39
86
72
-25
56
-14
24
12
39
-33
1
-105
7
-127
32
57
53
8
40
97
42
-37
127
-52
27
-18
-62
111
-19
48
-20
69
-90
9
-34
-120
-1
-57
-96
26
127
-29
-32
42
-38
67
-91
-25
73
17
-16
127
-14
-10
94
-69
-118
-13
-1
123
-2
-83
18
-127
48
12
12
93
30
-33
-4
34
15
-33
-16
21
-28
52
-20
26
-42
-21
-127
-21
-22
22
12
18
96
-4
-8
74
26
-26
20
-31
-64
-27
19
28
1
-25
48
49
1
6
-80
-47
92
2
-9
67
0
17
14
-39
23
67
1
46
15
-27
-26
-1
-69
18
12
-85
-58
19
-17
66
-28
-34
-48
-13
31
127
-12
27
37
-7
-19
-9
-25
48
-41
6
71
16
-8
9
30
85
-5
24
-76
-19
11
-25
-44
-56
75
-37
37
53
14
62
36
-83
-40
11
-15
0
-12
73
17
11
69
-42
39
0
-23
-23
-56
73
5
24
-83
52
-10
22
36
-48
-2
12
23
13
1
-36
26
1
8
-18
4
-41
-8
-105
-46
93
-127
127
-127
11
91
-24
-37
-77
15
56
-62
-22
48
104
18
-85
-1
-15
-53
-6
-37
-84
-14
-20
3
-8
98
-44
-20
1
47
-79
-89
113
14
-127
-46
-58
57
47
40
-12
98
-38
-13
-127
-127
104
4
2
-69
42
-127
26
-23
-47
48
21
-126
-20
-12
27
76
39
-30
14
28
3
-36
63
8
37
54
-4
-64
14
3
-15
5
-30
-21
36
-45
-17
-7
-49
-20
80
-4
25
-18
-7
12
-48
-13
-7
-10
-31
52
29
24
103
80
13
18
-36
31
-8
8
-15
92
-108
6
-4
-20
13
106
-55
-29
-5
43
-27
-38
99
-14
27
92
-50
-10
8
14
-76
22
64
0
6
17
16
26
-120
-13
-34
-15
-10
9
-67
34
-54
-25
63
3
-28
21
-62
0
-38
29
-14
-40
-32
17
-11
-60
34
13
-54
114
-15
-6
76
-36
96
-16
-12
89
36
-51
-50
-11
21
20
24
7
6
-49
-12
-14
14
-62
30
-1
111
124
127
-127
-64
-19
19
107
127
-49
-71
104
94
127
37
-25
47
-52
-127
29
36
93
126
29
4
-127
-44
-18
-121
94
-127
-25
55
52
-65
34
-96
-124
-114
28
-27
37
32
-18
-64
35
-15
30
21
-3
40
102
-127
31
33
-127
45
-9
-19
-6
43
50
17
-34
5
-5
30
-26
-27
-87
30
-15
-22
-8
64
5
-118
-33
-33
-50
14
-13
4
22
-68
-27
-46
-63
19
-6
94
5
113
-42
32
42
-24
-32
16
8
61
48
11
-50
-63
6
3
-1
-62
124
5
32
-17
-17
-34
42
-95
67
62
-119
