#include "../../basic_defs/basic_defs_glue.h"
#if FIBHA_VERSION == 2 && FIRST_PART_IMPLEMENTATION != BOTTLENECK_CHAIN_MODE
#ifndef DW_WEIGHTS
#define DW_WEIGHTS
const static dw_weights_dt pipe_dw_weights_3x3[][9] = {
{-6, 1, 6, 127, -114, -17, -16, 11, 7},
{-10, -2, -16, 127, 73, -18, -94, -44, -1},
{-6, 127, -10, -5, -121, 4, 0, 7, -1},
{-52, -30, -78, -52, -52, -94, -37, -67, -127},
{-3, 4, 2, 5, 119, -127, -2, -8, 11},
{33, -106, -114, -5, -38, -127, 30, 4, -31},
{40, 90, -127, 40, 97, -10, -110, -21, 3},
{-21, 21, 84, 57, 127, 1, 89, 64, -13},
{-6, 127, -42, -13, 25, 5, -15, -52, -15},
{-49, -84, 124, -127, -45, 3, 74, 73, 8},
{-61, -30, 90, -78, -73, 22, 127, 15, -13},
{-66, -36, -108, -127, -119, -80, -111, -81, -13},
{-18, 127, -20, -14, -36, -10, 0, -12, 4},
{-83, -48, -58, -90, -59, -35, -115, -70, -127},
{-12, 2, 9, 114, 16, -127, -24, -4, 26},
{-3, 127, -11, -13, -7, -12, -18, -23, -21},
{-58, -114, -39, -75, -127, -71, -4, -54, -24},
{89, 127, 67, 2, 25, 15, -19, -15, -15},
{92, 127, 61, 105, 40, -57, 35, -69, -114},
{62, 113, 35, 68, 127, 34, 26, 40, 10},
{-1, 55, 58, 10, 127, 108, 21, 77, 54},
{-82, -86, -29, -124, -127, -76, -92, -122, -56},
{-17, -63, -56, -15, -93, -91, 6, 127, 124},
{28, 51, 45, 40, 127, 54, 43, 50, 26},
{-15, -83, -72, -19, -127, -99, 13, -45, -40},
{85, 116, 44, 91, 127, 44, 3, 14, -1},
{24, 102, 47, 30, 127, 82, 21, 26, 30},
{10, -81, -84, 24, -127, -125, 7, -74, -117},
{27, 12, -111, 40, 81, -112, 61, 16, -127},
{-62, -113, -48, -90, -127, -90, -43, -92, -44},
{105, 91, -2, 122, 127, -15, 42, 56, 6},
{34, 36, -14, 81, 127, 70, 30, 72, 42},
{-22, 6, 24, -9, 113, 127, -17, 97, 127},
{5, 3, -4, 48, 88, 61, -72, -127, -75},
{10, 52, 73, 14, 127, 105, 23, 79, 43},
{-72, -35, 86, -103, -51, 127, -60, -6, 76},
{5, 94, 4, -3, 127, 0, -9, 72, -5},
{97, 103, 5, 123, 127, 14, 45, 38, -2},
{1, -34, -19, -42, -127, -84, -16, -88, -64},
{-40, -85, -44, -56, -127, -72, -34, -76, -31},
{-101, 12, -2, -127, 29, 3, -66, 32, 9},
{-52, -127, -57, 4, -14, -14, 4, 73, 76},
{-10, 3, 5, 102, -127, 25, -82, 113, -34},
{23, 60, 57, 45, 127, 90, 36, 67, 25},
{8, 24, -94, 5, 62, -127, 11, 49, -73},
{-74, 85, 6, -121, 127, -22, -74, 61, 10},
{72, 89, 11, 92, 127, 48, 33, 44, 6},
{15, 31, 13, 87, 127, 61, 64, 93, 45},
{-68, -75, -30, -108, -127, -59, -48, -61, -25},
{25, 31, 3, 102, 127, 57, 69, 102, 46},
{81, 127, 74, 78, 119, 62, 29, 51, 28},
{64, 87, 25, 80, 127, 51, 22, 44, 19},
{86, 107, 9, 102, 127, 19, 41, 51, 9},
{20, 35, 25, -89, -127, -68, 3, 3, 10},
{-37, 124, -83, 39, -127, 85, 7, -5, -1},
{-20, -16, 0, -90, -127, -41, -59, -91, -58},
{-120, -125, -41, -121, -127, -71, -59, -82, -32},
{29, -100, 5, 44, -127, 13, 34, -83, 11},
{99, 13, -71, 115, 86, -127, -13, 3, -34},
{-112, -6, -124, -99, 97, 73, 31, 34, 127},
{72, 124, 37, -116, -127, -97, 32, 47, 27},
{-73, -106, -24, -84, -127, -41, -38, -57, -7},
{-87, -100, -44, -111, -127, -52, -52, -61, -25},
{-31, -11, 25, -72, -127, -51, -5, -52, -37},
{14, -33, 21, 12, -127, 31, 15, -12, 13},
{-127, 52, 23, 72, -71, -8, 31, -6, -20},
{113, -127, -29, -123, 48, 25, -49, 46, -16},
{-102, 127, 27, 86, -17, -42, 22, -46, 9},
{-9, 38, 2, 27, -127, 63, 5, 42, -6},
{6, -41, 15, -4, -127, -1, 4, -10, 10},
{2, 116, 58, -19, -127, -81, -11, 56, 13},
{127, 38, -21, 30, -112, -6, -8, 16, 38},
{40, -14, 27, -76, 127, -6, 36, 71, 27},
{-21, -24, -10, 19, 127, -14, -18, -39, -9},
{-110, -77, -47, -82, 127, -52, -61, -66, 15},
{0, -3, -4, -6, -127, 49, -5, 48, -9},
{-91, -84, -11, 95, 127, 85, -40, -66, -25},
{-10, 1, -5, -33, 127, -18, -5, -2, 1},
{64, 24, -7, 127, -101, -7, 39, -14, -7},
{5, 15, 11, 37, -127, -42, 14, -15, -9},
{-127, 125, 32, 95, -84, -10, 40, -45, -20},
{2, -52, 19, 20, -127, 39, 21, 56, 29},
{-27, -6, -16, -57, 127, 0, -40, 5, -9},
{-38, 61, -45, -65, 127, -76, -21, 27, -29},
{-15, -56, -3, -57, 127, -33, -42, 5, -10},
{100, 28, 48, -57, -127, -40, -10, -34, 3},
{32, -113, -32, 127, 17, 8, -87, 40, 6},
{37, -78, 34, -127, -91, -39, 65, -19, 37},
{70, -89, 34, 71, -127, 19, 75, -109, 21},
{37, 113, 12, -47, 27, -15, 8, 127, -24},
{16, -36, -10, -68, 127, 36, -30, -7, 80},
{-10, 76, -3, -127, -53, 45, 19, -52, -13},
{28, 103, -2, 127, -80, -65, -31, -34, -18},
{-22, -127, -2, 6, 107, 0, 11, 4, -10},
{-113, 127, 21, 97, -99, -25, 17, -24, 3},
{57, 127, 32, 19, -79, -20, -52, 22, -40},
{-6, 112, -80, 25, -127, 94, -18, 12, -16},
{-28, -69, -23, 38, 127, 23, -27, -78, -20},
{-9, 25, -8, 33, -127, -1, 0, -1, -10},
{2, 54, -19, 43, -127, 99, -17, 102, -30},
{35, -17, 14, 23, -127, 60, -5, 44, -18},
{123, 118, 40, -74, -127, -49, -27, 50, -20},
{41, -118, 8, -127, 125, 27, 16, 19, 16},
{73, -71, -39, -41, 48, -96, 85, -127, -48},
{-106, 93, 19, 127, -127, -15, 11, -3, -6},
{9, 69, -18, -8, -127, 36, -4, 61, -17},
{91, -127, 2, -89, 120, -4, -3, 3, 5},
{-19, -127, -75, 31, 124, 75, 18, -37, -5},
{-20, -75, -1, -22, 127, -49, 31, 2, 5},
{12, -57, 4, 103, -127, 63, 32, -74, 17},
{7, -43, 3, 127, -49, -7, -37, 1, 30},
{-45, -88, -18, 6, 127, 5, 51, -40, 3},
{40, 66, 37, 71, 127, 79, 42, 82, 52},
{-95, -112, -40, -120, -127, -35, -47, -46, -2},
{-68, -96, -53, -92, -127, -65, -43, -63, -28},
{50, 81, 30, 70, 127, 56, 28, 57, 28},
{-46, -72, -32, -78, -127, -62, -40, -67, -34},
{-18, -70, -57, -53, -127, -68, -55, -76, -32},
{26, 81, 57, 80, 127, 70, 55, 70, 20},
{-24, -64, -53, -63, -127, -78, -46, -71, -38},
{53, 75, 31, 71, 127, 87, 24, 69, 53},
{-70, -73, -18, -65, -127, -79, -20, -82, -69},
{109, 127, 73, -8, 3, 3, -61, -127, -85},
{70, 92, 44, 99, 127, 62, 58, 68, 34},
{49, 72, 33, 86, 127, 63, 49, 76, 37},
{-87, 31, 43, -127, 43, 51, -70, 28, 41},
{-91, -127, -97, 16, 23, 16, 90, 118, 85},
{-24, -84, -86, -76, -127, -80, -83, -80, -29},
{-89, -114, -35, -126, -127, -42, -65, -72, -29},
{102, -7, -68, 127, -17, -112, 85, -22, -70},
{34, 73, 51, 77, 127, 74, 50, 73, 27},
{94, 127, 68, -31, -41, -26, -49, -66, -52},
{76, 101, 43, 90, 127, 65, 50, 65, 27},
{47, 76, 30, 80, 127, 59, 38, 66, 34},
{54, 81, 30, 83, 127, 54, 44, 60, 26},
{45, 72, 38, 72, 127, 72, 35, 66, 40},
{-36, -78, -57, -81, -127, -90, -53, -97, -51},
{67, 22, -23, -127, -25, 48, 63, 3, -29},
{-95, -127, -75, 22, 8, 4, 68, 94, 70},
{68, 89, 32, 90, 127, 63, 36, 56, 32},
{-71, -94, -48, -101, -127, -65, -49, -65, -28},
{-85, -6, 88, -114, -10, 127, -81, 1, 84},
{-71, 84, -3, -118, 127, -6, -65, 61, 0},
{67, 98, 43, 81, 127, 60, 33, 56, 28},
{43, 70, 33, 83, 127, 71, 49, 80, 45},
{-95, -77, -19, -68, -127, -80, -21, -74, -84},
{52, 84, 43, 81, 127, 65, 38, 63, 34},
{5, -82, 73, 9, -127, 122, 5, -68, 59},
{-84, -107, -59, -101, -127, -71, -33, -46, -21},
{58, 84, 45, 86, 127, 73, 44, 74, 44},
{-39, 84, -35, -50, 127, -54, -21, 62, -22},
{40, 71, 26, 67, 127, 55, 32, 63, 30},
{42, 77, 43, 76, 127, 61, 29, 62, 32},
{-106, 11, 60, -127, 44, 78, -90, 34, 44},
{-1, 13, -7, -67, -127, -54, 68, 114, 53},
{-58, -127, -77, 37, 123, 69, 34, 3, 4},
{87, 5, -87, 125, 8, -127, 73, 7, -74},
{-78, -68, -16, -75, -127, -82, -22, -82, -77},
{47, 72, 26, 63, 127, 72, 11, 62, 42},
{47, 63, 30, 83, 127, 58, 44, 64, 28},
};
const static dw_weights_dt seml_dw_weights_3x3[][9] = {
{115, -86, -101,
-92, -127, -20,
-108, -97, 91},
{-5, -29, -1,
65, -127, 67,
11, -25, 9},
{-66, 8, 52,
17, 127, -56,
22, 1, -30},
{-11, -26, -27,
-29, -82, -26,
20, 127, 49},
{1, 22, 9,
40, -127, 51,
0, 22, 8},
{2, 1, 0,
1, -127, 6,
-4, -5, -5},
{-35, 13, 20,
-127, 98, 20,
-13, 9, 13},
{12, -5, -10,
4, -127, 19,
-9, -6, 3},
{11, 101, -5,
-127, 53, 62,
-57, -64, 12},
{-1, 15, 6,
21, 127, 18,
2, 27, -3},
{7, -127, 6,
23, 6, 19,
13, -99, 3},
{-16, 3, 2,
3, 127, 32,
-10, 38, -17},
{-27, 101, 79,
-123, -55, 127,
-26, -84, 14},
{-26, -37, -9,
-45, 127, 0,
-20, -25, -12},
{0, 14, 5,
7, -127, 8,
22, 64, 23},
{-46, 69, -38,
-67, 127, -44,
-21, 72, -37},
{43, 125, 35,
-16, -127, -32,
-19, -20, -13},
{9, -43, -1,
-31, -127, -37,
-14, -35, -13},
{-96, -71, -88,
112, -101, 127,
-74, -60, -78},
{40, -22, -19,
127, -92, -22,
35, -24, -20},
{-32, 127, -7,
113, 38, 7,
2, -16, -67},
{48, 102, 42,
-127, -120, -122,
59, 63, 48},
{-36, -54, -32,
-67, 127, -46,
-34, -64, -52},
{127, 26, -57,
5, 104, 35,
-61, 14, 101},
{-9, -27, -9,
-11, 127, -16,
-14, -22, -24},
{-17, 28, 3,
-20, -127, -28,
31, 96, 16},
{14, 28, -19,
53, 127, 27,
-1, 16, -34},
{8, -87, 28,
-48, -81, 127,
-15, 37, 43},
{48, -67, -3,
127, -96, 44,
34, -30, -6},
{-2, 63, -17,
92, 127, 55,
-12, 27, -18},
{35, 127, 12,
-27, -73, -9,
-9, -56, -8},
{-50, -127, -9,
69, 41, -69,
51, 74, 10},
{-44, 56, 54,
-118, -30, 127,
-25, -82, 48},
{56, -18, -10,
3, -127, 12,
-24, 26, 60},
{19, 38, -37,
-81, 127, 46,
-44, -113, 3},
{60, -11, -68,
-11, 127, -31,
-65, -28, 71},
{30, 28, 21,
-103, -127, -109,
60, 51, 44},
{33, -41, -1,
113, -127, 19,
31, -28, -5},
{-9, -47, -5,
-11, 127, -20,
-8, -48, -8},
{0, 30, -6,
34, 127, 7,
-10, 28, -5},
{35, -127, -15,
-114, -14, 102,
21, 116, 3},
{-30, -57, -32,
-45, 127, -6,
-41, 6, 12},
{4, -2, 7,
-21, 118, 107,
-18, 127, 92},
{21, 62, 38,
63, -127, -18,
41, -30, -17},
{10, -1, 5,
2, 127, -19,
11, 1, 4},
{3, -77, -45,
-14, 127, -96,
-29, 4, 36},
{-17, 3, 1,
8, 127, -10,
-1, -16, -38},
{-29, 23, -1,
26, 127, -87,
7, -81, -27},
{7, 59, 17,
-12, -127, -70,
-11, 65, -5},
{-6, 28, -12,
36, -127, 38,
-3, 41, -1},
{-45, -28, -50,
-26, 127, 1,
-52, 29, 1},
{-1, 0, -3,
-5, 127, -10,
1, 1, -1},
{12, -51, 8,
-73, -127, -33,
12, -42, 25},
{-13, -24, -5,
-4, 127, -37,
-9, -67, -13},
{3, 22, 7,
-1, 127, 19,
0, 41, 15},
{-6, -31, -9,
-65, -127, -59,
-34, -46, -11},
{20, 84, -26,
127, 53, -106,
34, -62, -100},
{47, 41, -16,
127, -77, -65,
12, -57, -5},
{3, -33, 2,
-21, -96, 9,
10, 127, -4},
{28, -66, -45,
14, 127, -82,
-39, 10, 18},
{-20, -55, -17,
-22, 127, -20,
-16, -32, -11},
{-24, -1, 37,
-24, -97, 127,
-6, 3, 17},
{-29, 30, 4,
-101, 127, -25,
-30, 21, 10},
{-10, -1, -11,
32, 60, 22,
1, -127, 2},
{-23, -67, -34,
-57, 127, 41,
-40, 34, 22},
{1, 67, 5,
1, -127, 5,
0, 49, 0},
{-3, 23, 1,
5, 127, 15,
9, 11, 21},
{3, -46, -13,
-38, 127, -44,
-16, -45, 4},
{-4, -93, -3,
99, -31, -127,
72, 119, -36},
{11, 23, 17,
-4, 127, 6,
16, -30, 5},
{21, 127, 24,
4, -76, -13,
-22, -37, -27},
{9, 19, 8,
1, 127, 4,
2, 21, 8},
{20, -117, -1,
127, -56, -103,
62, 89, -26},
{-4, -31, 28,
4, -127, 122,
-8, -35, 36},
{17, -16, 26,
-16, -127, 1,
46, 6, 59},
{56, -34, 61,
-59, -127, -56,
56, -28, 62},
{127, 108, -2,
87, -62, -91,
-21, -98, -59},
{-7, -5, -4,
12, 127, 3,
-3, 1, 2},
{-9, 120, 29,
-127, 35, 81,
-63, -84, 11},
{-32, -70, 29,
-81, -4, 127,
-30, 40, 23},
{-25, -127, -14,
13, 121, 4,
4, 9, 3},
{44, -2, -25,
127, -43, -79,
39, -13, -37},
{63, -90, 18,
89, -127, 37,
79, -108, 22},
{-31, 4, 90,
21, 127, 7,
64, -17, -37},
{0, 27, -11,
33, 127, 21,
-21, 18, -17},
{-36, 127, 15,
6, 107, -19,
21, 115, -30},
{56, -127, -41,
97, 33, -88,
-1, 73, 23},
{56, 40, 54,
25, -127, -24,
51, -35, -21},
{-21, -127, -53,
11, 127, -19,
1, 6, 27},
{-32, 127, 25,
125, 119, -58,
20, -60, -79},
{9, 2, 14,
3, -127, 25,
19, 46, 5},
{12, 112, 17,
-6, -127, -6,
-16, 17, -15},
{39, 127, 36,
-13, -43, -10,
-27, -81, -30},
{-12, -4, -4,
10, -96, 127,
1, -86, 0},
{47, 122, -24,
127, 11, -65,
-17, -123, -82},
{7, 13, 6,
8, -127, 11,
9, 7, 8},
{46, -62, 46,
23, -127, 32,
5, -2, 21},
{-46, -66, -18,
127, -9, 94,
-23, -65, -38},
{-102, 31, 54,
12, 127, -23,
48, 18, -67},
{127, 34, -73,
48, 122, 72,
-109, 18, 96},
{-33, 33, -27,
-70, 127, -76,
-16, 4, -27},
{-58, -127, -70,
-113, 51, -102,
-86, -95, -20},
{-127, -36, -18,
-55, -38, -97,
-50, -2, -63},
{53, 90, -7,
76, 3, -127,
-28, -115, -14},
{58, -9, -70,
-17, 127, 14,
-61, -7, 44},
{-20, -96, -52,
87, 42, -127,
6, 34, -54},
{47, 39, 48,
42, -127, 30,
46, 25, 40},
{-21, -31, -12,
-19, 127, -28,
-14, -22, -10},
{-57, -110, -39,
-127, 36, -127,
-37, -124, -9},
{55, 3, -62,
20, -127, 48,
-72, 41, 25},
{-28, -15, -20,
-26, 127, -35,
-24, -48, -29},
{-44, -29, 77,
105, -127, -57,
30, 71, -11},
{-23, -127, -34,
-47, 31, 39,
22, 83, 46},
{13, 45, 17,
-65, -127, -61,
28, 75, 25},
{62, 127, 40,
-64, -80, -1,
-30, -23, -35},
{-83, 127, -85,
-61, -8, -46,
-67, 72, -61},
{9, -16, 4,
52, -127, -38,
7, 48, 2},
{29, 127, 48,
-116, -23, 79,
-32, -102, -3},
{13, -41, -25,
60, -127, 32,
-2, -37, 6},
{49, -105, 39,
50, -127, 63,
11, -63, 25},
{-38, -46, -4,
-127, -82, -105,
-29, -34, -25},
{127, -35, -72,
-18, 72, -22,
-60, -44, 103},
{19, -78, -46,
112, 127, 47,
-40, -73, 57},
{-59, 27, 80,
40, -127, 51,
86, 19, -75},
{-19, 101, -12,
31, 40, 4,
5, -127, -8},
{18, 84, 3,
-49, -127, -29,
20, 63, 9},
{-15, 63, -33,
77, 37, 127,
-34, 119, -36},
{-28, 97, -41,
-91, 127, -104,
-33, 85, -34},
{104, -106, -114,
-79, 2, 49,
-127, 64, 57},
{54, 10, 42,
-127, -40, -111,
21, 0, 29},
{27, 127, 18,
-14, -97, -14,
-11, -14, -26},
{-36, -127, -17,
-60, -74, -53,
-9, -71, -27},
{-25, -86, 53,
-38, -114, 33,
48, 17, 127},
{-13, -28, -25,
-10, -109, 13,
25, 127, 32},
{-80, -75, -56,
127, 86, 104,
-63, -66, -64},
{-15, -91, 1,
-52, 127, -43,
2, -56, -5},
{12, -91, 67,
-30, 127, -84,
18, -12, -12},
{-90, -110, 10,
-127, 92, 94,
29, 85, 5},
{-127, -70, -23,
-71, 54, -61,
-28, -79, -21},
{-90, 21, 86,
-7, -127, 22,
93, 4, -94},
{-4, 12, -11,
25, 127, 14,
-7, -8, -13},
{49, 33, 35,
24, 46, 26,
29, 34, -127},
{32, 82, 29,
-91, -127, -58,
31, 84, 4},
{-97, -5, 111,
-50, -6, -4,
127, -43, -76},
{-127, 2, 79,
21, 69, 7,
66, 7, -99},
{18, -22, 6,
45, -127, -4,
-24, 94, 7},
{85, -127, 14,
-60, 93, -14,
-39, 48, -4},
{-8, -22, -28,
-12, 127, -17,
-27, -18, -29},
{42, -23, -127,
92, 81, -90,
-17, 36, 7},
{54, 96, 6,
72, 17, -68,
-51, -127, -9},
{-24, -32, -25,
-42, 127, -33,
-19, -41, -18},
{-5, 77, -53,
-43, 127, -101,
4, 40, -20},
{24, 16, 15,
-9, -127, 25,
-12, -33, 22},
{-104, -65, -92,
-83, -50, -45,
-127, -98, -67},
{-5, 24, -13,
16, 127, 4,
9, -1, -7},
{-97, -127, 19,
-112, 120, 112,
22, 77, -52},
{42, 108, -17,
90, -127, -50,
-8, -53, 69},
{-7, 54, -9,
-2, -127, 42,
0, 46, -9},
{15, -81, 36,
63, -127, 95,
-2, -22, -6},
{-59, 24, 33,
34, -127, 28,
31, 24, -55},
{4, 59, 7,
-5, -127, 10,
8, 65, 15},
{-10, 6, 4,
17, 127, -2,
-8, -25, -5},
{-20, -127, -22,
43, 9, -39,
65, 56, 27},
{-33, 119, 33,
-127, -8, 94,
9, -116, -5},
{5, 66, 12,
-37, -127, -37,
7, 55, 2},
{26, 95, -1,
-62, -127, -41,
17, 84, 11},
{44, 33, 37,
24, -127, 24,
46, 26, 48},
{2, -12, 1,
65, -127, 66,
-6, 13, -4},
{28, 9, -13,
127, -96, 3,
-5, -5, -27},
{75, -52, -41,
-127, 86, 68,
24, -27, -8},
{61, 34, -16,
54, -127, -8,
-8, 10, 39},
{-122, -76, -82,
107, 38, 77,
-113, -127, -93},
{8, 3, 6,
43, -127, 64,
13, -4, 18},
{42, -127, 31,
-24, 74, -27,
-19, 46, -13},
{-50, -13, -43,
-6, 127, -29,
-40, -8, -23},
{-103, -104, 38,
46, 127, 87,
69, -100, -44},
{1, 127, -3,
-88, -73, 120,
48, -100, 9},
{-119, 9, 79,
-107, 33, 127,
-96, 48, 71},
{59, -115, 22,
-127, -20, 66,
31, 88, 23},
{-32, -30, 21,
-37, -127, 82,
5, 88, -7},
{-39, -76, -80,
8, -35, 44,
39, 127, 21},
{26, 36, 37,
21, -127, 14,
34, 23, 38},
{14, 127, -30,
-105, -7, 51,
-11, -55, -44},
{-38, -127, -49,
10, 119, 10,
23, 21, 20},
{-46, -3, -42,
-5, 127, -17,
-39, -29, -74},
{87, -8, -6,
127, -96, -70,
6, -32, -4},
{-40, 90, -1,
-39, 119, -127,
-23, 63, 27},
{98, -127, -1,
-127, 15, 102,
8, 87, -52},
{10, -48, 17,
67, -127, 89,
7, -36, 6},
{8, -25, 13,
46, -127, 57,
23, -10, 16},
{82, 41, -127,
3, -73, 33,
-102, 30, 77},
{7, -4, -8,
11, 127, -59,
-25, -74, -11},
{-83, -99, -36,
-107, -127, -58,
-73, -81, -41},
{44, 66, 37,
95, 127, 70,
64, 85, 40},
{78, 97, 45,
101, 127, 62,
50, 70, 31},
{73, 102, 55,
97, 127, 67,
42, 58, 30},
{-67, -90, -30,
-89, -127, -51,
-32, -59, -17},
{68, 85, 32,
101, 127, 50,
47, 60, 27},
{60, 80, 42,
92, 127, 63,
46, 61, 31},
{-96, 37, 64,
-127, 38, 94,
-86, 16, 76},
{-41, -61, -21,
-96, -127, -49,
-44, -50, -21},
{78, 86, 25,
102, 127, 60,
60, 89, 50},
{-80, -101, -48,
-98, -127, -58,
-40, -55, -28},
{-84, -95, -43,
-110, -127, -59,
-57, -69, -38},
{-33, -55, -19,
-81, -127, -43,
-44, -62, -30},
{-58, -83, -35,
-93, -127, -54,
-46, -60, -29},
{74, 90, 45,
95, 127, 58,
51, 64, 35},
{-82, -104, -46,
-94, -89, -46,
-93, -127, -36},
{63, 103, 45,
85, 127, 57,
34, 54, 22},
{-58, -103, -80,
-92, -127, -81,
-54, -69, -37},
{-83, -100, -48,
-102, -127, -55,
-40, -46, -24},
{50, 78, 40,
83, 127, 61,
44, 68, 36},
{-49, -73, -29,
-79, -127, -60,
-35, -67, -35},
{70, 90, 43,
95, 127, 59,
44, 66, 35},
{77, 96, 36,
100, 127, 56,
46, 65, 28},
{-76, -99, -36,
-96, -127, -49,
-33, -50, -19},
{74, 91, 37,
101, 127, 50,
44, 50, 29},
{53, 80, 37,
91, 127, 61,
48, 72, 38},
{-79, -106, -63,
-107, -127, -73,
-58, -73, -32},
{-97, -127, -61,
-117, -117, -66,
-62, -72, -43},
{-84, 38, 63,
-127, 42, 89,
-81, 19, 50},
{70, 98, 47,
91, 127, 60,
38, 58, 28},
{-86, -127, -79,
24, 51, 21,
50, 90, 48},
{-95, -112, -49,
-121, -127, -79,
-63, -96, -48},
{-74, -99, -39,
-100, -127, -56,
-45, -60, -16},
{61, 78, 34,
99, 127, 55,
56, 72, 32},
{56, 91, 44,
85, 127, 71,
33, 60, 42},
{77, 102, 45,
102, 127, 68,
51, 74, 41},
{56, 88, 43,
81, 127, 58,
37, 54, 25},
{101, 116, 67,
111, 127, 67,
67, 74, 21},
{-58, -82, -39,
-94, -127, -62,
-45, -62, -30},
{88, 127, 71,
-32, -37, -23,
-66, -72, -52},
{-61, -91, -40,
-88, -127, -54,
-43, -62, -28},
{-106, -127, -83,
-123, -105, -111,
-83, -95, -62},
{-61, -81, -43,
-95, -127, -72,
-44, -69, -33},
{74, 99, 35,
96, 127, 53,
32, 51, 21},
{22, -92, -127,
-91, -104, -52,
-100, -47, 8},
{93, 111, 36,
107, 127, 41,
63, 76, 29},
{60, 86, 35,
81, 127, 67,
36, 74, 43},
{66, 92, 41,
89, 127, 66,
50, 82, 51},
{-109, -120, -81,
-121, -127, -88,
-79, -95, -31},
{83, 102, 47,
101, 127, 67,
58, 79, 41},
{66, 88, 38,
93, 127, 58,
47, 60, 26},
{-57, -87, -41,
-76, -127, -61,
-42, -69, -31},
{-66, -99, -54,
-90, -127, -58,
-52, -67, -32},
{88, 102, 54,
100, 127, 61,
43, 55, 29},
{65, 88, 44,
96, 127, 53,
55, 64, 26},
{-50, -75, -39,
-89, -127, -64,
-48, -72, -42},
{88, 115, 58,
105, 127, 61,
48, 65, 25},
{89, -33, -67,
127, -57, -74,
44, -12, -40},
{75, 101, 46,
110, 127, 60,
53, 63, 26},
{-100, -104, -55,
-101, -127, -90,
-61, -82, -37},
{119, 127, 59,
-56, -58, -8,
-73, -80, -60},
{49, 84, 32,
80, 127, 49,
43, 53, 27},
{71, 96, 45,
93, 127, 57,
48, 66, 32},
{102, 94, 36,
113, 127, 37,
45, 41, 5},
{63, 89, 39,
88, 127, 62,
40, 63, 35},
{-70, -90, -44,
-95, -127, -68,
-51, -79, -41},
{-87, -127, -54,
24, 22, 21,
77, 96, 37},
{-113, -108, -58,
-127, -126, -78,
-56, -55, -32},
{74, 101, 49,
93, 127, 60,
42, 55, 31},
{55, 73, 21,
95, 127, 43,
56, 79, 31},
{-94, -119, -47,
-120, -127, -58,
-50, -63, -30},
{55, 78, 28,
96, 127, 50,
43, 51, 25},
{95, -75, -84,
127, -64, -92,
75, -25, -60},
{95, 127, 76,
-17, -39, -21,
-66, -110, -53},
{82, 109, 52,
96, 127, 75,
43, 64, 26},
{-73, -88, -28,
-95, -127, -46,
-39, -59, -13},
{65, 113, 53,
77, 127, 53,
31, 47, 16},
{76, 94, 27,
98, 127, 46,
30, 47, 21},
{-58, -77, -27,
-94, -127, -52,
-39, -57, -28},
{68, 91, 38,
102, 127, 61,
53, 73, 37},
{98, -39, -70,
127, -54, -93,
71, -30, -49},
{65, 87, 55,
95, 127, 68,
51, 67, 31},
{58, -51, -77,
127, -27, -74,
62, 12, -17},
{-99, -127, -53,
16, 20, 11,
97, 97, 42},
{-59, -80, -42,
-94, -127, -66,
-47, -62, -35},
{64, 91, 45,
97, 127, 66,
56, 75, 37},
{95, -35, -58,
127, -48, -80,
52, -4, -45},
{64, 92, 39,
89, 127, 54,
36, 49, 21},
{68, 93, 44,
81, 127, 65,
39, 57, 31},
{-48, -74, -33,
-80, -127, -60,
-41, -66, -36},
{39, 75, 27,
75, 127, 47,
39, 55, 28},
{83, 103, 43,
101, 127, 50,
45, 54, 13},
{-91, 17, 66,
-127, 40, 98,
-80, 22, 55},
{-76, -96, -52,
-114, -127, -62,
-60, -58, -20},
{100, 92, 26,
83, 127, 81,
27, 65, 52},
{86, 127, 50,
-28, -22, -3,
-76, -96, -57},
{17, 127, 10,
-9, -78, -5,
-11, -35, -6},
{-1, -54, -2,
-25, 127, -37,
2, -57, -6},
{33, 35, 34,
26, -127, 1,
36, 1, 27},
{51, -65, 13,
127, -94, -68,
82, -26, -23},
{22, 127, 26,
-9, -29, 7,
-15, -104, -29},
{-10, -60, -13,
39, 127, 40,
-47, -66, -48},
{12, 8, -18,
114, 12, -127,
11, 7, -22},
{-22, -127, -18,
3, 34, 4,
16, 97, 15},
{-24, 3, 20,
-85, -39, 127,
-20, 11, 7},
{20, 127, 36,
-39, -102, -46,
3, -14, 1},
{-38, 19, 11,
-117, 5, 127,
-29, -9, 35},
{-32, -2, 35,
-116, -11, 127,
-35, -6, 39},
{-52, -127, -46,
-34, 51, 50,
18, 124, 18},
{-40, 6, 36,
-54, -71, 127,
-12, -56, 16},
{36, 2, 22,
0, 127, -3,
9, 0, 8},
{-29, -15, -28,
-38, 127, -40,
-7, -36, -14},
{9, -3, -7,
127, -30, -98,
21, -7, -13},
{-37, -82, -25,
114, 48, 94,
-46, -127, -43},
{10, 1, -8,
127, -124, -6,
25, -23, -11},
{50, 25, 36,
-5, -127, -5,
35, -21, 25},
{-30, -114, -30,
4, -10, -11,
25, 127, 40},
{-13, -58, -17,
-57, 127, -32,
-7, -39, -17},
{-15, -59, -31,
-38, 127, -50,
-14, -48, -6},
{36, -5, -36,
121, 15, -127,
32, 3, -42},
{8, 0, -6,
127, -21, -111,
10, 2, -12},
{2, 6, -11,
-16, 127, -18,
2, 21, 18},
{3, -25, -13,
-22, 127, -43,
-3, -28, -34},
{-18, -78, -21,
8, -48, -2,
23, 127, 34},
{28, -11, -14,
127, -20, -109,
23, -1, -23},
{4, -8, -42,
-17, 127, -50,
-13, 8, 21},
{2, -12, 11,
-8, -119, 127,
-12, -21, 33},
{21, 51, 24,
23, 127, 20,
25, 39, 24},
{-58, 102, 20,
51, 127, 21,
11, 77, -57},
{-8, -120, 17,
-123, 7, -127,
4, -32, 16},
{6, -11, 5,
-4, -127, 127,
0, -11, 9},
{-13, 19, -14,
19, 127, 16,
10, 0, 26},
{-24, -37, -25,
-29, 127, -51,
-27, -42, -31},
{-3, -13, -7,
-26, -125, -22,
28, 127, 41},
{28, 2, 34,
26, -127, 42,
29, 8, 35},
{1, -17, 7,
-25, -127, -14,
1, -33, 4},
{24, -117, 45,
-127, 50, -124,
-10, -89, 1},
{12, -18, 17,
-33, -127, -28,
20, -22, 21},
{31, 127, 20,
73, -68, 61,
60, 49, 69},
{12, 28, -5,
33, 127, 35,
13, 11, 15},
{9, 3, -18,
-111, -11, 127,
5, -2, 4},
{7, 1, -5,
127, -36, -95,
20, 0, -20},
{32, 73, 5,
84, -127, -49,
9, -10, -14},
{49, 127, 39,
-23, -84, -35,
-26, -69, -31},
{-19, -68, 3,
127, -56, -81,
77, 39, -18},
{29, -127, -19,
39, 98, 81,
14, -50, 17},
{35, 43, -4,
42, 127, 51,
5, 68, 47},
{13, 127, 19,
3, -43, -2,
2, -95, -14},
{13, 38, 1,
100, -127, 116,
6, 49, 9},
{2, -11, 5,
52, -127, 69,
1, -5, 5},
{17, -102, 16,
-71, -127, -49,
8, -81, 9},
{-5, -30, -33,
-26, 127, -46,
-41, -24, -13},
{-4, -85, 0,
-127, 41, -75,
28, 78, 74},
{7, 9, 0,
18, 127, 19,
12, 0, 14},
{17, 45, 28,
44, -127, 38,
16, 23, 25},
{-22, 10, 21,
-49, -88, 127,
-22, 2, 16},
{19, -9, -7,
127, -46, -83,
27, -15, -10},
{3, 2, -8,
127, -41, -89,
45, -4, -40},
{34, -90, 9,
-78, -127, 122,
15, 46, 93},
{-31, 6, 30,
-121, -7, 127,
-30, -10, 38},
{6, -4, -1,
127, -42, -94,
37, -16, -17},
{24, -43, 22,
-81, 127, -71,
14, -52, 4},
{-12, -23, 36,
-49, -105, 127,
13, -17, 42},
{20, 127, 26,
8, -20, 29,
-40, -105, -43},
{20, -3, -15,
127, -22, -112,
22, 0, -33},
{5, 15, 0,
4, 127, 1,
29, 19, 29},
{-17, -43, -29,
-40, 127, -47,
-12, -34, -17},
{-104, -4, -10,
17, 82, 26,
6, 6, -127},
{-2, -5, -5,
-15, 127, -27,
-10, -26, -14},
{-24, -127, -17,
-42, 27, -62,
-45, -62, -49},
{-34, -26, -43,
-26, 127, -23,
-40, -44, -49},
{18, 12, 12,
16, -127, 32,
15, 22, 18},
{6, -88, 14,
-83, -54, -73,
78, 127, 70},
{72, 37, 30,
32, -127, 17,
38, 40, 101},
{-13, 15, -11,
33, 127, 35,
-8, 29, -14},
{-13, -8, 20,
-127, 8, 121,
-22, -9, 31},
{6, 127, 11,
-13, -81, -11,
8, -54, 5},
{41, 45, 25,
21, -127, -48,
11, -22, -2},
{9, -12, 12,
-51, -127, -60,
13, -19, 13},
{-48, -104, -53,
-13, 127, -11,
24, 29, 37},
{4, 13, -3,
17, 127, 18,
6, 32, 24},
{-40, -24, -33,
-23, 127, -31,
-41, -32, -47},
{5, -23, 19,
-16, -119, 127,
-2, -26, 31},
{-19, -2, 18,
-122, 1, 127,
-18, -6, 18},
{-35, -38, -23,
-32, 127, -22,
-22, -16, -37},
{-33, -127, -19,
5, 32, -8,
26, 102, 27},
{-25, -34, -27,
-28, 127, -6,
-31, -2, -34},
{-10, -28, -16,
-35, 127, -34,
-32, -8, -19},
{-126, -33, -56,
127, -42, -103,
28, 60, 38},
{29, 127, 24,
-2, -35, 5,
-25, -101, -27},
{-14, 5, 11,
-118, -6, 127,
-16, -34, 43},
{22, 127, 24,
-20, -46, -14,
-12, -86, -15},
{-35, -101, -13,
-29, -39, 6,
35, 127, 42},
{38, 11, 41,
-8, -127, -3,
40, 3, 34},
{28, 85, 21,
123, 98, 127,
0, 111, -6},
{10, -30, 23,
127, -83, -50,
8, -25, 20},
{57, 127, 13,
-50, -59, -4,
-17, -82, -24},
{31, -41, -15,
127, -62, -72,
18, 5, -28},
{-12, -48, -22,
-17, 127, 7,
-17, -29, -6},
{-49, 20, 31,
-127, -9, 125,
-22, -42, 34},
{-13, 127, -41,
-38, -66, -29,
-7, 76, -13},
{49, 125, 15,
-48, -127, -15,
-6, -47, -19},
{-1, -45, 0,
4, 127, 2,
-13, -64, -13},
{29, -8, -19,
127, -33, -101,
24, -9, -14},
{29, 11, 22,
0, 127, -3,
37, 14, 26},
{-16, 12, 33,
-127, 69, 41,
-1, -22, 20},
{41, 127, 49,
-20, -14, -69,
5, -91, -28},
{-32, -95, -6,
9, -30, 1,
20, 127, 9},
{85, 7, -9,
127, -108, -71,
16, -22, -36},
{-8, 18, -14,
-67, 127, -65,
-4, 18, -17},
{-1, 47, 4,
50, -127, 43,
4, 28, 9},
{4, 1, 0,
5, -127, 114,
3, -12, 13},
{-44, -20, -17,
-20, -127, 13,
-15, 1, -43},
{-10, -99, -15,
-78, -127, -70,
-33, -71, -24},
{-3, 34, -22,
-62, 127, -84,
-3, 29, 7},
{-7, 40, -1,
35, 127, 38,
-19, 19, -9},
{4, -15, 11,
-44, -117, -52,
37, 127, 44},
{-21, 28, -77,
104, 20, -107,
100, 39, 127},
{-70, -44, -43,
-108, -1, -112,
-12, -127, 1},
{7, 25, 8,
-13, 127, -13,
17, 30, 2},
{-7, -47, 4,
-73, -127, -58,
36, -107, 31},
{-34, -127, -17,
-3, 17, -11,
35, 121, 25},
{14, 12, 15,
17, -127, 24,
2, 23, 2},
{58, 12, 15,
9, -127, 17,
14, 37, 109},
{5, -25, -14,
127, -70, -9,
8, -29, -18},
{18, -53, 18,
-127, 0, 11,
30, 103, -19},
{-25, -60, -13,
-77, -63, -67,
6, -127, 7},
{1, -113, -33,
-114, 5, -127,
-15, -103, -12},
{12, 127, 14,
-8, -52, -7,
-5, -75, -9},
{-31, 7, 33,
-127, 9, 101,
-32, 2, 25},
{-4, -26, 0,
-11, -127, -10,
-15, -22, -21},
{-1, 74, 127,
-63, -81, 79,
-7, -82, 12},
{-30, 14, 15,
-127, 17, 116,
-30, 2, 35},
{1, 29, -3,
11, 127, 16,
4, 5, 4},
{-32, -77, 8,
-10, -50, -50,
31, 127, 19},
{-38, -41, 4,
-29, -127, -11,
1, -18, -35},
{-39, 22, 19,
10, 127, 19,
13, 19, -70},
{-30, -39, -23,
-62, 127, -69,
-34, -95, -23},
{16, 127, 21,
2, -65, 5,
-15, -91, -28},
{10, 127, 16,
-9, -90, -1,
10, -68, -2},
{6, 8, -11,
29, 127, 24,
21, 72, 21},
{-59, 37, -46,
52, 127, 61,
-58, 44, -47},
{63, 127, 34,
-15, -47, -19,
-43, -93, -15},
{21, 127, 17,
-1, -98, 5,
-13, 1, -14},
{-13, 26, -9,
-48, 127, -84,
-25, 25, -19},
{36, -29, 18,
-16, -127, 14,
43, 1, 51},
{34, 127, 127,
-46, -126, -11,
-26, -73, -7},
{12, -21, 6,
127, -87, -39,
-2, -23, 5},
{5, 31, 13,
44, 127, 53,
36, 62, 40},
{20, 6, 14,
9, 127, 14,
23, 19, 34},
{-1, -100, 52,
-127, 24, 109,
-3, 48, 33},
{43, 127, 28,
-19, 7, 14,
-38, -121, -25},
{-4, -5, -4,
-30, -83, -11,
19, 127, 1},
{-17, 72, 10,
-46, -67, 127,
-6, -67, 7},
{30, -53, 21,
110, -127, 10,
6, -26, 2},
{44, 127, 41,
-8, 21, -5,
-52, -127, -48},
{69, 127, 41,
54, 36, 15,
-71, -120, -70},
{-23, -109, -10,
-62, -121, -76,
-30, -127, -20},
{-39, -87, -43,
19, -31, -17,
41, 127, 17},
{10, -101, 15,
93, -57, -103,
40, 127, 1},
{-2, -81, -7,
8, -47, 14,
3, 127, 1},
{23, 1, -39,
127, -89, 28,
42, -3, -25},
{-24, 37, -39,
-33, 127, -63,
-34, 36, -23},
{4, 14, -17,
127, -126, 6,
22, -19, -6},
{16, -10, -16,
127, -75, -42,
63, -5, -58},
{1, 2, -9,
-88, -51, 127,
-3, 1, 9},
{9, -4, -51,
20, 127, -1,
-57, 16, 13},
{-18, 14, 127,
11, -61, -101,
8, -15, 18},
{28, -5, -13,
91, -127, -16,
11, -15, -9},
{-103, -50, 33,
-127, 26, 89,
11, 63, 84},
{-42, -68, -34,
-16, 127, -15,
-55, -71, -56},
{-27, -31, 31,
17, -95, 127,
-9, -42, 23},
{66, -76, -64,
12, -51, -62,
-90, -95, 127},
{39, 3, -22,
127, -61, -97,
32, -17, -30},
{-12, 2, 1,
-52, 127, -76,
22, -73, 30},
{6, 13, -5,
9, 127, 4,
9, 33, 2},
{-23, 47, 29,
-109, -21, 127,
-41, -66, -3},
{12, 4, 12,
127, -122, -33,
30, 4, -22},
{12, 127, 18,
2, -39, -1,
-14, -66, -19},
{-24, 15, 11,
-125, 127, -25,
-21, 23, 1},
{12, 16, 11,
54, -127, 46,
13, -37, 11},
{-61, -95, -37,
-127, -15, -103,
-71, -108, -95},
{-71, -28, 96,
-7, 127, -47,
72, -22, -56},
{0, 127, -1,
-5, -72, -4,
9, -51, 2},
{18, 115, 12,
21, 30, 5,
-33, -127, -33},
{-41, -110, -25,
-89, -127, -58,
-11, -79, -1},
{-42, -57, 81,
-111, -21, 127,
-41, -15, 66},
{-18, -46, -20,
-22, 127, -27,
-17, -28, -18},
{-6, 100, 33,
-90, -19, -95,
9, 127, -26},
{27, -7, -76,
25, 127, -77,
17, 14, -36},
{1, 12, 0,
-108, 127, -110,
-33, 7, -40},
{32, 24, 27,
26, 127, 26,
53, 40, 29},
{20, 127, 23,
15, -19, 18,
-36, -107, -37},
{13, 28, 27,
21, 127, 13,
38, 13, 29},
{45, 127, 39,
-20, -2, -16,
-28, -124, -22},
{-19, 16, 6,
-31, -92, 127,
5, -4, 11},
{11, -9, 18,
-80, 127, -87,
14, 2, 7},
{-25, -64, -11,
-92, -52, 127,
0, 48, 90},
{7, -55, 2,
-39, -71, -34,
32, 127, 30},
{104, 37, -14,
97, -127, -47,
30, -16, -51},
{51, -18, -38,
127, -26, -97,
45, -13, -44},
{4, 9, 9,
14, 91, 9,
-11, -127, -12},
{-7, -51, -18,
-17, -86, -7,
20, 127, 43},
{30, 15, 22,
17, -127, 8,
21, 19, 45},
{-28, -106, -13,
-15, -32, -37,
30, 127, 27},
{58, 113, 78,
110, 127, 84,
81, 109, 57},
{14, 57, 38,
28, -127, 24,
41, -4, 38},
{127, 79, -24,
-95, -106, 5,
-23, -4, 11},
{-44, 5, -70,
127, 101, -110,
26, 22, 3},
{-31, -23, -39,
-27, 127, -20,
-26, -2, -19},
{-27, -44, -32,
-31, 127, -23,
-30, -10, -32},
{120, -9, -127,
58, -87, 33,
-84, -16, 91},
{-40, 26, 13,
-127, 119, -12,
18, -4, 16},
{26, 46, 10,
42, -127, -34,
27, -45, 3},
{-56, -68, -55,
-52, 127, -74,
-27, -92, -26},
{-53, -36, -60,
-16, -127, 14,
-45, -25, -52},
{38, 127, 29,
-13, -56, -1,
-20, -89, -22},
{6, -3, 7,
20, 127, 12,
8, 10, 15},
{104, 17, -108,
-26, 122, -18,
-127, -21, 98},
{3, -127, -27,
-32, -71, 59,
-9, 81, 91},
{-18, -36, -28,
-78, 127, -53,
-47, -70, -82},
{-4, 127, 79,
-72, -104, 99,
52, -57, -9},
{16, 25, -5,
12, 127, 12,
-1, 33, 33},
{-2, -41, -20,
-75, -73, -49,
107, 127, 29},
{-15, 42, -21,
48, 127, 45,
-33, 32, 4},
{-103, -43, 0,
-95, -37, -67,
14, -88, -127},
{19, -8, -42,
99, 6, -127,
46, -3, -33},
{-116, -97, -122,
-92, -110, -59,
-76, -127, -61},
{24, 127, 28,
-19, 12, -17,
-43, -69, -24},
{-2, -19, -9,
-20, -107, -19,
25, 127, 16},
{51, 127, 51,
104, 125, 111,
95, 78, 97},
{42, 48, 25,
44, 127, 36,
6, 29, 16},
{38, 127, 30,
-7, -18, 6,
-33, -118, -36},
{-4, 127, 46,
-56, -108, -65,
-2, 47, 12},
{-12, -11, -19,
-34, 127, -22,
-23, -3, -27},
{13, 127, 7,
6, -105, 17,
-11, -1, -14},
{-20, -58, -17,
-15, 127, 12,
-27, -39, -23},
{-17, -29, 0,
-108, 127, 59,
-5, 3, 1},
{55, 127, 21,
27, 4, 21,
-59, -125, -55},
{-55, -112, -18,
-2, -2, -33,
31, 127, 26},
{-4, -57, -11,
-25, -69, -24,
32, 127, 32},
{-79, -96, -92,
-80, -48, -78,
-80, -127, -82},
{69, -19, -43,
-3, 127, -15,
-60, -11, 78},
{-8, 20, 11,
37, -127, 36,
22, 0, 13},
{-7, -34, 3,
-22, -127, -35,
-17, -36, -13},
{-44, -127, -60,
33, -4, 3,
32, 120, 31},
{4, 11, 2,
14, 127, 19,
-10, 33, 23},
{0, -19, -6,
-23, 127, -42,
-20, -20, -15},
{-11, -127, -7,
28, 19, -99,
39, 94, -10},
{10, -8, 2,
-16, -95, -5,
7, 127, -3},
{34, 77, 43,
109, 127, 106,
94, 86, 85},
{22, 38, 20,
-13, -127, -22,
27, 22, 30},
{26, 23, 26,
15, 127, 26,
14, 29, 12},
{-127, -41, -127,
-101, 80, -62,
-122, -79, -98},
{-4, -66, 4,
112, -121, 127,
-4, -109, 7},
{-9, 98, 64,
-46, -127, 29,
8, -32, 17},
{-45, -14, 65,
-18, 127, -8,
73, -17, -58},
{5, -25, 2,
-112, -2, -127,
-4, -10, 1},
{-13, -18, 35,
-69, -53, 127,
-12, -53, 23},
{-77, -107, -66,
-75, -116, -74,
-127, -98, -126},
{-21, -6, 16,
-63, -58, 127,
-15, -29, 47},
{2, -45, -2,
-47, -50, -49,
28, 127, 34},
{36, 114, 13,
42, -16, -127,
11, -68, -25},
{22, -15, -16,
114, -127, 32,
61, -49, -23},
{-20, -10, -22,
-6, 127, -22,
-25, -20, -29},
{-4, 38, -44,
5, 127, -121,
-6, 0, 3},
{35, 45, 4,
58, 127, 91,
20, 94, 57},
{-61, -56, -43,
-28, -37, -34,
-127, -35, -99},
{12, -27, 15,
-51, -78, 127,
-7, -35, 10},
{-40, -29, -21,
-34, -127, -27,
-43, -41, -62},
{-2, -118, -3,
9, 102, 13,
1, -127, -1},
{-3, -51, 4,
-48, -87, -58,
54, 127, 35},
{42, -5, 52,
67, 127, 58,
22, 9, 34},
{-5, 48, -5,
8, -127, 4,
6, 62, 16},
{39, 22, 14,
30, -127, 25,
16, 40, 66},
{44, 34, 49,
28, -127, 29,
30, -41, 30},
{56, -48, 85,
48, -127, 58,
38, -37, 47},
{38, -30, -40,
127, -31, -101,
52, 34, -57},
{10, -49, -22,
127, -37, -35,
16, 68, -83},
{34, -127, 27,
-113, 102, -114,
39, -93, 26},
{23, 127, 17,
-11, -48, -1,
-11, -101, -11},
{-2, 57, 0,
51, 127, 39,
4, 14, 1},
{25, 33, 12,
35, 127, 54,
23, 62, 47},
{-57, -95, -75,
-127, -3, -113,
-64, -103, -71},
{51, -23, -50,
24, 127, 28,
-60, -22, 34},
{-59, -59, 67,
-80, -29, 53,
127, -60, -107},
{-22, -12, 39,
-14, -127, 77,
-37, 6, 41},
{12, 127, -1,
67, 72, 80,
8, 116, 4},
{34, 21, 34,
20, 127, 24,
24, 68, 22},
{-4, -8, 8,
-11, -127, -17,
-7, -7, -5},
{-12, 21, -14,
-81, 127, -56,
-12, 30, -10},
{117, 12, -6,
127, -105, -37,
106, -55, -22},
{29, 45, 31,
16, 127, 25,
4, -60, 10},
{59, 63, 77,
87, -127, 74,
53, 54, 57},
{127, -12, 46,
11, -118, -24,
64, -61, -43},
{16, 127, 5,
-61, -66, -48,
16, -33, 11},
{-23, -77, 61,
117, -69, -109,
50, 127, -8},
{22, -28, -17,
127, -25, 6,
11, -19, -17},
{-85, 26, -127,
-100, -36, -95,
-13, -102, -29},
{40, 42, 32,
43, -127, 33,
34, 24, 25},
{1, 65, -10,
32, 127, 23,
-38, 20, -50},
{7, -3, -16,
-22, -50, -104,
5, 127, 54},
{-21, -34, -34,
-26, 127, -17,
-26, -23, -13},
{30, 93, 0,
127, -72, -80,
0, -96, 22},
{31, 39, -10,
127, -52, -34,
52, -7, -70},
{28, -15, 15,
12, -127, 4,
25, -16, 19},
{2, 127, -15,
84, 4, -64,
-8, -88, -43},
{-6, 8, -9,
78, -127, 80,
-7, -7, -1},
{15, 127, 10,
39, 105, 24,
35, -4, 35},
{16, 60, 20,
-7, -127, 5,
23, 40, 18},
{-4, 29, -7,
27, -127, 20,
27, 16, 22},
{5, -9, -11,
127, -95, 14,
18, -26, -12},
{29, 21, 32,
97, 127, 104,
3, -12, 5},
{29, 40, 33,
10, 127, 3,
26, 7, 30},
{-29, -102, -23,
-127, -69, -104,
-28, -45, -30},
{-25, 15, -10,
-69, 127, -56,
-13, 22, -18},
{-10, -43, 8,
-18, 127, -43,
5, -19, -3},
{-9, -15, -10,
15, 127, 14,
2, 69, 4},
{9, 17, 17,
2, 127, 6,
16, 16, 23},
{4, -1, 5,
127, -64, -3,
5, 7, 0},
{52, -34, 0,
120, 127, -45,
-79, -116, -62},
{-39, -26, 21,
17, -24, 127,
-44, -35, 35},
{-6, -16, 32,
12, -127, 97,
-12, -3, 28},
{-28, -83, -29,
127, -23, -106,
-14, 32, 37},
{19, 106, 33,
86, 127, 54,
50, 54, 46},
{6, 12, 27,
41, 127, 22,
40, 52, 43},
{17, 20, 19,
18, 127, 12,
1, 22, 12},
{-40, -50, -38,
31, 127, 51,
-28, -42, -28},
{50, 4, 20,
31, -127, 28,
15, 42, 63},
{-68, 66, 106,
26, 116, 6,
127, 11, -3},
{-16, -17, -5,
18, -107, 12,
2, 127, -3},
{35, 81, 18,
-54, 127, -20,
18, 50, 11},
{-58, -25, -66,
59, -30, 41,
30, 127, 31},
{44, -15, 39,
58, 127, 97,
32, -4, 20},
{-121, -85, -59,
-76, -19, -78,
-50, -52, -127},
{-7, 0, 34,
-18, -38, 127,
14, 14, 49},
{37, 36, 27,
17, 127, 31,
12, 31, 38},
{-112, -77, -24,
-76, -120, -32,
-64, -77, -127},
{3, 110, -30,
-127, 34, 23,
-107, -96, 49},
{-1, -13, -13,
127, 13, -48,
23, -13, -15},
{1, -37, 11,
-33, -127, -46,
8, -52, 6},
{-9, 9, -8,
-17, 127, -16,
-15, -1, -17},
{19, -4, 15,
21, -127, 23,
18, 5, 15},
{-49, 41, 45,
-127, -20, 20,
-68, 0, 19},
{12, -20, 5,
-30, 127, -19,
4, -23, -2},
{20, 17, -25,
110, -127, -8,
42, 13, -11},
{-15, -32, -25,
-74, 127, -47,
-18, -49, -23},
{-20, -16, 28,
7, -40, 127,
-25, 0, 13},
{-5, -117, 7,
-115, -86, -89,
-23, -127, -42},
{22, 57, 15,
25, 127, 20,
0, 41, 10},
{61, 11, -38,
100, -127, -51,
58, 6, -55},
{13, 95, 4,
92, 127, 89,
-10, 65, 33},
{9, 11, 8,
31, -127, 33,
8, 15, 5},
{-98, -63, 59,
-32, -127, -52,
29, -39, -82},
{14, 13, 4,
127, -75, -27,
25, 62, 10},
{-15, -127, -117,
69, 46, 67,
-58, 66, 15},
{34, -62, -70,
127, 9, -99,
26, 40, 9},
{49, 12, 37,
43, -127, 45,
41, 52, 42},
{32, -96, 7,
-98, 127, -48,
-23, -5, 1},
{3, 43, -5,
53, 127, 53,
3, 16, -8},
{-20, -115, -28,
-13, -36, -27,
-30, -127, -32},
{-1, -14, 2,
93, -127, -43,
-2, -16, 9},
{39, 22, 45,
15, -127, 15,
16, -22, 7},
{17, 94, 6,
-117, 77, -127,
2, 127, 12},
{-11, -104, 20,
86, 127, 59,
10, -83, 6},
{-36, -71, -3,
29, -127, 53,
42, 69, 63},
{23, 25, 22,
33, -127, 41,
26, 39, 37},
{-2, 10, -20,
-21, 127, -13,
-17, -96, 15},
{-9, -32, -21,
-37, -127, -40,
-10, -20, -14},
{14, 94, 10,
127, -60, -75,
-16, -72, 5},
{-5, -65, 38,
-75, -127, 66,
32, 114, 91},
{4, -10, 1,
-9, 127, -5,
-9, -3, -4},
{-10, -71, -22,
-39, -127, -40,
2, 12, -10},
{21, 72, 16,
-8, -127, -4,
-8, 39, -14},
{-25, -55, -20,
-26, -127, -42,
-61, -40, -54},
{-13, -98, -25,
-74, 127, -104,
-19, -44, -22},
{2, -4, 5,
32, -127, 31,
17, 21, 21},
{0, -3, 6,
-10, -127, 8,
37, 79, 99},
{-18, -57, -21,
-20, 2, 7,
17, 127, 10},
{13, 15, -32,
6, 127, -23,
-20, -13, -82},
{-75, -12, 76,
46, 127, 34,
22, -21, -58},
{10, 16, 10,
23, 127, 17,
9, 13, 6},
{-10, 9, -10,
-95, 127, -89,
-28, 42, -20},
{-3, -31, 2,
-46, 127, -45,
4, -42, -1},
{25, 35, 34,
-2, -127, -28,
57, -7, 29},
{12, 25, 18,
9, 127, 17,
23, 37, 17},
{9, -51, -125,
-70, -16, -70,
-127, -62, 0},
{-11, -68, -13,
-16, 127, -2,
-3, -61, -14},
{39, 127, 26,
-18, -12, -52,
-9, -83, -5},
{-10, -73, -38,
-98, 127, -113,
-22, -53, -21},
{80, -62, -25,
-66, 127, -55,
-62, -23, 59},
{11, 15, 8,
-77, 127, -76,
7, 68, 20},
{-8, 127, 47,
-83, -39, -67,
45, 78, 32},
{-10, -127, -32,
-94, 84, -99,
18, -71, -7},
{23, 58, 27,
39, 127, 15,
31, 79, 31},
{49, 10, 32,
1, 127, -6,
27, 11, 22},
{-21, -54, 23,
-38, 127, -39,
31, -26, -14},
{-20, 3, -27,
-43, 127, -43,
-24, -10, -23},
{44, -89, -5,
-118, -60, 110,
3, 127, 60},
{44, 30, 36,
49, 127, 45,
35, 37, 25},
{-4, 18, -2,
21, 127, -79,
-4, 26, -14},
{8, 43, 18,
41, 127, 53,
38, 60, 42},
{-29, -36, 25,
-7, -53, 127,
-34, -8, 20},
{39, 20, 42,
26, 127, 15,
42, 28, 37},
{7, -74, 25,
60, -74, -98,
9, 127, 50},
{-51, -41, 4,
30, -102, 15,
127, 119, 111},
{7, 45, 5,
3, -127, 7,
5, 67, 4},
{13, 94, 4,
3, -127, 9,
-29, 44, -19},
{9, -44, 2,
-12, -104, 13,
34, 127, 14},
{55, 51, 19,
127, 125, 87,
-28, 118, 57},
{14, 127, 25,
-23, -117, -35,
11, 104, 16},
{7, 55, -11,
39, 127, 5,
-9, -3, -25},
{127, 124, 3,
44, -93, -82,
20, -83, 2},
{31, 26, 43,
12, -127, 15,
38, 9, 43},
{-7, 127, 11,
-79, -1, 113,
-30, -74, -50},
{-95, -106, -120,
-127, -74, -114,
-48, -118, -58},
{28, 111, 26,
-43, -127, -34,
-17, 5, -27},
{-13, -71, -45,
-127, -5, 112,
30, 43, -10},
{-32, -57, -28,
-27, -21, 12,
40, 127, 41},
{78, -47, 2,
127, -28, 27,
39, -63, -1},
{22, 12, 19,
20, -127, 19,
18, 5, 17},
{20, 34, 10,
9, 127, -1,
19, 20, 23},
{75, 65, 57,
74, 127, 90,
67, 96, 69},
{-104, -67, -103,
-60, -24, -46,
-105, -96, -127},
{23, -22, -2,
85, -127, 17,
8, 0, -9},
{88, 112, 59,
86, 127, 91,
54, 3, 100},
{64, 127, 72,
-52, -103, -18,
2, -86, 0},
{23, 38, 21,
29, 127, 14,
12, 25, 10},
{-9, 24, 50,
-33, 43, 127,
-13, -31, -15},
{-3, 34, -13,
3, 127, -24,
-15, -42, -3},
{-20, 12, -17,
-79, -127, -38,
-14, -6, -8},
{-31, -62, 17,
-62, -127, 22,
-17, -41, 18},
{10, 20, 3,
7, 127, -23,
2, -11, 3},
{37, -33, 1,
120, -127, 8,
25, -30, -6},
{-2, -68, 15,
31, 127, 3,
3, 9, 6},
{20, 60, 7,
21, 127, -29,
-8, -44, 23},
{45, 127, 10,
-47, -88, -19,
-9, -11, -6},
{-30, -23, -25,
-44, -127, -8,
-18, 5, -16},
{-9, -44, -4,
-41, -127, -25,
-3, -40, -2},
{-8, -11, -9,
-31, -127, 1,
-9, -6, -11},
{7, 26, 0,
28, 127, -9,
-3, -19, 3},
{3, 13, -6,
18, 127, -25,
-20, -36, -7},
{1, 26, -8,
27, 127, -21,
-16, -9, -17},
{-5, 24, -16,
15, 127, -15,
-21, -26, -6},
{-60, -127, -41,
-99, -50, -92,
-84, -98, -63},
{-7, 25, -6,
11, 127, -7,
-10, -21, -5},
{-36, 11, -7,
127, -36, -72,
55, -26, -14},
{29, 44, -1,
25, 127, 3,
3, -6, 4},
{13, 8, -10,
3, 127, -48,
-19, -56, -4},
{-17, -33, -6,
-56, -127, -26,
-9, -12, -8},
{-5, 6, -9,
3, 127, -27,
-5, -28, 0},
{-21, -11, -14,
4, 127, -43,
-17, -19, -5},
{7, -55, -5,
127, -53, -46,
-7, 54, -8},
{11, 7, 6,
4, -127, 27,
10, 35, 2},
{-63, 14, 25,
-127, 48, 69,
0, 10, 28},
{8, -32, 11,
-61, -127, -22,
12, 4, 8},
{-71, 6, -71,
-124, -127, -99,
-43, -57, -32},
{-26, -106, -16,
-102, -127, -65,
21, -114, 33},
{42, -53, 3,
33, 127, -28,
-60, 50, 62},
{22, 35, 12,
56, 127, 19,
-1, -1, -3},
{16, 12, -11,
43, 127, -17,
-5, 8, 1},
{27, 118, -16,
84, 127, 50,
32, 21, 41},
{30, 127, 10,
-29, -56, -10,
-17, 13, -13},
{-84, -118, -51,
-106, -127, -84,
-97, -56, -97},
{-103, -72, -67,
-125, -65, -127,
-41, -93, -33},
{-17, 15, -16,
-4, 127, -30,
-28, -35, -16},
{-89, 1, -108,
-107, -127, -42,
-69, 49, -80},
{5, 49, -9,
23, 127, -9,
-10, -20, -3},
{-17, -43, -19,
-51, -127, -32,
-27, -24, -20},
{-9, -21, -2,
-10, -127, 32,
9, 36, -12},
{-12, 2, -9,
5, 127, -21,
-12, -48, 2},
{12, -21, 16,
2, -127, 42,
18, 37, 3},
{-17, -84, 7,
-32, -127, -1,
-30, 6, -27},
{18, -8, 17,
5, -127, 58,
24, 50, 0},
{-6, 20, -11,
5, 127, -28,
-14, -27, -6},
{1, 11, 2,
14, 127, -19,
-14, -37, -4},
{-3, -1, -3,
-12, 127, -40,
-11, -34, -2},
{-127, -123, -91,
-118, -105, -120,
-98, -49, -71},
{-18, 50, -8,
-7, 127, -17,
-10, -18, 2},
{-11, 22, -15,
20, 127, -1,
-44, -40, -29},
{-8, 19, -12,
-36, -71, -12,
22, 127, 3},
{35, -7, -30,
39, 127, -66,
27, -3, -53},
{-21, -9, -19,
1, 127, -30,
-3, -43, 15},
{2, 37, -9,
24, 127, -7,
-12, -18, -11},
{0, -2, 2,
-4, -127, 27,
7, 24, 0},
{-21, -42, -18,
-9, -127, 23,
-13, 24, -16},
{3, 19, -4,
12, 127, -19,
-6, -15, -4},
{0, 49, 18,
23, 127, -16,
2, -3, -2},
{-19, -61, -4,
-61, -127, -38,
13, -15, 19},
{-78, -26, -127,
-123, -81, -52,
-54, -100, -53},
{38, 82, -2,
54, 127, -33,
7, -12, 15},
{39, 66, 21,
73, 127, 43,
-11, 34, -17},
{57, 2, -14,
127, -23, -126,
-10, 7, -23},
{-3, -56, 4,
-52, -127, -27,
7, 1, -1},
{3, 4, 4,
29, 127, -4,
-4, -19, -6},
{-39, -31, -16,
-80, -63, -74,
66, 127, 30},
{11, 6, 8,
-9, -127, 25,
14, 31, 4},
{7, 51, -7,
35, 127, -10,
-8, -39, -1},
{-47, -65, -41,
-106, -127, -92,
-37, -72, -33},
{13, 30, 16,
52, 127, 27,
31, 30, 32},
{-24, 19, 3,
-80, 127, -12,
7, -19, 11},
{-4, 81, -18,
5, 127, -15,
-40, -97, -13},
{0, 29, -4,
-6, -127, 16,
5, 45, -8},
{-69, -127, -37,
-78, -53, -81,
-47, -100, -46},
{-127, -45, -71,
-44, -40, -44,
-56, -22, -47},
{-50, -52, -29,
-44, -127, -8,
10, 38, 1},
{16, 66, -1,
32, 127, 0,
-2, -12, -12},
{12, 36, -7,
44, 127, 8,
-25, 18, -13},
{-22, 40, -17,
50, 127, -13,
-26, 10, -24},
{-26, 1, -21,
-2, -127, 26,
-16, 0, -7},
{5, 59, -2,
25, 127, -15,
-10, -28, -5},
{3, -52, 20,
-60, -127, 2,
17, -11, -32},
{1, -48, 4,
-25, -127, 21,
-21, -26, -8},
{0, -46, 3,
-30, -127, 3,
-13, -3, -15},
{33, 110, 9,
81, 127, 16,
20, -13, 31},
{-67, 27, 55,
127, -51, -82,
61, -4, -64},
{22, 27, 22,
34, 127, 17,
26, 29, 17},
{-19, -33, -10,
-27, -127, -2,
-11, 2, -36},
{39, 25, 25,
58, 127, 21,
5, -42, -2},
{3, 63, -8,
3, 127, -22,
-7, 4, -3},
{34, -97, -38,
7, -127, 13,
18, -84, -24},
{14, 11, 9,
21, 127, -7,
18, 0, 15},
{16, -23, 17,
-3, -127, 30,
23, 49, 8},
{3, -5, 5,
-127, -70, -114,
-22, -43, -20},
{-11, -6, -7,
-9, 127, -26,
-3, -21, 0},
{-74, -102, -46,
-100, -59, -78,
-121, -127, -60},
{-32, -68, -14,
-63, -127, -35,
-14, -7, -8},
{-5, -31, 30,
-19, 127, 8,
63, 16, -35},
{-32, -50, 4,
-42, -127, 21,
8, 13, 4},
{3, 59, -14,
-3, 127, -42,
-35, -41, -23},
{8, 22, -12,
14, 127, -34,
-23, -38, -2},
{-1, -1, -6,
-29, -127, -8,
9, 8, 1},
{12, 36, 0,
39, 127, 11,
-4, -9, 4},
{13, 51, 14,
37, 127, -14,
7, -24, 12},
{-13, -23, -16,
-28, -127, -13,
-21, -28, -28},
{90, 48, 92,
127, 79, 108,
10, -51, 12},
{5, -3, 10,
-5, -127, 44,
15, 47, -8},
{8, -116, 23,
-41, -127, -10,
19, -41, 15},
{-21, -86, 22,
-76, -5, 127,
5, 67, -5},
{-53, -4, 23,
-127, 68, 91,
29, -5, -8},
{12, 40, 7,
33, 127, -2,
5, 21, 24},
{20, 51, 6,
48, 127, 7,
2, -18, 1},
{-20, 31, -27,
18, 127, -7,
-28, -20, -17},
{-38, -81, 32,
11, -127, 3,
-36, -68, 12},
{-7, 5, -2,
3, 127, -30,
-25, -40, -9},
{-38, 27, 46,
-127, 31, 68,
14, -21, -9},
{31, 54, 21,
25, 93, 3,
-71, -127, -24},
{-6, 6, -8,
16, 127, -18,
-8, -22, 2},
{-35, -127, -26,
-29, -122, -40,
-46, -80, -19},
{-7, -14, 0,
-8, 127, -32,
-6, -30, -1},
{54, 127, 31,
55, 88, 30,
19, -13, 27},
{-4, -69, 0,
37, -127, 54,
5, -62, 12},
{28, -78, 49,
-65, 127, -85,
35, -53, 28},
{-19, 40, -25,
17, 127, -18,
-37, -41, -26},
{2, 16, -1,
5, 127, -22,
-12, -26, -2},
{34, -48, 11,
85, -127, 40,
17, 3, -4},
{59, -18, -25,
61, -127, -96,
6, -40, -14},
{9, 21, -1,
37, 127, -13,
-16, -31, -7},
{11, 33, 10,
23, 127, -6,
6, -26, 19},
{34, -10, -60,
127, -25, -97,
25, -4, 11},
{-21, -72, -22,
-4, -127, 32,
-17, 41, -26},
{22, 127, 5,
-17, -54, -11,
-8, -15, -8},
{-32, -69, -19,
31, 127, 14,
1, 24, -1},
{23, 34, 20,
39, 127, 9,
17, -9, 20},
{17, 35, -4,
22, 127, -11,
-4, -15, 19},
{-22, -29, -31,
-29, -127, 14,
-18, -5, -13},
{-17, -26, -23,
-62, -50, -31,
64, 127, 25},
{-9, -21, 1,
-17, 127, -21,
-19, -25, -12},
{3, 18, 2,
-1, 127, -16,
-1, -15, 1},
{-5, -34, -6,
-41, -127, -21,
-3, -34, 0},
{-127, -73, -102,
-99, 88, -122,
-93, -97, -86},
{-63, -33, 24,
-127, -17, 85,
17, 53, 3},
{22, -59, 19,
127, -121, -23,
4, 1, -8},
{11, 53, -13,
-14, 127, -15,
4, -14, 12},
{-5, -1, 7,
-30, -127, -32,
2, -9, 2},
{21, -127, 22,
-80, -49, -89,
-54, -75, -61},
{-89, -63, -76,
-127, -110, -118,
-29, -105, -12},
{8, 127, 19,
15, -120, 10,
4, -44, -2},
{34, -31, 36,
42, -127, 38,
27, -20, 31},
{37, -32, -29,
127, -36, -42,
42, -39, -34},
{-104, -127, -91,
-92, -36, -90,
-44, -95, -54},
{65, 69, 58,
-58, 127, -84,
54, 81, 43},
{48, 21, 22,
32, 127, 36,
11, 51, 11},
{127, -127, 123,
6, -31, -2,
-50, 23, -45},
{67, 127, 57,
-74, -31, -68,
6, -98, 13},
{-79, 13, -25,
127, -10, 37,
46, -111, -24},
{-24, -127, -16,
-34, 73, -42,
21, 106, 23},
{32, 127, 39,
19, -47, 9,
-49, -100, -37},
{-6, 127, -6,
-3, 49, 4,
-77, -40, -81},
{-105, -105, -127,
-48, -95, -40,
-118, -23, -109},
{127, 44, 3,
33, -56, 12,
14, -4, 12},
{-127, -121, -114,
-114, -59, -103,
-75, -99, -60},
{-41, -111, -44,
-26, 127, -22,
15, 71, 15},
{4, -17, 5,
24, -96, 26,
58, 127, 59},
{-6, -18, -8,
-8, -127, -14,
-9, -12, -5},
{-25, -72, -27,
-34, 127, 1,
-1, 34, 11},
{-77, -110, -81,
16, 127, 8,
53, 10, 50},
{66, 127, 73,
-53, -118, -38,
-19, 21, -27},
{18, 127, 17,
-23, -33, -25,
-3, -39, 2},
{12, 34, 15,
58, 127, 57,
5, 3, 3},
{-36, -36, -28,
31, -127, 19,
116, 112, 103},
{-35, -39, -36,
-4, 127, 3,
13, -27, 15},
{-61, -70, -54,
-59, -127, -45,
-64, -55, -51},
{29, 127, 28,
-32, -56, -31,
-9, -24, -12},
{-57, 127, -37,
-91, 127, -86,
-23, 54, -23},
{26, 127, 34,
35, -23, 36,
15, -49, 19},
{40, 94, 48,
48, -127, 61,
-1, -42, 14},
{38, 34, 11,
-10, 127, -15,
18, 10, 23},
{5, -55, -7,
-37, 127, -16,
-4, -21, 0},
{17, 54, 12,
96, 127, 104,
28, 63, 39},
{-50, 48, -35,
-52, 127, -58,
-16, -6, -18},
{-8, -38, 1,
-70, 15, 127,
-54, -11, 56},
{127, -124, 16,
-73, 52, -7,
-72, 87, -17},
{-50, -127, -45,
-70, -85, -65,
-32, -61, -27},
{-1, 4, -6,
-19, 127, -10,
16, 6, 13},
{39, 127, 39,
-33, -49, -35,
-20, -16, -15},
{-1, -15, -5,
-36, -9, -32,
29, 127, 21},
{-17, -73, -11,
-26, 107, -34,
33, 127, 39},
{24, -16, -69,
-106, 35, 127,
-49, -35, 30},
{-7, -62, -56,
-32, -20, 127,
-42, -5, 24},
{56, 127, 61,
-31, -123, -28,
-18, -13, -20},
{-18, -42, -20,
11, -4, 14,
20, 127, 26},
{0, -58, 60,
-42, -91, 127,
-26, -25, 56},
{2, 127, 14,
-25, -69, -28,
-7, -14, -1},
{-82, -13, 110,
-79, -3, 127,
-27, 14, 89},
{26, 27, -26,
127, -23, -33,
45, 42, -59},
{86, 67, 92,
127, -119, 124,
76, 127, 61},
{46, 10, 45,
-14, 127, -5,
45, 7, 46},
{59, 63, 66,
61, 127, 60,
-75, -43, -53},
{-26, -122, -10,
-40, 127, -5,
19, 50, 46},
{0, 127, 11,
2, -66, -9,
-2, -40, -5},
{66, 102, -75,
71, 127, -57,
-66, -57, -41},
{77, 127, 104,
-17, -75, 1,
-55, -56, -19},
{94, -91, -4,
127, -105, -27,
68, -57, -22},
{100, 127, 114,
-36, -1, -36,
-67, -66, -59},
{18, -41, 20,
-44, -79, -40,
-26, 127, -20},
{8, -6, 8,
-12, 127, -6,
11, 28, 12},
{-67, -72, -73,
-83, -68, -64,
-127, -67, -110},
{-31, -50, -32,
-108, -107, -97,
-89, -127, -80},
{30, -46, 28,
21, 127, 25,
-41, -18, -37},
{14, -127, -1,
-35, 8, -36,
-22, 27, -22},
{37, 38, 40,
34, 127, 32,
34, 34, 33},
{-59, 127, -42,
-5, 103, 29,
-83, 82, -68},
{-3, 32, -3,
-16, -127, -15,
32, 49, 37},
{50, 127, 63,
30, 101, 36,
64, 57, 82},
{2, 52, -4,
-8, -127, 2,
11, 85, 4},
{31, -32, 36,
-126, -22, -127,
-55, 14, -54},
{31, -26, -21,
127, -91, -33,
29, -25, -16},
{25, 45, 14,
20, 127, 32,
40, 32, 27},
{-29, 15, -18,
127, 25, 118,
58, 24, 68},
{-80, -82, -66,
-31, -127, -34,
-68, -79, -75},
{127, -65, -66,
-83, 41, 59,
-44, 39, 28},
{46, 100, 38,
1, -127, 14,
-18, -10, -10},
{-37, -9, -36,
-2, 127, -6,
-36, 4, -31},
{-101, -110, -61,
-127, -62, -101,
-76, -82, -82},
{-112, -127, -90,
-88, -99, -95,
-101, -30, -101},
{-127, 25, 82,
-84, 26, 48,
-67, 0, 88},
{7, -106, 5,
-17, 38, -12,
1, 127, 4},
{-58, -2, 27,
127, -60, -40,
5, -12, 3},
{70, -18, -61,
-127, 7, 111,
32, -16, -19},
{-54, -91, -50,
127, 106, 116,
-40, -49, -53},
{6, 30, 2,
17, 127, 20,
9, 24, 5},
{-18, -4, 1,
-16, -101, -1,
127, -16, -10},
{9, -9, 9,
68, -127, 67,
14, -14, 21},
{-5, -13, 16,
-32, -87, 127,
2, -43, 41},
{-79, -24, 65,
-57, -83, 127,
-70, -28, 103},
{-78, -28, -81,
-55, -127, -34,
-51, -10, -36},
{33, 125, 32,
-11, -127, -13,
-4, -23, -4},
{80, 127, 86,
55, -46, 44,
-22, -18, -14},
{-80, 127, 5,
53, -80, -23,
26, -61, 10},
{26, 127, 40,
18, -69, 22,
-22, -73, -22},
{1, -18, 40,
-127, 16, 114,
-16, -7, 23},
{-3, -2, -5,
7, 127, 6,
-1, 37, -1},
{7, -74, 1,
52, 127, 63,
-15, 2, -18},
{95, 43, 7,
-23, -127, -15,
-7, -9, 9},
{-73, -127, -88,
-23, 118, -20,
-10, 77, 5},
{95, 68, 76,
115, 115, 127,
78, 120, 72},
{50, -47, 60,
57, 127, 65,
45, -59, 52},
{-13, 16, -18,
54, -127, 66,
-2, -10, -4},
{-4, -20, 0,
-10, 113, -6,
11, 127, 3},
{80, -60, -89,
127, -50, -52,
8, -1, -26},
{113, 61, 52,
60, 127, 85,
85, 115, 117},
{9, -10, -4,
127, -78, -37,
28, -34, -3},
{-83, -78, -90,
-61, -2, -93,
-127, -117, -100},
{-9, -98, 77,
49, -127, 127,
22, -90, 74},
{57, -10, -41,
-127, 12, 120,
44, -10, -26},
{1, -4, -1,
1, 127, 6,
15, 19, 16},
{5, -64, 5,
-20, 127, -19,
36, 69, 42},
{13, 127, 9,
-20, 23, -28,
-30, -42, -30},
{50, -43, 14,
113, -127, 63,
24, -7, 10},
{-110, -115, -101,
-24, 127, -17,
-21, 16, -11},
{24, 114, 27,
19, 127, 23,
52, 12, 40},
{-44, -35, -43,
-95, 22, -108,
26, -127, 34},
{35, 127, 46,
-33, -76, -28,
-12, -35, -18},
{13, -117, -21,
25, -5, -2,
123, 127, 75},
{-39, -19, -32,
-1, -127, 0,
67, 82, 70},
{0, -11, -4,
-54, 127, -33,
-13, 27, -11},
{-5, -1, 0,
42, 127, 25,
-18, 4, -14},
{23, -31, 3,
-70, 127, -20,
29, -21, 22},
{-58, 44, 87,
-30, -127, 30,
-54, 7, 49},
{4, -5, -1,
-13, 127, -11,
-18, 79, -20},
{-19, 38, -27,
66, 127, 70,
13, 49, 25},
{9, -24, 9,
122, -127, 6,
14, -28, 10},
{-42, 30, -46,
52, 127, 55,
-17, 57, -10},
{41, -32, -24,
127, -95, 8,
37, -36, -27},
{80, -33, 80,
94, 127, 70,
21, 69, 31},
{71, 48, 35,
111, 41, 127,
-63, -117, -43},
{-64, 10, -58,
-127, -74, -118,
14, -7, 22},
{56, -127, 49,
52, 32, 61,
12, 113, 26},
{-29, -32, -36,
-26, -127, -24,
75, 84, 78},
{127, -94, 114,
95, 98, 104,
-14, 54, -24},
{-1, 4, 127,
10, -40, 16,
-4, -1, 6},
{-37, -127, -41,
-50, -51, -42,
-62, -70, -65},
{26, 69, 37,
22, 127, 17,
19, 78, 23},
{-44, -35, -42,
-30, -127, -21,
-27, -57, -25},
{46, 127, 37,
-13, -118, -4,
-34, 7, -35},
{57, 127, 54,
-60, -78, -62,
-42, -83, -47},
{-25, 4, 8,
-81, -35, 127,
-16, -28, 33},
{-16, 55, 50,
-28, 13, 127,
6, 50, 63},
{51, -2, 43,
35, 127, 30,
35, 19, 30},
{12, 70, 6,
-17, -127, -10,
8, 49, 5},
{76, 113, 87,
80, -127, 80,
77, -48, 70},
{-10, 15, -9,
27, 127, 35,
-8, -84, -21},
{-18, -19, 127,
-2, -91, 16,
13, -21, -12},
{-112, -120, -127,
-102, -93, -95,
-81, -50, -77},
{-72, -55, -73,
-116, -77, -108,
-110, -119, -127},
{-25, 31, -10,
126, -127, 6,
11, -5, -10},
{-127, 29, 106,
89, -27, -63,
46, -26, -38},
{-32, -127, -38,
0, 78, 2,
12, 19, 19},
{-33, -73, -30,
3, -10, -17,
56, 127, 46},
{-69, -90, -37,
-88, -40, -65,
-49, -82, -127},
{-23, 21, 34,
7, -127, 103,
4, -60, 40},
{-75, -77, -51,
-44, -127, -70,
-73, -40, -56},
{-17, -35, -12,
3, -112, 1,
39, 127, 39},
{-75, -1, -77,
-39, -127, -39,
-30, 2, -21},
{46, 28, -12,
85, -127, 7,
36, -48, -2},
{-4, -5, 0,
1, -127, -7,
8, 126, 16},
{22, -59, 24,
-29, -102, 127,
-4, 3, 6},
{8, 0, -28,
2, -127, 24,
-14, -26, 119},
{-19, 5, -13,
80, 127, 98,
9, 79, 9},
{57, 83, 60,
-44, -127, -44,
-11, 23, -10},
{72, 95, -127,
-58, -43, 88,
-25, -67, 57},
{-2, -8, 3,
-9, -127, -14,
3, -29, 6},
{-25, -24, -29,
7, -127, 10,
52, 63, 56},
{89, 108, 69,
81, 127, 84,
96, 97, 87},
{-41, -100, -47,
26, 127, 32,
23, -38, 19},
{-21, -31, -15,
-2, 127, 5,
-3, 14, 0},
{-11, -17, -7,
8, -127, 8,
62, -13, 62},
{22, 26, 13,
33, 127, 35,
39, 49, 39},
{-80, -77, -54,
-127, -123, -114,
-56, -124, -56},
{-67, -122, -44,
-127, -108, -96,
-64, -56, -70},
{-1, 127, 12,
8, -20, -6,
-10, -86, -16},
{35, -48, 7,
120, -127, 7,
59, -38, -18},
{-80, -95, -66,
-88, -127, -74,
-71, -14, -70},
{11, 41, 7,
32, 127, 46,
1, 49, 0},
{-25, -127, -29,
-18, 126, 1,
-3, 19, 9},
{20, -8, 18,
70, -127, 69,
28, -26, 34},
{-7, -17, -10,
-11, -127, -29,
90, 60, 95},
{0, 4, 8,
-27, 127, -18,
-38, -110, -42},
{64, 127, 53,
89, 39, 77,
59, 104, 45},
{-24, -66, 55,
54, 46, -127,
-1, 27, 10},
{-72, -127, -61,
-116, -2, -125,
-33, -34, -29},
{76, 96, 90,
38, -19, 17,
-63, -127, -62},
{1, 127, 2,
15, 105, 16,
-49, 18, -52},
{5, -38, 5,
52, -127, 52,
45, 66, 37},
{-16, 127, -14,
51, 91, 41,
-42, 45, -22},
{0, 103, -3,
2, 8, 9,
-53, -127, -39},
{-103, -127, -101,
-22, 89, -15,
-11, 31, -1},
{48, -27, -17,
127, -127, -39,
25, -22, 6},
{23, 3, -17,
127, -37, -74,
29, -17, -4},
{2, -45, 15,
127, 82, 99,
7, 58, -4},
{36, 48, 31,
35, -31, 34,
12, -127, 6},
{105, 53, 77,
4, -127, -5,
1, -78, -4},
{11, 127, 14,
-17, -44, -18,
-36, -37, -41},
{4, -3, -33,
102, 27, -127,
21, 25, -12},
{21, 42, 27,
17, 127, 15,
3, -16, 4},
{44, 127, 32,
-43, -29, -38,
-8, 25, -3},
{71, 127, 59,
89, 102, 68,
-18, 113, -30},
{-2, -127, 10,
-66, 6, -66,
-5, -49, -3},
{-26, -78, -21,
-44, 127, -45,
-13, 3, -11},
{51, 113, 33,
100, 46, 104,
45, 127, 43},
{-17, -18, -18,
-11, 127, -11,
-5, 5, -3},
{44, 115, 33,
28, 127, 11,
15, -1, 12},
{-1, 127, -6,
-91, 5, -86,
-25, 81, -26},
{54, 51, 44,
22, 127, 26,
4, 1, -2},
{-126, -28, -127,
-36, -18, -29,
-20, -33, -22},
{23, 39, 16,
35, 127, 29,
20, 26, 19},
{6, 28, 1,
44, 127, 38,
6, 10, 4},
{-32, 39, -17,
-81, -75, -78,
-63, -127, -69},
{-13, -71, -10,
-14, -42, -15,
25, 127, 28},
{41, 127, 26,
23, -71, 22,
8, -51, 11},
{-16, 127, -4,
-37, 23, -39,
4, -7, 7},
{46, 40, 48,
55, 127, 59,
22, 22, 23},
{-18, 72, -18,
-3, 59, -9,
67, 127, 54},
{66, -28, -30,
127, -76, -34,
20, -18, -36},
{22, 127, 4,
-20, -38, -28,
-16, -30, -14},
{0, -20, 2,
-16, -127, -20,
10, -24, 11},
{-23, 56, -15,
-11, 127, -20,
-24, -96, -3},
{-2, -23, 1,
15, 16, 18,
45, 127, 35},
{9, 36, 10,
41, -127, 41,
7, 34, 3},
{20, -2, 24,
1, -127, 0,
37, 2, 41},
{-104, -109, -95,
-127, 19, -112,
-61, -99, -56},
{-40, -78, -36,
-13, 72, -14,
-9, 127, -5},
{49, 82, 48,
80, -127, 74,
42, 58, 37},
{20, 35, 13,
36, -127, 28,
17, 38, 22},
{7, -18, 8,
40, -90, 41,
70, 127, 56},
{5, 2, 1,
-85, -28, 127,
5, 7, 31},
{105, -2, -47,
127, -5, -66,
-5, -24, -22},
{-40, -58, -39,
6, -77, 7,
45, 127, 42},
{-20, 127, -29,
-8, 25, -19,
-23, -50, -14},
{-32, -42, -20,
-115, 127, -104,
-70, 122, -77},
{-9, 13, -3,
-13, 127, -33,
-25, -90, -23},
{88, -23, -93,
127, 49, -108,
74, -30, -32},
{3, -26, 8,
33, -127, 19,
15, 105, 10},
{14, 127, 11,
7, 57, -4,
7, -39, 13},
{-78, -61, -69,
-75, 45, -85,
-121, -90, -127},
{-67, -127, -76,
-126, 83, -113,
-93, -92, -82},
{15, 76, 18,
-16, -127, -19,
5, 5, 3},
{19, 55, 15,
34, 127, 38,
19, 16, 21},
{-126, 77, 82,
127, -78, -72,
0, 10, 0},
{23, 48, 31,
-61, -63, -74,
13, 127, -1},
{18, 117, -12,
78, 127, 90,
14, 111, 32},
{26, -87, 26,
30, 127, 23,
28, 50, 25},
{17, 0, 12,
44, 127, 27,
-1, 20, -2},
{64, 95, 52,
13, -127, -2,
-7, -49, -11},
{-12, -54, -4,
-9, -77, -5,
21, 127, 12},
{-22, -27, -16,
-19, 127, -16,
-21, -1, -21},
{26, 83, 20,
52, 113, 44,
35, -127, 34},
{-16, 13, -16,
-39, -106, -28,
49, 127, 42},
{84, 100, 61,
46, 127, 28,
53, -17, 60},
{2, 22, 11,
8, 127, 16,
4, 4, 10},
{-15, -17, 12,
127, -9, -70,
64, -50, -35},
{31, 8, -53,
46, 112, -127,
-4, 0, 0},
{-95, -6, 95,
-30, 24, -6,
127, -29, -85},
{89, -44, -38,
127, -47, -95,
13, 6, -12},
{-18, 14, -18,
-9, -68, 0,
29, 127, 24},
{127, -75, -59,
121, -78, -36,
81, -63, -25},
{9, -12, 13,
-58, -127, -52,
-8, 30, -7},
{56, 114, 9,
75, 127, 68,
-7, -122, -10},
{48, 127, 40,
-50, 53, -54,
-14, -100, -13},
{20, -56, 26,
60, -71, 58,
58, 127, 46},
{29, 127, 23,
62, 18, 66,
-13, 4, -9},
{13, 127, 2,
-93, -67, -91,
33, 56, 18},
{-51, -70, -44,
-80, -36, -127,
-27, -82, -42},
{-22, -2, 24,
-52, -35, 127,
-11, -4, 23},
{25, -30, 26,
63, -92, 44,
60, -127, 58},
{-25, -43, -21,
-10, -71, -6,
56, 127, 55},
{104, 21, -127,
50, -75, -62,
70, 9, -63},
{-1, 10, 0,
20, 127, 14,
26, 15, 24},
{-54, 26, 31,
-93, -32, 127,
-58, 18, 49},
{-28, -17, 61,
-92, -41, 127,
-9, -35, 26},
{-13, -6, -15,
-50, 126, -47,
-96, -127, -101},
{49, -19, -6,
127, -79, -46,
-1, -18, -6},
{-127, -33, -116,
-83, -87, -52,
-99, -95, -50},
{27, -127, 23,
54, 1, 65,
3, -117, 4},
{22, 127, 9,
12, 124, 12,
36, 37, 40},
{-34, -22, -27,
-100, -66, -127,
-70, -46, -76},
{-10, -65, -17,
6, -69, -1,
48, 127, 34},
{-38, -106, -48,
-96, -65, -93,
-100, 13, -127},
{50, 127, 39,
-7, 5, -6,
-31, -75, -28},
{22, 3, 22,
15, 127, 19,
33, 40, 26},
{32, -46, 31,
71, -127, 52,
3, -9, 9},
{51, 127, 55,
-27, -38, -25,
1, -36, -6},
{-24, -54, -11,
-49, 127, -51,
-28, -108, -48},
{-19, -16, -23,
-20, 127, -22,
-30, -9, -34},
{81, 27, 72,
54, 127, 44,
39, 23, 28},
{33, 124, -22,
49, 109, -127,
-18, -46, -35},
{-68, -71, -49,
-98, -113, -98,
-127, -101, -113},
{-7, -22, 0,
-4, 127, -3,
23, 76, 31},
{73, -4, -101,
84, 127, -44,
43, 60, -28},
{11, 84, 18,
75, 114, 73,
42, 127, 38},
{-5, -75, -2,
-1, 127, -2,
8, 33, 7},
{17, -15, 19,
-4, -21, -5,
21, 127, 13},
{-58, -127, -48,
1, 25, 7,
28, 94, 24},
{8, -38, -18,
29, -107, 15,
113, 127, 49},
{107, 6, -87,
-23, 15, -18,
-100, -30, 127},
{-115, -25, 127,
-57, 22, 28,
76, 3, -64},
{-79, -127, -60,
-119, -117, -91,
-57, -63, -65},
{41, 37, 38,
43, 127, 39,
32, 39, 36},
{-45, 127, -54,
-61, 86, -82,
1, 44, -1},
{14, 127, 23,
-23, 24, -33,
-13, -21, -8},
{17, 127, 10,
15, -14, 15,
-18, 15, -16},
{-127, -95, -106,
-101, -122, -98,
-34, -30, -30},
{-45, -127, -28,
-110, -111, -65,
-18, -45, -4},
{-3, -14, 1,
-6, -60, -2,
49, 127, 45},
{25, 127, 17,
-60, -123, -52,
12, 12, 11},
{-35, -38, -34,
-34, 26, -37,
54, 127, 49},
{21, -37, 24,
46, -127, 50,
26, -33, 25},
{24, 17, 10,
12, 23, 20,
5, 127, 4},
{-18, -79, 3,
62, 127, 56,
-42, -104, -40},
{-3, -23, 33,
-75, -46, 127,
-25, -8, 19},
{32, 3, 30,
-17, 127, -15,
-50, -48, -46},
{58, 127, 50,
2, -26, 0,
-15, -8, -11},
{-124, -11, -29,
41, 127, 37,
-5, -10, -17},
{50, 108, 44,
55, 125, 46,
-127, -2, -117},
{11, 127, 12,
-22, 12, -21,
5, 24, 3},
{96, 6, -93,
127, -39, -125,
23, 26, -67},
{24, 9, 21,
26, 127, 24,
21, 22, 30},
{51, -76, 65,
46, -127, 70,
-16, 23, -19},
{54, 31, 47,
34, 127, 32,
70, 30, 54},
{-63, -14, -52,
-73, -127, -46,
-14, -24, -41},
{-51, 5, 47,
-127, 16, 126,
-35, 8, 29},
{-83, 9, 37,
-110, 60, 122,
-127, -32, 91},
{-82, -42, -100,
-127, 12, -77,
-48, -26, -69},
{-12, 17, -16,
-59, -83, 127,
13, -17, 38},
{23, 59, 29,
61, 127, 59,
21, 67, 18},
{35, 34, 38,
-30, -127, -25,
118, 58, 119},
{-64, 33, 127,
-60, 60, 71,
-49, -59, -65},
{3, -5, -7,
-19, 127, 20,
3, -2, -8},
{26, 127, 16,
1, 42, -3,
12, -15, 13},
{-9, 4, -10,
17, 60, 16,
19, 127, 15},
{73, 75, 70,
81, -127, 81,
38, 75, 22},
{-19, 127, -18,
-25, -42, -28,
22, -33, 22},
{-15, -40, -5,
16, 127, 6,
3, -90, 10},
{91, 127, 56,
93, 51, 91,
55, 58, 68},
{10, 36, 23,
28, 127, 11,
10, 10, 14},
{-127, -103, -97,
-110, 51, -97,
-45, -19, -30},
{63, 127, 51,
104, 114, 109,
28, 106, -1},
{-98, -90, -127,
-85, -41, -78,
-67, 1, -59},
{53, 126, 34,
66, 127, 82,
8, -50, 21},
{-5, -4, 2,
127, -13, -114,
27, -1, -37},
{23, 117, 17,
98, 127, 84,
14, 63, 0},
{-61, -114, -49,
-29, 63, -40,
92, 127, 87},
{28, 22, 29,
-63, 127, -62,
38, 53, 37},
{-48, -49, -48,
10, -11, 19,
40, 127, 45},
{48, 15, 5,
75, 44, -127,
35, 40, 60},
{-24, 27, -19,
18, 127, 29,
-3, 57, 4},
{-46, -52, -54,
-47, -127, -41,
-18, -38, -18},
{4, 84, 5,
-33, 83, -46,
-46, -127, -42},
{-80, 15, 87,
-62, -91, 127,
-48, -11, 38},
{23, 32, 19,
51, 127, 64,
35, 55, 30},
{37, 14, 33,
15, 127, 10,
40, 2, 36},
{58, -71, -4,
127, -116, -15,
6, -23, 5},
{61, 127, 54,
26, -111, 50,
-34, -58, -5},
{-37, -7, -34,
-46, -127, -51,
-27, -26, -11},
{-27, -80, -25,
-119, -110, -127,
-27, -105, -32},
{-45, -105, -38,
-55, 116, -37,
23, 127, 41},
{-30, -46, -28,
35, 127, 23,
15, -14, 18},
{16, -48, 14,
-68, -62, -65,
-20, 127, -21},
{-26, 37, -29,
-23, -127, -15,
61, 53, 63},
{-32, -62, -32,
0, 127, 0,
-2, 8, 3},
{-45, 127, -47,
-32, 73, -41,
-29, -117, -26},
{11, 74, 14,
70, 127, 52,
24, 22, 24},
{-1, -11, -5,
-15, 127, -15,
3, -11, 4},
{5, -15, 42,
-32, -55, 127,
5, 8, 42},
{22, -103, 25,
38, 127, 25,
78, 39, 69},
{60, -9, 5,
127, -66, -36,
63, 16, 16},
{-112, -49, -127,
-89, -87, -123,
-83, -114, -78},
{13, -16, -10,
127, -35, -70,
17, -16, -20},
{-77, -127, -62,
-66, 4, -67,
-31, -66, -23},
{26, 127, 19,
-62, -33, -63,
4, 6, 6},
{39, 72, 35,
51, -127, 49,
7, 51, 10},
{3, 30, 31,
-127, 57, 71,
47, 42, 27},
{-20, -34, -16,
23, 40, -5,
48, 127, 34},
{-20, 18, -20,
-41, -127, -44,
-23, -71, -19},
{-64, -42, -63,
-68, 121, -71,
-110, -127, -113},
{86, 108, 74,
119, 127, 76,
74, 74, 28},
{52, 81, 33,
93, 127, 57,
60, 79, 41},
{59, 83, 38,
92, 127, 60,
47, 65, 32},
{-127, 44, 81,
-119, 40, 107,
-80, 16, 61},
{70, 86, 45,
100, 127, 62,
61, 86, 30},
{65, 90, 40,
85, 127, 60,
34, 59, 33},
{-61, -71, -46,
-91, -127, -65,
-59, -73, -38},
{89, 106, 38,
94, 127, 55,
27, 49, 19},
{81, 95, 41,
93, 127, 59,
36, 54, 25},
{71, 93, 43,
90, 127, 55,
40, 58, 28},
{76, 99, 38,
94, 127, 55,
47, 68, 37},
{67, 89, 40,
96, 127, 60,
52, 74, 31},
{-93, -91, -83,
-104, -127, -87,
-54, -74, -38},
{63, 86, 44,
92, 127, 64,
46, 59, 34},
{70, 95, 44,
96, 127, 58,
49, 65, 31},
{-63, -86, -35,
-92, -127, -56,
-47, -66, -35},
{-65, -90, -46,
-88, -127, -63,
-46, -64, -28},
{19, 16, -18,
99, 127, 39,
-102, -72, -86},
{66, 92, 47,
93, 127, 61,
49, 68, 27},
{67, 94, 42,
86, 127, 61,
39, 59, 29},
{-68, -92, -28,
-93, -127, -57,
-47, -61, -28},
{-75, -91, -50,
-99, -127, -71,
-54, -72, -43},
{68, 83, 43,
106, 127, 73,
75, 90, 52},
{67, 93, 43,
93, 127, 63,
43, 60, 25},
{-66, -89, -39,
-92, -127, -57,
-44, -61, -25},
{53, 73, 38,
94, 127, 64,
60, 81, 39},
{58, 85, 39,
89, 127, 66,
51, 74, 40},
{-77, -117, -56,
-81, -127, -63,
-29, -43, -28},
{110, 116, 34,
120, 127, 23,
41, 38, -4},
{-82, -111, -59,
-96, -127, -68,
-56, -74, -42},
{-62, -92, -47,
-91, -127, -67,
-63, -89, -52},
{-84, -112, -55,
-115, -127, -75,
-74, -84, -58},
{-106, -127, -72,
-96, -124, -62,
-24, -36, -7},
{-47, -64, -31,
-97, -127, -64,
-69, -90, -43},
{64, 83, 34,
99, 127, 53,
57, 74, 30},
{77, 96, 47,
100, 127, 60,
52, 73, 31},
{-95, -116, -59,
-116, -127, -86,
-70, -89, -49},
{-69, -97, -51,
-92, -127, -69,
-46, -66, -32},
{64, 96, 45,
86, 127, 61,
44, 59, 26},
{-50, -77, -38,
-84, -127, -66,
-45, -71, -38},
{63, 90, 47,
90, 127, 59,
43, 60, 26},
{-65, -88, -43,
-93, -127, -59,
-53, -71, -34},
{74, 93, 43,
96, 127, 63,
47, 72, 36},
{-94, -116, -67,
-116, -127, -88,
-79, -91, -60},
{72, 100, 52,
90, 127, 62,
37, 58, 22},
{-62, -83, -34,
-93, -127, -57,
-47, -65, -30},
{55, 81, 36,
86, 127, 54,
34, 50, 27},
{70, 91, 41,
98, 127, 55,
50, 67, 27},
{68, 93, 40,
92, 127, 58,
43, 62, 25},
{59, 83, 36,
90, 127, 57,
44, 64, 22},
{-68, -88, -40,
-92, -127, -61,
-47, -69, -30},
{-67, -93, -39,
-98, -127, -69,
-60, -78, -41},
{55, 70, 21,
91, 127, 50,
52, 77, 37},
{-65, -92, -44,
-86, -127, -61,
-43, -64, -40},
{83, 104, 54,
103, 127, 71,
56, 72, 42},
{-73, -94, -37,
-97, -127, -49,
-42, -56, -22},
{26, 40, 21,
92, 127, 61,
75, 105, 48},
{78, 96, 31,
105, 127, 54,
57, 69, 27},
{71, 99, 50,
94, 127, 63,
42, 57, 27},
{-95, 22, 72,
-127, 36, 96,
-72, 7, 51},
{-61, -83, -37,
-89, -127, -63,
-47, -71, -31},
{-61, -81, -42,
-90, -127, -69,
-48, -70, -36},
{54, 83, 47,
89, 127, 70,
57, 81, 39},
{59, 83, 35,
92, 127, 55,
48, 66, 34},
{67, 94, 40,
98, 127, 58,
43, 55, 35},
{49, 72, 33,
88, 127, 63,
50, 76, 39},
{-56, -79, -35,
-85, -127, -68,
-48, -76, -45},
{66, 89, 44,
93, 127, 68,
51, 70, 36},
{-68, -94, -51,
-96, -127, -67,
-51, -70, -24},
{-68, -92, -42,
-92, -127, -71,
-50, -81, -46},
{-53, -77, -31,
-92, -127, -58,
-52, -73, -33},
{70, 98, 51,
89, 127, 69,
27, 41, 19},
{87, 113, 41,
106, 127, 42,
43, 47, 16},
{-94, -127, -77,
-52, -65, -53,
5, 4, 6},
{76, 101, 46,
98, 127, 56,
45, 60, 23},
{35, 62, 30,
91, 127, 68,
72, 91, 53},
{66, 86, 34,
101, 127, 49,
52, 66, 25},
{-79, -95, -55,
-100, -127, -69,
-40, -65, -20},
{-90, -65, -105,
-38, -26, -47,
-88, -127, -75},
{-76, -85, -17,
-104, -127, -37,
-42, -39, -2},
{55, 79, 40,
91, 127, 58,
56, 75, 34},
{74, 102, 42,
88, 127, 51,
26, 41, 15},
{-56, -82, -37,
-88, -127, -62,
-47, -71, -36},
{-92, -120, -77,
-127, -127, -92,
-105, -119, -65},
{-84, -113, -63,
-99, -127, -80,
-58, -78, -38},
{-63, -100, -59,
-81, -127, -70,
-31, -51, -28},
{64, 88, 44,
89, 127, 65,
42, 65, 32},
{-70, -89, -46,
-95, -127, -67,
-49, -66, -37},
{55, 80, 41,
90, 127, 61,
48, 69, 33},
{70, 87, 35,
103, 127, 50,
59, 75, 27},
{-57, -81, -41,
-93, -127, -68,
-61, -86, -48},
{68, 94, 45,
99, 127, 61,
52, 63, 32},
{67, 88, 41,
95, 127, 56,
44, 61, 19},
{63, 86, 38,
88, 127, 62,
46, 69, 34},
{-55, -78, -36,
-88, -127, -60,
-53, -77, -35},
{60, 82, 41,
92, 127, 62,
55, 75, 38},
{-108, -109, -66,
-127, -126, -79,
-70, -68, -44},
{56, 75, 37,
86, 127, 63,
47, 74, 35},
{103, 113, 57,
117, 127, 64,
57, 68, 31},
{69, 95, 42,
92, 127, 62,
50, 69, 33},
{71, 94, 45,
102, 127, 69,
63, 74, 40},
{63, 92, 47,
95, 127, 66,
52, 69, 35},
{-54, -81, -39,
-89, -127, -61,
-48, -74, -40},
{-74, -97, -46,
-113, -127, -78,
-67, -90, -34},
{71, 94, 34,
96, 127, 58,
51, 66, 28},
{-71, -101, -42,
-105, -127, -70,
-74, -102, -49},
{-78, -98, -45,
-98, -127, -54,
-44, -58, -23},
{-59, -86, -38,
-88, -127, -60,
-43, -63, -30},
{68, 96, 40,
91, 127, 58,
36, 52, 25},
{73, 90, 36,
91, 127, 64,
38, 66, 35},
{64, 89, 45,
89, 127, 67,
38, 60, 33},
{-58, -85, -41,
-89, -127, -65,
-41, -64, -38},
{67, 96, 47,
93, 127, 68,
57, 74, 43},
{-54, -82, -36,
-85, -127, -59,
-46, -68, -32},
{55, 77, 32,
100, 127, 64,
69, 89, 44},
{60, 81, 36,
92, 127, 65,
50, 65, 42},
{-65, -92, -63,
-86, -127, -75,
-58, -85, -55},
{58, 73, 31,
101, 127, 55,
55, 72, 30},
{34, 48, 20,
89, 127, 62,
74, 110, 59},
{53, 85, 40,
81, 127, 62,
40, 65, 30},
{68, 94, 47,
94, 127, 61,
46, 63, 26},
{-97, -127, -67,
3, -2, 1,
77, 97, 59},
{78, 100, 29,
87, 127, 49,
27, 35, 25},
{78, 110, 52,
92, 127, 64,
37, 53, 24},
{-60, -76, -40,
-102, -127, -70,
-67, -83, -43},
{-92, -116, -63,
-96, -127, -60,
-38, -72, -22},
{83, 97, 54,
100, 127, 82,
68, 80, 47},
{-122, 33, 99,
-106, 49, 117,
-127, 21, 104},
{-53, -74, -40,
-88, -127, -65,
-47, -71, -38},
{-117, 6, 89,
-127, 16, 109,
-85, 11, 67},
{-58, -82, -36,
-87, -127, -60,
-44, -67, -34},
{75, 98, 49,
104, 127, 63,
47, 56, 24},
{-65, -98, -54,
-92, -127, -75,
-62, -81, -45},
{-51, -80, -39,
-85, -127, -64,
-50, -69, -33},
{83, 108, 45,
92, 127, 57,
34, 52, 27},
{67, 92, 39,
97, 127, 53,
49, 67, 29},
{52, 75, 35,
87, 127, 63,
48, 72, 33},
{57, 81, 40,
88, 127, 61,
46, 66, 31},
{49, 74, 32,
84, 127, 57,
48, 70, 33},
{58, 81, 35,
92, 127, 60,
44, 61, 32},
{70, 91, 47,
92, 127, 64,
50, 68, 43},
{70, 97, 50,
91, 127, 66,
31, 52, 24},
{-107, 9, 56,
-127, 39, 76,
-87, 27, 55},
{-77, -91, -50,
-101, -127, -67,
-64, -84, -47},
{77, 103, 48,
100, 127, 60,
41, 53, 24},
{-65, -105, -57,
-94, -127, -66,
-51, -70, -33},
{71, 95, 47,
94, 127, 66,
47, 70, 42},
{63, 87, 40,
92, 127, 58,
48, 69, 33},
{53, 69, 37,
85, 127, 70,
58, 74, 47},
{69, 92, 49,
99, 127, 77,
60, 78, 47},
{70, 94, 39,
90, 127, 62,
36, 60, 31},
{88, 110, 57,
102, 127, 65,
57, 71, 35},
{68, 91, 49,
91, 127, 72,
55, 81, 44},
{-109, -116, -60,
-127, -127, -88,
-76, -99, -40},
{73, 98, 40,
94, 127, 59,
47, 60, 24},
{-56, -77, -29,
-97, -127, -53,
-55, -78, -40},
{71, 97, 45,
98, 127, 58,
52, 67, 31},
{66, 86, 41,
96, 127, 60,
54, 75, 34},
{-49, -72, -48,
-81, -127, -68,
-46, -76, -30},
{79, 105, 45,
97, 127, 70,
54, 69, 43},
{48, 71, 31,
90, 127, 53,
58, 79, 34},
{106, 127, 40,
64, 72, 30,
21, 9, 3},
{71, 86, 39,
94, 127, 66,
46, 68, 38},
{75, 100, 51,
95, 127, 67,
40, 54, 28},
{-91, -127, -55,
7, 10, -1,
80, 124, 52},
{63, 85, 35,
94, 127, 54,
50, 75, 32},
{-72, -100, -45,
-92, -127, -62,
-38, -53, -26},
{50, 54, 0,
104, 127, 44,
69, 86, 35},
{61, 69, 35,
88, 127, 62,
55, 77, 28},
{56, 77, 40,
87, 127, 67,
51, 77, 39},
{77, 101, 43,
97, 127, 56,
42, 59, 29},
{-60, -90, -41,
-88, -127, -58,
-39, -55, -24},
{55, 78, 31,
89, 127, 65,
60, 83, 48},
{-79, -110, -57,
-110, -127, -81,
-66, -82, -46},
{63, 91, 44,
88, 127, 63,
42, 60, 24},
{60, 87, 38,
87, 127, 57,
38, 56, 24},
{72, 104, 55,
94, 127, 66,
46, 64, 30},
{85, 107, 43,
103, 127, 55,
48, 59, 30},
{69, 95, 48,
89, 127, 63,
39, 58, 31},
{79, 106, 45,
97, 127, 55,
40, 50, 17},
{-75, -101, -49,
-96, -127, -61,
-43, -60, -28},
{63, 88, 38,
93, 127, 56,
45, 62, 31},
{85, 107, 43,
104, 127, 57,
44, 48, 23},
{-88, -127, -69,
5, 14, 8,
78, 115, 58},
{-69, -83, -43,
-101, -127, -59,
-49, -68, -35},
{61, 83, 45,
88, 127, 66,
41, 64, 37},
{-57, -85, -41,
-88, -127, -61,
-51, -73, -39},
{60, 86, 37,
95, 127, 69,
64, 82, 41},
{63, 88, 48,
95, 127, 65,
54, 77, 30},
{64, 94, 40,
89, 127, 59,
40, 57, 27},
{73, 98, 43,
97, 127, 56,
44, 55, 28},
{39, 51, -9,
114, 127, 20,
-83, -108, -22},
{-21, -53, -15,
-32, -87, -26,
44, 127, 35},
{-12, -15, -10,
-13, 127, -17,
-39, -51, -34},
{62, 114, 57,
-32, -127, -19,
-24, -53, -14},
{-47, 8, 41,
-127, -3, 113,
-39, 4, 53},
{56, 0, -54,
127, -24, -126,
52, 7, -44},
{63, 127, 48,
-25, 33, -17,
-71, -113, -60},
{48, -12, -36,
127, -54, -93,
43, -14, -28},
{8, 127, 3,
-9, -16, -9,
-15, -16, -12},
{-93, -112, -85,
-127, -75, -123,
-75, -83, -86},
{-31, -42, -20,
-21, -84, -13,
49, 127, 37},
{-29, -8, 42,
-126, -18, 127,
-41, 15, 37},
{44, 107, 28,
25, 127, 15,
-12, -10, -12},
{-17, -5, 24,
-98, -33, 127,
-5, -1, 27},
{2, -66, 6,
-55, -127, -39,
-1, -60, 1},
{-12, -36, -7,
-32, -127, -32,
-10, -48, -16},
{50, 127, 36,
-42, 23, -34,
-51, -116, -55},
{-108, -103, -96,
2, 74, -20,
74, 127, 64},
{-79, -104, -52,
-127, 3, -97,
-91, -70, -73},
{-59, 5, 39,
-115, -11, 127,
-39, -7, 46},
{55, -17, -43,
127, -21, -113,
44, 3, -38},
{-80, -86, -77,
20, 39, 15,
89, 127, 62},
{55, 127, 42,
-21, -39, -16,
-44, -59, -41},
{-53, -127, -48,
-13, 14, -9,
79, 123, 60},
{-38, -127, -24,
-9, 8, -3,
42, 100, 36},
{-21, -2, 25,
-103, -29, 127,
-18, 7, 13},
{9, -92, 2,
-90, -127, -92,
-4, -90, -5},
{62, 127, 44,
-62, -50, -49,
4, -54, 12},
{72, 1, 75,
46, -127, 37,
89, 57, 84},
{-34, -115, -20,
-50, -26, -46,
81, 127, 73},
{-120, -103, -110,
47, -44, 47,
97, 127, 81},
{50, 127, 38,
-8, 3, -21,
-63, -100, -54},
{24, 45, 20,
74, 127, 58,
96, 26, 94},
{-33, -6, 46,
-99, -32, 127,
-16, -2, 24},
{-5, -12, -19,
127, -20, -73,
18, -47, -16},
{-127, -117, -108,
-85, -33, -72,
-95, -83, -82},
{29, -3, 95,
-127, -1, 48,
87, 67, 110},
{0, 24, 1,
56, 127, 48,
-1, 4, 2},
{22, 127, 14,
70, -81, 83,
1, 86, 3},
{-37, -60, -32,
-29, -104, -13,
65, 127, 67},
{18, -127, 15,
61, -67, 58,
-19, -63, -19},
{-1, -23, 6,
-60, -34, -55,
21, 127, 10},
{74, 127, 58,
107, 80, 106,
23, 20, 26},
{7, -53, -64,
86, 61, -127,
58, -15, -105},
{-7, -64, -13,
-43, -127, -40,
-19, -49, -18},
{28, 27, 24,
16, -127, 12,
28, 14, 22},
{-42, -78, 127,
-51, -89, 124,
-32, -58, 97},
{11, 31, 12,
68, 127, 47,
6, 63, -1},
{19, 45, 11,
47, 127, 33,
11, 46, 16},
{77, 117, 83,
115, -112, 112,
60, 127, 62},
{-28, -28, -16,
-20, -120, -5,
73, 127, 65},
{-91, -87, -80,
-95, -71, -85,
-70, -127, -59},
{44, -4, -39,
127, -38, -111,
58, -8, -50},
{-21, -8, 32,
-127, 1, 116,
-22, 13, 27},
{-11, -15, -1,
-11, -127, -14,
53, 74, 51},
{13, 127, -1,
-28, 38, -30,
-57, -48, -55},
{127, 105, 110,
21, 103, 25,
-8, -90, 9},
{-21, -93, -11,
-18, -14, -12,
47, 127, 33},
{-127, -61, -117,
-82, -9, -80,
-86, -63, -88},
{8, 82, 3,
17, 127, 10,
-1, 42, 2},
{23, 108, 25,
125, 66, 127,
6, 122, -2},
{48, -44, -21,
127, -23, -77,
48, -16, -44},
{-25, -59, -26,
-51, -127, -42,
-26, -49, -28},
{-114, -106, -83,
-127, -100, -106,
-76, -63, -48},
{36, 123, 14,
83, -127, 88,
40, 75, 27},
{31, 4, 30,
12, -127, 15,
22, 13, 22},
{32, 33, 29,
66, -32, 63,
41, -127, 40},
{-14, -93, -20,
-110, -127, -94,
-7, -91, -27},
{51, 114, 37,
82, 127, 75,
-27, 44, -24},
{118, -97, -36,
127, -105, -45,
48, -40, -2},
{-9, -90, 10,
-7, -64, -12,
125, 31, 127},
{30, -9, -20,
127, -15, -120,
34, -14, -27},
{-81, -76, -64,
-127, -53, -90,
-88, -95, -72},
{45, -13, -30,
127, -34, -87,
30, 5, -35},
{1, -31, 1,
-26, -14, -27,
21, 127, 12},
{49, 127, 32,
25, 20, 21,
-71, -120, -63},
{-30, -79, -23,
-3, -21, -7,
34, 127, 18},
{62, -32, 53,
116, 120, 118,
9, 127, -17},
{11, -29, 11,
91, -127, 76,
16, -61, 18},
{-43, -85, -51,
23, -99, 32,
76, 127, 73},
{-23, -127, -3,
38, 21, 36,
21, 51, 14},
{54, 127, 42,
-34, 8, -18,
-33, -123, -29},
{39, 127, 20,
-32, -110, -17,
-26, -9, -17},
{41, 83, 30,
81, -4, 70,
-12, -127, 7},
{2, 25, 8,
104, -111, 94,
52, 127, 51},
{-45, -127, -36,
-8, -7, -6,
50, 125, 44},
{-75, -57, -67,
-113, -127, -102,
-65, -80, -59},
{-32, -61, 79,
-127, -20, 121,
-8, -49, 94},
{-59, -87, 117,
-69, 127, 20,
53, 17, -82},
{63, 127, 54,
48, -25, 53,
68, 16, 46},
{-69, -64, 14,
-115, -21, 127,
-57, -84, 38},
{50, 43, 38,
38, -127, 25,
22, -5, 18},
{4, 34, 5,
39, 127, 37,
10, 31, 11},
{39, -8, 42,
2, -127, 9,
25, 6, 27},
{57, -48, -26,
127, -104, -10,
49, -33, -24},
{71, 83, 62,
-25, -127, -15,
7, -36, 1},
{39, -16, -24,
127, -26, -105,
54, -2, -41},
{-27, -23, -21,
-47, -127, -27,
-22, -72, -23},
{111, 4, -127,
-102, -11, 121,
-22, -15, 40},
{-89, -56, 127,
-50, -71, 92,
13, -13, 13},
{-29, -31, 62,
-87, -57, 127,
-89, -15, 102},
{-17, -39, -17,
-21, -127, -37,
101, 40, 108},
{-27, -123, -19,
-10, -84, 2,
72, 127, 55},
{16, -20, -10,
127, -25, -99,
35, -21, -22},
{46, 116, 35,
5, -11, 8,
-51, -127, -37},
{39, -81, 31,
-70, -127, -63,
16, -61, 8},
{28, 25, 29,
34, -127, 35,
5, -10, 4},
{-19, -6, 21,
-120, 9, 127,
-56, -2, 41},
{-54, -10, 53,
-65, -41, 127,
-45, -6, 38},
{69, 62, 55,
30, 41, 22,
-127, 0, -79},
{31, -1, 29,
10, -127, 3,
38, -1, 39},
{30, 127, 18,
72, 88, 84,
50, 71, 63},
{52, 127, 46,
-34, -37, -30,
-11, -99, -6},
{45, 31, 45,
28, 127, 22,
26, 9, 24},
{-57, -127, -33,
-89, -84, -86,
-22, -104, -18},
{-65, -127, -46,
38, 52, 27,
27, 114, 20},
{-127, -80, -124,
-85, 52, -79,
-112, -86, -110},
{33, 97, 25,
59, 42, 51,
-24, -127, -6},
{-23, -3, 26,
-127, -5, 122,
-23, -5, 32},
{-70, -30, 76,
-104, -85, 127,
-80, -13, 49},
{32, 127, 13,
119, 87, 105,
10, 69, 16},
{-44, 31, -35,
-59, 127, -66,
-20, 57, -28},
{66, -3, -64,
127, 9, -107,
29, 4, -43},
{-63, -127, -57,
-96, 9, -103,
-88, -123, -70},
{-120, -127, -109,
-110, -45, -94,
-33, -95, -26},
{45, 46, 21,
29, -72, -127,
32, -5, -8},
{-7, -21, 28,
-127, 0, 127,
-20, -9, 21},
{-64, -127, -51,
45, 7, 47,
48, 118, 45},
{45, 110, 34,
-48, 59, -48,
-99, -127, -89},
{-9, -12, 37,
-75, -80, 127,
11, -77, 33},
{-77, -127, -59,
-108, 30, -92,
-53, -88, -40},
{-13, -86, 3,
46, 50, 34,
96, 127, 81},
{1, 127, 7,
35, -116, 21,
-15, -27, -11},
{-46, -98, -24,
-44, -32, -38,
29, 127, 27},
{-37, -109, -31,
-22, -30, -17,
66, 127, 59},
{-32, -60, -25,
16, -127, 7,
45, 27, 31},
{-111, -127, -90,
-116, -54, -96,
-78, -116, -69},
{17, 22, 13,
18, -127, 16,
22, 13, 23},
{-16, -100, -23,
-127, -82, -116,
-36, -75, -53},
{-67, -45, -63,
-74, 34, -75,
-127, -121, -103},
{62, 71, 64,
50, 127, 38,
33, 15, 28},
{17, 115, 19,
-47, -120, -50,
7, 127, -3},
{-1, -94, 0,
69, -36, 66,
-6, 127, -8},
{65, 77, 60,
87, 127, 71,
-14, 66, -27},
{-9, -97, -2,
-13, -27, -1,
30, 127, 24},
{5, 107, -2,
-76, -127, -69,
43, 47, 39},
{93, 103, 107,
91, 127, 63,
24, 120, 15},
{127, -40, -87,
-15, 61, -46,
-106, -1, 120},
{-51, -127, -57,
-86, 15, -89,
-41, -103, -49},
{40, -10, -22,
127, -66, -75,
41, -11, -34},
{17, 127, 6,
0, -63, 0,
-10, -2, -11},
{-94, -119, -94,
-119, -26, -124,
-103, -127, -92},
{-15, -121, -11,
-27, 20, -28,
24, 127, 20},
{29, 94, 16,
27, 1, 27,
-120, -127, -125},
{110, -30, -90,
83, -46, -34,
-127, 1, 110},
{-45, 0, -52,
2, 127, -6,
-47, -1, -50},
{27, 62, 16,
98, 127, 90,
31, 50, 19},
{-3, -1, -2,
-12, -127, -8,
43, 77, 37},
{47, 69, 46,
77, 127, 59,
27, 38, 34},
{-14, 47, -12,
62, 127, 36,
43, 84, 35},
{-127, -111, -92,
-103, -78, -82,
-64, -70, -60},
{59, -11, 48,
-28, -127, -15,
36, -5, 33},
{-56, -57, -61,
6, -108, 21,
56, 127, 48},
{-61, -44, -61,
-32, 127, -38,
-63, -38, -60},
{-127, -78, -101,
-123, -87, -125,
-53, -71, -42},
{-1, -86, 6,
-84, -127, -70,
-5, -70, 0},
{62, 94, 47,
39, -127, 44,
-12, -70, -19},
{43, -91, -57,
110, 75, -127,
34, -48, -83},
{7, -36, 24,
-68, -71, 127,
-10, -44, 51},
{29, 37, 37,
14, 127, 13,
16, 19, 17},
{30, 116, 34,
127, 100, 108,
1, 120, 7},
{-73, -89, -70,
-123, -127, -107,
-56, -105, -64},
{59, -13, -46,
127, -14, -127,
44, -9, -27},
{15, 64, 4,
-29, 104, -31,
-12, -127, -12},
{32, 127, 21,
-15, -3, -8,
-52, -99, -49},
{0, -11, 1,
-44, -127, -35,
20, 121, 15},
{82, 76, 77,
-37, -127, -40,
-19, 8, -10},
{-34, 5, -30,
-106, -111, -87,
-70, -127, -64},
{32, -12, -22,
127, -82, -52,
26, -25, -16},
{-12, -67, 52,
-101, -8, 127,
-41, -26, 84},
{-77, -53, 86,
-19, -69, 127,
16, 3, -26},
{88, 127, 79,
112, 41, 101,
-112, -50, -93},
{32, 20, 24,
36, 127, 28,
24, 13, 39},
{-30, -127, -24,
-9, -1, -5,
49, 118, 42},
{-28, -21, 40,
-98, -27, 112,
127, -15, -124},
{43, 127, 37,
-54, 11, -48,
-41, -114, -34},
{-19, -101, 16,
-127, -95, 107,
-18, 41, 87},
{41, 127, 28,
-80, -110, -69,
-6, -59, -3},
{-33, -7, 43,
-115, -19, 127,
-7, -3, 15},
{49, 62, 41,
76, 127, 68,
23, 91, 20},
{55, 127, 46,
72, 31, 72,
38, 45, 35},
{-110, -118, -99,
-107, -7, -102,
-127, -101, -116},
{-2, -4, 3,
-53, -127, -50,
34, 100, 27},
{64, 87, 55,
33, 127, 31,
1, 23, -5},
{18, 62, 12,
31, -127, 41,
27, 58, 23},
{45, -20, -28,
127, -33, -96,
50, -19, -33},
{-120, -59, -127,
-74, -17, -69,
-123, -75, -117},
{34, 50, 32,
18, 127, 11,
42, 40, 43},
{31, -27, -26,
127, -13, -85,
32, -22, -29},
{65, 55, 62,
54, -127, 48,
16, 17, 13},
{-42, -116, -30,
0, -4, -6,
36, 127, 34},
{-34, -62, -18,
51, 34, 48,
53, 127, 46},
{26, 127, 14,
-49, -67, -45,
2, -45, 1},
{64, 127, 46,
-21, -29, -15,
-45, -106, -44},
{-46, -72, -34,
-25, 32, -22,
32, 127, 25},
{-12, 0, -11,
-62, -107, -55,
45, 127, 33},
{-43, -14, -39,
3, 127, 4,
-36, 1, -31},
{-13, -34, 39,
-52, -80, 127,
-1, -33, 31},
{-15, -11, 32,
-127, 5, 111,
-19, -4, 30},
{-21, -15, -19,
19, -127, 27,
21, 72, 15},
{4, 8, 4,
31, -127, 31,
8, 42, 6},
{-127, -97, -115,
-81, 102, -94,
-80, -93, -79},
{-2, -79, 7,
127, -96, -51,
18, 11, -35},
{-115, -71, -127,
-76, -64, -74,
-106, -80, -97},
{-41, 127, -56,
-38, -22, -40,
-17, 76, -12},
{38, 1, 46,
42, 127, 30,
12, 17, 13},
{-81, -78, -85,
-68, 127, -67,
-56, -30, -49},
{-57, 1, 43,
-127, 24, 91,
-46, -11, 50},
{-37, -50, -31,
-29, 127, -40,
-25, 7, -26},
{66, -94, 71,
60, -127, 65,
30, -36, 26},
{24, 55, 21,
42, 127, 36,
58, 8, 52},
{-20, -39, -32,
-37, 127, -33,
-39, -24, -36},
{-6, -51, -3,
12, -127, 12,
96, 34, 93},
{44, -17, -28,
127, -66, -70,
35, -4, -34},
{-10, -27, -16,
12, 127, 9,
70, 98, 69},
{30, 127, 22,
-75, -75, -72,
-10, 87, -14},
{37, 113, 24,
-81, 56, -58,
-63, -127, -74},
{123, 4, 114,
53, 127, 46,
-29, -4, -29},
{44, 127, 46,
-6, -19, -11,
-33, -117, -21},
{-117, -11, 127,
49, 22, -65,
77, -19, -70},
{-4, -73, 4,
-13, -52, -18,
6, 127, 2},
{10, 92, -3,
102, 127, 88,
5, 57, -2},
{54, -52, -15,
127, -67, -43,
32, -30, 2},
{-12, -119, -9,
-87, -8, -89,
-1, -127, -2},
{63, 71, 49,
16, -127, 22,
-1, -17, 5},
{-65, -127, -45,
59, 52, 53,
46, 111, 53},
{-2, -38, 1,
91, -127, 81,
4, -40, 7},
{-34, -5, 44,
-127, 0, 127,
-40, -4, 47},
{127, 125, 111,
26, -112, 29,
-126, -107, -100},
{44, 8, 41,
24, 127, 20,
16, 32, 16},
{59, 13, 26,
23, -12, -127,
60, 24, 25},
{-24, 9, -27,
2, 127, -12,
-18, -25, -14},
{76, -24, -54,
125, -28, -127,
62, -36, -6},
{-96, -43, 120,
-115, -4, 127,
-52, -51, 88},
{-34, -23, -21,
-96, -89, -85,
127, 100, 109},
{78, 127, 69,
58, 62, 51,
15, -14, 13},
{46, 127, 35,
-12, -105, -3,
-37, -16, -36},
{17, 37, 18,
25, -127, 34,
20, 29, 15},
{40, 52, 31,
121, 127, 121,
20, 119, 26},
{26, 52, 17,
36, 127, 20,
25, 43, 22},
{-3, 53, -7,
53, 127, 35,
2, 33, 1},
{64, 40, 63,
74, -61, 74,
-38, -127, -31},
{34, 127, 29,
-10, 1, -4,
-30, -99, -31},
{-74, -127, -61,
-124, -96, -95,
-84, -74, -93},
{-59, -94, -48,
-85, -20, -91,
-49, -127, -35},
{72, 113, 57,
37, -127, 39,
9, -39, 8},
{86, 127, 71,
9, -123, 0,
-23, 15, -25},
{21, 17, 14,
23, 127, 16,
15, 15, 8},
{-1, -33, -6,
-34, -127, -28,
-7, -46, -11},
{13, 113, 6,
-20, -127, -15,
-3, -12, 4},
{-76, -108, -56,
-85, -127, -67,
-71, -69, -72},
{-127, -112, -111,
45, 26, 33,
68, 92, 66},
{16, -8, -4,
127, -65, -67,
22, -7, -14},
{73, -51, -63,
127, -84, -20,
-22, 9, 19},
{87, -25, -50,
127, -39, -111,
63, -10, -43},
{-54, -73, -51,
-127, -79, -106,
-84, -86, -72},
{-117, -13, 116,
-17, 91, -20,
127, -27, -114},
{92, 76, 75,
39, -127, 58,
-49, -85, -32},
{-32, -1, 34,
-127, 13, 107,
-18, -4, 30},
{27, -13, -27,
127, -23, -112,
36, -7, -33},
{-31, -66, -14,
21, 127, 11,
44, 71, 38},
{35, 127, 28,
-34, -72, -24,
-7, -63, -6},
{-5, -75, -1,
-74, 37, -76,
22, 127, 20},
{-16, -54, -5,
-20, -64, -20,
22, 127, 12},
{114, -55, -65,
90, -74, -15,
127, -50, -75},
{67, 75, 58,
41, 127, 50,
43, 89, 35},
{16, 55, 12,
33, 127, 31,
9, 20, 7},
{-41, -127, -29,
-76, 15, -86,
-49, -77, -44},
{89, 127, 75,
-14, -26, -1,
-15, -97, -16},
{27, -24, 17,
126, 83, 127,
35, 0, 36},
{111, -76, -59,
127, -71, -68,
4, -19, 9},
{58, 127, 42,
-40, 2, -13,
-50, -121, -56},
{21, 10, 22,
7, -127, 11,
23, 32, 22},
{-50, -49, -49,
-67, -127, -48,
-16, -37, -13},
{-123, -99, -127,
74, 51, 55,
-11, 109, -52},
{-62, -62, 116,
-14, -52, 97,
-78, -61, 127},
{46, -24, -43,
127, -21, -116,
51, -7, -51},
{12, -85, 8,
-60, -127, -63,
-2, -49, -10},
{-127, -80, -100,
-71, -79, -60,
-80, -4, -72},
{-35, -26, -29,
-18, 127, -17,
-23, -28, -21},
{-36, -127, -26,
-1, 2, -4,
46, 113, 40},
{19, 117, 9,
-17, -127, -8,
5, -31, 5},
{28, -66, -50,
110, 27, -127,
45, -47, -65},
{-27, -127, -17,
15, -12, 16,
35, 105, 25},
{24, 25, 19,
12, 127, 4,
-107, -114, -94},
{24, 127, 14,
-63, -55, -49,
-36, -78, -35},
{25, -2, -20,
127, -42, -92,
41, -4, -29},
{-43, -2, 37,
-121, -1, 127,
-35, -3, 26},
{-36, -125, -18,
-69, 31, -57,
127, 93, 116},
{34, 33, 33,
22, -127, 25,
20, 17, 22},
{-42, -127, -33,
-4, 32, -12,
36, 106, 36},
{35, 32, 18,
24, 127, 12,
43, 12, 44},
{-53, -68, -48,
-3, 127, -27,
-75, -30, -66},
{-3, 8, 1,
10, 127, 2,
-2, 19, 0},
{3, 9, 7,
-25, 127, -26,
-53, -62, -51},
{-68, -22, -67,
34, 60, 28,
127, 71, 123},
{38, -9, -29,
127, -38, -104,
7, -14, 7},
{75, 127, 59,
-70, 7, -64,
-13, -64, -12},
{27, -22, 30,
54, -127, 53,
23, -27, 25},
{24, 127, 20,
-3, -65, 6,
-17, -73, -11},
{-20, -53, -17,
-22, 127, -23,
-16, -10, -12},
{-1, 4, 1,
17, 127, 8,
13, -26, 14},
{9, 63, -2,
49, 127, 28,
23, 25, 21},
{-71, -127, -74,
-100, -81, -95,
-98, -95, -103},
{115, -7, -9,
-24, -127, 29,
-81, 13, 23},
{-11, -53, 58,
-52, -56, 127,
3, -38, 35},
{-65, -30, -63,
-127, -8, -122,
-107, -127, -99},
{-119, -95, -98,
-90, -127, -48,
-99, -68, -85},
{46, 2, 40,
29, 127, 5,
39, 17, 33},
{16, 11, 17,
2, -127, 10,
37, 33, 31},
{-127, -106, -97,
-121, -52, -119,
-97, -102, -92},
{-27, -25, -25,
-17, 127, -16,
-23, -17, -18},
{-38, -116, -27,
-67, -127, -70,
-31, -85, -20},
{58, 127, 46,
-23, 15, -18,
-61, -115, -58},
{-16, -101, -21,
26, -109, 30,
95, 127, 73},
{-95, -117, -74,
-118, -127, -101,
-70, -103, -56},
{26, 21, 22,
19, 127, 11,
20, 13, 20},
{59, 127, 37,
77, 28, 63,
44, 82, 43},
{-64, -7, 51,
-87, -12, 127,
-50, -50, 65},
{-127, -123, -109,
-102, -52, -88,
-79, -38, -72},
{54, 64, 47,
45, 127, 44,
-5, 7, -9},
{-88, -92, -65,
-69, -25, -54,
-40, 127, -50},
{-3, 22, -4,
-58, 127, -89,
-3, 14, -8},
{16, 39, 18,
53, 127, 28,
21, 41, 21},
{36, 33, 33,
70, 127, 64,
-32, 8, -25},
{-102, -127, -86,
-108, -78, -92,
-54, -74, -45},
{2, 127, -6,
-107, 5, -85,
11, 110, 1},
{85, 105, 83,
3, -127, -5,
-18, -19, -20},
{25, 127, 19,
-28, 110, -24,
-21, -1, -17},
{38, 85, 31,
68, 127, 53,
29, 95, 29},
{52, 51, 44,
117, -5, 127,
29, 79, 28},
{18, -120, 24,
-100, -71, -105,
16, -127, 24},
{8, 35, 7,
28, 127, 28,
3, 35, 6},
{-2, 19, 0,
-116, 104, -127,
6, 52, -3},
{30, 38, 34,
41, 127, 25,
13, 16, 14},
{43, -22, 41,
-14, -127, -3,
42, 18, 39},
{44, 24, 42,
-2, -127, 3,
15, 0, 16},
{37, -8, -22,
127, -28, -91,
54, -10, -45},
{-9, -40, 124,
-32, -62, 67,
14, -15, 127},
{127, 57, 121,
72, -32, 45,
-90, -47, -85},
{51, 68, 48,
12, 127, 10,
32, 7, 29},
{12, -20, 12,
6, 127, -4,
6, 26, 6},
{-37, -63, 82,
-40, -64, 127,
-13, -6, 7},
{17, 127, 12,
-14, 24, -12,
-4, -28, -3},
{-38, 86, -41,
-64, 66, -62,
-48, 127, -57},
{57, 11, 57,
-5, -127, -1,
2, -39, 5},
{-58, -43, -59,
-16, 127, -18,
-64, -33, -63},
{3, -52, 33,
-73, -42, 127,
-10, -19, 36},
{-3, -127, 2,
3, 100, 3,
9, 13, 6},
{39, 127, 37,
1, -2, 7,
-32, -56, -28},
{53, 15, 53,
43, 127, 38,
29, 43, 22},
{-28, -121, -37,
-127, 8, -123,
-47, -100, -50},
{-27, -72, -23,
-4, -127, 1,
97, 94, 85},
{127, 32, 123,
45, 5, 36,
104, 59, 93},
{-8, 61, -10,
93, 127, 93,
-6, 108, 8},
{-107, -113, -98,
-15, 127, -18,
0, 99, 10},
{59, 104, 51,
58, 127, 57,
40, 37, 38},
{27, 4, 29,
13, -127, 12,
28, 16, 27},
{44, 32, 46,
127, 99, 108,
30, 46, 33},
{5, -41, 10,
37, -127, 40,
70, 24, 66},
{27, -39, 29,
42, -127, 50,
43, 41, 42},
{67, 50, 75,
49, 127, 44,
60, 73, 72},
{17, -127, 18,
32, -47, 35,
8, -82, 7},
{-39, -46, -42,
-26, 55, -23,
22, 127, 15},
{21, 127, 16,
6, -28, 5,
-2, 2, 1},
{99, 73, 79,
64, -19, 53,
120, 46, 127},
{-21, -29, -22,
-9, -83, 3,
39, 127, 34},
{17, -68, -52,
101, 56, -127,
19, -26, -81},
{6, -37, -8,
-43, -127, -38,
-5, -42, -1},
{42, 8, 40,
4, -127, 5,
33, 11, 35},
{-47, -50, -42,
15, -58, 16,
96, 127, 105},
{-119, -33, -127,
-57, 62, -52,
-93, -66, -106},
{70, 119, 56,
45, -127, 44,
-13, -60, -8},
{88, 127, 70,
10, 59, 6,
-12, -15, -8},
{17, 13, 11,
23, 127, 20,
22, 62, 38},
{22, -117, 22,
8, -87, 6,
119, 101, 127},
{-31, -59, 99,
-26, -17, 127,
-31, -37, 99},
{6, -83, 3,
-47, -127, -23,
5, -78, 4},
{-120, -126, -107,
-91, -23, -82,
-127, -52, -119},
{-48, -102, -34,
36, -127, 30,
64, 104, 73},
{-11, 74, -12,
-25, -72, -31,
-12, 127, -11},
{0, -60, -18,
127, -120, 107,
13, -71, 5},
{33, 127, 26,
59, 47, 49,
61, -69, 53},
{15, -26, 11,
42, 127, 42,
11, 88, 3},
{-20, -127, -8,
32, 25, 29,
69, -26, 60},
{-16, -25, -15,
31, -37, 34,
30, 127, 33},
{17, 28, 9,
18, 127, 29,
11, 17, 12},
{-39, -74, 127,
-65, -16, 49,
-27, -81, 97},
{64, 9, 59,
69, 127, 66,
-36, 64, -32},
{40, 39, 38,
53, 127, 46,
7, 45, 9},
{-2, -3, -7,
-12, -127, -8,
-8, -16, -9},
{7, -15, 33,
-109, 58, 127,
-14, -12, 61},
{107, -3, -101,
43, 16, -74,
127, -7, -113},
{29, -25, 9,
127, 40, -70,
46, -3, -17},
{9, 35, 10,
36, 127, 35,
9, 27, 7},
{-17, 86, -21,
15, 127, 10,
3, -65, 6},
{64, -15, -72,
127, -56, -38,
43, 19, -60},
{-12, 14, -8,
17, 127, 18,
-3, -18, 2},
{-29, -38, -27,
-70, 127, -65,
-3, 10, -9},
{29, -127, 33,
47, 43, 42,
11, 64, 8},
{-2, 37, 3,
28, 127, 25,
61, 40, 59},
{-14, 38, -18,
-39, 127, -48,
-65, -80, -53},
{112, 107, 110,
45, 127, 27,
106, 29, 110},
{118, -18, 12,
93, -66, -57,
127, -31, -33},
{-3, -1, -2,
11, -26, 11,
0, 127, -6},
{32, -23, -18,
127, -60, -57,
22, -20, -13},
{20, 104, 13,
4, 127, -5,
30, -16, 18},
{57, 6, -18,
127, -2, -74,
57, 1, -13},
{10, -4, 10,
16, 127, 6,
9, 5, 16},
{-67, -57, -71,
-127, 20, -124,
-26, -7, -35},
{-111, -116, -118,
-127, -103, -115,
-110, -54, -115},
{45, -12, -50,
127, -54, -65,
36, -17, -26},
{6, -24, -1,
127, -46, -70,
33, -9, -32},
{51, 44, 52,
4, 127, 3,
45, 43, 57},
{-5, -1, 1,
22, -16, -30,
127, -37, -47},
{-55, -35, 81,
-88, -38, 127,
-24, -51, 68},
{25, -127, 30,
45, 53, 41,
60, 72, 58},
{94, -33, -53,
108, 6, -127,
99, -27, -94},
{89, -10, -28,
127, 24, -87,
103, 10, -26},
{25, -14, -19,
127, -26, -99,
20, -25, -15},
{27, -72, 24,
127, -79, 127,
23, -104, 25},
{99, 53, 89,
27, -120, 43,
-50, -127, -53},
{13, 12, 10,
19, 127, 15,
8, 14, 11},
{23, 25, 19,
23, 127, 18,
-4, 11, -3},
{30, 12, 31,
9, -127, 7,
27, 10, 28},
{-72, -126, -64,
-14, 127, -33,
22, 100, 16},
{1, 28, 7,
48, 127, 47,
4, 18, 5},
{127, -37, -89,
102, 3, -98,
123, -23, -112},
{-8, -10, -7,
-2, 127, -9,
-13, -6, -11},
{53, 127, 41,
104, 79, 76,
-62, -31, -42},
{-2, -127, -1,
34, 21, 31,
25, 50, 30},
{-39, -127, -5,
54, -26, 47,
59, 124, 41},
{-105, -79, -115,
-33, -56, -39,
-122, -20, -127},
{-10, -43, -13,
-47, -127, -52,
-17, -39, -14},
{-28, -106, -43,
-113, -127, -109,
-41, -122, -50},
{27, 120, 20,
5, 127, 3,
-2, -31, 9},
{23, -121, 24,
59, -93, 71,
22, -127, 36},
{-7, -9, -8,
-25, -127, -22,
-15, -18, -20},
{-30, -7, -28,
50, -77, 56,
97, 127, 86},
{-113, -68, -127,
-44, -59, -57,
-82, -44, -85},
{9, 11, 5,
27, -127, 39,
47, 69, 42},
{-54, -16, -52,
-20, 30, -13,
53, 127, 46},
{14, 27, 33,
127, 36, -92,
73, 9, -5},
{110, -61, -108,
110, -109, -75,
51, 54, -127},
{7, 13, 7,
9, 127, 6,
5, 16, 5},
{-50, -127, -42,
-34, 90, -42,
29, 22, 21},
{51, 20, 50,
13, -127, 18,
48, 13, 45},
{88, 1, -89,
81, 49, -127,
61, 4, -57},
{55, 108, 52,
-7, 17, -9,
-40, -127, -48},
{-7, -25, 23,
-64, -29, 127,
5, -36, 30},
{-34, -68, -23,
79, -127, 74,
43, 86, 40},
{-114, 0, 127,
-60, -87, 114,
-70, -21, 96},
{11, 8, 13,
-5, -127, 6,
35, 4, 48},
{13, 105, 9,
-4, -127, 0,
0, -92, -5},
{0, -4, 0,
-2, 127, -4,
-2, -1, 0},
{43, 127, 38,
-14, 3, -13,
-25, -39, -30},
{-7, -26, -1,
-37, -127, -42,
4, -54, -4},
{-51, 127, -88,
-1, 13, 42,
-12, -66, -8},
{127, 120, 106,
-31, 83, -57,
-123, -72, -79},
{-26, -74, -23,
-9, 127, -15,
-13, 50, -9},
{44, 26, 40,
-10, -127, -5,
-1, -5, 3},
{127, 17, -109,
-79, 127, 21,
-76, -58, 124},
{-44, -57, 83,
-94, -23, 121,
-45, -54, 127},
{4, 9, 8,
12, 127, 13,
11, 10, 15},
{57, -16, -28,
84, 59, -127,
78, -5, -45},
{-127, -103, -118,
-75, -30, -75,
-56, -35, -51},
{-37, 12, -36,
55, 64, 71,
66, 127, 82},
{7, -39, 1,
-14, -127, -12,
-27, -23, -29},
{127, -67, -74,
99, -70, -5,
93, -40, -64},
{4, -15, 0,
25, 127, 19,
4, 18, 8},
{45, 127, 37,
29, 123, 33,
76, -33, 70},
{-112, -84, -97,
-101, -127, -89,
-111, -56, -101},
{-7, -25, -13,
9, -69, 15,
-1, 127, -11},
{-71, -30, -64,
-12, 127, -21,
35, 121, 30},
{-11, 21, 11,
-127, 59, 114,
-50, 19, 32},
{16, 64, 11,
53, 127, 36,
19, 79, 15},
{-9, 127, -13,
-37, -5, -34,
-12, 111, -15},
{-92, 6, 101,
-127, 5, 95,
-69, 2, 91},
{75, 37, 70,
-10, 127, -28,
50, 35, 49},
{28, 8, 30,
8, -127, 12,
26, 11, 28},
{6, 3, 7,
9, 127, 9,
8, 9, 11},
{19, 42, 24,
13, 127, 13,
33, 51, 33},
{-127, -103, -116,
-9, 112, -14,
4, 106, 10},
{36, -19, 36,
3, -127, 6,
51, -22, 50},
{3, 6, 7,
10, 127, 5,
8, 25, 11},
{9, 1, 12,
15, 127, 6,
13, -10, 14},
{9, 27, 2,
15, 127, 5,
15, 19, 10},
{5, 17, 2,
-22, 127, -33,
-62, -93, -63},
{-4, 127, 0,
101, 120, 67,
26, 40, 25},
{127, -30, -88,
123, -74, -89,
107, -12, -78},
{47, 56, 43,
58, 127, 42,
62, -107, 70},
{63, 31, 61,
26, 127, 20,
55, 58, 55},
{59, 21, 53,
60, 127, 50,
16, 115, 0},
{-94, 60, -93,
-108, 98, -98,
-125, -68, -127},
{-26, 55, -28,
-28, 127, -31,
-60, -56, -62},
{-2, -71, 61,
-91, -33, 127,
-15, -25, 42},
{-9, 70, -15,
-127, 124, -122,
-7, 65, -12},
{39, 38, 29,
45, 127, 38,
42, 36, 37},
{54, -22, -39,
127, -60, -67,
84, -22, -65},
{79, 127, 76,
105, -57, 89,
40, -10, 41},
{70, 69, 62,
50, 127, 47,
36, 62, 38},
{-57, -72, -52,
14, -52, 13,
127, 81, 121},
{65, 127, 61,
-9, -116, -17,
-6, -22, 1},
{7, -13, 109,
-49, -80, 82,
-33, -21, 127},
{-37, -10, -37,
125, -31, 127,
-18, -21, -19},
{77, -45, -41,
127, -45, -87,
45, -30, -14},
{2, -38, 2,
-33, -68, -24,
32, 127, 24},
{-13, -21, -15,
-19, -127, -23,
-22, -25, -19},
{-44, -106, -41,
-89, -70, -79,
-40, -127, -57},
{32, 72, 29,
19, 127, 13,
-11, -21, -12},
{-29, -41, -35,
-25, -93, -29,
86, 127, 92},
{10, 8, 12,
16, 127, 14,
11, 52, 13},
{-26, -14, 34,
-91, -33, 127,
5, -23, 25},
{17, 94, 8,
73, 127, 63,
62, 84, 63},
{-4, -55, 10,
5, 79, 0,
28, 127, 30},
{-21, 6, 64,
-68, -2, 127,
-6, 6, 62},
{72, 58, 16,
127, 2, -34,
92, 76, 20},
{-4, 35, -9,
-20, 127, -21,
-5, -13, -5},
{-9, -37, -18,
-77, -80, -65,
-33, -127, -24},
{-19, -69, -13,
48, -67, 49,
44, 127, 52},
{-84, -67, -81,
-100, -55, -99,
-127, -66, -113},
{73, 123, 73,
62, -127, 66,
-61, -52, -50},
{117, 87, 112,
93, 127, 73,
102, 86, 80},
{-86, -87, -88,
-123, -109, -127,
-50, -118, -24},
{49, 28, 46,
20, -127, 25,
22, 0, 22},
{41, 60, 45,
43, 127, 52,
36, 57, 43},
{1, -15, -14,
127, 96, 114,
28, 123, 23},
{56, 40, 60,
55, 41, 48,
6, 127, 7},
{-25, -14, -21,
-32, -102, -31,
66, 127, 63},
{25, 79, 16,
23, 127, 14,
-1, 3, 2},
{-31, -15, -26,
31, 127, 25,
21, 82, 25},
{40, 8, 39,
-7, -127, -7,
40, 4, 39},
{29, 46, 31,
50, 127, 41,
22, 51, 21},
{61, -31, -38,
127, -73, -44,
19, 0, -22},
{5, 1, -1,
21, 35, 19,
29, 127, 26},
{-37, -98, -32,
13, 127, 10,
38, 9, 43},
{41, 127, 32,
8, 93, 4,
-57, -23, -47},
{11, 14, 14,
47, 127, 31,
-22, 50, -18},
{30, 9, 29,
8, -127, 14,
30, 5, 27},
{18, -1, 16,
14, -127, 15,
23, 21, 20},
{-96, -55, -83,
-109, 69, -124,
-104, -77, -127},
{29, -1, 30,
7, -127, 11,
35, -4, 41},
{-98, -73, -83,
-75, 59, -92,
-127, -119, -122},
{-61, -76, -60,
-41, 50, -43,
50, 127, 44},
{-66, -59, -68,
-17, 127, -22,
-22, 52, -27},
{60, 67, 57,
37, -127, 48,
-24, -107, -15},
{27, -31, -5,
127, -42, -50,
25, -32, 7},
{2, -127, 6,
-36, -61, -30,
-34, -38, -35},
{-127, -69, -113,
-67, -54, -77,
-125, -30, -120},
{33, -14, 34,
40, 127, 36,
-18, 63, -19},
{2, 127, -3,
1, 43, -2,
3, 2, 3},
{-11, -19, -14,
-10, 127, -15,
-30, -32, -32},
{-13, -72, -12,
-19, -127, -12,
-13, -52, -14},
{22, 81, 15,
89, 112, 87,
-2, 127, -10},
{-18, -32, -10,
-20, -127, -19,
-5, -60, -15},
{17, -55, 18,
-33, -127, -35,
-14, -49, -16},
{17, 1, 16,
14, -127, 17,
17, 32, 17},
{19, 50, 21,
-3, 127, -8,
-10, 20, -9},
{49, -24, -35,
127, -73, -40,
74, -23, -31},
{41, 39, 43,
17, 127, 6,
65, 7, 69},
{-113, -105, -93,
-52, -3, -59,
98, 127, 111},
{58, 127, 42,
27, 62, 22,
-19, 13, -24},
{23, 36, 18,
5, 127, 0,
30, 44, 31},
{-51, 18, -1,
-127, 37, -11,
-69, 39, 42},
{-9, -29, -5,
24, -55, 22,
6, 127, 2},
{9, 127, 7,
-16, -6, -15,
-12, -26, -10},
{8, 90, -1,
53, -127, 47,
-10, -68, -10},
{-7, -56, -11,
-37, -57, -36,
45, 127, 36},
{44, 127, 41,
-28, -14, -29,
-1, -87, -2},
{47, 80, 43,
-37, -127, -25,
19, -72, 29},
{71, -56, 86,
48, 127, 30,
10, 86, 6},
{23, 127, 17,
-2, -48, 3,
-15, -29, -13},
{-5, 15, -17,
62, 127, 54,
-10, 40, -11},
{52, 41, 60,
48, 127, 27,
2, 48, 7},
{-89, -38, -86,
59, 127, 67,
-56, -26, -58},
{-63, -127, -60,
-96, -88, -87,
-52, -121, -60},
{19, 1, 22,
10, -127, 18,
17, 13, 18},
{-127, -59, -119,
-99, -110, -77,
-118, -104, -118},
{1, -2, -5,
-62, 127, -58,
0, 4, -2},
{58, 127, 51,
9, 90, 2,
-9, -41, -5},
{-103, -79, -90,
-97, -83, -81,
-127, -69, -116},
{-3, -30, -1,
-2, -59, -3,
8, 127, 2},
{-61, -48, 93,
-127, -20, 117,
-31, -9, 92},
{66, 47, 58,
65, 127, 64,
-32, 68, -23},
{28, 26, 29,
21, 127, 14,
25, 9, 28},
{18, -69, 17,
5, 127, 6,
41, 90, 45},
{19, 26, 21,
22, 127, 9,
21, 21, 24},
{-54, 41, -57,
48, 127, 40,
-18, 38, -18},
{63, 64, 57,
-1, 127, -5,
67, 34, 69},
{124, -15, -120,
127, 3, -113,
102, -11, -90},
{-7, 44, -15,
-5, 127, -6,
-35, -83, -35},
{37, -44, -28,
127, -53, -33,
70, -32, -14},
{29, -37, 29,
23, -127, 27,
75, 31, 72},
{-21, -52, 32,
-43, -40, 127,
-24, -39, 64},
{21, -4, -23,
127, -62, -71,
33, -25, -1},
{5, 5, 51,
-4, -127, 30,
11, 3, 28},
{-127, -41, -126,
-70, -89, -69,
-97, -59, -98},
{-40, -86, -36,
-104, 40, -110,
107, 127, 100},
{75, 67, 66,
14, -1, 17,
-74, 0, -127},
{107, -67, -56,
127, -63, -51,
77, -55, -29},
{-46, -59, 72,
-57, -35, 127,
-6, -51, 48},
{50, 127, 43,
20, -79, 32,
19, -21, 17},
{-127, -117, -91,
-68, -51, -72,
-64, -103, -59},
{-43, -72, 13,
-127, 118, 51,
-89, -17, 28},
{11, 24, 11,
15, -127, 23,
13, 4, 11},
{-35, -39, 82,
-65, -3, 127,
-51, -12, 63},
{5, -10, -27,
127, -45, -13,
53, -44, -15},
{-106, -55, -110,
-37, -127, -17,
-95, -94, -85},
{43, 84, 30,
-15, 95, -15,
-51, -127, -48},
{5, 127, 3,
14, 3, 13,
-21, -3, -24},
{50, -59, 48,
111, -21, 110,
127, 122, 108},
{58, -17, -44,
127, -4, -120,
36, 6, -40},
{61, 127, 62,
1, -6, -4,
-15, -70, -8},
{38, 127, 35,
16, -22, 16,
-15, 10, -11},
{28, 27, 28,
15, -127, 19,
24, 19, 22},
{36, 107, 34,
48, 2, 41,
8, 127, 1},
{7, 127, -6,
24, 119, 16,
35, 107, 26},
{47, 127, 42,
40, -42, 42,
23, -28, 24},
{-45, -4, -4,
-29, 127, 5,
-19, -6, -10},
{-4, 31, -10,
23, 127, 12,
-27, -16, -29},
{26, -2, 29,
11, -127, 14,
43, 12, 39},
{22, 15, 21,
14, -127, 13,
18, 1, 23},
{79, -38, -44,
127, -57, -83,
39, 2, -31},
{127, -21, -17,
68, -69, -25,
93, -21, -9},
{66, 96, 57,
48, -70, 58,
-31, -127, -28},
{-126, -83, -127,
-72, 4, -66,
-81, -83, -66},
{10, 4, 27,
-6, 78, 127,
3, 1, 65},
{56, -49, -33,
127, -5, -61,
54, -41, -28},
{14, -4, 13,
1, 127, 3,
19, 10, 20},
{76, -32, -50,
127, -53, -89,
57, -10, -25},
{92, 67, 80,
59, 127, 47,
75, 93, 77},
{-29, 22, -29,
7, 127, -8,
-40, -10, -37},
{69, 127, 71,
-51, -12, -39,
-68, -50, -72},
{46, 11, -55,
127, -16, -115,
55, -3, -47},
{44, 127, 46,
-20, -64, -17,
-16, -32, -15},
{53, 24, 50,
32, 127, 34,
41, -14, 38},
{-127, 24, 14,
22, 27, 16,
22, 18, 22},
{-27, -15, -20,
-9, 127, -16,
-30, -12, -28},
{-127, -45, -107,
-76, 20, -85,
-74, -65, -79},
{-50, -127, -50,
-29, 96, -25,
58, 111, 51},
{66, 93, 55,
99, 127, 82,
-53, 84, -36},
{92, 42, 65,
76, -127, 89,
86, 76, 69},
{-15, 43, -20,
31, 127, 25,
33, 38, 30},
{15, 3, 15,
9, 127, 4,
10, 22, 13},
{12, 127, 11,
27, 35, 27,
-20, 6, -17},
{24, 127, 21,
25, 39, 23,
-7, -93, -7},
{-43, -81, 116,
8, -127, 94,
10, 13, -12},
{68, 80, 68,
56, 127, 44,
72, 7, 79},
{13, 11, 12,
26, 127, 14,
15, 20, 14},
{21, 114, 16,
4, -127, 9,
9, -23, 10},
{32, 43, 29,
40, -127, 37,
-6, -23, -12},
{24, 22, 20,
33, 127, 26,
11, 41, 8},
{63, 20, 62,
42, 46, 36,
-72, -127, -74},
{98, -63, -36,
95, -127, 1,
-6, 5, 9},
{-70, -78, -64,
-53, -127, -43,
-87, -58, -86},
{25, 127, 22,
-19, -4, -16,
1, -58, -2},
{91, 44, 83,
73, 44, 65,
127, 93, 112},
{8, -4, 10,
1, 127, -2,
9, 14, 12},
{11, 29, 16,
44, 127, 37,
-3, 58, -1},
{26, 29, 28,
2, -127, 19,
38, -12, 28},
{-11, 9, -8,
15, 1, 12,
21, -127, 19},
{-74, -88, -72,
-68, 127, -68,
-54, -70, -78},
{-19, -13, 0,
-26, -29, 127,
-22, -56, 70},
{127, 108, 119,
117, 97, 113,
119, 107, 113},
{127, 121, 119,
124, 111, 117,
116, 111, 108},
{127, 113, 119,
118, 97, 111,
111, 106, 103},
{78, -18, -127,
80, -18, -62,
85, -32, -115},
{121, 112, 114,
127, 109, 120,
123, 106, 116},
{126, 117, 118,
127, 109, 121,
121, 114, 114},
{-127, -107, -119,
-106, -73, -103,
-119, -101, -110},
{-127, -12, 69,
-65, -20, 88,
-119, -21, 70},
{-127, -109, -119,
-118, -97, -114,
-116, -101, -111},
{125, 99, 116,
115, 80, 111,
127, 107, 118},
{127, 99, 118,
120, 87, 115,
126, 113, 120},
{127, 121, 124,
123, 95, 121,
119, 124, 116},
{127, 103, 117,
115, 85, 109,
123, 95, 117},
{-111, -114, -103,
-126, -127, -118,
-112, -118, -108},
{19, 18, -127,
23, 19, 24,
28, 23, 27},
{127, 107, 121,
120, 95, 114,
95, 93, 87},
{127, 105, 119,
117, 79, 111,
124, 101, 117},
{127, 110, 117,
119, 93, 111,
125, 105, 117},
{-127, -110, -118,
-120, -92, -112,
-116, -108, -108},
{-127, -99, -118,
-102, -47, -95,
-109, -86, -100},
{127, 107, 121,
109, 82, 106,
121, 103, 115},
{89, 84, 81,
124, 125, 116,
122, 127, 114},
{104, 92, 101,
127, 73, 125,
115, 94, 111},
{87, -32, -127,
81, -14, -58,
98, -41, -87},
{-86, -121, -85,
-111, -112, -110,
-85, -127, -81},
{127, 110, 119,
116, 99, 111,
106, 100, 97},
{-1, 67, -8,
45, 127, 52,
5, 85, -2},
{-117, -127, -109,
-122, -117, -117,
-111, -118, -100},
{127, 112, 119,
120, 99, 113,
120, 102, 111},
{117, 105, 108,
127, 105, 119,
113, 105, 103},
{-118, -91, -107,
-116, -73, -109,
-127, -100, -118},
{127, 108, 117,
118, 93, 112,
124, 105, 115},
{-127, -100, -120,
-115, -63, -112,
-113, -94, -105},
{127, 111, 118,
113, 80, 107,
127, 98, 120},
{127, 109, 123,
110, 80, 109,
116, 90, 113},
{127, 118, 117,
126, 106, 119,
106, 101, 102},
{127, 106, 120,
122, 98, 118,
124, 102, 120},
{-127, -99, -120,
-79, -40, -75,
-118, -88, -114},
{127, 95, 123,
94, 60, 89,
116, 74, 109},
{127, 105, 122,
95, 66, 90,
111, 97, 105},
{-125, -102, -115,
-112, -89, -110,
-127, -93, -119},
{-127, -10, 13,
18, 38, 8,
-120, -5, 8},
{124, 106, 115,
115, 89, 108,
127, 113, 117},
{97, 109, 87,
122, 127, 113,
105, 107, 97},
{127, 113, 118,
113, 101, 107,
94, 101, 87},
{12, -8, 7,
44, 38, 45,
127, 107, 125},
{127, 117, 119,
112, 92, 107,
119, 103, 111},
{119, 94, 113,
127, 77, 120,
111, 83, 102},
{124, 100, 115,
115, 84, 109,
127, 102, 117},
{114, 117, 100,
123, 127, 116,
106, 116, 99},
{127, 112, 116,
124, 105, 120,
115, 110, 107},
{127, 101, 117,
116, 88, 108,
124, 107, 112},
{120, 93, 114,
119, 84, 114,
127, 104, 120},
{-121, -127, -106,
-107, -111, -99,
-105, -92, -95},
{123, 100, 118,
98, 60, 94,
127, 92, 119},
{-127, -113, -115,
-110, -83, -101,
-115, -103, -103},
{109, 115, 104,
127, 110, 120,
92, 117, 91},
{127, 108, 122,
110, 86, 108,
113, 93, 108},
{-127, -92, -119,
-102, -49, -98,
-124, -84, -116},
{117, 87, 104,
126, 80, 121,
127, 81, 118},
{99, 110, 93,
123, 127, 115,
100, 106, 95},
{111, 99, 104,
120, 104, 116,
