#include "../../basic_defs/basic_defs_glue.h"
#if FIRST_PART_IMPLEMENTATION == PIPELINED_ENGINES_MODE && MODEL_ID == MOB_V2
#ifndef DW_WEIGHTS
#define DW_WEIGHTS
const static dw_weights_dt pipe_dw_weights_3x3[][9] = {
{-8, -63, -2, -18, 127, -20, -10, 11, -7},
{7, 43, 14, 1, -127, 2, 2, 20, 10},
{-127, -36, 57, -35, 16, 40, 77, 33, -12},
{-95, -123, -121, -127, -116, -110, -90, -94, -94},
{-127, -21, -5, 115, 84, -37, 66, -3, -72},
{2, 3, -7, 123, 6, -127, -6, 3, 1},
{-14, -13, -13, -50, 127, 23, -16, -22, -19},
{-111, -88, -67, -2, 127, 76, -36, 97, 28},
{14, 48, 14, 21, -127, 23, 6, -7, 4},
{0, 19, -4, -13, -77, -9, -9, 127, -19},
{-6, -3, -54, -29, 8, 127, -14, -27, 2},
{40, 54, 109, 99, 127, 4, 32, 32, 1},
{-53, -45, -53, -103, -48, -127, -62, -49, -88},
{-69, -70, -123, 101, 127, -42, 125, 86, -20},
{-4, -13, -10, -26, 127, -30, -4, -26, -1},
{11, -10, -3, 127, -88, -31, -2, -2, 1},
{-76, -99, -127, -31, -53, -56, -112, -106, -121},
{3, -6, -4, 127, -117, 8, -4, 1, -4},
{-99, -54, -34, 71, 90, -19, 127, 28, -101},
{45, 99, -43, 55, 127, -12, -78, -41, -84},
{-15, -71, -60, 18, -12, -94, -18, -80, -127},
{-19, -77, 85, -97, -120, 49, 127, 51, 1},
{12, 16, 16, 26, -127, 13, 12, 19, 12},
{127, 119, 79, 127, 108, 98, 108, 89, 81},
{-2, -127, -5, -1, 5, 6, 6, 117, 1},
{4, -127, 114, 7, 118, -115, -10, 10, -2},
{-33, -18, -17, 37, -65, 11, -10, -127, -62},
{35, 56, 4, -54, -127, 6, 15, 30, 4},
{27, 72, 8, 127, 66, -32, 17, -42, 7},
{-77, 98, -8, -127, 115, 51, -11, -1, -35},
{-28, -35, -40, -33, 127, 7, -14, -14, 65},
{-2, 30, 15, 37, 95, 42, -127, -9, 14},
{-80, -10, 72, -127, 15, 110, -67, 38, 48},
{93, 95, 20, 122, 127, 38, 78, 71, 12},
{29, 75, 75, 43, 127, 97, 18, 49, 37},
{77, -20, -35, 127, -36, -45, 71, -14, -21},
{45, 94, 53, 114, 127, 57, 76, 74, 19},
{69, -98, 30, -85, 127, -44, 15, -29, 14},
{50, 127, 97, 67, 87, 52, 32, -9, -38},
{36, 41, -81, -29, 127, -78, -68, 63, 4},
{45, 73, 40, 81, 127, 67, 47, 78, 42},
{56, 78, 37, 80, 127, 49, 41, 51, 18},
{-10, 11, 49, 34, 127, 89, 54, 108, 50},
{-68, -43, -24, -127, -86, -27, -45, -54, -36},
{59, 37, -11, 87, 127, 70, 26, 73, 76},
{-25, 97, -50, -124, 127, 62, -68, -7, 29},
{86, 89, -21, -38, 127, 69, -57, -37, 63},
{-24, -91, -60, -44, -127, -52, -15, -61, -22},
{71, 68, 16, 97, 127, 65, 41, 82, 46},
{79, -89, 15, -106, 127, -28, 33, -44, 14},
{-92, -69, -24, -110, -127, -71, -39, -72, -49},
{-29, -53, -27, -88, -127, -70, -100, -101, -38},
{37, 78, 43, 71, 127, 66, 46, 84, 36},
{23, 109, 86, 24, 127, 69, 10, 45, 25},
{-52, -81, -54, -71, -127, -78, -32, -58, -40},
{-72, -101, -23, -47, -127, -63, -28, -46, -81},
{-17, -114, 60, -88, 110, 64, 27, 92, -127},
{127, -77, -55, -124, -6, 121, 0, 76, -65},
{-38, 110, -70, -45, 127, -51, -47, 56, -38},
{-94, -4, 80, 127, -15, -94, -36, 18, 22},
{30, 42, 19, 78, 127, 47, 50, 96, 36},
{-67, -91, -47, -91, -127, -65, -75, -104, -47},
{116, -73, -8, 125, -127, 11, 25, -65, 5},
{31, 94, 127, -115, -68, 23, -52, -71, -19},
{-53, -111, -62, -79, -127, -89, -31, -60, -30},
{37, -80, 17, 63, -127, 47, 33, -62, 25},
{28, 40, 7, -79, -127, -57, 40, 100, 57},
{-15, 127, 100, 81, 90, -54, 60, -84, -102},
{-81, 26, 74, -127, 19, 102, -61, 0, 52},
{66, 110, 13, 97, 127, 56, 87, 121, 28},
{-73, -99, -51, -106, -127, -82, -64, -82, -38},
{-36, -81, -44, -81, -127, -90, -44, -79, -47},
{-43, -110, -81, -89, -127, -104, -47, -99, -72},
{-60, -94, -83, -89, -127, -106, -51, -69, -79},
{6, 28, 26, 27, 127, 79, 45, 85, 21},
{85, 127, 64, 70, 104, 65, 8, 3, 6},
{18, -35, 20, -60, 127, -71, 40, -89, 51},
{-78, -82, -24, -91, -127, -70, -34, -82, -53},
{64, 77, 32, 111, 127, 65, 56, 53, 32},
{-40, -65, -30, -57, -127, -62, -23, -63, -34},
{-42, -83, -61, -87, -127, -80, -61, -82, -21},
{-18, 100, 85, 26, 127, 109, -8, 40, 30},
{-45, -127, -73, 38, 102, 55, 15, 18, 19},
{46, 64, 25, 103, 127, 46, 60, 72, 34},
{83, 99, 23, 13, -91, -56, -73, -127, -69},
{-80, 94, -22, 101, -127, 32, -27, 39, -10},
{49, 127, 84, 50, 115, 111, 32, 71, 60},
{1, -29, 1, 77, 126, 67, -64, -127, -58},
{-106, 48, 30, 76, 127, -9, 37, -43, -97},
{-56, -85, -55, -66, -127, -89, -34, -82, -59},
{62, -102, -127, 40, 3, -75, -14, 64, 66},
{-27, -123, -90, -19, -117, -127, 5, -23, -20},
{-71, -90, -76, -80, -127, -105, -32, -99, -30},
{-65, -109, -41, -92, -127, -68, -40, -69, -33},
{-25, 62, -32, -63, 127, -73, -27, 64, -39},
{-71, -127, -45, -43, -88, -16, 52, 94, 48},
{-54, 127, -60, -6, 98, -95, 15, 11, -40},
{79, 69, 19, 87, 127, 70, 30, 83, 50},
{93, 101, 42, 127, 121, 39, 50, 46, 13},
{-41, -99, -45, -102, -127, -62, -41, -86, -39},
{25, 37, -1, -94, -127, -45, 68, 94, 43},
{53, 92, 51, 99, 127, 60, 69, 72, 17},
{-59, 5, -52, -95, 7, -127, -54, 11, -89},
{127, 60, 15, 71, -59, -93, -29, -107, -77},
{62, -127, 58, 39, 20, -47, -83, 97, -17},
{55, -89, 32, -89, 127, -41, 33, -42, 11},
{-48, -89, -32, -99, -127, -46, -81, -66, -18},
{40, -82, -83, 49, 127, -49, -79, 45, 69},
{47, 97, 47, 54, 127, 58, 24, 54, 20},
{7, -60, 77, 4, -100, 127, -6, -47, 64},
{-90, 69, 21, -127, 98, 29, -41, 33, 10},
{-69, -107, -58, -84, -127, -58, -74, -106, -47},
{-41, 58, -14, -65, 127, -59, -18, 65, -43},
{-99, -127, -33, -102, -98, 11, 60, 79, 44},
{-66, -84, -45, -101, -127, -69, -41, -70, -34},
{-69, -82, -49, -110, -127, -75, -52, -77, -40},
{-44, -76, -32, -74, -127, -55, -36, -58, -22},
{-70, -127, -53, 23, 21, 2, 59, 80, 38},
{-38, -59, -21, -98, -127, -49, -63, -111, -33},
{-41, -85, -33, -90, -127, -74, -33, -59, -24},
{36, -16, -52, 86, 44, -127, 23, 53, -67},
{50, -127, 77, 16, -71, 52, -2, 6, -2},
{87, 127, 74, -46, -77, -24, 8, 1, 7},
{-12, -40, -13, -80, -112, -91, -57, -127, -75},
{-108, -127, -63, -110, -119, -56, -20, -9, -1},
{17, 50, 36, -80, -127, -48, 60, 61, 10},
{-50, -80, -31, -98, -127, -56, -60, -77, -35},
{26, -75, 51, -58, 127, -68, 35, -52, 18},
{-15, -80, -24, -64, 127, -47, -19, -55, -13},
{-18, -23, -22, 35, 127, 21, -19, -25, 0},
{109, -5, -43, 9, -127, 20, -71, -9, 87},
{1, 0, -23, 3, 127, -11, -26, -7, 6},
{-43, -86, -17, -124, 127, 79, -32, 27, 42},
{43, -127, 51, -29, 60, -19, -16, 73, -34},
{47, -7, -2, -8, -127, 19, -6, 20, 45},
{-12, 53, -3, 65, -127, 44, -9, 47, -3},
{-46, 45, 13, 32, 127, 35, -4, 8, -74},
{-39, -115, -34, -79, 127, 54, -35, 62, 40},
{-94, -23, -18, -20, 127, 40, -15, 33, -9},
{18, 28, 13, -7, -127, 11, 18, 33, 13},
{-127, 15, 69, -2, 117, -8, 80, -48, -92},
{22, 105, -27, -96, 69, 127, -59, -103, 14},
{11, 73, -10, -8, -127, 12, 0, 73, -10},
{36, -60, 3, -53, -127, -46, 0, -25, 25},
{22, -4, 39, 6, -127, -6, 29, 18, 38},
{-56, 89, 95, -76, 11, 37, 5, -127, -72},
{-65, -16, 120, 19, -127, 1, 98, 10, -71},
{4, -2, -6, 34, 127, -24, 20, -2, -4},
{-21, -55, 2, 24, 127, 5, -9, -66, -11},
{9, 13, 10, 22, -127, 23, 12, 24, 9},
{-35, -54, -26, 127, -6, 124, -32, -38, -30},
{-13, 60, -25, 54, 127, -29, 1, -42, -87},
{-56, 11, 39, -8, 127, -29, 23, -32, -51},
{58, 45, 48, 119, -127, 73, -119, 17, 10},
{6, -32, -27, -22, -3, -35, -37, -25, -127},
{-33, 99, -20, 96, 87, -121, -4, -127, -35},
{-96, -26, -6, -13, 127, 30, -12, 38, -14},
{-86, 127, 114, -111, 11, 118, -30, -67, -52},
{15, 97, 6, -52, -127, -40, 15, 95, 3},
{-9, -103, 80, 127, -10, -102, -106, 97, 12},
{-25, 52, 15, 64, -127, 48, 9, 53, -12},
{127, -22, -100, -25, 85, -19, -105, -20, 115},
{23, -43, -12, -38, -127, -32, -9, -63, 36},
{-1, 35, -22, 23, -127, 66, -16, 69, -6},
{5, -22, 8, 35, -127, 42, 1, -9, 2},
{112, -2, -123, 5, -100, 38, -127, 50, 93},
{91, -127, -85, 73, 7, -100, 39, 44, 52},
{-39, -123, 16, 77, 105, 71, 24, -127, -33},
{-3, -84, 1, -29, 127, -16, 4, -19, 6},
{12, -112, -44, -127, 3, -75, -23, -70, 51},
{-25, 34, -23, -5, 127, -9, -20, -8, -16},
{13, -63, 26, -55, 127, -63, 21, -62, 24},
{-24, 127, -30, 29, -71, 28, -14, 111, -18},
{32, -40, -65, 25, 127, -39, -79, 24, 19},
{55, 13, -81, 127, 14, -100, 29, -2, -72},
{56, 115, 15, -12, 21, -14, -44, -127, -26},
{56, -126, 37, -111, 127, 4, 25, 21, -33},
{-67, -8, 98, 8, -127, 9, 96, -15, -48},
{-28, -112, -54, 116, 117, -127, 49, 23, -8},
{71, -127, 60, -50, 86, -40, -27, 63, -31},
{-35, -27, -34, -18, 127, -22, -29, -39, -22},
{7, 45, 10, -20, -127, -5, 18, 46, 7},
{3, 57, -20, -50, 127, 58, -99, -31, -26},
{22, -8, 14, 3, 127, 9, 8, -2, 2},
{8, -31, 15, 52, -127, 50, 12, -12, 10},
{-1, -48, -22, 18, 127, 78, 3, -75, -27},
{-13, -44, -127, 64, 113, -11, 2, 55, -26},
{9, -67, -84, 68, 127, -66, -18, 51, 4},
{-27, 3, 6, 8, 127, -12, 5, -13, -23},
{5, -18, 7, 39, 127, 28, -40, -111, -40},
{-33, -33, -28, -31, 127, -43, -20, -55, -17},
{-103, 65, 72, -127, -24, 117, 0, -42, 35},
{-8, 8, 36, 1, -127, 11, 45, 14, -4},
{-61, -67, -30, -67, 3, 82, 7, 127, -15},
{6, 39, 13, -34, -127, -10, 24, 61, 19},
{-4, -31, 31, 32, -127, 92, -1, -11, 17},
{-21, -9, -11, -3, 127, -38, -14, -31, -8},
{-37, 127, -52, 46, 96, 5, 0, 21, -3},
{29, -25, 6, 70, -127, 41, 4, -15, 13},
{49, -108, -27, -2, 127, -88, 55, -36, 9},
{76, -3, -75, -127, 7, 118, 17, -4, -11},
{-18, -6, -24, -4, 127, -2, -18, -18, -23},
{-7, 53, -35, 127, -20, -126, 53, -71, 12},
{-33, 86, -46, -21, 43, -18, 54, -127, 63},
{-87, -127, -71, -114, 116, 10, -75, 17, 13},
{-110, -30, 127, -3, 25, -25, 122, -15, -95},
{-82, 48, 35, 127, -76, -57, -45, 33, 7},
{-40, 10, 19, -127, 95, 53, -49, 24, 17},
{-88, -31, -53, -30, 127, -24, -56, -20, -22},
{-44, -127, -49, 62, 99, -71, 60, 95, -38},
{-4, -77, -18, -51, 127, -14, -23, 39, -11},
{61, 56, -48, 50, 120, -108, -51, -127, -51},
{-23, 11, -22, 7, 127, -2, -17, -4, -15},
{-24, -6, -27, 127, 66, 117, -23, -12, -33},
{-15, 47, -22, -38, 127, 42, -111, -23, 2},
{15, -82, -23, 10, 127, 77, 6, -45, -25},
{-60, 127, -42, -63, 62, -43, -27, 116, -44},
{-3, 127, 74, -125, -25, 115, -57, -99, -19},
{-46, -24, -41, -30, 127, -41, -41, -42, -26},
{16, -65, -9, 90, -127, 86, 20, -83, 21},
{-5, -22, -3, -31, -127, -31, -9, -8, -2},
{-69, -111, 23, 28, -67, 69, 69, 127, 37},
{-50, 14, 41, -127, 21, 105, -43, 15, 24},
{-13, 127, 37, 15, -93, 12, -15, -43, -11},
{115, -4, -127, -35, -116, 13, -101, 33, 72},
{-5, -23, -29, -41, 127, -74, -17, -37, -39},
{24, -46, 12, -66, 127, -41, 20, -62, 20},
{-25, -111, 19, -92, -41, 127, -4, 93, 29},
{-23, -109, -52, 120, -60, -98, 73, 127, -16},
{-15, -82, -18, 125, -47, 127, -37, -71, -22},
{26, -39, 14, -44, -127, -5, 59, -12, 104},
{20, -36, 17, 74, -127, 47, 18, -27, 13},
{-11, -5, -15, -38, 127, -45, -13, -17, -13},
{44, 1, -36, 115, -9, -127, 25, 7, -37},
{-46, 104, 41, 89, 110, 120, 19, 127, -35},
{126, -127, -50, -105, 109, 33, -17, -28, 47},
{-35, -92, -19, 40, 127, 14, -2, -32, 9},
{-27, -6, 16, -127, -17, 102, -1, 61, 20},
{-66, -50, 127, -44, 71, -22, 115, -49, -55},
{-17, 51, 23, 29, -127, 30, 13, -6, 10},
{-54, -118, -52, -123, 127, 84, -66, 103, 37},
{-36, 93, 91, -96, 123, 72, -80, -127, -30},
{-84, -58, -33, -91, -33, -39, 74, 127, 98},
{38, -80, 11, 29, -48, 12, -69, 127, -23},
{-4, 66, -19, 57, 127, -30, -23, -52, -91},
{108, -118, 3, -118, -3, 127, 12, 96, -111},
{-11, -17, -7, -6, -87, -10, 13, 127, -7},
{-127, -5, 127, 17, 8, -30, 111, -5, -107},
{-49, -73, -8, 75, 127, 29, -25, -49, -13},
{-23, -5, -30, -29, 127, -34, -28, -25, -24},
{48, 71, -5, 27, 127, -45, -14, -101, -2},
{-19, -26, -10, -42, -127, -23, -10, -12, -15},
{27, 7, -79, 2, 127, -10, -79, -6, 28},
{-57, 23, 28, -12, 127, -30, 39, -55, -65},
{-5, 18, 5, 45, -127, 46, 5, 54, 1},
{19, 16, 18, 9, -127, 22, 27, 20, 21},
{-12, 46, -15, 49, -127, 44, -21, 46, -20},
{-34, 52, -25, -62, 127, -69, -8, 30, -18},
{9, -19, -20, 24, 127, -32, -1, 2, -16},
{-4, -7, 20, -21, -127, 38, 32, 19, 12},
{45, 10, -39, 127, -108, -26, -6, -15, -23},
{29, -61, 14, -60, 127, -55, 14, -53, 7},
{5, 115, 22, -127, -7, 123, -4, -124, -8},
{-52, -123, 37, -127, -54, -99, 42, -67, 5},
{-1, -36, 9, -45, -127, -27, 18, -39, -4},
{3, -127, -24, -101, 105, 90, -33, 69, 60},
{-78, -67, 33, -85, -7, 127, -25, 13, 47},
{38, 73, -22, 127, -18, -97, 15, -81, -35},
{-9, 6, -37, -18, -31, -36, -66, -42, -127},
{-24, -84, -31, 17, 127, 53, 5, -50, -24},
{121, 115, -82, 119, 19, 83, -63, 106, 127},
{33, -36, 42, 27, -127, 39, 39, 114, 28},
{70, 101, 53, 90, 127, 72, 41, 65, 40},
{-49, -94, -68, -99, -127, -80, -68, -81, -36},
{-57, -81, -40, -91, -127, -62, -45, -60, -30},
{-60, -87, -41, -90, -127, -70, -49, -75, -34},
{-83, -91, -40, -91, -127, -78, -40, -81, -53},
{-51, -80, -40, -85, -127, -62, -46, -66, -29},
{56, 77, 36, 88, 127, 60, 38, 62, 29},
{44, 89, 54, 70, 127, 69, 35, 62, 37},
{-64, -97, -55, -89, -127, -80, -47, -75, -39},
{-52, -79, -42, -83, -127, -66, -32, -61, -27},
{-47, -71, -27, -88, -127, -60, -37, -56, -30},
{-90, -99, -45, -92, -127, -83, -43, -84, -53},
{61, 91, 48, 92, 127, 69, 45, 62, 29},
{67, 98, 56, 93, 127, 66, 49, 67, 30},
{54, 86, 48, 83, 127, 65, 54, 74, 33},
{-77, 78, 8, -112, 127, -11, -71, 79, -3},
{41, 61, 37, 79, 127, 72, 51, 77, 39},
{68, 100, 57, 90, 127, 62, 42, 63, 27},
{-54, -90, -47, -81, -127, -59, -41, -56, -25},
{-48, 116, -35, -56, 127, -41, -62, 91, -40},
{75, 103, 69, 96, 127, 91, 68, 83, 49},
{55, 78, 36, 80, 127, 53, 31, 55, 24},
{46, 75, 35, 84, 127, 69, 43, 70, 39},
{46, 78, 41, 83, 127, 62, 45, 61, 24},
{-78, -100, -51, -96, -127, -70, -57, -79, -40},
{-95, 36, 80, -127, 1, 105, -78, -29, 38},
{56, -51, -81, 127, -19, -114, 102, 17, -67},
{-65, -92, -57, -103, -127, -81, -70, -85, -46},
{43, 77, 39, 75, 127, 64, 39, 65, 36},
{106, 2, -120, -22, 88, 7, -127, -3, 86},
{104, 127, 79, -3, -26, -18, -74, -112, -67},
{-47, -74, -51, -99, -127, -61, -47, -55, -25},
{-94, -127, -80, 16, 27, 21, 71, 98, 56},
{-127, -105, 92, -123, 118, 96, 44, 107, -62},
{55, 78, 37, 83, 127, 56, 46, 62, 34},
{66, 89, 43, 93, 127, 59, 40, 58, 25},
{69, 103, 51, 90, 127, 65, 49, 55, 25},
{-61, -86, -35, -82, -127, -62, -49, -70, -30},
{127, 12, -81, 92, -19, -92, 76, -51, -98},
{-69, -97, -58, -98, -127, -77, -55, -80, -40},
{54, -80, 4, 83, -127, 30, 58, -79, 12},
{-98, -127, -92, 23, 29, 15, 92, 105, 73},
{52, 86, 52, 88, 127, 67, 56, 69, 32},
{-39, -93, -68, -86, -127, -57, -46, -46, -6},
{56, 80, 44, 84, 127, 58, 47, 62, 30},
{49, 83, 41, 74, 127, 62, 38, 65, 33},
{-66, -96, -53, -99, -127, -78, -57, -75, -40},
{76, 108, 52, 102, 127, 63, 56, 59, 27},
{59, 83, 35, 87, 127, 55, 41, 60, 27},
{115, 127, 106, -5, -16, -19, -97, -110, -82},
{-57, -81, -53, -82, -127, -58, -48, -57, -31},
{-41, -110, -87, -106, -127, -81, -78, -73, -24},
{53, 80, 39, 81, 127, 63, 38, 60, 33},
{55, 80, 40, 82, 127, 62, 36, 54, 30},
{69, 87, 56, -109, -127, -101, 41, 55, 30},
{-100, 127, -88, -106, 103, -116, -69, 100, -100},
{107, 127, 96, -2, -10, -17, -87, -106, -83},
{72, 91, 45, 94, 127, 58, 44, 53, 27},
{-52, -82, -44, -83, -127, -73, -56, -75, -44},
{-52, -69, -27, -73, -127, -58, -36, -65, -24},
{100, 111, 71, 118, 127, 110, 88, 109, 77},
{-77, -103, -58, -107, -127, -81, -55, -83, -38},
{-63, -83, -53, -101, -127, -81, -51, -68, -42},
{76, -40, -85, 127, -16, -98, 70, 18, -90},
{72, -22, -69, -21, -127, -13, -63, -11, 54},
{-61, -90, -52, -103, -127, -88, -69, -89, -50},
{63, 89, 44, 83, 127, 58, 33, 53, 25},
{-114, -95, -31, -98, -127, -89, -37, -82, -55},
{-64, -102, -82, -105, -127, -76, -85, -81, -24},
{-55, -90, -47, -80, -127, -64, -39, -56, -35},
{70, 82, 32, 86, 127, 61, 30, 57, 41},
{53, 82, 33, 94, 127, 61, 41, 65, 27},
{46, 71, 34, 76, 127, 52, 36, 55, 24},
{-104, -127, -95, -126, -107, -125, -86, -107, -53},
{-41, -80, -38, -80, -127, -52, -42, -53, -20},
{-62, -93, -55, -93, -127, -79, -34, -61, -33},
{-70, -99, -67, -106, -127, -94, -75, -95, -57},
{-59, -82, -43, -101, -127, -72, -66, -81, -47},
{48, 67, 43, 94, 127, 91, 60, 80, 60},
{94, 122, 67, 127, 109, 16, 72, 48, -93},
{50, 84, 36, 82, 127, 61, 42, 62, 32},
{-69, -108, -61, -87, -127, -69, -43, -59, -33},
{-68, -98, -41, -94, -127, -61, -44, -68, -24},
{-104, -125, -89, -7, -10, -19, 95, 127, 73},
{61, 92, 38, 85, 127, 60, 49, 77, 38},
{-67, -74, -16, -78, -127, -58, -18, -60, -40},
{-57, -90, -50, -83, -127, -69, -39, -69, -33},
{-59, -97, -50, -92, -127, -83, -58, -82, -45},
{-57, -88, -45, -99, -127, -71, -48, -72, -31},
{-86, -16, 104, -115, -19, 127, -84, -5, 85},
{-64, -83, -41, -92, -127, -79, -44, -76, -31},
{52, 85, 42, 91, 127, 71, 50, 71, 40},
{-64, -85, -50, -83, -127, -69, -54, -77, -43},
{60, 94, 45, 95, 127, 64, 51, 60, 22},
{-53, -93, -63, -96, -127, -79, -61, -83, -37},
{-80, -116, -56, -109, -127, -93, -62, -88, -50},
{-69, -106, -44, -90, -127, -66, -39, -65, -24},
{52, 82, 47, 92, 127, 71, 48, 67, 35},
{-60, -86, -57, -89, -127, -79, -55, -80, -47},
{53, 80, 40, 82, 127, 65, 44, 68, 38},
{58, 82, 46, 91, 127, 72, 53, 78, 46},
{53, 80, 37, 90, 127, 59, 48, 67, 30},
{-67, -87, -43, -90, -127, -69, -55, -81, -28},
{-127, -113, -113, 54, 53, 46, 74, 78, 49},
{51, 80, 39, 80, 127, 58, 43, 64, 31},
{-78, -105, -61, -107, -127, -84, -66, -88, -51},
{-63, -89, -38, -90, -127, -61, -43, -64, -24},
{-109, -127, -82, -127, -121, -109, -68, -82, -50},
{-59, -88, -49, -92, -127, -83, -51, -79, -50},
{28, -81, 48, 32, -127, 87, 8, -58, 52},
{34, 73, 47, 77, 127, 63, 42, 63, 25},
{-125, -106, -38, -106, -127, -80, -36, -78, -51},
{-124, -126, -64, -47, 42, 84, 65, 127, 68},
{63, 95, 53, 89, 127, 67, 44, 62, 33},
{42, -73, 44, 66, -127, 71, 23, -53, 23},
{-42, 118, 43, 127, 71, -69, 82, -78, -51},
{-108, 27, 57, -127, -7, 87, -106, 8, 75},
{52, 82, 48, 84, 127, 74, 48, 68, 35},
{-111, -118, -82, -68, -108, -77, 125, 127, 98},
{59, 92, 47, 95, 127, 68, 56, 72, 34},
{-70, -96, -41, -106, -127, -76, -53, -90, -40},
{59, 87, 34, 95, 127, 59, 57, 68, 34},
{-61, -100, -68, -101, -127, -80, -69, -83, -44},
{127, 51, -64, 37, 92, 61, -71, 53, 96},
{85, 127, 69, -34, -61, -16, -73, -86, -76},
{-110, 25, 54, -127, 44, 80, -97, 32, 47},
{-67, -103, -57, -102, -127, -81, -66, -83, -35},
{54, 83, 53, 76, 127, 75, 33, 69, 31},
{38, 127, 23, 118, -25, -88, 10, -87, -14},
{99, 112, 77, 123, 127, 91, 70, 83, 53},
{-69, -95, -40, -89, -127, -62, -38, -58, -24},
{127, -3, -105, 105, -11, -102, 109, -7, -96},
{-110, -125, -84, 89, 127, 76, -6, -23, 0},
{-63, -95, -46, -89, -127, -67, -39, -61, -24},
{-71, -107, -76, -108, -127, -97, -78, -94, -49},
{-53, -79, -48, -78, -127, -66, -40, -54, -32},
{51, 81, 35, 83, 127, 64, 43, 69, 40},
{41, 72, 34, 80, 127, 58, 35, 51, 22},
{67, 94, 38, 88, 127, 59, 33, 48, 23},
{50, 83, 39, 80, 127, 63, 38, 56, 33},
{47, 75, 28, 77, 127, 49, 33, 56, 21},
{47, 127, 100, -122, -39, 30, -71, -127, -88},
{-100, 7, 91, -127, 6, 111, -97, 12, 76},
{27, 78, 57, 73, 127, 69, 51, 66, 19},
};
static dw_weights_dt seml_dw_weights_3x3[960][9];
const static int dw_layers_weights_offsets[] ={0, 0, 0, 288, 288, 288, 288, 1152, 1152, 1152, 2448, 2448, 2448, 2448, 2448, 3744, 0, 0, 1728, 1728, 1728, 1728, 3456, 3456, 3456, 3456, 3456, 5184, 5184, 5184, 8640, 8640, 8640, 8640, 12096, 12096, 12096, 12096, 15552, 15552, 15552, 15552, 19008, 19008, 19008, 24192, 24192, 24192, 24192, 29376, 29376, 29376, 29376, 29376, 34560, 34560, 34560, 43200, 43200, 43200, 43200, 51840, 51840, 51840, 51840, 60480, 60480, 60480, 60480, 60480, 60480, 60480};
#endif
#endif
