#include "../../basic_defs/basic_defs_glue.h"
#if FIBHA_VERSION == 2 && FIRST_PART_IMPLEMENTATION != BOTTLENECK_CHAIN_MODE
#ifndef DW_WEIGHTS
#define DW_WEIGHTS
const static dw_weights_dt pipe_dw_weights_3x3[][9] = {
{-8, -63, -2, -18, 127, -20, -10, 11, -7},
{7, 43, 14, 1, -127, 2, 2, 20, 10},
{-127, -36, 57, -35, 16, 40, 77, 33, -12},
{-95, -123, -121, -127, -116, -110, -90, -94, -94},
{-127, -21, -5, 115, 84, -37, 66, -3, -72},
{2, 3, -7, 123, 6, -127, -6, 3, 1},
{-14, -13, -13, -50, 127, 23, -16, -22, -19},
{14, 48, 14, 21, -127, 23, 6, -7, 4},
{0, 19, -4, -13, -77, -9, -9, 127, -19},
{-6, -3, -54, -29, 8, 127, -14, -27, 2},
{-4, -13, -10, -26, 127, -30, -4, -26, -1},
{11, -10, -3, 127, -88, -31, -2, -2, 1},
{-76, -99, -127, -31, -53, -56, -112, -106, -121},
{3, -6, -4, 127, -117, 8, -4, 1, -4},
{-99, -54, -34, 71, 90, -19, 127, 28, -101},
{-19, -77, 85, -97, -120, 49, 127, 51, 1},
{12, 16, 16, 26, -127, 13, 12, 19, 12},
{127, 119, 79, 127, 108, 98, 108, 89, 81},
{-2, -127, -5, -1, 5, 6, 6, 117, 1},
{4, -127, 114, 7, 118, -115, -10, 10, -2},
{35, 56, 4, -54, -127, 6, 15, 30, 4},
{-77, 98, -8, -127, 115, 51, -11, -1, -35},
{-28, -35, -40, -33, 127, 7, -14, -14, 65},
{-2, 30, 15, 37, 95, 42, -127, -9, 14},
{-52, -81, -54, -71, -127, -78, -32, -58, -40},
{-67, -91, -47, -91, -127, -65, -75, -104, -47},
{37, -80, 17, 63, -127, 47, 33, -62, 25},
{-73, -99, -51, -106, -127, -82, -64, -82, -38},
{-78, -82, -24, -91, -127, -70, -34, -82, -53},
{-40, -65, -30, -57, -127, -62, -23, -63, -34},
{-42, -83, -61, -87, -127, -80, -61, -82, -21},
{62, -102, -127, 40, 3, -75, -14, 64, 66},
{25, 37, -1, -94, -127, -45, 68, 94, 43},
{-59, 5, -52, -95, 7, -127, -54, 11, -89},
{55, -89, 32, -89, 127, -41, 33, -42, 11},
{-69, -107, -58, -84, -127, -58, -74, -106, -47},
{-66, -84, -45, -101, -127, -69, -41, -70, -34},
{-69, -82, -49, -110, -127, -75, -52, -77, -40},
{-70, -127, -53, 23, 21, 2, 59, 80, 38},
{-41, -85, -33, -90, -127, -74, -33, -59, -24},
{18, 28, 13, -7, -127, 11, 18, 33, 13},
{22, -4, 39, 6, -127, -6, 29, 18, 38},
{9, 13, 10, 22, -127, 23, 12, 24, 9},
{-35, -54, -26, 127, -6, 124, -32, -38, -30},
{-9, -103, 80, 127, -10, -102, -106, 97, 12},
{127, -22, -100, -25, 85, -19, -105, -20, 115},
{112, -2, -123, 5, -100, 38, -127, 50, 93},
{91, -127, -85, 73, 7, -100, 39, 44, 52},
{13, -63, 26, -55, 127, -63, 21, -62, 24},
{29, -25, 6, 70, -127, 41, 4, -15, 13},
{-60, 127, -42, -63, 62, -43, -27, 116, -44},
{-11, -5, -15, -38, 127, -45, -13, -17, -13},
{108, -118, 3, -118, -3, 127, 12, 96, -111},
{-5, 18, 5, 45, -127, 46, 5, 54, 1},
{19, 16, 18, 9, -127, 22, 27, 20, 21},
{-12, 46, -15, 49, -127, 44, -21, 46, -20},
{-57, -81, -40, -91, -127, -62, -45, -60, -30},
{-51, -80, -40, -85, -127, -62, -46, -66, -29},
{-41, -110, -87, -106, -127, -81, -78, -73, -24},
{-55, -90, -47, -80, -127, -64, -39, -56, -35},
{-69, -108, -61, -87, -127, -69, -43, -59, -33},
{-80, -116, -56, -109, -127, -93, -62, -88, -50},
{53, 80, 40, 82, 127, 65, 44, 68, 38},
{-70, -96, -41, -106, -127, -76, -53, -90, -40},
};
const static dw_weights_dt seml_dw_weights_3x3[][9] = {
{3, 34, 4,
30, -127, 34,
15, 28, 11},
{-31, -7, -36,
-19, 127, -39,
-26, -40, -30},
{3, 73, -4,
-22, -127, -14,
12, 88, -6},
{-23, -5, -27,
6, 127, -8,
-33, -36, -31},
{-18, -30, -14,
-22, 127, -32,
-12, -33, -11},
{-23, 11, -20,
8, 127, -18,
-49, -26, -40},
{-19, -9, -21,
-9, 127, -15,
-21, -34, -20},
{-10, -35, -11,
-39, 127, -31,
-7, -33, -6},
{-1, -23, -8,
82, -127, 99,
-7, -9, -15},
{57, -17, -37,
-23, 127, -18,
-41, -10, 58},
{-37, -123, -11,
126, 97, 113,
-30, -127, -17},
{-27, -22, -31,
-10, 127, -13,
-27, -37, -29},
{114, 10, -121,
-13, 20, 51,
-127, 37, 74},
{39, 25, 42,
-127, -86, -121,
52, 6, 50},
{-25, 110, -36,
-120, 127, -122,
-23, 89, -10},
{-18, -25, -13,
-9, 127, -37,
-30, -50, -22},
{63, 76, 35,
102, 127, 53,
51, 58, 29},
{67, 86, 44,
92, 127, 56,
46, 60, 30},
{-69, -93, -47,
-94, -127, -65,
-48, -66, -34},
{-52, -75, -30,
-84, -127, -49,
-40, -60, -25},
{-47, -82, -26,
-80, -127, -37,
-34, -46, -8},
{95, -20, -63,
127, -60, -101,
61, -32, -50},
{-57, -82, -36,
-88, -127, -58,
-39, -52, -26},
{-52, -76, -36,
-86, -127, -59,
-43, -62, -30},
{34, -16, 41,
0, -127, 7,
37, -5, 38},
{-40, -88, 28,
-71, -127, 62,
0, 44, 115},
{62, -91, 62,
62, -127, 72,
74, -98, 66},
{-24, 52, -17,
-86, 127, -115,
-21, 61, -26},
{-28, -112, 19,
-93, 80, -127,
9, -119, -4},
{-32, -95, -22,
61, 127, 37,
-25, -97, -22},
{-16, -18, -26,
-20, 127, -33,
-38, -37, -33},
{26, -95, 18,
-55, -127, -67,
-1, -65, -7},
{-54, -44, -25,
-84, -57, -71,
103, 118, 127},
{47, 108, 48,
-36, -127, -43,
-14, 26, -16},
{-36, -4, -35,
4, 127, 1,
-37, 7, -34},
{-87, -83, -80,
-68, -127, -68,
-86, -67, -101},
{-16, -16, 20,
-16, -127, 1,
39, 24, 93},
{-29, -44, 71,
-47, -69, 127,
-40, -36, 71},
{71, -56, -55,
54, -124, -66,
127, 7, 24},
{-25, -4, -39,
0, 127, -2,
-32, -9, -38},
{44, 4, 15,
9, -127, -2,
45, 0, 17},
{25, -11, -22,
2, -127, -16,
92, 16, 36},
{11, 7, 77,
-11, -127, 28,
-24, -15, 49},
{34, 8, 51,
-11, -127, 1,
11, 2, 36},
{33, 7, 30,
3, -127, 7,
29, 11, 30},
{-48, -121, -66,
-105, -122, -86,
-60, -127, -95},
{9, 62, 14,
47, 127, 57,
7, 65, 19},
{81, 60, 80,
40, -19, 54,
62, 127, 66},
{31, 127, 32,
-26, -94, -19,
-9, -43, -12},
{1, -4, -6,
127, -36, -85,
35, -2, -24},
{54, 127, 12,
-41, -82, -13,
-18, -36, -1},
{44, -43, -27,
127, -64, -8,
58, -39, -32},
{52, 127, 29,
-52, -49, -36,
-24, -7, -23},
{14, 1, 14,
43, -127, 54,
9, 31, 0},
{-7, -27, 7,
-50, -80, -39,
45, 127, 23},
{0, -6, 0,
-4, 127, -30,
-8, -30, -2},
{-45, -42, 64,
-11, -70, 127,
-33, -36, 60},
{127, -37, -93,
-70, 26, 45,
-63, 15, 50},
{-20, -36, -10,
-24, -127, -4,
61, 120, 46},
{7, -6, 7,
2, -127, 33,
12, 34, 2},
{-34, -50, -14,
-29, -82, -19,
79, 127, 44},
{14, 18, 9,
-9, -127, 19,
13, 21, 7},
{50, 127, 29,
-46, -55, -32,
-15, -29, -10},
{-10, 28, -14,
-2, 127, -32,
-20, -41, -7},
{-44, -78, -50,
-99, -44, -127,
-87, -69, -79},
{-3, -6, -2,
-5, -127, -4,
-4, -3, -4},
{5, -24, 9,
70, -127, 68,
17, -20, 13},
{11, -41, 13,
-39, 127, -44,
9, -42, 14},
{-30, 2, -28,
-15, 127, -11,
-35, 10, -34},
{24, -7, 27,
-50, -59, -51,
-9, 127, -12},
{-37, 0, -29,
-4, 127, -5,
-44, 14, -36},
{-19, 127, -16,
-17, -73, -19,
13, -8, 13},
{-31, 1, -32,
-9, 127, -7,
-33, -3, -32},
{64, 37, 59,
127, 42, 122,
10, 72, 20},
{-34, 127, -22,
-31, 49, -22,
-24, 86, -33},
{-59, -117, -114,
-127, -27, -112,
-97, -118, -119},
{19, 27, 20,
19, 127, 21,
8, 24, 11},
{-88, -55, -54,
43, 127, 44,
24, -13, 28},
{-101, -66, -78,
-127, 60, -117,
-52, -107, -44},
{4, -84, 8,
-53, -127, -55,
8, -82, 9},
{54, 83, 45,
92, 127, 66,
61, 83, 41},
{51, 81, 38,
82, 127, 68,
56, 84, 46},
{-60, -84, -46,
-90, -127, -71,
-53, -79, -40},
{53, 80, 39,
87, 127, 68,
56, 80, 42},
{-61, -85, -43,
-87, -127, -65,
-49, -71, -33},
{-73, -108, -54,
-90, -127, -71,
-51, -73, -39},
{55, 80, 38,
86, 127, 60,
43, 67, 31},
{61, 86, 41,
90, 127, 64,
48, 71, 33},
{-73, -99, -54,
-98, -127, -86,
-63, -91, -45},
{53, 75, 37,
88, 127, 60,
51, 75, 36},
{58, 86, 45,
89, 127, 66,
54, 73, 36},
{-64, -91, -48,
-89, -127, -64,
-47, -71, -37},
{-69, -96, -47,
-96, -127, -67,
-57, -77, -33},
{-78, -103, -47,
-91, -127, -67,
-52, -71, -28},
{57, 82, 43,
89, 127, 73,
56, 78, 42},
{46, 65, 18,
82, 127, 62,
71, 106, 58},
{-111, -127, -85,
-107, -125, -86,
-31, -31, -29},
{76, 105, 59,
99, 127, 71,
56, 75, 34},
{-55, -83, -43,
-89, -127, -74,
-62, -86, -49},
{66, 89, 43,
92, 127, 60,
51, 72, 29},
{-56, -79, -36,
-85, -127, -67,
-55, -79, -39},
{69, 93, 48,
93, 127, 62,
52, 72, 35},
{-60, -86, -43,
-88, -127, -65,
-46, -72, -33},
{67, 86, 45,
93, 127, 75,
62, 88, 48},
{53, 77, 38,
89, 127, 66,
57, 85, 43},
{-68, -99, -58,
-94, -127, -78,
-61, -77, -51},
{-56, -80, -46,
-89, -127, -79,
-57, -87, -52},
{56, 82, 42,
87, 127, 67,
49, 73, 35},
{-57, -80, -38,
-89, -127, -66,
-54, -78, -38},
{58, 86, 42,
91, 127, 61,
53, 70, 37},
{-57, -79, -36,
-90, -127, -63,
-51, -75, -38},
{-57, -87, -44,
-83, -127, -69,
-52, -70, -33},
{57, 80, 35,
86, 127, 61,
48, 71, 34},
{-53, -81, -46,
-87, -127, -70,
-54, -79, -41},
{-92, -78, -90,
-127, -89, -109,
-90, -44, -43},
{-58, -83, -41,
-94, -127, -69,
-66, -87, -49},
{87, 110, 50,
96, 127, 62,
42, 58, 30},
{61, 87, 40,
89, 127, 63,
49, 71, 38},
{-63, -94, -50,
-91, -127, -66,
-49, -69, -31},
{-77, -64, -106,
-97, -83, -127,
-37, -61, -88},
{53, 77, 38,
88, 127, 60,
52, 74, 33},
{-57, -89, -45,
-84, -127, -71,
-48, -76, -42},
{-83, -114, -47,
-102, -127, -62,
-63, -80, -38},
{-51, -77, -39,
-87, -127, -68,
-58, -85, -44},
{-65, -87, -40,
-90, -127, -68,
-48, -76, -40},
{62, 89, 43,
91, 127, 60,
46, 65, 24},
{-79, -85, -50,
-105, -127, -75,
-78, -99, -52},
{58, 83, 48,
92, 127, 73,
60, 81, 36},
{57, 87, 48,
88, 127, 72,
52, 75, 44},
{61, 93, 49,
92, 127, 66,
55, 76, 30},
{55, 79, 45,
89, 127, 71,
58, 85, 43},
{-55, -83, -41,
-85, -127, -69,
-48, -71, -35},
{-60, -86, -42,
-93, -127, -62,
-52, -68, -33},
{58, 84, 48,
88, 127, 69,
54, 77, 40},
{63, 85, 45,
90, 127, 68,
54, 77, 39},
{63, 90, 43,
87, 127, 65,
47, 68, 33},
{65, 92, 47,
89, 127, 64,
54, 79, 36},
{58, 84, 39,
86, 127, 70,
48, 72, 41},
{63, 90, 35,
89, 127, 60,
49, 70, 39},
{58, 86, 46,
90, 127, 67,
55, 76, 36},
{56, 86, 55,
91, 127, 66,
51, 73, 26},
{57, 78, 39,
92, 127, 65,
51, 79, 36},
{63, 83, 43,
91, 127, 65,
59, 82, 43},
{56, 81, 41,
95, 127, 60,
55, 75, 35},
{76, 102, 57,
102, 127, 64,
48, 59, 27},
{51, 80, 37,
84, 127, 66,
51, 77, 42},
{-49, -77, -41,
-93, -127, -75,
-56, -77, -48},
{54, 83, 43,
81, 127, 65,
42, 66, 31},
{62, 91, 41,
88, 127, 66,
44, 62, 36},
{61, 87, 49,
88, 127, 70,
50, 74, 39},
{-52, -82, -40,
-85, -127, -62,
-49, -74, -33},
{-58, -84, -49,
-88, -127, -72,
-57, -82, -47},
{-61, -83, -44,
-90, -127, -65,
-47, -70, -28},
{-55, -77, -43,
-87, -127, -70,
-47, -75, -37},
{59, 84, 35,
85, 127, 66,
49, 76, 45},
{59, 91, 49,
85, 127, 68,
54, 71, 30},
{-66, -93, -51,
-96, -127, -66,
-60, -76, -38},
{60, 86, 46,
87, 127, 70,
50, 75, 34},
{62, 88, 46,
87, 127, 63,
46, 70, 35},
{82, 94, 62,
116, 127, 75,
60, 78, 47},
{54, 76, 41,
90, 127, 73,
59, 81, 45},
{-64, -90, -44,
-91, -127, -66,
-51, -72, -37},
{64, 87, 46,
90, 127, 74,
50, 76, 41},
{55, 81, 35,
89, 127, 60,
54, 72, 33},
{67, 90, 41,
90, 127, 61,
49, 68, 32},
{57, 83, 39,
88, 127, 62,
46, 69, 35},
{69, 97, 44,
92, 127, 67,
50, 71, 39},
{-85, -127, -57,
-55, -66, -34,
-2, 7, -1},
{67, 93, 47,
92, 127, 67,
49, 72, 35},
{-101, -117, -74,
-116, -127, -84,
-90, -109, -65},
{-63, -91, -39,
-89, -127, -66,
-48, -68, -35},
{-68, -88, -55,
-98, -127, -71,
-64, -88, -39},
{60, 85, 51,
92, 127, 65,
57, 74, 36},
{64, 93, 51,
92, 127, 72,
49, 74, 36},
{61, 87, 42,
88, 127, 64,
50, 73, 36},
{68, 101, 54,
89, 127, 68,
41, 61, 29},
{58, 85, 52,
87, 127, 74,
53, 81, 39},
{64, 87, 47,
92, 127, 69,
51, 75, 34},
{54, 78, 38,
85, 127, 60,
49, 70, 34},
{84, 120, 65,
91, 127, 61,
28, 41, 13},
{59, 84, 47,
86, 127, 68,
49, 72, 36},
{-57, -86, -36,
-86, -127, -64,
-48, -72, -41},
{80, 109, 61,
96, 127, 61,
46, 61, 27},
{62, 86, 46,
93, 127, 61,
52, 68, 29},
{61, 86, 45,
96, 127, 68,
54, 72, 39},
{59, 82, 40,
90, 127, 64,
53, 74, 40},
{48, 71, 39,
86, 127, 63,
53, 79, 36},
{-59, -85, -49,
-89, -127, -68,
-45, -71, -35},
{65, 87, 40,
94, 127, 65,
50, 69, 34},
{68, 88, 47,
93, 127, 69,
54, 76, 40},
{52, 78, 38,
87, 127, 67,
56, 81, 44},
{65, 86, 46,
88, 127, 67,
51, 74, 36},
{61, 88, 43,
88, 127, 63,
47, 68, 34},
{63, 90, 45,
87, 127, 64,
43, 68, 33},
{70, 95, 50,
98, 127, 67,
63, 81, 53},
{-103, -127, -75,
-106, -119, -88,
-93, -102, -89},
{-52, -80, -44,
-89, -127, -71,
-60, -88, -43},
{-53, -77, -38,
-85, -127, -65,
-49, -75, -40},
{59, 85, 48,
86, 127, 71,
46, 72, 36},
{-67, -92, -45,
-92, -127, -67,
-46, -68, -37},
{51, 74, 35,
88, 127, 63,
55, 76, 39},
{57, 77, 41,
93, 127, 67,
54, 79, 39},
{66, 87, 49,
91, 127, 71,
58, 79, 45},
{65, 91, 48,
93, 127, 66,
49, 66, 35},
{60, 89, 49,
90, 127, 65,
45, 68, 29},
{60, 87, 42,
90, 127, 68,
56, 80, 40},
{66, 89, 40,
93, 127, 68,
59, 80, 45},
{58, 79, 45,
93, 127, 75,
55, 82, 37},
{56, 84, 44,
88, 127, 64,
49, 68, 33},
{64, 87, 47,
90, 127, 66,
49, 71, 36},
{82, 100, -110,
110, 127, -66,
-56, -66, -36},
{63, 93, 47,
87, 127, 71,
50, 70, 41},
{43, 95, -31,
85, 127, -7,
-56, -42, -75},
{68, 94, 44,
91, 127, 63,
43, 67, 32},
{64, 90, 49,
89, 127, 75,
56, 88, 47},
{63, 83, 42,
92, 127, 62,
50, 72, 38},
{49, 72, 37,
83, 127, 66,
52, 82, 43},
{-101, -110, -26,
-105, -127, -32,
-25, -37, 18},
{77, 104, 56,
89, 127, 69,
42, 58, 28},
{57, 79, 37,
90, 127, 65,
53, 71, 32},
{57, 82, 40,
84, 127, 65,
41, 66, 34},
{53, 85, 47,
86, 127, 71,
58, 81, 33},
{67, 100, 49,
94, 127, 75,
56, 77, 50},
{46, 69, 31,
84, 127, 61,
49, 72, 32},
{-65, -88, -47,
-94, -127, -69,
-55, -80, -36},
{52, 80, 37,
86, 127, 65,
50, 77, 44},
{65, 89, 45,
94, 127, 70,
54, 76, 38},
{-60, -87, -45,
-86, -127, -69,
-50, -80, -50},
{68, 94, 53,
91, 127, 71,
47, 66, 29},
{72, 95, 48,
89, 127, 71,
57, 75, 39},
{58, 87, 43,
90, 127, 61,
48, 70, 33},
{-114, -127, -80,
-113, -119, -79,
-99, -116, -62},
{66, 91, 40,
92, 127, 67,
47, 71, 36},
{62, 87, 46,
95, 127, 66,
56, 75, 37},
{-54, -83, -40,
-82, -127, -61,
-38, -61, -28},
{-59, -89, -46,
-86, -127, -64,
-52, -77, -38},
{-55, -81, -38,
-87, -127, -65,
-49, -73, -35},
{72, 99, 51,
94, 127, 72,
47, 64, 32},
{-54, -83, -34,
-88, -127, -65,
-58, -81, -45},
{61, 85, 45,
88, 127, 70,
53, 75, 37},
{65, 85, 46,
91, 127, 75,
66, 86, 47},
{64, 92, 46,
89, 127, 62,
39, 63, 34},
{-49, -75, -38,
-83, -127, -65,
-52, -83, -46},
{-59, -85, -47,
-88, -127, -70,
-51, -83, -42},
{65, 94, 53,
88, 127, 63,
47, 69, 36},
{71, 96, 45,
97, 127, 70,
52, 67, 34},
{-64, -92, -46,
-105, -127, -78,
-68, -87, -52},
{-60, -89, -39,
-94, -127, -60,
-53, -70, -37},
{-61, -84, -41,
-93, -127, -65,
-55, -80, -39},
{-96, -127, -68,
-35, -43, -22,
22, 30, 15},
{-59, -85, -47,
-92, -127, -68,
-59, -85, -42},
{-64, -91, -46,
-90, -127, -68,
-50, -73, -37},
{61, 82, 41,
91, 127, 66,
62, 86, 40},
{56, 91, 48,
82, 127, 70,
45, 62, 31},
{47, 72, 40,
87, 127, 67,
68, 92, 42},
{-65, -91, -54,
-90, -127, -75,
-52, -81, -46},
{58, 84, 42,
87, 127, 68,
51, 74, 38},
{60, 90, 44,
89, 127, 64,
51, 79, 37},
{62, 90, 57,
88, 127, 77,
56, 78, 41},
{-63, -92, -52,
-88, -127, -74,
-52, -79, -40},
{53, 74, 38,
96, 127, 64,
63, 82, 37},
{-57, -82, -41,
-91, -127, -69,
-56, -76, -42},
{67, 93, 48,
91, 127, 67,
58, 79, 41},
{101, 107, 77,
123, 127, 105,
79, 103, 68},
{-70, -95, -49,
-100, -127, -77,
-61, -89, -38},
{-53, -87, -41,
-87, -127, -60,
-47, -68, -36},
{-58, -84, -42,
-87, -127, -62,
-46, -67, -33},
{70, 91, 59,
104, 127, 81,
71, 92, 56},
{63, 88, 43,
89, 127, 62,
44, 65, 34},
{59, 87, 45,
82, 127, 64,
53, 75, 34},
{-64, -86, -45,
-91, -127, -68,
-50, -76, -35},
{55, 89, 48,
88, 127, 69,
54, 79, 36},
{60, 81, 42,
94, 127, 68,
53, 80, 40},
{69, 92, 54,
94, 127, 70,
55, 76, 33},
{62, 91, 44,
89, 127, 67,
55, 75, 36},
{58, 84, 43,
89, 127, 67,
50, 73, 36},
{59, 89, 50,
89, 127, 71,
56, 80, 37},
{-48, -81, -36,
-84, -127, -59,
-53, -75, -38},
{66, 87, 43,
90, 127, 70,
48, 73, 37},
{-73, -104, -53,
-93, -127, -67,
-45, -63, -25},
{58, 90, 45,
87, 127, 61,
44, 63, 30},
{-77, -100, -64,
-97, -127, -72,
-45, -76, -37},
{62, 96, 57,
91, 127, 73,
50, 71, 36},
{58, 83, 46,
87, 127, 65,
50, 71, 29},
{60, 86, 42,
88, 127, 67,
49, 71, 37},
{-59, -82, -43,
-90, -127, -67,
-48, -74, -36},
{49, 73, 37,
86, 127, 64,
53, 77, 37},
{57, 86, 40,
87, 127, 61,
45, 69, 37},
{-57, -81, -49,
-91, -127, -72,
-63, -91, -44},
{-59, -84, -49,
-86, -127, -64,
-43, -69, -30},
{-71, -95, -47,
-97, -127, -74,
-53, -76, -39},
{-86, -104, -68,
-102, -127, -75,
-55, -84, -37},
{56, 76, 29,
85, 127, 59,
51, 78, 41},
{-61, -85, -38,
-88, -127, -61,
-48, -76, -39},
{69, 84, 45,
93, 127, 61,
39, 59, 27},
{60, 86, 45,
91, 127, 65,
48, 70, 34},
{52, 78, 44,
88, 127, 69,
60, 86, 44},
{63, 86, 51,
91, 127, 69,
54, 79, 40},
{74, 93, 53,
95, 127, 80,
59, 84, 51},
{-61, -88, -49,
-87, -127, -69,
-47, -71, -35},
{58, 85, 42,
86, 127, 66,
54, 77, 36},
{-68, -95, -44,
-95, -127, -67,
-55, -79, -38},
{-68, -100, -48,
-88, -127, -64,
-38, -55, -27},
{-56, -82, -44,
-95, -127, -77,
-60, -85, -44},
{61, 92, 52,
94, 127, 62,
59, 66, 20},
{76, 99, 41,
103, 127, 59,
53, 65, 35},
{-73, -91, -39,
-99, -127, -60,
-68, -82, -25},
{58, 82, 45,
92, 127, 68,
62, 80, 47},
{62, 84, 45,
95, 127, 60,
58, 77, 39},
{70, 97, 45,
88, 127, 59,
45, 73, 39},
{-62, -90, -45,
-97, -127, -77,
-64, -97, -50},
{-53, -81, -38,
-89, -127, -61,
-51, -67, -32},
{-73, -93, -48,
-97, -127, -68,
-63, -83, -43},
{62, 87, 42,
93, 127, 67,
55, 76, 37},
{57, 81, 40,
86, 127, 62,
46, 66, 28},
{64, 89, 40,
89, 127, 64,
47, 68, 35},
{-63, -91, -46,
-91, -127, -61,
-44, -62, -30},
{79, 110, 67,
92, 127, 62,
35, 48, 18},
{66, 92, 51,
93, 127, 73,
50, 70, 39},
{65, 88, 48,
88, 127, 66,
51, 68, 34},
{55, 84, 44,
86, 127, 69,
51, 72, 39},
{-64, -97, -53,
-91, -127, -76,
-57, -83, -43},
{-55, -83, -43,
-88, -127, -70,
-54, -78, -44},
{65, 91, 46,
89, 127, 63,
49, 69, 36},
{33, 43, 25,
-25, -29, -14,
-97, -127, -60},
{-48, -78, -38,
-83, -127, -64,
-48, -72, -36},
{-82, -97, -54,
-108, -127, -72,
-67, -87, -55},
{72, 99, 53,
96, 127, 67,
40, 62, 35},
{3, 7, 2,
-52, -71, -37,
-93, -127, -61},
{-63, -87, -43,
-91, -127, -65,
-44, -66, -35},
{64, 86, 35,
85, 127, 58,
48, 71, 31},
{-59, -86, -44,
-87, -127, -64,
-45, -68, -36},
{62, 89, 43,
89, 127, 62,
49, 70, 35},
{52, 72, 35,
96, 127, 58,
62, 79, 36},
{-60, -95, -47,
-88, -127, -74,
-50, -68, -38},
{-70, -89, -40,
-99, -127, -71,
-58, -83, -41},
{57, 83, 44,
88, 127, 66,
49, 79, 35},
{-66, -95, -50,
-90, -127, -67,
-48, -71, -33},
{61, 87, 53,
95, 127, 71,
56, 79, 39},
{60, 89, 45,
90, 127, 63,
45, 65, 31},
{63, 84, 41,
87, 127, 61,
46, 70, 32},
{53, 73, 35,
90, 127, 67,
58, 81, 39},
{-60, -88, -47,
-87, -127, -66,
-42, -64, -31},
{66, 96, 46,
88, 127, 60,
39, 55, 25},
{64, 90, 38,
89, 127, 59,
45, 65, 30},
{72, 93, 43,
95, 127, 70,
52, 74, 52},
{-60, -89, -46,
-90, -127, -77,
-57, -94, -49},
{46, 72, 38,
83, 127, 67,
56, 81, 41},
{69, 92, 43,
90, 127, 64,
41, 67, 38},
{79, 104, 51,
97, 127, 66,
43, 66, 31},
{67, 92, 48,
90, 127, 64,
47, 72, 34},
{58, 84, 40,
86, 127, 68,
49, 75, 42},
{-56, -79, -37,
-86, -127, -62,
-52, -77, -39},
{53, 69, 31,
91, 127, 71,
62, 88, 59},
{69, 94, 49,
92, 127, 70,
49, 75, 30},
{80, 103, 72,
95, 127, 96,
74, 85, 70},
{-59, -94, -48,
-84, -127, -69,
-44, -69, -37},
{87, 102, 62,
104, 127, 68,
59, 84, 45},
{59, 83, 49,
91, 127, 70,
57, 82, 35},
{56, 85, 44,
86, 127, 70,
49, 73, 41},
{-60, -84, -47,
-87, -127, -70,
-48, -74, -36},
{61, 86, 38,
92, 127, 59,
48, 66, 31},
{-72, -93, -55,
-103, -127, -78,
-78, -94, -52},
{49, 70, 38,
89, 127, 71,
59, 90, 49},
{-60, -82, -42,
-90, -127, -61,
-53, -77, -32},
{-95, -127, -65,
-96, -126, -69,
-34, -49, -26},
{64, 87, 43,
95, 127, 64,
50, 64, 35},
{73, 96, 50,
102, 127, 64,
61, 82, 46},
{-53, -83, -49,
-90, -127, -72,
-57, -77, -41},
{-61, -90, -43,
-90, -127, -71,
-53, -69, -42},
{-64, -93, -48,
-89, -127, -64,
-46, -66, -31},
{-55, -80, -38,
-86, -127, -60,
-47, -73, -36},
{-57, -83, -39,
-89, -127, -67,
-56, -83, -46},
{51, 76, 38,
84, 127, 64,
46, 72, 34},
{65, 89, 45,
90, 127, 73,
52, 79, 44},
{54, 84, 43,
91, 127, 67,
55, 76, 38},
{62, 91, 39,
84, 127, 61,
40, 59, 28},
{-61, -86, -41,
-92, -127, -64,
-54, -79, -38},
{52, 75, 37,
88, 127, 62,
53, 74, 35},
{-55, -83, -42,
-92, -127, -67,
-61, -84, -36},
{64, 93, 51,
92, 127, 66,
47, 68, 33},
{-59, -91, -47,
-85, -127, -71,
-42, -64, -40},
{-75, -98, -51,
-100, -127, -83,
-56, -86, -44},
{54, 78, 39,
86, 127, 68,
61, 91, 51},
{61, 86, 52,
88, 127, 78,
63, 92, 54},
{60, 87, 39,
87, 127, 60,
44, 65, 32},
{-70, -93, -45,
-91, -127, -70,
-54, -74, -36},
{64, 92, 51,
89, 127, 67,
48, 71, 30},
{60, 85, 42,
89, 127, 65,
50, 73, 37},
{57, 77, 37,
90, 127, 65,
58, 83, 45},
{-58, -82, -38,
-85, -127, -56,
-49, -76, -37},
{50, 73, 40,
88, 127, 71,
63, 94, 49},
{69, 91, 65,
93, 127, 81,
75, 95, 61},
{49, 73, 35,
86, 127, 63,
54, 78, 36},
{-80, -118, -69,
-93, -127, -71,
-49, -67, -33},
{76, 94, 48,
91, 127, 63,
46, 65, 36},
{61, 85, 43,
88, 127, 63,
45, 69, 36},
{58, 83, 43,
90, 127, 70,
51, 73, 38},
{63, 89, 44,
92, 127, 65,
49, 74, 36},
{-55, -81, -43,
-86, -127, -65,
-50, -75, -36},
{102, 127, 61,
99, 119, 75,
40, 52, 34},
{-56, -82, -41,
-88, -127, -71,
-56, -81, -40},
{63, 92, 59,
92, 127, 69,
52, 70, 32},
{52, 76, 37,
87, 127, 62,
50, 75, 35},
{60, 76, 40,
95, 127, 62,
70, 78, 48},
{55, 78, 37,
89, 127, 61,
54, 79, 37},
{56, 88, 45,
90, 127, 63,
53, 73, 37},
{105, 127, 54,
94, 115, 45,
44, 55, 30},
{-58, -84, -40,
-88, -127, -64,
-52, -72, -34},
{-62, -85, -39,
-95, -127, -71,
-61, -80, -44},
{56, 81, 41,
87, 127, 65,
52, 80, 41},
{-50, -81, -38,
-80, -127, -62,
-47, -71, -36},
{70, 93, 51,
93, 127, 75,
50, 78, 40},
{63, 85, 42,
93, 127, 59,
50, 66, 27},
{64, 86, 38,
90, 127, 64,
45, 66, 35},
{52, 79, 43,
87, 127, 66,
53, 77, 39},
{-47, -73, -35,
-82, -127, -63,
-50, -77, -41},
{-46, -74, -35,
-82, -127, -64,
-48, -76, -43},
{-66, -87, -50,
-92, -127, -78,
-62, -90, -42},
{-61, -87, -47,
-89, -127, -72,
-50, -76, -40},
{73, 99, 58,
97, 127, 75,
60, 78, 45},
{-56, -80, -47,
-89, -127, -72,
-53, -80, -38},
{-57, -83, -47,
-89, -127, -70,
-50, -74, -39},
{52, 75, 32,
85, 127, 57,
48, 74, 35},
{48, 78, 42,
90, 127, 62,
59, 78, 37},
{70, 90, 55,
91, 127, 71,
54, 73, 43},
{-60, -88, -38,
-88, -127, -63,
-54, -73, -40},
{-61, -88, -46,
-91, -127, -63,
-52, -70, -32},
{-66, -92, -49,
-92, -127, -74,
-58, -90, -50},
{-60, -83, -36,
-92, -127, -63,
-58, -79, -41},
{69, 97, 54,
98, 127, 74,
55, 73, 41},
{62, 92, 45,
88, 127, 68,
50, 72, 41},
{63, 91, 43,
86, 127, 63,
42, 63, 33},
{59, 82, 36,
93, 127, 65,
60, 83, 44},
{-58, -89, -51,
-93, -127, -67,
-55, -71, -35},
{-62, -83, -49,
-90, -127, -69,
-45, -75, -33},
{60, 89, 45,
92, 127, 67,
59, 80, 43},
{63, 90, 43,
88, 127, 68,
50, 73, 39},
{65, 101, 51,
91, 127, 63,
56, 83, 52},
{-49, -76, -36,
-85, -127, -67,
-54, -79, -38},
{70, 93, 49,
88, 127, 66,
51, 71, 33},
{60, 88, 46,
87, 127, 68,
46, 68, 31},
{63, 91, 43,
88, 127, 61,
48, 67, 30},
{61, 90, 45,
86, 127, 68,
51, 75, 38},
{67, 86, 56,
99, 127, 71,
62, 83, 38},
{-59, -85, -43,
-86, -127, -62,
-45, -62, -31},
{66, 91, 44,
92, 127, 71,
50, 73, 36},
{-65, -96, -47,
-89, -127, -72,
-48, -72, -37},
{62, 89, 50,
89, 127, 61,
42, 67, 25},
{-82, -108, -61,
-96, -127, -69,
-44, -57, -25},
{60, 88, 46,
91, 127, 64,
49, 69, 33},
{-85, -103, -59,
-108, -127, -85,
-62, -88, -48},
{-60, -86, -39,
-86, -127, -64,
-49, -74, -36},
{58, 82, 38,
91, 127, 63,
52, 73, 35},
{58, 80, 45,
92, 127, 66,
50, 68, 37},
{57, 92, 50,
87, 127, 73,
52, 73, 41},
{51, 82, 46,
83, 127, 68,
52, 79, 43},
{-52, -74, -32,
-90, -127, -65,
-65, -91, -42},
{56, 85, 39,
91, 127, 64,
55, 80, 43},
{-58, -86, -38,
-87, -127, -64,
-56, -78, -37},
{58, 90, 49,
90, 127, 64,
52, 75, 35},
{-76, -101, -55,
-95, -127, -66,
-48, -71, -31},
{55, 80, 41,
87, 127, 67,
46, 74, 40},
{-60, -86, -40,
-89, -127, -65,
-52, -76, -37},
{63, 90, 48,
92, 127, 65,
55, 73, 38},
{59, 79, 40,
92, 127, 68,
56, 80, 38},
{69, 91, 46,
94, 127, 65,
51, 71, 39},
{53, 74, 45,
92, 127, 76,
73, 98, 60},
{110, 111, 48,
127, 98, -97,
111, 69, -78},
{68, 95, 50,
89, 127, 67,
41, 64, 31},
{66, 92, 54,
89, 127, 79,
44, 67, 40},
{-65, -94, -51,
-94, -127, -71,
-56, -77, -39},
{-69, -95, -43,
-91, -127, -66,
-43, -63, -31},
{-127, -123, -123,
-125, -112, -111,
-99, -99, -86},
{47, 69, 38,
89, 127, 72,
69, 97, 52},
{53, 78, 35,
87, 127, 62,
47, 72, 34},
{-106, -126, -98,
-117, -120, -104,
-69, -127, -45},
{-60, -91, -51,
-89, -127, -73,
-51, -75, -39},
{63, 84, 44,
93, 127, 66,
49, 66, 34},
{-63, -87, -48,
-95, -127, -76,
-62, -89, -44},
{-105, -121, -73,
-112, -127, -91,
-78, -100, -52},
{67, 92, 52,
97, 127, 72,
55, 77, 39},
{-52, 29, 102,
-79, 22, 127,
-47, 9, 68},
{52, 78, 37,
90, 127, 70,
67, 93, 48},
{69, 96, 45,
93, 127, 63,
45, 63, 34},
{65, 107, 65,
104, 127, 85,
59, 77, 25},
{-50, -72, -32,
-88, -127, -65,
-57, -84, -43},
{53, 79, 40,
88, 127, 65,
53, 76, 36},
{-69, -93, -50,
-92, -127, -65,
-54, -74, -36},
{67, 100, 57,
91, 127, 72,
50, 66, 31},
{-59, -88, -41,
-90, -127, -61,
-45, -70, -35},
{63, 87, 45,
89, 127, 66,
47, 71, 42},
{60, 86, 44,
87, 127, 66,
53, 77, 34},
{55, 81, 38,
87, 127, 65,
55, 75, 37},
{60, 83, 39,
89, 127, 60,
44, 66, 33},
{-54, -71, -35,
-89, -127, -63,
-55, -85, -41},
{-64, -91, -49,
-91, -127, -74,
-54, -82, -41},
{61, 89, 44,
88, 127, 66,
50, 71, 35},
{63, 91, 45,
88, 127, 62,
40, 55, 31},
{-50, -79, -41,
-86, -127, -67,
-53, -80, -39},
{68, 94, 46,
88, 127, 64,
43, 64, 30},
{61, 87, 51,
93, 127, 68,
54, 77, 38},
{-63, -85, -44,
-90, -127, -67,
-50, -80, -34},
{-55, -80, -42,
-87, -127, -66,
-52, -77, -37},
{60, 91, 46,
86, 127, 66,
46, 68, 35},
{67, 83, 57,
99, 127, 68,
66, 80, 44},
{65, 88, 44,
95, 127, 71,
58, 82, 42},
{60, 85, 41,
89, 127, 62,
49, 71, 33},
{59, 86, 42,
87, 127, 65,
47, 70, 36},
{55, 78, 41,
88, 127, 68,
56, 76, 40},
{64, 86, 44,
89, 127, 64,
52, 72, 34},
{61, 89, 38,
95, 127, 59,
56, 71, 34},
{61, 88, 44,
86, 127, 66,
47, 72, 38},
{58, 81, 45,
90, 127, 63,
56, 75, 36},
{60, 90, 47,
85, 127, 66,
44, 62, 33},
{56, 80, 42,
90, 127, 70,
57, 82, 48},
{63, 86, 41,
88, 127, 64,
44, 69, 34},
{-69, -96, -50,
-91, -127, -68,
-42, -65, -34},
{-54, -82, -41,
-94, -127, -66,
-59, -73, -38},
{78, 97, 56,
94, 127, 82,
56, 79, 45},
{37, 127, 45,
125, 48, 108,
62, 126, 56},
{98, 127, 93,
-37, 44, -41,
-86, -81, -73},
{39, 110, 45,
123, -102, 116,
50, 127, 53},
{65, 127, 57,
95, -68, 93,
61, 125, 57},
{29, 5, 30,
5, -127, 5,
36, 15, 34},
{94, 45, 87,
53, 127, 40,
40, -120, 48},
{75, -38, 67,
-31, -127, -27,
51, -23, 47},
{47, 38, 40,
22, -127, 26,
3, -16, 4},
{39, 10, 37,
4, -127, 6,
32, 11, 31},
{-79, 5, -2,
-23, 127, -1,
-64, -3, -2},
{16, 53, 12,
34, 127, 28,
28, 42, 28},
{109, 82, 97,
-90, -127, 99,
-61, -58, 84},
{-38, -48, -44,
-127, -110, -117,
-38, -92, -44},
{77, 99, 62,
87, 127, 76,
91, -29, 90},
{120, 105, 112,
70, -127, 68,
102, 80, 97},
{-5, -36, -6,
-46, 127, -40,
-5, -41, -5},
{-72, -73, -78,
62, -89, 82,
127, 116, 110},
{61, 127, 51,
109, -70, 115,
62, 103, 53},
{-88, 5, -84,
-28, -127, -18,
59, 32, 54},
{59, 16, 54,
-1, -127, 2,
25, -21, 26},
{-99, -6, -99,
-5, -127, -3,
-117, -10, -109},
{71, 74, 72,
127, -46, 115,
40, 120, 37},
{-47, -24, -45,
-50, 127, -50,
-65, -68, -63},
{-43, -97, -33,
-20, 127, -20,
1, 37, -6},
{-97, -60, -103,
-78, -77, -58,
-125, -127, -113},
{42, 108, 36,
72, 127, 76,
58, 63, 49},
{18, 69, 12,
58, 15, 53,
29, -127, 32},
{35, 56, 31,
95, 127, 86,
71, -61, 67},
{19, 48, 24,
51, 127, 37,
22, 48, 24},
{77, 6, 72,
79, 127, 65,
50, 12, 50},
{127, 57, 116,
36, 125, 39,
-43, 77, -46},
{27, 41, 21,
39, 127, 37,
9, 33, 9},
{-36, -29, -35,
-21, 127, -25,
-35, -24, -34},
{-56, 80, -59,
93, 127, 78,
55, 119, 49},
{108, 127, 94,
-29, 95, -36,
-122, -111, -114},
{57, -26, 55,
-13, -127, -10,
53, -10, 48},
{27, 127, 17,
30, 60, 23,
1, 9, 0},
{63, -26, 59,
-38, -127, -33,
67, -19, 64},
{94, -14, 99,
33, -127, 36,
120, -20, 112},
{110, 61, 103,
13, 127, 6,
91, 10, 90},
{-48, -93, -46,
-54, -127, -48,
-52, -107, -52},
{36, 0, 32,
-2, -127, 5,
37, 11, 33},
{-101, -127, -91,
-71, -50, -69,
-105, -91, -92},
{92, 82, 80,
103, 127, 104,
95, 87, 86},
{58, 40, 58,
96, -127, 84,
58, 77, 56},
{11, -127, 2,
-89, -125, -73,
-26, -90, -34},
{-19, 127, -30,
-37, -13, -34,
-25, 23, -27},
{33, 94, 28,
67, 127, 57,
30, 102, 26},
{-123, -127, -113,
-115, -97, -98,
-121, -96, -112},
{48, 45, 48,
72, 127, 62,
42, 48, 45},
{102, -7, -109,
19, -127, 19,
-122, -7, 117},
{-73, -111, -96,
-117, -79, -108,
-78, -127, -79},
{44, 23, 40,
27, 127, 20,
21, 53, 17},
{-40, -8, -34,
-8, 127, -10,
-37, -11, -34},
{45, 22, 45,
26, -127, 28,
49, 33, 47},
{-35, -44, -28,
-30, -127, -28,
-37, -49, -31},
{23, -46, 26,
47, -127, 49,
45, -36, 43},
{61, 36, 60,
40, -127, 42,
59, 30, 58},
{-24, -11, -20,
8, -127, 12,
38, 28, 36},
{69, 127, 56,
77, 106, 72,
16, 61, 9},
{30, 8, 28,
9, -127, 8,
33, 11, 31},
{8, 96, 1,
62, 76, 51,
-127, 41, -125},
{63, 127, 50,
-29, -107, -24,
-28, -75, -19},
{94, 127, 80,
-68, -70, -64,
-64, -27, -62},
{-54, 10, -50,
10, 127, 10,
-55, 12, -54},
{-35, -64, -28,
-46, 127, -54,
-31, -64, -34},
{-20, -18, -19,
-21, 127, -26,
-27, -14, -24},
{-119, -105, -99,
-83, 97, -93,
-67, -127, -61},
{127, 51, 118,
44, 0, 37,
94, 78, 82},
{-45, -13, -43,
-6, 127, -7,
-23, -1, -25},
{-127, 11, -85,
12, 26, 12,
50, 43, 48},
{118, -73, 111,
-51, -127, -47,
60, -49, 62},
{-127, -32, -118,
17, 63, 12,
38, 65, 29},
{-67, -79, -62,
-5, 118, -18,
34, 127, 32},
{-41, -127, -37,
-67, -98, -62,
-46, -117, -43},
{30, -127, 30,
71, 0, 69,
11, 68, 10},
{-52, 22, -54,
1, 127, -3,
-45, 17, -45},
{45, 51, 38,
84, 127, 72,
39, 55, 34},
{43, 19, 43,
32, 127, 22,
43, 13, 43},
{85, 32, 87,
52, 96, 41,
117, 127, 109},
{125, 56, 127,
89, -54, -101,
123, -117, -109},
{-24, 97, -33,
-37, -63, -30,
-10, 127, -19},
{-8, -58, -15,
-67, -127, -64,
-6, -62, -12},
{30, -84, 38,
85, -127, 83,
7, -54, 12},
{33, 71, 30,
16, 127, 4,
10, 31, 13},
{54, 91, 55,
94, -127, 90,
93, 116, 87},
{-58, -42, -57,
-49, 127, -44,
-47, -20, -50},
{30, -10, 26,
-127, -53, -110,
68, 20, 59},
{54, 127, 42,
125, 16, 121,
-16, 118, -38},
{61, 51, 52,
20, 127, 20,
63, 30, 59},
{35, 127, 27,
-15, 22, -15,
24, 111, 18},
{32, 85, 36,
85, 127, 64,
-30, 46, -25},
{110, 90, 96,
26, -127, 28,
-72, -16, -67},
{76, 48, 69,
-14, -127, -8,
-10, -6, -2},
{-127, -4, -95,
-4, -1, -3,
-67, -3, -31},
{-63, -127, -53,
-106, -67, -97,
-82, -103, -67},
{-87, -105, -76,
-109, -127, -84,
-52, -83, -40},
{95, 103, 92,
83, 127, 72,
68, 55, 70},
{-34, -17, -29,
-17, 127, -19,
-35, -30, -36},
{-67, -57, 20,
-61, -127, 65,
-24, 51, 85},
{73, 65, 72,
56, 41, 59,
70, 127, 57},
{50, -22, 49,
-11, -127, -12,
51, -14, 51},
{-90, -127, -92,
-113, -78, -109,
-109, -116, -100},
{76, 45, 71,
58, 127, 61,
68, 67, 51},
{-27, 33, -28,
-37, 127, -38,
-56, 23, -53},
{43, 8, 39,
-2, -127, -1,
32, 17, 27},
{21, 25, 21,
31, 127, 24,
20, 44, 20},
{-127, -124, -124,
-120, 73, -120,
-95, -101, -83},
{15, -48, 16,
78, -127, 75,
30, -37, 26},
{41, 6, 38,
11, -127, 13,
16, -9, 15},
{55, 33, 46,
47, -127, 51,
52, 32, 47},
{104, 126, 96,
65, 91, 60,
120, 44, 127},
{87, 127, 79,
104, -112, 96,
59, 90, 53},
{53, 127, 48,
74, 76, 67,
99, 36, 99},
{13, -108, -85,
94, -126, -94,
127, 50, -34},
{-62, -31, 127,
-92, -1, 40,
115, 32, 97},
{7, 16, 6,
-4, 104, -3,
-75, -127, -68},
{-45, -55, -46,
-84, 127, -83,
-73, -119, -59},
{-101, -7, 103,
18, -127, 21,
112, -7, -120},
{-82, -75, -88,
-115, -127, -113,
-85, -119, -96},
{65, 54, 66,
18, 127, 15,
57, 54, 58},
{60, 58, 56,
47, -127, 45,
48, 39, 47},
{39, -4, 37,
-3, -127, -1,
38, -3, 35},
{-96, -55, -89,
81, -81, 79,
87, 127, 79},
{-86, -127, -78,
-58, 14, -58,
17, 98, 13},
{-55, 1, -52,
12, 127, 10,
-47, -4, -45},
{63, 127, 54,
-6, 23, -4,
-59, -125, -46},
{127, 52, 119,
-11, -46, -11,
114, 31, 108},
{-24, -18, -30,
-21, 127, -23,
-37, -36, -38},
{-21, 16, -20,
14, 127, 6,
13, 30, 13},
{83, 115, 77,
23, 127, 6,
59, 124, 48},
{-127, 18, -126,
112, -20, 111,
77, 1, 63},
{9, -58, 8,
-53, -127, -46,
11, -58, 7},
{-42, 60, -48,
49, 127, 41,
73, 87, 50},
{64, 127, 53,
-67, -67, -62,
-29, -34, -19},
{-98, -108, -83,
-99, -127, -112,
-65, -106, -48},
{26, 23, 23,
32, 127, 21,
36, 3, 34},
{-68, -127, -75,
-97, -115, -101,
-36, -109, -35},
{74, -2, 70,
3, -127, 8,
73, 30, 64},
{127, 104, 117,
92, -97, 102,
85, 113, 76},
{-30, -127, -24,
-88, -44, -87,
-49, -93, -43},
{11, 25, 10,
16, -127, 19,
13, 30, 11},
{-34, 3, -35,
-1, 127, -3,
-42, 7, -41},
{-58, -120, -54,
-127, -75, -111,
-77, -101, -86},
{-78, -109, -59,
-126, -16, -127,
-68, -108, -64},
{-127, -73, -112,
-45, -24, -46,
-94, -56, -81},
{115, 18, 98,
90, 126, 91,
-28, 127, -48},
{-9, -86, -11,
-86, -127, -75,
-30, -78, -31},
{4, -6, 77,
1, -127, 24,
3, 5, 65},
{-3, -11, -4,
-28, -127, -27,
81, 42, 75},
{9, 15, 8,
9, -127, 8,
47, 29, 44},
{125, 43, 107,
53, 14, 42,
127, 28, 117},
{-35, -2, -30,
-12, 127, -15,
-48, -22, -41},
{55, 18, 54,
30, -127, 35,
45, 39, 43},
{32, -127, 33,
33, 40, 30,
41, 17, 41},
{16, 44, 9,
34, 127, 31,
16, 27, 9},
{64, 87, 57,
66, -17, 70,
44, 127, 37},
{-61, -101, -69,
-127, -115, -99,
-58, -78, -57},
{27, 10, 26,
14, -127, 15,
34, 24, 30},
{32, 2, 33,
13, -127, 17,
27, 2, 26},
{24, -8, 25,
7, -127, 7,
46, 16, 45},
{41, 11, 35,
39, -127, 38,
25, 17, 23},
{84, 79, 74,
68, -127, 74,
67, 35, 64},
{54, 83, 45,
-30, -127, -23,
-10, -22, -8},
{-34, -39, -24,
-23, -127, -17,
68, 81, 59},
{-24, -28, -24,
86, 127, 74,
40, 70, 35},
{43, 36, 46,
49, -127, 42,
84, 3, 80},
{-49, -127, -39,
20, 65, 19,
15, 40, 12},
{50, -44, 54,
64, 127, 50,
90, 38, 96},
{41, 109, 31,
-31, 96, -27,
-95, -127, -73},
{89, 66, 81,
71, -127, 68,
39, 50, 33},
{27, 11, 24,
5, -127, 7,
36, 8, 34},
{-75, -106, -61,
-110, -127, -100,
-39, -67, -33},
{43, 113, 41,
-127, -118, -119,
39, 113, 39},
{22, 15, 21,
25, -127, 27,
19, 19, 18},
{39, 98, 29,
40, 127, 25,
21, 9, 21},
{48, 127, 41,
-16, 56, -26,
29, 127, 18},
{8, -45, 9,
-49, -127, -50,
18, -60, 15},
{21, -127, 21,
34, 14, 31,
40, 53, 42},
{90, 76, 81,
55, -127, 58,
13, 12, 9},
{34, 8, 35,
12, -127, 15,
39, 21, 39},
{-68, -108, -57,
2, 127, 5,
-1, 21, -5},
{60, 37, 60,
26, -127, 25,
53, 27, 55},
{3, -54, 7,
48, -70, 52,
61, 127, 58},
{93, 126, 79,
127, 127, 119,
85, 114, 82},
{54, 55, 52,
31, 127, 23,
69, 29, 72},
{63, 88, 67,
74, 127, 62,
91, 82, 88},
{-123, -45, -127,
-75, -4, -71,
-108, -74, -108},
{92, -40, 86,
74, 127, 78,
68, 112, 58},
{-11, -6, -11,
-3, 127, -3,
-47, -25, -44},
{13, 26, 11,
28, 127, 23,
12, 32, 13},
{23, 33, 20,
38, 127, 37,
23, 29, 20},
{-127, -86, -117,
-27, 60, -28,
39, 111, 39},
{50, 127, 44,
85, 105, 76,
64, 34, 57},
{48, 64, -14,
51, 127, 80,
53, 78, -2},
{-67, -5, -84,
-2, -127, -3,
-67, -9, -81},
{26, 23, 28,
28, 127, 27,
18, 52, 18},
{-117, -75, -100,
-71, -92, -88,
-127, -101, -119},
{-95, -91, -92,
-104, -127, -104,
-53, -118, -48},
{-27, -79, -31,
-76, -127, -74,
-29, -96, -36},
{93, 127, 88,
101, 97, 97,
71, 101, 64},
{19, 38, 22,
45, 127, 36,
29, 39, 30},
{38, 74, 33,
56, 127, 62,
33, 71, 28},
{-127, -16, 109,
-14, 126, -51,
103, -42, -98},
{-56, -17, -50,
-5, 127, -4,
-10, -1, -9},
{71, 51, 63,
127, 15, 124,
110, 86, 95},
{-8, 43, -10,
38, 127, 28,
-8, 10, -4},
{48, 41, 46,
22, 127, 25,
42, 50, 41},
{55, 70, 51,
81, 127, 87,
32, 106, 33},
{78, 126, 73,
82, 127, 63,
35, 93, 41},
{45, 60, 47,
76, 127, 66,
28, 66, 34},
{46, 127, 46,
102, 125, 98,
60, 111, 61},
{48, -1, 46,
4, -127, 8,
26, -9, 22},
{-5, -71, -6,
-54, -127, -51,
-6, -58, -8},
{50, 73, 49,
46, 127, 30,
84, 48, 83},
{29, 48, 26,
37, 127, 30,
40, 50, 36},
{46, 123, 37,
127, -33, 123,
52, 116, 48},
{68, 43, 72,
69, 127, 68,
56, 69, 51},
{53, 79, 49,
81, 127, 79,
46, 70, 47},
{73, 80, 72,
86, 127, 68,
41, 97, 39},
{70, 127, 72,
91, 121, 85,
79, -29, 69},
{88, 92, 91,
91, 127, 86,
73, 90, 71},
{81, 99, 74,
31, -127, 30,
-30, -94, -25},
{40, 53, 43,
66, 127, 61,
14, 70, 8},
{68, -58, 77,
76, 81, 65,
53, 127, 53},
{88, 126, 75,
108, 127, 104,
84, 112, 78},
{22, 11, 20,
15, -127, 14,
22, 9, 22},
{62, 74, -63,
85, 127, 31,
67, 92, -43},
{21, 48, 17,
44, 127, 41,
34, 40, 32},
{-68, -84, -66,
-113, -127, -107,
-70, -127, -68},
{-106, -127, -106,
-119, -76, -127,
-75, -116, -71},
{-40, -94, -38,
38, -99, 37,
127, 65, 119},
{70, 123, 66,
112, 54, 101,
70, 127, 73},
{-97, -85, -110,
-117, -110, -109,
-111, -127, -113},
{85, 105, 78,
110, 127, 112,
85, 106, 81},
{29, 49, 31,
29, 127, 28,
61, 25, 62},
{-46, -77, -45,
-120, -127, -109,
-36, -100, -42},
{81, 110, 85,
117, 127, 112,
107, 117, 98},
{-2, 47, -7,
61, 127, 58,
7, 41, -1},
{-127, -6, -117,
52, 12, 52,
-53, 48, -52},
{24, 14, 25,
13, -127, 13,
27, 18, 27},
{55, 20, 57,
50, 127, 43,
49, 50, 53},
{4, 21, 3,
19, 127, 18,
18, 45, 20},
{73, 71, 72,
92, 88, 89,
62, 127, 53},
{57, 90, 46,
68, 127, 69,
63, 90, 62},
{65, 45, 63,
74, 127, 66,
43, 62, 50},
{71, 96, 72,
105, 127, 99,
105, 74, 104},
{31, 20, 27,
33, 127, 24,
19, 31, 18},
{38, 113, 34,
117, -51, 110,
56, 127, 61},
{-46, 74, -52,
-88, 126, -88,
-54, 127, -55},
{80, 98, 75,
110, 127, 98,
60, 107, 67},
{-123, -69, -127,
-67, -63, -77,
-81, -90, -80},
{59, 26, 55,
11, -127, 10,
26, -11, 24},
{39, 22, 34,
68, 127, 69,
51, 70, 47},
{103, 126, 108,
127, 127, 119,
100, 122, 99},
{127, 122, 120,
93, 26, 87,
98, 70, 88},
{72, 93, 73,
102, 127, 103,
87, 76, 80},
{9, 77, 11,
63, 127, 56,
43, 74, 44},
{31, 105, 23,
127, 94, 113,
-34, 86, -23},
{40, 39, 41,
83, 127, 79,
-3, 73, 0},
{43, 49, 31,
85, 101, 87,
49, 127, 38},
{67, 67, 66,
48, 127, 42,
71, 45, 70},
{23, 12, 23,
10, -127, 12,
26, 14, 26},
{41, 127, 57,
115, 82, 94,
61, 102, 63},
{-38, -21, -36,
6, 127, 8,
-36, -27, -35},
{58, 63, 65,
38, 127, 44,
61, 50, 55},
{33, 127, 34,
118, -48, 113,
48, 109, 53},
{11, -36, 12,
86, 127, 76,
55, 116, 50},
{-1, -9, -37,
-10, 127, -40,
1, 0, -54},
{32, 10, 31,
14, -127, 14,
26, 3, 25},
{-89, 29, -72,
103, 125, 96,
82, 127, 83},
{-10, -64, -6,
-56, -127, -55,
-9, -66, -8},
{56, 10, 57,
19, -127, 20,
66, 45, 64},
{49, -33, 47,
25, -127, 26,
51, -53, 50},
{-18, -21, -17,
-19, 127, -18,
-16, -20, -14},
{44, 55, 41,
69, -127, 62,
52, 56, 47},
{58, 52, 57,
41, -127, 47,
27, -17, 25},
{94, 52, 87,
44, -127, 53,
79, 72, 71},
{106, 101, 101,
106, 127, 93,
91, 102, 78},
{-18, -81, -22,
-75, -127, -63,
-18, -55, -26},
{52, 96, 52,
80, 127, 62,
39, 48, 40},
{34, 114, 37,
115, 127, 111,
61, 121, 56},
{69, 118, 60,
77, 127, 83,
105, -4, 99},
{-40, -86, -38,
-56, -127, -58,
-26, -84, -22},
{-32, -9, -1,
-44, 127, -9,
-50, -5, 4},
{53, 33, 52,
41, 127, 30,
66, 33, 65},
{8, 41, 5,
28, 127, 31,
8, 43, 8},
{125, 67, 117,
127, 65, 119,
108, 57, 96},
{81, 63, 75,
127, 125, 125,
95, 108, 88},
{31, 11, 31,
12, -127, 10,
31, 10, 30},
{24, 47, 16,
49, 127, 37,
15, 45, 7},
{68, 106, 73,
112, 127, 109,
87, 107, 81},
{57, 113, 55,
75, -46, 65,
63, 127, 57},
{110, 91, 95,
93, 100, 87,
127, 74, 111},
{61, 52, 56,
61, 127, 65,
53, 83, 52},
{76, 91, 66,
74, 127, 80,
72, 57, 66},
{-99, -101, -103,
-126, -126, -127,
-92, -84, -82},
{47, 71, 48,
58, 127, 60,
61, 43, 63},
{88, 55, 87,
76, 127, 76,
66, 102, 64},
{15, 81, 16,
86, 127, 71,
-13, 80, -11},
{42, 28, 37,
25, 127, 23,
34, 74, 35},
{20, 126, 22,
97, 127, 97,
27, 99, 25},
{-112, -91, -101,
-44, 34, -75,
-105, -127, -98},
{-25, -4, -24,
-6, 127, -7,
-31, -16, -31},
{115, -19, -126,
-55, 127, -14,
-104, -48, 104},
{42, 77, 36,
64, 127, 59,
28, 49, 28},
{120, 127, 104,
94, -20, 93,
126, 120, 110},
{84, 108, 82,
109, 127, 100,
85, 110, 83},
{90, 111, 94,
127, 124, 113,
65, 112, 70},
{48, 38, 49,
54, 127, 48,
43, 59, 39},
{69, 127, 67,
98, 115, 93,
60, 29, 68},
{46, 69, 43,
55, 127, 50,
18, 5, 16},
{42, 118, 34,
125, 119, 117,
13, 127, 14},
{99, 125, 89,
124, -22, 120,
76, 127, 67},
{-5, 37, -5,
24, 127, 17,
53, 96, 54},
{40, 37, 38,
33, 127, 24,
29, 21, 28},
{-115, -114, -104,
-127, -115, -121,
-103, -106, -98},
{52, 112, 52,
114, -39, 116,
74, 127, 69},
{66, 55, 63,
36, 127, 35,
73, 73, 69},
{38, 8, 37,
12, -127, 10,
31, 11, 31},
{7, 48, 11,
38, 127, 32,
23, 49, 27},
{127, 111, 117,
14, 115, 19,
-69, 25, -66},
{-15, -123, -7,
-68, -127, -64,
-14, -69, -14},
{69, 78, 71,
58, 127, 52,
58, 85, 59},
{72, 74, 65,
46, 127, 50,
74, 31, 79},
{-82, -81, -77,
-19, 40, -18,
77, 127, 73},
{97, 127, 84,
86, 61, 82,
70, 20, 71},
{-28, -97, -25,
-74, -127, -77,
-36, -70, -38},
{17, 14, 16,
17, -127, 18,
20, 17, 18},
{-9, 2, -10,
-6, 127, -1,
-70, -34, -62},
{113, 104, 106,
111, 127, 108,
90, 113, 87},
{38, 38, 39,
55, 127, 59,
41, 26, 40},
{95, 79, 76,
77, 127, 84,
78, 96, 86},
{59, 66, 58,
39, 127, 29,
29, 37, 31},
{-127, 106, -59,
97, 98, 85,
113, 112, 102},
{29, 77, 25,
50, 127, 44,
24, 65, 22},
{-37, -3, -38,
-8, 127, -9,
-34, -6, -35},
{56, 25, 53,
36, 127, 28,
45, 24, 48},
{22, 38, 27,
48, 127, 38,
20, 55, 25},
{-92, -61, -6,
-8, -23, -127,
-92, -81, -6},
{62, 55, 55,
46, 127, 50,
63, 44, 60},
{53, 70, 51,
64, 127, 60,
17, 43, 15},
{-32, -19, -31,
-16, 127, -14,
-28, -12, -28},
{-73, -91, -70,
-103, -54, -97,
-97, -127, -105},
{-106, 2, -127,
7, -95, 7,
123, 61, 120},
{118, 102, 105,
92, 127, 94,
79, 98, 65},
{78, 68, 84,
84, 127, 81,
52, 62, 57},
{15, 60, 15,
73, 127, 65,
21, 95, 19},
{56, 84, 46,
84, 127, 82,
59, 95, 52},
{100, 43, 99,
109, 127, 105,
60, 115, 66},
{85, 62, 78,
96, 116, 96,
46, 127, 40},
{63, 23, 64,
29, 127, 18,
50, 79, 50},
{18, 71, 19,
51, 127, 44,
43, 41, 46},
{32, 26, 30,
19, 127, 18,
37, 21, 35},
{10, 72, 10,
47, 127, 43,
37, 68, 41},
{11, 43, 11,
63, 127, 53,
24, 73, 22},
{70, 87, 68,
77, 127, 76,
59, 88, 52},
{46, 37, 48,
54, 127, 55,
49, 58, 55},
{79, 45, 70,
-1, 127, -1,
91, 43, 92},
{21, 13, 21,
14, 127, 11,
30, 16, 35},
{14, 39, 18,
23, 127, 24,
37, 19, 36},
{51, 77, 59,
101, 127, 100,
62, 97, 65},
{-4, -8, -3,
-127, -124, -127,
-66, -4, -77},
{73, 11, 64,
127, 117, 123,
51, 17, 48},
{61, 89, 77,
115, 109, 78,
34, 127, 76},
{-21, -94, -26,
-89, -127, -83,
-36, -95, -43},
{-52, -22, -49,
-12, 127, -10,
-27, 10, -25},
{54, 127, 55,
91, 25, 87,
31, 52, 28},
{43, 38, 44,
34, 127, 24,
50, 28, 53},
{19, 53, 21,
61, 127, 54,
31, 40, 32},
{118, 127, 106,
98, 97, 88,
100, 102, 90},
{72, 4, 73,
67, 94, 66,
65, 127, 65},
{1, 76, 1,
43, 127, 31,
50, 83, 53},
{63, 77, 54,
75, 127, 69,
59, 66, 52},
{112, 60, 103,
127, 102, 115,
18, 68, 23},
{25, 18, 23,
16, -127, 16,
24, 14, 23},
{28, 49, 29,
82, 127, 77,
33, 68, 31},
{120, 55, 127,
44, 89, 39,
-30, 66, -23},
{25, 82, 25,
76, 127, 73,
27, 84, 23},
{26, 26, 25,
57, 127, 52,
45, 62, 48},
{97, 71, 99,
41, 127, 42,
102, 69, 104},
{72, 120, 72,
127, -47, 119,
85, 125, 86},
{21, 127, 28,
94, 8, 75,
15, 86, 23},
{55, 58, 55,
51, 127, 45,
59, 26, 54},
{-27, 104, -19,
108, 127, 100,
93, 64, 88},
{80, 46, 76,
19, -127, 25,
76, 32, 71},
{21, 35, 19,
26, 127, 24,
11, 26, 11},
{73, 86, 74,
91, 127, 92,
59, 91, 56},
{47, 74, 47,
84, 127, 75,
62, 77, 61},
{30, 7, 29,
9, -127, 8,
33, 7, 33},
{31, 4, 31,
4, -127, 5,
36, -1, 34},
{24, 74, 19,
78, 127, 69,
32, 87, 27},
{108, 83, 113,
67, 45, 58,
44, -127, 46},
{-27, -40, -28,
-46, -127, -42,
-10, -52, -11},
{81, 39, 66,
127, 120, 111,
54, 20, 52},
{89, 39, 84,
97, 94, 96,
89, 127, 78},
{64, 80, 59,
15, -127, 14,
-2, -78, -6},
{-27, 121, -48,
106, 72, 96,
127, 89, 122},
{-9, 97, -8,
122, 127, 106,
47, 104, 48},
{12, 100, 4,
98, 127, 90,
9, 89, 6},
{127, 90, 117,
90, 59, 88,
106, 80, 100},
{122, 107, 118,
99, 58, 94,
127, 94, 110},
{42, 118, 47,
123, 119, 127,
68, 124, 70},
{-127, -76, -120,
-92, -44, -87,
-116, -75, -110},
{125, 85, 118,
99, 57, 96,
127, 81, 118},
{-115, -112, -101,
-88, -7, -88,
-127, -122, -115},
{127, 89, 123,
103, 54, 102,
106, 90, 109},
{126, 74, 122,
101, 39, 96,
127, 70, 125},
{-127, -71, -124,
-89, -38, -87,
-124, -72, -117},
{-127, -119, -118,
-115, -89, -113,
-117, -107, -110},
{-127, -100, -119,
-107, -75, -102,
-123, -102, -117},
{127, 104, 120,
108, 71, 105,
126, 107, 115},
{100, 69, 103,
91, 54, 98,
116, 98, 127},
{-127, -78, -123,
-92, -49, -91,
-120, -78, -116},
{-126, -83, -120,
-84, -61, -86,
-127, -103, -122},
{96, 127, 92,
112, 106, 113,
95, 112, 93},
{-127, -102, -122,
-103, -56, -98,
-104, -73, -95},
{123, 86, 120,
92, 58, 91,
127, 92, 125},
{-127, -98, -121,
-101, -75, -99,
-108, -84, -101},
{-127, -84, -119,
-91, -39, -85,
-122, -84, -114},
{127, 38, 125,
65, -48, 70,
122, 50, 123},
{124, 87, 118,
83, 52, 86,
127, 86, 116},
{122, 84, 116,
101, 51, 97,
127, 79, 118},
{-127, -97, -123,
-102, -62, -98,
-116, -84, -108},
{127, 89, 122,
92, 45, 90,
121, 87, 119},
{123, 82, 119,
85, 35, 87,
127, 82, 122},
{123, 119, 118,
127, 113, 120,
121, 111, 117},
{127, 94, 125,
101, 70, 98,
120, 88, 110},
{127, 74, 124,
80, 21, 75,
120, 83, 114},
{-121, -120, -119,
-127, -120, -117,
-123, -113, -123},
{127, 89, 119,
105, 56, 101,
118, 88, 113},
{123, 87, 119,
91, 50, 90,
127, 90, 124},
{127, 94, 119,
96, 62, 92,
105, 86, 102},
{127, 83, 123,
92, 36, 91,
122, 87, 115},
{-115, -79, -110,
-78, -49, -74,
-127, -74, -114},
{-125, -78, -116,
-92, -56, -90,
-127, -82, -120},
{121, 82, 120,
93, 57, 86,
127, 84, 119},
{127, 89, 126,
99, 48, 99,
127, 88, 124},
{127, 62, 123,
81, 26, 81,
117, 73, 112},
{124, 94, 127,
98, 64, 97,
117, 80, 114},
{-94, -122, -94,
-121, -121, -117,
-97, -127, -96},
{127, 71, 115,
90, 33, 92,
114, 57, 110},
{124, 61, 121,
85, 28, 82,
127, 72, 122},
{127, 94, 122,
106, 68, 104,
127, 101, 120},
{-127, -90, -123,
-90, -57, -87,
-107, -79, -102},
{-73, -107, -75,
-106, -127, -105,
-93, -114, -89},
{-94, -98, -92,
-101, -127, -107,
-75, -90, -73},
{85, 108, 83,
86, 77, 93,
66, 127, 67},
{119, 75, 108,
112, 62, 99,
127, 83, 118},
{-125, -80, -118,
-90, -40, -84,
-127, -78, -117},
{123, 74, 115,
106, 56, 103,
127, 87, 124},
{124, 93, 118,
107, 67, 102,
127, 98, 121},
{127, 85, 122,
89, 43, 91,
117, 87, 116},
{115, 93, 113,
82, 59, 88,
127, 121, 119},
{-127, -94, -115,
-115, -85, -108,
-117, -86, -113},
{-127, -86, -122,
-94, -53, -90,
-124, -75, -116},
{111, -42, 106,
0, -82, 1,
124, -43, 127},
{69, 105, 68,
117, -127, 119,
70, 105, 68},
{-127, -96, -116,
-103, -76, -97,
-123, -102, -116},
{-127, -89, -121,
-97, -57, -92,
-117, -82, -109},
{127, 94, 122,
94, 51, 95,
127, 94, 118},
{-107, -116, -105,
-126, -118, -123,
-95, -127, -94},
{127, 96, 117,
98, 60, 96,
113, 94, 106},
{127, 99, 123,
105, 57, 103,
126, 100, 120},
{-123, -62, -119,
-83, -33, -73,
-127, -69, -121},
{127, 85, 119,
95, 62, 91,
101, 73, 101},
{-125, -87, -119,
-100, -61, -96,
-127, -89, -118},
{127, 85, 125,
87, 44, 85,
126, 84, 122},
{124, 60, 122,
68, 13, 68,
127, 63, 124},
{-118, -80, -113,
-94, -46, -91,
-127, -93, -120},
{-127, -113, -120,
-118, -100, -113,
-123, -109, -118},
{-122, -56, -114,
-73, -26, -65,
-127, -62, -113},
{-123, -88, -120,
-103, -62, -99,
-127, -90, -117},
{127, 83, 120,
75, 36, 70,
80, 64, 72},
{127, 78, 127,
90, 51, 94,
116, 70, 114},
{121, 91, 114,
91, 45, 104,
127, 104, 122},
{125, 92, 120,
97, 63, 98,
127, 95, 121},
{-104, -127, -99,
-115, -124, -112,
-88, -103, -88},
{-127, -76, -118,
-85, -21, -78,
-125, -70, -115},
{-121, -124, -117,
-113, -120, -104,
-127, -117, -124},
{127, 92, 118,
110, 76, 106,
124, 92, 119},
{127, 93, 116,
102, 78, 110,
122, 93, 107},
{127, 91, 117,
99, 57, 97,
116, 91, 109},
{127, 105, 124,
104, 62, 99,
120, 95, 107},
{-127, -89, -118,
-90, -40, -86,
-122, -89, -111},
{114, 83, 115,
97, 55, 91,
127, 88, 120},
{127, 91, 123,
93, 57, 88,
126, 90, 117},
{127, 80, 123,
91, 38, 92,
125, 82, 122},
{127, 105, 127,
93, 57, 92,
126, 101, 117},
{-127, -85, -122,
-89, -47, -87,
-119, -80, -114},
{120, 75, 120,
78, 29, 76,
127, 74, 121},
{-125, -79, -113,
-89, -49, -85,
-127, -84, -118},
{127, 93, 126,
91, 48, 93,
127, 85, 121},
{-119, -59, -118,
-81, 6, -76,
-127, -59, -125},
{127, 96, 121,
103, 67, 97,
107, 73, 102},
{125, 71, 119,
80, 25, 77,
127, 73, 120},
{-127, -78, -120,
-90, -45, -88,
-122, -75, -117},
{105, -47, 101,
-37, -127, -29,
101, -41, 96},
{125, 74, 121,
94, 38, 90,
127, 81, 121},
{-127, -80, -122,
-90, -42, -88,
-111, -85, -104},
{-80, -121, -81,
-92, -97, -97,
-80, -127, -83},
{-94, -112, -96,
-105, -78, -103,
-88, -127, -90},
{-116, -104, -113,
-100, -98, -94,
-125, -111, -127},
{-123, -89, -120,
-93, -56, -89,
-127, -87, -123},
{127, 91, 117,
94, 49, 91,
125, 90, 110},
{-126, -89, -119,
-98, -49, -93,
-127, -93, -118},
{127, 109, 119,
121, 90, 112,
121, 109, 112},
{121, 99, 119,
96, 31, 101,
127, 110, 113},
{-127, -65, -123,
-89, -13, -84,
-121, -65, -114},
{-118, -83, -121,
-75, -63, -85,
-127, -82, -125},
{127, 53, 126,
15, -16, 19,
-2, -7, 6},
{118, 82, 112,
97, 64, 92,
127, 88, 120},
{-113, -76, -113,
-94, -41, -91,
-127, -86, -119},
{-127, -108, -117,
-117, -97, -110,
-125, -107, -119},
{127, 87, 121,
104, 59, 104,
126, 92, 120},
{-119, -107, -111,
-107, -98, -105,
-127, -109, -122},
{-127, -83, -121,
-89, -44, -83,
-127, -80, -119},
{112, 82, 108,
85, 10, 93,
127, 106, 123},
{124, 67, 119,
85, 29, 87,
120, 64, 127},
{127, 97, 119,
109, 55, 101,
117, 86, 123},
{125, 86, 122,
93, 60, 93,
127, 86, 121},
{-123, -75, -119,
-84, -37, -78,
-127, -78, -117},
{122, 72, 127,
64, 34, 60,
124, 74, 127},
{126, 91, 124,
97, 34, 97,
127, 95, 122},
{127, 82, 122,
92, 40, 93,
113, 84, 111},
{120, 79, 111,
94, 54, 87,
127, 87, 118},
{127, 96, 124,
94, 56, 89,
109, 64, 104},
{109, 94, 111,
96, 60, 95,
127, 94, 119},
{127, 87, 121,
97, 59, 100,
110, 86, 105},
{127, 92, 121,
97, 49, 92,
127, 90, 118},
{127, 84, 126,
97, 55, 94,
121, 81, 114},
{-123, -60, -119,
-87, -27, -84,
-127, -73, -121},
{127, 99, 111,
96, 57, 86,
126, 95, 114},
{-127, -113, -118,
-121, -84, -117,
-122, -113, -119},
{-127, -57, -122,
-74, -8, -68,
-125, -62, -119},
{-127, -81, -123,
-98, -52, -95,
-124, -82, -119},
{127, 73, 124,
86, 38, 84,
102, 61, 100},
{127, 90, 119,
97, 62, 94,
114, 93, 107},
{-127, -86, -117,
-93, -58, -90,
-127, -92, -119},
{-121, -102, -120,
-88, -62, -83,
-127, -107, -122},
{91, 64, 89,
88, 35, 97,
18, 127, -33},
{-127, -92, -122,
-105, -69, -101,
-123, -97, -117},
{-127, -100, -126,
-106, -78, -104,
-115, -87, -111},
{-127, -102, -116,
-124, -95, -117,
-126, -95, -112},
{126, 107, 117,
112, 81, 110,
127, 101, 120},
{127, 98, 120,
108, 74, 103,
127, 96, 120},
{-120, -84, -113,
-104, -63, -98,
-127, -89, -119},
{124, 55, 127,
67, 10, 67,
123, 69, 120},
{-127, -110, -120,
-117, -98, -111,
-118, -108, -114},
{127, 90, 123,
88, 46, 88,
122, 85, 117},
{123, 102, 120,
109, 31, 117,
115, 127, 108},
{127, 113, 116,
97, 73, 93,
112, 87, 105},
{127, 93, 120,
97, 63, 94,
121, 87, 115},
{127, 89, 116,
96, 53, 94,
120, 98, 114},
{123, 48, 127,
47, -62, 53,
94, 23, 100},
{127, 61, 127,
93, 8, 92,
120, 67, 121},
{127, 90, 120,
89, 52, 86,
117, 73, 114},
{127, 79, 121,
82, 36, 81,
126, 81, 119},
{-127, -84, -126,
-83, -26, -81,
-104, -90, -97},
{-127, -74, -120,
-84, -32, -80,
-108, -66, -104},
{119, 83, 127,
110, 67, 112,
110, 71, 105},
{-127, -87, -123,
-97, -54, -93,
-126, -90, -118},
{127, 95, 123,
104, 58, 103,
125, 94, 115},
{-124, -113, -119,
-109, -80, -110,
-127, -106, -121},
{-127, 55, -124,
57, 55, 64,
-125, 54, -126},
{127, 78, 120,
97, 47, 94,
116, 78, 112},
{113, 82, 106,
91, 46, 87,
127, 79, 125},
{127, 68, 120,
94, 41, 92,
114, 79, 109},
{122, 82, 116,
95, 59, 94,
127, 91, 121},
{-123, -119, -127,
-116, -98, -117,
-124, -119, -120},
{119, 81, 120,
108, 57, 103,
127, 86, 114},
{-78, -40, -75,
-47, 27, -44,
-127, -81, -115},
{-115, -60, -114,
-68, -24, -66,
-127, -74, -122},
{-103, -60, -98,
-76, -37, -74,
-127, -77, -117},
{0, 37, 0,
1, 38, 2,
-127, -39, -127},
{-125, -73, -123,
-89, -44, -85,
-127, -80, -123},
{-127, -95, -121,
-107, -74, -104,
-118, -88, -115},
{-127, -82, -120,
-94, -29, -90,
-122, -72, -118},
{-115, -76, -116,
-73, -35, -74,
-127, -82, -124},
{126, 47, 127,
62, -8, 62,
120, 51, 119},
{123, 96, 115,
114, 72, 109,
127, 99, 119},
{-115, -46, -109,
-88, -3, -82,
-127, -59, -117},
{119, 88, 116,
98, 56, 89,
127, 97, 114},
{-127, -65, -121,
-87, -24, -83,
-125, -68, -119},
{127, 93, 120,
90, 65, 86,
115, 96, 110},
{-123, -127, -121,
-120, -83, -122,
-122, -120, -123},
{-127, -62, -120,
-80, -23, -75,
-127, -60, -123},
{-118, -108, -116,
-127, -101, -121,
-119, -109, -110},
{-127, -83, -120,
-89, -34, -86,
-122, -81, -115},
{-122, -83, -116,
-94, -50, -89,
-127, -86, -120},
{-97, -127, -95,
-112, -78, -115,
-76, -124, -76},
{-127, -91, -122,
-94, -54, -92,
-125, -79, -121},
{-127, -95, -124,
-104, -66, -103,
-123, -87, -119},
{127, -8, -42,
14, -23, -8,
111, -1, -38},
{127, 81, 122,
93, 50, 89,
127, 81, 121},
{127, 91, 120,
94, 57, 88,
112, 83, 105},
{-121, -48, -118,
-71, -2, -68,
-127, -63, -122},
{57, 68, 55,
77, 57, 72,
127, 80, 117},
{7, 107, 11,
103, 127, 101,
32, 100, 38},
{-127, -93, -121,
-106, -70, -101,
-126, -99, -126},
{127, 89, 125,
115, 62, 105,
115, 98, 105},
{120, 89, 116,
98, 67, 94,
127, 90, 118},
{-120, -75, -123,
-83, -34, -84,
-127, -99, -125},
{127, 119, 119,
125, 102, 121,
127, 119, 122},
{-126, -79, -121,
-92, -47, -88,
-127, -79, -121},
{127, 107, 125,
106, 83, 103,
108, 115, 104},
{127, 77, 117,
100, 50, 98,
121, 81, 111},
{-124, -97, -118,
-107, -48, -105,
-127, -93, -121},
{121, 96, 124,
105, 76, 107,
127, 100, 111},
{117, 81, 111,
98, 44, 89,
127, 84, 121},
{127, 85, 120,
89, 46, 90,
121, 86, 112},
{46, 33, -126,
53, -1, -61,
49, 46, -127},
{127, 85, 121,
89, 40, 91,
122, 91, 115},
{127, 95, 122,
104, 55, 104,
119, 91, 112},
{127, 94, 120,
96, 53, 93,
119, 96, 115},
{-127, -81, -124,
-99, -56, -93,
-119, -86, -113},
{127, 86, 121,
91, 53, 90,
119, 80, 110},
{109, 68, 108,
92, 41, 92,
127, 80, 121},
{-127, -93, -124,
-95, -56, -95,
-108, -76, -105},
{127, 98, 118,
107, 77, 104,
110, 93, 106},
{-127, -111, -117,
-113, -102, -107,
-111, -101, -104},
{33, 105, 37,
77, 104, 78,
70, 127, 74},
{127, 90, 122,
99, 53, 93,
127, 87, 119},
{-126, -61, -122,
-60, -18, -58,
-127, -74, -124},
{127, 98, 121,
106, 53, 103,
124, 91, 118},
{127, 45, 127,
40, -33, 39,
105, 55, 108},
{127, 79, 122,
84, 47, 87,
126, 90, 123},
{-122, -90, -111,
-98, -65, -92,
-127, -97, -118},
{-120, -76, -114,
-90, -44, -85,
-127, -77, -122},
{-109, -112, -104,
-117, -95, -113,
-103, -127, -102},
{119, 86, 122,
95, 60, 97,
126, 81, 127},
{-127, -80, -120,
-91, -29, -91,
-124, -86, -117},
{-126, -91, -119,
-111, -76, -106,
-127, -99, -120},
{127, 87, 117,
102, 58, 99,
127, 101, 116},
{-123, -82, -118,
-93, -51, -91,
-127, -88, -121},
{-116, -117, -106,
-98, -86, -98,
-127, -109, -115},
{-127, -59, -124,
-77, 2, -74,
-124, -53, -122},
{-127, -90, -120,
-100, -62, -96,
-117, -86, -110},
{125, 89, 120,
95, 48, 96,
127, 93, 121},
{-123, -89, -116,
-102, -59, -98,
-127, -94, -123},
{127, 114, 120,
107, 92, 102,
103, 90, 100},
{127, 104, 125,
104, 71, 107,
122, 103, 118},
{127, 77, 121,
88, 50, 88,
118, 78, 112},
{127, 89, 124,
93, 52, 91,
121, 89, 114},
{-127, -90, -115,
-95, -61, -87,
-118, -84, -113},
{-118, -117, -111,
-117, -72, -108,
-127, -122, -123},
{127, 96, 119,
91, 64, 82,
118, 86, 107},
{-124, -66, -119,
-82, -16, -80,
-127, -77, -120},
{127, 86, 123,
97, 56, 95,
127, 88, 122},
{-127, -72, -121,
-93, -30, -85,
-125, -66, -119},
{124, 90, 119,
98, 57, 98,
127, 88, 123},
{-127, -109, -125,
-111, -83, -111,
-122, -115, -124},
{118, 81, 122,
103, 52, 103,
123, 81, 127},
{116, 100, 109,
108, 78, 104,
127, 101, 121},
{-86, -105, -86,
-115, -127, -117,
-79, -118, -81},
{-112, -64, -104,
-89, -39, -86,
-127, -77, -120},
{-125, -85, -118,
-104, -62, -98,
-127, -91, -119},
{127, 86, 120,
95, 49, 94,
126, 90, 122},
{127, 77, 118,
83, 38, 79,
124, 75, 117},
{117, 80, 114,
88, 33, 82,
127, 91, 118},
{115, 87, 106,
119, 77, 108,
127, 98, 105},
{-127, -85, -118,
-95, -61, -91,
-112, -78, -110},
{-122, -127, -117,
-117, -72, -112,
-100, -113, -99},
{-127, -87, -116,
-92, -56, -88,
-113, -86, -109},
{124, 82, 124,
92, 50, 92,
127, 84, 124},
{127, 91, 126,
97, 67, 100,
121, 96, 125},
{-127, -86, -123,
-84, -58, -78,
-122, -85, -116},
{127, 93, 120,
107, 56, 103,
126, 104, 123},
{121, 72, 117,
91, 59, 95,
127, 75, 117},
{124, 96, 122,
112, 88, 108,
127, 99, 124},
{127, 95, 122,
103, 66, 99,
115, 85, 112},
{-127, -98, -118,
-98, -66, -93,
-127, -101, -120},
{127, 82, 122,
100, 58, 95,
127, 90, 121},
{127, 88, 120,
93, 53, 90,
124, 88, 117},
{127, 79, 125,
92, 45, 90,
116, 85, 112},
{127, 77, 121,
90, 40, 86,
118, 76, 114},
{127, 70, 121,
75, 29, 74,
119, 66, 112},
{-127, -63, -122,
-91, -26, -84,
-125, -67, -122},
{127, 86, 120,
96, 55, 97,
118, 86, 111},
{127, 90, 118,
96, 59, 91,
113, 87, 103},
{94, 120, 93,
127, 89, 126,
90, 113, 97},
{87, 108, 89,
82, 100, 78,
92, 127, 94},
{-127, -90, -124,
-108, -69, -105,
-127, -94, -117},
{127, 80, 122,
84, 41, 84,
117, 72, 112},
{120, 95, 116,
105, 61, 100,
127, 95, 123},
{124, 82, 117,
95, 54, 93,
127, 92, 117},
{-119, -79, -116,
-86, -47, -82,
-127, -86, -122},
{118, 127, 113,
116, 87, 117,
123, 113, 116},
{127, 94, 120,
98, 52, 95,
118, 92, 111},
{-127, -51, -124,
0, 37, 1,
19, 35, 17},
{127, 84, 122,
89, 45, 89,
124, 86, 120},
{-127, -84, -122,
-96, -55, -93,
-126, -87, -121},
{125, 89, 121,
103, 60, 99,
127, 89, 121},
{-127, -89, -120,
-98, -62, -89,
-121, -87, -112},
{127, 82, 124,
87, 46, 86,
114, 75, 110},
{127, 101, 119,
104, 65, 102,
117, 93, 116},
{-117, -101, -110,
-98, -81, -93,
-127, -108, -118},
{-111, -68, -103,
-79, -45, -78,
-127, -91, -123},
{110, 89, 104,
115, 78, 107,
127, 100, 120},
{123, 98, 120,
113, 67, 112,
127, 103, 121},
{126, 33, 127,
39, -53, 41,
115, 12, 117},
{127, 80, 124,
83, 42, 81,
119, 80, 114},
{115, 100, 111,
85, 69, 90,
108, 127, 106},
{127, 89, 123,
104, 61, 97,
121, 85, 112},
{127, 84, 120,
95, 59, 97,
123, 89, 114},
{127, 87, 123,
99, 44, 97,
121, 86, 116},
{-113, -70, -104,
-86, -34, -86,
-127, -82, -126},
{-127, -86, -122,
-97, -55, -93,
-123, -85, -114},
{127, 86, 115,
108, 63, 97,
119, 78, 110},
{6, 87, 11,
81, 127, 82,
11, 87, 14},
{127, 93, 123,
97, 55, 93,
125, 86, 113},
{127, 100, 121,
105, 79, 100,
124, 104, 117},
{127, 85, 123,
89, 50, 89,
119, 86, 112},
{127, 23, 127,
38, -36, 43,
123, 22, 124},
{-127, -92, -122,
-96, -53, -92,
-125, -91, -116},
{-123, -83, -118,
-101, -66, -99,
-127, -91, -121},
{-127, -92, -122,
-95, -62, -91,
-117, -91, -111},
{-126, -75, -120,
-88, -44, -80,
-127, -76, -118},
{-127, -83, -122,
-87, -42, -82,
-120, -79, -113},
{127, 90, 123,
98, 60, 100,
122, 91, 115},
{-127, -101, -119,
-117, -83, -110,
-122, -91, -117},
{127, 101, 124,
105, 67, 100,
125, 93, 115},
{-127, -85, -119,
-88, -53, -82,
-119, -78, -114},
{118, 82, 116,
60, 16, 60,
121, 73, 127},
{-124, -12, -127,
-32, 21, -31,
-116, -22, -116},
{127, 96, 125,
95, 60, 94,
117, 77, 118},
{-127, -96, -124,
-103, -59, -101,
-124, -94, -118},
{-127, -86, -120,
-83, -52, -80,
-114, -87, -109},
{-127, -89, -124,
-88, -45, -85,
-126, -84, -123},
{124, 91, 119,
99, 54, 98,
127, 89, 119},
{127, 93, 123,
91, 65, 89,
121, 86, 113},
{-127, -97, -120,
-102, -73, -98,
-113, -86, -109},
{127, 89, 123,
96, 51, 95,
109, 86, 105},
{127, 73, 123,
106, 56, 102,
127, 73, 117},
{122, 94, 114,
109, 67, 109,
127, 95, 126},
{125, 84, 117,
94, 55, 96,
127, 86, 122},
{127, 77, 123,
94, 33, 89,
124, 79, 122},
{127, 106, 118,
115, 92, 116,
118, 109, 114},
{-98, -48, -92,
-62, -8, -60,
-127, -62, -120},
{-115, -85, -116,
-90, -59, -85,
-127, -85, -123},
{72, 127, 77,
94, 109, 95,
79, 126, 84},
{125, 77, 127,
103, 47, 102,
117, 74, 118},
{127, 97, 119,
104, 63, 102,
126, 94, 117},
{122, 78, 117,
90, 30, 88,
127, 79, 125},
{127, 50, 127,
15, -15, 15,
2, -5, 3},
{-127, -92, -124,
-103, -63, -102,
-121, -86, -115},
{-127, -90, -120,
-97, -61, -92,
-115, -87, -109},
{115, 82, 114,
92, 50, 92,
127, 91, 120},
{124, 103, 127,
104, 71, 106,
126, 103, 118},
{-11, -2, -8,
16, -12, 18,
126, 77, 127},
{-93, -125, -102,
-120, -127, -127,
-101, -116, -102},
{127, 102, 121,
101, 73, 98,
117, 94, 113},
{-127, -77, -123,
-84, -41, -82,
-114, -67, -109},
{127, 98, 122,
108, 58, 107,
120, 95, 112},
{127, 93, 125,
98, 68, 93,
124, 89, 120},
{127, 73, 123,
86, 34, 83,
116, 75, 109},
{105, 91, 101,
97, 62, 88,
127, 85, 104},
{-120, -59, -116,
-87, -3, -78,
-127, -62, -121},
{-119, -104, -116,
-118, -78, -113,
-127, -111, -114},
{127, 86, 120,
79, 30, 73,
111, 77, 104},
{-127, -73, -120,
-99, -45, -92,
-117, -66, -114},
{-122, -72, -114,
-77, -18, -74,
-127, -75, -120},
{-127, -89, -126,
-89, -54, -87,
-109, -76, -103},
{103, 118, 106,
90, 11, 94,
111, 127, 116},
{119, 82, 114,
90, 51, 91,
127, 89, 121},
{127, 93, 121,
107, 74, 105,
114, 90, 111},
{119, 78, 118,
94, 49, 97,
127, 68, 113},
{93, 89, 91,
101, 86, 95,
127, 101, 118},
{125, 91, 120,
95, 52, 93,
127, 95, 117},
{-127, -89, -123,
-95, -48, -92,
-125, -88, -119},
{111, 21, 111,
34, -96, 37,
127, 39, 127},
{124, 91, 126,
99, 69, 97,
127, 99, 119},
{-127, -91, -121,
-109, -74, -102,
-120, -90, -115},
{127, 99, 126,
113, 76, 110,
125, 95, 121},
{120, 97, 118,
88, 58, 86,
127, 98, 121},
{122, 90, 113,
94, 46, 93,
127, 89, 117},
{-118, -77, -110,
-85, -44, -82,
-127, -88, -117},
{-122, -70, -127,
-84, -29, -82,
-109, -60, -105},
{127, 98, 118,
103, 77, 100,
118, 93, 117},
{127, 84, 119,
94, 55, 88,
127, 83, 120},
{127, 82, 126,
94, 50, 93,
123, 80, 116},
{-71, -127, -71,
-116, -78, -115,
-86, -124, -89},
{-124, -95, -127,
-99, -65, -93,
-118, -84, -103},
{-127, -83, -121,
-96, -51, -90,
-121, -82, -117},
{127, 93, 119,
104, 59, 100,
123, 98, 114},
{-120, -78, -115,
-81, -39, -73,
-127, -81, -124},
{121, 98, 118,
114, 86, 109,
127, 97, 120},
{109, 46, 106,
48, -29, 50,
125, 44, 127},
{117, 77, 108,
107, 60, 98,
127, 80, 118},
{127, 111, 125,
86, 59, 86,
127, 79, 122},
{127, 105, 122,
118, 78, 117,
125, 105, 116},
{-126, -71, -118,
-95, -45, -90,
-127, -82, -120},
{-127, -89, -119,
-91, -55, -83,
-113, -86, -105},
{127, 97, 121,
90, 53, 84,
119, 96, 112},
{125, 97, 127,
109, 74, 100,
123, 91, 116},
{-127, -50, -122,
-53, 8, -52,
-127, -51, -125},
{-115, -78, -112,
-98, -54, -95,
-127, -84, -120},
{-121, -39, -116,
-55, 16, -51,
-127, -39, -123},
{121, 82, 119,
90, 55, 88,
127, 86, 117},
{-127, -65, -120,
-81, -19, -75,
-114, -62, -109},
{125, 92, 121,
102, 64, 99,
127, 94, 122},
{127, 88, 123,
93, 55, 93,
118, 88, 118},
{127, 84, 120,
102, 50, 98,
118, 79, 119},
{-127, -65, -126,
-88, -32, -84,
-105, -61, -102},
{-127, -86, -123,
-86, -42, -84,
-117, -90, -113},
{127, 86, 122,
88, 39, 86,
126, 87, 122},
{127, 88, 122,
97, 58, 92,
125, 98, 117},
{-127, -78, -122,
-93, -48, -88,
-119, -76, -115},
{127, 105, 121,
124, 104, 119,
121, 91, 113},
{123, 96, 117,
104, 58, 101,
127, 99, 119},
{-127, -65, -123,
-85, -22, -78,
-114, -57, -111},
{127, 68, 119,
92, 45, 98,
122, 68, 121},
{117, 114, 114,
127, 74, 120,
117, 126, 109},
{127, 101, 121,
112, 77, 109,
119, 95, 114},
{127, 88, 121,
95, 55, 90,
119, 80, 111},
{109, 85, 108,
95, 60, 92,
127, 87, 120},
{127, 92, 122,
105, 78, 113,
121, 101, 109},
{127, 82, 122,
96, 58, 93,
120, 90, 115},
{-126, -63, -120,
-85, -15, -80,
-127, -72, -121},
{125, 90, 122,
98, 59, 94,
127, 89, 119},
{127, 81, 119,
105, 61, 91,
121, 80, 116},
{126, 111, 127,
112, 48, 110,
107, 119, 98},
{127, 93, 122,
98, 62, 96,
121, 85, 114},
{-122, -73, -122,
-81, -24, -78,
-127, -65, -120},
{-127, -82, -125,
-93, -54, -91,
-127, -83, -120},
{127, 81, 125,
86, 35, 87,
126, 83, 122},
{-127, -81, -119,
-94, -49, -89,
-126, -75, -123},
{127, 110, 123,
108, 90, 106,
118, 108, 114},
{126, 97, 119,
104, 61, 102,
127, 94, 115},
{127, 81, 124,
93, 45, 91,
125, 73, 120},
{-127, -72, -118,
-89, -16, -85,
-111, -70, -104},
{124, 76, 123,
86, 43, 85,
127, 77, 119},
{-127, -90, -121,
-94, -57, -88,
-108, -70, -101},
{124, 82, 119,
94, 52, 91,
127, 95, 119},
{-127, -74, -121,
-88, -29, -84,
-123, -70, -116},
{127, 100, 114,
99, 51, 99,
110, 96, 101},
{127, 98, 119,
101, 67, 96,
127, 94, 117},
{127, 95, 127,
103, 68, 105,
113, 87, 102},
{127, 78, 119,
102, 56, 103,
120, 75, 120},
{-124, -66, -118,
-86, -24, -82,
-127, -63, -122},
{117, 108, 107,
127, 105, 121,
123, 112, 118},
{127, 92, 124,
116, 69, 108,
125, 90, 121},
{127, 77, 123,
87, 46, 87,
121, 74, 118},
{118, 84, 111,
93, 63, 92,
127, 88, 120},
{127, 89, 125,
98, 33, 98,
126, 89, 122},
{-83, -120, -78,
-107, -127, -105,
-78, -107, -75},
{-127, -75, -122,
-87, -37, -82,
-108, -63, -102},
{31, 127, 35,
97, 62, 97,
45, 119, 47},
{-110, -73, -105,
-80, -34, -77,
-127, -86, -120},
{127, 94, 120,
94, 53, 91,
117, 86, 112},
{-127, -100, -121,
-110, -98, -105,
-115, -119, -116},
{127, 83, 126,
89, 55, 92,
124, 89, 118},
{-127, -91, -119,
-92, -39, -88,
-122, -90, -116},
{-123, -127, -109,
-111, -121, -113,
-96, -99, -92},
{127, 91, 119,
97, 54, 98,
120, 95, 115},
{-122, -22, -120,
-45, 1, -46,
-127, -34, -125},
{120, 82, 116,
94, 71, 91,
127, 85, 122},
{127, 64, 117,
76, 33, 74,
126, 67, 111},
{-118, -80, -111,
-91, -43, -85,
-127, -84, -120},
{127, 80, 119,
95, 47, 90,
124, 82, 118},
{127, 87, 123,
100, 58, 97,
121, 86, 115},
{99, 101, 101,
102, 103, 103,
111, 127, 106},
{-124, -96, -117,
-97, -73, -96,
-127, -87, -121},
{-127, -76, -123,
-97, -47, -92,
-124, -82, -117},
{-125, -26, -127,
-52, 26, -50,
-121, -31, -120},
{-127, -81, -120,
-95, -43, -91,
-119, -74, -113},
{127, 86, 119,
99, 49, 96,
125, 81, 119},
{127, 87, 122,
95, 53, 91,
116, 72, 110},
{122, 87, 120,
89, 43, 89,
127, 90, 122},
{-127, -99, -118,
-100, -67, -93,
-113, -87, -106},
{127, 69, 119,
73, 30, 76,
120, 74, 109},
{-111, -122, -117,
-111, -127, -108,
-92, -110, -94},
{-127, -73, -126,
-76, -34, -73,
-115, -64, -110},
{-127, -62, -126,
-78, -20, -73,
-123, -66, -112},
{127, 87, 118,
91, 45, 87,
108, 75, 101},
{-126, -90, -116,
-115, -75, -107,
-127, -90, -121},
{127, 91, 120,
102, 62, 99,
119, 92, 108},
{-127, -91, -125,
-99, -58, -95,
-116, -77, -111},
{-127, -97, -120,
-93, -67, -88,
-105, -74, -99},
{127, 85, 120,
92, 47, 88,
120, 71, 111},
{-127, -61, -127,
-70, -13, -63,
-123, -59, -119},
{-125, -83, -122,
-96, -24, -89,
-127, -88, -114},
{127, 84, 123,
90, 36, 89,
122, 86, 111},
{-127, -91, -122,
-85, -54, -84,
-109, -62, -103},
{127, 99, 118,
117, 76, 104,
119, 90, 113},
{-123, -87, -118,
-104, -69, -99,
-127, -90, -120},
{121, 69, 119,
78, 24, 77,
127, 76, 120},
{127, 84, 123,
105, 51, 100,
126, 86, 119},
{77, 127, 80,
100, 108, 101,
78, 110, 80},
{-127, -70, -116,
-98, -45, -94,
-124, -74, -116},
{122, 72, 120,
84, 34, 83,
127, 75, 121},
{-127, -86, -122,
-89, -50, -87,
-112, -77, -108},
{122, 88, 113,
109, 69, 105,
127, 89, 120},
{127, 66, 122,
79, 3, 80,
121, 75, 116},
{-127, -34, -117,
-41, 0, -38,
-73, -10, -69},
{-96, -127, -96,
-102, -115, -99,
-99, -120, -98},
{124, 91, 124,
94, 52, 95,
127, 90, 125},
{116, 75, 112,
83, 26, 82,
127, 80, 123},
{127, 80, 119,
87, 30, 91,
115, 84, 110},
{127, 76, 120,
86, 52, 82,
102, 72, 105},
{-127, -78, -120,
-98, -40, -94,
-127, -84, -119},
{112, 110, 107,
127, 88, 124,
116, 114, 112},
{127, 93, 122,
90, 62, 91,
115, 85, 106},
{-127, -85, -118,
-96, -57, -90,
-117, -88, -109},
{81, 101, 80,
100, 90, 94,
127, 114, 124},
{127, 28, 127,
40, -59, 44,
124, 26, 124},
{127, 75, 123,
82, 39, 81,
122, 74, 116},
{-127, -72, -118,
-77, -19, -75,
-107, -58, -105},
{115, 114, 111,
112, 107, 111,
113, 127, 113},
{127, 86, 122,
93, 61, 92,
125, 92, 125},
{-116, -62, -108,
-87, -42, -83,
-127, -76, -121},
{-95, -115, -92,
-103, -86, -100,
-87, -127, -84},
{119, 86, 122,
89, 52, 88,
127, 79, 122},
{124, 40, 124,
59, -16, 59,
125, 52, 127},
{127, 96, 125,
107, 57, 105,
126, 82, 118},
{127, 93, 122,
95, 55, 93,
120, 89, 114},
{-127, -108, -125,
-106, -54, -101,
-125, -116, -124},
{-127, -73, -117,
-81, -40, -73,
-117, -69, -104},
{-127, -62, -123,
-79, -31, -73,
-118, -63, -114},
{120, 86, 118,
89, 9, 95,
127, 89, 120},
{123, 87, 117,
103, 50, 98,
127, 88, 121},
{127, 91, 126,
100, 48, 97,
120, 86, 123},
{127, 107, 123,
119, 101, 115,
127, 106, 121},
{-118, -68, -117,
-68, -55, -64,
-127, -70, -127},
{-127, -82, -118,
-99, -49, -92,
-114, -80, -105},
{-127, -85, -117,
-93, -45, -91,
-124, -82, -114},
{127, 98, 120,
103, 59, 101,
122, 103, 119},
{-125, -93, -123,
-97, -58, -92,
-127, -93, -123},
{121, 100, 114,
120, 99, 115,
127, 107, 121},
{-26, 3, 127,
-28, -31, 7,
-22, 4, 113},
{-127, -67, -121,
-71, -7, -68,
-125, -65, -119},
{127, 74, 125,
93, 33, 86,
117, 75, 113},
{127, 76, 120,
96, 46, 92,
120, 73, 115},
{121, 84, 115,
89, 54, 88,
127, 87, 123},
{116, 115, 119,
106, 56, 106,
125, 120, 127},
{127, 77, 112,
103, 74, 109,
119, 80, 125},
{117, 105, 114,
115, 82, 111,
127, 114, 121},
{127, 95, 119,
95, 55, 95,
125, 97, 115},
{126, 91, 116,
95, 56, 92,
127, 93, 119},
{-127, -91, -119,
-94, -56, -87,
-120, -90, -113},
{127, 87, 124,
101, 62, 100,
124, 87, 119},
{-127, -103, -120,
-91, -60, -87,
-99, -73, -96},
{71, 117, 76,
90, 93, 99,
85, 127, 84},
{117, 63, 113,
85, 25, 86,
127, 68, 124},
{-127, -73, -121,
-79, -30, -74,
-123, -82, -120},
{-127, -82, -121,
-93, -49, -90,
-124, -79, -117},
{120, 115, 119,
114, 70, 112,
127, 105, 124},
{-127, -110, -125,
-91, -60, -90,
-110, -96, -102},
{-123, -92, -116,
-103, -72, -97,
-127, -89, -117},
{125, 102, 121,
111, 80, 109,
127, 103, 123},
{127, 64, 125,
100, 44, 100,
122, 64, 110},
{127, 88, 126,
101, 65, 97,
124, 95, 122},
{-127, -94, -122,
-104, -40, -101,
-120, -97, -115},
{-127, -105, -118,
-119, -97, -113,
-127, -115, -122},
{124, 89, 127,
93, 56, 89,
117, 89, 112},
{123, 92, 116,
99, 44, 97,
127, 94, 118},
{127, 108, 125,
88, 24, 90,
121, 100, 117},
{127, 112, 115,
105, 88, 97,
116, 110, 108},
{60, 94, 64,
90, 127, 86,
66, 97, 72},
{127, 59, 123,
74, 8, 73,
124, 60, 123},
{-125, -88, -120,
-113, -77, -111,
-127, -98, -121},
{-120, -77, -115,
-90, -47, -86,
-127, -85, -120},
{122, 85, 116,
93, 49, 93,
127, 94, 117},
{-127, -96, -122,
-105, -63, -98,
-119, -85, -111},
{-105, -107, -101,
-115, -101, -116,
-113, -127, -109},
{123, 97, 127,
111, 78, 112,
126, 108, 126},
{127, 97, 123,
99, 58, 93,
116, 67, 112},
{127, 85, 115,
95, 56, 93,
124, 87, 111},
{125, 87, 121,
91, 47, 88,
127, 84, 121},
{127, 93, 123,
109, 74, 107,
124, 94, 119},
{-127, -78, -120,
-80, -41, -78,
-116, -71, -110},
{-127, -72, -125,
-88, -23, -83,
-127, -74, -123},
{-124, -68, -120,
-98, -11, -94,
-127, -77, -120},
{127, 99, 121,
99, 59, 96,
118, 94, 114},
{127, 117, 122,
110, 75, 112,
119, 109, 113},
{123, 20, 125,
31, -75, 33,
124, 26, 127},
{-116, -84, -107,
-102, -62, -94,
-127, -84, -118},
{111, 126, 106,
119, 84, 118,
127, 118, 124},
{-92, -93, -92,
-98, -127, -97,
-94, -103, -92},
{124, 71, 115,
90, 46, 87,
127, 88, 120},
{127, 93, 125,
101, 58, 103,
120, 94, 112},
{127, 81, 122,
93, 49, 92,
117, 85, 111},
{-127, -83, -119,
-88, -46, -84,
-110, -76, -109},
{-127, -86, -119,
-99, -60, -92,
-125, -88, -117},
{40, 81, 51,
89, 82, 81,
127, 77, 124},
{127, 86, 119,
94, 57, 89,
121, 98, 114},
{127, 82, 124,
95, 50, 91,
125, 83, 118},
{127, 100, 120,
97, 50, 97,
122, 93, 114},
{-79, -113, -80,
-114, -114, -109,
-85, -127, -91},
{-120, -75, -114,
-92, -44, -87,
-127, -78, -120},
{127, 59, 125,
84, 20, 83,
119, 74, 111},
{-127, -89, -120,
-92, -59, -87,
-117, -81, -112},
{127, 89, 124,
95, 50, 88,
120, 84, 109},
{127, 90, 124,
111, 64, 103,
118, 88, 114},
{-127, -9, -126,
3, 8, 3,
2, 26, 1},
{125, 101, 127,
116, 65, 112,
124, 110, 122},
{-125, -85, -123,
-80, -34, -78,
-126, -99, -127},
{127, 112, 123,
96, 71, 89,
123, 107, 122},
{127, 87, 119,
103, 65, 98,
123, 88, 114},
{127, 92, 123,
96, 62, 92,
123, 89, 119},
{-88, -73, -84,
-81, -75, -76,
-127, -97, -122},
{115, 63, 119,
58, 8, 58,
121, 74, 127},
{-127, -96, -126,
-103, -73, -102,
-118, -104, -115},
{-127, -72, -117,
-75, -30, -69,
-125, -69, -118},
{123, 103, 117,
111, 66, 98,
127, 107, 118},
{-127, -76, -125,
-94, -35, -91,
-126, -74, -118},
{127, 80, 120,
88, 49, 88,
121, 77, 117},
{-125, -66, -127,
-65, -18, -59,
-118, -69, -118},
{120, 78, 118,
85, 37, 90,
127, 86, 120},
{127, 103, 123,
114, 75, 110,
121, 97, 113},
{-127, -75, -121,
-81, -36, -75,
-109, -63, -103},
{-127, -80, -122,
-97, -45, -90,
-123, -79, -118},
{-127, -86, -120,
-92, -53, -89,
-119, -85, -116},
{91, 110, 95,
72, 38, 70,
78, 127, 87},
{125, 73, 127,
75, 37, 76,
121, 74, 118},
{122, 94, 123,
116, 87, 114,
127, 106, 114},
{127, 87, 123,
93, 50, 89,
127, 76, 122},
{-118, -62, -118,
-64, -23, -60,
-124, -58, -127},
{127, 98, 123,
110, 68, 108,
119, 97, 115},
{127, 94, 124,
94, 48, 96,
124, 89, 119},
{127, 100, 115,
102, 82, 99,
114, 95, 118},
{127, 74, 124,
88, 40, 85,
125, 82, 122},
{-127, -104, -115,
-120, -106, -113,
-113, -107, -108},
{117, 100, 119,
107, 59, 105,
127, 101, 120},
{-68, -106, -69,
-108, -127, -101,
-83, -108, -85},
{-127, -90, -123,
-103, -61, -100,
-126, -87, -120},
{-126, -90, -118,
-103, -66, -98,
-127, -92, -120},
{127, 80, 119,
121, 56, 119,
121, 85, 127},
{127, 98, 120,
118, 80, 113,
119, 94, 111},
{127, 98, 124,
98, 56, 98,
114, 93, 111},
{127, 6, -11,
4, -36, -39,
122, 3, -8},
{127, 88, 123,
104, 62, 99,
124, 86, 118},
{125, 115, 125,
90, 78, 86,
127, 118, 127},
{127, 102, 124,
104, 71, 101,
119, 95, 117},
{-102, -113, -97,
-127, -109, -121,
-104, -117, -101},
{-120, -87, -113,
-106, -65, -103,
-127, -91, -121},
{127, 96, 124,
111, 73, 105,
120, 80, 113},
{124, 87, 118,
115, 70, 111,
127, 93, 110},
{-127, -71, -125,
-90, -27, -88,
-120, -68, -112},
{127, 69, 127,
64, 1, 68,
123, 70, 121},
{-127, -97, -118,
-96, -74, -88,
-112, -88, -105},
{127, 78, 121,
94, 46, 94,
121, 73, 115},
{127, 65, 123,
75, 21, 74,
127, 71, 123},
{120, 80, 116,
90, 51, 85,
127, 88, 121},
{-127, -94, -122,
-105, -64, -97,
-118, -89, -112},
{124, 84, 120,
92, 46, 88,
127, 83, 117},
{127, 94, 122,
103, 61, 99,
120, 94, 110},
{-127, -107, -124,
-115, -98, -108,
-127, -115, -117},
{127, 86, 119,
95, 49, 93,
119, 89, 117},
{127, 82, 117,
97, 63, 95,
123, 88, 117},
{-127, -32, -113,
-40, -11, -36,
-84, -22, -74},
{91, -37, 89,
-25, -127, -13,
120, -24, 112},
{-127, -71, -118,
-81, -31, -77,
-125, -59, -116},
{127, 108, 119,
109, 77, 108,
125, 106, 122},
{127, 101, 120,
98, 61, 96,
120, 88, 114},
{127, 91, 119,
95, 52, 91,
126, 88, 115},
{127, 94, 122,
96, 55, 99,
120, 88, 118},
{126, 88, 120,
94, 44, 95,
127, 84, 118},
{-127, -105, -125,
-91, -77, -93,
-101, -98, -98},
{-127, -73, -121,
-96, -31, -90,
-115, -73, -108},
{127, 90, 122,
105, 66, 101,
123, 90, 118},
{-114, -103, -113,
-113, -86, -110,
-127, -113, -124},
{124, 79, 116,
85, 39, 83,
127, 84, 118},
{127, 74, 124,
82, 31, 84,
121, 75, 114},
{127, 91, 117,
99, 60, 90,
123, 89, 112},
{-124, -90, -116,
-111, -74, -106,
-127, -93, -118},
{-127, -84, -119,
-88, -37, -85,
-122, -83, -115},
{-122, -72, -115,
-79, -38, -70,
-127, -69, -120},
{-124, -73, -127,
-79, -56, -86,
-118, -81, -118},
{127, 107, 116,
107, 82, 106,
120, 107, 125},
{126, 92, 121,
94, 55, 96,
127, 93, 117},
{-112, -70, -111,
-76, -51, -71,
-127, -73, -123},
{-127, -53, -118,
-76, -29, -73,
-118, -67, -112},
{125, 110, 127,
107, 65, 107,
114, 102, 113},
{127, 79, 120,
84, 49, 80,
113, 71, 113},
{123, 111, 120,
116, 68, 115,
127, 118, 122},
{127, 81, 117,
94, 55, 93,
106, 79, 99},
{-124, -69, -116,
-87, -42, -84,
-127, -64, -122},
{-11, 127, 84,
127, 66, 94,
110, 88, 106},
{-101, -107, -107,
-85, -49, -77,
-120, -124, -127},
{-127, -109, -121,
-116, -106, -116,
-120, -104, -115},
{124, 89, 121,
104, 50, 100,
127, 96, 120},
{-127, -96, -121,
-95, -59, -91,
-122, -85, -116},
{127, 86, 120,
86, 53, 87,
113, 84, 104},
{127, 67, 118,
91, 39, 97,
114, 64, 119},
{107, 127, 111,
106, 98, 102,
109, 116, 121},
{127, 69, 124,
79, 25, 76,
110, 50, 103},
{127, 83, 127,
89, 40, 84,
123, 84, 119},
{-120, -100, -119,
-127, -81, -121,
-116, -111, -114},
{127, 73, 120,
98, 54, 91,
124, 71, 111},
{-94, -112, -90,
-106, -127, -104,
-116, -114, -107},
{-127, -99, -117,
-114, -76, -106,
-126, -90, -117},
{127, 86, 127,
81, 34, 82,
116, 83, 115},
{-127, -100, -119,
-99, -60, -99,
-113, -96, -110},
{-127, -86, -124,
-91, -53, -88,
-106, -70, -99},
{-117, -80, -113,
-89, -44, -87,
-127, -84, -123},
{-117, -53, -114,
-74, -15, -70,
-127, -68, -118},
{-127, -87, -124,
-97, -71, -95,
-109, -85, -104},
{-127, -83, -123,
-89, -43, -87,
-113, -70, -109},
{127, 91, 122,
114, 75, 113,
115, 95, 112},
{-121, -38, -120,
-40, -7, -38,
-127, -42, -127},
{123, 88, 118,
98, 57, 93,
127, 84, 122},
{-127, -84, -124,
-93, -40, -91,
-104, -66, -100},
{-125, -63, -119,
-72, -22, -66,
-127, -67, -121},
{127, 79, 122,
91, 36, 88,
109, 67, 103},
{127, 97, 115,
106, 84, 104,
116, 102, 115},
{127, 99, 120,
107, 70, 103,
121, 100, 117},
{-126, -76, -120,
-95, -43, -91,
-127, -79, -120},
{-117, -107, -110,
-103, -75, -95,
-127, -108, -119},
{104, 117, 101,
119, 63, 117,
104, 127, 103},
{-127, -61, -123,
-77, -13, -72,
-117, -64, -112},
{127, 85, 119,
97, 61, 93,
121, 94, 115},
};
const static int dw_layers_weights_offsets[] ={0, 0, 0, 24, 24, 24, 24, 40, 40, 40, 56, 56, 56, 56, 56, 64, 0, 0, 8, 8, 8, 8, 16, 16, 16, 16, 16, 24, 24, 24, 32, 32, 32, 32, 40, 40, 40, 40, 48, 48, 48, 48, 64, 64, 64, 72, 72, 72, 72, 80, 80, 80, 80, 80, 520, 520, 520, 704, 704, 704, 704, 920, 920, 920, 920, 1632, 1632, 1632, 1632, 1632, 1632, 1632, 0};
#endif
#endif
